~h "ap"
<BEGINHMM>
<NUMSTATES> 5
<STATE> 2
<MEAN> 39
 -8.965513e+00 -6.748142e-01 -8.692636e-02 -2.157465e+00 6.916966e-01 9.824691e-01 2.215127e+00 5.223517e-01 -3.216007e-01 1.362033e-01 2.494263e-01 -1.633079e+00 5.218451e+01 8.290198e-05 1.101643e-04 1.344548e-05 6.353562e-05 7.290264e-05 8.145136e-05 1.488016e-05 4.478611e-05 2.401873e-05 1.144728e-04 8.425990e-08 -1.483066e-05 -2.753428e-04 -9.105418e-07 -1.047024e-05 -1.989568e-05 2.911435e-06 -1.012880e-05 -2.307480e-05 -2.524579e-05 -1.625151e-05 -2.949353e-05 -4.232262e-07 -2.095878e-05 -8.327937e-08 -2.588051e-05
<VARIANCE> 39
 3.853650e+01 2.695961e+01 2.433259e+01 2.159538e+01 2.600316e+01 3.320166e+01 2.614411e+01 2.966930e+01 2.545540e+01 2.228770e+01 2.430603e+01 2.270815e+01 6.652243e+01 4.869764e-01 5.387834e-01 6.360155e-01 8.571807e-01 1.163250e+00 1.389580e+00 1.451488e+00 1.557390e+00 1.579558e+00 1.552131e+00 1.452647e+00 1.289682e+00 8.543953e-01 8.164148e-02 9.374531e-02 1.194044e-01 1.658097e-01 2.266348e-01 2.745484e-01 2.889483e-01 3.098329e-01 3.184133e-01 3.152458e-01 2.941188e-01 2.604994e-01 1.264065e-01
<GCONST> 9.495138e+01
<STATE> 3
<MEAN> 39
 -8.965513e+00 -6.748142e-01 -8.692636e-02 -2.157465e+00 6.916966e-01 9.824691e-01 2.215127e+00 5.223517e-01 -3.216007e-01 1.362033e-01 2.494263e-01 -1.633079e+00 5.218451e+01 8.290198e-05 1.101643e-04 1.344548e-05 6.353562e-05 7.290264e-05 8.145136e-05 1.488016e-05 4.478611e-05 2.401873e-05 1.144728e-04 8.425990e-08 -1.483066e-05 -2.753428e-04 -9.105418e-07 -1.047024e-05 -1.989568e-05 2.911435e-06 -1.012880e-05 -2.307480e-05 -2.524579e-05 -1.625151e-05 -2.949353e-05 -4.232262e-07 -2.095878e-05 -8.327937e-08 -2.588051e-05
<VARIANCE> 39
 3.853650e+01 2.695961e+01 2.433259e+01 2.159538e+01 2.600316e+01 3.320166e+01 2.614411e+01 2.966930e+01 2.545540e+01 2.228770e+01 2.430603e+01 2.270815e+01 6.652243e+01 4.869764e-01 5.387834e-01 6.360155e-01 8.571807e-01 1.163250e+00 1.389580e+00 1.451488e+00 1.557390e+00 1.579558e+00 1.552131e+00 1.452647e+00 1.289682e+00 8.543953e-01 8.164148e-02 9.374531e-02 1.194044e-01 1.658097e-01 2.266348e-01 2.745484e-01 2.889483e-01 3.098329e-01 3.184133e-01 3.152458e-01 2.941188e-01 2.604994e-01 1.264065e-01
<GCONST> 9.495138e+01
<STATE> 4
<MEAN> 39
 -8.965513e+00 -6.748142e-01 -8.692636e-02 -2.157465e+00 6.916966e-01 9.824691e-01 2.215127e+00 5.223517e-01 -3.216007e-01 1.362033e-01 2.494263e-01 -1.633079e+00 5.218451e+01 8.290198e-05 1.101643e-04 1.344548e-05 6.353562e-05 7.290264e-05 8.145136e-05 1.488016e-05 4.478611e-05 2.401873e-05 1.144728e-04 8.425990e-08 -1.483066e-05 -2.753428e-04 -9.105418e-07 -1.047024e-05 -1.989568e-05 2.911435e-06 -1.012880e-05 -2.307480e-05 -2.524579e-05 -1.625151e-05 -2.949353e-05 -4.232262e-07 -2.095878e-05 -8.327937e-08 -2.588051e-05
<VARIANCE> 39
 3.853650e+01 2.695961e+01 2.433259e+01 2.159538e+01 2.600316e+01 3.320166e+01 2.614411e+01 2.966930e+01 2.545540e+01 2.228770e+01 2.430603e+01 2.270815e+01 6.652243e+01 4.869764e-01 5.387834e-01 6.360155e-01 8.571807e-01 1.163250e+00 1.389580e+00 1.451488e+00 1.557390e+00 1.579558e+00 1.552131e+00 1.452647e+00 1.289682e+00 8.543953e-01 8.164148e-02 9.374531e-02 1.194044e-01 1.658097e-01 2.266348e-01 2.745484e-01 2.889483e-01 3.098329e-01 3.184133e-01 3.152458e-01 2.941188e-01 2.604994e-01 1.264065e-01
<GCONST> 9.495138e+01
<TRANSP> 5
 0.000000e+00 1.000000e+00 0.000000e+00 0.000000e+00 0.000000e+00
 0.000000e+00 6.000000e-01 4.000000e-01 0.000000e+00 0.000000e+00
 0.000000e+00 0.000000e+00 6.000000e-01 4.000000e-01 0.000000e+00
 0.000000e+00 0.000000e+00 0.000000e+00 7.000000e-01 3.000000e-01
 0.000000e+00 0.000000e+00 0.000000e+00 0.000000e+00 0.000000e+00
<ENDHMM>
~h "cm"
<BEGINHMM>
<NUMSTATES> 5
<STATE> 2
<MEAN> 39
 -8.965513e+00 -6.748142e-01 -8.692636e-02 -2.157465e+00 6.916966e-01 9.824691e-01 2.215127e+00 5.223517e-01 -3.216007e-01 1.362033e-01 2.494263e-01 -1.633079e+00 5.218451e+01 8.290198e-05 1.101643e-04 1.344548e-05 6.353562e-05 7.290264e-05 8.145136e-05 1.488016e-05 4.478611e-05 2.401873e-05 1.144728e-04 8.425990e-08 -1.483066e-05 -2.753428e-04 -9.105418e-07 -1.047024e-05 -1.989568e-05 2.911435e-06 -1.012880e-05 -2.307480e-05 -2.524579e-05 -1.625151e-05 -2.949353e-05 -4.232262e-07 -2.095878e-05 -8.327937e-08 -2.588051e-05
<VARIANCE> 39
 3.853650e+01 2.695961e+01 2.433259e+01 2.159538e+01 2.600316e+01 3.320166e+01 2.614411e+01 2.966930e+01 2.545540e+01 2.228770e+01 2.430603e+01 2.270815e+01 6.652243e+01 4.869764e-01 5.387834e-01 6.360155e-01 8.571807e-01 1.163250e+00 1.389580e+00 1.451488e+00 1.557390e+00 1.579558e+00 1.552131e+00 1.452647e+00 1.289682e+00 8.543953e-01 8.164148e-02 9.374531e-02 1.194044e-01 1.658097e-01 2.266348e-01 2.745484e-01 2.889483e-01 3.098329e-01 3.184133e-01 3.152458e-01 2.941188e-01 2.604994e-01 1.264065e-01
<GCONST> 9.495138e+01
<STATE> 3
<MEAN> 39
 -8.965513e+00 -6.748142e-01 -8.692636e-02 -2.157465e+00 6.916966e-01 9.824691e-01 2.215127e+00 5.223517e-01 -3.216007e-01 1.362033e-01 2.494263e-01 -1.633079e+00 5.218451e+01 8.290198e-05 1.101643e-04 1.344548e-05 6.353562e-05 7.290264e-05 8.145136e-05 1.488016e-05 4.478611e-05 2.401873e-05 1.144728e-04 8.425990e-08 -1.483066e-05 -2.753428e-04 -9.105418e-07 -1.047024e-05 -1.989568e-05 2.911435e-06 -1.012880e-05 -2.307480e-05 -2.524579e-05 -1.625151e-05 -2.949353e-05 -4.232262e-07 -2.095878e-05 -8.327937e-08 -2.588051e-05
<VARIANCE> 39
 3.853650e+01 2.695961e+01 2.433259e+01 2.159538e+01 2.600316e+01 3.320166e+01 2.614411e+01 2.966930e+01 2.545540e+01 2.228770e+01 2.430603e+01 2.270815e+01 6.652243e+01 4.869764e-01 5.387834e-01 6.360155e-01 8.571807e-01 1.163250e+00 1.389580e+00 1.451488e+00 1.557390e+00 1.579558e+00 1.552131e+00 1.452647e+00 1.289682e+00 8.543953e-01 8.164148e-02 9.374531e-02 1.194044e-01 1.658097e-01 2.266348e-01 2.745484e-01 2.889483e-01 3.098329e-01 3.184133e-01 3.152458e-01 2.941188e-01 2.604994e-01 1.264065e-01
<GCONST> 9.495138e+01
<STATE> 4
<MEAN> 39
 -8.965513e+00 -6.748142e-01 -8.692636e-02 -2.157465e+00 6.916966e-01 9.824691e-01 2.215127e+00 5.223517e-01 -3.216007e-01 1.362033e-01 2.494263e-01 -1.633079e+00 5.218451e+01 8.290198e-05 1.101643e-04 1.344548e-05 6.353562e-05 7.290264e-05 8.145136e-05 1.488016e-05 4.478611e-05 2.401873e-05 1.144728e-04 8.425990e-08 -1.483066e-05 -2.753428e-04 -9.105418e-07 -1.047024e-05 -1.989568e-05 2.911435e-06 -1.012880e-05 -2.307480e-05 -2.524579e-05 -1.625151e-05 -2.949353e-05 -4.232262e-07 -2.095878e-05 -8.327937e-08 -2.588051e-05
<VARIANCE> 39
 3.853650e+01 2.695961e+01 2.433259e+01 2.159538e+01 2.600316e+01 3.320166e+01 2.614411e+01 2.966930e+01 2.545540e+01 2.228770e+01 2.430603e+01 2.270815e+01 6.652243e+01 4.869764e-01 5.387834e-01 6.360155e-01 8.571807e-01 1.163250e+00 1.389580e+00 1.451488e+00 1.557390e+00 1.579558e+00 1.552131e+00 1.452647e+00 1.289682e+00 8.543953e-01 8.164148e-02 9.374531e-02 1.194044e-01 1.658097e-01 2.266348e-01 2.745484e-01 2.889483e-01 3.098329e-01 3.184133e-01 3.152458e-01 2.941188e-01 2.604994e-01 1.264065e-01
<GCONST> 9.495138e+01
<TRANSP> 5
 0.000000e+00 1.000000e+00 0.000000e+00 0.000000e+00 0.000000e+00
 0.000000e+00 6.000000e-01 4.000000e-01 0.000000e+00 0.000000e+00
 0.000000e+00 0.000000e+00 6.000000e-01 4.000000e-01 0.000000e+00
 0.000000e+00 0.000000e+00 0.000000e+00 7.000000e-01 3.000000e-01
 0.000000e+00 0.000000e+00 0.000000e+00 0.000000e+00 0.000000e+00
<ENDHMM>
~h "co"
<BEGINHMM>
<NUMSTATES> 5
<STATE> 2
<MEAN> 39
 -8.965513e+00 -6.748142e-01 -8.692636e-02 -2.157465e+00 6.916966e-01 9.824691e-01 2.215127e+00 5.223517e-01 -3.216007e-01 1.362033e-01 2.494263e-01 -1.633079e+00 5.218451e+01 8.290198e-05 1.101643e-04 1.344548e-05 6.353562e-05 7.290264e-05 8.145136e-05 1.488016e-05 4.478611e-05 2.401873e-05 1.144728e-04 8.425990e-08 -1.483066e-05 -2.753428e-04 -9.105418e-07 -1.047024e-05 -1.989568e-05 2.911435e-06 -1.012880e-05 -2.307480e-05 -2.524579e-05 -1.625151e-05 -2.949353e-05 -4.232262e-07 -2.095878e-05 -8.327937e-08 -2.588051e-05
<VARIANCE> 39
 3.853650e+01 2.695961e+01 2.433259e+01 2.159538e+01 2.600316e+01 3.320166e+01 2.614411e+01 2.966930e+01 2.545540e+01 2.228770e+01 2.430603e+01 2.270815e+01 6.652243e+01 4.869764e-01 5.387834e-01 6.360155e-01 8.571807e-01 1.163250e+00 1.389580e+00 1.451488e+00 1.557390e+00 1.579558e+00 1.552131e+00 1.452647e+00 1.289682e+00 8.543953e-01 8.164148e-02 9.374531e-02 1.194044e-01 1.658097e-01 2.266348e-01 2.745484e-01 2.889483e-01 3.098329e-01 3.184133e-01 3.152458e-01 2.941188e-01 2.604994e-01 1.264065e-01
<GCONST> 9.495138e+01
<STATE> 3
<MEAN> 39
 -8.965513e+00 -6.748142e-01 -8.692636e-02 -2.157465e+00 6.916966e-01 9.824691e-01 2.215127e+00 5.223517e-01 -3.216007e-01 1.362033e-01 2.494263e-01 -1.633079e+00 5.218451e+01 8.290198e-05 1.101643e-04 1.344548e-05 6.353562e-05 7.290264e-05 8.145136e-05 1.488016e-05 4.478611e-05 2.401873e-05 1.144728e-04 8.425990e-08 -1.483066e-05 -2.753428e-04 -9.105418e-07 -1.047024e-05 -1.989568e-05 2.911435e-06 -1.012880e-05 -2.307480e-05 -2.524579e-05 -1.625151e-05 -2.949353e-05 -4.232262e-07 -2.095878e-05 -8.327937e-08 -2.588051e-05
<VARIANCE> 39
 3.853650e+01 2.695961e+01 2.433259e+01 2.159538e+01 2.600316e+01 3.320166e+01 2.614411e+01 2.966930e+01 2.545540e+01 2.228770e+01 2.430603e+01 2.270815e+01 6.652243e+01 4.869764e-01 5.387834e-01 6.360155e-01 8.571807e-01 1.163250e+00 1.389580e+00 1.451488e+00 1.557390e+00 1.579558e+00 1.552131e+00 1.452647e+00 1.289682e+00 8.543953e-01 8.164148e-02 9.374531e-02 1.194044e-01 1.658097e-01 2.266348e-01 2.745484e-01 2.889483e-01 3.098329e-01 3.184133e-01 3.152458e-01 2.941188e-01 2.604994e-01 1.264065e-01
<GCONST> 9.495138e+01
<STATE> 4
<MEAN> 39
 -8.965513e+00 -6.748142e-01 -8.692636e-02 -2.157465e+00 6.916966e-01 9.824691e-01 2.215127e+00 5.223517e-01 -3.216007e-01 1.362033e-01 2.494263e-01 -1.633079e+00 5.218451e+01 8.290198e-05 1.101643e-04 1.344548e-05 6.353562e-05 7.290264e-05 8.145136e-05 1.488016e-05 4.478611e-05 2.401873e-05 1.144728e-04 8.425990e-08 -1.483066e-05 -2.753428e-04 -9.105418e-07 -1.047024e-05 -1.989568e-05 2.911435e-06 -1.012880e-05 -2.307480e-05 -2.524579e-05 -1.625151e-05 -2.949353e-05 -4.232262e-07 -2.095878e-05 -8.327937e-08 -2.588051e-05
<VARIANCE> 39
 3.853650e+01 2.695961e+01 2.433259e+01 2.159538e+01 2.600316e+01 3.320166e+01 2.614411e+01 2.966930e+01 2.545540e+01 2.228770e+01 2.430603e+01 2.270815e+01 6.652243e+01 4.869764e-01 5.387834e-01 6.360155e-01 8.571807e-01 1.163250e+00 1.389580e+00 1.451488e+00 1.557390e+00 1.579558e+00 1.552131e+00 1.452647e+00 1.289682e+00 8.543953e-01 8.164148e-02 9.374531e-02 1.194044e-01 1.658097e-01 2.266348e-01 2.745484e-01 2.889483e-01 3.098329e-01 3.184133e-01 3.152458e-01 2.941188e-01 2.604994e-01 1.264065e-01
<GCONST> 9.495138e+01
<TRANSP> 5
 0.000000e+00 1.000000e+00 0.000000e+00 0.000000e+00 0.000000e+00
 0.000000e+00 6.000000e-01 4.000000e-01 0.000000e+00 0.000000e+00
 0.000000e+00 0.000000e+00 6.000000e-01 4.000000e-01 0.000000e+00
 0.000000e+00 0.000000e+00 0.000000e+00 7.000000e-01 3.000000e-01
 0.000000e+00 0.000000e+00 0.000000e+00 0.000000e+00 0.000000e+00
<ENDHMM>
~h "ds"
<BEGINHMM>
<NUMSTATES> 5
<STATE> 2
<MEAN> 39
 -8.965513e+00 -6.748142e-01 -8.692636e-02 -2.157465e+00 6.916966e-01 9.824691e-01 2.215127e+00 5.223517e-01 -3.216007e-01 1.362033e-01 2.494263e-01 -1.633079e+00 5.218451e+01 8.290198e-05 1.101643e-04 1.344548e-05 6.353562e-05 7.290264e-05 8.145136e-05 1.488016e-05 4.478611e-05 2.401873e-05 1.144728e-04 8.425990e-08 -1.483066e-05 -2.753428e-04 -9.105418e-07 -1.047024e-05 -1.989568e-05 2.911435e-06 -1.012880e-05 -2.307480e-05 -2.524579e-05 -1.625151e-05 -2.949353e-05 -4.232262e-07 -2.095878e-05 -8.327937e-08 -2.588051e-05
<VARIANCE> 39
 3.853650e+01 2.695961e+01 2.433259e+01 2.159538e+01 2.600316e+01 3.320166e+01 2.614411e+01 2.966930e+01 2.545540e+01 2.228770e+01 2.430603e+01 2.270815e+01 6.652243e+01 4.869764e-01 5.387834e-01 6.360155e-01 8.571807e-01 1.163250e+00 1.389580e+00 1.451488e+00 1.557390e+00 1.579558e+00 1.552131e+00 1.452647e+00 1.289682e+00 8.543953e-01 8.164148e-02 9.374531e-02 1.194044e-01 1.658097e-01 2.266348e-01 2.745484e-01 2.889483e-01 3.098329e-01 3.184133e-01 3.152458e-01 2.941188e-01 2.604994e-01 1.264065e-01
<GCONST> 9.495138e+01
<STATE> 3
<MEAN> 39
 -8.965513e+00 -6.748142e-01 -8.692636e-02 -2.157465e+00 6.916966e-01 9.824691e-01 2.215127e+00 5.223517e-01 -3.216007e-01 1.362033e-01 2.494263e-01 -1.633079e+00 5.218451e+01 8.290198e-05 1.101643e-04 1.344548e-05 6.353562e-05 7.290264e-05 8.145136e-05 1.488016e-05 4.478611e-05 2.401873e-05 1.144728e-04 8.425990e-08 -1.483066e-05 -2.753428e-04 -9.105418e-07 -1.047024e-05 -1.989568e-05 2.911435e-06 -1.012880e-05 -2.307480e-05 -2.524579e-05 -1.625151e-05 -2.949353e-05 -4.232262e-07 -2.095878e-05 -8.327937e-08 -2.588051e-05
<VARIANCE> 39
 3.853650e+01 2.695961e+01 2.433259e+01 2.159538e+01 2.600316e+01 3.320166e+01 2.614411e+01 2.966930e+01 2.545540e+01 2.228770e+01 2.430603e+01 2.270815e+01 6.652243e+01 4.869764e-01 5.387834e-01 6.360155e-01 8.571807e-01 1.163250e+00 1.389580e+00 1.451488e+00 1.557390e+00 1.579558e+00 1.552131e+00 1.452647e+00 1.289682e+00 8.543953e-01 8.164148e-02 9.374531e-02 1.194044e-01 1.658097e-01 2.266348e-01 2.745484e-01 2.889483e-01 3.098329e-01 3.184133e-01 3.152458e-01 2.941188e-01 2.604994e-01 1.264065e-01
<GCONST> 9.495138e+01
<STATE> 4
<MEAN> 39
 -8.965513e+00 -6.748142e-01 -8.692636e-02 -2.157465e+00 6.916966e-01 9.824691e-01 2.215127e+00 5.223517e-01 -3.216007e-01 1.362033e-01 2.494263e-01 -1.633079e+00 5.218451e+01 8.290198e-05 1.101643e-04 1.344548e-05 6.353562e-05 7.290264e-05 8.145136e-05 1.488016e-05 4.478611e-05 2.401873e-05 1.144728e-04 8.425990e-08 -1.483066e-05 -2.753428e-04 -9.105418e-07 -1.047024e-05 -1.989568e-05 2.911435e-06 -1.012880e-05 -2.307480e-05 -2.524579e-05 -1.625151e-05 -2.949353e-05 -4.232262e-07 -2.095878e-05 -8.327937e-08 -2.588051e-05
<VARIANCE> 39
 3.853650e+01 2.695961e+01 2.433259e+01 2.159538e+01 2.600316e+01 3.320166e+01 2.614411e+01 2.966930e+01 2.545540e+01 2.228770e+01 2.430603e+01 2.270815e+01 6.652243e+01 4.869764e-01 5.387834e-01 6.360155e-01 8.571807e-01 1.163250e+00 1.389580e+00 1.451488e+00 1.557390e+00 1.579558e+00 1.552131e+00 1.452647e+00 1.289682e+00 8.543953e-01 8.164148e-02 9.374531e-02 1.194044e-01 1.658097e-01 2.266348e-01 2.745484e-01 2.889483e-01 3.098329e-01 3.184133e-01 3.152458e-01 2.941188e-01 2.604994e-01 1.264065e-01
<GCONST> 9.495138e+01
<TRANSP> 5
 0.000000e+00 1.000000e+00 0.000000e+00 0.000000e+00 0.000000e+00
 0.000000e+00 6.000000e-01 4.000000e-01 0.000000e+00 0.000000e+00
 0.000000e+00 0.000000e+00 6.000000e-01 4.000000e-01 0.000000e+00
 0.000000e+00 0.000000e+00 0.000000e+00 7.000000e-01 3.000000e-01
 0.000000e+00 0.000000e+00 0.000000e+00 0.000000e+00 0.000000e+00
<ENDHMM>
~h "kt"
<BEGINHMM>
<NUMSTATES> 5
<STATE> 2
<MEAN> 39
 -8.965513e+00 -6.748142e-01 -8.692636e-02 -2.157465e+00 6.916966e-01 9.824691e-01 2.215127e+00 5.223517e-01 -3.216007e-01 1.362033e-01 2.494263e-01 -1.633079e+00 5.218451e+01 8.290198e-05 1.101643e-04 1.344548e-05 6.353562e-05 7.290264e-05 8.145136e-05 1.488016e-05 4.478611e-05 2.401873e-05 1.144728e-04 8.425990e-08 -1.483066e-05 -2.753428e-04 -9.105418e-07 -1.047024e-05 -1.989568e-05 2.911435e-06 -1.012880e-05 -2.307480e-05 -2.524579e-05 -1.625151e-05 -2.949353e-05 -4.232262e-07 -2.095878e-05 -8.327937e-08 -2.588051e-05
<VARIANCE> 39
 3.853650e+01 2.695961e+01 2.433259e+01 2.159538e+01 2.600316e+01 3.320166e+01 2.614411e+01 2.966930e+01 2.545540e+01 2.228770e+01 2.430603e+01 2.270815e+01 6.652243e+01 4.869764e-01 5.387834e-01 6.360155e-01 8.571807e-01 1.163250e+00 1.389580e+00 1.451488e+00 1.557390e+00 1.579558e+00 1.552131e+00 1.452647e+00 1.289682e+00 8.543953e-01 8.164148e-02 9.374531e-02 1.194044e-01 1.658097e-01 2.266348e-01 2.745484e-01 2.889483e-01 3.098329e-01 3.184133e-01 3.152458e-01 2.941188e-01 2.604994e-01 1.264065e-01
<GCONST> 9.495138e+01
<STATE> 3
<MEAN> 39
 -8.965513e+00 -6.748142e-01 -8.692636e-02 -2.157465e+00 6.916966e-01 9.824691e-01 2.215127e+00 5.223517e-01 -3.216007e-01 1.362033e-01 2.494263e-01 -1.633079e+00 5.218451e+01 8.290198e-05 1.101643e-04 1.344548e-05 6.353562e-05 7.290264e-05 8.145136e-05 1.488016e-05 4.478611e-05 2.401873e-05 1.144728e-04 8.425990e-08 -1.483066e-05 -2.753428e-04 -9.105418e-07 -1.047024e-05 -1.989568e-05 2.911435e-06 -1.012880e-05 -2.307480e-05 -2.524579e-05 -1.625151e-05 -2.949353e-05 -4.232262e-07 -2.095878e-05 -8.327937e-08 -2.588051e-05
<VARIANCE> 39
 3.853650e+01 2.695961e+01 2.433259e+01 2.159538e+01 2.600316e+01 3.320166e+01 2.614411e+01 2.966930e+01 2.545540e+01 2.228770e+01 2.430603e+01 2.270815e+01 6.652243e+01 4.869764e-01 5.387834e-01 6.360155e-01 8.571807e-01 1.163250e+00 1.389580e+00 1.451488e+00 1.557390e+00 1.579558e+00 1.552131e+00 1.452647e+00 1.289682e+00 8.543953e-01 8.164148e-02 9.374531e-02 1.194044e-01 1.658097e-01 2.266348e-01 2.745484e-01 2.889483e-01 3.098329e-01 3.184133e-01 3.152458e-01 2.941188e-01 2.604994e-01 1.264065e-01
<GCONST> 9.495138e+01
<STATE> 4
<MEAN> 39
 -8.965513e+00 -6.748142e-01 -8.692636e-02 -2.157465e+00 6.916966e-01 9.824691e-01 2.215127e+00 5.223517e-01 -3.216007e-01 1.362033e-01 2.494263e-01 -1.633079e+00 5.218451e+01 8.290198e-05 1.101643e-04 1.344548e-05 6.353562e-05 7.290264e-05 8.145136e-05 1.488016e-05 4.478611e-05 2.401873e-05 1.144728e-04 8.425990e-08 -1.483066e-05 -2.753428e-04 -9.105418e-07 -1.047024e-05 -1.989568e-05 2.911435e-06 -1.012880e-05 -2.307480e-05 -2.524579e-05 -1.625151e-05 -2.949353e-05 -4.232262e-07 -2.095878e-05 -8.327937e-08 -2.588051e-05
<VARIANCE> 39
 3.853650e+01 2.695961e+01 2.433259e+01 2.159538e+01 2.600316e+01 3.320166e+01 2.614411e+01 2.966930e+01 2.545540e+01 2.228770e+01 2.430603e+01 2.270815e+01 6.652243e+01 4.869764e-01 5.387834e-01 6.360155e-01 8.571807e-01 1.163250e+00 1.389580e+00 1.451488e+00 1.557390e+00 1.579558e+00 1.552131e+00 1.452647e+00 1.289682e+00 8.543953e-01 8.164148e-02 9.374531e-02 1.194044e-01 1.658097e-01 2.266348e-01 2.745484e-01 2.889483e-01 3.098329e-01 3.184133e-01 3.152458e-01 2.941188e-01 2.604994e-01 1.264065e-01
<GCONST> 9.495138e+01
<TRANSP> 5
 0.000000e+00 1.000000e+00 0.000000e+00 0.000000e+00 0.000000e+00
 0.000000e+00 6.000000e-01 4.000000e-01 0.000000e+00 0.000000e+00
 0.000000e+00 0.000000e+00 6.000000e-01 4.000000e-01 0.000000e+00
 0.000000e+00 0.000000e+00 0.000000e+00 7.000000e-01 3.000000e-01
 0.000000e+00 0.000000e+00 0.000000e+00 0.000000e+00 0.000000e+00
<ENDHMM>
~h "kj"
<BEGINHMM>
<NUMSTATES> 5
<STATE> 2
<MEAN> 39
 -8.965513e+00 -6.748142e-01 -8.692636e-02 -2.157465e+00 6.916966e-01 9.824691e-01 2.215127e+00 5.223517e-01 -3.216007e-01 1.362033e-01 2.494263e-01 -1.633079e+00 5.218451e+01 8.290198e-05 1.101643e-04 1.344548e-05 6.353562e-05 7.290264e-05 8.145136e-05 1.488016e-05 4.478611e-05 2.401873e-05 1.144728e-04 8.425990e-08 -1.483066e-05 -2.753428e-04 -9.105418e-07 -1.047024e-05 -1.989568e-05 2.911435e-06 -1.012880e-05 -2.307480e-05 -2.524579e-05 -1.625151e-05 -2.949353e-05 -4.232262e-07 -2.095878e-05 -8.327937e-08 -2.588051e-05
<VARIANCE> 39
 3.853650e+01 2.695961e+01 2.433259e+01 2.159538e+01 2.600316e+01 3.320166e+01 2.614411e+01 2.966930e+01 2.545540e+01 2.228770e+01 2.430603e+01 2.270815e+01 6.652243e+01 4.869764e-01 5.387834e-01 6.360155e-01 8.571807e-01 1.163250e+00 1.389580e+00 1.451488e+00 1.557390e+00 1.579558e+00 1.552131e+00 1.452647e+00 1.289682e+00 8.543953e-01 8.164148e-02 9.374531e-02 1.194044e-01 1.658097e-01 2.266348e-01 2.745484e-01 2.889483e-01 3.098329e-01 3.184133e-01 3.152458e-01 2.941188e-01 2.604994e-01 1.264065e-01
<GCONST> 9.495138e+01
<STATE> 3
<MEAN> 39
 -8.965513e+00 -6.748142e-01 -8.692636e-02 -2.157465e+00 6.916966e-01 9.824691e-01 2.215127e+00 5.223517e-01 -3.216007e-01 1.362033e-01 2.494263e-01 -1.633079e+00 5.218451e+01 8.290198e-05 1.101643e-04 1.344548e-05 6.353562e-05 7.290264e-05 8.145136e-05 1.488016e-05 4.478611e-05 2.401873e-05 1.144728e-04 8.425990e-08 -1.483066e-05 -2.753428e-04 -9.105418e-07 -1.047024e-05 -1.989568e-05 2.911435e-06 -1.012880e-05 -2.307480e-05 -2.524579e-05 -1.625151e-05 -2.949353e-05 -4.232262e-07 -2.095878e-05 -8.327937e-08 -2.588051e-05
<VARIANCE> 39
 3.853650e+01 2.695961e+01 2.433259e+01 2.159538e+01 2.600316e+01 3.320166e+01 2.614411e+01 2.966930e+01 2.545540e+01 2.228770e+01 2.430603e+01 2.270815e+01 6.652243e+01 4.869764e-01 5.387834e-01 6.360155e-01 8.571807e-01 1.163250e+00 1.389580e+00 1.451488e+00 1.557390e+00 1.579558e+00 1.552131e+00 1.452647e+00 1.289682e+00 8.543953e-01 8.164148e-02 9.374531e-02 1.194044e-01 1.658097e-01 2.266348e-01 2.745484e-01 2.889483e-01 3.098329e-01 3.184133e-01 3.152458e-01 2.941188e-01 2.604994e-01 1.264065e-01
<GCONST> 9.495138e+01
<STATE> 4
<MEAN> 39
 -8.965513e+00 -6.748142e-01 -8.692636e-02 -2.157465e+00 6.916966e-01 9.824691e-01 2.215127e+00 5.223517e-01 -3.216007e-01 1.362033e-01 2.494263e-01 -1.633079e+00 5.218451e+01 8.290198e-05 1.101643e-04 1.344548e-05 6.353562e-05 7.290264e-05 8.145136e-05 1.488016e-05 4.478611e-05 2.401873e-05 1.144728e-04 8.425990e-08 -1.483066e-05 -2.753428e-04 -9.105418e-07 -1.047024e-05 -1.989568e-05 2.911435e-06 -1.012880e-05 -2.307480e-05 -2.524579e-05 -1.625151e-05 -2.949353e-05 -4.232262e-07 -2.095878e-05 -8.327937e-08 -2.588051e-05
<VARIANCE> 39
 3.853650e+01 2.695961e+01 2.433259e+01 2.159538e+01 2.600316e+01 3.320166e+01 2.614411e+01 2.966930e+01 2.545540e+01 2.228770e+01 2.430603e+01 2.270815e+01 6.652243e+01 4.869764e-01 5.387834e-01 6.360155e-01 8.571807e-01 1.163250e+00 1.389580e+00 1.451488e+00 1.557390e+00 1.579558e+00 1.552131e+00 1.452647e+00 1.289682e+00 8.543953e-01 8.164148e-02 9.374531e-02 1.194044e-01 1.658097e-01 2.266348e-01 2.745484e-01 2.889483e-01 3.098329e-01 3.184133e-01 3.152458e-01 2.941188e-01 2.604994e-01 1.264065e-01
<GCONST> 9.495138e+01
<TRANSP> 5
 0.000000e+00 1.000000e+00 0.000000e+00 0.000000e+00 0.000000e+00
 0.000000e+00 6.000000e-01 4.000000e-01 0.000000e+00 0.000000e+00
 0.000000e+00 0.000000e+00 6.000000e-01 4.000000e-01 0.000000e+00
 0.000000e+00 0.000000e+00 0.000000e+00 7.000000e-01 3.000000e-01
 0.000000e+00 0.000000e+00 0.000000e+00 0.000000e+00 0.000000e+00
<ENDHMM>
~h "kn"
<BEGINHMM>
<NUMSTATES> 5
<STATE> 2
<MEAN> 39
 -8.965513e+00 -6.748142e-01 -8.692636e-02 -2.157465e+00 6.916966e-01 9.824691e-01 2.215127e+00 5.223517e-01 -3.216007e-01 1.362033e-01 2.494263e-01 -1.633079e+00 5.218451e+01 8.290198e-05 1.101643e-04 1.344548e-05 6.353562e-05 7.290264e-05 8.145136e-05 1.488016e-05 4.478611e-05 2.401873e-05 1.144728e-04 8.425990e-08 -1.483066e-05 -2.753428e-04 -9.105418e-07 -1.047024e-05 -1.989568e-05 2.911435e-06 -1.012880e-05 -2.307480e-05 -2.524579e-05 -1.625151e-05 -2.949353e-05 -4.232262e-07 -2.095878e-05 -8.327937e-08 -2.588051e-05
<VARIANCE> 39
 3.853650e+01 2.695961e+01 2.433259e+01 2.159538e+01 2.600316e+01 3.320166e+01 2.614411e+01 2.966930e+01 2.545540e+01 2.228770e+01 2.430603e+01 2.270815e+01 6.652243e+01 4.869764e-01 5.387834e-01 6.360155e-01 8.571807e-01 1.163250e+00 1.389580e+00 1.451488e+00 1.557390e+00 1.579558e+00 1.552131e+00 1.452647e+00 1.289682e+00 8.543953e-01 8.164148e-02 9.374531e-02 1.194044e-01 1.658097e-01 2.266348e-01 2.745484e-01 2.889483e-01 3.098329e-01 3.184133e-01 3.152458e-01 2.941188e-01 2.604994e-01 1.264065e-01
<GCONST> 9.495138e+01
<STATE> 3
<MEAN> 39
 -8.965513e+00 -6.748142e-01 -8.692636e-02 -2.157465e+00 6.916966e-01 9.824691e-01 2.215127e+00 5.223517e-01 -3.216007e-01 1.362033e-01 2.494263e-01 -1.633079e+00 5.218451e+01 8.290198e-05 1.101643e-04 1.344548e-05 6.353562e-05 7.290264e-05 8.145136e-05 1.488016e-05 4.478611e-05 2.401873e-05 1.144728e-04 8.425990e-08 -1.483066e-05 -2.753428e-04 -9.105418e-07 -1.047024e-05 -1.989568e-05 2.911435e-06 -1.012880e-05 -2.307480e-05 -2.524579e-05 -1.625151e-05 -2.949353e-05 -4.232262e-07 -2.095878e-05 -8.327937e-08 -2.588051e-05
<VARIANCE> 39
 3.853650e+01 2.695961e+01 2.433259e+01 2.159538e+01 2.600316e+01 3.320166e+01 2.614411e+01 2.966930e+01 2.545540e+01 2.228770e+01 2.430603e+01 2.270815e+01 6.652243e+01 4.869764e-01 5.387834e-01 6.360155e-01 8.571807e-01 1.163250e+00 1.389580e+00 1.451488e+00 1.557390e+00 1.579558e+00 1.552131e+00 1.452647e+00 1.289682e+00 8.543953e-01 8.164148e-02 9.374531e-02 1.194044e-01 1.658097e-01 2.266348e-01 2.745484e-01 2.889483e-01 3.098329e-01 3.184133e-01 3.152458e-01 2.941188e-01 2.604994e-01 1.264065e-01
<GCONST> 9.495138e+01
<STATE> 4
<MEAN> 39
 -8.965513e+00 -6.748142e-01 -8.692636e-02 -2.157465e+00 6.916966e-01 9.824691e-01 2.215127e+00 5.223517e-01 -3.216007e-01 1.362033e-01 2.494263e-01 -1.633079e+00 5.218451e+01 8.290198e-05 1.101643e-04 1.344548e-05 6.353562e-05 7.290264e-05 8.145136e-05 1.488016e-05 4.478611e-05 2.401873e-05 1.144728e-04 8.425990e-08 -1.483066e-05 -2.753428e-04 -9.105418e-07 -1.047024e-05 -1.989568e-05 2.911435e-06 -1.012880e-05 -2.307480e-05 -2.524579e-05 -1.625151e-05 -2.949353e-05 -4.232262e-07 -2.095878e-05 -8.327937e-08 -2.588051e-05
<VARIANCE> 39
 3.853650e+01 2.695961e+01 2.433259e+01 2.159538e+01 2.600316e+01 3.320166e+01 2.614411e+01 2.966930e+01 2.545540e+01 2.228770e+01 2.430603e+01 2.270815e+01 6.652243e+01 4.869764e-01 5.387834e-01 6.360155e-01 8.571807e-01 1.163250e+00 1.389580e+00 1.451488e+00 1.557390e+00 1.579558e+00 1.552131e+00 1.452647e+00 1.289682e+00 8.543953e-01 8.164148e-02 9.374531e-02 1.194044e-01 1.658097e-01 2.266348e-01 2.745484e-01 2.889483e-01 3.098329e-01 3.184133e-01 3.152458e-01 2.941188e-01 2.604994e-01 1.264065e-01
<GCONST> 9.495138e+01
<TRANSP> 5
 0.000000e+00 1.000000e+00 0.000000e+00 0.000000e+00 0.000000e+00
 0.000000e+00 6.000000e-01 4.000000e-01 0.000000e+00 0.000000e+00
 0.000000e+00 0.000000e+00 6.000000e-01 4.000000e-01 0.000000e+00
 0.000000e+00 0.000000e+00 0.000000e+00 7.000000e-01 3.000000e-01
 0.000000e+00 0.000000e+00 0.000000e+00 0.000000e+00 0.000000e+00
<ENDHMM>
~h "pw"
<BEGINHMM>
<NUMSTATES> 5
<STATE> 2
<MEAN> 39
 -8.965513e+00 -6.748142e-01 -8.692636e-02 -2.157465e+00 6.916966e-01 9.824691e-01 2.215127e+00 5.223517e-01 -3.216007e-01 1.362033e-01 2.494263e-01 -1.633079e+00 5.218451e+01 8.290198e-05 1.101643e-04 1.344548e-05 6.353562e-05 7.290264e-05 8.145136e-05 1.488016e-05 4.478611e-05 2.401873e-05 1.144728e-04 8.425990e-08 -1.483066e-05 -2.753428e-04 -9.105418e-07 -1.047024e-05 -1.989568e-05 2.911435e-06 -1.012880e-05 -2.307480e-05 -2.524579e-05 -1.625151e-05 -2.949353e-05 -4.232262e-07 -2.095878e-05 -8.327937e-08 -2.588051e-05
<VARIANCE> 39
 3.853650e+01 2.695961e+01 2.433259e+01 2.159538e+01 2.600316e+01 3.320166e+01 2.614411e+01 2.966930e+01 2.545540e+01 2.228770e+01 2.430603e+01 2.270815e+01 6.652243e+01 4.869764e-01 5.387834e-01 6.360155e-01 8.571807e-01 1.163250e+00 1.389580e+00 1.451488e+00 1.557390e+00 1.579558e+00 1.552131e+00 1.452647e+00 1.289682e+00 8.543953e-01 8.164148e-02 9.374531e-02 1.194044e-01 1.658097e-01 2.266348e-01 2.745484e-01 2.889483e-01 3.098329e-01 3.184133e-01 3.152458e-01 2.941188e-01 2.604994e-01 1.264065e-01
<GCONST> 9.495138e+01
<STATE> 3
<MEAN> 39
 -8.965513e+00 -6.748142e-01 -8.692636e-02 -2.157465e+00 6.916966e-01 9.824691e-01 2.215127e+00 5.223517e-01 -3.216007e-01 1.362033e-01 2.494263e-01 -1.633079e+00 5.218451e+01 8.290198e-05 1.101643e-04 1.344548e-05 6.353562e-05 7.290264e-05 8.145136e-05 1.488016e-05 4.478611e-05 2.401873e-05 1.144728e-04 8.425990e-08 -1.483066e-05 -2.753428e-04 -9.105418e-07 -1.047024e-05 -1.989568e-05 2.911435e-06 -1.012880e-05 -2.307480e-05 -2.524579e-05 -1.625151e-05 -2.949353e-05 -4.232262e-07 -2.095878e-05 -8.327937e-08 -2.588051e-05
<VARIANCE> 39
 3.853650e+01 2.695961e+01 2.433259e+01 2.159538e+01 2.600316e+01 3.320166e+01 2.614411e+01 2.966930e+01 2.545540e+01 2.228770e+01 2.430603e+01 2.270815e+01 6.652243e+01 4.869764e-01 5.387834e-01 6.360155e-01 8.571807e-01 1.163250e+00 1.389580e+00 1.451488e+00 1.557390e+00 1.579558e+00 1.552131e+00 1.452647e+00 1.289682e+00 8.543953e-01 8.164148e-02 9.374531e-02 1.194044e-01 1.658097e-01 2.266348e-01 2.745484e-01 2.889483e-01 3.098329e-01 3.184133e-01 3.152458e-01 2.941188e-01 2.604994e-01 1.264065e-01
<GCONST> 9.495138e+01
<STATE> 4
<MEAN> 39
 -8.965513e+00 -6.748142e-01 -8.692636e-02 -2.157465e+00 6.916966e-01 9.824691e-01 2.215127e+00 5.223517e-01 -3.216007e-01 1.362033e-01 2.494263e-01 -1.633079e+00 5.218451e+01 8.290198e-05 1.101643e-04 1.344548e-05 6.353562e-05 7.290264e-05 8.145136e-05 1.488016e-05 4.478611e-05 2.401873e-05 1.144728e-04 8.425990e-08 -1.483066e-05 -2.753428e-04 -9.105418e-07 -1.047024e-05 -1.989568e-05 2.911435e-06 -1.012880e-05 -2.307480e-05 -2.524579e-05 -1.625151e-05 -2.949353e-05 -4.232262e-07 -2.095878e-05 -8.327937e-08 -2.588051e-05
<VARIANCE> 39
 3.853650e+01 2.695961e+01 2.433259e+01 2.159538e+01 2.600316e+01 3.320166e+01 2.614411e+01 2.966930e+01 2.545540e+01 2.228770e+01 2.430603e+01 2.270815e+01 6.652243e+01 4.869764e-01 5.387834e-01 6.360155e-01 8.571807e-01 1.163250e+00 1.389580e+00 1.451488e+00 1.557390e+00 1.579558e+00 1.552131e+00 1.452647e+00 1.289682e+00 8.543953e-01 8.164148e-02 9.374531e-02 1.194044e-01 1.658097e-01 2.266348e-01 2.745484e-01 2.889483e-01 3.098329e-01 3.184133e-01 3.152458e-01 2.941188e-01 2.604994e-01 1.264065e-01
<GCONST> 9.495138e+01
<TRANSP> 5
 0.000000e+00 1.000000e+00 0.000000e+00 0.000000e+00 0.000000e+00
 0.000000e+00 6.000000e-01 4.000000e-01 0.000000e+00 0.000000e+00
 0.000000e+00 0.000000e+00 6.000000e-01 4.000000e-01 0.000000e+00
 0.000000e+00 0.000000e+00 0.000000e+00 7.000000e-01 3.000000e-01
 0.000000e+00 0.000000e+00 0.000000e+00 0.000000e+00 0.000000e+00
<ENDHMM>
~h "pr"
<BEGINHMM>
<NUMSTATES> 5
<STATE> 2
<MEAN> 39
 -8.965513e+00 -6.748142e-01 -8.692636e-02 -2.157465e+00 6.916966e-01 9.824691e-01 2.215127e+00 5.223517e-01 -3.216007e-01 1.362033e-01 2.494263e-01 -1.633079e+00 5.218451e+01 8.290198e-05 1.101643e-04 1.344548e-05 6.353562e-05 7.290264e-05 8.145136e-05 1.488016e-05 4.478611e-05 2.401873e-05 1.144728e-04 8.425990e-08 -1.483066e-05 -2.753428e-04 -9.105418e-07 -1.047024e-05 -1.989568e-05 2.911435e-06 -1.012880e-05 -2.307480e-05 -2.524579e-05 -1.625151e-05 -2.949353e-05 -4.232262e-07 -2.095878e-05 -8.327937e-08 -2.588051e-05
<VARIANCE> 39
 3.853650e+01 2.695961e+01 2.433259e+01 2.159538e+01 2.600316e+01 3.320166e+01 2.614411e+01 2.966930e+01 2.545540e+01 2.228770e+01 2.430603e+01 2.270815e+01 6.652243e+01 4.869764e-01 5.387834e-01 6.360155e-01 8.571807e-01 1.163250e+00 1.389580e+00 1.451488e+00 1.557390e+00 1.579558e+00 1.552131e+00 1.452647e+00 1.289682e+00 8.543953e-01 8.164148e-02 9.374531e-02 1.194044e-01 1.658097e-01 2.266348e-01 2.745484e-01 2.889483e-01 3.098329e-01 3.184133e-01 3.152458e-01 2.941188e-01 2.604994e-01 1.264065e-01
<GCONST> 9.495138e+01
<STATE> 3
<MEAN> 39
 -8.965513e+00 -6.748142e-01 -8.692636e-02 -2.157465e+00 6.916966e-01 9.824691e-01 2.215127e+00 5.223517e-01 -3.216007e-01 1.362033e-01 2.494263e-01 -1.633079e+00 5.218451e+01 8.290198e-05 1.101643e-04 1.344548e-05 6.353562e-05 7.290264e-05 8.145136e-05 1.488016e-05 4.478611e-05 2.401873e-05 1.144728e-04 8.425990e-08 -1.483066e-05 -2.753428e-04 -9.105418e-07 -1.047024e-05 -1.989568e-05 2.911435e-06 -1.012880e-05 -2.307480e-05 -2.524579e-05 -1.625151e-05 -2.949353e-05 -4.232262e-07 -2.095878e-05 -8.327937e-08 -2.588051e-05
<VARIANCE> 39
 3.853650e+01 2.695961e+01 2.433259e+01 2.159538e+01 2.600316e+01 3.320166e+01 2.614411e+01 2.966930e+01 2.545540e+01 2.228770e+01 2.430603e+01 2.270815e+01 6.652243e+01 4.869764e-01 5.387834e-01 6.360155e-01 8.571807e-01 1.163250e+00 1.389580e+00 1.451488e+00 1.557390e+00 1.579558e+00 1.552131e+00 1.452647e+00 1.289682e+00 8.543953e-01 8.164148e-02 9.374531e-02 1.194044e-01 1.658097e-01 2.266348e-01 2.745484e-01 2.889483e-01 3.098329e-01 3.184133e-01 3.152458e-01 2.941188e-01 2.604994e-01 1.264065e-01
<GCONST> 9.495138e+01
<STATE> 4
<MEAN> 39
 -8.965513e+00 -6.748142e-01 -8.692636e-02 -2.157465e+00 6.916966e-01 9.824691e-01 2.215127e+00 5.223517e-01 -3.216007e-01 1.362033e-01 2.494263e-01 -1.633079e+00 5.218451e+01 8.290198e-05 1.101643e-04 1.344548e-05 6.353562e-05 7.290264e-05 8.145136e-05 1.488016e-05 4.478611e-05 2.401873e-05 1.144728e-04 8.425990e-08 -1.483066e-05 -2.753428e-04 -9.105418e-07 -1.047024e-05 -1.989568e-05 2.911435e-06 -1.012880e-05 -2.307480e-05 -2.524579e-05 -1.625151e-05 -2.949353e-05 -4.232262e-07 -2.095878e-05 -8.327937e-08 -2.588051e-05
<VARIANCE> 39
 3.853650e+01 2.695961e+01 2.433259e+01 2.159538e+01 2.600316e+01 3.320166e+01 2.614411e+01 2.966930e+01 2.545540e+01 2.228770e+01 2.430603e+01 2.270815e+01 6.652243e+01 4.869764e-01 5.387834e-01 6.360155e-01 8.571807e-01 1.163250e+00 1.389580e+00 1.451488e+00 1.557390e+00 1.579558e+00 1.552131e+00 1.452647e+00 1.289682e+00 8.543953e-01 8.164148e-02 9.374531e-02 1.194044e-01 1.658097e-01 2.266348e-01 2.745484e-01 2.889483e-01 3.098329e-01 3.184133e-01 3.152458e-01 2.941188e-01 2.604994e-01 1.264065e-01
<GCONST> 9.495138e+01
<TRANSP> 5
 0.000000e+00 1.000000e+00 0.000000e+00 0.000000e+00 0.000000e+00
 0.000000e+00 6.000000e-01 4.000000e-01 0.000000e+00 0.000000e+00
 0.000000e+00 0.000000e+00 6.000000e-01 4.000000e-01 0.000000e+00
 0.000000e+00 0.000000e+00 0.000000e+00 7.000000e-01 3.000000e-01
 0.000000e+00 0.000000e+00 0.000000e+00 0.000000e+00 0.000000e+00
<ENDHMM>
~h "spe"
<BEGINHMM>
<NUMSTATES> 5
<STATE> 2
<MEAN> 39
 -8.965513e+00 -6.748142e-01 -8.692636e-02 -2.157465e+00 6.916966e-01 9.824691e-01 2.215127e+00 5.223517e-01 -3.216007e-01 1.362033e-01 2.494263e-01 -1.633079e+00 5.218451e+01 8.290198e-05 1.101643e-04 1.344548e-05 6.353562e-05 7.290264e-05 8.145136e-05 1.488016e-05 4.478611e-05 2.401873e-05 1.144728e-04 8.425990e-08 -1.483066e-05 -2.753428e-04 -9.105418e-07 -1.047024e-05 -1.989568e-05 2.911435e-06 -1.012880e-05 -2.307480e-05 -2.524579e-05 -1.625151e-05 -2.949353e-05 -4.232262e-07 -2.095878e-05 -8.327937e-08 -2.588051e-05
<VARIANCE> 39
 3.853650e+01 2.695961e+01 2.433259e+01 2.159538e+01 2.600316e+01 3.320166e+01 2.614411e+01 2.966930e+01 2.545540e+01 2.228770e+01 2.430603e+01 2.270815e+01 6.652243e+01 4.869764e-01 5.387834e-01 6.360155e-01 8.571807e-01 1.163250e+00 1.389580e+00 1.451488e+00 1.557390e+00 1.579558e+00 1.552131e+00 1.452647e+00 1.289682e+00 8.543953e-01 8.164148e-02 9.374531e-02 1.194044e-01 1.658097e-01 2.266348e-01 2.745484e-01 2.889483e-01 3.098329e-01 3.184133e-01 3.152458e-01 2.941188e-01 2.604994e-01 1.264065e-01
<GCONST> 9.495138e+01
<STATE> 3
<MEAN> 39
 -8.965513e+00 -6.748142e-01 -8.692636e-02 -2.157465e+00 6.916966e-01 9.824691e-01 2.215127e+00 5.223517e-01 -3.216007e-01 1.362033e-01 2.494263e-01 -1.633079e+00 5.218451e+01 8.290198e-05 1.101643e-04 1.344548e-05 6.353562e-05 7.290264e-05 8.145136e-05 1.488016e-05 4.478611e-05 2.401873e-05 1.144728e-04 8.425990e-08 -1.483066e-05 -2.753428e-04 -9.105418e-07 -1.047024e-05 -1.989568e-05 2.911435e-06 -1.012880e-05 -2.307480e-05 -2.524579e-05 -1.625151e-05 -2.949353e-05 -4.232262e-07 -2.095878e-05 -8.327937e-08 -2.588051e-05
<VARIANCE> 39
 3.853650e+01 2.695961e+01 2.433259e+01 2.159538e+01 2.600316e+01 3.320166e+01 2.614411e+01 2.966930e+01 2.545540e+01 2.228770e+01 2.430603e+01 2.270815e+01 6.652243e+01 4.869764e-01 5.387834e-01 6.360155e-01 8.571807e-01 1.163250e+00 1.389580e+00 1.451488e+00 1.557390e+00 1.579558e+00 1.552131e+00 1.452647e+00 1.289682e+00 8.543953e-01 8.164148e-02 9.374531e-02 1.194044e-01 1.658097e-01 2.266348e-01 2.745484e-01 2.889483e-01 3.098329e-01 3.184133e-01 3.152458e-01 2.941188e-01 2.604994e-01 1.264065e-01
<GCONST> 9.495138e+01
<STATE> 4
<MEAN> 39
 -8.965513e+00 -6.748142e-01 -8.692636e-02 -2.157465e+00 6.916966e-01 9.824691e-01 2.215127e+00 5.223517e-01 -3.216007e-01 1.362033e-01 2.494263e-01 -1.633079e+00 5.218451e+01 8.290198e-05 1.101643e-04 1.344548e-05 6.353562e-05 7.290264e-05 8.145136e-05 1.488016e-05 4.478611e-05 2.401873e-05 1.144728e-04 8.425990e-08 -1.483066e-05 -2.753428e-04 -9.105418e-07 -1.047024e-05 -1.989568e-05 2.911435e-06 -1.012880e-05 -2.307480e-05 -2.524579e-05 -1.625151e-05 -2.949353e-05 -4.232262e-07 -2.095878e-05 -8.327937e-08 -2.588051e-05
<VARIANCE> 39
 3.853650e+01 2.695961e+01 2.433259e+01 2.159538e+01 2.600316e+01 3.320166e+01 2.614411e+01 2.966930e+01 2.545540e+01 2.228770e+01 2.430603e+01 2.270815e+01 6.652243e+01 4.869764e-01 5.387834e-01 6.360155e-01 8.571807e-01 1.163250e+00 1.389580e+00 1.451488e+00 1.557390e+00 1.579558e+00 1.552131e+00 1.452647e+00 1.289682e+00 8.543953e-01 8.164148e-02 9.374531e-02 1.194044e-01 1.658097e-01 2.266348e-01 2.745484e-01 2.889483e-01 3.098329e-01 3.184133e-01 3.152458e-01 2.941188e-01 2.604994e-01 1.264065e-01
<GCONST> 9.495138e+01
<TRANSP> 5
 0.000000e+00 1.000000e+00 0.000000e+00 0.000000e+00 0.000000e+00
 0.000000e+00 6.000000e-01 4.000000e-01 0.000000e+00 0.000000e+00
 0.000000e+00 0.000000e+00 6.000000e-01 4.000000e-01 0.000000e+00
 0.000000e+00 0.000000e+00 0.000000e+00 7.000000e-01 3.000000e-01
 0.000000e+00 0.000000e+00 0.000000e+00 0.000000e+00 0.000000e+00
<ENDHMM>
~h "cl"
<BEGINHMM>
<NUMSTATES> 5
<STATE> 2
<MEAN> 39
 -8.965513e+00 -6.748142e-01 -8.692636e-02 -2.157465e+00 6.916966e-01 9.824691e-01 2.215127e+00 5.223517e-01 -3.216007e-01 1.362033e-01 2.494263e-01 -1.633079e+00 5.218451e+01 8.290198e-05 1.101643e-04 1.344548e-05 6.353562e-05 7.290264e-05 8.145136e-05 1.488016e-05 4.478611e-05 2.401873e-05 1.144728e-04 8.425990e-08 -1.483066e-05 -2.753428e-04 -9.105418e-07 -1.047024e-05 -1.989568e-05 2.911435e-06 -1.012880e-05 -2.307480e-05 -2.524579e-05 -1.625151e-05 -2.949353e-05 -4.232262e-07 -2.095878e-05 -8.327937e-08 -2.588051e-05
<VARIANCE> 39
 3.853650e+01 2.695961e+01 2.433259e+01 2.159538e+01 2.600316e+01 3.320166e+01 2.614411e+01 2.966930e+01 2.545540e+01 2.228770e+01 2.430603e+01 2.270815e+01 6.652243e+01 4.869764e-01 5.387834e-01 6.360155e-01 8.571807e-01 1.163250e+00 1.389580e+00 1.451488e+00 1.557390e+00 1.579558e+00 1.552131e+00 1.452647e+00 1.289682e+00 8.543953e-01 8.164148e-02 9.374531e-02 1.194044e-01 1.658097e-01 2.266348e-01 2.745484e-01 2.889483e-01 3.098329e-01 3.184133e-01 3.152458e-01 2.941188e-01 2.604994e-01 1.264065e-01
<GCONST> 9.495138e+01
<STATE> 3
<MEAN> 39
 -8.965513e+00 -6.748142e-01 -8.692636e-02 -2.157465e+00 6.916966e-01 9.824691e-01 2.215127e+00 5.223517e-01 -3.216007e-01 1.362033e-01 2.494263e-01 -1.633079e+00 5.218451e+01 8.290198e-05 1.101643e-04 1.344548e-05 6.353562e-05 7.290264e-05 8.145136e-05 1.488016e-05 4.478611e-05 2.401873e-05 1.144728e-04 8.425990e-08 -1.483066e-05 -2.753428e-04 -9.105418e-07 -1.047024e-05 -1.989568e-05 2.911435e-06 -1.012880e-05 -2.307480e-05 -2.524579e-05 -1.625151e-05 -2.949353e-05 -4.232262e-07 -2.095878e-05 -8.327937e-08 -2.588051e-05
<VARIANCE> 39
 3.853650e+01 2.695961e+01 2.433259e+01 2.159538e+01 2.600316e+01 3.320166e+01 2.614411e+01 2.966930e+01 2.545540e+01 2.228770e+01 2.430603e+01 2.270815e+01 6.652243e+01 4.869764e-01 5.387834e-01 6.360155e-01 8.571807e-01 1.163250e+00 1.389580e+00 1.451488e+00 1.557390e+00 1.579558e+00 1.552131e+00 1.452647e+00 1.289682e+00 8.543953e-01 8.164148e-02 9.374531e-02 1.194044e-01 1.658097e-01 2.266348e-01 2.745484e-01 2.889483e-01 3.098329e-01 3.184133e-01 3.152458e-01 2.941188e-01 2.604994e-01 1.264065e-01
<GCONST> 9.495138e+01
<STATE> 4
<MEAN> 39
 -8.965513e+00 -6.748142e-01 -8.692636e-02 -2.157465e+00 6.916966e-01 9.824691e-01 2.215127e+00 5.223517e-01 -3.216007e-01 1.362033e-01 2.494263e-01 -1.633079e+00 5.218451e+01 8.290198e-05 1.101643e-04 1.344548e-05 6.353562e-05 7.290264e-05 8.145136e-05 1.488016e-05 4.478611e-05 2.401873e-05 1.144728e-04 8.425990e-08 -1.483066e-05 -2.753428e-04 -9.105418e-07 -1.047024e-05 -1.989568e-05 2.911435e-06 -1.012880e-05 -2.307480e-05 -2.524579e-05 -1.625151e-05 -2.949353e-05 -4.232262e-07 -2.095878e-05 -8.327937e-08 -2.588051e-05
<VARIANCE> 39
 3.853650e+01 2.695961e+01 2.433259e+01 2.159538e+01 2.600316e+01 3.320166e+01 2.614411e+01 2.966930e+01 2.545540e+01 2.228770e+01 2.430603e+01 2.270815e+01 6.652243e+01 4.869764e-01 5.387834e-01 6.360155e-01 8.571807e-01 1.163250e+00 1.389580e+00 1.451488e+00 1.557390e+00 1.579558e+00 1.552131e+00 1.452647e+00 1.289682e+00 8.543953e-01 8.164148e-02 9.374531e-02 1.194044e-01 1.658097e-01 2.266348e-01 2.745484e-01 2.889483e-01 3.098329e-01 3.184133e-01 3.152458e-01 2.941188e-01 2.604994e-01 1.264065e-01
<GCONST> 9.495138e+01
<TRANSP> 5
 0.000000e+00 1.000000e+00 0.000000e+00 0.000000e+00 0.000000e+00
 0.000000e+00 6.000000e-01 4.000000e-01 0.000000e+00 0.000000e+00
 0.000000e+00 0.000000e+00 6.000000e-01 4.000000e-01 0.000000e+00
 0.000000e+00 0.000000e+00 0.000000e+00 7.000000e-01 3.000000e-01
 0.000000e+00 0.000000e+00 0.000000e+00 0.000000e+00 0.000000e+00
<ENDHMM>
~h "st"
<BEGINHMM>
<NUMSTATES> 5
<STATE> 2
<MEAN> 39
 -8.965513e+00 -6.748142e-01 -8.692636e-02 -2.157465e+00 6.916966e-01 9.824691e-01 2.215127e+00 5.223517e-01 -3.216007e-01 1.362033e-01 2.494263e-01 -1.633079e+00 5.218451e+01 8.290198e-05 1.101643e-04 1.344548e-05 6.353562e-05 7.290264e-05 8.145136e-05 1.488016e-05 4.478611e-05 2.401873e-05 1.144728e-04 8.425990e-08 -1.483066e-05 -2.753428e-04 -9.105418e-07 -1.047024e-05 -1.989568e-05 2.911435e-06 -1.012880e-05 -2.307480e-05 -2.524579e-05 -1.625151e-05 -2.949353e-05 -4.232262e-07 -2.095878e-05 -8.327937e-08 -2.588051e-05
<VARIANCE> 39
 3.853650e+01 2.695961e+01 2.433259e+01 2.159538e+01 2.600316e+01 3.320166e+01 2.614411e+01 2.966930e+01 2.545540e+01 2.228770e+01 2.430603e+01 2.270815e+01 6.652243e+01 4.869764e-01 5.387834e-01 6.360155e-01 8.571807e-01 1.163250e+00 1.389580e+00 1.451488e+00 1.557390e+00 1.579558e+00 1.552131e+00 1.452647e+00 1.289682e+00 8.543953e-01 8.164148e-02 9.374531e-02 1.194044e-01 1.658097e-01 2.266348e-01 2.745484e-01 2.889483e-01 3.098329e-01 3.184133e-01 3.152458e-01 2.941188e-01 2.604994e-01 1.264065e-01
<GCONST> 9.495138e+01
<STATE> 3
<MEAN> 39
 -8.965513e+00 -6.748142e-01 -8.692636e-02 -2.157465e+00 6.916966e-01 9.824691e-01 2.215127e+00 5.223517e-01 -3.216007e-01 1.362033e-01 2.494263e-01 -1.633079e+00 5.218451e+01 8.290198e-05 1.101643e-04 1.344548e-05 6.353562e-05 7.290264e-05 8.145136e-05 1.488016e-05 4.478611e-05 2.401873e-05 1.144728e-04 8.425990e-08 -1.483066e-05 -2.753428e-04 -9.105418e-07 -1.047024e-05 -1.989568e-05 2.911435e-06 -1.012880e-05 -2.307480e-05 -2.524579e-05 -1.625151e-05 -2.949353e-05 -4.232262e-07 -2.095878e-05 -8.327937e-08 -2.588051e-05
<VARIANCE> 39
 3.853650e+01 2.695961e+01 2.433259e+01 2.159538e+01 2.600316e+01 3.320166e+01 2.614411e+01 2.966930e+01 2.545540e+01 2.228770e+01 2.430603e+01 2.270815e+01 6.652243e+01 4.869764e-01 5.387834e-01 6.360155e-01 8.571807e-01 1.163250e+00 1.389580e+00 1.451488e+00 1.557390e+00 1.579558e+00 1.552131e+00 1.452647e+00 1.289682e+00 8.543953e-01 8.164148e-02 9.374531e-02 1.194044e-01 1.658097e-01 2.266348e-01 2.745484e-01 2.889483e-01 3.098329e-01 3.184133e-01 3.152458e-01 2.941188e-01 2.604994e-01 1.264065e-01
<GCONST> 9.495138e+01
<STATE> 4
<MEAN> 39
 -8.965513e+00 -6.748142e-01 -8.692636e-02 -2.157465e+00 6.916966e-01 9.824691e-01 2.215127e+00 5.223517e-01 -3.216007e-01 1.362033e-01 2.494263e-01 -1.633079e+00 5.218451e+01 8.290198e-05 1.101643e-04 1.344548e-05 6.353562e-05 7.290264e-05 8.145136e-05 1.488016e-05 4.478611e-05 2.401873e-05 1.144728e-04 8.425990e-08 -1.483066e-05 -2.753428e-04 -9.105418e-07 -1.047024e-05 -1.989568e-05 2.911435e-06 -1.012880e-05 -2.307480e-05 -2.524579e-05 -1.625151e-05 -2.949353e-05 -4.232262e-07 -2.095878e-05 -8.327937e-08 -2.588051e-05
<VARIANCE> 39
 3.853650e+01 2.695961e+01 2.433259e+01 2.159538e+01 2.600316e+01 3.320166e+01 2.614411e+01 2.966930e+01 2.545540e+01 2.228770e+01 2.430603e+01 2.270815e+01 6.652243e+01 4.869764e-01 5.387834e-01 6.360155e-01 8.571807e-01 1.163250e+00 1.389580e+00 1.451488e+00 1.557390e+00 1.579558e+00 1.552131e+00 1.452647e+00 1.289682e+00 8.543953e-01 8.164148e-02 9.374531e-02 1.194044e-01 1.658097e-01 2.266348e-01 2.745484e-01 2.889483e-01 3.098329e-01 3.184133e-01 3.152458e-01 2.941188e-01 2.604994e-01 1.264065e-01
<GCONST> 9.495138e+01
<TRANSP> 5
 0.000000e+00 1.000000e+00 0.000000e+00 0.000000e+00 0.000000e+00
 0.000000e+00 6.000000e-01 4.000000e-01 0.000000e+00 0.000000e+00
 0.000000e+00 0.000000e+00 6.000000e-01 4.000000e-01 0.000000e+00
 0.000000e+00 0.000000e+00 0.000000e+00 7.000000e-01 3.000000e-01
 0.000000e+00 0.000000e+00 0.000000e+00 0.000000e+00 0.000000e+00
<ENDHMM>
~h "si"
<BEGINHMM>
<NUMSTATES> 5
<STATE> 2
<MEAN> 39
 -8.965513e+00 -6.748142e-01 -8.692636e-02 -2.157465e+00 6.916966e-01 9.824691e-01 2.215127e+00 5.223517e-01 -3.216007e-01 1.362033e-01 2.494263e-01 -1.633079e+00 5.218451e+01 8.290198e-05 1.101643e-04 1.344548e-05 6.353562e-05 7.290264e-05 8.145136e-05 1.488016e-05 4.478611e-05 2.401873e-05 1.144728e-04 8.425990e-08 -1.483066e-05 -2.753428e-04 -9.105418e-07 -1.047024e-05 -1.989568e-05 2.911435e-06 -1.012880e-05 -2.307480e-05 -2.524579e-05 -1.625151e-05 -2.949353e-05 -4.232262e-07 -2.095878e-05 -8.327937e-08 -2.588051e-05
<VARIANCE> 39
 3.853650e+01 2.695961e+01 2.433259e+01 2.159538e+01 2.600316e+01 3.320166e+01 2.614411e+01 2.966930e+01 2.545540e+01 2.228770e+01 2.430603e+01 2.270815e+01 6.652243e+01 4.869764e-01 5.387834e-01 6.360155e-01 8.571807e-01 1.163250e+00 1.389580e+00 1.451488e+00 1.557390e+00 1.579558e+00 1.552131e+00 1.452647e+00 1.289682e+00 8.543953e-01 8.164148e-02 9.374531e-02 1.194044e-01 1.658097e-01 2.266348e-01 2.745484e-01 2.889483e-01 3.098329e-01 3.184133e-01 3.152458e-01 2.941188e-01 2.604994e-01 1.264065e-01
<GCONST> 9.495138e+01
<STATE> 3
<MEAN> 39
 -8.965513e+00 -6.748142e-01 -8.692636e-02 -2.157465e+00 6.916966e-01 9.824691e-01 2.215127e+00 5.223517e-01 -3.216007e-01 1.362033e-01 2.494263e-01 -1.633079e+00 5.218451e+01 8.290198e-05 1.101643e-04 1.344548e-05 6.353562e-05 7.290264e-05 8.145136e-05 1.488016e-05 4.478611e-05 2.401873e-05 1.144728e-04 8.425990e-08 -1.483066e-05 -2.753428e-04 -9.105418e-07 -1.047024e-05 -1.989568e-05 2.911435e-06 -1.012880e-05 -2.307480e-05 -2.524579e-05 -1.625151e-05 -2.949353e-05 -4.232262e-07 -2.095878e-05 -8.327937e-08 -2.588051e-05
<VARIANCE> 39
 3.853650e+01 2.695961e+01 2.433259e+01 2.159538e+01 2.600316e+01 3.320166e+01 2.614411e+01 2.966930e+01 2.545540e+01 2.228770e+01 2.430603e+01 2.270815e+01 6.652243e+01 4.869764e-01 5.387834e-01 6.360155e-01 8.571807e-01 1.163250e+00 1.389580e+00 1.451488e+00 1.557390e+00 1.579558e+00 1.552131e+00 1.452647e+00 1.289682e+00 8.543953e-01 8.164148e-02 9.374531e-02 1.194044e-01 1.658097e-01 2.266348e-01 2.745484e-01 2.889483e-01 3.098329e-01 3.184133e-01 3.152458e-01 2.941188e-01 2.604994e-01 1.264065e-01
<GCONST> 9.495138e+01
<STATE> 4
<MEAN> 39
 -8.965513e+00 -6.748142e-01 -8.692636e-02 -2.157465e+00 6.916966e-01 9.824691e-01 2.215127e+00 5.223517e-01 -3.216007e-01 1.362033e-01 2.494263e-01 -1.633079e+00 5.218451e+01 8.290198e-05 1.101643e-04 1.344548e-05 6.353562e-05 7.290264e-05 8.145136e-05 1.488016e-05 4.478611e-05 2.401873e-05 1.144728e-04 8.425990e-08 -1.483066e-05 -2.753428e-04 -9.105418e-07 -1.047024e-05 -1.989568e-05 2.911435e-06 -1.012880e-05 -2.307480e-05 -2.524579e-05 -1.625151e-05 -2.949353e-05 -4.232262e-07 -2.095878e-05 -8.327937e-08 -2.588051e-05
<VARIANCE> 39
 3.853650e+01 2.695961e+01 2.433259e+01 2.159538e+01 2.600316e+01 3.320166e+01 2.614411e+01 2.966930e+01 2.545540e+01 2.228770e+01 2.430603e+01 2.270815e+01 6.652243e+01 4.869764e-01 5.387834e-01 6.360155e-01 8.571807e-01 1.163250e+00 1.389580e+00 1.451488e+00 1.557390e+00 1.579558e+00 1.552131e+00 1.452647e+00 1.289682e+00 8.543953e-01 8.164148e-02 9.374531e-02 1.194044e-01 1.658097e-01 2.266348e-01 2.745484e-01 2.889483e-01 3.098329e-01 3.184133e-01 3.152458e-01 2.941188e-01 2.604994e-01 1.264065e-01
<GCONST> 9.495138e+01
<TRANSP> 5
 0.000000e+00 1.000000e+00 0.000000e+00 0.000000e+00 0.000000e+00
 0.000000e+00 6.000000e-01 4.000000e-01 0.000000e+00 0.000000e+00
 0.000000e+00 0.000000e+00 6.000000e-01 4.000000e-01 0.000000e+00
 0.000000e+00 0.000000e+00 0.000000e+00 7.000000e-01 3.000000e-01
 0.000000e+00 0.000000e+00 0.000000e+00 0.000000e+00 0.000000e+00
<ENDHMM>
