~o
<STREAMINFO> 1 39
<VECSIZE> 39<NULLD><MFCC_D_A_0><DIAGC>
~h "ap"
<BEGINHMM>
<NUMSTATES> 5
<STATE> 2
<NUMMIXES> 2
<MIXTURE> 1 5.266592e-01
<MEAN> 39
 -1.375124e+01 -9.276772e+00 -3.910476e+00 -9.298786e-01 -3.820132e-01 -2.774768e+00 3.244372e+00 -8.495955e-01 -7.675451e-02 2.490568e-01 7.273290e-01 -4.478489e-01 6.155998e+01 2.950684e-01 1.167280e-01 1.504941e-01 1.175406e-01 2.345669e-01 3.027463e-01 3.770252e-01 3.343029e-01 2.919375e-01 2.458586e-01 2.235871e-01 1.363564e-01 -4.338638e-01 6.159150e-02 1.016199e-01 7.041866e-02 6.396077e-02 8.824356e-02 8.183552e-02 5.770275e-02 6.993666e-02 4.449091e-02 3.713314e-02 3.251854e-02 1.358372e-02 -1.696137e-01
<VARIANCE> 39
 2.936209e+01 3.665870e+01 3.001043e+01 2.535390e+01 3.012199e+01 3.865907e+01 2.859362e+01 2.689812e+01 2.081688e+01 1.897572e+01 1.735991e+01 1.610259e+01 1.049248e+02 4.829650e-01 7.666729e-01 6.478438e-01 8.973395e-01 1.160913e+00 1.403889e+00 1.446053e+00 1.517825e+00 1.466094e+00 1.378452e+00 1.318483e+00 1.235901e+00 1.722291e+00 1.800647e-01 2.002641e-01 1.626539e-01 1.796694e-01 2.693079e-01 3.471779e-01 3.335053e-01 3.328512e-01 3.128620e-01 2.925647e-01 2.803341e-01 2.540215e-01 8.392009e-01
<GCONST> 1.001060e+02
<MIXTURE> 2 4.733336e-01
<MEAN> 39
 -1.477375e+01 -9.847607e+00 -5.465916e+00 -1.984046e+00 -1.251781e+00 -3.722176e+00 1.868727e+00 -1.601867e+00 -1.087471e+00 -3.622784e-01 2.144712e-01 -1.050605e+00 6.485172e+01 -5.680251e-01 -7.606080e-01 -5.092295e-01 -1.605606e-01 -4.813398e-01 -7.461202e-01 -5.058565e-01 -5.240173e-01 -4.416460e-01 -3.391801e-01 -2.638313e-01 -1.647833e-01 1.532315e+00 2.587754e-03 -6.807021e-02 -5.139134e-02 -7.274229e-02 -5.302633e-02 -2.950659e-02 -1.352584e-02 -4.817650e-02 -2.789357e-02 -3.112448e-02 -2.328403e-02 -8.429587e-03 3.461355e-02
<VARIANCE> 39
 3.159949e+01 4.277871e+01 3.290124e+01 2.770774e+01 3.272273e+01 4.194293e+01 3.201099e+01 3.019984e+01 2.421634e+01 2.065359e+01 1.889491e+01 1.629719e+01 1.411251e+02 2.828050e+00 3.244439e+00 1.893153e+00 1.469066e+00 2.281175e+00 3.288074e+00 2.506032e+00 2.300347e+00 1.964896e+00 1.741577e+00 1.594019e+00 1.405783e+00 1.499540e+01 3.540063e-01 3.866265e-01 2.608560e-01 2.481306e-01 3.618214e-01 5.539566e-01 4.844984e-01 4.438468e-01 4.023566e-01 3.476240e-01 3.138451e-01 2.779349e-01 1.786654e+00
<GCONST> 1.167489e+02
<STATE> 3
<NUMMIXES> 2
<MIXTURE> 1 5.167471e-01
<MEAN> 39
 -1.069191e+01 -1.664587e+01 -1.067918e+01 8.074729e-01 1.096775e+00 -8.943640e+00 8.654131e-01 -6.676891e-01 -3.766192e+00 -2.565254e+00 1.270406e+00 -3.357702e-01 6.709118e+01 2.799091e-01 2.017251e-01 2.863728e-01 2.836531e-01 3.570289e-01 3.699602e-01 3.821473e-01 3.284204e-01 2.793635e-01 2.696061e-01 2.504310e-01 1.727104e-01 -7.356636e-01 1.988189e-02 8.126807e-02 6.753068e-02 5.956141e-02 6.740016e-02 6.596668e-02 3.587627e-02 4.815799e-02 5.468266e-02 4.350072e-02 2.195130e-02 6.122448e-03 -8.520949e-02
<VARIANCE> 39
 1.429631e+01 2.284707e+01 2.068520e+01 2.358722e+01 3.364640e+01 2.370837e+01 2.987426e+01 2.348722e+01 2.288075e+01 2.075825e+01 1.641302e+01 1.468540e+01 7.967155e+01 1.769617e-01 4.510666e-01 4.975863e-01 7.452262e-01 9.716327e-01 1.067605e+00 1.276005e+00 1.288642e+00 1.332932e+00 1.295987e+00 1.223154e+00 1.156376e+00 6.770197e-01 7.314242e-02 9.991547e-02 1.269639e-01 1.766021e-01 2.313883e-01 2.492681e-01 2.840602e-01 2.798401e-01 2.864661e-01 2.814928e-01 2.585845e-01 2.443822e-01 4.615766e-01
<GCONST> 9.028077e+01
<MIXTURE> 2 4.832321e-01
<MEAN> 39
 -1.168782e+01 -1.726674e+01 -1.183512e+01 -1.084117e-01 -4.463124e-02 -9.774123e+00 -1.233152e-01 -1.134885e+00 -4.028744e+00 -3.040736e+00 5.865277e-01 -8.911206e-01 7.079361e+01 -1.055324e-01 -1.073036e-01 -1.569486e-01 -1.631472e-01 -1.971523e-01 -3.029605e-01 -3.156275e-01 -3.068799e-01 -2.931413e-01 -2.839579e-01 -2.249532e-01 -1.495466e-01 2.347711e-01 -2.306036e-02 -5.895728e-02 -5.517013e-02 -5.567935e-02 -6.199557e-02 -5.656968e-02 -4.429377e-02 -4.598323e-02 -5.434478e-02 -3.955498e-02 -2.465241e-02 -8.702569e-03 7.280791e-02
<VARIANCE> 39
 1.473071e+01 2.397009e+01 2.174227e+01 2.382153e+01 3.144924e+01 2.646405e+01 3.225865e+01 2.369503e+01 2.411867e+01 2.184828e+01 1.725952e+01 1.510001e+01 8.329104e+01 9.972789e-01 1.023594e+00 1.109408e+00 1.329322e+00 1.687871e+00 1.688080e+00 1.765330e+00 1.490995e+00 1.544412e+00 1.473428e+00 1.324530e+00 1.244449e+00 7.755126e+00 1.306166e-01 1.670608e-01 1.676729e-01 2.254646e-01 2.832399e-01 3.267157e-01 3.772551e-01 3.277119e-01 3.321478e-01 3.179594e-01 2.849867e-01 2.617854e-01 8.819581e-01
<GCONST> 1.026638e+02
<STATE> 4
<NUMMIXES> 2
<MIXTURE> 1 5.218153e-01
<MEAN> 39
 -9.839350e+00 -9.474947e+00 -4.262580e+00 3.873768e-01 3.997360e-01 -3.333192e+00 3.201787e+00 -6.537789e-01 -1.262175e+00 3.519136e-01 8.953809e-01 -6.076362e-01 5.728385e+01 2.261571e-01 2.758866e-01 2.244647e-01 1.562918e-01 2.346852e-01 3.582777e-01 3.016554e-01 3.797774e-01 3.124135e-01 2.618878e-01 2.065385e-01 1.364144e-01 -5.080565e-01 2.692842e-02 6.660195e-02 5.042095e-02 5.290470e-02 7.084465e-02 6.480165e-02 4.976720e-02 6.115327e-02 4.349762e-02 3.527609e-02 2.877472e-02 1.514050e-02 -8.121903e-02
<VARIANCE> 39
 2.396579e+01 5.566784e+01 2.282138e+01 2.404712e+01 3.259941e+01 3.368938e+01 2.564315e+01 3.112612e+01 2.306748e+01 1.930667e+01 1.620524e+01 1.437896e+01 1.057232e+02 2.225551e-01 4.890342e-01 5.001138e-01 7.480030e-01 9.970822e-01 1.095438e+00 1.237583e+00 1.315146e+00 1.365795e+00 1.308030e+00 1.246300e+00 1.148727e+00 6.322541e-01 8.815240e-02 1.300922e-01 1.229390e-01 1.566785e-01 2.251423e-01 2.582054e-01 2.712484e-01 2.923534e-01 2.936794e-01 2.803102e-01 2.612727e-01 2.371784e-01 4.317675e-01
<GCONST> 9.301486e+01
<MIXTURE> 2 4.781624e-01
<MEAN> 39
 -1.177246e+01 -1.139625e+01 -6.153380e+00 -6.145393e-01 -4.699540e-01 -5.016125e+00 2.023521e+00 -1.947677e+00 -2.133635e+00 -3.935747e-01 2.455761e-01 -1.045751e+00 6.262217e+01 -2.243510e-01 -2.496053e-01 -2.145848e-01 -1.618765e-01 -2.583353e-01 -3.574642e-01 -3.202935e-01 -3.961946e-01 -3.242593e-01 -2.777878e-01 -2.301851e-01 -1.522368e-01 4.703153e-01 -3.135106e-02 -7.507917e-02 -5.907983e-02 -6.129042e-02 -8.120023e-02 -7.535241e-02 -5.787629e-02 -6.842981e-02 -5.035141e-02 -4.242248e-02 -3.262103e-02 -1.752517e-02 9.318607e-02
<VARIANCE> 39
 2.606564e+01 6.005894e+01 2.852829e+01 2.527878e+01 3.553875e+01 3.527299e+01 2.932337e+01 3.193226e+01 2.521863e+01 2.043557e+01 1.749957e+01 1.530036e+01 1.324417e+02 1.536683e+00 2.091973e+00 1.245687e+00 1.140705e+00 1.702985e+00 2.016401e+00 1.742438e+00 1.911844e+00 1.652347e+00 1.470999e+00 1.392491e+00 1.256706e+00 9.495199e+00 1.965303e-01 2.689520e-01 1.839441e-01 1.994988e-01 2.810849e-01 3.645521e-01 3.497105e-01 3.795742e-01 3.555487e-01 3.141810e-01 2.899387e-01 2.600056e-01 1.093119e+00
<GCONST> 1.087347e+02
<TRANSP> 5
 0.000000e+00 1.000000e+00 0.000000e+00 0.000000e+00 0.000000e+00
 0.000000e+00 9.736124e-01 2.638768e-02 0.000000e+00 0.000000e+00
 0.000000e+00 0.000000e+00 9.875640e-01 1.243599e-02 0.000000e+00
 0.000000e+00 0.000000e+00 0.000000e+00 9.940408e-01 5.959169e-03
 0.000000e+00 0.000000e+00 0.000000e+00 0.000000e+00 0.000000e+00
<ENDHMM>
~h "cl"
<BEGINHMM>
<NUMSTATES> 5
<STATE> 2
<NUMMIXES> 2
<MIXTURE> 1 5.065184e-01
<MEAN> 39
 -1.175404e+01 -1.287449e+00 -8.240000e-01 -3.893962e+00 -1.377607e+00 5.034153e+00 3.755561e+00 7.238618e-01 3.653167e+00 4.128510e-01 -2.507869e+00 9.719295e-01 5.283625e+01 -2.211777e-01 1.720031e-01 1.870811e-01 1.420324e-01 1.379706e-01 4.158776e-01 1.864781e-01 1.425257e-01 3.305498e-01 2.179790e-01 1.134186e-01 2.368135e-01 1.297965e-01 -4.046197e-02 3.310684e-02 6.167324e-02 3.035388e-02 2.270844e-02 9.242181e-02 3.799082e-02 2.440387e-02 7.907999e-02 4.298813e-02 5.310193e-03 6.480426e-02 2.986787e-02
<VARIANCE> 39
 3.955574e+01 2.461774e+01 3.165740e+01 1.551268e+01 1.986548e+01 4.058804e+01 2.407100e+01 2.661630e+01 3.434867e+01 2.181746e+01 2.564323e+01 2.235302e+01 4.329042e+01 2.275124e+00 6.767850e-01 7.487736e-01 8.737593e-01 1.201336e+00 1.814653e+00 1.582461e+00 1.889819e+00 2.003709e+00 1.670965e+00 1.723373e+00 1.561293e+00 1.293414e+00 2.952378e-01 1.127973e-01 1.315605e-01 1.606367e-01 2.216303e-01 3.179316e-01 2.954873e-01 3.499556e-01 3.590605e-01 3.195745e-01 3.161589e-01 2.733732e-01 2.162109e-01
<GCONST> 1.006604e+02
<MIXTURE> 2 4.934802e-01
<MEAN> 39
 -1.214171e+01 -2.237485e+00 -1.483597e+00 -4.202785e+00 -1.937913e+00 3.904763e+00 2.808874e+00 2.054199e-01 3.201704e+00 -1.280957e-01 -2.650154e+00 7.445239e-01 5.485049e+01 -4.240628e-01 -8.689512e-02 -1.089905e-01 -2.015656e-01 -3.269028e-01 -1.342521e-01 -3.461006e-01 -4.204031e-01 -1.738662e-01 -2.938507e-01 -3.498839e-01 -6.531787e-02 3.642519e-01 -2.369802e-02 -3.937889e-02 -2.712302e-02 -5.164523e-02 -7.257350e-02 -1.876095e-02 -6.128579e-02 -9.050663e-02 -4.444801e-02 -5.370238e-02 -7.812802e-02 -1.320080e-02 1.484364e-02
<VARIANCE> 39
 4.189357e+01 3.590115e+01 3.073660e+01 1.610893e+01 2.062033e+01 4.803300e+01 2.583412e+01 2.837378e+01 3.448819e+01 2.300883e+01 2.591750e+01 2.301446e+01 6.788809e+01 2.852752e+00 9.530039e-01 8.111989e-01 9.309738e-01 1.358284e+00 2.262564e+00 1.769876e+00 2.141895e+00 2.084162e+00 1.767852e+00 1.814831e+00 1.595761e+00 3.176651e+00 3.256800e-01 1.355274e-01 1.392544e-01 1.746968e-01 2.453083e-01 3.620343e-01 3.243090e-01 3.690185e-01 3.696576e-01 3.366271e-01 3.211130e-01 2.831100e-01 3.542083e-01
<GCONST> 1.057761e+02
<STATE> 3
<NUMMIXES> 2
<MIXTURE> 1 5.036073e-01
<MEAN> 39
 -2.061331e+01 2.586249e+00 -4.372958e-01 -6.662539e+00 -4.296490e+00 1.269831e+01 1.018168e+00 -1.854797e+00 9.126038e+00 -3.589934e+00 -4.058383e+00 5.385607e+00 5.880961e+01 5.151926e-02 9.666574e-02 1.471827e-01 1.717368e-01 1.977438e-01 2.282168e-01 2.131427e-01 2.248374e-01 2.543392e-01 2.322753e-01 2.026527e-01 1.679114e-01 -9.345978e-03 1.656106e-02 2.153933e-02 3.284476e-02 3.417502e-02 3.859514e-02 4.001779e-02 4.173907e-02 4.504508e-02 4.704522e-02 4.389023e-02 3.719552e-02 2.878276e-02 -2.703696e-03
<VARIANCE> 39
 4.586304e+01 1.007697e+01 1.845314e+01 1.263148e+01 1.556411e+01 3.009239e+01 2.545507e+01 2.059557e+01 2.636970e+01 2.003773e+01 1.888501e+01 2.080791e+01 2.267880e+01 1.836871e+00 4.709003e-01 7.601798e-01 8.842310e-01 1.178684e+00 1.813056e+00 1.802096e+00 1.606420e+00 1.818813e+00 1.618500e+00 1.511616e+00 1.620330e+00 9.536813e-01 3.338464e-01 8.810695e-02 1.487353e-01 1.806215e-01 2.370595e-01 3.529333e-01 3.587063e-01 3.299634e-01 3.739319e-01 3.372915e-01 3.082210e-01 3.196796e-01 1.813387e-01
<GCONST> 9.639548e+01
<MIXTURE> 2 4.963875e-01
<MEAN> 39
 -1.954760e+01 2.157351e+00 -1.170002e+00 -7.031168e+00 -4.885059e+00 1.150208e+01 2.110916e-01 -2.423463e+00 8.425348e+00 -3.930631e+00 -4.169240e+00 5.085260e+00 5.897250e+01 5.093351e-03 -1.103141e-01 -1.649754e-01 -1.642624e-01 -1.988981e-01 -2.402333e-01 -2.057420e-01 -2.530929e-01 -2.750002e-01 -2.361447e-01 -2.138510e-01 -1.680180e-01 -2.186307e-02 5.272269e-03 -2.585557e-02 -3.703689e-02 -3.130144e-02 -3.146754e-02 -5.512509e-02 -3.735989e-02 -3.684500e-02 -5.915541e-02 -3.625317e-02 -2.909473e-02 -3.997975e-02 -1.301417e-02
<VARIANCE> 39
 5.530811e+01 1.171530e+01 2.147937e+01 1.320233e+01 1.689130e+01 3.791496e+01 2.824884e+01 2.310703e+01 2.876465e+01 2.018105e+01 1.940160e+01 2.092901e+01 2.464166e+01 1.810087e+00 5.086148e-01 8.136466e-01 9.133032e-01 1.232540e+00 1.919075e+00 1.841724e+00 1.670482e+00 1.853636e+00 1.604098e+00 1.523068e+00 1.663374e+00 1.087391e+00 3.351832e-01 9.428463e-02 1.525563e-01 1.858112e-01 2.427899e-01 3.638614e-01 3.632643e-01 3.337011e-01 3.769985e-01 3.375384e-01 3.093007e-01 3.222700e-01 1.951775e-01
<GCONST> 9.846918e+01
<STATE> 4
<NUMMIXES> 2
<MIXTURE> 1 5.017599e-01
<MEAN> 39
 -2.225489e+01 7.259784e-01 5.514493e+00 -3.885968e+00 -5.915020e+00 1.102593e+01 1.846965e+00 -5.426013e+00 3.949335e+00 4.569668e+00 -1.122828e+01 4.613202e+00 5.752507e+01 1.713355e-01 1.026708e-01 1.773770e-01 1.642365e-01 1.851979e-01 2.334791e-01 2.565244e-01 2.021993e-01 2.831624e-01 2.357273e-01 1.671934e-01 1.804043e-01 -1.550384e-01 1.569181e-02 2.811680e-02 2.141897e-02 4.263793e-02 5.491674e-02 2.840375e-02 4.987051e-02 6.960422e-02 5.253031e-02 4.464536e-02 5.780444e-02 2.047985e-02 -1.053467e-02
<VARIANCE> 39
 3.823439e+01 9.857443e+00 1.587423e+01 1.565730e+01 2.813969e+01 2.738494e+01 2.750364e+01 4.539094e+01 3.680120e+01 3.186727e+01 2.946653e+01 2.961584e+01 3.538740e+01 1.136166e+00 4.268139e-01 8.777961e-01 8.612906e-01 1.268242e+00 1.623238e+00 1.547862e+00 2.215181e+00 2.217104e+00 1.819165e+00 1.738257e+00 1.581933e+00 1.044010e+00 2.348277e-01 8.466589e-02 1.814420e-01 1.775845e-01 2.560434e-01 3.349825e-01 3.268101e-01 4.317627e-01 4.606466e-01 3.724074e-01 3.560208e-01 3.261461e-01 2.290827e-01
<GCONST> 1.005495e+02
<MIXTURE> 2 4.982260e-01
<MEAN> 39
 -2.223991e+01 3.388091e-01 5.169726e+00 -4.352220e+00 -6.935752e+00 1.021311e+01 7.597767e-01 -6.484031e+00 3.316134e+00 4.133859e+00 -1.171358e+01 4.704246e+00 5.840918e+01 -6.892447e-02 -1.134935e-01 -1.705066e-01 -1.797245e-01 -1.784734e-01 -2.631617e-01 -2.590908e-01 -1.880838e-01 -2.845714e-01 -2.461409e-01 -1.514502e-01 -1.887267e-01 7.389176e-02 -1.221433e-02 -2.689331e-02 -2.757536e-02 -4.167006e-02 -4.913406e-02 -3.519901e-02 -4.947008e-02 -6.048304e-02 -5.517411e-02 -4.776821e-02 -4.862125e-02 -2.591375e-02 7.541634e-03
<VARIANCE> 39
 4.056977e+01 1.056341e+01 1.753796e+01 1.640687e+01 3.023763e+01 3.195244e+01 3.063239e+01 5.146954e+01 4.051330e+01 3.203253e+01 3.204688e+01 3.401113e+01 3.744459e+01 1.481404e+00 4.963241e-01 1.053958e+00 9.376886e-01 1.434030e+00 1.920748e+00 1.785334e+00 2.632170e+00 2.591782e+00 2.066043e+00 1.922185e+00 1.818171e+00 1.613000e+00 2.569267e-01 9.048722e-02 2.007827e-01 1.836741e-01 2.752307e-01 3.700706e-01 3.508196e-01 4.799311e-01 5.007105e-01 3.965362e-01 3.803222e-01 3.610799e-01 2.778379e-01
<GCONST> 1.050596e+02
<TRANSP> 5
 0.000000e+00 1.000000e+00 0.000000e+00 0.000000e+00 0.000000e+00
 0.000000e+00 9.497061e-01 5.029389e-02 0.000000e+00 0.000000e+00
 0.000000e+00 0.000000e+00 9.921425e-01 7.857498e-03 0.000000e+00
 0.000000e+00 0.000000e+00 0.000000e+00 9.935519e-01 6.448069e-03
 0.000000e+00 0.000000e+00 0.000000e+00 0.000000e+00 0.000000e+00
<ENDHMM>
~h "cm"
<BEGINHMM>
<NUMSTATES> 5
<STATE> 2
<NUMMIXES> 2
<MIXTURE> 1 4.981641e-01
<MEAN> 39
 -1.278189e+01 -3.752169e-01 -3.790611e+00 -5.818703e+00 -1.356947e-01 7.692924e-01 -8.158671e-01 1.187722e+00 -6.231250e-01 1.578789e+00 3.031921e+00 4.483253e-01 5.849356e+01 4.885132e-02 8.082172e-02 1.162888e-01 1.518435e-01 2.071512e-01 2.165920e-01 1.904713e-01 2.119707e-01 1.989770e-01 2.074234e-01 1.960287e-01 1.460560e-01 1.481310e-01 3.035787e-02 2.791535e-02 3.622938e-02 4.277309e-02 3.684142e-02 3.100876e-02 3.621605e-02 3.424031e-02 3.256384e-02 2.666494e-02 2.026355e-02 1.239476e-02 1.685053e-02
<VARIANCE> 39
 9.806080e+00 1.348219e+01 1.338955e+01 1.499603e+01 1.480418e+01 1.660768e+01 1.951497e+01 1.874347e+01 1.856094e+01 1.666793e+01 1.854039e+01 1.681033e+01 2.469160e+01 2.234477e-01 3.354393e-01 5.076474e-01 7.542229e-01 9.512107e-01 1.132874e+00 1.279519e+00 1.372804e+00 1.375830e+00 1.307875e+00 1.336958e+00 1.218798e+00 2.263405e-01 3.379143e-02 5.804111e-02 9.328087e-02 1.431088e-01 1.867765e-01 2.288774e-01 2.584401e-01 2.791428e-01 2.791902e-01 2.680060e-01 2.673804e-01 2.456568e-01 2.344216e-02
<GCONST> 7.923004e+01
<MIXTURE> 2 5.018195e-01
<MEAN> 39
 -1.313504e+01 -1.105955e+00 -4.306019e+00 -6.390184e+00 -7.279565e-01 2.955654e-02 -1.649256e+00 5.270615e-01 -1.308891e+00 1.066417e+00 2.838469e+00 3.253632e-01 5.901313e+01 -7.114515e-02 -1.318772e-01 -1.602441e-01 -1.991034e-01 -1.815567e-01 -2.242412e-01 -2.790879e-01 -2.589036e-01 -2.666927e-01 -2.353648e-01 -1.973800e-01 -1.354586e-01 1.349910e-01 -3.524529e-03 -2.768420e-02 -3.460292e-02 -3.516242e-02 -4.747898e-02 -5.554787e-02 -5.050606e-02 -5.318835e-02 -4.990923e-02 -5.136235e-02 -4.933883e-02 -3.353181e-02 1.138795e-03
<VARIANCE> 39
 9.536948e+00 1.376752e+01 1.269384e+01 1.400757e+01 1.480827e+01 1.643345e+01 1.964742e+01 1.846922e+01 1.855433e+01 1.672241e+01 1.867418e+01 1.677641e+01 2.155847e+01 2.342100e-01 3.659941e-01 5.169209e-01 7.691207e-01 9.668884e-01 1.172112e+00 1.324871e+00 1.397144e+00 1.398290e+00 1.340639e+00 1.341717e+00 1.256066e+00 2.725510e-01 3.354744e-02 5.986508e-02 9.416630e-02 1.428361e-01 1.895486e-01 2.332364e-01 2.661462e-01 2.828653e-01 2.841152e-01 2.729104e-01 2.709422e-01 2.522500e-01 2.440025e-02
<GCONST> 7.971368e+01
<STATE> 3
<NUMMIXES> 2
<MIXTURE> 1 5.060968e-01
<MEAN> 39
 -7.894106e+00 -2.118165e+00 -4.651405e+00 -5.919767e+00 -1.692706e+00 -2.049082e+00 -2.115915e+00 -1.022787e+00 -2.106175e+00 -8.739183e-01 -4.850928e-01 -1.727435e+00 6.557963e+01 2.097295e-01 8.676858e-02 1.181143e-01 1.602118e-01 1.509658e-01 1.498652e-01 1.938378e-01 1.851137e-01 2.240144e-01 1.774203e-01 1.397267e-01 1.147366e-01 2.944683e-01 7.087938e-03 3.259214e-02 3.532184e-02 5.143985e-02 5.869918e-02 7.290420e-02 7.127826e-02 6.374844e-02 5.840214e-02 5.837191e-02 5.519477e-02 3.429424e-02 -4.180729e-02
<VARIANCE> 39
 1.433461e+01 1.682323e+01 1.404846e+01 1.804683e+01 1.781576e+01 1.738920e+01 2.191143e+01 1.965300e+01 2.034113e+01 1.847519e+01 1.725142e+01 1.546327e+01 7.559977e+01 4.896179e-01 6.022073e-01 6.903850e-01 9.642345e-01 1.139910e+00 1.287917e+00 1.386121e+00 1.477797e+00 1.492820e+00 1.446888e+00 1.421043e+00 1.303284e+00 9.533948e-01 7.515787e-02 1.118641e-01 1.339547e-01 1.953307e-01 2.354569e-01 2.678939e-01 2.917849e-01 3.068055e-01 3.137763e-01 3.040463e-01 2.936664e-01 2.659869e-01 1.333261e-01
<GCONST> 9.063879e+01
<MIXTURE> 2 4.938672e-01
<MEAN> 39
 -8.100680e+00 -2.446104e+00 -5.273696e+00 -6.397867e+00 -2.445971e+00 -2.762993e+00 -3.096942e+00 -1.779588e+00 -3.001103e+00 -1.607999e+00 -1.241733e+00 -2.135008e+00 6.715740e+01 1.039224e-01 -1.343372e-01 -1.706459e-01 -2.334446e-01 -3.213906e-01 -3.732250e-01 -3.413178e-01 -3.349756e-01 -3.180219e-01 -3.174535e-01 -3.439179e-01 -2.191094e-01 4.602588e-01 -1.316899e-02 -1.493046e-02 -2.300578e-02 -2.768525e-02 -1.989136e-02 -1.930030e-02 -2.924672e-02 -2.807378e-02 -3.051788e-02 -2.629063e-02 -1.694822e-02 -1.284619e-02 -2.617269e-02
<VARIANCE> 39
 1.470154e+01 1.626047e+01 1.521656e+01 1.714729e+01 1.769202e+01 1.739425e+01 2.108231e+01 1.988323e+01 2.111513e+01 1.849898e+01 1.769650e+01 1.558972e+01 6.864413e+01 6.267722e-01 7.836524e-01 7.717885e-01 1.070342e+00 1.243272e+00 1.428024e+00 1.471995e+00 1.568272e+00 1.557849e+00 1.506150e+00 1.456556e+00 1.331804e+00 1.367315e+00 8.353231e-02 1.235752e-01 1.434340e-01 1.982936e-01 2.388214e-01 2.759865e-01 2.937090e-01 3.128045e-01 3.215307e-01 3.057169e-01 2.960593e-01 2.690736e-01 1.551706e-01
<GCONST> 9.268618e+01
<STATE> 4
<NUMMIXES> 2
<MIXTURE> 1 4.962166e-01
<MEAN> 39
 -5.480138e+00 2.872230e-01 -3.323264e+00 -4.588474e+00 -8.336761e-01 -1.393058e+00 -2.087692e+00 -1.048550e+00 -1.914325e+00 -1.335698e+00 -6.840950e-01 -1.974601e+00 6.637418e+01 8.046252e-02 1.273040e-01 1.803495e-01 2.256240e-01 2.381195e-01 2.381341e-01 2.528318e-01 2.208666e-01 2.266245e-01 2.084933e-01 1.995266e-01 1.425997e-01 -2.304832e-01 1.111693e-02 2.231669e-02 2.935790e-02 3.305871e-02 3.583901e-02 3.622173e-02 3.772445e-02 3.780129e-02 3.631964e-02 3.345404e-02 2.885680e-02 1.676784e-02 5.503353e-03
<VARIANCE> 39
 1.125679e+01 1.145582e+01 1.218825e+01 1.468676e+01 1.479589e+01 1.452024e+01 1.643360e+01 1.741920e+01 1.792741e+01 1.597399e+01 1.454394e+01 1.285041e+01 7.202654e+01 1.785175e-01 2.792599e-01 4.378519e-01 6.616569e-01 8.364405e-01 9.845687e-01 1.128461e+00 1.215744e+00 1.272625e+00 1.246545e+00 1.204409e+00 1.121495e+00 2.546996e-01 2.761619e-02 5.086429e-02 8.535771e-02 1.308477e-01 1.683559e-01 1.998327e-01 2.338538e-01 2.509562e-01 2.639557e-01 2.585943e-01 2.487615e-01 2.303515e-01 2.008124e-02
<GCONST> 7.645281e+01
<MIXTURE> 2 5.037335e-01
<MEAN> 39
 -5.703645e+00 -4.633300e-01 -4.274741e+00 -5.487472e+00 -1.997377e+00 -2.526855e+00 -3.422060e+00 -2.163636e+00 -3.113549e+00 -2.343565e+00 -1.574978e+00 -2.543614e+00 6.847124e+01 -4.089292e-03 -4.095198e-02 -6.360148e-02 -8.012865e-02 -1.237163e-01 -1.593719e-01 -1.754377e-01 -2.139864e-01 -2.138655e-01 -2.089738e-01 -1.836922e-01 -1.290121e-01 -2.245791e-01 -1.924038e-02 -2.453372e-02 -3.025004e-02 -3.676857e-02 -3.811826e-02 -3.696261e-02 -3.722879e-02 -3.647515e-02 -3.631082e-02 -3.114256e-02 -2.644682e-02 -1.705514e-02 -1.680863e-02
<VARIANCE> 39
 9.753270e+00 1.091463e+01 1.188640e+01 1.417301e+01 1.441124e+01 1.397851e+01 1.545375e+01 1.673301e+01 1.762483e+01 1.561901e+01 1.489762e+01 1.276826e+01 6.512038e+01 1.838150e-01 2.825947e-01 4.451387e-01 6.669178e-01 8.427708e-01 9.807483e-01 1.126083e+00 1.215515e+00 1.269959e+00 1.247213e+00 1.211367e+00 1.131703e+00 2.723145e-01 2.804534e-02 5.092917e-02 8.555321e-02 1.303330e-01 1.683538e-01 2.011459e-01 2.322624e-01 2.508357e-01 2.628786e-01 2.600591e-01 2.512569e-01 2.314747e-01 2.163195e-02
<GCONST> 7.616373e+01
<TRANSP> 5
 0.000000e+00 1.000000e+00 0.000000e+00 0.000000e+00 0.000000e+00
 0.000000e+00 9.669272e-01 3.307278e-02 0.000000e+00 0.000000e+00
 0.000000e+00 0.000000e+00 9.570568e-01 4.294321e-02 0.000000e+00
 0.000000e+00 0.000000e+00 0.000000e+00 9.848664e-01 1.513356e-02
 0.000000e+00 0.000000e+00 0.000000e+00 0.000000e+00 0.000000e+00
<ENDHMM>
~h "co"
<BEGINHMM>
<NUMSTATES> 5
<STATE> 2
<NUMMIXES> 2
<MIXTURE> 1 5.022501e-01
<MEAN> 39
 -7.083163e+00 -7.145049e+00 -4.519834e-01 -3.637499e+00 -8.488867e+00 -4.183984e+00 -4.649745e+00 4.948807e-01 -2.006788e+00 -4.568037e+00 -4.259973e+00 -5.554249e+00 6.386281e+01 -5.857869e-01 1.978878e-01 4.624229e-01 -1.945762e-01 -7.498346e-02 -4.727653e-01 1.290380e-01 -2.914811e-01 -4.890772e-01 -3.642680e-01 3.640749e-02 9.482587e-02 1.845953e+00 -1.126086e-02 1.916192e-02 -4.739175e-02 1.553705e-01 2.351876e-01 1.663562e-01 1.926813e-01 1.455377e-01 1.230552e-01 1.682842e-01 1.813970e-01 1.229614e-01 -2.488631e-01
<VARIANCE> 39
 2.213638e+01 3.932394e+01 2.468746e+01 3.512939e+01 6.911769e+01 5.302135e+01 9.047207e+01 5.949041e+01 5.459047e+01 5.123745e+01 4.072142e+01 3.651461e+01 1.180753e+02 1.166327e+00 2.437830e+00 1.731979e+00 2.175603e+00 3.714092e+00 2.958927e+00 3.594131e+00 2.732380e+00 3.110569e+00 2.649490e+00 2.220216e+00 2.048591e+00 3.631058e+00 1.487062e-01 3.658263e-01 2.785325e-01 3.319364e-01 5.857805e-01 5.405778e-01 6.020558e-01 4.648526e-01 5.414312e-01 4.594256e-01 4.248802e-01 3.706857e-01 5.191332e-01
<GCONST> 1.223765e+02
<MIXTURE> 2 4.977432e-01
<MEAN> 39
 -6.779778e+00 -8.713253e+00 -1.978677e+00 -2.937100e+00 -1.004313e+01 -4.216299e+00 -5.749569e+00 6.070974e-01 -1.298970e+00 -4.433841e+00 -3.696242e+00 -5.946178e+00 6.393347e+01 -4.913322e-01 -3.175457e-01 1.144196e-01 -6.650543e-01 -1.027455e+00 -1.100105e+00 -5.875485e-01 -9.467363e-01 -9.326970e-01 -9.416066e-01 -6.210609e-01 -5.378167e-01 2.680507e+00 -7.073832e-02 1.870556e-01 1.465167e-02 -4.463634e-02 2.303014e-01 4.231694e-02 8.052658e-02 -5.637676e-02 -1.010141e-01 -3.706083e-02 3.637213e-02 3.531567e-02 -2.241978e-02
<VARIANCE> 39
 2.112096e+01 4.560984e+01 2.512196e+01 3.682191e+01 7.463432e+01 5.818198e+01 1.133211e+02 6.506071e+01 6.110837e+01 6.160586e+01 4.295559e+01 4.235846e+01 1.002300e+02 1.223570e+00 3.708895e+00 2.044521e+00 2.883660e+00 5.409325e+00 3.629897e+00 4.953832e+00 3.748595e+00 3.870198e+00 3.074559e+00 2.643134e+00 2.620303e+00 5.215234e+00 1.571750e-01 6.019903e-01 3.281910e-01 4.254806e-01 6.681383e-01 5.282810e-01 7.355208e-01 5.133153e-01 6.156954e-01 5.139610e-01 4.556528e-01 4.211365e-01 5.778825e-01
<GCONST> 1.285634e+02
<STATE> 3
<NUMMIXES> 2
<MIXTURE> 1 5.058782e-01
<MEAN> 39
 -6.954969e+00 -7.236956e+00 -1.194197e+00 -3.099373e+00 -6.783888e+00 -7.850174e+00 -6.346944e+00 -6.577454e+00 -3.831712e+00 -3.394368e+00 -3.438924e+00 -7.495200e+00 6.700277e+01 2.597181e-02 9.877238e-02 1.460183e-01 1.919313e-01 3.222597e-01 2.596954e-01 2.691466e-01 2.515166e-01 2.375593e-01 2.863936e-01 2.682661e-01 1.878868e-01 -1.418831e-01 2.448351e-02 8.564733e-03 3.235466e-02 6.030270e-02 4.649206e-02 5.413852e-02 7.234667e-02 5.746622e-02 6.187794e-02 4.820725e-02 4.142807e-02 3.645558e-02 -5.372502e-02
<VARIANCE> 39
 2.155133e+01 1.591182e+01 2.600291e+01 2.488643e+01 2.817962e+01 3.077338e+01 4.856905e+01 6.198305e+01 3.930453e+01 3.953683e+01 3.772299e+01 3.561028e+01 5.708090e+01 4.781324e-01 6.789311e-01 8.815864e-01 1.093669e+00 1.601146e+00 1.460475e+00 1.919763e+00 2.149535e+00 2.403977e+00 2.140829e+00 1.821681e+00 1.632998e+00 1.111016e+00 7.003246e-02 1.386229e-01 1.633355e-01 2.023766e-01 3.186080e-01 2.972304e-01 3.746449e-01 4.214921e-01 4.854458e-01 4.295238e-01 3.855156e-01 3.243742e-01 1.573768e-01
<GCONST> 1.035543e+02
<MIXTURE> 2 4.941028e-01
<MEAN> 39
 -7.124877e+00 -8.052142e+00 -2.717818e+00 -3.873633e+00 -7.733320e+00 -8.807734e+00 -7.420765e+00 -6.606114e+00 -4.106318e+00 -4.404027e+00 -3.818342e+00 -8.225576e+00 6.891723e+01 1.112815e-01 -1.298366e-01 -1.275120e-01 -9.294514e-02 -1.568631e-01 -2.257093e-01 -3.934684e-01 -3.472549e-01 -2.068560e-01 -2.277459e-01 -2.660467e-01 -2.572525e-01 -5.229962e-02 5.275074e-03 -1.047191e-02 -2.526316e-02 -4.777503e-02 -4.799807e-02 -3.931761e-02 -7.727872e-02 -4.385176e-02 -5.138146e-02 -4.236899e-02 -5.210987e-02 -4.043166e-02 -2.311304e-03
<VARIANCE> 39
 1.720252e+01 1.638846e+01 2.779588e+01 2.378969e+01 2.719876e+01 3.034515e+01 5.082973e+01 6.522433e+01 4.528321e+01 4.161899e+01 3.681921e+01 3.694873e+01 4.597337e+01 5.213940e-01 9.731476e-01 9.569960e-01 1.205445e+00 1.988524e+00 1.633110e+00 2.358707e+00 2.459627e+00 2.811885e+00 2.255229e+00 2.061833e+00 1.806361e+00 1.635691e+00 6.934830e-02 1.907229e-01 1.668539e-01 2.317760e-01 3.475697e-01 3.079345e-01 4.144607e-01 4.614941e-01 5.844769e-01 4.592458e-01 3.976253e-01 3.434633e-01 1.685723e-01
<GCONST> 1.067213e+02
<STATE> 4
<NUMMIXES> 2
<MIXTURE> 1 4.946800e-01
<MEAN> 39
 -4.285128e+00 -3.279137e+00 2.897363e+00 1.083834e+00 -4.312085e-01 -2.709151e+00 -4.410773e+00 -3.078567e+00 -2.242069e+00 -3.563590e+00 -3.177530e+00 -6.527014e+00 5.602995e+01 8.831200e-02 2.604268e-01 1.487819e-01 1.793739e-01 3.383235e-01 3.152684e-01 3.467464e-01 3.251626e-01 2.179569e-01 2.083857e-01 1.854486e-01 1.853885e-01 -3.429206e-01 1.242112e-02 2.962731e-02 2.855083e-02 4.107091e-02 4.373065e-02 5.742412e-02 5.876746e-02 6.147271e-02 4.935625e-02 4.905562e-02 3.830186e-02 2.321817e-02 5.316034e-03
<VARIANCE> 39
 1.528381e+01 2.705120e+01 1.963345e+01 2.336688e+01 2.868945e+01 3.094708e+01 5.112940e+01 4.310089e+01 3.065726e+01 3.108052e+01 2.785863e+01 2.575204e+01 6.011343e+01 2.672055e-01 4.454006e-01 6.093809e-01 7.822447e-01 1.075879e+00 1.155946e+00 1.449212e+00 1.437568e+00 1.475578e+00 1.572191e+00 1.477357e+00 1.373046e+00 4.792924e-01 3.642947e-02 8.299278e-02 1.114269e-01 1.493342e-01 2.243452e-01 2.272090e-01 2.918815e-01 2.822221e-01 3.029468e-01 3.235946e-01 3.039540e-01 2.809705e-01 4.602315e-02
<GCONST> 9.151257e+01
<MIXTURE> 2 5.053088e-01
<MEAN> 39
 -4.336733e+00 -4.990383e+00 1.820831e+00 -1.083710e-01 -2.076244e+00 -3.304357e+00 -7.015895e+00 -3.967900e+00 -2.820980e+00 -4.915393e+00 -3.753638e+00 -7.789934e+00 5.976762e+01 4.612103e-02 2.093757e-02 -7.612906e-02 -8.361831e-02 -6.584249e-02 -1.071459e-01 -1.718196e-01 -1.576811e-01 -2.195865e-01 -1.937879e-01 -1.741532e-01 -1.032524e-01 -2.861013e-01 -2.217634e-02 -3.153057e-02 -4.336984e-02 -5.459972e-02 -6.584698e-02 -6.399607e-02 -5.823137e-02 -5.586497e-02 -4.883684e-02 -5.090469e-02 -4.314190e-02 -2.790594e-02 6.412759e-03
<VARIANCE> 39
 1.499000e+01 2.724349e+01 2.108592e+01 2.323558e+01 3.146563e+01 3.516420e+01 6.075677e+01 4.229090e+01 3.396715e+01 4.015400e+01 3.289891e+01 3.097307e+01 6.592813e+01 2.841185e-01 7.035040e-01 6.869445e-01 8.375242e-01 1.395154e+00 1.283963e+00 1.878579e+00 1.634731e+00 1.674001e+00 1.743215e+00 1.608838e+00 1.586926e+00 9.167647e-01 4.202343e-02 1.092542e-01 1.236307e-01 1.596816e-01 2.465759e-01 2.451736e-01 3.373462e-01 3.013225e-01 3.320593e-01 3.430091e-01 3.191158e-01 3.141452e-01 7.191777e-02
<GCONST> 9.703526e+01
<TRANSP> 5
 0.000000e+00 1.000000e+00 0.000000e+00 0.000000e+00 0.000000e+00
 0.000000e+00 8.637553e-01 1.362447e-01 0.000000e+00 0.000000e+00
 0.000000e+00 0.000000e+00 9.845537e-01 1.544627e-02 0.000000e+00
 0.000000e+00 0.000000e+00 0.000000e+00 9.806107e-01 1.938921e-02
 0.000000e+00 0.000000e+00 0.000000e+00 0.000000e+00 0.000000e+00
<ENDHMM>
~h "ds"
<BEGINHMM>
<NUMSTATES> 5
<STATE> 2
<NUMMIXES> 2
<MIXTURE> 1 4.967578e-01
<MEAN> 39
 -1.366972e+01 -6.912358e-02 6.234570e-01 1.393579e-02 5.956911e-01 -9.963543e-01 4.102111e+00 -2.609886e-01 3.221629e+00 1.619169e+00 2.689658e+00 1.014539e+00 6.695709e+01 1.499430e-01 3.164163e-01 3.397033e-01 3.273802e-01 2.570665e-01 2.769390e-01 3.114329e-01 2.561577e-01 2.244461e-01 3.234434e-01 3.952501e-01 3.036106e-01 7.877609e-01 8.721294e-02 3.274525e-02 4.297068e-02 1.046322e-01 1.010933e-01 9.047119e-02 5.480690e-02 5.847588e-02 3.281211e-02 2.462688e-02 7.935978e-03 9.754837e-03 -2.148298e-01
<VARIANCE> 39
 2.363086e+01 1.725812e+01 1.586241e+01 1.872958e+01 2.381507e+01 2.159091e+01 2.724059e+01 2.893217e+01 2.361610e+01 2.086911e+01 1.891645e+01 1.573898e+01 1.245652e+02 1.613232e+00 1.117934e+00 1.129010e+00 1.545015e+00 1.770510e+00 1.975067e+00 2.135801e+00 2.132761e+00 1.968968e+00 1.858388e+00 1.775511e+00 1.516701e+00 5.297972e+00 3.121339e-01 2.006173e-01 2.121889e-01 3.142307e-01 3.535160e-01 3.832743e-01 4.281072e-01 4.168887e-01 3.918480e-01 3.646939e-01 3.556796e-01 2.983295e-01 9.727311e-01
<GCONST> 1.074677e+02
<MIXTURE> 2 5.032303e-01
<MEAN> 39
 -1.446398e+01 -1.487960e+00 -4.941434e-01 -1.423404e+00 -8.074139e-01 -1.411975e+00 4.032296e+00 5.466987e-01 2.029361e+00 1.549700e+00 2.348251e+00 7.173311e-01 6.432854e+01 -5.105257e-01 -1.549736e-01 -3.940392e-01 -3.836913e-01 -5.807190e-01 -4.705557e-01 -4.632335e-01 -2.779153e-01 -1.804863e-01 -3.515521e-02 -1.176186e-01 -8.477905e-02 9.320811e-01 4.717677e-02 -1.703456e-03 -6.841622e-03 -2.092752e-02 -9.797618e-03 -5.442062e-02 -3.309605e-02 -4.219917e-02 -1.815642e-02 -5.119144e-02 -5.649306e-03 -2.076428e-02 -8.308753e-02
<VARIANCE> 39
 2.444098e+01 1.540632e+01 1.634543e+01 2.031618e+01 2.752079e+01 2.187344e+01 3.064237e+01 3.420275e+01 2.502798e+01 2.341277e+01 1.990416e+01 1.639438e+01 1.028350e+02 1.934659e+00 9.036245e-01 1.271350e+00 1.564467e+00 2.169773e+00 2.034614e+00 2.299164e+00 2.185136e+00 2.004988e+00 1.938711e+00 1.911636e+00 1.492172e+00 7.458207e+00 3.029855e-01 1.594673e-01 2.195562e-01 2.967969e-01 4.004216e-01 3.854108e-01 4.156987e-01 4.214854e-01 3.761105e-01 3.650490e-01 3.692794e-01 2.836259e-01 1.053096e+00
<GCONST> 1.087619e+02
<STATE> 3
<NUMMIXES> 2
<MIXTURE> 1 4.958314e-01
<MEAN> 39
 -1.196335e+01 1.959350e+00 1.510697e+00 2.792653e+00 2.945112e+00 1.952592e-01 3.820455e+00 -9.134660e-01 3.096893e+00 2.478665e+00 3.651049e+00 1.081121e+00 6.828359e+01 3.306187e-01 1.002986e-01 2.156551e-01 2.124375e-01 4.218490e-01 3.019275e-01 2.863415e-01 1.681858e-01 1.539332e-01 1.380335e-01 1.434816e-01 5.141795e-04 -7.037686e-01 1.917517e-02 2.495553e-02 2.152793e-02 1.318978e-02 2.895293e-02 5.332362e-02 5.238589e-02 4.538317e-02 3.493050e-02 2.294143e-02 1.269784e-02 1.351412e-02 6.647015e-03
<VARIANCE> 39
 1.255166e+01 1.113311e+01 1.497852e+01 1.664569e+01 2.430612e+01 1.861887e+01 2.123725e+01 1.661864e+01 1.620685e+01 1.447232e+01 1.373409e+01 1.493215e+01 4.028414e+01 1.340617e-01 2.510588e-01 4.174578e-01 6.460649e-01 9.390037e-01 1.048783e+00 1.176853e+00 1.245197e+00 1.314887e+00 1.348181e+00 1.303633e+00 1.185061e+00 7.097709e-02 2.681917e-02 5.126029e-02 8.795584e-02 1.319044e-01 1.864482e-01 2.219953e-01 2.476121e-01 2.628357e-01 2.780031e-01 2.844492e-01 2.708338e-01 2.457757e-01 1.243360e-02
<GCONST> 7.602374e+01
<MIXTURE> 2 5.041289e-01
<MEAN> 39
 -1.381996e+01 -2.512931e-01 -1.407944e+00 -1.302210e-01 -2.248129e-01 -2.313777e+00 1.031150e+00 -2.541235e+00 1.670061e+00 2.429958e+00 3.383317e+00 -5.336693e-02 6.753802e+01 2.525333e-01 -8.105119e-02 -3.895197e-03 -1.697766e-02 2.523391e-01 -2.881365e-02 -1.265119e-01 -2.854568e-01 -2.910767e-01 -2.765814e-01 -2.139362e-01 -3.234230e-01 -7.199879e-01 -1.688355e-02 -3.453917e-02 -4.672308e-02 -6.900729e-02 -6.420108e-02 -3.459848e-02 -2.768285e-02 -2.768827e-02 -4.059288e-02 -4.024657e-02 -5.440456e-02 -3.092819e-02 -7.521337e-03
<VARIANCE> 39
 8.370740e+00 7.094157e+00 9.495507e+00 1.310317e+01 2.427512e+01 1.606351e+01 1.701431e+01 1.634229e+01 1.541442e+01 1.506772e+01 1.446067e+01 1.535509e+01 3.011599e+01 1.318862e-01 2.595117e-01 4.312948e-01 6.850798e-01 9.873246e-01 1.083222e+00 1.201031e+00 1.310492e+00 1.334234e+00 1.410713e+00 1.374873e+00 1.226208e+00 6.404298e-02 2.766642e-02 5.364160e-02 9.149247e-02 1.402217e-01 2.034859e-01 2.313095e-01 2.552528e-01 2.759252e-01 2.827256e-01 2.956538e-01 2.910798e-01 2.598013e-01 1.233151e-02
<GCONST> 7.473013e+01
<STATE> 4
<NUMMIXES> 2
<MIXTURE> 1 4.889676e-01
<MEAN> 39
 -9.436419e+00 1.310989e+00 2.210336e+00 4.341623e-01 3.380651e+00 1.299063e+00 3.752733e+00 1.199662e+00 2.763233e+00 -8.601189e-02 1.858204e+00 -3.329064e-01 5.550583e+01 8.915589e-02 1.329976e-01 1.908731e-01 1.922815e-01 2.327144e-01 2.756955e-01 2.797163e-01 2.836258e-01 2.622837e-01 2.276065e-01 2.019799e-01 1.545838e-01 -1.016987e-01 1.300979e-02 2.507162e-02 3.460665e-02 4.419423e-02 4.907395e-02 5.426485e-02 4.960735e-02 5.295479e-02 4.881745e-02 4.867638e-02 3.937948e-02 2.827410e-02 -1.269068e-02
<VARIANCE> 39
 1.730338e+01 1.386880e+01 1.956187e+01 2.107902e+01 2.082332e+01 2.404942e+01 2.707905e+01 2.070807e+01 2.611283e+01 2.322744e+01 1.761654e+01 1.609297e+01 6.912714e+01 5.274206e-01 4.847986e-01 6.140965e-01 8.811799e-01 1.088129e+00 1.334108e+00 1.461501e+00 1.460150e+00 1.595669e+00 1.562274e+00 1.413521e+00 1.256659e+00 8.399751e-01 9.835608e-02 9.345204e-02 1.207885e-01 1.774596e-01 2.243533e-01 2.727654e-01 2.986656e-01 3.039738e-01 3.250301e-01 3.194165e-01 2.916380e-01 2.577053e-01 1.076145e-01
<GCONST> 9.167484e+01
<MIXTURE> 2 5.109995e-01
<MEAN> 39
 -9.922802e+00 -3.167339e-02 3.070036e-01 -1.454741e+00 1.806474e+00 -8.146298e-02 2.346347e+00 4.902450e-01 1.766463e+00 -4.483271e-01 1.313283e+00 -1.202384e+00 5.362664e+01 -5.227104e-02 -1.082734e-01 -1.477186e-01 -1.645211e-01 -2.166205e-01 -2.349046e-01 -2.279974e-01 -2.233726e-01 -2.246735e-01 -2.273379e-01 -2.089417e-01 -1.291430e-01 3.623079e-02 -1.531648e-02 -2.363670e-02 -3.233300e-02 -3.910962e-02 -4.666804e-02 -5.308975e-02 -5.058919e-02 -5.351681e-02 -4.668655e-02 -4.309553e-02 -3.394918e-02 -2.511919e-02 1.524001e-02
<VARIANCE> 39
 1.712104e+01 1.222043e+01 1.569868e+01 1.573124e+01 1.796817e+01 2.268202e+01 2.435390e+01 2.212163e+01 2.452248e+01 2.321755e+01 1.805889e+01 1.632494e+01 3.159677e+01 6.305366e-01 5.531689e-01 7.387646e-01 9.512839e-01 1.169000e+00 1.415806e+00 1.572479e+00 1.596613e+00 1.637143e+00 1.606487e+00 1.451436e+00 1.302692e+00 8.626330e-01 9.506624e-02 1.000393e-01 1.373067e-01 1.850688e-01 2.305321e-01 2.812383e-01 3.157726e-01 3.224167e-01 3.296355e-01 3.269740e-01 2.961710e-01 2.648721e-01 1.171455e-01
<GCONST> 9.152200e+01
<TRANSP> 5
 0.000000e+00 1.000000e+00 0.000000e+00 0.000000e+00 0.000000e+00
 0.000000e+00 9.403266e-01 5.967340e-02 0.000000e+00 0.000000e+00
 0.000000e+00 0.000000e+00 9.559483e-01 4.405175e-02 0.000000e+00
 0.000000e+00 0.000000e+00 0.000000e+00 9.928950e-01 7.105014e-03
 0.000000e+00 0.000000e+00 0.000000e+00 0.000000e+00 0.000000e+00
<ENDHMM>
~h "kj"
<BEGINHMM>
<NUMSTATES> 5
<STATE> 2
<NUMMIXES> 2
<MIXTURE> 1 5.010640e-01
<MEAN> 39
 -2.022423e+01 3.286216e+00 -3.550969e-01 -2.622626e+00 -1.234861e+00 3.458966e+00 2.420782e+00 3.903235e+00 1.493015e+00 7.341635e-02 1.469814e+00 -8.875013e-01 5.598655e+01 2.005090e-02 1.267051e-01 1.457364e-01 1.666997e-01 2.057689e-01 2.405895e-01 2.459422e-01 2.550613e-01 2.520288e-01 2.401454e-01 2.150187e-01 1.637249e-01 4.355818e-03 1.029912e-02 2.376432e-02 3.418834e-02 4.303489e-02 4.182593e-02 5.173369e-02 5.148718e-02 4.862044e-02 4.562523e-02 4.168510e-02 3.497759e-02 2.657665e-02 7.338021e-03
<VARIANCE> 39
 3.365609e+01 2.444856e+01 1.792675e+01 2.760387e+01 1.714833e+01 3.324825e+01 3.037504e+01 2.198154e+01 2.091216e+01 2.142038e+01 1.671459e+01 1.652003e+01 2.403294e+01 6.552696e-01 5.148646e-01 7.219881e-01 8.908527e-01 1.099703e+00 1.356183e+00 1.501127e+00 1.534363e+00 1.526600e+00 1.537012e+00 1.417368e+00 1.292057e+00 3.574535e-01 1.066221e-01 9.871284e-02 1.375612e-01 1.786387e-01 2.213300e-01 2.757293e-01 3.046567e-01 3.178047e-01 3.177705e-01 3.211759e-01 2.958998e-01 2.649524e-01 5.742697e-02
<GCONST> 9.140749e+01
<MIXTURE> 2 4.989291e-01
<MEAN> 39
 -1.987624e+01 2.189409e+00 -1.006256e+00 -2.803838e+00 -1.681294e+00 2.499686e+00 1.981328e+00 3.098164e+00 9.110335e-01 1.530206e-02 1.047753e+00 -1.211832e+00 5.657139e+01 -6.955530e-02 -9.286579e-02 -1.346369e-01 -1.740683e-01 -2.104518e-01 -2.298442e-01 -2.344462e-01 -2.556711e-01 -2.492255e-01 -2.437096e-01 -2.137769e-01 -1.642927e-01 8.099876e-03 -6.965213e-03 -2.699483e-02 -3.520622e-02 -4.217701e-02 -4.306036e-02 -5.379446e-02 -5.343376e-02 -4.934267e-02 -4.764666e-02 -4.012194e-02 -3.563833e-02 -2.653048e-02 -7.769875e-03
<VARIANCE> 39
 3.356092e+01 2.700717e+01 1.998431e+01 2.541624e+01 1.735434e+01 3.474519e+01 2.946406e+01 2.329167e+01 2.113002e+01 2.126739e+01 1.705564e+01 1.666907e+01 2.497335e+01 6.634739e-01 6.266471e-01 7.711586e-01 9.154388e-01 1.131987e+00 1.383604e+00 1.541053e+00 1.568128e+00 1.545851e+00 1.550203e+00 1.434785e+00 1.297693e+00 4.602793e-01 1.095074e-01 1.128466e-01 1.461736e-01 1.823917e-01 2.265979e-01 2.789804e-01 3.109652e-01 3.205138e-01 3.209453e-01 3.230910e-01 2.967141e-01 2.660273e-01 6.894536e-02
<GCONST> 9.288566e+01
<STATE> 3
<NUMMIXES> 2
<MIXTURE> 1 5.006455e-01
<MEAN> 39
 -1.443610e+01 -8.339233e+00 -5.291311e+00 -1.918202e+00 -1.894878e+00 -4.175700e+00 -2.205331e+00 -2.217267e+00 -9.076089e-01 3.288001e-01 7.532243e-01 2.674484e-02 6.350131e+01 1.417921e-01 5.673748e-02 1.037116e-01 2.265326e-01 2.612801e-01 2.185608e-01 2.539008e-01 2.523298e-01 2.621378e-01 2.824388e-01 2.235172e-01 1.748865e-01 -1.567608e-01 -3.649741e-04 2.783829e-02 5.478520e-02 3.426886e-02 4.042944e-02 6.709342e-02 7.491440e-02 6.780046e-02 5.727810e-02 4.924905e-02 3.985583e-02 1.744615e-02 -3.827326e-03
<VARIANCE> 39
 2.098300e+01 3.697531e+01 1.480318e+01 1.630550e+01 1.803661e+01 1.963902e+01 2.205587e+01 2.164810e+01 1.891370e+01 1.720340e+01 1.606991e+01 1.401450e+01 6.698688e+01 5.651875e-01 1.533918e+00 9.496419e-01 9.480231e-01 1.135115e+00 1.435013e+00 1.621068e+00 1.592215e+00 1.530418e+00 1.466018e+00 1.350363e+00 1.256400e+00 1.554313e+00 9.446768e-02 3.236041e-01 1.849151e-01 1.892899e-01 2.343934e-01 3.012513e-01 3.328331e-01 3.277171e-01 3.237356e-01 3.099895e-01 2.858557e-01 2.599982e-01 2.747568e-01
<GCONST> 9.633190e+01
<MIXTURE> 2 4.993470e-01
<MEAN> 39
 -1.569380e+01 -9.780950e+00 -5.607771e+00 -2.894560e+00 -2.959695e+00 -4.852023e+00 -3.045786e+00 -2.922775e+00 -1.510012e+00 -3.622562e-01 4.980953e-01 -2.097540e-01 6.676299e+01 3.482556e-02 -3.881494e-01 -2.010513e-01 -1.479473e-01 -2.232013e-01 -4.003899e-01 -3.601085e-01 -3.931447e-01 -3.173820e-01 -2.599409e-01 -2.344553e-01 -1.276642e-01 2.704205e-01 1.906678e-03 1.399259e-02 -1.893117e-02 -2.686411e-02 -2.489360e-02 -2.640235e-02 -1.684529e-02 -3.490637e-02 -4.095144e-02 -3.710162e-02 -4.060840e-02 -3.258291e-02 -4.428352e-02
<VARIANCE> 39
 1.961657e+01 3.598626e+01 1.638513e+01 1.749347e+01 1.822855e+01 2.215109e+01 2.351784e+01 2.234686e+01 1.972022e+01 1.752970e+01 1.632949e+01 1.454666e+01 7.017883e+01 7.872443e-01 2.875313e+00 1.256183e+00 1.105308e+00 1.293391e+00 1.892815e+00 1.996846e+00 1.812116e+00 1.608228e+00 1.538106e+00 1.412712e+00 1.359609e+00 3.282618e+00 1.172022e-01 3.919131e-01 2.260228e-01 2.109319e-01 2.509610e-01 3.426031e-01 3.715605e-01 3.574246e-01 3.403975e-01 3.228820e-01 2.941194e-01 2.773497e-01 3.732633e-01
<GCONST> 1.015045e+02
<STATE> 4
<NUMMIXES> 2
<MIXTURE> 1 5.047436e-01
<MEAN> 39
 -2.170869e+01 1.282559e+00 2.255276e+00 1.370734e+00 -2.369550e+00 3.765202e-01 7.425870e+00 4.720362e-01 -2.039776e+00 5.089382e+00 6.012557e-01 -3.471106e+00 5.581762e+01 7.939181e-02 1.246500e-01 1.599838e-01 1.615717e-01 2.114840e-01 2.361451e-01 2.485448e-01 2.702946e-01 2.675077e-01 2.286316e-01 2.085629e-01 1.485800e-01 -5.405432e-02 1.851751e-02 2.098567e-02 3.264590e-02 3.425781e-02 4.248864e-02 4.768583e-02 4.572022e-02 4.880090e-02 5.051119e-02 3.981418e-02 3.794569e-02 3.087658e-02 5.208105e-03
<VARIANCE> 39
 3.635428e+01 2.029198e+01 1.556085e+01 1.758711e+01 1.732889e+01 1.944271e+01 2.961973e+01 1.977519e+01 2.116043e+01 2.243788e+01 1.743089e+01 1.582951e+01 2.491273e+01 4.397949e-01 5.861319e-01 6.112741e-01 8.639585e-01 1.067194e+00 1.230949e+00 1.540493e+00 1.459562e+00 1.498918e+00 1.621512e+00 1.401444e+00 1.263175e+00 3.371301e-01 7.340536e-02 1.136277e-01 1.199879e-01 1.717618e-01 2.176573e-01 2.529930e-01 3.124753e-01 3.035731e-01 3.148880e-01 3.380018e-01 2.895590e-01 2.586813e-01 5.535871e-02
<GCONST> 8.889578e+01
<MIXTURE> 2 4.952440e-01
<MEAN> 39
 -2.070772e+01 -1.494869e-01 1.140255e+00 5.058191e-01 -2.866190e+00 -7.675595e-01 5.920678e+00 -2.936525e-01 -2.383293e+00 4.230831e+00 2.660049e-01 -3.238479e+00 5.683261e+01 -1.419608e-02 -1.077435e-01 -1.433608e-01 -1.778222e-01 -1.973794e-01 -2.270104e-01 -2.394984e-01 -2.448135e-01 -2.523456e-01 -2.479101e-01 -2.182393e-01 -1.584165e-01 -2.153449e-02 -1.422596e-02 -2.429342e-02 -3.881905e-02 -3.992392e-02 -4.261573e-02 -5.163972e-02 -5.771687e-02 -5.283596e-02 -5.222884e-02 -4.766551e-02 -3.744055e-02 -2.800422e-02 -5.254097e-03
<VARIANCE> 39
 3.958441e+01 3.476883e+01 2.052654e+01 1.924879e+01 1.715238e+01 2.299861e+01 3.728154e+01 2.139889e+01 2.095543e+01 2.423655e+01 1.716918e+01 1.687116e+01 3.644970e+01 4.966430e-01 8.949477e-01 7.209410e-01 9.095128e-01 1.125168e+00 1.310768e+00 1.662074e+00 1.505232e+00 1.524736e+00 1.670508e+00 1.402264e+00 1.293369e+00 6.889096e-01 7.971276e-02 1.464089e-01 1.356460e-01 1.790216e-01 2.253132e-01 2.619564e-01 3.259960e-01 3.126945e-01 3.165278e-01 3.408736e-01 2.888577e-01 2.628650e-01 9.187628e-02
<GCONST> 9.379445e+01
<TRANSP> 5
 0.000000e+00 1.000000e+00 0.000000e+00 0.000000e+00 0.000000e+00
 0.000000e+00 9.942334e-01 5.766609e-03 0.000000e+00 0.000000e+00
 0.000000e+00 0.000000e+00 9.726912e-01 2.730875e-02 0.000000e+00
 0.000000e+00 0.000000e+00 0.000000e+00 9.904665e-01 9.533507e-03
 0.000000e+00 0.000000e+00 0.000000e+00 0.000000e+00 0.000000e+00
<ENDHMM>
~h "kn"
<BEGINHMM>
<NUMSTATES> 5
<STATE> 2
<NUMMIXES> 2
<MIXTURE> 1 4.945116e-01
<MEAN> 39
 9.413424e-01 1.057794e+00 -3.651607e+00 -3.069021e+00 1.642009e+00 -6.231814e-01 6.775527e-01 -1.487858e+00 1.035301e+00 1.567943e-01 3.854721e-01 -1.014466e+00 5.869538e+01 9.870282e-02 2.076491e-01 4.831753e-02 3.220071e-01 3.946646e-01 1.323782e-01 5.666354e-01 7.575694e-02 7.321085e-01 5.020587e-01 5.128120e-01 4.210997e-01 1.434042e+00 -1.376091e-01 1.685988e-01 1.802833e-01 7.872762e-02 8.477682e-02 2.224700e-01 9.813122e-02 1.936898e-01 -1.702040e-02 4.851935e-02 4.080877e-02 4.393499e-02 -4.196211e-01
<VARIANCE> 39
 2.664908e+01 4.104159e+01 3.055616e+01 1.437231e+01 2.438795e+01 3.041515e+01 3.222246e+01 3.892551e+01 2.637399e+01 2.252336e+01 2.210205e+01 1.704289e+01 9.234232e+01 2.334587e+00 1.530885e+00 1.841530e+00 1.202378e+00 1.466449e+00 2.399626e+00 2.658864e+00 2.984686e+00 2.206728e+00 2.032767e+00 1.989153e+00 1.612344e+00 5.758546e+00 3.588928e-01 2.533101e-01 2.982818e-01 2.001087e-01 2.506519e-01 4.168022e-01 4.533279e-01 5.344664e-01 4.020806e-01 3.821101e-01 3.478053e-01 2.901503e-01 7.464085e-01
<GCONST> 1.118097e+02
<MIXTURE> 2 5.054843e-01
<MEAN> 39
 -9.469388e-01 2.434788e+00 -1.938106e+00 -3.363523e+00 9.166539e-01 7.935405e-02 6.355586e-01 -5.773737e-01 2.108854e-01 3.714824e-01 -2.916433e-01 -1.237810e+00 5.458053e+01 1.841275e-01 -1.928807e-01 -2.925035e-01 -5.149662e-02 -1.026124e-01 -3.990995e-01 -1.573844e-01 -5.216454e-01 2.075798e-02 -1.594254e-01 -6.614788e-02 -1.197048e-01 1.003985e+00 6.928247e-02 -1.497162e-02 -7.161549e-02 -1.446560e-02 -2.125471e-02 -3.130224e-02 -4.699881e-02 -7.033750e-02 -5.671171e-02 -5.193481e-02 -2.897043e-02 -1.986221e-02 -5.712256e-02
<VARIANCE> 39
 3.228861e+01 3.273202e+01 3.105060e+01 1.217592e+01 2.461767e+01 2.664762e+01 3.160452e+01 3.883464e+01 2.372582e+01 2.350707e+01 2.387480e+01 1.635544e+01 1.008721e+02 2.173601e+00 1.455382e+00 1.792133e+00 1.058623e+00 1.346333e+00 2.250094e+00 2.318968e+00 2.914346e+00 2.040014e+00 2.019617e+00 1.934198e+00 1.607693e+00 5.248378e+00 3.205315e-01 2.044256e-01 2.657326e-01 1.864525e-01 2.394381e-01 3.669238e-01 4.116059e-01 4.672201e-01 3.957325e-01 3.708044e-01 3.436145e-01 2.895750e-01 7.099226e-01
<GCONST> 1.097185e+02
<STATE> 3
<NUMMIXES> 2
<MIXTURE> 1 5.003049e-01
<MEAN> 39
 5.339655e+00 -1.247895e+00 -3.983654e+00 9.762442e-02 4.027335e+00 -2.996545e-01 1.925673e+00 -1.425704e+00 1.907602e+00 7.215936e-01 1.557361e+00 3.350043e-01 6.087426e+01 8.298291e-02 1.499918e-01 1.752315e-01 2.575075e-01 2.645643e-01 3.193473e-01 2.990119e-01 3.358913e-01 2.551362e-01 3.107484e-01 2.842686e-01 2.577770e-01 -1.402209e-01 6.472528e-03 6.179467e-02 6.821463e-02 7.128072e-02 6.535514e-02 8.198731e-02 4.963241e-02 7.631877e-02 2.895156e-02 4.554141e-02 3.404164e-02 2.022559e-02 -9.790010e-02
<VARIANCE> 39
 1.199679e+01 2.413275e+01 1.613216e+01 1.540401e+01 2.018865e+01 2.609723e+01 2.269324e+01 2.237982e+01 2.131399e+01 1.998474e+01 1.730236e+01 1.648038e+01 3.364258e+01 3.959963e-01 8.323250e-01 7.699274e-01 9.374623e-01 1.209674e+00 1.514270e+00 1.526144e+00 1.656874e+00 1.601754e+00 1.544179e+00 1.435944e+00 1.299867e+00 1.598724e+00 7.460412e-02 1.799257e-01 1.539099e-01 2.015842e-01 2.456326e-01 3.296802e-01 3.312590e-01 3.677699e-01 3.465331e-01 3.429381e-01 3.122070e-01 2.802899e-01 2.989973e-01
<GCONST> 9.450138e+01
<MIXTURE> 2 4.996828e-01
<MEAN> 39
 5.450633e+00 -1.088886e+00 -4.232683e+00 -2.669099e-01 3.127883e+00 -1.116597e+00 8.052185e-01 -1.835834e+00 8.941704e-01 2.183247e-02 8.866570e-01 -3.111467e-01 5.921341e+01 9.998009e-04 -1.735215e-01 -1.326574e-01 -1.810344e-01 -2.166091e-01 -2.946392e-01 -2.709399e-01 -3.064626e-01 -2.987379e-01 -3.069452e-01 -2.854938e-01 -2.450683e-01 3.275657e-02 -3.033068e-03 -6.900390e-02 -6.891525e-02 -7.418772e-02 -6.750328e-02 -8.418345e-02 -5.961836e-02 -7.561808e-02 -4.454362e-02 -5.510546e-02 -4.485369e-02 -2.938917e-02 7.239598e-02
<VARIANCE> 39
 1.269913e+01 2.746055e+01 1.620005e+01 1.569089e+01 2.065266e+01 2.433644e+01 2.179603e+01 2.137594e+01 2.085208e+01 1.981195e+01 1.680915e+01 1.609386e+01 3.510940e+01 4.717138e-01 9.833285e-01 8.831137e-01 1.028248e+00 1.267635e+00 1.652927e+00 1.569568e+00 1.773064e+00 1.648019e+00 1.598816e+00 1.490042e+00 1.337803e+00 2.173424e+00 8.057295e-02 1.661686e-01 1.580247e-01 1.967143e-01 2.525733e-01 3.248589e-01 3.380479e-01 3.665697e-01 3.536143e-01 3.444684e-01 3.238334e-01 2.887292e-01 3.483421e-01
<GCONST> 9.604695e+01
<STATE> 4
<NUMMIXES> 2
<MIXTURE> 1 5.014431e-01
<MEAN> 39
 3.828096e+00 1.137948e+00 -1.180150e+00 1.176794e+00 5.310913e+00 2.592348e+00 2.827311e+00 7.034945e-01 3.966283e-01 5.373465e-01 1.035582e+00 -3.801191e-01 5.399186e+01 -7.632234e-02 2.545612e-01 3.419966e-01 2.009141e-01 2.097591e-01 4.156511e-01 2.189761e-01 3.876534e-01 1.710703e-01 2.439368e-01 2.043809e-01 1.117062e-01 -4.875175e-01 1.331096e-02 2.248812e-02 3.911964e-02 3.951538e-02 4.444191e-02 5.521732e-02 6.593932e-02 6.408989e-02 7.388835e-02 6.148878e-02 5.550758e-02 3.575471e-02 3.519930e-02
<VARIANCE> 39
 1.535902e+01 1.774893e+01 1.648279e+01 1.365966e+01 2.249023e+01 2.284269e+01 2.502742e+01 2.090759e+01 2.278490e+01 2.117992e+01 1.808689e+01 1.729939e+01 3.679137e+01 1.697822e-01 2.799517e-01 4.328837e-01 6.239802e-01 8.595255e-01 1.014945e+00 1.183171e+00 1.257934e+00 1.323158e+00 1.382101e+00 1.302225e+00 1.196972e+00 1.116277e-01 2.229914e-02 4.570865e-02 8.391155e-02 1.256122e-01 1.707688e-01 2.051239e-01 2.425703e-01 2.565387e-01 2.748120e-01 2.834473e-01 2.637197e-01 2.399702e-01 7.337078e-03
<GCONST> 7.769775e+01
<MIXTURE> 2 4.985464e-01
<MEAN> 39
 3.684842e+00 1.577198e+00 -1.034113e+00 5.247781e-01 4.143844e+00 1.525782e+00 1.488445e+00 2.317118e-01 -3.936671e-01 -1.184005e-01 2.636643e-01 -1.038760e+00 5.314158e+01 -2.164194e-01 4.962702e-02 4.946376e-02 -1.491562e-01 -1.612194e-01 -2.337800e-02 -2.497036e-01 -9.994859e-02 -3.344415e-01 -2.696484e-01 -2.667167e-01 -2.233025e-01 -5.085179e-01 -3.395526e-02 -4.535242e-02 -5.592059e-02 -7.203677e-02 -8.139447e-02 -8.365285e-02 -7.976312e-02 -8.287934e-02 -6.869970e-02 -6.717750e-02 -5.585114e-02 -4.431964e-02 1.023706e-02
<VARIANCE> 39
 1.948109e+01 2.057869e+01 1.816587e+01 1.426747e+01 2.115837e+01 2.238316e+01 2.222903e+01 2.186299e+01 2.207022e+01 2.033485e+01 1.727194e+01 1.618532e+01 3.901901e+01 1.704457e-01 2.866776e-01 4.352572e-01 6.290342e-01 8.486370e-01 1.012584e+00 1.195596e+00 1.271519e+00 1.307277e+00 1.373011e+00 1.289136e+00 1.183393e+00 1.186109e-01 2.259469e-02 4.744044e-02 8.292338e-02 1.282440e-01 1.709896e-01 2.060077e-01 2.483062e-01 2.613103e-01 2.721057e-01 2.884313e-01 2.681673e-01 2.462328e-01 7.841884e-03
<GCONST> 7.823342e+01
<TRANSP> 5
 0.000000e+00 1.000000e+00 0.000000e+00 0.000000e+00 0.000000e+00
 0.000000e+00 8.873346e-01 1.126654e-01 0.000000e+00 0.000000e+00
 0.000000e+00 0.000000e+00 9.842231e-01 1.577689e-02 0.000000e+00
 0.000000e+00 0.000000e+00 0.000000e+00 9.604296e-01 3.957042e-02
 0.000000e+00 0.000000e+00 0.000000e+00 0.000000e+00 0.000000e+00
<ENDHMM>
~h "kt"
<BEGINHMM>
<NUMSTATES> 5
<STATE> 2
<NUMMIXES> 2
<MIXTURE> 1 4.994318e-01
<MEAN> 39
 -1.201905e+01 4.348832e-02 -7.142331e+00 -2.375911e+00 1.856114e-01 6.367522e-01 5.457565e+00 2.373119e+00 2.258415e+00 6.471616e-01 1.005155e+00 -1.155129e+00 5.622175e+01 9.659256e-02 1.066250e-01 1.825453e-01 2.271098e-01 2.610840e-01 2.756324e-01 2.985116e-01 3.001490e-01 2.986508e-01 2.847983e-01 2.754113e-01 1.884845e-01 -2.144963e-03 5.119870e-02 2.397519e-02 3.120662e-02 3.995655e-02 6.384619e-02 6.841599e-02 7.410533e-02 4.952276e-02 3.665571e-02 4.278322e-02 4.309954e-02 2.553142e-02 -5.751755e-02
<VARIANCE> 39
 1.728361e+01 7.635386e+00 8.321125e+00 1.172992e+01 1.367258e+01 1.897406e+01 1.816084e+01 1.639977e+01 1.760682e+01 1.548961e+01 1.525687e+01 1.386713e+01 2.389935e+01 1.060217e+00 4.668981e-01 6.329052e-01 8.821087e-01 1.157620e+00 1.450480e+00 1.550705e+00 1.482329e+00 1.575378e+00 1.512752e+00 1.425364e+00 1.267329e+00 1.225057e+00 2.184725e-01 9.373212e-02 1.324176e-01 1.840163e-01 2.465243e-01 3.111576e-01 3.335445e-01 3.170550e-01 3.372811e-01 3.270032e-01 3.039429e-01 2.645053e-01 2.533000e-01
<GCONST> 8.974388e+01
<MIXTURE> 2 5.005563e-01
<MEAN> 39
 -1.183613e+01 -1.982204e-01 -7.327980e+00 -2.537677e+00 1.705803e-01 5.960066e-01 5.330185e+00 2.150963e+00 1.997316e+00 3.534597e-01 8.025224e-01 -1.321931e+00 5.581008e+01 -1.091558e-01 -9.902959e-02 -1.899830e-01 -2.171588e-01 -2.587731e-01 -2.877271e-01 -3.007756e-01 -3.063483e-01 -3.046476e-01 -2.936534e-01 -2.777390e-01 -1.921763e-01 2.565660e-02 -4.640274e-02 -2.399054e-02 -2.663485e-02 -3.855301e-02 -6.194732e-02 -6.858314e-02 -7.523813e-02 -5.096737e-02 -3.823468e-02 -4.336739e-02 -4.398709e-02 -2.539448e-02 5.118577e-02
<VARIANCE> 39
 1.755614e+01 7.808338e+00 8.376161e+00 1.194615e+01 1.343258e+01 1.902929e+01 1.775323e+01 1.659351e+01 1.765002e+01 1.547308e+01 1.523677e+01 1.381931e+01 2.223307e+01 1.241145e+00 4.937049e-01 6.453512e-01 9.015641e-01 1.156774e+00 1.485859e+00 1.561173e+00 1.488559e+00 1.591230e+00 1.507747e+00 1.424122e+00 1.280964e+00 1.482736e+00 2.212578e-01 9.614149e-02 1.343555e-01 1.869315e-01 2.425554e-01 3.077705e-01 3.266861e-01 3.203004e-01 3.379698e-01 3.262451e-01 3.035952e-01 2.656614e-01 2.323067e-01
<GCONST> 9.014873e+01
<STATE> 3
<NUMMIXES> 2
<MIXTURE> 1 5.045161e-01
<MEAN> 39
 -1.250923e+01 1.947148e+00 -3.685461e+00 6.308264e-02 5.848145e-01 -1.817361e+00 2.485308e+00 1.842164e+00 1.692025e+00 -8.568506e-01 5.598432e-02 -1.356676e+00 5.342318e+01 1.403222e-01 9.665694e-02 1.814865e-01 1.820583e-01 2.644859e-01 2.747888e-01 3.048670e-01 2.618853e-01 2.827215e-01 2.589833e-01 2.511664e-01 1.756558e-01 -1.253813e-01 2.550222e-02 3.227497e-02 2.945884e-02 3.584996e-02 4.704916e-02 5.385031e-02 5.244637e-02 5.758294e-02 4.223855e-02 4.867851e-02 3.906908e-02 2.426021e-02 -4.357991e-02
<VARIANCE> 39
 9.143126e+00 9.021955e+00 1.043653e+01 1.280955e+01 1.492894e+01 1.545861e+01 1.802458e+01 1.763051e+01 1.881580e+01 1.791201e+01 1.667068e+01 1.407051e+01 2.068766e+01 7.525952e-01 4.727201e-01 6.917167e-01 9.232064e-01 1.204035e+00 1.293180e+00 1.455405e+00 1.514902e+00 1.604435e+00 1.587892e+00 1.465907e+00 1.306452e+00 1.236112e+00 1.654719e-01 9.585096e-02 1.472518e-01 1.910360e-01 2.555678e-01 2.773181e-01 3.165475e-01 3.221295e-01 3.467826e-01 3.415912e-01 3.149039e-01 2.761810e-01 2.757974e-01
<GCONST> 8.953582e+01
<MIXTURE> 2 4.954558e-01
<MEAN> 39
 -1.273679e+01 1.810647e+00 -3.931689e+00 -1.451758e-01 3.386597e-01 -2.161708e+00 2.125385e+00 1.553662e+00 1.301265e+00 -1.300052e+00 -3.494920e-01 -1.664198e+00 5.345793e+01 -1.329244e-01 -8.785108e-02 -1.887134e-01 -1.748153e-01 -2.453628e-01 -2.807048e-01 -2.911525e-01 -2.786364e-01 -2.799634e-01 -2.690159e-01 -2.534029e-01 -1.801172e-01 1.149507e-01 -1.177215e-02 -3.345831e-02 -2.797949e-02 -4.044647e-02 -4.266290e-02 -4.081111e-02 -4.163574e-02 -4.773957e-02 -3.495881e-02 -3.815096e-02 -3.331806e-02 -2.129646e-02 2.130506e-02
<VARIANCE> 39
 9.639399e+00 9.424585e+00 1.035070e+01 1.341290e+01 1.521234e+01 1.599812e+01 1.843802e+01 1.833714e+01 1.927688e+01 1.826545e+01 1.683095e+01 1.422366e+01 2.164106e+01 9.660099e-01 5.351164e-01 7.580621e-01 9.836525e-01 1.301686e+00 1.379362e+00 1.559784e+00 1.589195e+00 1.690118e+00 1.666273e+00 1.535179e+00 1.364142e+00 1.780117e+00 1.843339e-01 1.019710e-01 1.557575e-01 2.018273e-01 2.704290e-01 2.910465e-01 3.283460e-01 3.327455e-01 3.528702e-01 3.483434e-01 3.199892e-01 2.832049e-01 3.055591e-01
<GCONST> 9.187233e+01
<STATE> 4
<NUMMIXES> 2
<MIXTURE> 1 4.996681e-01
<MEAN> 39
 -9.972558e+00 3.254094e+00 -2.672202e+00 -3.209803e-01 7.114385e-01 4.896396e-01 3.370586e+00 3.272645e+00 2.506893e+00 6.504720e-02 4.051118e-01 -1.698037e+00 4.902113e+01 1.099746e-01 8.899681e-02 1.750720e-01 1.668865e-01 2.392479e-01 2.719542e-01 2.855045e-01 2.840621e-01 2.712353e-01 2.616236e-01 2.330666e-01 1.658680e-01 -7.833982e-02 9.276338e-03 2.548011e-02 3.079198e-02 3.979347e-02 4.081053e-02 4.583304e-02 4.309024e-02 5.058333e-02 4.282923e-02 4.370650e-02 3.652059e-02 2.538380e-02 -4.049465e-03
<VARIANCE> 39
 1.091231e+01 9.043287e+00 1.229908e+01 1.261274e+01 1.703788e+01 1.685239e+01 1.990069e+01 1.750434e+01 1.733247e+01 1.724855e+01 1.479981e+01 1.294127e+01 1.280147e+01 6.381177e-01 4.559113e-01 6.432545e-01 8.130050e-01 1.028164e+00 1.185469e+00 1.335471e+00 1.387512e+00 1.439297e+00 1.430336e+00 1.310768e+00 1.193515e+00 5.890074e-01 1.305217e-01 9.112743e-02 1.331026e-01 1.682090e-01 2.172035e-01 2.494379e-01 2.851786e-01 2.948439e-01 3.059772e-01 3.027488e-01 2.763624e-01 2.479902e-01 1.252607e-01
<GCONST> 8.514429e+01
<MIXTURE> 2 5.003017e-01
<MEAN> 39
 -1.026311e+01 2.796485e+00 -3.144046e+00 -7.745097e-01 1.149550e-01 -1.213918e-01 2.810904e+00 2.884934e+00 2.136901e+00 -4.062990e-01 -6.029969e-02 -1.944427e+00 4.898997e+01 -6.769294e-02 -9.871165e-02 -1.571822e-01 -1.849547e-01 -2.355079e-01 -2.503573e-01 -2.755734e-01 -2.705951e-01 -2.702530e-01 -2.522440e-01 -2.285652e-01 -1.653276e-01 2.623443e-02 -1.267955e-02 -2.701963e-02 -3.268642e-02 -3.994920e-02 -4.356824e-02 -5.017969e-02 -4.914805e-02 -5.405280e-02 -4.529918e-02 -4.552086e-02 -3.736296e-02 -2.530158e-02 9.404734e-03
<VARIANCE> 39
 1.158733e+01 9.326561e+00 1.211094e+01 1.297298e+01 1.714590e+01 1.713743e+01 1.994335e+01 1.798573e+01 1.793670e+01 1.755272e+01 1.486075e+01 1.319630e+01 1.430742e+01 7.869555e-01 5.147054e-01 6.799303e-01 8.576787e-01 1.092379e+00 1.260206e+00 1.380985e+00 1.447472e+00 1.471241e+00 1.478611e+00 1.354533e+00 1.234312e+00 8.863866e-01 1.446402e-01 9.783888e-02 1.376343e-01 1.764373e-01 2.237724e-01 2.614439e-01 2.912915e-01 3.037343e-01 3.135847e-01 3.126645e-01 2.843386e-01 2.558990e-01 1.447554e-01
<GCONST> 8.729858e+01
<TRANSP> 5
 0.000000e+00 1.000000e+00 0.000000e+00 0.000000e+00 0.000000e+00
 0.000000e+00 9.914859e-01 8.514129e-03 0.000000e+00 0.000000e+00
 0.000000e+00 0.000000e+00 9.875270e-01 1.247298e-02 0.000000e+00
 0.000000e+00 0.000000e+00 0.000000e+00 9.924364e-01 7.563594e-03
 0.000000e+00 0.000000e+00 0.000000e+00 0.000000e+00 0.000000e+00
<ENDHMM>
~h "pr"
<BEGINHMM>
<NUMSTATES> 5
<STATE> 2
<NUMMIXES> 2
<MIXTURE> 1 5.021473e-01
<MEAN> 39
 -1.492189e+01 -8.800274e+00 -1.014564e+00 -7.983519e+00 2.836251e+00 6.473776e+00 4.833193e+00 7.232329e-01 -1.499424e+00 -1.747767e+00 5.288199e+00 2.646841e-01 5.852677e+01 1.024858e-02 9.600586e-02 1.706273e-01 1.678831e-01 2.400459e-01 2.387399e-01 2.415565e-01 1.975927e-01 2.359882e-01 2.096426e-01 2.093365e-01 2.155833e-01 3.030086e-02 2.956095e-02 4.139665e-02 4.898448e-02 5.819351e-02 6.410348e-02 7.612835e-02 6.599081e-02 7.239318e-02 6.880190e-02 5.523357e-02 5.897482e-02 4.827803e-02 -8.847076e-03
<VARIANCE> 39
 3.186316e+01 4.357483e+01 4.661703e+01 3.267608e+01 5.286009e+01 6.887300e+01 5.557580e+01 6.198145e+01 6.481928e+01 3.659262e+01 5.820187e+01 5.565560e+01 2.404666e+01 7.562798e-01 7.100337e-01 9.512257e-01 1.236144e+00 1.408279e+00 1.809941e+00 1.869447e+00 2.169480e+00 2.191721e+00 1.931062e+00 2.126981e+00 1.939352e+00 5.544353e-01 1.055296e-01 1.180539e-01 1.626199e-01 2.188039e-01 2.588929e-01 3.261066e-01 3.620356e-01 3.914594e-01 4.167736e-01 3.657870e-01 3.891938e-01 3.491481e-01 7.723954e-02
<GCONST> 1.071820e+02
<MIXTURE> 2 4.978466e-01
<MEAN> 39
 -1.505520e+01 -8.481521e+00 -1.040444e+00 -7.825993e+00 2.580971e+00 5.746814e+00 4.612896e+00 6.344908e-01 -5.706217e-01 -1.804263e+00 4.837240e+00 -1.958168e-01 5.882485e+01 -9.128325e-02 -1.285279e-01 -1.472111e-01 -1.924614e-01 -2.096528e-01 -2.200516e-01 -2.323671e-01 -2.338990e-01 -2.271807e-01 -2.222058e-01 -2.302694e-01 -1.337253e-01 4.451663e-02 -5.678821e-03 -3.491635e-02 -4.833961e-02 -5.098598e-02 -7.436721e-02 -7.915562e-02 -7.448402e-02 -6.413786e-02 -6.267004e-02 -5.185317e-02 -6.814936e-02 -5.565874e-02 -1.291924e-02
<VARIANCE> 39
 3.018326e+01 4.268044e+01 5.068068e+01 3.396344e+01 5.306549e+01 6.649114e+01 5.553633e+01 6.428211e+01 6.077358e+01 3.709256e+01 5.479739e+01 5.371201e+01 2.308909e+01 7.610733e-01 7.856765e-01 9.830346e-01 1.228238e+00 1.481496e+00 1.823943e+00 2.048430e+00 2.223353e+00 2.153121e+00 1.986673e+00 2.070086e+00 1.873103e+00 6.297644e-01 1.098005e-01 1.235240e-01 1.623632e-01 2.141002e-01 2.651158e-01 3.248660e-01 3.740575e-01 3.923786e-01 4.061185e-01 3.703009e-01 3.834524e-01 3.399778e-01 8.386619e-02
<GCONST> 1.075748e+02
<STATE> 3
<NUMMIXES> 2
<MIXTURE> 1 5.011781e-01
<MEAN> 39
 -1.973892e+01 3.184362e+00 1.724080e+01 -1.643865e+01 2.524402e+00 1.418743e+01 -5.257694e+00 -2.979384e+00 1.296561e+01 -4.533992e+00 -8.755379e+00 9.465129e+00 5.334494e+01 1.081311e-01 9.167150e-02 1.616382e-01 1.775982e-01 2.559947e-01 2.097050e-01 2.415549e-01 3.061509e-01 2.060090e-01 2.644386e-01 1.512959e-01 1.463160e-01 -2.565775e-02 4.984677e-03 3.664785e-02 3.552040e-02 5.108268e-02 6.277914e-02 4.447788e-02 6.326281e-02 7.080222e-02 4.502619e-02 5.717744e-02 5.955639e-02 2.345699e-02 1.199256e-02
<VARIANCE> 39
 1.867650e+01 1.840109e+01 1.461556e+01 2.841589e+01 2.468984e+01 2.295512e+01 1.640276e+01 3.166467e+01 3.246254e+01 3.818048e+01 3.418833e+01 1.820603e+01 1.386975e+01 6.147483e-01 4.399503e-01 4.993080e-01 7.837383e-01 1.195521e+00 1.197785e+00 1.068824e+00 1.356855e+00 1.568163e+00 1.557939e+00 1.778368e+00 1.041899e+00 2.354507e-01 1.514940e-01 9.214971e-02 1.048576e-01 1.649846e-01 2.550458e-01 2.570713e-01 2.291142e-01 2.936816e-01 3.332981e-01 3.042125e-01 3.365481e-01 2.102124e-01 5.827620e-02
<GCONST> 8.934090e+01
<MIXTURE> 2 4.988115e-01
<MEAN> 39
 -1.969326e+01 2.672106e+00 1.670783e+01 -1.666072e+01 2.390334e+00 1.331859e+01 -5.545088e+00 -2.872170e+00 1.249892e+01 -4.247754e+00 -8.723750e+00 9.299025e+00 5.328228e+01 2.853345e-02 -1.595848e-01 -1.828660e-01 -1.861570e-01 -2.111519e-01 -2.754897e-01 -2.653067e-01 -2.172916e-01 -2.533584e-01 -1.848035e-01 -2.125323e-01 -1.422318e-01 -8.695213e-02 1.283586e-03 -3.454977e-02 -5.158394e-02 -4.534693e-02 -5.203695e-02 -6.235491e-02 -5.742929e-02 -4.948650e-02 -6.601884e-02 -5.690188e-02 -3.994077e-02 -3.831952e-02 -1.807524e-02
<VARIANCE> 39
 1.948420e+01 2.008211e+01 1.707983e+01 3.046799e+01 2.534300e+01 2.461304e+01 1.698240e+01 3.168446e+01 3.425573e+01 3.996146e+01 3.554184e+01 1.892316e+01 1.515936e+01 5.788726e-01 4.698707e-01 5.431954e-01 8.266333e-01 1.177549e+00 1.256006e+00 1.115686e+00 1.375652e+00 1.574990e+00 1.567028e+00 1.761594e+00 1.086002e+00 2.434512e-01 1.465043e-01 9.349284e-02 1.089013e-01 1.673976e-01 2.485450e-01 2.632068e-01 2.332606e-01 2.876142e-01 3.288282e-01 3.080321e-01 3.421487e-01 2.191617e-01 5.871633e-02
<GCONST> 9.049371e+01
<STATE> 4
<NUMMIXES> 2
<MIXTURE> 1 4.990488e-01
<MEAN> 39
 -1.408668e+01 -4.920796e+00 3.986388e+00 -6.779479e+00 3.677982e+00 -4.232471e-01 2.225263e+00 5.477226e+00 3.590785e+00 -1.864459e+00 -3.357290e+00 3.419524e+00 5.370034e+01 8.315705e-02 1.431271e-01 1.420060e-01 2.060957e-01 2.052211e-01 2.270734e-01 2.577001e-01 2.574367e-01 2.439989e-01 2.235248e-01 2.186880e-01 1.346787e-01 -6.128900e-03 1.721249e-02 4.338213e-02 5.888089e-02 6.219753e-02 7.550738e-02 8.370803e-02 8.308115e-02 7.600802e-02 7.575317e-02 6.937359e-02 6.392983e-02 5.135984e-02 1.348957e-02
<VARIANCE> 39
 4.024512e+01 5.591469e+01 5.735061e+01 5.687461e+01 7.613734e+01 1.026606e+02 6.790989e+01 5.918238e+01 5.363367e+01 4.623375e+01 5.580421e+01 6.357668e+01 4.738287e+01 3.494554e-01 3.747888e-01 6.224850e-01 9.000093e-01 1.070118e+00 1.347430e+00 1.378524e+00 1.525728e+00 1.615781e+00 1.625975e+00 1.483731e+00 1.279820e+00 1.708516e-01 6.123740e-02 6.833254e-02 1.139615e-01 1.660487e-01 2.127329e-01 2.622811e-01 2.784287e-01 2.971820e-01 3.165453e-01 3.220770e-01 2.928863e-01 2.486459e-01 2.678744e-02
<GCONST> 9.959007e+01
<MIXTURE> 2 5.009410e-01
<MEAN> 39
 -1.425079e+01 -5.657704e+00 3.791043e+00 -6.379527e+00 3.639813e+00 -2.577326e-01 3.138610e+00 5.532865e+00 3.558514e+00 -1.730333e+00 -2.930915e+00 3.332370e+00 5.463940e+01 -1.709091e-02 -9.130578e-02 -1.824862e-01 -1.672519e-01 -2.451985e-01 -2.378961e-01 -2.304081e-01 -2.535870e-01 -2.442493e-01 -2.212255e-01 -1.971141e-01 -1.732758e-01 -5.816176e-02 -1.872512e-02 -4.221420e-02 -5.721268e-02 -6.347437e-02 -7.573496e-02 -7.962625e-02 -8.305820e-02 -7.784826e-02 -7.521003e-02 -6.813610e-02 -6.329206e-02 -5.138893e-02 -1.269691e-02
<VARIANCE> 39
 3.866432e+01 5.690814e+01 5.813402e+01 5.402160e+01 8.159443e+01 9.787953e+01 7.409479e+01 5.935048e+01 5.281673e+01 4.540321e+01 5.347128e+01 6.291407e+01 4.708312e+01 2.953079e-01 3.874516e-01 6.101581e-01 8.805983e-01 1.096563e+00 1.360948e+00 1.411206e+00 1.554276e+00 1.624040e+00 1.625892e+00 1.490974e+00 1.287706e+00 1.528490e-01 5.635047e-02 6.806242e-02 1.122452e-01 1.631676e-01 2.129931e-01 2.614925e-01 2.798066e-01 2.992336e-01 3.156658e-01 3.205763e-01 2.939082e-01 2.494870e-01 2.588645e-02
<GCONST> 9.920776e+01
<TRANSP> 5
 0.000000e+00 1.000000e+00 0.000000e+00 0.000000e+00 0.000000e+00
 0.000000e+00 9.898055e-01 1.019455e-02 0.000000e+00 0.000000e+00
 0.000000e+00 0.000000e+00 9.842061e-01 1.579391e-02 0.000000e+00
 0.000000e+00 0.000000e+00 0.000000e+00 9.952063e-01 4.793748e-03
 0.000000e+00 0.000000e+00 0.000000e+00 0.000000e+00 0.000000e+00
<ENDHMM>
~h "pw"
<BEGINHMM>
<NUMSTATES> 5
<STATE> 2
<NUMMIXES> 2
<MIXTURE> 1 4.989496e-01
<MEAN> 39
 -1.291616e+01 -2.535606e+00 -1.112579e+00 -1.202550e+00 1.671491e+00 -5.880597e-01 2.757984e+00 1.287255e+00 1.090049e+00 1.115659e+00 7.735679e-01 -4.141125e-01 5.321034e+01 5.916271e-02 1.302537e-01 1.458442e-01 1.786257e-01 2.199820e-01 2.530497e-01 2.689762e-01 2.794220e-01 2.657470e-01 2.506248e-01 2.178577e-01 1.597581e-01 -5.598329e-02 1.025553e-02 2.790609e-02 3.140563e-02 3.642374e-02 3.871323e-02 4.405165e-02 4.657491e-02 4.964377e-02 4.477865e-02 4.100011e-02 3.475662e-02 2.271292e-02 2.483822e-03
<VARIANCE> 39
 1.785038e+01 2.567331e+01 1.252056e+01 1.293299e+01 1.506879e+01 1.798890e+01 1.993476e+01 2.052942e+01 1.812185e+01 1.576644e+01 1.458034e+01 1.298832e+01 2.940985e+01 4.978609e-01 7.219100e-01 6.308591e-01 8.147528e-01 1.021409e+00 1.206748e+00 1.340305e+00 1.436200e+00 1.440952e+00 1.378733e+00 1.304530e+00 1.184669e+00 5.900919e-01 8.613984e-02 1.300136e-01 1.252821e-01 1.660221e-01 2.127289e-01 2.534008e-01 2.842796e-01 3.014174e-01 3.067918e-01 2.937843e-01 2.760670e-01 2.472582e-01 1.004818e-01
<GCONST> 8.742710e+01
<MIXTURE> 2 5.010272e-01
<MEAN> 39
 -1.335939e+01 -3.760365e+00 -1.919797e+00 -1.875498e+00 9.492022e-01 -1.771635e+00 1.729409e+00 2.334639e-01 3.175374e-01 4.277390e-01 3.160854e-01 -7.015367e-01 5.525018e+01 -6.113140e-02 -1.367688e-01 -1.423388e-01 -1.784612e-01 -2.190201e-01 -2.590265e-01 -2.675432e-01 -2.815257e-01 -2.677836e-01 -2.471577e-01 -2.187164e-01 -1.571088e-01 6.135143e-02 -1.047438e-02 -2.973808e-02 -3.225574e-02 -3.744137e-02 -4.069397e-02 -4.648097e-02 -4.921611e-02 -5.100996e-02 -4.601860e-02 -4.111464e-02 -3.422092e-02 -2.237881e-02 1.622960e-03
<VARIANCE> 39
 1.877285e+01 2.883201e+01 1.337074e+01 1.345398e+01 1.587562e+01 2.110353e+01 2.174641e+01 2.332686e+01 1.885947e+01 1.610283e+01 1.492860e+01 1.333828e+01 4.138599e+01 6.122901e-01 9.509512e-01 7.192543e-01 8.826604e-01 1.119132e+00 1.330223e+00 1.456434e+00 1.548306e+00 1.502636e+00 1.433491e+00 1.356259e+00 1.229388e+00 1.218292e+00 9.810044e-02 1.520545e-01 1.360921e-01 1.749704e-01 2.264702e-01 2.714200e-01 2.999881e-01 3.188930e-01 3.172396e-01 3.032674e-01 2.850407e-01 2.549468e-01 1.637484e-01
<GCONST> 9.178003e+01
<STATE> 3
<NUMMIXES> 2
<MIXTURE> 1 5.030093e-01
<MEAN> 39
 -1.060715e+01 -6.810357e+00 -3.607210e+00 -2.759671e+00 2.666828e-01 -4.992398e+00 -1.407463e+00 -4.000026e+00 -2.467750e+00 -9.790248e-01 -4.575193e-02 -2.374356e-01 6.079801e+01 8.821724e-02 1.228530e-01 1.154242e-01 1.937426e-01 2.553423e-01 2.501870e-01 2.540213e-01 2.587641e-01 2.598663e-01 2.587116e-01 2.312707e-01 1.834708e-01 -1.957226e-01 1.214435e-02 4.944193e-02 4.034417e-02 3.508599e-02 4.127081e-02 6.635609e-02 7.472712e-02 8.142930e-02 5.989563e-02 5.298191e-02 3.533974e-02 2.014486e-02 -6.658725e-02
<VARIANCE> 39
 2.202127e+01 2.753435e+01 1.393691e+01 1.347855e+01 1.810426e+01 2.356060e+01 2.331213e+01 2.792647e+01 1.994362e+01 1.739742e+01 1.555784e+01 1.399987e+01 8.612844e+01 4.817478e-01 8.088925e-01 6.841388e-01 8.053628e-01 1.069570e+00 1.363896e+00 1.483555e+00 1.617926e+00 1.501484e+00 1.431677e+00 1.322820e+00 1.244783e+00 2.341383e+00 9.438144e-02 1.595727e-01 1.295014e-01 1.663914e-01 2.308929e-01 2.855922e-01 3.221290e-01 3.339987e-01 3.186475e-01 3.083369e-01 2.815804e-01 2.624182e-01 5.123152e-01
<GCONST> 9.479699e+01
<MIXTURE> 2 4.969772e-01
<MEAN> 39
 -1.101294e+01 -8.040923e+00 -4.343440e+00 -3.765935e+00 -9.932294e-01 -6.274021e+00 -2.285490e+00 -4.979337e+00 -2.881067e+00 -1.638870e+00 -5.238370e-01 -6.082643e-01 6.429217e+01 -9.356878e-02 -2.839752e-01 -1.649502e-01 -1.785026e-01 -2.736892e-01 -3.863049e-01 -3.961305e-01 -4.143272e-01 -3.391056e-01 -3.029003e-01 -2.228721e-01 -1.546269e-01 4.233408e-01 4.611820e-03 -2.579328e-02 -3.320411e-02 -2.538256e-02 -1.564033e-02 -2.981302e-02 -3.663968e-02 -4.856677e-02 -3.763519e-02 -4.074250e-02 -3.311978e-02 -2.298373e-02 1.121835e-02
<VARIANCE> 39
 2.136763e+01 2.799014e+01 1.507491e+01 1.459700e+01 1.838766e+01 2.449422e+01 2.373721e+01 2.736142e+01 2.030226e+01 1.813584e+01 1.656939e+01 1.450874e+01 8.104362e+01 8.187449e-01 1.543867e+00 8.625814e-01 1.015923e+00 1.397374e+00 1.787611e+00 1.895435e+00 1.914397e+00 1.615205e+00 1.554506e+00 1.433039e+00 1.331820e+00 6.416373e+00 1.236495e-01 2.149303e-01 1.583213e-01 1.918256e-01 2.703625e-01 3.300305e-01 3.606965e-01 3.656262e-01 3.416900e-01 3.269115e-01 3.005700e-01 2.791272e-01 7.138086e-01
<GCONST> 1.009977e+02
<STATE> 4
<NUMMIXES> 2
<MIXTURE> 1 5.047556e-01
<MEAN> 39
 -1.192143e+01 -2.920511e+00 -2.895693e+00 -2.660282e+00 7.988074e-01 3.441152e-02 3.496652e+00 1.133952e+00 7.095753e-01 8.625033e-01 4.672186e-01 -9.274580e-01 5.430847e+01 7.599797e-02 1.351602e-01 1.410518e-01 1.806644e-01 2.263996e-01 2.799152e-01 2.897598e-01 2.979872e-01 2.818149e-01 2.612302e-01 2.251231e-01 1.566978e-01 -7.810785e-02 1.122299e-02 2.493542e-02 3.065150e-02 3.615461e-02 3.943641e-02 4.616446e-02 4.684936e-02 4.744965e-02 4.279949e-02 3.978111e-02 3.254288e-02 2.208026e-02 3.661834e-03
<VARIANCE> 39
 1.586602e+01 2.019703e+01 1.210999e+01 1.207485e+01 1.297796e+01 1.888565e+01 1.986884e+01 1.913702e+01 1.715837e+01 1.539033e+01 1.399629e+01 1.293660e+01 2.518814e+01 4.652410e-01 6.082525e-01 5.946920e-01 7.693937e-01 9.765339e-01 1.191418e+00 1.339432e+00 1.416031e+00 1.411218e+00 1.368726e+00 1.315336e+00 1.200635e+00 5.036377e-01 7.828191e-02 1.098449e-01 1.177329e-01 1.576259e-01 2.046153e-01 2.514442e-01 2.837956e-01 2.985498e-01 3.009567e-01 2.925099e-01 2.794164e-01 2.504539e-01 8.169386e-02
<GCONST> 8.527979e+01
<MIXTURE> 2 4.952364e-01
<MEAN> 39
 -1.239231e+01 -3.887642e+00 -3.306145e+00 -3.097487e+00 2.417077e-01 -1.063928e+00 2.542814e+00 2.103407e-01 4.902542e-03 2.001286e-01 1.147968e-01 -1.078337e+00 5.606321e+01 -5.349971e-02 -1.062503e-01 -1.315359e-01 -1.851929e-01 -2.217146e-01 -2.451561e-01 -2.607374e-01 -2.611570e-01 -2.624117e-01 -2.583482e-01 -2.295363e-01 -1.684294e-01 6.977081e-03 -1.012242e-02 -2.781564e-02 -3.300560e-02 -3.841881e-02 -4.350103e-02 -5.148020e-02 -5.311326e-02 -5.336262e-02 -4.703766e-02 -4.307955e-02 -3.472552e-02 -2.247187e-02 -6.955191e-04
<VARIANCE> 39
 1.648419e+01 2.118236e+01 1.176702e+01 1.227356e+01 1.397797e+01 2.186894e+01 2.203105e+01 2.184996e+01 1.832183e+01 1.588072e+01 1.427647e+01 1.332914e+01 3.525951e+01 5.747795e-01 7.794061e-01 6.548161e-01 8.301995e-01 1.049009e+00 1.311839e+00 1.459927e+00 1.502695e+00 1.466263e+00 1.411017e+00 1.342770e+00 1.233295e+00 9.902725e-01 9.104629e-02 1.277662e-01 1.256512e-01 1.667114e-01 2.169060e-01 2.665810e-01 2.992847e-01 3.094279e-01 3.119305e-01 2.998135e-01 2.842493e-01 2.572348e-01 1.286767e-01
<GCONST> 8.921822e+01
<TRANSP> 5
 0.000000e+00 1.000000e+00 0.000000e+00 0.000000e+00 0.000000e+00
 0.000000e+00 9.965293e-01 3.470682e-03 0.000000e+00 0.000000e+00
 0.000000e+00 0.000000e+00 9.856015e-01 1.439851e-02 0.000000e+00
 0.000000e+00 0.000000e+00 0.000000e+00 9.960077e-01 3.992240e-03
 0.000000e+00 0.000000e+00 0.000000e+00 0.000000e+00 0.000000e+00
<ENDHMM>
~h "si"
<BEGINHMM>
<NUMSTATES> 5
<STATE> 2
<NUMMIXES> 2
<MIXTURE> 1 4.882994e-01
<MEAN> 39
 -8.687018e+00 1.620629e+00 8.847020e-01 -1.692073e+00 2.009678e+00 1.795619e+00 2.742708e+00 3.362267e+00 1.588904e+00 6.640757e-01 5.172595e-01 -1.043768e+00 4.809778e+01 5.235076e-02 1.041016e-01 1.299189e-01 1.690248e-01 2.006731e-01 2.369926e-01 2.531968e-01 2.722618e-01 2.551697e-01 2.467159e-01 2.155835e-01 1.441753e-01 -2.233755e-02 1.863911e-02 2.659277e-02 3.506521e-02 4.118381e-02 4.555598e-02 5.052573e-02 5.317866e-02 5.273084e-02 4.830180e-02 4.305297e-02 3.657196e-02 2.412004e-02 7.576872e-03
<VARIANCE> 39
 2.046602e+01 1.339469e+01 1.574588e+01 1.576791e+01 1.903074e+01 1.937862e+01 2.416554e+01 2.118886e+01 1.909061e+01 1.690724e+01 1.591088e+01 1.407580e+01 2.141884e+01 2.607857e-01 3.844169e-01 4.970953e-01 6.978468e-01 8.988775e-01 1.089189e+00 1.228518e+00 1.316494e+00 1.338521e+00 1.334837e+00 1.260754e+00 1.122760e+00 1.948884e-01 4.317408e-02 7.157057e-02 9.803022e-02 1.414509e-01 1.838291e-01 2.244690e-01 2.551227e-01 2.748138e-01 2.802568e-01 2.798783e-01 2.622184e-01 2.311044e-01 2.984813e-02
<GCONST> 8.083618e+01
<MIXTURE> 2 5.113739e-01
<MEAN> 39
 -8.937353e+00 9.087137e-01 1.758974e-01 -2.475081e+00 1.016629e+00 7.865616e-01 1.733645e+00 2.411283e+00 8.720775e-01 6.872785e-02 1.732641e-02 -1.375916e+00 4.871856e+01 -5.153023e-02 -1.037667e-01 -1.424129e-01 -1.823362e-01 -2.099060e-01 -2.208863e-01 -2.227652e-01 -2.325481e-01 -2.339938e-01 -2.165255e-01 -1.987143e-01 -1.443929e-01 -2.847353e-02 -1.502875e-02 -2.574230e-02 -3.688388e-02 -4.209984e-02 -4.519081e-02 -4.544334e-02 -4.812049e-02 -4.723381e-02 -4.507141e-02 -3.946617e-02 -3.473302e-02 -2.472034e-02 -8.618496e-03
<VARIANCE> 39
 2.173110e+01 1.548854e+01 1.635046e+01 1.463315e+01 1.934133e+01 1.978825e+01 2.441660e+01 2.222111e+01 1.925008e+01 1.740154e+01 1.644529e+01 1.459205e+01 2.508504e+01 3.030242e-01 4.653986e-01 5.417790e-01 7.433583e-01 9.558064e-01 1.156765e+00 1.281484e+00 1.379718e+00 1.373579e+00 1.363701e+00 1.289005e+00 1.143264e+00 3.021424e-01 4.813387e-02 8.120538e-02 1.034005e-01 1.473008e-01 1.910914e-01 2.332457e-01 2.614414e-01 2.825194e-01 2.858662e-01 2.832278e-01 2.662223e-01 2.343653e-01 4.156281e-02
<GCONST> 8.344090e+01
<STATE> 3
<NUMMIXES> 2
<MIXTURE> 1 5.064344e-01
<MEAN> 39
 -4.809524e+00 -5.253255e-02 -1.579149e+00 -2.733894e+00 7.280014e-01 3.018838e+00 3.735790e+00 4.371888e+00 1.418678e+00 1.219639e+00 3.658432e-01 -1.890070e+00 4.574562e+01 6.652549e-02 1.155843e-01 1.453972e-01 1.820881e-01 2.108793e-01 2.355681e-01 2.453111e-01 2.564929e-01 2.513102e-01 2.395886e-01 2.150271e-01 1.462518e-01 2.114218e-02 1.874208e-02 3.136191e-02 3.973361e-02 4.233415e-02 4.562119e-02 4.406731e-02 4.591261e-02 4.428444e-02 4.489358e-02 4.010142e-02 3.560058e-02 2.547877e-02 1.356794e-02
<VARIANCE> 39
 5.042137e+00 1.288884e+01 1.272851e+01 1.057426e+01 1.673015e+01 1.551435e+01 1.736001e+01 1.866707e+01 1.691485e+01 1.632945e+01 1.433660e+01 1.277850e+01 1.174397e+01 1.287238e-01 2.503929e-01 4.235782e-01 6.203476e-01 8.419124e-01 1.026727e+00 1.175257e+00 1.272323e+00 1.299488e+00 1.311700e+00 1.233086e+00 1.106716e+00 4.547645e-02 2.403981e-02 5.024523e-02 8.768844e-02 1.307563e-01 1.773924e-01 2.175302e-01 2.496756e-01 2.710320e-01 2.782316e-01 2.807106e-01 2.617575e-01 2.309976e-01 7.581691e-03
<GCONST> 7.125498e+01
<MIXTURE> 2 4.930459e-01
<MEAN> 39
 -4.876634e+00 -4.601986e-01 -1.992690e+00 -3.142291e+00 1.945726e-01 2.455672e+00 3.287203e+00 3.845657e+00 1.019982e+00 7.899122e-01 -3.197169e-02 -2.174676e+00 4.597618e+01 -7.153174e-02 -1.126389e-01 -1.645370e-01 -1.967673e-01 -2.236142e-01 -2.338004e-01 -2.491122e-01 -2.495409e-01 -2.561613e-01 -2.419548e-01 -2.171361e-01 -1.522416e-01 -4.078031e-02 -2.404379e-02 -3.259335e-02 -3.918919e-02 -4.251842e-02 -4.722104e-02 -5.042233e-02 -5.104425e-02 -5.092848e-02 -4.772218e-02 -4.328170e-02 -3.675516e-02 -2.380747e-02 -9.162712e-03
<VARIANCE> 39
 5.371763e+00 1.301347e+01 1.214305e+01 1.029359e+01 1.635460e+01 1.564395e+01 1.730420e+01 1.854330e+01 1.668922e+01 1.638537e+01 1.455004e+01 1.301257e+01 1.284767e+01 1.303375e-01 2.547209e-01 4.291213e-01 6.257744e-01 8.463213e-01 1.034852e+00 1.186857e+00 1.286749e+00 1.310302e+00 1.324641e+00 1.244951e+00 1.118331e+00 4.639110e-02 2.444083e-02 5.100635e-02 8.863232e-02 1.319700e-01 1.789359e-01 2.191134e-01 2.510880e-01 2.728705e-01 2.791547e-01 2.820575e-01 2.632394e-01 2.322763e-01 7.915123e-03
<GCONST> 7.162815e+01
<STATE> 4
<NUMMIXES> 2
<MIXTURE> 1 5.034774e-01
<MEAN> 39
 -9.210156e+00 -9.773444e-01 -1.262696e+00 -2.461910e+00 2.382500e-01 4.094354e-01 3.271353e+00 2.230881e+00 1.704845e+00 9.021076e-01 7.141723e-01 -9.008389e-01 5.078928e+01 4.110198e-02 1.185019e-01 1.513393e-01 1.936006e-01 2.227642e-01 2.447489e-01 2.568476e-01 2.592364e-01 2.670221e-01 2.504162e-01 2.306331e-01 1.690637e-01 5.093813e-03 1.794516e-02 2.979622e-02 3.724932e-02 4.618506e-02 5.090435e-02 5.601690e-02 5.596447e-02 5.657907e-02 5.018218e-02 4.445111e-02 3.913151e-02 2.584837e-02 -2.178345e-03
<VARIANCE> 39
 2.042508e+01 1.755492e+01 1.476459e+01 1.575121e+01 1.802816e+01 2.014635e+01 2.118286e+01 2.283430e+01 2.018020e+01 1.771790e+01 1.665329e+01 1.505776e+01 3.191562e+01 4.500484e-01 5.224164e-01 5.825703e-01 7.933012e-01 1.001124e+00 1.213300e+00 1.354745e+00 1.485521e+00 1.438907e+00 1.426587e+00 1.339339e+00 1.206513e+00 4.777852e-01 7.498449e-02 9.863999e-02 1.150325e-01 1.602946e-01 2.056647e-01 2.500674e-01 2.806077e-01 3.095827e-01 3.000219e-01 2.975800e-01 2.780502e-01 2.470087e-01 8.070941e-02
<GCONST> 8.716446e+01
<MIXTURE> 2 4.963604e-01
<MEAN> 39
 -9.320338e+00 -1.809131e+00 -1.923206e+00 -3.196465e+00 -5.708958e-01 -4.265950e-01 2.422982e+00 1.490495e+00 1.000436e+00 2.987170e-01 2.469031e-01 -1.330646e+00 5.191478e+01 -8.414616e-02 -1.312297e-01 -1.493355e-01 -2.012624e-01 -2.333760e-01 -2.742822e-01 -2.764604e-01 -2.949166e-01 -2.699187e-01 -2.542889e-01 -2.251417e-01 -1.565046e-01 7.872020e-02 -1.418947e-02 -2.981032e-02 -3.607781e-02 -4.538532e-02 -4.979925e-02 -5.221314e-02 -5.469210e-02 -5.482837e-02 -4.998755e-02 -4.409546e-02 -3.967248e-02 -2.811260e-02 2.286669e-03
<VARIANCE> 39
 2.242850e+01 2.344385e+01 1.558899e+01 1.648735e+01 1.907163e+01 2.203995e+01 2.312897e+01 2.455954e+01 2.155336e+01 1.828975e+01 1.692092e+01 1.529919e+01 4.026604e+01 5.598407e-01 7.068346e-01 6.696489e-01 8.785287e-01 1.098805e+00 1.312746e+00 1.431602e+00 1.556853e+00 1.503434e+00 1.463927e+00 1.378009e+00 1.240385e+00 9.089711e-01 8.362554e-02 1.146719e-01 1.240450e-01 1.691722e-01 2.163544e-01 2.606723e-01 2.898068e-01 3.162594e-01 3.093672e-01 3.039889e-01 2.848969e-01 2.531618e-01 1.200203e-01
<GCONST> 9.115347e+01
<TRANSP> 5
 0.000000e+00 1.000000e+00 0.000000e+00 0.000000e+00 0.000000e+00
 0.000000e+00 9.875634e-01 1.243666e-02 0.000000e+00 0.000000e+00
 0.000000e+00 0.000000e+00 9.923531e-01 7.646970e-03 0.000000e+00
 0.000000e+00 0.000000e+00 0.000000e+00 9.846947e-01 1.530530e-02
 0.000000e+00 0.000000e+00 0.000000e+00 0.000000e+00 0.000000e+00
<ENDHMM>
~h "st"
<BEGINHMM>
<NUMSTATES> 5
<STATE> 2
<NUMMIXES> 2
<MIXTURE> 1 5.050367e-01
<MEAN> 39
 -9.199576e+00 -3.682618e+00 -1.773490e+00 -7.121721e+00 -2.159066e+00 -3.221982e+00 1.468774e+00 1.518554e+00 1.545751e+00 4.423590e-01 1.095069e+00 -1.576093e+00 5.905226e+01 -1.372192e-01 -3.299460e-01 2.888581e-01 -2.805022e-01 -1.643701e-02 -2.547362e-01 -4.990547e-02 1.712325e-01 2.542280e-01 1.937114e-01 2.854629e-01 2.269285e-01 8.984049e-01 8.825192e-02 1.568661e-01 4.800663e-02 1.870739e-01 1.309552e-01 2.331743e-01 1.779795e-01 9.263185e-02 6.896327e-02 6.025005e-02 3.934353e-02 3.175656e-02 -3.637660e-01
<VARIANCE> 39
 2.358288e+01 3.284627e+01 1.774478e+01 3.519220e+01 2.641282e+01 3.897602e+01 2.814702e+01 2.368668e+01 2.206955e+01 1.957847e+01 1.755152e+01 1.463955e+01 9.536999e+01 1.010290e+00 1.390330e+00 1.131074e+00 1.789254e+00 1.879763e+00 2.428815e+00 2.043786e+00 2.019449e+00 1.975689e+00 1.835451e+00 1.725302e+00 1.462364e+00 3.672132e+00 1.751879e-01 2.685426e-01 1.929996e-01 3.734846e-01 3.490798e-01 4.990023e-01 3.888674e-01 3.727211e-01 3.617982e-01 3.380589e-01 3.093004e-01 2.686199e-01 7.753013e-01
<GCONST> 1.076670e+02
<MIXTURE> 2 4.949574e-01
<MEAN> 39
 -9.086197e+00 -4.157843e+00 -2.568404e+00 -7.751818e+00 -2.939916e+00 -3.605777e+00 1.017140e+00 7.423899e-01 8.644549e-01 -1.887037e-01 5.810603e-01 -2.105857e+00 5.917463e+01 -4.019757e-01 -8.416128e-01 3.690788e-02 -9.217710e-01 -6.247198e-01 -1.194028e+00 -7.353308e-01 -4.296142e-01 -2.034990e-01 -3.347498e-01 -1.539404e-01 -1.449961e-01 1.876455e+00 5.557211e-02 4.820736e-02 2.204395e-02 1.968190e-02 2.567074e-02 4.954702e-02 1.575587e-02 1.524453e-02 8.058392e-03 8.197129e-05 -2.176563e-02 1.103272e-02 -1.182405e-01
<VARIANCE> 39
 2.422786e+01 3.139104e+01 1.928528e+01 3.082560e+01 2.666412e+01 3.885456e+01 2.834903e+01 2.359301e+01 2.210320e+01 1.990859e+01 1.830398e+01 1.534354e+01 8.552901e+01 1.480347e+00 2.000859e+00 1.391007e+00 2.405105e+00 2.345269e+00 3.170123e+00 2.380030e+00 2.402659e+00 2.237205e+00 2.024384e+00 1.868832e+00 1.641351e+00 5.656541e+00 1.917461e-01 3.024272e-01 2.322232e-01 3.904489e-01 3.864007e-01 5.406483e-01 4.137191e-01 4.114740e-01 3.729749e-01 3.572325e-01 3.207684e-01 2.918557e-01 8.882470e-01
<GCONST> 1.116415e+02
<STATE> 3
<NUMMIXES> 2
<MIXTURE> 1 5.047595e-01
<MEAN> 39
 -8.376059e+00 -2.482734e+00 -1.636113e+00 -5.623425e+00 -1.176642e+00 -1.052626e+00 2.779261e+00 7.676296e-01 6.331609e-01 -5.470514e-04 8.592398e-01 -1.607636e+00 5.564045e+01 5.980173e-02 1.582922e-01 1.302106e-01 2.272958e-01 2.553326e-01 3.133430e-01 2.928489e-01 2.857262e-01 2.748521e-01 2.709412e-01 2.426601e-01 1.802246e-01 -1.535057e-01 2.127220e-02 3.354282e-02 3.161336e-02 6.375855e-02 5.797892e-02 6.850210e-02 6.368071e-02 5.277732e-02 4.822576e-02 4.429074e-02 3.407968e-02 2.197514e-02 -3.900575e-02
<VARIANCE> 39
 1.651725e+01 2.043735e+01 1.686210e+01 2.412904e+01 1.985659e+01 2.492930e+01 2.028630e+01 1.960401e+01 1.978739e+01 1.818852e+01 1.583822e+01 1.434512e+01 4.351222e+01 4.557118e-01 5.258744e-01 6.248785e-01 9.733812e-01 1.099641e+00 1.314413e+00 1.376946e+00 1.433456e+00 1.464664e+00 1.434978e+00 1.354113e+00 1.241390e+00 1.002746e+00 8.077554e-02 1.065286e-01 1.235835e-01 2.062508e-01 2.385536e-01 2.843061e-01 2.966699e-01 3.083281e-01 3.147615e-01 3.108943e-01 2.904548e-01 2.627869e-01 1.902987e-01
<GCONST> 9.110626e+01
<MIXTURE> 2 4.951916e-01
<MEAN> 39
 -8.523693e+00 -3.263230e+00 -1.810914e+00 -6.536787e+00 -1.975901e+00 -1.924215e+00 2.126660e+00 1.761925e-01 8.640558e-02 -6.349217e-01 3.960470e-01 -1.994805e+00 5.683967e+01 -5.963354e-02 -1.262068e-01 -1.285400e-01 -1.986864e-01 -2.476174e-01 -2.854461e-01 -2.787595e-01 -2.887678e-01 -2.852713e-01 -2.755823e-01 -2.483570e-01 -1.804215e-01 7.835123e-02 -2.128433e-02 -3.111979e-02 -3.599752e-02 -6.035421e-02 -5.727942e-02 -6.704752e-02 -6.438655e-02 -5.299901e-02 -4.886334e-02 -4.350050e-02 -3.478629e-02 -2.338076e-02 3.654943e-02
<VARIANCE> 39
 1.691601e+01 2.163712e+01 1.619959e+01 2.379275e+01 2.056474e+01 2.688115e+01 2.089728e+01 1.985802e+01 2.018353e+01 1.888107e+01 1.621554e+01 1.461687e+01 4.567130e+01 6.642726e-01 8.458666e-01 7.183833e-01 1.386667e+00 1.407378e+00 1.671808e+00 1.533022e+00 1.524253e+00 1.556640e+00 1.521080e+00 1.425114e+00 1.302443e+00 2.180581e+00 9.675697e-02 1.293934e-01 1.354385e-01 2.331599e-01 2.626453e-01 3.154078e-01 3.123679e-01 3.208416e-01 3.282424e-01 3.210227e-01 3.012910e-01 2.725856e-01 2.533429e-01
<GCONST> 9.574454e+01
<STATE> 4
<NUMMIXES> 2
<MIXTURE> 1 5.004628e-01
<MEAN> 39
 -9.872395e+00 -2.724835e-02 -9.866433e-01 -3.150259e+00 1.602065e-01 -2.056414e-01 2.916589e+00 2.114422e+00 2.166770e+00 8.035889e-01 8.724588e-01 -1.337824e+00 5.141784e+01 5.494969e-02 1.272491e-01 1.422612e-01 2.060027e-01 2.429978e-01 2.859927e-01 2.781059e-01 2.765416e-01 2.638502e-01 2.529817e-01 2.274091e-01 1.607238e-01 -7.493752e-02 1.642810e-02 2.304145e-02 3.228200e-02 3.780093e-02 4.071092e-02 4.760356e-02 4.864482e-02 4.417718e-02 4.104177e-02 3.857290e-02 3.159344e-02 1.975297e-02 5.428519e-03
<VARIANCE> 39
 1.759898e+01 1.107149e+01 1.156160e+01 1.522401e+01 1.604050e+01 1.977912e+01 2.027440e+01 1.872495e+01 1.676845e+01 1.554019e+01 1.408846e+01 1.274108e+01 2.018264e+01 2.914821e-01 4.039251e-01 5.353244e-01 8.198236e-01 1.005254e+00 1.204450e+00 1.262982e+00 1.365667e+00 1.376791e+00 1.355115e+00 1.283566e+00 1.162123e+00 3.315934e-01 4.777355e-02 7.844587e-02 1.072072e-01 1.665294e-01 2.081142e-01 2.508178e-01 2.654121e-01 2.864045e-01 2.904945e-01 2.875818e-01 2.709376e-01 2.410920e-01 5.088992e-02
<GCONST> 8.193941e+01
<MIXTURE> 2 4.994708e-01
<MEAN> 39
 -1.004726e+01 -5.800491e-01 -1.329740e+00 -3.933198e+00 -7.470397e-01 -1.215402e+00 2.048796e+00 1.471990e+00 1.640209e+00 2.028922e-01 3.912943e-01 -1.735090e+00 5.210067e+01 -4.163139e-02 -9.705520e-02 -1.569500e-01 -1.673722e-01 -2.035251e-01 -2.247331e-01 -2.459359e-01 -2.722398e-01 -2.673306e-01 -2.516796e-01 -2.349288e-01 -1.642016e-01 -1.854804e-02 -1.718284e-02 -2.858189e-02 -3.373116e-02 -4.687280e-02 -4.834324e-02 -5.490981e-02 -5.401704e-02 -4.805103e-02 -4.465000e-02 -4.179619e-02 -3.343441e-02 -2.095972e-02 1.747191e-03
<VARIANCE> 39
 1.819699e+01 1.144781e+01 1.187491e+01 1.686411e+01 1.706421e+01 2.109110e+01 2.078894e+01 1.945923e+01 1.721361e+01 1.586884e+01 1.434222e+01 1.308603e+01 2.233333e+01 3.628455e-01 5.289679e-01 6.118536e-01 1.018435e+00 1.137342e+00 1.366256e+00 1.357596e+00 1.425285e+00 1.416985e+00 1.394816e+00 1.310605e+00 1.201707e+00 5.733147e-01 5.703517e-02 8.894125e-02 1.174267e-01 1.821281e-01 2.205603e-01 2.656529e-01 2.760665e-01 2.968222e-01 2.974842e-01 2.918597e-01 2.759157e-01 2.484203e-01 6.883208e-02
<GCONST> 8.544382e+01
<TRANSP> 5
 0.000000e+00 1.000000e+00 0.000000e+00 0.000000e+00 0.000000e+00
 0.000000e+00 8.380935e-01 1.619065e-01 0.000000e+00 0.000000e+00
 0.000000e+00 0.000000e+00 9.928657e-01 7.134276e-03 0.000000e+00
 0.000000e+00 0.000000e+00 0.000000e+00 9.893335e-01 1.066653e-02
 0.000000e+00 0.000000e+00 0.000000e+00 0.000000e+00 0.000000e+00
<ENDHMM>
~h "spe"
<BEGINHMM>
<NUMSTATES> 5
<STATE> 2
<NUMMIXES> 2
<MIXTURE> 1 4.963060e-01
<MEAN> 39
 -2.203966e+00 -1.801446e+00 -1.396167e+00 -6.702944e+00 -3.147207e+00 -2.099515e+00 -2.506024e+00 1.326231e-01 -2.057714e+00 6.039554e-01 1.498115e-01 -4.424878e+00 5.561657e+01 -1.527336e-02 3.977262e-02 1.615706e-01 1.036162e-01 9.926434e-02 9.780072e-02 1.848645e-01 2.193424e-01 2.496812e-01 2.808677e-01 2.438991e-01 1.902822e-01 1.079637e-01 1.688989e-02 1.940207e-02 4.456448e-02 5.477073e-02 3.533987e-02 5.098049e-02 5.935829e-02 4.832067e-02 5.997539e-02 5.121522e-02 4.362585e-02 3.762037e-02 8.604676e-03
<VARIANCE> 39
 2.905553e+01 4.146853e+01 3.462865e+01 3.997466e+01 4.700641e+01 4.789529e+01 3.604020e+01 3.921023e+01 3.140051e+01 3.170632e+01 3.263186e+01 3.012610e+01 1.212246e+01 7.945835e-01 1.118689e+00 1.197413e+00 1.402092e+00 1.910860e+00 1.973270e+00 1.880073e+00 2.028964e+00 1.943188e+00 1.970473e+00 1.905772e+00 1.767103e+00 3.672888e-01 1.014308e-01 1.472126e-01 1.727061e-01 2.153360e-01 3.040955e-01 3.342510e-01 3.439068e-01 3.760827e-01 3.760343e-01 3.763447e-01 3.577794e-01 3.285927e-01 4.011624e-02
<GCONST> 1.027482e+02
<MIXTURE> 2 5.036929e-01
<MEAN> 39
 -1.632452e+00 -2.420391e+00 -1.416759e+00 -6.643591e+00 -3.361793e+00 -1.668759e+00 -3.088350e+00 -2.059978e-01 -2.591807e+00 2.490366e-02 -5.330232e-01 -5.278509e+00 5.585461e+01 -8.930892e-03 -1.134161e-01 -4.090039e-02 -1.838030e-01 -2.246339e-01 -2.690165e-01 -3.170091e-01 -2.694231e-01 -2.633165e-01 -2.307791e-01 -2.257602e-01 -1.870949e-01 8.557714e-02 -1.276202e-02 -3.338811e-02 -3.407022e-02 -4.408359e-02 -5.785298e-02 -6.088239e-02 -5.758237e-02 -4.752297e-02 -5.028043e-02 -5.358834e-02 -4.778211e-02 -2.976318e-02 -6.912030e-03
<VARIANCE> 39
 2.524087e+01 4.132557e+01 3.851000e+01 3.760931e+01 4.602766e+01 4.903287e+01 3.501784e+01 3.949289e+01 3.304980e+01 3.150405e+01 3.442985e+01 3.183550e+01 1.255736e+01 7.307721e-01 1.164413e+00 1.276375e+00 1.380275e+00 1.959514e+00 1.983455e+00 1.882717e+00 2.087093e+00 2.004071e+00 1.970334e+00 1.898158e+00 1.820345e+00 3.900166e-01 8.904814e-02 1.471288e-01 1.760177e-01 2.140978e-01 3.056463e-01 3.345300e-01 3.349193e-01 3.780840e-01 3.857105e-01 3.774769e-01 3.600723e-01 3.298232e-01 3.872727e-02
<GCONST> 1.028704e+02
<STATE> 3
<NUMMIXES> 2
<MIXTURE> 1 5.008325e-01
<MEAN> 39
 -3.163182e+00 -4.474296e+00 2.408327e+00 -1.203515e+01 -3.763813e+00 -4.826370e+00 -4.143465e+00 -1.380653e+00 -2.151263e+00 -2.012064e+00 -3.850375e+00 -2.592586e+00 6.169196e+01 4.753917e-04 5.057377e-02 6.133395e-02 1.863806e-01 1.980269e-01 2.165437e-01 2.516624e-01 2.509414e-01 2.715419e-01 2.026667e-01 1.648050e-01 1.026905e-01 7.826649e-03 1.328773e-02 4.154721e-02 2.541231e-02 6.204701e-02 7.264262e-02 6.846984e-02 6.870280e-02 6.041440e-02 5.052221e-02 5.600704e-02 4.634120e-02 2.783022e-02 -1.257713e-02
<VARIANCE> 39
 2.214468e+01 3.745239e+01 7.312874e+01 6.577782e+01 6.653767e+01 5.993030e+01 3.937486e+01 5.311744e+01 3.730885e+01 3.314536e+01 5.295716e+01 3.390364e+01 2.873790e+01 5.176454e-01 9.633804e-01 1.236216e+00 1.501463e+00 1.787554e+00 1.862555e+00 1.917330e+00 2.137598e+00 1.905711e+00 1.884699e+00 1.933674e+00 1.679232e+00 4.426883e-01 7.300137e-02 1.279984e-01 1.827867e-01 2.390336e-01 3.015896e-01 3.429543e-01 3.620819e-01 3.925245e-01 3.717157e-01 3.730402e-01 3.690898e-01 3.191293e-01 4.811561e-02
<GCONST> 1.057897e+02
<MIXTURE> 2 4.991561e-01
<MEAN> 39
 -2.473279e+00 -5.160205e+00 2.613770e+00 -1.364909e+01 -4.165832e+00 -5.380294e+00 -5.927848e+00 -2.791766e+00 -2.465090e+00 -3.493083e+00 -5.927235e+00 -3.062291e+00 6.196230e+01 1.888174e-02 -3.535742e-02 -1.773902e-01 -1.119311e-01 -1.264980e-01 -2.037009e-01 -2.180834e-01 -2.609556e-01 -2.452726e-01 -2.648415e-01 -2.713040e-01 -1.877950e-01 -1.790734e-02 -2.221769e-02 -5.156804e-03 -5.123948e-02 -2.854487e-02 -3.588206e-02 -4.102416e-02 -3.304145e-02 -5.578076e-02 -5.240142e-02 -4.467876e-02 -3.689587e-02 -2.442716e-02 -2.732812e-02
<VARIANCE> 39
 2.088956e+01 3.533587e+01 7.646816e+01 6.655458e+01 6.687669e+01 6.398404e+01 4.602157e+01 6.227058e+01 4.401539e+01 3.806031e+01 6.088676e+01 4.024641e+01 1.984333e+01 5.954545e-01 1.015372e+00 1.354670e+00 1.592701e+00 1.920510e+00 1.939293e+00 2.121691e+00 2.238124e+00 2.149636e+00 2.084297e+00 2.057032e+00 1.790438e+00 4.325417e-01 7.893073e-02 1.374357e-01 1.992613e-01 2.538396e-01 3.179462e-01 3.505569e-01 3.847412e-01 4.165545e-01 4.079343e-01 4.027786e-01 3.961558e-01 3.397383e-01 4.636008e-02
<GCONST> 1.080420e+02
<STATE> 4
<NUMMIXES> 2
<MIXTURE> 1 5.002372e-01
<MEAN> 39
 -2.101204e+00 -3.267182e+00 -1.317056e+00 -5.496652e+00 -2.981933e+00 -2.746347e-01 3.003322e-01 8.099152e-01 -1.072474e+00 2.571149e-01 -5.206373e-01 -3.626743e+00 5.276039e+01 3.770541e-02 7.681978e-02 1.171355e-01 1.664496e-01 1.792057e-01 2.221288e-01 2.493578e-01 2.550020e-01 2.605423e-01 2.463239e-01 2.450579e-01 1.814399e-01 -1.355343e-03 1.956331e-02 2.843919e-02 4.303429e-02 4.335820e-02 5.272903e-02 5.663544e-02 5.714275e-02 5.834494e-02 5.278002e-02 5.049685e-02 4.707983e-02 2.942800e-02 1.203627e-02
<VARIANCE> 39
 1.480434e+01 2.747113e+01 3.140291e+01 2.639980e+01 4.203601e+01 3.817600e+01 3.790106e+01 3.102759e+01 2.785550e+01 2.593110e+01 2.666912e+01 2.293727e+01 1.723482e+01 3.396656e-01 6.216419e-01 8.069424e-01 9.579408e-01 1.341576e+00 1.493117e+00 1.565464e+00 1.626784e+00 1.650865e+00 1.624977e+00 1.588838e+00 1.409537e+00 2.140580e-01 4.907249e-02 9.225512e-02 1.273766e-01 1.659336e-01 2.311871e-01 2.743905e-01 2.986747e-01 3.185643e-01 3.329810e-01 3.278733e-01 3.124274e-01 2.751941e-01 2.362558e-02
<GCONST> 9.199181e+01
<MIXTURE> 2 4.997355e-01
<MEAN> 39
 -1.448021e+00 -4.099629e+00 -1.035426e+00 -6.211318e+00 -3.106284e+00 -3.865496e-01 -1.127242e+00 1.319624e-01 -1.844606e+00 -5.110615e-01 -1.259461e+00 -4.553154e+00 5.390957e+01 -3.821719e-02 -6.801439e-02 -1.339803e-01 -1.406027e-01 -1.562539e-01 -1.970053e-01 -2.184321e-01 -2.337835e-01 -2.472136e-01 -2.301750e-01 -2.279050e-01 -1.667169e-01 -5.008925e-02 -2.009269e-02 -3.004252e-02 -4.236467e-02 -4.633111e-02 -5.393159e-02 -5.857155e-02 -5.947712e-02 -5.834181e-02 -5.323554e-02 -5.095974e-02 -4.777913e-02 -2.992000e-02 -1.066892e-02
<VARIANCE> 39
 1.516862e+01 3.268492e+01 3.627148e+01 2.935204e+01 4.598452e+01 3.906585e+01 4.193012e+01 3.449982e+01 3.085871e+01 3.118018e+01 3.024410e+01 2.578644e+01 1.949026e+01 3.412351e-01 6.867076e-01 8.543637e-01 9.905652e-01 1.355029e+00 1.517949e+00 1.663533e+00 1.678829e+00 1.700718e+00 1.665097e+00 1.624658e+00 1.438560e+00 2.484426e-01 4.703999e-02 9.562891e-02 1.270159e-01 1.692937e-01 2.284850e-01 2.743583e-01 3.037496e-01 3.208031e-01 3.358417e-01 3.307184e-01 3.153934e-01 2.760644e-01 2.495049e-02
<GCONST> 9.407895e+01
<TRANSP> 5
 0.000000e+00 1.000000e+00 0.000000e+00 0.000000e+00 0.000000e+00
 0.000000e+00 9.825482e-01 1.745184e-02 0.000000e+00 0.000000e+00
 0.000000e+00 0.000000e+00 9.821593e-01 1.784068e-02 0.000000e+00
 0.000000e+00 0.000000e+00 0.000000e+00 9.963561e-01 3.643954e-03
 0.000000e+00 0.000000e+00 0.000000e+00 0.000000e+00 0.000000e+00
<ENDHMM>
