~o
<STREAMINFO> 1 39
<VECSIZE> 39<NULLD><MFCC_D_A_0><DIAGC>
~h "ap"
<BEGINHMM>
<NUMSTATES> 5
<STATE> 2
<NUMMIXES> 8
<MIXTURE> 1 2.898807e-01
<MEAN> 39
 -8.961200e+00 -6.078940e+00 -2.374829e+00 3.056658e-01 3.394063e+00 -1.317019e+00 4.053183e+00 1.158463e+00 -8.322830e-02 3.088813e-02 9.869441e-01 -9.109495e-01 5.259982e+01 2.764188e-01 3.635939e-01 1.271029e-01 -7.600386e-02 2.160255e-02 2.609506e-01 9.786011e-02 2.654296e-01 8.862206e-02 6.920575e-02 -3.637435e-02 -6.462915e-02 -5.307845e-01 -2.951969e-02 -1.336330e-02 -4.165648e-02 -4.719806e-02 -5.793913e-02 -4.041995e-02 -5.822953e-02 -5.391193e-02 -4.193810e-02 -2.240559e-02 -1.379687e-02 3.900504e-03 3.177949e-02
<VARIANCE> 39
 1.216912e+01 1.971303e+01 1.606501e+01 1.897111e+01 2.490445e+01 2.487140e+01 2.423683e+01 1.995030e+01 1.789601e+01 1.633718e+01 1.510451e+01 1.460230e+01 1.657512e+01 1.551372e-01 2.688994e-01 4.572536e-01 6.697544e-01 8.839678e-01 1.064375e+00 1.217115e+00 1.299995e+00 1.342756e+00 1.324582e+00 1.274682e+00 1.142275e+00 7.763095e-02 2.240742e-02 4.665221e-02 8.343744e-02 1.263593e-01 1.724111e-01 2.118491e-01 2.389477e-01 2.568906e-01 2.686757e-01 2.670866e-01 2.584696e-01 2.317790e-01 6.981927e-03
<GCONST> 7.587249e+01
<MIXTURE> 2 1.683093e-01
<MEAN> 39
 -1.475050e+01 -1.277050e+01 -7.546117e+00 -2.013308e+00 -3.164798e-01 -6.090678e+00 8.490922e-01 -3.626528e+00 -2.067732e+00 -1.089691e+00 3.433792e-01 -3.858393e-01 6.685991e+01 3.436073e-01 1.618088e-01 2.722429e-01 2.354127e-01 3.314465e-01 1.697418e-01 1.768661e-01 6.193762e-02 -2.048377e-03 -4.383612e-03 6.015838e-02 2.782598e-02 -9.268345e-01 -2.847232e-03 2.750617e-02 1.899631e-02 1.362395e-02 9.881351e-03 1.853455e-02 7.263695e-03 3.990896e-02 1.938708e-02 1.119564e-02 2.141675e-03 -5.248284e-03 8.334396e-03
<VARIANCE> 39
 1.462751e+01 2.756339e+01 2.632140e+01 2.238734e+01 3.013473e+01 2.767858e+01 2.426907e+01 2.223865e+01 2.220308e+01 1.992785e+01 1.846026e+01 1.551610e+01 5.179275e+01 1.047195e-01 2.416897e-01 3.970878e-01 6.239286e-01 8.631665e-01 1.021213e+00 1.196891e+00 1.304409e+00 1.358123e+00 1.333557e+00 1.271490e+00 1.191806e+00 3.703838e-02 2.199884e-02 5.004688e-02 8.281762e-02 1.322514e-01 1.803151e-01 2.134997e-01 2.513345e-01 2.744821e-01 2.896302e-01 2.828344e-01 2.676291e-01 2.508081e-01 8.865310e-03
<GCONST> 7.854558e+01
<MIXTURE> 3 1.683073e-01
<MEAN> 39
 -1.475147e+01 -1.277138e+01 -7.547473e+00 -2.014529e+00 -3.177296e-01 -6.091114e+00 8.481946e-01 -3.627064e+00 -2.067847e+00 -1.089722e+00 3.430753e-01 -3.860981e-01 6.686310e+01 3.436231e-01 1.617657e-01 2.722348e-01 2.354804e-01 3.315279e-01 1.697771e-01 1.769233e-01 6.190366e-02 -2.080854e-03 -4.396413e-03 6.014901e-02 2.783293e-02 -9.268789e-01 -2.838705e-03 2.753614e-02 1.903461e-02 1.368036e-02 9.938436e-03 1.855842e-02 7.274599e-03 3.991738e-02 1.937075e-02 1.118158e-02 2.142655e-03 -5.247453e-03 8.320043e-03
<VARIANCE> 39
 1.462954e+01 2.756544e+01 2.632703e+01 2.239196e+01 3.013862e+01 2.768228e+01 2.427304e+01 2.224227e+01 2.220664e+01 1.993139e+01 1.846473e+01 1.551824e+01 5.181038e+01 1.047446e-01 2.417290e-01 3.971389e-01 6.240572e-01 8.633437e-01 1.021386e+00 1.197096e+00 1.304621e+00 1.358336e+00 1.333772e+00 1.271703e+00 1.191977e+00 3.704812e-02 2.200388e-02 5.005990e-02 8.283422e-02 1.322902e-01 1.803615e-01 2.135435e-01 2.513974e-01 2.745516e-01 2.897105e-01 2.829109e-01 2.677000e-01 2.508613e-01 8.872875e-03
<GCONST> 7.855405e+01
<MIXTURE> 4 3.461000e-02
<MEAN> 39
 -1.954596e+01 -1.282375e+01 -9.668437e+00 -3.895918e+00 -4.200639e+00 -8.630146e+00 -2.342614e+00 -3.431817e+00 -2.551075e+00 -1.317688e+00 -6.015938e-01 -1.136852e+00 7.809638e+01 -7.971207e-01 -1.558538e+00 -9.765005e-01 -5.762851e-01 -8.419840e-01 -6.863446e-01 -4.762450e-02 -4.492427e-01 6.836010e-02 5.398124e-02 4.636618e-02 1.231317e-01 2.931146e+00 7.791365e-01 5.610512e-01 5.056551e-01 2.620000e-01 5.535923e-01 6.084967e-01 5.148671e-01 3.588741e-01 1.956051e-01 1.234506e-01 9.255999e-02 5.233694e-03 -1.935469e+00
<VARIANCE> 39
 1.053239e+01 3.318558e+01 2.701183e+01 2.922044e+01 3.255301e+01 3.246560e+01 2.960665e+01 2.922711e+01 2.933989e+01 2.300726e+01 2.101934e+01 1.836148e+01 3.293365e+01 3.116489e+00 3.526522e+00 2.428385e+00 2.195714e+00 3.228563e+00 4.057569e+00 3.419899e+00 3.257780e+00 2.769884e+00 2.165602e+00 1.932555e+00 1.648371e+00 1.718367e+01 2.584614e-01 4.042366e-01 2.898293e-01 4.468915e-01 4.653254e-01 5.740884e-01 5.527139e-01 5.469931e-01 5.368936e-01 4.335070e-01 3.869754e-01 3.427934e-01 8.905650e-01
<GCONST> 1.183315e+02
<MIXTURE> 5 1.683116e-01
<MEAN> 39
 -1.475115e+01 -1.277130e+01 -7.547291e+00 -2.014268e+00 -3.173857e-01 -6.091073e+00 8.483179e-01 -3.627125e+00 -2.067972e+00 -1.089844e+00 3.430477e-01 -3.860760e-01 6.686234e+01 3.436118e-01 1.617677e-01 2.722372e-01 2.354635e-01 3.315030e-01 1.697653e-01 1.769067e-01 6.191973e-02 -2.068446e-03 -4.383718e-03 6.016759e-02 2.784865e-02 -9.268678e-01 -2.839982e-03 2.752171e-02 1.902271e-02 1.365944e-02 9.922110e-03 1.856457e-02 7.292280e-03 3.993595e-02 1.939853e-02 1.120343e-02 2.155764e-03 -5.242336e-03 8.334171e-03
<VARIANCE> 39
 1.462894e+01 2.756610e+01 2.632701e+01 2.239193e+01 3.013893e+01 2.768287e+01 2.427344e+01 2.224268e+01 2.220688e+01 1.993174e+01 1.846477e+01 1.551864e+01 5.180534e+01 1.047404e-01 2.417323e-01 3.971463e-01 6.240595e-01 8.633369e-01 1.021402e+00 1.197104e+00 1.304642e+00 1.358363e+00 1.333805e+00 1.271737e+00 1.192005e+00 3.704531e-02 2.200054e-02 5.005538e-02 8.283128e-02 1.322809e-01 1.803548e-01 2.135409e-01 2.513928e-01 2.745447e-01 2.897024e-01 2.829062e-01 2.676979e-01 2.508607e-01 8.863273e-03
<GCONST> 7.855251e+01
<MIXTURE> 6 3.436732e-02
<MEAN> 39
 -1.951747e+01 -1.277278e+01 -9.636509e+00 -3.618629e+00 -4.091640e+00 -8.775735e+00 -2.589407e+00 -3.582731e+00 -2.861462e+00 -1.456169e+00 -6.950802e-01 -1.336402e+00 7.813923e+01 -1.046746e+00 -1.821255e+00 -1.175788e+00 -6.587378e-01 -1.044749e+00 -9.347626e-01 -2.466822e-01 -6.262934e-01 -6.058381e-02 -2.791597e-02 -1.066077e-02 1.027570e-01 3.638860e+00 8.107545e-01 5.439140e-01 4.993866e-01 2.159888e-01 5.333509e-01 6.502389e-01 5.724381e-01 4.015619e-01 2.532189e-01 1.592832e-01 1.180992e-01 3.343762e-02 -1.970534e+00
<VARIANCE> 39
 1.078020e+01 3.370514e+01 2.755106e+01 3.082056e+01 3.448108e+01 3.394151e+01 3.066493e+01 3.037884e+01 3.059242e+01 2.389198e+01 2.170540e+01 1.905014e+01 3.478377e+01 3.342397e+00 3.863984e+00 2.592463e+00 2.283460e+00 3.311081e+00 4.332204e+00 3.590668e+00 3.393027e+00 2.866541e+00 2.219804e+00 1.982332e+00 1.669484e+00 1.809328e+01 2.563708e-01 4.297100e-01 3.070595e-01 4.804431e-01 4.959239e-01 5.989707e-01 5.649736e-01 5.721430e-01 5.553302e-01 4.481063e-01 3.996255e-01 3.526483e-01 9.135416e-01
<GCONST> 1.199261e+02
<MIXTURE> 7 3.436480e-02
<MEAN> 39
 -1.951756e+01 -1.277665e+01 -9.639586e+00 -3.623285e+00 -4.095102e+00 -8.775038e+00 -2.587651e+00 -3.583536e+00 -2.860632e+00 -1.456004e+00 -6.952640e-01 -1.335447e+00 7.814439e+01 -1.043456e+00 -1.818835e+00 -1.173784e+00 -6.581455e-01 -1.042625e+00 -9.316776e-01 -2.440065e-01 -6.240984e-01 -5.892722e-02 -2.682897e-02 -9.943370e-03 1.031390e-01 3.630691e+00 8.106837e-01 5.445917e-01 4.998463e-01 2.167153e-01 5.339295e-01 6.501547e-01 5.721418e-01 4.015196e-01 2.529648e-01 1.591256e-01 1.179747e-01 3.323651e-02 -1.971264e+00
<VARIANCE> 39
 1.077647e+01 3.369637e+01 2.753746e+01 3.079520e+01 3.445711e+01 3.391783e+01 3.064845e+01 3.036281e+01 3.057651e+01 2.387777e+01 2.169551e+01 1.904142e+01 3.473751e+01 3.338110e+00 3.860216e+00 2.590431e+00 2.282480e+00 3.309748e+00 4.328398e+00 3.588095e+00 3.391191e+00 2.865368e+00 2.219061e+00 1.981636e+00 1.669249e+00 1.807997e+01 2.563767e-01 4.294076e-01 3.068359e-01 4.799643e-01 4.955419e-01 5.986698e-01 5.647867e-01 5.718962e-01 5.551203e-01 4.478917e-01 3.994654e-01 3.525489e-01 9.130207e-01
<GCONST> 1.199038e+02
<MIXTURE> 8 1.017536e-01
<MEAN> 39
 -8.600974e+00 -3.679539e+00 -2.044356e+00 -6.835026e-01 2.727281e+00 -8.594372e-02 3.939108e+00 2.283042e+00 5.071507e-02 3.028493e-01 5.486749e-01 -1.095821e+00 5.033014e+01 -1.624907e+00 -6.876375e-01 -8.701530e-01 -2.448732e-01 -8.374398e-01 -1.145388e+00 -1.041835e+00 -6.327158e-01 -3.945172e-01 -2.554964e-01 -2.216022e-01 -7.093536e-02 3.470890e+00 -6.572182e-01 -6.520931e-01 -4.915877e-01 -1.776401e-01 -4.007179e-01 -5.833414e-01 -3.990752e-01 -4.011962e-01 -1.985792e-01 -1.350382e-01 -6.968821e-02 -5.609769e-03 1.785442e+00
<VARIANCE> 39
 1.511007e+01 2.155347e+01 1.697359e+01 1.805069e+01 2.217881e+01 2.786540e+01 2.434125e+01 2.120328e+01 1.923663e+01 1.755015e+01 1.530079e+01 1.383275e+01 2.049591e+01 3.201964e+00 3.535824e+00 2.344310e+00 2.088949e+00 2.603258e+00 4.410132e+00 3.281249e+00 3.215574e+00 2.524076e+00 2.199616e+00 1.955321e+00 1.575377e+00 1.545677e+01 2.753554e-01 3.799715e-01 2.628473e-01 3.103919e-01 3.469401e-01 4.909174e-01 4.437410e-01 4.307364e-01 4.029596e-01 3.639864e-01 3.343426e-01 2.742826e-01 8.547527e-01
<GCONST> 1.117934e+02
<STATE> 3
<NUMMIXES> 8
<MIXTURE> 1 7.607005e-02
<MEAN> 39
 -1.484185e+01 -1.972642e+01 -1.496292e+01 -2.932528e+00 -4.177951e+00 -1.175546e+01 -1.196978e+00 -5.734997e-01 -3.725786e+00 -2.625588e+00 4.281924e-01 -8.475367e-01 8.185868e+01 4.465265e-01 -3.890170e-01 -3.602375e-03 1.237209e-01 1.644193e-01 4.036960e-01 9.469603e-01 3.276148e-01 3.381145e-01 3.878545e-01 3.537175e-01 1.491575e-01 -8.066269e-01 3.749642e-01 6.796856e-01 5.627566e-01 4.187610e-01 5.504186e-01 3.681003e-01 4.894822e-02 -4.964281e-02 8.302661e-03 -3.097249e-02 -6.963280e-02 -5.045899e-02 -1.475269e+00
<VARIANCE> 39
 8.132943e+00 1.822306e+01 1.589544e+01 2.064456e+01 2.617579e+01 1.814419e+01 3.232178e+01 2.371090e+01 2.454288e+01 2.461798e+01 1.672637e+01 1.483570e+01 1.355224e+01 2.391231e-01 6.878937e-01 6.842147e-01 1.333969e+00 1.508874e+00 1.573372e+00 1.964317e+00 2.351980e+00 2.237103e+00 1.707631e+00 1.459977e+00 1.403704e+00 5.436642e-01 1.215850e-01 2.256791e-01 1.889206e-01 3.023274e-01 3.275555e-01 4.025260e-01 4.673236e-01 4.087133e-01 4.073069e-01 3.578583e-01 2.825213e-01 2.637162e-01 7.954347e-01
<GCONST> 9.685423e+01
<MIXTURE> 2 2.471273e-01
<MEAN> 39
 -1.068908e+01 -1.799188e+01 -1.163399e+01 6.816379e-01 1.853324e-01 -1.003887e+01 5.221123e-01 -1.116763e+00 -4.375985e+00 -2.732240e+00 9.616268e-01 -6.119842e-01 6.920871e+01 2.940760e-01 1.786386e-01 2.617547e-01 2.548703e-01 3.029110e-01 1.712933e-01 1.298106e-01 4.294795e-02 8.715251e-03 1.207536e-02 5.470571e-02 4.684447e-02 -9.183534e-01 -9.893369e-03 1.862449e-02 7.181023e-03 -2.589792e-03 -3.925157e-03 1.078151e-02 -5.636478e-03 1.798943e-02 1.136976e-02 6.968042e-03 3.008347e-03 2.456628e-03 1.342297e-02
<VARIANCE> 39
 1.055713e+01 2.004466e+01 1.858925e+01 2.047620e+01 3.212507e+01 2.019025e+01 2.971994e+01 2.220814e+01 2.284744e+01 2.248251e+01 1.626798e+01 1.513385e+01 5.491034e+01 9.485396e-02 2.322752e-01 3.681210e-01 5.971307e-01 8.153607e-01 9.776286e-01 1.123205e+00 1.224003e+00 1.283179e+00 1.297211e+00 1.208240e+00 1.135481e+00 3.443566e-02 1.908311e-02 4.562967e-02 7.390437e-02 1.214929e-01 1.672544e-01 1.986723e-01 2.364665e-01 2.576005e-01 2.699745e-01 2.730395e-01 2.495251e-01 2.370226e-01 5.664645e-03
<GCONST> 7.534229e+01
<MIXTURE> 3 2.471322e-01
<MEAN> 39
 -1.068218e+01 -1.798381e+01 -1.162440e+01 6.879849e-01 1.959519e-01 -1.003005e+01 5.272686e-01 -1.113138e+00 -4.372421e+00 -2.729563e+00 9.637619e-01 -6.107264e-01 6.918494e+01 2.941265e-01 1.792359e-01 2.620982e-01 2.549303e-01 3.029295e-01 1.718045e-01 1.300866e-01 4.361197e-02 9.253748e-03 1.243236e-02 5.467761e-02 4.661877e-02 -9.179540e-01 -9.900643e-03 1.856000e-02 7.012181e-03 -2.838143e-03 -4.293645e-03 1.046652e-02 -5.861488e-03 1.775760e-02 1.118338e-02 6.858523e-03 2.934614e-03 2.441465e-03 1.343243e-02
<VARIANCE> 39
 1.055699e+01 2.007049e+01 1.858957e+01 2.047803e+01 3.214177e+01 2.019287e+01 2.971046e+01 2.220787e+01 2.283752e+01 2.247007e+01 1.626082e+01 1.512631e+01 5.493987e+01 9.481584e-02 2.321938e-01 3.680135e-01 5.968793e-01 8.150816e-01 9.773163e-01 1.122769e+00 1.223515e+00 1.282453e+00 1.296508e+00 1.207790e+00 1.134981e+00 3.444100e-02 1.906370e-02 4.559296e-02 7.386515e-02 1.214065e-01 1.671443e-01 1.985742e-01 2.362987e-01 2.574331e-01 2.697400e-01 2.728370e-01 2.493868e-01 2.368874e-01 5.658183e-03
<GCONST> 7.532847e+01
<MIXTURE> 4 2.708881e-02
<MEAN> 39
 -6.959997e+00 -1.271700e+01 -6.962691e+00 3.496340e+00 4.330212e+00 -5.436417e+00 2.588501e+00 1.580116e+00 -2.510642e+00 -1.653478e+00 1.534112e+00 -2.047214e-01 5.677686e+01 1.083347e-01 5.670725e-01 2.472906e-01 -2.644937e-03 1.380391e-03 3.362583e-01 1.180699e-02 1.942095e-01 1.785776e-01 9.260031e-02 -4.516583e-02 -2.207983e-02 -5.272372e-01 -3.694876e-01 -5.191024e-02 -2.374160e-01 -2.810877e-01 -3.070047e-01 -2.881962e-01 -3.546699e-01 -1.677722e-01 -7.436188e-02 -9.858461e-02 -1.123145e-01 -5.966577e-02 8.824128e-01
<VARIANCE> 39
 6.876442e+00 2.820870e+01 1.722433e+01 2.067183e+01 2.862269e+01 2.397301e+01 2.993423e+01 2.240843e+01 2.257939e+01 2.052360e+01 1.535523e+01 1.433401e+01 2.905917e+01 2.446973e-01 3.826494e-01 4.883331e-01 7.518470e-01 9.774525e-01 1.192113e+00 1.269637e+00 1.305842e+00 1.347753e+00 1.322237e+00 1.317418e+00 1.148317e+00 2.029604e-01 1.321999e-01 1.659405e-01 1.719717e-01 2.421182e-01 2.947811e-01 3.567365e-01 3.652890e-01 3.509473e-01 3.571280e-01 3.322025e-01 3.059742e-01 2.752427e-01 7.428268e-01
<GCONST> 9.123867e+01
<MIXTURE> 5 2.471494e-01
<MEAN> 39
 -1.068234e+01 -1.798430e+01 -1.162482e+01 6.879531e-01 1.954416e-01 -1.003064e+01 5.271735e-01 -1.113187e+00 -4.372734e+00 -2.729659e+00 9.639619e-01 -6.105848e-01 6.918580e+01 2.941208e-01 1.792142e-01 2.620892e-01 2.549309e-01 3.029398e-01 1.718051e-01 1.301042e-01 4.362655e-02 9.274033e-03 1.245288e-02 5.470371e-02 4.663627e-02 -9.179679e-01 -9.902151e-03 1.856235e-02 7.020900e-03 -2.824507e-03 -4.268792e-03 1.049348e-02 -5.844758e-03 1.776804e-02 1.119455e-02 6.856105e-03 2.912492e-03 2.417068e-03 1.343091e-02
<VARIANCE> 39
 1.055600e+01 2.006657e+01 1.858766e+01 2.047534e+01 3.213750e+01 2.019081e+01 2.970769e+01 2.220543e+01 2.283570e+01 2.246844e+01 1.625922e+01 1.512521e+01 5.493172e+01 9.480722e-02 2.321766e-01 3.679849e-01 5.968366e-01 8.150219e-01 9.772479e-01 1.122695e+00 1.223437e+00 1.282375e+00 1.296420e+00 1.207701e+00 1.134912e+00 3.443710e-02 1.906279e-02 4.559019e-02 7.386055e-02 1.213996e-01 1.671339e-01 1.985601e-01 2.362816e-01 2.574110e-01 2.697199e-01 2.728165e-01 2.493640e-01 2.368685e-01 5.657919e-03
<GCONST> 7.532516e+01
<MIXTURE> 6 2.709712e-02
<MEAN> 39
 -6.959271e+00 -1.271521e+01 -6.960882e+00 3.496780e+00 4.330998e+00 -5.434358e+00 2.589952e+00 1.581154e+00 -2.509874e+00 -1.652282e+00 1.533997e+00 -2.049184e-01 5.677428e+01 1.084338e-01 5.669831e-01 2.472496e-01 -2.589921e-03 1.352150e-03 3.363013e-01 1.194392e-02 1.943265e-01 1.785851e-01 9.259236e-02 -4.513768e-02 -2.209277e-02 -5.273795e-01 -3.695089e-01 -5.205306e-02 -2.375292e-01 -2.811073e-01 -3.070686e-01 -2.883587e-01 -3.547410e-01 -1.678850e-01 -7.448321e-02 -9.865192e-02 -1.122801e-01 -5.967090e-02 8.824844e-01
<VARIANCE> 39
 6.874676e+00 2.821208e+01 1.721979e+01 2.067235e+01 2.862672e+01 2.397225e+01 2.993378e+01 2.241004e+01 2.257870e+01 2.052331e+01 1.535607e+01 1.433484e+01 2.905150e+01 2.445305e-01 3.824561e-01 4.882258e-01 7.517388e-01 9.773805e-01 1.191977e+00 1.269465e+00 1.305723e+00 1.347626e+00 1.322202e+00 1.317365e+00 1.148254e+00 2.026205e-01 1.321997e-01 1.659856e-01 1.719917e-01 2.421141e-01 2.947991e-01 3.567794e-01 3.653016e-01 3.509735e-01 3.571596e-01 3.322241e-01 3.059889e-01 2.752556e-01 7.429684e-01
<GCONST> 9.123550e+01
<MIXTURE> 7 2.740867e-02
<MEAN> 39
 -6.928520e+00 -1.264480e+01 -6.894244e+00 3.516902e+00 4.361001e+00 -5.359552e+00 2.640855e+00 1.622344e+00 -2.483248e+00 -1.611077e+00 1.530504e+00 -2.126480e-01 5.667600e+01 1.072070e-01 5.680958e-01 2.458095e-01 -3.106219e-03 -3.798385e-04 3.396784e-01 1.549342e-02 1.997938e-01 1.822579e-01 9.346218e-02 -4.496204e-02 -2.207584e-02 -5.258805e-01 -3.731144e-01 -5.970611e-02 -2.439048e-01 -2.834652e-01 -3.118618e-01 -2.967594e-01 -3.588038e-01 -1.734376e-01 -8.004429e-02 -1.018764e-01 -1.115785e-01 -6.040861e-02 8.931805e-01
<VARIANCE> 39
 6.790841e+00 2.829701e+01 1.703613e+01 2.065844e+01 2.870952e+01 2.392713e+01 2.985357e+01 2.242442e+01 2.250342e+01 2.048239e+01 1.535363e+01 1.434192e+01 2.872557e+01 2.434535e-01 3.803926e-01 4.862516e-01 7.492360e-01 9.765729e-01 1.188759e+00 1.266233e+00 1.302123e+00 1.346268e+00 1.321862e+00 1.315023e+00 1.145518e+00 1.997221e-01 1.328666e-01 1.687169e-01 1.733432e-01 2.425797e-01 2.964860e-01 3.595740e-01 3.661174e-01 3.522405e-01 3.583671e-01 3.332925e-01 3.062953e-01 2.756524e-01 7.550588e-01
<GCONST> 9.122726e+01
<MIXTURE> 8 1.010285e-01
<MEAN> 39
 -1.156960e+01 -1.400649e+01 -1.028197e+01 4.821665e-01 1.737731e-01 -9.140577e+00 -1.768729e+00 -3.834082e-01 -3.419146e+00 -3.128168e+00 9.629058e-02 -1.025696e+00 6.960523e+01 -1.877386e+00 -1.210411e+00 -1.650958e+00 -1.451488e+00 -1.731696e+00 -1.517570e+00 -1.331020e+00 -6.004152e-01 -4.183787e-01 -4.657916e-01 -4.446688e-01 -2.979321e-01 5.759533e+00 1.332539e-01 -3.814369e-01 -1.301728e-01 -2.355125e-02 -5.656976e-02 6.447490e-03 3.065377e-01 5.201944e-02 -2.389819e-03 8.623868e-02 1.204086e-01 6.260295e-02 -1.192992e-02
<VARIANCE> 39
 2.532029e+01 3.138852e+01 2.844634e+01 3.502270e+01 3.945723e+01 4.253388e+01 4.860102e+01 2.941049e+01 3.159150e+01 2.593052e+01 2.004623e+01 1.794698e+01 1.650759e+02 1.132618e+00 3.961637e+00 2.194758e+00 2.649314e+00 3.111377e+00 3.379132e+00 3.603410e+00 2.958544e+00 3.033438e+00 2.585099e+00 1.939102e+00 1.800122e+00 6.241452e+00 5.305217e-01 5.155127e-01 5.321674e-01 5.984108e-01 7.218227e-01 8.291198e-01 8.333480e-01 6.072197e-01 5.794481e-01 4.834644e-01 3.865994e-01 3.447300e-01 4.159491e+00
<GCONST> 1.252738e+02
<STATE> 4
<NUMMIXES> 8
<MIXTURE> 1 2.793666e-01
<MEAN> 39
 -5.214111e+00 -7.983564e-01 -1.834842e+00 -6.943066e-01 2.554641e-01 2.097963e+00 4.487842e+00 4.422979e+00 1.230791e+00 1.563983e+00 5.586439e-01 -1.417887e+00 4.581229e+01 2.267290e-02 1.874129e-01 -2.205111e-02 -1.393835e-01 -5.729254e-02 1.115096e-01 -1.419081e-02 8.357811e-02 8.378423e-02 1.513871e-02 -2.965960e-02 -2.182992e-02 -9.123959e-02 -1.751766e-02 -2.530926e-02 -6.852439e-03 6.181471e-03 2.187811e-03 -2.735180e-02 -1.826472e-02 -3.813878e-02 -2.549119e-02 -1.024313e-02 4.327578e-03 9.000729e-03 2.580247e-02
<VARIANCE> 39
 3.419888e+00 1.113362e+01 8.163372e+00 1.408025e+01 1.355453e+01 1.487510e+01 1.468795e+01 1.545988e+01 1.521250e+01 1.500854e+01 1.279830e+01 1.133787e+01 6.218539e+00 1.252778e-01 2.922547e-01 4.254874e-01 6.550125e-01 8.631647e-01 1.062692e+00 1.182633e+00 1.316879e+00 1.375323e+00 1.338129e+00 1.224208e+00 1.084527e+00 5.542821e-02 2.480510e-02 4.860039e-02 8.359730e-02 1.253766e-01 1.700813e-01 2.119867e-01 2.352975e-01 2.601959e-01 2.749729e-01 2.726527e-01 2.491407e-01 2.190902e-01 1.591131e-02
<GCONST> 6.976672e+01
<MIXTURE> 2 1.956962e-01
<MEAN> 39
 -9.499984e+00 -1.574334e+01 -4.710522e+00 3.041859e+00 -1.713073e+00 -5.301277e+00 4.671086e+00 -2.774699e+00 -2.962280e+00 7.703381e-01 1.192406e+00 -6.431592e-01 6.072851e+01 2.632563e-01 3.379398e-01 2.262213e-01 1.762119e-01 1.958438e-01 2.069013e-01 8.557718e-02 1.867135e-01 4.805426e-02 4.268301e-02 2.264200e-02 5.846817e-03 -7.841763e-01 -1.253761e-02 1.327040e-02 -1.245460e-02 -2.095241e-02 -2.361340e-02 -1.437817e-03 -1.073822e-02 1.684592e-02 8.257007e-03 1.175159e-03 -1.609742e-03 -4.799341e-03 2.252818e-02
<VARIANCE> 39
 1.627818e+01 4.379670e+01 1.977798e+01 2.172875e+01 3.132874e+01 2.420860e+01 2.046777e+01 2.740815e+01 2.423114e+01 2.034889e+01 1.699625e+01 1.433262e+01 7.837092e+01 1.141068e-01 2.707482e-01 4.030331e-01 6.304767e-01 8.614374e-01 1.011532e+00 1.163653e+00 1.247007e+00 1.298022e+00 1.295278e+00 1.244370e+00 1.140731e+00 6.101321e-02 2.002923e-02 4.510963e-02 7.899787e-02 1.216164e-01 1.656407e-01 2.025250e-01 2.360674e-01 2.499343e-01 2.653472e-01 2.639342e-01 2.505464e-01 2.321020e-01 6.168963e-03
<GCONST> 7.831784e+01
<MIXTURE> 3 1.957970e-01
<MEAN> 39
 -9.503859e+00 -1.575052e+01 -4.714844e+00 3.038229e+00 -1.719068e+00 -5.305417e+00 4.669904e+00 -2.779336e+00 -2.963958e+00 7.698769e-01 1.190903e+00 -6.436536e-01 6.074170e+01 2.633424e-01 3.376445e-01 2.263478e-01 1.764907e-01 1.962086e-01 2.069259e-01 8.572920e-02 1.864993e-01 4.796665e-02 4.268808e-02 2.277710e-02 5.976699e-03 -7.844419e-01 -1.252072e-02 1.330669e-02 -1.237400e-02 -2.083554e-02 -2.348375e-02 -1.313323e-03 -1.064137e-02 1.696459e-02 8.336864e-03 1.248079e-03 -1.547342e-03 -4.772966e-03 2.251435e-02
<VARIANCE> 39
 1.628043e+01 4.379522e+01 1.978378e+01 2.172630e+01 3.133051e+01 2.421166e+01 2.046301e+01 2.740139e+01 2.423098e+01 2.034486e+01 1.699698e+01 1.433341e+01 7.841833e+01 1.140573e-01 2.707086e-01 4.029494e-01 6.303218e-01 8.612639e-01 1.011399e+00 1.163442e+00 1.246827e+00 1.297864e+00 1.295204e+00 1.244307e+00 1.140671e+00 6.098527e-02 2.002670e-02 4.510992e-02 7.899246e-02 1.216063e-01 1.656291e-01 2.025089e-01 2.360516e-01 2.499180e-01 2.653447e-01 2.639376e-01 2.505537e-01 2.321130e-01 6.167979e-03
<GCONST> 7.831528e+01
<MIXTURE> 4 2.332931e-02
<MEAN> 39
 -1.162015e+01 -1.330759e+01 -5.865205e+00 -1.806352e-01 -4.927462e+00 -5.012008e+00 3.316234e+00 -1.755045e+00 -1.807273e+00 1.177839e+00 4.897602e-01 -1.109121e+00 6.467256e+01 1.852418e-01 1.162317e-01 8.416836e-02 -6.935817e-02 1.463618e-01 1.381134e-01 2.842099e-01 2.505292e-01 4.215216e-01 7.455637e-02 6.345747e-02 8.290806e-02 -4.990038e-01 2.330394e-02 2.349233e-01 1.121533e-01 1.744366e-01 3.329915e-01 1.038669e-01 -6.935941e-03 -2.424288e-02 -1.460732e-01 -8.060858e-02 -1.702682e-02 -4.543058e-02 -2.554969e-01
<VARIANCE> 39
 3.298222e+01 9.106599e+01 2.605854e+01 2.717340e+01 3.708663e+01 3.638655e+01 2.462269e+01 3.491451e+01 2.494415e+01 1.745285e+01 1.655779e+01 1.367881e+01 2.329368e+02 4.203084e-01 8.227218e-01 6.080106e-01 1.107952e+00 1.323770e+00 1.411132e+00 1.578598e+00 1.698870e+00 2.034607e+00 1.542896e+00 1.388271e+00 1.263081e+00 5.120457e-01 4.625237e-01 9.405518e-01 3.101781e-01 3.526612e-01 5.030211e-01 5.619527e-01 4.268070e-01 5.610843e-01 4.605903e-01 3.512017e-01 3.090475e-01 2.568105e-01 2.932199e+00
<GCONST> 1.093341e+02
<MIXTURE> 5 1.958169e-01
<MEAN> 39
 -9.504452e+00 -1.575153e+01 -4.715513e+00 3.037641e+00 -1.719961e+00 -5.306022e+00 4.669665e+00 -2.780011e+00 -2.964212e+00 7.697516e-01 1.190637e+00 -6.437467e-01 6.074366e+01 2.633519e-01 3.375972e-01 2.263607e-01 1.765225e-01 1.962530e-01 2.069165e-01 8.573738e-02 1.864523e-01 4.794164e-02 4.267866e-02 2.278933e-02 5.993227e-03 -7.844797e-01 -1.251690e-02 1.331317e-02 -1.236092e-02 -2.081819e-02 -2.346488e-02 -1.295074e-03 -1.062637e-02 1.698392e-02 8.352731e-03 1.263047e-03 -1.533336e-03 -4.766022e-03 2.251321e-02
<VARIANCE> 39
 1.628065e+01 4.379446e+01 1.978443e+01 2.172584e+01 3.133054e+01 2.421182e+01 2.046234e+01 2.740004e+01 2.423064e+01 2.034399e+01 1.699712e+01 1.433348e+01 7.842550e+01 1.140485e-01 2.707011e-01 4.029309e-01 6.302933e-01 8.612349e-01 1.011374e+00 1.163399e+00 1.246793e+00 1.297839e+00 1.295177e+00 1.244281e+00 1.140653e+00 6.098146e-02 2.002615e-02 4.510967e-02 7.899080e-02 1.216040e-01 1.656257e-01 2.025068e-01 2.360484e-01 2.499149e-01 2.653436e-01 2.639371e-01 2.505554e-01 2.321153e-01 6.167748e-03
<GCONST> 7.831464e+01
<MIXTURE> 6 2.336724e-02
<MEAN> 39
 -1.153683e+01 -1.317681e+01 -5.798985e+00 -1.430467e-01 -4.849667e+00 -4.933241e+00 3.341505e+00 -1.685443e+00 -1.783405e+00 1.182427e+00 4.944315e-01 -1.112192e+00 6.442000e+01 1.803433e-01 1.229715e-01 8.363414e-02 -6.950863e-02 1.465444e-01 1.376203e-01 2.781335e-01 2.475479e-01 4.160526e-01 7.173420e-02 6.264522e-02 8.070774e-02 -4.938851e-01 1.354122e-02 2.205619e-01 1.049556e-01 1.701091e-01 3.241122e-01 9.481491e-02 -1.062501e-02 -3.227966e-02 -1.492899e-01 -8.092203e-02 -1.712046e-02 -4.513653e-02 -2.271062e-01
<VARIANCE> 39
 3.310401e+01 9.151521e+01 2.602822e+01 2.723906e+01 3.706100e+01 3.650262e+01 2.461456e+01 3.506284e+01 2.494348e+01 1.745028e+01 1.651109e+01 1.366021e+01 2.334814e+02 4.218065e-01 8.213784e-01 6.055388e-01 1.101764e+00 1.317316e+00 1.405758e+00 1.572692e+00 1.693294e+00 2.025478e+00 1.540192e+00 1.386406e+00 1.261101e+00 5.091004e-01 4.650095e-01 9.447660e-01 3.115452e-01 3.531102e-01 5.036094e-01 5.636224e-01 4.272953e-01 5.631680e-01 4.607626e-01 3.515596e-01 3.092509e-01 2.570230e-01 2.944447e+00
<GCONST> 1.093414e+02
<MIXTURE> 7 2.336569e-02
<MEAN> 39
 -1.154262e+01 -1.318609e+01 -5.803535e+00 -1.455173e-01 -4.854982e+00 -4.938804e+00 3.339840e+00 -1.690393e+00 -1.785129e+00 1.182178e+00 4.942511e-01 -1.111917e+00 6.443744e+01 1.806920e-01 1.225851e-01 8.369268e-02 -6.944601e-02 1.466356e-01 1.376800e-01 2.785424e-01 2.477325e-01 4.163619e-01 7.190283e-02 6.270111e-02 8.082066e-02 -4.943438e-01 1.418434e-02 2.215306e-01 1.054398e-01 1.704023e-01 3.247032e-01 9.542065e-02 -1.038600e-02 -3.174755e-02 -1.490933e-01 -8.092068e-02 -1.713458e-02 -4.516542e-02 -2.289877e-01
<VARIANCE> 39
 3.309541e+01 9.147953e+01 2.602972e+01 2.723555e+01 3.706136e+01 3.649296e+01 2.461478e+01 3.505102e+01 2.494349e+01 1.745039e+01 1.651432e+01 1.366143e+01 2.334361e+02 4.216931e-01 8.213558e-01 6.056595e-01 1.102065e+00 1.317632e+00 1.406038e+00 1.572968e+00 1.693558e+00 2.025923e+00 1.540313e+00 1.386478e+00 1.261186e+00 5.092137e-01 4.647842e-01 9.443141e-01 3.114110e-01 3.530746e-01 5.035163e-01 5.634450e-01 4.272390e-01 5.629658e-01 4.607334e-01 3.515296e-01 3.092334e-01 2.570042e-01 2.943064e+00
<GCONST> 1.093386e+02
<MIXTURE> 8 6.333635e-02
<MEAN> 39
 -1.149481e+01 -9.798036e+00 -5.214934e+00 7.766453e-01 -3.186690e+00 -3.604874e+00 2.766561e+00 -1.107554e+00 -2.755658e+00 8.004407e-01 3.175639e-01 -1.725588e+00 6.262872e+01 -2.455397e+00 -3.200837e+00 -1.478848e+00 -7.700801e-01 -1.702273e+00 -1.940669e+00 -7.842636e-01 -1.996122e+00 -9.139219e-01 -3.410845e-01 -1.863244e-01 -7.785720e-02 6.875186e+00 1.474815e-01 -2.784059e-01 -3.182529e-02 -7.180495e-02 -1.944150e-01 -3.767557e-02 1.461544e-01 4.687129e-02 1.759339e-01 7.558709e-02 -7.254953e-03 4.210124e-02 1.035513e-02
<VARIANCE> 39
 3.834844e+01 8.738029e+01 2.683485e+01 3.105136e+01 3.643260e+01 4.384664e+01 2.945071e+01 5.005728e+01 3.759244e+01 2.030311e+01 2.081280e+01 1.721873e+01 2.563567e+02 2.083337e+00 8.959809e+00 2.304621e+00 3.086203e+00 3.610449e+00 3.505950e+00 3.030988e+00 3.830796e+00 3.703031e+00 2.266257e+00 2.122864e+00 1.787016e+00 1.242602e+01 8.694068e-01 1.798507e+00 5.262735e-01 4.927876e-01 7.699640e-01 9.179012e-01 5.933177e-01 1.132063e+00 7.913736e-01 4.238409e-01 3.881236e-01 3.322308e-01 6.302518e+00
<GCONST> 1.321691e+02
<TRANSP> 5
 0.000000e+00 1.000000e+00 0.000000e+00 0.000000e+00 0.000000e+00
 0.000000e+00 9.929962e-01 7.003788e-03 0.000000e+00 0.000000e+00
 0.000000e+00 0.000000e+00 9.867955e-01 1.320451e-02 0.000000e+00
 0.000000e+00 0.000000e+00 0.000000e+00 9.852092e-01 1.479087e-02
 0.000000e+00 0.000000e+00 0.000000e+00 0.000000e+00 0.000000e+00
<ENDHMM>
~h "cl"
<BEGINHMM>
<NUMSTATES> 5
<STATE> 2
<NUMMIXES> 8
<MIXTURE> 1 1.439923e-01
<MEAN> 39
 -9.737600e+00 -6.383029e+00 -4.730306e+00 -4.188749e+00 -1.642684e+00 -8.706201e-01 1.715261e+00 3.068323e-01 -2.769858e-01 -1.792098e+00 -1.383517e+00 -1.657472e+00 5.581686e+01 2.233838e-01 1.774926e-01 1.841352e-01 1.861537e-01 2.582080e-01 2.695614e-01 3.393123e-01 2.212072e-01 7.882278e-02 1.627959e-01 1.317307e-01 -2.358795e-02 -4.032340e-01 2.040985e-02 9.838163e-02 1.315374e-01 1.408020e-01 1.695402e-01 2.397611e-01 2.237435e-01 2.154451e-01 2.578867e-01 2.035330e-01 1.115075e-01 1.131672e-01 3.170513e-02
<VARIANCE> 39
 2.166119e+01 2.509368e+01 8.655443e+00 1.443598e+01 1.775930e+01 2.958756e+01 2.104581e+01 1.742389e+01 1.935781e+01 1.896154e+01 1.588171e+01 1.506409e+01 5.971746e+01 1.892545e-01 3.018551e-01 4.386095e-01 6.987846e-01 8.564413e-01 1.086920e+00 1.245791e+00 1.322448e+00 1.450157e+00 1.428695e+00 1.290960e+00 1.208166e+00 1.805222e-01 2.669818e-02 5.340245e-02 8.362375e-02 1.320954e-01 1.672450e-01 2.011828e-01 2.239285e-01 2.358708e-01 2.537040e-01 2.636516e-01 2.406821e-01 2.269748e-01 8.428548e-03
<GCONST> 7.850880e+01
<MIXTURE> 2 1.693763e-01
<MEAN> 39
 -1.110139e+01 -5.641515e-01 -5.400168e-02 -4.318524e+00 -1.478988e+00 7.169425e+00 4.733687e+00 5.170519e-01 5.220208e+00 5.012001e-01 -3.257442e+00 1.816502e+00 5.145089e+01 3.679999e-01 -8.475959e-02 -9.353869e-02 8.972498e-03 4.737417e-02 -1.168488e-01 5.960866e-03 3.960433e-02 -1.075174e-01 8.863754e-03 6.942075e-02 -1.079788e-01 -2.858088e-01 -2.484694e-02 -1.809702e-02 -4.363973e-02 -3.531117e-02 -4.507138e-02 -7.729252e-02 -7.868955e-02 -4.364467e-02 -8.408242e-02 -4.774953e-02 -1.175647e-02 -3.891444e-02 1.059665e-02
<VARIANCE> 39
 3.051285e+01 1.451639e+01 3.522143e+01 1.462155e+01 1.964163e+01 3.119929e+01 1.969472e+01 2.720865e+01 3.411641e+01 2.011840e+01 2.672866e+01 2.378365e+01 1.696777e+01 2.588402e-01 3.308821e-01 5.256488e-01 7.078809e-01 9.716057e-01 1.288427e+00 1.312762e+00 1.467113e+00 1.574326e+00 1.413460e+00 1.335702e+00 1.258700e+00 1.131217e-01 3.361518e-02 5.396747e-02 9.499649e-02 1.318736e-01 1.799463e-01 2.275547e-01 2.464184e-01 2.785035e-01 2.890131e-01 2.766799e-01 2.643857e-01 2.424969e-01 1.196088e-02
<GCONST> 8.284231e+01
<MIXTURE> 3 1.693711e-01
<MEAN> 39
 -1.110287e+01 -5.635240e-01 -5.220740e-02 -4.319594e+00 -1.480485e+00 7.171101e+00 4.733236e+00 5.153356e-01 5.222047e+00 5.009304e-01 -3.259270e+00 1.818122e+00 5.145105e+01 3.680656e-01 -8.478973e-02 -9.358802e-02 9.011681e-03 4.737264e-02 -1.168895e-01 5.941925e-03 3.961449e-02 -1.075004e-01 8.873357e-03 6.942483e-02 -1.079774e-01 -2.858377e-01 -2.483273e-02 -1.808717e-02 -4.364096e-02 -3.526682e-02 -4.502132e-02 -7.729629e-02 -7.865087e-02 -4.358535e-02 -8.409891e-02 -4.771877e-02 -1.170645e-02 -3.894249e-02 1.059146e-02
<VARIANCE> 39
 3.051411e+01 1.451538e+01 3.523526e+01 1.462269e+01 1.964499e+01 3.120311e+01 1.969547e+01 2.721547e+01 3.412158e+01 2.012061e+01 2.673369e+01 2.378835e+01 1.696816e+01 2.588603e-01 3.308935e-01 5.257010e-01 7.079152e-01 9.716693e-01 1.288528e+00 1.312806e+00 1.467207e+00 1.574429e+00 1.413519e+00 1.335764e+00 1.258761e+00 1.131198e-01 3.362070e-02 5.397101e-02 9.500682e-02 1.318826e-01 1.799604e-01 2.275788e-01 2.464283e-01 2.785261e-01 2.890323e-01 2.766952e-01 2.644027e-01 2.425096e-01 1.196343e-02
<GCONST> 8.284587e+01
<MIXTURE> 4 7.753041e-02
<MEAN> 39
 -1.391465e+01 -2.003997e+00 -1.247140e+00 -4.162993e+00 -2.155231e+00 4.519806e+00 2.371075e+00 -8.320673e-03 3.840813e+00 -1.106822e-01 -2.742654e+00 1.574689e+00 5.672336e+01 -2.575356e-01 1.763877e-01 1.176733e-01 -4.464742e-02 -9.231853e-02 2.837625e-01 -3.271639e-02 -1.427905e-01 1.760261e-01 -7.841592e-02 -1.843112e-01 2.002818e-01 2.239963e-02 -7.309949e-02 2.842511e-02 4.106652e-02 -2.015317e-03 -4.576185e-02 3.139947e-02 -1.055317e-02 -2.536698e-02 1.118812e-02 -1.463787e-02 -3.833027e-02 1.521932e-02 2.651836e-02
<VARIANCE> 39
 3.621001e+01 4.703186e+01 3.393137e+01 1.660127e+01 1.991375e+01 5.651044e+01 2.454856e+01 2.773724e+01 3.238308e+01 2.238336e+01 2.694728e+01 2.204397e+01 8.725427e+01 1.047557e+00 7.991875e-01 8.102568e-01 9.770155e-01 1.275366e+00 1.906781e+00 1.666224e+00 1.959977e+00 2.207637e+00 1.736280e+00 1.859857e+00 1.591896e+00 5.856768e-01 4.559016e-01 1.839414e-01 1.760656e-01 1.941775e-01 2.525813e-01 4.097520e-01 3.353451e-01 4.058886e-01 4.293502e-01 3.635209e-01 3.664280e-01 3.018698e-01 3.319843e-01
<GCONST> 1.047183e+02
<MIXTURE> 5 1.693735e-01
<MEAN> 39
 -1.110164e+01 -5.640286e-01 -5.356457e-02 -4.318796e+00 -1.479321e+00 7.169842e+00 4.733666e+00 5.167260e-01 5.220647e+00 5.011682e-01 -3.257881e+00 1.816843e+00 5.145080e+01 3.680064e-01 -8.476336e-02 -9.354853e-02 8.984964e-03 4.737623e-02 -1.168585e-01 5.953955e-03 3.961310e-02 -1.075107e-01 8.871907e-03 6.942593e-02 -1.079747e-01 -2.858051e-01 -2.484540e-02 -1.809355e-02 -4.363862e-02 -3.530017e-02 -4.506090e-02 -7.729593e-02 -7.868832e-02 -4.363808e-02 -8.408820e-02 -4.774454e-02 -1.174446e-02 -3.891745e-02 1.059705e-02
<VARIANCE> 39
 3.051256e+01 1.451563e+01 3.522495e+01 1.462160e+01 1.964237e+01 3.119965e+01 1.969483e+01 2.721035e+01 3.411735e+01 2.011886e+01 2.673005e+01 2.378474e+01 1.696710e+01 2.588502e-01 3.308867e-01 5.256649e-01 7.078966e-01 9.716229e-01 1.288462e+00 1.312783e+00 1.467145e+00 1.574358e+00 1.413477e+00 1.335719e+00 1.258723e+00 1.131217e-01 3.361872e-02 5.396967e-02 9.500053e-02 1.318777e-01 1.799518e-01 2.275635e-01 2.464249e-01 2.785149e-01 2.890223e-01 2.766873e-01 2.643949e-01 2.425023e-01 1.196237e-02
<GCONST> 8.284343e+01
<MIXTURE> 6 7.752010e-02
<MEAN> 39
 -1.391071e+01 -2.009863e+00 -1.251386e+00 -4.160461e+00 -2.153592e+00 4.512490e+00 2.371073e+00 -6.051128e-03 3.836921e+00 -1.106416e-01 -2.738756e+00 1.570568e+00 5.672765e+01 -2.571107e-01 1.765646e-01 1.175390e-01 -4.441383e-02 -9.218274e-02 2.834759e-01 -3.273978e-02 -1.426541e-01 1.758001e-01 -7.839688e-02 -1.841173e-01 2.000911e-01 2.187237e-02 -7.358876e-02 2.853635e-02 4.117032e-02 -2.203905e-03 -4.599107e-02 3.157805e-02 -1.073844e-02 -2.561428e-02 1.130008e-02 -1.475742e-02 -3.857061e-02 1.541797e-02 2.682075e-02
<VARIANCE> 39
 3.621321e+01 4.707253e+01 3.389465e+01 1.659531e+01 1.991139e+01 5.651057e+01 2.454727e+01 2.772872e+01 3.237032e+01 2.238029e+01 2.693569e+01 2.203690e+01 8.736002e+01 1.046988e+00 7.987517e-01 8.097941e-01 9.767151e-01 1.274991e+00 1.906015e+00 1.665884e+00 1.959243e+00 2.206881e+00 1.735830e+00 1.859227e+00 1.591490e+00 5.856329e-01 4.557830e-01 1.838851e-01 1.759560e-01 1.941185e-01 2.525141e-01 4.096677e-01 3.352927e-01 4.057313e-01 4.292578e-01 3.634494e-01 3.663007e-01 3.018444e-01 3.320169e-01
<GCONST> 1.047095e+02
<MIXTURE> 7 7.754397e-02
<MEAN> 39
 -1.391660e+01 -1.988423e+00 -1.239453e+00 -4.166390e+00 -2.154972e+00 4.536706e+00 2.374094e+00 -8.868308e-03 3.847425e+00 -1.091231e-01 -2.748341e+00 1.581928e+00 5.670473e+01 -2.590736e-01 1.765074e-01 1.178444e-01 -4.517902e-02 -9.282315e-02 2.842905e-01 -3.301324e-02 -1.430301e-01 1.763912e-01 -7.861199e-02 -1.846870e-01 2.007009e-01 2.401461e-02 -7.275673e-02 2.812274e-02 4.088054e-02 -1.899542e-03 -4.562646e-02 3.109981e-02 -1.048207e-02 -2.524219e-02 1.109804e-02 -1.454288e-02 -3.807919e-02 1.499005e-02 2.656371e-02
<VARIANCE> 39
 3.620896e+01 4.689632e+01 3.397882e+01 1.660544e+01 1.991013e+01 5.646655e+01 2.454066e+01 2.774023e+01 3.238941e+01 2.238029e+01 2.696241e+01 2.204793e+01 8.693864e+01 1.048937e+00 8.002649e-01 8.111717e-01 9.775080e-01 1.275958e+00 1.908561e+00 1.666919e+00 1.961338e+00 2.209107e+00 1.736983e+00 1.861142e+00 1.592640e+00 5.855756e-01 4.562011e-01 1.839641e-01 1.761842e-01 1.942143e-01 2.526483e-01 4.098993e-01 3.353599e-01 4.060707e-01 4.294562e-01 3.635642e-01 3.666394e-01 3.018845e-01 3.315234e-01
<GCONST> 1.047242e+02
<MIXTURE> 8 1.152693e-01
<MEAN> 39
 -1.222097e+01 -7.219917e-01 -4.407377e-01 -3.370669e+00 -1.598532e+00 3.113172e+00 2.801783e+00 1.536116e+00 2.627531e+00 9.202438e-01 -1.171267e+00 2.853805e-02 5.366251e+01 -3.339296e+00 4.914823e-02 1.749934e-01 -4.042338e-01 -9.293849e-01 5.119315e-01 -8.803537e-01 -1.077941e+00 5.054025e-01 -3.221291e-01 -8.691774e-01 6.553017e-01 3.246690e+00 -1.837094e-01 -7.915451e-02 6.718057e-02 -9.031949e-02 -1.241962e-01 3.031943e-01 -3.296853e-02 -2.917548e-01 1.624542e-01 -5.557384e-02 -3.096522e-01 2.035592e-01 1.514240e-01
<VARIANCE> 39
 5.595816e+01 3.198405e+01 2.917914e+01 1.858143e+01 2.409350e+01 4.566071e+01 2.887486e+01 2.834035e+01 3.208089e+01 2.698701e+01 2.278681e+01 1.904146e+01 9.362964e+01 3.913644e+00 3.264748e+00 2.102852e+00 1.837681e+00 2.328373e+00 5.895957e+00 3.103126e+00 4.024224e+00 3.895984e+00 3.392473e+00 3.220403e+00 2.531084e+00 4.529429e+00 1.159366e+00 3.365866e-01 2.629220e-01 2.761208e-01 4.465159e-01 6.523879e-01 5.135522e-01 6.022911e-01 5.311283e-01 4.747902e-01 4.416349e-01 3.646760e-01 1.432552e+00
<GCONST> 1.229679e+02
<STATE> 3
<NUMMIXES> 8
<MIXTURE> 1 8.338023e-02
<MEAN> 39
 -1.730275e+01 1.681360e+00 3.641348e-01 -7.643134e+00 -4.855185e+00 1.354512e+01 -1.131529e-01 -2.192299e+00 1.101372e+01 -4.091715e+00 -3.596107e+00 6.276099e+00 5.626649e+01 -1.663535e+00 3.994484e-01 -2.239369e-01 3.210267e-01 4.409390e-01 -9.261273e-01 4.216792e-01 5.177947e-01 -8.246766e-01 2.120939e-01 2.869683e-01 -8.441586e-01 1.177385e+00 -8.588675e-01 4.786939e-02 9.567624e-03 1.185289e-01 3.413633e-02 -9.450226e-02 7.013967e-02 5.790663e-02 -1.603193e-01 -6.434330e-02 -1.323239e-01 -1.020166e-01 6.494070e-01
<VARIANCE> 39
 3.122970e+01 7.611645e+00 1.745348e+01 9.975331e+00 1.443972e+01 2.272007e+01 2.097336e+01 1.815703e+01 2.152938e+01 1.792480e+01 1.800914e+01 1.685026e+01 1.449225e+01 2.141969e+00 7.243740e-01 1.130445e+00 1.354593e+00 1.638485e+00 2.646334e+00 2.741036e+00 2.274049e+00 2.456635e+00 2.100620e+00 1.945901e+00 2.197246e+00 1.044266e+00 2.522196e-01 1.132177e-01 1.683888e-01 1.811967e-01 2.471448e-01 3.853301e-01 3.801927e-01 3.648339e-01 3.995804e-01 3.663523e-01 3.284200e-01 3.549004e-01 1.196337e-01
<GCONST> 9.812083e+01
<MIXTURE> 2 1.728786e-01
<MEAN> 39
 -2.110546e+01 2.920083e+00 -2.012485e-02 -7.251791e+00 -4.859895e+00 1.366219e+01 7.497701e-01 -2.459220e+00 9.930261e+00 -4.054122e+00 -4.788613e+00 6.090679e+00 5.894629e+01 6.937817e-01 -2.326464e-02 -7.406501e-02 -2.683080e-02 7.408682e-02 -2.448392e-02 7.108986e-02 1.689580e-02 7.827879e-02 8.221714e-02 1.046727e-01 -1.197544e-02 -5.361862e-01 -2.784596e-03 -2.511090e-03 -5.086293e-02 3.114004e-02 2.418540e-02 -9.634250e-02 4.247964e-03 3.342859e-02 -8.290854e-02 4.578492e-02 5.615916e-02 -6.882764e-02 5.938306e-03
<VARIANCE> 39
 2.803184e+01 8.156331e+00 1.637898e+01 1.093684e+01 1.442806e+01 2.509751e+01 2.358654e+01 1.923454e+01 2.228913e+01 1.930406e+01 1.769111e+01 1.823517e+01 1.507807e+01 1.998699e-01 2.972331e-01 5.464384e-01 7.357838e-01 9.324430e-01 1.280328e+00 1.372069e+00 1.368519e+00 1.479721e+00 1.451106e+00 1.307234e+00 1.237186e+00 9.579918e-02 6.209360e-02 5.692756e-02 1.160941e-01 1.501410e-01 2.004065e-01 2.722805e-01 2.948249e-01 2.852312e-01 3.097989e-01 3.061762e-01 2.740529e-01 2.648135e-01 3.378791e-02
<GCONST> 8.138802e+01
<MIXTURE> 3 1.728761e-01
<MEAN> 39
 -2.110611e+01 2.920001e+00 -1.981913e-02 -7.251863e+00 -4.860131e+00 1.366240e+01 7.495649e-01 -2.459358e+00 9.930382e+00 -4.054439e+00 -4.788850e+00 6.090912e+00 5.894674e+01 6.937753e-01 -2.324115e-02 -7.403594e-02 -2.685205e-02 7.407945e-02 -2.444416e-02 7.109152e-02 1.688110e-02 7.831893e-02 8.221360e-02 1.046570e-01 -1.195392e-02 -5.361947e-01 -2.774613e-03 -2.502225e-03 -5.087600e-02 3.114849e-02 2.420513e-02 -9.636091e-02 4.267325e-03 3.344810e-02 -8.291556e-02 4.581277e-02 5.618262e-02 -6.884909e-02 5.930670e-03
<VARIANCE> 39
 2.803069e+01 8.156298e+00 1.637891e+01 1.093687e+01 1.442838e+01 2.509754e+01 2.358695e+01 1.923467e+01 2.228928e+01 1.930447e+01 1.769110e+01 1.823542e+01 1.507819e+01 1.998752e-01 2.972312e-01 5.464484e-01 7.357869e-01 9.324426e-01 1.280333e+00 1.372079e+00 1.368515e+00 1.479721e+00 1.451106e+00 1.307233e+00 1.237183e+00 9.580465e-02 6.210373e-02 5.692910e-02 1.160990e-01 1.501448e-01 2.004122e-01 2.722891e-01 2.948340e-01 2.852352e-01 3.098035e-01 3.061826e-01 2.740566e-01 2.648199e-01 3.379608e-02
<GCONST> 8.138888e+01
<MIXTURE> 4 8.676819e-02
<MEAN> 39
 -1.750165e+01 1.577907e+00 -2.490007e+00 -6.401185e+00 -4.408538e+00 1.000775e+01 4.776716e-01 -2.165307e+00 6.888476e+00 -3.276399e+00 -3.311988e+00 4.240368e+00 5.817904e+01 1.735611e-01 -9.623494e-02 7.292126e-02 -5.865921e-02 -1.205290e-01 1.527330e-01 -8.499005e-02 -1.076632e-01 2.478806e-02 -2.490519e-02 -5.287628e-02 9.677445e-02 -1.801761e-01 2.026760e-02 3.075178e-02 5.613178e-02 -2.793266e-02 3.588935e-03 5.629903e-02 -5.398248e-03 2.751626e-02 5.837677e-02 -1.534938e-02 -1.658083e-02 2.197617e-02 -2.286864e-02
<VARIANCE> 39
 7.295819e+01 1.435891e+01 2.295005e+01 1.414788e+01 1.817937e+01 4.024361e+01 3.186308e+01 2.561153e+01 2.918760e+01 2.065355e+01 1.982101e+01 2.123213e+01 3.266911e+01 4.821807e-01 4.136997e-01 7.020042e-01 8.595055e-01 1.170239e+00 1.663175e+00 1.681154e+00 1.581594e+00 1.760418e+00 1.609088e+00 1.505941e+00 1.500138e+00 2.486772e-01 3.578489e-01 1.088476e-01 1.616586e-01 1.885351e-01 2.583717e-01 3.735685e-01 3.943639e-01 3.487353e-01 3.844081e-01 3.460946e-01 3.230055e-01 3.292316e-01 1.950089e-01
<GCONST> 9.668457e+01
<MIXTURE> 5 1.728753e-01
<MEAN> 39
 -2.110689e+01 2.919857e+00 -1.931432e-02 -7.251964e+00 -4.860401e+00 1.366268e+01 7.492771e-01 -2.459383e+00 9.930767e+00 -4.054757e+00 -4.789024e+00 6.091248e+00 5.894726e+01 6.937807e-01 -2.321254e-02 -7.401007e-02 -2.689024e-02 7.406101e-02 -2.441190e-02 7.108410e-02 1.685345e-02 7.835288e-02 8.219868e-02 1.046327e-01 -1.193067e-02 -5.362151e-01 -2.764566e-03 -2.492285e-03 -5.089809e-02 3.115698e-02 2.422758e-02 -9.638838e-02 4.288760e-03 3.345886e-02 -8.294544e-02 4.583202e-02 5.619929e-02 -6.888248e-02 5.922487e-03
<VARIANCE> 39
 2.802945e+01 8.156204e+00 1.637927e+01 1.093700e+01 1.442878e+01 2.509779e+01 2.358780e+01 1.923499e+01 2.228976e+01 1.930532e+01 1.769122e+01 1.823592e+01 1.507848e+01 1.998748e-01 2.972313e-01 5.464610e-01 7.357994e-01 9.324554e-01 1.280339e+00 1.372092e+00 1.368523e+00 1.479733e+00 1.451120e+00 1.307248e+00 1.237183e+00 9.580955e-02 6.211629e-02 5.693194e-02 1.161063e-01 1.501510e-01 2.004216e-01 2.723038e-01 2.948469e-01 2.852457e-01 3.098176e-01 3.061955e-01 2.740660e-01 2.648330e-01 3.380634e-02
<GCONST> 8.139022e+01
<MIXTURE> 6 8.677944e-02
<MEAN> 39
 -1.749212e+01 1.576317e+00 -2.493845e+00 -6.400583e+00 -4.407798e+00 1.000284e+01 4.780011e-01 -2.165198e+00 6.884586e+00 -3.274584e+00 -3.309822e+00 4.237720e+00 5.817469e+01 1.735904e-01 -9.624848e-02 7.275983e-02 -5.853789e-02 -1.202848e-01 1.523609e-01 -8.487314e-02 -1.074247e-01 2.445675e-02 -2.473774e-02 -5.270060e-02 9.641498e-02 -1.802776e-01 1.987417e-02 3.078098e-02 5.624922e-02 -2.792040e-02 3.532553e-03 5.647470e-02 -5.463849e-03 2.749546e-02 5.849708e-02 -1.544727e-02 -1.670185e-02 2.212074e-02 -2.259008e-02
<VARIANCE> 39
 7.297147e+01 1.436586e+01 2.295281e+01 1.414853e+01 1.818025e+01 4.025381e+01 3.186499e+01 2.561596e+01 2.918865e+01 2.065125e+01 1.981876e+01 2.122956e+01 3.267728e+01 4.819403e-01 4.136190e-01 7.017540e-01 8.592561e-01 1.169951e+00 1.662753e+00 1.680666e+00 1.581352e+00 1.760048e+00 1.608785e+00 1.505711e+00 1.499874e+00 2.485526e-01 3.575536e-01 1.088225e-01 1.615891e-01 1.884902e-01 2.583056e-01 3.734383e-01 3.942242e-01 3.486761e-01 3.843221e-01 3.460180e-01 3.229427e-01 3.291410e-01 1.948096e-01
<GCONST> 9.667757e+01
<MIXTURE> 7 8.677966e-02
<MEAN> 39
 -1.749253e+01 1.576386e+00 -2.493674e+00 -6.400574e+00 -4.407791e+00 1.000306e+01 4.780349e-01 -2.165169e+00 6.884737e+00 -3.274650e+00 -3.309916e+00 4.237804e+00 5.817487e+01 1.735867e-01 -9.624677e-02 7.276777e-02 -5.854160e-02 -1.202952e-01 1.523793e-01 -8.487841e-02 -1.074340e-01 2.447281e-02 -2.474343e-02 -5.270778e-02 9.643175e-02 -1.802708e-01 1.989176e-02 3.077856e-02 5.624379e-02 -2.792436e-02 3.530995e-03 5.646706e-02 -5.465345e-03 2.749329e-02 5.849343e-02 -1.544395e-02 -1.669647e-02 2.211809e-02 -2.260263e-02
<VARIANCE> 39
 7.297073e+01 1.436549e+01 2.295247e+01 1.414832e+01 1.818008e+01 4.025299e+01 3.186463e+01 2.561541e+01 2.918840e+01 2.065120e+01 1.981868e+01 2.122957e+01 3.267688e+01 4.819485e-01 4.136220e-01 7.017601e-01 8.592632e-01 1.169960e+00 1.662768e+00 1.680678e+00 1.581352e+00 1.760060e+00 1.608794e+00 1.505712e+00 1.499873e+00 2.485570e-01 3.575624e-01 1.088226e-01 1.615901e-01 1.884905e-01 2.583065e-01 3.734405e-01 3.942284e-01 3.486753e-01 3.843227e-01 3.460195e-01 3.229424e-01 3.291424e-01 1.948166e-01
<GCONST> 9.667761e+01
<MIXTURE> 8 1.374424e-01
<MEAN> 39
 -2.440470e+01 2.592116e+00 -5.756605e-01 -6.001758e+00 -4.103694e+00 9.901061e+00 6.600798e-01 -9.025304e-01 7.225039e+00 -3.618403e+00 -3.601210e+00 3.533096e+00 6.239945e+01 -1.863889e+00 2.197544e-02 2.352850e-01 3.920024e-02 -3.540260e-01 3.883349e-01 -3.568787e-01 -3.061156e-01 1.385454e-01 -4.112399e-01 -5.432563e-01 4.228182e-01 1.628404e+00 5.884625e-01 -1.003869e-01 6.655607e-02 -1.243315e-01 -9.175379e-02 2.546424e-01 -2.671012e-02 -1.805750e-01 2.550052e-01 -7.064088e-02 -6.868373e-02 2.389877e-01 -4.398143e-01
<VARIANCE> 39
 5.445303e+01 1.298800e+01 1.939171e+01 1.801237e+01 2.008140e+01 3.950526e+01 3.500298e+01 2.550192e+01 3.033105e+01 2.331403e+01 2.136094e+01 2.446501e+01 2.375368e+01 3.865952e+00 1.195653e+00 1.759430e+00 1.474675e+00 2.098664e+00 3.836861e+00 3.384225e+00 2.620569e+00 3.139083e+00 2.169045e+00 2.081376e+00 2.776168e+00 1.557360e+00 6.423392e-01 1.690554e-01 2.473211e-01 2.857078e-01 3.554392e-01 5.569463e-01 5.633098e-01 4.384263e-01 5.155729e-01 4.306338e-01 3.904679e-01 4.373453e-01 3.761354e-01
<GCONST> 1.122824e+02
<STATE> 4
<NUMMIXES> 8
<MIXTURE> 1 1.345087e-01
<MEAN> 39
 -1.197458e+01 4.957627e-01 4.566319e+00 -5.538696e+00 -4.520596e+00 7.090745e+00 1.307063e+00 -3.580391e+00 4.787394e+00 1.888423e+00 -7.573812e+00 3.221876e+00 5.029518e+01 3.576069e-01 3.425975e-02 -1.447519e-01 1.293037e-01 2.129971e-01 -1.269917e-01 6.205723e-03 2.167045e-01 -1.126397e-02 -1.875803e-02 2.324067e-01 -1.466913e-01 -3.404591e-01 -4.587238e-02 -9.547523e-04 1.011976e-02 2.396574e-02 -7.709268e-03 7.057546e-02 1.472994e-02 -2.244214e-02 8.205250e-03 -2.085884e-03 -4.796410e-02 1.919207e-02 3.593894e-02
<VARIANCE> 39
 3.533914e+01 1.117123e+01 3.363646e+01 1.458578e+01 2.542832e+01 2.586583e+01 2.495091e+01 3.739287e+01 3.470779e+01 2.439478e+01 2.658102e+01 2.062823e+01 2.235655e+01 2.500633e-01 3.263181e-01 5.670211e-01 7.216753e-01 9.947300e-01 1.285179e+00 1.383302e+00 1.565819e+00 1.608160e+00 1.451806e+00 1.452365e+00 1.278610e+00 1.096947e-01 3.068021e-02 5.323782e-02 9.814046e-02 1.331599e-01 1.834352e-01 2.349094e-01 2.547269e-01 2.849228e-01 2.910582e-01 2.665695e-01 2.727030e-01 2.340945e-01 1.042156e-02
<GCONST> 8.381567e+01
<MIXTURE> 2 1.599651e-01
<MEAN> 39
 -2.357511e+01 3.271509e-01 6.071153e+00 -3.994510e+00 -7.227537e+00 1.177268e+01 1.275170e+00 -7.154838e+00 3.605485e+00 5.060391e+00 -1.282517e+01 5.432834e+00 5.899448e+01 6.279751e-01 6.344072e-02 2.759477e-01 -5.141973e-02 -1.466017e-02 1.080857e-01 1.886254e-01 -1.499033e-01 3.458089e-01 7.261582e-02 -1.214657e-01 1.671010e-01 -7.389828e-01 -2.525640e-02 2.325339e-02 -7.333314e-02 1.772966e-02 6.599885e-02 -1.005807e-01 -1.400846e-02 1.127187e-01 -3.963321e-02 -2.091078e-02 1.128838e-01 -8.830047e-02 1.697008e-02
<VARIANCE> 39
 1.757923e+01 8.848858e+00 1.274388e+01 1.489282e+01 3.072737e+01 2.590726e+01 2.833702e+01 4.966731e+01 3.744105e+01 3.173871e+01 2.833072e+01 3.418377e+01 2.268299e+01 1.628411e-01 2.822350e-01 5.408777e-01 6.635189e-01 9.251856e-01 1.166197e+00 1.234212e+00 1.449437e+00 1.554982e+00 1.401082e+00 1.370631e+00 1.211509e+00 9.322365e-02 7.760442e-02 6.497091e-02 1.309864e-01 1.500441e-01 2.160831e-01 2.749463e-01 2.823166e-01 3.505624e-01 3.682418e-01 3.267044e-01 3.056516e-01 2.775138e-01 7.993791e-02
<GCONST> 8.697585e+01
<MIXTURE> 3 1.599651e-01
<MEAN> 39
 -2.357511e+01 3.271509e-01 6.071153e+00 -3.994510e+00 -7.227537e+00 1.177268e+01 1.275170e+00 -7.154838e+00 3.605485e+00 5.060391e+00 -1.282517e+01 5.432834e+00 5.899448e+01 6.279751e-01 6.344072e-02 2.759477e-01 -5.141973e-02 -1.466017e-02 1.080857e-01 1.886254e-01 -1.499033e-01 3.458089e-01 7.261582e-02 -1.214657e-01 1.671010e-01 -7.389828e-01 -2.525640e-02 2.325339e-02 -7.333314e-02 1.772966e-02 6.599885e-02 -1.005807e-01 -1.400846e-02 1.127187e-01 -3.963321e-02 -2.091078e-02 1.128838e-01 -8.830047e-02 1.697008e-02
<VARIANCE> 39
 1.757923e+01 8.848858e+00 1.274388e+01 1.489282e+01 3.072737e+01 2.590726e+01 2.833702e+01 4.966731e+01 3.744105e+01 3.173871e+01 2.833072e+01 3.418377e+01 2.268299e+01 1.628411e-01 2.822350e-01 5.408777e-01 6.635189e-01 9.251856e-01 1.166197e+00 1.234212e+00 1.449437e+00 1.554982e+00 1.401082e+00 1.370631e+00 1.211509e+00 9.322365e-02 7.760442e-02 6.497091e-02 1.309864e-01 1.500441e-01 2.160831e-01 2.749463e-01 2.823166e-01 3.505624e-01 3.682418e-01 3.267044e-01 3.056516e-01 2.775138e-01 7.993791e-02
<GCONST> 8.697585e+01
<MIXTURE> 4 9.257068e-02
<MEAN> 39
 -2.322835e+01 7.509848e-01 4.825671e+00 -3.636323e+00 -6.482095e+00 1.126685e+01 1.718915e+00 -6.443159e+00 4.244183e+00 3.865227e+00 -1.189280e+01 4.924674e+00 5.857296e+01 -3.208116e-01 -3.150193e-02 -2.051103e-01 -2.394297e-03 -1.022999e-01 -7.731923e-02 -3.990836e-02 -4.252452e-03 -1.109724e-01 -2.372828e-01 8.039397e-02 -1.225773e-01 4.386153e-01 -5.339517e-02 -1.189413e-02 2.802610e-02 -2.439907e-02 1.264623e-02 -5.679123e-02 -5.617646e-02 6.081966e-02 -1.185081e-01 7.144979e-02 3.569940e-02 -2.663401e-02 6.890029e-02
<VARIANCE> 39
 2.397023e+01 1.083146e+01 1.654102e+01 1.628699e+01 2.669912e+01 2.675142e+01 3.036481e+01 4.534434e+01 3.789554e+01 3.383920e+01 2.684115e+01 3.090103e+01 3.047822e+01 1.034962e+00 6.574197e-01 1.374095e+00 1.228672e+00 1.839104e+00 2.626491e+00 2.069085e+00 3.657766e+00 3.097447e+00 2.606986e+00 2.441069e+00 2.350757e+00 8.141966e-01 4.596980e-01 1.185068e-01 2.700612e-01 2.241830e-01 3.188991e-01 4.079250e-01 4.109506e-01 5.427521e-01 6.132973e-01 4.831724e-01 4.031894e-01 3.997193e-01 4.950092e-01
<GCONST> 1.082945e+02
<MIXTURE> 5 1.599594e-01
<MEAN> 39
 -2.357516e+01 3.270445e-01 6.071248e+00 -3.994604e+00 -7.228039e+00 1.177277e+01 1.274687e+00 -7.155550e+00 3.605510e+00 5.060181e+00 -1.282565e+01 5.433309e+00 5.899486e+01 6.279642e-01 6.342558e-02 2.759680e-01 -5.142105e-02 -1.466728e-02 1.081172e-01 1.886408e-01 -1.499174e-01 3.458515e-01 7.263365e-02 -1.214753e-01 1.671345e-01 -7.389887e-01 -2.525865e-02 2.325445e-02 -7.333758e-02 1.773792e-02 6.602386e-02 -1.005808e-01 -1.398822e-02 1.127526e-01 -3.963137e-02 -2.090225e-02 1.129039e-01 -8.831901e-02 1.696824e-02
<VARIANCE> 39
 1.757980e+01 8.849255e+00 1.274436e+01 1.489324e+01 3.072861e+01 2.590905e+01 2.833915e+01 4.967038e+01 3.744374e+01 3.174016e+01 2.833305e+01 3.418823e+01 2.268499e+01 1.628471e-01 2.822431e-01 5.408929e-01 6.635289e-01 9.252090e-01 1.166219e+00 1.234234e+00 1.449460e+00 1.555016e+00 1.401121e+00 1.370665e+00 1.211551e+00 9.322651e-02 7.761317e-02 6.497369e-02 1.309925e-01 1.500489e-01 2.160921e-01 2.749602e-01 2.823268e-01 3.505810e-01 3.682677e-01 3.267210e-01 3.056683e-01 2.775332e-01 7.995173e-02
<GCONST> 8.697781e+01
<MIXTURE> 6 9.257597e-02
<MEAN> 39
 -2.322897e+01 7.507763e-01 4.825433e+00 -3.636309e+00 -6.482472e+00 1.126690e+01 1.718410e+00 -6.443532e+00 4.243863e+00 3.864989e+00 -1.189313e+01 4.924833e+00 5.857387e+01 -3.207290e-01 -3.153096e-02 -2.050243e-01 -2.430681e-03 -1.023919e-01 -7.719848e-02 -3.988369e-02 -4.424172e-03 -1.109035e-01 -2.372713e-01 8.025081e-02 -1.224722e-01 4.385584e-01 -5.329395e-02 -1.187300e-02 2.807674e-02 -2.440886e-02 1.267011e-02 -5.678752e-02 -5.613220e-02 6.083062e-02 -1.184476e-01 7.148117e-02 3.571126e-02 -2.662177e-02 6.878208e-02
<VARIANCE> 39
 2.396993e+01 1.083172e+01 1.654089e+01 1.628705e+01 2.669940e+01 2.675245e+01 3.036591e+01 4.534435e+01 3.789648e+01 3.383857e+01 2.684144e+01 3.090176e+01 3.047964e+01 1.034935e+00 6.573985e-01 1.374064e+00 1.228626e+00 1.839121e+00 2.626544e+00 2.069043e+00 3.657766e+00 3.097351e+00 2.606879e+00 2.441118e+00 2.350804e+00 8.141918e-01 4.597065e-01 1.185088e-01 2.700635e-01 2.241811e-01 3.189020e-01 4.079331e-01 4.109549e-01 5.427616e-01 6.133226e-01 4.831693e-01 4.031892e-01 3.997282e-01 4.950424e-01
<GCONST> 1.082948e+02
<MIXTURE> 7 9.255912e-02
<MEAN> 39
 -2.323398e+01 7.510682e-01 4.821751e+00 -3.635739e+00 -6.478583e+00 1.126326e+01 1.718462e+00 -6.436471e+00 4.237997e+00 3.866009e+00 -1.188840e+01 4.919385e+00 5.857799e+01 -3.196168e-01 -3.173568e-02 -2.045697e-01 -2.419968e-03 -1.036344e-01 -7.555426e-02 -3.928232e-02 -6.819591e-03 -1.090061e-01 -2.381262e-01 7.864002e-02 -1.207948e-01 4.376113e-01 -5.225653e-02 -1.179680e-02 2.864164e-02 -2.448628e-02 1.235231e-02 -5.633593e-02 -5.576411e-02 6.018877e-02 -1.174798e-01 7.145291e-02 3.529527e-02 -2.609066e-02 6.758986e-02
<VARIANCE> 39
 2.397668e+01 1.083282e+01 1.654041e+01 1.629039e+01 2.669464e+01 2.675206e+01 3.036417e+01 4.532073e+01 3.788201e+01 3.383557e+01 2.682976e+01 3.086590e+01 3.048837e+01 1.033903e+00 6.573684e-01 1.373942e+00 1.228609e+00 1.838514e+00 2.625895e+00 2.068976e+00 3.654685e+00 3.094701e+00 2.605895e+00 2.440362e+00 2.349295e+00 8.133795e-01 4.596565e-01 1.185441e-01 2.700819e-01 2.242309e-01 3.188723e-01 4.079037e-01 4.109342e-01 5.425943e-01 6.131244e-01 4.831940e-01 4.031514e-01 3.996195e-01 4.949742e-01
<GCONST> 1.082861e+02
<MIXTURE> 8 1.075758e-01
<MEAN> 39
 -2.543483e+01 9.075342e-01 3.019716e+00 -4.035933e+00 -4.615154e+00 7.531995e+00 8.298878e-02 -1.982267e+00 4.022750e-01 4.961787e+00 -8.300795e+00 2.036370e+00 6.121228e+01 -1.911495e+00 -3.140140e-01 -4.837927e-01 2.246211e-02 1.176906e-01 -2.670166e-01 -7.378138e-01 4.924463e-01 -1.256860e+00 2.831920e-01 1.401016e-01 -2.946418e-01 2.194890e+00 3.296672e-01 -6.360769e-02 2.175937e-01 -4.152251e-02 -2.878581e-01 4.814326e-01 1.929094e-01 -5.883957e-01 4.659468e-01 -1.048739e-01 -4.915925e-01 4.178349e-01 -3.171078e-01
<VARIANCE> 39
 4.696462e+01 1.401843e+01 1.847205e+01 1.860484e+01 2.564738e+01 3.163405e+01 3.401828e+01 3.691129e+01 3.600705e+01 2.917515e+01 2.647978e+01 2.472361e+01 4.220247e+01 2.731793e+00 9.375808e-01 1.840784e+00 1.546652e+00 2.622479e+00 3.281772e+00 2.798521e+00 4.549982e+00 3.926233e+00 3.503196e+00 2.802268e+00 2.746824e+00 1.939077e+00 5.907627e-01 1.537031e-01 2.935508e-01 2.705984e-01 3.679952e-01 4.175425e-01 4.794728e-01 5.262923e-01 6.281095e-01 5.176423e-01 3.869976e-01 4.157046e-01 5.962596e-01
<GCONST> 1.153827e+02
<TRANSP> 5
 0.000000e+00 1.000000e+00 0.000000e+00 0.000000e+00 0.000000e+00
 0.000000e+00 9.512960e-01 4.870396e-02 0.000000e+00 0.000000e+00
 0.000000e+00 0.000000e+00 9.920013e-01 7.998760e-03 0.000000e+00
 0.000000e+00 0.000000e+00 0.000000e+00 9.936178e-01 6.382254e-03
 0.000000e+00 0.000000e+00 0.000000e+00 0.000000e+00 0.000000e+00
<ENDHMM>
~h "cm"
<BEGINHMM>
<NUMSTATES> 5
<STATE> 2
<NUMMIXES> 8
<MIXTURE> 1 1.440737e-01
<MEAN> 39
 -1.275766e+01 -1.324988e+00 -5.045046e+00 -8.058998e+00 -3.345992e+00 -3.780332e+00 -5.641935e+00 -3.122319e+00 -4.149439e+00 2.905927e-01 3.118382e+00 1.145866e+00 6.035163e+01 3.740618e-02 6.131179e-02 1.289290e-01 2.077235e-01 3.019009e-01 3.040478e-01 2.462351e-01 2.258227e-01 1.505251e-01 8.089234e-02 4.913960e-02 2.335714e-02 7.420479e-02 4.319442e-03 4.482140e-02 1.052571e-01 1.996976e-01 2.945302e-01 3.823296e-01 4.164241e-01 3.791138e-01 2.922945e-01 1.452236e-01 2.269504e-02 -4.254449e-02 -3.753316e-02
<VARIANCE> 39
 1.046320e+01 1.341708e+01 1.055126e+01 1.213617e+01 1.118176e+01 1.154242e+01 1.435954e+01 1.488559e+01 1.652755e+01 1.990346e+01 2.439194e+01 2.212127e+01 2.035643e+01 2.435193e-01 3.756104e-01 5.391391e-01 7.316666e-01 9.178740e-01 1.121347e+00 1.311803e+00 1.434824e+00 1.440606e+00 1.381693e+00 1.414818e+00 1.332232e+00 2.397465e-01 4.578417e-02 7.414673e-02 1.038673e-01 1.455759e-01 1.677897e-01 1.836324e-01 2.165001e-01 2.516810e-01 2.692889e-01 2.917587e-01 3.106065e-01 2.914161e-01 3.943377e-02
<GCONST> 7.958664e+01
<MIXTURE> 2 1.385504e-01
<MEAN> 39
 -1.318206e+01 -9.292853e-01 -3.952896e+00 -5.527013e+00 6.509228e-01 1.853142e+00 1.799370e-01 2.106467e+00 -2.459546e-01 1.131060e+00 2.411561e+00 -1.858643e-01 5.855175e+01 -2.273682e-02 3.610415e-02 1.109478e-01 2.113703e-01 3.290011e-01 3.685360e-01 3.320583e-01 2.880163e-01 1.889942e-01 1.046014e-01 2.431496e-02 -3.473989e-02 2.870195e-02 3.601057e-03 -7.569039e-03 -2.483492e-02 -6.255665e-02 -1.136317e-01 -1.538360e-01 -1.572596e-01 -1.357239e-01 -7.915696e-02 -8.710630e-03 3.517306e-02 3.957709e-02 9.101585e-03
<VARIANCE> 39
 8.865598e+00 1.351151e+01 1.300358e+01 1.337279e+01 1.293811e+01 1.336495e+01 1.551637e+01 1.524707e+01 1.647057e+01 1.514481e+01 1.577372e+01 1.417265e+01 2.090819e+01 1.596488e-01 2.871196e-01 4.378509e-01 6.304989e-01 7.999078e-01 9.500868e-01 1.091412e+00 1.240560e+00 1.320347e+00 1.297650e+00 1.304317e+00 1.186953e+00 1.112505e-01 2.585553e-02 4.924983e-02 8.284499e-02 1.238297e-01 1.608648e-01 1.911292e-01 2.147459e-01 2.448890e-01 2.599737e-01 2.549314e-01 2.481774e-01 2.306643e-01 1.030753e-02
<GCONST> 7.282569e+01
<MIXTURE> 3 1.385466e-01
<MEAN> 39
 -1.318210e+01 -9.293049e-01 -3.952901e+00 -5.526999e+00 6.509704e-01 1.853197e+00 1.799738e-01 2.106485e+00 -2.459608e-01 1.131054e+00 2.411551e+00 -1.858744e-01 5.855176e+01 -2.273725e-02 3.610155e-02 1.109454e-01 2.113677e-01 3.289994e-01 3.685358e-01 3.320596e-01 2.880173e-01 1.889937e-01 1.046009e-01 2.431464e-02 -3.474056e-02 2.870251e-02 3.602591e-03 -7.567965e-03 -2.483528e-02 -6.255892e-02 -1.136363e-01 -1.538418e-01 -1.572652e-01 -1.357267e-01 -7.915669e-02 -8.708712e-03 3.517582e-02 3.957987e-02 9.101845e-03
<VARIANCE> 39
 8.865413e+00 1.351150e+01 1.300365e+01 1.337282e+01 1.293811e+01 1.336495e+01 1.551653e+01 1.524721e+01 1.647069e+01 1.514504e+01 1.577397e+01 1.417289e+01 2.090788e+01 1.596488e-01 2.871200e-01 4.378514e-01 6.304994e-01 7.999067e-01 9.500840e-01 1.091414e+00 1.240564e+00 1.320349e+00 1.297648e+00 1.304316e+00 1.186956e+00 1.112494e-01 2.585540e-02 4.924956e-02 8.284533e-02 1.238298e-01 1.608651e-01 1.911300e-01 2.147479e-01 2.448903e-01 2.599749e-01 2.549342e-01 2.481801e-01 2.306675e-01 1.030742e-02
<GCONST> 7.282577e+01
<MIXTURE> 4 1.051202e-01
<MEAN> 39
 -1.336698e+01 -6.006534e-01 -4.255398e+00 -6.658188e+00 -9.096721e-01 -7.141243e-02 -1.914919e+00 5.806007e-01 -1.077502e+00 2.122107e+00 4.120572e+00 1.294441e+00 5.853554e+01 -3.294249e-02 -1.170441e-01 -2.371767e-01 -3.653446e-01 -4.094563e-01 -4.813423e-01 -5.169722e-01 -4.326833e-01 -3.266654e-01 -1.783458e-01 -2.821077e-02 5.357408e-02 1.446747e-01 2.068462e-02 -8.568626e-03 -2.617011e-03 2.555369e-02 3.135418e-02 3.832561e-02 5.704220e-02 3.316991e-02 -5.430366e-03 -7.544956e-02 -1.095091e-01 -8.193395e-02 1.572785e-02
<VARIANCE> 39
 6.832020e+00 1.276344e+01 1.198393e+01 1.234944e+01 1.301904e+01 1.352267e+01 1.613913e+01 1.608422e+01 1.736396e+01 1.645593e+01 1.744904e+01 1.595699e+01 1.792787e+01 2.033828e-01 3.332689e-01 4.766227e-01 6.684598e-01 8.035463e-01 9.435111e-01 1.109455e+00 1.252324e+00 1.341200e+00 1.324092e+00 1.332051e+00 1.245581e+00 1.588261e-01 2.703594e-02 5.490415e-02 8.774588e-02 1.294082e-01 1.693011e-01 1.984622e-01 2.237036e-01 2.489801e-01 2.688541e-01 2.644048e-01 2.609241e-01 2.437733e-01 1.303127e-02
<GCONST> 7.448928e+01
<MIXTURE> 5 1.385456e-01
<MEAN> 39
 -1.318239e+01 -9.296111e-01 -3.953397e+00 -5.527463e+00 6.508090e-01 1.853170e+00 1.798649e-01 2.106542e+00 -2.458427e-01 1.131491e+00 2.412120e+00 -1.854548e-01 5.855209e+01 -2.273221e-02 3.609319e-02 1.109495e-01 2.113918e-01 3.290356e-01 3.685667e-01 3.320858e-01 2.880330e-01 1.890060e-01 1.046020e-01 2.430516e-02 -3.475209e-02 2.871148e-02 3.607557e-03 -7.556736e-03 -2.481339e-02 -6.253351e-02 -1.136209e-01 -1.538371e-01 -1.572649e-01 -1.357361e-01 -7.918075e-02 -8.751480e-03 3.512909e-02 3.954819e-02 9.099295e-03
<VARIANCE> 39
 8.864473e+00 1.351128e+01 1.300309e+01 1.337250e+01 1.293818e+01 1.336490e+01 1.551628e+01 1.524708e+01 1.647048e+01 1.514510e+01 1.577394e+01 1.417306e+01 2.090473e+01 1.596405e-01 2.871182e-01 4.378505e-01 6.304959e-01 7.999095e-01 9.500857e-01 1.091408e+00 1.240558e+00 1.320341e+00 1.297644e+00 1.304314e+00 1.186957e+00 1.112440e-01 2.585466e-02 4.924949e-02 8.284473e-02 1.238293e-01 1.608675e-01 1.911317e-01 2.147499e-01 2.448917e-01 2.599767e-01 2.549358e-01 2.481818e-01 2.306702e-01 1.030685e-02
<GCONST> 7.282527e+01
<MIXTURE> 6 1.051202e-01
<MEAN> 39
 -1.336698e+01 -6.006534e-01 -4.255398e+00 -6.658188e+00 -9.096721e-01 -7.141243e-02 -1.914919e+00 5.806007e-01 -1.077502e+00 2.122107e+00 4.120572e+00 1.294441e+00 5.853554e+01 -3.294249e-02 -1.170441e-01 -2.371767e-01 -3.653446e-01 -4.094563e-01 -4.813423e-01 -5.169722e-01 -4.326833e-01 -3.266654e-01 -1.783458e-01 -2.821077e-02 5.357408e-02 1.446747e-01 2.068462e-02 -8.568626e-03 -2.617011e-03 2.555369e-02 3.135418e-02 3.832561e-02 5.704220e-02 3.316991e-02 -5.430366e-03 -7.544956e-02 -1.095091e-01 -8.193395e-02 1.572785e-02
<VARIANCE> 39
 6.832020e+00 1.276344e+01 1.198393e+01 1.234944e+01 1.301904e+01 1.352267e+01 1.613913e+01 1.608422e+01 1.736396e+01 1.645593e+01 1.744904e+01 1.595699e+01 1.792787e+01 2.033828e-01 3.332689e-01 4.766227e-01 6.684598e-01 8.035463e-01 9.435111e-01 1.109455e+00 1.252324e+00 1.341200e+00 1.324092e+00 1.332051e+00 1.245581e+00 1.588261e-01 2.703594e-02 5.490415e-02 8.774588e-02 1.294082e-01 1.693011e-01 1.984622e-01 2.237036e-01 2.489801e-01 2.688541e-01 2.644048e-01 2.609241e-01 2.437733e-01 1.303127e-02
<GCONST> 7.448928e+01
<MIXTURE> 7 1.051168e-01
<MEAN> 39
 -1.336697e+01 -6.006362e-01 -4.255372e+00 -6.658169e+00 -9.096692e-01 -7.141827e-02 -1.914925e+00 5.805874e-01 -1.077507e+00 2.122113e+00 4.120579e+00 1.294446e+00 5.853552e+01 -3.294260e-02 -1.170433e-01 -2.371762e-01 -3.653452e-01 -4.094573e-01 -4.813433e-01 -5.169731e-01 -4.326839e-01 -3.266653e-01 -1.783448e-01 -2.820922e-02 5.357517e-02 1.446753e-01 2.068472e-02 -8.569164e-03 -2.618197e-03 2.555227e-02 3.135318e-02 3.832534e-02 5.704268e-02 3.317119e-02 -5.429557e-03 -7.545028e-02 -1.095107e-01 -8.193523e-02 1.572815e-02
<VARIANCE> 39
 6.832052e+00 1.276348e+01 1.198400e+01 1.234951e+01 1.301910e+01 1.352276e+01 1.613920e+01 1.608440e+01 1.736409e+01 1.645609e+01 1.744911e+01 1.595704e+01 1.792808e+01 2.033840e-01 3.332701e-01 4.766245e-01 6.684630e-01 8.035498e-01 9.435171e-01 1.109461e+00 1.252329e+00 1.341201e+00 1.324100e+00 1.332056e+00 1.245586e+00 1.588273e-01 2.703611e-02 5.490455e-02 8.774648e-02 1.294088e-01 1.693023e-01 1.984628e-01 2.237048e-01 2.489826e-01 2.688563e-01 2.644071e-01 2.609259e-01 2.437733e-01 1.303140e-02
<GCONST> 7.448948e+01
<MIXTURE> 8 1.248165e-01
<MEAN> 39
 -1.177649e+01 -8.628043e-01 -3.405317e+00 -4.910264e+00 -2.637668e-01 2.794077e-01 1.097638e-01 1.672473e+00 4.271547e-01 1.264909e+00 1.702550e+00 -7.664458e-01 5.796784e+01 2.166908e-01 -1.103301e-01 -1.436594e-01 -2.469540e-01 -4.329621e-01 -6.032015e-01 -5.990742e-01 -4.834434e-01 -3.536117e-01 -2.733595e-01 -2.554259e-01 -1.094462e-01 9.374732e-01 1.059254e-01 1.195472e-02 -3.186173e-02 -6.979771e-02 -1.141465e-01 -1.514742e-01 -1.720200e-01 -1.676095e-01 -1.490069e-01 -7.865835e-02 -2.181822e-02 1.537271e-02 1.156664e-01
<VARIANCE> 39
 1.358656e+01 1.683760e+01 1.526208e+01 1.993319e+01 1.701349e+01 1.693362e+01 1.892211e+01 1.918999e+01 1.846070e+01 1.635798e+01 1.672650e+01 1.564303e+01 3.702039e+01 9.058616e-01 9.556081e-01 9.934174e-01 1.441329e+00 1.574018e+00 1.662746e+00 1.893485e+00 2.056897e+00 1.943195e+00 1.807093e+00 1.956872e+00 1.637851e+00 8.938277e-01 1.129252e-01 1.397542e-01 1.634715e-01 2.432510e-01 2.762231e-01 2.933722e-01 3.314058e-01 3.546794e-01 3.391480e-01 3.127239e-01 3.284304e-01 2.853625e-01 1.527110e-01
<GCONST> 9.560158e+01
<STATE> 3
<NUMMIXES> 8
<MIXTURE> 1 1.243191e-01
<MEAN> 39
 -8.130075e+00 -4.093592e+00 -7.014734e+00 -9.368258e+00 -5.488506e+00 -6.019194e+00 -5.930697e+00 -3.452317e+00 -3.986603e+00 -2.236434e+00 -1.924110e+00 -2.000826e+00 7.325352e+01 1.439920e-01 9.905303e-02 2.123954e-01 2.498661e-01 3.168656e-01 3.544916e-01 2.482176e-01 2.290497e-01 2.522603e-01 2.218311e-01 2.111624e-01 1.815833e-01 -6.337433e-02 5.772269e-02 1.400137e-01 1.590189e-01 3.222686e-01 3.495631e-01 4.091475e-01 3.609315e-01 2.606828e-01 1.826251e-01 1.164833e-01 8.164454e-02 2.571313e-02 -1.787602e-01
<VARIANCE> 39
 9.124288e+00 1.132330e+01 1.332016e+01 1.510109e+01 1.314000e+01 1.123801e+01 1.452103e+01 1.702958e+01 1.958319e+01 1.640032e+01 1.591960e+01 1.466116e+01 5.153972e+01 2.488318e-01 3.573464e-01 6.021420e-01 8.231272e-01 9.789135e-01 1.104499e+00 1.293305e+00 1.407578e+00 1.405533e+00 1.347578e+00 1.372872e+00 1.243982e+00 4.672591e-01 5.952389e-02 8.204807e-02 1.267944e-01 1.572023e-01 1.848657e-01 1.954202e-01 2.330017e-01 2.877775e-01 3.060453e-01 2.974084e-01 2.846894e-01 2.686917e-01 1.162920e-01
<GCONST> 8.288084e+01
<MIXTURE> 2 1.826547e-01
<MEAN> 39
 -7.658033e+00 -2.763199e+00 -5.264549e+00 -5.483424e+00 -1.381136e+00 -1.283912e+00 -1.553200e+00 -5.631863e-01 -1.548156e+00 -1.949909e-01 -2.634388e-01 -1.288053e+00 6.820214e+01 8.096215e-02 7.593949e-02 7.017700e-02 1.419238e-01 1.340017e-01 1.597336e-01 1.222659e-01 6.821747e-02 4.412504e-02 3.651232e-02 3.165043e-02 1.062711e-02 -1.610805e-01 -8.995764e-03 -3.612274e-05 -2.386941e-02 -5.560608e-02 -7.985098e-02 -1.012812e-01 -1.020243e-01 -8.889689e-02 -9.017763e-02 -8.753971e-02 -6.932302e-02 -4.942573e-02 -2.024852e-03
<VARIANCE> 39
 1.046551e+01 1.224432e+01 1.169652e+01 1.499899e+01 1.455803e+01 1.378548e+01 1.828150e+01 1.687572e+01 1.895003e+01 1.687124e+01 1.570442e+01 1.412709e+01 7.739977e+01 2.016356e-01 3.112670e-01 4.702981e-01 6.996459e-01 8.724301e-01 1.040452e+00 1.186074e+00 1.271689e+00 1.331688e+00 1.328569e+00 1.267758e+00 1.185402e+00 2.968068e-01 3.034951e-02 5.549547e-02 9.032929e-02 1.304611e-01 1.659153e-01 2.019197e-01 2.339311e-01 2.518960e-01 2.635728e-01 2.662913e-01 2.571457e-01 2.406264e-01 1.978212e-02
<GCONST> 7.802979e+01
<MIXTURE> 3 1.826542e-01
<MEAN> 39
 -7.658006e+00 -2.763149e+00 -5.264605e+00 -5.483445e+00 -1.381236e+00 -1.284110e+00 -1.553505e+00 -5.634097e-01 -1.548376e+00 -1.951357e-01 -2.635053e-01 -1.288032e+00 6.820250e+01 8.095979e-02 7.593868e-02 7.017872e-02 1.419246e-01 1.340044e-01 1.597335e-01 1.222692e-01 6.822252e-02 4.413088e-02 3.651774e-02 3.165654e-02 1.063210e-02 -1.610829e-01 -8.998648e-03 -3.854081e-05 -2.386786e-02 -5.560083e-02 -7.983766e-02 -1.012600e-01 -1.019988e-01 -8.887382e-02 -9.015841e-02 -8.752681e-02 -6.931803e-02 -4.942682e-02 -2.026970e-03
<VARIANCE> 39
 1.046511e+01 1.224400e+01 1.169634e+01 1.499864e+01 1.455751e+01 1.378480e+01 1.828039e+01 1.687517e+01 1.894958e+01 1.687076e+01 1.570398e+01 1.412663e+01 7.739714e+01 2.016308e-01 3.112592e-01 4.702874e-01 6.996272e-01 8.724082e-01 1.040430e+00 1.186052e+00 1.271667e+00 1.331664e+00 1.328547e+00 1.267736e+00 1.185385e+00 2.968047e-01 3.034810e-02 5.549330e-02 9.032652e-02 1.304570e-01 1.659086e-01 2.019114e-01 2.339205e-01 2.518869e-01 2.635646e-01 2.662827e-01 2.571374e-01 2.406200e-01 1.978092e-02
<GCONST> 7.802861e+01
<MIXTURE> 4 8.895259e-02
<MEAN> 39
 -7.318047e+00 -1.021770e+00 -5.617683e+00 -6.370614e+00 -2.843561e+00 -3.012962e+00 -4.003343e+00 -2.235659e+00 -3.834916e+00 -2.624902e+00 -2.214626e+00 -2.881743e+00 6.886707e+01 2.476870e-01 -1.928149e-02 -1.844441e-01 -2.673374e-01 -4.215201e-01 -4.577399e-01 -3.367779e-01 -3.068571e-01 -2.334128e-01 -2.455816e-01 -2.911521e-01 -1.795397e-01 6.217176e-01 -8.300736e-02 -8.597721e-02 -1.095354e-02 -8.992356e-03 4.428400e-02 7.312702e-02 1.000132e-01 1.160944e-01 1.439361e-01 1.737065e-01 1.675809e-01 1.239769e-01 -1.089495e-02
<VARIANCE> 39
 8.661364e+00 1.042744e+01 1.282934e+01 1.372194e+01 1.432976e+01 1.198770e+01 1.415014e+01 1.526558e+01 1.667654e+01 1.444689e+01 1.463702e+01 1.268765e+01 4.724367e+01 5.859430e-01 5.996882e-01 7.158120e-01 9.680642e-01 1.061862e+00 1.155350e+00 1.339538e+00 1.419964e+00 1.496433e+00 1.448901e+00 1.364423e+00 1.261183e+00 7.614976e-01 6.447034e-02 9.169129e-02 1.272290e-01 1.734995e-01 2.032507e-01 2.138692e-01 2.395884e-01 2.598219e-01 2.726784e-01 2.591642e-01 2.507526e-01 2.366418e-01 7.300773e-02
<GCONST> 8.396774e+01
<MIXTURE> 5 1.826534e-01
<MEAN> 39
 -7.658015e+00 -2.763167e+00 -5.264562e+00 -5.483414e+00 -1.381164e+00 -1.284003e+00 -1.553361e+00 -5.633247e-01 -1.548297e+00 -1.950866e-01 -2.634780e-01 -1.288043e+00 6.820229e+01 8.096104e-02 7.594015e-02 7.017946e-02 1.419271e-01 1.340070e-01 1.597379e-01 1.222713e-01 6.822293e-02 4.412959e-02 3.651617e-02 3.165472e-02 1.063040e-02 -1.610833e-01 -8.997426e-03 -3.782369e-05 -2.386974e-02 -5.560514e-02 -7.984624e-02 -1.012718e-01 -1.020108e-01 -8.888260e-02 -9.016467e-02 -8.753116e-02 -6.931989e-02 -4.942654e-02 -2.025652e-03
<VARIANCE> 39
 1.046531e+01 1.224417e+01 1.169641e+01 1.499880e+01 1.455773e+01 1.378516e+01 1.828096e+01 1.687544e+01 1.894978e+01 1.687099e+01 1.570424e+01 1.412692e+01 7.739844e+01 2.016334e-01 3.112633e-01 4.702929e-01 6.996372e-01 8.724201e-01 1.040441e+00 1.186067e+00 1.271677e+00 1.331680e+00 1.328561e+00 1.267751e+00 1.185397e+00 2.968053e-01 3.034887e-02 5.549452e-02 9.032789e-02 1.304586e-01 1.659119e-01 2.019160e-01 2.339261e-01 2.518918e-01 2.635683e-01 2.662875e-01 2.571416e-01 2.406240e-01 1.978163e-02
<GCONST> 7.802921e+01
<MIXTURE> 6 8.895072e-02
<MEAN> 39
 -7.318078e+00 -1.021739e+00 -5.617642e+00 -6.370497e+00 -2.843485e+00 -3.012913e+00 -4.003408e+00 -2.235826e+00 -3.835156e+00 -2.625123e+00 -2.214822e+00 -2.881845e+00 6.886700e+01 2.476812e-01 -1.927533e-02 -1.844356e-01 -2.673222e-01 -4.215073e-01 -4.577236e-01 -3.367671e-01 -3.068499e-01 -2.334045e-01 -2.455743e-01 -2.911434e-01 -1.795343e-01 6.217011e-01 -8.300615e-02 -8.597966e-02 -1.095676e-02 -8.999512e-03 4.427719e-02 7.312281e-02 1.000195e-01 1.161105e-01 1.439601e-01 1.737317e-01 1.676028e-01 1.239896e-01 -1.089444e-02
<VARIANCE> 39
 8.661441e+00 1.042766e+01 1.282977e+01 1.372206e+01 1.432993e+01 1.198775e+01 1.415032e+01 1.526602e+01 1.667695e+01 1.444737e+01 1.463751e+01 1.268802e+01 4.724419e+01 5.859401e-01 5.996910e-01 7.158148e-01 9.680657e-01 1.061867e+00 1.155362e+00 1.339547e+00 1.419972e+00 1.496441e+00 1.448913e+00 1.364431e+00 1.261187e+00 7.615039e-01 6.447158e-02 9.169410e-02 1.272321e-01 1.735000e-01 2.032516e-01 2.138700e-01 2.395915e-01 2.598295e-01 2.726865e-01 2.591733e-01 2.507613e-01 2.366484e-01 7.300969e-02
<GCONST> 8.396833e+01
<MIXTURE> 7 8.895286e-02
<MEAN> 39
 -7.318075e+00 -1.021742e+00 -5.617638e+00 -6.370503e+00 -2.843478e+00 -3.012908e+00 -4.003388e+00 -2.235795e+00 -3.835112e+00 -2.625090e+00 -2.214797e+00 -2.881838e+00 6.886701e+01 2.476826e-01 -1.927610e-02 -1.844357e-01 -2.673237e-01 -4.215075e-01 -4.577241e-01 -3.367668e-01 -3.068493e-01 -2.334039e-01 -2.455738e-01 -2.911435e-01 -1.795345e-01 6.217035e-01 -8.300616e-02 -8.597954e-02 -1.095737e-02 -9.000002e-03 4.427589e-02 7.312160e-02 1.000171e-01 1.161073e-01 1.439558e-01 1.737279e-01 1.676000e-01 1.239886e-01 -1.089419e-02
<VARIANCE> 39
 8.661437e+00 1.042757e+01 1.282970e+01 1.372200e+01 1.432984e+01 1.198772e+01 1.415022e+01 1.526585e+01 1.667679e+01 1.444721e+01 1.463738e+01 1.268793e+01 4.724403e+01 5.859394e-01 5.996857e-01 7.158116e-01 9.680597e-01 1.061865e+00 1.155357e+00 1.339541e+00 1.419964e+00 1.496434e+00 1.448904e+00 1.364425e+00 1.261183e+00 7.615005e-01 6.447145e-02 9.169342e-02 1.272317e-01 1.734997e-01 2.032511e-01 2.138694e-01 2.395900e-01 2.598274e-01 2.726837e-01 2.591712e-01 2.507591e-01 2.366467e-01 7.300979e-02
<GCONST> 8.396811e+01
<MIXTURE> 8 6.081170e-02
<MEAN> 39
 -1.025998e+01 -4.878512e+00 -4.236135e+00 -6.442215e+00 -2.033581e+00 -2.929112e+00 -1.673698e+00 -1.053917e+00 -1.827191e+00 -1.098609e+00 -7.151893e-01 -1.671076e+00 6.666168e+01 -2.340668e-01 -7.649885e-01 -1.877150e-01 -5.142670e-01 -4.481460e-01 -7.304219e-01 -3.838952e-01 -2.217199e-01 -1.308516e-01 -2.128228e-01 -2.841745e-01 -3.768312e-02 1.759466e+00 1.390115e-01 1.641378e-01 2.647955e-02 1.691852e-02 8.388398e-02 8.900238e-02 -1.048816e-02 -2.094798e-02 -1.757778e-02 7.825191e-03 2.082850e-02 -2.869377e-03 -1.902415e-01
<VARIANCE> 39
 2.283564e+01 2.521206e+01 2.220628e+01 2.612433e+01 2.624777e+01 2.648619e+01 2.880332e+01 2.721788e+01 2.900565e+01 2.225636e+01 2.035478e+01 1.894913e+01 8.547196e+01 1.640711e+00 2.073861e+00 1.645748e+00 2.099190e+00 2.145038e+00 2.382684e+00 2.286982e+00 2.472238e+00 2.435662e+00 2.216560e+00 2.032930e+00 1.879434e+00 3.027238e+00 2.197179e-01 3.599384e-01 3.084345e-01 3.782661e-01 4.058291e-01 4.968576e-01 4.486700e-01 4.498736e-01 4.641459e-01 4.280261e-01 4.128070e-01 3.579565e-01 7.341506e-01
<GCONST> 1.127159e+02
<STATE> 4
<NUMMIXES> 8
<MIXTURE> 1 8.730617e-02
<MEAN> 39
 -7.863109e+00 2.469746e+00 1.079013e-01 -1.208691e+00 3.243226e+00 2.945373e+00 1.841840e+00 2.003789e+00 -7.557096e-02 -5.141882e-01 4.699496e-02 -1.995790e+00 5.593637e+01 -4.792529e-02 1.548475e-02 5.115490e-02 4.950398e-02 5.896975e-02 9.049838e-02 1.426806e-01 1.489040e-01 1.149812e-01 4.644537e-02 3.568887e-03 -2.950339e-02 -2.761170e-01 2.772486e-02 -3.950262e-03 -5.192609e-02 -1.052787e-01 -1.785788e-01 -2.301108e-01 -2.390991e-01 -2.019824e-01 -1.334614e-01 -6.144788e-02 -2.501203e-02 4.332195e-03 3.561874e-02
<VARIANCE> 39
 2.072064e+01 1.063008e+01 1.174830e+01 1.093772e+01 9.814495e+00 1.091601e+01 1.441756e+01 1.544540e+01 1.714374e+01 1.601276e+01 1.478757e+01 1.387926e+01 3.788336e+01 1.975316e-01 2.869329e-01 4.431953e-01 6.769296e-01 8.616186e-01 1.059001e+00 1.195609e+00 1.340358e+00 1.405205e+00 1.361338e+00 1.310575e+00 1.175078e+00 1.432509e-01 2.422449e-02 4.716955e-02 7.547751e-02 1.214212e-01 1.544997e-01 1.896173e-01 2.099903e-01 2.382282e-01 2.593593e-01 2.592699e-01 2.503102e-01 2.301250e-01 1.028270e-02
<GCONST> 7.390125e+01
<MIXTURE> 2 1.452973e-01
<MEAN> 39
 -4.905789e+00 1.570579e+00 -2.020673e+00 -3.195273e+00 3.197748e-01 -8.349983e-01 -2.356365e+00 -1.891242e+00 -2.913712e+00 -2.171266e+00 -9.848164e-01 -2.326395e+00 6.335108e+01 2.963042e-02 1.053071e-01 1.270315e-01 1.526742e-01 1.464119e-01 1.196199e-01 9.563109e-02 3.768587e-02 1.152952e-02 1.104494e-02 2.574363e-02 8.519916e-03 -4.018496e-01 -1.705134e-02 -3.379535e-02 -5.629646e-02 -7.657874e-02 -8.259290e-02 -5.854815e-02 -1.562613e-02 1.680480e-02 1.845246e-02 8.371316e-03 -5.401775e-03 -6.180674e-03 1.558203e-02
<VARIANCE> 39
 1.116608e+01 8.810988e+00 7.966921e+00 8.696812e+00 9.282746e+00 1.034558e+01 1.355498e+01 1.628631e+01 1.771571e+01 1.578553e+01 1.466419e+01 1.302466e+01 5.274812e+01 1.650145e-01 2.635486e-01 4.100803e-01 6.125087e-01 8.091251e-01 9.706024e-01 1.129812e+00 1.225879e+00 1.305151e+00 1.284788e+00 1.249552e+00 1.144757e+00 1.699175e-01 2.327231e-02 4.584240e-02 7.604080e-02 1.137616e-01 1.503340e-01 1.824818e-01 2.181680e-01 2.404725e-01 2.588902e-01 2.562464e-01 2.481885e-01 2.299919e-01 1.198439e-02
<GCONST> 7.184994e+01
<MIXTURE> 3 1.452968e-01
<MEAN> 39
 -4.905836e+00 1.570571e+00 -2.020657e+00 -3.195222e+00 3.198856e-01 -8.348209e-01 -2.356218e+00 -1.891172e+00 -2.913749e+00 -2.171404e+00 -9.850275e-01 -2.326566e+00 6.335124e+01 2.962888e-02 1.052992e-01 1.270185e-01 1.526564e-01 1.463896e-01 1.195959e-01 9.560922e-02 3.766772e-02 1.151621e-02 1.103620e-02 2.573889e-02 8.519048e-03 -4.018388e-01 -1.705030e-02 -3.379659e-02 -5.630118e-02 -7.658941e-02 -8.261133e-02 -5.857308e-02 -1.564806e-02 1.679432e-02 1.845769e-02 8.390728e-03 -5.374910e-03 -6.159313e-03 1.558241e-02
<VARIANCE> 39
 1.116598e+01 8.810962e+00 7.967023e+00 8.696866e+00 9.282807e+00 1.034560e+01 1.355501e+01 1.628637e+01 1.771576e+01 1.578551e+01 1.466428e+01 1.302468e+01 5.274840e+01 1.650162e-01 2.635494e-01 4.100802e-01 6.125076e-01 8.091232e-01 9.705922e-01 1.129801e+00 1.225868e+00 1.305143e+00 1.284780e+00 1.249546e+00 1.144750e+00 1.699206e-01 2.327260e-02 4.584288e-02 7.604092e-02 1.137623e-01 1.503346e-01 1.824828e-01 2.181676e-01 2.404724e-01 2.588904e-01 2.562451e-01 2.481904e-01 2.299916e-01 1.198470e-02
<GCONST> 7.185003e+01
<MIXTURE> 4 1.341715e-01
<MEAN> 39
 -4.690033e+00 -1.023202e+00 -5.248167e+00 -7.140282e+00 -3.692215e+00 -4.100981e+00 -4.287812e+00 -2.605206e+00 -3.115330e+00 -2.605330e+00 -1.849158e+00 -2.677575e+00 7.163903e+01 5.947151e-02 2.940309e-02 4.781125e-02 8.278061e-02 6.417401e-02 3.793725e-02 2.436537e-02 -1.335907e-02 3.498691e-03 -1.829702e-03 1.497150e-02 1.530944e-02 -1.563194e-01 -9.130131e-03 2.809625e-02 6.164310e-02 9.847014e-02 1.310780e-01 1.305059e-01 1.026496e-01 6.606393e-02 4.519245e-02 4.165337e-02 3.253272e-02 1.099258e-02 -3.408201e-02
<VARIANCE> 39
 4.396418e+00 7.245335e+00 7.056351e+00 9.485926e+00 9.212986e+00 9.650345e+00 1.305973e+01 1.521134e+01 1.570012e+01 1.395950e+01 1.360038e+01 1.191966e+01 3.286166e+01 1.518711e-01 2.671731e-01 4.324344e-01 6.406909e-01 8.172293e-01 9.591244e-01 1.128515e+00 1.215943e+00 1.260540e+00 1.242111e+00 1.204201e+00 1.103402e+00 2.768095e-01 2.667454e-02 4.971652e-02 8.154861e-02 1.196222e-01 1.493505e-01 1.795626e-01 2.190098e-01 2.376206e-01 2.498390e-01 2.477982e-01 2.433872e-01 2.249003e-01 2.270814e-02
<GCONST> 7.082241e+01
<MIXTURE> 5 1.452992e-01
<MEAN> 39
 -4.905586e+00 1.570421e+00 -2.020929e+00 -3.195505e+00 3.196054e-01 -8.349779e-01 -2.356038e+00 -1.890767e+00 -2.913138e+00 -2.170789e+00 -9.845345e-01 -2.326239e+00 6.335154e+01 2.964097e-02 1.053168e-01 1.270384e-01 1.526890e-01 1.464231e-01 1.196250e-01 9.562411e-02 3.767285e-02 1.151417e-02 1.103534e-02 2.574012e-02 8.515653e-03 -4.018637e-01 -1.705507e-02 -3.379119e-02 -5.628476e-02 -7.656459e-02 -8.258547e-02 -5.855960e-02 -1.566390e-02 1.675186e-02 1.839525e-02 8.322565e-03 -5.432610e-03 -6.193409e-03 1.557942e-02
<VARIANCE> 39
 1.116556e+01 8.810795e+00 7.966453e+00 8.696530e+00 9.282469e+00 1.034524e+01 1.355453e+01 1.628588e+01 1.771505e+01 1.578493e+01 1.466322e+01 1.302403e+01 5.274864e+01 1.650078e-01 2.635439e-01 4.100743e-01 6.125023e-01 8.091181e-01 9.705855e-01 1.129810e+00 1.225874e+00 1.305147e+00 1.284782e+00 1.249541e+00 1.144758e+00 1.699178e-01 2.327118e-02 4.584113e-02 7.603785e-02 1.137578e-01 1.503306e-01 1.824773e-01 2.181632e-01 2.404664e-01 2.588810e-01 2.562343e-01 2.481762e-01 2.299833e-01 1.198390e-02
<GCONST> 7.184889e+01
<MIXTURE> 6 1.341745e-01
<MEAN> 39
 -4.690000e+00 -1.023252e+00 -5.248196e+00 -7.140347e+00 -3.692204e+00 -4.100891e+00 -4.287616e+00 -2.604970e+00 -3.115080e+00 -2.605139e+00 -1.849030e+00 -2.677506e+00 7.163921e+01 5.947182e-02 2.940320e-02 4.781047e-02 8.278155e-02 6.417295e-02 3.793547e-02 2.436224e-02 -1.336330e-02 3.496047e-03 -1.831350e-03 1.497118e-02 1.530893e-02 -1.563144e-01 -9.131308e-03 2.809607e-02 6.164280e-02 9.846982e-02 1.310725e-01 1.304922e-01 1.026282e-01 6.603870e-02 4.516744e-02 4.163314e-02 3.251944e-02 1.098588e-02 -3.408276e-02
<VARIANCE> 39
 4.396229e+00 7.245117e+00 7.056139e+00 9.485701e+00 9.212755e+00 9.650079e+00 1.305932e+01 1.521099e+01 1.569973e+01 1.395925e+01 1.360005e+01 1.191939e+01 3.286019e+01 1.518678e-01 2.671674e-01 4.324297e-01 6.406842e-01 8.172158e-01 9.591057e-01 1.128496e+00 1.215927e+00 1.260525e+00 1.242101e+00 1.204193e+00 1.103390e+00 2.768051e-01 2.667380e-02 4.971537e-02 8.154711e-02 1.196197e-01 1.493462e-01 1.795577e-01 2.190053e-01 2.376157e-01 2.498349e-01 2.477939e-01 2.433807e-01 2.248953e-01 2.270781e-02
<GCONST> 7.082159e+01
<MIXTURE> 7 1.341745e-01
<MEAN> 39
 -4.690000e+00 -1.023252e+00 -5.248196e+00 -7.140347e+00 -3.692204e+00 -4.100891e+00 -4.287616e+00 -2.604970e+00 -3.115080e+00 -2.605139e+00 -1.849030e+00 -2.677506e+00 7.163921e+01 5.947182e-02 2.940320e-02 4.781047e-02 8.278155e-02 6.417295e-02 3.793547e-02 2.436224e-02 -1.336330e-02 3.496047e-03 -1.831350e-03 1.497118e-02 1.530893e-02 -1.563144e-01 -9.131308e-03 2.809607e-02 6.164280e-02 9.846982e-02 1.310725e-01 1.304922e-01 1.026282e-01 6.603870e-02 4.516744e-02 4.163314e-02 3.251944e-02 1.098588e-02 -3.408276e-02
<VARIANCE> 39
 4.396229e+00 7.245117e+00 7.056139e+00 9.485701e+00 9.212755e+00 9.650079e+00 1.305932e+01 1.521099e+01 1.569973e+01 1.395925e+01 1.360005e+01 1.191939e+01 3.286019e+01 1.518678e-01 2.671674e-01 4.324297e-01 6.406842e-01 8.172158e-01 9.591057e-01 1.128496e+00 1.215927e+00 1.260525e+00 1.242101e+00 1.204193e+00 1.103390e+00 2.768051e-01 2.667380e-02 4.971537e-02 8.154711e-02 1.196197e-01 1.493462e-01 1.795577e-01 2.190053e-01 2.376157e-01 2.498349e-01 2.477939e-01 2.433807e-01 2.248953e-01 2.270781e-02
<GCONST> 7.082159e+01
<MIXTURE> 8 7.405133e-02
<MEAN> 39
 -6.439363e+00 -1.766677e-01 -4.002901e+00 -5.321609e+00 -1.223744e+00 -1.196707e+00 -1.117557e+00 3.800175e-01 -5.888181e-01 -1.541955e-01 -2.216053e-01 -2.187646e+00 6.782645e+01 1.886933e-04 -2.570224e-01 -2.855626e-01 -4.824431e-01 -5.507523e-01 -5.710394e-01 -4.012170e-01 -3.158033e-01 -1.794543e-01 -1.220966e-01 -1.358107e-01 -3.039841e-02 3.729481e-01 5.334175e-02 3.268295e-02 4.767590e-02 2.414873e-02 -2.242478e-02 -7.506855e-02 -1.627552e-01 -1.891972e-01 -1.803243e-01 -1.642781e-01 -8.716811e-02 -1.378822e-02 -1.442475e-02
<VARIANCE> 39
 1.136135e+01 9.749015e+00 1.177051e+01 1.441725e+01 1.273842e+01 1.327934e+01 1.484223e+01 1.789821e+01 1.840318e+01 1.667444e+01 1.560752e+01 1.372850e+01 5.969420e+01 4.651882e-01 5.265418e-01 7.376527e-01 1.015057e+00 1.176405e+00 1.196481e+00 1.405074e+00 1.523678e+00 1.583119e+00 1.476158e+00 1.384073e+00 1.302253e+00 6.425321e-01 6.695794e-02 9.653655e-02 1.382630e-01 2.059562e-01 2.360643e-01 2.562996e-01 2.747222e-01 2.995270e-01 3.135646e-01 3.032958e-01 2.909071e-01 2.619586e-01 1.180835e-01
<GCONST> 8.685080e+01
<TRANSP> 5
 0.000000e+00 1.000000e+00 0.000000e+00 0.000000e+00 0.000000e+00
 0.000000e+00 9.681968e-01 3.180319e-02 0.000000e+00 0.000000e+00
 0.000000e+00 0.000000e+00 9.680271e-01 3.197289e-02 0.000000e+00
 0.000000e+00 0.000000e+00 0.000000e+00 9.824199e-01 1.758006e-02
 0.000000e+00 0.000000e+00 0.000000e+00 0.000000e+00 0.000000e+00
<ENDHMM>
~h "co"
<BEGINHMM>
<NUMSTATES> 5
<STATE> 2
<NUMMIXES> 8
<MIXTURE> 1 2.225265e-01
<MEAN> 39
 -1.068558e+01 -4.182587e+00 1.167238e+00 -4.242576e+00 -8.356825e+00 -6.699900e+00 -2.448796e+00 -2.376904e+00 -3.425458e+00 -5.121901e+00 -1.920629e+00 -6.015767e+00 7.144837e+01 -2.875679e-01 -3.211491e-01 -9.030292e-02 2.341038e-01 9.481100e-01 1.679015e-01 6.642913e-01 -4.143271e-02 -7.910870e-02 3.548708e-01 4.580691e-01 4.167387e-01 2.487453e-01 2.543804e-01 -1.614242e-01 -2.774879e-01 -1.058637e-02 -2.153196e-01 -1.648815e-02 -2.855617e-01 -6.159206e-02 -6.895669e-03 3.171039e-02 -1.278829e-01 -9.945244e-02 -3.630958e-01
<VARIANCE> 39
 1.217484e+01 1.438736e+01 1.566875e+01 1.595916e+01 3.465583e+01 4.602416e+01 3.455502e+01 7.689642e+01 3.404108e+01 2.471341e+01 2.384818e+01 2.174339e+01 1.207838e+02 2.985103e-01 3.716110e-01 8.248875e-01 8.656229e-01 1.532714e+00 1.509861e+00 1.561175e+00 1.696731e+00 1.907870e+00 1.851989e+00 1.553827e+00 1.564299e+00 3.181355e-01 5.738223e-02 9.667778e-02 1.421455e-01 2.012973e-01 2.172771e-01 3.049338e-01 3.541229e-01 3.326611e-01 3.237848e-01 3.346131e-01 2.795312e-01 2.866181e-01 9.029883e-02
<GCONST> 9.493428e+01
<MIXTURE> 2 1.323419e-01
<MEAN> 39
 -1.019543e+01 -7.037942e+00 -4.671797e-03 -5.920517e+00 -1.228711e+01 -7.789295e+00 -3.449204e+00 -1.670163e+00 -5.100072e+00 -6.635911e+00 -4.820290e+00 -6.852589e+00 7.260094e+01 -1.000036e+00 6.706271e-01 3.708710e-01 -1.930772e-01 6.550623e-01 -1.197558e-01 4.997890e-01 -5.947769e-01 -7.627890e-01 -4.119216e-01 3.373077e-01 1.515981e-01 1.933427e+00 1.277106e-01 -1.923409e-01 -2.062591e-01 2.909024e-01 2.967517e-01 2.435904e-01 1.304195e-01 1.839441e-01 3.820451e-01 3.770319e-01 2.679395e-01 1.284723e-01 -6.812161e-01
<VARIANCE> 39
 1.405409e+01 1.690498e+01 2.990314e+01 2.762038e+01 3.584694e+01 3.964025e+01 6.271729e+01 6.862331e+01 3.818128e+01 3.072735e+01 3.021487e+01 3.141779e+01 2.800652e+01 6.339120e-01 1.731917e+00 1.749297e+00 2.068750e+00 2.044999e+00 2.408573e+00 3.180006e+00 2.506279e+00 2.763609e+00 2.751040e+00 2.080777e+00 2.064608e+00 1.293565e+00 1.352740e-01 2.345481e-01 2.998476e-01 3.032293e-01 3.378500e-01 4.234715e-01 4.345319e-01 4.244168e-01 4.190456e-01 3.940618e-01 3.816688e-01 3.502533e-01 2.039066e-01
<GCONST> 1.106529e+02
<MIXTURE> 3 1.324006e-01
<MEAN> 39
 -1.019061e+01 -7.034895e+00 -8.494720e-03 -5.920930e+00 -1.229566e+01 -7.795767e+00 -3.460541e+00 -1.678794e+00 -5.097229e+00 -6.636389e+00 -4.818801e+00 -6.857721e+00 7.260239e+01 -1.000799e+00 6.719288e-01 3.724345e-01 -1.950677e-01 6.560930e-01 -1.211696e-01 5.015601e-01 -5.946865e-01 -7.638431e-01 -4.130317e-01 3.363131e-01 1.520341e-01 1.935048e+00 1.273099e-01 -1.922730e-01 -2.060981e-01 2.914524e-01 2.973543e-01 2.444583e-01 1.310554e-01 1.845992e-01 3.819286e-01 3.772851e-01 2.683029e-01 1.288807e-01 -6.816341e-01
<VARIANCE> 39
 1.404379e+01 1.690564e+01 2.989954e+01 2.762299e+01 3.586133e+01 3.963864e+01 6.277574e+01 6.872626e+01 3.820152e+01 3.073443e+01 3.021128e+01 3.144308e+01 2.799010e+01 6.340020e-01 1.733777e+00 1.751190e+00 2.070515e+00 2.047926e+00 2.410761e+00 3.183985e+00 2.507465e+00 2.766112e+00 2.752155e+00 2.081127e+00 2.065516e+00 1.293729e+00 1.352707e-01 2.345959e-01 3.000477e-01 3.034347e-01 3.381812e-01 4.236225e-01 4.348589e-01 4.248490e-01 4.193436e-01 3.943239e-01 3.817587e-01 3.504262e-01 2.039851e-01
<GCONST> 1.106722e+02
<MIXTURE> 4 8.186223e-02
<MEAN> 39
 -6.708828e+00 -5.326205e+00 -1.981355e+00 -1.854485e+00 -5.702613e+00 -8.495311e-01 -1.939131e+00 1.788070e+00 2.999887e+00 7.356876e-01 -4.520045e-01 -4.297674e+00 5.402305e+01 -2.191489e-01 -9.769059e-01 2.908767e-01 -3.150526e-01 -1.629595e+00 -1.471090e+00 -8.175512e-01 -5.639320e-01 -5.986581e-01 -8.742557e-01 -7.372708e-01 -4.255106e-01 2.607686e+00 -8.486089e-02 4.377265e-03 8.400372e-02 -1.180186e-01 -1.315439e-01 -1.528913e-01 -3.532839e-02 -1.461734e-01 -3.018828e-01 -2.186524e-01 -1.080231e-01 -6.242283e-02 5.431902e-01
<VARIANCE> 39
 2.757390e+01 3.341800e+01 2.460529e+01 2.814751e+01 9.112183e+01 4.373196e+01 8.646732e+01 5.710453e+01 4.117955e+01 2.820192e+01 3.234895e+01 3.135544e+01 7.432171e+01 1.918679e+00 2.344688e+00 2.352337e+00 2.665253e+00 4.783310e+00 3.971663e+00 4.379819e+00 3.983596e+00 3.698825e+00 3.067716e+00 2.459909e+00 2.247686e+00 3.239542e+00 1.724888e-01 2.211175e-01 1.911732e-01 2.347103e-01 5.180810e-01 5.197960e-01 5.590189e-01 3.944872e-01 3.964361e-01 3.248756e-01 3.393881e-01 3.225529e-01 3.658796e-01
<GCONST> 1.201224e+02
<MIXTURE> 5 1.323839e-01
<MEAN> 39
 -1.018963e+01 -7.033418e+00 -9.841174e-03 -5.920014e+00 -1.229565e+01 -7.796003e+00 -3.461008e+00 -1.676317e+00 -5.097581e+00 -6.638729e+00 -4.820299e+00 -6.858029e+00 7.260413e+01 -1.000436e+00 6.718321e-01 3.720147e-01 -1.945588e-01 6.564597e-01 -1.210078e-01 5.014490e-01 -5.944583e-01 -7.632077e-01 -4.124950e-01 3.365301e-01 1.517728e-01 1.934017e+00 1.272235e-01 -1.926804e-01 -2.058886e-01 2.912200e-01 2.970018e-01 2.441537e-01 1.309023e-01 1.842503e-01 3.817741e-01 3.772021e-01 2.681577e-01 1.288601e-01 -6.811984e-01
<VARIANCE> 39
 1.403103e+01 1.690272e+01 2.989763e+01 2.762333e+01 3.584018e+01 3.963652e+01 6.276856e+01 6.872028e+01 3.820588e+01 3.072748e+01 3.021388e+01 3.143633e+01 2.800012e+01 6.333858e-01 1.732240e+00 1.750300e+00 2.070329e+00 2.046956e+00 2.410279e+00 3.183403e+00 2.507106e+00 2.764933e+00 2.751500e+00 2.080667e+00 2.065554e+00 1.292789e+00 1.348908e-01 2.344944e-01 2.998563e-01 3.032645e-01 3.378499e-01 4.231933e-01 4.347014e-01 4.245664e-01 4.191805e-01 3.941190e-01 3.815060e-01 3.502997e-01 2.038786e-01
<GCONST> 1.106553e+02
<MIXTURE> 6 8.206213e-02
<MEAN> 39
 -6.716668e+00 -5.308361e+00 -1.963544e+00 -1.871092e+00 -5.628518e+00 -8.275820e-01 -1.871362e+00 1.831153e+00 2.989626e+00 7.469180e-01 -4.484754e-01 -4.266814e+00 5.396773e+01 -2.179853e-01 -9.827498e-01 2.875987e-01 -3.112643e-01 -1.639068e+00 -1.469736e+00 -8.204222e-01 -5.607798e-01 -5.962597e-01 -8.670574e-01 -7.358845e-01 -4.254645e-01 2.605495e+00 -8.333385e-02 2.688278e-03 8.308209e-02 -1.183228e-01 -1.362735e-01 -1.556309e-01 -3.970775e-02 -1.477984e-01 -3.021378e-01 -2.194154e-01 -1.098737e-01 -6.488867e-02 5.467921e-01
<VARIANCE> 39
 2.768641e+01 3.347340e+01 2.448659e+01 2.805727e+01 9.044724e+01 4.359930e+01 8.572399e+01 5.663625e+01 4.090770e+01 2.809335e+01 3.222067e+01 3.112132e+01 7.427796e+01 1.925718e+00 2.345895e+00 2.347439e+00 2.666939e+00 4.783636e+00 3.982352e+00 4.383760e+00 3.989379e+00 3.699281e+00 3.070637e+00 2.464846e+00 2.251868e+00 3.251204e+00 1.737067e-01 2.220805e-01 1.914030e-01 2.352033e-01 5.191824e-01 5.213476e-01 5.587216e-01 3.958689e-01 3.973044e-01 3.252790e-01 3.398476e-01 3.225947e-01 3.675653e-01
<GCONST> 1.201188e+02
<MIXTURE> 7 8.422924e-02
<MEAN> 39
 -6.588122e+00 -5.061328e+00 -1.844904e+00 -1.976716e+00 -5.023795e+00 -5.506376e-01 -1.316467e+00 2.213811e+00 2.879253e+00 8.180022e-01 -4.386194e-01 -4.065801e+00 5.329778e+01 -2.083657e-01 -1.036561e+00 2.673932e-01 -2.689574e-01 -1.711405e+00 -1.462438e+00 -8.563037e-01 -5.447598e-01 -5.806916e-01 -8.061996e-01 -7.285782e-01 -4.359995e-01 2.591208e+00 -8.419026e-02 -1.653187e-02 8.218845e-02 -1.188544e-01 -1.728326e-01 -1.796163e-01 -7.725838e-02 -1.683789e-01 -3.054274e-01 -2.256814e-01 -1.257303e-01 -8.378688e-02 5.878398e-01
<VARIANCE> 39
 2.629634e+01 3.373336e+01 2.360213e+01 2.715573e+01 8.461766e+01 4.207077e+01 7.979612e+01 5.278336e+01 3.841562e+01 2.716157e+01 3.128380e+01 2.922748e+01 7.206982e+01 1.855797e+00 2.365616e+00 2.305965e+00 2.667720e+00 4.767587e+00 4.042182e+00 4.459039e+00 4.012074e+00 3.690885e+00 3.095705e+00 2.504768e+00 2.291798e+00 3.319760e+00 1.634789e-01 2.293997e-01 1.904016e-01 2.362652e-01 5.225301e-01 5.241385e-01 5.589877e-01 3.991164e-01 3.948602e-01 3.277368e-01 3.431136e-01 3.226433e-01 3.692907e-01
<GCONST> 1.195977e+02
<MIXTURE> 8 1.321887e-01
<MEAN> 39
 -5.992570e+00 -1.149390e+01 -3.388656e+00 -2.506278e+00 -1.558736e+01 -6.545113e+00 -5.563776e+00 7.108594e-01 -2.920296e-01 -2.419073e+00 -3.021387e+00 -7.505063e+00 6.452296e+01 -6.480286e-01 -3.213551e-01 3.427541e-01 -1.493115e+00 -2.121384e+00 -1.969750e+00 -1.511509e+00 -1.682991e+00 -1.723275e+00 -1.601732e+00 -1.163201e+00 -1.251284e+00 5.300310e+00 -3.078294e-01 9.983175e-01 2.897573e-01 -1.197978e-01 1.098639e+00 4.201591e-01 6.680045e-01 1.366265e-01 -2.042286e-01 -7.648881e-02 2.553396e-01 3.179057e-01 -3.709250e-01
<VARIANCE> 39
 1.242615e+01 5.062612e+01 3.201609e+01 4.682515e+01 4.733663e+01 5.886031e+01 1.156782e+02 7.604089e+01 5.624688e+01 5.620677e+01 4.271419e+01 3.956857e+01 3.851313e+01 1.019470e+00 4.879993e+00 2.798789e+00 3.529170e+00 5.682561e+00 3.269774e+00 4.752218e+00 4.071622e+00 4.123218e+00 2.795774e+00 2.596909e+00 2.494345e+00 1.633116e+00 1.951598e-01 5.867495e-01 4.792877e-01 6.885152e-01 5.383162e-01 8.055487e-01 1.205407e+00 7.963946e-01 8.689468e-01 8.046737e-01 5.963281e-01 6.095441e-01 4.288207e-01
<GCONST> 1.298054e+02
<STATE> 3
<NUMMIXES> 8
<MIXTURE> 1 1.221640e-01
<MEAN> 39
 -2.165391e+00 -3.877465e+00 -8.194269e-02 -2.169175e+00 -3.056311e+00 -8.112950e+00 -7.589454e+00 -9.166476e+00 -6.758951e+00 -3.438864e+00 -2.382969e+00 -6.768321e+00 5.822038e+01 1.571848e-01 2.320554e-01 2.322380e-01 2.052212e-01 3.464377e-01 4.296217e-01 3.525329e-01 3.571548e-01 1.786625e-01 1.037779e-01 4.292358e-02 1.099092e-01 -7.389985e-01 -9.898664e-02 -1.305568e-01 -1.085944e-01 -5.963995e-02 -1.465257e-01 3.370471e-02 1.212239e-01 2.477713e-01 2.418779e-01 1.207398e-01 2.146461e-02 6.599285e-03 7.533133e-02
<VARIANCE> 39
 5.866091e+00 7.997036e+00 1.209636e+01 1.210461e+01 1.586926e+01 2.299422e+01 2.507297e+01 5.335186e+01 3.102277e+01 3.349837e+01 2.455223e+01 2.931629e+01 2.762205e+01 1.536690e-01 2.743142e-01 4.620475e-01 6.895615e-01 9.581427e-01 1.109290e+00 1.373978e+00 1.515662e+00 1.628237e+00 1.541218e+00 1.398215e+00 1.280131e+00 6.767207e-02 3.316467e-02 7.315370e-02 9.591272e-02 1.529765e-01 2.420371e-01 2.632248e-01 3.123937e-01 3.218833e-01 3.367395e-01 3.388767e-01 3.182891e-01 2.795518e-01 4.656089e-02
<GCONST> 8.279688e+01
<MIXTURE> 2 1.758757e-01
<MEAN> 39
 -7.386303e+00 -7.905428e+00 -2.432176e+00 -4.019973e+00 -6.435408e+00 -8.696207e+00 -6.062055e+00 -6.424943e+00 -3.418061e+00 -2.767836e+00 -2.754212e+00 -7.524749e+00 6.814217e+01 2.231685e-01 6.326959e-02 4.308097e-02 2.015624e-01 3.872051e-01 7.877549e-02 3.827059e-02 -1.336946e-01 1.908180e-02 1.338465e-01 7.227032e-02 5.069346e-02 -6.847886e-01 3.343303e-02 5.864502e-02 5.389531e-02 3.189478e-02 -1.368545e-02 -1.007824e-02 -6.107797e-02 -7.955251e-02 -1.323531e-01 -1.232123e-01 -7.177461e-02 -1.819873e-02 -9.582833e-03
<VARIANCE> 39
 2.079308e+01 1.178562e+01 2.441797e+01 2.358362e+01 2.202309e+01 2.613446e+01 5.053951e+01 5.277453e+01 3.554129e+01 3.561011e+01 3.569944e+01 3.547278e+01 3.439785e+01 1.551247e-01 3.040058e-01 5.434870e-01 7.027057e-01 9.822049e-01 1.091722e+00 1.323529e+00 1.507340e+00 1.630359e+00 1.601502e+00 1.430240e+00 1.335777e+00 9.286164e-02 3.172339e-02 6.027000e-02 1.012728e-01 1.467869e-01 2.017458e-01 2.279021e-01 2.776676e-01 3.069777e-01 3.402160e-01 3.325419e-01 3.018818e-01 2.849863e-01 1.462768e-02
<GCONST> 8.671076e+01
<MIXTURE> 3 1.758757e-01
<MEAN> 39
 -7.386303e+00 -7.905428e+00 -2.432176e+00 -4.019973e+00 -6.435408e+00 -8.696207e+00 -6.062055e+00 -6.424943e+00 -3.418061e+00 -2.767836e+00 -2.754212e+00 -7.524749e+00 6.814217e+01 2.231685e-01 6.326959e-02 4.308097e-02 2.015624e-01 3.872051e-01 7.877549e-02 3.827059e-02 -1.336946e-01 1.908180e-02 1.338465e-01 7.227032e-02 5.069346e-02 -6.847886e-01 3.343303e-02 5.864502e-02 5.389531e-02 3.189478e-02 -1.368545e-02 -1.007824e-02 -6.107797e-02 -7.955251e-02 -1.323531e-01 -1.232123e-01 -7.177461e-02 -1.819873e-02 -9.582833e-03
<VARIANCE> 39
 2.079308e+01 1.178562e+01 2.441797e+01 2.358362e+01 2.202309e+01 2.613446e+01 5.053951e+01 5.277453e+01 3.554129e+01 3.561011e+01 3.569944e+01 3.547278e+01 3.439785e+01 1.551247e-01 3.040058e-01 5.434870e-01 7.027057e-01 9.822049e-01 1.091722e+00 1.323529e+00 1.507340e+00 1.630359e+00 1.601502e+00 1.430240e+00 1.335777e+00 9.286164e-02 3.172339e-02 6.027000e-02 1.012728e-01 1.467869e-01 2.017458e-01 2.279021e-01 2.776676e-01 3.069777e-01 3.402160e-01 3.325419e-01 3.018818e-01 2.849863e-01 1.462768e-02
<GCONST> 8.671076e+01
<MIXTURE> 4 8.422531e-02
<MEAN> 39
 -8.073637e+00 -7.921352e+00 -2.621531e+00 -3.719916e+00 -8.504524e+00 -8.916373e+00 -7.525686e+00 -8.314913e+00 -4.898949e+00 -4.853563e+00 -4.157465e+00 -9.178323e+00 7.118674e+01 3.213980e-01 -4.376008e-02 -1.955876e-01 -2.274878e-01 -2.074286e-01 -2.917129e-01 -6.427044e-01 -3.943704e-01 8.709085e-02 1.321597e-01 5.137019e-03 -3.035149e-01 5.025124e-02 3.123255e-02 -7.105049e-02 -2.698472e-02 1.190787e-02 2.449535e-02 3.964516e-02 4.906540e-02 1.209748e-01 1.938207e-01 1.702031e-01 6.334460e-02 2.107120e-02 -1.095384e-01
<VARIANCE> 39
 1.368612e+01 1.417220e+01 2.998404e+01 2.377936e+01 2.664167e+01 2.846709e+01 4.786163e+01 6.983399e+01 4.741837e+01 3.857930e+01 3.828672e+01 3.683334e+01 2.121539e+01 5.896900e-01 8.586479e-01 1.147690e+00 1.206642e+00 1.724102e+00 1.810389e+00 2.912197e+00 3.047653e+00 3.457160e+00 2.980256e+00 2.294756e+00 2.128925e+00 3.073519e-01 9.221919e-02 1.510684e-01 1.985540e-01 2.362215e-01 3.226503e-01 3.323285e-01 4.804100e-01 5.234419e-01 6.255121e-01 5.325903e-01 4.094726e-01 3.618916e-01 1.091277e-01
<GCONST> 1.056132e+02
<MIXTURE> 5 1.758760e-01
<MEAN> 39
 -7.386516e+00 -7.905495e+00 -2.432039e+00 -4.019825e+00 -6.435328e+00 -8.696033e+00 -6.061753e+00 -6.424993e+00 -3.417939e+00 -2.767582e+00 -2.754019e+00 -7.524613e+00 6.814216e+01 2.231612e-01 6.326490e-02 4.306996e-02 2.015605e-01 3.872071e-01 7.877652e-02 3.827888e-02 -1.336988e-01 1.908287e-02 1.338504e-01 7.227352e-02 5.069652e-02 -6.847764e-01 3.343964e-02 5.865005e-02 5.389663e-02 3.189288e-02 -1.369152e-02 -1.008709e-02 -6.109102e-02 -7.956436e-02 -1.323698e-01 -1.232327e-01 -7.179207e-02 -1.820898e-02 -9.581143e-03
<VARIANCE> 39
 2.079386e+01 1.178602e+01 2.441767e+01 2.358431e+01 2.202339e+01 2.613441e+01 5.054163e+01 5.277425e+01 3.554086e+01 3.560967e+01 3.569935e+01 3.547268e+01 3.439756e+01 1.551269e-01 3.040060e-01 5.434830e-01 7.027008e-01 9.822055e-01 1.091719e+00 1.323521e+00 1.507331e+00 1.630349e+00 1.601485e+00 1.430238e+00 1.335771e+00 9.286409e-02 3.172454e-02 6.027126e-02 1.012741e-01 1.467880e-01 2.017475e-01 2.279033e-01 2.776690e-01 3.069783e-01 3.402179e-01 3.325445e-01 3.018822e-01 2.849838e-01 1.462841e-02
<GCONST> 8.671101e+01
<MIXTURE> 6 8.421767e-02
<MEAN> 39
 -8.073241e+00 -7.922314e+00 -2.623090e+00 -3.720572e+00 -8.505160e+00 -8.916398e+00 -7.526548e+00 -8.313511e+00 -4.897133e+00 -4.852864e+00 -4.157040e+00 -9.179021e+00 7.118714e+01 3.213220e-01 -4.385815e-02 -1.954917e-01 -2.272987e-01 -2.072965e-01 -2.916350e-01 -6.425783e-01 -3.942275e-01 8.720786e-02 1.321978e-01 5.115278e-03 -3.035203e-01 5.009649e-02 3.122938e-02 -7.093675e-02 -2.686336e-02 1.198175e-02 2.453202e-02 3.961691e-02 4.906225e-02 1.208333e-01 1.935661e-01 1.700009e-01 6.323843e-02 2.108739e-02 -1.095080e-01
<VARIANCE> 39
 1.368576e+01 1.417282e+01 2.998847e+01 2.378082e+01 2.664228e+01 2.846690e+01 4.786428e+01 6.982997e+01 4.742598e+01 3.858663e+01 3.829210e+01 3.683862e+01 2.121500e+01 5.894153e-01 8.585750e-01 1.147570e+00 1.206439e+00 1.723838e+00 1.810170e+00 2.911540e+00 3.047505e+00 3.457040e+00 2.980215e+00 2.294569e+00 2.128814e+00 3.073011e-01 9.220054e-02 1.510675e-01 1.985511e-01 2.362007e-01 3.226434e-01 3.323196e-01 4.804026e-01 5.234169e-01 6.255105e-01 5.325874e-01 4.094697e-01 3.619080e-01 1.091035e-01
<GCONST> 1.056117e+02
<MIXTURE> 7 8.422334e-02
<MEAN> 39
 -8.073732e+00 -7.922028e+00 -2.622335e+00 -3.719991e+00 -8.504397e+00 -8.915998e+00 -7.525414e+00 -8.313792e+00 -4.897720e+00 -4.852863e+00 -4.156973e+00 -9.178307e+00 7.118668e+01 3.214182e-01 -4.374355e-02 -1.955160e-01 -2.273431e-01 -2.073792e-01 -2.917487e-01 -6.427423e-01 -3.944817e-01 8.695445e-02 1.320078e-01 5.003043e-03 -3.035532e-01 5.014990e-02 3.125782e-02 -7.096282e-02 -2.692793e-02 1.191337e-02 2.445596e-02 3.957541e-02 4.898828e-02 1.208395e-01 1.936278e-01 1.700506e-01 6.325904e-02 2.105234e-02 -1.094826e-01
<VARIANCE> 39
 1.368702e+01 1.417244e+01 2.998751e+01 2.378030e+01 2.664346e+01 2.846630e+01 4.786554e+01 6.982999e+01 4.742307e+01 3.858411e+01 3.829005e+01 3.683653e+01 2.121547e+01 5.895403e-01 8.585803e-01 1.147551e+00 1.206486e+00 1.723891e+00 1.810267e+00 2.911748e+00 3.047572e+00 3.457127e+00 2.980280e+00 2.294680e+00 2.128801e+00 3.073045e-01 9.220742e-02 1.510642e-01 1.985478e-01 2.362080e-01 3.226477e-01 3.323245e-01 4.804068e-01 5.234194e-01 6.255073e-01 5.325882e-01 4.094708e-01 3.618993e-01 1.091131e-01
<GCONST> 1.056123e+02
<MIXTURE> 8 9.748547e-02
<MEAN> 39
 -5.552719e+00 -8.267093e+00 -1.170602e+00 -2.304540e+00 -9.348922e+00 -7.934389e+00 -6.717301e+00 -4.965273e+00 -2.262282e+00 -3.337618e+00 -5.465773e+00 -7.248397e+00 6.414280e+01 -1.017165e+00 -3.690340e-01 2.299925e-01 -2.191894e-01 -1.130656e+00 4.232350e-02 3.042945e-01 7.991384e-01 -3.058366e-01 -8.635641e-01 -5.596430e-01 1.056515e-01 2.380708e+00 -1.152371e-01 8.888486e-02 3.378993e-02 -9.523719e-02 1.831226e-01 4.496214e-03 9.296568e-02 -7.194013e-02 -5.456271e-02 3.898753e-02 1.306870e-01 2.443166e-02 1.428353e-01
<VARIANCE> 39
 1.342240e+01 3.225828e+01 2.773119e+01 2.743739e+01 4.614732e+01 3.605175e+01 6.000778e+01 5.962284e+01 6.109439e+01 3.923658e+01 4.731228e+01 3.700254e+01 7.251143e+01 8.090965e-01 3.609498e+00 2.426708e+00 3.306749e+00 4.723954e+00 3.406661e+00 4.489995e+00 4.481690e+00 6.983169e+00 3.392905e+00 4.069326e+00 2.746383e+00 3.036614e+00 1.666197e-01 7.112436e-01 3.851843e-01 5.499666e-01 1.012197e+00 5.885388e-01 7.717826e-01 8.330393e-01 1.330253e+00 7.144321e-01 7.812173e-01 4.726503e-01 9.522366e-01
<GCONST> 1.293988e+02
<STATE> 4
<NUMMIXES> 8
<MIXTURE> 1 8.558798e-02
<MEAN> 39
 -3.736026e+00 1.661925e-01 1.871698e+00 2.504385e-02 1.422891e+00 -4.240726e-01 -8.183968e-01 2.091704e-01 -2.327544e+00 -3.387437e+00 -3.622266e+00 -5.811572e+00 4.794245e+01 3.293971e-02 3.353761e-01 1.252466e-01 2.120024e-01 4.711095e-01 6.688255e-01 6.957317e-01 6.403570e-01 1.606428e-01 -5.326904e-02 -2.041882e-01 -1.784654e-01 -2.421727e-01 4.048394e-02 5.217503e-02 1.226499e-01 1.674827e-01 1.481871e-01 1.095312e-01 6.736253e-02 2.182021e-02 6.386924e-02 6.503734e-02 2.324818e-02 -3.329735e-02 5.294502e-02
<VARIANCE> 39
