~o
<STREAMINFO> 1 39
<VECSIZE> 39<NULLD><MFCC_D_A_0><DIAGC>
~h "ap"
<BEGINHMM>
<NUMSTATES> 5
<STATE> 2
<NUMMIXES> 8
<MIXTURE> 1 8.042035e-02
<MEAN> 39
 -1.071911e+01 -6.555537e+00 -5.867546e-01 1.313052e+00 2.112536e+00 -6.138731e-01 5.979102e+00 1.677046e+00 1.482480e+00 1.302843e+00 7.953746e-01 -3.582948e-01 5.454828e+01 4.825194e-01 4.948643e-01 3.447034e-01 2.545763e-01 5.289629e-01 7.859493e-01 7.250283e-01 8.496575e-01 6.496902e-01 5.857221e-01 4.618764e-01 1.702959e-01 -5.858495e-01 -2.566948e-02 -1.091566e-02 -5.500305e-02 -5.792060e-02 -4.617074e-02 -1.119097e-02 -5.187616e-02 -6.561954e-02 -7.025588e-02 -1.969918e-02 1.384072e-02 -5.176418e-03 3.698298e-02
<VARIANCE> 39
 1.537787e+01 2.446502e+01 2.702003e+01 2.653982e+01 1.889975e+01 3.086663e+01 2.166193e+01 2.361740e+01 1.767144e+01 1.667535e+01 1.491496e+01 1.698373e+01 2.351674e+01 1.069421e-01 2.086739e-01 4.244432e-01 6.463506e-01 7.618239e-01 9.424307e-01 1.149924e+00 1.220767e+00 1.234832e+00 1.198046e+00 1.166916e+00 1.097911e+00 6.296781e-02 2.240198e-02 4.074785e-02 8.508746e-02 1.285902e-01 1.562342e-01 2.133337e-01 2.326264e-01 2.546613e-01 2.446085e-01 2.474355e-01 2.329453e-01 2.249310e-01 1.466448e-02
<GCONST> 7.623590e+01
<MIXTURE> 2 2.302410e-01
<MEAN> 39
 -1.452277e+01 -9.953593e+00 -4.771766e+00 -1.807287e+00 -5.476622e-01 -3.024677e+00 2.836436e+00 -2.074414e+00 -6.367568e-01 1.831579e-01 5.010509e-01 -5.706711e-01 6.285732e+01 3.622136e-01 1.992651e-01 1.685558e-01 8.605515e-02 1.763318e-01 1.393466e-01 1.252500e-01 6.370514e-02 -1.851357e-02 -4.612010e-02 -2.257476e-02 -3.849472e-02 -7.959698e-01 -2.180519e-02 1.092964e-02 -4.711506e-03 5.945287e-03 -9.379881e-03 -2.198219e-02 -3.076744e-02 5.955596e-03 -1.087029e-02 -9.424860e-03 -1.169822e-02 -4.924394e-03 3.892928e-02
<VARIANCE> 39
 2.567388e+01 3.243244e+01 2.596927e+01 2.642325e+01 2.924247e+01 3.275731e+01 2.591702e+01 2.562897e+01 1.950630e+01 1.852267e+01 1.761985e+01 1.583276e+01 8.370283e+01 1.247243e-01 2.534432e-01 4.390937e-01 6.918254e-01 9.088754e-01 1.036362e+00 1.213878e+00 1.315688e+00 1.331592e+00 1.313791e+00 1.270072e+00 1.194559e+00 9.107266e-02 3.793076e-02 6.059034e-02 9.328259e-02 1.419902e-01 1.886178e-01 2.313597e-01 2.646895e-01 2.883645e-01 2.903621e-01 2.835411e-01 2.703384e-01 2.499285e-01 8.694933e-02
<GCONST> 8.484876e+01
<MIXTURE> 3 2.302409e-01
<MEAN> 39
 -1.452278e+01 -9.953609e+00 -4.771779e+00 -1.807293e+00 -5.476755e-01 -3.024685e+00 2.836428e+00 -2.074426e+00 -6.367617e-01 1.831578e-01 5.010496e-01 -5.706694e-01 6.285736e+01 3.622137e-01 1.992649e-01 1.685563e-01 8.605596e-02 1.763325e-01 1.393469e-01 1.252503e-01 6.370499e-02 -1.851325e-02 -4.611984e-02 -2.257433e-02 -3.849438e-02 -7.959706e-01 -2.180497e-02 1.092995e-02 -4.711165e-03 5.945576e-03 -9.379571e-03 -2.198192e-02 -3.076722e-02 5.955919e-03 -1.087019e-02 -9.424964e-03 -1.169832e-02 -4.924532e-03 3.892881e-02
<VARIANCE> 39
 2.567389e+01 3.243246e+01 2.596930e+01 2.642329e+01 2.924250e+01 3.275733e+01 2.591704e+01 2.562901e+01 1.950634e+01 1.852267e+01 1.761987e+01 1.583279e+01 8.370293e+01 1.247244e-01 2.534436e-01 4.390943e-01 6.918268e-01 9.088765e-01 1.036363e+00 1.213879e+00 1.315689e+00 1.331591e+00 1.313791e+00 1.270073e+00 1.194560e+00 9.107258e-02 3.793076e-02 6.059040e-02 9.328262e-02 1.419905e-01 1.886180e-01 2.313600e-01 2.646901e-01 2.883648e-01 2.903628e-01 2.835416e-01 2.703386e-01 2.499287e-01 8.694938e-02
<GCONST> 8.484880e+01
<MIXTURE> 4 4.352964e-02
<MEAN> 39
 -1.750843e+01 -1.212713e+01 -7.766789e+00 -3.235347e+00 -3.983138e+00 -6.383996e+00 -6.596191e-01 -2.720779e+00 -2.544129e+00 -9.502627e-01 -4.803275e-01 -1.710575e+00 7.340603e+01 -6.113461e-01 -1.414860e+00 -8.272381e-01 -5.030622e-01 -7.849076e-01 -5.456536e-01 8.986688e-02 -2.329331e-01 8.400168e-02 6.571777e-02 1.780479e-02 1.222352e-01 2.373153e+00 5.094836e-01 4.670267e-01 3.374335e-01 1.634866e-01 4.122136e-01 4.538709e-01 3.765746e-01 2.947634e-01 2.317568e-01 1.268318e-01 1.072897e-01 4.370362e-02 -1.332855e+00
<VARIANCE> 39
 3.683877e+01 5.177956e+01 3.616603e+01 2.794855e+01 3.735975e+01 4.818872e+01 3.691415e+01 3.265990e+01 2.858009e+01 2.303981e+01 2.079154e+01 1.830007e+01 1.786006e+02 1.985978e+00 3.421403e+00 1.835482e+00 1.975649e+00 2.709556e+00 3.211131e+00 2.695355e+00 2.806950e+00 2.545539e+00 2.106650e+00 1.836332e+00 1.681190e+00 1.035578e+01 8.492595e-01 7.435768e-01 4.627447e-01 3.921344e-01 6.117055e-01 9.591765e-01 7.586333e-01 6.237062e-01 5.241416e-01 4.320983e-01 3.691896e-01 3.268620e-01 3.992193e+00
<GCONST> 1.252286e+02
<MIXTURE> 5 2.302400e-01
<MEAN> 39
 -1.452278e+01 -9.953607e+00 -4.771777e+00 -1.807292e+00 -5.476738e-01 -3.024685e+00 2.836429e+00 -2.074425e+00 -6.367615e-01 1.831573e-01 5.010495e-01 -5.706692e-01 6.285735e+01 3.622137e-01 1.992648e-01 1.685563e-01 8.605580e-02 1.763326e-01 1.393470e-01 1.252505e-01 6.370534e-02 -1.851286e-02 -4.611945e-02 -2.257417e-02 -3.849411e-02 -7.959705e-01 -2.180501e-02 1.092998e-02 -4.711180e-03 5.945501e-03 -9.379575e-03 -2.198189e-02 -3.076717e-02 5.955942e-03 -1.087010e-02 -9.424793e-03 -1.169822e-02 -4.924506e-03 3.892881e-02
<VARIANCE> 39
 2.567386e+01 3.243243e+01 2.596931e+01 2.642327e+01 2.924246e+01 3.275731e+01 2.591701e+01 2.562897e+01 1.950631e+01 1.852265e+01 1.761986e+01 1.583278e+01 8.370284e+01 1.247242e-01 2.534432e-01 4.390935e-01 6.918257e-01 9.088754e-01 1.036362e+00 1.213877e+00 1.315688e+00 1.331591e+00 1.313791e+00 1.270072e+00 1.194560e+00 9.107250e-02 3.793070e-02 6.059035e-02 9.328251e-02 1.419902e-01 1.886180e-01 2.313598e-01 2.646897e-01 2.883644e-01 2.903621e-01 2.835410e-01 2.703385e-01 2.499285e-01 8.694922e-02
<GCONST> 8.484875e+01
<MIXTURE> 6 4.353132e-02
<MEAN> 39
 -1.750900e+01 -1.212774e+01 -7.767240e+00 -3.235461e+00 -3.983539e+00 -6.384545e+00 -6.600303e-01 -2.721168e+00 -2.544429e+00 -9.504130e-01 -4.804097e-01 -1.710610e+00 7.340762e+01 -6.113927e-01 -1.415012e+00 -8.273117e-01 -5.031046e-01 -7.849743e-01 -5.457066e-01 8.986804e-02 -2.329795e-01 8.399743e-02 6.571756e-02 1.780221e-02 1.222393e-01 2.373365e+00 5.095832e-01 4.671090e-01 3.374926e-01 1.634992e-01 4.122712e-01 4.539636e-01 3.766524e-01 2.948251e-01 2.318050e-01 1.268610e-01 1.073043e-01 4.370935e-02 -1.333096e+00
<VARIANCE> 39
 3.683430e+01 5.177670e+01 3.616480e+01 2.794912e+01 3.735930e+01 4.818660e+01 3.691311e+01 3.265940e+01 2.858041e+01 2.304018e+01 2.079184e+01 1.830038e+01 1.785762e+02 1.986058e+00 3.421469e+00 1.835542e+00 1.975707e+00 2.709635e+00 3.211251e+00 2.695433e+00 2.807027e+00 2.545609e+00 2.106678e+00 1.836356e+00 1.681215e+00 1.035627e+01 8.491601e-01 7.435178e-01 4.627168e-01 3.921369e-01 6.116854e-01 9.591158e-01 7.585980e-01 6.236935e-01 5.241398e-01 4.321001e-01 3.691901e-01 3.268665e-01 3.991669e+00
<GCONST> 1.252280e+02
<MIXTURE> 7 4.353054e-02
<MEAN> 39
 -1.750902e+01 -1.212775e+01 -7.767248e+00 -3.235464e+00 -3.983551e+00 -6.384556e+00 -6.600412e-01 -2.721177e+00 -2.544432e+00 -9.504151e-01 -4.804108e-01 -1.710610e+00 7.340765e+01 -6.113893e-01 -1.415011e+00 -8.273112e-01 -5.031055e-01 -7.849746e-01 -5.457035e-01 8.987056e-02 -2.329800e-01 8.399799e-02 6.571752e-02 1.780254e-02 1.222393e-01 2.373359e+00 5.095857e-01 4.671112e-01 3.374943e-01 1.634999e-01 4.122728e-01 4.539658e-01 3.766536e-01 2.948261e-01 2.318057e-01 1.268614e-01 1.073046e-01 4.370956e-02 -1.333100e+00
<VARIANCE> 39
 3.683427e+01 5.177678e+01 3.616482e+01 2.794913e+01 3.735929e+01 4.818654e+01 3.691309e+01 3.265936e+01 2.858033e+01 2.304017e+01 2.079186e+01 1.830036e+01 1.785757e+02 1.986058e+00 3.421463e+00 1.835544e+00 1.975709e+00 2.709641e+00 3.211254e+00 2.695443e+00 2.807027e+00 2.545612e+00 2.106683e+00 1.836358e+00 1.681216e+00 1.035626e+01 8.491578e-01 7.435156e-01 4.627159e-01 3.921369e-01 6.116845e-01 9.591134e-01 7.585973e-01 6.236932e-01 5.241389e-01 4.321002e-01 3.691908e-01 3.268668e-01 3.991655e+00
<GCONST> 1.252280e+02
<MIXTURE> 8 9.818069e-02
<MEAN> 39
 -1.163241e+01 -4.794899e+00 -3.268712e+00 -9.189851e-01 5.587182e-01 -1.256885e+00 2.885967e+00 1.639973e+00 7.208019e-02 3.758545e-01 4.983801e-01 -1.215477e+00 5.706552e+01 -3.164886e+00 -2.593649e+00 -1.801016e+00 -2.243789e-01 -1.595815e+00 -2.797092e+00 -2.045824e+00 -1.544737e+00 -1.114122e+00 -6.270931e-01 -3.119318e-01 -1.012089e-01 7.410932e+00 -2.414271e-01 -5.997933e-01 -3.374309e-01 -2.582625e-01 -3.091503e-01 -2.374724e-01 -4.951191e-02 -2.450249e-01 -7.384439e-02 -5.012355e-02 -1.972435e-02 8.743839e-03 9.917803e-01
<VARIANCE> 39
 3.857368e+01 3.356076e+01 2.676506e+01 2.352457e+01 3.012580e+01 5.015547e+01 3.641339e+01 2.899639e+01 2.534954e+01 2.117897e+01 1.769168e+01 1.643614e+01 1.388466e+02 2.284901e+00 4.485509e+00 2.850872e+00 3.134805e+00 3.629673e+00 4.292640e+00 3.130209e+00 3.413007e+00 2.754816e+00 2.760011e+00 2.456252e+00 1.892216e+00 7.859043e+00 7.232648e-01 5.655116e-01 3.780180e-01 3.785275e-01 5.020117e-01 9.358399e-01 7.100723e-01 6.218516e-01 5.278603e-01 4.343354e-01 3.674363e-01 3.018955e-01 2.972974e+00
<GCONST> 1.247280e+02
<STATE> 3
<NUMMIXES> 8
<MIXTURE> 1 3.501659e-02
<MEAN> 39
 -1.445402e+01 -1.736273e+01 -1.378627e+01 -3.774770e+00 -3.080064e+00 -1.056901e+01 -1.091039e+00 -4.833828e-01 -2.738171e+00 -2.608377e+00 8.393288e-02 -3.988814e-01 7.691699e+01 3.847876e-01 -1.865818e-01 1.234607e-01 2.254138e-01 5.394179e-01 9.017134e-01 1.507536e+00 1.106462e+00 1.074380e+00 8.981644e-01 6.015905e-01 3.084852e-01 -9.184617e-01 3.368545e-01 6.285331e-01 5.738863e-01 5.228708e-01 5.825372e-01 3.694754e-01 1.273145e-01 1.053847e-03 1.256718e-02 3.280385e-02 -1.531660e-02 -1.322517e-01 -1.228119e+00
<VARIANCE> 39
 1.630891e+01 3.504359e+01 2.718702e+01 2.539800e+01 3.568534e+01 2.368947e+01 3.038349e+01 2.490876e+01 2.372023e+01 2.283178e+01 1.630455e+01 1.408486e+01 1.005480e+02 2.006085e-01 5.385836e-01 6.131841e-01 1.163291e+00 1.256210e+00 1.287534e+00 1.423170e+00 1.821501e+00 1.667335e+00 1.445640e+00 1.390944e+00 1.344064e+00 1.580608e-01 1.485825e-01 2.797124e-01 2.433134e-01 2.952437e-01 3.736341e-01 3.836744e-01 3.967958e-01 3.866044e-01 3.935105e-01 3.402362e-01 2.768956e-01 2.453283e-01 1.201304e+00
<GCONST> 9.865676e+01
<MIXTURE> 2 2.616793e-01
<MEAN> 39
 -1.102138e+01 -1.671572e+01 -1.097184e+01 3.476771e-01 1.038308e+00 -8.979070e+00 7.971155e-01 -1.330144e+00 -3.848090e+00 -2.509378e+00 9.516510e-01 -5.474742e-01 6.769844e+01 2.952367e-01 1.998344e-01 2.729738e-01 2.416168e-01 2.975114e-01 1.890251e-01 1.367831e-01 6.993994e-02 2.435419e-02 2.533208e-02 5.296594e-02 3.965021e-02 -8.980565e-01 -1.634817e-02 2.119120e-02 2.578774e-03 -9.843903e-03 -1.327944e-02 5.451962e-04 -1.876341e-02 1.015776e-02 7.330908e-03 2.232683e-03 -5.500481e-03 -2.863214e-03 2.112676e-02
<VARIANCE> 39
 1.274660e+01 2.500386e+01 2.056209e+01 2.247773e+01 3.345079e+01 2.436935e+01 2.895812e+01 2.349275e+01 2.304799e+01 2.109916e+01 1.657781e+01 1.499401e+01 6.707684e+01 9.640002e-02 2.347893e-01 3.694103e-01 5.983765e-01 8.229506e-01 9.751784e-01 1.117985e+00 1.208921e+00 1.278556e+00 1.284827e+00 1.214042e+00 1.145292e+00 4.120991e-02 2.110333e-02 4.732369e-02 7.610650e-02 1.241097e-01 1.710962e-01 2.026520e-01 2.395938e-01 2.591964e-01 2.735524e-01 2.723707e-01 2.533039e-01 2.396468e-01 1.526101e-02
<GCONST> 7.783915e+01
<MIXTURE> 3 2.616833e-01
<MEAN> 39
 -1.102132e+01 -1.671564e+01 -1.097176e+01 3.477333e-01 1.038403e+00 -8.979009e+00 7.971501e-01 -1.330110e+00 -3.848067e+00 -2.509367e+00 9.516664e-01 -5.474626e-01 6.769823e+01 2.952361e-01 1.998385e-01 2.729754e-01 2.416151e-01 2.975083e-01 1.890259e-01 1.367807e-01 6.994175e-02 2.435439e-02 2.533139e-02 5.296338e-02 3.964816e-02 -8.980531e-01 -1.634869e-02 2.118948e-02 2.576369e-03 -9.847021e-03 -1.328316e-02 5.431492e-04 -1.876432e-02 1.015677e-02 7.330330e-03 2.232779e-03 -5.500446e-03 -2.862983e-03 2.112694e-02
<VARIANCE> 39
 1.274673e+01 2.500439e+01 2.056233e+01 2.247792e+01 3.345124e+01 2.436967e+01 2.895853e+01 2.349305e+01 2.304824e+01 2.109936e+01 1.657790e+01 1.499418e+01 6.707793e+01 9.640132e-02 2.347918e-01 3.694156e-01 5.983833e-01 8.229612e-01 9.751892e-01 1.117996e+00 1.208935e+00 1.278571e+00 1.284840e+00 1.214052e+00 1.145305e+00 4.121086e-02 2.110340e-02 4.732387e-02 7.610704e-02 1.241104e-01 1.710975e-01 2.026535e-01 2.395955e-01 2.591991e-01 2.735545e-01 2.723736e-01 2.533060e-01 2.396499e-01 1.526060e-02
<GCONST> 7.783949e+01
<MIXTURE> 4 2.577098e-02
<MEAN> 39
 -1.242353e+01 -1.667734e+01 -1.186448e+01 -5.864529e-01 -2.614554e-01 -9.253614e+00 -1.307833e-01 -5.035822e-01 -3.297367e+00 -2.362778e+00 5.932579e-01 -8.124086e-01 7.188092e+01 2.817630e-01 -2.796516e-02 6.319158e-03 -5.353784e-02 -1.565078e-01 -1.796946e-03 6.916228e-02 -2.745683e-01 -2.754850e-01 -1.123702e-01 -3.718594e-02 -1.653727e-02 -5.497131e-01 -4.703957e-02 2.424094e-01 9.791995e-02 9.568689e-03 6.437042e-02 1.186939e-02 -1.679237e-01 -8.915282e-02 -3.557201e-02 -6.844695e-02 -5.909766e-02 1.256279e-02 -1.301389e-01
<VARIANCE> 39
 2.411363e+01 2.774947e+01 2.712529e+01 2.857111e+01 3.669661e+01 2.774754e+01 3.340193e+01 2.399507e+01 2.474071e+01 2.185558e+01 1.735730e+01 1.503620e+01 1.527302e+02 3.345040e-01 9.613042e-01 6.668302e-01 1.132262e+00 1.274521e+00 1.436182e+00 1.723263e+00 1.658488e+00 1.707763e+00 1.544024e+00 1.473363e+00 1.295904e+00 8.406214e-01 3.372067e-01 2.611311e-01 3.033443e-01 3.965434e-01 4.897836e-01 4.745360e-01 5.089242e-01 4.013194e-01 4.026337e-01 3.675529e-01 3.271300e-01 2.907567e-01 2.439605e+00
<GCONST> 1.060495e+02
<MIXTURE> 5 2.616803e-01
<MEAN> 39
 -1.102132e+01 -1.671564e+01 -1.097176e+01 3.477330e-01 1.038404e+00 -8.979006e+00 7.971506e-01 -1.330109e+00 -3.848066e+00 -2.509365e+00 9.516661e-01 -5.474621e-01 6.769823e+01 2.952361e-01 1.998386e-01 2.729753e-01 2.416152e-01 2.975084e-01 1.890265e-01 1.367813e-01 6.994231e-02 2.435490e-02 2.533153e-02 5.296383e-02 3.964854e-02 -8.980531e-01 -1.634872e-02 2.118959e-02 2.576495e-03 -9.846846e-03 -1.328295e-02 5.431753e-04 -1.876431e-02 1.015670e-02 7.330188e-03 2.232542e-03 -5.500572e-03 -2.863171e-03 2.112696e-02
<VARIANCE> 39
 1.274666e+01 2.500424e+01 2.056223e+01 2.247782e+01 3.345112e+01 2.436958e+01 2.895833e+01 2.349293e+01 2.304812e+01 2.109924e+01 1.657782e+01 1.499407e+01 6.707761e+01 9.640078e-02 2.347906e-01 3.694130e-01 5.983803e-01 8.229572e-01 9.751838e-01 1.117988e+00 1.208930e+00 1.278562e+00 1.284832e+00 1.214047e+00 1.145297e+00 4.121062e-02 2.110331e-02 4.732370e-02 7.610666e-02 1.241096e-01 1.710967e-01 2.026525e-01 2.395943e-01 2.591971e-01 2.735528e-01 2.723718e-01 2.533046e-01 2.396482e-01 1.526059e-02
<GCONST> 7.783931e+01
<MIXTURE> 6 2.577078e-02
<MEAN> 39
 -1.242353e+01 -1.667734e+01 -1.186447e+01 -5.864506e-01 -2.614526e-01 -9.253613e+00 -1.307814e-01 -5.035809e-01 -3.297365e+00 -2.362776e+00 5.932584e-01 -8.124076e-01 7.188092e+01 2.817632e-01 -2.796304e-02 6.319895e-03 -5.353757e-02 -1.565075e-01 -1.797855e-03 6.916037e-02 -2.745697e-01 -2.754853e-01 -1.123712e-01 -3.718741e-02 -1.653811e-02 -5.497156e-01 -4.704049e-02 2.424084e-01 9.791893e-02 9.568109e-03 6.436972e-02 1.186837e-02 -1.679248e-01 -8.915319e-02 -3.557295e-02 -6.844755e-02 -5.909801e-02 1.256262e-02 -1.301358e-01
<VARIANCE> 39
 2.411361e+01 2.774946e+01 2.712530e+01 2.857114e+01 3.669659e+01 2.774756e+01 3.340195e+01 2.399509e+01 2.474072e+01 2.185555e+01 1.735728e+01 1.503620e+01 1.527300e+02 3.345034e-01 9.612996e-01 6.668291e-01 1.132259e+00 1.274520e+00 1.436180e+00 1.723260e+00 1.658486e+00 1.707760e+00 1.544021e+00 1.473361e+00 1.295902e+00 8.406190e-01 3.372055e-01 2.611306e-01 3.033433e-01 3.965434e-01 4.897826e-01 4.745359e-01 5.089238e-01 4.013200e-01 4.026331e-01 3.675527e-01 3.271300e-01 2.907566e-01 2.439599e+00
<GCONST> 1.060494e+02
<MIXTURE> 7 2.577170e-02
<MEAN> 39
 -1.242325e+01 -1.667711e+01 -1.186419e+01 -5.862338e-01 -2.611826e-01 -9.253382e+00 -1.306020e-01 -5.034965e-01 -3.297305e+00 -2.362705e+00 5.933076e-01 -8.123697e-01 7.188001e+01 2.817498e-01 -2.791647e-02 6.338008e-03 -5.353484e-02 -1.564993e-01 -1.784921e-03 6.914164e-02 -2.745533e-01 -2.754676e-01 -1.123660e-01 -3.719698e-02 -1.654372e-02 -5.497196e-01 -4.707815e-02 2.423866e-01 9.788768e-02 9.540431e-03 6.433618e-02 1.183726e-02 -1.679513e-01 -8.916356e-02 -3.557985e-02 -6.845684e-02 -5.910444e-02 1.255719e-02 -1.300279e-01
<VARIANCE> 39
 2.411419e+01 2.775029e+01 2.712593e+01 2.857164e+01 3.669717e+01 2.774816e+01 3.340202e+01 2.399522e+01 2.474057e+01 2.185563e+01 1.735737e+01 1.503623e+01 1.527361e+02 3.345033e-01 9.612797e-01 6.668188e-01 1.132234e+00 1.274503e+00 1.436169e+00 1.723230e+00 1.658473e+00 1.707742e+00 1.544012e+00 1.473355e+00 1.295899e+00 8.405772e-01 3.372077e-01 2.611325e-01 3.033471e-01 3.965444e-01 4.897863e-01 4.745384e-01 5.089241e-01 4.013204e-01 4.026332e-01 3.675542e-01 3.271317e-01 2.907579e-01 2.439621e+00
<GCONST> 1.060495e+02
<MIXTURE> 8 1.024618e-01
<MEAN> 39
 -1.176999e+01 -1.258168e+01 -9.473814e+00 2.330792e-01 1.044164e+00 -8.092823e+00 -1.283960e+00 -2.373979e-01 -3.081104e+00 -2.587936e+00 9.421293e-02 -9.272342e-01 6.741816e+01 -1.907798e+00 -1.088111e+00 -1.634866e+00 -1.403294e+00 -1.677804e+00 -1.442391e+00 -1.280942e+00 -5.463884e-01 -3.054914e-01 -4.128758e-01 -4.251174e-01 -2.548386e-01 5.611567e+00 6.611142e-02 -4.063642e-01 -1.813455e-01 -6.043961e-02 -7.492447e-02 -5.789114e-02 2.183946e-01 1.084609e-02 -1.514887e-02 5.097802e-02 9.094295e-02 4.675046e-02 1.899783e-01
<VARIANCE> 39
 2.894391e+01 3.744265e+01 3.105172e+01 3.608028e+01 4.132058e+01 4.597410e+01 4.744400e+01 2.980966e+01 3.083523e+01 2.567327e+01 2.025818e+01 1.772997e+01 1.857695e+02 1.292147e+00 4.127873e+00 2.281237e+00 2.696724e+00 3.025275e+00 3.484736e+00 3.447327e+00 2.981078e+00 2.979552e+00 2.466404e+00 1.961200e+00 1.744236e+00 8.250010e+00 6.026292e-01 5.258753e-01 5.693970e-01 6.076632e-01 7.275891e-01 8.773480e-01 8.603956e-01 6.082520e-01 5.717685e-01 4.832099e-01 3.963929e-01 3.383628e-01 4.463276e+00
<GCONST> 1.266775e+02
<STATE> 4
<NUMMIXES> 8
<MIXTURE> 1 1.773687e-02
<MEAN> 39
 -8.025160e+00 -5.768994e+00 -3.300710e+00 -1.018621e+00 -5.427766e-01 -2.174701e+00 2.818347e+00 6.595271e-01 -8.023629e-01 1.459056e-01 2.330930e-01 -1.347348e+00 5.110454e+01 2.710031e-01 5.315899e-01 4.546441e-01 4.502076e-01 6.681731e-01 1.013291e+00 1.026119e+00 1.269562e+00 1.215984e+00 9.847473e-01 6.852248e-01 3.619462e-01 -3.423955e-01 -2.943954e-02 5.856527e-02 1.228875e-01 2.260129e-01 2.548891e-01 1.764957e-01 1.598076e-01 1.377805e-01 1.054341e-01 9.308849e-02 9.716646e-02 5.888471e-02 1.722022e-01
<VARIANCE> 39
 1.653551e+01 3.773177e+01 1.349610e+01 2.109888e+01 2.355032e+01 2.834079e+01 1.984906e+01 2.801982e+01 1.859276e+01 1.651671e+01 1.516171e+01 1.371353e+01 5.395183e+01 1.596505e-01 3.291360e-01 4.711447e-01 7.230170e-01 8.903906e-01 1.019898e+00 1.123239e+00 1.241602e+00 1.303068e+00 1.259461e+00 1.251437e+00 1.198568e+00 1.564804e-01 8.284282e-02 1.023541e-01 1.270807e-01 1.677276e-01 2.231608e-01 2.762236e-01 2.811992e-01 3.027721e-01 2.911166e-01 2.764684e-01 2.666374e-01 2.421692e-01 1.822101e-01
<GCONST> 8.607037e+01
<MIXTURE> 2 2.671888e-01
<MEAN> 39
 -9.961524e+00 -1.030223e+01 -4.373023e+00 5.166401e-01 2.123853e-01 -3.681933e+00 3.210337e+00 -1.051020e+00 -1.533832e+00 1.080822e-01 8.322911e-01 -7.138923e-01 5.807983e+01 2.406991e-01 2.734709e-01 1.827432e-01 8.588978e-02 1.547197e-01 1.960917e-01 9.270289e-02 1.552046e-01 4.719822e-02 2.835044e-02 1.015464e-02 -1.227311e-02 -6.618814e-01 -1.637466e-02 2.752185e-03 -1.432355e-02 -1.932497e-02 -2.529733e-02 -1.285769e-02 -2.000909e-02 -4.004366e-03 -5.629723e-03 -5.317893e-03 -5.914468e-03 -3.209849e-03 2.248367e-02
<VARIANCE> 39
 2.085624e+01 5.834660e+01 2.167062e+01 2.227206e+01 3.002636e+01 3.257662e+01 2.428078e+01 3.103210e+01 2.345491e+01 1.959692e+01 1.636165e+01 1.424126e+01 9.411668e+01 1.288285e-01 2.646087e-01 4.171002e-01 6.487628e-01 8.735664e-01 1.005917e+00 1.155490e+00 1.239267e+00 1.290341e+00 1.289410e+00 1.239170e+00 1.135330e+00 1.322216e-01 2.174991e-02 4.595101e-02 7.951232e-02 1.220898e-01 1.672315e-01 2.047002e-01 2.360159e-01 2.562368e-01 2.721446e-01 2.703082e-01 2.542115e-01 2.323750e-01 8.670783e-03
<GCONST> 8.105839e+01
<MIXTURE> 3 2.671888e-01
<MEAN> 39
 -9.961535e+00 -1.030225e+01 -4.373034e+00 5.166371e-01 2.123768e-01 -3.681947e+00 3.210330e+00 -1.051031e+00 -1.533837e+00 1.080785e-01 8.322905e-01 -7.138911e-01 5.807987e+01 2.406993e-01 2.734706e-01 1.827436e-01 8.589059e-02 1.547206e-01 1.960918e-01 9.270320e-02 1.552041e-01 4.719803e-02 2.835024e-02 1.015458e-02 -1.227308e-02 -6.618826e-01 -1.637465e-02 2.752179e-03 -1.432360e-02 -1.932495e-02 -2.529733e-02 -1.285766e-02 -2.000896e-02 -4.004176e-03 -5.629580e-03 -5.317876e-03 -5.914584e-03 -3.209978e-03 2.248364e-02
<VARIANCE> 39
 2.085625e+01 5.834655e+01 2.167065e+01 2.227202e+01 3.002639e+01 3.257658e+01 2.428078e+01 3.103206e+01 2.345489e+01 1.959691e+01 1.636165e+01 1.424127e+01 9.411682e+01 1.288283e-01 2.646086e-01 4.170998e-01 6.487629e-01 8.735671e-01 1.005916e+00 1.155487e+00 1.239266e+00 1.290339e+00 1.289410e+00 1.239170e+00 1.135331e+00 1.322211e-01 2.174989e-02 4.595097e-02 7.951239e-02 1.220898e-01 1.672316e-01 2.046999e-01 2.360160e-01 2.562366e-01 2.721446e-01 2.703083e-01 2.542117e-01 2.323751e-01 8.670775e-03
<GCONST> 8.105839e+01
<MIXTURE> 4 3.256970e-02
<MEAN> 39
 -1.371720e+01 -1.203951e+01 -7.394531e+00 -2.290258e+00 -3.046396e+00 -5.871105e+00 1.063115e+00 -1.992797e+00 -1.730112e+00 -2.921720e-01 -1.803326e-02 -1.084018e+00 6.752357e+01 2.242867e-01 -7.437363e-03 2.674823e-02 -7.923850e-02 3.014534e-02 9.071377e-02 1.679195e-01 -2.979288e-02 1.054895e-01 -2.624500e-02 4.261285e-04 4.133748e-02 -5.694014e-01 2.610283e-02 2.117537e-01 1.326250e-01 1.779411e-01 2.357038e-01 5.653727e-02 -1.025801e-02 -4.561642e-03 -7.763303e-02 -3.907023e-02 -7.288868e-03 -2.517800e-02 -2.740971e-01
<VARIANCE> 39
 3.328091e+01 6.791301e+01 3.429520e+01 2.573562e+01 3.859399e+01 3.867532e+01 3.089262e+01 3.256900e+01 2.480213e+01 2.052643e+01 1.768572e+01 1.497848e+01 1.980938e+02 3.989147e-01 6.837319e-01 6.419681e-01 1.070429e+00 1.333179e+00 1.464787e+00 1.754431e+00 1.856156e+00 2.019239e+00 1.681877e+00 1.521690e+00 1.351595e+00 5.773004e-01 4.261380e-01 5.487168e-01 3.266880e-01 3.210797e-01 4.796036e-01 5.597000e-01 4.752496e-01 4.988588e-01 4.292388e-01 3.642924e-01 3.337557e-01 2.896271e-01 2.418629e+00
<GCONST> 1.093049e+02
<MIXTURE> 5 2.671892e-01
<MEAN> 39
 -9.961535e+00 -1.030226e+01 -4.373036e+00 5.166372e-01 2.123754e-01 -3.681949e+00 3.210329e+00 -1.051033e+00 -1.533840e+00 1.080801e-01 8.322907e-01 -7.138918e-01 5.807987e+01 2.406994e-01 2.734706e-01 1.827436e-01 8.589074e-02 1.547207e-01 1.960918e-01 9.270313e-02 1.552042e-01 4.719797e-02 2.835007e-02 1.015457e-02 -1.227308e-02 -6.618826e-01 -1.637463e-02 2.752220e-03 -1.432357e-02 -1.932493e-02 -2.529731e-02 -1.285756e-02 -2.000891e-02 -4.004016e-03 -5.629376e-03 -5.317790e-03 -5.914570e-03 -3.209969e-03 2.248363e-02
<VARIANCE> 39
 2.085626e+01 5.834663e+01 2.167066e+01 2.227205e+01 3.002640e+01 3.257664e+01 2.428080e+01 3.103207e+01 2.345491e+01 1.959693e+01 1.636167e+01 1.424129e+01 9.411690e+01 1.288284e-01 2.646085e-01 4.171002e-01 6.487636e-01 8.735675e-01 1.005917e+00 1.155489e+00 1.239266e+00 1.290341e+00 1.289411e+00 1.239171e+00 1.135332e+00 1.322213e-01 2.174988e-02 4.595105e-02 7.951242e-02 1.220899e-01 1.672316e-01 2.047000e-01 2.360161e-01 2.562368e-01 2.721449e-01 2.703086e-01 2.542120e-01 2.323751e-01 8.670779e-03
<GCONST> 8.105841e+01
<MIXTURE> 6 3.257129e-02
<MEAN> 39
 -1.371719e+01 -1.203949e+01 -7.394523e+00 -2.290263e+00 -3.046398e+00 -5.871096e+00 1.063122e+00 -1.992785e+00 -1.730104e+00 -2.921669e-01 -1.803118e-02 -1.084017e+00 6.752354e+01 2.242866e-01 -7.436533e-03 2.674904e-02 -7.923783e-02 3.014649e-02 9.071501e-02 1.679214e-01 -2.979115e-02 1.054915e-01 -2.624467e-02 4.267246e-04 4.133717e-02 -5.694019e-01 2.610146e-02 2.117529e-01 1.326245e-01 1.779413e-01 2.357038e-01 5.653627e-02 -1.025903e-02 -4.562906e-03 -7.763416e-02 -3.907112e-02 -7.289293e-03 -2.517830e-02 -2.740939e-01
<VARIANCE> 39
 3.328114e+01 6.791341e+01 3.429544e+01 2.573574e+01 3.859431e+01 3.867551e+01 3.089281e+01 3.256921e+01 2.480226e+01 2.052654e+01 1.768583e+01 1.497853e+01 1.980948e+02 3.989158e-01 6.837340e-01 6.419714e-01 1.070432e+00 1.333186e+00 1.464796e+00 1.754441e+00 1.856162e+00 2.019251e+00 1.681893e+00 1.521697e+00 1.351601e+00 5.773031e-01 4.261402e-01 5.487177e-01 3.266892e-01 3.210812e-01 4.796055e-01 5.597026e-01 4.752524e-01 4.988597e-01 4.292401e-01 3.642950e-01 3.337570e-01 2.896286e-01 2.418641e+00
<GCONST> 1.093050e+02
<MIXTURE> 7 3.257123e-02
<MEAN> 39
 -1.371719e+01 -1.203949e+01 -7.394523e+00 -2.290262e+00 -3.046398e+00 -5.871098e+00 1.063121e+00 -1.992787e+00 -1.730105e+00 -2.921670e-01 -1.802998e-02 -1.084017e+00 6.752354e+01 2.242866e-01 -7.436287e-03 2.674904e-02 -7.923773e-02 3.014685e-02 9.071475e-02 1.679214e-01 -2.979144e-02 1.054911e-01 -2.624524e-02 4.267395e-04 4.133712e-02 -5.694023e-01 2.610147e-02 2.117527e-01 1.326244e-01 1.779413e-01 2.357037e-01 5.653626e-02 -1.025899e-02 -4.562896e-03 -7.763417e-02 -3.907117e-02 -7.289458e-03 -2.517838e-02 -2.740937e-01
<VARIANCE> 39
 3.328110e+01 6.791345e+01 3.429541e+01 2.573575e+01 3.859432e+01 3.867548e+01 3.089281e+01 3.256919e+01 2.480227e+01 2.052653e+01 1.768585e+01 1.497853e+01 1.980946e+02 3.989161e-01 6.837341e-01 6.419711e-01 1.070432e+00 1.333187e+00 1.464795e+00 1.754442e+00 1.856161e+00 2.019251e+00 1.681892e+00 1.521699e+00 1.351602e+00 5.773032e-01 4.261398e-01 5.487171e-01 3.266886e-01 3.210810e-01 4.796056e-01 5.597020e-01 4.752524e-01 4.988597e-01 4.292402e-01 3.642950e-01 3.337570e-01 2.896287e-01 2.418639e+00
<GCONST> 1.093050e+02
<MIXTURE> 8 8.231945e-02
<MEAN> 39
 -1.293740e+01 -7.772507e+00 -5.265976e+00 -8.299841e-01 -1.356754e+00 -4.196052e+00 1.032794e+00 -7.397193e-01 -2.071674e+00 -2.175334e-01 -1.195992e-01 -1.580450e+00 6.280306e+01 -2.482100e+00 -2.434048e+00 -1.676493e+00 -7.439281e-01 -1.658407e+00 -1.957590e+00 -1.218592e+00 -1.611953e+00 -7.297935e-01 -3.660894e-01 -2.686629e-01 -2.759702e-02 6.575161e+00 1.191211e-01 -3.036688e-01 -7.446103e-02 -9.650803e-02 -1.161176e-01 -6.482232e-03 1.491867e-01 3.258288e-03 1.029499e-01 5.585020e-02 3.653347e-02 4.453893e-02 1.027367e-01
<VARIANCE> 39
 4.287099e+01 6.244908e+01 3.188977e+01 2.839799e+01 3.965142e+01 5.028943e+01 3.922675e+01 4.346034e+01 3.266959e+01 2.287841e+01 2.010574e+01 1.695073e+01 2.326596e+02 2.200718e+00 6.214312e+00 2.477919e+00 2.878554e+00 3.159355e+00 3.871919e+00 3.514409e+00 3.690126e+00 3.310866e+00 2.410776e+00 2.193904e+00 1.813699e+00 1.005169e+01 9.257181e-01 1.202852e+00 5.973908e-01 4.643744e-01 7.229258e-01 1.050313e+00 7.915713e-01 9.665388e-01 6.946603e-01 4.625964e-01 4.092913e-01 3.382863e-01 5.712850e+00
<GCONST> 1.316404e+02
<TRANSP> 5
 0.000000e+00 1.000000e+00 0.000000e+00 0.000000e+00 0.000000e+00
 0.000000e+00 9.753677e-01 2.463229e-02 0.000000e+00 0.000000e+00
 0.000000e+00 0.000000e+00 9.895142e-01 1.048582e-02 0.000000e+00
 0.000000e+00 0.000000e+00 0.000000e+00 9.933402e-01 6.659792e-03
 0.000000e+00 0.000000e+00 0.000000e+00 0.000000e+00 0.000000e+00
<ENDHMM>
~h "cl"
<BEGINHMM>
<NUMSTATES> 5
<STATE> 2
<NUMMIXES> 8
<MIXTURE> 1 1.863359e-02
<MEAN> 39
 -9.997726e+00 -2.823990e+00 -3.347101e+00 -5.486128e+00 -2.919429e+00 2.246720e+00 2.437485e+00 -3.208369e-01 1.545637e+00 -1.431994e+00 -2.539041e+00 -4.019972e-01 5.131951e+01 2.988955e-01 2.952384e-01 4.952083e-01 6.981210e-01 8.229506e-01 8.493528e-01 1.000412e+00 9.534493e-01 8.068607e-01 1.017765e+00 7.272977e-01 2.792990e-01 -1.476108e-01 8.818300e-03 1.267313e-01 1.638637e-01 2.233080e-01 2.818093e-01 2.968274e-01 2.583352e-01 2.977666e-01 3.183789e-01 2.451124e-01 1.182901e-01 1.103637e-01 4.746700e-02
<VARIANCE> 39
 2.204291e+01 1.293836e+01 2.188205e+01 1.382836e+01 2.038290e+01 2.765405e+01 1.995820e+01 2.155341e+01 2.833960e+01 2.185396e+01 1.862097e+01 1.828355e+01 1.627133e+01 2.956071e-01 3.569061e-01 4.949331e-01 7.823806e-01 9.086947e-01 1.236894e+00 1.263830e+00 1.497002e+00 1.462415e+00 1.424571e+00 1.261764e+00 1.321259e+00 1.379340e-01 6.883233e-02 6.774702e-02 1.187919e-01 1.827461e-01 2.192345e-01 2.535118e-01 2.845018e-01 3.045349e-01 3.326546e-01 3.459038e-01 2.614581e-01 2.441168e-01 2.370857e-02
<GCONST> 8.412074e+01
<MIXTURE> 2 2.208908e-01
<MEAN> 39
 -1.091679e+01 -1.229612e+00 -1.030881e+00 -4.261586e+00 -1.357000e+00 5.799524e+00 4.094622e+00 5.925138e-01 4.033310e+00 7.821262e-03 -2.807026e+00 1.180109e+00 5.198588e+01 2.860216e-01 -1.205051e-02 -1.074409e-02 4.956809e-02 9.966543e-02 1.138100e-02 9.403391e-02 9.292594e-02 -2.119762e-02 5.279266e-02 9.175726e-02 -6.078874e-02 -2.543926e-01 -3.097401e-02 1.059050e-02 -3.133968e-03 -3.384255e-03 -9.577820e-03 -1.148735e-02 -2.146835e-02 1.709305e-03 -1.070749e-02 3.279394e-03 6.856677e-03 -3.422540e-03 2.498433e-02
<VARIANCE> 39
 2.983498e+01 1.812123e+01 3.184194e+01 1.433906e+01 1.834355e+01 3.690006e+01 2.069758e+01 2.500688e+01 3.390200e+01 1.972525e+01 2.479584e+01 2.347333e+01 2.147626e+01 3.292291e-01 3.664027e-01 5.270855e-01 7.044051e-01 9.199820e-01 1.285054e+00 1.290805e+00 1.419562e+00 1.569772e+00 1.383927e+00 1.324093e+00 1.272774e+00 1.505625e-01 6.571478e-02 6.557655e-02 1.031511e-01 1.386733e-01 1.871959e-01 2.501042e-01 2.588777e-01 2.859487e-01 3.069929e-01 2.831566e-01 2.686813e-01 2.473128e-01 2.641638e-02
<GCONST> 8.572408e+01
<MIXTURE> 3 2.208916e-01
<MEAN> 39
 -1.091679e+01 -1.229611e+00 -1.030876e+00 -4.261589e+00 -1.357002e+00 5.799529e+00 4.094621e+00 5.925112e-01 4.033316e+00 7.821605e-03 -2.807031e+00 1.180113e+00 5.198587e+01 2.860214e-01 -1.205060e-02 -1.074427e-02 4.956809e-02 9.966533e-02 1.138100e-02 9.403362e-02 9.292590e-02 -2.119784e-02 5.279255e-02 9.175745e-02 -6.078871e-02 -2.543925e-01 -3.097402e-02 1.059052e-02 -3.133981e-03 -3.384200e-03 -9.577822e-03 -1.148733e-02 -2.146829e-02 1.709289e-03 -1.070773e-02 3.279353e-03 6.856814e-03 -3.422642e-03 2.498434e-02
<VARIANCE> 39
 2.983497e+01 1.812121e+01 3.184198e+01 1.433907e+01 1.834354e+01 3.690004e+01 2.069758e+01 2.500690e+01 3.390202e+01 1.972526e+01 2.479588e+01 2.347334e+01 2.147626e+01 3.292294e-01 3.664030e-01 5.270860e-01 7.044051e-01 9.199826e-01 1.285055e+00 1.290806e+00 1.419563e+00 1.569773e+00 1.383927e+00 1.324093e+00 1.272774e+00 1.505626e-01 6.571491e-02 6.557659e-02 1.031511e-01 1.386735e-01 1.871962e-01 2.501041e-01 2.588776e-01 2.859489e-01 3.069930e-01 2.831567e-01 2.686816e-01 2.473129e-01 2.641642e-02
<GCONST> 8.572412e+01
<MIXTURE> 4 7.886595e-02
<MEAN> 39
 -1.382452e+01 -2.811524e+00 -1.715652e+00 -3.867367e+00 -2.027919e+00 3.541304e+00 2.210653e+00 2.668431e-01 3.416565e+00 -1.558966e-01 -2.391104e+00 1.209309e+00 5.771926e+01 -6.726838e-01 2.169606e-01 1.081721e-01 -1.620460e-01 -3.162756e-01 2.598127e-01 -2.262525e-01 -3.744866e-01 7.901848e-02 -2.328941e-01 -3.754414e-01 2.042044e-01 2.471734e-01 -8.612641e-02 -1.099895e-02 3.950109e-02 -2.672924e-02 -6.975938e-02 5.082345e-02 -2.420016e-02 -7.278228e-02 2.344820e-02 -4.026952e-02 -7.012287e-02 3.250507e-02 6.127385e-02
<VARIANCE> 39
 3.720243e+01 5.675254e+01 3.013487e+01 1.627211e+01 2.046126e+01 6.434505e+01 2.604259e+01 2.676959e+01 3.319718e+01 2.338835e+01 2.547587e+01 2.251490e+01 9.323142e+01 2.075245e+00 1.012126e+00 9.929214e-01 1.064302e+00 1.436780e+00 2.336793e+00 1.842140e+00 2.199525e+00 2.527863e+00 1.874374e+00 2.029477e+00 1.739855e+00 1.270888e+00 4.971544e-01 1.669700e-01 1.623507e-01 1.856491e-01 2.527467e-01 3.947085e-01 3.343251e-01 4.160052e-01 4.266731e-01 3.651254e-01 3.677568e-01 3.063985e-01 3.240672e-01
<GCONST> 1.078259e+02
<MIXTURE> 5 2.208896e-01
<MEAN> 39
 -1.091679e+01 -1.229611e+00 -1.030882e+00 -4.261588e+00 -1.357000e+00 5.799525e+00 4.094623e+00 5.925149e-01 4.033309e+00 7.820770e-03 -2.807028e+00 1.180109e+00 5.198587e+01 2.860212e-01 -1.204988e-02 -1.074369e-02 4.956812e-02 9.966559e-02 1.138183e-02 9.403435e-02 9.292576e-02 -2.119690e-02 5.279280e-02 9.175723e-02 -6.078807e-02 -2.543923e-01 -3.097411e-02 1.059064e-02 -3.133859e-03 -3.384115e-03 -9.577704e-03 -1.148715e-02 -2.146826e-02 1.709254e-03 -1.070755e-02 3.279442e-03 6.856648e-03 -3.422389e-03 2.498442e-02
<VARIANCE> 39
 2.983498e+01 1.812121e+01 3.184195e+01 1.433905e+01 1.834352e+01 3.690004e+01 2.069759e+01 2.500691e+01 3.390199e+01 1.972524e+01 2.479585e+01 2.347331e+01 2.147625e+01 3.292296e-01 3.664029e-01 5.270854e-01 7.044054e-01 9.199821e-01 1.285054e+00 1.290806e+00 1.419563e+00 1.569772e+00 1.383926e+00 1.324093e+00 1.272774e+00 1.505626e-01 6.571505e-02 6.557664e-02 1.031510e-01 1.386734e-01 1.871958e-01 2.501041e-01 2.588778e-01 2.859489e-01 3.069933e-01 2.831567e-01 2.686815e-01 2.473128e-01 2.641649e-02
<GCONST> 8.572409e+01
<MIXTURE> 6 7.886419e-02
<MEAN> 39
 -1.382450e+01 -2.811532e+00 -1.715658e+00 -3.867363e+00 -2.027913e+00 3.541298e+00 2.210655e+00 2.668477e-01 3.416561e+00 -1.558960e-01 -2.391098e+00 1.209307e+00 5.771925e+01 -6.726825e-01 2.169611e-01 1.081709e-01 -1.620463e-01 -3.162763e-01 2.598116e-01 -2.262538e-01 -3.744873e-01 7.901712e-02 -2.328952e-01 -3.754417e-01 2.042037e-01 2.471722e-01 -8.612776e-02 -1.099890e-02 3.950087e-02 -2.672965e-02 -6.975978e-02 5.082327e-02 -2.420041e-02 -7.278271e-02 2.344820e-02 -4.026988e-02 -7.012319e-02 3.250516e-02 6.127474e-02
<VARIANCE> 39
 3.720239e+01 5.675251e+01 3.013483e+01 1.627207e+01 2.046123e+01 6.434504e+01 2.604258e+01 2.676953e+01 3.319708e+01 2.338834e+01 2.547586e+01 2.251487e+01 9.323141e+01 2.075242e+00 1.012125e+00 9.929205e-01 1.064298e+00 1.436778e+00 2.336791e+00 1.842139e+00 2.199520e+00 2.527862e+00 1.874370e+00 2.029474e+00 1.739853e+00 1.270886e+00 4.971527e-01 1.669694e-01 1.623499e-01 1.856480e-01 2.527465e-01 3.947080e-01 3.343240e-01 4.160038e-01 4.266724e-01 3.651246e-01 3.677561e-01 3.063980e-01 3.240663e-01
<GCONST> 1.078259e+02
<MIXTURE> 7 7.886599e-02
<MEAN> 39
 -1.382452e+01 -2.811502e+00 -1.715637e+00 -3.867373e+00 -2.027921e+00 3.541332e+00 2.210659e+00 2.668408e-01 3.416579e+00 -1.558928e-01 -2.391112e+00 1.209321e+00 5.771923e+01 -6.726857e-01 2.169608e-01 1.081723e-01 -1.620469e-01 -3.162766e-01 2.598129e-01 -2.262533e-01 -3.744871e-01 7.901862e-02 -2.328952e-01 -3.754424e-01 2.042047e-01 2.471755e-01 -8.612575e-02 -1.099937e-02 3.950065e-02 -2.672912e-02 -6.975912e-02 5.082274e-02 -2.420014e-02 -7.278211e-02 2.344761e-02 -4.026983e-02 -7.012267e-02 3.250467e-02 6.127357e-02
<VARIANCE> 39
 3.720240e+01 5.675241e+01 3.013499e+01 1.627212e+01 2.046126e+01 6.434502e+01 2.604257e+01 2.676960e+01 3.319716e+01 2.338834e+01 2.547592e+01 2.251496e+01 9.323104e+01 2.075246e+00 1.012128e+00 9.929225e-01 1.064302e+00 1.436780e+00 2.336794e+00 1.842142e+00 2.199531e+00 2.527866e+00 1.874372e+00 2.029479e+00 1.739855e+00 1.270887e+00 4.971537e-01 1.669699e-01 1.623510e-01 1.856489e-01 2.527469e-01 3.947088e-01 3.343251e-01 4.160053e-01 4.266731e-01 3.651255e-01 3.677575e-01 3.063988e-01 3.240659e-01
<GCONST> 1.078259e+02
<MIXTURE> 8 8.208859e-02
<MEAN> 39
 -1.483803e+01 -1.660032e+00 -5.546020e-01 -3.421137e+00 -2.194079e+00 2.797672e+00 1.823940e+00 1.157466e+00 3.129818e+00 5.628698e-01 -1.071652e+00 -2.638009e-02 5.693947e+01 -3.738179e+00 -1.886190e-01 1.778869e-01 -4.667394e-01 -1.071764e+00 5.852633e-01 -1.103988e+00 -1.370585e+00 7.394285e-01 -4.470107e-01 -1.076785e+00 8.507501e-01 3.818806e+00 1.922867e-01 -9.541295e-02 3.632276e-02 -4.952719e-02 -7.449038e-02 2.368782e-01 6.090550e-02 -2.437267e-01 7.377004e-02 -4.656037e-03 -2.726103e-01 1.601342e-01 -1.413278e-01
<VARIANCE> 39
 7.220155e+01 4.292708e+01 2.424181e+01 2.101759e+01 2.726342e+01 5.751627e+01 3.366031e+01 3.099403e+01 3.974915e+01 3.228359e+01 2.401372e+01 2.098405e+01 1.276163e+02 4.800766e+00 3.525720e+00 1.998646e+00 1.849314e+00 2.632063e+00 7.184147e+00 3.084949e+00 4.239091e+00 4.147878e+00 3.778153e+00 3.269391e+00 2.941486e+00 5.083690e+00 1.567520e+00 4.398063e-01 2.889602e-01 3.256764e-01 5.101535e-01 8.188869e-01 6.141508e-01 6.636677e-01 5.963556e-01 5.716978e-01 4.981064e-01 4.161080e-01 2.020157e+00
<GCONST> 1.283217e+02
<STATE> 3
<NUMMIXES> 8
<MIXTURE> 1 1.153627e-02
<MEAN> 39
 -1.749561e+01 1.862626e+00 -1.800935e+00 -7.914942e+00 -4.588776e+00 1.137106e+01 7.615131e-02 -2.640719e+00 8.030950e+00 -4.295576e+00 -4.135258e+00 4.341052e+00 5.656275e+01 -1.718857e+00 6.426545e-01 5.520025e-01 7.756071e-01 9.039371e-01 2.419775e-01 8.088521e-01 1.201583e+00 4.922304e-01 1.000574e+00 6.457273e-01 7.865608e-03 1.263558e+00 -4.107769e-01 4.861264e-02 1.805239e-01 1.467128e-01 5.631194e-02 1.904380e-01 8.816835e-02 1.200328e-01 2.426046e-01 8.676746e-02 2.462137e-02 1.552138e-01 3.243497e-01
<VARIANCE> 39
 3.556824e+01 8.935716e+00 1.589643e+01 1.167447e+01 1.407012e+01 2.401629e+01 2.069154e+01 1.841400e+01 2.370270e+01 1.770316e+01 1.698787e+01 1.853171e+01 1.569716e+01 3.067726e+00 7.592655e-01 1.045102e+00 1.175775e+00 1.488290e+00 3.108411e+00 2.439438e+00 1.859796e+00 2.518347e+00 1.835615e+00 1.902487e+00 2.432034e+00 1.422661e+00 5.326247e-01 1.080409e-01 1.582883e-01 1.868251e-01 2.386562e-01 3.565628e-01 3.478240e-01 3.442320e-01 3.985752e-01 3.750740e-01 3.413635e-01 3.438643e-01 2.407880e-01
<GCONST> 1.000544e+02
<MIXTURE> 2 1.689085e-01
<MEAN> 39
 -2.132736e+01 2.709249e+00 -2.472651e-01 -7.136271e+00 -4.650889e+00 1.336813e+01 8.894139e-01 -2.249522e+00 9.524839e+00 -4.178141e+00 -4.667899e+00 5.720344e+00 5.917794e+01 4.366874e-01 4.521037e-02 7.923404e-02 1.093089e-01 1.661433e-01 1.777475e-01 1.732649e-01 1.799034e-01 2.794022e-01 2.556508e-01 2.117048e-01 1.031952e-01 -3.247789e-01 9.302435e-03 2.856820e-03 -1.460519e-02 3.141064e-02 1.846036e-02 -5.546105e-02 -1.068056e-03 3.283522e-02 -2.902206e-02 5.197941e-02 5.402134e-02 -2.609281e-02 -1.477574e-04
<VARIANCE> 39
 3.368854e+01 8.233694e+00 1.635681e+01 1.115414e+01 1.414350e+01 2.491292e+01 2.322000e+01 1.858295e+01 2.280951e+01 1.924640e+01 1.781008e+01 1.899110e+01 1.762087e+01 6.177673e-01 3.431207e-01 6.173272e-01 7.791089e-01 1.031474e+00 1.479544e+00 1.565671e+00 1.419206e+00 1.552416e+00 1.485294e+00 1.364707e+00 1.393843e+00 3.294302e-01 1.848001e-01 6.928944e-02 1.307883e-01 1.617387e-01 2.163673e-01 3.028045e-01 3.261377e-01 2.970298e-01 3.334024e-01 3.199227e-01 2.888442e-01 2.907994e-01 1.041922e-01
<GCONST> 8.827388e+01
<MIXTURE> 3 1.689087e-01
<MEAN> 39
 -2.132736e+01 2.709249e+00 -2.472637e-01 -7.136269e+00 -4.650891e+00 1.336813e+01 8.894128e-01 -2.249523e+00 9.524838e+00 -4.178143e+00 -4.667902e+00 5.720345e+00 5.917794e+01 4.366869e-01 4.521029e-02 7.923435e-02 1.093090e-01 1.661432e-01 1.777477e-01 1.732652e-01 1.799036e-01 2.794024e-01 2.556509e-01 2.117045e-01 1.031953e-01 -3.247787e-01 9.302551e-03 2.856790e-03 -1.460523e-02 3.141061e-02 1.846036e-02 -5.546110e-02 -1.067935e-03 3.283519e-02 -2.902203e-02 5.197947e-02 5.402158e-02 -2.609307e-02 -1.478391e-04
<VARIANCE> 39
 3.368860e+01 8.233704e+00 1.635681e+01 1.115416e+01 1.414353e+01 2.491295e+01 2.322004e+01 1.858298e+01 2.280954e+01 1.924643e+01 1.781012e+01 1.899115e+01 1.762089e+01 6.177688e-01 3.431213e-01 6.173280e-01 7.791099e-01 1.031476e+00 1.479547e+00 1.565673e+00 1.419209e+00 1.552419e+00 1.485296e+00 1.364710e+00 1.393845e+00 3.294311e-01 1.848004e-01 6.928954e-02 1.307885e-01 1.617388e-01 2.163678e-01 3.028052e-01 3.261383e-01 2.970304e-01 3.334027e-01 3.199233e-01 2.888446e-01 2.907998e-01 1.041925e-01
<GCONST> 8.827398e+01
<MIXTURE> 4 1.340362e-01
<MEAN> 39
 -1.909658e+01 2.161097e+00 -1.059373e+00 -6.632004e+00 -4.575493e+00 1.158773e+01 4.170031e-01 -2.072757e+00 8.532432e+00 -3.449545e+00 -3.700815e+00 5.150646e+00 5.844212e+01 4.414218e-02 -1.400309e-01 -1.625864e-01 -1.589076e-01 -1.865588e-01 -2.321119e-01 -1.583576e-01 -2.474182e-01 -3.440135e-01 -2.612899e-01 -2.075583e-01 -1.438632e-01 -6.789231e-02 3.062805e-03 -2.751301e-03 -1.642626e-02 -2.446308e-02 -3.399944e-03 -1.784999e-02 1.305924e-03 -1.072929e-02 -3.562855e-02 -3.468623e-02 -2.782618e-02 -3.041126e-02 -1.912260e-03
<VARIANCE> 39
 5.909705e+01 1.201876e+01 2.096419e+01 1.343662e+01 1.733977e+01 3.572542e+01 2.890578e+01 2.403164e+01 2.955229e+01 2.029488e+01 1.929329e+01 2.127522e+01 2.651140e+01 1.140427e+00 4.275002e-01 7.377967e-01 8.841028e-01 1.194852e+00 1.829082e+00 1.792687e+00 1.633296e+00 1.794795e+00 1.560407e+00 1.485899e+00 1.670121e+00 6.498684e-01 3.391570e-01 9.046052e-02 1.500010e-01 1.832293e-01 2.451102e-01 3.631809e-01 3.703592e-01 3.446966e-01 3.836850e-01 3.387877e-01 3.104564e-01 3.258794e-01 1.883799e-01
<GCONST> 9.720951e+01
<MIXTURE> 5 1.689091e-01
<MEAN> 39
 -2.132737e+01 2.709249e+00 -2.472574e-01 -7.136271e+00 -4.650893e+00 1.336813e+01 8.894122e-01 -2.249521e+00 9.524845e+00 -4.178144e+00 -4.667903e+00 5.720348e+00 5.917794e+01 4.366875e-01 4.521033e-02 7.923447e-02 1.093084e-01 1.661428e-01 1.777482e-01 1.732647e-01 1.799029e-01 2.794028e-01 2.556502e-01 2.117041e-01 1.031960e-01 -3.247792e-01 9.303095e-03 2.856797e-03 -1.460544e-02 3.141060e-02 1.846051e-02 -5.546126e-02 -1.067914e-03 3.283507e-02 -2.902230e-02 5.197945e-02 5.402165e-02 -2.609323e-02 -1.482345e-04
<VARIANCE> 39
 3.368858e+01 8.233697e+00 1.635684e+01 1.115417e+01 1.414354e+01 2.491295e+01 2.322004e+01 1.858299e+01 2.280958e+01 1.924643e+01 1.781013e+01 1.899116e+01 1.762089e+01 6.177692e-01 3.431214e-01 6.173289e-01 7.791106e-01 1.031477e+00 1.479549e+00 1.565674e+00 1.419208e+00 1.552419e+00 1.485295e+00 1.364711e+00 1.393845e+00 3.294310e-01 1.848006e-01 6.928953e-02 1.307886e-01 1.617392e-01 2.163680e-01 3.028053e-01 3.261385e-01 2.970307e-01 3.334031e-01 3.199235e-01 2.888448e-01 2.908004e-01 1.041926e-01
<GCONST> 8.827399e+01
<MIXTURE> 6 1.340358e-01
<MEAN> 39
 -1.909656e+01 2.161099e+00 -1.059376e+00 -6.632006e+00 -4.575493e+00 1.158773e+01 4.170033e-01 -2.072760e+00 8.532429e+00 -3.449544e+00 -3.700816e+00 5.150646e+00 5.844211e+01 4.414550e-02 -1.400312e-01 -1.625868e-01 -1.589081e-01 -1.865588e-01 -2.321124e-01 -1.583582e-01 -2.474187e-01 -3.440137e-01 -2.612900e-01 -2.075580e-01 -1.438636e-01 -6.789473e-02 3.062296e-03 -2.751369e-03 -1.642635e-02 -2.446285e-02 -3.399802e-03 -1.785021e-02 1.305973e-03 -1.072902e-02 -3.562853e-02 -3.468597e-02 -2.782597e-02 -3.041144e-02 -1.911885e-03
<VARIANCE> 39
 5.909699e+01 1.201876e+01 2.096418e+01 1.343661e+01 1.733980e+01 3.572546e+01 2.890576e+01 2.403164e+01 2.955231e+01 2.029484e+01 1.929326e+01 2.127521e+01 2.651140e+01 1.140421e+00 4.274994e-01 7.377955e-01 8.840998e-01 1.194851e+00 1.829080e+00 1.792685e+00 1.633296e+00 1.794794e+00 1.560408e+00 1.485899e+00 1.670120e+00 6.498646e-01 3.391547e-01 9.046036e-02 1.500007e-01 1.832289e-01 2.451099e-01 3.631805e-01 3.703585e-01 3.446961e-01 3.836847e-01 3.387875e-01 3.104557e-01 3.258793e-01 1.883784e-01
<GCONST> 9.720944e+01
<MIXTURE> 7 1.340359e-01
<MEAN> 39
 -1.909656e+01 2.161099e+00 -1.059376e+00 -6.632004e+00 -4.575492e+00 1.158773e+01 4.170040e-01 -2.072760e+00 8.532428e+00 -3.449544e+00 -3.700817e+00 5.150646e+00 5.844211e+01 4.414520e-02 -1.400312e-01 -1.625868e-01 -1.589080e-01 -1.865588e-01 -2.321124e-01 -1.583581e-01 -2.474187e-01 -3.440137e-01 -2.612899e-01 -2.075580e-01 -1.438636e-01 -6.789446e-02 3.062302e-03 -2.751390e-03 -1.642636e-02 -2.446295e-02 -3.399847e-03 -1.785020e-02 1.305891e-03 -1.072906e-02 -3.562851e-02 -3.468603e-02 -2.782598e-02 -3.041139e-02 -1.911894e-03
<VARIANCE> 39
 5.909701e+01 1.201877e+01 2.096419e+01 1.343661e+01 1.733980e+01 3.572546e+01 2.890577e+01 2.403165e+01 2.955233e+01 2.029484e+01 1.929328e+01 2.127522e+01 2.651141e+01 1.140422e+00 4.274994e-01 7.377957e-01 8.841004e-01 1.194853e+00 1.829080e+00 1.792686e+00 1.633296e+00 1.794795e+00 1.560408e+00 1.485899e+00 1.670120e+00 6.498653e-01 3.391547e-01 9.046036e-02 1.500006e-01 1.832289e-01 2.451100e-01 3.631807e-01 3.703586e-01 3.446962e-01 3.836846e-01 3.387876e-01 3.104558e-01 3.258793e-01 1.883786e-01
<GCONST> 9.720946e+01
<MIXTURE> 8 7.958494e-02
<MEAN> 39
 -1.795386e+01 1.535863e+00 -2.790429e+00 -6.148720e+00 -4.663796e+00 6.614929e+00 -5.379089e-01 -1.979061e+00 5.388270e+00 -2.920921e+00 -2.515366e+00 2.794993e+00 6.029295e+01 -2.439178e+00 2.706285e-01 1.240933e-01 6.243165e-02 -2.399123e-01 -5.539104e-02 -3.687288e-01 -2.330805e-01 -2.271491e-01 -4.588578e-01 -4.450934e-01 7.688262e-02 2.074595e+00 1.023988e-01 -3.766257e-02 1.331151e-01 -7.789336e-02 -5.723694e-02 3.391179e-01 1.909483e-02 -1.163915e-01 2.712018e-01 -1.199166e-01 -1.577919e-01 2.386833e-01 -1.267757e-01
<VARIANCE> 39
 1.031821e+02 2.154774e+01 3.471640e+01 2.092560e+01 2.509196e+01 5.129567e+01 4.122371e+01 3.386798e+01 3.693414e+01 2.246596e+01 2.141417e+01 2.453127e+01 4.441793e+01 5.473446e+00 1.621414e+00 2.192042e+00 1.768609e+00 2.310253e+00 4.585218e+00 3.609774e+00 2.990072e+00 3.476700e+00 2.226842e+00 2.379512e+00 3.162371e+00 2.194877e+00 1.204755e+00 2.393990e-01 2.740043e-01 3.173679e-01 3.781289e-01 5.808844e-01 5.649392e-01 4.915875e-01 5.421228e-01 4.184530e-01 3.887107e-01 4.380014e-01 6.933196e-01
<GCONST> 1.201783e+02
<STATE> 4
<NUMMIXES> 8
<MIXTURE> 1 2.524922e-02
<MEAN> 39
 -1.596784e+01 6.992830e-01 4.534270e+00 -5.312592e+00 -5.823990e+00 7.221955e+00 1.703004e+00 -4.395349e+00 2.668715e+00 3.385266e+00 -9.044449e+00 2.063796e+00 5.216879e+01 5.950738e-01 3.950209e-01 4.087337e-01 7.262927e-01 9.102421e-01 6.858951e-01 8.955117e-01 8.903904e-01 8.005849e-01 6.777789e-01 6.576731e-01 1.794662e-01 -4.440761e-01 -1.963843e-02 6.958077e-02 7.917692e-02 1.714991e-01 1.738901e-01 2.015920e-01 1.439987e-01 1.551466e-01 1.606473e-01 1.054228e-01 8.895019e-02 7.901396e-02 4.538294e-02
<VARIANCE> 39
 5.825093e+01 8.462729e+00 1.818213e+01 1.690164e+01 2.650232e+01 2.413758e+01 2.069461e+01 3.488190e+01 2.946011e+01 3.117411e+01 2.473498e+01 1.528712e+01 2.994539e+01 2.398090e-01 2.818757e-01 5.384005e-01 6.355975e-01 8.357690e-01 1.173627e+00 1.255535e+00 1.443214e+00 1.524516e+00 1.431014e+00 1.376344e+00 1.172469e+00 1.248304e-01 4.188051e-02 5.767505e-02 1.018994e-01 1.460373e-01 1.937881e-01 2.341495e-01 2.515272e-01 2.819012e-01 2.765659e-01 2.853508e-01 2.612607e-01 2.139434e-01 2.090559e-02
<GCONST> 8.352786e+01
<MIXTURE> 2 2.040310e-01
<MEAN> 39
 -2.177670e+01 4.285061e-01 5.890518e+00 -4.188233e+00 -6.536951e+00 1.111395e+01 1.597914e+00 -6.269578e+00 3.952643e+00 4.560680e+00 -1.183846e+01 4.917181e+00 5.735545e+01 5.381218e-01 6.800564e-02 1.846873e-01 1.022518e-03 2.318516e-02 9.785013e-02 1.777706e-01 -7.470001e-02 3.083568e-01 3.947090e-02 -5.312855e-02 1.197288e-01 -6.078965e-01 -2.659099e-02 1.922883e-02 -5.035930e-02 1.519406e-02 4.038215e-02 -8.049384e-02 -2.203961e-02 7.953035e-02 -3.896123e-02 -1.075159e-02 8.194916e-02 -6.555638e-02 1.895271e-02
<VARIANCE> 39
 3.691207e+01 9.209800e+00 1.471982e+01 1.526184e+01 2.983279e+01 2.700455e+01 2.695057e+01 4.748826e+01 3.658460e+01 3.178027e+01 2.940345e+01 3.027901e+01 3.262781e+01 2.267351e-01 2.993723e-01 5.975716e-01 6.835485e-01 9.369115e-01 1.212841e+00 1.258434e+00 1.502697e+00 1.583051e+00 1.418813e+00 1.412435e+00 1.246233e+00 1.654540e-01 9.817932e-02 6.685954e-02 1.358614e-01 1.523252e-01 2.167692e-01 2.735672e-01 2.829141e-01 3.477341e-01 3.624893e-01 3.271508e-01 3.072533e-01 2.695637e-01 9.293418e-02
<GCONST> 8.980992e+01
<MIXTURE> 3 2.040310e-01
<MEAN> 39
 -2.177670e+01 4.285061e-01 5.890518e+00 -4.188233e+00 -6.536951e+00 1.111395e+01 1.597914e+00 -6.269578e+00 3.952643e+00 4.560680e+00 -1.183846e+01 4.917181e+00 5.735545e+01 5.381218e-01 6.800564e-02 1.846873e-01 1.022518e-03 2.318516e-02 9.785013e-02 1.777706e-01 -7.470001e-02 3.083568e-01 3.947090e-02 -5.312855e-02 1.197288e-01 -6.078965e-01 -2.659099e-02 1.922883e-02 -5.035930e-02 1.519406e-02 4.038215e-02 -8.049384e-02 -2.203961e-02 7.953035e-02 -3.896123e-02 -1.075159e-02 8.194916e-02 -6.555638e-02 1.895271e-02
<VARIANCE> 39
 3.691207e+01 9.209800e+00 1.471982e+01 1.526184e+01 2.983279e+01 2.700455e+01 2.695057e+01 4.748826e+01 3.658460e+01 3.178027e+01 2.940345e+01 3.027901e+01 3.262781e+01 2.267351e-01 2.993723e-01 5.975716e-01 6.835485e-01 9.369115e-01 1.212841e+00 1.258434e+00 1.502697e+00 1.583051e+00 1.418813e+00 1.412435e+00 1.246233e+00 1.654540e-01 9.817932e-02 6.685954e-02 1.358614e-01 1.523252e-01 2.167692e-01 2.735672e-01 2.829141e-01 3.477341e-01 3.624893e-01 3.271508e-01 3.072533e-01 2.695637e-01 9.293418e-02
<GCONST> 8.980992e+01
<MIXTURE> 4 9.901664e-02
<MEAN> 39
 -2.339642e+01 5.466822e-01 4.733400e+00 -3.994167e+00 -6.441842e+00 1.063446e+01 9.048675e-01 -6.099956e+00 3.743935e+00 3.876346e+00 -1.157412e+01 4.958279e+00 5.926048e+01 -4.831738e-01 -1.334374e-01 -2.427721e-01 -8.814786e-02 -1.353746e-01 -1.867140e-01 -2.063270e-01 -3.850993e-02 -3.398501e-01 -1.748587e-01 1.028994e-02 -1.783194e-01 5.558831e-01 2.017840e-02 -1.779530e-02 4.267690e-02 -2.722321e-02 -2.811488e-02 3.271508e-02 -3.426597e-04 -4.155600e-02 -1.075814e-02 1.503821e-02 -5.391989e-02 3.813873e-02 -1.267152e-02
<VARIANCE> 39
 3.336815e+01 1.113729e+01 1.760477e+01 1.633123e+01 2.847110e+01 3.067680e+01 3.237062e+01 5.044882e+01 4.051451e+01 3.191312e+01 3.154989e+01 3.504880e+01 3.640299e+01 1.246400e+00 6.344489e-01 1.348907e+00 1.192534e+00 1.823826e+00 2.525123e+00 2.001911e+00 3.661740e+00 3.081860e+00 2.675329e+00 2.411423e+00 2.386610e+00 1.087156e+00 4.504288e-01 1.133080e-01 2.625629e-01 2.155485e-01 3.220854e-01 4.246204e-01 4.058788e-01 5.832669e-01 6.592893e-01 4.700136e-01 4.239990e-01 4.437517e-01 4.868293e-01
<GCONST> 1.100585e+02
<MIXTURE> 5 2.040313e-01
<MEAN> 39
 -2.177670e+01 4.285068e-01 5.890520e+00 -4.188232e+00 -6.536953e+00 1.111395e+01 1.597910e+00 -6.269582e+00 3.952640e+00 4.560682e+00 -1.183846e+01 4.917184e+00 5.735545e+01 5.381218e-01 6.800549e-02 1.846874e-01 1.022600e-03 2.318542e-02 9.785063e-02 1.777709e-01 -7.469989e-02 3.083572e-01 3.947069e-02 -5.312856e-02 1.197291e-01 -6.078964e-01 -2.659104e-02 1.922879e-02 -5.035941e-02 1.519401e-02 4.038219e-02 -8.049390e-02 -2.203946e-02 7.953051e-02 -3.896112e-02 -1.075169e-02 8.194924e-02 -6.555650e-02 1.895278e-02
<VARIANCE> 39
 3.691204e+01 9.209794e+00 1.471981e+01 1.526183e+01 2.983279e+01 2.700455e+01 2.695056e+01 4.748823e+01 3.658462e+01 3.178027e+01 2.940345e+01 3.027906e+01 3.262783e+01 2.267352e-01 2.993726e-01 5.975713e-01 6.835484e-01 9.369112e-01 1.212840e+00 1.258433e+00 1.502696e+00 1.583049e+00 1.418812e+00 1.412435e+00 1.246233e+00 1.654539e-01 9.817944e-02 6.685954e-02 1.358613e-01 1.523251e-01 2.167689e-01 2.735671e-01 2.829140e-01 3.477337e-01 3.624898e-01 3.271510e-01 3.072534e-01 2.695636e-01 9.293427e-02
<GCONST> 8.980991e+01
<MIXTURE> 6 9.901743e-02
<MEAN> 39
 -2.339642e+01 5.466816e-01 4.733398e+00 -3.994162e+00 -6.441842e+00 1.063446e+01 9.048663e-01 -6.099953e+00 3.743928e+00 3.876344e+00 -1.157412e+01 4.958281e+00 5.926048e+01 -4.831759e-01 -1.334376e-01 -2.427719e-01 -8.814731e-02 -1.353746e-01 -1.867129e-01 -2.063269e-01 -3.850935e-02 -3.398505e-01 -1.748578e-01 1.028973e-02 -1.783187e-01 5.558847e-01 2.017907e-02 -1.779520e-02 4.267732e-02 -2.722340e-02 -2.811503e-02 3.271516e-02 -3.425665e-04 -4.155619e-02 -1.075755e-02 1.503841e-02 -5.392002e-02 3.813882e-02 -1.267217e-02
<VARIANCE> 39
 3.336819e+01 1.113731e+01 1.760480e+01 1.633125e+01 2.847116e+01 3.067683e+01 3.237069e+01 5.044882e+01 4.051455e+01 3.191322e+01 3.154994e+01 3.504884e+01 3.640303e+01 1.246403e+00 6.344503e-01 1.348907e+00 1.192535e+00 1.823830e+00 2.525130e+00 2.001915e+00 3.661744e+00 3.081866e+00 2.675332e+00 2.411428e+00 2.386614e+00 1.087157e+00 4.504309e-01 1.133085e-01 2.625633e-01 2.155486e-01 3.220862e-01 4.246218e-01 4.058804e-01 5.832678e-01 6.592900e-01 4.700144e-01 4.239993e-01 4.437526e-01 4.868310e-01
<GCONST> 1.100585e+02
<MIXTURE> 7 9.901669e-02
<MEAN> 39
 -2.339641e+01 5.466850e-01 4.733394e+00 -3.994169e+00 -6.441837e+00 1.063444e+01 9.048587e-01 -6.099946e+00 3.743917e+00 3.876347e+00 -1.157410e+01 4.958265e+00 5.926048e+01 -4.831739e-01 -1.334377e-01 -2.427720e-01 -8.814763e-02 -1.353755e-01 -1.867125e-01 -2.063272e-01 -3.851161e-02 -3.398496e-01 -1.748589e-01 1.028854e-02 -1.783178e-01 5.558839e-01 2.017967e-02 -1.779536e-02 4.267761e-02 -2.722305e-02 -2.811530e-02 3.271743e-02 -3.413707e-04 -4.155704e-02 -1.075599e-02 1.503821e-02 -5.392086e-02 3.814007e-02 -1.267304e-02
<VARIANCE> 39
 3.336829e+01 1.113731e+01 1.760479e+01 1.633124e+01 2.847108e+01 3.067687e+01 3.237063e+01 5.044876e+01 4.051450e+01 3.191312e+01 3.154988e+01 3.504874e+01 3.640301e+01 1.246401e+00 6.344496e-01 1.348907e+00 1.192534e+00 1.823825e+00 2.525122e+00 2.001913e+00 3.661736e+00 3.081855e+00 2.675327e+00 2.411420e+00 2.386609e+00 1.087157e+00 4.504291e-01 1.133082e-01 2.625630e-01 2.155486e-01 3.220858e-01 4.246212e-01 4.058791e-01 5.832661e-01 6.592884e-01 4.700136e-01 4.239990e-01 4.437514e-01 4.868290e-01
<GCONST> 1.100585e+02
<MIXTURE> 8 6.554984e-02
<MEAN> 39
 -2.394756e+01 1.473259e+00 2.921475e+00 -3.571105e+00 -5.281259e+00 7.106298e+00 2.164156e-01 -2.714040e+00 5.659344e-01 4.771171e+00 -8.284893e+00 1.759898e+00 6.001935e+01 -2.312996e+00 -2.609026e-01 -7.118157e-01 5.515605e-03 9.808159e-02 -5.242169e-01 -1.081953e+00 6.350756e-01 -1.638105e+00 1.089590e-01 3.077816e-01 -4.225777e-01 2.734914e+00 2.005282e-01 -1.168997e-01 2.022271e-01 -7.604065e-02 -2.720965e-01 4.748680e-01 1.564090e-01 -5.424739e-01 3.343478e-01 -2.860593e-02 -4.819819e-01 3.692760e-01 -1.663775e-01
<VARIANCE> 39
 5.571389e+01 1.582478e+01 2.182111e+01 2.132336e+01 2.939797e+01 3.666388e+01 3.835831e+01 4.444633e+01 4.397392e+01 3.350354e+01 2.907976e+01 2.525170e+01 4.750134e+01 3.319952e+00 1.207062e+00 2.151345e+00 1.910002e+00 3.367141e+00 4.097345e+00 3.172235e+00 5.618101e+00 4.239721e+00 4.276033e+00 3.407228e+00 3.078220e+00 1.697543e+00 7.650653e-01 1.701108e-01 3.527478e-01 3.065559e-01 4.304793e-01 5.256569e-01 5.941598e-01 6.463710e-01 7.645859e-01 5.947017e-01 4.585131e-01 4.528047e-01 7.751651e-01
<GCONST> 1.215424e+02
<TRANSP> 5
 0.000000e+00 1.000000e+00 0.000000e+00 0.000000e+00 0.000000e+00
 0.000000e+00 9.514733e-01 4.852671e-02 0.000000e+00 0.000000e+00
 0.000000e+00 0.000000e+00 9.920542e-01 7.945783e-03 0.000000e+00
 0.000000e+00 0.000000e+00 0.000000e+00 9.935805e-01 6.419462e-03
 0.000000e+00 0.000000e+00 0.000000e+00 0.000000e+00 0.000000e+00
<ENDHMM>
~h "cm"
<BEGINHMM>
<NUMSTATES> 5
<STATE> 2
<NUMMIXES> 8
<MIXTURE> 1 2.303194e-02
<MEAN> 39
 -1.296228e+01 -1.395053e+00 -5.068871e+00 -7.867738e+00 -2.734678e+00 -2.521853e+00 -3.882132e+00 -1.786809e+00 -2.747715e+00 2.746027e-01 2.161311e+00 1.755947e-01 5.930120e+01 1.243588e-01 3.425756e-01 6.014307e-01 7.788808e-01 9.709671e-01 1.055480e+00 9.503664e-01 9.122186e-01 8.162444e-01 7.221313e-01 5.417910e-01 3.353845e-01 1.185111e-01 3.826402e-02 9.997305e-02 1.739087e-01 2.464079e-01 2.800475e-01 3.096368e-01 3.182553e-01 3.091103e-01 2.268218e-01 1.560302e-01 8.751307e-02 2.261171e-02 -6.157292e-02
<VARIANCE> 39
 1.171854e+01 1.425782e+01 1.348808e+01 1.783776e+01 1.464901e+01 1.794248e+01 2.296837e+01 2.262793e+01 2.320619e+01 2.056326e+01 2.355837e+01 2.078506e+01 2.545634e+01 3.255227e-01 3.585301e-01 5.952556e-01 7.277337e-01 9.114581e-01 1.025751e+00 1.227236e+00 1.329004e+00 1.381214e+00 1.357583e+00 1.466226e+00 1.388518e+00 2.528487e-01 6.310327e-02 8.017398e-02 1.235739e-01 1.956082e-01 2.171753e-01 2.743547e-01 3.115629e-01 3.485742e-01 3.615239e-01 3.389972e-01 3.349822e-01 2.887860e-01 6.011838e-02
<GCONST> 8.580822e+01
<MIXTURE> 2 1.637017e-01
<MEAN> 39
 -1.293643e+01 -6.838679e-01 -3.944311e+00 -5.948969e+00 -2.163277e-01 7.537972e-01 -8.643313e-01 1.187352e+00 -7.498809e-01 1.238910e+00 2.735080e+00 2.310027e-01 5.847795e+01 3.575442e-03 7.247781e-02 1.293064e-01 1.989761e-01 2.871093e-01 3.199456e-01 2.940104e-01 2.976927e-01 2.464085e-01 2.043883e-01 1.400674e-01 5.630828e-02 4.666758e-02 9.421164e-03 7.893695e-03 9.377975e-03 6.777985e-03 -4.926849e-03 -2.104151e-02 -2.071055e-02 -1.985333e-02 -1.355538e-02 -2.595883e-03 4.443206e-03 -4.971579e-04 8.978448e-03
<VARIANCE> 39
 9.654453e+00 1.363750e+01 1.353422e+01 1.478651e+01 1.457341e+01 1.613493e+01 1.884969e+01 1.793722e+01 1.821467e+01 1.626869e+01 1.791182e+01 1.600558e+01 2.391921e+01 1.759211e-01 2.881534e-01 4.444740e-01 6.450902e-01 8.195835e-01 9.800704e-01 1.118847e+00 1.241798e+00 1.282581e+00 1.245371e+00 1.286002e+00 1.190282e+00 1.294536e-01 2.925826e-02 5.280994e-02 8.767390e-02 1.340996e-01 1.784580e-01 2.169941e-01 2.439896e-01 2.669110e-01 2.700798e-01 2.613369e-01 2.597541e-01 2.396909e-01 1.404874e-02
<GCONST> 7.580132e+01
<MIXTURE> 3 1.636987e-01
<MEAN> 39
 -1.293643e+01 -6.838684e-01 -3.944310e+00 -5.948968e+00 -2.163262e-01 7.537963e-01 -8.643311e-01 1.187352e+00 -7.498814e-01 1.238909e+00 2.735080e+00 2.310023e-01 5.847795e+01 3.575329e-03 7.247772e-02 1.293064e-01 1.989761e-01 2.871091e-01 3.199458e-01 2.940106e-01 2.976927e-01 2.464085e-01 2.043882e-01 1.400671e-01 5.630828e-02 4.666770e-02 9.421166e-03 7.893665e-03 9.378039e-03 6.777916e-03 -4.926918e-03 -2.104160e-02 -2.071073e-02 -1.985340e-02 -1.355533e-02 -2.595915e-03 4.443225e-03 -4.971652e-04 8.978441e-03
<VARIANCE> 39
 9.654453e+00 1.363749e+01 1.353422e+01 1.478655e+01 1.457339e+01 1.613494e+01 1.884969e+01 1.793724e+01 1.821468e+01 1.626873e+01 1.791183e+01 1.600560e+01 2.391920e+01 1.759211e-01 2.881534e-01 4.444744e-01 6.450896e-01 8.195835e-01 9.800695e-01 1.118849e+00 1.241797e+00 1.282582e+00 1.245372e+00 1.286001e+00 1.190282e+00 1.294536e-01 2.925827e-02 5.280981e-02 8.767400e-02 1.340994e-01 1.784580e-01 2.169943e-01 2.439896e-01 2.669113e-01 2.700801e-01 2.613373e-01 2.597543e-01 2.396911e-01 1.404874e-02
<GCONST> 7.580135e+01
<MIXTURE> 4 1.497392e-01
<MEAN> 39
 -1.309801e+01 -8.543288e-01 -4.148695e+00 -6.219024e+00 -5.383154e-01 1.616700e-01 -1.537746e+00 6.565867e-01 -1.137689e+00 1.493151e+00 3.261811e+00 6.332596e-01 5.901043e+01 -3.549010e-02 -1.229839e-01 -1.959417e-01 -2.668776e-01 -2.763747e-01 -3.372250e-01 -3.878063e-01 -3.539894e-01 -3.311589e-01 -2.619386e-01 -1.694166e-01 -7.054122e-02 1.728448e-01 1.368234e-02 -1.523643e-02 -2.022797e-02 -1.418380e-02 -2.258723e-02 -2.237536e-02 -9.560358e-03 -1.533420e-02 -1.347791e-02 -2.874960e-02 -3.786357e-02 -2.313831e-02 1.454184e-02
<VARIANCE> 39
 8.811238e+00 1.348576e+01 1.231048e+01 1.367420e+01 1.472833e+01 1.639401e+01 1.983030e+01 1.876506e+01 1.886196e+01 1.689347e+01 1.870929e+01 1.705870e+01 2.055694e+01 2.427025e-01 3.601732e-01 5.105089e-01 7.403021e-01 9.063650e-01 1.051029e+00 1.211168e+00 1.299295e+00 1.339936e+00 1.320969e+00 1.358545e+00 1.275943e+00 2.223197e-01 3.476123e-02 6.100149e-02 9.594055e-02 1.440789e-01 1.936622e-01 2.373901e-01 2.716628e-01 2.886338e-01 2.890287e-01 2.742682e-01 2.729911e-01 2.545075e-01 2.154826e-02
<GCONST> 7.904977e+01
<MIXTURE> 5 1.636996e-01
<MEAN> 39
 -1.293643e+01 -6.838716e-01 -3.944316e+00 -5.948973e+00 -2.163275e-01 7.537955e-01 -8.643333e-01 1.187351e+00 -7.498817e-01 1.238915e+00 2.735087e+00 2.310078e-01 5.847796e+01 3.575455e-03 7.247756e-02 1.293063e-01 1.989764e-01 2.871095e-01 3.199459e-01 2.940108e-01 2.976930e-01 2.464087e-01 2.043883e-01 1.400671e-01 5.630809e-02 4.666780e-02 9.421216e-03 7.893774e-03 9.378185e-03 6.778115e-03 -4.926821e-03 -2.104166e-02 -2.071076e-02 -1.985351e-02 -1.355563e-02 -2.596415e-03 4.442602e-03 -4.974868e-04 8.978389e-03
<VARIANCE> 39
 9.654438e+00 1.363748e+01 1.353420e+01 1.478652e+01 1.457341e+01 1.613494e+01 1.884969e+01 1.793723e+01 1.821467e+01 1.626870e+01 1.791183e+01 1.600560e+01 2.391916e+01 1.759210e-01 2.881534e-01 4.444747e-01 6.450894e-01 8.195836e-01 9.800703e-01 1.118847e+00 1.241796e+00 1.282580e+00 1.245371e+00 1.286002e+00 1.190283e+00 1.294535e-01 2.925824e-02 5.280980e-02 8.767387e-02 1.340995e-01 1.784580e-01 2.169943e-01 2.439897e-01 2.669111e-01 2.700799e-01 2.613371e-01 2.597544e-01 2.396913e-01 1.404872e-02
<GCONST> 7.580133e+01
<MIXTURE> 6 1.497392e-01
<MEAN> 39
 -1.309801e+01 -8.543288e-01 -4.148695e+00 -6.219024e+00 -5.383154e-01 1.616700e-01 -1.537746e+00 6.565867e-01 -1.137689e+00 1.493151e+00 3.261811e+00 6.332596e-01 5.901043e+01 -3.549010e-02 -1.229839e-01 -1.959417e-01 -2.668776e-01 -2.763747e-01 -3.372250e-01 -3.878063e-01 -3.539894e-01 -3.311589e-01 -2.619386e-01 -1.694166e-01 -7.054122e-02 1.728448e-01 1.368234e-02 -1.523643e-02 -2.022797e-02 -1.418380e-02 -2.258723e-02 -2.237536e-02 -9.560358e-03 -1.533420e-02 -1.347791e-02 -2.874960e-02 -3.786357e-02 -2.313831e-02 1.454184e-02
<VARIANCE> 39
 8.811238e+00 1.348576e+01 1.231048e+01 1.367420e+01 1.472833e+01 1.639401e+01 1.983030e+01 1.876506e+01 1.886196e+01 1.689347e+01 1.870929e+01 1.705870e+01 2.055694e+01 2.427025e-01 3.601732e-01 5.105089e-01 7.403021e-01 9.063650e-01 1.051029e+00 1.211168e+00 1.299295e+00 1.339936e+00 1.320969e+00 1.358545e+00 1.275943e+00 2.223197e-01 3.476123e-02 6.100149e-02 9.594055e-02 1.440789e-01 1.936622e-01 2.373901e-01 2.716628e-01 2.886338e-01 2.890287e-01 2.742682e-01 2.729911e-01 2.545075e-01 2.154826e-02
<GCONST> 7.904977e+01
<MIXTURE> 7 1.497391e-01
<MEAN> 39
 -1.309801e+01 -8.543288e-01 -4.148695e+00 -6.219024e+00 -5.383154e-01 1.616699e-01 -1.537746e+00 6.565862e-01 -1.137689e+00 1.493151e+00 3.261811e+00 6.332598e-01 5.901043e+01 -3.549010e-02 -1.229839e-01 -1.959416e-01 -2.668775e-01 -2.763746e-01 -3.372250e-01 -3.878063e-01 -3.539894e-01 -3.311589e-01 -2.619386e-01 -1.694166e-01 -7.054124e-02 1.728448e-01 1.368235e-02 -1.523643e-02 -2.022796e-02 -1.418382e-02 -2.258724e-02 -2.237536e-02 -9.560347e-03 -1.533413e-02 -1.347789e-02 -2.874961e-02 -3.786357e-02 -2.313831e-02 1.454184e-02
<VARIANCE> 39
 8.811241e+00 1.348574e+01 1.231048e+01 1.367421e+01 1.472833e+01 1.639401e+01 1.983030e+01 1.876506e+01 1.886197e+01 1.689348e+01 1.870929e+01 1.705871e+01 2.055695e+01 2.427024e-01 3.601732e-01 5.105088e-01 7.403025e-01 9.063652e-01 1.051030e+00 1.211169e+00 1.299295e+00 1.339936e+00 1.320969e+00 1.358545e+00 1.275942e+00 2.223197e-01 3.476123e-02 6.100151e-02 9.594055e-02 1.440788e-01 1.936622e-01 2.373901e-01 2.716629e-01 2.886338e-01 2.890287e-01 2.742683e-01 2.729912e-01 2.545075e-01 2.154827e-02
<GCONST> 7.904978e+01
<MIXTURE> 8 3.660714e-02
<MEAN> 39
 -1.216789e+01 -1.042307e+00 -3.994499e+00 -5.847499e+00 -1.250821e+00 -8.348882e-01 -1.355884e+00 2.742756e-01 -5.682451e-01 1.765256e+00 3.036313e+00 4.612173e-01 5.831103e+01 4.315418e-02 -4.569831e-01 -3.915870e-01 -6.264193e-01 -8.929222e-01 -1.186198e+00 -1.235199e+00 -1.122084e+00 -8.776642e-01 -5.584115e-01 -3.281952e-01 -4.321426e-02 1.291757e+00 9.192885e-02 4.550174e-02 3.791385e-02 2.401879e-02 -3.972732e-03 3.593698e-03 -1.417404e-02 -1.723763e-02 -6.126001e-02 -9.812581e-02 -1.078391e-01 -5.525920e-02 1.841925e-02
<VARIANCE> 39
 1.370132e+01 1.705037e+01 1.454281e+01 1.826646e+01 1.606647e+01 1.981754e+01 2.265216e+01 2.199175e+01 1.898644e+01 1.783990e+01 1.952424e+01 1.833407e+01 3.661257e+01 1.037416e+00 1.089615e+00 1.014807e+00 1.465743e+00 1.425010e+00 1.663210e+00 1.855787e+00 2.041043e+00 1.965894e+00 1.895718e+00 2.201743e+00 1.897210e+00 1.248115e+00 1.058322e-01 1.472632e-01 1.560735e-01 2.410487e-01 2.716698e-01 3.357380e-01 3.905318e-01 3.909974e-01 3.606607e-01 3.260801e-01 3.483670e-01 3.149326e-01 2.445466e-01
<GCONST> 9.820016e+01
<STATE> 3
<NUMMIXES> 8
<MIXTURE> 1 2.783922e-02
<MEAN> 39
 -8.306596e+00 -4.180665e+00 -5.843240e+00 -9.847572e+00 -4.663854e+00 -4.961170e+00 -4.201921e+00 -2.220934e+00 -2.589949e+00 -1.414782e+00 -1.073121e+00 -1.811872e+00 7.039733e+01 2.392911e-01 2.630669e-01 6.051152e-01 7.386785e-01 9.527180e-01 1.042277e+00 9.256705e-01 9.339089e-01 9.471776e-01 7.737078e-01 7.349544e-01 5.171338e-01 -1.406363e-01 6.762510e-02 1.872976e-01 1.789129e-01 4.061547e-01 3.627093e-01 3.764136e-01 3.194818e-01 2.166303e-01 1.535795e-01 1.099862e-01 8.668017e-02 2.069195e-02 -3.915751e-01
<VARIANCE> 39
 1.227799e+01 1.538241e+01 1.270752e+01 1.991621e+01 1.552465e+01 1.576326e+01 2.030849e+01 1.898219e+01 1.973650e+01 1.788318e+01 1.681415e+01 1.470145e+01 7.685753e+01 2.812986e-01 4.003646e-01 6.502634e-01 8.627154e-01 9.743269e-01 1.039610e+00 1.338714e+00 1.402033e+00 1.413396e+00 1.384851e+00 1.409045e+00 1.195858e+00 4.747163e-01 1.004237e-01 1.188150e-01 1.512388e-01 2.299449e-01 2.410561e-01 2.635454e-01 2.923291e-01 3.288713e-01 3.356209e-01 3.293511e-01 3.281234e-01 2.884808e-01 2.682638e-01
<GCONST> 8.919283e+01
<MIXTURE> 2 1.774676e-01
<MEAN> 39
 -7.554870e+00 -2.325227e+00 -4.766072e+00 -5.707494e+00 -1.692560e+00 -2.012385e+00 -2.136415e+00 -1.190787e+00 -2.269478e+00 -9.805928e-01 -7.261018e-01 -1.819209e+00 6.585797e+01 1.037737e-01 9.434450e-02 1.043853e-01 1.924477e-01 2.191477e-01 2.685096e-01 2.493223e-01 2.123720e-01 2.049191e-01 1.897915e-01 1.478775e-01 8.296345e-02 -6.151175e-02 -1.171788e-02 2.393321e-03 -8.864854e-03 -3.675312e-03 -1.194855e-02 -6.544001e-03 -5.217951e-03 -6.059520e-03 -1.372520e-02 -1.520992e-02 -1.380535e-02 -1.305480e-02 -1.851767e-02
<VARIANCE> 39
 1.300037e+01 1.633971e+01 1.382647e+01 1.681523e+01 1.666506e+01 1.661613e+01 2.220056e+01 1.939686e+01 2.051004e+01 1.829905e+01 1.651930e+01 1.520361e+01 7.867316e+01 2.745073e-01 3.820600e-01 5.262187e-01 7.428285e-01 8.907335e-01 1.020858e+00 1.159086e+00 1.258425e+00 1.321824e+00 1.296822e+00 1.278662e+00 1.217885e+00 4.522368e-01 4.693768e-02 7.889221e-02 1.092652e-01 1.592635e-01 1.986728e-01 2.376501e-01 2.690525e-01 2.844892e-01 2.947933e-01 2.900056e-01 2.779190e-01 2.560358e-01 4.973504e-02
<GCONST> 8.389318e+01
<MIXTURE> 3 1.774675e-01
<MEAN> 39
 -7.554872e+00 -2.325226e+00 -4.766073e+00 -5.707495e+00 -1.692561e+00 -2.012387e+00 -2.136418e+00 -1.190789e+00 -2.269481e+00 -9.805939e-01 -7.261030e-01 -1.819209e+00 6.585797e+01 1.037736e-01 9.434453e-02 1.043855e-01 1.924477e-01 2.191477e-01 2.685096e-01 2.493225e-01 2.123723e-01 2.049192e-01 1.897916e-01 1.478777e-01 8.296354e-02 -6.151165e-02 -1.171787e-02 2.393315e-03 -8.864775e-03 -3.675217e-03 -1.194846e-02 -6.543692e-03 -5.217761e-03 -6.059300e-03 -1.372492e-02 -1.520988e-02 -1.380534e-02 -1.305485e-02 -1.851768e-02
<VARIANCE> 39
 1.300037e+01 1.633970e+01 1.382647e+01 1.681520e+01 1.666505e+01 1.661610e+01 2.220055e+01 1.939686e+01 2.051002e+01 1.829904e+01 1.651928e+01 1.520360e+01 7.867306e+01 2.745072e-01 3.820599e-01 5.262186e-01 7.428282e-01 8.907332e-01 1.020858e+00 1.159085e+00 1.258425e+00 1.321825e+00 1.296821e+00 1.278661e+00 1.217884e+00 4.522366e-01 4.693761e-02 7.889216e-02 1.092651e-01 1.592633e-01 1.986726e-01 2.376496e-01 2.690522e-01 2.844892e-01 2.947931e-01 2.900055e-01 2.779187e-01 2.560356e-01 4.973500e-02
<GCONST> 8.389314e+01
<MIXTURE> 4 1.283050e-01
<MEAN> 39
 -7.977407e+00 -1.790576e+00 -5.403063e+00 -6.355591e+00 -2.400175e+00 -2.678442e+00 -3.227838e+00 -1.686308e+00 -3.015654e+00 -1.653537e+00 -1.275199e+00 -2.208257e+00 6.762980e+01 2.465251e-01 -3.572047e-02 -1.724821e-01 -2.617729e-01 -4.138059e-01 -4.893643e-01 -4.174114e-01 -4.059817e-01 -3.596053e-01 -3.785610e-01 -3.958073e-01 -2.366350e-01 6.084181e-01 -2.461414e-02 -2.520857e-02 4.110028e-03 -6.047257e-03 1.522487e-02 2.911807e-02 3.178016e-02 3.818594e-02 4.398798e-02 5.242311e-02 5.782836e-02 4.382303e-02 -6.218022e-03
<VARIANCE> 39
 1.250252e+01 1.379647e+01 1.437190e+01 1.615769e+01 1.710324e+01 1.561404e+01 1.813142e+01 1.829394e+01 1.945893e+01 1.736481e+01 1.668586e+01 1.476376e+01 5.933906e+01 6.478723e-01 6.985394e-01 7.669904e-01 1.047512e+00 1.123868e+00 1.188543e+00 1.340525e+00 1.437413e+00 1.488587e+00 1.451410e+00 1.383538e+00 1.305252e+00 8.800271e-01 8.328553e-02 1.143980e-01 1.428141e-01 1.994488e-01 2.361488e-01 2.601394e-01 2.814753e-01 2.991432e-01 3.120520e-01 2.986183e-01 2.873100e-01 2.639391e-01 1.118651e-01
<GCONST> 8.962775e+01
<MIXTURE> 5 1.774679e-01
<MEAN> 39
 -7.554870e+00 -2.325226e+00 -4.766073e+00 -5.707495e+00 -1.692561e+00 -2.012386e+00 -2.136417e+00 -1.190789e+00 -2.269481e+00 -9.805938e-01 -7.261021e-01 -1.819209e+00 6.585797e+01 1.037736e-01 9.434454e-02 1.043855e-01 1.924478e-01 2.191478e-01 2.685099e-01 2.493226e-01 2.123723e-01 2.049191e-01 1.897916e-01 1.478777e-01 8.296354e-02 -6.151195e-02 -1.171788e-02 2.393262e-03 -8.864808e-03 -3.675269e-03 -1.194850e-02 -6.543867e-03 -5.217828e-03 -6.059337e-03 -1.372493e-02 -1.520996e-02 -1.380536e-02 -1.305486e-02 -1.851764e-02
<VARIANCE> 39
 1.300036e+01 1.633971e+01 1.382647e+01 1.681523e+01 1.666507e+01 1.661612e+01 2.220057e+01 1.939687e+01 2.051003e+01 1.829906e+01 1.651930e+01 1.520362e+01 7.867310e+01 2.745073e-01 3.820603e-01 5.262193e-01 7.428291e-01 8.907340e-01 1.020859e+00 1.159086e+00 1.258426e+00 1.321827e+00 1.296823e+00 1.278662e+00 1.217886e+00 4.522369e-01 4.693770e-02 7.889220e-02 1.092652e-01 1.592635e-01 1.986728e-01 2.376500e-01 2.690526e-01 2.844892e-01 2.947933e-01 2.900057e-01 2.779192e-01 2.560359e-01 4.973504e-02
<GCONST> 8.389318e+01
<MIXTURE> 6 1.283063e-01
<MEAN> 39
 -7.977405e+00 -1.790576e+00 -5.403065e+00 -6.355591e+00 -2.400175e+00 -2.678442e+00 -3.227838e+00 -1.686309e+00 -3.015655e+00 -1.653540e+00 -1.275200e+00 -2.208257e+00 6.762980e+01 2.465248e-01 -3.572062e-02 -1.724821e-01 -2.617729e-01 -4.138058e-01 -4.893644e-01 -4.174114e-01 -4.059819e-01 -3.596054e-01 -3.785612e-01 -3.958073e-01 -2.366349e-01 6.084182e-01 -2.461424e-02 -2.520847e-02 4.110093e-03 -6.047171e-03 1.522486e-02 2.911820e-02 3.178011e-02 3.818616e-02 4.398827e-02 5.242324e-02 5.782863e-02 4.382298e-02 -6.218137e-03
<VARIANCE> 39
 1.250253e+01 1.379650e+01 1.437193e+01 1.615771e+01 1.710324e+01 1.561404e+01 1.813142e+01 1.829403e+01 1.945898e+01 1.736486e+01 1.668591e+01 1.476381e+01 5.933916e+01 6.478729e-01 6.985394e-01 7.669915e-01 1.047512e+00 1.123868e+00 1.188544e+00 1.340529e+00 1.437414e+00 1.488588e+00 1.451412e+00 1.383539e+00 1.305252e+00 8.800298e-01 8.328562e-02 1.143983e-01 1.428143e-01 1.994489e-01 2.361489e-01 2.601395e-01 2.814752e-01 2.991443e-01 3.120525e-01 2.986191e-01 2.873107e-01 2.639402e-01 1.118653e-01
<GCONST> 8.962781e+01
<MIXTURE> 7 1.283067e-01
<MEAN> 39
 -7.977407e+00 -1.790576e+00 -5.403064e+00 -6.355591e+00 -2.400175e+00 -2.678442e+00 -3.227837e+00 -1.686310e+00 -3.015655e+00 -1.653540e+00 -1.275200e+00 -2.208258e+00 6.762980e+01 2.465249e-01 -3.572061e-02 -1.724820e-01 -2.617728e-01 -4.138058e-01 -4.893645e-01 -4.174113e-01 -4.059817e-01 -3.596053e-01 -3.785612e-01 -3.958072e-01 -2.366349e-01 6.084184e-01 -2.461417e-02 -2.520849e-02 4.110066e-03 -6.047188e-03 1.522491e-02 2.911818e-02 3.178013e-02 3.818612e-02 4.398816e-02 5.242319e-02 5.782864e-02 4.382306e-02 -6.218147e-03
<VARIANCE> 39
 1.250254e+01 1.379649e+01 1.437193e+01 1.615771e+01 1.710323e+01 1.561404e+01 1.813141e+01 1.829402e+01 1.945897e+01 1.736484e+01 1.668589e+01 1.476381e+01 5.933911e+01 6.478727e-01 6.985390e-01 7.669912e-01 1.047512e+00 1.123868e+00 1.188544e+00 1.340528e+00 1.437414e+00 1.488588e+00 1.451411e+00 1.383539e+00 1.305252e+00 8.800293e-01 8.328567e-02 1.143982e-01 1.428144e-01 1.994489e-01 2.361488e-01 2.601395e-01 2.814751e-01 2.991441e-01 3.120522e-01 2.986189e-01 2.873106e-01 2.639402e-01 1.118654e-01
<GCONST> 8.962778e+01
<MIXTURE> 8 5.478499e-02
<MEAN> 39
 -1.054800e+01 -4.639987e+00 -4.517128e+00 -6.943833e+00 -2.533832e+00 -3.035578e+00 -2.172598e+00 -9.304381e-01 -1.842044e+00 -1.022446e+00 -6.252440e-01 -1.724296e+00 6.631385e+01 -7.192534e-02 -9.986078e-01 -3.495528e-01 -7.479961e-01 -8.403180e-01 -1.180478e+00 -7.970710e-01 -5.906253e-01 -4.187360e-01 -4.706413e-01 -5.413569e-01 -1.646570e-01 2.456219e+00 1.582249e-01 1.882019e-01 6.648181e-02 8.642720e-02 1.853810e-01 1.569031e-01 4.237012e-02 -6.276120e-03 -5.566720e-03 2.426178e-02 6.005955e-02 1.675075e-02 -2.122778e-01
<VARIANCE> 39
 2.291254e+01 2.758332e+01 2.258915e+01 2.665418e+01 2.811801e+01 2.937002e+01 2.890768e+01 3.021589e+01 3.056524e+01 2.346324e+01 2.142399e+01 1.813143e+01 8.179825e+01 2.216719e+00 2.347129e+00 1.924241e+00 2.256004e+00 2.418551e+00 2.395191e+00 2.531416e+00 2.890257e+00 2.738514e+00 2.400182e+00 2.267501e+00 2.077899e+00 2.772959e+00 2.482156e-01 3.841141e-01 3.312366e-01 4.144696e-01 4.605010e-01 5.531514e-01 5.118626e-01 5.368615e-01 5.146103e-01 4.500201e-01 4.366121e-01 3.617129e-01 9.263340e-01
<GCONST> 1.158939e+02
<STATE> 4
<NUMMIXES> 8
<MIXTURE> 1 3.039803e-02
<MEAN> 39
 -7.328809e+00 1.974258e+00 -1.068826e-01 -1.434276e+00 2.511835e+00 2.060495e+00 1.572100e+00 1.738635e+00 4.009833e-01 1.847687e-01 8.488692e-01 -1.044460e+00 5.584795e+01 6.981694e-02 2.269177e-01 3.758450e-01 4.859939e-01 5.644049e-01 6.511633e-01 7.090455e-01 6.572567e-01 5.389547e-01 3.586436e-01 2.258350e-01 5.669761e-02 -3.741139e-01 3.027050e-02 2.909884e-02 5.164854e-04 -2.607785e-02 -5.843759e-02 -9.426546e-02 -1.186180e-01 -1.052008e-01 -9.631954e-02 -7.587744e-02 -8.161027e-02 -6.454397e-02 3.547215e-02
<VARIANCE> 39
 2.530142e+01 1.099040e+01 1.423982e+01 1.175164e+01 1.227417e+01 1.400089e+01 1.893729e+01 1.783896e+01 1.827150e+01 1.594334e+01 1.413268e+01 1.292632e+01 4.675471e+01 1.837727e-01 2.857234e-01 4.552523e-01 6.909201e-01 8.742386e-01 1.074340e+00 1.203719e+00 1.362416e+00 1.424706e+00 1.417515e+00 1.345405e+00 1.164319e+00 1.216703e-01 2.392252e-02 4.486047e-02 7.435383e-02 1.185673e-01 1.572779e-01 1.969431e-01 2.253591e-01 2.539212e-01 2.623380e-01 2.552346e-01 2.385655e-01 2.145394e-01 9.548223e-03
<GCONST> 7.526400e+01
<MIXTURE> 2 1.530879e-01
<MEAN> 39
 -5.575885e+00 7.489706e-01 -2.798671e+00 -3.910884e+00 -1.741479e-01 -7.972264e-01 -1.785615e+00 -9.622619e-01 -1.953226e+00 -1.325654e+00 -5.201635e-01 -1.961502e+00 6.442564e+01 3.682342e-02 1.085924e-01 1.639959e-01 2.186533e-01 2.371181e-01 2.346361e-01 2.381172e-01 1.911813e-01 1.773320e-01 1.515981e-01 1.284097e-01 6.501345e-02 -3.483597e-01 2.680528e-04 -3.845596e-03 -1.462926e-02 -2.559254e-02 -4.096738e-02 -4.962397e-02 -4.856670e-02 -4.135215e-02 -4.213341e-02 -4.139251e-02 -3.954970e-02 -2.491065e-02 8.866770e-03
<VARIANCE> 39
 1.279362e+01 1.144427e+01 1.157994e+01 1.300033e+01 1.320076e+01 1.336996e+01 1.536072e+01 1.716780e+01 1.796963e+01 1.598995e+01 1.441334e+01 1.293901e+01 6.626226e+01 1.736266e-01 2.723856e-01 4.163587e-01 6.268197e-01 8.058163e-01 9.518461e-01 1.100544e+00 1.194369e+00 1.277750e+00 1.265292e+00 1.226396e+00 1.145305e+00 1.909341e-01 2.575202e-02 4.966589e-02 8.293476e-02 1.259901e-01 1.642087e-01 1.978013e-01 2.330099e-01 2.520538e-01 2.662564e-01 2.605658e-01 2.479102e-01 2.314331e-01 1.483786e-02
<GCONST> 7.506476e+01
<MIXTURE> 3 1.530880e-01
<MEAN> 39
 -5.575889e+00 7.489746e-01 -2.798666e+00 -3.910877e+00 -1.741404e-01 -7.972174e-01 -1.785606e+00 -9.622542e-01 -1.953222e+00 -1.325652e+00 -5.201631e-01 -1.961503e+00 6.442562e+01 3.682321e-02 1.085921e-01 1.639955e-01 2.186529e-01 2.371175e-01 2.346354e-01 2.381165e-01 1.911809e-01 1.773312e-01 1.515973e-01 1.284092e-01 6.501319e-02 -3.483595e-01 2.681329e-04 -3.845672e-03 -1.462956e-02 -2.559296e-02 -4.096808e-02 -4.962483e-02 -4.856749e-02 -4.135284e-02 -4.213370e-02 -4.139262e-02 -3.954972e-02 -2.491048e-02 8.866850e-03
<VARIANCE> 39
 1.279363e+01 1.144427e+01 1.157995e+01 1.300032e+01 1.320076e+01 1.336996e+01 1.536073e+01 1.716782e+01 1.796965e+01 1.598996e+01 1.441335e+01 1.293901e+01 6.626225e+01 1.736267e-01 2.723860e-01 4.163588e-01 6.268198e-01 8.058164e-01 9.518456e-01 1.100543e+00 1.194367e+00 1.277749e+00 1.265293e+00 1.226395e+00 1.145304e+00 1.909341e-01 2.575203e-02 4.966598e-02 8.293481e-02 1.259900e-01 1.642087e-01 1.978015e-01 2.330102e-01 2.520542e-01 2.662566e-01 2.605657e-01 2.479101e-01 2.314333e-01 1.483786e-02
<GCONST> 7.506477e+01
<MIXTURE> 4 1.642249e-01
<MEAN> 39
 -5.338931e+00 -7.963810e-01 -4.802699e+00 -6.225628e+00 -2.726832e+00 -3.235413e+00 -3.911019e+00 -2.450811e+00 -3.246048e+00 -2.530022e+00 -1.846318e+00 -2.658853e+00 7.075391e+01 3.661165e-02 -2.124280e-02 -4.354824e-02 -6.459816e-02 -1.116967e-01 -1.499890e-01 -1.579087e-01 -1.833840e-01 -1.591145e-01 -1.420795e-01 -9.956457e-02 -4.239183e-02 -1.252576e-01 -1.047402e-02 2.233107e-04 1.277183e-02 2.299237e-02 4.046390e-02 5.181193e-02 5.437059e-02 4.798122e-02 4.620506e-02 4.672543e-02 4.388468e-02 2.629728e-02 -2.143760e-02
<VARIANCE> 39
 6.950434e+00 9.390362e+00 9.854627e+00 1.268626e+01 1.263144e+01 1.196268e+01 1.392333e+01 1.575013e+01 1.678498e+01 1.495886e+01 1.430430e+01 1.245532e+01 4.661054e+01 1.823717e-01 2.819679e-01 4.460247e-01 6.544224e-01 8.143091e-01 9.425590e-01 1.088963e+00 1.181793e+00 1.237560e+00 1.225770e+00 1.208186e+00 1.125301e+00 2.992430e-01 2.926780e-02 5.225158e-02 8.816670e-02 1.337521e-01 1.697181e-01 1.984346e-01 2.286854e-01 2.459229e-01 2.568821e-01 2.549125e-01 2.485862e-01 2.288102e-01 2.533677e-02
<GCONST> 7.448830e+01
<MIXTURE> 5 1.530894e-01
<MEAN> 39
 -5.575877e+00 7.489721e-01 -2.798672e+00 -3.910884e+00 -1.741453e-01 -7.972235e-01 -1.785610e+00 -9.622561e-01 -1.953219e+00 -1.325650e+00 -5.201610e-01 -1.961502e+00 6.442564e+01 3.682350e-02 1.085926e-01 1.639958e-01 2.186536e-01 2.371179e-01 2.346361e-01 2.381169e-01 1.911810e-01 1.773317e-01 1.515977e-01 1.284096e-01 6.501344e-02 -3.483601e-01 2.678842e-04 -3.845689e-03 -1.462927e-02 -2.559251e-02 -4.096769e-02 -4.962443e-02 -4.856726e-02 -4.135267e-02 -4.213388e-02 -4.139297e-02 -3.954987e-02 -2.491055e-02 8.866791e-03
<VARIANCE> 39
 1.279358e+01 1.144424e+01 1.157989e+01 1.300028e+01 1.320070e+01 1.336992e+01 1.536067e+01 1.716776e+01 1.796959e+01 1.598991e+01 1.441328e+01 1.293896e+01 6.626215e+01 1.736260e-01 2.723857e-01 4.163574e-01 6.268181e-01 8.058135e-01 9.518434e-01 1.100541e+00 1.194367e+00 1.277746e+00 1.265290e+00 1.226394e+00 1.145304e+00 1.909336e-01 2.575191e-02 4.966573e-02 8.293448e-02 1.259895e-01 1.642081e-01 1.978009e-01 2.330095e-01 2.520531e-01 2.662558e-01 2.605647e-01 2.479091e-01 2.314324e-01 1.483779e-02
<GCONST> 7.506464e+01
<MIXTURE> 6 1.642265e-01
<MEAN> 39
 -5.338932e+00 -7.963810e-01 -4.802699e+00 -6.225630e+00 -2.726831e+00 -3.235412e+00 -3.911016e+00 -2.450807e+00 -3.246045e+00 -2.530020e+00 -1.846317e+00 -2.658852e+00 7.075391e+01 3.661175e-02 -2.124282e-02 -4.354831e-02 -6.459817e-02 -1.116966e-01 -1.499891e-01 -1.579091e-01 -1.833843e-01 -1.591147e-01 -1.420799e-01 -9.956472e-02 -4.239171e-02 -1.252579e-01 -1.047400e-02 2.232995e-04 1.277172e-02 2.299236e-02 4.046391e-02 5.181170e-02 5.437038e-02 4.798087e-02 4.620457e-02 4.672535e-02 4.388465e-02 2.629725e-02 -2.143768e-02
<VARIANCE> 39
 6.950430e+00 9.390356e+00 9.854609e+00 1.268626e+01 1.263142e+01 1.196265e+01 1.392335e+01 1.575011e+01 1.678499e+01 1.495888e+01 1.430430e+01 1.245530e+01 4.661053e+01 1.823715e-01 2.819679e-01 4.460248e-01 6.544223e-01 8.143079e-01 9.425579e-01 1.088962e+00 1.181793e+00 1.237560e+00 1.225770e+00 1.208186e+00 1.125301e+00 2.992425e-01 2.926779e-02 5.225155e-02 8.816659e-02 1.337521e-01 1.697180e-01 1.984343e-01 2.286851e-01 2.459227e-01 2.568823e-01 2.549122e-01 2.485861e-01 2.288097e-01 2.533678e-02
<GCONST> 7.448828e+01
<MIXTURE> 7 1.642265e-01
<MEAN> 39
 -5.338932e+00 -7.963810e-01 -4.802699e+00 -6.225630e+00 -2.726831e+00 -3.235412e+00 -3.911016e+00 -2.450807e+00 -3.246045e+00 -2.530020e+00 -1.846317e+00 -2.658852e+00 7.075391e+01 3.661175e-02 -2.124282e-02 -4.354831e-02 -6.459817e-02 -1.116966e-01 -1.499891e-01 -1.579091e-01 -1.833843e-01 -1.591147e-01 -1.420799e-01 -9.956472e-02 -4.239171e-02 -1.252579e-01 -1.047400e-02 2.232995e-04 1.277172e-02 2.299236e-02 4.046391e-02 5.181170e-02 5.437038e-02 4.798087e-02 4.620457e-02 4.672535e-02 4.388465e-02 2.629725e-02 -2.143768e-02
<VARIANCE> 39
 6.950430e+00 9.390356e+00 9.854609e+00 1.268626e+01 1.263142e+01 1.196265e+01 1.392335e+01 1.575011e+01 1.678499e+01 1.495888e+01 1.430430e+01 1.245530e+01 4.661053e+01 1.823715e-01 2.819679e-01 4.460248e-01 6.544223e-01 8.143079e-01 9.425579e-01 1.088962e+00 1.181793e+00 1.237560e+00 1.225770e+00 1.208186e+00 1.125301e+00 2.992425e-01 2.926779e-02 5.225155e-02 8.816659e-02 1.337521e-01 1.697180e-01 1.984343e-01 2.286851e-01 2.459227e-01 2.568823e-01 2.549122e-01 2.485861e-01 2.288097e-01 2.533678e-02
<GCONST> 7.448828e+01
<MIXTURE> 8 1.754208e-02
<MEAN> 39
 -5.737555e+00 -1.023060e+00 -4.875513e+00 -5.977091e+00 -2.365361e+00 -2.771053e+00 -3.320364e+00 -1.723677e+00 -2.705815e+00 -1.982191e+00 -1.548277e+00 -2.571816e+00 7.078122e+01 -3.718565e-02 -2.874174e-01 -4.912898e-01 -7.590254e-01 -9.609799e-01 -1.053174e+00 -1.066739e+00 -1.039502e+00 -9.783480e-01 -8.380492e-01 -6.559948e-01 -3.231310e-01 1.150302e-01 -7.361915e-03 -2.573364e-02 -8.331753e-03 -5.505207e-02 -4.560396e-02 -3.057892e-02 -4.703281e-02 -3.950090e-02 -1.498612e-02 -1.264971e-02 1.644709e-02 3.074587e-02 -4.719126e-03
<VARIANCE> 39
 8.081184e+00 8.237821e+00 9.887601e+00 1.387931e+01 1.326318e+01 1.260759e+01 1.444094e+01 1.642770e+01 1.766796e+01 1.569405e+01 1.495254e+01 1.240718e+01 5.353902e+01 2.840771e-01 3.550282e-01 5.864856e-01 8.588352e-01 9.611572e-01 1.004540e+00 1.123725e+00 1.271182e+00 1.319868e+00 1.335321e+00 1.237254e+00 1.205572e+00 5.152364e-01 3.492180e-02 6.255471e-02 1.050511e-01 1.605712e-01 1.983006e-01 2.159196e-01 2.429339e-01 2.565955e-01 2.728104e-01 2.730280e-01 2.675451e-01 2.303246e-01 4.973292e-02
<GCONST> 7.933944e+01
<TRANSP> 5
 0.000000e+00 1.000000e+00 0.000000e+00 0.000000e+00 0.000000e+00
 0.000000e+00 9.673735e-01 3.262646e-02 0.000000e+00 0.000000e+00
 0.000000e+00 0.000000e+00 9.596269e-01 4.037314e-02 0.000000e+00
 0.000000e+00 0.000000e+00 0.000000e+00 9.844195e-01 1.558051e-02
 0.000000e+00 0.000000e+00 0.000000e+00 0.000000e+00 0.000000e+00
<ENDHMM>
~h "co"
<BEGINHMM>
<NUMSTATES> 5
<STATE> 2
<NUMMIXES> 8
<MIXTURE> 1 3.500231e-02
<MEAN> 39
 -9.243052e+00 -2.117480e+00 3.156326e+00 -4.687366e+00 -8.849037e+00 -7.288169e+00 -2.568471e+00 -5.720745e+00 -2.730470e+00 -5.210444e+00 -3.076320e+00 -6.397125e+00 6.678326e+01 -7.479904e-01 -9.005301e-02 5.645942e-01 2.609609e-01 1.173531e+00 1.770994e-01 1.274993e+00 5.523207e-01 -9.300351e-02 8.388270e-01 8.478217e-01 7.933047e-01 1.148448e+00 1.841436e-01 -3.179495e-01 -4.779742e-01 2.453262e-01 5.045818e-02 3.970613e-01 -1.747297e-01 3.077610e-01 1.666940e-01 4.364460e-01 2.590736e-01 -2.914707e-02 -6.335988e-01
<VARIANCE> 39
 1.170228e+01 1.477378e+01 1.864241e+01 1.502973e+01 5.260842e+01 5.684369e+01 3.261927e+01 7.926727e+01 3.509477e+01 2.706617e+01 2.848816e+01 2.415479e+01 1.702982e+02 4.793413e-01 4.841775e-01 1.504077e+00 1.060182e+00 2.345445e+00 2.004274e+00 2.617995e+00 1.558980e+00 2.363489e+00 2.120604e+00 1.414219e+00 1.524211e+00 9.024528e-01 6.357519e-02 9.401586e-02 2.178458e-01 2.375357e-01 3.729077e-01 4.433439e-01 4.469095e-01 4.420785e-01 4.629198e-01 4.176144e-01 3.834921e-01 2.565304e-01 3.062496e-01
<GCONST> 1.044431e+02
<MIXTURE> 2 1.896529e-01
<MEAN> 39
 -9.413860e+00 -6.517094e+00 2.173097e-01 -4.871712e+00 -1.035982e+01 -6.084657e+00 -3.663130e+00 -9.044756e-01 -3.469805e+00 -5.632057e+00 -4.465056e+00 -6.516474e+00 6.900002e+01 -8.621333e-01 4.333147e-01 3.678702e-01 -1.212632e-01 5.284454e-01 -1.394819e-01 4.763368e-01 -5.014670e-01 -6.343216e-01 -3.843791e-01 2.963857e-01 2.038310e-01 1.678951e+00 1.347511e-01 -1.807334e-01 -2.101187e-01 2.205546e-01 1.597344e-01 1.364589e-01 4.924452e-02 1.232637e-01 2.792988e-01 3.030845e-01 1.865408e-01 9.984975e-02 -5.174648e-01
<VARIANCE> 39
 1.969386e+01 2.521740e+01 2.661535e+01 3.148984e+01 5.332129e+01 5.065965e+01 6.704274e+01 6.639799e+01 4.516156e+01 3.878800e+01 3.577511e+01 2.987049e+01 9.454370e+01 7.935944e-01 1.517610e+00 1.506889e+00 1.747557e+00 2.072398e+00 2.258109e+00 2.879988e+00 2.316456e+00 2.526509e+00 2.579488e+00 1.941284e+00 1.959585e+00 1.506551e+00 1.415941e-01 2.151529e-01 2.633350e-01 2.851368e-01 3.651937e-01 4.487117e-01 4.594228e-01 4.099645e-01 4.320540e-01 3.886804e-01 3.789442e-01 3.280138e-01 2.950942e-01
<GCONST> 1.134776e+02
<MIXTURE> 3 1.896536e-01
<MEAN> 39
 -9.413861e+00 -6.517099e+00 2.173049e-01 -4.871713e+00 -1.035984e+01 -6.084668e+00 -3.663144e+00 -9.044952e-01 -3.469808e+00 -5.632065e+00 -4.465058e+00 -6.516482e+00 6.900005e+01 -8.621349e-01 4.333160e-01 3.678721e-01 -1.212652e-01 5.284473e-01 -1.394843e-01 4.763387e-01 -5.014679e-01 -6.343229e-01 -3.843803e-01 2.963845e-01 2.038316e-01 1.678954e+00 1.347510e-01 -1.807330e-01 -2.101187e-01 2.205551e-01 1.597354e-01 1.364601e-01 4.924529e-02 1.232649e-01 2.792993e-01 3.030854e-01 1.865415e-01 9.985027e-02 -5.174658e-01
<VARIANCE> 39
 1.969386e+01 2.521736e+01 2.661539e+01 3.148985e+01 5.332124e+01 5.065959e+01 6.704288e+01 6.639812e+01 4.516157e+01 3.878799e+01 3.577507e+01 2.987057e+01 9.454327e+01 7.935943e-01 1.517614e+00 1.506890e+00 1.747561e+00 2.072404e+00 2.258110e+00 2.879992e+00 2.316458e+00 2.526515e+00 2.579490e+00 1.941284e+00 1.959586e+00 1.506551e+00 1.415943e-01 2.151529e-01 2.633356e-01 2.851371e-01 3.651941e-01 4.487122e-01 4.594235e-01 4.099655e-01 4.320549e-01 3.886808e-01 3.789445e-01 3.280145e-01 2.950938e-01
<GCONST> 1.134776e+02
<MIXTURE> 4 1.114815e-01
<MEAN> 39
 -6.412026e+00 -7.279280e+00 -2.514436e+00 -2.887380e+00 -9.557060e+00 -3.344084e+00 -4.028041e+00 1.133082e+00 1.678638e+00 -1.194083e+00 -1.288660e+00 -5.551537e+00 5.881631e+01 -3.587082e-01 -4.980279e-01 4.098556e-01 -8.961448e-01 -1.563455e+00 -1.735633e+00 -1.008962e+00 -9.390286e-01 -1.024810e+00 -1.182321e+00 -9.424469e-01 -6.628652e-01 3.532075e+00 -2.058187e-01 2.748589e-01 1.602505e-01 -3.095124e-02 2.934929e-01 1.070286e-01 2.712629e-01 1.512805e-03 -2.655523e-01 -1.234784e-01 2.019915e-02 9.877978e-02 2.028008e-01
<VARIANCE> 39
 1.965808e+01 4.076317e+01 2.474412e+01 3.411139e+01 1.001489e+02 6.025213e+01 1.066096e+02 6.673365e+01 4.838846e+01 4.397045e+01 3.473912e+01 3.965415e+01 1.039690e+02 1.710230e+00 3.757325e+00 2.807429e+00 3.429006e+00 4.871603e+00 3.869464e+00 4.443025e+00 4.354420e+00 4.612032e+00 3.225652e+00 2.503542e+00 2.266229e+00 2.824558e+00 1.570908e-01 4.139935e-01 2.557013e-01 3.642703e-01 8.480180e-01 6.724031e-01 8.901502e-01 5.377883e-01 4.889798e-01 4.696524e-01 4.553681e-01 4.862196e-01 7.046182e-01
<GCONST> 1.279757e+02
<MIXTURE> 5 1.896516e-01
<MEAN> 39
 -9.413849e+00 -6.517089e+00 2.173049e-01 -4.871712e+00 -1.035984e+01 -6.084666e+00 -3.663145e+00 -9.044831e-01 -3.469807e+00 -5.632062e+00 -4.465064e+00 -6.516480e+00 6.900003e+01 -8.621337e-01 4.333163e-01 3.678713e-01 -1.212642e-01 5.284471e-01 -1.394833e-01 4.763388e-01 -5.014668e-01 -6.343223e-01 -3.843803e-01 2.963846e-01 2.038310e-01 1.678952e+00 1.347499e-01 -1.807338e-01 -2.101181e-01 2.205549e-01 1.597352e-01 1.364599e-01 4.924501e-02 1.232639e-01 2.792987e-01 3.030849e-01 1.865412e-01 9.984997e-02 -5.174645e-01
<VARIANCE> 39
 1.969378e+01 2.521739e+01 2.661537e+01 3.148984e+01 5.332125e+01 5.065960e+01 6.704281e+01 6.639815e+01 4.516157e+01 3.878798e+01 3.577510e+01 2.987053e+01 9.454363e+01 7.935919e-01 1.517611e+00 1.506890e+00 1.747559e+00 2.072404e+00 2.258111e+00 2.879994e+00 2.316458e+00 2.526512e+00 2.579485e+00 1.941284e+00 1.959588e+00 1.506549e+00 1.415929e-01 2.151528e-01 2.633351e-01 2.851368e-01 3.651932e-01 4.487107e-01 4.594233e-01 4.099648e-01 4.320542e-01 3.886805e-01 3.789438e-01 3.280143e-01 2.950941e-01
<GCONST> 1.134776e+02
<MIXTURE> 6 1.114820e-01
<MEAN> 39
 -6.412031e+00 -7.279274e+00 -2.514431e+00 -2.887382e+00 -9.557037e+00 -3.344079e+00 -4.028019e+00 1.133099e+00 1.678643e+00 -1.194074e+00 -1.288655e+00 -5.551523e+00 5.881630e+01 -3.587068e-01 -4.980306e-01 4.098528e-01 -8.961432e-01 -1.563459e+00 -1.735633e+00 -1.008963e+00 -9.390252e-01 -1.024809e+00 -1.182317e+00 -9.424464e-01 -6.628649e-01 3.532073e+00 -2.058181e-01 2.748580e-01 1.602500e-01 -3.095151e-02 2.934906e-01 1.070276e-01 2.712607e-01 1.511514e-03 -2.655528e-01 -1.234792e-01 2.019814e-02 9.877821e-02 2.028031e-01
<VARIANCE> 39
 1.965811e+01 4.076320e+01 2.474407e+01 3.411138e+01 1.001489e+02 6.025214e+01 1.066093e+02 6.673349e+01 4.838848e+01 4.397032e+01 3.473907e+01 3.965409e+01 1.039691e+02 1.710238e+00 3.757320e+00 2.807424e+00 3.429003e+00 4.871601e+00 3.869465e+00 4.443024e+00 4.354423e+00 4.612037e+00 3.225651e+00 2.503540e+00 2.266232e+00 2.824558e+00 1.570908e-01 4.139935e-01 2.557009e-01 3.642701e-01 8.480183e-01 6.724039e-01 8.901485e-01 5.377874e-01 4.889798e-01 4.696510e-01 4.553678e-01 4.862190e-01 7.046186e-01
<GCONST> 1.279757e+02
<MIXTURE> 7 1.114826e-01
<MEAN> 39
 -6.411992e+00 -7.279169e+00 -2.514394e+00 -2.887372e+00 -9.556810e+00 -3.343944e+00 -4.027840e+00 1.133211e+00 1.678665e+00 -1.193978e+00 -1.288614e+00 -5.551437e+00 5.881598e+01 -3.587014e-01 -4.980723e-01 4.098489e-01 -8.961149e-01 -1.563492e+00 -1.735638e+00 -1.008974e+00 -9.390131e-01 -1.024797e+00 -1.182300e+00 -9.424464e-01 -6.628644e-01 3.532061e+00 -2.058170e-01 2.748466e-01 1.602485e-01 -3.095607e-02 2.934700e-01 1.070163e-01 2.712430e-01 1.499742e-03 -2.655574e-01 -1.234875e-01 2.018919e-02 9.876775e-02 2.028276e-01
<VARIANCE> 39
 1.965787e+01 4.076327e+01 2.474402e+01 3.411105e+01 1.001490e+02 6.025186e+01 1.066085e+02 6.673257e+01 4.838789e+01 4.396976e+01 3.473880e+01 3.965363e+01 1.039695e+02 1.710230e+00 3.757309e+00 2.807423e+00 3.429020e+00 4.871605e+00 3.869491e+00 4.443053e+00 4.354436e+00 4.612029e+00 3.225676e+00 2.503553e+00 2.266240e+00 2.824568e+00 1.570884e-01 4.139936e-01 2.556999e-01 3.642671e-01 8.480212e-01 6.724058e-01 8.901468e-01 5.377854e-01 4.889768e-01 4.696470e-01 4.553673e-01 4.862174e-01 7.046198e-01
<GCONST> 1.279756e+02
<MIXTURE> 8 6.157985e-02
<MEAN> 39
 -5.419477e+00 -1.275667e+01 -3.858876e+00 1.963466e-01 -1.359945e+01 -3.328629e+00 -1.924962e+00 3.922725e+00 6.323469e-01 8.273183e-01 -2.636217e+00 -5.603355e+00 5.930135e+01 -5.305414e-01 -2.130708e+00 -3.541668e-01 -8.520671e-01 -4.155037e+00 -2.094136e+00 -2.403511e+00 -1.780180e+00 -1.429975e+00 -1.420023e+00 -1.259932e+00 -1.926198e+00 6.131541e+00 -2.101742e-01 1.221578e+00 3.294158e-01 -5.890368e-01 9.127471e-01 5.660219e-02 2.568548e-01 -3.596255e-01 -4.002101e-01 -4.634760e-01 7.152556e-02 -4.526714e-02 1.359195e-01
<VARIANCE> 39
 1.315867e+01 6.923960e+01 3.076031e+01 3.827807e+01 4.986089e+01 6.562337e+01 1.069313e+02 5.922653e+01 6.171233e+01 4.887256e+01 4.140127e+01 3.130268e+01 4.429871e+01 1.035532e+00 3.899699e+00 1.681228e+00 4.218725e+00 3.465930e+00 3.971446e+00 6.263384e+00 5.468347e+00 4.141635e+00 3.633353e+00 3.441663e+00 2.840562e+00 1.067552e+00 2.230839e-01 8.731924e-01 6.461496e-01 6.304466e-01 8.088590e-01 8.898381e-01 1.460975e+00 8.047339e-01 1.198326e+00 8.410181e-01 6.526077e-01 5.555468e-01 5.112873e-01
<GCONST> 1.315681e+02
<STATE> 3
<NUMMIXES> 8
<MIXTURE> 1 1.078681e-02
<MEAN> 39
 -4.476226e+00 -4.375909e+00 5.349675e-01 -1.670145e+00 -3.829113e+00 -7.516818e+00 -5.513441e+00 -7.596343e+00 -6.370502e+00 -3.463976e+00 -2.605398e+00 -5.156088e+00 5.980165e+01 7.696557e-02 3.219479e-01 3.732482e-01 6.250818e-01 1.015117e+00 1.129969e+00 1.201360e+00 8.257452e-01 6.724072e-01 6.325966e-01 3.871301e-01 2.426141e-01 -5.967805e-01 -3.328893e-02 -6.750694e-02 -4.335596e-02 -1.195692e-02 -7.061347e-02 2.547090e-02 1.100637e-01 1.855552e-01 1.872384e-01 1.115878e-01 4.015336e-02 -3.552162e-02 4.117936e-02
<VARIANCE> 39
 2.581101e+01 1.362404e+01 1.669549e+01 1.573662e+01 1.867848e+01 2.662613e+01 3.567664e+01 4.613197e+01 2.644696e+01 2.714427e+01 2.196428e+01 2.792867e+01 6.891002e+01 1.692077e-01 2.755878e-01 4.699097e-01 6.650180e-01 9.351293e-01 1.049927e+00 1.223133e+00 1.436429e+00 1.435668e+00 1.366850e+00 1.327974e+00 1.258406e+00 1.067073e-01 3.838843e-02 7.451713e-02 9.190553e-02 1.395839e-01 2.201411e-01 2.494509e-01 2.863896e-01 2.979907e-01 3.143231e-01 2.745409e-01 2.642293e-01 2.507941e-01 3.918723e-02
<GCONST> 8.524162e+01
<MIXTURE> 2 1.837600e-01
<MEAN> 39
 -7.220323e+00 -7.436658e+00 -1.665381e+00 -3.753500e+00 -6.750120e+00 -8.667196e+00 -6.432288e+00 -7.346480e+00 -4.404562e+00 -3.003275e+00 -2.917191e+00 -7.606907e+00 6.781563e+01 1.233283e-01 3.488509e-02 5.390820e-02 2.098951e-01 4.465637e-01 2.269348e-01 2.761665e-01 8.790237e-02 2.072495e-01 3.110943e-01 2.408348e-01 1.657680e-01 -5.634074e-01 2.375547e-02 -3.249167e-03 -4.387754e-03 1.680992e-02 -2.299436e-02 1.279897e-02 -3.702939e-06 1.669612e-02 -1.317262e-02 -5.059328e-02 -3.964003e-02 -6.699369e-03 -3.413023e-02
<VARIANCE> 39
 2.356797e+01 1.296959e+01 2.255548e+01 2.238517e+01 2.276317e+01 2.839805e+01 5.139535e+01 5.561456e+01 3.599079e+01 3.585110e+01 3.511147e+01 3.526865e+01 4.394624e+01 2.130672e-01 3.555590e-01 6.090243e-01 7.398925e-01 1.039098e+00 1.125182e+00 1.363772e+00 1.579595e+00 1.732288e+00 1.663166e+00 1.461177e+00 1.369205e+00 1.917134e-01 4.785666e-02 8.101992e-02 1.209840e-01 1.641274e-01 2.309759e-01 2.496261e-01 3.071356e-01 3.352695e-01 3.646948e-01 3.478521e-01 3.152829e-01 2.905313e-01 5.043339e-02
<GCONST> 9.172648e+01
<MIXTURE> 3 1.837600e-01
<MEAN> 39
 -7.220323e+00 -7.436658e+00 -1.665381e+00 -3.753500e+00 -6.750120e+00 -8.667196e+00 -6.432288e+00 -7.346480e+00 -4.404562e+00 -3.003275e+00 -2.917191e+00 -7.606907e+00 6.781563e+01 1.233283e-01 3.488509e-02 5.390820e-02 2.098951e-01 4.465637e-01 2.269348e-01 2.761665e-01 8.790237e-02 2.072495e-01 3.110943e-01 2.408348e-01 1.657680e-01 -5.634074e-01 2.375547e-02 -3.249167e-03 -4.387754e-03 1.680992e-02 -2.299436e-02 1.279897e-02 -3.702939e-06 1.669612e-02 -1.317262e-02 -5.059328e-02 -3.964003e-02 -6.699369e-03 -3.413023e-02
<VARIANCE> 39
 2.356797e+01 1.296959e+01 2.255548e+01 2.238517e+01 2.276317e+01 2.839805e+01 5.139535e+01 5.561456e+01 3.599079e+01 3.585110e+01 3.511147e+01 3.526865e+01 4.394624e+01 2.130672e-01 3.555590e-01 6.090243e-01 7.398925e-01 1.039098e+00 1.125182e+00 1.363772e+00 1.579595e+00 1.732288e+00 1.663166e+00 1.461177e+00 1.369205e+00 1.917134e-01 4.785666e-02 8.101992e-02 1.209840e-01 1.641274e-01 2.309759e-01 2.496261e-01 3.071356e-01 3.352695e-01 3.646948e-01 3.478521e-01 3.152829e-01 2.905313e-01 5.043339e-02
<GCONST> 9.172648e+01
<MIXTURE> 4 1.201990e-01
<MEAN> 39
 -7.600571e+00 -8.415627e+00 -3.686763e+00 -4.448846e+00 -8.316799e+00 -8.896612e+00 -7.521603e+00 -6.514622e+00 -4.169074e+00 -4.513066e+00 -3.922326e+00 -8.756006e+00 7.074389e+01 2.948794e-01 -3.315497e-03 -9.053881e-02 -9.735984e-02 -1.494780e-01 -3.065407e-01 -6.692938e-01 -5.005051e-01 -1.905181e-01 -1.586905e-01 -2.068215e-01 -3.393314e-01 -1.289169e-01 2.309669e-02 -1.014405e-02 3.271392e-02 2.711125e-02 -1.331174e-02 -5.289251e-03 -2.026131e-02 -3.364349e-03 3.417725e-02 3.799007e-02 -3.893424e-03 -1.324963e-03 -4.506855e-02
<VARIANCE> 39
 1.403107e+01 1.347221e+01 3.008653e+01 2.183155e+01 2.431917e+01 2.804729e+01 4.921321e+01 7.026513e+01 4.880219e+01 4.157591e+01 3.896517e+01 3.866791e+01 2.515983e+01 4.599130e-01 7.439523e-01 1.012461e+00 1.101422e+00 1.514208e+00 1.623252e+00 2.350124e+00 2.586852e+00 2.908082e+00 2.494347e+00 2.056777e+00 1.915495e+00 4.792520e-01 7.172309e-02 1.349759e-01 1.682665e-01 2.077445e-01 2.932895e-01 3.088356e-01 4.479175e-01 5.055385e-01 6.198639e-01 5.254976e-01 4.062153e-01 3.580450e-01 1.002001e-01
<GCONST> 1.033679e+02
<MIXTURE> 5 1.837595e-01
<MEAN> 39
 -7.220322e+00 -7.436659e+00 -1.665380e+00 -3.753499e+00 -6.750121e+00 -8.667194e+00 -6.432287e+00 -7.346480e+00 -4.404560e+00 -3.003274e+00 -2.917190e+00 -7.606905e+00 6.781563e+01 1.233281e-01 3.488509e-02 5.390826e-02 2.098951e-01 4.465637e-01 2.269349e-01 2.761665e-01 8.790242e-02 2.072495e-01 3.110944e-01 2.408348e-01 1.657680e-01 -5.634070e-01 2.375548e-02 -3.249271e-03 -4.387792e-03 1.680995e-02 -2.299442e-02 1.279900e-02 -3.628433e-06 1.669598e-02 -1.317272e-02 -5.059324e-02 -3.964022e-02 -6.699383e-03 -3.413025e-02
<VARIANCE> 39
 2.356799e+01 1.296960e+01 2.255549e+01 2.238521e+01 2.276322e+01 2.839805e+01 5.139541e+01 5.561458e+01 3.599081e+01 3.585112e+01 3.511150e+01 3.526867e+01 4.394627e+01 2.130674e-01 3.555591e-01 6.090243e-01 7.398926e-01 1.039097e+00 1.125182e+00 1.363773e+00 1.579596e+00 1.732288e+00 1.663167e+00 1.461179e+00 1.369206e+00 1.917136e-01 4.785670e-02 8.102004e-02 1.209841e-01 1.641275e-01 2.309761e-01 2.496264e-01 3.071359e-01 3.352697e-01 3.646955e-01 3.478523e-01 3.152829e-01 2.905313e-01 5.043348e-02
<GCONST> 9.172651e+01
<MIXTURE> 6 1.201983e-01
<MEAN> 39
 -7.600570e+00 -8.415628e+00 -3.686768e+00 -4.448846e+00 -8.316797e+00 -8.896612e+00 -7.521604e+00 -6.514619e+00 -4.169070e+00 -4.513065e+00 -3.922327e+00 -8.756010e+00 7.074389e+01 2.948804e-01 -3.315773e-03 -9.053909e-02 -9.735920e-02 -1.494770e-01 -3.065410e-01 -6.692943e-01 -5.005058e-01 -1.905179e-01 -1.586903e-01 -2.068222e-01 -3.393319e-01 -1.289193e-01 2.309682e-02 -1.014368e-02 3.271393e-02 2.711101e-02 -1.331194e-02 -5.289400e-03 -2.026154e-02 -3.364639e-03 3.417643e-02 3.798966e-02 -3.893699e-03 -1.325043e-03 -4.506838e-02
<VARIANCE> 39
 1.403104e+01 1.347221e+01 3.008655e+01 2.183156e+01 2.431918e+01 2.804731e+01 4.921323e+01 7.026518e+01 4.880219e+01 4.157595e+01 3.896520e+01 3.866790e+01 2.515982e+01 4.599104e-01 7.439511e-01 1.012459e+00 1.101421e+00 1.514208e+00 1.623250e+00 2.350114e+00 2.586848e+00 2.908078e+00 2.494345e+00 2.056774e+00 1.915490e+00 4.792497e-01 7.172295e-02 1.349756e-01 1.682663e-01 2.077440e-01 2.932892e-01 3.088352e-01 4.479171e-01 5.055385e-01 6.198635e-01 5.254975e-01 4.062149e-01 3.580451e-01 1.001994e-01
<GCONST> 1.033679e+02
<MIXTURE> 7 1.201987e-01
<MEAN> 39
 -7.600572e+00 -8.415628e+00 -3.686765e+00 -4.448845e+00 -8.316797e+00 -8.896610e+00 -7.521601e+00 -6.514621e+00 -4.169071e+00 -4.513065e+00 -3.922323e+00 -8.756006e+00 7.074389e+01 2.948805e-01 -3.315797e-03 -9.053932e-02 -9.735952e-02 -1.494772e-01 -3.065410e-01 -6.692948e-01 -5.005060e-01 -1.905181e-01 -1.586901e-01 -2.068221e-01 -3.393318e-01 -1.289188e-01 2.309688e-02 -1.014372e-02 3.271386e-02 2.711090e-02 -1.331205e-02 -5.289571e-03 -2.026182e-02 -3.364634e-03 3.417663e-02 3.798983e-02 -3.893761e-03 -1.325171e-03 -4.506835e-02
<VARIANCE> 39
 1.403106e+01 1.347221e+01 3.008653e+01 2.183154e+01 2.431919e+01 2.804728e+01 4.921320e+01 7.026517e+01 4.880218e+01 4.157591e+01 3.896518e+01 3.866788e+01 2.515979e+01 4.599107e-01 7.439517e-01 1.012459e+00 1.101421e+00 1.514208e+00 1.623252e+00 2.350117e+00 2.586847e+00 2.908077e+00 2.494346e+00 2.056774e+00 1.915491e+00 4.792496e-01 7.172290e-02 1.349756e-01 1.682662e-01 2.077443e-01 2.932894e-01 3.088350e-01 4.479170e-01 5.055382e-01 6.198635e-01 5.254976e-01 4.062149e-01 3.580447e-01 1.001995e-01
<GCONST> 1.033678e+02
<MIXTURE> 8 7.729586e-02
<MEAN> 39
 -5.943456e+00 -8.922286e+00 -1.432465e+00 -2.190391e+00 -9.746413e+00 -8.333807e+00 -5.965754e+00 -5.273714e+00 -2.592623e+00 -3.908745e+00 -5.825874e+00 -6.795671e+00 6.455572e+01 -9.220206e-01 -4.173555e-01 1.319528e-02 -4.696945e-01 -1.428686e+00 -1.311135e-01 6.602454e-02 7.491479e-01 -3.642645e-01 -9.838443e-01 -8.287801e-01 -1.174185e-01 2.691910e+00 -1.242802e-01 1.484262e-01 1.286454e-02 -1.845435e-01 2.199562e-01 2.806696e-02 6.156524e-02 -1.235963e-02 -6.057394e-02 1.297304e-01 1.853955e-01 1.539737e-02 1.675762e-01
<VARIANCE> 39
 1.409517e+01 3.448640e+01 2.701768e+01 2.821075e+01 4.768463e+01 3.619585e+01 6.089024e+01 6.847093e+01 7.243301e+01 3.878946e+01 4.709945e+01 3.569048e+01 6.961714e+01 1.289188e+00 4.468250e+00 2.718199e+00 3.828880e+00 4.798969e+00 3.761317e+00 5.420256e+00 5.220382e+00 8.607367e+00 3.763892e+00 4.289170e+00 2.990561e+00 2.811581e+00 1.585001e-01 8.688188e-01 4.072513e-01 6.072944e-01 1.093634e+00 6.232034e-01 8.232772e-01 8.940297e-01 1.626681e+00 7.678529e-01 8.415176e-01 4.937756e-01 9.584644e-01
<GCONST> 1.325248e+02
<STATE> 4
<NUMMIXES> 8
<MIXTURE> 1 2.057932e-02
<MEAN> 39
 -3.707742e+00 -9.729338e-01 3.358083e+00 1.799323e+00 1.397212e+00 -1.931032e+00 -2.246160e+00 -1.524580e+00 -2.708468e+00 -3.664273e+00 -4.257342e+00 -6.047683e+00 5.061959e+01 1.755392e-01 5.697222e-01 4.062158e-01 5.621387e-01 8.526567e-01 1.041900e+00 1.035635e+00 1.063409e+00 6.689143e-01 4.406578e-01 2.039628e-01 6.132394e-03 -3.528313e-01 4.723917e-02 8.401712e-02 1.170693e-01 1.499499e-01 1.610613e-01 1.897879e-01 1.699491e-01 1.412131e-01 1.414868e-01 1.181919e-01 7.367742e-02 -1.910519e-02 4.739011e-02
<VARIANCE> 39
