~o
<STREAMINFO> 1 39
<VECSIZE> 39<NULLD><MFCC_D_A_0><DIAGC>
~h "ap"
<BEGINHMM>
<NUMSTATES> 5
<STATE> 2
<NUMMIXES> 2
<MIXTURE> 1 7.910758e-01
<MEAN> 39
 -1.318990e+01 -9.859169e+00 -5.839676e+00 -1.662499e+00 1.472977e+00 -4.445351e+00 1.764248e+00 -1.819506e+00 -1.253863e+00 -7.965167e-01 5.787027e-01 -5.046057e-01 6.188208e+01 3.312482e-01 2.218839e-01 2.268109e-01 1.297560e-01 2.262945e-01 2.006740e-01 1.542134e-01 1.314791e-01 2.826552e-02 1.808824e-02 2.748885e-02 -5.500432e-03 -7.979800e-01 -1.412407e-02 1.274394e-02 -2.681268e-03 -8.473356e-03 -1.606722e-02 -3.632905e-03 -1.773529e-02 6.327389e-03 -3.637275e-03 -1.440854e-03 -4.537023e-03 -2.071249e-03 1.796986e-02
<VARIANCE> 39
 2.027782e+01 3.148144e+01 3.013054e+01 2.187823e+01 3.052616e+01 3.315541e+01 2.729050e+01 2.605740e+01 2.171312e+01 1.905074e+01 1.702200e+01 1.534136e+01 8.145832e+01 1.223474e-01 2.566094e-01 4.218225e-01 6.594520e-01 8.928015e-01 1.039005e+00 1.208106e+00 1.320408e+00 1.356071e+00 1.335921e+00 1.274607e+00 1.179353e+00 8.295374e-02 2.269808e-02 4.903248e-02 8.398294e-02 1.313716e-01 1.786392e-01 2.142136e-01 2.482249e-01 2.718051e-01 2.832977e-01 2.787867e-01 2.651731e-01 2.447902e-01 9.574967e-03
<GCONST> 8.107882e+01
<MIXTURE> 2 2.089364e-01
<MEAN> 39
 -1.427074e+01 -7.513575e+00 -5.602811e+00 -2.457350e+00 -1.073908e-01 -4.196233e+00 6.484115e-01 -4.107337e-01 -1.103640e+00 -5.657248e-01 -1.001390e-02 -1.049302e+00 6.343058e+01 -1.341626e+00 -1.095478e+00 -9.872085e-01 -4.571190e-01 -8.966578e-01 -9.812957e-01 -6.657078e-01 -5.859013e-01 -2.037239e-01 -1.256214e-01 -1.155346e-01 1.954575e-02 3.427277e+00 5.268605e-02 -9.810218e-02 -2.892526e-02 1.802820e-02 5.059954e-02 -1.153883e-02 5.603634e-02 -2.731204e-02 -1.877784e-03 -8.686592e-03 1.644537e-02 4.574107e-03 1.695983e-02
<VARIANCE> 39
 4.332456e+01 4.124472e+01 3.641444e+01 2.610961e+01 3.941225e+01 4.767633e+01 3.746106e+01 3.245242e+01 2.557740e+01 2.093668e+01 1.872463e+01 1.628127e+01 2.057299e+02 3.434949e+00 3.552257e+00 2.540105e+00 2.208482e+00 2.959914e+00 4.383893e+00 3.584863e+00 3.172516e+00 2.685634e+00 2.229091e+00 1.987246e+00 1.639718e+00 1.654860e+01 8.104458e-01 6.688453e-01 5.310740e-01 4.327780e-01 6.309924e-01 8.747678e-01 7.157950e-01 6.162063e-01 5.036395e-01 4.187989e-01 3.736042e-01 3.129823e-01 4.191398e+00
<GCONST> 1.272265e+02
<STATE> 3
<NUMMIXES> 2
<MIXTURE> 1 7.801107e-01
<MEAN> 39
 -1.085908e+01 -1.761217e+01 -1.147482e+01 5.411464e-01 3.892082e-01 -9.767447e+00 5.062664e-01 -1.002884e+00 -4.269608e+00 -2.771936e+00 9.806556e-01 -6.098406e-01 6.898174e+01 2.959417e-01 1.869744e-01 2.621585e-01 2.472503e-01 2.955174e-01 1.761758e-01 1.321593e-01 4.681955e-02 1.564730e-02 1.405426e-02 4.926537e-02 3.990136e-02 -9.109828e-01 -1.082184e-02 2.221382e-02 6.271880e-03 -5.935038e-03 -7.683836e-03 4.457139e-03 -1.572802e-02 1.053356e-02 7.532902e-03 2.597746e-03 -1.667022e-03 6.200502e-04 1.330845e-02
<VARIANCE> 39
 1.114872e+01 2.083625e+01 1.895206e+01 2.076458e+01 3.156334e+01 2.081077e+01 2.893975e+01 2.211340e+01 2.281943e+01 2.122848e+01 1.653575e+01 1.489594e+01 6.072221e+01 9.707425e-02 2.373679e-01 3.713435e-01 6.044668e-01 8.291420e-01 9.876343e-01 1.132633e+00 1.230500e+00 1.291919e+00 1.300300e+00 1.215445e+00 1.142715e+00 3.852725e-02 2.021299e-02 4.824339e-02 7.640117e-02 1.254289e-01 1.728732e-01 2.041325e-01 2.427762e-01 2.618343e-01 2.733218e-01 2.745463e-01 2.528104e-01 2.395666e-01 7.419678e-03
<GCONST> 7.632574e+01
<MIXTURE> 2 2.198953e-01
<MEAN> 39
 -1.217706e+01 -1.597266e+01 -1.144522e+01 -2.698605e-01 -7.526677e-01 -9.652184e+00 -1.023303e+00 -2.990039e-01 -3.571759e+00 -2.904723e+00 4.391455e-01 -8.545386e-01 7.215032e+01 -7.018095e-01 -7.309627e-01 -7.925962e-01 -6.323804e-01 -7.775090e-01 -5.461007e-01 -2.705985e-01 -1.164359e-01 -4.779121e-02 -6.993042e-02 -7.591225e-02 -7.003359e-02 2.445578e+00 1.152378e-01 1.056877e-01 1.040659e-01 5.986986e-02 1.143581e-01 1.179874e-01 1.131026e-01 1.180420e-02 2.699453e-02 3.462143e-02 1.861976e-02 1.647440e-03 -3.841784e-01
<VARIANCE> 39
 2.448390e+01 3.068255e+01 2.775060e+01 3.277018e+01 3.928072e+01 3.299664e+01 4.073928e+01 2.690914e+01 2.804036e+01 2.382044e+01 1.847790e+01 1.625395e+01 1.606692e+02 1.806404e+00 3.039272e+00 2.095269e+00 2.386371e+00 2.875901e+00 3.219432e+00 3.609354e+00 2.605960e+00 2.586391e+00 2.156811e+00 1.799575e+00 1.562730e+00 1.348177e+01 4.463008e-01 6.194125e-01 4.979073e-01 5.172274e-01 6.339158e-01 7.123700e-01 7.304606e-01 5.176318e-01 5.039045e-01 4.253673e-01 3.516535e-01 3.099651e-01 3.679481e+00
<GCONST> 1.228367e+02
<STATE> 4
<NUMMIXES> 2
<MIXTURE> 1 8.593457e-01
<MEAN> 39
 -8.563173e+00 -1.148458e+01 -4.127857e+00 1.721218e+00 -1.039288e+00 -3.310430e+00 4.237793e+00 -9.222672e-01 -1.677900e+00 7.458522e-01 8.811150e-01 -8.825695e-01 5.722847e+01 2.073741e-01 2.942485e-01 1.600695e-01 8.153107e-02 1.345484e-01 1.926416e-01 7.433426e-02 1.569285e-01 5.579410e-02 3.729492e-02 8.371799e-03 -2.359981e-03 -6.055520e-01 -1.268232e-02 5.830562e-03 -8.531178e-03 -9.933800e-03 -1.224179e-02 -5.742489e-03 -1.282710e-02 5.542309e-05 -3.597710e-03 -3.342741e-03 -6.638638e-04 -8.569496e-04 1.992359e-02
<VARIANCE> 39
 1.751124e+01 7.416274e+01 1.998610e+01 2.157747e+01 2.925754e+01 3.280916e+01 2.060054e+01 3.425513e+01 2.414343e+01 1.928635e+01 1.637954e+01 1.399628e+01 1.075229e+02 1.308903e-01 2.810915e-01 4.240663e-01 6.656588e-01 8.780403e-01 1.028758e+00 1.174376e+00 1.270689e+00 1.325760e+00 1.308866e+00 1.247318e+00 1.127923e+00 1.514607e-01 2.192726e-02 4.790942e-02 8.205432e-02 1.258241e-01 1.707245e-01 2.076045e-01 2.387827e-01 2.566195e-01 2.727096e-01 2.687672e-01 2.523897e-01 2.300777e-01 7.122779e-03
<GCONST> 8.136357e+01
<MIXTURE> 2 1.406660e-01
<MEAN> 39
 -1.133722e+01 -1.095152e+01 -5.603347e+00 2.944901e-01 -3.520895e+00 -4.091605e+00 2.733988e+00 -1.142955e+00 -2.026675e+00 7.511092e-01 1.849916e-01 -1.487270e+00 6.341211e+01 -1.163464e+00 -1.472920e+00 -7.576438e-01 -4.436828e-01 -8.579798e-01 -9.517842e-01 -3.436041e-01 -8.260946e-01 -2.154563e-01 -1.266196e-01 -7.740798e-02 -7.562575e-03 3.237492e+00 6.199266e-02 -4.694417e-02 2.755884e-02 3.780199e-02 5.182816e-02 1.029879e-02 5.675471e-02 -9.603711e-03 7.387356e-03 2.004193e-03 -3.803783e-03 3.071370e-03 -9.022367e-02
<VARIANCE> 39
 3.747150e+01 8.584162e+01 2.828678e+01 2.853879e+01 3.841753e+01 4.496203e+01 3.092138e+01 4.244675e+01 3.010623e+01 2.038063e+01 1.848684e+01 1.599355e+01 2.484512e+02 2.985146e+00 6.739337e+00 2.115047e+00 2.249552e+00 3.309897e+00 3.875614e+00 3.023744e+00 4.033355e+00 3.195179e+00 2.091708e+00 1.817866e+00 1.585770e+00 1.909058e+01 7.013828e-01 1.341586e+00 4.492803e-01 4.518963e-01 7.252575e-01 8.451129e-01 5.992553e-01 8.461808e-01 6.257246e-01 4.125137e-01 3.589815e-01 3.054463e-01 4.737018e+00
<GCONST> 1.293932e+02
<TRANSP> 5
 0.000000e+00 1.000000e+00 0.000000e+00 0.000000e+00 0.000000e+00
 0.000000e+00 9.913674e-01 8.632601e-03 0.000000e+00 0.000000e+00
 0.000000e+00 0.000000e+00 9.867369e-01 1.326307e-02 0.000000e+00
 0.000000e+00 0.000000e+00 0.000000e+00 9.894604e-01 1.053962e-02
 0.000000e+00 0.000000e+00 0.000000e+00 0.000000e+00 0.000000e+00
<ENDHMM>
~h "cl"
<BEGINHMM>
<NUMSTATES> 5
<STATE> 2
<NUMMIXES> 2
<MIXTURE> 1 7.320345e-01
<MEAN> 39
 -1.132174e+01 -1.790269e+00 -7.232261e-01 -4.535771e+00 -2.187377e+00 5.442352e+00 3.378682e+00 -3.553500e-02 4.610441e+00 -2.645708e-01 -3.178283e+00 1.459291e+00 5.323284e+01 3.329299e-01 -1.537508e-02 -2.339915e-02 5.642017e-02 1.003704e-01 -2.602335e-02 8.075778e-02 7.552287e-02 -5.746245e-02 3.758519e-02 6.129559e-02 -7.895174e-02 -3.287601e-01 -1.479934e-02 9.834751e-03 -4.644235e-03 3.025924e-03 1.973865e-04 -1.071713e-02 -9.785525e-03 1.360988e-02 -1.467996e-02 6.061903e-03 1.337220e-02 -8.932622e-03 1.451841e-02
<VARIANCE> 39
 3.214436e+01 2.689482e+01 3.523782e+01 1.592309e+01 2.120068e+01 4.447952e+01 2.536801e+01 2.881900e+01 4.015420e+01 2.314031e+01 2.624732e+01 2.464175e+01 4.190076e+01 2.735589e-01 3.488461e-01 5.465844e-01 7.347230e-01 9.714226e-01 1.291631e+00 1.329349e+00 1.486563e+00 1.606182e+00 1.437733e+00 1.366870e+00 1.272263e+00 1.553515e-01 4.464222e-02 6.175499e-02 1.026529e-01 1.420688e-01 1.906148e-01 2.474851e-01 2.611885e-01 2.928710e-01 3.139800e-01 2.886206e-01 2.708155e-01 2.512101e-01 1.720154e-02
<GCONST> 8.753147e+01
<MIXTURE> 2 2.679668e-01
<MEAN> 39
 -1.385801e+01 -1.846410e-01 -3.327028e-01 -4.308285e+00 -2.428376e+00 5.248758e+00 2.110835e+00 3.406708e-01 3.953387e+00 3.293307e-01 -2.675230e+00 1.436558e+00 5.473879e+01 -1.936298e+00 1.644083e-01 2.219129e-01 -2.603472e-01 -5.775627e-01 5.599701e-01 -4.472449e-01 -6.834278e-01 4.572813e-01 -2.417579e-01 -5.768982e-01 5.284890e-01 1.679355e+00 -1.870448e-02 -4.244639e-02 6.073303e-02 -2.754370e-02 -6.104111e-02 1.230779e-01 1.411929e-02 -1.208493e-01 7.605694e-02 -2.636202e-02 -1.296333e-01 9.272682e-02 1.653085e-03
<VARIANCE> 39
 5.674952e+01 3.034692e+01 3.437603e+01 1.895988e+01 2.390178e+01 4.939078e+01 3.005720e+01 3.127695e+01 3.612981e+01 2.580351e+01 2.784387e+01 2.276883e+01 7.666818e+01 5.124968e+00 1.888669e+00 1.618319e+00 1.437249e+00 1.984086e+00 3.954872e+00 2.668580e+00 3.300996e+00 3.217032e+00 2.603239e+00 2.729368e+00 2.276162e+00 4.263417e+00 1.123713e+00 2.760447e-01 2.541258e-01 2.570319e-01 3.585931e-01 5.783420e-01 4.661882e-01 5.418488e-01 5.142423e-01 4.475575e-01 4.461176e-01 3.588234e-01 9.496878e-01
<GCONST> 1.197080e+02
<STATE> 3
<NUMMIXES> 2
<MIXTURE> 1 6.672481e-01
<MEAN> 39
 -2.016645e+01 2.677198e+00 -5.840178e-01 -7.028799e+00 -4.700984e+00 1.300111e+01 7.839054e-01 -2.425777e+00 9.260603e+00 -3.832494e+00 -4.479482e+00 5.748882e+00 5.856822e+01 6.145772e-01 -5.230745e-02 -5.444340e-02 -2.975767e-02 4.657046e-02 -1.387360e-02 4.799041e-02 5.288387e-03 4.828693e-02 7.116418e-02 9.136555e-02 -1.128669e-02 -4.790740e-01 -1.271110e-02 3.569324e-03 -3.178297e-02 2.285716e-02 2.180186e-02 -7.303742e-02 4.911320e-03 3.508551e-02 -6.191236e-02 3.203047e-02 4.075106e-02 -5.778036e-02 1.267161e-02
<VARIANCE> 39
 3.832764e+01 9.316682e+00 1.786943e+01 1.167828e+01 1.503405e+01 2.879294e+01 2.463282e+01 2.005987e+01 2.436984e+01 1.947904e+01 1.838201e+01 1.896083e+01 1.824820e+01 2.463282e-01 3.113031e-01 5.597693e-01 7.423907e-01 9.603668e-01 1.321846e+00 1.399440e+00 1.391438e+00 1.508164e+00 1.466573e+00 1.331470e+00 1.269441e+00 1.201756e-01 9.366421e-02 6.280037e-02 1.223014e-01 1.552487e-01 2.071063e-01 2.879315e-01 3.071051e-01 2.942315e-01 3.209198e-01 3.112997e-01 2.813835e-01 2.736539e-01 5.081699e-02
<GCONST> 8.457809e+01
<MIXTURE> 2 3.328033e-01
<MEAN> 39
 -2.034304e+01 1.815661e+00 -1.196735e+00 -6.478454e+00 -4.355363e+00 1.045765e+01 3.716574e-01 -1.638199e+00 7.776917e+00 -3.628020e+00 -3.438773e+00 4.258035e+00 5.978341e+01 -1.138704e+00 8.954062e-02 8.075024e-02 7.636311e-02 -8.815379e-02 1.135191e-02 -8.101445e-02 -4.201964e-02 -1.269995e-01 -1.392361e-01 -1.919603e-01 2.120768e-02 9.073145e-01 5.373460e-02 -1.172992e-02 5.858514e-02 -4.209016e-02 -3.326688e-02 1.265635e-01 -5.006895e-03 -5.780479e-02 1.094703e-01 -5.244371e-02 -7.000200e-02 1.007732e-01 -4.604181e-02
<VARIANCE> 39
 7.301004e+01 1.346875e+01 2.367854e+01 1.514926e+01 1.854289e+01 4.095229e+01 3.169720e+01 2.416561e+01 3.217359e+01 2.124475e+01 2.024002e+01 2.322931e+01 3.243414e+01 2.854195e+00 8.657027e-01 1.298711e+00 1.286175e+00 1.791574e+00 3.109603e+00 2.790548e+00 2.286950e+00 2.676808e+00 2.032271e+00 1.960897e+00 2.471279e+00 1.521738e+00 8.029664e-01 1.490490e-01 2.056642e-01 2.392974e-01 3.068396e-01 4.813323e-01 4.736350e-01 4.082058e-01 4.740237e-01 3.891927e-01 3.602695e-01 4.047101e-01 4.610077e-01
<GCONST> 1.094839e+02
<STATE> 4
<NUMMIXES> 2
<MIXTURE> 1 6.599895e-01
<MEAN> 39
 -2.145740e+01 4.137494e-01 5.914550e+00 -4.273163e+00 -6.736524e+00 1.093727e+01 1.348112e+00 -6.508207e+00 3.884636e+00 4.472604e+00 -1.191213e+01 4.999092e+00 5.725729e+01 5.518222e-01 6.023416e-02 1.751079e-01 -1.656074e-02 2.172155e-02 5.805948e-02 1.508906e-01 -7.889128e-02 2.762266e-01 3.219200e-02 -4.661119e-02 9.801190e-02 -6.277817e-01 -3.863495e-02 1.780173e-02 -5.637916e-02 1.878284e-02 5.382280e-02 -7.606643e-02 -1.553504e-02 9.359451e-02 -4.411021e-02 -8.985931e-03 8.809652e-02 -7.304067e-02 3.062502e-02
<VARIANCE> 39
 3.935870e+01 9.322805e+00 1.512954e+01 1.542986e+01 3.062016e+01 2.886679e+01 2.764425e+01 4.915769e+01 3.708828e+01 3.181388e+01 3.087261e+01 3.207873e+01 3.430349e+01 2.076959e-01 3.017250e-01 5.987722e-01 6.993049e-01 9.715627e-01 1.234391e+00 1.293341e+00 1.552703e+00 1.616353e+00 1.450576e+00 1.439265e+00 1.261577e+00 1.406879e-01 8.418715e-02 6.545512e-02 1.328912e-01 1.512633e-01 2.166821e-01 2.792448e-01 2.838920e-01 3.513594e-01 3.664330e-01 3.257302e-01 3.088094e-01 2.774498e-01 8.211154e-02
<GCONST> 8.996597e+01
<MIXTURE> 2 3.400698e-01
<MEAN> 39
 -2.408387e+01 7.931632e-01 4.172235e+00 -3.747252e+00 -5.823374e+00 9.991299e+00 1.089434e+00 -4.937401e+00 2.958334e+00 4.203273e+00 -1.068953e+01 3.995641e+00 5.957682e+01 -9.189763e-01 -1.324662e-01 -3.276226e-01 1.214010e-02 -3.012516e-02 -1.560648e-01 -2.946236e-01 1.774927e-01 -5.368596e-01 -7.488082e-02 1.185722e-01 -2.012881e-01 1.098514e+00 7.940079e-02 -3.273546e-02 1.010071e-01 -3.493499e-02 -9.615846e-02 1.388809e-01 3.078004e-02 -1.686811e-01 8.254208e-02 1.333266e-02 -1.578408e-01 1.344898e-01 -6.304084e-02
<VARIANCE> 39
 3.220820e+01 1.196553e+01 1.761806e+01 1.701328e+01 2.703429e+01 3.143954e+01 3.222263e+01 4.687560e+01 4.078719e+01 3.233478e+01 2.977265e+01 3.097755e+01 3.615665e+01 2.051478e+00 7.844424e-01 1.588296e+00 1.370485e+00 2.188334e+00 2.973201e+00 2.458750e+00 4.188998e+00 3.746625e+00 3.071788e+00 2.642048e+00 2.591651e+00 1.726789e+00 5.489221e-01 1.313653e-01 2.885796e-01 2.404425e-01 3.549006e-01 4.684038e-01 4.521978e-01 6.254721e-01 7.031360e-01 5.061975e-01 4.509180e-01 4.460000e-01 5.834352e-01
<GCONST> 1.138401e+02
<TRANSP> 5
 0.000000e+00 1.000000e+00 0.000000e+00 0.000000e+00 0.000000e+00
 0.000000e+00 9.578790e-01 4.212096e-02 0.000000e+00 0.000000e+00
 0.000000e+00 0.000000e+00 9.919991e-01 8.000881e-03 0.000000e+00
 0.000000e+00 0.000000e+00 0.000000e+00 9.934857e-01 6.514336e-03
 0.000000e+00 0.000000e+00 0.000000e+00 0.000000e+00 0.000000e+00
<ENDHMM>
~h "cm"
<BEGINHMM>
<NUMSTATES> 5
<STATE> 2
<NUMMIXES> 2
<MIXTURE> 1 6.048912e-01
<MEAN> 39
 -1.358119e+01 -1.090731e+00 -4.435462e+00 -6.344985e+00 -1.088982e-01 8.582939e-01 -1.124400e+00 1.103924e+00 -9.932781e-01 1.450137e+00 3.223844e+00 6.202834e-01 5.889711e+01 -1.973369e-02 1.185812e-02 7.073868e-02 1.568481e-01 2.635074e-01 2.961555e-01 2.577352e-01 2.281683e-01 1.560803e-01 9.129556e-02 3.442837e-02 -1.264307e-02 4.005249e-02 5.842207e-03 1.655154e-03 3.133544e-03 -3.369588e-03 -2.359883e-02 -3.735944e-02 -2.906579e-02 -2.464137e-02 -9.447882e-03 -1.435495e-03 -7.714867e-04 -2.918035e-03 3.170212e-03
<VARIANCE> 39
 7.256751e+00 1.335643e+01 1.258737e+01 1.328152e+01 1.421777e+01 1.591729e+01 1.879556e+01 1.763835e+01 1.788971e+01 1.628180e+01 1.771550e+01 1.635814e+01 1.724454e+01 1.433858e-01 2.756842e-01 4.382685e-01 6.299450e-01 8.145988e-01 9.789806e-01 1.108559e+00 1.243096e+00 1.297580e+00 1.274866e+00 1.282565e+00 1.191405e+00 9.855285e-02 2.327186e-02 4.801168e-02 8.261382e-02 1.269105e-01 1.738307e-01 2.138010e-01 2.411136e-01 2.655127e-01 2.678469e-01 2.612626e-01 2.564147e-01 2.411765e-01 8.816997e-03
<GCONST> 7.340405e+01
<MIXTURE> 2 3.951037e-01
<MEAN> 39
 -1.259727e+01 -5.054563e-01 -3.734967e+00 -5.969390e+00 -9.762581e-01 -3.514504e-01 -1.424112e+00 5.900692e-01 -7.602079e-01 1.526009e+00 2.933205e+00 3.753682e-01 5.795046e+01 2.542096e-02 -9.280767e-02 -1.864448e-01 -3.231833e-01 -4.035867e-01 -5.102890e-01 -5.585245e-01 -4.596509e-01 -3.588212e-01 -2.069265e-01 -8.100895e-02 2.297396e-02 3.800659e-01 3.877163e-02 6.109179e-04 -4.329630e-03 1.282934e-02 1.652439e-02 1.891264e-02 2.406036e-02 1.010782e-02 -1.298538e-02 -3.838338e-02 -4.894567e-02 -3.131041e-02 3.142957e-02
<VARIANCE> 39
 1.007708e+01 1.426523e+01 1.371605e+01 1.688787e+01 1.571241e+01 1.741635e+01 2.153471e+01 2.021209e+01 2.013796e+01 1.726370e+01 1.940501e+01 1.740137e+01 2.723949e+01 4.164273e-01 5.290956e-01 6.633491e-01 9.236605e-01 1.055250e+00 1.211133e+00 1.401415e+00 1.533281e+00 1.551335e+00 1.514132e+00 1.566738e+00 1.396474e+00 4.706469e-01 5.688683e-02 8.300328e-02 1.177314e-01 1.747978e-01 2.205187e-01 2.666945e-01 3.049236e-01 3.174197e-01 3.124903e-01 2.909252e-01 2.958702e-01 2.668115e-01 5.599735e-02
<GCONST> 8.642015e+01
<STATE> 3
<NUMMIXES> 2
<MIXTURE> 1 7.305852e-01
<MEAN> 39
 -7.951809e+00 -2.188414e+00 -5.041822e+00 -5.347551e+00 -1.596528e+00 -1.747386e+00 -2.297719e+00 -1.233661e+00 -2.410808e+00 -8.444254e-01 -6.606795e-01 -1.601528e+00 6.666804e+01 8.390493e-02 8.736177e-02 6.419130e-02 1.126635e-01 1.016787e-01 1.229116e-01 9.679297e-02 5.726073e-02 3.826614e-02 3.563926e-02 2.006112e-02 4.437016e-03 -1.471395e-01 -1.324269e-02 -5.321052e-03 -9.664000e-03 -1.605261e-02 -2.003000e-02 -1.975078e-02 -1.436852e-02 -1.095725e-02 -1.380315e-02 -1.812761e-02 -1.312425e-02 -1.339278e-02 -5.825698e-03
<VARIANCE> 39
 1.182008e+01 1.422822e+01 1.320217e+01 1.502765e+01 1.540188e+01 1.537103e+01 1.980896e+01 1.830485e+01 2.012891e+01 1.781004e+01 1.684305e+01 1.451458e+01 7.242673e+01 2.330765e-01 3.353593e-01 4.946555e-01 7.206131e-01 9.021514e-01 1.065786e+00 1.212199e+00 1.307752e+00 1.366559e+00 1.343704e+00 1.308837e+00 1.204715e+00 3.333686e-01 3.419604e-02 6.118369e-02 9.647363e-02 1.413458e-01 1.807802e-01 2.182729e-01 2.506744e-01 2.666743e-01 2.788137e-01 2.782462e-01 2.691170e-01 2.465736e-01 2.510936e-02
<GCONST> 8.056594e+01
<MIXTURE> 2 2.694438e-01
<MEAN> 39
 -8.960191e+00 -2.496247e+00 -5.021161e+00 -6.741678e+00 -2.498975e+00 -2.994735e+00 -3.034044e+00 -1.551684e+00 -2.701732e+00 -1.556723e+00 -1.034719e+00 -2.134581e+00 6.671489e+01 2.353804e-01 -2.119781e-01 -1.617094e-01 -3.111569e-01 -4.156433e-01 -5.186757e-01 -3.452839e-01 -2.697752e-01 -1.691300e-01 -2.407946e-01 -2.960684e-01 -1.414669e-01 1.122453e+00 1.869652e-02 3.280728e-02 3.634167e-02 6.017884e-02 9.765764e-02 1.182796e-01 8.581997e-02 7.221910e-02 6.932379e-02 8.844084e-02 9.143443e-02 6.347193e-02 -8.866145e-02
<VARIANCE> 39
 1.602929e+01 1.932568e+01 1.721032e+01 2.051233e+01 2.079308e+01 1.944563e+01 2.195370e+01 2.189289e+01 2.243647e+01 1.853245e+01 1.795074e+01 1.584010e+01 6.396688e+01 1.111049e+00 1.272628e+00 1.155339e+00 1.544667e+00 1.657989e+00 1.749888e+00 1.841353e+00 1.955118e+00 1.947113e+00 1.790000e+00 1.741615e+00 1.557013e+00 1.634571e+00 1.511922e-01 2.127516e-01 2.093312e-01 2.935790e-01 3.245347e-01 3.511620e-01 3.621694e-01 3.779057e-01 3.808701e-01 3.428765e-01 3.332354e-01 2.977286e-01 3.470399e-01
<GCONST> 1.015135e+02
<STATE> 4
<NUMMIXES> 2
<MIXTURE> 1 4.744082e-01
<MEAN> 39
 -5.619017e+00 1.593258e+00 -1.776075e+00 -2.952753e+00 8.364363e-01 1.514126e-02 -1.308507e+00 -8.033095e-01 -2.014475e+00 -1.519295e+00 -5.421195e-01 -2.094670e+00 6.220040e+01 1.828250e-02 7.817639e-02 1.029604e-01 1.224473e-01 1.124693e-01 9.713617e-02 9.761374e-02 5.344900e-02 2.947608e-02 1.364450e-02 1.425192e-02 -1.666108e-03 -3.592247e-01 -2.940367e-03 -2.399959e-02 -5.224515e-02 -8.238886e-02 -1.071694e-01 -1.077342e-01 -8.429169e-02 -5.567178e-02 -4.094700e-02 -3.253392e-02 -2.914926e-02 -1.377285e-02 2.065335e-02
<VARIANCE> 39
 1.467400e+01 9.603539e+00 9.696751e+00 1.011356e+01 1.061283e+01 1.207103e+01 1.577837e+01 1.823370e+01 1.891691e+01 1.647286e+01 1.487143e+01 1.319302e+01 5.956945e+01 1.785076e-01 2.774948e-01 4.328721e-01 6.522779e-01 8.525475e-01 1.019312e+00 1.168920e+00 1.267529e+00 1.341668e+00 1.310296e+00 1.263419e+00 1.157066e+00 1.791621e-01 2.488577e-02 4.748292e-02 7.842302e-02 1.188334e-01 1.560891e-01 1.912944e-01 2.268783e-01 2.510339e-01 2.671220e-01 2.610635e-01 2.492946e-01 2.305497e-01 1.260701e-02
<GCONST> 7.435513e+01
<MIXTURE> 2 5.255269e-01
<MEAN> 39
 -5.053495e+00 -1.130311e+00 -5.256586e+00 -7.079601e+00 -3.475060e+00 -3.828043e+00 -4.114121e+00 -2.370444e+00 -3.005283e+00 -2.421506e+00 -1.765268e+00 -2.635696e+00 7.184969e+01 5.185737e-02 -3.919827e-03 1.022192e-02 1.902869e-02 -9.406433e-04 -2.724792e-02 -2.749272e-02 -5.221525e-02 -2.282236e-02 -1.917859e-02 -3.124222e-03 1.215033e-02 -6.959607e-02 -7.999010e-03 2.001142e-02 4.847669e-02 7.560489e-02 9.929385e-02 1.015690e-01 8.044636e-02 5.453784e-02 4.039483e-02 3.606686e-02 3.259863e-02 1.572705e-02 -3.363457e-02
<VARIANCE> 39
 5.263368e+00 8.183068e+00 8.212351e+00 1.094389e+01 1.039949e+01 1.031651e+01 1.343945e+01 1.564502e+01 1.642426e+01 1.457404e+01 1.395115e+01 1.223662e+01 3.601003e+01 1.825647e-01 2.954597e-01 4.744623e-01 7.144831e-01 8.868615e-01 1.019649e+00 1.167779e+00 1.253360e+00 1.294893e+00 1.267983e+00 1.218410e+00 1.126088e+00 3.392729e-01 3.098689e-02 5.444678e-02 8.874789e-02 1.319969e-01 1.623162e-01 1.909926e-01 2.273807e-01 2.474600e-01 2.588696e-01 2.560458e-01 2.474967e-01 2.293697e-01 2.878520e-02
<GCONST> 7.386049e+01
<TRANSP> 5
 0.000000e+00 1.000000e+00 0.000000e+00 0.000000e+00 0.000000e+00
 0.000000e+00 9.651293e-01 3.487063e-02 0.000000e+00 0.000000e+00
 0.000000e+00 0.000000e+00 9.660193e-01 3.398065e-02 0.000000e+00
 0.000000e+00 0.000000e+00 0.000000e+00 9.837389e-01 1.626111e-02
 0.000000e+00 0.000000e+00 0.000000e+00 0.000000e+00 0.000000e+00
<ENDHMM>
~h "co"
<BEGINHMM>
<NUMSTATES> 5
<STATE> 2
<NUMMIXES> 2
<MIXTURE> 1 6.644185e-01
<MEAN> 39
 -9.776899e+00 -6.376522e+00 2.587368e-01 -4.454712e+00 -9.935493e+00 -6.072931e+00 -3.771023e+00 -1.643574e+00 -3.766284e+00 -6.053596e+00 -4.296945e+00 -6.409184e+00 7.052776e+01 -5.873646e-01 2.032104e-01 6.506669e-02 7.555498e-03 5.659345e-01 -7.663311e-02 3.818611e-01 -4.423562e-01 -4.028085e-01 -9.479479e-02 3.118219e-01 2.122538e-01 1.126519e+00 1.662563e-01 -1.796046e-01 -1.955540e-01 1.376706e-01 6.319563e-02 8.186220e-02 -4.012417e-02 7.701167e-02 1.993777e-01 2.335860e-01 8.857033e-02 2.918940e-02 -4.485505e-01
<VARIANCE> 39
 1.822094e+01 2.028170e+01 2.425816e+01 2.757850e+01 4.388356e+01 4.844035e+01 5.798281e+01 6.602014e+01 4.249355e+01 3.558410e+01 3.943770e+01 2.750252e+01 7.812797e+01 6.342762e-01 1.182808e+00 1.371357e+00 1.434368e+00 1.781265e+00 2.028478e+00 2.546962e+00 2.148919e+00 2.313735e+00 2.405490e+00 1.924787e+00 1.815715e+00 1.241556e+00 9.661976e-02 1.675426e-01 2.286477e-01 2.512887e-01 2.925695e-01 3.634277e-01 4.102116e-01 3.751761e-01 4.015022e-01 3.745859e-01 3.670776e-01 3.149819e-01 2.009111e-01
<GCONST> 1.084841e+02
<MIXTURE> 2 3.355818e-01
<MEAN> 39
 -6.485900e+00 -7.900521e+00 -2.384134e+00 -2.946471e+00 -9.911571e+00 -3.505913e+00 -3.032178e+00 1.778765e+00 9.355937e-01 -9.830714e-01 -1.769795e+00 -5.638308e+00 5.920737e+01 -4.942707e-01 -6.484299e-01 3.964980e-01 -8.638690e-01 -1.858048e+00 -1.676311e+00 -1.122681e+00 -1.028979e+00 -1.144645e+00 -1.211133e+00 -9.110844e-01 -7.676170e-01 3.917768e+00 -1.865327e-01 3.999326e-01 1.530256e-01 -6.580612e-02 4.055451e-01 1.362053e-01 2.670815e-01 -2.900727e-02 -2.334081e-01 -1.385236e-01 6.406593e-02 9.641935e-02 1.201453e-01
<VARIANCE> 39
 2.015740e+01 4.722389e+01 2.651822e+01 3.666663e+01 9.349895e+01 6.022929e+01 9.884370e+01 6.306820e+01 4.867816e+01 4.331454e+01 3.430421e+01 3.739830e+01 9.929194e+01 1.783361e+00 4.231409e+00 2.728663e+00 3.445351e+00 5.550688e+00 3.977593e+00 5.059734e+00 4.481783e+00 4.402965e+00 3.243427e+00 2.691256e+00 2.594107e+00 3.361534e+00 2.048328e-01 5.930353e-01 3.384170e-01 4.799438e-01 9.236324e-01 7.641913e-01 9.694616e-01 6.148871e-01 6.390613e-01 5.551187e-01 5.099570e-01 5.074072e-01 7.570146e-01
<GCONST> 1.310324e+02
<STATE> 3
<NUMMIXES> 2
<MIXTURE> 1 7.660127e-01
<MEAN> 39
 -6.711052e+00 -7.686713e+00 -1.986117e+00 -3.604128e+00 -6.473697e+00 -8.304697e+00 -7.093872e+00 -6.517473e+00 -4.084517e+00 -3.725940e+00 -3.365368e+00 -7.870364e+00 6.772054e+01 2.299502e-01 5.525842e-02 4.695312e-02 1.653108e-01 3.252149e-01 6.943423e-02 -9.441013e-03 -1.136701e-01 4.774197e-02 1.374346e-01 5.701179e-02 8.295600e-03 -6.071917e-01 1.801007e-02 2.183259e-02 2.138358e-02 1.553028e-02 -2.295127e-02 2.239399e-03 -1.514936e-02 -1.162392e-02 -4.120987e-02 -5.022221e-02 -3.655167e-02 -8.675785e-03 -1.658518e-02
<VARIANCE> 39
 2.009614e+01 1.380937e+01 2.587131e+01 2.351253e+01 2.340848e+01 2.896116e+01 5.035996e+01 5.680855e+01 3.820456e+01 4.020621e+01 3.623567e+01 3.648903e+01 4.257743e+01 1.825111e-01 3.681059e-01 6.025406e-01 7.410706e-01 1.056444e+00 1.184769e+00 1.518051e+00 1.685746e+00 1.799332e+00 1.734578e+00 1.512059e+00 1.437011e+00 1.312786e-01 3.830361e-02 7.423906e-02 1.129000e-01 1.555728e-01 2.153643e-01 2.417313e-01 3.084805e-01 3.421105e-01 3.797470e-01 3.588665e-01 3.155514e-01 2.940796e-01 2.347789e-02
<GCONST> 9.077763e+01
<MIXTURE> 2 2.340165e-01
<MEAN> 39
 -6.662937e+00 -8.173557e+00 -1.499365e+00 -2.650328e+00 -8.781487e+00 -8.060240e+00 -7.506015e+00 -7.168717e+00 -3.790689e+00 -4.137926e+00 -4.852529e+00 -8.427964e+00 6.738297e+01 -2.809118e-01 -1.383500e-01 -2.415316e-02 -3.332488e-01 -6.940771e-01 -1.525929e-01 -2.290331e-01 1.952092e-01 -6.286501e-02 -3.089520e-01 -2.042544e-01 -1.519073e-01 1.188356e+00 -4.286806e-02 -3.281454e-02 -1.738416e-02 -3.321034e-02 8.029440e-02 2.462445e-02 7.106620e-02 7.013357e-02 1.304727e-01 1.401906e-01 9.693877e-02 2.706556e-02 9.136320e-03
<VARIANCE> 39
 1.566446e+01 2.378426e+01 3.020133e+01 2.819900e+01 3.746816e+01 3.489194e+01 5.360175e+01 7.183089e+01 5.768514e+01 4.184214e+01 4.304011e+01 3.779795e+01 5.799831e+01 1.199703e+00 2.272907e+00 1.825159e+00 2.276784e+00 3.351643e+00 2.698220e+00 4.273643e+00 4.164528e+00 5.206227e+00 3.535726e+00 3.300637e+00 2.648232e+00 2.576226e+00 1.407375e-01 4.367020e-01 2.940538e-01 4.061814e-01 6.806377e-01 4.692658e-01 6.327775e-01 7.023504e-01 9.866000e-01 6.545227e-01 5.961240e-01 4.363753e-01 5.325499e-01
<GCONST> 1.232754e+02
<STATE> 4
<NUMMIXES> 2
<MIXTURE> 1 7.874905e-01
<MEAN> 39
 -3.973512e+00 -2.899374e+00 3.051518e+00 1.122597e+00 1.928025e-01 -2.774369e+00 -4.303714e+00 -3.203193e+00 -2.337061e+00 -3.803935e+00 -3.265204e+00 -6.351247e+00 5.534607e+01 8.612841e-02 2.271093e-01 -5.655097e-03 4.760605e-02 1.841937e-01 1.910274e-01 1.924113e-01 1.820271e-01 7.509552e-03 3.483037e-02 -1.254782e-02 4.740636e-02 -5.027767e-01 -7.172785e-03 -9.186219e-03 -1.937884e-02 -1.400725e-02 -3.348725e-02 -5.971362e-03 -1.300012e-02 1.920651e-03 -9.002025e-04 -1.283678e-03 -3.329582e-03 -7.026582e-03 1.484178e-02
<VARIANCE> 39
 1.518949e+01 2.250138e+01 1.753727e+01 2.178305e+01 2.132245e+01 2.852268e+01 4.591600e+01 4.217830e+01 3.004721e+01 2.896615e+01 2.508045e+01 2.365518e+01 5.079425e+01 1.855510e-01 3.130537e-01 5.029695e-01 7.152050e-01 9.077606e-01 1.060654e+00 1.224863e+00 1.322475e+00 1.406146e+00 1.474079e+00 1.419957e+00 1.295602e+00 1.144175e-01 2.721836e-02 5.628040e-02 9.328980e-02 1.358756e-01 1.775780e-01 2.087840e-01 2.354011e-01 2.545281e-01 2.795680e-01 2.924413e-01 2.837373e-01 2.604201e-01 9.561134e-03
<GCONST> 8.354701e+01
<MIXTURE> 2 2.125258e-01
<MEAN> 39
 -5.372828e+00 -7.334731e+00 1.713066e-01 -6.476744e-01 -5.314604e+00 -2.224680e+00 -1.020064e+01 -3.213334e+00 -2.305300e+00 -6.520655e+00 -4.002184e+00 -8.930343e+00 6.411612e+01 -1.860955e-01 -2.642457e-01 1.264172e-01 -1.534569e-03 -2.148198e-01 -2.241064e-01 -3.145508e-01 -1.740702e-01 -2.840017e-02 -1.826664e-01 -5.710087e-03 -4.680254e-02 7.509858e-01 1.278426e-03 2.415818e-02 3.141349e-02 1.293053e-02 7.176695e-02 -6.302019e-03 4.812967e-02 -1.289962e-03 8.442572e-03 1.131376e-02 1.244496e-02 1.808831e-02 -1.411912e-02
<VARIANCE> 39
 1.273766e+01 3.815107e+01 2.796298e+01 2.369149e+01 4.129980e+01 4.746519e+01 7.807185e+01 5.324356e+01 3.848200e+01 6.463168e+01 4.343369e+01 4.251447e+01 7.455878e+01 6.691564e-01 1.825810e+00 1.411210e+00 1.421751e+00 2.967200e+00 2.148664e+00 3.895209e+00 3.015745e+00 2.661709e+00 2.777674e+00 2.455994e+00 2.510770e+00 2.461772e+00 1.031818e-01 3.096606e-01 2.487108e-01 2.655687e-01 5.366114e-01 3.982847e-01 7.059035e-01 5.286799e-01 5.121945e-01 5.477682e-01 4.773507e-01 4.845818e-01 3.371977e-01
<GCONST> 1.173459e+02
<TRANSP> 5
 0.000000e+00 1.000000e+00 0.000000e+00 0.000000e+00 0.000000e+00
 0.000000e+00 8.849679e-01 1.150322e-01 0.000000e+00 0.000000e+00
 0.000000e+00 0.000000e+00 9.850576e-01 1.494243e-02 0.000000e+00
 0.000000e+00 0.000000e+00 0.000000e+00 9.791834e-01 2.081662e-02
 0.000000e+00 0.000000e+00 0.000000e+00 0.000000e+00 0.000000e+00
<ENDHMM>
~h "ds"
<BEGINHMM>
<NUMSTATES> 5
<STATE> 2
<NUMMIXES> 2
<MIXTURE> 1 5.766024e-01
<MEAN> 39
 -1.301035e+01 -3.628787e-01 1.298079e+00 -1.412787e-02 1.379851e+00 -5.682335e-01 5.381866e+00 8.403767e-01 2.590440e+00 1.306765e+00 2.939010e+00 8.794017e-01 6.447733e+01 2.958828e-01 1.823918e-01 2.433035e-01 3.386917e-01 2.600212e-01 2.521825e-01 1.299019e-01 1.140230e-01 7.481124e-02 9.209086e-02 7.263105e-02 8.611793e-02 -2.461733e-01 -8.071584e-02 -6.593309e-02 -9.037155e-02 -4.847032e-02 -7.348352e-02 -5.369576e-02 -8.484662e-02 -3.813351e-02 -1.408676e-02 8.972972e-04 -5.577085e-02 -2.529273e-02 -3.168034e-02
<VARIANCE> 39
 1.950856e+01 1.772587e+01 1.305678e+01 1.848644e+01 1.810651e+01 1.938109e+01 2.558610e+01 3.304151e+01 2.574572e+01 2.063463e+01 1.748930e+01 1.544413e+01 1.030395e+02 4.259987e-01 5.474057e-01 7.474503e-01 1.037844e+00 1.236400e+00 1.535792e+00 1.694406e+00 1.846722e+00 1.642070e+00 1.641507e+00 1.560663e+00 1.315569e+00 5.248584e-01 1.267300e-01 1.198323e-01 1.481564e-01 2.009124e-01 2.552494e-01 2.946383e-01 3.358343e-01 3.663033e-01 3.415359e-01 3.343639e-01 3.219564e-01 2.684006e-01 2.171360e-01
<GCONST> 9.472710e+01
<MIXTURE> 2 4.234084e-01
<MEAN> 39
 -1.556630e+01 -1.291389e+00 -1.586442e+00 -1.538951e+00 -2.025872e+00 -1.954785e+00 2.311440e+00 -6.871783e-01 2.718095e+00 2.027050e+00 1.976712e+00 8.912768e-01 6.738551e+01 -8.063686e-01 -6.168363e-02 -3.854204e-01 -5.137888e-01 -7.222369e-01 -5.662471e-01 -3.445195e-01 -1.863413e-01 -4.786579e-02 2.047315e-01 2.229652e-01 1.358905e-01 2.304118e+00 2.661366e-01 1.247601e-01 1.595018e-01 1.524300e-01 1.981857e-01 1.041255e-01 1.314682e-01 6.322788e-02 2.980756e-02 -3.514182e-02 7.427351e-02 1.929876e-02 -3.055643e-01
<VARIANCE> 39
 2.595378e+01 1.479801e+01 1.561474e+01 2.095496e+01 2.951579e+01 2.352483e+01 2.727493e+01 2.791372e+01 2.305069e+01 2.369121e+01 2.145130e+01 1.691920e+01 1.293123e+02 3.087307e+00 1.697787e+00 1.871266e+00 2.099686e+00 2.769830e+00 2.534180e+00 3.113492e+00 2.667007e+00 2.523797e+00 2.295383e+00 2.340733e+00 1.824255e+00 1.036731e+01 4.705642e-01 2.362205e-01 2.681780e-01 4.274586e-01 4.956028e-01 4.959198e-01 5.104313e-01 4.890268e-01 4.408508e-01 4.070966e-01 4.033473e-01 3.188724e-01 2.009423e+00
<GCONST> 1.160685e+02
<STATE> 3
<NUMMIXES> 2
<MIXTURE> 1 3.984265e-01
<MEAN> 39
 -9.617484e+00 4.107169e+00 4.361289e+00 5.339308e+00 5.983325e+00 2.681002e+00 6.372424e+00 4.625769e-01 3.995723e+00 1.933105e+00 3.349557e+00 1.574541e+00 6.762395e+01 2.463053e-01 -1.932200e-03 5.256374e-02 -2.687075e-02 8.793009e-02 8.941144e-02 1.075642e-01 5.037972e-02 5.034291e-03 -3.456030e-02 -4.387099e-02 -7.162867e-02 -7.389154e-01 -7.839839e-03 -2.058444e-02 -4.050663e-02 -5.662950e-02 -5.851213e-02 -4.341664e-02 -4.173140e-02 -2.449689e-02 -1.781192e-02 -1.640645e-02 -1.722093e-02 -1.982397e-02 3.699973e-03
<VARIANCE> 39
 1.295788e+01 7.129586e+00 6.357895e+00 7.038831e+00 1.000240e+01 1.245896e+01 1.399312e+01 1.352625e+01 1.464687e+01 1.417780e+01 1.320965e+01 1.302063e+01 4.914180e+01 1.333196e-01 2.608844e-01 4.244218e-01 6.181837e-01 8.330407e-01 1.032202e+00 1.170785e+00 1.228473e+00 1.339442e+00 1.325769e+00 1.257372e+00 1.158164e+00 7.205731e-02 2.592566e-02 5.070160e-02 8.568132e-02 1.244057e-01 1.702976e-01 2.117918e-01 2.391055e-01 2.502354e-01 2.750972e-01 2.694046e-01 2.549570e-01 2.353526e-01 1.189813e-02
<GCONST> 7.112537e+01
<MIXTURE> 2 6.015556e-01
<MEAN> 39
 -1.458558e+01 -7.344357e-01 -2.211549e+00 -8.261053e-01 -1.399401e+00 -3.231102e+00 1.784349e-01 -2.962259e+00 1.533533e+00 2.661516e+00 3.565761e+00 4.567958e-02 6.815824e+01 3.130483e-01 6.898067e-03 1.250627e-01 1.581220e-01 4.775620e-01 1.638424e-01 4.718160e-02 -1.285489e-01 -1.158249e-01 -1.029202e-01 -3.876893e-02 -2.247311e-01 -7.131209e-01 6.720531e-03 3.913377e-03 9.313173e-03 -2.489982e-03 1.741745e-02 5.560875e-02 5.532781e-02 3.447556e-02 8.953801e-03 2.263082e-03 -2.103001e-02 -3.821579e-03 5.473023e-04
<VARIANCE> 39
 5.248858e+00 4.761979e+00 5.586291e+00 9.401007e+00 1.952194e+01 1.254526e+01 1.314269e+01 1.509315e+01 1.492428e+01 1.508372e+01 1.446497e+01 1.525112e+01 2.391053e+01 1.346987e-01 2.727659e-01 4.459253e-01 7.064187e-01 1.013358e+00 1.140856e+00 1.267206e+00 1.375786e+00 1.398415e+00 1.476374e+00 1.433237e+00 1.275252e+00 5.708854e-02 2.882722e-02 5.574610e-02 9.311268e-02 1.432902e-01 2.106187e-01 2.366457e-01 2.584723e-01 2.806164e-01 2.866981e-01 3.043734e-01 2.980617e-01 2.663262e-01 1.239343e-02
<GCONST> 7.260629e+01
<STATE> 4
<NUMMIXES> 2
<MIXTURE> 1 7.493481e-01
<MEAN> 39
 -9.306056e+00 9.935703e-01 1.876806e+00 -1.469631e-02 3.064813e+00 1.118891e+00 3.426091e+00 1.173736e+00 2.401110e+00 -2.231253e-01 1.643728e+00 -7.199551e-01 5.381314e+01 1.135632e-01 4.391658e-02 6.930506e-02 4.415086e-02 8.161911e-02 9.824442e-02 5.155638e-02 7.441484e-02 1.670929e-02 2.259104e-02 -1.964690e-04 3.559760e-03 -2.823460e-01 -1.908688e-02 -1.485604e-02 -2.567671e-02 -2.979884e-02 -3.401928e-02 -3.275010e-02 -3.398342e-02 -2.073236e-02 -9.310627e-03 -4.650257e-03 -4.691966e-03 -2.959281e-03 1.824842e-02
<VARIANCE> 39
 1.425613e+01 1.133688e+01 1.596982e+01 1.701945e+01 1.756165e+01 2.141442e+01 2.430187e+01 1.943819e+01 2.456239e+01 2.259592e+01 1.690665e+01 1.547064e+01 4.552636e+01 2.114246e-01 3.006127e-01 4.934798e-01 7.062105e-01 9.161648e-01 1.146420e+00 1.314809e+00 1.370379e+00 1.457412e+00 1.462256e+00 1.343498e+00 1.189970e+00 1.573525e-01 3.400956e-02 5.648550e-02 9.424907e-02 1.389460e-01 1.799442e-01 2.253317e-01 2.612460e-01 2.745773e-01 2.931194e-01 2.972039e-01 2.722778e-01 2.412873e-01 1.648399e-02
<GCONST> 8.066447e+01
<MIXTURE> 2 2.508874e-01
<MEAN> 39
 -1.098872e+01 -6.860146e-01 -9.123054e-01 -2.256860e+00 9.850909e-01 -1.125295e+00 1.689262e+00 -3.106794e-01 1.715562e+00 -3.528261e-01 1.426236e+00 -1.046688e+00 5.676215e+01 -2.671711e-01 -8.972058e-02 -1.313461e-01 -8.635958e-02 -2.189050e-01 -2.325631e-01 -7.015323e-02 -1.269753e-01 -5.923510e-04 -8.525225e-02 -3.059089e-02 2.452479e-02 7.158080e-01 5.080147e-02 4.553942e-02 7.745997e-02 9.408438e-02 9.976947e-02 9.290614e-02 9.403292e-02 5.603240e-02 2.805029e-02 1.901085e-02 2.104784e-02 1.386398e-02 -4.824045e-02
<VARIANCE> 39
 2.325322e+01 1.691205e+01 1.955018e+01 2.092137e+01 2.328701e+01 2.648317e+01 2.866000e+01 2.663375e+01 2.799527e+01 2.536679e+01 2.104600e+01 1.914043e+01 5.953683e+01 1.590013e+00 1.212597e+00 1.307003e+00 1.655518e+00 1.900156e+00 2.231143e+00 2.365285e+00 2.228451e+00 2.319945e+00 2.147295e+00 1.870273e+00 1.628114e+00 2.184809e+00 2.801629e-01 2.158295e-01 2.296765e-01 3.033704e-01 3.663211e-01 4.303890e-01 4.416468e-01 4.352340e-01 4.359544e-01 4.085230e-01 3.641573e-01 3.233173e-01 3.954365e-01
<GCONST> 1.076555e+02
<TRANSP> 5
 0.000000e+00 1.000000e+00 0.000000e+00 0.000000e+00 0.000000e+00
 0.000000e+00 9.418098e-01 5.819019e-02 0.000000e+00 0.000000e+00
 0.000000e+00 0.000000e+00 9.547620e-01 4.523803e-02 0.000000e+00
 0.000000e+00 0.000000e+00 0.000000e+00 9.929035e-01 7.096451e-03
 0.000000e+00 0.000000e+00 0.000000e+00 0.000000e+00 0.000000e+00
<ENDHMM>
~h "kj"
<BEGINHMM>
<NUMSTATES> 5
<STATE> 2
<NUMMIXES> 2
<MIXTURE> 1 6.698619e-01
<MEAN> 39
 -1.973723e+01 3.742717e+00 -3.772868e-01 -2.780336e+00 -1.095574e+00 3.652985e+00 2.355555e+00 4.094474e+00 1.777647e+00 -2.088649e-01 1.262185e+00 -9.370357e-01 5.541329e+01 2.534493e-01 7.004039e-02 -5.453673e-02 -1.791553e-02 4.856341e-02 6.545611e-02 7.226545e-02 6.634896e-02 1.774704e-02 3.072019e-02 2.402903e-02 -2.391035e-02 -2.276708e-01 -2.267859e-02 -1.049657e-02 -1.169278e-02 -4.219362e-03 -1.995700e-02 -2.254225e-02 -1.864931e-02 -1.457160e-02 -2.429779e-02 -1.785639e-04 -1.099360e-03 -2.183937e-03 1.747892e-02
<VARIANCE> 39
 3.124011e+01 2.108723e+01 1.474235e+01 2.633123e+01 1.603735e+01 3.100785e+01 2.788486e+01 2.009148e+01 1.918428e+01 2.029572e+01 1.649285e+01 1.619388e+01 2.138817e+01 3.013225e-01 3.287891e-01 5.310728e-01 7.615920e-01 9.730440e-01 1.200260e+00 1.371710e+00 1.430505e+00 1.439988e+00 1.482209e+00 1.380230e+00 1.231813e+00 1.356248e-01 5.934954e-02 6.369627e-02 1.038719e-01 1.549129e-01 1.965552e-01 2.429772e-01 2.760456e-01 2.895169e-01 2.945154e-01 3.050461e-01 2.839105e-01 2.522039e-01 2.459336e-02
<GCONST> 8.415734e+01
<MIXTURE> 2 3.302432e-01
<MEAN> 39
 -2.000549e+01 1.028566e+00 -1.645551e+00 -2.924169e+00 -2.029022e+00 2.071274e+00 1.433762e+00 2.517134e+00 5.843487e-01 7.797147e-02 1.101837e+00 -9.799770e-01 5.775288e+01 -5.940597e-01 -9.893293e-02 1.254010e-01 2.742489e-02 -1.093894e-01 -1.197267e-01 -1.335535e-01 -1.390370e-01 -3.223450e-02 -6.246466e-02 -4.595103e-02 4.851359e-02 4.957379e-01 5.165692e-02 1.402511e-02 2.324654e-02 9.756017e-03 3.798490e-02 4.191225e-02 3.537881e-02 2.856105e-02 4.714905e-02 3.085639e-03 1.866234e-03 4.986886e-03 -3.433317e-02
<VARIANCE> 39
 3.644242e+01 3.171986e+01 2.604970e+01 2.676793e+01 1.928604e+01 3.809497e+01 3.099067e+01 2.644516e+01 2.242662e+01 2.176863e+01 1.818820e+01 1.672735e+01 2.816982e+01 9.377044e-01 1.092394e+00 1.245661e+00 1.272400e+00 1.531570e+00 1.881727e+00 1.966026e+00 1.980778e+00 1.925831e+00 1.834744e+00 1.668375e+00 1.498845e+00 6.526377e-01 2.061493e-01 1.980616e-01 2.258513e-01 2.372596e-01 2.847916e-01 3.573945e-01 3.783419e-01 3.882498e-01 3.722253e-01 3.595845e-01 3.280647e-01 2.937537e-01 1.452132e-01
<GCONST> 1.018788e+02
<STATE> 3
<NUMMIXES> 2
<MIXTURE> 1 7.339263e-01
<MEAN> 39
 -1.432508e+01 -8.730010e+00 -5.543689e+00 -2.093926e+00 -1.796718e+00 -4.562436e+00 -2.594316e+00 -2.891944e+00 -1.259511e+00 7.219055e-03 6.402062e-01 1.816330e-02 6.394846e+01 2.196078e-01 2.971908e-01 6.792416e-02 1.341819e-01 1.155818e-01 1.461923e-01 1.449533e-01 1.197504e-01 4.207983e-02 5.099442e-02 2.152230e-02 -4.971834e-03 -6.327214e-01 -2.647102e-02 1.226728e-02 3.994324e-02 -4.846700e-03 -3.002502e-03 2.217081e-02 2.189757e-02 3.704476e-02 5.756861e-03 4.120823e-03 -1.006111e-04 -9.319174e-03 2.617954e-03
<VARIANCE> 39
 1.760652e+01 2.562949e+01 1.192413e+01 1.350392e+01 1.677590e+01 1.687862e+01 2.091159e+01 2.043049e+01 1.919178e+01 1.650723e+01 1.523461e+01 1.326239e+01 6.810342e+01 2.184725e-01 3.492497e-01 5.338739e-01 7.271863e-01 9.353108e-01 1.156173e+00 1.342294e+00 1.415997e+00 1.468405e+00 1.387842e+00 1.297429e+00 1.183127e+00 1.584842e-01 3.998717e-02 7.063171e-02 1.086860e-01 1.459449e-01 1.911022e-01 2.371934e-01 2.773257e-01 2.899774e-01 3.057125e-01 2.874631e-01 2.690332e-01 2.430791e-01 3.203568e-02
<GCONST> 8.213390e+01
<MIXTURE> 2 2.660903e-01
<MEAN> 39
 -1.701623e+01 -8.348551e+00 -4.278374e+00 -3.021624e+00 -3.296778e+00 -3.205946e+00 -1.992961e+00 -1.187890e+00 -5.864385e-01 1.110175e-01 7.383761e-01 -5.609062e-01 6.592420e+01 -2.143365e-01 -1.278327e+00 -3.089400e-01 -2.503324e-01 -2.199594e-01 -6.586530e-01 -5.114638e-01 -5.027807e-01 -1.766756e-01 -1.174874e-01 -8.679307e-02 4.541214e-02 1.735018e+00 7.312769e-02 5.037888e-02 -5.941197e-02 1.773788e-02 3.683617e-02 4.215235e-03 1.837682e-02 -5.505209e-02 -1.696195e-03 -3.605020e-03 -4.340640e-03 2.452512e-03 -9.901559e-02
<VARIANCE> 39
 2.256755e+01 6.376167e+01 2.356356e+01 2.402550e+01 2.072127e+01 2.967988e+01 3.014569e+01 2.531891e+01 2.061382e+01 1.993930e+01 1.919227e+01 1.686408e+01 9.184491e+01 1.585094e+00 4.933549e+00 2.364958e+00 1.696040e+00 1.921629e+00 2.719832e+00 2.824265e+00 2.466652e+00 2.013427e+00 1.946369e+00 1.739782e+00 1.722985e+00 3.894985e+00 2.488304e-01 1.000787e+00 4.183849e-01 3.220617e-01 3.525672e-01 5.149031e-01 5.178132e-01 4.641761e-01 3.904704e-01 3.847059e-01 3.427573e-01 3.372966e-01 9.930249e-01
<GCONST> 1.149426e+02
<STATE> 4
<NUMMIXES> 2
<MIXTURE> 1 7.653685e-01
<MEAN> 39
 -2.314562e+01 1.905088e+00 3.045496e+00 1.713218e+00 -2.680830e+00 6.894651e-01 8.338614e+00 5.736325e-01 -2.498114e+00 5.489989e+00 5.323025e-01 -4.074159e+00 5.589972e+01 7.595117e-02 6.442632e-02 2.522277e-02 -2.546701e-02 1.683060e-02 3.333490e-02 2.064531e-02 1.624124e-02 1.670397e-02 -4.678354e-03 -9.638315e-03 -1.526776e-02 -9.643029e-02 2.662216e-04 -1.287086e-02 -1.898147e-02 -1.481903e-02 -1.436549e-02 -2.723648e-02 -3.520869e-02 -8.527236e-03 -4.570749e-03 -1.601106e-02 7.552764e-04 1.329907e-02 5.366876e-03
<VARIANCE> 39
 2.381571e+01 1.196366e+01 1.031739e+01 1.555058e+01 1.550015e+01 1.683879e+01 2.261080e+01 1.828281e+01 1.977319e+01 2.010910e+01 1.702199e+01 1.412911e+01 1.779873e+01 3.878936e-01 4.885512e-01 5.825416e-01 8.592911e-01 1.079754e+00 1.245455e+00 1.554710e+00 1.490747e+00 1.555198e+00 1.675390e+00 1.432156e+00 1.267327e+00 2.335656e-01 6.937956e-02 9.315661e-02 1.102840e-01 1.674253e-01 2.103972e-01 2.454420e-01 3.010291e-01 2.983735e-01 3.165669e-01 3.383254e-01 2.877533e-01 2.552399e-01 3.916006e-02
<GCONST> 8.473235e+01
<MIXTURE> 2 2.347140e-01
<MEAN> 39
 -1.638010e+01 -4.377145e+00 -2.516345e+00 -1.532197e+00 -2.868481e+00 -3.738815e+00 1.382701e+00 -1.381805e+00 -1.999956e+00 2.167455e+00 5.454417e-01 -1.236888e+00 5.897643e+01 -1.307925e-01 -2.064592e-01 -5.690868e-02 6.322911e-02 -1.781341e-02 -9.940641e-02 -5.688862e-02 -1.225491e-02 -2.363494e-02 -1.544167e-02 2.453358e-02 5.770388e-02 2.117026e-01 8.683559e-03 3.844596e-02 5.466847e-02 4.272728e-02 5.010901e-02 8.842447e-02 1.026813e-01 2.721924e-02 1.805999e-02 4.356296e-02 4.401386e-04 -3.873520e-02 -1.980961e-02
<VARIANCE> 39
 4.898699e+01 5.640096e+01 2.368979e+01 2.061032e+01 2.247480e+01 2.565881e+01 3.598463e+01 2.603656e+01 2.178935e+01 2.400796e+01 1.789259e+01 1.731635e+01 6.974716e+01 7.608235e-01 1.755913e+00 1.091731e+00 1.169017e+00 1.375405e+00 1.614321e+00 2.105284e+00 1.760699e+00 1.687670e+00 1.831401e+00 1.493756e+00 1.420549e+00 1.498926e+00 1.122186e-01 2.833380e-01 1.974966e-01 2.176430e-01 2.707238e-01 3.072907e-01 3.915814e-01 3.546735e-01 3.339597e-01 3.573219e-01 2.990528e-01 2.839525e-01 2.137434e-01
<GCONST> 1.029686e+02
<TRANSP> 5
 0.000000e+00 1.000000e+00 0.000000e+00 0.000000e+00 0.000000e+00
 0.000000e+00 9.940596e-01 5.940415e-03 0.000000e+00 0.000000e+00
 0.000000e+00 0.000000e+00 9.732630e-01 2.673696e-02 0.000000e+00
 0.000000e+00 0.000000e+00 0.000000e+00 9.908410e-01 9.158956e-03
 0.000000e+00 0.000000e+00 0.000000e+00 0.000000e+00 0.000000e+00
<ENDHMM>
~h "kn"
<BEGINHMM>
<NUMSTATES> 5
<STATE> 2
<NUMMIXES> 2
<MIXTURE> 1 3.786269e-01
<MEAN> 39
 2.691803e+00 -1.530808e+00 -6.452235e+00 -3.329342e+00 6.838453e-01 -2.554717e+00 -2.966232e-01 -2.183302e+00 1.654337e+00 -3.112632e-01 4.979101e-01 -8.034106e-01 6.095599e+01 3.558646e-01 -1.130792e-02 -3.610268e-01 2.090368e-01 2.333628e-01 -2.739838e-01 3.863920e-01 -3.308023e-01 8.531623e-01 4.445931e-01 5.514399e-01 3.658050e-01 2.462595e+00 -2.391696e-01 2.777431e-01 3.042844e-01 1.113068e-01 1.186440e-01 3.349675e-01 2.073298e-01 2.169738e-01 -5.928001e-02 5.947710e-02 1.408958e-02 1.885643e-02 -6.074413e-01
<VARIANCE> 39
 2.523733e+01 3.322518e+01 2.248725e+01 1.624784e+01 2.336847e+01 2.818739e+01 2.846332e+01 3.500111e+01 2.814876e+01 2.251995e+01 2.144738e+01 1.944930e+01 6.991738e+01 3.650620e+00 2.658402e+00 2.672339e+00 1.484972e+00 1.890600e+00 3.461145e+00 3.409817e+00 3.993857e+00 2.499276e+00 2.400033e+00 2.330731e+00 2.004649e+00 6.561747e+00 4.346832e-01 2.907700e-01 3.068489e-01 2.284496e-01 2.890536e-01 4.443115e-01 4.785417e-01 6.070444e-01 4.886878e-01 4.292104e-01 4.116014e-01 3.453858e-01 9.366581e-01
<GCONST> 1.161991e+02
<MIXTURE> 2 6.213700e-01
<MEAN> 39
 3.486499e-01 5.011376e+00 -6.289291e-01 -2.588657e+00 2.233352e+00 1.480642e+00 1.266038e+00 -2.778684e-01 -2.004577e-01 7.817215e-01 5.038597e-01 -8.775157e-01 5.262601e+01 -8.059823e-02 2.890490e-02 1.012763e-01 5.432140e-02 4.325942e-02 4.965520e-02 -1.694501e-02 -3.247037e-02 -1.131661e-01 -6.930065e-02 -8.617736e-02 -6.042660e-02 -2.291430e-01 1.213810e-01 -9.566545e-02 -1.336686e-01 -3.116003e-02 -3.754245e-02 -1.064994e-01 -1.084122e-01 -6.952309e-02 -1.684343e-02 -5.125000e-02 -1.546062e-02 -6.764649e-03 7.986042e-02
<VARIANCE> 39
 3.032175e+01 1.797823e+01 1.959090e+01 1.138106e+01 2.233197e+01 2.010611e+01 2.771918e+01 3.331485e+01 2.153889e+01 2.012239e+01 2.246434e+01 1.591453e+01 7.325062e+01 5.006632e-01 4.501771e-01 8.038430e-01 8.262102e-01 1.059303e+00 1.325376e+00 1.544757e+00 1.847696e+00 1.495393e+00 1.586011e+00 1.495916e+00 1.277088e+00 4.598822e-01 1.259876e-01 9.881459e-02 1.548731e-01 1.609149e-01 2.112207e-01 2.702624e-01 3.179738e-01 3.574300e-01 3.189299e-01 3.171025e-01 3.026878e-01 2.563727e-01 2.061878e-01
<GCONST> 9.324586e+01
<STATE> 3
<NUMMIXES> 2
<MIXTURE> 1 7.189687e-01
<MEAN> 39
 5.473093e+00 -1.081835e+00 -4.091341e+00 3.605403e-01 3.956301e+00 -4.747292e-01 1.809721e+00 -1.512814e+00 1.679005e+00 6.463333e-01 1.445284e+00 2.787613e-01 6.036783e+01 6.568021e-02 2.452987e-01 2.512533e-01 2.418095e-01 2.275216e-01 2.906853e-01 5.199956e-02 1.310952e-01 -1.492178e-01 4.000895e-02 -1.108930e-02 9.310098e-03 -7.467592e-01 5.427472e-03 -5.677780e-02 -1.224520e-02 -3.999965e-02 -3.650460e-02 -4.843896e-02 -5.242627e-02 -3.487251e-02 -4.348413e-02 -5.735826e-02 -4.706774e-02 -4.653509e-02 4.626347e-03
<VARIANCE> 39
 1.157141e+01 2.108595e+01 1.412824e+01 1.420010e+01 1.879570e+01 2.209793e+01 2.111305e+01 1.935955e+01 2.010257e+01 1.880796e+01 1.629255e+01 1.560881e+01 2.527739e+01 2.072925e-01 3.315986e-01 4.720226e-01 7.222095e-01 9.372115e-01 1.106614e+00 1.316149e+00 1.444310e+00 1.435947e+00 1.432962e+00 1.318403e+00 1.221602e+00 7.301306e-02 4.007493e-02 7.908127e-02 1.091602e-01 1.619177e-01 2.045164e-01 2.450403e-01 2.899480e-01 3.068202e-01 3.129208e-01 3.064370e-01 2.812093e-01 2.575640e-01 9.044367e-02
<GCONST> 8.215218e+01
<MIXTURE> 2 2.810582e-01
<MEAN> 39
 5.545993e+00 -2.571729e+00 -4.342555e+00 -5.701696e-01 2.994251e+00 -1.591808e+00 7.466353e-01 -2.037424e+00 9.797876e-01 -3.591560e-01 6.207067e-01 -5.844078e-01 6.068353e+01 1.075150e-02 -6.226228e-01 -5.210944e-01 -4.461468e-01 -4.662829e-01 -6.485463e-01 -8.225361e-02 -2.641248e-01 2.552881e-01 -1.077885e-01 9.875298e-03 -1.065179e-02 1.533909e+00 -1.947556e-02 1.290252e-01 2.830463e-02 8.551219e-02 7.862505e-02 1.131841e-01 1.087148e-01 8.040779e-02 7.507312e-02 1.239573e-01 9.627351e-02 9.531622e-02 -4.049493e-02
<VARIANCE> 39
 1.216616e+01 2.933653e+01 1.866400e+01 1.779834e+01 2.389142e+01 3.126723e+01 2.585604e+01 2.646252e+01 2.366446e+01 2.266889e+01 1.871081e+01 1.754329e+01 4.369007e+01 8.971755e-01 1.806848e+00 1.260240e+00 1.424924e+00 1.776794e+00 2.351728e+00 2.327029e+00 2.497219e+00 2.185430e+00 2.204024e+00 2.049255e+00 1.733613e+00 2.618953e+00 1.517607e-01 3.817510e-01 2.699195e-01 2.928195e-01 3.537609e-01 5.155541e-01 4.245878e-01 5.050946e-01 4.240783e-01 4.149607e-01 3.856939e-01 3.315522e-01 8.796365e-01
<GCONST> 1.078715e+02
<STATE> 4
<NUMMIXES> 2
<MIXTURE> 1 5.269896e-01
<MEAN> 39
 5.480510e+00 7.615094e-02 -2.343284e+00 1.966440e+00 5.631153e+00 1.735298e+00 2.745593e+00 -3.036912e-01 -1.715569e-01 3.776704e-01 1.229990e+00 -3.441179e-02 5.471641e+01 -1.192074e-01 2.630191e-01 2.600043e-01 8.079852e-02 1.423054e-01 3.466790e-01 -8.559123e-03 2.613540e-01 -3.630266e-02 7.695748e-02 2.894577e-02 -6.082194e-02 -6.061739e-01 -1.782277e-02 2.016265e-02 3.361103e-02 -1.072397e-03 5.293379e-03 3.156090e-02 3.589045e-02 5.860633e-02 6.423798e-02 2.851730e-02 8.041012e-03 -9.317655e-03 3.297653e-02
<VARIANCE> 39
 5.953453e+00 1.098263e+01 1.121725e+01 1.211843e+01 2.160397e+01 2.226294e+01 2.462600e+01 2.017032e+01 2.295210e+01 2.176208e+01 1.838484e+01 1.674946e+01 1.648937e+01 1.320299e-01 2.566077e-01 4.295451e-01 5.786825e-01 8.146398e-01 9.898409e-01 1.192345e+00 1.292962e+00 1.358631e+00 1.375009e+00 1.285535e+00 1.182007e+00 5.364207e-02 1.718291e-02 4.100743e-02 8.318552e-02 1.224777e-01 1.717317e-01 2.062313e-01 2.446029e-01 2.629723e-01 2.799948e-01 2.811039e-01 2.650524e-01 2.419201e-01 4.998142e-03
<GCONST> 7.294181e+01
<MIXTURE> 2 4.729975e-01
<MEAN> 39
 1.078350e+00 3.880191e+00 1.622011e+00 -1.942265e-01 4.123696e+00 3.865734e+00 1.244117e+00 2.281339e+00 -5.397813e-01 -9.602927e-02 -3.240840e-01 -1.851894e+00 4.895591e+01 -2.930513e-01 7.079327e-03 1.259393e-01 -1.220330e-01 -1.766126e-01 9.941924e-03 -3.166670e-02 4.468106e-02 -8.231664e-02 -1.110643e-01 -9.093010e-02 -6.153819e-02 -2.473757e-01 5.087899e-03 -3.837379e-02 -5.088100e-02 -2.111714e-02 -3.409754e-02 -5.534817e-02 -3.534042e-02 -6.838803e-02 -3.693257e-02 -1.685601e-02 1.153147e-02 2.035062e-02 2.205982e-02
<VARIANCE> 39
 2.115952e+01 1.535621e+01 1.347496e+01 1.347384e+01 2.315093e+01 1.821377e+01 2.300827e+01 1.816521e+01 2.046932e+01 2.064368e+01 1.569565e+01 1.494863e+01 2.181885e+01 1.593107e-01 2.966264e-01 4.744924e-01 6.838173e-01 9.204569e-01 1.087205e+00 1.288518e+00 1.346561e+00 1.390247e+00 1.510351e+00 1.426775e+00 1.274728e+00 8.785681e-02 2.441152e-02 4.911631e-02 8.070665e-02 1.275009e-01 1.714770e-01 2.052638e-01 2.447175e-01 2.530588e-01 2.624600e-01 2.954134e-01 2.709274e-01 2.427830e-01 9.438054e-03
<GCONST> 7.723813e+01
<TRANSP> 5
 0.000000e+00 1.000000e+00 0.000000e+00 0.000000e+00 0.000000e+00
 0.000000e+00 9.244158e-01 7.558417e-02 0.000000e+00 0.000000e+00
 0.000000e+00 0.000000e+00 9.843581e-01 1.564190e-02 0.000000e+00
 0.000000e+00 0.000000e+00 0.000000e+00 9.509089e-01 4.909112e-02
 0.000000e+00 0.000000e+00 0.000000e+00 0.000000e+00 0.000000e+00
<ENDHMM>
~h "kt"
<BEGINHMM>
<NUMSTATES> 5
<STATE> 2
<NUMMIXES> 2
<MIXTURE> 1 4.773537e-01
<MEAN> 39
 -1.404206e+01 -3.422531e-01 -7.496746e+00 -2.970290e+00 -9.651551e-01 -1.405624e+00 3.974402e+00 1.955243e+00 2.733573e+00 6.875901e-01 1.053477e+00 -7.333757e-01 5.855867e+01 2.864521e-01 -3.431970e-02 1.667385e-01 1.827394e-01 2.451761e-01 2.347975e-01 2.827570e-01 1.577100e-01 1.436801e-01 8.215308e-02 1.266494e-01 4.416353e-02 -1.953634e-01 2.165706e-01 7.494168e-03 2.621282e-02 4.700059e-02 1.623874e-01 2.476153e-01 2.260185e-01 5.389196e-02 -4.422374e-02 -4.555174e-03 3.397418e-05 -3.146137e-02 -2.455923e-01
<VARIANCE> 39
 1.456920e+01 7.705342e+00 9.361004e+00 1.362558e+01 1.445105e+01 1.493229e+01 1.782080e+01 1.824958e+01 1.977616e+01 1.703833e+01 1.677354e+01 1.482715e+01 2.273112e+01 7.152308e-01 4.034296e-01 5.995812e-01 8.617278e-01 1.153394e+00 1.443051e+00 1.571585e+00 1.517008e+00 1.640780e+00 1.581081e+00 1.460274e+00 1.286052e+00 1.119125e+00 1.956672e-01 9.317289e-02 1.390075e-01 2.006993e-01 2.437997e-01 2.778581e-01 3.146276e-01 3.298196e-01 3.600924e-01 3.518646e-01 3.237511e-01 2.752956e-01 2.283929e-01
<GCONST> 8.953463e+01
<MIXTURE> 2 5.226368e-01
<MEAN> 39
 -9.801824e+00 -1.795417e-01 -7.255440e+00 -2.416122e+00 1.077839e+00 2.911093e+00 7.006970e+00 2.637886e+00 1.564165e+00 4.916438e-01 9.971965e-01 -1.640953e+00 5.355101e+01 -2.770527e-01 3.966878e-02 -1.599496e-01 -1.574198e-01 -2.254827e-01 -2.255603e-01 -2.620575e-01 -1.474186e-01 -1.323320e-01 -8.053684e-02 -1.143993e-01 -4.337735e-02 2.044875e-01 -2.002093e-01 -5.812391e-03 -2.152047e-02 -4.159799e-02 -1.477900e-01 -2.300479e-01 -2.084854e-01 -4.977883e-02 3.967049e-02 3.693709e-03 -7.248758e-04 2.957249e-02 2.263446e-01
<VARIANCE> 39
 1.199489e+01 7.568325e+00 7.383746e+00 9.256181e+00 1.014849e+01 1.291601e+01 1.322676e+01 1.427509e+01 1.485194e+01 1.367267e+01 1.354802e+01 1.256204e+01 1.077326e+01 1.409326e+00 5.656922e-01 6.820343e-01 9.581701e-01 1.175402e+00 1.541103e+00 1.570521e+00 1.577796e+00 1.678506e+00 1.594050e+00 1.519609e+00 1.341891e+00 1.413799e+00 1.658550e-01 9.717771e-02 1.265487e-01 1.709996e-01 2.051161e-01 2.416870e-01 2.665984e-01 3.057009e-01 3.191538e-01 3.086366e-01 2.911419e-01 2.574081e-01 1.467197e-01
<GCONST> 8.594636e+01
<STATE> 3
<NUMMIXES> 2
<MIXTURE> 1 6.341643e-01
<MEAN> 39
 -1.230607e+01 1.538671e+00 -4.285187e+00 -2.049967e-01 8.232645e-01 -1.748563e+00 3.061264e+00 1.483035e+00 1.763772e+00 -8.686744e-01 -1.441433e-02 -1.348065e+00 5.408809e+01 4.782588e-01 2.819537e-02 9.570584e-02 2.132899e-02 1.759762e-01 1.552223e-01 1.998767e-01 3.942289e-02 1.204568e-02 5.470397e-02 6.529332e-02 4.484422e-02 -7.298847e-01 -6.745154e-02 3.571994e-02 -4.122662e-02 -9.817109e-04 -5.543143e-02 -2.002112e-02 -4.017127e-02 3.500032e-02 -2.263265e-02 5.838140e-03 -5.379360e-03 -7.835647e-03 2.249698e-02
<VARIANCE> 39
 6.822525e+00 7.385072e+00 9.290548e+00 1.164056e+01 1.313681e+01 1.460949e+01 1.719582e+01 1.657830e+01 1.774783e+01 1.719470e+01 1.570379e+01 1.352335e+01 1.868524e+01 1.935271e-01 2.974898e-01 5.100307e-01 7.310643e-01 9.585249e-01 1.137460e+00 1.276743e+00 1.360701e+00 1.433295e+00 1.435548e+00 1.339324e+00 1.192786e+00 1.380907e-01 7.989292e-02 6.975459e-02 1.143343e-01 1.622735e-01 2.153406e-01 2.485211e-01 2.827947e-01 2.947620e-01 3.141818e-01 3.143042e-01 2.896234e-01 2.565329e-01 1.227357e-01
<GCONST> 7.960291e+01
<MIXTURE> 2 3.658664e-01
<MEAN> 39
 -1.349450e+01 1.976269e+00 -4.781032e+00 -2.531648e-01 -1.964654e-01 -2.084180e+00 2.213437e+00 2.077217e+00 1.521310e+00 -8.699524e-01 -1.973972e-01 -1.625296e+00 5.470852e+01 -8.026846e-01 -3.273689e-02 -1.716681e-01 -2.017118e-02 -2.658522e-01 -2.719465e-01 -3.178121e-01 -8.752711e-02 -2.078323e-02 -1.102337e-01 -1.176706e-01 -8.322731e-02 1.226493e+00 1.446299e-01 -6.381025e-02 7.670560e-02 -3.976539e-03 1.019832e-01 5.632674e-02 8.253130e-02 -4.947099e-02 4.470271e-02 1.051102e-03 1.475435e-02 1.473463e-02 -7.894389e-02
<VARIANCE> 39
 1.451309e+01 1.124582e+01 1.296561e+01 1.593981e+01 1.733294e+01 1.897923e+01 2.101548e+01 2.007532e+01 2.113377e+01 1.958426e+01 1.840279e+01 1.545076e+01 3.111103e+01 1.179356e+00 8.317361e-01 1.098327e+00 1.414903e+00 1.802751e+00 1.877814e+00 2.041139e+00 2.071594e+00 2.205602e+00 2.093501e+00 1.902722e+00 1.634121e+00 1.623804e+00 3.334084e-01 1.370547e-01 2.007133e-01 2.557299e-01 3.343479e-01 3.654114e-01 3.980683e-01 3.870918e-01 4.040850e-01 3.948928e-01 3.626835e-01 3.150261e-01 5.857967e-01
<GCONST> 1.007220e+02
<STATE> 4
<NUMMIXES> 2
<MIXTURE> 1 6.869659e-01
<MEAN> 39
 -9.612975e+00 2.767829e+00 -2.704783e+00 -7.283519e-01 7.002653e-01 4.579962e-01 3.416505e+00 3.085273e+00 2.341384e+00 -1.241279e-01 2.036472e-01 -1.744361e+00 4.863485e+01 3.174392e-01 -6.835403e-02 1.673881e-01 -2.215335e-02 6.123978e-02 1.385904e-01 9.239959e-02 9.951310e-02 1.627648e-02 6.010611e-02 2.453928e-02 1.695363e-02 -3.534488e-01 -5.482856e-02 2.048201e-02 -3.119336e-02 8.477157e-03 -3.546502e-02 -1.423262e-02 -4.169407e-02 3.829239e-03 -1.853196e-02 -4.713966e-04 -2.316957e-03 -7.995514e-03 4.244003e-02
<VARIANCE> 39
 9.112267e+00 8.089863e+00 1.169448e+01 1.157094e+01 1.599901e+01 1.591262e+01 1.932457e+01 1.662624e+01 1.663342e+01 1.659791e+01 1.416639e+01 1.226144e+01 1.063027e+01 2.440365e-01 3.253781e-01 4.922446e-01 6.962687e-01 9.275396e-01 1.092555e+00 1.271456e+00 1.344230e+00 1.406087e+00 1.402353e+00 1.299811e+00 1.147801e+00 1.494056e-01 5.960994e-02 6.746409e-02 1.048641e-01 1.431082e-01 1.884341e-01 2.244080e-01 2.588508e-01 2.756385e-01 2.892171e-01 2.886205e-01 2.667817e-01 2.351941e-01 3.332141e-02
<GCONST> 7.728977e+01
<MIXTURE> 2 3.131298e-01
<MEAN> 39
 -1.136180e+01 3.131869e+00 -3.589292e+00 -3.999037e-01 -1.610096e-01 -3.032359e-01 2.478311e+00 2.951341e+00 2.064482e+00 -2.856128e-01 1.738897e-01 -1.980678e+00 5.035301e+01 -6.437469e-01 1.326759e-01 -3.413940e-01 1.971847e-02 -1.336841e-01 -2.749652e-01 -1.925504e-01 -1.997986e-01 -3.525756e-02 -1.174924e-01 -4.722036e-02 -3.556124e-02 7.172034e-01 1.153533e-01 -4.754838e-02 6.651298e-02 -1.779323e-02 7.542905e-02 2.446670e-02 8.345564e-02 -1.393571e-02 3.846927e-02 -4.934771e-04 4.843400e-03 1.894214e-02 -8.543171e-02
<VARIANCE> 39
 1.503485e+01 1.291021e+01 1.418594e+01 1.580226e+01 1.900715e+01 1.980293e+01 2.167142e+01 2.013432e+01 2.017789e+01 1.914494e+01 1.652825e+01 1.472212e+01 1.984659e+01 1.193291e+00 8.705019e-01 9.598765e-01 1.247124e+00 1.518792e+00 1.622485e+00 1.754585e+00 1.776256e+00 1.818752e+00 1.769393e+00 1.588125e+00 1.444742e+00 1.311877e+00 3.011864e-01 1.588086e-01 2.021017e-01 2.429946e-01 2.910184e-01 3.325747e-01 3.510360e-01 3.635038e-01 3.642713e-01 3.587673e-01 3.178524e-01 2.904742e-01 3.595154e-01
<GCONST> 9.744521e+01
<TRANSP> 5
 0.000000e+00 1.000000e+00 0.000000e+00 0.000000e+00 0.000000e+00
 0.000000e+00 9.894875e-01 1.051248e-02 0.000000e+00 0.000000e+00
 0.000000e+00 0.000000e+00 9.892831e-01 1.071696e-02 0.000000e+00
 0.000000e+00 0.000000e+00 0.000000e+00 9.929280e-01 7.072043e-03
 0.000000e+00 0.000000e+00 0.000000e+00 0.000000e+00 0.000000e+00
<ENDHMM>
~h "pr"
<BEGINHMM>
<NUMSTATES> 5
<STATE> 2
<NUMMIXES> 2
<MIXTURE> 1 7.895511e-01
<MEAN> 39
 -1.385478e+01 -9.754783e+00 -9.490033e-01 -6.380324e+00 4.105128e-01 2.567855e+00 7.060894e+00 2.514696e+00 4.841669e-01 -1.133534e+00 2.827962e+00 -1.068222e+00 5.844521e+01 1.486414e-01 1.005014e-01 2.361836e-02 3.273439e-02 -2.368532e-02 2.457151e-02 8.399487e-03 3.383673e-02 1.814235e-02 5.277805e-03 -1.180942e-02 -1.787613e-02 -1.850986e-01 -1.619526e-03 -3.420769e-04 3.200047e-03 -1.367234e-03 1.296842e-03 2.641161e-03 -9.544425e-03 7.905365e-03 2.887270e-03 4.849661e-03 -5.943149e-03 -8.471083e-03 4.395500e-04
<VARIANCE> 39
 2.570468e+01 3.776892e+01 4.735018e+01 4.231890e+01 8.162711e+01 7.784148e+01 7.451581e+01 6.356398e+01 6.345818e+01 4.918540e+01 6.412971e+01 5.093438e+01 2.476439e+01 1.879638e-01 3.839428e-01 5.868447e-01 8.327565e-01 1.051278e+00 1.335238e+00 1.467718e+00 1.610950e+00 1.697157e+00 1.569885e+00 1.498597e+00 1.322509e+00 9.317634e-02 3.181438e-02 6.718167e-02 1.116093e-01 1.594954e-01 2.052495e-01 2.622399e-01 2.939111e-01 3.143815e-01 3.381255e-01 3.185379e-01 3.051024e-01 2.666193e-01 1.535965e-02
<GCONST> 9.547678e+01
<MIXTURE> 2 2.106095e-01
<MEAN> 39
 -1.529559e+01 -9.222370e+00 -1.000232e+00 -7.373399e+00 3.383967e+00 4.612221e+00 4.019490e+00 1.121564e+00 1.417244e-01 -2.076607e+00 3.536700e+00 1.923454e-01 5.904006e+01 -5.993369e-01 -3.774625e-01 -6.013000e-02 -1.515159e-01 8.153771e-02 -4.529115e-02 8.949377e-03 -1.638995e-01 -3.376710e-02 -5.178456e-02 2.256967e-02 1.593520e-01 7.261231e-01 4.015775e-02 1.456924e-02 -1.155274e-02 1.565566e-02 -1.846332e-02 -1.004830e-02 2.473108e-02 -1.886593e-02 -4.965207e-03 -1.157173e-02 1.605853e-02 2.142507e-02 -3.367148e-02
<VARIANCE> 39
 2.975646e+01 4.232648e+01 5.331188e+01 4.181896e+01 7.195972e+01 8.563515e+01 6.794102e+01 6.208854e+01 5.722966e+01 4.133462e+01 5.971722e+01 5.396464e+01 2.492977e+01 1.386549e+00 1.377103e+00 1.903177e+00 2.350426e+00 2.534786e+00 3.082081e+00 3.168887e+00 3.683701e+00 3.515418e+00 3.085982e+00 3.419274e+00 3.098785e+00 8.785121e-01 2.506510e-01 2.299055e-01 2.826276e-01 3.553808e-01 4.011011e-01 4.775780e-01 5.274073e-01 5.598794e-01 5.646302e-01 4.935411e-01 5.423358e-01 4.819159e-01 2.009210e-01
<GCONST> 1.216855e+02
<STATE> 3
<NUMMIXES> 2
<MIXTURE> 1 6.096145e-01
<MEAN> 39
 -2.199383e+01 4.976134e+00 1.629836e+01 -1.432364e+01 4.767518e-01 1.504530e+01 -5.154402e+00 -5.360459e+00 1.492398e+01 -7.416470e+00 -6.475574e+00 8.262707e+00 5.518867e+01 1.944165e-02 -3.736844e-02 3.354624e-03 -3.081441e-02 1.285738e-02 -8.243545e-03 -7.748920e-03 4.428230e-03 4.317108e-02 1.539970e-02 -3.338184e-02 1.664920e-02 -3.370042e-02 4.648401e-03 -2.372919e-03 -4.500184e-03 -5.686817e-03 1.864819e-02 -1.447685e-02 1.547002e-03 2.470906e-02 -1.823299e-02 9.426851e-03 5.830342e-03 -3.503295e-03 -3.269607e-03
<VARIANCE> 39
 7.541820e+00 1.161897e+01 9.970825e+00 1.382301e+01 1.614861e+01 1.975871e+01 1.563186e+01 1.884538e+01 2.148292e+01 1.973145e+01 2.253589e+01 1.385172e+01 5.913577e+00 8.226898e-01 5.625411e-01 5.928741e-01 8.490904e-01 1.389238e+00 1.396174e+00 1.185562e+00 1.503862e+00 1.704151e+00 1.751314e+00 2.096052e+00 1.079570e+00 3.294075e-01 2.087663e-01 1.151580e-01 1.201374e-01 1.782622e-01 2.945374e-01 2.925724e-01 2.433242e-01 3.153522e-01 3.615912e-01 3.317221e-01 3.948025e-01 2.173399e-01 8.186671e-02
<GCONST> 8.701162e+01
<MIXTURE> 2 3.904178e-01
<MEAN> 39
 -1.439257e+01 -6.492987e-01 1.723921e+01 -1.988287e+01 6.296770e+00 1.045055e+01 -5.513494e+00 2.438465e+00 7.653335e+00 1.766390e+00 -1.266085e+01 1.085120e+01 4.896591e+01 1.602058e-01 -2.287328e-06 -7.462354e-02 1.053577e-01 2.474872e-02 -8.746054e-02 2.865383e-03 1.027330e-01 -1.423553e-01 5.803860e-02 1.897120e-02 -5.839631e-02 -9.329747e-02 -4.905127e-03 6.252901e-03 -8.895664e-03 1.762103e-02 -1.851681e-02 2.754534e-03 4.273872e-03 -1.759647e-02 5.790650e-03 -1.928720e-02 1.221221e-02 -1.120979e-02 3.187423e-03
<VARIANCE> 39
 1.456819e+01 9.233822e+00 2.765884e+01 3.497663e+01 1.966728e+01 2.391194e+01 1.943316e+01 2.523346e+01 3.146356e+01 2.594485e+01 2.915095e+01 2.183819e+01 1.058903e+01 1.468511e-01 2.897044e-01 4.689496e-01 8.251567e-01 9.375612e-01 1.071430e+00 1.124968e+00 1.294283e+00 1.425903e+00 1.354879e+00 1.223812e+00 1.093095e+00 6.111047e-02 2.657423e-02 5.208372e-02 8.333951e-02 1.459338e-01 1.784641e-01 2.061126e-01 2.224066e-01 2.532334e-01 2.771266e-01 2.647925e-01 2.360818e-01 2.119149e-01 1.006828e-02
<GCONST> 7.837364e+01
<STATE> 4
<NUMMIXES> 2
<MIXTURE> 1 3.422505e-01
<MEAN> 39
 -1.873621e+01 -2.033261e-01 1.171072e+01 -1.277585e+01 4.297874e+00 6.902534e+00 -3.445829e+00 1.129198e+00 9.759971e+00 -4.029246e+00 -6.898324e+00 8.674390e+00 5.333857e+01 -5.227893e-03 -1.931007e-02 2.909721e-02 -3.525111e-02 -2.046387e-02 4.550834e-02 1.081884e-02 -4.595157e-02 3.005867e-02 4.919799e-02 -5.590541e-03 -1.084919e-03 4.331291e-02 1.246561e-02 8.910627e-03 8.220199e-03 2.541460e-02 3.822140e-02 1.046615e-02 5.082127e-02 4.579233e-02 6.441541e-03 3.211254e-02 1.017805e-02 6.972810e-03 -7.329777e-03
<VARIANCE> 39
 2.772121e+01 3.835208e+01 3.768789e+01 4.979133e+01 3.525783e+01 1.358124e+02 2.088263e+01 6.092128e+01 6.738663e+01 3.721557e+01 3.988443e+01 2.705725e+01 2.151707e+01 8.449955e-01 5.151858e-01 8.853722e-01 1.155482e+00 1.430594e+00 1.666544e+00 1.476107e+00 1.835552e+00 1.886034e+00 1.893271e+00 1.968454e+00 1.504229e+00 3.999273e-01 1.654412e-01 1.017039e-01 1.590122e-01 2.226778e-01 2.854329e-01 3.267349e-01 2.927027e-01 3.598689e-01 3.807582e-01 3.700136e-01 3.741122e-01 2.829686e-01 7.396110e-02
<GCONST> 1.033261e+02
<MIXTURE> 2 6.577888e-01
<MEAN> 39
 -1.301321e+01 -3.149543e+00 3.654482e+00 -4.352742e+00 7.508742e+00 -3.915928e+00 8.582439e-01 8.963436e+00 1.539686e+00 -1.884645e+00 -3.882066e+00 5.151737e+00 5.121398e+01 4.742904e-02 4.908839e-02 -4.992164e-02 4.393895e-02 -1.499120e-02 -3.924300e-02 1.043958e-02 2.285107e-02 -1.947002e-02 -1.159096e-02 1.486966e-02 -2.787718e-02 -6.950178e-02 -7.724946e-03 -5.186087e-03 -2.977365e-03 -1.576923e-02 -1.943404e-02 -2.426340e-03 -2.641692e-02 -2.453398e-02 -2.307892e-03 -1.448864e-02 -6.408794e-03 -3.709145e-03 4.400194e-03
<VARIANCE> 39
 5.164917e+01 4.409502e+01 2.206530e+01 3.358366e+01 4.141026e+01 7.333972e+01 2.516089e+01 3.900586e+01 2.061043e+01 3.239959e+01 3.805624e+01 5.635623e+01 5.326073e+01 1.442502e-01 2.748167e-01 4.686501e-01 7.153562e-01 9.376640e-01 1.213254e+00 1.337503e+00 1.313383e+00 1.394483e+00 1.516622e+00 1.270264e+00 1.132802e+00 5.966628e-02 2.520091e-02 5.051110e-02 8.881019e-02 1.343633e-01 1.831278e-01 2.340989e-01 2.655197e-01 2.550304e-01 2.712787e-01 2.974447e-01 2.506703e-01 2.237640e-01 8.604092e-03
<GCONST> 8.664883e+01
<TRANSP> 5
 0.000000e+00 1.000000e+00 0.000000e+00 0.000000e+00 0.000000e+00
 0.000000e+00 9.942694e-01 5.730669e-03 0.000000e+00 0.000000e+00
 0.000000e+00 0.000000e+00 9.853300e-01 1.467005e-02 0.000000e+00
 0.000000e+00 0.000000e+00 0.000000e+00 9.921477e-01 7.852344e-03
 0.000000e+00 0.000000e+00 0.000000e+00 0.000000e+00 0.000000e+00
<ENDHMM>
~h "pw"
<BEGINHMM>
<NUMSTATES> 5
<STATE> 2
<NUMMIXES> 2
<MIXTURE> 1 7.083471e-01
<MEAN> 39
 -1.259180e+01 -2.018943e+00 -1.066204e+00 -1.204014e+00 1.718368e+00 -5.744905e-01 2.738300e+00 1.388907e+00 1.067766e+00 9.876484e-01 5.478930e-01 -5.570343e-01 5.263814e+01 1.116313e-01 2.056474e-01 3.692854e-02 1.818397e-02 2.702759e-02 7.373808e-02 7.130267e-02 1.050168e-01 3.127030e-02 2.392307e-02 -5.704439e-04 -4.188610e-03 -2.516955e-01 -2.642217e-02 -1.654515e-02 -9.923737e-03 -1.493241e-02 -2.799190e-02 -3.184159e-02 -3.410983e-02 -2.490366e-02 -2.412669e-02 -1.127792e-02 -3.967203e-03 -3.317149e-03 2.846553e-02
<VARIANCE> 39
 1.540795e+01 2.220117e+01 1.118570e+01 1.147765e+01 1.356431e+01 1.574492e+01 1.846831e+01 1.883755e+01 1.726440e+01 1.486565e+01 1.385218e+01 1.253883e+01 2.318409e+01 2.992084e-01 4.170671e-01 5.231370e-01 7.297723e-01 9.449121e-01 1.123451e+00 1.280735e+00 1.373187e+00 1.406826e+00 1.366849e+00 1.293471e+00 1.155400e+00 1.974106e-01 4.718237e-02 7.679845e-02 1.016290e-01 1.431685e-01 1.866947e-01 2.241323e-01 2.581403e-01 2.758372e-01 2.864831e-01 2.785239e-01 2.634187e-01 2.365215e-01 2.576775e-02
<GCONST> 7.981583e+01
<MIXTURE> 2 2.918288e-01
<MEAN> 39
 -1.438076e+01 -5.509319e+00 -2.306055e+00 -2.112761e+00 4.682772e-01 -2.727289e+00 9.681389e-01 -7.325853e-01 -4.046079e-02 3.267409e-01 4.758455e-01 -5.515982e-01 5.784130e+01 -2.815435e-01 -5.161361e-01 -8.390952e-02 -4.542470e-02 -6.818834e-02 -1.954547e-01 -1.779655e-01 -2.648454e-01 -8.294944e-02 -5.653644e-02 -1.081203e-03 1.463804e-02 6.354310e-01 6.312821e-02 3.559168e-02 2.281580e-02 3.403815e-02 6.391189e-02 7.231766e-02 7.763758e-02 5.703227e-02 5.642726e-02 2.643124e-02 1.020422e-02 7.757217e-03 -5.853797e-02
<VARIANCE> 39
 2.335429e+01 3.257408e+01 1.661271e+01 1.672603e+01 1.914787e+01 2.655371e+01 2.489849e+01 2.778898e+01 2.142079e+01 1.887470e+01 1.734668e+01 1.481700e+01 5.118242e+01 1.089537e+00 1.559286e+00 1.113326e+00 1.242180e+00 1.537023e+00 1.792553e+00 1.884439e+00 1.965406e+00 1.854870e+00 1.716372e+00 1.591926e+00 1.418493e+00 2.161728e+00 1.967807e-01 3.000636e-01 2.049838e-01 2.397509e-01 2.999032e-01 3.548574e-01 3.740097e-01 3.986011e-01 3.739190e-01 3.536173e-01 3.276583e-01 2.879756e-01 4.046167e-01
<GCONST> 1.028419e+02
<STATE> 3
<NUMMIXES> 2
<MIXTURE> 1 7.588279e-01
<MEAN> 39
 -9.809377e+00 -7.821272e+00 -4.420062e+00 -2.984239e+00 -4.368092e-02 -6.042119e+00 -2.262868e+00 -5.256212e+00 -3.096548e+00 -1.425462e+00 -3.418537e-01 -2.329894e-01 6.204686e+01 1.410028e-01 2.576916e-01 8.856627e-02 1.248761e-01 1.541354e-01 1.966003e-01 1.384852e-01 1.613130e-01 2.558725e-02 4.762178e-02 1.965819e-02 4.081288e-02 -7.721887e-01 -2.661951e-02 1.626125e-02 2.066760e-02 1.592862e-03 -6.875467e-03 2.016395e-02 1.182405e-02 2.866059e-02 1.034515e-02 7.755738e-03 2.437564e-03 -5.019407e-03 1.445016e-02
<VARIANCE> 39
 1.722799e+01 2.352277e+01 1.229265e+01 1.286702e+01 1.661364e+01 2.023752e+01 1.992376e+01 2.280496e+01 1.836370e+01 1.681152e+01 1.499015e+01 1.343414e+01 6.544461e+01 2.116748e-01 3.114482e-01 4.514428e-01 6.526728e-01 8.607625e-01 1.065449e+00 1.226063e+00 1.346851e+00 1.410733e+00 1.354946e+00 1.273716e+00 1.155143e+00 1.024302e-01 3.582764e-02 5.830786e-02 9.160139e-02 1.329411e-01 1.769061e-01 2.192782e-01 2.532014e-01 2.776248e-01 2.941263e-01 2.822787e-01 2.641466e-01 2.411542e-01 1.957023e-02
<GCONST> 7.947042e+01
<MIXTURE> 2 2.411873e-01
<MEAN> 39
 -1.258114e+01 -6.115785e+00 -2.921767e+00 -3.629725e+00 -1.297182e+00 -4.882407e+00 -1.293274e+00 -3.181378e+00 -1.889121e+00 -9.556798e-01 -2.201040e-01 -9.111065e-01 6.411043e+01 -3.437077e-01 -9.970888e-01 -3.584662e-01 -3.283845e-01 -4.543895e-01 -7.815048e-01 -6.446706e-01 -7.492135e-01 -2.191406e-01 -2.201533e-01 -5.002345e-02 -6.666429e-02 2.567069e+00 1.158444e-01 7.486319e-03 -5.129175e-02 1.001332e-02 6.892657e-02 1.485814e-02 4.185849e-02 -1.595456e-02 1.057790e-02 -1.482631e-05 -6.302054e-03 7.443199e-03 -1.725100e-01
<VARIANCE> 39
 2.014940e+01 3.655960e+01 1.757236e+01 1.736822e+01 2.334146e+01 3.130674e+01 3.041288e+01 3.202313e+01 2.210966e+01 2.021927e+01 1.839374e+01 1.605096e+01 1.377495e+02 1.582991e+00 2.637571e+00 1.540899e+00 1.568465e+00 2.278283e+00 2.715023e+00 2.930733e+00 2.773338e+00 2.226388e+00 2.096606e+00 1.818898e+00 1.714812e+00 9.432239e+00 2.725639e-01 5.420285e-01 2.768206e-01 2.980758e-01 4.511521e-01 5.549666e-01 5.901011e-01 5.595839e-01 4.314338e-01 4.152345e-01 3.621747e-01 3.432530e-01 2.335041e+00
<GCONST> 1.154867e+02
<STATE> 4
<NUMMIXES> 2
<MIXTURE> 1 6.956413e-01
<MEAN> 39
 -1.140643e+01 -2.668614e+00 -3.167284e+00 -2.816756e+00 8.434620e-01 3.810868e-01 3.871014e+00 1.341187e+00 6.787730e-01 7.255002e-01 3.005057e-01 -1.090045e+00 5.373339e+01 1.357605e-01 1.757250e-01 -9.178968e-03 -8.767205e-04 4.237596e-02 1.256227e-01 1.166860e-01 1.108061e-01 4.245044e-02 3.568670e-02 -9.837407e-04 -1.879556e-02 -2.562651e-01 -2.946253e-02 -1.704638e-02 -4.157548e-03 -1.502169e-02 -3.011039e-02 -4.102867e-02 -4.497789e-02 -3.082456e-02 -2.760239e-02 -1.384491e-02 -2.915045e-03 -1.030607e-04 3.146751e-02
<VARIANCE> 39
 1.374288e+01 1.649243e+01 1.071699e+01 1.081430e+01 1.184094e+01 1.658986e+01 1.760636e+01 1.687112e+01 1.579716e+01 1.448185e+01 1.345396e+01 1.256537e+01 1.839123e+01 2.823798e-01 3.785890e-01 5.092832e-01 7.023476e-01 9.201303e-01 1.119557e+00 1.272061e+00 1.369793e+00 1.403063e+00 1.368422e+00 1.309834e+00 1.184870e+00 1.671954e-01 4.553319e-02 6.968070e-02 9.964896e-02 1.385466e-01 1.839496e-01 2.237871e-01 2.547983e-01 2.740159e-01 2.841351e-01 2.787221e-01 2.681467e-01 2.418418e-01 2.255114e-02
<GCONST> 7.797542e+01
<MIXTURE> 2 3.045282e-01
<MEAN> 39
 -1.416370e+01 -5.658050e+00 -3.280254e+00 -3.434610e+00 -4.404840e-01 -2.519073e+00 1.169478e+00 -8.428051e-01 -5.307521e-01 -6.275573e-02 3.379934e-01 -8.234620e-01 5.905250e+01 -2.860186e-01 -3.767856e-01 3.506905e-02 -4.868138e-03 -9.225842e-02 -2.422366e-01 -2.228391e-01 -1.967573e-01 -5.987408e-02 -6.939772e-02 4.124313e-03 2.865148e-02 5.225405e-01 7.080967e-02 3.498817e-02 6.726281e-03 3.336305e-02 6.558445e-02 8.738371e-02 9.524266e-02 6.270859e-02 5.840198e-02 2.867446e-02 5.134451e-03 1.645735e-03 -6.945729e-02
<VARIANCE> 39
 1.804991e+01 2.558121e+01 1.427312e+01 1.514619e+01 1.660498e+01 2.520017e+01 2.482870e+01 2.598477e+01 2.130351e+01 1.819187e+01 1.584979e+01 1.443572e+01 4.382334e+01 1.005601e+00 1.299761e+00 9.775076e-01 1.163739e+00 1.405186e+00 1.732038e+00 1.911524e+00 1.884620e+00 1.793313e+00 1.667586e+00 1.552757e+00 1.396997e+00 1.762101e+00 1.775950e-01 2.423265e-01 1.813768e-01 2.253933e-01 2.772046e-01 3.452242e-01 3.793936e-01 3.813193e-01 3.664396e-01 3.433858e-01 3.187029e-01 2.879595e-01 3.086324e-01
<GCONST> 9.961183e+01
<TRANSP> 5
 0.000000e+00 1.000000e+00 0.000000e+00 0.000000e+00 0.000000e+00
 0.000000e+00 9.965537e-01 3.446307e-03 0.000000e+00 0.000000e+00
 0.000000e+00 0.000000e+00 9.849740e-01 1.502601e-02 0.000000e+00
 0.000000e+00 0.000000e+00 0.000000e+00 9.960214e-01 3.978526e-03
 0.000000e+00 0.000000e+00 0.000000e+00 0.000000e+00 0.000000e+00
<ENDHMM>
~h "si"
<BEGINHMM>
<NUMSTATES> 5
<STATE> 2
<NUMMIXES> 2
<MIXTURE> 1 7.742352e-01
<MEAN> 39
 -8.162950e+00 2.340531e+00 1.362416e+00 -1.551860e+00 2.545563e+00 2.201934e+00 2.510800e+00 3.872253e+00 1.216699e+00 2.768551e-01 2.389649e-01 -1.451699e+00 4.671123e+01 2.300915e-02 4.236894e-02 -2.807380e-03 6.268906e-03 1.971097e-02 5.115259e-02 3.572712e-02 6.575405e-02 1.393086e-02 1.103484e-02 5.028584e-03 -1.243268e-02 -8.400110e-02 -9.713875e-03 -1.514527e-02 -1.584077e-02 -1.879092e-02 -2.589224e-02 -2.683743e-02 -2.149879e-02 -2.178847e-02 -9.422672e-03 -2.701030e-03 -1.635478e-03 1.033633e-03 9.487740e-03
<VARIANCE> 39
 1.980710e+01 8.601246e+00 1.153293e+01 1.255320e+01 1.438459e+01 1.543327e+01 2.266803e+01 1.802893e+01 1.739338e+01 1.542921e+01 1.420315e+01 1.261056e+01 1.636237e+01 1.527852e-01 2.615955e-01 4.235890e-01 6.290674e-01 8.297803e-01 1.021439e+00 1.180529e+00 1.270788e+00 1.314335e+00 1.322117e+00 1.235609e+00 1.085713e+00 7.165933e-02 2.449030e-02 4.720942e-02 8.081625e-02 1.217804e-01 1.617602e-01 1.997228e-01 2.342711e-01 2.515245e-01 2.629569e-01 2.658638e-01 2.478029e-01 2.180629e-01 8.669031e-03
<GCONST> 7.271550e+01
<MIXTURE> 2 2.265232e-01
<MEAN> 39
 -9.746303e+00 -7.445118e-01 8.653058e-02 -2.653920e+00 2.632246e-02 -9.935540e-01 1.291121e+00 6.903523e-01 8.867753e-01 2.740583e-01 1.335326e-01 -6.665591e-01 5.100096e+01 -8.129124e-02 -1.505711e-01 -3.087521e-02 -6.201717e-02 -1.035366e-01 -1.569411e-01 -7.794220e-02 -1.530393e-01 -2.455546e-02 3.300514e-03 -2.790308e-03 2.528181e-02 1.783835e-01 3.725477e-02 4.943826e-02 4.512528e-02 5.594254e-02 8.200924e-02 9.431103e-02 7.663797e-02 8.014001e-02 3.460873e-02 1.226347e-02 6.180303e-03 -6.348988e-03 -3.430207e-02
<VARIANCE> 39
 2.619575e+01 2.439898e+01 2.236728e+01 2.187673e+01 2.833727e+01 2.599596e+01 2.807817e+01 2.916002e+01 2.450548e+01 2.271568e+01 2.253099e+01 1.938829e+01 3.130904e+01 7.285250e-01 1.011572e+00 8.986430e-01 1.108911e+00 1.386013e+00 1.598445e+00 1.691370e+00 1.823253e+00 1.700670e+00 1.659334e+00 1.554746e+00 1.328538e+00 8.368743e-01 1.185657e-01 1.768683e-01 1.665475e-01 2.151792e-01 2.662755e-01 3.129584e-01 3.324365e-01 3.664393e-01 3.473915e-01 3.391204e-01 3.174289e-01 2.733450e-01 1.323726e-01
<GCONST> 9.829446e+01
<STATE> 3
<NUMMIXES> 2
<MIXTURE> 1 4.909977e-01
<MEAN> 39
 -4.892542e+00 6.356779e-02 -1.758652e+00 -3.251411e+00 -1.010752e-01 1.784835e+00 2.324584e+00 3.896122e+00 6.578104e-01 3.811271e-01 -2.324892e-01 -2.155701e+00 4.476328e+01 6.568985e-02 1.412371e-01 2.072272e-01 2.845924e-01 3.387401e-01 3.611267e-01 3.456089e-01 3.220582e-01 2.550685e-01 1.863484e-01 1.144275e-01 4.109543e-02 7.761755e-03 1.659324e-02 3.245958e-02 5.060516e-02 7.224522e-02 9.036350e-02 1.057817e-01 1.114793e-01 9.730427e-02 8.904409e-02 7.272073e-02 4.598489e-02 1.799422e-02 9.998781e-03
<VARIANCE> 39
 4.007271e+00 1.075690e+01 1.126929e+01 9.859242e+00 1.601613e+01 1.489332e+01 1.619321e+01 1.726962e+01 1.647998e+01 1.606308e+01 1.424381e+01 1.295771e+01 8.824425e+00 1.162067e-01 2.352145e-01 3.991311e-01 5.769414e-01 7.753023e-01 9.524852e-01 1.119776e+00 1.238098e+00 1.301945e+00 1.335451e+00 1.268529e+00 1.124940e+00 3.679784e-02 2.322380e-02 5.049722e-02 8.971788e-02 1.327839e-01 1.773650e-01 2.120414e-01 2.424441e-01 2.662191e-01 2.757167e-01 2.805499e-01 2.638527e-01 2.325754e-01 6.730626e-03
<GCONST> 6.924455e+01
<MIXTURE> 2 5.084425e-01
<MEAN> 39
 -4.575562e+00 3.181485e-01 -1.249579e+00 -2.294527e+00 1.238101e+00 3.554731e+00 4.169783e+00 5.220169e+00 1.887672e+00 1.473438e+00 4.187440e-01 -1.944963e+00 4.511331e+01 -6.714721e-02 -1.305474e-01 -2.168782e-01 -2.870159e-01 -3.369996e-01 -3.452610e-01 -3.348355e-01 -3.004868e-01 -2.466255e-01 -1.777260e-01 -1.061349e-01 -4.129202e-02 -2.414908e-02 -2.115157e-02 -3.184597e-02 -4.698679e-02 -6.834997e-02 -8.726104e-02 -1.072465e-01 -1.110375e-01 -1.009843e-01 -8.782622e-02 -7.170031e-02 -4.398903e-02 -1.446978e-02 -4.831230e-03
<VARIANCE> 39
 4.306384e+00 1.147424e+01 1.117032e+01 9.567236e+00 1.489986e+01 1.446231e+01 1.612814e+01 1.692280e+01 1.613699e+01 1.556715e+01 1.382826e+01 1.259768e+01 9.231366e+00 1.291404e-01 2.482212e-01 4.083610e-01 5.825601e-01 7.820873e-01 9.648374e-01 1.126737e+00 1.248923e+00 1.310206e+00 1.341895e+00 1.270515e+00 1.124507e+00 4.538810e-02 2.405370e-02 4.965610e-02 8.487286e-02 1.250801e-01 1.688874e-01 2.069190e-01 2.384855e-01 2.623402e-01 2.703298e-01 2.748397e-01 2.593423e-01 2.287420e-01 7.641817e-03
<GCONST> 6.945302e+01
<STATE> 4
<NUMMIXES> 2
<MIXTURE> 1 8.081191e-01
<MEAN> 39
 -7.558332e+00 -1.502353e+00 -2.572065e+00 -3.233770e+00 -3.549600e-01 1.341215e+00 3.708387e+00 2.233678e+00 1.450777e+00 1.084254e+00 4.978772e-01 -1.449195e+00 5.018996e+01 4.367808e-02 5.684878e-02 -2.913469e-03 1.497757e-02 1.776941e-02 5.410760e-02 2.988588e-02 3.743757e-02 9.069357e-03 1.095289e-02 -3.230060e-03 -1.151168e-02 -9.163641e-02 -1.051241e-02 -9.156335e-03 -4.181343e-03 -9.476939e-03 -1.234401e-02 -1.552910e-02 -1.660789e-02 -1.283791e-02 -8.646409e-03 -7.387263e-03 -3.025947e-03 -8.175800e-04 1.351652e-02
<VARIANCE> 39
 1.664652e+01 1.293127e+01 1.239766e+01 1.236880e+01 1.539610e+01 1.840665e+01 1.872866e+01 1.863338e+01 1.824365e+01 1.672970e+01 1.537853e+01 1.377816e+01 1.677543e+01 1.944347e-01 3.075351e-01 4.773666e-01 6.903946e-01 9.142106e-01 1.114611e+00 1.270179e+00 1.373885e+00 1.397931e+00 1.391706e+00 1.311435e+00 1.174058e+00 1.093978e-01 2.996636e-02 5.562664e-02 9.200303e-02 1.343481e-01 1.802392e-01 2.210167e-01 2.527704e-01 2.743596e-01 2.812559e-01 2.803240e-01 2.641515e-01 2.367589e-01 1.238243e-02
<GCONST> 7.662840e+01
<MIXTURE> 2 1.925458e-01
<MEAN> 39
 -1.049088e+01 -3.327409e+00 -2.070692e+00 -3.617641e+00 -1.186375e+00 -1.508701e+00 1.819937e+00 5.379712e-01 7.713804e-01 8.821479e-02 4.725827e-01 -9.666227e-01 5.493863e+01 -2.587489e-01 -2.549067e-01 1.187276e-02 -7.764313e-02 -8.888099e-02 -2.583623e-01 -1.422201e-01 -2.034734e-01 -3.034818e-02 -3.699958e-02 3.156596e-02 7.417281e-02 5.073162e-01 4.999267e-02 4.042631e-02 2.246133e-02 4.374854e-02 5.606524e-02 7.201388e-02 7.107408e-02 5.898076e-02 3.685611e-02 2.983431e-02 1.072145e-02 -3.496728e-04 -5.375542e-02
<VARIANCE> 39
 2.971553e+01 3.482163e+01 2.092603e+01 2.366695e+01 2.646477e+01 2.809749e+01 3.011447e+01 3.285043e+01 2.705358e+01 2.238845e+01 2.124322e+01 1.931739e+01 5.111505e+01 1.152231e+00 1.300362e+00 1.069778e+00 1.319781e+00 1.568970e+00 1.826395e+00 1.955994e+00 2.117703e+00 1.925575e+00 1.823924e+00 1.683607e+00 1.470833e+00 1.760418e+00 1.942994e-01 2.302769e-01 1.944925e-01 2.503938e-01 3.007495e-01 3.593347e-01 3.834286e-01 4.259695e-01 3.833959e-01 3.683417e-01 3.401426e-01 2.992843e-01 3.077660e-01
<GCONST> 1.050555e+02
<TRANSP> 5
 0.000000e+00 1.000000e+00 0.000000e+00 0.000000e+00 0.000000e+00
 0.000000e+00 9.879308e-01 1.206922e-02 0.000000e+00 0.000000e+00
 0.000000e+00 0.000000e+00 9.897810e-01 1.021898e-02 0.000000e+00
 0.000000e+00 0.000000e+00 0.000000e+00 9.895628e-01 1.043722e-02
 0.000000e+00 0.000000e+00 0.000000e+00 0.000000e+00 0.000000e+00
<ENDHMM>
~h "st"
<BEGINHMM>
<NUMSTATES> 5
<STATE> 2
<NUMMIXES> 2
<MIXTURE> 1 6.827881e-01
<MEAN> 39
 -9.398071e+00 -5.525125e+00 -1.314550e+00 -9.039712e+00 -3.319270e+00 -6.130280e+00 -4.444351e-01 3.910890e-01 1.458988e+00 -2.896950e-01 8.986471e-01 -1.690198e+00 6.244557e+01 9.871185e-02 1.487782e-01 2.041719e-01 2.538496e-01 3.008386e-01 2.456881e-01 1.789828e-01 5.027318e-02 5.042012e-02 3.179671e-02 4.724561e-02 1.242520e-01 -5.449907e-01 5.247551e-02 6.432444e-02 -6.619937e-02 1.154673e-01 3.882401e-02 9.865852e-02 7.680798e-02 7.752567e-04 -3.510172e-02 -1.178268e-02 -3.427725e-02 -3.341182e-02 -1.726908e-01
<VARIANCE> 39
 1.895517e+01 2.730126e+01 1.591426e+01 2.655301e+01 2.424104e+01 3.040681e+01 2.479110e+01 2.276544e+01 2.160210e+01 2.103342e+01 1.918425e+01 1.437793e+01 6.560931e+01 3.534214e-01 4.669044e-01 6.835331e-01 9.484072e-01 1.122702e+00 1.300844e+00 1.484813e+00 1.650961e+00 1.657197e+00 1.603068e+00 1.539387e+00 1.399075e+00 4.188939e-01 7.310639e-02 1.349620e-01 1.303329e-01 2.264778e-01 2.353127e-01 3.120898e-01 3.077710e-01 3.186412e-01 3.242461e-01 3.131076e-01 2.976313e-01 2.672201e-01 2.576815e-01
<GCONST> 9.349790e+01
<MIXTURE> 2 3.172077e-01
<MEAN> 39
 -8.913168e+00 -4.495605e+00 -2.998533e+00 -7.686907e+00 -2.903530e+00 -3.613402e+00 1.018317e+00 6.180307e-01 1.136606e+00 1.381329e-01 7.607908e-01 -1.988798e+00 5.978480e+01 -5.781183e-01 -1.312573e+00 1.022941e-01 -1.292013e+00 -8.508375e-01 -1.723273e+00 -1.003150e+00 -3.552858e-01 -9.225249e-02 -2.453552e-01 -7.070782e-03 -1.111054e-01 3.116214e+00 8.172965e-02 1.511267e-01 1.454941e-01 8.867023e-02 1.315796e-01 1.870656e-01 1.024148e-01 1.069752e-01 8.005104e-02 6.228515e-02 3.990215e-02 6.118667e-02 -2.974864e-01
<VARIANCE> 39
 2.441015e+01 3.174580e+01 1.949195e+01 2.852826e+01 2.501219e+01 3.839282e+01 2.892572e+01 2.571055e+01 2.235969e+01 1.923202e+01 1.847584e+01 1.554228e+01 8.636081e+01 1.864776e+00 2.140497e+00 1.749375e+00 2.339832e+00 2.463657e+00 2.840639e+00 2.529090e+00 2.841962e+00 2.575012e+00 2.293918e+00 2.117723e+00 1.754351e+00 3.830783e+00 2.444287e-01 3.948988e-01 2.574454e-01 4.568557e-01 4.423511e-01 6.651605e-01 4.924669e-01 4.720725e-01 4.089278e-01 3.780043e-01 3.407912e-01 3.133178e-01 1.231792e+00
<GCONST> 1.143991e+02
<STATE> 3
<NUMMIXES> 2
<MIXTURE> 1 7.604895e-01
<MEAN> 39
 -7.770632e+00 -2.924591e+00 -1.787386e+00 -5.656971e+00 -1.223670e+00 -1.054229e+00 2.720057e+00 5.615619e-01 1.861889e-01 -3.045797e-01 6.055235e-01 -1.765215e+00 5.525651e+01 1.187658e-01 1.446138e-01 -3.189418e-02 2.005071e-01 1.353265e-01 2.088459e-01 1.134004e-01 4.222041e-02 -1.665291e-02 1.969597e-02 -1.341767e-02 -5.152079e-03 -4.548222e-01 -9.849058e-03 -1.420907e-02 -9.940727e-03 -1.794906e-02 -2.502080e-02 -1.987718e-02 -1.549186e-02 -8.927913e-03 -4.162240e-03 -1.108766e-03 -1.698914e-03 -4.357295e-03 2.984784e-02
<VARIANCE> 39
 1.405168e+01 1.862550e+01 1.635778e+01 1.929108e+01 1.719481e+01 2.324946e+01 1.903455e+01 1.895198e+01 1.904666e+01 1.816755e+01 1.547420e+01 1.411307e+01 3.246135e+01 2.111956e-01 3.185815e-01 4.935583e-01 7.121534e-01 9.213326e-01 1.125595e+00 1.271652e+00 1.370242e+00 1.419603e+00 1.418319e+00 1.338614e+00 1.210675e+00 1.818343e-01 3.296893e-02 5.840117e-02 9.629641e-02 1.421662e-01 1.861673e-01 2.294015e-01 2.614187e-01 2.821738e-01 2.940951e-01 2.940603e-01 2.771817e-01 2.501582e-01 1.629873e-02
<GCONST> 8.037881e+01
<MIXTURE> 2 2.396065e-01
<MEAN> 39
 -9.782035e+00 -3.050794e+00 -2.336201e+00 -7.579997e+00 -2.888549e+00 -2.187972e+00 2.085244e+00 2.895963e-01 5.017496e-01 -2.255345e-01 7.691364e-01 -1.965549e+00 5.856785e+01 -3.664769e-01 -3.798536e-01 8.093948e-02 -5.693157e-01 -4.103125e-01 -5.735357e-01 -3.115434e-01 -1.260774e-01 3.577777e-02 -5.254660e-02 4.370284e-02 1.887078e-02 1.281284e+00 2.666395e-02 4.421045e-02 2.833907e-02 5.317166e-02 7.633415e-02 5.882953e-02 4.372833e-02 2.958045e-02 1.979273e-02 7.034732e-03 7.508304e-03 1.507281e-02 -8.605901e-02
<VARIANCE> 39
 2.168092e+01 2.489145e+01 1.735307e+01 3.238990e+01 2.637856e+01 2.959916e+01 2.349676e+01 2.205053e+01 2.160033e+01 1.978508e+01 1.740321e+01 1.562141e+01 6.361346e+01 1.464983e+00 1.690001e+00 1.274136e+00 2.362010e+00 2.308718e+00 2.542572e+00 2.195729e+00 2.094146e+00 2.091160e+00 1.952072e+00 1.783300e+00 1.574628e+00 3.715169e+00 2.598356e-01 3.004808e-01 2.317559e-01 4.703476e-01 4.547381e-01 5.329297e-01 4.470129e-01 4.171491e-01 4.095954e-01 3.883803e-01 3.555158e-01 3.173631e-01 8.582110e-01
<GCONST> 1.100450e+02
<STATE> 4
<NUMMIXES> 2
<MIXTURE> 1 7.391581e-01
<MEAN> 39
 -1.020882e+01 3.164262e-01 -6.435685e-01 -2.489950e+00 6.765533e-01 1.424014e-01 2.949899e+00 2.076166e+00 2.024773e+00 4.823126e-01 5.781947e-01 -1.477208e+00 5.069286e+01 2.117577e-02 7.867262e-02 2.991824e-02 1.060045e-01 1.011634e-01 1.440047e-01 8.456894e-02 5.906551e-02 8.584674e-03 1.028788e-02 -1.240944e-02 -1.169062e-02 -1.886189e-01 -3.131578e-03 -1.758936e-02 -1.926837e-02 -3.769376e-02 -4.396851e-02 -4.209857e-02 -3.119760e-02 -2.005672e-02 -1.056989e-02 -4.464522e-03 -2.261227e-03 -3.186027e-03 2.121255e-02
<VARIANCE> 39
 1.661931e+01 8.910193e+00 9.809372e+00 1.166231e+01 1.307593e+01 1.594043e+01 1.858629e+01 1.754504e+01 1.611431e+01 1.506781e+01 1.364464e+01 1.234661e+01 1.643867e+01 1.862724e-01 2.954734e-01 4.577809e-01 6.893597e-01 8.953803e-01 1.076201e+00 1.228336e+00 1.338040e+00 1.377157e+00 1.366932e+00 1.289630e+00 1.146830e+00 1.173941e-01 2.916204e-02 5.235375e-02 8.695441e-02 1.298245e-01 1.741566e-01 2.112906e-01 2.440731e-01 2.662500e-01 2.766522e-01 2.768196e-01 2.607098e-01 2.321844e-01 1.286337e-02
<GCONST> 7.451678e+01
<MIXTURE> 2 2.609575e-01
<MEAN> 39
 -1.028345e+01 -1.026694e+00 -1.568518e+00 -5.740812e+00 -2.439729e+00 -3.192451e+00 1.051071e+00 1.052168e+00 2.018610e+00 4.634237e-01 6.773562e-01 -1.637524e+00 5.468713e+01 -7.273532e-02 -2.118474e-01 -8.983924e-02 -2.926005e-01 -2.577804e-01 -3.663374e-01 -2.175699e-01 -1.666879e-01 -1.607940e-02 -3.548279e-02 2.417546e-02 2.694488e-02 4.913000e-01 1.206149e-02 4.399905e-02 5.406690e-02 9.773549e-02 1.160111e-01 1.118897e-01 8.287247e-02 5.210154e-02 2.439612e-02 1.024717e-02 5.938973e-03 8.890365e-03 -5.615639e-02
<VARIANCE> 39
 1.889255e+01 1.577307e+01 1.445136e+01 2.253807e+01 2.053014e+01 2.830574e+01 2.522651e+01 2.333951e+01 2.013665e+01 1.811938e+01 1.628601e+01 1.483842e+01 3.365992e+01 8.368743e-01 1.037897e+00 1.035043e+00 1.714411e+00 1.776793e+00 2.047501e+00 1.819604e+00 1.892371e+00 1.783340e+00 1.682050e+00 1.548701e+00 1.410329e+00 1.421389e+00 1.386192e-01 1.911090e-01 1.971596e-01 3.176393e-01 3.371158e-01 4.040913e-01 3.630235e-01 3.834662e-01 3.609912e-01 3.406226e-01 3.184567e-01 2.895950e-01 2.410666e-01
<GCONST> 9.972966e+01
<TRANSP> 5
 0.000000e+00 1.000000e+00 0.000000e+00 0.000000e+00 0.000000e+00
 0.000000e+00 8.795408e-01 1.204592e-01 0.000000e+00 0.000000e+00
 0.000000e+00 0.000000e+00 9.927660e-01 7.233996e-03 0.000000e+00
 0.000000e+00 0.000000e+00 0.000000e+00 9.893114e-01 1.068863e-02
 0.000000e+00 0.000000e+00 0.000000e+00 0.000000e+00 0.000000e+00
<ENDHMM>
~h "spe"
<BEGINHMM>
<NUMSTATES> 5
<STATE> 2
<NUMMIXES> 2
<MIXTURE> 1 4.790355e-01
<MEAN> 39
 -3.924993e+00 1.887139e+00 1.996180e-01 -3.180931e+00 -3.538864e+00 -3.738799e+00 -1.528181e+00 8.709925e-01 -7.138023e-01 4.771699e-01 -2.412230e-01 -2.833810e+00 5.258139e+01 -1.726441e-01 1.841175e-01 4.576514e-02 3.888603e-02 1.384149e-01 -2.258304e-02 2.339000e-01 6.472515e-02 5.941173e-02 3.368334e-02 9.518443e-02 1.716893e-01 -3.459971e-02 5.325371e-02 -6.864503e-02 -1.584520e-02 -2.794947e-02 -2.524734e-02 5.574799e-02 -3.039226e-03 -1.353707e-02 -5.318262e-02 -4.912446e-02 -5.179053e-02 -8.032151e-02 3.121592e-02
<VARIANCE> 39
 2.794692e+01 2.495899e+01 2.762937e+01 2.196524e+01 4.304320e+01 3.568599e+01 2.706387e+01 3.210810e+01 2.874227e+01 2.842180e+01 2.620144e+01 2.363390e+01 8.867542e+00 9.279763e-01 8.842154e-01 8.825491e-01 9.818211e-01 1.612459e+00 1.649191e+00 1.600021e+00 1.782127e+00 1.778256e+00 1.762759e+00 1.665028e+00 1.497037e+00 1.889898e-01 1.217853e-01 1.345727e-01 1.551544e-01 1.823593e-01 2.971460e-01 3.136681e-01 3.285751e-01 3.454086e-01 3.493324e-01 3.490295e-01 3.324187e-01 2.975994e-01 3.231709e-02
<GCONST> 9.605325e+01
<MIXTURE> 2 5.209430e-01
<MEAN> 39
 6.284513e-01 -3.725259e+00 -1.599769e+00 -5.201697e+00 -5.345748e+00 -2.674367e-01 -3.261576e+00 5.477122e-02 -1.599967e+00 6.798119e-02 -1.969853e+00 -6.356535e+00 5.443274e+01 1.498126e-01 -1.981444e-01 3.886506e-03 -7.050578e-02 -1.588251e-01 -1.900404e-02 -2.559758e-01 -5.849663e-02 -5.389506e-02 -6.965116e-03 -8.472677e-02 -1.659688e-01 8.817434e-02 -4.986294e-02 5.946908e-02 1.612796e-02 2.853496e-02 2.191501e-02 -5.733377e-02 4.519735e-03 1.575806e-02 5.345145e-02 4.423983e-02 4.523601e-02 7.574886e-02 -2.814060e-02
<VARIANCE> 39
 7.345748e+00 2.481939e+01 3.995876e+01 2.941524e+01 4.084091e+01 4.536219e+01 3.122164e+01 3.921341e+01 3.133538e+01 3.001269e+01 3.664760e+01 3.647066e+01 1.102066e+01 2.844699e-01 8.125283e-01 1.187107e+00 1.274006e+00 1.763196e+00 2.024111e+00 1.774013e+00 2.040804e+00 1.988655e+00 2.024970e+00 2.003293e+00 2.001942e+00 2.667353e-01 3.568852e-02 1.031767e-01 1.586192e-01 1.974206e-01 2.669809e-01 3.134359e-01 3.187231e-01 3.587848e-01 3.680466e-01 3.700446e-01 3.569306e-01 3.367074e-01 2.522167e-02
<GCONST> 9.648945e+01
<STATE> 3
<NUMMIXES> 2
<MIXTURE> 1 6.283927e-01
<MEAN> 39
 -2.868699e+00 -4.793065e+00 5.732616e-01 -1.116220e+01 -2.714508e+00 -2.789980e+00 -2.760318e+00 -5.686174e-01 -2.038536e+00 -1.717343e+00 -3.506546e+00 -4.019524e+00 6.106524e+01 4.192985e-02 1.984253e-01 -6.311209e-02 2.238879e-01 1.378943e-01 1.059527e-01 1.013805e-01 -8.209991e-02 -4.695960e-02 -2.378802e-02 -4.706335e-03 -3.352256e-02 -2.926009e-01 -6.720224e-03 1.075345e-02 3.774329e-04 1.441656e-02 7.229582e-04 -2.140827e-02 -2.100763e-02 -1.833989e-02 -2.592148e-02 -1.603586e-02 8.865150e-03 2.202292e-02 -2.471853e-02
<VARIANCE> 39
 2.483807e+01 4.182444e+01 6.459318e+01 5.833751e+01 6.230957e+01 5.172719e+01 4.116339e+01 4.587810e+01 3.342865e+01 2.894978e+01 4.957947e+01 2.963400e+01 2.841310e+01 2.169258e-01 4.597589e-01 6.242858e-01 9.169404e-01 1.150864e+00 1.311532e+00 1.432651e+00 1.599742e+00 1.520088e+00 1.558563e+00 1.559219e+00 1.360798e+00 1.592481e-01 3.518050e-02 7.283343e-02 1.154600e-01 1.671865e-01 2.167011e-01 2.519546e-01 2.815876e-01 3.121713e-01 3.049271e-01 3.015585e-01 3.024268e-01 2.652999e-01 1.847297e-02
<GCONST> 9.399454e+01
<MIXTURE> 2 3.716066e-01
<MEAN> 39
 -3.621852e+00 -3.945846e+00 3.171841e+00 -1.512286e+01 -2.863437e+00 -7.661517e+00 -5.870514e+00 -3.150751e+00 -2.116763e+00 -3.521051e+00 -6.497166e+00 -1.092603e+00 6.187910e+01 -6.297975e-02 -2.646634e-01 -9.806940e-03 -2.202669e-01 -1.721291e-01 -1.912795e-01 -1.170022e-01 6.667387e-02 9.326102e-02 -3.887765e-02 -7.218347e-02 -1.342190e-02 4.487639e-01 8.757208e-03 6.942939e-03 -1.781202e-02 1.604158e-02 1.454258e-02 6.383428e-02 6.873307e-02 2.755558e-02 3.621167e-02 3.550867e-02 -6.101297e-03 -2.962368e-02 -6.844303e-03
<VARIANCE> 39
 2.398663e+01 3.513393e+01 7.378212e+01 7.305525e+01 5.701033e+01 6.161896e+01 5.414999e+01 6.742009e+01 4.332660e+01 4.388842e+01 5.932779e+01 3.759934e+01 1.635518e+01 1.134074e+00 1.732715e+00 2.418729e+00 2.526093e+00 2.937970e+00 2.859548e+00 2.920318e+00 3.148447e+00 2.896396e+00 2.641915e+00 2.665249e+00 2.259011e+00 6.622494e-01 1.391864e-01 2.235982e-01 3.007360e-01 3.665256e-01 4.339578e-01 4.685431e-01 4.794013e-01 5.308586e-01 5.059366e-01 4.985083e-01 4.816275e-01 4.098730e-01 9.184483e-02
<GCONST> 1.176545e+02
<STATE> 4
<NUMMIXES> 2
<MIXTURE> 1 5.169054e-01
<MEAN> 39
 -2.647291e+00 -3.048789e+00 -3.084637e+00 -4.446581e+00 -4.990565e-01 2.121191e+00 3.060172e+00 1.269449e+00 -7.960422e-01 3.204829e-01 -5.906307e-01 -3.282983e+00 5.045115e+01 -1.790165e-02 2.745825e-02 -4.214467e-02 8.683291e-02 6.009325e-02 1.213862e-01 1.444714e-01 4.829918e-02 2.817044e-02 3.265070e-02 4.047413e-02 6.152820e-02 -1.189747e-01 2.012198e-03 -5.371445e-03 1.150965e-02 -2.494640e-02 -2.684130e-02 -3.652320e-02 -4.673185e-02 -2.075168e-02 -2.364349e-02 -1.883713e-02 -2.732911e-03 -1.171690e-02 2.081468e-02
<VARIANCE> 39
 1.027232e+01 1.324852e+01 1.333113e+01 1.218303e+01 1.839698e+01 2.204897e+01 2.468843e+01 2.227512e+01 2.062938e+01 1.865827e+01 1.734838e+01 1.591966e+01 6.138753e+00 1.633924e-01 3.023235e-01 4.973959e-01 6.980008e-01 9.281271e-01 1.152711e+00 1.281230e+00 1.413224e+00 1.445773e+00 1.413125e+00 1.339256e+00 1.222259e+00 6.766471e-02 2.746067e-02 5.359852e-02 9.303904e-02 1.326378e-01 1.802853e-01 2.250660e-01 2.509243e-01 2.788458e-01 2.897846e-01 2.839640e-01 2.679550e-01 2.435298e-01 9.081469e-03
<GCONST> 7.578529e+01
<MIXTURE> 2 4.830737e-01
<MEAN> 39
 -8.603074e-01 -6.190994e+00 6.363487e-01 -8.986444e+00 -5.142756e+00 -2.204911e+00 -3.801994e+00 -7.816991e-01 -2.987970e+00 -7.765471e-01 -4.705812e-01 -4.832306e+00 5.717449e+01 1.987023e-02 -3.520763e-02 2.795684e-02 -7.952458e-02 -4.763669e-02 -1.177743e-01 -1.334876e-01 -2.545568e-02 -1.368972e-02 -1.211833e-02 -2.844902e-02 -4.920853e-02 9.236965e-02 -3.061158e-03 5.707562e-03 -1.246259e-02 2.405682e-02 2.787313e-02 3.796290e-02 4.849961e-02 2.267447e-02 2.611548e-02 2.040553e-02 2.535553e-03 1.219441e-02 -2.005295e-02
<VARIANCE> 39
 1.522101e+01 3.798986e+01 5.191379e+01 3.278565e+01 6.332363e+01 4.569365e+01 4.032592e+01 4.349270e+01 3.875764e+01 4.036914e+01 3.922941e+01 2.824943e+01 1.483477e+01 4.735982e-01 1.067060e+00 1.223961e+00 1.356067e+00 1.831769e+00 1.906388e+00 2.133443e+00 2.051621e+00 2.079157e+00 2.020397e+00 2.000826e+00 1.591051e+00 4.305169e-01 6.553723e-02 1.407963e-01 1.655880e-01 2.115646e-01 2.831665e-01 3.298164e-01 3.660089e-01 3.735031e-01 3.911430e-01 3.835964e-01 3.658016e-01 2.969908e-01 4.241144e-02
<GCONST> 1.026061e+02
<TRANSP> 5
 0.000000e+00 1.000000e+00 0.000000e+00 0.000000e+00 0.000000e+00
 0.000000e+00 9.902870e-01 9.712988e-03 0.000000e+00 0.000000e+00
 0.000000e+00 0.000000e+00 9.842875e-01 1.571250e-02 0.000000e+00
 0.000000e+00 0.000000e+00 0.000000e+00 9.954788e-01 4.521204e-03
 0.000000e+00 0.000000e+00 0.000000e+00 0.000000e+00 0.000000e+00
<ENDHMM>
