~o
<STREAMINFO> 1 39
<VECSIZE> 39<NULLD><MFCC_D_A_0><DIAGC>
~h "ap"
<BEGINHMM>
<NUMSTATES> 5
<STATE> 2
<NUMMIXES> 16
<MIXTURE> 1 1.741003e-03
<MEAN> 39
 -1.085284e+01 -5.037679e+00 5.358405e+00 6.328428e+00 3.421177e+00 -9.905899e-02 7.626239e+00 4.122253e+00 4.007302e+00 3.719376e+00 1.851133e+00 1.570377e+00 5.412440e+01 4.545986e-01 5.102662e-01 3.743749e-01 2.242243e-01 5.748764e-01 7.042214e-01 6.708684e-01 8.527647e-01 6.136217e-01 6.777319e-01 7.337241e-01 2.522458e-01 -6.315939e-01 -2.501389e-02 -1.022667e-03 -8.556077e-02 -8.992191e-02 1.045659e-02 1.018181e-01 4.494612e-02 4.158191e-02 -1.009359e-01 -4.263291e-02 2.951995e-02 4.021632e-02 6.383044e-02
<VARIANCE> 39
 1.334673e+01 3.034068e+01 4.319062e+01 3.208521e+01 1.675180e+01 2.222979e+01 1.789647e+01 2.626664e+01 1.720193e+01 1.479723e+01 1.519709e+01 1.365481e+01 2.475611e+01 9.615755e-02 1.811171e-01 4.253580e-01 7.956145e-01 7.450627e-01 9.693227e-01 1.142684e+00 1.305033e+00 1.233127e+00 1.174038e+00 1.015102e+00 1.093322e+00 5.596684e-02 3.329543e-02 4.446052e-02 9.107071e-02 1.328055e-01 1.336326e-01 2.209386e-01 2.118115e-01 2.594959e-01 2.334609e-01 2.615588e-01 2.174799e-01 2.019517e-01 4.976287e-02
<GCONST> 7.732733e+01
<MIXTURE> 2 9.923817e-02
<MEAN> 39
 -1.348015e+01 -8.782871e+00 -3.350194e+00 -6.067019e-01 -3.824069e-01 -1.628579e+00 3.838246e+00 -9.013663e-01 3.361109e-01 9.252738e-01 4.869086e-01 -3.868056e-01 6.031878e+01 4.178404e-01 2.900440e-01 2.406640e-01 1.634708e-01 3.761451e-01 4.624993e-01 4.909047e-01 4.788735e-01 3.657805e-01 2.859229e-01 2.540468e-01 9.716521e-02 -7.202954e-01 1.209237e-03 3.539497e-02 1.763181e-02 3.581644e-02 3.206658e-02 1.980683e-02 8.312762e-04 2.367551e-02 -1.311481e-03 2.651423e-03 5.636267e-03 -1.123565e-02 -6.059840e-03
<VARIANCE> 39
 2.690064e+01 3.049588e+01 2.626661e+01 2.545771e+01 2.405203e+01 3.038966e+01 2.506809e+01 2.486106e+01 1.869155e+01 1.752268e+01 1.663132e+01 1.639865e+01 6.826610e+01 1.123156e-01 2.311868e-01 3.965250e-01 6.526635e-01 8.251868e-01 9.717569e-01 1.180232e+00 1.248809e+00 1.275391e+00 1.234855e+00 1.210346e+00 1.168372e+00 9.311685e-02 4.683757e-02 7.364484e-02 9.775532e-02 1.435603e-01 1.922849e-01 2.303321e-01 2.580397e-01 2.762008e-01 2.720885e-01 2.660863e-01 2.592993e-01 2.448271e-01 1.467356e-01
<GCONST> 8.414039e+01
<MIXTURE> 3 9.923809e-02
<MEAN> 39
 -1.348015e+01 -8.782871e+00 -3.350194e+00 -6.067019e-01 -3.824068e-01 -1.628580e+00 3.838246e+00 -9.013663e-01 3.361107e-01 9.252743e-01 4.869084e-01 -3.868054e-01 6.031878e+01 4.178403e-01 2.900440e-01 2.406640e-01 1.634708e-01 3.761452e-01 4.624993e-01 4.909046e-01 4.788735e-01 3.657807e-01 2.859230e-01 2.540468e-01 9.716511e-02 -7.202954e-01 1.209177e-03 3.539492e-02 1.763182e-02 3.581661e-02 3.206648e-02 1.980685e-02 8.312091e-04 2.367558e-02 -1.311585e-03 2.651453e-03 5.636252e-03 -1.123569e-02 -6.059930e-03
<VARIANCE> 39
 2.690063e+01 3.049587e+01 2.626660e+01 2.545772e+01 2.405203e+01 3.038968e+01 2.506807e+01 2.486105e+01 1.869155e+01 1.752267e+01 1.663132e+01 1.639864e+01 6.826608e+01 1.123156e-01 2.311868e-01 3.965249e-01 6.526636e-01 8.251870e-01 9.717568e-01 1.180231e+00 1.248809e+00 1.275391e+00 1.234855e+00 1.210346e+00 1.168371e+00 9.311692e-02 4.683750e-02 7.364477e-02 9.775521e-02 1.435603e-01 1.922848e-01 2.303321e-01 2.580397e-01 2.762006e-01 2.720884e-01 2.660864e-01 2.592993e-01 2.448269e-01 1.467353e-01
<GCONST> 8.414037e+01
<MIXTURE> 4 6.647578e-02
<MEAN> 39
 -1.568772e+01 -1.052506e+01 -5.746049e+00 -2.343565e+00 -1.870200e+00 -3.071384e+00 2.123499e+00 -2.195010e+00 -6.653357e-01 3.755005e-01 2.271228e-01 -7.853404e-01 6.639467e+01 3.112841e-01 3.506258e-03 1.428618e-02 -4.193704e-02 -1.905954e-02 -3.801119e-02 3.800738e-02 -1.410709e-01 -1.346802e-01 -1.788668e-01 -1.553175e-01 -6.594403e-02 -6.262445e-01 3.001648e-02 8.390253e-02 2.963405e-02 2.669554e-02 3.129628e-02 -1.945172e-02 -4.880614e-02 -1.773708e-03 -3.439988e-02 -3.493233e-02 -1.975122e-02 -6.069224e-03 -1.366201e-01
<VARIANCE> 39
 3.216096e+01 3.974953e+01 3.061847e+01 2.797093e+01 2.874535e+01 3.331393e+01 2.807782e+01 2.752200e+01 2.127851e+01 1.956692e+01 1.887944e+01 1.593597e+01 1.242651e+02 2.434426e-01 5.016195e-01 5.917903e-01 9.703805e-01 1.207898e+00 1.321741e+00 1.546686e+00 1.546245e+00 1.633887e+00 1.515419e+00 1.398971e+00 1.341402e+00 6.172791e-01 1.916723e-01 2.263375e-01 1.610187e-01 1.888148e-01 2.773689e-01 3.552089e-01 3.497955e-01 3.535252e-01 3.380702e-01 3.130216e-01 2.858061e-01 2.605588e-01 9.256641e-01
<GCONST> 9.943516e+01
<MIXTURE> 5 9.923809e-02
<MEAN> 39
 -1.348015e+01 -8.782871e+00 -3.350194e+00 -6.067019e-01 -3.824068e-01 -1.628580e+00 3.838246e+00 -9.013663e-01 3.361107e-01 9.252743e-01 4.869084e-01 -3.868054e-01 6.031878e+01 4.178403e-01 2.900440e-01 2.406640e-01 1.634708e-01 3.761452e-01 4.624993e-01 4.909046e-01 4.788735e-01 3.657807e-01 2.859230e-01 2.540468e-01 9.716511e-02 -7.202954e-01 1.209177e-03 3.539492e-02 1.763182e-02 3.581661e-02 3.206648e-02 1.980685e-02 8.312091e-04 2.367558e-02 -1.311585e-03 2.651453e-03 5.636252e-03 -1.123569e-02 -6.059930e-03
<VARIANCE> 39
 2.690063e+01 3.049587e+01 2.626660e+01 2.545772e+01 2.405203e+01 3.038968e+01 2.506807e+01 2.486105e+01 1.869155e+01 1.752267e+01 1.663132e+01 1.639864e+01 6.826608e+01 1.123156e-01 2.311868e-01 3.965249e-01 6.526636e-01 8.251870e-01 9.717568e-01 1.180231e+00 1.248809e+00 1.275391e+00 1.234855e+00 1.210346e+00 1.168371e+00 9.311692e-02 4.683750e-02 7.364477e-02 9.775521e-02 1.435603e-01 1.922848e-01 2.303321e-01 2.580397e-01 2.762006e-01 2.720884e-01 2.660864e-01 2.592993e-01 2.448269e-01 1.467353e-01
<GCONST> 8.414037e+01
<MIXTURE> 6 6.647570e-02
<MEAN> 39
 -1.568772e+01 -1.052506e+01 -5.746048e+00 -2.343566e+00 -1.870200e+00 -3.071384e+00 2.123499e+00 -2.195009e+00 -6.653361e-01 3.755006e-01 2.271231e-01 -7.853406e-01 6.639467e+01 3.112842e-01 3.506288e-03 1.428620e-02 -4.193705e-02 -1.905954e-02 -3.801126e-02 3.800730e-02 -1.410709e-01 -1.346802e-01 -1.788670e-01 -1.553175e-01 -6.594414e-02 -6.262444e-01 3.001643e-02 8.390247e-02 2.963403e-02 2.669550e-02 3.129620e-02 -1.945174e-02 -4.880618e-02 -1.773745e-03 -3.439986e-02 -3.493230e-02 -1.975116e-02 -6.069191e-03 -1.366200e-01
<VARIANCE> 39
 3.216097e+01 3.974952e+01 3.061847e+01 2.797093e+01 2.874534e+01 3.331393e+01 2.807782e+01 2.752200e+01 2.127850e+01 1.956692e+01 1.887945e+01 1.593597e+01 1.242651e+02 2.434424e-01 5.016193e-01 5.917902e-01 9.703799e-01 1.207898e+00 1.321741e+00 1.546686e+00 1.546245e+00 1.633887e+00 1.515418e+00 1.398972e+00 1.341402e+00 6.172783e-01 1.916720e-01 2.263374e-01 1.610187e-01 1.888147e-01 2.773688e-01 3.552088e-01 3.497953e-01 3.535252e-01 3.380701e-01 3.130216e-01 2.858061e-01 2.605588e-01 9.256634e-01
<GCONST> 9.943513e+01
<MIXTURE> 7 6.647570e-02
<MEAN> 39
 -1.568772e+01 -1.052506e+01 -5.746047e+00 -2.343566e+00 -1.870200e+00 -3.071384e+00 2.123500e+00 -2.195010e+00 -6.653359e-01 3.755007e-01 2.271231e-01 -7.853404e-01 6.639467e+01 3.112843e-01 3.506273e-03 1.428612e-02 -4.193704e-02 -1.905955e-02 -3.801133e-02 3.800723e-02 -1.410709e-01 -1.346803e-01 -1.788669e-01 -1.553175e-01 -6.594412e-02 -6.262442e-01 3.001642e-02 8.390249e-02 2.963402e-02 2.669551e-02 3.129620e-02 -1.945174e-02 -4.880615e-02 -1.773765e-03 -3.439992e-02 -3.493232e-02 -1.975119e-02 -6.069219e-03 -1.366200e-01
<VARIANCE> 39
 3.216098e+01 3.974953e+01 3.061848e+01 2.797094e+01 2.874534e+01 3.331393e+01 2.807782e+01 2.752201e+01 2.127850e+01 1.956692e+01 1.887945e+01 1.593598e+01 1.242651e+02 2.434424e-01 5.016195e-01 5.917900e-01 9.703799e-01 1.207898e+00 1.321741e+00 1.546687e+00 1.546246e+00 1.633886e+00 1.515418e+00 1.398972e+00 1.341402e+00 6.172787e-01 1.916720e-01 2.263374e-01 1.610187e-01 1.888148e-01 2.773688e-01 3.552088e-01 3.497953e-01 3.535252e-01 3.380701e-01 3.130216e-01 2.858062e-01 2.605590e-01 9.256634e-01
<GCONST> 9.943515e+01
<MIXTURE> 8 4.437815e-02
<MEAN> 39
 -1.514676e+01 -9.219752e+00 -6.238056e+00 -1.756128e+00 -2.364167e+00 -4.629442e+00 1.148043e-01 -9.486980e-01 -1.660356e+00 -7.451559e-01 -2.449633e-01 -1.746930e+00 6.742424e+01 -2.296157e+00 -2.677215e+00 -1.536094e+00 -3.127955e-01 -1.386168e+00 -2.080375e+00 -1.205309e+00 -1.126326e+00 -6.521779e-01 -3.582489e-01 -1.870826e-01 -3.293124e-02 6.001157e+00 3.065325e-01 7.419723e-02 9.194666e-02 -9.821656e-02 1.205410e-01 3.351392e-01 3.374132e-01 1.314101e-01 1.914774e-01 1.197615e-01 9.640937e-02 6.528050e-02 -5.803308e-01
<VARIANCE> 39
 4.427219e+01 5.995338e+01 3.741422e+01 2.830006e+01 3.848354e+01 5.960241e+01 4.259971e+01 3.719973e+01 3.228953e+01 2.495780e+01 2.107028e+01 1.846440e+01 2.266954e+02 3.346636e+00 4.109031e+00 2.524499e+00 2.718629e+00 3.309584e+00 4.160697e+00 3.407299e+00 3.305415e+00 2.699244e+00 2.633735e+00 2.165554e+00 1.809603e+00 1.037603e+01 9.724038e-01 1.004318e+00 5.568604e-01 4.527349e-01 7.012108e-01 1.154178e+00 8.815613e-01 7.814440e-01 5.923222e-01 4.874867e-01 3.926971e-01 3.352413e-01 4.975237e+00
<GCONST> 1.313181e+02
<MIXTURE> 9 9.923808e-02
<MEAN> 39
 -1.348015e+01 -8.782871e+00 -3.350194e+00 -6.067009e-01 -3.824067e-01 -1.628581e+00 3.838245e+00 -9.013669e-01 3.361104e-01 9.252739e-01 4.869089e-01 -3.868056e-01 6.031878e+01 4.178403e-01 2.900440e-01 2.406640e-01 1.634708e-01 3.761450e-01 4.624993e-01 4.909045e-01 4.788734e-01 3.657808e-01 2.859230e-01 2.540469e-01 9.716515e-02 -7.202954e-01 1.209222e-03 3.539488e-02 1.763187e-02 3.581664e-02 3.206655e-02 1.980689e-02 8.313283e-04 2.367561e-02 -1.311474e-03 2.651513e-03 5.636357e-03 -1.123565e-02 -6.059900e-03
<VARIANCE> 39
 2.690063e+01 3.049586e+01 2.626658e+01 2.545770e+01 2.405202e+01 3.038967e+01 2.506806e+01 2.486105e+01 1.869154e+01 1.752267e+01 1.663132e+01 1.639863e+01 6.826607e+01 1.123155e-01 2.311867e-01 3.965248e-01 6.526634e-01 8.251867e-01 9.717562e-01 1.180231e+00 1.248808e+00 1.275390e+00 1.234855e+00 1.210346e+00 1.168370e+00 9.311688e-02 4.683743e-02 7.364470e-02 9.775519e-02 1.435603e-01 1.922847e-01 2.303319e-01 2.580397e-01 2.762005e-01 2.720883e-01 2.660863e-01 2.592993e-01 2.448268e-01 1.467351e-01
<GCONST> 8.414036e+01
<MIXTURE> 10 6.647573e-02
<MEAN> 39
 -1.568772e+01 -1.052506e+01 -5.746048e+00 -2.343565e+00 -1.870200e+00 -3.071384e+00 2.123500e+00 -2.195009e+00 -6.653357e-01 3.755009e-01 2.271232e-01 -7.853407e-01 6.639467e+01 3.112842e-01 3.506333e-03 1.428615e-02 -4.193704e-02 -1.905953e-02 -3.801125e-02 3.800729e-02 -1.410709e-01 -1.346803e-01 -1.788670e-01 -1.553175e-01 -6.594412e-02 -6.262444e-01 3.001639e-02 8.390245e-02 2.963401e-02 2.669550e-02 3.129619e-02 -1.945178e-02 -4.880620e-02 -1.773750e-03 -3.439990e-02 -3.493230e-02 -1.975118e-02 -6.069185e-03 -1.366199e-01
<VARIANCE> 39
 3.216097e+01 3.974952e+01 3.061846e+01 2.797094e+01 2.874533e+01 3.331392e+01 2.807781e+01 2.752200e+01 2.127849e+01 1.956691e+01 1.887944e+01 1.593596e+01 1.242651e+02 2.434424e-01 5.016193e-01 5.917901e-01 9.703799e-01 1.207897e+00 1.321741e+00 1.546686e+00 1.546245e+00 1.633886e+00 1.515418e+00 1.398972e+00 1.341402e+00 6.172783e-01 1.916720e-01 2.263373e-01 1.610186e-01 1.888147e-01 2.773688e-01 3.552088e-01 3.497954e-01 3.535251e-01 3.380701e-01 3.130216e-01 2.858060e-01 2.605589e-01 9.256634e-01
<GCONST> 9.943513e+01
<MIXTURE> 11 6.647571e-02
<MEAN> 39
 -1.568772e+01 -1.052506e+01 -5.746048e+00 -2.343566e+00 -1.870200e+00 -3.071384e+00 2.123499e+00 -2.195010e+00 -6.653360e-01 3.755006e-01 2.271231e-01 -7.853404e-01 6.639467e+01 3.112843e-01 3.506362e-03 1.428620e-02 -4.193704e-02 -1.905955e-02 -3.801130e-02 3.800728e-02 -1.410709e-01 -1.346803e-01 -1.788670e-01 -1.553175e-01 -6.594408e-02 -6.262442e-01 3.001644e-02 8.390249e-02 2.963405e-02 2.669550e-02 3.129621e-02 -1.945174e-02 -4.880614e-02 -1.773724e-03 -3.439987e-02 -3.493229e-02 -1.975119e-02 -6.069207e-03 -1.366200e-01
<VARIANCE> 39
 3.216098e+01 3.974953e+01 3.061847e+01 2.797095e+01 2.874535e+01 3.331394e+01 2.807782e+01 2.752200e+01 2.127850e+01 1.956691e+01 1.887945e+01 1.593598e+01 1.242651e+02 2.434425e-01 5.016193e-01 5.917901e-01 9.703801e-01 1.207898e+00 1.321741e+00 1.546687e+00 1.546245e+00 1.633887e+00 1.515418e+00 1.398972e+00 1.341402e+00 6.172787e-01 1.916720e-01 2.263374e-01 1.610187e-01 1.888147e-01 2.773688e-01 3.552088e-01 3.497955e-01 3.535253e-01 3.380701e-01 3.130216e-01 2.858062e-01 2.605590e-01 9.256635e-01
<GCONST> 9.943513e+01
<MIXTURE> 12 4.437810e-02
<MEAN> 39
 -1.514676e+01 -9.219755e+00 -6.238058e+00 -1.756129e+00 -2.364169e+00 -4.629444e+00 1.148045e-01 -9.486995e-01 -1.660357e+00 -7.451553e-01 -2.449633e-01 -1.746930e+00 6.742425e+01 -2.296156e+00 -2.677214e+00 -1.536094e+00 -3.127957e-01 -1.386168e+00 -2.080375e+00 -1.205309e+00 -1.126325e+00 -6.521779e-01 -3.582488e-01 -1.870830e-01 -3.293192e-02 6.001154e+00 3.065327e-01 7.419747e-02 9.194699e-02 -9.821636e-02 1.205410e-01 3.351389e-01 3.374132e-01 1.314102e-01 1.914771e-01 1.197613e-01 9.640937e-02 6.528038e-02 -5.803308e-01
<VARIANCE> 39
 4.427216e+01 5.995334e+01 3.741420e+01 2.830002e+01 3.848352e+01 5.960237e+01 4.259969e+01 3.719970e+01 3.228951e+01 2.495778e+01 2.107029e+01 1.846439e+01 2.266954e+02 3.346632e+00 4.109029e+00 2.524496e+00 2.718626e+00 3.309582e+00 4.160692e+00 3.407297e+00 3.305413e+00 2.699243e+00 2.633734e+00 2.165552e+00 1.809601e+00 1.037603e+01 9.724028e-01 1.004317e+00 5.568603e-01 4.527348e-01 7.012104e-01 1.154178e+00 8.815602e-01 7.814429e-01 5.923221e-01 4.874863e-01 3.926969e-01 3.352412e-01 4.975234e+00
<GCONST> 1.313181e+02
<MIXTURE> 13 6.647570e-02
<MEAN> 39
 -1.568772e+01 -1.052506e+01 -5.746047e+00 -2.343564e+00 -1.870200e+00 -3.071383e+00 2.123500e+00 -2.195009e+00 -6.653350e-01 3.755014e-01 2.271234e-01 -7.853405e-01 6.639466e+01 3.112843e-01 3.506556e-03 1.428635e-02 -4.193696e-02 -1.905951e-02 -3.801127e-02 3.800712e-02 -1.410710e-01 -1.346803e-01 -1.788672e-01 -1.553177e-01 -6.594411e-02 -6.262449e-01 3.001627e-02 8.390235e-02 2.963392e-02 2.669547e-02 3.129617e-02 -1.945186e-02 -4.880631e-02 -1.773862e-03 -3.439999e-02 -3.493237e-02 -1.975123e-02 -6.069207e-03 -1.366197e-01
<VARIANCE> 39
 3.216097e+01 3.974955e+01 3.061847e+01 2.797092e+01 2.874536e+01 3.331394e+01 2.807783e+01 2.752201e+01 2.127851e+01 1.956691e+01 1.887945e+01 1.593598e+01 1.242651e+02 2.434422e-01 5.016190e-01 5.917902e-01 9.703801e-01 1.207898e+00 1.321741e+00 1.546686e+00 1.546246e+00 1.633887e+00 1.515418e+00 1.398972e+00 1.341402e+00 6.172781e-01 1.916719e-01 2.263374e-01 1.610187e-01 1.888148e-01 2.773688e-01 3.552087e-01 3.497954e-01 3.535253e-01 3.380702e-01 3.130215e-01 2.858063e-01 2.605588e-01 9.256632e-01
<GCONST> 9.943516e+01
<MIXTURE> 14 4.437810e-02
<MEAN> 39
 -1.514676e+01 -9.219755e+00 -6.238058e+00 -1.756129e+00 -2.364169e+00 -4.629444e+00 1.148045e-01 -9.486995e-01 -1.660357e+00 -7.451553e-01 -2.449633e-01 -1.746930e+00 6.742425e+01 -2.296156e+00 -2.677214e+00 -1.536094e+00 -3.127957e-01 -1.386168e+00 -2.080375e+00 -1.205309e+00 -1.126325e+00 -6.521779e-01 -3.582488e-01 -1.870830e-01 -3.293192e-02 6.001154e+00 3.065327e-01 7.419747e-02 9.194699e-02 -9.821636e-02 1.205410e-01 3.351389e-01 3.374132e-01 1.314102e-01 1.914771e-01 1.197613e-01 9.640937e-02 6.528038e-02 -5.803308e-01
<VARIANCE> 39
 4.427216e+01 5.995334e+01 3.741420e+01 2.830002e+01 3.848352e+01 5.960237e+01 4.259969e+01 3.719970e+01 3.228951e+01 2.495778e+01 2.107029e+01 1.846439e+01 2.266954e+02 3.346632e+00 4.109029e+00 2.524496e+00 2.718626e+00 3.309582e+00 4.160692e+00 3.407297e+00 3.305413e+00 2.699243e+00 2.633734e+00 2.165552e+00 1.809601e+00 1.037603e+01 9.724028e-01 1.004317e+00 5.568603e-01 4.527348e-01 7.012104e-01 1.154178e+00 8.815602e-01 7.814429e-01 5.923221e-01 4.874863e-01 3.926969e-01 3.352412e-01 4.975234e+00
<GCONST> 1.313181e+02
<MIXTURE> 15 4.437810e-02
<MEAN> 39
 -1.514676e+01 -9.219755e+00 -6.238058e+00 -1.756129e+00 -2.364169e+00 -4.629444e+00 1.148045e-01 -9.486995e-01 -1.660357e+00 -7.451553e-01 -2.449633e-01 -1.746930e+00 6.742425e+01 -2.296156e+00 -2.677214e+00 -1.536094e+00 -3.127957e-01 -1.386168e+00 -2.080375e+00 -1.205309e+00 -1.126325e+00 -6.521779e-01 -3.582488e-01 -1.870830e-01 -3.293192e-02 6.001154e+00 3.065327e-01 7.419747e-02 9.194699e-02 -9.821636e-02 1.205410e-01 3.351389e-01 3.374132e-01 1.314102e-01 1.914771e-01 1.197613e-01 9.640937e-02 6.528038e-02 -5.803308e-01
<VARIANCE> 39
 4.427216e+01 5.995334e+01 3.741420e+01 2.830002e+01 3.848352e+01 5.960237e+01 4.259969e+01 3.719970e+01 3.228951e+01 2.495778e+01 2.107029e+01 1.846439e+01 2.266954e+02 3.346632e+00 4.109029e+00 2.524496e+00 2.718626e+00 3.309582e+00 4.160692e+00 3.407297e+00 3.305413e+00 2.699243e+00 2.633734e+00 2.165552e+00 1.809601e+00 1.037603e+01 9.724028e-01 1.004317e+00 5.568603e-01 4.527348e-01 7.012104e-01 1.154178e+00 8.815602e-01 7.814429e-01 5.923221e-01 4.874863e-01 3.926969e-01 3.352412e-01 4.975234e+00
<GCONST> 1.313181e+02
<MIXTURE> 16 2.493200e-02
<MEAN> 39
 -8.435961e+00 -1.840578e+00 -1.639139e+00 -2.756472e-01 2.309213e+00 2.158639e+00 4.998656e+00 3.804040e+00 1.419965e+00 1.391843e+00 1.170208e+00 -5.682846e-01 5.101711e+01 -3.278122e+00 -3.382485e+00 -2.430761e+00 -2.024719e-01 -1.913078e+00 -3.431567e+00 -2.817241e+00 -2.231461e+00 -1.904812e+00 -1.063893e+00 -5.749364e-01 -4.383465e-01 8.572418e+00 -4.583200e-01 -9.937999e-01 -6.142842e-01 -3.248091e-01 -5.482250e-01 -5.720694e-01 -2.429738e-01 -4.438848e-01 -2.412366e-01 -1.580161e-01 -1.311094e-01 -6.492707e-02 1.692163e+00
<VARIANCE> 39
 1.622050e+01 1.753015e+01 2.005578e+01 1.784503e+01 1.920646e+01 2.580939e+01 2.342826e+01 2.135702e+01 1.781913e+01 1.724587e+01 1.503114e+01 1.252281e+01 4.824168e+01 1.673885e+00 2.879828e+00 2.611668e+00 3.675128e+00 3.274422e+00 4.392807e+00 3.071949e+00 3.421987e+00 3.027373e+00 2.789942e+00 2.974669e+00 2.117196e+00 4.216234e+00 3.177736e-01 3.790999e-01 2.809401e-01 3.008065e-01 3.597620e-01 6.012662e-01 5.289623e-01 5.486531e-01 4.497832e-01 3.838947e-01 3.518781e-01 2.588214e-01 1.303349e+00
<GCONST> 1.134937e+02
<STATE> 3
<NUMMIXES> 16
<MIXTURE> 1 5.256071e-03
<MEAN> 39
 -1.527028e+01 -1.870565e+01 -1.564775e+01 -4.503533e+00 -4.269909e+00 -1.193972e+01 -1.917756e+00 -3.197632e-01 -2.896037e+00 -3.028063e+00 -8.162975e-02 -3.815126e-01 8.051089e+01 4.491251e-01 -4.137844e-01 -4.670787e-02 1.282952e-01 5.665231e-01 1.227158e+00 2.032363e+00 1.529083e+00 1.530560e+00 1.268784e+00 8.641210e-01 6.323473e-01 -8.008147e-01 5.518110e-01 8.859227e-01 8.848599e-01 7.181855e-01 8.626660e-01 6.584442e-01 4.154100e-01 2.067671e-01 2.008085e-01 1.851525e-01 9.247172e-02 -1.112695e-01 -2.016261e+00
<VARIANCE> 39
 1.140314e+01 2.195331e+01 1.740070e+01 2.250882e+01 2.758811e+01 1.787341e+01 2.765460e+01 2.414940e+01 2.229410e+01 1.997244e+01 1.719061e+01 1.390102e+01 3.485831e+01 1.914355e-01 4.561665e-01 6.502080e-01 1.360574e+00 1.383214e+00 1.474862e+00 1.657222e+00 2.343046e+00 1.880940e+00 1.656630e+00 1.577454e+00 1.203900e+00 1.482701e-01 7.954231e-02 2.077540e-01 1.616714e-01 2.743007e-01 3.469884e-01 3.209892e-01 3.665067e-01 3.883778e-01 3.687865e-01 3.254950e-01 2.703687e-01 2.586319e-01 4.901855e-01
<GCONST> 9.352346e+01
<MIXTURE> 2 6.331046e-02
<MEAN> 39
 -9.845376e+00 -1.508619e+01 -9.371386e+00 1.246234e+00 2.422730e+00 -7.775069e+00 1.271152e+00 -4.467046e-01 -3.406232e+00 -2.297176e+00 1.383181e+00 -1.300514e-01 6.320473e+01 3.071556e-01 3.358120e-01 3.972436e-01 3.722176e-01 4.853528e-01 5.809896e-01 5.494326e-01 5.859283e-01 4.957298e-01 4.305617e-01 3.270095e-01 1.702260e-01 -8.132169e-01 -7.815670e-03 6.178559e-02 4.406989e-02 4.151554e-02 4.008961e-02 4.958259e-02 2.337503e-02 3.492963e-02 4.549509e-02 3.792159e-02 -4.541349e-03 -2.724691e-02 -3.638446e-03
<VARIANCE> 39
 1.313824e+01 2.752301e+01 1.989723e+01 2.419373e+01 3.511522e+01 2.466751e+01 2.820000e+01 2.383199e+01 2.273825e+01 2.018414e+01 1.596468e+01 1.456407e+01 6.714983e+01 9.127340e-02 2.440223e-01 3.616753e-01 5.987086e-01 8.183442e-01 9.282199e-01 1.130455e+00 1.149689e+00 1.191822e+00 1.202278e+00 1.191895e+00 1.129420e+00 5.435211e-02 3.403867e-02 7.157277e-02 1.011658e-01 1.462857e-01 1.956941e-01 2.105987e-01 2.358316e-01 2.548880e-01 2.635365e-01 2.629922e-01 2.474400e-01 2.352688e-01 1.378748e-01
<GCONST> 8.147591e+01
<MIXTURE> 3 6.331167e-02
<MEAN> 39
 -9.845362e+00 -1.508616e+01 -9.371362e+00 1.246248e+00 2.422755e+00 -7.775049e+00 1.271160e+00 -4.466963e-01 -3.406222e+00 -2.297173e+00 1.383186e+00 -1.300490e-01 6.320468e+01 3.071554e-01 3.358135e-01 3.972442e-01 3.722174e-01 4.853520e-01 5.809888e-01 5.494303e-01 5.859272e-01 4.957285e-01 4.305604e-01 3.270085e-01 1.702257e-01 -8.132160e-01 -7.816423e-03 6.178433e-02 4.406842e-02 4.151408e-02 4.008813e-02 4.958202e-02 2.337483e-02 3.492951e-02 4.549467e-02 3.792170e-02 -4.541408e-03 -2.724670e-02 -3.636464e-03
<VARIANCE> 39
 1.313817e+01 2.752299e+01 1.989716e+01 2.419369e+01 3.511522e+01 2.466751e+01 2.820001e+01 2.383198e+01 2.273822e+01 2.018414e+01 1.596467e+01 1.456407e+01 6.714949e+01 9.127317e-02 2.440213e-01 3.616749e-01 5.987081e-01 8.183444e-01 9.282177e-01 1.130452e+00 1.149686e+00 1.191822e+00 1.202276e+00 1.191894e+00 1.129419e+00 5.435183e-02 3.403836e-02 7.157190e-02 1.011651e-01 1.462848e-01 1.956932e-01 2.105985e-01 2.358309e-01 2.548875e-01 2.635359e-01 2.629919e-01 2.474394e-01 2.352688e-01 1.378711e-01
<GCONST> 8.147578e+01
<MIXTURE> 4 1.023104e-01
<MEAN> 39
 -1.170910e+01 -1.763300e+01 -1.185080e+01 -6.450012e-02 9.179604e-02 -9.559732e+00 3.842821e-01 -1.365629e+00 -3.956872e+00 -2.689814e+00 8.276234e-01 -6.990395e-01 7.026748e+01 2.966559e-01 1.343527e-01 2.019103e-01 1.682321e-01 1.968890e-01 4.270841e-02 7.663064e-03 -1.310347e-01 -1.504046e-01 -1.178839e-01 -4.646518e-02 -1.289093e-02 -9.280835e-01 -1.745387e-02 4.108082e-02 9.630904e-03 -1.208558e-02 -9.150710e-03 -1.160633e-02 -5.078425e-02 -1.079335e-02 -1.113142e-02 -1.858879e-02 -1.381451e-02 2.433386e-03 -2.979543e-03
<VARIANCE> 39
 1.314642e+01 2.062728e+01 2.009022e+01 2.272104e+01 3.114771e+01 2.404284e+01 2.912774e+01 2.275800e+01 2.293293e+01 2.138499e+01 1.682582e+01 1.484424e+01 6.615440e+01 1.175429e-01 2.579781e-01 3.852324e-01 6.337374e-01 8.537794e-01 9.554666e-01 1.117753e+00 1.165923e+00 1.250204e+00 1.267892e+00 1.210654e+00 1.161382e+00 5.725000e-02 3.774686e-02 6.775530e-02 9.111569e-02 1.467668e-01 1.955243e-01 2.207420e-01 2.643592e-01 2.743895e-01 2.874830e-01 2.830738e-01 2.613305e-01 2.460736e-01 1.479336e-01
<GCONST> 8.230946e+01
<MIXTURE> 5 6.331167e-02
<MEAN> 39
 -9.845362e+00 -1.508616e+01 -9.371362e+00 1.246248e+00 2.422755e+00 -7.775049e+00 1.271160e+00 -4.466963e-01 -3.406222e+00 -2.297173e+00 1.383186e+00 -1.300490e-01 6.320468e+01 3.071554e-01 3.358135e-01 3.972442e-01 3.722174e-01 4.853520e-01 5.809888e-01 5.494303e-01 5.859272e-01 4.957285e-01 4.305604e-01 3.270085e-01 1.702257e-01 -8.132160e-01 -7.816423e-03 6.178433e-02 4.406842e-02 4.151408e-02 4.008813e-02 4.958202e-02 2.337483e-02 3.492951e-02 4.549467e-02 3.792170e-02 -4.541408e-03 -2.724670e-02 -3.636464e-03
<VARIANCE> 39
 1.313817e+01 2.752299e+01 1.989716e+01 2.419369e+01 3.511522e+01 2.466751e+01 2.820001e+01 2.383198e+01 2.273822e+01 2.018414e+01 1.596467e+01 1.456407e+01 6.714949e+01 9.127317e-02 2.440213e-01 3.616749e-01 5.987081e-01 8.183444e-01 9.282177e-01 1.130452e+00 1.149686e+00 1.191822e+00 1.202276e+00 1.191894e+00 1.129419e+00 5.435183e-02 3.403836e-02 7.157190e-02 1.011651e-01 1.462848e-01 1.956932e-01 2.105985e-01 2.358309e-01 2.548875e-01 2.635359e-01 2.629919e-01 2.474394e-01 2.352688e-01 1.378711e-01
<GCONST> 8.147578e+01
<MIXTURE> 6 1.023105e-01
<MEAN> 39
 -1.170910e+01 -1.763300e+01 -1.185080e+01 -6.449923e-02 9.179667e-02 -9.559732e+00 3.842828e-01 -1.365629e+00 -3.956872e+00 -2.689814e+00 8.276231e-01 -6.990396e-01 7.026748e+01 2.966559e-01 1.343527e-01 2.019104e-01 1.682322e-01 1.968890e-01 4.270837e-02 7.663101e-03 -1.310346e-01 -1.504045e-01 -1.178839e-01 -4.646507e-02 -1.289090e-02 -9.280835e-01 -1.745387e-02 4.108082e-02 9.630905e-03 -1.208559e-02 -9.150687e-03 -1.160634e-02 -5.078431e-02 -1.079340e-02 -1.113142e-02 -1.858880e-02 -1.381452e-02 2.433380e-03 -2.979528e-03
<VARIANCE> 39
 1.314642e+01 2.062728e+01 2.009023e+01 2.272104e+01 3.114773e+01 2.404285e+01 2.912774e+01 2.275801e+01 2.293294e+01 2.138500e+01 1.682582e+01 1.484424e+01 6.615443e+01 1.175429e-01 2.579781e-01 3.852324e-01 6.337376e-01 8.537794e-01 9.554665e-01 1.117753e+00 1.165923e+00 1.250204e+00 1.267892e+00 1.210654e+00 1.161383e+00 5.725001e-02 3.774687e-02 6.775530e-02 9.111572e-02 1.467668e-01 1.955243e-01 2.207420e-01 2.643591e-01 2.743896e-01 2.874831e-01 2.830738e-01 2.613305e-01 2.460736e-01 1.479336e-01
<GCONST> 8.230946e+01
<MIXTURE> 7 1.023109e-01
<MEAN> 39
 -1.170909e+01 -1.763299e+01 -1.185079e+01 -6.448928e-02 9.181035e-02 -9.559725e+00 3.842894e-01 -1.365624e+00 -3.956868e+00 -2.689811e+00 8.276280e-01 -6.990367e-01 7.026744e+01 2.966556e-01 1.343533e-01 2.019105e-01 1.682319e-01 1.968888e-01 4.270832e-02 7.662065e-03 -1.310344e-01 -1.504043e-01 -1.178841e-01 -4.646550e-02 -1.289116e-02 -9.280828e-01 -1.745424e-02 4.108027e-02 9.630267e-03 -1.208635e-02 -9.151560e-03 -1.160707e-02 -5.078464e-02 -1.079360e-02 -1.113168e-02 -1.858900e-02 -1.381474e-02 2.433244e-03 -2.978351e-03
<VARIANCE> 39
 1.314642e+01 2.062729e+01 2.009023e+01 2.272101e+01 3.114769e+01 2.404282e+01 2.912771e+01 2.275796e+01 2.293293e+01 2.138496e+01 1.682580e+01 1.484423e+01 6.615446e+01 1.175426e-01 2.579775e-01 3.852320e-01 6.337369e-01 8.537787e-01 9.554662e-01 1.117750e+00 1.165923e+00 1.250203e+00 1.267890e+00 1.210654e+00 1.161382e+00 5.725011e-02 3.774675e-02 6.775498e-02 9.111552e-02 1.467667e-01 1.955238e-01 2.207417e-01 2.643588e-01 2.743890e-01 2.874826e-01 2.830731e-01 2.613300e-01 2.460734e-01 1.479323e-01
<GCONST> 8.230942e+01
<MIXTURE> 8 2.391835e-02
<MEAN> 39
 -1.267600e+01 -1.528302e+01 -1.141300e+01 -5.125368e-01 -3.566780e-01 -9.902329e+00 -1.996920e+00 -6.933507e-01 -3.714528e+00 -3.187788e+00 1.189149e-01 -1.029815e+00 7.225449e+01 -1.079329e+00 -8.749462e-01 -1.066703e+00 -9.743251e-01 -1.193650e+00 -7.642851e-01 -4.809186e-01 -2.552589e-01 -2.092768e-01 -1.725354e-01 -2.396098e-01 -1.209227e-01 3.518741e+00 1.927568e-01 -4.564969e-02 7.301053e-02 6.694764e-02 1.040402e-01 1.517368e-01 2.585047e-01 6.140162e-02 5.116966e-02 8.623324e-02 1.021047e-01 5.990989e-02 -4.586848e-01
<VARIANCE> 39
 2.724559e+01 2.971168e+01 2.816345e+01 3.533237e+01 3.927361e+01 3.745634e+01 4.369920e+01 2.804420e+01 3.008085e+01 2.425216e+01 1.950359e+01 1.742565e+01 1.696853e+02 1.570290e+00 3.541082e+00 2.029418e+00 2.402978e+00 2.617404e+00 2.860661e+00 3.119094e+00 2.484015e+00 2.447482e+00 2.056204e+00 1.759970e+00 1.528789e+00 1.000644e+01 6.120257e-01 5.084847e-01 5.244217e-01 6.092607e-01 7.204333e-01 7.910771e-01 8.367856e-01 5.898234e-01 5.418955e-01 4.710207e-01 3.965912e-01 3.393067e-01 4.493942e+00
<GCONST> 1.240608e+02
<MIXTURE> 9 6.331096e-02
<MEAN> 39
 -9.845366e+00 -1.508616e+01 -9.371367e+00 1.246244e+00 2.422753e+00 -7.775053e+00 1.271158e+00 -4.466987e-01 -3.406223e+00 -2.297174e+00 1.383185e+00 -1.300491e-01 6.320469e+01 3.071554e-01 3.358132e-01 3.972440e-01 3.722174e-01 4.853519e-01 5.809890e-01 5.494310e-01 5.859276e-01 4.957288e-01 4.305605e-01 3.270082e-01 1.702252e-01 -8.132161e-01 -7.816199e-03 6.178442e-02 4.406875e-02 4.151438e-02 4.008849e-02 4.958212e-02 2.337496e-02 3.492951e-02 4.549479e-02 3.792170e-02 -4.541442e-03 -2.724683e-02 -3.637001e-03
<VARIANCE> 39
 1.313820e+01 2.752300e+01 1.989719e+01 2.419368e+01 3.511523e+01 2.466751e+01 2.820002e+01 2.383198e+01 2.273824e+01 2.018414e+01 1.596467e+01 1.456408e+01 6.714960e+01 9.127327e-02 2.440213e-01 3.616749e-01 5.987080e-01 8.183444e-01 9.282179e-01 1.130452e+00 1.149686e+00 1.191822e+00 1.202278e+00 1.191895e+00 1.129420e+00 5.435188e-02 3.403841e-02 7.157210e-02 1.011652e-01 1.462851e-01 1.956933e-01 2.105985e-01 2.358311e-01 2.548876e-01 2.635358e-01 2.629922e-01 2.474397e-01 2.352689e-01 1.378717e-01
<GCONST> 8.147581e+01
<MIXTURE> 10 1.023105e-01
<MEAN> 39
 -1.170910e+01 -1.763300e+01 -1.185080e+01 -6.449896e-02 9.179661e-02 -9.559731e+00 3.842828e-01 -1.365629e+00 -3.956872e+00 -2.689814e+00 8.276234e-01 -6.990395e-01 7.026748e+01 2.966559e-01 1.343527e-01 2.019104e-01 1.682322e-01 1.968890e-01 4.270839e-02 7.663108e-03 -1.310346e-01 -1.504046e-01 -1.178840e-01 -4.646501e-02 -1.289096e-02 -9.280835e-01 -1.745389e-02 4.108082e-02 9.630903e-03 -1.208560e-02 -9.150685e-03 -1.160635e-02 -5.078435e-02 -1.079342e-02 -1.113143e-02 -1.858882e-02 -1.381454e-02 2.433360e-03 -2.979482e-03
<VARIANCE> 39
 1.314643e+01 2.062728e+01 2.009023e+01 2.272105e+01 3.114774e+01 2.404286e+01 2.912775e+01 2.275801e+01 2.293295e+01 2.138501e+01 1.682582e+01 1.484425e+01 6.615446e+01 1.175429e-01 2.579782e-01 3.852325e-01 6.337378e-01 8.537797e-01 9.554670e-01 1.117753e+00 1.165923e+00 1.250204e+00 1.267892e+00 1.210655e+00 1.161383e+00 5.725000e-02 3.774690e-02 6.775533e-02 9.111575e-02 1.467669e-01 1.955244e-01 2.207422e-01 2.643592e-01 2.743896e-01 2.874832e-01 2.830739e-01 2.613306e-01 2.460737e-01 1.479337e-01
<GCONST> 8.230947e+01
<MIXTURE> 11 1.023107e-01
<MEAN> 39
 -1.170909e+01 -1.763299e+01 -1.185079e+01 -6.448892e-02 9.180927e-02 -9.559725e+00 3.842899e-01 -1.365625e+00 -3.956869e+00 -2.689811e+00 8.276277e-01 -6.990374e-01 7.026744e+01 2.966557e-01 1.343533e-01 2.019105e-01 1.682319e-01 1.968888e-01 4.270829e-02 7.662013e-03 -1.310345e-01 -1.504042e-01 -1.178841e-01 -4.646548e-02 -1.289121e-02 -9.280831e-01 -1.745426e-02 4.108024e-02 9.630254e-03 -1.208633e-02 -9.151543e-03 -1.160703e-02 -5.078461e-02 -1.079357e-02 -1.113164e-02 -1.858900e-02 -1.381465e-02 2.433318e-03 -2.978312e-03
<VARIANCE> 39
 1.314642e+01 2.062729e+01 2.009023e+01 2.272102e+01 3.114770e+01 2.404283e+01 2.912771e+01 2.275797e+01 2.293294e+01 2.138497e+01 1.682580e+01 1.484423e+01 6.615446e+01 1.175426e-01 2.579776e-01 3.852319e-01 6.337368e-01 8.537791e-01 9.554661e-01 1.117750e+00 1.165923e+00 1.250203e+00 1.267890e+00 1.210653e+00 1.161382e+00 5.724994e-02 3.774673e-02 6.775499e-02 9.111551e-02 1.467667e-01 1.955238e-01 2.207418e-01 2.643589e-01 2.743891e-01 2.874827e-01 2.830733e-01 2.613301e-01 2.460734e-01 1.479321e-01
<GCONST> 8.230943e+01
<MIXTURE> 12 2.391843e-02
<MEAN> 39
 -1.267600e+01 -1.528302e+01 -1.141300e+01 -5.125349e-01 -3.566745e-01 -9.902326e+00 -1.996921e+00 -6.933491e-01 -3.714523e+00 -3.187786e+00 1.189149e-01 -1.029814e+00 7.225448e+01 -1.079330e+00 -8.749459e-01 -1.066703e+00 -9.743255e-01 -1.193650e+00 -7.642852e-01 -4.809193e-01 -2.552582e-01 -2.092757e-01 -1.725358e-01 -2.396102e-01 -1.209223e-01 3.518746e+00 1.927564e-01 -4.565026e-02 7.301041e-02 6.694713e-02 1.040395e-01 1.517361e-01 2.585045e-01 6.140144e-02 5.116931e-02 8.623296e-02 1.021044e-01 5.990969e-02 -4.586835e-01
<VARIANCE> 39
 2.724563e+01 2.971168e+01 2.816345e+01 3.533239e+01 3.927361e+01 3.745634e+01 4.369919e+01 2.804420e+01 3.008085e+01 2.425216e+01 1.950359e+01 1.742564e+01 1.696853e+02 1.570291e+00 3.541085e+00 2.029420e+00 2.402978e+00 2.617404e+00 2.860665e+00 3.119092e+00 2.484015e+00 2.447487e+00 2.056205e+00 1.759972e+00 1.528790e+00 1.000644e+01 6.120258e-01 5.084847e-01 5.244219e-01 6.092616e-01 7.204335e-01 7.910777e-01 8.367858e-01 5.898234e-01 5.418953e-01 4.710210e-01 3.965913e-01 3.393068e-01 4.493944e+00
<GCONST> 1.240608e+02
<MIXTURE> 13 1.023106e-01
<MEAN> 39
 -1.170909e+01 -1.763299e+01 -1.185079e+01 -6.448859e-02 9.180930e-02 -9.559725e+00 3.842902e-01 -1.365624e+00 -3.956869e+00 -2.689811e+00 8.276280e-01 -6.990374e-01 7.026744e+01 2.966557e-01 1.343533e-01 2.019105e-01 1.682318e-01 1.968888e-01 4.270826e-02 7.661954e-03 -1.310345e-01 -1.504042e-01 -1.178839e-01 -4.646542e-02 -1.289112e-02 -9.280832e-01 -1.745424e-02 4.108022e-02 9.630288e-03 -1.208629e-02 -9.151562e-03 -1.160706e-02 -5.078458e-02 -1.079357e-02 -1.113161e-02 -1.858891e-02 -1.381461e-02 2.433292e-03 -2.978310e-03
<VARIANCE> 39
 1.314641e+01 2.062728e+01 2.009022e+01 2.272100e+01 3.114767e+01 2.404283e+01 2.912773e+01 2.275796e+01 2.293291e+01 2.138497e+01 1.682581e+01 1.484423e+01 6.615442e+01 1.175426e-01 2.579776e-01 3.852317e-01 6.337366e-01 8.537791e-01 9.554657e-01 1.117750e+00 1.165923e+00 1.250203e+00 1.267890e+00 1.210653e+00 1.161382e+00 5.724987e-02 3.774671e-02 6.775493e-02 9.111544e-02 1.467666e-01 1.955238e-01 2.207417e-01 2.643588e-01 2.743890e-01 2.874826e-01 2.830732e-01 2.613300e-01 2.460733e-01 1.479318e-01
<GCONST> 8.230941e+01
<MIXTURE> 14 2.391843e-02
<MEAN> 39
 -1.267600e+01 -1.528302e+01 -1.141300e+01 -5.125349e-01 -3.566745e-01 -9.902326e+00 -1.996921e+00 -6.933491e-01 -3.714523e+00 -3.187786e+00 1.189149e-01 -1.029814e+00 7.225448e+01 -1.079330e+00 -8.749459e-01 -1.066703e+00 -9.743255e-01 -1.193650e+00 -7.642852e-01 -4.809193e-01 -2.552582e-01 -2.092757e-01 -1.725358e-01 -2.396102e-01 -1.209223e-01 3.518746e+00 1.927564e-01 -4.565026e-02 7.301041e-02 6.694713e-02 1.040395e-01 1.517361e-01 2.585045e-01 6.140144e-02 5.116931e-02 8.623296e-02 1.021044e-01 5.990969e-02 -4.586835e-01
<VARIANCE> 39
 2.724563e+01 2.971168e+01 2.816345e+01 3.533239e+01 3.927361e+01 3.745634e+01 4.369919e+01 2.804420e+01 3.008085e+01 2.425216e+01 1.950359e+01 1.742564e+01 1.696853e+02 1.570291e+00 3.541085e+00 2.029420e+00 2.402978e+00 2.617404e+00 2.860665e+00 3.119092e+00 2.484015e+00 2.447487e+00 2.056205e+00 1.759972e+00 1.528790e+00 1.000644e+01 6.120258e-01 5.084847e-01 5.244219e-01 6.092616e-01 7.204335e-01 7.910777e-01 8.367858e-01 5.898234e-01 5.418953e-01 4.710210e-01 3.965913e-01 3.393068e-01 4.493944e+00
<GCONST> 1.240608e+02
<MIXTURE> 15 2.391779e-02
<MEAN> 39
 -1.267589e+01 -1.528296e+01 -1.141291e+01 -5.124589e-01 -3.565805e-01 -9.902234e+00 -1.996826e+00 -6.933122e-01 -3.714493e+00 -3.187752e+00 1.189403e-01 -1.029797e+00 7.225416e+01 -1.079331e+00 -8.749111e-01 -1.066684e+00 -9.743180e-01 -1.193637e+00 -7.642804e-01 -4.809364e-01 -2.552619e-01 -2.092723e-01 -1.725394e-01 -2.396175e-01 -1.209259e-01 3.518706e+00 1.927370e-01 -4.566260e-02 7.299349e-02 6.693414e-02 1.040240e-01 1.517180e-01 2.584867e-01 6.139283e-02 5.116183e-02 8.622520e-02 1.020984e-01 5.990650e-02 -4.586249e-01
<VARIANCE> 39
 2.724551e+01 2.971155e+01 2.816330e+01 3.533197e+01 3.927325e+01 3.745612e+01 4.369881e+01 2.804387e+01 3.008036e+01 2.425194e+01 1.950332e+01 1.742542e+01 1.696849e+02 1.570271e+00 3.541059e+00 2.029396e+00 2.402951e+00 2.617375e+00 2.860631e+00 3.119052e+00 2.483985e+00 2.447452e+00 2.056182e+00 1.759954e+00 1.528773e+00 1.000634e+01 6.120252e-01 5.084780e-01 5.244190e-01 6.092537e-01 7.204273e-01 7.910719e-01 8.367798e-01 5.898160e-01 5.418893e-01 4.710153e-01 3.965860e-01 3.393036e-01 4.493946e+00
<GCONST> 1.240604e+02
<MIXTURE> 16 3.190867e-02
<MEAN> 39
 -9.445107e+00 -8.682822e+00 -6.052725e+00 1.623989e+00 3.468213e+00 -4.213318e+00 1.225852e+00 1.761630e+00 -1.229856e+00 -9.982058e-01 8.298346e-01 -4.255434e-01 5.816499e+01 -2.508506e+00 -1.401928e+00 -2.141721e+00 -1.605912e+00 -1.981474e+00 -2.363239e+00 -2.221961e+00 -9.985898e-01 -6.445128e-01 -8.660710e-01 -5.769914e-01 -4.176144e-01 7.346931e+00 -2.891071e-01 -9.332189e-01 -6.568264e-01 -3.035570e-01 -4.352393e-01 -5.377894e-01 -9.634610e-02 -2.040853e-01 -2.502650e-01 -1.168951e-01 -2.227218e-02 -1.633051e-02 1.519922e+00
<VARIANCE> 39
 2.131917e+01 2.924958e+01 1.841224e+01 3.077020e+01 2.997380e+01 3.654583e+01 3.963106e+01 2.410173e+01 2.296766e+01 2.114664e+01 1.721918e+01 1.510484e+01 9.104236e+01 9.179066e-01 3.801821e+00 2.141677e+00 3.376148e+00 3.395393e+00 3.701647e+00 3.393628e+00 3.477497e+00 3.748224e+00 2.787773e+00 2.263539e+00 2.084038e+00 5.766913e+00 3.262481e-01 2.703350e-01 3.052537e-01 4.426316e-01 4.766236e-01 6.689913e-01 6.955906e-01 4.622232e-01 4.604995e-01 4.071179e-01 3.272505e-01 2.973579e-01 1.898511e+00
<GCONST> 1.183780e+02
<STATE> 4
<NUMMIXES> 16
<MIXTURE> 1 6.485828e-04
<MEAN> 39
 -1.171709e+01 -8.999550e+00 -5.896214e+00 -2.695437e+00 -2.759872e+00 -4.518866e+00 1.988091e+00 -1.788162e+00 -1.647470e+00 -3.232921e-01 -5.623316e-01 -1.102516e+00 6.061441e+01 4.607940e-01 3.528616e-01 5.873145e-01 6.147962e-01 8.638043e-01 1.226412e+00 1.469389e+00 1.706471e+00 1.836230e+00 1.502544e+00 1.012687e+00 7.887797e-01 -5.174714e-01 2.654408e-01 3.259863e-01 3.655536e-01 4.410588e-01 6.156472e-01 3.690948e-01 3.338788e-01 4.066513e-01 2.186351e-01 1.725087e-01 2.105957e-01 6.340184e-02 -7.060251e-01
<VARIANCE> 39
 3.388862e+01 4.571869e+01 2.221087e+01 2.754909e+01 3.886897e+01 3.617480e+01 2.518968e+01 3.074520e+01 1.995637e+01 1.689535e+01 1.844396e+01 1.563943e+01 1.681140e+02 1.978984e-01 4.704059e-01 5.143955e-01 8.479259e-01 9.884970e-01 1.122845e+00 1.356555e+00 1.452247e+00 1.680410e+00 1.528200e+00 1.429910e+00 1.353378e+00 1.734218e-01 1.702389e-01 2.139151e-01 1.796937e-01 2.462278e-01 4.330052e-01 3.186651e-01 3.275329e-01 3.037005e-01 3.002482e-01 2.601856e-01 2.897056e-01 2.693279e-01 1.145277e+00
<GCONST> 9.769581e+01
<MIXTURE> 2 6.633381e-02
<MEAN> 39
 -8.573711e+00 -7.594778e+00 -2.923691e+00 6.961149e-01 9.586768e-01 -2.163661e+00 3.893080e+00 3.358287e-01 -7.377223e-01 4.965320e-01 9.826210e-01 -7.499596e-01 5.349651e+01 2.516150e-01 3.944060e-01 2.792569e-01 2.025001e-01 3.171795e-01 5.288328e-01 4.427910e-01 6.221402e-01 4.960364e-01 4.167140e-01 2.852641e-01 1.375172e-01 -5.273506e-01 -1.039900e-02 2.185037e-02 2.048865e-02 3.922620e-02 4.811043e-02 4.745575e-02 3.492137e-02 3.837706e-02 2.725899e-02 2.235595e-02 1.863141e-02 8.197479e-03 2.704079e-02
<VARIANCE> 39
 1.725779e+01 4.558202e+01 1.576080e+01 2.193795e+01 2.571386e+01 2.968230e+01 2.142592e+01 2.879072e+01 2.080880e+01 1.804255e+01 1.508047e+01 1.374097e+01 5.527557e+01 1.188266e-01 2.456280e-01 3.996645e-01 6.338981e-01 8.324515e-01 9.411454e-01 1.100180e+00 1.173169e+00 1.236978e+00 1.226384e+00 1.202831e+00 1.110358e+00 1.263358e-01 2.849263e-02 5.352357e-02 8.612935e-02 1.298380e-01 1.778292e-01 2.071404e-01 2.304808e-01 2.519587e-01 2.625113e-01 2.620446e-01 2.473531e-01 2.244017e-01 4.269126e-02
<GCONST> 8.042039e+01
<MIXTURE> 3 6.633352e-02
<MEAN> 39
 -8.573712e+00 -7.594779e+00 -2.923690e+00 6.961147e-01 9.586760e-01 -2.163663e+00 3.893080e+00 3.358268e-01 -7.377232e-01 4.965332e-01 9.826213e-01 -7.499603e-01 5.349652e+01 2.516150e-01 3.944060e-01 2.792571e-01 2.025003e-01 3.171794e-01 5.288328e-01 4.427910e-01 6.221403e-01 4.960366e-01 4.167141e-01 2.852642e-01 1.375175e-01 -5.273507e-01 -1.039894e-02 2.185044e-02 2.048863e-02 3.922630e-02 4.811056e-02 4.745577e-02 3.492143e-02 3.837725e-02 2.725895e-02 2.235609e-02 1.863143e-02 8.197498e-03 2.704060e-02
<VARIANCE> 39
 1.725780e+01 4.558201e+01 1.576078e+01 2.193793e+01 2.571385e+01 2.968226e+01 2.142591e+01 2.879070e+01 2.080881e+01 1.804256e+01 1.508046e+01 1.374096e+01 5.527555e+01 1.188265e-01 2.456280e-01 3.996643e-01 6.338972e-01 8.324511e-01 9.411444e-01 1.100179e+00 1.173168e+00 1.236979e+00 1.226383e+00 1.202829e+00 1.110356e+00 1.263355e-01 2.849266e-02 5.352356e-02 8.612932e-02 1.298381e-01 1.778293e-01 2.071403e-01 2.304803e-01 2.519586e-01 2.625111e-01 2.620446e-01 2.473531e-01 2.244015e-01 4.269135e-02
<GCONST> 8.042038e+01
<MIXTURE> 4 1.031246e-01
<MEAN> 39
 -1.152802e+01 -1.164950e+01 -5.590864e+00 -3.284063e-01 -3.527831e-01 -4.763571e+00 2.577957e+00 -1.976793e+00 -1.888536e+00 -2.156361e-01 5.839494e-01 -7.383647e-01 6.175967e+01 2.564128e-01 1.946272e-01 1.456497e-01 5.105833e-02 1.172647e-01 6.330573e-02 -1.415672e-02 -4.443117e-02 -1.211581e-01 -1.218384e-01 -8.660597e-02 -6.215941e-02 -7.546181e-01 -1.979213e-02 1.628765e-02 -1.063782e-02 -1.477774e-02 -2.326582e-02 -2.836211e-02 -4.117592e-02 -1.924586e-02 -2.671042e-02 -1.964342e-02 -1.516044e-02 -9.452537e-03 6.800912e-03
<VARIANCE> 39
 2.383849e+01 5.612871e+01 2.643166e+01 2.423217e+01 3.400785e+01 3.369115e+01 2.683876e+01 3.005388e+01 2.411949e+01 2.017348e+01 1.718183e+01 1.491735e+01 1.088796e+02 1.551839e-01 2.897278e-01 4.341383e-01 6.710349e-01 9.086461e-01 1.011323e+00 1.175790e+00 1.218424e+00 1.287270e+00 1.284315e+00 1.245482e+00 1.152678e+00 1.387992e-01 4.653774e-02 7.384705e-02 9.665057e-02 1.431262e-01 1.937956e-01 2.301561e-01 2.579266e-01 2.782809e-01 2.928456e-01 2.841251e-01 2.663605e-01 2.434918e-01 1.388072e-01
<GCONST> 8.743360e+01
<MIXTURE> 5 6.633352e-02
<MEAN> 39
 -8.573712e+00 -7.594779e+00 -2.923690e+00 6.961147e-01 9.586760e-01 -2.163663e+00 3.893080e+00 3.358268e-01 -7.377232e-01 4.965332e-01 9.826213e-01 -7.499603e-01 5.349652e+01 2.516150e-01 3.944060e-01 2.792571e-01 2.025003e-01 3.171794e-01 5.288328e-01 4.427910e-01 6.221403e-01 4.960366e-01 4.167141e-01 2.852642e-01 1.375175e-01 -5.273507e-01 -1.039894e-02 2.185044e-02 2.048863e-02 3.922630e-02 4.811056e-02 4.745577e-02 3.492143e-02 3.837725e-02 2.725895e-02 2.235609e-02 1.863143e-02 8.197498e-03 2.704060e-02
<VARIANCE> 39
 1.725780e+01 4.558201e+01 1.576078e+01 2.193793e+01 2.571385e+01 2.968226e+01 2.142591e+01 2.879070e+01 2.080881e+01 1.804256e+01 1.508046e+01 1.374096e+01 5.527555e+01 1.188265e-01 2.456280e-01 3.996643e-01 6.338972e-01 8.324511e-01 9.411444e-01 1.100179e+00 1.173168e+00 1.236979e+00 1.226383e+00 1.202829e+00 1.110356e+00 1.263355e-01 2.849266e-02 5.352356e-02 8.612932e-02 1.298381e-01 1.778293e-01 2.071403e-01 2.304803e-01 2.519586e-01 2.625111e-01 2.620446e-01 2.473531e-01 2.244015e-01 4.269135e-02
<GCONST> 8.042038e+01
<MIXTURE> 6 1.031248e-01
<MEAN> 39
 -1.152802e+01 -1.164950e+01 -5.590864e+00 -3.284060e-01 -3.527843e-01 -4.763571e+00 2.577957e+00 -1.976793e+00 -1.888535e+00 -2.156374e-01 5.839496e-01 -7.383643e-01 6.175967e+01 2.564127e-01 1.946272e-01 1.456497e-01 5.105830e-02 1.172647e-01 6.330570e-02 -1.415686e-02 -4.443129e-02 -1.211582e-01 -1.218385e-01 -8.660592e-02 -6.215953e-02 -7.546183e-01 -1.979216e-02 1.628760e-02 -1.063782e-02 -1.477770e-02 -2.326587e-02 -2.836210e-02 -4.117593e-02 -1.924588e-02 -2.671045e-02 -1.964341e-02 -1.516044e-02 -9.452540e-03 6.801009e-03
<VARIANCE> 39
 2.383850e+01 5.612871e+01 2.643166e+01 2.423218e+01 3.400785e+01 3.369117e+01 2.683878e+01 3.005389e+01 2.411950e+01 2.017347e+01 1.718183e+01 1.491737e+01 1.088796e+02 1.551840e-01 2.897280e-01 4.341384e-01 6.710352e-01 9.086466e-01 1.011323e+00 1.175790e+00 1.218424e+00 1.287270e+00 1.284316e+00 1.245483e+00 1.152679e+00 1.387989e-01 4.653772e-02 7.384703e-02 9.665052e-02 1.431262e-01 1.937957e-01 2.301561e-01 2.579269e-01 2.782808e-01 2.928456e-01 2.841251e-01 2.663606e-01 2.434917e-01 1.388071e-01
<GCONST> 8.743361e+01
<MIXTURE> 7 1.031250e-01
<MEAN> 39
 -1.152802e+01 -1.164950e+01 -5.590865e+00 -3.284064e-01 -3.527845e-01 -4.763571e+00 2.577956e+00 -1.976794e+00 -1.888535e+00 -2.156373e-01 5.839496e-01 -7.383645e-01 6.175967e+01 2.564127e-01 1.946272e-01 1.456496e-01 5.105836e-02 1.172648e-01 6.330575e-02 -1.415676e-02 -4.443121e-02 -1.211579e-01 -1.218385e-01 -8.660590e-02 -6.215939e-02 -7.546183e-01 -1.979213e-02 1.628764e-02 -1.063780e-02 -1.477768e-02 -2.326585e-02 -2.836208e-02 -4.117595e-02 -1.924582e-02 -2.671047e-02 -1.964343e-02 -1.516047e-02 -9.452535e-03 6.800931e-03
<VARIANCE> 39
 2.383849e+01 5.612871e+01 2.643165e+01 2.423219e+01 3.400785e+01 3.369115e+01 2.683877e+01 3.005388e+01 2.411951e+01 2.017348e+01 1.718183e+01 1.491738e+01 1.088796e+02 1.551840e-01 2.897281e-01 4.341384e-01 6.710355e-01 9.086470e-01 1.011323e+00 1.175791e+00 1.218425e+00 1.287269e+00 1.284315e+00 1.245483e+00 1.152678e+00 1.387989e-01 4.653775e-02 7.384704e-02 9.665050e-02 1.431261e-01 1.937957e-01 2.301563e-01 2.579269e-01 2.782809e-01 2.928456e-01 2.841253e-01 2.663605e-01 2.434918e-01 1.388070e-01
<GCONST> 8.743361e+01
<MIXTURE> 8 2.137142e-02
<MEAN> 39
 -1.478789e+01 -1.086379e+01 -6.940887e+00 -1.695608e+00 -2.724828e+00 -6.119758e+00 2.864113e-01 -2.171053e+00 -2.748594e+00 -6.249501e-01 -3.161147e-01 -1.597310e+00 6.840105e+01 -1.360849e+00 -1.385107e+00 -1.020440e+00 -7.243201e-01 -1.215081e+00 -1.024768e+00 -5.547832e-01 -7.336389e-01 -1.085039e-01 -1.614688e-01 -1.496325e-01 9.332430e-02 3.759017e+00 3.231856e-01 1.799686e-01 1.864441e-01 6.134725e-02 2.087491e-01 2.401879e-01 2.425537e-01 1.810575e-01 1.736124e-01 8.785044e-02 6.940313e-02 4.124520e-02 -7.531664e-01
<VARIANCE> 39
 4.061301e+01 6.208696e+01 3.463439e+01 3.142525e+01 4.397712e+01 4.622249e+01 3.937183e+01 3.863332e+01 3.113494e+01 2.319885e+01 2.050369e+01 1.716341e+01 2.201441e+02 2.806853e+00 5.219522e+00 2.247227e+00 2.251242e+00 2.869754e+00 3.647144e+00 3.114923e+00 3.168687e+00 2.793741e+00 2.148216e+00 1.932961e+00 1.624035e+00 1.404273e+01 9.468527e-01 1.028070e+00 5.752820e-01 4.944100e-01 7.321230e-01 9.959387e-01 7.882147e-01 8.518481e-01 6.472644e-01 4.646336e-01 4.100529e-01 3.399867e-01 5.299798e+00
<GCONST> 1.303055e+02
<MIXTURE> 9 6.633353e-02
<MEAN> 39
 -8.573713e+00 -7.594780e+00 -2.923693e+00 6.961128e-01 9.586747e-01 -2.163663e+00 3.893078e+00 3.358262e-01 -7.377235e-01 4.965318e-01 9.826202e-01 -7.499595e-01 5.349652e+01 2.516150e-01 3.944058e-01 2.792571e-01 2.025002e-01 3.171794e-01 5.288329e-01 4.427913e-01 6.221403e-01 4.960369e-01 4.167144e-01 2.852645e-01 1.375177e-01 -5.273508e-01 -1.039893e-02 2.185047e-02 2.048870e-02 3.922645e-02 4.811058e-02 4.745582e-02 3.492136e-02 3.837699e-02 2.725893e-02 2.235607e-02 1.863148e-02 8.197468e-03 2.704061e-02
<VARIANCE> 39
 1.725780e+01 4.558204e+01 1.576080e+01 2.193793e+01 2.571386e+01 2.968227e+01 2.142592e+01 2.879072e+01 2.080881e+01 1.804256e+01 1.508046e+01 1.374096e+01 5.527560e+01 1.188264e-01 2.456281e-01 3.996643e-01 6.338977e-01 8.324514e-01 9.411446e-01 1.100179e+00 1.173168e+00 1.236978e+00 1.226385e+00 1.202829e+00 1.110357e+00 1.263357e-01 2.849268e-02 5.352365e-02 8.612938e-02 1.298381e-01 1.778293e-01 2.071403e-01 2.304807e-01 2.519587e-01 2.625112e-01 2.620446e-01 2.473531e-01 2.244014e-01 4.269153e-02
<GCONST> 8.042041e+01
<MIXTURE> 10 1.031250e-01
<MEAN> 39
 -1.152802e+01 -1.164950e+01 -5.590865e+00 -3.284060e-01 -3.527843e-01 -4.763572e+00 2.577957e+00 -1.976793e+00 -1.888535e+00 -2.156372e-01 5.839497e-01 -7.383645e-01 6.175967e+01 2.564128e-01 1.946272e-01 1.456496e-01 5.105836e-02 1.172649e-01 6.330581e-02 -1.415678e-02 -4.443120e-02 -1.211580e-01 -1.218385e-01 -8.660596e-02 -6.215940e-02 -7.546183e-01 -1.979213e-02 1.628764e-02 -1.063782e-02 -1.477769e-02 -2.326583e-02 -2.836209e-02 -4.117598e-02 -1.924586e-02 -2.671049e-02 -1.964342e-02 -1.516048e-02 -9.452543e-03 6.800916e-03
<VARIANCE> 39
 2.383850e+01 5.612870e+01 2.643166e+01 2.423219e+01 3.400785e+01 3.369116e+01 2.683878e+01 3.005389e+01 2.411951e+01 2.017348e+01 1.718183e+01 1.491738e+01 1.088797e+02 1.551839e-01 2.897280e-01 4.341384e-01 6.710356e-01 9.086470e-01 1.011323e+00 1.175791e+00 1.218424e+00 1.287270e+00 1.284315e+00 1.245483e+00 1.152678e+00 1.387990e-01 4.653774e-02 7.384705e-02 9.665050e-02 1.431262e-01 1.937957e-01 2.301563e-01 2.579269e-01 2.782809e-01 2.928457e-01 2.841253e-01 2.663605e-01 2.434918e-01 1.388071e-01
<GCONST> 8.743361e+01
<MIXTURE> 11 1.031247e-01
<MEAN> 39
 -1.152802e+01 -1.164950e+01 -5.590863e+00 -3.284058e-01 -3.527831e-01 -4.763571e+00 2.577958e+00 -1.976793e+00 -1.888536e+00 -2.156368e-01 5.839495e-01 -7.383643e-01 6.175967e+01 2.564128e-01 1.946272e-01 1.456497e-01 5.105828e-02 1.172647e-01 6.330564e-02 -1.415692e-02 -4.443137e-02 -1.211581e-01 -1.218384e-01 -8.660597e-02 -6.215953e-02 -7.546183e-01 -1.979218e-02 1.628759e-02 -1.063783e-02 -1.477773e-02 -2.326585e-02 -2.836212e-02 -4.117594e-02 -1.924586e-02 -2.671043e-02 -1.964342e-02 -1.516044e-02 -9.452516e-03 6.801024e-03
<VARIANCE> 39
 2.383849e+01 5.612873e+01 2.643166e+01 2.423218e+01 3.400785e+01 3.369117e+01 2.683875e+01 3.005389e+01 2.411950e+01 2.017347e+01 1.718183e+01 1.491737e+01 1.088796e+02 1.551839e-01 2.897280e-01 4.341384e-01 6.710349e-01 9.086463e-01 1.011323e+00 1.175790e+00 1.218424e+00 1.287270e+00 1.284315e+00 1.245483e+00 1.152678e+00 1.387990e-01 4.653769e-02 7.384703e-02 9.665050e-02 1.431261e-01 1.937957e-01 2.301560e-01 2.579268e-01 2.782807e-01 2.928456e-01 2.841251e-01 2.663606e-01 2.434917e-01 1.388070e-01
<GCONST> 8.743361e+01
<MIXTURE> 12 2.137171e-02
<MEAN> 39
 -1.478794e+01 -1.086383e+01 -6.940925e+00 -1.695631e+00 -2.724881e+00 -6.119798e+00 2.863803e-01 -2.171088e+00 -2.748623e+00 -6.249576e-01 -3.161218e-01 -1.597319e+00 6.840121e+01 -1.360859e+00 -1.385128e+00 -1.020450e+00 -7.243242e-01 -1.215093e+00 -1.024775e+00 -5.547807e-01 -7.336411e-01 -1.084997e-01 -1.614644e-01 -1.496302e-01 9.332845e-02 3.759054e+00 3.231950e-01 1.799778e-01 1.864522e-01 6.135033e-02 2.087571e-01 2.401982e-01 2.425612e-01 1.810672e-01 1.736190e-01 8.785422e-02 6.940521e-02 4.124684e-02 -7.531929e-01
<VARIANCE> 39
 4.061324e+01 6.208755e+01 3.463480e+01 3.142562e+01 4.397759e+01 4.622300e+01 3.937232e+01 3.863381e+01 3.113537e+01 2.319912e+01 2.050400e+01 1.716365e+01 2.201454e+02 2.806881e+00 5.219605e+00 2.247255e+00 2.251266e+00 2.869792e+00 3.647186e+00 3.114958e+00 3.168731e+00 2.793778e+00 2.148242e+00 1.932985e+00 1.624053e+00 1.404290e+01 9.468581e-01 1.028080e+00 5.752847e-01 4.944162e-01 7.321302e-01 9.959465e-01 7.882240e-01 8.518558e-01 6.472726e-01 4.646385e-01 4.100576e-01 3.399910e-01 5.299834e+00
<GCONST> 1.303060e+02
<MIXTURE> 13 1.031247e-01
<MEAN> 39
 -1.152802e+01 -1.164950e+01 -5.590863e+00 -3.284065e-01 -3.527839e-01 -4.763571e+00 2.577957e+00 -1.976793e+00 -1.888536e+00 -2.156364e-01 5.839496e-01 -7.383643e-01 6.175967e+01 2.564128e-01 1.946272e-01 1.456497e-01 5.105828e-02 1.172647e-01 6.330563e-02 -1.415693e-02 -4.443117e-02 -1.211580e-01 -1.218382e-01 -8.660600e-02 -6.215945e-02 -7.546180e-01 -1.979217e-02 1.628761e-02 -1.063784e-02 -1.477771e-02 -2.326585e-02 -2.836204e-02 -4.117597e-02 -1.924583e-02 -2.671045e-02 -1.964344e-02 -1.516046e-02 -9.452541e-03 6.801013e-03
<VARIANCE> 39
 2.383850e+01 5.612872e+01 2.643164e+01 2.423216e+01 3.400785e+01 3.369116e+01 2.683876e+01 3.005387e+01 2.411949e+01 2.017347e+01 1.718184e+01 1.491737e+01 1.088797e+02 1.551839e-01 2.897279e-01 4.341384e-01 6.710350e-01 9.086465e-01 1.011323e+00 1.175790e+00 1.218424e+00 1.287269e+00 1.284315e+00 1.245483e+00 1.152678e+00 1.387991e-01 4.653771e-02 7.384701e-02 9.665051e-02 1.431262e-01 1.937957e-01 2.301560e-01 2.579267e-01 2.782806e-01 2.928455e-01 2.841250e-01 2.663606e-01 2.434917e-01 1.388069e-01
<GCONST> 8.743361e+01
<MIXTURE> 14 2.137171e-02
<MEAN> 39
 -1.478794e+01 -1.086383e+01 -6.940925e+00 -1.695631e+00 -2.724881e+00 -6.119798e+00 2.863803e-01 -2.171088e+00 -2.748623e+00 -6.249576e-01 -3.161218e-01 -1.597319e+00 6.840121e+01 -1.360859e+00 -1.385128e+00 -1.020450e+00 -7.243242e-01 -1.215093e+00 -1.024775e+00 -5.547807e-01 -7.336411e-01 -1.084997e-01 -1.614644e-01 -1.496302e-01 9.332845e-02 3.759054e+00 3.231950e-01 1.799778e-01 1.864522e-01 6.135033e-02 2.087571e-01 2.401982e-01 2.425612e-01 1.810672e-01 1.736190e-01 8.785422e-02 6.940521e-02 4.124684e-02 -7.531929e-01
<VARIANCE> 39
 4.061324e+01 6.208755e+01 3.463480e+01 3.142562e+01 4.397759e+01 4.622300e+01 3.937232e+01 3.863381e+01 3.113537e+01 2.319912e+01 2.050400e+01 1.716365e+01 2.201454e+02 2.806881e+00 5.219605e+00 2.247255e+00 2.251266e+00 2.869792e+00 3.647186e+00 3.114958e+00 3.168731e+00 2.793778e+00 2.148242e+00 1.932985e+00 1.624053e+00 1.404290e+01 9.468581e-01 1.028080e+00 5.752847e-01 4.944162e-01 7.321302e-01 9.959465e-01 7.882240e-01 8.518558e-01 6.472726e-01 4.646385e-01 4.100576e-01 3.399910e-01 5.299834e+00
<GCONST> 1.303060e+02
<MIXTURE> 15 2.137166e-02
<MEAN> 39
 -1.478794e+01 -1.086383e+01 -6.940922e+00 -1.695628e+00 -2.724875e+00 -6.119794e+00 2.863823e-01 -2.171084e+00 -2.748617e+00 -6.249558e-01 -3.161215e-01 -1.597318e+00 6.840120e+01 -1.360857e+00 -1.385126e+00 -1.020449e+00 -7.243241e-01 -1.215091e+00 -1.024773e+00 -5.547799e-01 -7.336407e-01 -1.084996e-01 -1.614642e-01 -1.496303e-01 9.332815e-02 3.759049e+00 3.231935e-01 1.799769e-01 1.864512e-01 6.134997e-02 2.087564e-01 2.401974e-01 2.425606e-01 1.810663e-01 1.736180e-01 8.785362e-02 6.940482e-02 4.124673e-02 -7.531897e-01
<VARIANCE> 39
 4.061320e+01 6.208752e+01 3.463476e+01 3.142559e+01 4.397758e+01 4.622292e+01 3.937225e+01 3.863373e+01 3.113529e+01 2.319907e+01 2.050396e+01 1.716361e+01 2.201453e+02 2.806876e+00 5.219598e+00 2.247251e+00 2.251263e+00 2.869789e+00 3.647179e+00 3.114953e+00 3.168728e+00 2.793775e+00 2.148238e+00 1.932980e+00 1.624050e+00 1.404286e+01 9.468573e-01 1.028079e+00 5.752850e-01 4.944153e-01 7.321295e-01 9.959465e-01 7.882224e-01 8.518540e-01 6.472722e-01 4.646374e-01 4.100569e-01 3.399906e-01 5.299829e+00
<GCONST> 1.303059e+02
<MIXTURE> 16 2.971639e-02
<MEAN> 39
 -8.823065e+00 -2.594065e+00 -2.229426e+00 1.443631e-02 1.894881e+00 -4.792893e-02 3.529356e+00 2.780064e+00 4.146773e-01 8.572916e-01 4.680121e-01 -1.186606e+00 5.141376e+01 -3.180483e+00 -2.817538e+00 -2.086397e+00 -5.928310e-01 -1.730117e+00 -2.577728e+00 -1.879783e+00 -2.266375e+00 -1.430916e+00 -5.975100e-01 -4.103831e-01 -2.708223e-01 8.078777e+00 -4.674026e-01 -1.089231e+00 -5.703064e-01 -2.878184e-01 -6.247092e-01 -5.990933e-01 -2.158447e-01 -4.946631e-01 -2.373655e-01 -1.040896e-01 -7.368732e-02 -5.704645e-03 1.879421e+00
<VARIANCE> 39
 2.308264e+01 2.264114e+01 1.700318e+01 1.996697e+01 2.252622e+01 2.871923e+01 2.735537e+01 2.503600e+01 2.057045e+01 1.801652e+01 1.539325e+01 1.442365e+01 6.283685e+01 1.447057e+00 5.344694e+00 2.579726e+00 3.553718e+00 3.748699e+00 4.198973e+00 3.686461e+00 3.869626e+00 3.379014e+00 2.751491e+00 2.543882e+00 2.069078e+00 6.207559e+00 3.929783e-01 4.573435e-01 2.963237e-01 3.388939e-01 3.745001e-01 5.640357e-01 5.473185e-01 5.615832e-01 4.820124e-01 3.711738e-01 3.408836e-01 2.903651e-01 1.512239e+00
<GCONST> 1.172459e+02
<TRANSP> 5
 0.000000e+00 1.000000e+00 0.000000e+00 0.000000e+00 0.000000e+00
 0.000000e+00 9.570422e-01 4.295782e-02 0.000000e+00 0.000000e+00
 0.000000e+00 0.000000e+00 9.888443e-01 1.115576e-02 0.000000e+00
 0.000000e+00 0.000000e+00 0.000000e+00 9.942262e-01 5.773799e-03
 0.000000e+00 0.000000e+00 0.000000e+00 0.000000e+00 0.000000e+00
<ENDHMM>
~h "cl"
<BEGINHMM>
<NUMSTATES> 5
<STATE> 2
<NUMMIXES> 16
<MIXTURE> 1 2.689050e-04
<MEAN> 39
 -1.252089e+01 -1.169151e+00 -4.929725e-01 -5.765265e+00 -4.910642e+00 2.974098e+00 2.609362e+00 -1.324683e+00 3.315402e+00 -1.087684e+00 -2.708076e+00 1.449845e+00 5.173250e+01 -2.334134e-01 5.076448e-01 9.439029e-01 6.903946e-01 7.942086e-01 1.393437e+00 9.288366e-01 1.014606e+00 1.532441e+00 1.632611e+00 1.046810e+00 1.029185e+00 2.391024e-01 1.651777e-01 9.096136e-02 5.428506e-02 2.577451e-01 5.003832e-01 2.131475e-01 3.078448e-01 4.734026e-01 3.314430e-01 3.306528e-01 1.119394e-01 8.309359e-02 -4.716665e-02
<VARIANCE> 39
 2.807106e+01 1.502094e+01 3.630324e+01 1.584482e+01 3.965705e+01 2.549789e+01 1.761620e+01 2.777024e+01 3.094866e+01 2.251866e+01 1.650183e+01 2.081967e+01 1.523382e+01 1.512450e+00 4.460767e-01 1.153210e+00 9.108664e-01 1.353517e+00 1.631299e+00 1.372742e+00 1.734185e+00 2.337091e+00 2.053254e+00 1.438772e+00 2.127602e+00 6.795681e-01 3.129147e-01 8.125435e-02 1.721680e-01 2.222196e-01 4.979786e-01 2.661105e-01 2.607909e-01 5.181358e-01 3.968753e-01 4.144690e-01 2.451447e-01 2.624876e-01 1.103628e-01
<GCONST> 9.820295e+01
<MIXTURE> 2 3.759199e-02
<MEAN> 39
 -1.052221e+01 -1.343657e+00 -1.283327e+00 -4.309327e+00 -1.424351e+00 4.774190e+00 4.101623e+00 7.919865e-01 3.073199e+00 2.319551e-02 -2.676986e+00 4.717402e-01 5.120401e+01 2.232388e-01 1.819974e-01 2.683366e-01 3.700836e-01 4.521160e-01 4.908203e-01 5.177491e-01 5.282152e-01 4.575981e-01 5.122686e-01 4.369419e-01 1.902646e-01 -1.583180e-01 -5.521069e-02 5.133678e-02 6.774664e-02 6.419954e-02 7.239681e-02 1.066667e-01 4.525242e-02 7.681391e-02 1.120260e-01 7.583359e-02 4.795650e-02 6.581469e-02 5.454341e-02
<VARIANCE> 39
 2.994284e+01 1.509343e+01 3.009652e+01 1.393596e+01 1.855637e+01 3.059510e+01 2.044100e+01 2.382155e+01 3.151516e+01 1.952198e+01 2.381858e+01 2.073266e+01 1.878353e+01 5.313544e-01 4.049220e-01 5.845807e-01 7.183165e-01 9.113830e-01 1.309819e+00 1.295576e+00 1.426764e+00 1.571514e+00 1.363468e+00 1.285406e+00 1.319699e+00 2.376000e-01 1.260870e-01 7.473640e-02 1.188357e-01 1.523606e-01 1.968340e-01 2.590877e-01 2.701947e-01 3.102694e-01 3.331661e-01 2.967658e-01 2.820644e-01 2.525573e-01 5.403506e-02
<GCONST> 8.815258e+01
<MIXTURE> 3 3.759200e-02
<MEAN> 39
 -1.052221e+01 -1.343657e+00 -1.283326e+00 -4.309327e+00 -1.424351e+00 4.774192e+00 4.101623e+00 7.919868e-01 3.073199e+00 2.319586e-02 -2.676987e+00 4.717410e-01 5.120401e+01 2.232387e-01 1.819975e-01 2.683365e-01 3.700836e-01 4.521160e-01 4.908205e-01 5.177490e-01 5.282151e-01 4.575981e-01 5.122685e-01 4.369419e-01 1.902648e-01 -1.583178e-01 -5.521068e-02 5.133675e-02 6.774669e-02 6.419958e-02 7.239681e-02 1.066667e-01 4.525236e-02 7.681388e-02 1.120260e-01 7.583357e-02 4.795652e-02 6.581470e-02 5.454341e-02
<VARIANCE> 39
 2.994284e+01 1.509342e+01 3.009652e+01 1.393595e+01 1.855637e+01 3.059510e+01 2.044100e+01 2.382155e+01 3.151516e+01 1.952198e+01 2.381857e+01 2.073267e+01 1.878353e+01 5.313547e-01 4.049220e-01 5.845807e-01 7.183167e-01 9.113830e-01 1.309818e+00 1.295575e+00 1.426763e+00 1.571513e+00 1.363469e+00 1.285406e+00 1.319700e+00 2.376003e-01 1.260870e-01 7.473639e-02 1.188356e-01 1.523606e-01 1.968340e-01 2.590875e-01 2.701946e-01 3.102694e-01 3.331659e-01 2.967657e-01 2.820644e-01 2.525573e-01 5.403506e-02
<GCONST> 8.815260e+01
<MIXTURE> 4 1.196564e-01
<MEAN> 39
 -1.186295e+01 -1.619328e+00 -1.063373e+00 -4.069828e+00 -1.514843e+00 4.949933e+00 3.483007e+00 5.060959e-01 3.729961e+00 1.130867e-01 -2.696627e+00 1.093127e+00 5.346723e+01 -3.356835e-02 4.440255e-02 1.213229e-02 -4.423621e-02 -6.151625e-02 7.994149e-02 -3.903171e-02 -8.730184e-02 -4.536629e-03 -7.166371e-02 -8.968113e-02 1.463280e-02 -9.288031e-02 -4.812877e-02 -1.624940e-03 5.664157e-03 -1.593642e-02 -3.196989e-02 -1.261793e-04 -2.626190e-02 -2.644346e-02 -5.286802e-03 -1.312283e-02 -2.284376e-02 4.208397e-03 3.632906e-02
<VARIANCE> 39
 3.683215e+01 2.808954e+01 3.182644e+01 1.523763e+01 1.927503e+01 4.434176e+01 2.351312e+01 2.631388e+01 3.446130e+01 2.175243e+01 2.580808e+01 2.321171e+01 4.372256e+01 1.163987e+00 5.639403e-01 6.821522e-01 8.054946e-01 1.086115e+00 1.649119e+00 1.447428e+00 1.670927e+00 1.909655e+00 1.543841e+00 1.587034e+00 1.478922e+00 5.974641e-01 1.967415e-01 9.254400e-02 1.205511e-01 1.502537e-01 2.088441e-01 2.963574e-01 2.808587e-01 3.249182e-01 3.462470e-01 3.092180e-01 2.997350e-01 2.683662e-01 1.090986e-01
<GCONST> 9.647621e+01
<MIXTURE> 5 3.759200e-02
<MEAN> 39
 -1.052221e+01 -1.343657e+00 -1.283326e+00 -4.309327e+00 -1.424351e+00 4.774192e+00 4.101623e+00 7.919868e-01 3.073199e+00 2.319586e-02 -2.676987e+00 4.717410e-01 5.120401e+01 2.232387e-01 1.819975e-01 2.683365e-01 3.700836e-01 4.521160e-01 4.908205e-01 5.177490e-01 5.282151e-01 4.575981e-01 5.122685e-01 4.369419e-01 1.902648e-01 -1.583178e-01 -5.521068e-02 5.133675e-02 6.774669e-02 6.419958e-02 7.239681e-02 1.066667e-01 4.525236e-02 7.681388e-02 1.120260e-01 7.583357e-02 4.795652e-02 6.581470e-02 5.454341e-02
<VARIANCE> 39
 2.994284e+01 1.509342e+01 3.009652e+01 1.393595e+01 1.855637e+01 3.059510e+01 2.044100e+01 2.382155e+01 3.151516e+01 1.952198e+01 2.381857e+01 2.073267e+01 1.878353e+01 5.313547e-01 4.049220e-01 5.845807e-01 7.183167e-01 9.113830e-01 1.309818e+00 1.295575e+00 1.426763e+00 1.571513e+00 1.363469e+00 1.285406e+00 1.319700e+00 2.376003e-01 1.260870e-01 7.473639e-02 1.188356e-01 1.523606e-01 1.968340e-01 2.590875e-01 2.701946e-01 3.102694e-01 3.331659e-01 2.967657e-01 2.820644e-01 2.525573e-01 5.403506e-02
<GCONST> 8.815260e+01
<MIXTURE> 6 1.196567e-01
<MEAN> 39
 -1.186295e+01 -1.619326e+00 -1.063371e+00 -4.069828e+00 -1.514843e+00 4.949934e+00 3.483008e+00 5.060966e-01 3.729961e+00 1.130880e-01 -2.696628e+00 1.093128e+00 5.346722e+01 -3.356892e-02 4.440258e-02 1.213219e-02 -4.423621e-02 -6.151637e-02 7.994168e-02 -3.903183e-02 -8.730190e-02 -4.536651e-03 -7.166377e-02 -8.968122e-02 1.463290e-02 -9.287950e-02 -4.812888e-02 -1.624924e-03 5.664140e-03 -1.593642e-02 -3.196991e-02 -1.261719e-04 -2.626191e-02 -2.644351e-02 -5.286830e-03 -1.312286e-02 -2.284382e-02 4.208406e-03 3.632921e-02
<VARIANCE> 39
 3.683214e+01 2.808952e+01 3.182644e+01 1.523764e+01 1.927503e+01 4.434175e+01 2.351311e+01 2.631388e+01 3.446130e+01 2.175241e+01 2.580807e+01 2.321172e+01 4.372251e+01 1.163988e+00 5.639407e-01 6.821524e-01 8.054945e-01 1.086117e+00 1.649121e+00 1.447429e+00 1.670927e+00 1.909655e+00 1.543840e+00 1.587034e+00 1.478923e+00 5.974642e-01 1.967417e-01 9.254398e-02 1.205512e-01 1.502538e-01 2.088441e-01 2.963576e-01 2.808587e-01 3.249180e-01 3.462471e-01 3.092182e-01 2.997348e-01 2.683663e-01 1.090987e-01
<GCONST> 9.647623e+01
<MIXTURE> 7 1.196563e-01
<MEAN> 39
 -1.186294e+01 -1.619325e+00 -1.063371e+00 -4.069828e+00 -1.514842e+00 4.949934e+00 3.483009e+00 5.060973e-01 3.729961e+00 1.130885e-01 -2.696626e+00 1.093127e+00 5.346722e+01 -3.356841e-02 4.440252e-02 1.213206e-02 -4.423626e-02 -6.151634e-02 7.994128e-02 -3.903177e-02 -8.730188e-02 -4.536830e-03 -7.166376e-02 -8.968107e-02 1.463261e-02 -9.287995e-02 -4.812895e-02 -1.624939e-03 5.664144e-03 -1.593643e-02 -3.196991e-02 -1.261085e-04 -2.626193e-02 -2.644351e-02 -5.286770e-03 -1.312289e-02 -2.284385e-02 4.208408e-03 3.632920e-02
<VARIANCE> 39
 3.683215e+01 2.808951e+01 3.182643e+01 1.523763e+01 1.927502e+01 4.434174e+01 2.351311e+01 2.631389e+01 3.446131e+01 2.175242e+01 2.580807e+01 2.321171e+01 4.372251e+01 1.163987e+00 5.639403e-01 6.821522e-01 8.054944e-01 1.086115e+00 1.649119e+00 1.447429e+00 1.670926e+00 1.909655e+00 1.543841e+00 1.587035e+00 1.478922e+00 5.974640e-01 1.967416e-01 9.254404e-02 1.205512e-01 1.502537e-01 2.088441e-01 2.963575e-01 2.808587e-01 3.249182e-01 3.462471e-01 3.092180e-01 2.997350e-01 2.683663e-01 1.090986e-01
<GCONST> 9.647621e+01
<MIXTURE> 8 2.887705e-02
<MEAN> 39
 -1.439006e+01 -2.482028e+00 -1.371775e+00 -3.461505e+00 -2.070181e+00 2.618792e+00 1.643894e+00 5.126627e-01 2.793871e+00 5.084449e-01 -1.820048e+00 1.707570e-01 5.792884e+01 -2.449044e+00 1.235235e-01 4.393119e-02 -3.421243e-01 -7.883348e-01 5.034351e-01 -8.008194e-01 -1.210176e+00 1.939270e-01 -3.688038e-01 -9.659368e-01 4.471419e-01 2.042063e+00 9.023587e-02 -5.973132e-02 5.937403e-02 -5.986351e-02 -1.347729e-01 1.367832e-01 5.512998e-03 -2.048583e-01 3.760722e-02 -8.061562e-02 -2.151531e-01 1.028223e-01 -1.051289e-01
<VARIANCE> 39
 6.448105e+01 5.810867e+01 2.754769e+01 1.733395e+01 2.230569e+01 5.455489e+01 2.975517e+01 3.073016e+01 3.501364e+01 2.947376e+01 2.506076e+01 2.091928e+01 1.248794e+02 6.651926e+00 1.917439e+00 1.428986e+00 1.423858e+00 2.048513e+00 4.205458e+00 2.325256e+00 3.405622e+00 3.541802e+00 2.858999e+00 2.736607e+00 2.429865e+00 4.960953e+00 1.156842e+00 3.013792e-01 2.179383e-01 2.509679e-01 3.681462e-01 5.858787e-01 4.882292e-01 5.754059e-01 5.089834e-01 4.517808e-01 4.396863e-01 3.617724e-01 1.246180e+00
<GCONST> 1.214641e+02
<MIXTURE> 9 3.759203e-02
<MEAN> 39
 -1.052222e+01 -1.343655e+00 -1.283324e+00 -4.309328e+00 -1.424351e+00 4.774194e+00 4.101623e+00 7.919852e-01 3.073200e+00 2.319676e-02 -2.676990e+00 4.717433e-01 5.120401e+01 2.232388e-01 1.819974e-01 2.683367e-01 3.700836e-01 4.521160e-01 4.908204e-01 5.177490e-01 5.282152e-01 4.575983e-01 5.122686e-01 4.369418e-01 1.902643e-01 -1.583179e-01 -5.521070e-02 5.133674e-02 6.774665e-02 6.419962e-02 7.239680e-02 1.066666e-01 4.525227e-02 7.681385e-02 1.120259e-01 7.583344e-02 4.795650e-02 6.581458e-02 5.454337e-02
<VARIANCE> 39
 2.994284e+01 1.509342e+01 3.009655e+01 1.393595e+01 1.855636e+01 3.059512e+01 2.044099e+01 2.382154e+01 3.151515e+01 1.952198e+01 2.381859e+01 2.073266e+01 1.878352e+01 5.313545e-01 4.049220e-01 5.845805e-01 7.183164e-01 9.113829e-01 1.309819e+00 1.295576e+00 1.426764e+00 1.571513e+00 1.363468e+00 1.285406e+00 1.319699e+00 2.376003e-01 1.260870e-01 7.473639e-02 1.188357e-01 1.523606e-01 1.968339e-01 2.590877e-01 2.701947e-01 3.102693e-01 3.331658e-01 2.967657e-01 2.820643e-01 2.525572e-01 5.403505e-02
<GCONST> 8.815257e+01
<MIXTURE> 10 1.196564e-01
<MEAN> 39
 -1.186295e+01 -1.619329e+00 -1.063373e+00 -4.069827e+00 -1.514843e+00 4.949933e+00 3.483007e+00 5.060958e-01 3.729961e+00 1.130873e-01 -2.696628e+00 1.093127e+00 5.346723e+01 -3.356820e-02 4.440250e-02 1.213223e-02 -4.423621e-02 -6.151619e-02 7.994147e-02 -3.903158e-02 -8.730179e-02 -4.536696e-03 -7.166374e-02 -8.968119e-02 1.463278e-02 -9.288046e-02 -4.812875e-02 -1.624902e-03 5.664134e-03 -1.593641e-02 -3.196986e-02 -1.262240e-04 -2.626190e-02 -2.644344e-02 -5.286839e-03 -1.312284e-02 -2.284373e-02 4.208392e-03 3.632906e-02
<VARIANCE> 39
 3.683215e+01 2.808955e+01 3.182642e+01 1.523763e+01 1.927504e+01 4.434176e+01 2.351312e+01 2.631388e+01 3.446132e+01 2.175242e+01 2.580807e+01 2.321171e+01 4.372257e+01 1.163987e+00 5.639402e-01 6.821520e-01 8.054948e-01 1.086116e+00 1.649119e+00 1.447429e+00 1.670926e+00 1.909655e+00 1.543841e+00 1.587035e+00 1.478922e+00 5.974635e-01 1.967414e-01 9.254401e-02 1.205512e-01 1.502537e-01 2.088441e-01 2.963575e-01 2.808585e-01 3.249182e-01 3.462469e-01 3.092179e-01 2.997350e-01 2.683662e-01 1.090986e-01
<GCONST> 9.647622e+01
<MIXTURE> 11 1.196563e-01
<MEAN> 39
 -1.186294e+01 -1.619325e+00 -1.063371e+00 -4.069828e+00 -1.514842e+00 4.949934e+00 3.483009e+00 5.060973e-01 3.729961e+00 1.130885e-01 -2.696626e+00 1.093127e+00 5.346722e+01 -3.356841e-02 4.440252e-02 1.213206e-02 -4.423626e-02 -6.151634e-02 7.994128e-02 -3.903177e-02 -8.730188e-02 -4.536830e-03 -7.166376e-02 -8.968107e-02 1.463261e-02 -9.287995e-02 -4.812895e-02 -1.624939e-03 5.664144e-03 -1.593643e-02 -3.196991e-02 -1.261085e-04 -2.626193e-02 -2.644351e-02 -5.286770e-03 -1.312289e-02 -2.284385e-02 4.208408e-03 3.632920e-02
<VARIANCE> 39
 3.683215e+01 2.808951e+01 3.182643e+01 1.523763e+01 1.927502e+01 4.434174e+01 2.351311e+01 2.631389e+01 3.446131e+01 2.175242e+01 2.580807e+01 2.321171e+01 4.372251e+01 1.163987e+00 5.639403e-01 6.821522e-01 8.054944e-01 1.086115e+00 1.649119e+00 1.447429e+00 1.670926e+00 1.909655e+00 1.543841e+00 1.587035e+00 1.478922e+00 5.974640e-01 1.967416e-01 9.254404e-02 1.205512e-01 1.502537e-01 2.088441e-01 2.963575e-01 2.808587e-01 3.249182e-01 3.462471e-01 3.092180e-01 2.997350e-01 2.683663e-01 1.090986e-01
<GCONST> 9.647621e+01
<MIXTURE> 12 2.887706e-02
<MEAN> 39
 -1.439005e+01 -2.482028e+00 -1.371774e+00 -3.461504e+00 -2.070181e+00 2.618791e+00 1.643895e+00 5.126657e-01 2.793871e+00 5.084450e-01 -1.820047e+00 1.707558e-01 5.792883e+01 -2.449044e+00 1.235235e-01 4.393092e-02 -3.421245e-01 -7.883345e-01 5.034353e-01 -8.008196e-01 -1.210176e+00 1.939276e-01 -3.688037e-01 -9.659368e-01 4.471416e-01 2.042063e+00 9.023537e-02 -5.973138e-02 5.937394e-02 -5.986359e-02 -1.347731e-01 1.367834e-01 5.512714e-03 -2.048586e-01 3.760707e-02 -8.061583e-02 -2.151532e-01 1.028224e-01 -1.051284e-01
<VARIANCE> 39
 6.448105e+01 5.810863e+01 2.754768e+01 1.733393e+01 2.230568e+01 5.455484e+01 2.975515e+01 3.073015e+01 3.501364e+01 2.947376e+01 2.506075e+01 2.091928e+01 1.248795e+02 6.651934e+00 1.917440e+00 1.428986e+00 1.423857e+00 2.048511e+00 4.205460e+00 2.325256e+00 3.405620e+00 3.541803e+00 2.858995e+00 2.736609e+00 2.429867e+00 4.960954e+00 1.156842e+00 3.013791e-01 2.179380e-01 2.509678e-01 3.681461e-01 5.858782e-01 4.882292e-01 5.754062e-01 5.089832e-01 4.517807e-01 4.396859e-01 3.617727e-01 1.246179e+00
<GCONST> 1.214641e+02
<MIXTURE> 13 1.196567e-01
<MEAN> 39
 -1.186295e+01 -1.619328e+00 -1.063372e+00 -4.069827e+00 -1.514843e+00 4.949933e+00 3.483006e+00 5.060951e-01 3.729961e+00 1.130872e-01 -2.696627e+00 1.093127e+00 5.346723e+01 -3.356889e-02 4.440269e-02 1.213235e-02 -4.423623e-02 -6.151635e-02 7.994173e-02 -3.903174e-02 -8.730192e-02 -4.536569e-03 -7.166377e-02 -8.968128e-02 1.463316e-02 -9.287982e-02 -4.812876e-02 -1.624907e-03 5.664181e-03 -1.593641e-02 -3.196990e-02 -1.261570e-04 -2.626186e-02 -2.644346e-02 -5.286837e-03 -1.312284e-02 -2.284382e-02 4.208423e-03 3.632905e-02
<VARIANCE> 39
 3.683213e+01 2.808954e+01 3.182645e+01 1.523764e+01 1.927505e+01 4.434175e+01 2.351312e+01 2.631390e+01 3.446131e+01 2.175241e+01 2.580807e+01 2.321171e+01 4.372255e+01 1.163989e+00 5.639405e-01 6.821522e-01 8.054949e-01 1.086117e+00 1.649120e+00 1.447429e+00 1.670928e+00 1.909654e+00 1.543840e+00 1.587034e+00 1.478921e+00 5.974643e-01 1.967417e-01 9.254400e-02 1.205511e-01 1.502538e-01 2.088440e-01 2.963574e-01 2.808585e-01 3.249182e-01 3.462471e-01 3.092181e-01 2.997349e-01 2.683663e-01 1.090987e-01
<GCONST> 9.647623e+01
<MIXTURE> 14 2.887706e-02
<MEAN> 39
 -1.439005e+01 -2.482028e+00 -1.371774e+00 -3.461504e+00 -2.070181e+00 2.618791e+00 1.643895e+00 5.126657e-01 2.793871e+00 5.084450e-01 -1.820047e+00 1.707558e-01 5.792883e+01 -2.449044e+00 1.235235e-01 4.393092e-02 -3.421245e-01 -7.883345e-01 5.034353e-01 -8.008196e-01 -1.210176e+00 1.939276e-01 -3.688037e-01 -9.659368e-01 4.471416e-01 2.042063e+00 9.023537e-02 -5.973138e-02 5.937394e-02 -5.986359e-02 -1.347731e-01 1.367834e-01 5.512714e-03 -2.048586e-01 3.760707e-02 -8.061583e-02 -2.151532e-01 1.028224e-01 -1.051284e-01
<VARIANCE> 39
 6.448105e+01 5.810863e+01 2.754768e+01 1.733393e+01 2.230568e+01 5.455484e+01 2.975515e+01 3.073015e+01 3.501364e+01 2.947376e+01 2.506075e+01 2.091928e+01 1.248795e+02 6.651934e+00 1.917440e+00 1.428986e+00 1.423857e+00 2.048511e+00 4.205460e+00 2.325256e+00 3.405620e+00 3.541803e+00 2.858995e+00 2.736609e+00 2.429867e+00 4.960954e+00 1.156842e+00 3.013791e-01 2.179380e-01 2.509678e-01 3.681461e-01 5.858782e-01 4.882292e-01 5.754062e-01 5.089832e-01 4.517807e-01 4.396859e-01 3.617727e-01 1.246179e+00
<GCONST> 1.214641e+02
<MIXTURE> 15 2.887706e-02
<MEAN> 39
 -1.439005e+01 -2.482028e+00 -1.371774e+00 -3.461504e+00 -2.070181e+00 2.618791e+00 1.643895e+00 5.126657e-01 2.793871e+00 5.084450e-01 -1.820047e+00 1.707558e-01 5.792883e+01 -2.449044e+00 1.235235e-01 4.393092e-02 -3.421245e-01 -7.883345e-01 5.034353e-01 -8.008196e-01 -1.210176e+00 1.939276e-01 -3.688037e-01 -9.659368e-01 4.471416e-01 2.042063e+00 9.023537e-02 -5.973138e-02 5.937394e-02 -5.986359e-02 -1.347731e-01 1.367834e-01 5.512714e-03 -2.048586e-01 3.760707e-02 -8.061583e-02 -2.151532e-01 1.028224e-01 -1.051284e-01
<VARIANCE> 39
 6.448105e+01 5.810863e+01 2.754768e+01 1.733393e+01 2.230568e+01 5.455484e+01 2.975515e+01 3.073015e+01 3.501364e+01 2.947376e+01 2.506075e+01 2.091928e+01 1.248795e+02 6.651934e+00 1.917440e+00 1.428986e+00 1.423857e+00 2.048511e+00 4.205460e+00 2.325256e+00 3.405620e+00 3.541803e+00 2.858995e+00 2.736609e+00 2.429867e+00 4.960954e+00 1.156842e+00 3.013791e-01 2.179380e-01 2.509678e-01 3.681461e-01 5.858782e-01 4.882292e-01 5.754062e-01 5.089832e-01 4.517807e-01 4.396859e-01 3.617727e-01 1.246179e+00
<GCONST> 1.214641e+02
<MIXTURE> 16 1.590179e-02
<MEAN> 39
 -1.533494e+01 -5.095022e+00 -2.039491e+00 -3.192998e+00 -3.399570e+00 -6.218815e-01 1.741861e+00 9.272511e-01 2.285596e+00 -1.353894e+00 -1.655196e-01 -5.815792e-01 6.384803e+01 -3.409777e+00 -1.855079e+00 -6.652398e-01 -8.374481e-01 -1.767022e+00 -2.388717e+00 -2.198377e+00 -1.116901e+00 -1.276488e-01 -1.398268e+00 -6.792120e-01 8.127302e-02 6.559881e+00 4.660351e-01 -2.194731e-01 -2.642439e-01 -8.643459e-02 1.751227e-01 2.086149e-01 1.088926e-01 -7.956588e-02 -4.743789e-02 2.010408e-01 -4.134810e-02 -4.758745e-03 -2.559485e-01
<VARIANCE> 39
 6.399351e+01 5.434667e+01 1.793208e+01 2.983592e+01 3.789491e+01 7.335401e+01 4.636517e+01 3.546395e+01 3.915750e+01 3.207692e+01 2.073254e+01 2.470018e+01 1.611719e+02 5.577477e+00 4.939638e+00 2.154557e+00 1.993909e+00 2.389437e+00 7.221395e+00 3.335651e+00 4.258913e+00 3.662192e+00 3.569373e+00 2.598581e+00 3.158345e+00 4.941999e+00 1.106994e+00 7.241358e-01 2.954968e-01 4.926659e-01 6.497071e-01 1.331341e+00 8.063651e-01 6.027210e-01 5.327378e-01 6.825027e-01 4.298513e-01 4.523649e-01 3.386068e+00
<GCONST> 1.320100e+02
<STATE> 3
<NUMMIXES> 16
<MIXTURE> 1 1.535551e-04
<MEAN> 39
 -1.706470e+01 1.841530e+00 -2.270048e+00 -6.828761e+00 -4.098390e+00 1.016193e+01 1.070448e+00 -2.051095e+00 6.960639e+00 -3.927637e+00 -4.094025e+00 3.544237e+00 5.586908e+01 -6.579052e-01 7.440648e-01 9.592231e-01 9.890172e-01 1.110868e+00 1.079427e+00 9.360590e-01 1.290231e+00 1.191357e+00 1.196281e+00 9.812147e-01 7.053893e-01 6.019001e-01 -2.213404e-01 9.783705e-02 2.469762e-01 1.778545e-01 1.559332e-01 3.085610e-01 1.515590e-01 1.615801e-01 3.442670e-01 2.022061e-01 1.243086e-01 2.273937e-01 2.097766e-01
<VARIANCE> 39
 4.976011e+01 9.499964e+00 1.765664e+01 1.349911e+01 1.544718e+01 3.056414e+01 2.022510e+01 2.373869e+01 2.543404e+01 1.716056e+01 1.673184e+01 2.300802e+01 2.440549e+01 4.289269e+00 7.900601e-01 9.802718e-01 9.910631e-01 1.283646e+00 2.497967e+00 1.961945e+00 1.674479e+00 1.836774e+00 1.853125e+00 1.591563e+00 2.126614e+00 1.842770e+00 3.939157e-01 8.927902e-02 1.663059e-01 1.865921e-01 2.455558e-01 3.485846e-01 3.531975e-01 3.439371e-01 3.953987e-01 3.369398e-01 3.478117e-01 3.952117e-01 1.934187e-01
<GCONST> 1.004394e+02
<MIXTURE> 2 2.439921e-02
<MEAN> 39
 -2.074719e+01 2.572937e+00 -6.838270e-01 -7.021060e+00 -4.429889e+00 1.261931e+01 9.722855e-01 -2.158350e+00 8.910991e+00 -3.946134e+00 -4.434613e+00 5.160344e+00 5.859100e+01 1.052797e-01 2.339661e-01 3.432912e-01 4.135554e-01 4.833809e-01 4.823264e-01 4.751594e-01 5.837842e-01 6.348148e-01 6.032538e-01 4.878066e-01 3.016565e-01 -4.233963e-02 -8.132255e-03 3.087947e-02 6.168398e-02 6.718341e-02 5.003662e-02 5.968130e-02 4.516941e-02 7.429446e-02 8.589831e-02 7.996690e-02 6.511450e-02 4.963620e-02 2.471350e-02
<VARIANCE> 39
 3.860736e+01 8.821393e+00 1.705058e+01 1.205781e+01 1.442287e+01 2.621449e+01 2.337885e+01 1.890079e+01 2.400015e+01 1.944761e+01 1.831228e+01 2.006650e+01 1.928969e+01 1.793984e+00 4.587564e-01 7.200541e-01 8.511042e-01 1.129323e+00 1.736027e+00 1.735549e+00 1.529726e+00 1.714453e+00 1.581207e+00 1.474191e+00 1.562366e+00 8.734352e-01 3.089616e-01 8.344432e-02 1.442647e-01 1.748498e-01 2.261978e-01 3.340048e-01 3.461762e-01 3.167950e-01 3.634057e-01 3.380859e-01 3.073454e-01 3.109910e-01 1.589700e-01
<GCONST> 9.411852e+01
<MIXTURE> 3 2.439921e-02
<MEAN> 39
 -2.074719e+01 2.572937e+00 -6.838269e-01 -7.021060e+00 -4.429889e+00 1.261931e+01 9.722855e-01 -2.158349e+00 8.910991e+00 -3.946134e+00 -4.434613e+00 5.160344e+00 5.859100e+01 1.052797e-01 2.339661e-01 3.432912e-01 4.135554e-01 4.833809e-01 4.823264e-01 4.751594e-01 5.837842e-01 6.348148e-01 6.032538e-01 4.878066e-01 3.016564e-01 -4.233965e-02 -8.132255e-03 3.087947e-02 6.168397e-02 6.718340e-02 5.003662e-02 5.968131e-02 4.516941e-02 7.429446e-02 8.589831e-02 7.996690e-02 6.511448e-02 4.963616e-02 2.471350e-02
<VARIANCE> 39
 3.860736e+01 8.821393e+00 1.705057e+01 1.205781e+01 1.442287e+01 2.621449e+01 2.337885e+01 1.890079e+01 2.400015e+01 1.944761e+01 1.831228e+01 2.006650e+01 1.928969e+01 1.793983e+00 4.587564e-01 7.200541e-01 8.511042e-01 1.129323e+00 1.736027e+00 1.735549e+00 1.529726e+00 1.714453e+00 1.581206e+00 1.474191e+00 1.562365e+00 8.734353e-01 3.089615e-01 8.344431e-02 1.442647e-01 1.748497e-01 2.261979e-01 3.340047e-01 3.461761e-01 3.167949e-01 3.634056e-01 3.380859e-01 3.073454e-01 3.109910e-01 1.589699e-01
<GCONST> 9.411851e+01
<MIXTURE> 4 1.318205e-01
<MEAN> 39
 -2.056902e+01 2.485615e+00 -5.051388e-01 -6.855400e+00 -4.531758e+00 1.263048e+01 7.829463e-01 -2.038892e+00 9.108183e+00 -3.803036e+00 -4.222080e+00 5.409038e+00 5.890170e+01 1.186484e-01 -2.435376e-02 -1.795295e-02 -7.595344e-03 1.876542e-03 -3.577338e-04 2.053824e-02 -1.070223e-02 -6.261453e-03 3.541073e-03 -1.821279e-03 -8.192443e-03 -1.061397e-01 1.442809e-02 -3.079409e-03 -1.246570e-02 -4.832335e-04 1.518648e-03 -2.701245e-02 -3.418054e-03 2.880359e-03 -2.057079e-02 5.396176e-03 9.146756e-03 -1.576488e-02 -8.752451e-03
<VARIANCE> 39
 4.515261e+01 9.762694e+00 1.776696e+01 1.239105e+01 1.555106e+01 2.941064e+01 2.549132e+01 2.087238e+01 2.583318e+01 1.998563e+01 1.884587e+01 2.044991e+01 2.206864e+01 1.394600e+00 4.185915e-01 7.156888e-01 8.603087e-01 1.145582e+00 1.743115e+00 1.732998e+00 1.571975e+00 1.766398e+00 1.572988e+00 1.477896e+00 1.597401e+00 7.417644e-01 3.057517e-01 8.307127e-02 1.442364e-01 1.774328e-01 2.344619e-01 3.442615e-01 3.526404e-01 3.255922e-01 3.677554e-01 3.334940e-01 3.045584e-01 3.172128e-01 1.668984e-01
<GCONST> 9.486458e+01
<MIXTURE> 5 2.439921e-02
<MEAN> 39
 -2.074719e+01 2.572937e+00 -6.838269e-01 -7.021060e+00 -4.429889e+00 1.261931e+01 9.722855e-01 -2.158349e+00 8.910991e+00 -3.946134e+00 -4.434613e+00 5.160344e+00 5.859100e+01 1.052797e-01 2.339661e-01 3.432912e-01 4.135554e-01 4.833809e-01 4.823264e-01 4.751594e-01 5.837842e-01 6.348148e-01 6.032538e-01 4.878066e-01 3.016564e-01 -4.233965e-02 -8.132255e-03 3.087947e-02 6.168397e-02 6.718340e-02 5.003662e-02 5.968131e-02 4.516941e-02 7.429446e-02 8.589831e-02 7.996690e-02 6.511448e-02 4.963616e-02 2.471350e-02
<VARIANCE> 39
 3.860736e+01 8.821393e+00 1.705057e+01 1.205781e+01 1.442287e+01 2.621449e+01 2.337885e+01 1.890079e+01 2.400015e+01 1.944761e+01 1.831228e+01 2.006650e+01 1.928969e+01 1.793983e+00 4.587564e-01 7.200541e-01 8.511042e-01 1.129323e+00 1.736027e+00 1.735549e+00 1.529726e+00 1.714453e+00 1.581206e+00 1.474191e+00 1.562365e+00 8.734353e-01 3.089615e-01 8.344431e-02 1.442647e-01 1.748497e-01 2.261979e-01 3.340047e-01 3.461761e-01 3.167949e-01 3.634056e-01 3.380859e-01 3.073454e-01 3.109910e-01 1.589699e-01
<GCONST> 9.411851e+01
<MIXTURE> 6 1.318213e-01
<MEAN> 39
 -2.056902e+01 2.485616e+00 -5.051385e-01 -6.855397e+00 -4.531757e+00 1.263048e+01 7.829480e-01 -2.038892e+00 9.108183e+00 -3.803036e+00 -4.222079e+00 5.409038e+00 5.890170e+01 1.186491e-01 -2.435381e-02 -1.795306e-02 -7.595412e-03 1.876566e-03 -3.577138e-04 2.053801e-02 -1.070237e-02 -6.261505e-03 3.541079e-03 -1.821303e-03 -8.192386e-03 -1.061398e-01 1.442810e-02 -3.079453e-03 -1.246577e-02 -4.834560e-04 1.518567e-03 -2.701246e-02 -3.418155e-03 2.880298e-03 -2.057072e-02 5.396115e-03 9.146761e-03 -1.576484e-02 -8.752478e-03
<VARIANCE> 39
 4.515261e+01 9.762705e+00 1.776696e+01 1.239105e+01 1.555107e+01 2.941066e+01 2.549136e+01 2.087237e+01 2.583320e+01 1.998562e+01 1.884589e+01 2.044993e+01 2.206866e+01 1.394601e+00 4.185916e-01 7.156891e-01 8.603088e-01 1.145581e+00 1.743116e+00 1.732998e+00 1.571976e+00 1.766400e+00 1.572990e+00 1.477898e+00 1.597404e+00 7.417638e-01 3.057515e-01 8.307131e-02 1.442366e-01 1.774329e-01 2.344622e-01 3.442616e-01 3.526405e-01 3.255922e-01 3.677558e-01 3.334939e-01 3.045583e-01 3.172129e-01 1.668984e-01
<GCONST> 9.486462e+01
<MIXTURE> 7 1.318213e-01
<MEAN> 39
 -2.056902e+01 2.485616e+00 -5.051381e-01 -6.855397e+00 -4.531757e+00 1.263048e+01 7.829477e-01 -2.038892e+00 9.108183e+00 -3.803036e+00 -4.222079e+00 5.409038e+00 5.890170e+01 1.186491e-01 -2.435382e-02 -1.795302e-02 -7.595377e-03 1.876545e-03 -3.576882e-04 2.053800e-02 -1.070238e-02 -6.261493e-03 3.541048e-03 -1.821364e-03 -8.192366e-03 -1.061397e-01 1.442811e-02 -3.079459e-03 -1.246576e-02 -4.834649e-04 1.518570e-03 -2.701246e-02 -3.418161e-03 2.880293e-03 -2.057071e-02 5.396101e-03 9.146759e-03 -1.576482e-02 -8.752473e-03
<VARIANCE> 39
 4.515261e+01 9.762702e+00 1.776695e+01 1.239104e+01 1.555107e+01 2.941067e+01 2.549136e+01 2.087236e+01 2.583320e+01 1.998562e+01 1.884589e+01 2.044992e+01 2.206866e+01 1.394601e+00 4.185917e-01 7.156889e-01 8.603085e-01 1.145582e+00 1.743115e+00 1.732998e+00 1.571976e+00 1.766400e+00 1.572990e+00 1.477898e+00 1.597402e+00 7.417641e-01 3.057513e-01 8.307130e-02 1.442366e-01 1.774329e-01 2.344622e-01 3.442615e-01 3.526405e-01 3.255922e-01 3.677559e-01 3.334940e-01 3.045583e-01 3.172128e-01 1.668984e-01
<GCONST> 9.486462e+01
<MIXTURE> 8 2.495481e-02
<MEAN> 39
 -1.656744e+01 1.570624e+00 -2.780263e+00 -6.638679e+00 -5.111451e+00 8.436619e+00 -7.993747e-01 -2.831434e+00 6.689833e+00 -3.427103e+00 -3.194971e+00 4.304853e+00 5.897010e+01 -5.880174e-01 -1.194231e-01 -2.163552e-01 -2.379469e-01 -3.559961e-01 -4.150346e-01 -3.775224e-01 -4.796024e-01 -6.019418e-01 -5.331246e-01 -4.456417e-01 -2.385397e-01 3.534652e-01 2.649747e-03 -2.258477e-02 9.346925e-03 -5.361786e-02 -2.638305e-02 4.730781e-02 -5.635597e-03 -5.192670e-02 -3.601521e-03 -6.640629e-02 -7.433853e-02 6.777346e-03 -1.110110e-02
<VARIANCE> 39
 8.194682e+01 1.785434e+01 3.286071e+01 1.667935e+01 2.140722e+01 5.361653e+01 3.776170e+01 3.093260e+01 3.559912e+01 2.133031e+01 2.031414e+01 2.228373e+01 3.539241e+01 3.058178e+00 7.252117e-01 1.063353e+00 1.097943e+00 1.433487e+00 2.390967e+00 2.130871e+00 1.926167e+00 2.135708e+00 1.687865e+00 1.709840e+00 1.991289e+00 1.782368e+00 5.038962e-01 1.273197e-01 1.851602e-01 2.135317e-01 2.754583e-01 4.414630e-01 4.161199e-01 3.822358e-01 4.269452e-01 3.560497e-01 3.326857e-01 3.500645e-01 2.811731e-01
<GCONST> 1.071503e+02
<MIXTURE> 9 2.439922e-02
<MEAN> 39
 -2.074719e+01 2.572938e+00 -6.838275e-01 -7.021060e+00 -4.429889e+00 1.261931e+01 9.722855e-01 -2.158350e+00 8.910992e+00 -3.946134e+00 -4.434613e+00 5.160344e+00 5.859100e+01 1.052817e-01 2.339659e-01 3.432909e-01 4.135553e-01 4.833809e-01 4.823262e-01 4.751596e-01 5.837840e-01 6.348149e-01 6.032541e-01 4.878067e-01 3.016562e-01 -4.234105e-02 -8.132141e-03 3.087948e-02 6.168393e-02 6.718332e-02 5.003662e-02 5.968129e-02 4.516938e-02 7.429454e-02 8.589823e-02 7.996691e-02 6.511457e-02 4.963623e-02 2.471354e-02
<VARIANCE> 39
 3.860731e+01 8.821383e+00 1.705056e+01 1.205779e+01 1.442287e+01 2.621447e+01 2.337883e+01 1.890077e+01 2.400016e+01 1.944763e+01 1.831226e+01 2.006649e+01 1.928967e+01 1.793976e+00 4.587554e-01 7.200532e-01 8.511041e-01 1.129322e+00 1.736024e+00 1.735545e+00 1.529726e+00 1.714453e+00 1.581204e+00 1.474189e+00 1.562364e+00 8.734320e-01 3.089607e-01 8.344422e-02 1.442646e-01 1.748496e-01 2.261977e-01 3.340045e-01 3.461758e-01 3.167948e-01 3.634056e-01 3.380858e-01 3.073453e-01 3.109910e-01 1.589695e-01
<GCONST> 9.411848e+01
<MIXTURE> 10 1.318213e-01
<MEAN> 39
 -2.056902e+01 2.485616e+00 -5.051385e-01 -6.855397e+00 -4.531757e+00 1.263048e+01 7.829480e-01 -2.038892e+00 9.108183e+00 -3.803036e+00 -4.222079e+00 5.409038e+00 5.890170e+01 1.186489e-01 -2.435381e-02 -1.795305e-02 -7.595388e-03 1.876537e-03 -3.577080e-04 2.053799e-02 -1.070236e-02 -6.261511e-03 3.541076e-03 -1.821314e-03 -8.192380e-03 -1.061396e-01 1.442809e-02 -3.079469e-03 -1.246578e-02 -4.834599e-04 1.518564e-03 -2.701246e-02 -3.418164e-03 2.880288e-03 -2.057073e-02 5.396105e-03 9.146759e-03 -1.576483e-02 -8.752468e-03
<VARIANCE> 39
 4.515261e+01 9.762704e+00 1.776696e+01 1.239105e+01 1.555107e+01 2.941066e+01 2.549136e+01 2.087237e+01 2.583320e+01 1.998562e+01 1.884589e+01 2.044992e+01 2.206866e+01 1.394601e+00 4.185916e-01 7.156892e-01 8.603088e-01 1.145582e+00 1.743116e+00 1.732998e+00 1.571976e+00 1.766400e+00 1.572990e+00 1.477898e+00 1.597404e+00 7.417640e-01 3.057514e-01 8.307132e-02 1.442367e-01 1.774329e-01 2.344621e-01 3.442615e-01 3.526406e-01 3.255922e-01 3.677559e-01 3.334940e-01 3.045583e-01 3.172128e-01 1.668984e-01
<GCONST> 9.486462e+01
<MIXTURE> 11 1.318213e-01
<MEAN> 39
 -2.056902e+01 2.485616e+00 -5.051383e-01 -6.855397e+00 -4.531757e+00 1.263048e+01 7.829478e-01 -2.038892e+00 9.108183e+00 -3.803035e+00 -4.222079e+00 5.409038e+00 5.890170e+01 1.186490e-01 -2.435381e-02 -1.795303e-02 -7.595383e-03 1.876536e-03 -3.576775e-04 2.053803e-02 -1.070239e-02 -6.261502e-03 3.541035e-03 -1.821367e-03 -8.192365e-03 -1.061396e-01 1.442811e-02 -3.079458e-03 -1.246575e-02 -4.834644e-04 1.518561e-03 -2.701245e-02 -3.418155e-03 2.880299e-03 -2.057071e-02 5.396110e-03 9.146761e-03 -1.576483e-02 -8.752478e-03
<VARIANCE> 39
 4.515258e+01 9.762697e+00 1.776695e+01 1.239104e+01 1.555106e+01 2.941067e+01 2.549135e+01 2.087236e+01 2.583319e+01 1.998562e+01 1.884588e+01 2.044992e+01 2.206866e+01 1.394600e+00 4.185914e-01 7.156888e-01 8.603085e-01 1.145582e+00 1.743115e+00 1.732997e+00 1.571976e+00 1.766399e+00 1.572989e+00 1.477898e+00 1.597402e+00 7.417640e-01 3.057514e-01 8.307128e-02 1.442366e-01 1.774328e-01 2.344621e-01 3.442614e-01 3.526405e-01 3.255921e-01 3.677557e-01 3.334938e-01 3.045582e-01 3.172127e-01 1.668985e-01
<GCONST> 9.486460e+01
<MIXTURE> 12 2.495484e-02
<MEAN> 39
 -1.656744e+01 1.570624e+00 -2.780261e+00 -6.638678e+00 -5.111449e+00 8.436622e+00 -7.993726e-01 -2.831432e+00 6.689834e+00 -3.427103e+00 -3.194970e+00 4.304853e+00 5.897010e+01 -5.880190e-01 -1.194228e-01 -2.163552e-01 -2.379469e-01 -3.559962e-01 -4.150345e-01 -3.775225e-01 -4.796024e-01 -6.019419e-01 -5.331248e-01 -4.456419e-01 -2.385395e-01 3.534658e-01 2.649692e-03 -2.258475e-02 9.346955e-03 -5.361796e-02 -2.638308e-02 4.730784e-02 -5.635612e-03 -5.192678e-02 -3.601298e-03 -6.640637e-02 -7.433850e-02 6.777570e-03 -1.110105e-02
<VARIANCE> 39
 8.194683e+01 1.785432e+01 3.286070e+01 1.667936e+01 2.140722e+01 5.361654e+01 3.776170e+01 3.093261e+01 3.559913e+01 2.133033e+01 2.031416e+01 2.228373e+01 3.539240e+01 3.058182e+00 7.252126e-01 1.063353e+00 1.097943e+00 1.433488e+00 2.390969e+00 2.130871e+00 1.926167e+00 2.135710e+00 1.687867e+00 1.709842e+00 1.991291e+00 1.782370e+00 5.038970e-01 1.273197e-01 1.851603e-01 2.135318e-01 2.754586e-01 4.414636e-01 4.161199e-01 3.822361e-01 4.269454e-01 3.560498e-01 3.326862e-01 3.500646e-01 2.811733e-01
<GCONST> 1.071503e+02
<MIXTURE> 13 1.318209e-01
<MEAN> 39
 -2.056902e+01 2.485616e+00 -5.051386e-01 -6.855397e+00 -4.531757e+00 1.263048e+01 7.829474e-01 -2.038892e+00 9.108183e+00 -3.803036e+00 -4.222080e+00 5.409038e+00 5.890170e+01 1.186489e-01 -2.435384e-02 -1.795300e-02 -7.595405e-03 1.876507e-03 -3.577613e-04 2.053811e-02 -1.070231e-02 -6.261467e-03 3.541087e-03 -1.821269e-03 -8.192382e-03 -1.061399e-01 1.442810e-02 -3.079450e-03 -1.246577e-02 -4.834705e-04 1.518576e-03 -2.701249e-02 -3.418108e-03 2.880324e-03 -2.057074e-02 5.396149e-03 9.146778e-03 -1.576487e-02 -8.752484e-03
<VARIANCE> 39
 4.515258e+01 9.762689e+00 1.776695e+01 1.239104e+01 1.555106e+01 2.941064e+01 2.549132e+01 2.087237e+01 2.583320e+01 1.998563e+01 1.884587e+01 2.044991e+01 2.206865e+01 1.394597e+00 4.185913e-01 7.156884e-01 8.603088e-01 1.145582e+00 1.743115e+00 1.732998e+00 1.571976e+00 1.766398e+00 1.572988e+00 1.477895e+00 1.597402e+00 7.417636e-01 3.057514e-01 8.307126e-02 1.442365e-01 1.774326e-01 2.344620e-01 3.442614e-01 3.526401e-01 3.255920e-01 3.677554e-01 3.334940e-01 3.045583e-01 3.172126e-01 1.668984e-01
<GCONST> 9.486456e+01
<MIXTURE> 14 2.495484e-02
<MEAN> 39
 -1.656744e+01 1.570624e+00 -2.780261e+00 -6.638678e+00 -5.111449e+00 8.436622e+00 -7.993726e-01 -2.831432e+00 6.689834e+00 -3.427103e+00 -3.194970e+00 4.304853e+00 5.897010e+01 -5.880190e-01 -1.194228e-01 -2.163552e-01 -2.379469e-01 -3.559962e-01 -4.150345e-01 -3.775225e-01 -4.796024e-01 -6.019419e-01 -5.331248e-01 -4.456419e-01 -2.385395e-01 3.534658e-01 2.649692e-03 -2.258475e-02 9.346955e-03 -5.361796e-02 -2.638308e-02 4.730784e-02 -5.635612e-03 -5.192678e-02 -3.601298e-03 -6.640637e-02 -7.433850e-02 6.777570e-03 -1.110105e-02
<VARIANCE> 39
 8.194683e+01 1.785432e+01 3.286070e+01 1.667936e+01 2.140722e+01 5.361654e+01 3.776170e+01 3.093261e+01 3.559913e+01 2.133033e+01 2.031416e+01 2.228373e+01 3.539240e+01 3.058182e+00 7.252126e-01 1.063353e+00 1.097943e+00 1.433488e+00 2.390969e+00 2.130871e+00 1.926167e+00 2.135710e+00 1.687867e+00 1.709842e+00 1.991291e+00 1.782370e+00 5.038970e-01 1.273197e-01 1.851603e-01 2.135318e-01 2.754586e-01 4.414636e-01 4.161199e-01 3.822361e-01 4.269454e-01 3.560498e-01 3.326862e-01 3.500646e-01 2.811733e-01
<GCONST> 1.071503e+02
<MIXTURE> 15 2.495483e-02
<MEAN> 39
 -1.656745e+01 1.570625e+00 -2.780260e+00 -6.638678e+00 -5.111449e+00 8.436624e+00 -7.993723e-01 -2.831432e+00 6.689834e+00 -3.427103e+00 -3.194970e+00 4.304853e+00 5.897010e+01 -5.880190e-01 -1.194230e-01 -2.163553e-01 -2.379469e-01 -3.559963e-01 -4.150345e-01 -3.775224e-01 -4.796025e-01 -6.019420e-01 -5.331249e-01 -4.456421e-01 -2.385395e-01 3.534662e-01 2.649850e-03 -2.258476e-02 9.346910e-03 -5.361796e-02 -2.638308e-02 4.730792e-02 -5.635627e-03 -5.192685e-02 -3.601283e-03 -6.640638e-02 -7.433858e-02 6.777547e-03 -1.110112e-02
<VARIANCE> 39
 8.194684e+01 1.785432e+01 3.286068e+01 1.667936e+01 2.140722e+01 5.361655e+01 3.776171e+01 3.093261e+01 3.559912e+01 2.133032e+01 2.031416e+01 2.228374e+01 3.539240e+01 3.058179e+00 7.252122e-01 1.063353e+00 1.097943e+00 1.433488e+00 2.390970e+00 2.130872e+00 1.926167e+00 2.135709e+00 1.687867e+00 1.709843e+00 1.991289e+00 1.782370e+00 5.038968e-01 1.273197e-01 1.851602e-01 2.135319e-01 2.754588e-01 4.414633e-01 4.161199e-01 3.822362e-01 4.269453e-01 3.560497e-01 3.326862e-01 3.500648e-01 2.811732e-01
<GCONST> 1.071503e+02
<MIXTURE> 16 1.149093e-02
<MEAN> 39
 -1.181757e+01 1.633052e-01 -5.228697e+00 -6.987942e+00 -6.210874e+00 3.121070e+00 -2.223912e+00 -3.661158e+00 2.972118e+00 -2.374262e+00 -1.813725e+00 2.370770e+00 6.093274e+01 -1.306766e+00 1.867455e-01 -5.428163e-01 -4.888264e-01 -1.044384e+00 -9.580489e-01 -1.688161e+00 -1.121172e+00 -5.184437e-01 -7.476771e-01 -4.420390e-01 1.045305e-01 3.121799e+00 -5.502927e-02 -1.216604e-02 9.897724e-02 6.685477e-02 4.337923e-02 3.297759e-01 9.869507e-02 1.362929e-02 2.362089e-01 -1.308453e-01 -1.649842e-01 1.461543e-01 -1.630699e-01
<VARIANCE> 39
 8.954427e+01 3.842712e+01 3.812499e+01 2.694673e+01 3.522948e+01 6.333463e+01 4.248659e+01 3.828293e+01 4.141145e+01 2.144330e+01 2.269497e+01 2.772991e+01 6.255046e+01 1.504102e+01 3.840443e+00 4.260643e+00 2.463132e+00 3.182813e+00 7.028020e+00 3.802119e+00 3.343529e+00 4.215490e+00 2.259907e+00 2.596659e+00 3.369020e+00 3.022749e+00 9.835326e-01 4.295368e-01 4.050918e-01 4.115783e-01 4.989504e-01 7.926395e-01 6.842521e-01 5.415329e-01 6.508434e-01 4.307123e-01 3.868664e-01 4.451819e-01 1.033782e+00
<GCONST> 1.292451e+02
<STATE> 4
<NUMMIXES> 16
<MIXTURE> 1 4.357952e-04
<MEAN> 39
 -1.549700e+01 7.100478e-01 4.282571e+00 -4.732619e+00 -6.167035e+00 7.282207e+00 2.001386e+00 -4.300738e+00 2.889776e+00 3.369922e+00 -8.901607e+00 2.014461e+00 5.100786e+01 6.078717e-01 5.775149e-01 6.677284e-01 1.053694e+00 1.324254e+00 1.180812e+00 1.361744e+00 1.278348e+00 1.270483e+00 1.124802e+00 1.053312e+00 5.423266e-01 -3.135270e-01 9.250119e-03 1.365519e-01 1.492263e-01 2.699064e-01 3.275129e-01 3.015831e-01 2.682302e-01 2.930826e-01 2.491442e-01 2.043217e-01 2.156908e-01 9.088613e-02 5.920447e-02
<VARIANCE> 39
 5.355490e+01 7.138136e+00 1.541440e+01 1.502466e+01 2.949132e+01 2.436584e+01 1.869036e+01 4.024062e+01 2.447042e+01 2.908960e+01 3.275631e+01 1.677958e+01 3.066966e+01 2.993245e-01 2.970543e-01 5.158448e-01 6.606264e-01 9.265684e-01 1.325674e+00 1.318615e+00 1.585204e+00 1.575049e+00 1.380891e+00 1.491058e+00 1.179066e+00 1.675596e-01 6.507007e-02 6.832564e-02 1.023247e-01 1.381203e-01 2.257153e-01 2.375833e-01 2.478098e-01 3.066458e-01 2.867740e-01 2.899887e-01 2.570673e-01 2.115069e-01 3.464438e-02
<GCONST> 8.563070e+01
<MIXTURE> 2 3.439005e-02
<MEAN> 39
 -2.109763e+01 8.200467e-01 5.517772e+00 -4.098452e+00 -5.598727e+00 1.042317e+01 2.472959e+00 -4.946278e+00 3.343362e+00 4.612366e+00 -1.074463e+01 3.532115e+00 5.594561e+01 5.459909e-01 2.488928e-01 3.729425e-01 3.682247e-01 4.221682e-01 4.642238e-01 5.859390e-01 3.487444e-01 6.326559e-01 4.143069e-01 2.938667e-01 2.618639e-01 -5.125413e-01 -6.771870e-03 5.110008e-02 1.124397e-02 8.166267e-02 8.521728e-02 1.779221e-02 4.843485e-02 1.149094e-01 6.335679e-02 5.603841e-02 1.025771e-01 1.067502e-02 1.234981e-02
<VARIANCE> 39
 3.949765e+01 8.736628e+00 1.444146e+01 1.547326e+01 2.615853e+01 2.385986e+01 2.228229e+01 3.736523e+01 3.212957e+01 3.213928e+01 2.401029e+01 2.077215e+01 2.975460e+01 3.243156e-01 3.123893e-01 5.966721e-01 7.076329e-01 9.651250e-01 1.213843e+00 1.239279e+00 1.547137e+00 1.571400e+00 1.449084e+00 1.423385e+00 1.225377e+00 2.283992e-01 1.113671e-01 6.912050e-02 1.358123e-01 1.606577e-01 2.185400e-01 2.725326e-01 2.825913e-01 3.329743e-01 3.478357e-01 3.252338e-01 2.987723e-01 2.540837e-01 9.061401e-02
<GCONST> 8.916146e+01
<MIXTURE> 3 3.439005e-02
<MEAN> 39
 -2.109763e+01 8.200467e-01 5.517772e+00 -4.098452e+00 -5.598727e+00 1.042317e+01 2.472959e+00 -4.946278e+00 3.343362e+00 4.612366e+00 -1.074463e+01 3.532115e+00 5.594561e+01 5.459909e-01 2.488928e-01 3.729425e-01 3.682247e-01 4.221682e-01 4.642238e-01 5.859390e-01 3.487444e-01 6.326559e-01 4.143069e-01 2.938667e-01 2.618639e-01 -5.125413e-01 -6.771870e-03 5.110008e-02 1.124397e-02 8.166267e-02 8.521728e-02 1.779221e-02 4.843485e-02 1.149094e-01 6.335679e-02 5.603841e-02 1.025771e-01 1.067502e-02 1.234981e-02
<VARIANCE> 39
 3.949765e+01 8.736628e+00 1.444146e+01 1.547326e+01 2.615853e+01 2.385986e+01 2.228229e+01 3.736523e+01 3.212957e+01 3.213928e+01 2.401029e+01 2.077215e+01 2.975460e+01 3.243156e-01 3.123893e-01 5.966721e-01 7.076329e-01 9.651250e-01 1.213843e+00 1.239279e+00 1.547137e+00 1.571400e+00 1.449084e+00 1.423385e+00 1.225377e+00 2.283992e-01 1.113671e-01 6.912050e-02 1.358123e-01 1.606577e-01 2.185400e-01 2.725326e-01 2.825913e-01 3.329743e-01 3.478357e-01 3.252338e-01 2.987723e-01 2.540837e-01 9.061401e-02
<GCONST> 8.916146e+01
<MIXTURE> 4 1.214392e-01
<MEAN> 39
 -2.239499e+01 4.003398e-01 5.517797e+00 -4.154088e+00 -6.574787e+00 1.100091e+01 1.259918e+00 -6.260941e+00 3.912715e+00 4.330243e+00 -1.182540e+01 5.037543e+00 5.813020e+01 2.045746e-01 -9.449697e-03 5.093651e-02 -4.133040e-02 -4.929947e-02 1.620576e-02 4.442225e-02 -9.090528e-02 1.031441e-01 -2.981227e-02 -6.339294e-02 4.637568e-02 -2.555369e-01 -4.414136e-03 5.500866e-03 -1.915240e-02 -1.062083e-03 1.629714e-02 -4.451267e-02 -1.146932e-02 3.542701e-02 -2.400038e-02 -6.029630e-03 3.470643e-02 -3.461587e-02 -2.638070e-03
<VARIANCE> 39
 3.735359e+01 9.840396e+00 1.597672e+01 1.561891e+01 2.971595e+01 2.861081e+01 2.906933e+01 4.966878e+01 3.826154e+01 3.178941e+01 3.099095e+01 3.283842e+01 3.565335e+01 7.679305e-01 3.989003e-01 8.321336e-01 8.282162e-01 1.201504e+00 1.566843e+00 1.465392e+00 2.127701e+00 2.047397e+00 1.771503e+00 1.710495e+00 1.561527e+00 7.195070e-01 2.205398e-01 8.220357e-02 1.811191e-01 1.726024e-01 2.523554e-01 3.297195e-01 3.234430e-01 4.328284e-01 4.672078e-01 3.748382e-01 3.520100e-01 3.331642e-01 2.263087e-01
<GCONST> 9.958362e+01
<MIXTURE> 5 3.439005e-02
<MEAN> 39
 -2.109763e+01 8.200467e-01 5.517772e+00 -4.098452e+00 -5.598727e+00 1.042317e+01 2.472959e+00 -4.946278e+00 3.343362e+00 4.612366e+00 -1.074463e+01 3.532115e+00 5.594561e+01 5.459909e-01 2.488928e-01 3.729425e-01 3.682247e-01 4.221682e-01 4.642238e-01 5.859390e-01 3.487444e-01 6.326559e-01 4.143069e-01 2.938667e-01 2.618639e-01 -5.125413e-01 -6.771870e-03 5.110008e-02 1.124397e-02 8.166267e-02 8.521728e-02 1.779221e-02 4.843485e-02 1.149094e-01 6.335679e-02 5.603841e-02 1.025771e-01 1.067502e-02 1.234981e-02
<VARIANCE> 39
 3.949765e+01 8.736628e+00 1.444146e+01 1.547326e+01 2.615853e+01 2.385986e+01 2.228229e+01 3.736523e+01 3.212957e+01 3.213928e+01 2.401029e+01 2.077215e+01 2.975460e+01 3.243156e-01 3.123893e-01 5.966721e-01 7.076329e-01 9.651250e-01 1.213843e+00 1.239279e+00 1.547137e+00 1.571400e+00 1.449084e+00 1.423385e+00 1.225377e+00 2.283992e-01 1.113671e-01 6.912050e-02 1.358123e-01 1.606577e-01 2.185400e-01 2.725326e-01 2.825913e-01 3.329743e-01 3.478357e-01 3.252338e-01 2.987723e-01 2.540837e-01 9.061401e-02
<GCONST> 8.916146e+01
<MIXTURE> 6 1.214393e-01
<MEAN> 39
 -2.239499e+01 4.003398e-01 5.517797e+00 -4.154088e+00 -6.574787e+00 1.100091e+01 1.259919e+00 -6.260941e+00 3.912714e+00 4.330244e+00 -1.182540e+01 5.037542e+00 5.813020e+01 2.045743e-01 -9.449705e-03 5.093648e-02 -4.133041e-02 -4.929946e-02 1.620575e-02 4.442223e-02 -9.090538e-02 1.031440e-01 -2.981226e-02 -6.339292e-02 4.637571e-02 -2.555367e-01 -4.414102e-03 5.500861e-03 -1.915236e-02 -1.062085e-03 1.629712e-02 -4.451266e-02 -1.146935e-02 3.542693e-02 -2.400033e-02 -6.029602e-03 3.470642e-02 -3.461575e-02 -2.638095e-03
<VARIANCE> 39
 3.735359e+01 9.840387e+00 1.597672e+01 1.561890e+01 2.971595e+01 2.861081e+01 2.906933e+01 4.966875e+01 3.826151e+01 3.178939e+01 3.099096e+01 3.283843e+01 3.565335e+01 7.679312e-01 3.989002e-01 8.321337e-01 8.282159e-01 1.201503e+00 1.566843e+00 1.465392e+00 2.127701e+00 2.047397e+00 1.771503e+00 1.710495e+00 1.561527e+00 7.195069e-01 2.205397e-01 8.220351e-02 1.811191e-01 1.726023e-01 2.523553e-01 3.297196e-01 3.234430e-01 4.328285e-01 4.672073e-01 3.748381e-01 3.520100e-01 3.331639e-01 2.263086e-01
<GCONST> 9.958361e+01
<MIXTURE> 7 1.214391e-01
<MEAN> 39
 -2.239499e+01 4.003402e-01 5.517797e+00 -4.154087e+00 -6.574787e+00 1.100091e+01 1.259920e+00 -6.260938e+00 3.912714e+00 4.330245e+00 -1.182540e+01 5.037543e+00 5.813020e+01 2.045747e-01 -9.449689e-03 5.093639e-02 -4.133045e-02 -4.929939e-02 1.620572e-02 4.442217e-02 -9.090534e-02 1.031442e-01 -2.981247e-02 -6.339305e-02 4.637568e-02 -2.555369e-01 -4.414132e-03 5.500853e-03 -1.915239e-02 -1.062138e-03 1.629707e-02 -4.451267e-02 -1.146937e-02 3.542687e-02 -2.400034e-02 -6.029630e-03 3.470641e-02 -3.461588e-02 -2.638052e-03
<VARIANCE> 39
 3.735356e+01 9.840387e+00 1.597672e+01 1.561890e+01 2.971594e+01 2.861081e+01 2.906931e+01 4.966876e+01 3.826147e+01 3.178940e+01 3.099094e+01 3.283841e+01 3.565333e+01 7.679307e-01 3.989003e-01 8.321336e-01 8.282160e-01 1.201503e+00 1.566843e+00 1.465392e+00 2.127701e+00 2.047397e+00 1.771502e+00 1.710495e+00 1.561527e+00 7.195069e-01 2.205397e-01 8.220354e-02 1.811191e-01 1.726023e-01 2.523553e-01 3.297195e-01 3.234429e-01 4.328282e-01 4.672075e-01 3.748381e-01 3.520098e-01 3.331639e-01 2.263084e-01
<GCONST> 9.958360e+01
<MIXTURE> 8 3.209898e-02
<MEAN> 39
 -2.279019e+01 9.105183e-01 4.287205e+00 -3.945643e+00 -6.401524e+00 8.942877e+00 3.955050e-01 -5.312644e+00 2.566941e+00 4.220192e+00 -1.038208e+01 3.876198e+00 5.915085e+01 -1.326321e+00 -2.631578e-01 -5.948881e-01 -1.816586e-01 -1.030108e-01 -6.199080e-01 -7.895444e-01 2.161959e-01 -1.185920e+00 -2.528141e-01 1.033712e-01 -5.542642e-01 1.562856e+00 4.264437e-02 -7.337669e-02 6.554812e-02 -7.525330e-02 -1.550961e-01 1.893093e-01 7.146373e-03 -2.737720e-01 5.349106e-02 -4.426916e-02 -2.544111e-01 1.568945e-01 -5.253000e-03
<VARIANCE> 39
 4.726621e+01 1.278024e+01 2.067433e+01 1.894543e+01 3.046976e+01 3.671805e+01 3.526163e+01 5.353194e+01 4.599257e+01 3.255169e+01 3.373280e+01 3.445417e+01 4.291396e+01 2.893026e+00 8.417583e-01 1.642965e+00 1.461054e+00 2.529461e+00 3.090341e+00 2.431644e+00 5.000857e+00 3.830774e+00 3.437757e+00 2.949207e+00 2.819580e+00 2.509364e+00 5.243047e-01 1.266267e-01 2.896041e-01 2.419622e-01 3.701211e-01 5.020694e-01 4.789242e-01 6.414597e-01 7.038493e-01 4.999554e-01 4.610770e-01 4.669841e-01 5.646511e-01
<GCONST> 1.172940e+02
<MIXTURE> 9 3.439004e-02
<MEAN> 39
 -2.109763e+01 8.200467e-01 5.517771e+00 -4.098453e+00 -5.598728e+00 1.042317e+01 2.472959e+00 -4.946278e+00 3.343363e+00 4.612365e+00 -1.074463e+01 3.532115e+00 5.594561e+01 5.459909e-01 2.488927e-01 3.729426e-01 3.682248e-01 4.221683e-01 4.642239e-01 5.859391e-01 3.487442e-01 6.326559e-01 4.143069e-01 2.938666e-01 2.618640e-01 -5.125412e-01 -6.771900e-03 5.110008e-02 1.124397e-02 8.166264e-02 8.521731e-02 1.779219e-02 4.843494e-02 1.149094e-01 6.335676e-02 5.603843e-02 1.025771e-01 1.067496e-02 1.234983e-02
<VARIANCE> 39
 3.949767e+01 8.736631e+00 1.444147e+01 1.547326e+01 2.615854e+01 2.385986e+01 2.228230e+01 3.736525e+01 3.212957e+01 3.213931e+01 2.401030e+01 2.077216e+01 2.975461e+01 3.243156e-01 3.123895e-01 5.966724e-01 7.076331e-01 9.651253e-01 1.213844e+00 1.239280e+00 1.547138e+00 1.571400e+00 1.449085e+00 1.423385e+00 1.225377e+00 2.283993e-01 1.113671e-01 6.912052e-02 1.358124e-01 1.606577e-01 2.185400e-01 2.725328e-01 2.825914e-01 3.329744e-01 3.478357e-01 3.252338e-01 2.987724e-01 2.540837e-01 9.061401e-02
<GCONST> 8.916146e+01
<MIXTURE> 10 1.214390e-01
<MEAN> 39
 -2.239499e+01 4.003400e-01 5.517797e+00 -4.154088e+00 -6.574788e+00 1.100091e+01 1.259920e+00 -6.260940e+00 3.912715e+00 4.330244e+00 -1.182540e+01 5.037543e+00 5.813020e+01 2.045748e-01 -9.449675e-03 5.093643e-02 -4.133042e-02 -4.929937e-02 1.620568e-02 4.442219e-02 -9.090532e-02 1.031443e-01 -2.981246e-02 -6.339303e-02 4.637567e-02 -2.555370e-01 -4.414153e-03 5.500864e-03 -1.915241e-02 -1.062088e-03 1.629711e-02 -4.451272e-02 -1.146937e-02 3.542695e-02 -2.400036e-02 -6.029613e-03 3.470642e-02 -3.461591e-02 -2.638039e-03
<VARIANCE> 39
