~o
<STREAMINFO> 1 39
<VECSIZE> 39<NULLD><MFCC_D_A_0><DIAGC>
~h "ap"
<BEGINHMM>
<NUMSTATES> 5
<STATE> 2
<NUMMIXES> 8
<MIXTURE> 1 2.490729e-01
<MEAN> 39
 -9.020887e+00 -5.727276e+00 -1.939247e+00 5.327041e-01 2.908672e+00 -9.320702e-01 4.958797e+00 1.650288e+00 5.433049e-01 4.852655e-01 1.025398e+00 -8.421739e-01 5.252528e+01 3.209354e-01 3.899922e-01 1.534064e-01 -2.558061e-02 1.031290e-01 3.648343e-01 2.281541e-01 3.833539e-01 2.034705e-01 1.587252e-01 3.541908e-02 -4.771960e-02 -5.142189e-01 -3.249271e-02 -2.465543e-02 -5.884840e-02 -6.945371e-02 -7.837788e-02 -6.336849e-02 -9.521493e-02 -9.661450e-02 -7.807855e-02 -4.358293e-02 -2.255462e-02 1.266598e-03 2.843289e-02
<VARIANCE> 39
 1.169025e+01 1.943253e+01 1.521243e+01 1.841829e+01 2.132207e+01 2.550260e+01 2.047679e+01 1.912046e+01 1.672061e+01 1.575178e+01 1.429825e+01 1.483240e+01 1.803262e+01 1.496923e-01 2.593198e-01 4.555310e-01 6.682194e-01 8.713930e-01 1.023816e+00 1.181041e+00 1.262380e+00 1.304294e+00 1.284928e+00 1.250041e+00 1.129898e+00 8.080206e-02 2.021030e-02 4.337529e-02 7.910803e-02 1.202747e-01 1.620854e-01 2.039566e-01 2.286927e-01 2.454066e-01 2.561797e-01 2.583476e-01 2.495404e-01 2.271453e-01 5.758382e-03
<GCONST> 7.429580e+01
<MIXTURE> 2 1.816703e-01
<MEAN> 39
 -1.464334e+01 -1.185815e+01 -6.348558e+00 -1.768854e+00 -6.463221e-01 -5.330343e+00 1.303059e+00 -3.366583e+00 -1.730034e+00 -7.503709e-01 3.920282e-01 -3.146506e-01 6.533234e+01 3.338149e-01 1.671711e-01 2.327553e-01 1.777169e-01 2.639611e-01 1.332354e-01 1.214206e-01 3.459588e-02 -3.796785e-02 -3.716035e-02 2.246442e-02 3.778445e-03 -8.903612e-01 -7.060074e-03 3.080626e-02 2.062694e-02 2.133751e-02 1.574139e-02 1.986905e-02 1.457319e-02 4.997646e-02 2.714753e-02 1.595368e-02 3.796180e-03 -3.131651e-03 1.561679e-02
<VARIANCE> 39
 1.669335e+01 3.103139e+01 2.442713e+01 2.213528e+01 2.924128e+01 2.910794e+01 2.442997e+01 2.223862e+01 2.162275e+01 1.971291e+01 1.803946e+01 1.555037e+01 6.450723e+01 1.131536e-01 2.446477e-01 4.127692e-01 6.536836e-01 8.947254e-01 1.024636e+00 1.211528e+00 1.302345e+00 1.360425e+00 1.345103e+00 1.276121e+00 1.194481e+00 5.311480e-02 2.570477e-02 5.240403e-02 8.613782e-02 1.360926e-01 1.842409e-01 2.171825e-01 2.541116e-01 2.760947e-01 2.942036e-01 2.877509e-01 2.688968e-01 2.510247e-01 1.946682e-02
<GCONST> 8.065007e+01
<MIXTURE> 3 1.816710e-01
<MEAN> 39
 -1.464337e+01 -1.185820e+01 -6.348604e+00 -1.768873e+00 -6.463600e-01 -5.330381e+00 1.303025e+00 -3.366615e+00 -1.730050e+00 -7.503794e-01 3.920149e-01 -3.146587e-01 6.533245e+01 3.338148e-01 1.671694e-01 2.327560e-01 1.777194e-01 2.639635e-01 1.332353e-01 1.214213e-01 3.459486e-02 -3.796869e-02 -3.716025e-02 2.246541e-02 3.779675e-03 -8.903631e-01 -7.059092e-03 3.080712e-02 2.062821e-02 2.133856e-02 1.574293e-02 1.987116e-02 1.457528e-02 4.997815e-02 2.714853e-02 1.595458e-02 3.797140e-03 -3.131182e-03 1.561586e-02
<VARIANCE> 39
 1.669355e+01 3.103183e+01 2.442754e+01 2.213568e+01 2.924171e+01 2.910838e+01 2.443041e+01 2.223894e+01 2.162314e+01 1.971326e+01 1.803983e+01 1.555062e+01 6.450816e+01 1.131552e-01 2.446513e-01 4.127764e-01 6.536961e-01 8.947410e-01 1.024652e+00 1.211547e+00 1.302368e+00 1.360444e+00 1.345125e+00 1.276141e+00 1.194501e+00 5.311544e-02 2.570482e-02 5.240475e-02 8.613909e-02 1.360953e-01 1.842443e-01 2.171865e-01 2.541154e-01 2.760994e-01 2.942092e-01 2.877562e-01 2.689012e-01 2.510294e-01 1.946605e-02
<GCONST> 8.065063e+01
<MIXTURE> 4 3.359496e-02
<MEAN> 39
 -1.969009e+01 -1.314846e+01 -9.457029e+00 -3.657095e+00 -4.725824e+00 -8.763069e+00 -2.418108e+00 -3.820035e+00 -3.062079e+00 -1.430186e+00 -7.775560e-01 -1.333451e+00 7.840111e+01 -9.352529e-01 -1.825066e+00 -1.104581e+00 -6.333653e-01 -1.010040e+00 -8.378552e-01 -1.311246e-01 -5.429903e-01 1.452488e-02 2.414023e-02 1.427332e-02 1.318827e-01 3.406335e+00 8.445390e-01 6.126155e-01 5.321004e-01 2.345389e-01 5.717220e-01 6.856469e-01 5.975095e-01 4.384303e-01 2.966037e-01 1.789543e-01 1.326707e-01 2.365571e-02 -2.063039e+00
<VARIANCE> 39
 1.131180e+01 3.434308e+01 2.569052e+01 2.949133e+01 3.231307e+01 3.435664e+01 3.060678e+01 2.936920e+01 3.070381e+01 2.358339e+01 2.134187e+01 1.900886e+01 3.270718e+01 3.111246e+00 3.812482e+00 2.431002e+00 2.198546e+00 3.227523e+00 4.146441e+00 3.471286e+00 3.323132e+00 2.908441e+00 2.211635e+00 1.975311e+00 1.656194e+00 1.670239e+01 2.545046e-01 4.107387e-01 2.856284e-01 4.519744e-01 4.752201e-01 5.904795e-01 5.479317e-01 5.481276e-01 5.494043e-01 4.383309e-01 3.903659e-01 3.516843e-01 8.265678e-01
<GCONST> 1.188332e+02
<MIXTURE> 5 1.816694e-01
<MEAN> 39
 -1.464333e+01 -1.185810e+01 -6.348544e+00 -1.768880e+00 -6.463363e-01 -5.330300e+00 1.303053e+00 -3.366546e+00 -1.730005e+00 -7.503483e-01 3.920282e-01 -3.146640e-01 6.533231e+01 3.338142e-01 1.671711e-01 2.327527e-01 1.777163e-01 2.639603e-01 1.332369e-01 1.214205e-01 3.459497e-02 -3.796874e-02 -3.716131e-02 2.246162e-02 3.775811e-03 -8.903583e-01 -7.062108e-03 3.080798e-02 2.062731e-02 2.134021e-02 1.574314e-02 1.986696e-02 1.457056e-02 4.997501e-02 2.714418e-02 1.595124e-02 3.794911e-03 -3.131675e-03 1.561834e-02
<VARIANCE> 39
 1.669374e+01 3.103157e+01 2.442733e+01 2.213531e+01 2.924135e+01 2.910813e+01 2.443021e+01 2.223876e+01 2.162278e+01 1.971297e+01 1.803959e+01 1.555036e+01 6.450970e+01 1.131554e-01 2.446490e-01 4.127708e-01 6.536891e-01 8.947310e-01 1.024641e+00 1.211533e+00 1.302353e+00 1.360424e+00 1.345101e+00 1.276127e+00 1.194482e+00 5.311773e-02 2.570636e-02 5.240536e-02 8.613942e-02 1.360953e-01 1.842441e-01 2.171852e-01 2.541144e-01 2.760969e-01 2.942065e-01 2.877539e-01 2.688982e-01 2.510262e-01 1.947252e-02
<GCONST> 8.065080e+01
<MIXTURE> 6 3.357658e-02
<MEAN> 39
 -1.969013e+01 -1.314778e+01 -9.456202e+00 -3.657465e+00 -4.725491e+00 -8.762193e+00 -2.417145e+00 -3.819079e+00 -3.060537e+00 -1.429482e+00 -7.771185e-01 -1.332767e+00 7.839944e+01 -9.345559e-01 -1.824084e+00 -1.103914e+00 -6.331002e-01 -1.009400e+00 -8.371251e-01 -1.305906e-01 -5.424394e-01 1.491991e-02 2.435656e-02 1.446434e-02 1.319216e-01 3.404175e+00 8.443848e-01 6.125566e-01 5.320192e-01 2.346222e-01 5.716925e-01 6.854228e-01 5.972590e-01 4.382190e-01 2.963470e-01 1.788037e-01 1.325759e-01 2.356787e-02 -2.062691e+00
<VARIANCE> 39
 1.131354e+01 3.434498e+01 2.569343e+01 2.948924e+01 3.231041e+01 3.435720e+01 3.060739e+01 2.936793e+01 3.070115e+01 2.358232e+01 2.134076e+01 1.900744e+01 3.271883e+01 3.110959e+00 3.811512e+00 2.430677e+00 2.198332e+00 3.227365e+00 4.145769e+00 3.470926e+00 3.322830e+00 2.908190e+00 2.211539e+00 1.975218e+00 1.656146e+00 1.670098e+01 2.545623e-01 4.107117e-01 2.856110e-01 4.519055e-01 4.751686e-01 5.904741e-01 5.479562e-01 5.480788e-01 5.493626e-01 4.383067e-01 3.903403e-01 3.516557e-01 8.267572e-01
<GCONST> 1.188319e+02
<MIXTURE> 7 3.357653e-02
<MEAN> 39
 -1.969014e+01 -1.314778e+01 -9.456203e+00 -3.657451e+00 -4.725493e+00 -8.762206e+00 -2.417158e+00 -3.819092e+00 -3.060559e+00 -1.429491e+00 -7.771263e-01 -1.332780e+00 7.839945e+01 -9.345703e-01 -1.824099e+00 -1.103925e+00 -6.331046e-01 -1.009412e+00 -8.371381e-01 -1.306008e-01 -5.424497e-01 1.491280e-02 2.435284e-02 1.446059e-02 1.319205e-01 3.404214e+00 8.443872e-01 6.125562e-01 5.320196e-01 2.346197e-01 5.716922e-01 6.854255e-01 5.972624e-01 4.382218e-01 2.963508e-01 1.788059e-01 1.325776e-01 2.356965e-02 -2.062695e+00
<VARIANCE> 39
 1.131355e+01 3.434505e+01 2.569343e+01 2.948937e+01 3.231055e+01 3.435731e+01 3.060748e+01 2.936805e+01 3.070126e+01 2.358235e+01 2.134083e+01 1.900748e+01 3.271883e+01 3.110974e+00 3.811536e+00 2.430686e+00 2.198339e+00 3.227373e+00 4.145781e+00 3.470937e+00 3.322839e+00 2.908199e+00 2.211544e+00 1.975219e+00 1.656149e+00 1.670104e+01 2.545622e-01 4.107129e-01 2.856117e-01 4.519082e-01 4.751713e-01 5.904757e-01 5.479572e-01 5.480797e-01 5.493639e-01 4.383071e-01 3.903410e-01 3.516562e-01 8.267564e-01
<GCONST> 1.188321e+02
<MIXTURE> 8 1.052494e-01
<MEAN> 39
 -8.988129e+00 -3.415801e+00 -1.913590e+00 -7.136391e-01 2.242565e+00 -4.022503e-02 4.038676e+00 2.358879e+00 3.027180e-01 4.991108e-01 5.881745e-01 -1.110732e+00 5.092671e+01 -1.841389e+00 -9.260362e-01 -1.000696e+00 -2.491920e-01 -9.108514e-01 -1.382429e+00 -1.184885e+00 -7.640921e-01 -5.377801e-01 -3.188344e-01 -2.442481e-01 -6.258953e-02 3.966134e+00 -6.265987e-01 -6.933568e-01 -4.887490e-01 -1.861578e-01 -4.059729e-01 -5.688190e-01 -3.747254e-01 -4.109157e-01 -2.176348e-01 -1.407115e-01 -7.455474e-02 -3.451423e-03 1.741275e+00
<VARIANCE> 39
 1.887670e+01 2.084420e+01 1.673445e+01 1.849846e+01 2.099018e+01 2.918490e+01 2.469873e+01 2.116475e+01 1.906936e+01 1.722786e+01 1.523516e+01 1.401571e+01 3.171164e+01 3.309452e+00 4.011127e+00 2.457418e+00 2.186508e+00 2.754210e+00 4.651881e+00 3.344033e+00 3.317316e+00 2.648226e+00 2.265686e+00 2.014044e+00 1.627276e+00 1.584191e+01 3.464632e-01 3.709799e-01 2.625270e-01 3.194764e-01 3.530158e-01 5.359290e-01 4.804982e-01 4.378021e-01 4.102176e-01 3.698115e-01 3.413110e-01 2.793467e-01 1.002882e+00
<GCONST> 1.136575e+02
<STATE> 3
<NUMMIXES> 8
<MIXTURE> 1 6.209487e-02
<MEAN> 39
 -1.523299e+01 -1.905569e+01 -1.502548e+01 -3.682822e+00 -3.871249e+00 -1.154626e+01 -1.458785e+00 -7.788983e-01 -3.303986e+00 -2.476890e+00 2.484518e-01 -8.537374e-01 8.148892e+01 4.401165e-01 -3.400957e-01 7.254916e-03 1.258064e-01 2.751273e-01 4.933046e-01 1.042056e+00 4.429532e-01 4.842346e-01 4.838278e-01 3.846378e-01 1.789396e-01 -9.169655e-01 3.972705e-01 6.980426e-01 6.086478e-01 4.786764e-01 5.869548e-01 4.079912e-01 8.615328e-02 -3.653885e-02 -1.808322e-02 -2.965095e-02 -7.062884e-02 -7.287581e-02 -1.507694e+00
<VARIANCE> 39
 9.312631e+00 2.210839e+01 1.601645e+01 2.172870e+01 2.664100e+01 1.942885e+01 3.157895e+01 2.433818e+01 2.477308e+01 2.417650e+01 1.715395e+01 1.464421e+01 1.466745e+01 2.422299e-01 5.584344e-01 6.358495e-01 1.286070e+00 1.433963e+00 1.473884e+00 1.781655e+00 2.202101e+00 2.119119e+00 1.640540e+00 1.482200e+00 1.430527e+00 3.105156e-01 1.064437e-01 2.135389e-01 1.662113e-01 2.661195e-01 3.144698e-01 3.894011e-01 4.269559e-01 4.008013e-01 4.117924e-01 3.526569e-01 2.858066e-01 2.620942e-01 7.349489e-01
<GCONST> 9.550255e+01
<MIXTURE> 2 2.573953e-01
<MEAN> 39
 -1.083536e+01 -1.710483e+01 -1.121971e+01 3.424962e-01 8.589171e-01 -9.335809e+00 6.682930e-01 -1.398024e+00 -4.135623e+00 -2.450262e+00 8.567635e-01 -6.809735e-01 6.812984e+01 2.945254e-01 1.890588e-01 2.671089e-01 2.434321e-01 2.953441e-01 1.775820e-01 1.281692e-01 5.512449e-02 1.075939e-02 1.370166e-02 4.938773e-02 4.169610e-02 -9.066152e-01 -1.141658e-02 1.705371e-02 4.016663e-03 -6.968223e-03 -1.024525e-02 5.890907e-03 -1.063334e-02 1.553247e-02 9.510681e-03 5.561371e-03 1.118439e-03 1.620271e-03 1.421427e-02
<VARIANCE> 39
 1.196321e+01 2.530381e+01 2.031132e+01 2.280217e+01 3.403264e+01 2.319602e+01 2.950835e+01 2.371002e+01 2.288182e+01 2.216313e+01 1.703985e+01 1.506612e+01 6.287574e+01 9.633598e-02 2.373413e-01 3.718505e-01 6.009597e-01 8.249180e-01 9.877802e-01 1.131834e+00 1.229544e+00 1.290020e+00 1.296942e+00 1.225287e+00 1.141486e+00 3.805542e-02 1.921969e-02 4.576531e-02 7.453118e-02 1.220647e-01 1.689282e-01 2.007316e-01 2.379023e-01 2.579348e-01 2.702321e-01 2.718540e-01 2.540012e-01 2.382428e-01 5.758232e-03
<GCONST> 7.661458e+01
<MIXTURE> 3 2.573952e-01
<MEAN> 39
 -1.083536e+01 -1.710484e+01 -1.121971e+01 3.425028e-01 8.589152e-01 -9.335822e+00 6.682917e-01 -1.398016e+00 -4.135626e+00 -2.450263e+00 8.567734e-01 -6.809676e-01 6.812985e+01 2.945255e-01 1.890589e-01 2.671092e-01 2.434319e-01 2.953441e-01 1.775822e-01 1.281697e-01 5.512489e-02 1.076050e-02 1.370257e-02 4.938838e-02 4.169608e-02 -9.066153e-01 -1.141656e-02 1.705373e-02 4.016893e-03 -6.967874e-03 -1.024499e-02 5.891024e-03 -1.063330e-02 1.553217e-02 9.510326e-03 5.560892e-03 1.117762e-03 1.619704e-03 1.421421e-02
<VARIANCE> 39
 1.196325e+01 2.530390e+01 2.031139e+01 2.280223e+01 3.403273e+01 2.319607e+01 2.950844e+01 2.371008e+01 2.288192e+01 2.216311e+01 1.703986e+01 1.506619e+01 6.287580e+01 9.633629e-02 2.373418e-01 3.718507e-01 6.009619e-01 8.249210e-01 9.877834e-01 1.131836e+00 1.229550e+00 1.290024e+00 1.296947e+00 1.225291e+00 1.141491e+00 3.805552e-02 1.921977e-02 4.576557e-02 7.453169e-02 1.220652e-01 1.689286e-01 2.007321e-01 2.379030e-01 2.579357e-01 2.702326e-01 2.718540e-01 2.540013e-01 2.382438e-01 5.758244e-03
<GCONST> 7.661471e+01
<MIXTURE> 4 2.238942e-02
<MEAN> 39
 -8.327334e+00 -1.326326e+01 -7.790299e+00 2.409027e+00 3.394956e+00 -6.033459e+00 2.033262e+00 8.061111e-01 -2.705223e+00 -1.517329e+00 1.347526e+00 -2.402302e-01 5.955300e+01 1.227432e-01 5.264766e-01 2.322976e-01 1.621588e-03 -2.219647e-02 2.614792e-01 -2.650969e-02 6.171513e-02 7.576804e-02 5.727838e-02 -5.702954e-02 -2.866698e-02 -5.314159e-01 -4.081528e-01 -1.714931e-02 -2.417944e-01 -2.680236e-01 -2.810669e-01 -2.973185e-01 -3.932461e-01 -1.845937e-01 -8.414044e-02 -1.322035e-01 -1.249623e-01 -5.950887e-02 9.513983e-01
<VARIANCE> 39
 1.503664e+01 3.421423e+01 2.226107e+01 2.440265e+01 3.386858e+01 2.771765e+01 3.095671e+01 2.336026e+01 2.316604e+01 2.202223e+01 1.614427e+01 1.449296e+01 8.751418e+01 3.004019e-01 4.643430e-01 4.992530e-01 7.889604e-01 1.053194e+00 1.256216e+00 1.318421e+00 1.450432e+00 1.423249e+00 1.350688e+00 1.350073e+00 1.176296e+00 3.173405e-01 1.677563e-01 2.248389e-01 2.097503e-01 2.932970e-01 3.548728e-01 3.990245e-01 3.982882e-01 3.896118e-01 3.886920e-01 3.554726e-01 3.219327e-01 2.878336e-01 1.035808e+00
<GCONST> 9.759608e+01
<MIXTURE> 5 2.573965e-01
<MEAN> 39
 -1.083538e+01 -1.710484e+01 -1.121970e+01 3.424953e-01 8.588831e-01 -9.335794e+00 6.683140e-01 -1.398043e+00 -4.135634e+00 -2.450246e+00 8.567439e-01 -6.809962e-01 6.812988e+01 2.945254e-01 1.890579e-01 2.671081e-01 2.434321e-01 2.953439e-01 1.775810e-01 1.281681e-01 5.512220e-02 1.075742e-02 1.370057e-02 4.938709e-02 4.169601e-02 -9.066159e-01 -1.141635e-02 1.705392e-02 4.016342e-03 -6.968725e-03 -1.024561e-02 5.890035e-03 -1.063443e-02 1.553245e-02 9.511120e-03 5.562141e-03 1.120423e-03 1.622278e-03 1.421434e-02
<VARIANCE> 39
 1.196325e+01 2.530394e+01 2.031133e+01 2.280221e+01 3.403278e+01 2.319605e+01 2.950848e+01 2.371015e+01 2.288182e+01 2.216316e+01 1.703994e+01 1.506622e+01 6.287587e+01 9.633611e-02 2.373414e-01 3.718503e-01 6.009616e-01 8.249209e-01 9.877825e-01 1.131836e+00 1.229546e+00 1.290022e+00 1.296943e+00 1.225290e+00 1.141487e+00 3.805552e-02 1.921977e-02 4.576558e-02 7.453137e-02 1.220650e-01 1.689286e-01 2.007321e-01 2.379032e-01 2.579360e-01 2.702328e-01 2.718545e-01 2.540022e-01 2.382445e-01 5.758240e-03
<GCONST> 7.661469e+01
<MIXTURE> 6 2.239886e-02
<MEAN> 39
 -8.326509e+00 -1.326235e+01 -7.789393e+00 2.409602e+00 3.395819e+00 -6.032582e+00 2.033829e+00 8.065272e-01 -2.704931e+00 -1.517025e+00 1.347568e+00 -2.401608e-01 5.955056e+01 1.227118e-01 5.265234e-01 2.323135e-01 1.633525e-03 -2.217967e-02 2.615374e-01 -2.649217e-02 6.181265e-02 7.582416e-02 5.729006e-02 -5.704712e-02 -2.868171e-02 -5.314273e-01 -4.082326e-01 -1.722601e-02 -2.418746e-01 -2.680781e-01 -2.811475e-01 -2.974047e-01 -3.933024e-01 -1.846379e-01 -8.417224e-02 -1.322233e-01 -1.249663e-01 -5.953189e-02 9.516310e-01
<VARIANCE> 39
 1.503168e+01 3.421250e+01 2.225816e+01 2.440111e+01 3.386580e+01 2.771656e+01 3.095543e+01 2.335992e+01 2.316482e+01 2.202147e+01 1.614384e+01 1.449248e+01 8.748008e+01 3.003508e-01 4.642253e-01 4.992007e-01 7.888712e-01 1.053116e+00 1.256110e+00 1.318310e+00 1.450291e+00 1.423146e+00 1.350627e+00 1.350015e+00 1.176241e+00 3.171960e-01 1.677119e-01 2.248338e-01 2.097402e-01 2.932732e-01 3.548445e-01 3.990153e-01 3.982665e-01 3.896044e-01 3.886828e-01 3.554671e-01 3.219286e-01 2.878275e-01 1.035531e+00
<GCONST> 9.759223e+01
<MIXTURE> 7 2.239065e-02
<MEAN> 39
 -8.327127e+00 -1.326297e+01 -7.790061e+00 2.409148e+00 3.395192e+00 -6.033221e+00 2.033366e+00 8.062109e-01 -2.705143e+00 -1.517255e+00 1.347527e+00 -2.402212e-01 5.955231e+01 1.227215e-01 5.265034e-01 2.323012e-01 1.614674e-03 -2.219650e-02 2.615010e-01 -2.650632e-02 6.174440e-02 7.579286e-02 5.728848e-02 -5.703423e-02 -2.866699e-02 -5.313959e-01 -4.081742e-01 -1.717485e-02 -2.418174e-01 -2.680370e-01 -2.810895e-01 -2.973418e-01 -3.932563e-01 -1.846031e-01 -8.414957e-02 -1.322089e-01 -1.249622e-01 -5.951414e-02 9.514683e-01
<VARIANCE> 39
 1.503637e+01 3.421531e+01 2.226138e+01 2.440340e+01 3.386948e+01 2.771866e+01 3.095770e+01 2.336105e+01 2.316681e+01 2.202305e+01 1.614479e+01 1.449350e+01 8.751102e+01 3.004172e-01 4.643594e-01 4.992726e-01 7.889910e-01 1.053233e+00 1.256263e+00 1.318468e+00 1.450475e+00 1.423297e+00 1.350738e+00 1.350123e+00 1.176337e+00 3.173609e-01 1.677607e-01 2.248507e-01 2.097596e-01 2.933089e-01 3.548863e-01 3.990431e-01 3.983050e-01 3.896281e-01 3.887070e-01 3.554870e-01 3.219452e-01 2.878439e-01 1.035826e+00
<GCONST> 9.759740e+01
<MIXTURE> 8 9.847935e-02
<MEAN> 39
 -1.201972e+01 -1.337650e+01 -1.014383e+01 7.441530e-02 4.128190e-01 -8.717314e+00 -1.721433e+00 -4.995206e-01 -3.426617e+00 -2.864797e+00 9.627794e-03 -1.109267e+00 6.930513e+01 -1.897601e+00 -1.246631e+00 -1.693803e+00 -1.429007e+00 -1.727283e+00 -1.504471e+00 -1.269908e+00 -6.058853e-01 -3.886559e-01 -4.413734e-01 -3.932149e-01 -2.824883e-01 5.796978e+00 1.563366e-01 -3.530147e-01 -1.094194e-01 -1.447573e-02 -2.153727e-02 1.542497e-02 2.969998e-01 5.037880e-02 1.900036e-02 8.979223e-02 1.149311e-01 6.676877e-02 -7.234162e-02
<VARIANCE> 39
 2.760194e+01 3.616567e+01 3.033278e+01 3.619290e+01 4.097896e+01 4.403824e+01 4.717511e+01 3.001642e+01 3.183691e+01 2.627083e+01 2.029456e+01 1.793144e+01 1.774823e+02 1.344640e+00 3.876851e+00 2.248520e+00 2.738854e+00 3.097779e+00 3.478936e+00 3.674322e+00 3.069197e+00 3.105725e+00 2.630340e+00 2.031371e+00 1.784042e+00 6.870475e+00 5.736532e-01 5.457188e-01 5.704825e-01 6.042168e-01 7.382427e-01 8.471960e-01 8.151860e-01 6.078238e-01 5.847086e-01 4.836911e-01 3.911854e-01 3.405285e-01 4.465102e+00
<GCONST> 1.265468e+02
<STATE> 4
<NUMMIXES> 8
<MIXTURE> 1 1.115612e-01
<MEAN> 39
 -5.381560e+00 -1.545282e+00 -2.212747e+00 -9.622434e-01 -3.242453e-02 1.426585e+00 4.088949e+00 3.992944e+00 8.733122e-01 1.209166e+00 2.226866e-01 -1.747475e+00 4.635075e+01 6.082467e-02 3.111913e-01 1.326846e-01 4.877953e-02 2.220694e-01 4.938896e-01 4.664023e-01 6.160358e-01 6.177421e-01 4.427874e-01 2.358489e-01 9.717068e-02 -8.721043e-02 -5.068947e-02 -2.857680e-02 2.784383e-02 9.399622e-02 1.004451e-01 2.773403e-02 2.189754e-02 -2.477255e-02 -4.338597e-03 2.785018e-02 5.603178e-02 5.109937e-02 9.434706e-02
<VARIANCE> 39
 4.685684e+00 1.841276e+01 7.981661e+00 1.585034e+01 1.424160e+01 1.692752e+01 1.558839e+01 1.684896e+01 1.591318e+01 1.458222e+01 1.242063e+01 1.151524e+01 9.222122e+00 1.526682e-01 3.403105e-01 4.558492e-01 6.761951e-01 8.320612e-01 1.016200e+00 1.081246e+00 1.209055e+00 1.243914e+00 1.239980e+00 1.209612e+00 1.122371e+00 7.756591e-02 5.320026e-02 7.766705e-02 1.017842e-01 1.380559e-01 1.804165e-01 2.405390e-01 2.571077e-01 2.801621e-01 2.890990e-01 2.729282e-01 2.515116e-01 2.244002e-01 8.441289e-02
<GCONST> 7.540283e+01
<MIXTURE> 2 2.533211e-01
<MEAN> 39
 -8.686281e+00 -1.172378e+01 -4.037709e+00 1.846641e+00 -5.631725e-01 -3.517824e+00 4.059702e+00 -1.049901e+00 -1.926477e+00 5.427419e-01 1.091970e+00 -8.041381e-01 5.723018e+01 2.010287e-01 2.951829e-01 1.569798e-01 6.915787e-02 9.448374e-02 1.410482e-01 -4.400796e-04 9.354834e-02 -1.715153e-02 -2.348758e-02 -3.041728e-02 -1.769781e-02 -6.325116e-01 -1.262373e-02 2.249469e-03 -1.875838e-02 -2.959133e-02 -3.455419e-02 -1.721592e-02 -1.890598e-02 -6.456881e-04 -2.530708e-03 -6.532740e-03 -7.749484e-03 -7.209576e-03 2.035513e-02
<VARIANCE> 39
 1.779137e+01 6.969721e+01 1.963078e+01 2.271641e+01 3.158979e+01 3.074139e+01 2.187296e+01 3.322006e+01 2.417860e+01 1.990875e+01 1.618243e+01 1.359906e+01 9.990514e+01 1.281481e-01 2.762327e-01 4.209479e-01 6.598752e-01 8.847114e-01 1.021566e+00 1.165557e+00 1.254717e+00 1.287861e+00 1.289512e+00 1.239516e+00 1.126427e+00 1.336467e-01 1.925993e-02 4.410601e-02 7.819857e-02 1.198760e-01 1.647153e-01 2.027859e-01 2.344561e-01 2.531714e-01 2.672301e-01 2.660246e-01 2.509178e-01 2.293250e-01 5.842834e-03
<GCONST> 8.042168e+01
<MIXTURE> 3 2.533201e-01
<MEAN> 39
 -8.686300e+00 -1.172383e+01 -4.037731e+00 1.846640e+00 -5.631891e-01 -3.517852e+00 4.059697e+00 -1.049930e+00 -1.926491e+00 5.427424e-01 1.091970e+00 -8.041362e-01 5.723025e+01 2.010294e-01 2.951828e-01 1.569811e-01 6.915969e-02 9.448556e-02 1.410490e-01 -4.390909e-04 9.354836e-02 -1.715129e-02 -2.348716e-02 -3.041650e-02 -1.769728e-02 -6.325138e-01 -1.262373e-02 2.249613e-03 -1.875823e-02 -2.959115e-02 -3.455388e-02 -1.721559e-02 -1.890584e-02 -6.453036e-04 -2.530542e-03 -6.532918e-03 -7.749677e-03 -7.209666e-03 2.035509e-02
<VARIANCE> 39
 1.779137e+01 6.969700e+01 1.963081e+01 2.271640e+01 3.158985e+01 3.074140e+01 2.187295e+01 3.321997e+01 2.417860e+01 1.990877e+01 1.618241e+01 1.359904e+01 9.990530e+01 1.281477e-01 2.762327e-01 4.209472e-01 6.598743e-01 8.847112e-01 1.021563e+00 1.165555e+00 1.254716e+00 1.287859e+00 1.289512e+00 1.239514e+00 1.126424e+00 1.336459e-01 1.925993e-02 4.410593e-02 7.819837e-02 1.198757e-01 1.647149e-01 2.027856e-01 2.344557e-01 2.531712e-01 2.672297e-01 2.660242e-01 2.509173e-01 2.293247e-01 5.842828e-03
<GCONST> 8.042164e+01
<MIXTURE> 4 2.138840e-02
<MEAN> 39
 -1.255041e+01 -1.350634e+01 -6.497781e+00 -1.061332e+00 -5.083094e+00 -5.460739e+00 2.522275e+00 -2.088154e+00 -1.674581e+00 7.416048e-01 5.119231e-01 -1.021297e+00 6.673429e+01 2.182514e-01 4.342991e-02 7.058953e-02 -8.370145e-02 1.314170e-01 1.411563e-01 3.061218e-01 1.915895e-01 3.330157e-01 2.159111e-02 4.108122e-02 9.743404e-02 -5.386457e-01 5.767860e-02 2.705172e-01 1.363020e-01 2.100041e-01 3.362203e-01 1.022217e-01 -4.562357e-03 -1.425716e-02 -1.418355e-01 -8.131084e-02 -3.262884e-02 -5.641052e-02 -3.368197e-01
<VARIANCE> 39
 3.216616e+01 8.724973e+01 2.839040e+01 2.679701e+01 3.815219e+01 3.666203e+01 2.738265e+01 3.589694e+01 2.482344e+01 1.846198e+01 1.669134e+01 1.385306e+01 2.302155e+02 3.960378e-01 7.630367e-01 6.342682e-01 1.145190e+00 1.363672e+00 1.432353e+00 1.675868e+00 1.774067e+00 2.040929e+00 1.581472e+00 1.432125e+00 1.300720e+00 5.301511e-01 4.783922e-01 9.375283e-01 3.375584e-01 3.599901e-01 5.256723e-01 6.022946e-01 4.677269e-01 5.925682e-01 4.575503e-01 3.545230e-01 3.169451e-01 2.655681e-01 3.086115e+00
<GCONST> 1.102874e+02
<MIXTURE> 5 2.533198e-01
<MEAN> 39
 -8.686290e+00 -1.172381e+01 -4.037713e+00 1.846643e+00 -5.631825e-01 -3.517840e+00 4.059704e+00 -1.049922e+00 -1.926479e+00 5.427445e-01 1.091972e+00 -8.041378e-01 5.723021e+01 2.010293e-01 2.951829e-01 1.569804e-01 6.915903e-02 9.448519e-02 1.410495e-01 -4.392444e-04 9.354896e-02 -1.715128e-02 -2.348726e-02 -3.041686e-02 -1.769735e-02 -6.325132e-01 -1.262381e-02 2.249570e-03 -1.875808e-02 -2.959085e-02 -3.455369e-02 -1.721553e-02 -1.890561e-02 -6.453808e-04 -2.530922e-03 -6.532981e-03 -7.749348e-03 -7.209371e-03 2.035508e-02
<VARIANCE> 39
 1.779136e+01 6.969701e+01 1.963074e+01 2.271641e+01 3.158975e+01 3.074133e+01 2.187292e+01 3.321999e+01 2.417855e+01 1.990876e+01 1.618237e+01 1.359901e+01 9.990511e+01 1.281479e-01 2.762325e-01 4.209469e-01 6.598735e-01 8.847091e-01 1.021563e+00 1.165552e+00 1.254716e+00 1.287859e+00 1.289511e+00 1.239516e+00 1.126426e+00 1.336460e-01 1.925987e-02 4.410579e-02 7.819823e-02 1.198757e-01 1.647142e-01 2.027853e-01 2.344551e-01 2.531709e-01 2.672292e-01 2.660239e-01 2.509161e-01 2.293239e-01 5.842837e-03
<GCONST> 8.042156e+01
<MIXTURE> 6 2.138779e-02
<MEAN> 39
 -1.254983e+01 -1.350540e+01 -6.497287e+00 -1.061084e+00 -5.082591e+00 -5.460156e+00 2.522470e+00 -2.087626e+00 -1.674420e+00 7.416487e-01 5.119269e-01 -1.021335e+00 6.673254e+01 2.182084e-01 4.344418e-02 7.057390e-02 -8.373109e-02 1.313726e-01 1.411479e-01 3.060972e-01 1.915933e-01 3.330294e-01 2.159313e-02 4.108301e-02 9.743855e-02 -5.385618e-01 5.762869e-02 2.704356e-01 1.362597e-01 2.099779e-01 3.361718e-01 1.021707e-01 -4.582494e-03 -1.429971e-02 -1.418447e-01 -8.130691e-02 -3.262510e-02 -5.640649e-02 -3.366685e-01
<VARIANCE> 39
 3.216831e+01 8.725578e+01 2.839088e+01 2.679728e+01 3.815351e+01 3.666418e+01 2.738272e+01 3.589874e+01 2.482329e+01 1.846196e+01 1.669110e+01 1.385292e+01 2.302308e+02 3.960633e-01 7.630956e-01 6.342762e-01 1.145202e+00 1.363687e+00 1.432356e+00 1.675885e+00 1.774077e+00 2.040958e+00 1.581489e+00 1.432138e+00 1.300731e+00 5.301850e-01 4.784480e-01 9.376413e-01 3.375904e-01 3.599993e-01 5.257086e-01 6.023393e-01 4.677436e-01 5.926052e-01 4.575605e-01 3.545287e-01 3.169490e-01 2.655694e-01 3.086505e+00
<GCONST> 1.102888e+02
<MIXTURE> 7 2.138743e-02
<MEAN> 39
 -1.254750e+01 -1.350180e+01 -6.495353e+00 -1.060008e+00 -5.080273e+00 -5.457971e+00 2.523346e+00 -2.085649e+00 -1.673771e+00 7.418288e-01 5.121426e-01 -1.021381e+00 6.672528e+01 2.180871e-01 4.368198e-02 7.057298e-02 -8.370329e-02 1.314188e-01 1.411000e-01 3.058786e-01 1.914478e-01 3.328062e-01 2.147773e-02 4.102276e-02 9.733172e-02 -5.385034e-01 5.730978e-02 2.699863e-01 1.360264e-01 2.098537e-01 3.358817e-01 1.018740e-01 -4.727061e-03 -1.457029e-02 -1.419604e-01 -8.133096e-02 -3.264343e-02 -5.640366e-02 -3.357432e-01
<VARIANCE> 39
 3.217463e+01 8.727024e+01 2.839155e+01 2.679888e+01 3.815443e+01 3.666872e+01 2.738183e+01 3.590262e+01 2.482258e+01 1.846120e+01 1.668970e+01 1.385228e+01 2.302687e+02 3.960875e-01 7.629682e-01 6.341631e-01 1.144916e+00 1.363409e+00 1.432122e+00 1.675585e+00 1.773780e+00 2.040568e+00 1.581339e+00 1.432015e+00 1.300606e+00 5.300418e-01 4.785006e-01 9.376839e-01 3.376170e-01 3.600121e-01 5.257084e-01 6.023660e-01 4.677462e-01 5.926205e-01 4.575510e-01 3.545321e-01 3.169495e-01 2.655675e-01 3.086645e+00
<GCONST> 1.102878e+02
<MIXTURE> 8 6.456317e-02
<MEAN> 39
 -1.172919e+01 -9.137821e+00 -5.118850e+00 3.703781e-01 -2.897564e+00 -3.719740e+00 2.186697e+00 -9.835622e-01 -2.384851e+00 4.449472e-01 2.037571e-01 -1.732126e+00 6.257215e+01 -2.476657e+00 -3.092041e+00 -1.509824e+00 -7.342167e-01 -1.735375e+00 -1.947299e+00 -8.740870e-01 -2.026826e+00 -7.840048e-01 -3.110104e-01 -1.820051e-01 -6.474490e-02 6.852318e+00 1.443437e-01 -2.788365e-01 -3.243765e-02 -7.944775e-02 -1.604799e-01 -9.892575e-03 1.482934e-01 4.606979e-02 1.392205e-01 6.491446e-02 8.023742e-03 4.147446e-02 1.166869e-02
<VARIANCE> 39
 3.970929e+01 8.106693e+01 2.793143e+01 2.997444e+01 3.772202e+01 4.484036e+01 3.265686e+01 5.003134e+01 3.391229e+01 2.125126e+01 2.049454e+01 1.718663e+01 2.568982e+02 2.138824e+00 8.338160e+00 2.425112e+00 3.092861e+00 3.467657e+00 3.552909e+00 3.253719e+00 3.824143e+00 3.523154e+00 2.269637e+00 2.085151e+00 1.797770e+00 1.246038e+01 8.852897e-01 1.686493e+00 5.414127e-01 4.889501e-01 7.733198e-01 9.459035e-01 6.488599e-01 1.142952e+00 7.273179e-01 4.210370e-01 3.855157e-01 3.368820e-01 6.271704e+00
<GCONST> 1.322323e+02
<TRANSP> 5
 0.000000e+00 1.000000e+00 0.000000e+00 0.000000e+00 0.000000e+00
 0.000000e+00 9.915839e-01 8.416036e-03 0.000000e+00 0.000000e+00
 0.000000e+00 0.000000e+00 9.893330e-01 1.066698e-02 0.000000e+00
 0.000000e+00 0.000000e+00 0.000000e+00 9.864038e-01 1.359618e-02
 0.000000e+00 0.000000e+00 0.000000e+00 0.000000e+00 0.000000e+00
<ENDHMM>
~h "cl"
<BEGINHMM>
<NUMSTATES> 5
<STATE> 2
<NUMMIXES> 8
<MIXTURE> 1 6.233454e-02
<MEAN> 39
 -9.310866e+00 -4.249564e+00 -4.481411e+00 -5.402898e+00 -2.520541e+00 7.284580e-01 1.655496e+00 -2.634167e-01 2.667284e-01 -2.028244e+00 -2.191989e+00 -1.319584e+00 5.243315e+01 2.374591e-01 2.255882e-01 3.341402e-01 4.262047e-01 4.943564e-01 5.136102e-01 6.413987e-01 5.272403e-01 3.883953e-01 5.326419e-01 4.063970e-01 7.787501e-02 -2.313166e-01 2.995067e-02 1.421725e-01 1.920892e-01 2.364601e-01 2.853347e-01 3.424011e-01 3.251767e-01 3.311716e-01 3.554003e-01 2.902479e-01 1.553436e-01 1.544545e-01 4.545902e-02
<VARIANCE> 39
 1.975890e+01 1.619685e+01 1.319207e+01 1.209366e+01 1.825279e+01 2.732753e+01 1.894319e+01 1.867165e+01 2.290147e+01 1.949615e+01 1.656364e+01 1.623622e+01 2.569826e+01 2.310263e-01 3.280328e-01 4.470965e-01 7.338041e-01 8.546084e-01 1.155138e+00 1.240327e+00 1.419324e+00 1.490968e+00 1.427468e+00 1.258592e+00 1.248129e+00 1.440109e-01 3.886112e-02 5.749385e-02 9.086999e-02 1.438092e-01 1.781108e-01 2.106616e-01 2.368467e-01 2.461220e-01 2.589079e-01 2.754793e-01 2.390367e-01 2.319299e-01 1.166496e-02
<GCONST> 7.911760e+01
<MIXTURE> 2 1.989574e-01
<MEAN> 39
 -1.104311e+01 -1.022420e+00 -3.724984e-01 -4.303656e+00 -1.509875e+00 6.600262e+00 4.427326e+00 3.663407e-01 4.817060e+00 2.292352e-01 -3.121717e+00 1.669832e+00 5.185868e+01 3.502134e-01 -6.574957e-02 -8.207540e-02 6.253299e-03 5.185121e-02 -9.297435e-02 1.312473e-02 3.357800e-02 -1.116898e-01 -4.728896e-03 5.055374e-02 -1.110715e-01 -2.935352e-01 -2.098745e-02 -6.984258e-03 -2.835744e-02 -2.319009e-02 -2.971997e-02 -4.918173e-02 -5.156700e-02 -2.232870e-02 -5.507490e-02 -2.645732e-02 -2.856642e-03 -2.621784e-02 1.207674e-02
<VARIANCE> 39
 2.967469e+01 1.749635e+01 3.509687e+01 1.478916e+01 1.949508e+01 3.668449e+01 2.024678e+01 2.649951e+01 3.526925e+01 1.968507e+01 2.621427e+01 2.444264e+01 2.065752e+01 2.614507e-01 3.335567e-01 5.184331e-01 6.966283e-01 9.490575e-01 1.265208e+00 1.296375e+00 1.440638e+00 1.554077e+00 1.394165e+00 1.327950e+00 1.247272e+00 1.197294e-01 3.766453e-02 5.638691e-02 9.694608e-02 1.324792e-01 1.799608e-01 2.336101e-01 2.487927e-01 2.787111e-01 2.946947e-01 2.766192e-01 2.649166e-01 2.427286e-01 1.378639e-02
<GCONST> 8.369521e+01
<MIXTURE> 3 1.989591e-01
<MEAN> 39
 -1.104289e+01 -1.022497e+00 -3.727050e-01 -4.303563e+00 -1.509718e+00 6.600089e+00 4.427386e+00 3.665444e-01 4.816851e+00 2.292761e-01 -3.121525e+00 1.669640e+00 5.185860e+01 3.502043e-01 -6.574740e-02 -8.207279e-02 6.248827e-03 5.184993e-02 -9.297474e-02 1.312409e-02 3.357752e-02 -1.116938e-01 -4.728822e-03 5.055557e-02 -1.110733e-01 -2.935293e-01 -2.098990e-02 -6.984412e-03 -2.835547e-02 -2.319292e-02 -2.972332e-02 -4.917876e-02 -5.157009e-02 -2.233476e-02 -5.507174e-02 -2.646047e-02 -2.861961e-03 -2.621356e-02 1.207815e-02
<VARIANCE> 39
 2.967417e+01 1.749613e+01 3.509529e+01 1.478879e+01 1.949457e+01 3.668345e+01 2.024648e+01 2.649851e+01 3.526825e+01 1.968472e+01 2.621350e+01 2.444195e+01 2.065701e+01 2.614472e-01 3.335539e-01 5.184269e-01 6.966207e-01 9.490466e-01 1.265191e+00 1.296363e+00 1.440619e+00 1.554061e+00 1.394149e+00 1.327936e+00 1.247259e+00 1.197285e-01 3.766385e-02 5.638625e-02 9.694478e-02 1.324774e-01 1.799580e-01 2.336063e-01 2.487906e-01 2.787068e-01 2.946910e-01 2.766164e-01 2.649134e-01 2.427261e-01 1.378598e-02
<GCONST> 8.369453e+01
<MIXTURE> 4 8.196653e-02
<MEAN> 39
 -1.370211e+01 -2.756189e+00 -1.670196e+00 -4.117317e+00 -2.142209e+00 3.845197e+00 2.175319e+00 3.453555e-02 3.428480e+00 -2.951685e-01 -2.614170e+00 1.350560e+00 5.744572e+01 -4.074724e-01 2.324673e-01 1.430308e-01 -6.303570e-02 -1.251500e-01 3.267629e-01 -5.855982e-02 -1.629183e-01 1.904275e-01 -9.962081e-02 -2.211062e-01 2.304351e-01 8.262254e-02 -8.332953e-02 2.427780e-02 5.416347e-02 -2.432014e-03 -4.569902e-02 5.601266e-02 -1.918990e-03 -2.967703e-02 4.205915e-02 -6.945148e-03 -3.701253e-02 3.340910e-02 4.107972e-02
<VARIANCE> 39
 3.542783e+01 5.340677e+01 3.268050e+01 1.602780e+01 1.977529e+01 6.279805e+01 2.550832e+01 2.608795e+01 3.199843e+01 2.233073e+01 2.583547e+01 2.219228e+01 9.261162e+01 1.306598e+00 8.654656e-01 8.723097e-01 1.016471e+00 1.331995e+00 1.991085e+00 1.707018e+00 2.024411e+00 2.285781e+00 1.775099e+00 1.930651e+00 1.628190e+00 7.772374e-01 4.768417e-01 1.792522e-01 1.718439e-01 1.902882e-01 2.525309e-01 3.989434e-01 3.299623e-01 3.999684e-01 4.240220e-01 3.609783e-01 3.647296e-01 3.013081e-01 3.236964e-01
<GCONST> 1.056588e+02
<MIXTURE> 5 1.989345e-01
<MEAN> 39
 -1.104377e+01 -1.022166e+00 -3.718178e-01 -4.303922e+00 -1.510339e+00 6.600787e+00 4.427204e+00 3.657785e-01 4.817697e+00 2.291714e-01 -3.122284e+00 1.670381e+00 5.185886e+01 3.502355e-01 -6.575659e-02 -8.208629e-02 6.263384e-03 5.185090e-02 -9.297775e-02 1.311891e-02 3.357660e-02 -1.116793e-01 -4.729506e-03 5.054737e-02 -1.110650e-01 -2.935472e-01 -2.098059e-02 -6.983725e-03 -2.836335e-02 -2.318287e-02 -2.971157e-02 -4.919162e-02 -5.156236e-02 -2.231641e-02 -5.508547e-02 -2.645190e-02 -2.843963e-03 -2.622863e-02 1.207308e-02
<VARIANCE> 39
 2.967716e+01 1.749714e+01 3.510310e+01 1.479088e+01 1.949743e+01 3.668869e+01 2.024848e+01 2.650359e+01 3.527318e+01 1.968690e+01 2.621751e+01 2.444550e+01 2.065939e+01 2.614710e-01 3.335803e-01 5.184817e-01 6.966854e-01 9.491383e-01 1.265326e+00 1.296467e+00 1.440745e+00 1.554193e+00 1.394256e+00 1.328039e+00 1.247361e+00 1.197368e-01 3.766957e-02 5.639136e-02 9.695513e-02 1.324905e-01 1.799757e-01 2.336331e-01 2.488126e-01 2.787375e-01 2.947190e-01 2.766417e-01 2.649410e-01 2.427478e-01 1.378860e-02
<GCONST> 8.369888e+01
<MIXTURE> 6 8.196590e-02
<MEAN> 39
 -1.370194e+01 -2.755363e+00 -1.669863e+00 -4.117386e+00 -2.142044e+00 3.845966e+00 2.175598e+00 3.470680e-02 3.428712e+00 -2.949875e-01 -2.614278e+00 1.350785e+00 5.744450e+01 -4.075609e-01 2.324804e-01 1.430279e-01 -6.305786e-02 -1.251752e-01 3.267832e-01 -5.857570e-02 -1.629195e-01 1.904461e-01 -9.962225e-02 -2.211154e-01 2.304485e-01 8.271933e-02 -8.335059e-02 2.427158e-02 5.416324e-02 -2.436322e-03 -4.571024e-02 5.601011e-02 -1.930759e-03 -2.969135e-02 4.206172e-02 -6.951889e-03 -3.701903e-02 3.341021e-02 4.110350e-02
<VARIANCE> 39
 3.542925e+01 5.340054e+01 3.268205e+01 1.602793e+01 1.977521e+01 6.279495e+01 2.550799e+01 2.608818e+01 3.199826e+01 2.233061e+01 2.583636e+01 2.219233e+01 9.260123e+01 1.306692e+00 8.655362e-01 8.723628e-01 1.016503e+00 1.332038e+00 1.991183e+00 1.707083e+00 2.024504e+00 2.285877e+00 1.775154e+00 1.930738e+00 1.628240e+00 7.772392e-01 4.768961e-01 1.792622e-01 1.718530e-01 1.902935e-01 2.525390e-01 3.989639e-01 3.299722e-01 3.999854e-01 4.240365e-01 3.609876e-01 3.647459e-01 3.013160e-01 3.237194e-01
<GCONST> 1.056598e+02
<MIXTURE> 7 8.196740e-02
<MEAN> 39
 -1.370193e+01 -2.755167e+00 -1.669790e+00 -4.117404e+00 -2.142013e+00 3.846150e+00 2.175655e+00 3.473552e-02 3.428770e+00 -2.949533e-01 -2.614310e+00 1.350844e+00 5.744424e+01 -4.075848e-01 2.324845e-01 1.430293e-01 -6.306423e-02 -1.251827e-01 3.267916e-01 -5.858042e-02 -1.629232e-01 1.904521e-01 -9.962451e-02 -2.211207e-01 2.304543e-01 8.274351e-02 -8.335145e-02 2.426879e-02 5.416262e-02 -2.437267e-03 -4.571208e-02 5.600895e-02 -1.932639e-03 -2.969373e-02 4.206204e-02 -6.952776e-03 -3.701949e-02 3.340987e-02 4.110662e-02
<VARIANCE> 39
 3.542933e+01 5.339891e+01 3.268236e+01 1.602792e+01 1.977517e+01 6.279428e+01 2.550784e+01 2.608810e+01 3.199812e+01 2.233046e+01 2.583648e+01 2.219233e+01 9.259810e+01 1.306715e+00 8.655516e-01 8.723738e-01 1.016510e+00 1.332045e+00 1.991207e+00 1.707089e+00 2.024519e+00 2.285896e+00 1.775163e+00 1.930752e+00 1.628252e+00 7.772409e-01 4.769027e-01 1.792630e-01 1.718538e-01 1.902936e-01 2.525403e-01 3.989662e-01 3.299726e-01 3.999872e-01 4.240382e-01 3.609877e-01 3.647483e-01 3.013158e-01 3.237188e-01
<GCONST> 1.056599e+02
<MIXTURE> 8 9.489285e-02
<MEAN> 39
 -1.273265e+01 -1.009021e+00 -1.812175e-01 -3.382658e+00 -1.799331e+00 2.970077e+00 2.598260e+00 1.524875e+00 2.852042e+00 8.559148e-01 -1.014052e+00 2.672723e-04 5.424936e+01 -3.612425e+00 -4.072221e-02 2.187893e-01 -4.546193e-01 -1.006474e+00 5.094908e-01 -9.565399e-01 -1.205369e+00 5.774859e-01 -3.624847e-01 -9.377925e-01 7.100510e-01 3.563748e+00 -1.016894e-01 -8.837113e-02 4.510726e-02 -7.867526e-02 -1.082556e-01 2.867528e-01 -9.369832e-03 -2.989290e-01 1.283631e-01 -4.426498e-02 -3.249868e-01 1.892009e-01 1.027787e-01
<VARIANCE> 39
 6.146699e+01 3.503639e+01 2.790841e+01 1.951214e+01 2.566693e+01 4.889610e+01 3.027681e+01 2.912294e+01 3.475131e+01 2.842507e+01 2.232524e+01 1.969728e+01 1.066940e+02 4.146733e+00 3.444719e+00 2.177752e+00 1.863411e+00 2.433700e+00 6.458205e+00 3.209745e+00 4.100529e+00 4.046461e+00 3.554185e+00 3.238648e+00 2.699843e+00 4.534943e+00 1.291870e+00 3.643345e-01 2.767967e-01 2.953923e-01 4.773581e-01 7.073237e-01 5.454086e-01 6.280450e-01 5.575132e-01 5.032125e-01 4.519991e-01 3.805948e-01 1.626075e+00
<GCONST> 1.249990e+02
<STATE> 3
<NUMMIXES> 8
<MIXTURE> 1 6.033446e-02
<MEAN> 39
 -1.703705e+01 1.644895e+00 -1.190772e-01 -7.885394e+00 -4.836601e+00 1.332805e+01 -1.166660e-01 -2.403368e+00 1.055891e+01 -4.302459e+00 -3.682969e+00 5.889531e+00 5.611998e+01 -2.009463e+00 4.754536e-01 -1.435367e-01 4.408402e-01 5.731671e-01 -9.501102e-01 5.350737e-01 7.510161e-01 -8.074316e-01 3.747303e-01 3.566158e-01 -8.961887e-01 1.424254e+00 -8.489184e-01 4.739618e-02 5.638874e-02 1.370726e-01 3.240089e-02 -3.893676e-02 7.558461e-02 7.434056e-02 -7.651769e-02 -3.765582e-02 -1.232789e-01 -3.957718e-02 6.390349e-01
<VARIANCE> 39
 2.766395e+01 7.399210e+00 1.644963e+01 9.693411e+00 1.382465e+01 2.151429e+01 1.979985e+01 1.693527e+01 2.148168e+01 1.715242e+01 1.731418e+01 1.672667e+01 1.296246e+01 1.651038e+00 7.397825e-01 1.177757e+00 1.370178e+00 1.660545e+00 3.050535e+00 2.822172e+00 2.180566e+00 2.734721e+00 2.084195e+00 2.016487e+00 2.443521e+00 8.189180e-01 2.870440e-01 1.115241e-01 1.621193e-01 1.720100e-01 2.372128e-01 3.705851e-01 3.572155e-01 3.431529e-01 3.980750e-01 3.636309e-01 3.197840e-01 3.445927e-01 1.348526e-01
<GCONST> 9.728065e+01
<MIXTURE> 2 1.817385e-01
<MEAN> 39
 -2.131312e+01 2.884324e+00 -6.304508e-02 -7.252612e+00 -4.860435e+00 1.365376e+01 7.835470e-01 -2.468917e+00 9.805172e+00 -4.177407e+00 -4.854699e+00 6.032670e+00 5.912109e+01 6.618760e-01 -5.543536e-03 -2.804156e-02 -3.955986e-03 9.087915e-02 4.361814e-02 9.142432e-02 4.962447e-02 1.499141e-01 1.261958e-01 1.317915e-01 2.842075e-02 -5.093294e-01 3.674512e-03 3.330598e-04 -4.313499e-02 3.350830e-02 2.559948e-02 -9.400882e-02 2.247332e-03 3.812304e-02 -6.936081e-02 5.694807e-02 6.535975e-02 -6.135454e-02 1.541918e-03
<VARIANCE> 39
 2.845103e+01 8.151044e+00 1.647311e+01 1.094125e+01 1.430713e+01 2.502060e+01 2.360643e+01 1.902069e+01 2.252391e+01 1.922751e+01 1.752952e+01 1.836873e+01 1.548650e+01 2.290134e-01 2.983980e-01 5.604023e-01 7.414859e-01 9.395764e-01 1.295412e+00 1.385653e+00 1.363171e+00 1.464499e+00 1.451756e+00 1.310417e+00 1.247448e+00 1.140434e-01 8.378046e-02 5.972612e-02 1.207552e-01 1.527587e-01 2.041033e-01 2.802999e-01 3.025201e-01 2.859602e-01 3.143891e-01 3.077663e-01 2.757128e-01 2.704376e-01 4.773452e-02
<GCONST> 8.266356e+01
<MIXTURE> 3 1.817304e-01
<MEAN> 39
 -2.131318e+01 2.884321e+00 -6.302818e-02 -7.252613e+00 -4.860451e+00 1.365377e+01 7.835345e-01 -2.468929e+00 9.805171e+00 -4.177425e+00 -4.854718e+00 6.032678e+00 5.912114e+01 6.618736e-01 -5.541809e-03 -2.803839e-02 -3.956946e-03 9.087849e-02 4.362217e-02 9.142485e-02 4.962391e-02 1.499185e-01 1.261963e-01 1.317901e-01 2.842299e-02 -5.093288e-01 3.675797e-03 3.334014e-04 -4.313580e-02 3.350855e-02 2.560080e-02 -9.400965e-02 2.248579e-03 3.812425e-02 -6.936090e-02 5.694943e-02 6.536154e-02 -6.135558e-02 1.540912e-03
<VARIANCE> 39
 2.845094e+01 8.151072e+00 1.647307e+01 1.094128e+01 1.430717e+01 2.502060e+01 2.360650e+01 1.902077e+01 2.252386e+01 1.922755e+01 1.752960e+01 1.836882e+01 1.548651e+01 2.290157e-01 2.983986e-01 5.604050e-01 7.414891e-01 9.395760e-01 1.295421e+00 1.385654e+00 1.363173e+00 1.464504e+00 1.451755e+00 1.310418e+00 1.247451e+00 1.140445e-01 8.378192e-02 5.972642e-02 1.207556e-01 1.527592e-01 2.041043e-01 2.803006e-01 3.025203e-01 2.859614e-01 3.143894e-01 3.077664e-01 2.757140e-01 2.704390e-01 4.773561e-02
<GCONST> 8.266371e+01
<MIXTURE> 4 9.187755e-02
<MEAN> 39
 -1.752198e+01 1.636362e+00 -2.094976e+00 -6.318553e+00 -4.378489e+00 1.025099e+01 3.563330e-01 -1.979314e+00 7.428304e+00 -3.094546e+00 -3.155569e+00 4.491679e+00 5.801526e+01 8.552318e-02 -1.356804e-01 -2.704855e-02 -1.023317e-01 -1.871362e-01 -1.007498e-02 -1.419175e-01 -2.097458e-01 -1.672739e-01 -1.565168e-01 -1.434760e-01 6.708429e-03 -1.085857e-01 1.344626e-02 1.573686e-02 2.672767e-02 -3.494357e-02 9.343409e-04 3.171293e-02 5.582890e-03 4.566910e-03 8.594762e-03 -4.747736e-02 -4.341673e-02 -8.317918e-03 -1.196118e-02
<VARIANCE> 39
 7.240191e+01 1.385020e+01 2.353028e+01 1.408341e+01 1.826260e+01 3.944192e+01 3.141783e+01 2.554080e+01 3.084435e+01 2.046653e+01 1.947387e+01 2.160699e+01 3.222628e+01 6.163421e-01 4.323922e-01 7.517407e-01 8.824233e-01 1.216489e+00 1.827686e+00 1.793213e+00 1.636953e+00 1.843512e+00 1.625334e+00 1.528670e+00 1.623222e+00 3.313045e-01 3.842031e-01 1.041807e-01 1.582655e-01 1.885874e-01 2.580661e-01 3.735599e-01 3.948116e-01 3.560871e-01 3.947557e-01 3.470027e-01 3.228342e-01 3.357224e-01 2.104778e-01
<GCONST> 9.786609e+01
<MIXTURE> 5 1.817333e-01
<MEAN> 39
 -2.131316e+01 2.884323e+00 -6.302508e-02 -7.252615e+00 -4.860450e+00 1.365378e+01 7.835335e-01 -2.468925e+00 9.805183e+00 -4.177423e+00 -4.854715e+00 6.032682e+00 5.912112e+01 6.618751e-01 -5.542105e-03 -2.804006e-02 -3.957385e-03 9.087859e-02 4.362009e-02 9.142445e-02 4.962390e-02 1.499168e-01 1.261954e-01 1.317902e-01 2.842201e-02 -5.093298e-01 3.675374e-03 3.333176e-04 -4.313606e-02 3.350855e-02 2.560078e-02 -9.401001e-02 2.248489e-03 3.812391e-02 -6.936136e-02 5.694928e-02 6.536138e-02 -6.135558e-02 1.541201e-03
<VARIANCE> 39
 2.845083e+01 8.151043e+00 1.647306e+01 1.094127e+01 1.430714e+01 2.502057e+01 2.360643e+01 1.902075e+01 2.252382e+01 1.922749e+01 1.752952e+01 1.836872e+01 1.548646e+01 2.290141e-01 2.983972e-01 5.604022e-01 7.414862e-01 9.395747e-01 1.295415e+00 1.385650e+00 1.363172e+00 1.464498e+00 1.451750e+00 1.310414e+00 1.247447e+00 1.140437e-01 8.378100e-02 5.972616e-02 1.207553e-01 1.527589e-01 2.041038e-01 2.803001e-01 3.025196e-01 2.859603e-01 3.143885e-01 3.077652e-01 2.757123e-01 2.704372e-01 4.773504e-02
<GCONST> 8.266358e+01
<MIXTURE> 6 9.187569e-02
<MEAN> 39
 -1.752255e+01 1.636445e+00 -2.094746e+00 -6.318593e+00 -4.378541e+00 1.025124e+01 3.562908e-01 -1.979312e+00 7.428527e+00 -3.094653e+00 -3.155684e+00 4.491817e+00 5.801554e+01 8.549730e-02 -1.356749e-01 -2.703688e-02 -1.023312e-01 -1.871455e-01 -1.004942e-02 -1.419197e-01 -2.097532e-01 -1.672525e-01 -1.565223e-01 -1.434852e-01 6.730491e-03 -1.085611e-01 1.346648e-02 1.573485e-02 2.672178e-02 -3.494443e-02 9.372442e-04 3.170492e-02 5.586682e-03 4.566650e-03 8.588452e-03 -4.747344e-02 -4.341124e-02 -8.323976e-03 -1.197527e-02
<VARIANCE> 39
 7.240155e+01 1.384982e+01 2.353007e+01 1.408336e+01 1.826255e+01 3.944147e+01 3.141795e+01 2.554050e+01 3.084421e+01 2.046663e+01 1.947408e+01 2.160714e+01 3.222601e+01 6.163750e-01 4.324009e-01 7.517618e-01 8.824399e-01 1.216518e+00 1.827738e+00 1.793269e+00 1.636979e+00 1.843546e+00 1.625359e+00 1.528681e+00 1.623255e+00 3.313240e-01 3.842319e-01 1.041830e-01 1.582702e-01 1.885910e-01 2.580709e-01 3.735698e-01 3.948218e-01 3.560919e-01 3.947605e-01 3.470077e-01 3.228379e-01 3.357291e-01 2.104967e-01
<GCONST> 9.786674e+01
<MIXTURE> 7 9.187678e-02
<MEAN> 39
 -1.752198e+01 1.636361e+00 -2.094962e+00 -6.318568e+00 -4.378512e+00 1.025100e+01 3.563044e-01 -1.979326e+00 7.428329e+00 -3.094559e+00 -3.155581e+00 4.491700e+00 5.801527e+01 8.552402e-02 -1.356810e-01 -2.704856e-02 -1.023324e-01 -1.871369e-01 -1.007603e-02 -1.419181e-01 -2.097468e-01 -1.672747e-01 -1.565176e-01 -1.434761e-01 6.708201e-03 -1.085865e-01 1.344598e-02 1.573731e-02 2.672658e-02 -3.494224e-02 9.367233e-04 3.171165e-02 5.585373e-03 4.568050e-03 8.592522e-03 -4.747605e-02 -4.341540e-02 -8.320235e-03 -1.196099e-02
<VARIANCE> 39
 7.240167e+01 1.385019e+01 2.353028e+01 1.408340e+01 1.826260e+01 3.944191e+01 3.141788e+01 2.554082e+01 3.084429e+01 2.046652e+01 1.947382e+01 2.160701e+01 3.222620e+01 6.163408e-01 4.323926e-01 7.517420e-01 8.824222e-01 1.216491e+00 1.827686e+00 1.793212e+00 1.636956e+00 1.843506e+00 1.625341e+00 1.528670e+00 1.623220e+00 3.313038e-01 3.842039e-01 1.041810e-01 1.582655e-01 1.885878e-01 2.580665e-01 3.735604e-01 3.948112e-01 3.560876e-01 3.947550e-01 3.470028e-01 3.228335e-01 3.357221e-01 2.104782e-01
<GCONST> 9.786610e+01
<MIXTURE> 8 1.186550e-01
<MEAN> 39
 -2.302754e+01 2.365921e+00 -1.082101e+00 -5.898703e+00 -4.052011e+00 8.882868e+00 6.175421e-01 -9.490169e-01 6.619524e+00 -3.340641e+00 -3.220621e+00 3.075194e+00 6.196571e+01 -2.095551e+00 7.257319e-02 1.939355e-01 6.213460e-02 -3.074982e-01 2.937099e-01 -3.552872e-01 -2.620231e-01 5.121753e-02 -4.284824e-01 -5.225938e-01 3.359866e-01 1.827653e+00 4.810395e-01 -8.712262e-02 9.483301e-02 -1.322419e-01 -1.083771e-01 3.159311e-01 -4.063673e-02 -1.909842e-01 2.906904e-01 -9.901754e-02 -1.057201e-01 2.788273e-01 -3.751563e-01
<VARIANCE> 39
 7.459633e+01 1.542332e+01 2.336022e+01 1.874001e+01 2.133224e+01 4.236291e+01 3.696371e+01 2.767326e+01 3.210802e+01 2.340489e+01 2.172713e+01 2.439034e+01 3.060150e+01 4.093337e+00 1.325798e+00 1.922131e+00 1.553868e+00 2.162621e+00 4.023854e+00 3.501002e+00 2.719893e+00 3.268607e+00 2.202839e+00 2.155449e+00 2.889378e+00 1.588544e+00 8.482956e-01 1.951316e-01 2.629304e-01 2.966058e-01 3.641203e-01 5.614822e-01 5.799380e-01 4.581380e-01 5.261124e-01 4.317538e-01 3.962578e-01 4.352907e-01 4.905334e-01
<GCONST> 1.151138e+02
<STATE> 4
<NUMMIXES> 8
<MIXTURE> 1 8.815125e-02
<MEAN> 39
 -1.196280e+01 4.074968e-01 3.740415e+00 -5.750696e+00 -4.540593e+00 5.885917e+00 6.940469e-01 -3.231287e+00 3.734144e+00 1.868389e+00 -7.086612e+00 2.310501e+00 5.038990e+01 3.675354e-01 1.346295e-01 -2.040498e-02 3.301986e-01 4.514565e-01 9.240482e-02 2.581124e-01 4.558483e-01 1.622020e-01 1.446803e-01 3.591827e-01 -1.010944e-01 -3.406749e-01 -3.607929e-02 2.162629e-02 5.463331e-02 7.394172e-02 5.012737e-02 1.513764e-01 8.000387e-02 1.683529e-02 7.200135e-02 3.558914e-02 -3.293905e-02 6.031669e-02 3.873423e-02
<VARIANCE> 39
 4.733288e+01 1.109223e+01 2.899713e+01 1.540970e+01 2.582014e+01 2.239300e+01 2.352608e+01 3.587013e+01 3.248220e+01 2.496455e+01 2.460229e+01 1.725769e+01 2.801580e+01 2.659945e-01 3.200150e-01 5.871570e-01 6.881788e-01 9.429433e-01 1.283950e+00 1.380103e+00 1.499771e+00 1.637575e+00 1.484676e+00 1.421863e+00 1.266335e+00 1.173078e-01 2.854767e-02 5.229739e-02 9.483722e-02 1.357576e-01 1.813770e-01 2.222155e-01 2.443549e-01 2.743052e-01 2.781802e-01 2.629233e-01 2.640685e-01 2.200084e-01 9.898401e-03
<GCONST> 8.325538e+01
<MIXTURE> 2 1.801807e-01
<MEAN> 39
 -2.273751e+01 3.977422e-01 6.178351e+00 -4.072688e+00 -7.012989e+00 1.161964e+01 1.434272e+00 -6.911640e+00 3.880962e+00 4.873789e+00 -1.253098e+01 5.362069e+00 5.823417e+01 5.974376e-01 4.958647e-02 2.139036e-01 -6.607222e-02 -3.149910e-02 5.315750e-02 1.351895e-01 -1.518744e-01 2.919075e-01 3.062093e-02 -1.066014e-01 1.301495e-01 -6.936820e-01 -3.385046e-02 1.712721e-02 -7.445927e-02 1.057326e-02 4.982173e-02 -1.027643e-01 -2.649334e-02 9.591486e-02 -5.181978e-02 -2.372984e-02 9.907153e-02 -8.730070e-02 2.438919e-02
<VARIANCE> 39
 2.477400e+01 9.070243e+00 1.336588e+01 1.500639e+01 3.060891e+01 2.586233e+01 2.817579e+01 4.934745e+01 3.782954e+01 3.174251e+01 2.856037e+01 3.303119e+01 2.713048e+01 1.787262e-01 2.896288e-01 5.728434e-01 6.667503e-01 9.245667e-01 1.197369e+00 1.263207e+00 1.464978e+00 1.586353e+00 1.414779e+00 1.388105e+00 1.231093e+00 1.131673e-01 8.043765e-02 6.553657e-02 1.305585e-01 1.501394e-01 2.174443e-01 2.730340e-01 2.836975e-01 3.525093e-01 3.651391e-01 3.259259e-01 3.088729e-01 2.759769e-01 7.876980e-02
<GCONST> 8.806840e+01
<MIXTURE> 3 1.801811e-01
<MEAN> 39
 -2.273750e+01 3.977311e-01 6.178363e+00 -4.072703e+00 -7.013017e+00 1.161965e+01 1.434245e+00 -6.911678e+00 3.880978e+00 4.873774e+00 -1.253100e+01 5.362103e+00 5.823418e+01 5.974370e-01 4.958574e-02 2.139037e-01 -6.607164e-02 -3.149845e-02 5.315775e-02 1.351895e-01 -1.518744e-01 2.919087e-01 3.062193e-02 -1.066004e-01 1.301504e-01 -6.936824e-01 -3.385098e-02 1.712729e-02 -7.445966e-02 1.057412e-02 4.982301e-02 -1.027641e-01 -2.649250e-02 9.591617e-02 -5.182064e-02 -2.372982e-02 9.907207e-02 -8.730194e-02 2.438952e-02
<VARIANCE> 39
 2.477413e+01 9.070275e+00 1.336596e+01 1.500643e+01 3.060903e+01 2.586241e+01 2.817595e+01 4.934771e+01 3.782974e+01 3.174260e+01 2.856053e+01 3.303148e+01 2.713074e+01 1.787266e-01 2.896293e-01 5.728439e-01 6.667499e-01 9.245668e-01 1.197371e+00 1.263209e+00 1.464978e+00 1.586357e+00 1.414781e+00 1.388106e+00 1.231097e+00 1.131676e-01 8.043788e-02 6.553674e-02 1.305587e-01 1.501397e-01 2.174446e-01 2.730344e-01 2.836978e-01 3.525103e-01 3.651403e-01 3.259269e-01 3.088740e-01 2.759776e-01 7.877002e-02
<GCONST> 8.806854e+01
<MIXTURE> 4 9.364029e-02
<MEAN> 39
 -2.358372e+01 6.730533e-01 4.663681e+00 -3.705700e+00 -6.360033e+00 1.105712e+01 1.465762e+00 -6.219979e+00 3.992307e+00 3.851362e+00 -1.174680e+01 4.859645e+00 5.901282e+01 -3.785191e-01 -5.573545e-02 -2.091110e-01 -9.133462e-03 -1.211091e-01 -5.770383e-02 -6.064261e-02 -2.783145e-02 -1.415688e-01 -2.231775e-01 5.021054e-02 -1.065613e-01 5.017618e-01 -5.780203e-03 -9.461204e-03 5.210831e-02 -2.448109e-02 -6.225009e-03 -1.628634e-02 -2.944814e-02 1.919913e-02 -6.549511e-02 6.194228e-02 -4.049579e-04 7.253307e-03 1.618541e-02
<VARIANCE> 39
 2.484491e+01 1.097409e+01 1.661588e+01 1.609823e+01 2.667522e+01 2.756671e+01 3.071417e+01 4.590038e+01 3.853108e+01 3.314484e+01 2.775218e+01 3.132635e+01 3.172000e+01 1.067894e+00 6.695673e-01 1.410025e+00 1.242249e+00 1.870600e+00 2.671017e+00 2.092155e+00 3.717348e+00 3.143096e+00 2.657174e+00 2.468766e+00 2.421082e+00 8.431885e-01 4.824871e-01 1.200513e-01 2.753827e-01 2.243175e-01 3.234545e-01 4.204679e-01 4.162226e-01 5.628725e-01 6.452435e-01 4.871842e-01 4.134652e-01 4.167846e-01 5.255225e-01
<GCONST> 1.090897e+02
<MIXTURE> 5 1.801780e-01
<MEAN> 39
 -2.273752e+01 3.977308e-01 6.178366e+00 -4.072698e+00 -7.013007e+00 1.161966e+01 1.434249e+00 -6.911666e+00 3.880984e+00 4.873785e+00 -1.253100e+01 5.362106e+00 5.823418e+01 5.974374e-01 4.958608e-02 2.139038e-01 -6.607141e-02 -3.149766e-02 5.315794e-02 1.351899e-01 -1.518733e-01 2.919085e-01 3.062177e-02 -1.066007e-01 1.301500e-01 -6.936836e-01 -3.385066e-02 1.712711e-02 -7.445988e-02 1.057362e-02 4.982227e-02 -1.027642e-01 -2.649276e-02 9.591541e-02 -5.182052e-02 -2.373006e-02 9.907202e-02 -8.730176e-02 2.438950e-02
<VARIANCE> 39
 2.477395e+01 9.070223e+00 1.336586e+01 1.500630e+01 3.060884e+01 2.586225e+01 2.817579e+01 4.934746e+01 3.782950e+01 3.174241e+01 2.856043e+01 3.303125e+01 2.713050e+01 1.787254e-01 2.896273e-01 5.728406e-01 6.667462e-01 9.245623e-01 1.197368e+00 1.263202e+00 1.464971e+00 1.586348e+00 1.414777e+00 1.388100e+00 1.231091e+00 1.131668e-01 8.043635e-02 6.553616e-02 1.305578e-01 1.501382e-01 2.174428e-01 2.730328e-01 2.836961e-01 3.525079e-01 3.651366e-01 3.259239e-01 3.088717e-01 2.759757e-01 7.876858e-02
<GCONST> 8.806824e+01
<MIXTURE> 6 9.364098e-02
<MEAN> 39
 -2.358364e+01 6.730588e-01 4.663754e+00 -3.705708e+00 -6.360110e+00 1.105718e+01 1.465755e+00 -6.220105e+00 3.992393e+00 3.851357e+00 -1.174688e+01 4.859739e+00 5.901276e+01 -3.785311e-01 -5.573148e-02 -2.091187e-01 -9.132884e-03 -1.210914e-01 -5.773074e-02 -6.064999e-02 -2.779880e-02 -1.415913e-01 -2.231697e-01 5.023544e-02 -1.065877e-01 5.017722e-01 -5.796841e-03 -9.462975e-03 5.209778e-02 -2.447942e-02 -6.218771e-03 -1.629392e-02 -2.945330e-02 1.921046e-02 -6.551093e-02 6.194155e-02 -3.979325e-04 7.242940e-03 1.620527e-02
<VARIANCE> 39
 2.484476e+01 1.097409e+01 1.661591e+01 1.609833e+01 2.667543e+01 2.756694e+01 3.071430e+01 4.590076e+01 3.853143e+01 3.314507e+01 2.775257e+01 3.132719e+01 3.171980e+01 1.067904e+00 6.695691e-01 1.410034e+00 1.242254e+00 1.870613e+00 2.671038e+00 2.092160e+00 3.717404e+00 3.143147e+00 2.657205e+00 2.468786e+00 2.421133e+00 8.431973e-01 4.824865e-01 1.200503e-01 2.753829e-01 2.243179e-01 3.234556e-01 4.204704e-01 4.162244e-01 5.628763e-01 6.452470e-01 4.871869e-01 4.134684e-01 4.167897e-01 5.255237e-01
<GCONST> 1.090900e+02
<MIXTURE> 7 9.363878e-02
<MEAN> 39
 -2.358356e+01 6.730486e-01 4.663802e+00 -3.705719e+00 -6.360245e+00 1.105723e+01 1.465714e+00 -6.220294e+00 3.992450e+00 3.851312e+00 -1.174701e+01 4.859836e+00 5.901273e+01 -3.785247e-01 -5.572674e-02 -2.091137e-01 -9.137822e-03 -1.210846e-01 -5.774717e-02 -6.065414e-02 -2.778401e-02 -1.416050e-01 -2.231615e-01 5.024735e-02 -1.066015e-01 5.017653e-01 -5.810679e-03 -9.462366e-03 5.209124e-02 -2.447747e-02 -6.207900e-03 -1.630343e-02 -2.945747e-02 1.922770e-02 -6.552525e-02 6.194705e-02 -3.847274e-04 7.232630e-03 1.621897e-02
<VARIANCE> 39
 2.484506e+01 1.097429e+01 1.661621e+01 1.609858e+01 2.667613e+01 2.756764e+01 3.071505e+01 4.590200e+01 3.853248e+01 3.314577e+01 2.775332e+01 3.132844e+01 3.172016e+01 1.067921e+00 6.695741e-01 1.410040e+00 1.242262e+00 1.870635e+00 2.671071e+00 2.092179e+00 3.717454e+00 3.143173e+00 2.657228e+00 2.468822e+00 2.421170e+00 8.432082e-01 4.824951e-01 1.200521e-01 2.753873e-01 2.243214e-01 3.234620e-01 4.204819e-01 4.162323e-01 5.628896e-01 6.452636e-01 4.871963e-01 4.134772e-01 4.168001e-01 5.255341e-01
<GCONST> 1.090907e+02
<MIXTURE> 8 9.003833e-02
<MEAN> 39
 -2.521906e+01 1.107047e+00 3.081966e+00 -3.928041e+00 -4.684941e+00 7.446234e+00 1.732389e-01 -1.944622e+00 4.352030e-01 5.020045e+00 -8.197634e+00 1.917995e+00 6.087798e+01 -2.185720e+00 -3.189594e-01 -5.469505e-01 3.999980e-02 1.815282e-01 -3.666278e-01 -8.600770e-01 6.372428e-01 -1.455176e+00 3.380477e-01 2.323708e-01 -3.778284e-01 2.470806e+00 2.894058e-01 -8.547504e-02 2.005310e-01 -5.153117e-02 -2.913189e-01 4.866114e-01 1.795002e-01 -5.963637e-01 4.385455e-01 -1.002433e-01 -5.043803e-01 4.164400e-01 -2.615862e-01
<VARIANCE> 39
 4.846418e+01 1.410529e+01 1.856893e+01 1.937058e+01 2.646448e+01 3.226447e+01 3.487574e+01 3.784322e+01 3.781816e+01 2.978255e+01 2.625119e+01 2.446385e+01 4.417397e+01 2.588027e+00 9.890109e-01 1.905062e+00 1.622299e+00 2.787281e+00 3.436818e+00 2.855850e+00 4.747992e+00 3.922061e+00 3.691377e+00 2.926031e+00 2.786564e+00 1.637379e+00 6.433439e-01 1.545133e-01 3.020714e-01 2.793134e-01 3.843516e-01 4.392400e-01 5.023967e-01 5.517862e-01 6.627039e-01 5.297226e-01 3.986224e-01 4.234045e-01 6.369120e-01
<GCONST> 1.163836e+02
<TRANSP> 5
 0.000000e+00 1.000000e+00 0.000000e+00 0.000000e+00 0.000000e+00
 0.000000e+00 9.534274e-01 4.657269e-02 0.000000e+00 0.000000e+00
 0.000000e+00 0.000000e+00 9.920211e-01 7.978896e-03 0.000000e+00
 0.000000e+00 0.000000e+00 0.000000e+00 9.935664e-01 6.433595e-03
 0.000000e+00 0.000000e+00 0.000000e+00 0.000000e+00 0.000000e+00
<ENDHMM>
~h "cm"
<BEGINHMM>
<NUMSTATES> 5
<STATE> 2
<NUMMIXES> 8
<MIXTURE> 1 8.429244e-02
<MEAN> 39
 -1.265252e+01 -1.570319e+00 -5.259109e+00 -8.334805e+00 -3.656151e+00 -4.072379e+00 -5.718431e+00 -3.285195e+00 -4.216575e+00 8.223947e-02 2.838473e+00 9.240519e-01 6.060054e+01 6.376915e-02 1.307392e-01 2.519787e-01 3.565077e-01 4.789154e-01 5.078927e-01 4.309096e-01 4.173091e-01 3.359607e-01 2.279428e-01 1.501697e-01 7.910369e-02 7.653672e-02 9.118325e-03 7.310001e-02 1.431745e-01 2.444250e-01 3.344960e-01 4.113276e-01 4.375761e-01 3.994443e-01 3.118488e-01 1.684453e-01 4.537493e-02 -2.581847e-02 -6.014667e-02
<VARIANCE> 39
 1.128655e+01 1.386759e+01 1.088890e+01 1.324971e+01 1.162328e+01 1.239607e+01 1.625934e+01 1.696708e+01 1.843901e+01 2.088363e+01 2.606107e+01 2.337829e+01 2.199220e+01 2.671067e-01 3.829759e-01 5.652221e-01 7.446902e-01 9.117725e-01 1.071837e+00 1.277162e+00 1.408727e+00 1.394722e+00 1.356606e+00 1.417139e+00 1.349591e+00 2.651096e-01 5.619819e-02 8.152100e-02 1.121439e-01 1.589804e-01 1.804109e-01 2.028055e-01 2.396821e-01 2.790486e-01 2.958145e-01 3.117693e-01 3.324628e-01 3.030571e-01 5.564808e-02
<GCONST> 8.213362e+01
<MIXTURE> 2 1.500492e-01
<MEAN> 39
 -1.309192e+01 -8.618734e-01 -3.966666e+00 -5.729413e+00 2.524108e-01 1.344797e+00 -3.302407e-01 1.697865e+00 -4.635758e-01 1.213295e+00 2.625026e+00 5.324671e-02 5.859740e+01 -1.770785e-02 4.827653e-02 1.193546e-01 2.174406e-01 3.316079e-01 3.743137e-01 3.463538e-01 3.156266e-01 2.280580e-01 1.504329e-01 6.555467e-02 -7.068567e-03 2.356505e-02 2.267036e-03 -5.616883e-03 -1.485626e-02 -3.594084e-02 -6.700487e-02 -9.573655e-02 -9.824777e-02 -8.848229e-02 -5.715976e-02 -1.341497e-02 1.416764e-02 1.647481e-02 7.777995e-03
<VARIANCE> 39
 9.149284e+00 1.360760e+01 1.310668e+01 1.372496e+01 1.342783e+01 1.421691e+01 1.661799e+01 1.590718e+01 1.684564e+01 1.540799e+01 1.650925e+01 1.486065e+01 2.182051e+01 1.595497e-01 2.832294e-01 4.306410e-01 6.194015e-01 7.875896e-01 9.390154e-01 1.073919e+00 1.216095e+00 1.289847e+00 1.268103e+00 1.296572e+00 1.187878e+00 1.120009e-01 2.553480e-02 4.912896e-02 8.261555e-02 1.249021e-01 1.649901e-01 1.980133e-01 2.227079e-01 2.487379e-01 2.590047e-01 2.538547e-01 2.502874e-01 2.330635e-01 1.038428e-02
<GCONST> 7.324859e+01
<MIXTURE> 3 1.500503e-01
<MEAN> 39
 -1.309190e+01 -8.618584e-01 -3.966642e+00 -5.729393e+00 2.524119e-01 1.344789e+00 -3.302409e-01 1.697858e+00 -4.635778e-01 1.213279e+00 2.625002e+00 5.322990e-02 5.859739e+01 -1.770796e-02 4.827753e-02 1.193552e-01 2.174407e-01 3.316076e-01 3.743137e-01 3.463540e-01 3.156274e-01 2.280583e-01 1.504330e-01 6.555445e-02 -7.068627e-03 2.356451e-02 2.266741e-03 -5.617376e-03 -1.485720e-02 -3.594169e-02 -6.700519e-02 -9.573640e-02 -9.824738e-02 -8.848180e-02 -5.715940e-02 -1.341407e-02 1.416897e-02 1.647557e-02 7.778162e-03
<VARIANCE> 39
 9.149370e+00 1.360762e+01 1.310670e+01 1.372500e+01 1.342784e+01 1.421691e+01 1.661796e+01 1.590717e+01 1.684566e+01 1.540801e+01 1.650928e+01 1.486066e+01 2.182077e+01 1.595506e-01 2.832298e-01 4.306423e-01 6.194032e-01 7.875899e-01 9.390181e-01 1.073920e+00 1.216095e+00 1.289853e+00 1.268108e+00 1.296574e+00 1.187882e+00 1.120017e-01 2.553493e-02 4.912913e-02 8.261576e-02 1.249024e-01 1.649899e-01 1.980131e-01 2.227079e-01 2.487379e-01 2.590052e-01 2.538545e-01 2.502877e-01 2.330632e-01 1.038439e-02
<GCONST> 7.324869e+01
<MIXTURE> 4 1.261532e-01
<MEAN> 39
 -1.321807e+01 -6.966993e-01 -4.156385e+00 -6.381251e+00 -6.851749e-01 4.882173e-02 -1.724081e+00 5.940349e-01 -1.148986e+00 1.762117e+00 3.631429e+00 9.195579e-01 5.867500e+01 -2.780466e-02 -1.165812e-01 -2.236534e-01 -3.369600e-01 -3.719877e-01 -4.484180e-01 -4.936848e-01 -4.334909e-01 -3.641117e-01 -2.448348e-01 -1.046594e-01 -3.713739e-03 1.584003e-01 2.271246e-02 -9.177443e-03 -1.149410e-02 1.969230e-03 -2.384461e-03 3.913152e-03 2.363110e-02 1.330576e-02 -1.229496e-03 -4.387897e-02 -6.653725e-02 -4.843844e-02 1.996192e-02
<VARIANCE> 39
 7.677683e+00 1.297327e+01 1.202624e+01 1.318056e+01 1.412493e+01 1.542688e+01 1.872899e+01 1.791516e+01 1.844150e+01 1.679415e+01 1.838151e+01 1.680796e+01 1.932610e+01 2.248378e-01 3.531558e-01 4.979762e-01 6.992949e-01 8.418585e-01 9.733812e-01 1.133269e+00 1.262982e+00 1.339620e+00 1.331430e+00 1.355340e+00 1.267825e+00 1.810137e-01 3.106157e-02 5.918784e-02 9.269170e-02 1.384793e-01 1.855840e-01 2.243697e-01 2.553490e-01 2.757995e-01 2.830140e-01 2.719443e-01 2.711580e-01 2.522142e-01 1.677655e-02
<GCONST> 7.713550e+01
<MIXTURE> 5 1.500487e-01
<MEAN> 39
 -1.309192e+01 -8.618824e-01 -3.966676e+00 -5.729422e+00 2.524085e-01 1.344792e+00 -3.302520e-01 1.697853e+00 -4.635897e-01 1.213292e+00 2.625030e+00 5.325180e-02 5.859741e+01 -1.770764e-02 4.827670e-02 1.193552e-01 2.174418e-01 3.316089e-01 3.743138e-01 3.463537e-01 3.156263e-01 2.280578e-01 1.504326e-01 6.555434e-02 -7.068845e-03 2.356502e-02 2.267114e-03 -5.616581e-03 -1.485580e-02 -3.594035e-02 -6.700461e-02 -9.573621e-02 -9.824689e-02 -8.848114e-02 -5.715871e-02 -1.341454e-02 1.416755e-02 1.647445e-02 7.777924e-03
<VARIANCE> 39
 9.149271e+00 1.360760e+01 1.310666e+01 1.372491e+01 1.342783e+01 1.421690e+01 1.661796e+01 1.590717e+01 1.684562e+01 1.540798e+01 1.650927e+01 1.486068e+01 2.182043e+01 1.595496e-01 2.832295e-01 4.306416e-01 6.194020e-01 7.875897e-01 9.390153e-01 1.073918e+00 1.216093e+00 1.289847e+00 1.268105e+00 1.296572e+00 1.187880e+00 1.120008e-01 2.553482e-02 4.912904e-02 8.261542e-02 1.249019e-01 1.649900e-01 1.980131e-01 2.227080e-01 2.487380e-01 2.590046e-01 2.538545e-01 2.502875e-01 2.330634e-01 1.038430e-02
<GCONST> 7.324860e+01
<MIXTURE> 6 1.261540e-01
<MEAN> 39
 -1.321811e+01 -6.967404e-01 -4.156416e+00 -6.381266e+00 -6.851594e-01 4.883968e-02 -1.724071e+00 5.940446e-01 -1.148978e+00 1.762135e+00 3.631454e+00 9.195749e-01 5.867503e+01 -2.780488e-02 -1.165827e-01 -2.236537e-01 -3.369591e-01 -3.719867e-01 -4.484172e-01 -4.936834e-01 -4.334911e-01 -3.641120e-01 -2.448361e-01 -1.046608e-01 -3.714603e-03 1.583997e-01 2.271375e-02 -9.175477e-03 -1.149244e-02 1.969822e-03 -2.385498e-03 3.911367e-03 2.362936e-02 1.330440e-02 -1.230817e-03 -4.388051e-02 -6.653874e-02 -4.843941e-02 1.996194e-02
<VARIANCE> 39
 7.677583e+00 1.297331e+01 1.202626e+01 1.318060e+01 1.412500e+01 1.542693e+01 1.872896e+01 1.791518e+01 1.844148e+01 1.679410e+01 1.838144e+01 1.680797e+01 1.932584e+01 2.248355e-01 3.531558e-01 4.979753e-01 6.992917e-01 8.418567e-01 9.733806e-01 1.133266e+00 1.262983e+00 1.339621e+00 1.331429e+00 1.355337e+00 1.267822e+00 1.810115e-01 3.106150e-02 5.918796e-02 9.269194e-02 1.384799e-01 1.855847e-01 2.243709e-01 2.553492e-01 2.758002e-01 2.830142e-01 2.719441e-01 2.711571e-01 2.522152e-01 1.677648e-02
<GCONST> 7.713548e+01
<MIXTURE> 7 1.261531e-01
<MEAN> 39
 -1.321812e+01 -6.967449e-01 -4.156431e+00 -6.381281e+00 -6.851650e-01 4.883867e-02 -1.724077e+00 5.940456e-01 -1.148980e+00 1.762139e+00 3.631461e+00 9.195837e-01 5.867504e+01 -2.780498e-02 -1.165832e-01 -2.236537e-01 -3.369589e-01 -3.719867e-01 -4.484176e-01 -4.936837e-01 -4.334915e-01 -3.641124e-01 -2.448367e-01 -1.046609e-01 -3.714612e-03 1.583989e-01 2.271351e-02 -9.175281e-03 -1.149185e-02 1.970551e-03 -2.384763e-03 3.912092e-03 2.362980e-02 1.330458e-02 -1.230810e-03 -4.388048e-02 -6.653866e-02 -4.843945e-02 1.996163e-02
<VARIANCE> 39
 7.677561e+00 1.297328e+01 1.202621e+01 1.318050e+01 1.412492e+01 1.542687e+01 1.872889e+01 1.791508e+01 1.844136e+01 1.679400e+01 1.838138e+01 1.680792e+01 1.932571e+01 2.248342e-01 3.531531e-01 4.979734e-01 6.992881e-01 8.418531e-01 9.733776e-01 1.133262e+00 1.262977e+00 1.339613e+00 1.331426e+00 1.355331e+00 1.267818e+00 1.810102e-01 3.106131e-02 5.918767e-02 9.269151e-02 1.384789e-01 1.855836e-01 2.243690e-01 2.553481e-01 2.757989e-01 2.830127e-01 2.719426e-01 2.711559e-01 2.522146e-01 1.677636e-02
<GCONST> 7.713527e+01
<MIXTURE> 8 8.702347e-02
<MEAN> 39
 -1.188063e+01 -9.133461e-01 -3.565362e+00 -5.260349e+00 -7.171034e-01 -1.754333e-01 -3.075818e-01 1.310445e+00 2.337089e-01 1.458525e+00 2.043778e+00 -4.873185e-01 5.785019e+01 2.017375e-01 -1.977879e-01 -2.170070e-01 -3.586486e-01 -5.865511e-01 -7.916527e-01 -7.852400e-01 -6.313044e-01 -4.494393e-01 -3.025080e-01 -2.485702e-01 -7.712712e-02 1.127000e+00 1.175520e-01 2.196951e-02 -3.076126e-03 -2.297755e-02 -5.665720e-02 -9.248830e-02 -1.180435e-01 -1.244489e-01 -1.265956e-01 -9.695084e-02 -5.647524e-02 -1.253522e-02 1.173796e-01
<VARIANCE> 39
 1.418476e+01 1.734023e+01 1.547129e+01 2.039208e+01 1.722380e+01 1.818829e+01 2.063363e+01 2.083251e+01 1.888849e+01 1.695718e+01 1.758400e+01 1.657360e+01 3.764330e+01 1.044662e+00 1.045558e+00 1.064757e+00 1.549977e+00 1.619050e+00 1.719008e+00 1.970197e+00 2.182266e+00 2.061945e+00 1.929915e+00 2.136179e+00 1.748356e+00 9.738083e-01 1.294535e-01 1.498932e-01 1.735037e-01 2.631648e-01 2.958823e-01 3.243909e-01 3.744539e-01 3.933563e-01 3.595175e-01 3.234627e-01 3.444711e-01 2.986864e-01 1.961680e-01
<GCONST> 9.822055e+01
<STATE> 3
<NUMMIXES> 8
<MIXTURE> 1 7.406685e-02
<MEAN> 39
 -8.449409e+00 -4.509884e+00 -6.628172e+00 -9.974227e+00 -5.517258e+00 -6.097221e+00 -5.602818e+00 -3.245683e+00 -3.690707e+00 -2.140474e+00 -1.819360e+00 -2.017419e+00 7.281297e+01 2.076904e-01 1.595817e-01 3.510385e-01 3.954951e-01 5.354201e-01 5.698466e-01 4.241366e-01 4.205717e-01 4.323350e-01 3.522832e-01 3.460916e-01 2.827765e-01 -6.335910e-02 7.745154e-02 1.802905e-01 1.755559e-01 3.986943e-01 3.933371e-01 4.439178e-01 3.842379e-01 2.729045e-01 1.936316e-01 1.380186e-01 1.024926e-01 4.455718e-02 -2.911815e-01
<VARIANCE> 39
 1.059182e+01 1.323508e+01 1.443913e+01 1.563053e+01 1.399446e+01 1.264816e+01 1.664779e+01 1.858978e+01 2.070609e+01 1.716031e+01 1.616053e+01 1.538719e+01 5.731186e+01 2.828669e-01 3.898168e-01 6.558475e-01 8.803777e-01 9.950807e-01 1.084728e+00 1.357761e+00 1.447892e+00 1.425506e+00 1.363611e+00 1.415054e+00 1.255207e+00 5.306646e-01 8.407708e-02 1.036553e-01 1.451512e-01 1.746571e-01 2.048192e-01 2.162731e-01 2.574199e-01 3.179513e-01 3.294090e-01 3.163483e-01 3.060122e-01 2.874526e-01 1.907286e-01
<GCONST> 8.660535e+01
<MIXTURE> 2 1.862251e-01
<MEAN> 39
 -7.678846e+00 -2.549127e+00 -5.083762e+00 -5.319766e+00 -1.428075e+00 -1.486388e+00 -1.801061e+00 -8.528592e-01 -1.934897e+00 -4.854041e-01 -5.217645e-01 -1.493555e+00 6.688862e+01 8.334716e-02 8.547346e-02 8.168309e-02 1.584025e-01 1.690793e-01 2.114891e-01 1.752160e-01 1.209973e-01 9.878328e-02 9.076556e-02 7.326730e-02 3.386406e-02 -1.588263e-01 -1.235380e-02 -3.599348e-03 -2.419864e-02 -4.550475e-02 -5.994730e-02 -6.922349e-02 -6.719811e-02 -5.686045e-02 -6.032044e-02 -6.100358e-02 -4.745638e-02 -3.587902e-02 -3.782698e-03
<VARIANCE> 39
 1.145296e+01 1.472157e+01 1.314647e+01 1.542264e+01 1.531459e+01 1.483736e+01 1.999021e+01 1.826168e+01 2.022124e+01 1.814760e+01 1.628135e+01 1.470064e+01 8.009825e+01 2.159091e-01 3.264261e-01 4.784962e-01 7.023115e-01 8.665681e-01 1.020755e+00 1.160261e+00 1.259053e+00 1.329578e+00 1.319892e+00 1.276445e+00 1.194117e+00 3.262054e-01 3.339379e-02 6.061669e-02 9.479430e-02 1.357243e-01 1.735680e-01 2.136559e-01 2.464533e-01 2.639270e-01 2.757967e-01 2.764312e-01 2.660976e-01 2.456374e-01 2.437422e-02
<GCONST> 7.998740e+01
<MIXTURE> 3 1.862254e-01
<MEAN> 39
 -7.678845e+00 -2.549127e+00 -5.083754e+00 -5.319760e+00 -1.428069e+00 -1.486380e+00 -1.801049e+00 -8.528545e-01 -1.934892e+00 -4.853999e-01 -5.217602e-01 -1.493556e+00 6.688859e+01 8.334721e-02 8.547364e-02 8.168298e-02 1.584027e-01 1.690793e-01 2.114891e-01 1.752161e-01 1.209974e-01 9.878365e-02 9.076598e-02 7.326760e-02 3.386433e-02 -1.588268e-01 -1.235373e-02 -3.599295e-03 -2.419890e-02 -4.550506e-02 -5.994771e-02 -6.922397e-02 -6.719854e-02 -5.686071e-02 -6.032066e-02 -6.100398e-02 -4.745666e-02 -3.587906e-02 -3.782528e-03
<VARIANCE> 39
 1.145295e+01 1.472158e+01 1.314645e+01 1.542267e+01 1.531459e+01 1.483735e+01 1.999025e+01 1.826167e+01 2.022122e+01 1.814761e+01 1.628134e+01 1.470062e+01 8.009832e+01 2.159089e-01 3.264259e-01 4.784967e-01 7.023110e-01 8.665683e-01 1.020756e+00 1.160260e+00 1.259052e+00 1.329576e+00 1.319891e+00 1.276445e+00 1.194115e+00 3.262054e-01 3.339384e-02 6.061682e-02 9.479424e-02 1.357246e-01 1.735680e-01 2.136563e-01 2.464532e-01 2.639270e-01 2.757967e-01 2.764315e-01 2.660973e-01 2.456372e-01 2.437423e-02
<GCONST> 7.998739e+01
<MIXTURE> 4 1.025850e-01
<MEAN> 39
 -7.720229e+00 -1.358370e+00 -5.629686e+00 -6.466531e+00 -2.704827e+00 -2.898309e+00 -3.644286e+00 -1.905975e+00 -3.375313e+00 -2.088067e+00 -1.699777e+00 -2.515770e+00 6.811349e+01 2.791539e-01 -8.872112e-03 -1.755281e-01 -2.715094e-01 -4.459956e-01 -5.031605e-01 -3.953542e-01 -3.664345e-01 -2.954369e-01 -3.135102e-01 -3.519624e-01 -2.157297e-01 6.686636e-01 -6.087189e-02 -5.806670e-02 6.522976e-03 6.616008e-03 4.494200e-02 6.932385e-02 8.240579e-02 8.877377e-02 1.017957e-01 1.229619e-01 1.201062e-01 8.953063e-02 -8.726403e-03
<VARIANCE> 39
 1.014893e+01 1.199968e+01 1.376208e+01 1.476995e+01 1.581715e+01 1.359941e+01 1.579442e+01 1.636535e+01 1.775004e+01 1.542732e+01 1.536256e+01 1.341344e+01 5.108855e+01 6.394628e-01 6.640140e-01 7.586175e-01 1.024543e+00 1.090147e+00 1.159545e+00 1.358204e+00 1.432937e+00 1.510004e+00 1.450778e+00 1.371206e+00 1.284918e+00 7.910789e-01 7.506929e-02 1.054863e-01 1.372508e-01 1.891235e-01 2.220616e-01 2.355091e-01 2.580834e-01 2.740514e-01 2.908109e-01 2.745165e-01 2.652743e-01 2.482510e-01 8.945975e-02
<GCONST> 8.675042e+01
<MIXTURE> 5 1.862239e-01
<MEAN> 39
 -7.678841e+00 -2.549124e+00 -5.083764e+00 -5.319765e+00 -1.428079e+00 -1.486392e+00 -1.801066e+00 -8.528612e-01 -1.934899e+00 -4.854045e-01 -5.217654e-01 -1.493555e+00 6.688862e+01 8.334701e-02 8.547352e-02 8.168314e-02 1.584026e-01 1.690792e-01 2.114888e-01 1.752159e-01 1.209974e-01 9.878313e-02 9.076586e-02 7.326733e-02 3.386413e-02 -1.588266e-01 -1.235405e-02 -3.599568e-03 -2.419864e-02 -4.550457e-02 -5.994675e-02 -6.922285e-02 -6.719737e-02 -5.686008e-02 -6.032020e-02 -6.100351e-02 -4.745645e-02 -3.587897e-02 -3.782710e-03
<VARIANCE> 39
 1.145294e+01 1.472157e+01 1.314646e+01 1.542264e+01 1.531456e+01 1.483733e+01 1.999020e+01 1.826162e+01 2.022118e+01 1.814762e+01 1.628136e+01 1.470059e+01 8.009835e+01 2.159091e-01 3.264264e-01 4.784969e-01 7.023113e-01 8.665683e-01 1.020755e+00 1.160262e+00 1.259053e+00 1.329577e+00 1.319892e+00 1.276444e+00 1.194118e+00 3.262056e-01 3.339380e-02 6.061660e-02 9.479419e-02 1.357243e-01 1.735679e-01 2.136559e-01 2.464531e-01 2.639267e-01 2.757963e-01 2.764312e-01 2.660979e-01 2.456371e-01 2.437416e-02
<GCONST> 7.998736e+01
<MIXTURE> 6 1.025853e-01
<MEAN> 39
 -7.720235e+00 -1.358364e+00 -5.629673e+00 -6.466513e+00 -2.704812e+00 -2.898303e+00 -3.644292e+00 -1.905987e+00 -3.375327e+00 -2.088078e+00 -1.699778e+00 -2.515770e+00 6.811347e+01 2.791549e-01 -8.870774e-03 -1.755276e-01 -2.715086e-01 -4.459957e-01 -5.031608e-01 -3.953543e-01 -3.664351e-01 -2.954370e-01 -3.135108e-01 -3.519633e-01 -2.157302e-01 6.686639e-01 -6.087168e-02 -5.806730e-02 6.521438e-03 6.614083e-03 4.494044e-02 6.932309e-02 8.240648e-02 8.877531e-02 1.017972e-01 1.229630e-01 1.201063e-01 8.953049e-02 -8.725561e-03
<VARIANCE> 39
 1.014893e+01 1.199967e+01 1.376210e+01 1.476993e+01 1.581714e+01 1.359941e+01 1.579444e+01 1.636535e+01 1.775002e+01 1.542731e+01 1.536257e+01 1.341343e+01 5.108852e+01 6.394642e-01 6.640157e-01 7.586195e-01 1.024546e+00 1.090151e+00 1.159548e+00 1.358206e+00 1.432939e+00 1.510009e+00 1.450780e+00 1.371208e+00 1.284920e+00 7.910792e-01 7.506919e-02 1.054860e-01 1.372507e-01 1.891230e-01 2.220614e-01 2.355093e-01 2.580835e-01 2.740515e-01 2.908110e-01 2.745164e-01 2.652741e-01 2.482509e-01 8.945961e-02
<GCONST> 8.675044e+01
<MIXTURE> 7 1.025862e-01
<MEAN> 39
 -7.720223e+00 -1.358364e+00 -5.629685e+00 -6.466525e+00 -2.704827e+00 -2.898311e+00 -3.644297e+00 -1.905988e+00 -3.375330e+00 -2.088092e+00 -1.699797e+00 -2.515783e+00 6.811350e+01 2.791546e-01 -8.871101e-03 -1.755280e-01 -2.715089e-01 -4.459961e-01 -5.031612e-01 -3.953556e-01 -3.664371e-01 -2.954397e-01 -3.135123e-01 -3.519644e-01 -2.157308e-01 6.686612e-01 -6.087204e-02 -5.806696e-02 6.522293e-03 6.615368e-03 4.494175e-02 6.932389e-02 8.240636e-02 8.877496e-02 1.017975e-01 1.229644e-01 1.201081e-01 8.953184e-02 -8.726433e-03
<VARIANCE> 39
 1.014889e+01 1.199965e+01 1.376203e+01 1.476988e+01 1.581710e+01 1.359939e+01 1.579440e+01 1.636531e+01 1.774999e+01 1.542727e+01 1.536248e+01 1.341335e+01 5.108837e+01 6.394606e-01 6.640112e-01 7.586149e-01 1.024538e+00 1.090147e+00 1.159546e+00 1.358204e+00 1.432936e+00 1.510006e+00 1.450779e+00 1.371210e+00 1.284916e+00 7.910777e-01 7.506859e-02 1.054854e-01 1.372498e-01 1.891223e-01 2.220605e-01 2.355088e-01 2.580833e-01 2.740508e-01 2.908101e-01 2.745157e-01 2.652729e-01 2.482499e-01 8.945850e-02
<GCONST> 8.675032e+01
<MIXTURE> 8 5.941623e-02
<MEAN> 39
 -1.033665e+01 -4.886369e+00 -4.224133e+00 -6.320736e+00 -2.118195e+00 -3.076251e+00 -1.878191e+00 -1.138332e+00 -1.933742e+00 -1.318327e+00 -8.969274e-01 -1.773945e+00 6.648154e+01 -2.578809e-01 -9.275313e-01 -2.610523e-01 -5.828610e-01 -5.506272e-01 -8.582822e-01 -4.444981e-01 -2.751129e-01 -1.585372e-01 -2.278470e-01 -3.295149e-01 -5.481507e-02 2.016883e+00 1.459845e-01 1.822782e-01 4.248139e-02 3.215979e-02 1.262460e-01 1.218292e-01 1.014170e-02 -1.019558e-02 -2.676916e-03 2.807080e-02 4.818895e-02 9.017237e-03 -2.071394e-01
<VARIANCE> 39
 2.358075e+01 2.653648e+01 2.395190e+01 2.777306e+01 2.787493e+01 2.724706e+01 2.928482e+01 2.894663e+01 3.029509e+01 2.263453e+01 2.087829e+01 1.899301e+01 8.600791e+01 1.775716e+00 2.187390e+00 1.753569e+00 2.164656e+00 2.272236e+00 2.400235e+00 2.384409e+00 2.624628e+00 2.526265e+00 2.290603e+00 2.098274e+00 1.968678e+00 3.030164e+00 2.254877e-01 3.822214e-01 3.248086e-01 3.877380e-01 4.311194e-01 5.173212e-01 4.690976e-01 4.754882e-01 4.771082e-01 4.384850e-01 4.262179e-01 3.670905e-01 7.812803e-01
<GCONST> 1.142726e+02
<STATE> 4
<NUMMIXES> 8
<MIXTURE> 1 6.140942e-02
<MEAN> 39
 -7.726321e+00 2.515886e+00 4.083096e-01 -9.466728e-01 3.349771e+00 2.928206e+00 2.036620e+00 2.120046e+00 2.291092e-01 -2.116113e-01 3.932745e-01 -1.645819e+00 5.518167e+01 -3.170878e-02 5.909782e-02 1.220480e-01 1.436696e-01 1.588944e-01 2.051145e-01 2.607278e-01 2.455250e-01 1.747641e-01 6.312043e-02 -6.794382e-03 -5.276434e-02 -3.100750e-01 2.687903e-02 1.010464e-04 -4.914379e-02 -9.959406e-02 -1.599217e-01 -2.060799e-01 -2.224843e-01 -1.907664e-01 -1.422411e-01 -8.417899e-02 -6.076361e-02 -2.815624e-02 3.794928e-02
<VARIANCE> 39
 2.278774e+01 1.046638e+01 1.146703e+01 1.018861e+01 9.583986e+00 1.134842e+01 1.531923e+01 1.552316e+01 1.715479e+01 1.583648e+01 1.432868e+01 1.356893e+01 3.500151e+01 1.961940e-01 2.857969e-01 4.509237e-01 6.865273e-01 8.692408e-01 1.080051e+00 1.225279e+00 1.368516e+00 1.441232e+00 1.385281e+00 1.313185e+00 1.167626e+00 1.306275e-01 2.351422e-02 4.438719e-02 7.173350e-02 1.156090e-01 1.506321e-01 1.892640e-01 2.139819e-01 2.423714e-01 2.612595e-01 2.572843e-01 2.408419e-01 2.214015e-01 9.174105e-03
<GCONST> 7.348996e+01
<MIXTURE> 2 1.454485e-01
<MEAN> 39
 -5.197393e+00 1.290224e+00 -2.255947e+00 -3.374462e+00 3.153919e-01 -5.570524e-01 -1.854272e+00 -1.290727e+00 -2.325925e+00 -1.669500e+00 -6.750593e-01 -2.132423e+00 6.367409e+01 2.577286e-02 9.471894e-02 1.245554e-01 1.588007e-01 1.586006e-01 1.384452e-01 1.256552e-01 7.127948e-02 4.962666e-02 4.214498e-02 4.477755e-02 1.818047e-02 -3.830063e-01 -9.544834e-03 -2.483872e-02 -4.636011e-02 -6.893064e-02 -8.638535e-02 -8.330658e-02 -6.004510e-02 -3.628215e-02 -3.115139e-02 -3.289994e-02 -3.302425e-02 -1.806545e-02 1.522218e-02
<VARIANCE> 39
 1.200355e+01 9.654906e+00 9.012841e+00 9.878128e+00 1.011302e+01 1.088637e+01 1.374558e+01 1.670687e+01 1.810909e+01 1.602847e+01 1.458838e+01 1.306163e+01 5.591286e+01 1.695543e-01 2.712722e-01 4.181943e-01 6.263938e-01 8.174849e-01 9.718155e-01 1.128899e+00 1.224416e+00 1.306747e+00 1.289242e+00 1.249468e+00 1.150620e+00 1.766623e-01 2.441057e-02 4.784854e-02 7.912316e-02 1.185382e-01 1.548862e-01 1.877966e-01 2.227701e-01 2.463193e-01 2.642198e-01 2.599392e-01 2.499376e-01 2.321693e-01 1.287208e-02
<GCONST> 7.308737e+01
<MIXTURE> 3 1.454469e-01
<MEAN> 39
 -5.197392e+00 1.290218e+00 -2.255957e+00 -3.374469e+00 3.153876e-01 -5.570526e-01 -1.854268e+00 -1.290721e+00 -2.325917e+00 -1.669492e+00 -6.750538e-01 -2.132419e+00 6.367412e+01 2.577306e-02 9.471902e-02 1.245554e-01 1.588007e-01 1.586010e-01 1.384455e-01 1.256557e-01 7.128031e-02 4.962761e-02 4.214564e-02 4.477788e-02 1.818033e-02 -3.830060e-01 -9.544811e-03 -2.483854e-02 -4.635991e-02 -6.893042e-02 -8.638532e-02 -8.330686e-02 -6.004566e-02 -3.628281e-02 -3.115219e-02 -3.290055e-02 -3.302488e-02 -1.806578e-02 1.522214e-02
<VARIANCE> 39
 1.200353e+01 9.654901e+00 9.012829e+00 9.878118e+00 1.011302e+01 1.088636e+01 1.374556e+01 1.670687e+01 1.810906e+01 1.602846e+01 1.458835e+01 1.306160e+01 5.591287e+01 1.695545e-01 2.712719e-01 4.181952e-01 6.263934e-01 8.174863e-01 9.718161e-01 1.128899e+00 1.224419e+00 1.306747e+00 1.289240e+00 1.249467e+00 1.150620e+00 1.766626e-01 2.441058e-02 4.784859e-02 7.912323e-02 1.185385e-01 1.548861e-01 1.877967e-01 2.227703e-01 2.463190e-01 2.642199e-01 2.599393e-01 2.499374e-01 2.321689e-01 1.287210e-02
<GCONST> 7.308737e+01
<MIXTURE> 4 1.532167e-01
<MEAN> 39
 -4.991026e+00 -1.051665e+00 -5.201905e+00 -6.958362e+00 -3.474589e+00 -3.934074e+00 -4.315667e+00 -2.667583e+00 -3.270779e+00 -2.669748e+00 -1.933676e+00 -2.707826e+00 7.175729e+01 5.256170e-02 1.363081e-02 2.348673e-02 4.438728e-02 2.090690e-02 -4.882494e-03 -1.278654e-02 -4.279023e-02 -1.805536e-02 -1.664880e-02 3.128568e-03 1.288406e-02 -1.276673e-01 -8.678909e-03 2.074849e-02 4.869810e-02 7.918204e-02 1.085538e-01 1.163262e-01 1.026668e-01 7.696018e-02 6.115826e-02 5.792249e-02 4.811651e-02 2.179051e-02 -3.199188e-02
<VARIANCE> 39
 5.145106e+00 7.962098e+00 8.079020e+00 1.071753e+01 1.026996e+01 1.008008e+01 1.312158e+01 1.526203e+01 1.611668e+01 1.423177e+01 1.377063e+01 1.210809e+01 3.604621e+01 1.624426e-01 2.734877e-01 4.414446e-01 6.491540e-01 8.168479e-01 9.542090e-01 1.112631e+00 1.208202e+00 1.256949e+00 1.242244e+00 1.205695e+00 1.112184e+00 2.882456e-01 2.821346e-02 5.141287e-02 8.541712e-02 1.264799e-01 1.572701e-01 1.848034e-01 2.203377e-01 2.397410e-01 2.516159e-01 2.503912e-01 2.441985e-01 2.266212e-01 2.436293e-02
<GCONST> 7.218880e+01
<MIXTURE> 5 1.454496e-01
<MEAN> 39
 -5.197379e+00 1.290217e+00 -2.255962e+00 -3.374480e+00 3.153780e-01 -5.570654e-01 -1.854274e+00 -1.290716e+00 -2.325906e+00 -1.669478e+00 -6.750399e-01 -2.132409e+00 6.367413e+01 2.577335e-02 9.471960e-02 1.245559e-01 1.588017e-01 1.586019e-01 1.384464e-01 1.256564e-01 7.128046e-02 4.962690e-02 4.214526e-02 4.477794e-02 1.818030e-02 -3.830072e-01 -9.545252e-03 -2.483846e-02 -4.635921e-02 -6.892935e-02 -8.638396e-02 -8.330520e-02 -6.004466e-02 -3.628306e-02 -3.115356e-02 -3.290226e-02 -3.302634e-02 -1.806673e-02 1.522196e-02
<VARIANCE> 39
 1.200349e+01 9.654915e+00 9.012774e+00 9.878089e+00 1.011298e+01 1.088632e+01 1.374551e+01 1.670679e+01 1.810897e+01 1.602838e+01 1.458825e+01 1.306149e+01 5.591292e+01 1.695538e-01 2.712715e-01 4.181935e-01 6.263910e-01 8.174816e-01 9.718117e-01 1.128899e+00 1.224412e+00 1.306742e+00 1.289237e+00 1.249462e+00 1.150617e+00 1.766621e-01 2.441037e-02 4.784830e-02 7.912287e-02 1.185376e-01 1.548856e-01 1.877954e-01 2.227691e-01 2.463185e-01 2.642188e-01 2.599373e-01 2.499359e-01 2.321675e-01 1.287194e-02
<GCONST> 7.308720e+01
<MIXTURE> 6 1.532174e-01
<MEAN> 39
 -4.991049e+00 -1.051716e+00 -5.201954e+00 -6.958429e+00 -3.474644e+00 -3.934111e+00 -4.315682e+00 -2.667568e+00 -3.270754e+00 -2.669720e+00 -1.933659e+00 -2.707812e+00 7.175738e+01 5.256085e-02 1.363031e-02 2.348983e-02 4.439076e-02 2.091306e-02 -4.875011e-03 -1.277926e-02 -4.278189e-02 -1.804674e-02 -1.664240e-02 3.132901e-03 1.288626e-02 -1.276636e-01 -8.677255e-03 2.075126e-02 4.870171e-02 7.918719e-02 1.085585e-01 1.163297e-01 1.026686e-01 7.695980e-02 6.115621e-02 5.791966e-02 4.811442e-02 2.178895e-02 -3.199341e-02
<VARIANCE> 39
 5.145135e+00 7.962152e+00 8.079097e+00 1.071767e+01 1.027006e+01 1.008019e+01 1.312179e+01 1.526219e+01 1.611678e+01 1.423188e+01 1.377073e+01 1.210818e+01 3.604615e+01 1.624440e-01 2.734902e-01 4.414497e-01 6.491621e-01 8.168561e-01 9.542165e-01 1.112639e+00 1.208216e+00 1.256962e+00 1.242255e+00 1.205702e+00 1.112188e+00 2.882473e-01 2.821405e-02 5.141360e-02 8.541849e-02 1.264813e-01 1.572714e-01 1.848056e-01 2.203404e-01 2.397439e-01 2.516187e-01 2.503937e-01 2.442006e-01 2.266231e-01 2.436375e-02
<GCONST> 7.218922e+01
<MIXTURE> 7 1.532174e-01
<MEAN> 39
 -4.991049e+00 -1.051716e+00 -5.201954e+00 -6.958429e+00 -3.474644e+00 -3.934111e+00 -4.315682e+00 -2.667568e+00 -3.270754e+00 -2.669720e+00 -1.933659e+00 -2.707812e+00 7.175738e+01 5.256085e-02 1.363031e-02 2.348983e-02 4.439076e-02 2.091306e-02 -4.875011e-03 -1.277926e-02 -4.278189e-02 -1.804674e-02 -1.664240e-02 3.132901e-03 1.288626e-02 -1.276636e-01 -8.677255e-03 2.075126e-02 4.870171e-02 7.918719e-02 1.085585e-01 1.163297e-01 1.026686e-01 7.695980e-02 6.115621e-02 5.791966e-02 4.811442e-02 2.178895e-02 -3.199341e-02
<VARIANCE> 39
 5.145135e+00 7.962152e+00 8.079097e+00 1.071767e+01 1.027006e+01 1.008019e+01 1.312179e+01 1.526219e+01 1.611678e+01 1.423188e+01 1.377073e+01 1.210818e+01 3.604615e+01 1.624440e-01 2.734902e-01 4.414497e-01 6.491621e-01 8.168561e-01 9.542165e-01 1.112639e+00 1.208216e+00 1.256962e+00 1.242255e+00 1.205702e+00 1.112188e+00 2.882473e-01 2.821405e-02 5.141360e-02 8.541849e-02 1.264813e-01 1.572714e-01 1.848056e-01 2.203404e-01 2.397439e-01 2.516187e-01 2.503937e-01 2.442006e-01 2.266231e-01 2.436375e-02
<GCONST> 7.218922e+01
<MIXTURE> 8 4.232319e-02
<MEAN> 39
 -6.349095e+00 -3.498507e-01 -4.093113e+00 -5.292742e+00 -1.227776e+00 -1.395750e+00 -1.605095e+00 -2.084148e-01 -1.263310e+00 -6.788027e-01 -5.979837e-01 -2.326005e+00 6.880142e+01 5.422153e-03 -2.941861e-01 -3.995089e-01 -7.022445e-01 -8.512850e-01 -9.157442e-01 -7.814726e-01 -6.814042e-01 -5.500375e-01 -4.257786e-01 -3.454587e-01 -1.256084e-01 3.924962e-01 4.500987e-02 9.031971e-03 1.790251e-02 -2.907227e-02 -6.314624e-02 -8.065832e-02 -1.384805e-01 -1.377448e-01 -1.088520e-01 -1.021419e-01 -4.385032e-02 1.004701e-02 -8.131145e-05
<VARIANCE> 39
 1.035403e+01 9.108197e+00 1.064555e+01 1.421809e+01 1.271948e+01 1.301792e+01 1.473354e+01 1.701740e+01 1.764155e+01 1.651731e+01 1.547147e+01 1.344918e+01 5.714235e+01 4.677649e-01 4.611285e-01 7.035406e-01 9.281603e-01 1.037309e+00 1.071593e+00 1.305379e+00 1.433381e+00 1.509543e+00 1.474581e+00 1.357336e+00 1.294905e+00 6.528809e-01 6.166959e-02 8.437451e-02 1.282055e-01 1.951718e-01 2.215786e-01 2.412723e-01 2.653758e-01 2.897308e-01 3.016204e-01 2.970154e-01 2.834176e-01 2.531702e-01 1.116298e-01
<GCONST> 8.496509e+01
<TRANSP> 5
 0.000000e+00 1.000000e+00 0.000000e+00 0.000000e+00 0.000000e+00
 0.000000e+00 9.681591e-01 3.184091e-02 0.000000e+00 0.000000e+00
 0.000000e+00 0.000000e+00 9.635800e-01 3.642003e-02 0.000000e+00
 0.000000e+00 0.000000e+00 0.000000e+00 9.835358e-01 1.646418e-02
 0.000000e+00 0.000000e+00 0.000000e+00 0.000000e+00 0.000000e+00
<ENDHMM>
~h "co"
<BEGINHMM>
<NUMSTATES> 5
<STATE> 2
<NUMMIXES> 8
<MIXTURE> 1 1.268700e-01
<MEAN> 39
 -9.530519e+00 -2.379122e+00 1.758857e+00 -3.937413e+00 -8.507523e+00 -7.284650e+00 -3.839971e+00 -5.264952e+00 -2.164465e+00 -4.927691e+00 -1.901620e+00 -6.602112e+00 6.876163e+01 -5.196899e-01 -2.865327e-01 2.372514e-01 7.782005e-02 1.254378e+00 5.396135e-02 1.150989e+00 2.903455e-01 -1.006553e-01 6.603360e-01 5.203977e-01 7.096241e-01 5.433541e-01 2.441613e-01 -2.471862e-01 -3.962104e-01 1.077903e-01 -2.041434e-01 1.808033e-01 -3.697897e-01 6.516603e-02 -2.709326e-02 1.456575e-01 -2.540457e-02 -1.453872e-01 -4.341829e-01
<VARIANCE> 39
 1.138958e+01 1.240065e+01 1.457953e+01 1.312347e+01 4.564685e+01 5.298027e+01 3.527232e+01 8.043832e+01 3.422734e+01 2.556076e+01 2.291156e+01 2.444719e+01 1.645615e+02 3.996386e-01 3.917302e-01 1.040333e+00 9.260519e-01 2.078333e+00 1.718452e+00 1.990316e+00 1.648534e+00 2.310158e+00 1.999006e+00 1.523762e+00 1.628068e+00 4.800335e-01 6.050281e-02 8.142266e-02 1.663723e-01 2.433850e-01 2.596051e-01 3.600540e-01 4.064918e-01 3.983991e-01 3.781025e-01 4.266503e-01 3.070326e-01 2.792540e-01 1.705376e-01
<GCONST> 9.934279e+01
<MIXTURE> 2 1.594366e-01
<MEAN> 39
 -1.036906e+01 -7.122667e+00 1.781702e-01 -5.495263e+00 -1.159841e+01 -7.245857e+00 -3.154769e+00 -8.590542e-01 -5.018486e+00 -6.462258e+00 -4.812335e+00 -6.620436e+00 7.223388e+01 -8.816246e-01 5.251464e-01 2.756941e-01 -9.700686e-02 5.753562e-01 -5.220498e-02 3.934669e-01 -6.121122e-01 -6.841040e-01 -4.034320e-01 3.423362e-01 1.232112e-01 1.733960e+00 1.553819e-01 -1.801579e-01 -2.049468e-01 2.251596e-01 2.275346e-01 1.517174e-01 9.598244e-02 1.340677e-01 3.568790e-01 3.275406e-01 2.134085e-01 1.161202e-01 -6.206838e-01
<VARIANCE> 39
 1.624300e+01 1.629788e+01 2.869223e+01 3.040671e+01 3.761256e+01 4.074440e+01 6.011203e+01 6.415812e+01 3.879324e+01 3.149809e+01 3.237050e+01 2.948447e+01 3.758898e+01 6.688445e-01 1.623198e+00 1.612120e+00 1.924894e+00 1.827239e+00 2.262719e+00 2.810468e+00 2.349287e+00 2.539296e+00 2.563063e+00 2.004041e+00 1.936918e+00 1.461369e+00 1.394221e-01 2.235719e-01 2.683289e-01 3.016397e-01 3.364608e-01 4.229962e-01 4.159793e-01 4.077933e-01 4.002859e-01 3.807727e-01 3.841709e-01 3.370484e-01 2.092658e-01
<GCONST> 1.101500e+02
<MIXTURE> 3 1.594390e-01
<MEAN> 39
 -1.036908e+01 -7.122675e+00 1.781773e-01 -5.495216e+00 -1.159836e+01 -7.245825e+00 -3.154778e+00 -8.590516e-01 -5.018442e+00 -6.462249e+00 -4.812322e+00 -6.620420e+00 7.223384e+01 -8.816194e-01 5.251366e-01 2.756911e-01 -9.700455e-02 5.753526e-01 -5.220402e-02 3.934692e-01 -6.121153e-01 -6.840994e-01 -4.034291e-01 3.423368e-01 1.232113e-01 1.733951e+00 1.553844e-01 -1.801561e-01 -2.049469e-01 2.251541e-01 2.275295e-01 1.517113e-01 9.598008e-02 1.340660e-01 3.568761e-01 3.275389e-01 2.134047e-01 1.161181e-01 -6.206799e-01
<VARIANCE> 39
 1.624328e+01 1.629794e+01 2.869213e+01 3.040673e+01 3.761279e+01 4.074466e+01 6.011251e+01 6.415826e+01 3.879354e+01 3.149823e+01 3.237074e+01 2.948449e+01 3.758932e+01 6.688504e-01 1.623185e+00 1.612113e+00 1.924886e+00 1.827236e+00 2.262722e+00 2.810461e+00 2.349290e+00 2.539293e+00 2.563058e+00 2.004045e+00 1.936917e+00 1.461370e+00 1.394259e-01 2.235715e-01 2.683271e-01 3.016382e-01 3.364601e-01 4.229977e-01 4.159785e-01 4.077937e-01 4.002866e-01 3.807731e-01 3.841712e-01 3.370478e-01 2.092659e-01
<GCONST> 1.101501e+02
<MIXTURE> 4 1.037884e-01
<MEAN> 39
 -6.423248e+00 -5.948124e+00 -2.229307e+00 -2.564080e+00 -7.616073e+00 -2.111481e+00 -3.176478e+00 1.273579e+00 2.403193e+00 -2.571094e-01 -6.849343e-01 -5.146661e+00 5.640836e+01 -3.190471e-01 -6.300707e-01 4.069281e-01 -5.738707e-01 -1.439721e+00 -1.576229e+00 -8.436077e-01 -7.217202e-01 -7.979177e-01 -1.054859e+00 -8.031651e-01 -4.955001e-01 2.983808e+00 -1.621638e-01 1.245008e-01 1.228141e-01 -4.739592e-02 1.069086e-01 -2.282700e-03 1.657740e-01 -5.000989e-02 -2.886909e-01 -1.541493e-01 -3.450283e-02 4.796122e-02 3.304541e-01
<VARIANCE> 39
 2.194667e+01 3.634853e+01 2.449490e+01 3.011559e+01 1.023203e+02 5.485529e+01 1.003291e+02 6.298644e+01 4.313030e+01 3.675336e+01 3.134198e+01 3.802148e+01 1.002098e+02 1.841148e+00 3.201544e+00 2.641349e+00 2.984701e+00 4.799908e+00 3.894782e+00 4.433283e+00 4.100345e+00 4.250038e+00 3.129791e+00 2.453866e+00 2.172051e+00 3.174979e+00 1.626546e-01 2.998670e-01 2.208158e-01 2.970331e-01 7.469636e-01 6.381994e-01 8.171403e-01 4.820120e-01 4.207734e-01 3.943002e-01 3.957196e-01 4.365290e-01 5.931230e-01
<GCONST> 1.249972e+02
<MIXTURE> 5 1.594349e-01
<MEAN> 39
 -1.036900e+01 -7.122641e+00 1.781458e-01 -5.495263e+00 -1.159845e+01 -7.245878e+00 -3.154789e+00 -8.590040e-01 -5.018510e+00 -6.462308e+00 -4.812380e+00 -6.620461e+00 7.223391e+01 -8.816216e-01 5.251554e-01 2.756913e-01 -9.700336e-02 5.753649e-01 -5.220455e-02 3.934649e-01 -6.121048e-01 -6.841009e-01 -4.034288e-01 3.423357e-01 1.232052e-01 1.733954e+00 1.553754e-01 -1.801638e-01 -2.049423e-01 2.251600e-01 2.275352e-01 1.517187e-01 9.598308e-02 1.340620e-01 3.568777e-01 3.275412e-01 2.134105e-01 1.161218e-01 -6.206791e-01
<VARIANCE> 39
 1.624240e+01 1.629782e+01 2.869224e+01 3.040676e+01 3.761200e+01 4.074430e+01 6.011198e+01 6.415794e+01 3.879322e+01 3.149790e+01 3.237038e+01 2.948429e+01 3.758911e+01 6.688245e-01 1.623191e+00 1.612112e+00 1.924888e+00 1.827228e+00 2.262713e+00 2.810469e+00 2.349269e+00 2.539288e+00 2.563059e+00 2.004036e+00 1.936918e+00 1.461346e+00 1.394110e-01 2.235707e-01 2.683271e-01 3.016382e-01 3.364553e-01 4.229871e-01 4.159777e-01 4.077855e-01 4.002829e-01 3.807693e-01 3.841660e-01 3.370459e-01 2.092630e-01
<GCONST> 1.101496e+02
<MIXTURE> 6 1.037813e-01
<MEAN> 39
 -6.423226e+00 -5.948589e+00 -2.229590e+00 -2.564002e+00 -7.617505e+00 -2.112136e+00 -3.177706e+00 1.272795e+00 2.403144e+00 -2.575630e-01 -6.851020e-01 -5.147277e+00 5.640989e+01 -3.190911e-01 -6.298953e-01 4.069962e-01 -5.739919e-01 -1.439538e+00 -1.576257e+00 -8.435499e-01 -7.218028e-01 -7.979900e-01 -1.054991e+00 -8.031920e-01 -4.955063e-01 2.983917e+00 -1.621898e-01 1.245568e-01 1.228333e-01 -4.737817e-02 1.070291e-01 -2.216406e-03 1.658889e-01 -4.995054e-02 -2.886775e-01 -1.541157e-01 -3.445721e-02 4.802502e-02 3.303392e-01
<VARIANCE> 39
 2.194608e+01 3.634846e+01 2.449639e+01 3.011767e+01 1.023278e+02 5.485921e+01 1.003411e+02 6.299434e+01 4.313435e+01 3.675711e+01 3.134414e+01 3.802607e+01 1.002134e+02 1.841103e+00 3.201725e+00 2.641490e+00 2.984752e+00 4.799950e+00 3.894684e+00 4.433268e+00 4.100332e+00 4.250173e+00 3.129749e+00 2.453831e+00 2.172010e+00 3.174839e+00 1.626545e-01 2.998680e-01 2.208261e-01 2.970446e-01 7.469788e-01 6.382023e-01 8.171980e-01 4.820274e-01 4.207835e-01 3.943195e-01 3.957273e-01 4.365579e-01 5.931448e-01
<GCONST> 1.249986e+02
<MIXTURE> 7 1.037865e-01
<MEAN> 39
 -6.423087e+00 -5.948231e+00 -2.229394e+00 -2.564060e+00 -7.616432e+00 -2.111575e+00 -3.176739e+00 1.273458e+00 2.403114e+00 -2.572818e-01 -6.850430e-01 -5.146842e+00 5.640864e+01 -3.190658e-01 -6.300179e-01 4.069534e-01 -5.739013e-01 -1.439660e+00 -1.576226e+00 -8.436056e-01 -7.217556e-01 -7.979559e-01 -1.054896e+00 -8.031713e-01 -4.955105e-01 2.983846e+00 -1.621802e-01 1.245169e-01 1.228227e-01 -4.738808e-02 1.069463e-01 -2.265408e-03 1.658037e-01 -4.999858e-02 -2.886845e-01 -1.541384e-01 -3.448892e-02 4.797911e-02 3.304254e-01
<VARIANCE> 39
 2.194460e+01 3.634876e+01 2.449508e+01 3.011598e+01 1.023215e+02 5.485582e+01 1.003318e+02 6.298791e+01 4.313056e+01 3.675425e+01 3.134262e+01 3.802227e+01 1.002104e+02 1.841015e+00 3.201658e+00 2.641363e+00 2.984715e+00 4.799867e+00 3.894701e+00 4.433290e+00 4.100291e+00 4.250059e+00 3.129764e+00 2.453851e+00 2.172035e+00 3.174913e+00 1.626398e-01 2.998684e-01 2.208143e-01 2.970338e-01 7.469572e-01 6.381857e-01 8.171499e-01 4.820068e-01 4.207652e-01 3.943008e-01 3.957202e-01 4.365325e-01 5.931261e-01
<GCONST> 1.249970e+02
<MIXTURE> 8 8.345827e-02
<MEAN> 39
 -5.866392e+00 -1.297021e+01 -3.678885e+00 -1.228927e+00 -1.508830e+01 -5.446054e+00 -3.376474e+00 2.617924e+00 -2.887886e-01 -1.093025e+00 -2.974629e+00 -6.664617e+00 6.233678e+01 -5.861624e-01 -1.228880e+00 -5.418564e-02 -1.449435e+00 -3.327691e+00 -2.082230e+00 -2.038150e+00 -1.866478e+00 -1.720895e+00 -1.491142e+00 -1.284138e+00 -1.738135e+00 5.984766e+00 -2.490606e-01 1.229353e+00 3.299415e-01 -3.585485e-01 1.096720e+00 2.908497e-01 4.477462e-01 -7.403946e-02 -2.558922e-01 -2.317624e-01 1.892567e-01 1.713300e-01 -1.816887e-01
<VARIANCE> 39
 1.316249e+01 5.735798e+01 3.301050e+01 4.787761e+01 4.240447e+01 6.070279e+01 1.078706e+02 6.871201e+01 5.971503e+01 5.848797e+01 4.370474e+01 3.169295e+01 3.952696e+01 8.790872e-01 4.571146e+00 2.091572e+00 4.104745e+00 4.364336e+00 3.305179e+00 4.883077e+00 4.368029e+00 3.891744e+00 3.082405e+00 2.912971e+00 2.569093e+00 9.978504e-01 2.059153e-01 6.792122e-01 5.739101e-01 7.262207e-01 6.341604e-01 8.586371e-01 1.286854e+00 8.611594e-01 1.083164e+00 8.997014e-01 6.646759e-01 5.778376e-01 4.662782e-01
<GCONST> 1.301744e+02
<STATE> 3
<NUMMIXES> 8
<MIXTURE> 1 5.877360e-02
<MEAN> 39
 -2.347456e+00 -3.505048e+00 -3.076332e-02 -2.003251e+00 -2.904189e+00 -8.143777e+00 -7.226070e+00 -8.354711e+00 -7.604630e+00 -3.887458e+00 -2.174278e+00 -5.701355e+00 5.779755e+01 1.140199e-01 2.509999e-01 2.876655e-01 3.419262e-01 6.044540e-01 7.894260e-01 7.313140e-01 6.206108e-01 4.065441e-01 2.237843e-01 3.796644e-02 4.699454e-02 -7.177060e-01 -9.454939e-02 -1.477344e-01 -1.158455e-01 -7.000956e-02 -1.784776e-01 4.717275e-03 1.177302e-01 2.457672e-01 2.862279e-01 1.486402e-01 8.245014e-03 -4.216248e-02 8.025780e-02
<VARIANCE> 39
 7.915175e+00 8.040639e+00 1.262368e+01 1.008959e+01 1.392063e+01 2.188017e+01 2.362093e+01 5.142681e+01 2.838625e+01 3.011119e+01 2.067169e+01 2.850004e+01 3.221270e+01 1.484647e-01 2.618273e-01 4.443567e-01 6.504136e-01 9.106540e-01 9.878806e-01 1.249042e+00 1.363265e+00 1.472119e+00 1.416296e+00 1.296776e+00 1.256141e+00 6.854359e-02 3.229709e-02 7.716472e-02 8.975898e-02 1.488478e-01 2.409239e-01 2.614539e-01 3.186509e-01 3.284864e-01 3.358036e-01 3.109887e-01 2.823386e-01 2.631169e-01 4.326958e-02
<GCONST> 8.124967e+01
<MIXTURE> 2 1.881669e-01
<MEAN> 39
 -7.218349e+00 -7.673890e+00 -2.198218e+00 -3.954740e+00 -6.391316e+00 -8.772135e+00 -6.249897e+00 -6.915685e+00 -3.768125e+00 -2.722131e+00 -2.679603e+00 -7.611868e+00 6.789375e+01 2.026864e-01 5.329111e-02 4.236906e-02 1.938889e-01 3.936276e-01 1.040921e-01 9.179888e-02 -8.059428e-02 5.272699e-02 1.706746e-01 1.161575e-01 9.244196e-02 -6.776434e-01 2.538798e-02 3.641400e-02 2.808464e-02 1.511685e-02 -2.698452e-02 -2.825505e-03 -4.081300e-02 -3.857316e-02 -8.900145e-02 -1.010579e-01 -6.357089e-02 -1.343421e-02 -1.247202e-02
<VARIANCE> 39
 2.210730e+01 1.192724e+01 2.237985e+01 2.247696e+01 2.145583e+01 2.622946e+01 5.122934e+01 5.377435e+01 3.544233e+01 3.545059e+01 3.482488e+01 3.482539e+01 3.678550e+01 1.561767e-01 3.017752e-01 5.377136e-01 6.955372e-01 9.800254e-01 1.066396e+00 1.288387e+00 1.494321e+00 1.620548e+00 1.585623e+00 1.411645e+00 1.315351e+00 1.004069e-01 3.432203e-02 6.305506e-02 1.040028e-01 1.490301e-01 2.055398e-01 2.325882e-01 2.850284e-01 3.134693e-01 3.411387e-01 3.318614e-01 3.015982e-01 2.824258e-01 1.904663e-02
<GCONST> 8.713245e+01
<MIXTURE> 3 1.881669e-01
<MEAN> 39
 -7.218296e+00 -7.673887e+00 -2.198248e+00 -3.954767e+00 -6.391331e+00 -8.772164e+00 -6.249968e+00 -6.915664e+00 -3.768130e+00 -2.722173e+00 -2.679654e+00 -7.611905e+00 6.789373e+01 2.026886e-01 5.329300e-02 4.237241e-02 1.938895e-01 3.936266e-01 1.040915e-01 9.179625e-02 -8.059387e-02 5.272723e-02 1.706732e-01 1.161555e-01 9.243982e-02 -6.776464e-01 2.538655e-02 3.641346e-02 2.808483e-02 1.511737e-02 -2.698304e-02 -2.823949e-03 -4.081067e-02 -3.857175e-02 -8.899914e-02 -1.010542e-01 -6.356665e-02 -1.343138e-02 -1.247222e-02
<VARIANCE> 39
 2.210708e+01 1.192720e+01 2.237982e+01 2.247684e+01 2.145566e+01 2.622929e+01 5.122882e+01 5.377414e+01 3.544231e+01 3.545060e+01 3.482488e+01 3.482526e+01 3.678545e+01 1.561757e-01 3.017736e-01 5.377107e-01 6.955352e-01 9.800206e-01 1.066393e+00 1.288383e+00 1.494319e+00 1.620541e+00 1.585618e+00 1.411640e+00 1.315350e+00 1.004060e-01 3.432154e-02 6.305443e-02 1.040020e-01 1.490289e-01 2.055384e-01 2.325860e-01 2.850263e-01 3.134666e-01 3.411359e-01 3.318594e-01 3.015967e-01 2.824246e-01 1.904616e-02
<GCONST> 8.713225e+01
<MIXTURE> 4 9.228830e-02
<MEAN> 39
 -7.894461e+00 -8.176470e+00 -3.271662e+00 -4.088820e+00 -8.614399e+00 -8.952598e+00 -7.591945e+00 -7.615348e+00 -4.525300e+00 -4.798817e+00 -4.126713e+00 -9.167150e+00 7.118824e+01 3.388034e-01 -2.745370e-02 -1.611333e-01 -1.763051e-01 -2.089728e-01 -3.276368e-01 -7.059742e-01 -4.630345e-01 6.814608e-03 4.787432e-02 -7.595021e-02 -3.359703e-01 -7.498750e-03 2.808819e-02 -4.375023e-02 6.678983e-03 2.971880e-02 2.426847e-02 2.858566e-02 2.751802e-02 7.727239e-02 1.289646e-01 1.274213e-01 4.457501e-02 1.841797e-02 -8.515491e-02
<VARIANCE> 39
 1.344590e+01 1.397050e+01 3.081615e+01 2.314264e+01 2.587024e+01 2.797136e+01 4.708017e+01 7.214008e+01 4.947700e+01 4.021816e+01 3.925203e+01 3.817604e+01 2.159241e+01 5.322269e-01 8.253478e-01 1.125288e+00 1.176134e+00 1.638437e+00 1.753823e+00 2.702344e+00 2.937253e+00 3.377943e+00 2.926468e+00 2.257510e+00 2.075925e+00 3.257464e-01 8.470368e-02 1.468735e-01 1.915717e-01 2.260217e-01 3.161802e-01 3.269680e-01 4.734376e-01 5.302560e-01 6.455934e-01 5.454935e-01 4.153420e-01 3.659122e-01 1.020334e-01
<GCONST> 1.050886e+02
<MIXTURE> 5 1.881721e-01
<MEAN> 39
 -7.218288e+00 -7.673880e+00 -2.198270e+00 -3.954787e+00 -6.391330e+00 -8.772182e+00 -6.249966e+00 -6.915640e+00 -3.768143e+00 -2.722188e+00 -2.679648e+00 -7.611890e+00 6.789373e+01 2.026903e-01 5.329466e-02 4.237376e-02 1.938900e-01 3.936264e-01 1.040904e-01 9.179288e-02 -8.059686e-02 5.272380e-02 1.706709e-01 1.161520e-01 9.243738e-02 -6.776485e-01 2.538618e-02 3.641392e-02 2.808601e-02 1.511801e-02 -2.698154e-02 -2.822943e-03 -4.081047e-02 -3.857228e-02 -8.899949e-02 -1.010539e-01 -6.356697e-02 -1.343229e-02 -1.247235e-02
<VARIANCE> 39
 2.210693e+01 1.192700e+01 2.237974e+01 2.247653e+01 2.145544e+01 2.622910e+01 5.122810e+01 5.377375e+01 3.544208e+01 3.545037e+01 3.482458e+01 3.482502e+01 3.678514e+01 1.561739e-01 3.017711e-01 5.377057e-01 6.955277e-01 9.800135e-01 1.066384e+00 1.288370e+00 1.494306e+00 1.620528e+00 1.585605e+00 1.411627e+00 1.315337e+00 1.004044e-01 3.432088e-02 6.305330e-02 1.040006e-01 1.490269e-01 2.055358e-01 2.325835e-01 2.850227e-01 3.134630e-01 3.411331e-01 3.318555e-01 3.015930e-01 2.824218e-01 1.904535e-02
<GCONST> 8.713182e+01
<MIXTURE> 6 9.229188e-02
<MEAN> 39
 -7.894474e+00 -8.176370e+00 -3.271498e+00 -4.088736e+00 -8.614363e+00 -8.952615e+00 -7.591947e+00 -7.615617e+00 -4.525473e+00 -4.798861e+00 -4.126750e+00 -9.167145e+00 7.118819e+01 3.388071e-01 -2.744979e-02 -1.611451e-01 -1.763326e-01 -2.089922e-01 -3.276373e-01 -7.059794e-01 -4.630275e-01 6.825508e-03 4.788928e-02 -7.593589e-02 -3.359682e-01 -7.472830e-03 2.808562e-02 -4.376419e-02 6.666776e-03 2.971295e-02 2.426839e-02 2.859202e-02 2.752748e-02 7.729580e-02 1.289975e-01 1.274465e-01 4.458838e-02 1.842041e-02 -8.516041e-02
<VARIANCE> 39
 1.344593e+01 1.397059e+01 3.081590e+01 2.314279e+01 2.587041e+01 2.797161e+01 4.708001e+01 7.214068e+01 4.947723e+01 4.021780e+01 3.925187e+01 3.817556e+01 2.159258e+01 5.322618e-01 8.253623e-01 1.125312e+00 1.176164e+00 1.638476e+00 1.753855e+00 2.702442e+00 2.937307e+00 3.378012e+00 2.926504e+00 2.257550e+00 2.075951e+00 3.257542e-01 8.470665e-02 1.468758e-01 1.915747e-01 2.260271e-01 3.161861e-01 3.269719e-01 4.734430e-01 5.302631e-01 6.456029e-01 5.455004e-01 4.153477e-01 3.659131e-01 1.020377e-01
<GCONST> 1.050891e+02
<MIXTURE> 7 9.229375e-02
<MEAN> 39
 -7.894400e+00 -8.176301e+00 -3.271387e+00 -4.088751e+00 -8.614490e+00 -8.952696e+00 -7.592162e+00 -7.615846e+00 -4.525563e+00 -4.798928e+00 -4.126818e+00 -9.167289e+00 7.118821e+01 3.387834e-01 -2.746755e-02 -1.611505e-01 -1.763542e-01 -2.089936e-01 -3.276100e-01 -7.059388e-01 -4.629622e-01 6.886321e-03 4.794258e-02 -7.589197e-02 -3.359503e-01 -7.448825e-03 2.807881e-02 -4.377662e-02 6.662948e-03 2.972042e-02 2.428501e-02 2.860786e-02 2.755091e-02 7.731915e-02 1.290234e-01 1.274652e-01 4.459843e-02 1.842898e-02 -8.517431e-02
<VARIANCE> 39
 1.344566e+01 1.397061e+01 3.081545e+01 2.314276e+01 2.587024e+01 2.797176e+01 4.707947e+01 7.214091e+01 4.947703e+01 4.021717e+01 3.925152e+01 3.817506e+01 2.159261e+01 5.322837e-01 8.253803e-01 1.125346e+00 1.176191e+00 1.638513e+00 1.753877e+00 2.702530e+00 2.937337e+00 3.378035e+00 2.926511e+00 2.257559e+00 2.075984e+00 3.257639e-01 8.470924e-02 1.468778e-01 1.915781e-01 2.260291e-01 3.161885e-01 3.269729e-01 4.734436e-01 5.302647e-01 6.456029e-01 5.454981e-01 4.153447e-01 3.659108e-01 1.020433e-01
<GCONST> 1.050894e+02
<MIXTURE> 8 9.977997e-02
<MEAN> 39
 -5.737424e+00 -8.351735e+00 -1.227077e+00 -2.569940e+00 -9.391527e+00 -8.208225e+00 -6.751135e+00 -5.199938e+00 -2.559529e+00 -3.613524e+00 -5.475569e+00 -7.282909e+00 6.463540e+01 -9.614046e-01 -3.322665e-01 1.823168e-01 -2.862898e-01 -1.101287e+00 7.449958e-02 2.910828e-01 7.965043e-01 -3.001706e-01 -8.263220e-01 -5.205703e-01 7.707195e-02 2.300458e+00 -1.127128e-01 6.676804e-02 1.411647e-02 -9.136897e-02 1.691912e-01 1.716007e-02 9.600725e-02 -4.079339e-02 -1.042921e-02 7.484128e-02 1.378779e-01 2.415982e-02 1.296343e-01
<VARIANCE> 39
 1.397266e+01 3.151990e+01 2.661063e+01 2.669633e+01 4.513678e+01 3.499183e+01 6.015384e+01 6.207359e+01 6.220621e+01 3.868948e+01 4.657302e+01 3.622630e+01 7.204149e+01 9.100274e-01 3.659203e+00 2.411344e+00 3.309878e+00 4.650445e+00 3.352958e+00 4.654608e+00 4.360857e+00 7.142413e+00 3.468043e+00 4.111147e+00 2.806175e+00 3.004624e+00 1.681630e-01 7.319338e-01 3.811766e-01 5.523285e-01 9.964322e-01 5.748914e-01 7.693844e-01 8.238962e-01 1.380429e+00 7.289532e-01 7.760145e-01 4.717259e-01 9.265671e-01
<GCONST> 1.294666e+02
<STATE> 4
<NUMMIXES> 8
<MIXTURE> 1 4.676000e-02
<MEAN> 39
 -3.565601e+00 -1.687048e-01 2.530263e+00 7.575071e-01 1.486755e+00 -1.194733e+00 -1.748232e+00 -8.051088e-01 -2.837224e+00 -3.818681e+00 -4.098462e+00 -6.115088e+00 4.891610e+01 9.688713e-02 4.757072e-01 2.932891e-01 4.158523e-01 7.079570e-01 9.242514e-01 9.470464e-01 8.883806e-01 3.548324e-01 8.050765e-02 -1.351547e-01 -1.843323e-01 -2.825348e-01 4.909787e-02 7.127529e-02 1.263872e-01 1.646735e-01 1.661429e-01 1.609562e-01 1.312405e-01 8.776071e-02 1.127477e-01 1.048813e-01 5.738530e-02 -2.627602e-02 5.685496e-02
<VARIANCE> 39
