~o
<STREAMINFO> 1 39
<VECSIZE> 39<NULLD><MFCC_D_A_0><DIAGC>
~h "ap"
<BEGINHMM>
<NUMSTATES> 5
<STATE> 2
<NUMMIXES> 2
<MIXTURE> 1 7.886456e-01
<MEAN> 39
 -1.303852e+01 -1.001237e+01 -5.827476e+00 -1.576806e+00 1.373399e+00 -4.462225e+00 1.808299e+00 -1.828016e+00 -1.289992e+00 -7.600626e-01 5.952336e-01 -5.410565e-01 6.186872e+01 3.291946e-01 2.244187e-01 2.249474e-01 1.281357e-01 2.250446e-01 2.011685e-01 1.535491e-01 1.324235e-01 2.838395e-02 1.770735e-02 2.709644e-02 -4.663523e-03 -7.953762e-01 -1.335245e-02 1.203891e-02 -3.144613e-03 -9.486211e-03 -1.625402e-02 -3.020924e-03 -1.676521e-02 6.920249e-03 -2.615346e-03 -8.386695e-04 -3.978038e-03 -1.748884e-03 1.820745e-02
<VARIANCE> 39
 2.056174e+01 3.195403e+01 2.977966e+01 2.182166e+01 3.088457e+01 3.279853e+01 2.722446e+01 2.599758e+01 2.165930e+01 1.902329e+01 1.720042e+01 1.536156e+01 8.150159e+01 1.215712e-01 2.564620e-01 4.216661e-01 6.613071e-01 8.896192e-01 1.037331e+00 1.206558e+00 1.315776e+00 1.353300e+00 1.336505e+00 1.275891e+00 1.179312e+00 8.289034e-02 2.219868e-02 4.860522e-02 8.347579e-02 1.309135e-01 1.778261e-01 2.135829e-01 2.477626e-01 2.704743e-01 2.823731e-01 2.787717e-01 2.649543e-01 2.444662e-01 7.852346e-03
<GCONST> 8.082326e+01
<MIXTURE> 2 2.113554e-01
<MEAN> 39
 -1.418660e+01 -7.638774e+00 -5.632249e+00 -2.427667e+00 -1.838205e-01 -4.205824e+00 6.962641e-01 -4.199528e-01 -1.095308e+00 -5.402736e-01 2.198483e-02 -1.044556e+00 6.350011e+01 -1.296155e+00 -1.060458e+00 -9.475278e-01 -4.385495e-01 -8.638227e-01 -9.481406e-01 -6.432236e-01 -5.685704e-01 -1.926331e-01 -1.182101e-01 -1.103557e-01 1.748818e-02 3.304885e+00 4.692525e-02 -9.340703e-02 -2.651384e-02 2.347028e-02 5.152284e-02 -1.509109e-02 4.834004e-02 -2.970494e-02 -7.072244e-03 -1.180076e-02 1.324906e-02 2.604753e-03 1.825046e-02
<VARIANCE> 39
 4.344302e+01 4.151064e+01 3.608821e+01 2.607969e+01 3.947404e+01 4.736672e+01 3.727900e+01 3.223622e+01 2.533919e+01 2.085973e+01 1.868769e+01 1.627983e+01 2.057023e+02 3.432727e+00 3.503181e+00 2.490901e+00 2.177829e+00 2.945473e+00 4.352254e+00 3.570225e+00 3.143655e+00 2.658463e+00 2.221458e+00 1.977357e+00 1.627343e+00 1.655035e+01 7.948186e-01 6.686254e-01 5.191365e-01 4.276645e-01 6.247481e-01 8.684223e-01 7.100320e-01 6.093451e-01 4.997154e-01 4.199980e-01 3.735431e-01 3.119245e-01 4.113960e+00
<GCONST> 1.269762e+02
<STATE> 3
<NUMMIXES> 2
<MIXTURE> 1 7.767164e-01
<MEAN> 39
 -1.081143e+01 -1.772677e+01 -1.149714e+01 6.416865e-01 3.567874e-01 -9.813456e+00 5.004069e-01 -9.703859e-01 -4.275635e+00 -2.798375e+00 9.896408e-01 -5.871331e-01 6.898837e+01 2.949935e-01 1.875756e-01 2.622046e-01 2.479866e-01 2.946418e-01 1.752407e-01 1.307922e-01 4.656873e-02 1.561569e-02 1.378601e-02 4.925998e-02 3.993504e-02 -9.106328e-01 -1.073549e-02 2.135344e-02 5.896886e-03 -6.187012e-03 -8.103968e-03 4.383695e-03 -1.522203e-02 1.064003e-02 7.744312e-03 2.875909e-03 -1.232505e-03 8.861512e-04 1.335268e-02
<VARIANCE> 39
 1.113801e+01 2.041843e+01 1.890543e+01 2.043490e+01 3.118079e+01 2.071549e+01 2.903462e+01 2.207554e+01 2.274253e+01 2.143493e+01 1.647651e+01 1.484451e+01 6.051344e+01 9.691031e-02 2.376064e-01 3.712033e-01 6.035892e-01 8.270686e-01 9.877228e-01 1.132561e+00 1.232210e+00 1.292910e+00 1.297649e+00 1.213741e+00 1.142035e+00 3.830427e-02 2.003081e-02 4.794681e-02 7.613826e-02 1.248848e-01 1.722318e-01 2.039660e-01 2.426582e-01 2.622614e-01 2.734060e-01 2.735038e-01 2.522745e-01 2.393048e-01 6.864642e-03
<GCONST> 7.614312e+01
<MIXTURE> 2 2.232892e-01
<MEAN> 39
 -1.217716e+01 -1.608122e+01 -1.148284e+01 -2.082031e-01 -7.859917e-01 -9.713977e+00 -1.064364e+00 -3.141935e-01 -3.595089e+00 -2.929179e+00 4.443603e-01 -8.484417e-01 7.222072e+01 -6.957672e-01 -7.400257e-01 -7.896957e-01 -6.204148e-01 -7.683801e-01 -5.438238e-01 -2.652470e-01 -1.196948e-01 -5.395819e-02 -7.024709e-02 -7.624931e-02 -7.277504e-02 2.436239e+00 1.168366e-01 1.120553e-01 1.072823e-01 5.797439e-02 1.136282e-01 1.220313e-01 1.155958e-01 1.332828e-02 2.990391e-02 3.630749e-02 1.789092e-02 2.094405e-03 -3.908896e-01
<VARIANCE> 39
 2.431341e+01 3.033345e+01 2.768492e+01 3.247678e+01 3.888300e+01 3.273408e+01 4.067360e+01 2.695051e+01 2.814012e+01 2.395949e+01 1.850788e+01 1.628552e+01 1.595911e+02 1.797791e+00 3.125911e+00 2.121998e+00 2.374508e+00 2.871601e+00 3.233047e+00 3.594956e+00 2.606237e+00 2.574292e+00 2.150707e+00 1.793728e+00 1.559066e+00 1.360220e+01 4.414296e-01 6.171108e-01 4.942729e-01 5.143670e-01 6.279330e-01 7.089803e-01 7.320264e-01 5.206922e-01 5.041508e-01 4.238946e-01 3.513590e-01 3.095635e-01 3.634573e+00
<GCONST> 1.227693e+02
<STATE> 4
<NUMMIXES> 2
<MIXTURE> 1 8.610685e-01
<MEAN> 39
 -8.477730e+00 -1.137178e+01 -4.065338e+00 1.769205e+00 -1.036148e+00 -3.228343e+00 4.334098e+00 -8.824990e-01 -1.682848e+00 7.924299e-01 8.718604e-01 -8.790469e-01 5.698617e+01 2.025944e-01 2.946040e-01 1.591683e-01 8.091277e-02 1.313656e-01 1.912954e-01 7.053958e-02 1.575363e-01 5.693394e-02 3.852372e-02 8.577371e-03 -1.787006e-03 -5.980986e-01 -1.268396e-02 5.347286e-03 -8.603496e-03 -1.007145e-02 -1.243177e-02 -5.781409e-03 -1.269516e-02 -2.099065e-04 -3.737046e-03 -3.171453e-03 -3.244594e-04 -9.540048e-04 1.994464e-02
<VARIANCE> 39
 1.712814e+01 7.598460e+01 1.970605e+01 2.186843e+01 2.929509e+01 3.292384e+01 2.008253e+01 3.476020e+01 2.446919e+01 1.914648e+01 1.615380e+01 1.392951e+01 1.073580e+02 1.311350e-01 2.822672e-01 4.237964e-01 6.629207e-01 8.797042e-01 1.028029e+00 1.171536e+00 1.269701e+00 1.325595e+00 1.308379e+00 1.244801e+00 1.124352e+00 1.541050e-01 2.192812e-02 4.778733e-02 8.205160e-02 1.250815e-01 1.704623e-01 2.070871e-01 2.378606e-01 2.561157e-01 2.722874e-01 2.684957e-01 2.516273e-01 2.292684e-01 7.116688e-03
<GCONST> 8.132747e+01
<MIXTURE> 2 1.389351e-01
<MEAN> 39
 -1.128004e+01 -1.095454e+01 -5.546113e+00 3.686438e-01 -3.580917e+00 -4.021264e+00 2.871554e+00 -1.190904e+00 -2.081709e+00 8.441688e-01 1.850582e-01 -1.500337e+00 6.327322e+01 -1.152965e+00 -1.483238e+00 -7.559272e-01 -4.572226e-01 -8.635145e-01 -9.475334e-01 -3.218613e-01 -8.411361e-01 -2.163143e-01 -1.296674e-01 -8.030197e-02 -8.617619e-03 3.233325e+00 6.222570e-02 -4.572954e-02 2.718398e-02 3.803843e-02 5.286410e-02 8.861667e-03 5.566361e-02 -9.118538e-03 7.294619e-03 -3.842849e-04 -5.872697e-03 3.546235e-03 -9.033030e-02
<VARIANCE> 39
 3.681055e+01 8.787930e+01 2.800690e+01 2.902341e+01 3.890432e+01 4.420241e+01 2.987253e+01 4.317328e+01 3.048940e+01 1.991829e+01 1.850868e+01 1.594505e+01 2.495477e+02 2.938156e+00 6.886285e+00 2.105733e+00 2.269465e+00 3.340523e+00 3.786423e+00 2.926788e+00 4.080525e+00 3.233589e+00 2.051065e+00 1.790910e+00 1.588048e+00 1.919621e+01 6.912515e-01 1.362494e+00 4.485433e-01 4.563296e-01 7.325017e-01 8.251847e-01 5.780950e-01 8.579011e-01 6.336579e-01 4.051494e-01 3.553576e-01 3.063051e-01 4.751821e+00
<GCONST> 1.292987e+02
<TRANSP> 5
 0.000000e+00 1.000000e+00 0.000000e+00 0.000000e+00 0.000000e+00
 0.000000e+00 9.918119e-01 8.188139e-03 0.000000e+00 0.000000e+00
 0.000000e+00 0.000000e+00 9.866167e-01 1.338337e-02 0.000000e+00
 0.000000e+00 0.000000e+00 0.000000e+00 9.887983e-01 1.120177e-02
 0.000000e+00 0.000000e+00 0.000000e+00 0.000000e+00 0.000000e+00
<ENDHMM>
~h "cl"
<BEGINHMM>
<NUMSTATES> 5
<STATE> 2
<NUMMIXES> 2
<MIXTURE> 1 7.292719e-01
<MEAN> 39
 -1.122648e+01 -1.981874e+00 -7.668411e-01 -4.412316e+00 -2.110317e+00 5.111294e+00 3.482611e+00 -3.431275e-02 4.308969e+00 -1.380398e-01 -3.112569e+00 1.289365e+00 5.333140e+01 3.238559e-01 -8.661667e-03 -1.661504e-02 5.284042e-02 1.001867e-01 -1.641067e-02 7.650892e-02 7.115903e-02 -5.175907e-02 3.321236e-02 5.538820e-02 -7.761307e-02 -3.326321e-01 -1.405046e-02 1.017393e-02 -3.919258e-03 2.318179e-03 3.291687e-04 -9.371872e-03 -9.398807e-03 1.494605e-02 -1.366093e-02 5.151965e-03 1.289762e-02 -8.014320e-03 1.356710e-02
<VARIANCE> 39
 3.201253e+01 2.797791e+01 3.588925e+01 1.584206e+01 2.128225e+01 4.427347e+01 2.524523e+01 2.874567e+01 3.892709e+01 2.284822e+01 2.644172e+01 2.435657e+01 4.574939e+01 2.667867e-01 3.491774e-01 5.462977e-01 7.344130e-01 9.708715e-01 1.288555e+00 1.328725e+00 1.483256e+00 1.605468e+00 1.435311e+00 1.362843e+00 1.270651e+00 1.576341e-01 4.191196e-02 6.135448e-02 1.019945e-01 1.417710e-01 1.894615e-01 2.464881e-01 2.600878e-01 2.913955e-01 3.130434e-01 2.880853e-01 2.688050e-01 2.501538e-01 1.615123e-02
<GCONST> 8.741223e+01
<MIXTURE> 2 2.707313e-01
<MEAN> 39
 -1.365148e+01 -9.936733e-02 -2.301275e-01 -4.226829e+00 -2.311911e+00 5.115338e+00 2.223097e+00 4.058175e-01 3.780588e+00 4.623126e-01 -2.642729e+00 1.369519e+00 5.439570e+01 -1.912051e+00 1.511302e-01 2.000787e-01 -2.496233e-01 -5.818455e-01 5.363266e-01 -4.426872e-01 -6.810648e-01 4.389662e-01 -2.277723e-01 -5.702555e-01 5.189014e-01 1.687863e+00 -3.297198e-02 -4.099871e-02 6.112502e-02 -2.907456e-02 -6.692752e-02 1.288298e-01 8.382745e-03 -1.302151e-01 7.983615e-02 -2.546349e-02 -1.356700e-01 9.616291e-02 1.241334e-02
<VARIANCE> 39
 5.569159e+01 2.834652e+01 3.502224e+01 1.900557e+01 2.372738e+01 4.744458e+01 2.980916e+01 3.127999e+01 3.519352e+01 2.552973e+01 2.796184e+01 2.242283e+01 7.302831e+01 5.093031e+00 1.912834e+00 1.611824e+00 1.443969e+00 1.977458e+00 3.995745e+00 2.666741e+00 3.349556e+00 3.217282e+00 2.605250e+00 2.746137e+00 2.276505e+00 4.288460e+00 1.091454e+00 2.777469e-01 2.538148e-01 2.561077e-01 3.580090e-01 5.782328e-01 4.636669e-01 5.472746e-01 5.105166e-01 4.432876e-01 4.447489e-01 3.578049e-01 9.516612e-01
<GCONST> 1.194848e+02
<STATE> 3
<NUMMIXES> 2
<MIXTURE> 1 6.677290e-01
<MEAN> 39
 -1.989332e+01 2.614059e+00 -6.768820e-01 -7.004918e+00 -4.682749e+00 1.284621e+01 7.758002e-01 -2.410900e+00 9.160177e+00 -3.781823e+00 -4.431628e+00 5.675352e+00 5.844088e+01 6.129456e-01 -5.502866e-02 -5.628189e-02 -2.718975e-02 5.016603e-02 -2.033271e-02 5.039671e-02 8.446515e-03 4.112535e-02 7.222320e-02 9.264877e-02 -1.706047e-02 -4.795386e-01 -1.472707e-02 3.866113e-03 -2.995008e-02 2.237844e-02 2.108963e-02 -6.867132e-02 4.866363e-03 3.439872e-02 -5.878214e-02 3.028404e-02 3.874264e-02 -5.492745e-02 1.415674e-02
<VARIANCE> 39
 4.068075e+01 9.716905e+00 1.841366e+01 1.178726e+01 1.518060e+01 3.001538e+01 2.484899e+01 2.041362e+01 2.514051e+01 1.959295e+01 1.852473e+01 1.920623e+01 1.883474e+01 2.435508e-01 3.104026e-01 5.556818e-01 7.395887e-01 9.571509e-01 1.315097e+00 1.392641e+00 1.390664e+00 1.505914e+00 1.462993e+00 1.330712e+00 1.266088e+00 1.181568e-01 8.759549e-02 6.247690e-02 1.214600e-01 1.545550e-01 2.063147e-01 2.866003e-01 3.049109e-01 2.939635e-01 3.204994e-01 3.104293e-01 2.812640e-01 2.725036e-01 4.673076e-02
<GCONST> 8.462971e+01
<MIXTURE> 2 3.323443e-01
<MEAN> 39
 -2.073950e+01 1.906413e+00 -1.003513e+00 -6.520514e+00 -4.376131e+00 1.073489e+01 3.941983e-01 -1.616988e+00 8.002848e+00 -3.698574e+00 -3.537455e+00 4.378827e+00 5.990846e+01 -1.142847e+00 9.505732e-02 8.591683e-02 7.073624e-02 -9.627908e-02 2.698682e-02 -8.590075e-02 -4.934586e-02 -1.107826e-01 -1.425448e-01 -1.955932e-01 3.489154e-02 9.138698e-01 5.886576e-02 -1.275576e-02 5.500892e-02 -4.091163e-02 -3.173799e-02 1.175529e-01 -4.446733e-03 -5.651176e-02 1.027784e-01 -4.904712e-02 -6.578048e-02 9.498072e-02 -4.963093e-02
<VARIANCE> 39
 6.851453e+01 1.292719e+01 2.279480e+01 1.498046e+01 1.832798e+01 3.965537e+01 3.124239e+01 2.376809e+01 3.139937e+01 2.118894e+01 2.020077e+01 2.313922e+01 3.127461e+01 2.893171e+00 8.682139e-01 1.308298e+00 1.293301e+00 1.798383e+00 3.124012e+00 2.801086e+00 2.293704e+00 2.692991e+00 2.041766e+00 1.967184e+00 2.477302e+00 1.525215e+00 8.193707e-01 1.500971e-01 2.079613e-01 2.407543e-01 3.087344e-01 4.867513e-01 4.776524e-01 4.089655e-01 4.774874e-01 3.920414e-01 3.622460e-01 4.081922e-01 4.699939e-01
<GCONST> 1.093690e+02
<STATE> 4
<NUMMIXES> 2
<MIXTURE> 1 6.574743e-01
<MEAN> 39
 -2.144769e+01 4.123103e-01 5.920512e+00 -4.276753e+00 -6.741556e+00 1.093774e+01 1.344133e+00 -6.515728e+00 3.888020e+00 4.471317e+00 -1.191620e+01 5.003251e+00 5.725082e+01 5.525725e-01 6.034191e-02 1.752420e-01 -1.651678e-02 2.251698e-02 5.740179e-02 1.507320e-01 -7.821201e-02 2.760429e-01 3.284210e-02 -4.603691e-02 9.772552e-02 -6.290417e-01 -3.911057e-02 1.776322e-02 -5.681794e-02 1.893388e-02 5.411547e-02 -7.602705e-02 -1.536253e-02 9.395605e-02 -4.431830e-02 -9.063369e-03 8.833110e-02 -7.330686e-02 3.109917e-02
<VARIANCE> 39
 3.939965e+01 9.324763e+00 1.512754e+01 1.542696e+01 3.063624e+01 2.888133e+01 2.764361e+01 4.917089e+01 3.710297e+01 3.181504e+01 3.088913e+01 3.210166e+01 3.432273e+01 2.068879e-01 3.011428e-01 5.974718e-01 6.983592e-01 9.702098e-01 1.232378e+00 1.291967e+00 1.550027e+00 1.614679e+00 1.448867e+00 1.437769e+00 1.260198e+00 1.397544e-01 8.319337e-02 6.531420e-02 1.325031e-01 1.510305e-01 2.163992e-01 2.788615e-01 2.835335e-01 3.508031e-01 3.658102e-01 3.252260e-01 3.085383e-01 2.771540e-01 8.100654e-02
<GCONST> 8.990146e+01
<MIXTURE> 2 3.425856e-01
<MEAN> 39
 -2.408857e+01 7.915227e-01 4.175792e+00 -3.746823e+00 -5.823555e+00 1.000216e+01 1.098522e+00 -4.939404e+00 2.961825e+00 4.206557e+00 -1.069447e+01 3.997973e+00 5.957525e+01 -9.091445e-01 -1.311449e-01 -3.240253e-01 1.188133e-02 -3.103098e-02 -1.535060e-01 -2.910640e-01 1.746447e-01 -5.306068e-01 -7.534892e-02 1.164505e-01 -1.984764e-01 1.087750e+00 7.956787e-02 -3.223067e-02 1.006544e-01 -3.476897e-02 -9.544094e-02 1.370374e-01 3.014136e-02 -1.671909e-01 8.195113e-02 1.339464e-02 -1.563217e-01 1.333676e-01 -6.341340e-02
<VARIANCE> 39
 3.208528e+01 1.194320e+01 1.758545e+01 1.699961e+01 2.701610e+01 3.138425e+01 3.219440e+01 4.682703e+01 4.073712e+01 3.233036e+01 2.973063e+01 3.093940e+01 3.608067e+01 2.050640e+00 7.822220e-01 1.585454e+00 1.367198e+00 2.181583e+00 2.964836e+00 2.454169e+00 4.174061e+00 3.739865e+00 3.062887e+00 2.635890e+00 2.585724e+00 1.730186e+00 5.474408e-01 1.311908e-01 2.881325e-01 2.402014e-01 3.545069e-01 4.682589e-01 4.516273e-01 6.247942e-01 7.020033e-01 5.058339e-01 4.507207e-01 4.455068e-01 5.818803e-01
<GCONST> 1.137782e+02
<TRANSP> 5
 0.000000e+00 1.000000e+00 0.000000e+00 0.000000e+00 0.000000e+00
 0.000000e+00 9.558802e-01 4.411975e-02 0.000000e+00 0.000000e+00
 0.000000e+00 0.000000e+00 9.920692e-01 7.930784e-03 0.000000e+00
 0.000000e+00 0.000000e+00 0.000000e+00 9.934844e-01 6.515590e-03
 0.000000e+00 0.000000e+00 0.000000e+00 0.000000e+00 0.000000e+00
<ENDHMM>
~h "cm"
<BEGINHMM>
<NUMSTATES> 5
<STATE> 2
<NUMMIXES> 2
<MIXTURE> 1 6.248186e-01
<MEAN> 39
 -1.370231e+01 -1.144457e+00 -4.534365e+00 -6.444864e+00 -1.074836e-01 8.688528e-01 -1.169629e+00 1.099831e+00 -1.011835e+00 1.574228e+00 3.405789e+00 7.598286e-01 5.894872e+01 -2.307596e-02 -4.019826e-03 4.822652e-02 1.273547e-01 2.262912e-01 2.497574e-01 2.096383e-01 1.818157e-01 1.200218e-01 6.519021e-02 2.111124e-02 -1.396455e-02 4.430553e-02 7.603980e-03 2.644782e-03 4.777810e-03 -2.254570e-03 -2.542656e-02 -3.948585e-02 -2.939035e-02 -2.478942e-02 -1.128461e-02 -8.153887e-03 -9.845202e-03 -8.833039e-03 2.674573e-03
<VARIANCE> 39
 6.726745e+00 1.324961e+01 1.224039e+01 1.290519e+01 1.410490e+01 1.587426e+01 1.877819e+01 1.764390e+01 1.778817e+01 1.619659e+01 1.754021e+01 1.634173e+01 1.595310e+01 1.408663e-01 2.756676e-01 4.410513e-01 6.388128e-01 8.327363e-01 1.003809e+00 1.135070e+00 1.263465e+00 1.312639e+00 1.280285e+00 1.280124e+00 1.193963e+00 9.641230e-02 2.284164e-02 4.763087e-02 8.189096e-02 1.258471e-01 1.730795e-01 2.131044e-01 2.412864e-01 2.654769e-01 2.680164e-01 2.611530e-01 2.564979e-01 2.420580e-01 8.540836e-03
<GCONST> 7.315753e+01
<MIXTURE> 2 3.751894e-01
<MEAN> 39
 -1.232728e+01 -3.844399e-01 -3.544012e+00 -5.806185e+00 -1.049864e+00 -4.581098e-01 -1.354528e+00 5.958751e-01 -6.984740e-01 1.369365e+00 2.655927e+00 1.670828e-01 5.771271e+01 4.272132e-02 -7.093062e-02 -1.641861e-01 -3.018335e-01 -3.831224e-01 -4.871204e-01 -5.330282e-01 -4.286314e-01 -3.327151e-01 -1.871188e-01 -7.304388e-02 2.305881e-02 4.103396e-01 4.023703e-02 -1.193568e-03 -8.336794e-03 1.103497e-02 2.079879e-02 2.495963e-02 2.768665e-02 1.181880e-02 -1.041043e-02 -3.009704e-02 -3.798566e-02 -2.417400e-02 3.692350e-02
<VARIANCE> 39
 1.079299e+01 1.445136e+01 1.400391e+01 1.764163e+01 1.596352e+01 1.749640e+01 2.179284e+01 2.053291e+01 2.044326e+01 1.730047e+01 1.935008e+01 1.718349e+01 2.927094e+01 4.544034e-01 5.611779e-01 6.947198e-01 9.745461e-01 1.109714e+00 1.274865e+00 1.473579e+00 1.608480e+00 1.602090e+00 1.545632e+00 1.603763e+00 1.414860e+00 5.141780e-01 6.202384e-02 8.783972e-02 1.224203e-01 1.824520e-01 2.275025e-01 2.722125e-01 3.104557e-01 3.235542e-01 3.181446e-01 2.940934e-01 3.003314e-01 2.684257e-01 6.266850e-02
<GCONST> 8.778742e+01
<STATE> 3
<NUMMIXES> 2
<MIXTURE> 1 7.451877e-01
<MEAN> 39
 -8.016986e+00 -2.101853e+00 -4.995155e+00 -5.244555e+00 -1.524884e+00 -1.662607e+00 -2.290688e+00 -1.216094e+00 -2.395618e+00 -8.813011e-01 -6.526433e-01 -1.605604e+00 6.658351e+01 7.895784e-02 8.323511e-02 5.913292e-02 1.021528e-01 8.811604e-02 1.049655e-01 8.072425e-02 4.202846e-02 2.515124e-02 2.504654e-02 1.259810e-02 3.902325e-04 -1.541397e-01 -1.236226e-02 -5.517721e-03 -9.584268e-03 -1.772734e-02 -2.111955e-02 -2.092466e-02 -1.528927e-02 -1.096092e-02 -1.308848e-02 -1.721873e-02 -1.200924e-02 -1.273270e-02 -3.932246e-03
<VARIANCE> 39
 1.177738e+01 1.384437e+01 1.304496e+01 1.463016e+01 1.523765e+01 1.530009e+01 1.954421e+01 1.816964e+01 2.001515e+01 1.763525e+01 1.676242e+01 1.438305e+01 7.056363e+01 2.291105e-01 3.305928e-01 4.905468e-01 7.144848e-01 8.974473e-01 1.066091e+00 1.212385e+00 1.307421e+00 1.363384e+00 1.343984e+00 1.305245e+00 1.201416e+00 3.200098e-01 3.291286e-02 5.950743e-02 9.486832e-02 1.385026e-01 1.781350e-01 2.161037e-01 2.482741e-01 2.648549e-01 2.769254e-01 2.768402e-01 2.677992e-01 2.454947e-01 2.285699e-02
<GCONST> 8.004309e+01
<MIXTURE> 2 2.548389e-01
<MEAN> 39
 -8.902351e+00 -2.550653e+00 -5.056789e+00 -6.779174e+00 -2.568845e+00 -3.093419e+00 -3.112394e+00 -1.639782e+00 -2.761187e+00 -1.635117e+00 -1.128236e+00 -2.181420e+00 6.694356e+01 2.259677e-01 -2.121880e-01 -1.537694e-01 -2.924764e-01 -3.863056e-01 -4.801890e-01 -3.053215e-01 -2.336312e-01 -1.365214e-01 -2.122335e-01 -2.707830e-01 -1.260156e-01 1.103372e+00 1.545222e-02 3.453574e-02 3.981212e-02 6.746723e-02 1.055748e-01 1.262497e-01 9.194615e-02 7.667515e-02 7.141583e-02 9.217096e-02 9.481921e-02 6.571683e-02 -9.715116e-02
<VARIANCE> 39
 1.594872e+01 1.936423e+01 1.739781e+01 2.062831e+01 2.087584e+01 1.939533e+01 2.203973e+01 2.187203e+01 2.258026e+01 1.845276e+01 1.778775e+01 1.577816e+01 6.392563e+01 1.100485e+00 1.267813e+00 1.157088e+00 1.549860e+00 1.668369e+00 1.770411e+00 1.837709e+00 1.942795e+00 1.940292e+00 1.787798e+00 1.742452e+00 1.550190e+00 1.658943e+00 1.507135e-01 2.136173e-01 2.107719e-01 2.944699e-01 3.237030e-01 3.509929e-01 3.616705e-01 3.770702e-01 3.815295e-01 3.438288e-01 3.327354e-01 2.977229e-01 3.467786e-01
<GCONST> 1.015333e+02
<STATE> 4
<NUMMIXES> 2
<MIXTURE> 1 4.717672e-01
<MEAN> 39
 -5.504432e+00 1.719481e+00 -1.662234e+00 -2.870988e+00 8.946768e-01 -2.790801e-03 -1.374077e+00 -9.194516e-01 -2.141096e+00 -1.646020e+00 -6.509953e-01 -2.176853e+00 6.210796e+01 1.874091e-02 7.522236e-02 9.681354e-02 1.108200e-01 9.699805e-02 7.972561e-02 8.205183e-02 3.943767e-02 1.740323e-02 4.353581e-03 8.208080e-03 -4.143649e-03 -3.595920e-01 -3.551953e-03 -2.624650e-02 -5.546667e-02 -8.663920e-02 -1.104005e-01 -1.067417e-01 -7.859415e-02 -4.722741e-02 -3.099386e-02 -2.207400e-02 -2.025006e-02 -8.121975e-03 2.135875e-02
<VARIANCE> 39
 1.425576e+01 9.288172e+00 9.419331e+00 9.812888e+00 1.043467e+01 1.207424e+01 1.598838e+01 1.838472e+01 1.900726e+01 1.656765e+01 1.491159e+01 1.320581e+01 5.938250e+01 1.792386e-01 2.773583e-01 4.335008e-01 6.533697e-01 8.549095e-01 1.021891e+00 1.169021e+00 1.266153e+00 1.338712e+00 1.309145e+00 1.263031e+00 1.156942e+00 1.817901e-01 2.489530e-02 4.733912e-02 7.809035e-02 1.188141e-01 1.559392e-01 1.913359e-01 2.274190e-01 2.509353e-01 2.662358e-01 2.608393e-01 2.488345e-01 2.300801e-01 1.271538e-02
<GCONST> 7.426621e+01
<MIXTURE> 2 5.281842e-01
<MEAN> 39
 -4.988906e+00 -1.166172e+00 -5.293058e+00 -7.178509e+00 -3.527607e+00 -3.841472e+00 -4.058445e+00 -2.284040e+00 -2.900197e+00 -2.337126e+00 -1.694586e+00 -2.602381e+00 7.197364e+01 5.211173e-02 -9.214517e-04 1.781472e-02 3.120686e-02 1.512304e-02 -8.899141e-03 -1.087880e-02 -3.698757e-02 -1.000240e-02 -9.668815e-03 3.096190e-03 1.459393e-02 -6.926011e-02 -7.815931e-03 2.180879e-02 5.078522e-02 7.918411e-02 1.014849e-01 9.996196e-02 7.455105e-02 4.624946e-02 3.105271e-02 2.634525e-02 2.422399e-02 1.077620e-02 -3.461872e-02
<VARIANCE> 39
 5.041412e+00 8.069849e+00 7.962084e+00 1.069423e+01 1.017276e+01 1.028470e+01 1.352939e+01 1.573081e+01 1.643708e+01 1.462119e+01 1.397126e+01 1.222822e+01 3.495256e+01 1.805172e-01 2.950046e-01 4.738167e-01 7.155971e-01 8.882977e-01 1.020082e+00 1.170837e+00 1.255551e+00 1.296456e+00 1.267636e+00 1.217243e+00 1.124637e+00 3.392929e-01 3.098626e-02 5.430056e-02 8.829740e-02 1.309671e-01 1.614944e-01 1.912066e-01 2.286160e-01 2.488007e-01 2.603777e-01 2.569129e-01 2.483039e-01 2.295383e-01 2.881351e-02
<GCONST> 7.370930e+01
<TRANSP> 5
 0.000000e+00 1.000000e+00 0.000000e+00 0.000000e+00 0.000000e+00
 0.000000e+00 9.652261e-01 3.477393e-02 0.000000e+00 0.000000e+00
 0.000000e+00 0.000000e+00 9.676588e-01 3.234120e-02 0.000000e+00
 0.000000e+00 0.000000e+00 0.000000e+00 9.833122e-01 1.668781e-02
 0.000000e+00 0.000000e+00 0.000000e+00 0.000000e+00 0.000000e+00
<ENDHMM>
~h "co"
<BEGINHMM>
<NUMSTATES> 5
<STATE> 2
<NUMMIXES> 2
<MIXTURE> 1 6.524385e-01
<MEAN> 39
 -9.903356e+00 -6.300469e+00 2.951091e-01 -4.487779e+00 -1.000140e+01 -6.258011e+00 -3.618763e+00 -1.747597e+00 -3.950900e+00 -6.028860e+00 -4.293783e+00 -6.372628e+00 7.081443e+01 -5.766968e-01 1.872162e-01 5.013357e-02 2.062858e-02 5.793197e-01 -6.365418e-02 3.778096e-01 -4.480758e-01 -3.974538e-01 -7.736278e-02 3.246277e-01 2.190901e-01 1.096465e+00 1.717957e-01 -1.848625e-01 -1.975370e-01 1.339338e-01 5.770830e-02 8.203712e-02 -5.241885e-02 7.661454e-02 2.047804e-01 2.316549e-01 8.548425e-02 2.229692e-02 -4.507984e-01
<VARIANCE> 39
 1.761203e+01 1.914940e+01 2.417791e+01 2.721868e+01 4.199994e+01 4.725247e+01 5.480457e+01 6.651660e+01 4.142270e+01 3.396782e+01 3.919666e+01 2.714939e+01 7.494792e+01 6.299810e-01 1.149691e+00 1.356499e+00 1.412367e+00 1.767248e+00 2.013333e+00 2.522712e+00 2.144230e+00 2.285231e+00 2.374337e+00 1.923707e+00 1.812376e+00 1.211595e+00 9.192092e-02 1.643494e-01 2.274521e-01 2.499632e-01 2.873869e-01 3.577404e-01 4.029649e-01 3.737173e-01 3.990268e-01 3.730096e-01 3.657400e-01 3.138487e-01 1.902183e-01
<GCONST> 1.077777e+02
<MIXTURE> 2 3.475596e-01
<MEAN> 39
 -6.535254e+00 -7.853743e+00 -2.339819e+00 -2.987529e+00 -9.850243e+00 -3.465539e+00 -3.097161e+00 1.681852e+00 9.273900e-01 -1.060086e+00 -1.799323e+00 -5.661187e+00 5.929691e+01 -4.977064e-01 -5.985019e-01 3.954275e-01 -8.492569e-01 -1.778392e+00 -1.632340e+00 -1.061693e+00 -1.006259e+00 -1.131845e+00 -1.197918e+00 -8.848879e-01 -7.334918e-01 3.829876e+00 -1.782588e-01 3.850543e-01 1.448458e-01 -5.498207e-02 3.953554e-01 1.324332e-01 2.648310e-01 -2.388065e-02 -2.241239e-01 -1.255323e-01 6.578363e-02 9.808958e-02 1.050886e-01
<VARIANCE> 39
 2.053903e+01 4.708485e+01 2.648014e+01 3.661679e+01 9.394774e+01 6.028534e+01 9.944516e+01 6.374396e+01 4.893945e+01 4.384203e+01 3.439353e+01 3.741783e+01 1.006739e+02 1.749390e+00 4.197666e+00 2.695110e+00 3.384676e+00 5.552927e+00 3.965650e+00 5.052948e+00 4.422245e+00 4.355117e+00 3.217031e+00 2.671062e+00 2.587041e+00 3.493105e+00 2.080431e-01 5.821046e-01 3.357383e-01 4.751100e-01 9.099925e-01 7.602417e-01 9.528923e-01 6.110911e-01 6.358165e-01 5.550304e-01 5.078272e-01 5.016750e-01 7.533137e-01
<GCONST> 1.309463e+02
<STATE> 3
<NUMMIXES> 2
<MIXTURE> 1 7.672306e-01
<MEAN> 39
 -6.695936e+00 -7.715219e+00 -1.980819e+00 -3.585273e+00 -6.488409e+00 -8.267310e+00 -7.134293e+00 -6.526144e+00 -4.084401e+00 -3.735629e+00 -3.389324e+00 -7.898042e+00 6.772710e+01 2.301294e-01 5.562901e-02 4.799890e-02 1.645493e-01 3.229366e-01 6.744926e-02 -1.236201e-02 -1.143170e-01 4.751598e-02 1.366249e-01 5.574527e-02 6.207221e-03 -6.053356e-01 1.759645e-02 2.221201e-02 2.184274e-02 1.552945e-02 -2.237536e-02 2.221163e-03 -1.427703e-02 -1.163285e-02 -4.155370e-02 -5.005676e-02 -3.605758e-02 -8.248170e-03 -1.641377e-02
<VARIANCE> 39
 2.003480e+01 1.393038e+01 2.607238e+01 2.360592e+01 2.346914e+01 2.940695e+01 5.047896e+01 5.683292e+01 3.838982e+01 4.034550e+01 3.643838e+01 3.647797e+01 4.221005e+01 1.833859e-01 3.704880e-01 6.033111e-01 7.427633e-01 1.058682e+00 1.186323e+00 1.523984e+00 1.689903e+00 1.805700e+00 1.739537e+00 1.513689e+00 1.439551e+00 1.326415e-01 3.822991e-02 7.439064e-02 1.130550e-01 1.558172e-01 2.155984e-01 2.420453e-01 3.089036e-01 3.425851e-01 3.807745e-01 3.595822e-01 3.157262e-01 2.942620e-01 2.333249e-02
<GCONST> 9.087253e+01
<MIXTURE> 2 2.327970e-01
<MEAN> 39
 -6.644008e+00 -8.191923e+00 -1.452775e+00 -2.631855e+00 -8.791141e+00 -8.015795e+00 -7.521414e+00 -7.153663e+00 -3.798058e+00 -4.158973e+00 -4.880484e+00 -8.427222e+00 6.736265e+01 -2.858223e-01 -1.398671e-01 -2.405872e-02 -3.336919e-01 -6.945118e-01 -1.461729e-01 -2.231092e-01 2.025686e-01 -6.088842e-02 -3.086513e-01 -2.010151e-01 -1.488762e-01 1.192845e+00 -4.322095e-02 -3.270001e-02 -1.870851e-02 -3.334890e-02 8.044232e-02 2.406472e-02 7.188947e-02 7.024395e-02 1.311709e-01 1.411140e-01 9.693366e-02 2.759050e-02 9.025145e-03
<VARIANCE> 39
 1.574909e+01 2.389571e+01 3.017328e+01 2.821367e+01 3.748969e+01 3.519878e+01 5.381285e+01 7.197272e+01 5.772390e+01 4.187957e+01 4.315916e+01 3.766149e+01 5.787279e+01 1.196638e+00 2.281722e+00 1.826119e+00 2.282536e+00 3.355724e+00 2.701611e+00 4.273260e+00 4.145189e+00 5.203761e+00 3.533811e+00 3.304039e+00 2.646880e+00 2.570757e+00 1.407317e-01 4.382595e-01 2.939461e-01 4.070641e-01 6.813530e-01 4.688358e-01 6.324425e-01 7.008242e-01 9.858891e-01 6.538262e-01 5.964767e-01 4.363621e-01 5.334516e-01
<GCONST> 1.233015e+02
<STATE> 4
<NUMMIXES> 2
<MIXTURE> 1 7.975282e-01
<MEAN> 39
 -3.984625e+00 -2.936075e+00 3.019783e+00 1.085348e+00 1.670054e-01 -2.789596e+00 -4.373604e+00 -3.202487e+00 -2.337293e+00 -3.852520e+00 -3.268700e+00 -6.364404e+00 5.543579e+01 8.694498e-02 2.265231e-01 -5.426401e-03 4.791491e-02 1.845085e-01 1.893418e-01 1.900503e-01 1.800409e-01 6.614768e-03 3.497699e-02 -1.204222e-02 4.727094e-02 -5.024494e-01 -6.766647e-03 -9.290667e-03 -1.925744e-02 -1.339473e-02 -3.355292e-02 -5.487447e-03 -1.293336e-02 2.141593e-03 -4.444701e-04 -6.616393e-04 -3.254773e-03 -7.179940e-03 1.457755e-02
<VARIANCE> 39
 1.518583e+01 2.259689e+01 1.763383e+01 2.185228e+01 2.136236e+01 2.867828e+01 4.677769e+01 4.213499e+01 3.004484e+01 2.942842e+01 2.516551e+01 2.386302e+01 5.162328e+01 1.865771e-01 3.145985e-01 5.054330e-01 7.164299e-01 9.100366e-01 1.063547e+00 1.228291e+00 1.325655e+00 1.409194e+00 1.477388e+00 1.423212e+00 1.299252e+00 1.151203e-01 2.747964e-02 5.670777e-02 9.375075e-02 1.361814e-01 1.782342e-01 2.093541e-01 2.362144e-01 2.551886e-01 2.803837e-01 2.933651e-01 2.846562e-01 2.611918e-01 9.746412e-03
<GCONST> 8.373993e+01
<MIXTURE> 2 2.024993e-01
<MEAN> 39
 -5.415102e+00 -7.242217e+00 8.384760e-02 -6.474991e-01 -5.309894e+00 -2.299689e+00 -1.006845e+01 -3.153265e+00 -2.224069e+00 -6.429537e+00 -3.884575e+00 -8.889986e+00 6.401653e+01 -2.025339e-01 -2.826489e-01 1.302167e-01 -5.276209e-03 -2.358283e-01 -2.385452e-01 -3.248135e-01 -1.813946e-01 -2.422427e-02 -1.932491e-01 -1.000994e-02 -4.904296e-02 8.086716e-01 -1.052066e-04 2.491270e-02 3.320916e-02 1.208970e-02 7.618199e-02 -7.335675e-03 4.984758e-02 -2.292647e-03 7.471602e-03 9.086496e-03 1.244605e-02 1.955963e-02 -1.319706e-02
<VARIANCE> 39
 1.267912e+01 3.846620e+01 2.777390e+01 2.393400e+01 4.139144e+01 4.764960e+01 7.831770e+01 5.311851e+01 3.788380e+01 6.544122e+01 4.292108e+01 4.307987e+01 7.664806e+01 6.879278e-01 1.879042e+00 1.445738e+00 1.446354e+00 3.053908e+00 2.182531e+00 4.016130e+00 3.096411e+00 2.703753e+00 2.822883e+00 2.492153e+00 2.555505e+00 2.531413e+00 1.066924e-01 3.199459e-01 2.547333e-01 2.698306e-01 5.523444e-01 4.048640e-01 7.271485e-01 5.408518e-01 5.187425e-01 5.562539e-01 4.837686e-01 4.926388e-01 3.563765e-01
<GCONST> 1.179936e+02
<TRANSP> 5
 0.000000e+00 1.000000e+00 0.000000e+00 0.000000e+00 0.000000e+00
 0.000000e+00 8.858603e-01 1.141397e-01 0.000000e+00 0.000000e+00
 0.000000e+00 0.000000e+00 9.850647e-01 1.493524e-02 0.000000e+00
 0.000000e+00 0.000000e+00 0.000000e+00 9.791399e-01 2.086017e-02
 0.000000e+00 0.000000e+00 0.000000e+00 0.000000e+00 0.000000e+00
<ENDHMM>
~h "ds"
<BEGINHMM>
<NUMSTATES> 5
<STATE> 2
<NUMMIXES> 2
<MIXTURE> 1 5.578210e-01
<MEAN> 39
 -1.293369e+01 -3.645728e-01 1.391377e+00 6.078744e-02 1.520235e+00 -4.562498e-01 5.530031e+00 9.558174e-01 2.588048e+00 1.282875e+00 2.929620e+00 8.701618e-01 6.420915e+01 2.968282e-01 1.599690e-01 2.201753e-01 3.104672e-01 2.362353e-01 2.306757e-01 1.167340e-01 1.039284e-01 7.460607e-02 9.277672e-02 6.271183e-02 8.135231e-02 -2.774248e-01 -8.109193e-02 -6.337711e-02 -9.610248e-02 -6.061208e-02 -8.419140e-02 -6.439997e-02 -9.221500e-02 -4.594944e-02 -1.782691e-02 5.318594e-04 -5.312870e-02 -2.493578e-02 -1.530579e-02
<VARIANCE> 39
 1.945445e+01 1.772556e+01 1.263738e+01 1.843434e+01 1.730692e+01 1.926408e+01 2.522242e+01 3.302975e+01 2.597839e+01 2.057199e+01 1.737668e+01 1.541500e+01 1.035266e+02 3.820483e-01 5.047022e-01 7.198231e-01 1.002321e+00 1.217897e+00 1.509754e+00 1.677314e+00 1.830312e+00 1.627904e+00 1.630709e+00 1.549674e+00 1.303591e+00 4.778846e-01 1.210282e-01 1.161408e-01 1.440375e-01 1.920191e-01 2.476549e-01 2.891571e-01 3.282185e-01 3.616942e-01 3.384470e-01 3.325251e-01 3.198117e-01 2.662523e-01 1.956344e-01
<GCONST> 9.381722e+01
<MIXTURE> 2 4.421896e-01
<MEAN> 39
 -1.549603e+01 -1.209944e+00 -1.553995e+00 -1.536186e+00 -2.007833e+00 -1.989141e+00 2.300554e+00 -7.343382e-01 2.716398e+00 2.016755e+00 2.020602e+00 9.020382e-01 6.754874e+01 -7.578734e-01 -2.604461e-02 -3.320368e-01 -4.437244e-01 -6.504647e-01 -5.055032e-01 -3.084115e-01 -1.616362e-01 -4.311647e-02 1.981649e-01 2.266707e-01 1.386932e-01 2.220474e+00 2.503890e-01 1.130818e-01 1.551454e-01 1.573381e-01 1.980784e-01 1.090078e-01 1.301871e-01 6.771662e-02 3.204991e-02 -3.352198e-02 6.553711e-02 1.652128e-02 -3.122965e-01
<VARIANCE> 39
 2.583161e+01 1.510264e+01 1.569745e+01 2.083541e+01 2.937444e+01 2.334439e+01 2.704842e+01 2.774888e+01 2.289482e+01 2.360431e+01 2.144520e+01 1.686792e+01 1.277820e+02 3.057176e+00 1.704985e+00 1.895787e+00 2.165975e+00 2.803981e+00 2.580192e+00 3.082433e+00 2.657953e+00 2.499156e+00 2.275284e+00 2.315798e+00 1.813802e+00 1.003768e+01 4.645845e-01 2.369124e-01 2.665291e-01 4.225027e-01 4.888988e-01 4.899357e-01 5.083532e-01 4.875357e-01 4.397216e-01 4.054475e-01 4.040128e-01 3.192385e-01 1.937023e+00
<GCONST> 1.159181e+02
<STATE> 3
<NUMMIXES> 2
<MIXTURE> 1 3.932640e-01
<MEAN> 39
 -9.553254e+00 4.143702e+00 4.419825e+00 5.374254e+00 6.038522e+00 2.715457e+00 6.407733e+00 4.763643e-01 3.999974e+00 1.924874e+00 3.344864e+00 1.579476e+00 6.755547e+01 2.467217e-01 -2.767325e-04 5.463020e-02 -2.524086e-02 8.893395e-02 9.254739e-02 1.105145e-01 5.305720e-02 6.677822e-03 -3.458047e-02 -4.438580e-02 -7.199669e-02 -7.407363e-01 -7.778345e-03 -2.045235e-02 -4.006934e-02 -5.556867e-02 -5.745002e-02 -4.169455e-02 -4.013767e-02 -2.290931e-02 -1.679800e-02 -1.569850e-02 -1.691261e-02 -1.922378e-02 4.388145e-03
<VARIANCE> 39
 1.287673e+01 7.043020e+00 6.195693e+00 6.978360e+00 9.887387e+00 1.247921e+01 1.396646e+01 1.350620e+01 1.464377e+01 1.418554e+01 1.322364e+01 1.297103e+01 4.874509e+01 1.321262e-01 2.593752e-01 4.221359e-01 6.162829e-01 8.311397e-01 1.029783e+00 1.168759e+00 1.225846e+00 1.339189e+00 1.324619e+00 1.254779e+00 1.155920e+00 7.102466e-02 2.569792e-02 5.030771e-02 8.500142e-02 1.236045e-01 1.695905e-01 2.107974e-01 2.384180e-01 2.494999e-01 2.750337e-01 2.692488e-01 2.546511e-01 2.350290e-01 1.173047e-02
<GCONST> 7.093397e+01
<MIXTURE> 2 6.067144e-01
<MEAN> 39
 -1.459124e+01 -7.204072e-01 -2.197452e+00 -8.037342e-01 -1.391166e+00 -3.218445e+00 1.977244e-01 -2.951510e+00 1.548139e+00 2.664329e+00 3.567204e+00 5.745501e-02 6.819370e+01 3.128571e-01 7.471033e-03 1.259321e-01 1.588088e-01 4.775215e-01 1.637433e-01 4.761438e-02 -1.283950e-01 -1.150829e-01 -1.026972e-01 -3.791585e-02 -2.235237e-01 -7.140045e-01 6.769588e-03 3.516781e-03 8.674628e-03 -3.321499e-03 1.659563e-02 5.454155e-02 5.403348e-02 3.347842e-02 8.397134e-03 2.152716e-03 -2.134376e-02 -4.128878e-03 2.300865e-04
<VARIANCE> 39
 5.218573e+00 4.773841e+00 5.617901e+00 9.463958e+00 1.954095e+01 1.260884e+01 1.321231e+01 1.511348e+01 1.494824e+01 1.506743e+01 1.443740e+01 1.523364e+01 2.372211e+01 1.348373e-01 2.730488e-01 4.461157e-01 7.069105e-01 1.012349e+00 1.141653e+00 1.267398e+00 1.375644e+00 1.398941e+00 1.475607e+00 1.431275e+00 1.274470e+00 5.701716e-02 2.884856e-02 5.584344e-02 9.326785e-02 1.436048e-01 2.107300e-01 2.371327e-01 2.589974e-01 2.808079e-01 2.869226e-01 3.042051e-01 2.975881e-01 2.661592e-01 1.246032e-02
<GCONST> 7.263213e+01
<STATE> 4
<NUMMIXES> 2
<MIXTURE> 1 7.662076e-01
<MEAN> 39
 -9.323780e+00 9.354589e-01 1.797143e+00 -9.198159e-02 2.997455e+00 1.026641e+00 3.382455e+00 1.131802e+00 2.354266e+00 -2.066378e-01 1.616532e+00 -7.481195e-01 5.379080e+01 1.106878e-01 4.189558e-02 6.482359e-02 3.706556e-02 7.325492e-02 8.905854e-02 4.498872e-02 6.667764e-02 1.214819e-02 1.875379e-02 -2.830847e-03 2.255882e-03 -2.779026e-01 -1.859191e-02 -1.233987e-02 -2.145836e-02 -2.480649e-02 -2.835312e-02 -2.621853e-02 -3.000052e-02 -1.721191e-02 -6.365890e-03 -4.166132e-03 -2.666686e-03 -1.348539e-03 1.864605e-02
<VARIANCE> 39
 1.430752e+01 1.138611e+01 1.604650e+01 1.711913e+01 1.764956e+01 2.138307e+01 2.411292e+01 1.953771e+01 2.424969e+01 2.207470e+01 1.682028e+01 1.548518e+01 4.435790e+01 2.160066e-01 3.051893e-01 4.995624e-01 7.140811e-01 9.250100e-01 1.154039e+00 1.323649e+00 1.380659e+00 1.462900e+00 1.465879e+00 1.347414e+00 1.192429e+00 1.605344e-01 3.465290e-02 5.724857e-02 9.548309e-02 1.404548e-01 1.818429e-01 2.269927e-01 2.626024e-01 2.762614e-01 2.935303e-01 2.967694e-01 2.726387e-01 2.417157e-01 1.688616e-02
<GCONST> 8.085129e+01
<MIXTURE> 2 2.340247e-01
<MEAN> 39
 -1.105161e+01 -6.175870e-01 -8.550103e-01 -2.164243e+00 1.059925e+00 -9.867557e-01 1.694796e+00 -2.881030e-01 1.819546e+00 -4.165030e-01 1.502257e+00 -9.824068e-01 5.704772e+01 -2.846204e-01 -9.307026e-02 -1.313666e-01 -7.324674e-02 -2.133370e-01 -2.264093e-01 -5.756465e-02 -1.162593e-01 1.262872e-02 -8.095227e-02 -2.456270e-02 2.980055e-02 7.718113e-01 5.419245e-02 4.171376e-02 7.120845e-02 8.678146e-02 9.094959e-02 8.067635e-02 9.034089e-02 5.008780e-02 2.109707e-02 1.906050e-02 1.626898e-02 9.829941e-03 -5.425373e-02
<VARIANCE> 39
 2.366246e+01 1.755647e+01 2.042012e+01 2.161607e+01 2.397418e+01 2.783951e+01 2.976142e+01 2.702406e+01 2.940744e+01 2.724615e+01 2.165828e+01 1.941517e+01 6.299505e+01 1.670232e+00 1.263845e+00 1.348035e+00 1.702761e+00 1.951172e+00 2.294775e+00 2.415399e+00 2.261746e+00 2.363323e+00 2.186598e+00 1.895414e+00 1.651885e+00 2.273207e+00 2.955318e-01 2.255177e-01 2.372636e-01 3.130625e-01 3.769497e-01 4.434696e-01 4.522753e-01 4.422118e-01 4.451514e-01 4.180008e-01 3.696734e-01 3.279775e-01 4.205608e-01
<GCONST> 1.088764e+02
<TRANSP> 5
 0.000000e+00 1.000000e+00 0.000000e+00 0.000000e+00 0.000000e+00
 0.000000e+00 9.422884e-01 5.771160e-02 0.000000e+00 0.000000e+00
 0.000000e+00 0.000000e+00 9.545853e-01 4.541468e-02 0.000000e+00
 0.000000e+00 0.000000e+00 0.000000e+00 9.929007e-01 7.099338e-03
 0.000000e+00 0.000000e+00 0.000000e+00 0.000000e+00 0.000000e+00
<ENDHMM>
~h "kj"
<BEGINHMM>
<NUMSTATES> 5
<STATE> 2
<NUMMIXES> 2
<MIXTURE> 1 6.787859e-01
<MEAN> 39
 -1.973511e+01 3.711029e+00 -3.757336e-01 -2.791503e+00 -1.090719e+00 3.653631e+00 2.357447e+00 4.090782e+00 1.779428e+00 -1.848655e-01 1.264154e+00 -9.396304e-01 5.543543e+01 2.512999e-01 6.704234e-02 -5.948768e-02 -2.440392e-02 3.867115e-02 5.393137e-02 5.875018e-02 5.225826e-02 5.037120e-03 2.020823e-02 1.720177e-02 -2.599311e-02 -2.270719e-01 -2.235962e-02 -1.021243e-02 -1.248006e-02 -5.665479e-03 -2.138793e-02 -2.417571e-02 -2.182601e-02 -1.683588e-02 -2.645839e-02 -3.366782e-03 -2.436113e-03 -2.376407e-03 1.715599e-02
<VARIANCE> 39
 3.127490e+01 2.122577e+01 1.483535e+01 2.625875e+01 1.606114e+01 3.102466e+01 2.773099e+01 2.011648e+01 1.918565e+01 2.027689e+01 1.646737e+01 1.617529e+01 2.150184e+01 3.022918e-01 3.310231e-01 5.339851e-01 7.643496e-01 9.757959e-01 1.203817e+00 1.375821e+00 1.435447e+00 1.445070e+00 1.485177e+00 1.381779e+00 1.232234e+00 1.365582e-01 6.001421e-02 6.421353e-02 1.044104e-01 1.552334e-01 1.966788e-01 2.428675e-01 2.757327e-01 2.895478e-01 2.945384e-01 3.049761e-01 2.835664e-01 2.520660e-01 2.501244e-02
<GCONST> 8.425376e+01
<MIXTURE> 2 3.213316e-01
<MEAN> 39
 -1.997914e+01 1.022353e+00 -1.698582e+00 -2.948197e+00 -2.059487e+00 2.011722e+00 1.334280e+00 2.459176e+00 5.491423e-01 1.947463e-02 1.072855e+00 -9.713754e-01 5.776105e+01 -6.135825e-01 -9.765591e-02 1.412440e-01 4.273994e-02 -9.367425e-02 -1.008387e-01 -1.102822e-01 -1.151571e-01 -6.994568e-03 -4.224598e-02 -3.326931e-02 5.477967e-02 5.151761e-01 5.298797e-02 1.378100e-02 2.594727e-02 1.327726e-02 4.264664e-02 4.733665e-02 4.355460e-02 3.472774e-02 5.375599e-02 9.888967e-03 4.913378e-03 5.673329e-03 -3.494212e-02
<VARIANCE> 39
 3.643377e+01 3.194183e+01 2.610153e+01 2.678135e+01 1.933158e+01 3.821173e+01 3.107843e+01 2.660127e+01 2.247354e+01 2.185827e+01 1.828481e+01 1.682210e+01 2.825456e+01 9.391701e-01 1.109367e+00 1.253617e+00 1.279547e+00 1.545444e+00 1.901248e+00 1.979758e+00 1.997069e+00 1.929434e+00 1.841322e+00 1.673726e+00 1.505155e+00 6.532907e-01 2.084873e-01 2.009358e-01 2.277725e-01 2.388301e-01 2.862208e-01 3.604941e-01 3.803658e-01 3.908495e-01 3.734037e-01 3.609771e-01 3.296700e-01 2.953323e-01 1.478065e-01
<GCONST> 1.021010e+02
<STATE> 3
<NUMMIXES> 2
<MIXTURE> 1 7.312360e-01
<MEAN> 39
 -1.432212e+01 -8.740966e+00 -5.529644e+00 -2.098745e+00 -1.782671e+00 -4.561534e+00 -2.605738e+00 -2.896174e+00 -1.259153e+00 6.256124e-03 6.490832e-01 2.222326e-02 6.394913e+01 2.217618e-01 2.969465e-01 6.903618e-02 1.342597e-01 1.156030e-01 1.461993e-01 1.454854e-01 1.206968e-01 4.284308e-02 5.017158e-02 2.099132e-02 -5.815758e-03 -6.356039e-01 -2.656308e-02 1.214855e-02 3.950979e-02 -5.007382e-03 -3.179030e-03 2.165613e-02 2.161914e-02 3.679117e-02 5.617228e-03 4.034255e-03 -2.206310e-04 -9.154093e-03 3.078891e-03
<VARIANCE> 39
 1.747746e+01 2.551509e+01 1.189690e+01 1.348699e+01 1.673283e+01 1.687493e+01 2.089074e+01 2.049362e+01 1.921315e+01 1.649292e+01 1.522106e+01 1.325127e+01 6.812260e+01 2.163502e-01 3.476347e-01 5.317605e-01 7.257950e-01 9.338112e-01 1.154563e+00 1.340146e+00 1.415074e+00 1.469227e+00 1.385375e+00 1.296932e+00 1.183303e+00 1.560616e-01 3.957124e-02 7.000556e-02 1.081077e-01 1.455381e-01 1.908582e-01 2.367888e-01 2.765366e-01 2.897950e-01 3.055385e-01 2.868088e-01 2.690530e-01 2.430751e-01 3.123131e-02
<GCONST> 8.201208e+01
<MIXTURE> 2 2.687792e-01
<MEAN> 39
 -1.703073e+01 -8.377036e+00 -4.294739e+00 -3.026681e+00 -3.310750e+00 -3.234768e+00 -2.014804e+00 -1.219721e+00 -6.034207e-01 1.156396e-01 7.406788e-01 -5.552244e-01 6.595930e+01 -2.150816e-01 -1.263568e+00 -3.066647e-01 -2.472935e-01 -2.172035e-01 -6.503810e-01 -5.075206e-01 -4.997209e-01 -1.773115e-01 -1.160592e-01 -8.411906e-02 4.550190e-02 1.717581e+00 7.250347e-02 5.198966e-02 -5.785935e-02 1.671657e-02 3.728064e-02 5.257057e-03 1.904902e-02 -5.324500e-02 -2.120058e-03 -4.182942e-03 -4.325285e-03 1.860025e-03 -1.005064e-01
<VARIANCE> 39
 2.232663e+01 6.322298e+01 2.359328e+01 2.396906e+01 2.062153e+01 2.956068e+01 3.011625e+01 2.535888e+01 2.062031e+01 1.992659e+01 1.910141e+01 1.689341e+01 9.144611e+01 1.574789e+00 4.913376e+00 2.342628e+00 1.686030e+00 1.907674e+00 2.713851e+00 2.810604e+00 2.464831e+00 2.007648e+00 1.932747e+00 1.735533e+00 1.723714e+00 3.897003e+00 2.479338e-01 9.895627e-01 4.148425e-01 3.213380e-01 3.507565e-01 5.118490e-01 5.161039e-01 4.643034e-01 3.902330e-01 3.824975e-01 3.412876e-01 3.378468e-01 9.850588e-01
<GCONST> 1.147970e+02
<STATE> 4
<NUMMIXES> 2
<MIXTURE> 1 7.822450e-01
<MEAN> 39
 -2.318170e+01 1.880771e+00 3.037174e+00 1.732302e+00 -2.706100e+00 6.685368e-01 8.353005e+00 5.815714e-01 -2.498391e+00 5.488963e+00 5.448117e-01 -4.058993e+00 5.592828e+01 6.096054e-02 5.272252e-02 2.245685e-02 -2.037079e-02 1.261904e-02 2.761401e-02 1.925609e-02 1.182312e-02 1.381882e-02 -3.517251e-03 -9.737603e-03 -1.439902e-02 -8.067711e-02 1.881125e-03 -1.187464e-02 -1.844816e-02 -1.443935e-02 -1.232198e-02 -2.495559e-02 -3.345814e-02 -8.590965e-03 -3.701503e-03 -1.569585e-02 4.665057e-04 1.283287e-02 4.180992e-03
<VARIANCE> 39
 2.375517e+01 1.217801e+01 1.034918e+01 1.561525e+01 1.562089e+01 1.702753e+01 2.245345e+01 1.843339e+01 1.986516e+01 2.014045e+01 1.712052e+01 1.421668e+01 1.796456e+01 4.037332e-01 5.095202e-01 5.926369e-01 8.722269e-01 1.091224e+00 1.257803e+00 1.569362e+00 1.502660e+00 1.563542e+00 1.684033e+00 1.438823e+00 1.273438e+00 2.478967e-01 7.131068e-02 9.628139e-02 1.120711e-01 1.695797e-01 2.125277e-01 2.477337e-01 3.043855e-01 3.005168e-01 3.179035e-01 3.400331e-01 2.892030e-01 2.568755e-01 4.082888e-02
<GCONST> 8.522310e+01
<MIXTURE> 2 2.178369e-01
<MEAN> 39
 -1.571765e+01 -4.862211e+00 -2.986873e+00 -1.788656e+00 -2.799932e+00 -4.008150e+00 8.517305e-01 -1.524513e+00 -1.937041e+00 1.882686e+00 5.391774e-01 -1.041794e+00 5.920419e+01 -9.116887e-02 -1.853505e-01 -5.539288e-02 5.165276e-02 -3.201729e-03 -8.942330e-02 -5.883742e-02 1.317327e-03 -1.595948e-02 -2.064035e-02 2.691794e-02 6.132113e-02 1.784970e-01 3.581900e-03 3.915564e-02 5.874165e-02 4.618248e-02 4.760889e-02 8.919170e-02 1.074754e-01 2.984683e-02 1.693602e-02 4.750960e-02 1.248229e-03 -4.135866e-02 -1.759000e-02
<VARIANCE> 39
 4.587563e+01 5.675341e+01 2.226764e+01 1.941539e+01 2.252904e+01 2.498736e+01 3.298122e+01 2.581770e+01 2.155344e+01 2.307846e+01 1.768346e+01 1.669724e+01 7.334317e+01 7.536473e-01 1.811964e+00 1.105536e+00 1.151034e+00 1.364848e+00 1.605657e+00 2.107994e+00 1.736239e+00 1.669671e+00 1.816955e+00 1.477076e+00 1.406447e+00 1.583121e+00 1.095546e-01 2.900279e-01 1.997278e-01 2.136879e-01 2.694272e-01 3.052257e-01 3.887477e-01 3.500253e-01 3.307665e-01 3.536711e-01 2.956847e-01 2.793521e-01 2.236863e-01
<GCONST> 1.025857e+02
<TRANSP> 5
 0.000000e+00 1.000000e+00 0.000000e+00 0.000000e+00 0.000000e+00
 0.000000e+00 9.940580e-01 5.942072e-03 0.000000e+00 0.000000e+00
 0.000000e+00 0.000000e+00 9.730575e-01 2.694252e-02 0.000000e+00
 0.000000e+00 0.000000e+00 0.000000e+00 9.908689e-01 9.131121e-03
 0.000000e+00 0.000000e+00 0.000000e+00 0.000000e+00 0.000000e+00
<ENDHMM>
~h "kn"
<BEGINHMM>
<NUMSTATES> 5
<STATE> 2
<NUMMIXES> 2
<MIXTURE> 1 3.789757e-01
<MEAN> 39
 2.364467e+00 -1.143223e+00 -6.058097e+00 -3.232326e+00 8.174411e-01 -2.189432e+00 -1.820830e-01 -1.923616e+00 1.486098e+00 -2.581210e-01 4.428063e-01 -8.268945e-01 6.015472e+01 4.283819e-01 -7.558952e-02 -4.513214e-01 1.698623e-01 2.016966e-01 -3.559408e-01 2.988375e-01 -3.952119e-01 8.057051e-01 3.831223e-01 5.088824e-01 3.292495e-01 2.488215e+00 -1.989466e-01 2.457746e-01 2.603112e-01 1.023960e-01 1.039689e-01 2.911795e-01 1.883409e-01 1.926108e-01 -3.311196e-02 7.102381e-02 3.201091e-02 2.560917e-02 -5.115151e-01
<VARIANCE> 39
 2.680307e+01 3.406873e+01 2.453156e+01 1.589074e+01 2.320607e+01 2.903973e+01 2.856933e+01 3.578225e+01 2.819948e+01 2.227421e+01 2.105113e+01 1.910214e+01 7.647700e+01 3.641248e+00 2.683110e+00 2.729108e+00 1.511114e+00 1.933958e+00 3.464735e+00 3.506968e+00 4.027279e+00 2.567595e+00 2.433248e+00 2.373595e+00 2.039025e+00 6.111555e+00 4.530481e-01 3.093418e-01 3.405935e-01 2.258760e-01 2.946449e-01 4.692043e-01 4.790542e-01 6.166509e-01 4.894604e-01 4.184535e-01 4.049574e-01 3.440937e-01 1.053967e+00
<GCONST> 1.169127e+02
<MIXTURE> 2 6.210304e-01
<MEAN> 39
 7.132860e-01 4.977215e+00 -9.264302e-01 -2.525195e+00 2.306327e+00 1.366615e+00 1.130858e+00 -3.191016e-01 -8.304042e-02 8.195400e-01 6.159362e-01 -8.051226e-01 5.307758e+01 -1.475927e-01 7.639322e-02 1.777777e-01 7.679579e-02 5.957646e-02 1.161156e-01 3.059867e-02 1.641643e-02 -1.088358e-01 -4.488523e-02 -7.077578e-02 -4.543252e-02 -3.296176e-01 1.023629e-01 -8.719300e-02 -1.134623e-01 -2.875273e-02 -3.211161e-02 -9.258925e-02 -1.019257e-01 -6.268127e-02 -3.343558e-02 -6.304142e-02 -2.838396e-02 -1.355161e-02 3.971941e-02
<VARIANCE> 39
 3.011571e+01 1.773401e+01 2.096006e+01 1.164336e+01 2.228609e+01 2.087057e+01 2.776432e+01 3.283395e+01 2.187413e+01 1.979605e+01 2.282391e+01 1.631376e+01 7.356934e+01 3.520434e-01 3.752217e-01 6.528945e-01 8.001975e-01 1.048569e+00 1.249212e+00 1.460624e+00 1.734063e+00 1.465623e+00 1.557854e+00 1.461466e+00 1.245172e+00 2.421261e-01 1.145460e-01 9.282979e-02 1.465661e-01 1.622422e-01 2.165764e-01 2.710318e-01 3.210767e-01 3.508326e-01 3.180777e-01 3.182519e-01 3.028300e-01 2.545978e-01 1.557019e-01
<GCONST> 9.121881e+01
<STATE> 3
<NUMMIXES> 2
<MIXTURE> 1 7.127420e-01
<MEAN> 39
 5.479640e+00 -1.080939e+00 -4.024261e+00 4.409357e-01 4.032929e+00 -4.374070e-01 1.865515e+00 -1.543237e+00 1.632679e+00 5.960500e-01 1.405827e+00 2.570566e-01 6.034943e+01 7.354976e-02 2.325301e-01 2.457413e-01 2.329799e-01 2.173892e-01 2.771532e-01 3.944149e-02 1.226205e-01 -1.586710e-01 3.166486e-02 -1.858510e-02 1.565335e-03 -7.537090e-01 3.838519e-03 -5.969201e-02 -1.651179e-02 -4.536365e-02 -4.213218e-02 -5.246587e-02 -5.163164e-02 -3.377502e-02 -3.717034e-02 -5.206997e-02 -4.114882e-02 -4.336135e-02 1.517937e-02
<VARIANCE> 39
 1.146445e+01 2.063154e+01 1.390117e+01 1.411780e+01 1.872955e+01 2.187989e+01 2.121298e+01 1.928160e+01 2.013346e+01 1.889194e+01 1.628373e+01 1.562202e+01 2.436833e+01 2.010287e-01 3.251060e-01 4.711533e-01 7.216598e-01 9.315235e-01 1.099265e+00 1.307865e+00 1.433048e+00 1.425683e+00 1.425256e+00 1.316587e+00 1.219091e+00 6.976761e-02 3.822598e-02 7.639102e-02 1.069006e-01 1.591902e-01 2.008065e-01 2.410667e-01 2.873080e-01 3.045488e-01 3.105403e-01 3.059501e-01 2.809261e-01 2.579738e-01 7.990585e-02
<GCONST> 8.161106e+01
<MIXTURE> 2 2.872853e-01
<MEAN> 39
 5.551616e+00 -2.710458e+00 -4.434223e+00 -6.544419e-01 2.899806e+00 -1.688496e+00 7.792993e-01 -2.033561e+00 1.085391e+00 -2.935704e-01 7.026554e-01 -5.255255e-01 6.090456e+01 4.675349e-03 -5.737566e-01 -4.890890e-01 -4.080502e-01 -4.245196e-01 -5.903646e-01 -5.066226e-02 -2.273743e-01 2.673765e-01 -8.097766e-02 2.549374e-02 5.724045e-03 1.478938e+00 -1.745844e-02 1.353700e-01 3.942552e-02 9.602638e-02 9.001205e-02 1.231983e-01 1.046889e-01 7.887559e-02 6.067191e-02 1.122053e-01 8.231943e-02 8.671688e-02 -6.623123e-02
<VARIANCE> 39
 1.196249e+01 2.899884e+01 1.858995e+01 1.781588e+01 2.398364e+01 3.111561e+01 2.579786e+01 2.611109e+01 2.359762e+01 2.265084e+01 1.864804e+01 1.747182e+01 4.319763e+01 8.828170e-01 1.840507e+00 1.260481e+00 1.441773e+00 1.789549e+00 2.395631e+00 2.316625e+00 2.498687e+00 2.158988e+00 2.208094e+00 2.029777e+00 1.725975e+00 2.667927e+00 1.514353e-01 3.756391e-01 2.678024e-01 2.919926e-01 3.501647e-01 5.099584e-01 4.240971e-01 5.017800e-01 4.256750e-01 4.163337e-01 3.863056e-01 3.302348e-01 8.838524e-01
<GCONST> 1.077829e+02
<STATE> 4
<NUMMIXES> 2
<MIXTURE> 1 5.385329e-01
<MEAN> 39
 5.605161e+00 1.569763e-01 -2.310521e+00 2.046654e+00 5.684086e+00 1.911510e+00 2.716992e+00 -8.660021e-02 -1.255850e-01 4.934120e-01 1.273099e+00 -3.950202e-02 5.435930e+01 -1.452421e-01 2.618038e-01 2.374876e-01 3.728237e-02 9.797625e-02 3.103175e-01 -5.344719e-02 2.302030e-01 -6.862669e-02 4.659409e-02 7.996539e-03 -7.447577e-02 -5.938510e-01 -2.185326e-02 1.494772e-02 2.581925e-02 -1.141601e-02 -6.077598e-03 1.691056e-02 2.247688e-02 3.900228e-02 4.841141e-02 1.476461e-02 -1.177546e-03 -1.262419e-02 3.196169e-02
<VARIANCE> 39
 5.509859e+00 1.040784e+01 1.153596e+01 1.168640e+01 2.120595e+01 2.228930e+01 2.432246e+01 2.002470e+01 2.272115e+01 2.189155e+01 1.818546e+01 1.657385e+01 1.356072e+01 1.280792e-01 2.574742e-01 4.323426e-01 5.837168e-01 8.308232e-01 1.001649e+00 1.198885e+00 1.305039e+00 1.370393e+00 1.380734e+00 1.290033e+00 1.178575e+00 4.892324e-02 1.701619e-02 4.104535e-02 8.361145e-02 1.215302e-01 1.724300e-01 2.078177e-01 2.459237e-01 2.671353e-01 2.827401e-01 2.805318e-01 2.640528e-01 2.399928e-01 4.924111e-03
<GCONST> 7.250218e+01
<MIXTURE> 2 4.614564e-01
<MEAN> 39
 7.681234e-01 4.006399e+00 1.806488e+00 -3.531357e-01 3.984989e+00 3.907161e+00 1.110484e+00 2.314903e+00 -6.455528e-01 -1.630274e-01 -4.250011e-01 -1.928978e+00 4.854140e+01 -2.940773e-01 8.284991e-03 1.472635e-01 -8.792949e-02 -1.431291e-01 4.079103e-02 1.839673e-02 7.633947e-02 -4.147672e-02 -8.462914e-02 -6.881454e-02 -4.511820e-02 -2.232249e-01 1.086812e-02 -3.390273e-02 -4.367812e-02 -9.187832e-03 -2.112218e-02 -4.102403e-02 -2.030370e-02 -5.175798e-02 -2.418188e-02 -6.869514e-03 1.766048e-02 2.293661e-02 2.308511e-02
<VARIANCE> 39
 2.036300e+01 1.548510e+01 1.298696e+01 1.324223e+01 2.338834e+01 1.800123e+01 2.228762e+01 1.813587e+01 2.054034e+01 2.059479e+01 1.557024e+01 1.496250e+01 1.982438e+01 1.603587e-01 2.993466e-01 4.801833e-01 6.901956e-01 9.339492e-01 1.106207e+00 1.285766e+00 1.353981e+00 1.394058e+00 1.523954e+00 1.434777e+00 1.283515e+00 8.182279e-02 2.439413e-02 4.958716e-02 8.133114e-02 1.279799e-01 1.720767e-01 2.065921e-01 2.448007e-01 2.526965e-01 2.637814e-01 2.971640e-01 2.716145e-01 2.447148e-01 9.649481e-03
<GCONST> 7.711486e+01
<TRANSP> 5
 0.000000e+00 1.000000e+00 0.000000e+00 0.000000e+00 0.000000e+00
 0.000000e+00 9.281862e-01 7.181376e-02 0.000000e+00 0.000000e+00
 0.000000e+00 0.000000e+00 9.843732e-01 1.562689e-02 0.000000e+00
 0.000000e+00 0.000000e+00 0.000000e+00 9.490162e-01 5.098385e-02
 0.000000e+00 0.000000e+00 0.000000e+00 0.000000e+00 0.000000e+00
<ENDHMM>
~h "kt"
<BEGINHMM>
<NUMSTATES> 5
<STATE> 2
<NUMMIXES> 2
<MIXTURE> 1 4.550396e-01
<MEAN> 39
 -1.435615e+01 -2.891886e-01 -7.528041e+00 -3.057696e+00 -1.094381e+00 -1.600877e+00 3.865605e+00 1.972379e+00 2.809767e+00 7.496315e-01 1.095408e+00 -6.760999e-01 5.884254e+01 2.132810e-01 -3.646817e-02 1.548042e-01 1.697036e-01 2.025899e-01 1.603662e-01 2.219427e-01 1.304785e-01 1.371429e-01 5.874240e-02 1.095737e-01 4.455932e-02 -1.146714e-01 2.459498e-01 -5.296734e-04 3.376288e-02 5.353121e-02 1.751332e-01 2.661363e-01 2.418896e-01 5.489567e-02 -4.542014e-02 -7.842700e-03 -1.475695e-03 -3.437776e-02 -2.670015e-01
<VARIANCE> 39
 1.387540e+01 7.947548e+00 9.718390e+00 1.411686e+01 1.481408e+01 1.460394e+01 1.804741e+01 1.865944e+01 2.019957e+01 1.733955e+01 1.699301e+01 1.498201e+01 2.157345e+01 8.904790e-01 4.271776e-01 6.259339e-01 9.007995e-01 1.211605e+00 1.531337e+00 1.645596e+00 1.551730e+00 1.691306e+00 1.617190e+00 1.488959e+00 1.307353e+00 1.351608e+00 2.009220e-01 9.773597e-02 1.436859e-01 2.078869e-01 2.485030e-01 2.796325e-01 3.184263e-01 3.357877e-01 3.682447e-01 3.575055e-01 3.266417e-01 2.781379e-01 2.318237e-01
<GCONST> 9.072581e+01
<MIXTURE> 2 5.449775e-01
<MEAN> 39
 -9.601924e+00 -2.209812e-01 -7.236418e+00 -2.397481e+00 1.069484e+00 2.973114e+00 7.014318e+00 2.621429e+00 1.540163e+00 4.600858e-01 9.856444e-01 -1.670406e+00 5.338259e+01 -1.917908e-01 3.840768e-02 -1.370535e-01 -1.333783e-01 -1.704743e-01 -1.436679e-01 -1.882673e-01 -1.115721e-01 -1.146532e-01 -5.374186e-02 -9.074099e-02 -4.010942e-02 1.208582e-01 -2.070999e-01 1.450045e-03 -2.586585e-02 -4.324712e-02 -1.454332e-01 -2.254383e-01 -2.035012e-01 -4.634255e-02 3.713105e-02 6.098486e-03 5.322885e-04 2.941112e-02 2.239817e-01
<VARIANCE> 39
 1.049745e+01 7.441194e+00 7.162921e+00 8.863043e+00 9.807141e+00 1.211835e+01 1.281459e+01 1.401131e+01 1.452608e+01 1.350999e+01 1.345663e+01 1.243152e+01 9.699856e+00 1.294911e+00 5.408517e-01 6.654309e-01 9.262034e-01 1.161459e+00 1.503936e+00 1.563827e+00 1.557134e+00 1.638402e+00 1.569249e+00 1.499540e+00 1.320185e+00 1.224682e+00 1.479611e-01 9.363770e-02 1.224654e-01 1.645476e-01 1.995229e-01 2.336967e-01 2.609823e-01 3.009646e-01 3.140115e-01 3.055879e-01 2.895447e-01 2.553476e-01 1.345598e-01
<GCONST> 8.451580e+01
<STATE> 3
<NUMMIXES> 2
<MIXTURE> 1 6.292861e-01
<MEAN> 39
 -1.234171e+01 1.499494e+00 -4.362742e+00 -2.318045e-01 8.553128e-01 -1.730314e+00 3.150378e+00 1.476492e+00 1.772204e+00 -8.411933e-01 6.933254e-03 -1.330015e+00 5.426402e+01 4.797065e-01 2.689014e-02 8.839677e-02 1.962732e-02 1.726087e-01 1.532648e-01 1.985602e-01 3.361478e-02 3.548893e-03 5.044308e-02 6.365506e-02 4.221820e-02 -7.379360e-01 -7.078481e-02 3.383781e-02 -4.322407e-02 -3.788690e-03 -5.906295e-02 -2.420650e-02 -4.517075e-02 3.181280e-02 -2.454930e-02 3.873979e-03 -7.894433e-03 -8.876638e-03 2.704926e-02
<VARIANCE> 39
 6.904562e+00 7.333947e+00 9.351455e+00 1.166507e+01 1.303725e+01 1.460488e+01 1.723325e+01 1.660092e+01 1.774475e+01 1.718471e+01 1.570715e+01 1.355727e+01 1.894313e+01 1.897733e-01 2.948513e-01 5.086666e-01 7.290314e-01 9.557382e-01 1.135785e+00 1.275299e+00 1.361613e+00 1.429896e+00 1.432322e+00 1.336951e+00 1.191927e+00 1.330031e-01 7.851161e-02 6.906614e-02 1.138800e-01 1.621470e-01 2.145422e-01 2.482572e-01 2.818796e-01 2.951232e-01 3.135213e-01 3.135364e-01 2.890341e-01 2.563596e-01 1.196680e-01
<GCONST> 7.947289e+01
<MIXTURE> 2 3.707228e-01
<MEAN> 39
 -1.354936e+01 1.900300e+00 -4.866152e+00 -3.051448e-01 -2.145524e-01 -2.119172e+00 2.222517e+00 2.014330e+00 1.500553e+00 -8.722149e-01 -2.095198e-01 -1.621627e+00 5.490605e+01 -7.898788e-01 -3.008518e-02 -1.554326e-01 -1.547172e-02 -2.538140e-01 -2.639951e-01 -3.094507e-01 -7.737038e-02 -6.951124e-03 -1.005647e-01 -1.112874e-01 -7.714932e-02 1.214823e+00 1.464825e-01 -5.947680e-02 7.859781e-02 6.324355e-04 1.055717e-01 6.119834e-02 8.807380e-02 -4.327346e-02 4.701311e-02 4.156779e-03 1.859192e-02 1.643421e-02 -8.396403e-02
<VARIANCE> 39
 1.463858e+01 1.134539e+01 1.304011e+01 1.600159e+01 1.723988e+01 1.906719e+01 2.107110e+01 2.007202e+01 2.108168e+01 1.958741e+01 1.839717e+01 1.547167e+01 3.162780e+01 1.215791e+00 8.213263e-01 1.100509e+00 1.421361e+00 1.807401e+00 1.900074e+00 2.049971e+00 2.070662e+00 2.210804e+00 2.093081e+00 1.905019e+00 1.637447e+00 1.666851e+00 3.347063e-01 1.365366e-01 1.995154e-01 2.566497e-01 3.333215e-01 3.677503e-01 3.978609e-01 3.877745e-01 4.045483e-01 3.952281e-01 3.634095e-01 3.155511e-01 5.925973e-01
<GCONST> 1.008596e+02
<STATE> 4
<NUMMIXES> 2
<MIXTURE> 1 6.889549e-01
<MEAN> 39
 -9.633085e+00 2.761721e+00 -2.698462e+00 -7.170969e-01 7.070622e-01 4.561189e-01 3.409446e+00 3.100166e+00 2.358297e+00 -1.147824e-01 2.077415e-01 -1.736884e+00 4.864143e+01 3.128816e-01 -6.646290e-02 1.615644e-01 -2.558973e-02 5.451554e-02 1.299939e-01 8.328462e-02 9.233673e-02 9.930977e-03 5.502558e-02 2.144306e-02 1.494148e-02 -3.518739e-01 -5.649092e-02 2.027270e-02 -3.264295e-02 7.663878e-03 -3.664104e-02 -1.626628e-02 -4.360151e-02 1.125763e-03 -2.033145e-02 -2.320028e-03 -3.390722e-03 -8.365159e-03 4.412927e-02
<VARIANCE> 39
 9.140903e+00 8.087292e+00 1.167951e+01 1.158507e+01 1.599076e+01 1.591109e+01 1.931872e+01 1.660949e+01 1.666978e+01 1.660888e+01 1.417080e+01 1.225125e+01 1.060724e+01 2.476044e-01 3.273181e-01 4.947939e-01 6.981881e-01 9.315892e-01 1.098041e+00 1.275163e+00 1.348814e+00 1.409874e+00 1.405792e+00 1.301938e+00 1.148825e+00 1.514445e-01 5.967632e-02 6.766160e-02 1.048875e-01 1.431414e-01 1.886109e-01 2.247388e-01 2.589069e-01 2.756743e-01 2.895894e-01 2.890553e-01 2.671088e-01 2.352511e-01 3.317890e-02
<GCONST> 7.736325e+01
<MIXTURE> 2 3.111203e-01
<MEAN> 39
 -1.144014e+01 3.107402e+00 -3.627292e+00 -3.905827e-01 -1.751317e-01 -3.737740e-01 2.421749e+00 2.899910e+00 2.032524e+00 -3.300649e-01 1.551240e-01 -1.973723e+00 5.042585e+01 -6.409063e-01 1.305597e-01 -3.320848e-01 2.815091e-02 -1.206201e-01 -2.595527e-01 -1.746718e-01 -1.859104e-01 -2.186292e-02 -1.086564e-01 -4.132020e-02 -3.152617e-02 7.214823e-01 1.203456e-01 -4.735773e-02 7.039303e-02 -1.621464e-02 7.885017e-02 2.964565e-02 8.910149e-02 -7.758285e-03 4.300823e-02 3.864825e-03 7.435044e-03 1.986593e-02 -9.017776e-02
<VARIANCE> 39
 1.498809e+01 1.298706e+01 1.409762e+01 1.581472e+01 1.892786e+01 1.977070e+01 2.153695e+01 2.014797e+01 2.016968e+01 1.911291e+01 1.655717e+01 1.476501e+01 1.989913e+01 1.209954e+00 8.745854e-01 9.689471e-01 1.247824e+00 1.524467e+00 1.636146e+00 1.765476e+00 1.781208e+00 1.816977e+00 1.771926e+00 1.591043e+00 1.445906e+00 1.332050e+00 3.027032e-01 1.597031e-01 2.021494e-01 2.439452e-01 2.919198e-01 3.341511e-01 3.517981e-01 3.649176e-01 3.641762e-01 3.592163e-01 3.185267e-01 2.908750e-01 3.647548e-01
<GCONST> 9.755196e+01
<TRANSP> 5
 0.000000e+00 1.000000e+00 0.000000e+00 0.000000e+00 0.000000e+00
 0.000000e+00 9.892851e-01 1.071493e-02 0.000000e+00 0.000000e+00
 0.000000e+00 0.000000e+00 9.892451e-01 1.075494e-02 0.000000e+00
 0.000000e+00 0.000000e+00 0.000000e+00 9.930329e-01 6.967133e-03
 0.000000e+00 0.000000e+00 0.000000e+00 0.000000e+00 0.000000e+00
<ENDHMM>
~h "pr"
<BEGINHMM>
<NUMSTATES> 5
<STATE> 2
<NUMMIXES> 2
<MIXTURE> 1 7.870067e-01
<MEAN> 39
 -1.375189e+01 -9.629024e+00 -9.037309e-01 -6.392281e+00 3.040454e-01 2.452774e+00 7.104039e+00 2.690977e+00 5.963043e-01 -1.104592e+00 2.650242e+00 -1.120619e+00 5.832528e+01 1.444609e-01 9.892296e-02 2.221265e-02 3.362684e-02 -2.493109e-02 2.280786e-02 7.473415e-03 3.287370e-02 1.632833e-02 5.502659e-03 -1.143379e-02 -1.792151e-02 -1.811450e-01 -1.924282e-03 -5.644963e-04 2.071864e-03 -2.393343e-03 1.597287e-03 3.631990e-03 -9.989788e-03 4.459033e-03 1.810864e-04 4.119352e-03 -4.273452e-03 -6.776897e-03 6.294805e-04
<VARIANCE> 39
 2.578172e+01 3.817042e+01 4.832227e+01 4.203830e+01 7.994447e+01 7.534702e+01 7.367010e+01 6.361052e+01 6.292763e+01 4.918204e+01 6.298725e+01 5.002306e+01 2.534283e+01 1.861941e-01 3.821831e-01 5.832382e-01 8.264009e-01 1.044098e+00 1.331626e+00 1.457473e+00 1.599337e+00 1.685342e+00 1.562396e+00 1.479509e+00 1.310327e+00 9.244870e-02 3.075816e-02 6.638660e-02 1.100804e-01 1.572013e-01 2.033035e-01 2.602693e-01 2.910759e-01 3.104836e-01 3.334359e-01 3.159936e-01 2.995155e-01 2.629771e-01 1.447758e-02
<GCONST> 9.509862e+01
<MIXTURE> 2 2.131394e-01
<MEAN> 39
 -1.528650e+01 -9.266556e+00 -9.667894e-01 -7.528575e+00 3.628478e+00 4.904276e+00 3.826814e+00 9.734040e-01 8.074537e-03 -2.131878e+00 3.698982e+00 3.683408e-01 5.897943e+01 -5.705180e-01 -3.616593e-01 -5.702735e-02 -1.471856e-01 8.425619e-02 -4.154492e-02 9.959143e-03 -1.540951e-01 -2.412652e-02 -4.586255e-02 2.353403e-02 1.522195e-01 6.936621e-01 3.917331e-02 1.480535e-02 -7.097184e-03 1.833620e-02 -1.941361e-02 -1.279454e-02 2.586551e-02 -7.798787e-03 3.221904e-03 -9.112543e-03 1.074616e-02 1.505915e-02 -3.273746e-02
<VARIANCE> 39
 2.999693e+01 4.198119e+01 5.358112e+01 4.149463e+01 7.068922e+01 8.819639e+01 6.616898e+01 6.269478e+01 5.842848e+01 4.110699e+01 6.204316e+01 5.433640e+01 2.515080e+01 1.376955e+00 1.359057e+00 1.865487e+00 2.314230e+00 2.490721e+00 3.018705e+00 3.128222e+00 3.629351e+00 3.478532e+00 3.049535e+00 3.396264e+00 3.070800e+00 8.883647e-01 2.460351e-01 2.276469e-01 2.809949e-01 3.546885e-01 3.979912e-01 4.736235e-01 5.249922e-01 5.607473e-01 5.690379e-01 4.927551e-01 5.492377e-01 4.842860e-01 1.974126e-01
<GCONST> 1.215485e+02
<STATE> 3
<NUMMIXES> 2
<MIXTURE> 1 6.213377e-01
<MEAN> 39
 -2.196358e+01 4.877254e+00 1.625694e+01 -1.429818e+01 5.011362e-01 1.496237e+01 -5.148266e+00 -5.311122e+00 1.485816e+01 -7.358009e+00 -6.478790e+00 8.251281e+00 5.520152e+01 1.965003e-02 -4.001446e-02 4.472402e-03 -2.814867e-02 1.173381e-02 -8.135409e-03 -8.047608e-03 2.990502e-03 3.976476e-02 1.680737e-02 -3.509644e-02 1.756538e-02 -3.378911e-02 5.178993e-03 -1.190049e-04 -2.789888e-03 -7.260734e-03 1.839908e-02 -1.246535e-02 8.719653e-04 2.311432e-02 -1.670692e-02 8.155899e-03 4.606208e-03 -2.541769e-03 -4.702638e-03
<VARIANCE> 39
 7.605437e+00 1.256720e+01 1.030692e+01 1.436825e+01 1.621981e+01 2.040049e+01 1.566730e+01 1.905840e+01 2.192414e+01 2.007192e+01 2.265054e+01 1.400861e+01 6.150510e+00 8.168538e-01 5.705364e-01 6.010708e-01 8.657683e-01 1.386976e+00 1.403844e+00 1.189954e+00 1.508115e+00 1.708948e+00 1.749312e+00 2.097260e+00 1.088114e+00 3.308075e-01 2.078454e-01 1.169707e-01 1.225234e-01 1.812629e-01 2.940044e-01 2.940252e-01 2.444126e-01 3.163717e-01 3.623016e-01 3.318343e-01 3.949789e-01 2.193155e-01 8.218461e-02
<GCONST> 8.745220e+01
<MIXTURE> 2 3.786765e-01
<MEAN> 39
 -1.435000e+01 -6.265655e-01 1.740121e+01 -2.017691e+01 6.390931e+00 1.052760e+01 -5.572863e+00 2.516152e+00 7.684450e+00 1.882014e+00 -1.285736e+01 1.099725e+01 4.884309e+01 1.613256e-01 2.663152e-03 -7.400256e-02 9.653169e-02 2.966462e-02 -8.110545e-02 1.308147e-03 1.082204e-01 -1.401605e-01 5.968509e-02 1.767659e-02 -5.629331e-02 -9.582506e-02 -5.005013e-03 3.568517e-03 -1.121516e-02 2.272705e-02 -1.781138e-02 9.749790e-04 5.141807e-03 -1.567237e-02 4.413442e-03 -1.804792e-02 1.437870e-02 -1.273661e-02 5.532548e-03
<VARIANCE> 39
 1.402249e+01 8.626103e+00 2.741619e+01 3.230201e+01 1.948532e+01 2.386223e+01 1.943663e+01 2.505728e+01 3.135418e+01 2.549102e+01 2.819575e+01 2.140131e+01 9.148949e+00 1.396976e-01 2.659257e-01 4.505784e-01 7.887937e-01 9.300781e-01 1.048153e+00 1.114266e+00 1.278429e+00 1.409777e+00 1.343741e+00 1.196075e+00 1.074423e+00 5.054596e-02 2.521137e-02 4.714349e-02 7.879535e-02 1.393598e-01 1.763499e-01 2.014688e-01 2.200101e-01 2.499253e-01 2.735052e-01 2.620553e-01 2.303536e-01 2.076054e-01 8.305284e-03
<GCONST> 7.684361e+01
<STATE> 4
<NUMMIXES> 2
<MIXTURE> 1 2.938891e-01
<MEAN> 39
 -1.894783e+01 1.173519e+00 1.302658e+01 -1.423751e+01 3.191193e+00 9.951403e+00 -3.812593e+00 -4.763412e-01 1.139017e+01 -3.930261e+00 -7.168832e+00 8.676146e+00 5.290110e+01 -1.554160e-02 -3.283709e-02 2.874912e-02 -5.568381e-02 -4.045140e-02 4.092428e-02 -1.440678e-02 -7.642523e-02 2.142428e-02 3.799647e-02 -6.818439e-03 -5.023535e-03 5.895114e-02 9.569163e-03 2.832762e-03 -4.124707e-04 1.654966e-02 2.827379e-02 -2.085065e-03 3.376400e-02 3.255534e-02 -6.434374e-03 1.598892e-02 -1.284983e-04 4.805956e-03 -1.002817e-02
<VARIANCE> 39
 2.643321e+01 2.731010e+01 3.111382e+01 3.879962e+01 2.903733e+01 9.237949e+01 2.017800e+01 4.659808e+01 5.734637e+01 3.675368e+01 3.795989e+01 2.260191e+01 1.733801e+01 9.425270e-01 5.254396e-01 9.202814e-01 1.164958e+00 1.444902e+00 1.672354e+00 1.428171e+00 1.866450e+00 1.899801e+00 1.848551e+00 2.015499e+00 1.516176e+00 4.380503e-01 1.863808e-01 1.042020e-01 1.621296e-01 2.244448e-01 2.905590e-01 3.260946e-01 2.867776e-01 3.652555e-01 3.814384e-01 3.614224e-01 3.801347e-01 2.843040e-01 8.294232e-02
<GCONST> 1.015703e+02
<MIXTURE> 2 7.061555e-01
<MEAN> 39
 -1.349893e+01 -3.315824e+00 3.974234e+00 -4.284835e+00 8.063464e+00 -4.514133e+00 3.808675e-01 9.067300e+00 1.496813e+00 -2.139600e+00 -4.177506e+00 5.753746e+00 5.140311e+01 4.913713e-02 5.003333e-02 -4.591945e-02 4.837892e-02 -8.151624e-03 -3.375437e-02 2.275784e-02 2.968289e-02 -1.481549e-02 -5.277901e-03 1.498046e-02 -2.575394e-02 -6.696501e-02 -5.135782e-03 -1.881916e-03 1.151631e-03 -9.560574e-03 -1.155670e-02 3.116851e-03 -1.375099e-02 -1.361974e-02 4.292763e-03 -4.420820e-03 -1.376652e-03 -2.190772e-03 4.595256e-03
<VARIANCE> 39
 5.266138e+01 4.477237e+01 1.893523e+01 3.398643e+01 3.826185e+01 7.541292e+01 2.301795e+01 3.918459e+01 2.053654e+01 3.277277e+01 3.888559e+01 5.570123e+01 5.406271e+01 1.595421e-01 2.844055e-01 4.861142e-01 7.473947e-01 9.747002e-01 1.250728e+00 1.369270e+00 1.339744e+00 1.423778e+00 1.570406e+00 1.310617e+00 1.155505e+00 6.862221e-02 2.804268e-02 5.291807e-02 9.277232e-02 1.413130e-01 1.906808e-01 2.423036e-01 2.719155e-01 2.620090e-01 2.792109e-01 3.085977e-01 2.588353e-01 2.278656e-01 9.971846e-03
<GCONST> 8.765052e+01
<TRANSP> 5
 0.000000e+00 1.000000e+00 0.000000e+00 0.000000e+00 0.000000e+00
 0.000000e+00 9.944094e-01 5.590645e-03 0.000000e+00 0.000000e+00
 0.000000e+00 0.000000e+00 9.852332e-01 1.476680e-02 0.000000e+00
 0.000000e+00 0.000000e+00 0.000000e+00 9.918978e-01 8.102147e-03
 0.000000e+00 0.000000e+00 0.000000e+00 0.000000e+00 0.000000e+00
<ENDHMM>
~h "pw"
<BEGINHMM>
<NUMSTATES> 5
<STATE> 2
<NUMMIXES> 2
<MIXTURE> 1 7.145683e-01
<MEAN> 39
 -1.259852e+01 -2.032718e+00 -1.066986e+00 -1.205820e+00 1.706379e+00 -5.883763e-01 2.722643e+00 1.373578e+00 1.058648e+00 9.830462e-01 5.480345e-01 -5.546063e-01 5.266431e+01 1.109299e-01 2.036593e-01 3.586999e-02 1.726353e-02 2.518453e-02 7.082542e-02 6.812084e-02 1.014304e-01 2.844074e-02 2.207172e-02 -1.545484e-03 -4.406920e-03 -2.508524e-01 -2.614651e-02 -1.627466e-02 -9.695825e-03 -1.483554e-02 -2.775433e-02 -3.154078e-02 -3.360447e-02 -2.444133e-02 -2.391908e-02 -1.109762e-02 -3.853532e-03 -3.314919e-03 2.829669e-02
<VARIANCE> 39
 1.545397e+01 2.234483e+01 1.119282e+01 1.149236e+01 1.363116e+01 1.580732e+01 1.854217e+01 1.889753e+01 1.728339e+01 1.489448e+01 1.386783e+01 1.254729e+01 2.337241e+01 3.007447e-01 4.197230e-01 5.248646e-01 7.312794e-01 9.464679e-01 1.125764e+00 1.282989e+00 1.375681e+00 1.408579e+00 1.368073e+00 1.293709e+00 1.156139e+00 1.996067e-01 4.746633e-02 7.726911e-02 1.019072e-01 1.434020e-01 1.869393e-01 2.244542e-01 2.583912e-01 2.762319e-01 2.867176e-01 2.786376e-01 2.634281e-01 2.367038e-01 2.609775e-02
<GCONST> 7.993067e+01
<MIXTURE> 2 2.856326e-01
<MEAN> 39
 -1.437542e+01 -5.515852e+00 -2.300642e+00 -2.123240e+00 4.485247e-01 -2.748377e+00 9.510740e-01 -7.426689e-01 -5.150337e-02 3.217795e-01 4.757218e-01 -5.539135e-01 5.786889e+01 -2.882546e-01 -5.266522e-01 -8.398356e-02 -4.433731e-02 -6.558898e-02 -1.937229e-01 -1.752121e-01 -2.638901e-01 -7.840686e-02 -5.367185e-02 1.496187e-03 1.564951e-02 6.524739e-01 6.438996e-02 3.604913e-02 2.297486e-02 3.481506e-02 6.531949e-02 7.376417e-02 7.877546e-02 5.760676e-02 5.764126e-02 2.677471e-02 1.016546e-02 7.936664e-03 -5.999234e-02
<VARIANCE> 39
 2.355473e+01 3.265871e+01 1.666850e+01 1.681408e+01 1.923979e+01 2.667845e+01 2.498879e+01 2.786469e+01 2.146298e+01 1.895222e+01 1.740929e+01 1.485308e+01 5.162967e+01 1.102912e+00 1.575230e+00 1.121463e+00 1.248889e+00 1.545008e+00 1.801883e+00 1.893053e+00 1.975023e+00 1.861040e+00 1.720091e+00 1.594506e+00 1.422924e+00 2.205294e+00 1.994301e-01 3.039796e-01 2.063644e-01 2.410992e-01 3.011813e-01 3.564748e-01 3.755493e-01 4.003015e-01 3.750477e-01 3.545038e-01 3.281904e-01 2.888519e-01 4.150173e-01
<GCONST> 1.030747e+02
<STATE> 3
<NUMMIXES> 2
<MIXTURE> 1 7.534582e-01
<MEAN> 39
 -9.735347e+00 -7.885774e+00 -4.450625e+00 -2.984584e+00 -3.374945e-02 -6.106722e+00 -2.317263e+00 -5.357656e+00 -3.147411e+00 -1.434333e+00 -3.563002e-01 -2.312473e-01 6.213956e+01 1.434181e-01 2.556603e-01 8.998825e-02 1.283433e-01 1.569176e-01 1.973896e-01 1.369368e-01 1.615852e-01 2.297599e-02 4.660231e-02 2.004618e-02 4.185298e-02 -7.812942e-01 -2.656221e-02 1.653688e-02 2.039427e-02 1.851033e-03 -6.145410e-03 2.104115e-02 1.233684e-02 2.929207e-02 1.070179e-02 7.761801e-03 2.560814e-03 -4.817027e-03 1.513862e-02
<VARIANCE> 39
 1.694149e+01 2.336780e+01 1.221797e+01 1.288675e+01 1.660210e+01 2.003766e+01 1.976424e+01 2.247238e+01 1.825387e+01 1.682591e+01 1.497598e+01 1.346598e+01 6.503922e+01 2.068315e-01 3.084158e-01 4.485823e-01 6.486129e-01 8.570234e-01 1.061858e+00 1.223032e+00 1.345859e+00 1.410173e+00 1.355841e+00 1.272916e+00 1.155058e+00 9.652490e-02 3.501370e-02 5.749599e-02 9.090169e-02 1.320988e-01 1.759362e-01 2.183176e-01 2.522904e-01 2.771007e-01 2.937540e-01 2.825273e-01 2.639008e-01 2.410295e-01 1.768710e-02
<GCONST> 7.911348e+01
<MIXTURE> 2 2.465540e-01
<MEAN> 39
 -1.252143e+01 -6.125225e+00 -2.956892e+00 -3.628745e+00 -1.282604e+00 -4.924687e+00 -1.320324e+00 -3.247664e+00 -1.931585e+00 -9.740687e-01 -2.365178e-01 -9.095149e-01 6.418903e+01 -3.331167e-01 -9.734308e-01 -3.575208e-01 -3.266517e-01 -4.493079e-01 -7.726641e-01 -6.319591e-01 -7.388390e-01 -2.106791e-01 -2.128828e-01 -4.946931e-02 -6.494889e-02 2.528952e+00 1.129544e-01 8.333330e-03 -4.888116e-02 9.788242e-03 6.665458e-02 1.421281e-02 4.123201e-02 -1.534287e-02 1.002900e-02 4.281331e-04 -6.009068e-03 6.832244e-03 -1.741413e-01
<VARIANCE> 39
 1.992779e+01 3.666140e+01 1.760700e+01 1.733111e+01 2.335802e+01 3.128467e+01 3.036656e+01 3.207399e+01 2.206395e+01 2.016352e+01 1.835624e+01 1.603697e+01 1.385099e+02 1.555143e+00 2.645545e+00 1.524341e+00 1.552795e+00 2.265368e+00 2.709356e+00 2.914415e+00 2.772375e+00 2.217857e+00 2.092246e+00 1.811981e+00 1.708680e+00 9.515255e+00 2.682472e-01 5.358743e-01 2.751155e-01 2.950877e-01 4.494968e-01 5.516081e-01 5.836769e-01 5.564409e-01 4.306586e-01 4.145762e-01 3.611962e-01 3.426309e-01 2.317578e+00
<GCONST> 1.153369e+02
<STATE> 4
<NUMMIXES> 2
<MIXTURE> 1 6.993297e-01
<MEAN> 39
 -1.142312e+01 -2.688600e+00 -3.173265e+00 -2.813792e+00 8.544766e-01 3.789894e-01 3.873827e+00 1.345684e+00 6.838570e-01 7.273399e-01 3.031036e-01 -1.089373e+00 5.375246e+01 1.324365e-01 1.738531e-01 -1.019086e-02 -2.636627e-03 3.884999e-02 1.209125e-01 1.116954e-01 1.064855e-01 3.927350e-02 3.264447e-02 -2.614574e-03 -1.934332e-02 -2.530786e-01 -2.933097e-02 -1.762598e-02 -4.532058e-03 -1.560311e-02 -3.112058e-02 -4.230972e-02 -4.642245e-02 -3.229257e-02 -2.851322e-02 -1.464698e-02 -3.255612e-03 -9.183663e-05 3.182370e-02
<VARIANCE> 39
 1.378706e+01 1.650655e+01 1.070087e+01 1.081694e+01 1.181476e+01 1.657397e+01 1.755896e+01 1.684514e+01 1.579718e+01 1.447987e+01 1.345855e+01 1.256639e+01 1.848520e+01 2.859339e-01 3.820163e-01 5.117438e-01 7.046469e-01 9.234005e-01 1.123280e+00 1.275682e+00 1.372676e+00 1.405548e+00 1.370244e+00 1.312209e+00 1.185798e+00 1.698534e-01 4.613081e-02 7.034510e-02 1.000297e-01 1.389135e-01 1.843365e-01 2.240755e-01 2.551157e-01 2.742125e-01 2.843330e-01 2.789785e-01 2.686201e-01 2.419873e-01 2.310652e-02
<GCONST> 7.810175e+01
<MIXTURE> 2 3.008443e-01
<MEAN> 39
 -1.419617e+01 -5.734461e+00 -3.302577e+00 -3.457079e+00 -4.798385e-01 -2.607190e+00 1.077199e+00 -9.254577e-01 -5.788289e-01 -1.064158e-01 3.287280e-01 -8.116884e-01 5.916741e+01 -2.847279e-01 -3.784539e-01 3.848273e-02 -1.168083e-03 -8.574670e-02 -2.351574e-01 -2.151180e-01 -1.903308e-01 -5.364864e-02 -6.371512e-02 7.796975e-03 3.030320e-02 5.244691e-01 7.179147e-02 3.698601e-02 7.795375e-03 3.527993e-02 6.902263e-02 9.204229e-02 1.004642e-01 6.741911e-02 6.172508e-02 3.116718e-02 6.006292e-03 1.590866e-03 -7.146048e-02
<VARIANCE> 39
 1.807255e+01 2.548439e+01 1.434069e+01 1.514700e+01 1.662549e+01 2.522468e+01 2.481295e+01 2.604829e+01 2.138078e+01 1.820318e+01 1.586786e+01 1.444151e+01 4.394936e+01 1.011788e+00 1.307750e+00 9.797283e-01 1.167300e+00 1.409589e+00 1.742153e+00 1.924061e+00 1.891263e+00 1.795230e+00 1.669069e+00 1.553709e+00 1.396301e+00 1.783830e+00 1.781764e-01 2.431534e-01 1.819299e-01 2.261600e-01 2.778075e-01 3.459423e-01 3.805462e-01 3.818919e-01 3.667514e-01 3.435883e-01 3.191194e-01 2.879024e-01 3.113969e-01
<GCONST> 9.971100e+01
<TRANSP> 5
 0.000000e+00 1.000000e+00 0.000000e+00 0.000000e+00 0.000000e+00
 0.000000e+00 9.965553e-01 3.444637e-03 0.000000e+00 0.000000e+00
 0.000000e+00 0.000000e+00 9.845930e-01 1.540695e-02 0.000000e+00
 0.000000e+00 0.000000e+00 0.000000e+00 9.960451e-01 3.954921e-03
 0.000000e+00 0.000000e+00 0.000000e+00 0.000000e+00 0.000000e+00
<ENDHMM>
~h "si"
<BEGINHMM>
<NUMSTATES> 5
<STATE> 2
<NUMMIXES> 2
<MIXTURE> 1 7.790194e-01
<MEAN> 39
 -8.075281e+00 2.352592e+00 1.376969e+00 -1.553401e+00 2.570024e+00 2.179520e+00 2.523420e+00 3.967355e+00 1.229861e+00 2.524528e-01 2.338866e-01 -1.466311e+00 4.645948e+01 2.092316e-02 3.881311e-02 -5.899039e-03 1.604040e-03 1.248429e-02 4.023159e-02 2.520048e-02 5.528680e-02 7.505891e-03 6.049329e-03 2.352134e-03 -1.244732e-02 -7.853156e-02 -9.679059e-03 -1.498738e-02 -1.540474e-02 -1.841254e-02 -2.564421e-02 -2.679502e-02 -2.169805e-02 -2.222215e-02 -9.696539e-03 -2.773104e-03 -1.606727e-03 1.379215e-03 9.649322e-03
<VARIANCE> 39
 1.897835e+01 8.236771e+00 1.096544e+01 1.220029e+01 1.411781e+01 1.519180e+01 2.186935e+01 1.791028e+01 1.724203e+01 1.531777e+01 1.412852e+01 1.250200e+01 1.609077e+01 1.544025e-01 2.634620e-01 4.262282e-01 6.332874e-01 8.355576e-01 1.027096e+00 1.186118e+00 1.275711e+00 1.319048e+00 1.325943e+00 1.237307e+00 1.086196e+00 7.189659e-02 2.491719e-02 4.775102e-02 8.131872e-02 1.225306e-01 1.625310e-01 2.006219e-01 2.353020e-01 2.524796e-01 2.640209e-01 2.669178e-01 2.485076e-01 2.182650e-01 8.876222e-03
<GCONST> 7.258388e+01
<MIXTURE> 2 2.216096e-01
<MEAN> 39
 -9.909948e+00 -8.373252e-01 1.870765e-01 -2.706085e+00 5.199999e-02 -1.139834e+00 1.182224e+00 6.232724e-01 8.529838e-01 2.183945e-01 9.915714e-02 -6.035649e-01 5.117232e+01 -7.908344e-02 -1.434617e-01 -1.766720e-02 -4.406197e-02 -7.961464e-02 -1.293880e-01 -5.096105e-02 -1.293899e-01 -5.925629e-03 1.551360e-02 4.322441e-03 2.795077e-02 1.766823e-01 3.775181e-02 5.051437e-02 4.548889e-02 5.708406e-02 8.376820e-02 9.642823e-02 7.926327e-02 8.351304e-02 3.672102e-02 1.301046e-02 6.510608e-03 -7.330373e-03 -3.560561e-02
<VARIANCE> 39
 2.738119e+01 2.464367e+01 2.262970e+01 2.269732e+01 2.942394e+01 2.623179e+01 2.828881e+01 2.986049e+01 2.478759e+01 2.318962e+01 2.291808e+01 2.051370e+01 3.278347e+01 7.392194e-01 1.019650e+00 8.980282e-01 1.108809e+00 1.388124e+00 1.599188e+00 1.686252e+00 1.835190e+00 1.699222e+00 1.659874e+00 1.556555e+00 1.327458e+00 8.657168e-01 1.199317e-01 1.773576e-01 1.667811e-01 2.156562e-01 2.669591e-01 3.123084e-01 3.320288e-01 3.678581e-01 3.474460e-01 3.397141e-01 3.180919e-01 2.738365e-01 1.359510e-01
<GCONST> 9.874097e+01
<STATE> 3
<NUMMIXES> 2
<MIXTURE> 1 4.840958e-01
<MEAN> 39
 -5.000533e+00 3.588167e-01 -1.626036e+00 -3.227664e+00 -3.498831e-01 1.368477e+00 1.895075e+00 3.811000e+00 6.138107e-01 2.695047e-01 -3.213085e-01 -2.146078e+00 4.445356e+01 5.937476e-02 1.306405e-01 1.899600e-01 2.625006e-01 3.129574e-01 3.335492e-01 3.150115e-01 2.884167e-01 2.200570e-01 1.546943e-01 9.254466e-02 3.055592e-02 5.484449e-03 1.833828e-02 3.663150e-02 5.931726e-02 8.748142e-02 1.129612e-01 1.339354e-01 1.419294e-01 1.263959e-01 1.121740e-01 8.867538e-02 5.498530e-02 2.135001e-02 1.043822e-02
<VARIANCE> 39
 3.972450e+00 9.109421e+00 1.046847e+01 9.657039e+00 1.593368e+01 1.460463e+01 1.555696e+01 1.678104e+01 1.633519e+01 1.613588e+01 1.431995e+01 1.305871e+01 7.581366e+00 1.181143e-01 2.412366e-01 4.094895e-01 5.955527e-01 7.982296e-01 9.776826e-01 1.148001e+00 1.265376e+00 1.323729e+00 1.352003e+00 1.277978e+00 1.127192e+00 3.788566e-02 2.342556e-02 5.079182e-02 8.940751e-02 1.316305e-01 1.734569e-01 2.058720e-01 2.356860e-01 2.601443e-01 2.713774e-01 2.788379e-01 2.638681e-01 2.328303e-01 6.873721e-03
<GCONST> 6.890628e+01
<MIXTURE> 2 5.154562e-01
<MEAN> 39
 -4.669151e+00 7.547429e-01 -9.300858e-01 -2.003855e+00 1.384181e+00 3.560608e+00 4.149869e+00 5.593608e+00 2.154940e+00 1.553070e+00 4.391369e-01 -1.884427e+00 4.470956e+01 -5.931292e-02 -1.151711e-01 -1.947110e-01 -2.576087e-01 -3.029825e-01 -3.086616e-01 -2.958641e-01 -2.585262e-01 -2.062653e-01 -1.432432e-01 -8.166263e-02 -3.045910e-02 -2.219421e-02 -2.242710e-02 -3.524669e-02 -5.400824e-02 -8.096504e-02 -1.059405e-01 -1.304023e-01 -1.362767e-01 -1.261512e-01 -1.075775e-01 -8.482201e-02 -5.123311e-02 -1.712922e-02 -4.816851e-03
<VARIANCE> 39
 4.153002e+00 9.695228e+00 1.022942e+01 9.234656e+00 1.469650e+01 1.397056e+01 1.536757e+01 1.628242e+01 1.589121e+01 1.548116e+01 1.370041e+01 1.252983e+01 7.865582e+00 1.272890e-01 2.487216e-01 4.122279e-01 5.950050e-01 7.969217e-01 9.800813e-01 1.143100e+00 1.262773e+00 1.321480e+00 1.347115e+00 1.268493e+00 1.117387e+00 4.447147e-02 2.354654e-02 4.876109e-02 8.302462e-02 1.226196e-01 1.642493e-01 2.001044e-01 2.313485e-01 2.557037e-01 2.656570e-01 2.718543e-01 2.574194e-01 2.270046e-01 7.495465e-03
<GCONST> 6.859465e+01
<STATE> 4
<NUMMIXES> 2
<MIXTURE> 1 8.238758e-01
<MEAN> 39
 -7.077830e+00 -1.888719e+00 -2.932755e+00 -3.446872e+00 -3.770410e-01 1.725615e+00 3.953974e+00 2.231150e+00 1.314863e+00 1.147196e+00 4.924864e-01 -1.568220e+00 5.023278e+01 3.860480e-02 4.931555e-02 -5.545900e-03 1.001562e-02 1.272533e-02 4.799339e-02 2.585899e-02 3.169598e-02 7.212477e-03 1.025759e-02 -3.609591e-03 -1.078213e-02 -8.234219e-02 -9.677804e-03 -7.566785e-03 -2.858202e-03 -7.973691e-03 -1.118195e-02 -1.547188e-02 -1.630322e-02 -1.226678e-02 -8.243089e-03 -7.358910e-03 -2.756167e-03 -3.905595e-04 1.228351e-02
<VARIANCE> 39
 1.677739e+01 1.293346e+01 1.199410e+01 1.204760e+01 1.517508e+01 1.882910e+01 1.869829e+01 1.826084e+01 1.816131e+01 1.662350e+01 1.532922e+01 1.385220e+01 1.447710e+01 1.866890e-01 3.031238e-01 4.763369e-01 6.866181e-01 9.147996e-01 1.116359e+00 1.269846e+00 1.376192e+00 1.398258e+00 1.391692e+00 1.312717e+00 1.177251e+00 1.010860e-01 2.919395e-02 5.514647e-02 9.222785e-02 1.340593e-01 1.809279e-01 2.218760e-01 2.528380e-01 2.750750e-01 2.817582e-01 2.809068e-01 2.648534e-01 2.378681e-01 1.165991e-02
<GCONST> 7.620023e+01
<MIXTURE> 2 1.768385e-01
<MEAN> 39
 -1.050983e+01 -3.328529e+00 -2.167106e+00 -3.570012e+00 -1.262388e+00 -1.531669e+00 1.839484e+00 4.971576e-01 7.482731e-01 1.045312e-01 5.304231e-01 -9.933668e-01 5.505397e+01 -2.558014e-01 -2.476297e-01 1.911813e-02 -6.879196e-02 -7.794629e-02 -2.524018e-01 -1.359528e-01 -1.932838e-01 -2.594502e-02 -3.486216e-02 3.558158e-02 7.602824e-02 5.012564e-01 5.007926e-02 3.795904e-02 1.936624e-02 4.183455e-02 5.623467e-02 7.669320e-02 7.538137e-02 6.149422e-02 3.903694e-02 3.240836e-02 1.060534e-02 -1.540497e-03 -5.335046e-02
<VARIANCE> 39
 2.876681e+01 3.463551e+01 2.013348e+01 2.301962e+01 2.491054e+01 2.738096e+01 3.015286e+01 3.204745e+01 2.691313e+01 2.178878e+01 2.066841e+01 1.796692e+01 5.063496e+01 1.154594e+00 1.297598e+00 1.065948e+00 1.317385e+00 1.560916e+00 1.828041e+00 1.958799e+00 2.109548e+00 1.921265e+00 1.817557e+00 1.676413e+00 1.469396e+00 1.771494e+00 1.940074e-01 2.296235e-01 1.940537e-01 2.501722e-01 2.995433e-01 3.591430e-01 3.842052e-01 4.243606e-01 3.832222e-01 3.670803e-01 3.388670e-01 2.983220e-01 3.078258e-01
<GCONST> 1.046584e+02
<TRANSP> 5
 0.000000e+00 1.000000e+00 0.000000e+00 0.000000e+00 0.000000e+00
 0.000000e+00 9.886836e-01 1.131643e-02 0.000000e+00 0.000000e+00
 0.000000e+00 0.000000e+00 9.884933e-01 1.150672e-02 0.000000e+00
 0.000000e+00 0.000000e+00 0.000000e+00 9.901227e-01 9.877282e-03
 0.000000e+00 0.000000e+00 0.000000e+00 0.000000e+00 0.000000e+00
<ENDHMM>
~h "st"
<BEGINHMM>
<NUMSTATES> 5
<STATE> 2
<NUMMIXES> 2
<MIXTURE> 1 6.956365e-01
<MEAN> 39
 -9.418139e+00 -5.605896e+00 -1.251064e+00 -9.022600e+00 -3.156592e+00 -6.200089e+00 -4.292668e-01 2.437374e-01 1.293602e+00 -5.035828e-01 7.983507e-01 -1.713936e+00 6.237387e+01 1.381695e-01 1.633722e-01 1.643318e-01 2.764337e-01 2.844833e-01 2.633806e-01 1.818496e-01 4.561540e-02 2.304138e-02 3.225730e-02 3.414974e-02 1.064941e-01 -6.146374e-01 3.983892e-02 4.769547e-02 -5.803874e-02 9.160827e-02 2.634751e-02 7.966693e-02 6.158771e-02 9.940808e-04 -3.162723e-02 -7.799994e-03 -2.890840e-02 -2.946426e-02 -1.260138e-01
<VARIANCE> 39
 1.794780e+01 2.700327e+01 1.557070e+01 2.505490e+01 2.372413e+01 2.892775e+01 2.437011e+01 2.233419e+01 2.155750e+01 2.109720e+01 1.893390e+01 1.444633e+01 5.969258e+01 3.197912e-01 4.241971e-01 6.329317e-01 8.896977e-01 1.067350e+00 1.249410e+00 1.422139e+00 1.584067e+00 1.628312e+00 1.580088e+00 1.512022e+00 1.384326e+00 3.392562e-01 6.342853e-02 1.153874e-01 1.225411e-01 2.081546e-01 2.221533e-01 2.886847e-01 2.960401e-01 3.097329e-01 3.213029e-01 3.111816e-01 2.981730e-01 2.689505e-01 1.959802e-01
<GCONST> 9.143112e+01
<MIXTURE> 2 3.043582e-01
<MEAN> 39
 -9.029537e+00 -4.600041e+00 -2.982585e+00 -7.822157e+00 -2.992921e+00 -3.729590e+00 9.831905e-01 6.182265e-01 1.133433e+00 1.215512e-01 7.511494e-01 -2.055738e+00 6.007315e+01 -5.874641e-01 -1.225494e+00 1.312046e-01 -1.225152e+00 -7.928558e-01 -1.626541e+00 -9.484677e-01 -3.376822e-01 -7.459058e-02 -2.312933e-01 -4.483189e-03 -1.029490e-01 2.953622e+00 7.996441e-02 1.544158e-01 1.298718e-01 9.244644e-02 1.304758e-01 1.852362e-01 1.045016e-01 9.927955e-02 7.819212e-02 5.708936e-02 3.824889e-02 6.178159e-02 -3.077540e-01
<VARIANCE> 39
 2.427453e+01 3.174265e+01 1.933169e+01 2.897343e+01 2.547534e+01 3.850864e+01 2.914432e+01 2.547808e+01 2.241276e+01 1.940827e+01 1.848601e+01 1.556579e+01 8.801640e+01 1.802684e+00 2.189949e+00 1.713770e+00 2.352658e+00 2.505158e+00 2.903220e+00 2.552117e+00 2.788885e+00 2.549196e+00 2.266221e+00 2.108290e+00 1.744980e+00 4.142077e+00 2.534639e-01 3.993603e-01 2.561737e-01 4.644215e-01 4.454807e-01 6.737195e-01 4.980669e-01 4.693359e-01 4.096667e-01 3.805051e-01 3.429071e-01 3.132653e-01 1.275146e+00
<GCONST> 1.146350e+02
<STATE> 3
<NUMMIXES> 2
<MIXTURE> 1 7.572917e-01
<MEAN> 39
 -7.714650e+00 -2.942092e+00 -1.844522e+00 -5.650018e+00 -1.229356e+00 -9.875343e-01 2.774184e+00 5.647089e-01 1.723445e-01 -2.956911e-01 6.032321e-01 -1.769218e+00 5.519452e+01 1.177637e-01 1.442909e-01 -3.361787e-02 1.994224e-01 1.338376e-01 2.086583e-01 1.134552e-01 4.165178e-02 -1.608431e-02 1.982961e-02 -1.349380e-02 -6.068720e-03 -4.511752e-01 -1.001541e-02 -1.434301e-02 -9.693342e-03 -1.805802e-02 -2.505512e-02 -2.040798e-02 -1.597347e-02 -9.062325e-03 -3.974877e-03 -1.087344e-03 -1.481080e-03 -4.276389e-03 3.010905e-02
<VARIANCE> 39
 1.395814e+01 1.828688e+01 1.629277e+01 1.906174e+01 1.709354e+01 2.296879e+01 1.885933e+01 1.890720e+01 1.894909e+01 1.813553e+01 1.544845e+01 1.409588e+01 3.167265e+01 2.105225e-01 3.185474e-01 4.936287e-01 7.116572e-01 9.216016e-01 1.126162e+00 1.272291e+00 1.369890e+00 1.418750e+00 1.417032e+00 1.337420e+00 1.210152e+00 1.805076e-01 3.273436e-02 5.823490e-02 9.617272e-02 1.418173e-01 1.860182e-01 2.292973e-01 2.613628e-01 2.819241e-01 2.937693e-01 2.936315e-01 2.767822e-01 2.498919e-01 1.591926e-02
<GCONST> 8.021611e+01
<MIXTURE> 2 2.427925e-01
<MEAN> 39
 -9.746357e+00 -3.068576e+00 -2.352636e+00 -7.580707e+00 -2.889623e+00 -2.169004e+00 2.098230e+00 2.818101e-01 4.954532e-01 -2.210699e-01 7.746939e-01 -1.955164e+00 5.855006e+01 -3.622277e-01 -3.738790e-01 8.340476e-02 -5.603330e-01 -4.014854e-01 -5.643864e-01 -3.067897e-01 -1.221973e-01 3.547135e-02 -5.161080e-02 4.400538e-02 2.121808e-02 1.260882e+00 2.694720e-02 4.357995e-02 2.757223e-02 5.268169e-02 7.527290e-02 5.847721e-02 4.396362e-02 2.917892e-02 1.902437e-02 6.476429e-03 6.551393e-03 1.417019e-02 -8.558254e-02
<VARIANCE> 39
 2.161956e+01 2.469870e+01 1.729766e+01 3.233976e+01 2.627392e+01 2.945207e+01 2.339816e+01 2.203864e+01 2.154921e+01 1.977474e+01 1.736472e+01 1.562007e+01 6.299800e+01 1.451940e+00 1.677903e+00 1.266030e+00 2.350406e+00 2.295119e+00 2.529559e+00 2.189363e+00 2.087626e+00 2.081576e+00 1.946140e+00 1.778269e+00 1.572162e+00 3.686529e+00 2.573605e-01 2.984785e-01 2.306255e-01 4.674400e-01 4.517449e-01 5.294150e-01 4.456016e-01 4.161689e-01 4.085235e-01 3.876036e-01 3.550532e-01 3.173226e-01 8.471527e-01
<GCONST> 1.098717e+02
<STATE> 4
<NUMMIXES> 2
<MIXTURE> 1 7.462087e-01
<MEAN> 39
 -1.023118e+01 3.378604e-01 -5.977964e-01 -2.488802e+00 6.789496e-01 1.229039e-01 2.926875e+00 2.064005e+00 2.016028e+00 4.768822e-01 5.842199e-01 -1.475024e+00 5.072648e+01 1.955003e-02 7.685870e-02 2.770150e-02 1.027877e-01 9.716458e-02 1.381760e-01 7.882437e-02 5.483747e-02 5.389689e-03 7.069002e-03 -1.382941e-02 -1.172611e-02 -1.889094e-01 -2.703378e-03 -1.757311e-02 -1.953269e-02 -3.825159e-02 -4.444286e-02 -4.261360e-02 -3.156563e-02 -2.017628e-02 -1.078724e-02 -4.596333e-03 -2.246890e-03 -2.965696e-03 2.157970e-02
<VARIANCE> 39
 1.655941e+01 8.976840e+00 9.888610e+00 1.175680e+01 1.312556e+01 1.598448e+01 1.864563e+01 1.760057e+01 1.624635e+01 1.511823e+01 1.368105e+01 1.238440e+01 1.674442e+01 1.890273e-01 2.981960e-01 4.605415e-01 6.931802e-01 8.996797e-01 1.080432e+00 1.231559e+00 1.342788e+00 1.379849e+00 1.370434e+00 1.291667e+00 1.147697e+00 1.212179e-01 2.970162e-02 5.293626e-02 8.755349e-02 1.307545e-01 1.748688e-01 2.120028e-01 2.446960e-01 2.671413e-01 2.771258e-01 2.776423e-01 2.612909e-01 2.324789e-01 1.331689e-02
<GCONST> 7.477399e+01
<MIXTURE> 2 2.539193e-01
<MEAN> 39
 -1.028200e+01 -1.032351e+00 -1.544349e+00 -5.835070e+00 -2.510730e+00 -3.289557e+00 9.805050e-01 1.030112e+00 1.990664e+00 4.460851e-01 6.808993e-01 -1.647188e+00 5.484782e+01 -6.995036e-02 -2.151530e-01 -8.742160e-02 -2.959355e-01 -2.567857e-01 -3.656123e-01 -2.101689e-01 -1.589169e-01 -6.485985e-03 -2.773471e-02 2.985067e-02 2.859647e-02 5.130878e-01 1.126141e-02 4.581359e-02 5.677074e-02 1.032749e-01 1.220527e-01 1.181111e-01 8.724175e-02 5.454619e-02 2.585946e-02 1.097192e-02 6.074540e-03 8.656856e-03 -5.979006e-02
<VARIANCE> 39
 1.885205e+01 1.598501e+01 1.461798e+01 2.265616e+01 2.057447e+01 2.841471e+01 2.520573e+01 2.341847e+01 2.037412e+01 1.818418e+01 1.638277e+01 1.489441e+01 3.516256e+01 8.614210e-01 1.060639e+00 1.050620e+00 1.752628e+00 1.809464e+00 2.083153e+00 1.836094e+00 1.905478e+00 1.794172e+00 1.689455e+00 1.555426e+00 1.414695e+00 1.504293e+00 1.425507e-01 1.946073e-01 1.997018e-01 3.227375e-01 3.417834e-01 4.088741e-01 3.646747e-01 3.856627e-01 3.635838e-01 3.421646e-01 3.195168e-01 2.903334e-01 2.546264e-01
<GCONST> 1.002312e+02
<TRANSP> 5
 0.000000e+00 1.000000e+00 0.000000e+00 0.000000e+00 0.000000e+00
 0.000000e+00 8.958238e-01 1.041761e-01 0.000000e+00 0.000000e+00
 0.000000e+00 0.000000e+00 9.926232e-01 7.376804e-03 0.000000e+00
 0.000000e+00 0.000000e+00 0.000000e+00 9.894667e-01 1.053326e-02
 0.000000e+00 0.000000e+00 0.000000e+00 0.000000e+00 0.000000e+00
<ENDHMM>
~h "spe"
<BEGINHMM>
<NUMSTATES> 5
<STATE> 2
<NUMMIXES> 2
<MIXTURE> 1 4.777890e-01
<MEAN> 39
 -4.231556e+00 2.163001e+00 4.745182e-01 -2.797420e+00 -3.462133e+00 -3.588017e+00 -1.026303e+00 1.053870e+00 -6.051342e-01 2.391263e-01 -3.629965e-01 -2.577218e+00 5.208219e+01 -1.306353e-01 1.249821e-01 4.938711e-02 6.716020e-03 7.226677e-02 -7.416474e-02 1.432179e-01 1.180312e-02 -1.249497e-02 -1.471321e-02 8.002162e-02 1.397333e-01 4.755218e-03 5.962594e-02 -8.453372e-02 -2.823129e-02 -4.863217e-02 -4.447978e-02 4.628482e-02 -2.907287e-02 -1.522192e-02 -4.086995e-02 -3.510005e-02 -4.610208e-02 -8.381481e-02 3.767255e-02
<VARIANCE> 39
 2.477246e+01 2.139045e+01 2.606462e+01 2.134501e+01 4.065614e+01 3.465247e+01 2.493171e+01 3.124943e+01 2.913585e+01 2.733747e+01 2.481022e+01 2.256433e+01 9.200179e+00 9.373800e-01 9.035648e-01 9.391821e-01 1.023597e+00 1.761575e+00 1.729822e+00 1.664484e+00 1.837078e+00 1.840575e+00 1.796289e+00 1.708042e+00 1.542452e+00 2.084412e-01 1.159532e-01 1.302021e-01 1.559289e-01 1.842858e-01 2.967482e-01 3.159162e-01 3.246377e-01 3.435580e-01 3.523927e-01 3.488010e-01 3.319692e-01 2.989652e-01 3.263689e-02
<GCONST> 9.589771e+01
<MIXTURE> 2 5.222097e-01
<MEAN> 39
 7.937546e-01 -4.019092e+00 -1.768339e+00 -5.263142e+00 -5.592482e+00 -2.888357e-01 -3.434690e+00 1.005740e-01 -1.265922e+00 2.445579e-01 -2.105631e+00 -6.491747e+00 5.443169e+01 1.123887e-01 -1.333698e-01 -9.201159e-03 -2.324368e-02 -8.694126e-02 4.006948e-02 -1.572004e-01 -1.094646e-02 1.209698e-02 3.040697e-02 -7.293460e-02 -1.332739e-01 3.080918e-02 -5.593353e-02 7.547083e-02 2.701113e-02 4.619400e-02 4.016769e-02 -4.737289e-02 2.827934e-02 1.621348e-02 3.994131e-02 3.162388e-02 4.025786e-02 7.800627e-02 -3.444747e-02
<VARIANCE> 39
 6.315995e+00 2.283506e+01 3.869430e+01 2.722992e+01 4.154367e+01 4.440226e+01 3.016786e+01 3.835257e+01 3.099416e+01 3.022487e+01 3.712276e+01 3.583601e+01 1.063787e+01 2.437092e-01 7.694300e-01 1.080996e+00 1.180393e+00 1.596150e+00 1.879164e+00 1.731549e+00 1.937348e+00 1.890419e+00 1.951705e+00 1.920497e+00 1.926896e+00 2.310051e-01 3.368607e-02 9.436251e-02 1.514859e-01 1.876008e-01 2.561969e-01 3.056817e-01 3.152508e-01 3.517637e-01 3.609041e-01 3.659044e-01 3.520139e-01 3.274989e-01 2.172494e-02
<GCONST> 9.453722e+01
<STATE> 3
<NUMMIXES> 2
<MIXTURE> 1 6.319093e-01
<MEAN> 39
 -2.867581e+00 -4.629253e+00 4.164775e-01 -1.123023e+01 -2.482212e+00 -2.782717e+00 -2.763621e+00 -6.261228e-01 -2.077002e+00 -1.868961e+00 -3.619542e+00 -4.036290e+00 6.095704e+01 4.449578e-02 2.004575e-01 -5.841138e-02 2.225528e-01 1.383740e-01 1.007011e-01 9.512177e-02 -9.051232e-02 -6.226517e-02 -2.463531e-02 -1.526540e-03 -2.763166e-02 -2.951948e-01 -7.595739e-03 9.598659e-03 3.289696e-04 1.436580e-02 -1.976848e-03 -2.205131e-02 -1.792591e-02 -1.633638e-02 -2.266188e-02 -8.982364e-03 1.575668e-02 2.478156e-02 -2.374248e-02
<VARIANCE> 39
 2.522140e+01 4.203478e+01 6.270264e+01 5.913129e+01 5.874653e+01 5.148705e+01 4.445476e+01 4.615055e+01 3.435038e+01 2.993828e+01 5.037798e+01 2.882173e+01 2.852636e+01 2.152342e-01 4.558776e-01 6.186154e-01 9.155989e-01 1.155130e+00 1.319029e+00 1.445135e+00 1.604708e+00 1.543194e+00 1.575556e+00 1.572038e+00 1.370026e+00 1.547539e-01 3.522067e-02 7.172324e-02 1.135166e-01 1.657557e-01 2.162513e-01 2.528988e-01 2.831927e-01 3.129496e-01 3.096032e-01 3.061489e-01 3.074466e-01 2.678540e-01 1.774067e-02
<GCONST> 9.406341e+01
<MIXTURE> 2 3.681023e-01
<MEAN> 39
 -3.732221e+00 -3.871354e+00 3.138596e+00 -1.478053e+01 -2.792774e+00 -7.435158e+00 -5.448963e+00 -2.984176e+00 -2.204230e+00 -3.238224e+00 -6.036493e+00 -1.080785e+00 6.167983e+01 -8.175541e-02 -2.763313e-01 -3.030178e-03 -2.496463e-01 -1.820559e-01 -1.980422e-01 -1.219200e-01 9.234119e-02 1.188095e-01 -2.667853e-02 -6.541171e-02 -1.388542e-02 4.781745e-01 1.224305e-02 3.401716e-03 -1.646064e-02 1.522261e-02 1.548008e-02 6.310201e-02 6.217255e-02 2.776601e-02 3.609312e-02 2.510542e-02 -1.704896e-02 -3.461180e-02 -4.587324e-03
<VARIANCE> 39
 2.368700e+01 3.550116e+01 7.388490e+01 7.375639e+01 5.565335e+01 6.294011e+01 5.381174e+01 6.727203e+01 4.289489e+01 4.320900e+01 5.884862e+01 3.727561e+01 1.766032e+01 1.137858e+00 1.726535e+00 2.426503e+00 2.562466e+00 2.904642e+00 2.848277e+00 2.944571e+00 3.131277e+00 2.882111e+00 2.622354e+00 2.673155e+00 2.245237e+00 6.598395e-01 1.400100e-01 2.253354e-01 3.038475e-01 3.696096e-01 4.333437e-01 4.649337e-01 4.796926e-01 5.305262e-01 5.035885e-01 4.935371e-01 4.776689e-01 4.061864e-01 9.366780e-02
<GCONST> 1.176827e+02
<STATE> 4
<NUMMIXES> 2
<MIXTURE> 1 4.949622e-01
<MEAN> 39
 -2.676233e+00 -3.310804e+00 -3.343309e+00 -4.539538e+00 -1.273779e-01 2.481034e+00 3.438434e+00 1.307448e+00 -9.055132e-01 3.436787e-01 -4.655416e-01 -3.207988e+00 5.031109e+01 -1.721714e-02 1.993289e-02 -4.415114e-02 8.077334e-02 5.756901e-02 1.230934e-01 1.415187e-01 5.236999e-02 3.321490e-02 3.553461e-02 4.200780e-02 5.779273e-02 -1.116662e-01 2.273236e-03 -4.353094e-03 1.190583e-02 -2.510159e-02 -2.552857e-02 -3.679193e-02 -4.639753e-02 -2.077750e-02 -2.336391e-02 -1.803280e-02 -2.752111e-03 -1.230022e-02 2.167773e-02
<VARIANCE> 39
 9.430161e+00 1.166381e+01 1.162502e+01 1.107014e+01 1.591890e+01 2.019493e+01 2.339436e+01 2.125893e+01 1.957587e+01 1.809139e+01 1.652510e+01 1.504175e+01 5.563776e+00 1.567977e-01 2.946223e-01 4.920429e-01 6.916270e-01 9.128466e-01 1.140734e+00 1.274335e+00 1.406839e+00 1.440503e+00 1.405212e+00 1.329346e+00 1.213158e+00 6.472447e-02 2.649702e-02 5.263239e-02 9.265801e-02 1.316636e-01 1.781255e-01 2.239320e-01 2.502271e-01 2.786587e-01 2.889879e-01 2.827722e-01 2.660645e-01 2.417293e-01 8.837803e-03
<GCONST> 7.439247e+01
<MIXTURE> 2 5.050128e-01
<MEAN> 39
 -8.368573e-01 -6.312000e+00 6.462669e-01 -9.159943e+00 -5.078517e+00 -2.186236e+00 -3.805158e+00 -8.719470e-01 -3.089454e+00 -7.684947e-01 -3.827028e-01 -4.812678e+00 5.729021e+01 2.021645e-02 -2.874845e-02 2.559472e-02 -6.781551e-02 -4.228136e-02 -1.094005e-01 -1.199554e-01 -2.567683e-02 -1.526754e-02 -1.104685e-02 -2.719095e-02 -4.238529e-02 7.815432e-02 -3.223023e-03 4.574126e-03 -1.195311e-02 2.236754e-02 2.459088e-02 3.519374e-02 4.415599e-02 2.049255e-02 2.350531e-02 1.741570e-02 1.912406e-03 1.181113e-02 -1.930708e-02
<VARIANCE> 39
 1.528950e+01 3.752069e+01 5.240628e+01 3.169462e+01 6.388948e+01 4.552909e+01 4.077542e+01 4.366742e+01 3.827998e+01 4.037495e+01 3.888419e+01 2.740141e+01 1.413612e+01 4.564037e-01 1.051452e+00 1.201940e+00 1.342124e+00 1.800925e+00 1.881065e+00 2.123803e+00 2.036269e+00 2.056838e+00 1.997650e+00 1.975840e+00 1.561925e+00 4.334190e-01 6.365363e-02 1.393880e-01 1.618808e-01 2.089871e-01 2.793579e-01 3.259596e-01 3.627768e-01 3.704231e-01 3.871970e-01 3.797722e-01 3.612444e-01 2.926784e-01 4.187259e-02
<GCONST> 1.021486e+02
<TRANSP> 5
 0.000000e+00 1.000000e+00 0.000000e+00 0.000000e+00 0.000000e+00
 0.000000e+00 9.914283e-01 8.571676e-03 0.000000e+00 0.000000e+00
 0.000000e+00 0.000000e+00 9.846332e-01 1.536676e-02 0.000000e+00
 0.000000e+00 0.000000e+00 0.000000e+00 9.951465e-01 4.853464e-03
 0.000000e+00 0.000000e+00 0.000000e+00 0.000000e+00 0.000000e+00
<ENDHMM>
