~o
<STREAMINFO> 1 39
<VECSIZE> 39<NULLD><MFCC_D_A_0><DIAGC>
~h "ap"
<BEGINHMM>
<NUMSTATES> 5
<STATE> 2
<NUMMIXES> 16
<MIXTURE> 1 2.153808e-01
<MEAN> 39
 -9.417654e+00 -4.089063e+00 -1.492648e+00 -4.576858e-01 3.283809e+00 -9.713938e-01 4.504488e+00 2.131983e+00 5.151515e-01 2.080770e-01 1.011830e+00 -1.042968e+00 5.174720e+01 2.960132e-01 3.153482e-01 6.664337e-02 -1.247868e-01 -4.081464e-02 2.481079e-01 6.877489e-02 2.332609e-01 7.087134e-02 5.395283e-02 -4.213545e-02 -7.522733e-02 -4.835984e-01 -3.950863e-02 -2.684025e-02 -5.058154e-02 -5.034004e-02 -6.985557e-02 -5.920189e-02 -8.747320e-02 -8.948283e-02 -7.219531e-02 -4.404661e-02 -2.441800e-02 2.803655e-03 3.650119e-02
<VARIANCE> 39
 1.036052e+01 1.326949e+01 1.684889e+01 1.840654e+01 1.959288e+01 2.494167e+01 2.467819e+01 1.738455e+01 1.634407e+01 1.527604e+01 1.449113e+01 1.419939e+01 1.216069e+01 1.704070e-01 2.831196e-01 4.640027e-01 6.663793e-01 8.727512e-01 1.085845e+00 1.246463e+00 1.319010e+00 1.322501e+00 1.336991e+00 1.284887e+00 1.149917e+00 8.044598e-02 2.460006e-02 4.782579e-02 8.405749e-02 1.266624e-01 1.678886e-01 2.132792e-01 2.406744e-01 2.567585e-01 2.612599e-01 2.671037e-01 2.591158e-01 2.303405e-01 8.825878e-03
<GCONST> 7.500199e+01
<MIXTURE> 2 1.355473e-01
<MEAN> 39
 -1.513648e+01 -1.077842e+01 -5.582209e+00 -1.726412e+00 6.093186e-02 -5.529446e+00 1.624532e+00 -3.067054e+00 -1.790877e+00 -1.097837e+00 6.226133e-01 -3.290069e-01 6.458655e+01 3.564381e-01 1.887616e-01 2.741934e-01 2.070635e-01 3.107921e-01 1.763429e-01 1.722111e-01 9.693221e-02 1.613246e-02 -1.396551e-03 5.412196e-02 1.466379e-02 -8.975464e-01 -4.596469e-03 1.528068e-02 2.794504e-03 -1.042084e-02 -1.437544e-02 1.163648e-02 9.015413e-03 4.746982e-02 3.380740e-02 2.595321e-02 1.021132e-02 1.087867e-03 1.463124e-02
<VARIANCE> 39
 1.327296e+01 2.635428e+01 2.314363e+01 2.136901e+01 2.525297e+01 3.098240e+01 2.403900e+01 2.153838e+01 2.274922e+01 1.994117e+01 1.783393e+01 1.580788e+01 4.982570e+01 1.035823e-01 2.408838e-01 4.020798e-01 6.182435e-01 8.456389e-01 1.014060e+00 1.187575e+00 1.316640e+00 1.365285e+00 1.348325e+00 1.265141e+00 1.176107e+00 3.933912e-02 1.968987e-02 4.538051e-02 7.988343e-02 1.238360e-01 1.710307e-01 2.087006e-01 2.468689e-01 2.702132e-01 2.831197e-01 2.822364e-01 2.648098e-01 2.456552e-01 5.634379e-03
<GCONST> 7.718530e+01
<MIXTURE> 3 1.355499e-01
<MEAN> 39
 -1.513655e+01 -1.077846e+01 -5.582299e+00 -1.726521e+00 6.082106e-02 -5.529492e+00 1.624408e+00 -3.067139e+00 -1.790886e+00 -1.097800e+00 6.226369e-01 -3.289886e-01 6.458675e+01 3.564357e-01 1.887544e-01 2.741883e-01 2.070608e-01 3.107893e-01 1.763350e-01 1.722027e-01 9.692056e-02 1.612312e-02 -1.400748e-03 5.412220e-02 1.466753e-02 -8.975499e-01 -4.596629e-03 1.528104e-02 2.797210e-03 -1.041546e-02 -1.436864e-02 1.164437e-02 9.025449e-03 4.747707e-02 3.380780e-02 2.594784e-02 1.020476e-02 1.083107e-03 1.463127e-02
<VARIANCE> 39
 1.327305e+01 2.635455e+01 2.314393e+01 2.136933e+01 2.525313e+01 3.098266e+01 2.403937e+01 2.153862e+01 2.274947e+01 1.994131e+01 1.783412e+01 1.580787e+01 4.982678e+01 1.035844e-01 2.408873e-01 4.020828e-01 6.182476e-01 8.456475e-01 1.014067e+00 1.187585e+00 1.316655e+00 1.365300e+00 1.348342e+00 1.265159e+00 1.176119e+00 3.934013e-02 1.968982e-02 4.538039e-02 7.988396e-02 1.238374e-01 1.710319e-01 2.087028e-01 2.468736e-01 2.702176e-01 2.831245e-01 2.822410e-01 2.648135e-01 2.456564e-01 5.634379e-03
<GCONST> 7.718571e+01
<MIXTURE> 4 1.280826e-02
<MEAN> 39
 -1.783819e+01 -1.136738e+01 -7.916584e+00 -4.517882e+00 -3.222530e+00 -6.643953e+00 -3.806657e-02 -2.453581e+00 -1.000682e+00 -3.948578e-01 4.873519e-01 -3.413136e-01 7.129854e+01 4.465793e-01 3.616705e-02 1.614091e-01 1.280930e-01 4.117988e-01 4.313709e-01 6.510610e-01 3.175446e-01 4.200610e-01 2.744712e-01 1.957178e-01 6.782301e-02 -9.276865e-01 2.025362e-01 3.550381e-01 2.843417e-01 3.544657e-01 3.737303e-01 1.550345e-01 3.156751e-02 3.455791e-02 -1.312174e-01 -1.147661e-01 -8.976338e-02 -9.494232e-02 -6.033140e-01
<VARIANCE> 39
 2.344921e+01 2.909099e+01 2.920231e+01 2.446373e+01 2.733363e+01 3.316294e+01 2.763356e+01 2.441376e+01 2.347036e+01 2.004293e+01 1.897463e+01 1.611088e+01 1.136024e+02 2.249794e-01 3.869579e-01 5.426208e-01 1.012161e+00 1.334136e+00 1.348146e+00 1.560565e+00 1.760627e+00 1.723242e+00 1.575845e+00 1.465695e+00 1.393656e+00 1.783090e-01 2.279577e-01 1.818563e-01 1.946576e-01 2.558601e-01 3.355226e-01 3.796188e-01 3.908091e-01 3.923572e-01 3.884782e-01 3.394710e-01 3.143774e-01 3.031179e-01 1.044341e+00
<GCONST> 9.880103e+01
<MIXTURE> 5 1.355499e-01
<MEAN> 39
 -1.513655e+01 -1.077846e+01 -5.582299e+00 -1.726521e+00 6.082106e-02 -5.529492e+00 1.624408e+00 -3.067139e+00 -1.790886e+00 -1.097800e+00 6.226369e-01 -3.289886e-01 6.458675e+01 3.564357e-01 1.887544e-01 2.741883e-01 2.070608e-01 3.107893e-01 1.763350e-01 1.722027e-01 9.692056e-02 1.612312e-02 -1.400748e-03 5.412220e-02 1.466753e-02 -8.975499e-01 -4.596629e-03 1.528104e-02 2.797210e-03 -1.041546e-02 -1.436864e-02 1.164437e-02 9.025449e-03 4.747707e-02 3.380780e-02 2.594784e-02 1.020476e-02 1.083107e-03 1.463127e-02
<VARIANCE> 39
 1.327305e+01 2.635455e+01 2.314393e+01 2.136933e+01 2.525313e+01 3.098266e+01 2.403937e+01 2.153862e+01 2.274947e+01 1.994131e+01 1.783412e+01 1.580787e+01 4.982678e+01 1.035844e-01 2.408873e-01 4.020828e-01 6.182476e-01 8.456475e-01 1.014067e+00 1.187585e+00 1.316655e+00 1.365300e+00 1.348342e+00 1.265159e+00 1.176119e+00 3.934013e-02 1.968982e-02 4.538039e-02 7.988396e-02 1.238374e-01 1.710319e-01 2.087028e-01 2.468736e-01 2.702176e-01 2.831245e-01 2.822410e-01 2.648135e-01 2.456564e-01 5.634379e-03
<GCONST> 7.718571e+01
<MIXTURE> 6 1.285227e-02
<MEAN> 39
 -1.787834e+01 -1.138817e+01 -7.950480e+00 -4.539940e+00 -3.254561e+00 -6.669725e+00 -5.955192e-02 -2.467542e+00 -1.002626e+00 -3.957058e-01 4.848814e-01 -3.360377e-01 7.140122e+01 4.475031e-01 3.409551e-02 1.610865e-01 1.279457e-01 4.136966e-01 4.322188e-01 6.543698e-01 3.183920e-01 4.226176e-01 2.762556e-01 1.975541e-01 6.889681e-02 -9.300735e-01 2.063241e-01 3.572504e-01 2.870958e-01 3.566876e-01 3.770497e-01 1.577065e-01 3.364513e-02 3.526993e-02 -1.315791e-01 -1.151380e-01 -9.021871e-02 -9.606115e-02 -6.126105e-01
<VARIANCE> 39
 2.318473e+01 2.900374e+01 2.906671e+01 2.441185e+01 2.725234e+01 3.307191e+01 2.756459e+01 2.440768e+01 2.347477e+01 2.004923e+01 1.897739e+01 1.610791e+01 1.122567e+02 2.251875e-01 3.871097e-01 5.433329e-01 1.013909e+00 1.336337e+00 1.350035e+00 1.562728e+00 1.763752e+00 1.726242e+00 1.577515e+00 1.467047e+00 1.395282e+00 1.774522e-01 2.264220e-01 1.818589e-01 1.941926e-01 2.555224e-01 3.350066e-01 3.791256e-01 3.905897e-01 3.926054e-01 3.887225e-01 3.393680e-01 3.143659e-01 3.031814e-01 1.039356e+00
<GCONST> 9.875311e+01
<MIXTURE> 7 1.283791e-02
<MEAN> 39
 -1.786633e+01 -1.138206e+01 -7.940446e+00 -4.533419e+00 -3.244952e+00 -6.661869e+00 -5.313618e-02 -2.463402e+00 -1.001971e+00 -3.953356e-01 4.857446e-01 -3.375708e-01 7.137068e+01 4.472269e-01 3.472007e-02 1.611828e-01 1.280008e-01 4.131226e-01 4.319400e-01 6.533486e-01 3.181038e-01 4.218131e-01 2.756881e-01 1.969794e-01 6.856042e-02 -9.293599e-01 2.051730e-01 3.565753e-01 2.862583e-01 3.560159e-01 3.760439e-01 1.568905e-01 3.300741e-02 3.503927e-02 -1.314916e-01 -1.150490e-01 -9.010349e-02 -9.573662e-02 -6.097891e-01
<VARIANCE> 39
 2.326375e+01 2.903036e+01 2.910879e+01 2.442842e+01 2.727791e+01 3.309994e+01 2.758648e+01 2.441043e+01 2.347470e+01 2.004822e+01 1.897769e+01 1.610975e+01 1.126623e+02 2.251298e-01 3.870729e-01 5.431283e-01 1.013422e+00 1.335729e+00 1.349512e+00 1.562125e+00 1.762856e+00 1.725415e+00 1.577058e+00 1.466682e+00 1.394840e+00 1.777106e-01 2.268735e-01 1.818554e-01 1.943342e-01 2.556301e-01 3.351667e-01 3.792736e-01 3.906665e-01 3.925477e-01 3.886716e-01 3.394154e-01 3.143847e-01 3.031796e-01 1.040825e+00
<GCONST> 9.876861e+01
<MIXTURE> 8 1.719646e-02
<MEAN> 39
 -2.047220e+01 -1.019106e+01 -7.515786e+00 -2.881035e+00 -3.862297e+00 -8.578582e+00 -2.762828e+00 -3.448967e+00 -3.068284e+00 -1.589004e+00 -7.520145e-01 -1.429304e+00 7.553630e+01 -1.919675e+00 -2.164815e+00 -1.598588e+00 -9.689998e-01 -1.618487e+00 -1.447481e+00 -8.451970e-01 -1.158483e+00 -4.050400e-01 -2.696016e-01 -1.705722e-01 1.223042e-01 5.495396e+00 9.686756e-01 3.650441e-01 4.148035e-01 5.115731e-02 5.076644e-01 7.302781e-01 7.208228e-01 4.738486e-01 3.827178e-01 2.230569e-01 1.984894e-01 6.218904e-02 -1.930274e+00
<VARIANCE> 39
 1.092251e+01 3.104484e+01 2.452575e+01 3.283465e+01 3.692840e+01 3.702095e+01 3.096686e+01 3.174911e+01 3.039771e+01 2.572642e+01 2.256236e+01 1.928831e+01 4.474664e+01 3.485039e+00 3.186921e+00 2.259033e+00 2.380402e+00 2.941264e+00 4.373456e+00 3.704876e+00 3.248950e+00 2.968819e+00 2.309123e+00 2.214533e+00 1.843901e+00 1.083551e+01 2.654388e-01 4.954283e-01 3.652872e-01 5.216344e-01 6.041235e-01 6.129500e-01 5.326955e-01 5.819916e-01 4.965211e-01 4.638399e-01 4.151929e-01 3.598965e-01 1.033174e+00
<GCONST> 1.205037e+02
<MIXTURE> 9 1.355537e-01
<MEAN> 39
 -1.513683e+01 -1.077882e+01 -5.582705e+00 -1.726844e+00 6.037453e-02 -5.529704e+00 1.624054e+00 -3.067640e+00 -1.791271e+00 -1.098082e+00 6.223381e-01 -3.291734e-01 6.458762e+01 3.564272e-01 1.887231e-01 2.741643e-01 2.070471e-01 3.107687e-01 1.762949e-01 1.721651e-01 9.687370e-02 1.609032e-02 -1.414186e-03 5.412373e-02 1.468458e-02 -8.975661e-01 -4.594232e-03 1.528630e-02 2.807797e-03 -1.040244e-02 -1.435026e-02 1.166731e-02 9.060985e-03 4.752588e-02 3.385549e-02 2.599004e-02 1.024068e-02 1.103588e-03 1.463277e-02
<VARIANCE> 39
 1.327357e+01 2.635611e+01 2.314507e+01 2.137026e+01 2.525431e+01 3.098353e+01 2.404016e+01 2.153964e+01 2.275060e+01 1.994235e+01 1.783539e+01 1.580856e+01 4.983167e+01 1.035869e-01 2.408963e-01 4.020940e-01 6.182711e-01 8.456832e-01 1.014106e+00 1.187640e+00 1.316710e+00 1.365342e+00 1.348401e+00 1.265221e+00 1.176172e+00 3.934202e-02 1.969059e-02 4.538210e-02 7.988682e-02 1.238439e-01 1.710420e-01 2.087116e-01 2.468840e-01 2.702302e-01 2.831399e-01 2.822612e-01 2.648329e-01 2.456699e-01 5.634605e-03
<GCONST> 7.718755e+01
<MIXTURE> 10 1.282797e-02
<MEAN> 39
 -1.785734e+01 -1.137776e+01 -7.933460e+00 -4.528652e+00 -3.237628e+00 -6.655946e+00 -4.865691e-02 -2.460756e+00 -1.001809e+00 -3.951858e-01 4.863191e-01 -3.389242e-01 7.134843e+01 4.470021e-01 3.521902e-02 1.612666e-01 1.281130e-01 4.126982e-01 4.315974e-01 6.523911e-01 3.176636e-01 4.209767e-01 2.750936e-01 1.964104e-01 6.821668e-02 -9.288958e-01 2.042162e-01 3.559927e-01 2.855850e-01 3.554747e-01 3.752137e-01 1.562185e-01 3.248569e-02 3.483865e-02 -1.314344e-01 -1.149874e-01 -9.000930e-02 -9.545173e-02 -6.074609e-01
<VARIANCE> 39
 2.331965e+01 2.904892e+01 2.914146e+01 2.444048e+01 2.729667e+01 3.312111e+01 2.760401e+01 2.441312e+01 2.347545e+01 2.004840e+01 1.897857e+01 1.611113e+01 1.129573e+02 2.250687e-01 3.870120e-01 5.429457e-01 1.012982e+00 1.335240e+00 1.349051e+00 1.561635e+00 1.762146e+00 1.724776e+00 1.576662e+00 1.466381e+00 1.394481e+00 1.778625e-01 2.271184e-01 1.817950e-01 1.944054e-01 2.556871e-01 3.352478e-01 3.793490e-01 3.907146e-01 3.925025e-01 3.886387e-01 3.394612e-01 3.144039e-01 3.031789e-01 1.041511e+00
<GCONST> 9.877781e+01
<MIXTURE> 11 1.284095e-02
<MEAN> 39
 -1.786836e+01 -1.138303e+01 -7.942137e+00 -4.534543e+00 -3.246605e+00 -6.663284e+00 -5.434710e-02 -2.464158e+00 -1.002201e+00 -3.955292e-01 4.854818e-01 -3.373685e-01 7.137584e+01 4.472709e-01 3.459746e-02 1.611602e-01 1.279719e-01 4.132063e-01 4.320051e-01 6.535505e-01 3.181815e-01 4.219821e-01 2.758074e-01 1.970969e-01 6.863931e-02 -9.294650e-01 2.053869e-01 3.567014e-01 2.864124e-01 3.561389e-01 3.762309e-01 1.570514e-01 3.314435e-02 3.510390e-02 -1.314796e-01 -1.150399e-01 -9.010527e-02 -9.578437e-02 -6.103116e-01
<VARIANCE> 39
 2.325042e+01 2.902586e+01 2.910163e+01 2.442554e+01 2.727355e+01 3.309544e+01 2.758288e+01 2.441009e+01 2.347474e+01 2.004835e+01 1.897751e+01 1.610942e+01 1.125945e+02 2.251455e-01 3.870933e-01 5.431775e-01 1.013524e+00 1.335851e+00 1.349625e+00 1.562253e+00 1.763032e+00 1.725579e+00 1.577152e+00 1.466751e+00 1.394927e+00 1.776796e-01 2.268064e-01 1.818618e-01 1.943134e-01 2.556094e-01 3.351434e-01 3.792549e-01 3.906563e-01 3.925579e-01 3.886808e-01 3.394037e-01 3.143773e-01 3.031787e-01 1.040625e+00
<GCONST> 9.876641e+01
<MIXTURE> 12 1.719831e-02
<MEAN> 39
 -2.047651e+01 -1.020092e+01 -7.526410e+00 -2.896542e+00 -3.875345e+00 -8.584441e+00 -2.767356e+00 -3.456491e+00 -3.073351e+00 -1.594589e+00 -7.545370e-01 -1.429388e+00 7.556149e+01 -1.911283e+00 -2.159882e+00 -1.594972e+00 -9.699603e-01 -1.613848e+00 -1.440102e+00 -8.386148e-01 -1.153045e+00 -4.009346e-01 -2.672083e-01 -1.683298e-01 1.235659e-01 5.477704e+00 9.698473e-01 3.670333e-01 4.167811e-01 5.342374e-02 5.099093e-01 7.314925e-01 7.216235e-01 4.748334e-01 3.832479e-01 2.236609e-01 1.986786e-01 6.191320e-02 -1.935218e+00
<VARIANCE> 39
 1.090507e+01 3.100769e+01 2.450036e+01 3.278128e+01 3.685173e+01 3.696606e+01 3.091161e+01 3.168320e+01 3.034230e+01 2.569077e+01 2.253758e+01 1.926974e+01 4.455241e+01 3.482850e+00 3.175966e+00 2.255713e+00 2.377796e+00 2.939369e+00 4.369946e+00 3.703460e+00 3.246949e+00 2.967606e+00 2.308191e+00 2.213130e+00 1.843049e+00 1.084364e+01 2.651967e-01 4.949214e-01 3.648098e-01 5.207676e-01 6.031991e-01 6.122339e-01 5.319259e-01 5.810794e-01 4.958499e-01 4.633399e-01 4.148631e-01 3.597129e-01 1.029716e+00
<GCONST> 1.204533e+02
<MIXTURE> 13 1.278512e-02
<MEAN> 39
 -1.781616e+01 -1.135673e+01 -7.899615e+00 -4.506309e+00 -3.204295e+00 -6.629217e+00 -2.639128e-02 -2.446555e+00 -9.993733e-01 -3.934308e-01 4.898820e-01 -3.439279e-01 7.124364e+01 4.460390e-01 3.755808e-02 1.616825e-01 1.285939e-01 4.109711e-01 4.303878e-01 6.484443e-01 3.162075e-01 4.176587e-01 2.727627e-01 1.941051e-01 6.673464e-02 -9.267458e-01 1.999897e-01 3.534532e-01 2.825853e-01 3.530944e-01 3.715494e-01 1.532074e-01 3.005992e-02 3.382711e-02 -1.313146e-01 -1.148252e-01 -8.969817e-02 -9.432006e-02 -5.971093e-01
<VARIANCE> 39
 2.358161e+01 2.913012e+01 2.927801e+01 2.449045e+01 2.737519e+01 3.320697e+01 2.767009e+01 2.441713e+01 2.346819e+01 2.004015e+01 1.897412e+01 1.611323e+01 1.142957e+02 2.247463e-01 3.866324e-01 5.419593e-01 1.010685e+00 1.332566e+00 1.346621e+00 1.558949e+00 1.758493e+00 1.721155e+00 1.574470e+00 1.464653e+00 1.392470e+00 1.785277e-01 2.283905e-01 1.815889e-01 1.947601e-01 2.559549e-01 3.356251e-01 3.796930e-01 3.908430e-01 3.922102e-01 3.883502e-01 3.395632e-01 3.144020e-01 3.031036e-01 1.045192e+00
<GCONST> 9.881277e+01
<MIXTURE> 14 1.719831e-02
<MEAN> 39
 -2.047651e+01 -1.020092e+01 -7.526410e+00 -2.896542e+00 -3.875345e+00 -8.584441e+00 -2.767356e+00 -3.456491e+00 -3.073351e+00 -1.594589e+00 -7.545370e-01 -1.429388e+00 7.556149e+01 -1.911283e+00 -2.159882e+00 -1.594972e+00 -9.699603e-01 -1.613848e+00 -1.440102e+00 -8.386148e-01 -1.153045e+00 -4.009346e-01 -2.672083e-01 -1.683298e-01 1.235659e-01 5.477704e+00 9.698473e-01 3.670333e-01 4.167811e-01 5.342374e-02 5.099093e-01 7.314925e-01 7.216235e-01 4.748334e-01 3.832479e-01 2.236609e-01 1.986786e-01 6.191320e-02 -1.935218e+00
<VARIANCE> 39
 1.090507e+01 3.100769e+01 2.450036e+01 3.278128e+01 3.685173e+01 3.696606e+01 3.091161e+01 3.168320e+01 3.034230e+01 2.569077e+01 2.253758e+01 1.926974e+01 4.455241e+01 3.482850e+00 3.175966e+00 2.255713e+00 2.377796e+00 2.939369e+00 4.369946e+00 3.703460e+00 3.246949e+00 2.967606e+00 2.308191e+00 2.213130e+00 1.843049e+00 1.084364e+01 2.651967e-01 4.949214e-01 3.648098e-01 5.207676e-01 6.031991e-01 6.122339e-01 5.319259e-01 5.810794e-01 4.958499e-01 4.633399e-01 4.148631e-01 3.597129e-01 1.029716e+00
<GCONST> 1.204533e+02
<MIXTURE> 15 1.719831e-02
<MEAN> 39
 -2.047651e+01 -1.020092e+01 -7.526410e+00 -2.896542e+00 -3.875345e+00 -8.584441e+00 -2.767356e+00 -3.456491e+00 -3.073351e+00 -1.594589e+00 -7.545370e-01 -1.429388e+00 7.556149e+01 -1.911283e+00 -2.159882e+00 -1.594972e+00 -9.699603e-01 -1.613848e+00 -1.440102e+00 -8.386148e-01 -1.153045e+00 -4.009346e-01 -2.672083e-01 -1.683298e-01 1.235659e-01 5.477704e+00 9.698473e-01 3.670333e-01 4.167811e-01 5.342374e-02 5.099093e-01 7.314925e-01 7.216235e-01 4.748334e-01 3.832479e-01 2.236609e-01 1.986786e-01 6.191320e-02 -1.935218e+00
<VARIANCE> 39
 1.090507e+01 3.100769e+01 2.450036e+01 3.278128e+01 3.685173e+01 3.696606e+01 3.091161e+01 3.168320e+01 3.034230e+01 2.569077e+01 2.253758e+01 1.926974e+01 4.455241e+01 3.482850e+00 3.175966e+00 2.255713e+00 2.377796e+00 2.939369e+00 4.369946e+00 3.703460e+00 3.246949e+00 2.967606e+00 2.308191e+00 2.213130e+00 1.843049e+00 1.084364e+01 2.651967e-01 4.949214e-01 3.648098e-01 5.207676e-01 6.031991e-01 6.122339e-01 5.319259e-01 5.810794e-01 4.958499e-01 4.633399e-01 4.148631e-01 3.597129e-01 1.029716e+00
<GCONST> 1.204533e+02
<MIXTURE> 16 9.670191e-02
<MEAN> 39
 -8.719347e+00 -2.790382e+00 -1.188196e+00 -1.019619e+00 2.527964e+00 1.425442e-01 4.296730e+00 2.689144e+00 3.668155e-01 2.916352e-01 6.659045e-01 -1.175323e+00 4.971905e+01 -1.792649e+00 -7.787598e-01 -9.402044e-01 -1.760032e-01 -8.673212e-01 -1.294719e+00 -1.154122e+00 -6.859064e-01 -4.826676e-01 -2.682098e-01 -2.473270e-01 -4.885876e-02 3.678004e+00 -7.220783e-01 -6.668481e-01 -5.198150e-01 -1.843809e-01 -4.243696e-01 -6.173252e-01 -4.273380e-01 -4.479610e-01 -2.322143e-01 -1.563069e-01 -8.308094e-02 1.582397e-03 1.857569e+00
<VARIANCE> 39
 1.323259e+01 2.076771e+01 1.696421e+01 1.627035e+01 1.902349e+01 2.813298e+01 2.327799e+01 1.963669e+01 1.876958e+01 1.671353e+01 1.493437e+01 1.377518e+01 1.640690e+01 3.282554e+00 3.505111e+00 2.403610e+00 2.094269e+00 2.674765e+00 4.431290e+00 3.297477e+00 3.164101e+00 2.530928e+00 2.283481e+00 1.977884e+00 1.610382e+00 1.421646e+01 2.748859e-01 3.335455e-01 2.553176e-01 2.941182e-01 3.397795e-01 4.772022e-01 4.358227e-01 4.008727e-01 3.931994e-01 3.580079e-01 3.293464e-01 2.732948e-01 7.321956e-01
<GCONST> 1.104153e+02
<STATE> 3
<NUMMIXES> 16
<MIXTURE> 1 6.217485e-02
<MEAN> 39
 -1.569525e+01 -1.823673e+01 -1.525940e+01 -3.973308e+00 -2.876453e+00 -1.104054e+01 -2.088944e+00 -4.916601e-01 -2.889626e+00 -2.710557e+00 4.129585e-01 -5.087667e-01 8.166209e+01 4.780859e-01 -2.777000e-01 3.812951e-02 1.495968e-01 2.264639e-01 4.339958e-01 9.195511e-01 2.877887e-01 3.155152e-01 3.816751e-01 3.413779e-01 1.289589e-01 -9.301909e-01 3.692427e-01 6.483566e-01 5.578541e-01 4.266914e-01 5.063732e-01 3.333322e-01 4.696685e-02 -7.223456e-02 -3.799911e-02 -4.375549e-02 -1.026641e-01 -7.804834e-02 -1.419620e+00
<VARIANCE> 39
 9.664932e+00 2.031899e+01 1.529802e+01 2.268405e+01 2.373207e+01 2.101392e+01 2.675050e+01 2.319300e+01 2.526780e+01 2.161480e+01 1.692963e+01 1.438720e+01 1.398928e+01 2.573219e-01 5.550559e-01 6.064581e-01 1.261089e+00 1.432817e+00 1.470619e+00 1.877796e+00 2.259840e+00 1.990829e+00 1.631875e+00 1.499964e+00 1.471390e+00 2.871255e-01 1.255563e-01 2.011502e-01 1.882958e-01 3.032338e-01 3.204917e-01 4.022878e-01 4.341055e-01 3.913767e-01 3.939768e-01 3.437999e-01 2.836066e-01 2.718225e-01 7.773191e-01
<GCONST> 9.540763e+01
<MIXTURE> 2 7.138199e-02
<MEAN> 39
 -8.472463e+00 -1.225369e+01 -7.625403e+00 1.908536e+00 5.919897e+00 -5.524307e+00 1.427282e+00 3.125539e-01 -2.624983e+00 -2.001356e+00 1.455941e+00 -1.464997e-01 5.788096e+01 2.553059e-01 3.920234e-01 3.276300e-01 1.668493e-01 1.882994e-01 2.921854e-01 1.335530e-01 2.263112e-01 1.165462e-01 8.431064e-02 -5.260423e-03 -1.380876e-02 -7.294716e-01 -3.429527e-02 1.754186e-02 -3.048830e-02 -5.803941e-02 -7.881535e-02 -3.270388e-02 -4.287745e-02 -1.587944e-02 -4.593770e-03 -5.582438e-03 -2.420359e-02 -8.834146e-03 5.484989e-02
<VARIANCE> 39
 8.631762e+00 2.148234e+01 1.399874e+01 2.195533e+01 2.551428e+01 2.349805e+01 2.471926e+01 2.447761e+01 2.260088e+01 1.905057e+01 1.635463e+01 1.443742e+01 2.668091e+01 1.216351e-01 2.372328e-01 4.103697e-01 6.476604e-01 8.995521e-01 1.052796e+00 1.166325e+00 1.250750e+00 1.300069e+00 1.283997e+00 1.275527e+00 1.135547e+00 4.470518e-02 2.655779e-02 5.082386e-02 8.371849e-02 1.268344e-01 1.755723e-01 2.184352e-01 2.400897e-01 2.578935e-01 2.710936e-01 2.664851e-01 2.632459e-01 2.374885e-01 2.079286e-02
<GCONST> 7.700153e+01
<MIXTURE> 3 7.332265e-02
<MEAN> 39
 -8.505912e+00 -1.207922e+01 -7.538131e+00 1.850204e+00 6.093170e+00 -5.355316e+00 1.456410e+00 3.160186e-01 -2.560963e+00 -1.925909e+00 1.440959e+00 -1.709191e-01 5.775105e+01 2.570765e-01 3.932617e-01 3.292206e-01 1.670932e-01 1.885916e-01 2.901945e-01 1.314457e-01 2.323494e-01 1.199204e-01 8.767495e-02 -6.603963e-03 -1.340373e-02 -7.287909e-01 -2.142182e-02 7.919259e-03 -3.189914e-02 -5.540653e-02 -7.800183e-02 -3.468200e-02 -3.748027e-02 -1.761451e-02 -1.308104e-02 -1.005178e-02 -2.151577e-02 -7.304190e-03 2.969481e-02
<VARIANCE> 39
 8.747110e+00 2.110361e+01 1.356861e+01 2.191307e+01 2.533662e+01 2.321265e+01 2.453066e+01 2.485417e+01 2.226444e+01 1.902828e+01 1.645778e+01 1.448264e+01 2.618266e+01 1.224534e-01 2.379833e-01 4.135444e-01 6.522071e-01 9.055237e-01 1.055916e+00 1.175993e+00 1.251452e+00 1.308113e+00 1.291665e+00 1.275947e+00 1.136357e+00 4.460631e-02 2.157471e-02 4.726328e-02 8.216443e-02 1.249662e-01 1.741953e-01 2.149189e-01 2.366165e-01 2.555185e-01 2.683474e-01 2.661115e-01 2.623486e-01 2.355525e-01 7.782526e-03
<GCONST> 7.561271e+01
<MIXTURE> 4 8.224150e-02
<MEAN> 39
 -1.219749e+01 -1.763975e+01 -1.326490e+01 -1.202340e+00 2.982130e-01 -1.036136e+01 -9.514582e-01 -1.591084e+00 -4.085877e+00 -3.277012e+00 5.932478e-01 -5.119386e-01 7.197781e+01 3.042503e-01 1.057370e-01 2.375818e-01 2.489721e-01 3.165569e-01 1.222261e-01 1.224756e-01 -1.656315e-02 -3.514443e-02 -1.863626e-02 6.364045e-02 6.001541e-02 -9.673987e-01 -9.925717e-03 2.097385e-02 2.043321e-02 1.269326e-02 1.880763e-02 2.168106e-02 7.992832e-04 2.763725e-02 1.979342e-02 1.175759e-02 9.953332e-03 5.855538e-03 1.066186e-02
<VARIANCE> 39
 1.025194e+01 1.664010e+01 1.452251e+01 2.177390e+01 2.390634e+01 2.069061e+01 2.510992e+01 2.143211e+01 2.309292e+01 1.957606e+01 1.631954e+01 1.477240e+01 3.426190e+01 9.404584e-02 2.221979e-01 3.566837e-01 5.951901e-01 8.081957e-01 9.696812e-01 1.136188e+00 1.210779e+00 1.287525e+00 1.293193e+00 1.197669e+00 1.157923e+00 2.929080e-02 1.966209e-02 4.605088e-02 7.251634e-02 1.242634e-01 1.693762e-01 1.998277e-01 2.442119e-01 2.609340e-01 2.724558e-01 2.723990e-01 2.491728e-01 2.441735e-01 5.657301e-03
<GCONST> 7.373093e+01
<MIXTURE> 5 7.332265e-02
<MEAN> 39
 -8.505912e+00 -1.207922e+01 -7.538131e+00 1.850204e+00 6.093170e+00 -5.355316e+00 1.456410e+00 3.160186e-01 -2.560963e+00 -1.925909e+00 1.440959e+00 -1.709191e-01 5.775105e+01 2.570765e-01 3.932617e-01 3.292206e-01 1.670932e-01 1.885916e-01 2.901945e-01 1.314457e-01 2.323494e-01 1.199204e-01 8.767495e-02 -6.603963e-03 -1.340373e-02 -7.287909e-01 -2.142182e-02 7.919259e-03 -3.189914e-02 -5.540653e-02 -7.800183e-02 -3.468200e-02 -3.748027e-02 -1.761451e-02 -1.308104e-02 -1.005178e-02 -2.151577e-02 -7.304190e-03 2.969481e-02
<VARIANCE> 39
 8.747110e+00 2.110361e+01 1.356861e+01 2.191307e+01 2.533662e+01 2.321265e+01 2.453066e+01 2.485417e+01 2.226444e+01 1.902828e+01 1.645778e+01 1.448264e+01 2.618266e+01 1.224534e-01 2.379833e-01 4.135444e-01 6.522071e-01 9.055237e-01 1.055916e+00 1.175993e+00 1.251452e+00 1.308113e+00 1.291665e+00 1.275947e+00 1.136357e+00 4.460631e-02 2.157471e-02 4.726328e-02 8.216443e-02 1.249662e-01 1.741953e-01 2.149189e-01 2.366165e-01 2.555185e-01 2.683474e-01 2.661115e-01 2.623486e-01 2.355525e-01 7.782526e-03
<GCONST> 7.561271e+01
<MIXTURE> 6 8.224072e-02
<MEAN> 39
 -1.219696e+01 -1.764040e+01 -1.326464e+01 -1.201346e+00 2.979606e-01 -1.036202e+01 -9.510136e-01 -1.590634e+00 -4.086376e+00 -3.277199e+00 5.936877e-01 -5.116858e-01 7.197720e+01 3.042355e-01 1.057473e-01 2.375851e-01 2.489600e-01 3.165533e-01 1.222513e-01 1.225051e-01 -1.648730e-02 -3.506147e-02 -1.856591e-02 6.368948e-02 6.003459e-02 -9.673836e-01 -9.925569e-03 2.097450e-02 2.043146e-02 1.268944e-02 1.881680e-02 2.170489e-02 8.136548e-04 2.764105e-02 1.981083e-02 1.176747e-02 9.938122e-03 5.832639e-03 1.066215e-02
<VARIANCE> 39
 1.025085e+01 1.663734e+01 1.452148e+01 2.176990e+01 2.390510e+01 2.068742e+01 2.510800e+01 2.142905e+01 2.309119e+01 1.957451e+01 1.631792e+01 1.477129e+01 3.425900e+01 9.403562e-02 2.221846e-01 3.566644e-01 5.951514e-01 8.081467e-01 9.696205e-01 1.136116e+00 1.210723e+00 1.287458e+00 1.293125e+00 1.197591e+00 1.157868e+00 2.928877e-02 1.965901e-02 4.604594e-02 7.251149e-02 1.242522e-01 1.693640e-01 1.998067e-01 2.441817e-01 2.609027e-01 2.724253e-01 2.723712e-01 2.491452e-01 2.441513e-01 5.656405e-03
<GCONST> 7.372737e+01
<MIXTURE> 7 8.224382e-02
<MEAN> 39
 -1.219470e+01 -1.764100e+01 -1.326298e+01 -1.198006e+00 2.990261e-01 -1.036242e+01 -9.495736e-01 -1.590043e+00 -4.087836e+00 -3.278019e+00 5.944086e-01 -5.111874e-01 7.197274e+01 3.041829e-01 1.057901e-01 2.375937e-01 2.488826e-01 3.165184e-01 1.223544e-01 1.226280e-01 -1.617898e-02 -3.473692e-02 -1.827285e-02 6.392397e-02 6.012562e-02 -9.673027e-01 -9.923518e-03 2.094104e-02 2.036452e-02 1.258208e-02 1.872602e-02 2.170508e-02 8.650361e-04 2.770294e-02 1.992953e-02 1.188781e-02 9.988220e-03 5.821079e-03 1.067003e-02
<VARIANCE> 39
 1.024905e+01 1.663347e+01 1.452046e+01 2.176697e+01 2.390509e+01 2.068336e+01 2.510769e+01 2.142617e+01 2.308906e+01 1.957389e+01 1.631695e+01 1.477120e+01 3.424850e+01 9.400505e-02 2.221724e-01 3.566621e-01 5.951046e-01 8.081143e-01 9.695912e-01 1.136081e+00 1.210689e+00 1.287409e+00 1.293038e+00 1.197513e+00 1.157874e+00 2.928245e-02 1.964432e-02 4.602598e-02 7.250085e-02 1.242292e-01 1.693394e-01 1.997743e-01 2.441137e-01 2.608407e-01 2.723635e-01 2.723180e-01 2.490949e-01 2.441353e-01 5.650378e-03
<GCONST> 7.372080e+01
<MIXTURE> 8 1.570759e-02
<MEAN> 39
 -1.648903e+01 -1.644451e+01 -1.435863e+01 -3.172307e+00 -2.678033e+00 -1.232033e+01 -5.384799e+00 -2.346838e+00 -4.856330e+00 -4.301970e+00 -1.028882e+00 -1.956346e+00 8.286301e+01 -1.272276e+00 -2.569494e+00 -2.105487e+00 -1.224501e+00 -1.631653e+00 -1.550074e+00 -5.070010e-01 -3.779782e-01 -4.580950e-01 -3.367478e-01 -8.080629e-02 -6.625694e-02 5.553720e+00 8.041075e-01 3.527988e-01 5.882269e-01 3.763634e-01 5.273075e-01 7.468963e-01 8.611067e-01 3.946865e-01 3.157728e-01 3.414094e-01 2.828103e-01 1.726660e-01 -2.292060e+00
<VARIANCE> 39
 1.109411e+01 1.945819e+01 1.731561e+01 3.251037e+01 3.085112e+01 3.405365e+01 3.526144e+01 3.133796e+01 3.351718e+01 2.493492e+01 2.096822e+01 1.939777e+01 1.979176e+01 1.521159e+00 2.419261e+00 1.847178e+00 2.481414e+00 2.599289e+00 3.356045e+00 3.310569e+00 2.843515e+00 2.813328e+00 2.246342e+00 1.751667e+00 1.577245e+00 8.681195e+00 1.493841e-01 5.042456e-01 3.458326e-01 5.051911e-01 5.053825e-01 5.901424e-01 5.287379e-01 6.306190e-01 5.915903e-01 4.514860e-01 3.732049e-01 3.600026e-01 7.973922e-01
<GCONST> 1.151337e+02
<MIXTURE> 9 7.279750e-02
<MEAN> 39
 -8.503874e+00 -1.209359e+01 -7.544684e+00 1.856016e+00 6.080486e+00 -5.368516e+00 1.455662e+00 3.172772e-01 -2.566568e+00 -1.931682e+00 1.443232e+00 -1.684080e-01 5.776125e+01 2.569617e-01 3.932363e-01 3.291663e-01 1.672523e-01 1.887796e-01 2.905277e-01 1.317304e-01 2.319994e-01 1.196979e-01 8.742901e-02 -6.642972e-03 -1.345281e-02 -7.288525e-01 -2.213456e-02 8.548214e-03 -3.174109e-02 -5.561446e-02 -7.797599e-02 -3.449207e-02 -3.778322e-02 -1.756548e-02 -1.251335e-02 -9.746630e-03 -2.174394e-02 -7.481445e-03 3.086887e-02
<VARIANCE> 39
 8.739955e+00 2.113007e+01 1.359904e+01 2.191122e+01 2.534429e+01 2.322384e+01 2.454183e+01 2.481978e+01 2.228358e+01 1.902617e+01 1.644952e+01 1.447838e+01 2.622231e+01 1.223792e-01 2.379521e-01 4.133292e-01 6.518285e-01 9.049886e-01 1.055656e+00 1.175352e+00 1.251246e+00 1.307328e+00 1.291019e+00 1.275867e+00 1.136179e+00 4.461082e-02 2.194824e-02 4.755088e-02 8.230589e-02 1.251036e-01 1.743155e-01 2.152041e-01 2.368367e-01 2.556008e-01 2.685159e-01 2.660920e-01 2.623545e-01 2.356671e-01 8.373583e-03
<GCONST> 7.571560e+01
<MIXTURE> 10 8.223601e-02
<MEAN> 39
 -1.219771e+01 -1.763973e+01 -1.326499e+01 -1.202540e+00 2.981679e-01 -1.036113e+01 -9.512935e-01 -1.590931e+00 -4.085574e+00 -3.276741e+00 5.932907e-01 -5.119956e-01 7.197814e+01 3.042612e-01 1.057461e-01 2.375953e-01 2.489910e-01 3.165655e-01 1.222118e-01 1.224514e-01 -1.660509e-02 -3.517948e-02 -1.866402e-02 6.361105e-02 5.999204e-02 -9.674023e-01 -9.923775e-03 2.098064e-02 2.043844e-02 1.269421e-02 1.879695e-02 2.165137e-02 7.562282e-04 2.759236e-02 1.974894e-02 1.172087e-02 9.936977e-03 5.858878e-03 1.066116e-02
<VARIANCE> 39
 1.025232e+01 1.664087e+01 1.452289e+01 2.177469e+01 2.390675e+01 2.069148e+01 2.511045e+01 2.143282e+01 2.309328e+01 1.957638e+01 1.631976e+01 1.477260e+01 3.426322e+01 9.405037e-02 2.222010e-01 3.566901e-01 5.952083e-01 8.082036e-01 9.696933e-01 1.136205e+00 1.210801e+00 1.287545e+00 1.293223e+00 1.197698e+00 1.157949e+00 2.929146e-02 1.966386e-02 4.605351e-02 7.251850e-02 1.242676e-01 1.693808e-01 1.998349e-01 2.442251e-01 2.609462e-01 2.724642e-01 2.724061e-01 2.491796e-01 2.441783e-01 5.657969e-03
<GCONST> 7.373216e+01
<MIXTURE> 11 8.224229e-02
<MEAN> 39
 -1.219478e+01 -1.764068e+01 -1.326293e+01 -1.198268e+00 2.992215e-01 -1.036211e+01 -9.497535e-01 -1.590457e+00 -4.087914e+00 -3.278177e+00 5.940098e-01 -5.114159e-01 7.197270e+01 3.041801e-01 1.057755e-01 2.375786e-01 2.488649e-01 3.165083e-01 1.223521e-01 1.226313e-01 -1.617797e-02 -3.473819e-02 -1.827254e-02 6.393417e-02 6.013900e-02 -9.673054e-01 -9.926260e-03 2.093099e-02 2.035588e-02 1.257587e-02 1.871636e-02 2.169821e-02 8.810952e-04 2.773895e-02 1.996499e-02 1.192692e-02 1.003467e-02 5.850337e-03 1.067026e-02
<VARIANCE> 39
 1.024910e+01 1.663443e+01 1.452058e+01 2.176816e+01 2.390535e+01 2.068429e+01 2.510771e+01 2.142646e+01 2.308905e+01 1.957380e+01 1.631692e+01 1.477105e+01 3.424790e+01 9.400197e-02 2.221710e-01 3.566582e-01 5.950918e-01 8.081086e-01 9.695808e-01 1.136067e+00 1.210667e+00 1.287400e+00 1.293028e+00 1.197496e+00 1.157860e+00 2.928201e-02 1.964336e-02 4.602469e-02 7.249951e-02 1.242276e-01 1.693387e-01 1.997737e-01 2.441080e-01 2.608341e-01 2.723593e-01 2.723143e-01 2.490905e-01 2.441324e-01 5.649998e-03
<GCONST> 7.372051e+01
<MIXTURE> 12 1.557031e-02
<MEAN> 39
 -1.649531e+01 -1.637981e+01 -1.432985e+01 -3.174521e+00 -2.628870e+00 -1.228681e+01 -5.405329e+00 -2.343086e+00 -4.808239e+00 -4.283363e+00 -1.036563e+00 -1.947318e+00 8.279204e+01 -1.290141e+00 -2.564817e+00 -2.112585e+00 -1.235071e+00 -1.638590e+00 -1.559756e+00 -5.279929e-01 -3.872707e-01 -4.582555e-01 -3.412830e-01 -8.702578e-02 -6.980978e-02 5.593215e+00 8.020242e-01 3.422484e-01 5.818170e-01 3.744857e-01 5.212352e-01 7.394679e-01 8.600813e-01 3.932411e-01 3.104452e-01 3.381000e-01 2.833033e-01 1.725160e-01 -2.276300e+00
<VARIANCE> 39
 1.110271e+01 1.966265e+01 1.744820e+01 3.266833e+01 3.100252e+01 3.431536e+01 3.533406e+01 3.145825e+01 3.366071e+01 2.507220e+01 2.109353e+01 1.945913e+01 2.026341e+01 1.527935e+00 2.441760e+00 1.857859e+00 2.485111e+00 2.605469e+00 3.363361e+00 3.318195e+00 2.846245e+00 2.815288e+00 2.249563e+00 1.755745e+00 1.578620e+00 8.705773e+00 1.498622e-01 5.067750e-01 3.480047e-01 5.076882e-01 5.070344e-01 5.929025e-01 5.297180e-01 6.315583e-01 5.938361e-01 4.535184e-01 3.747636e-01 3.605315e-01 8.093771e-01
<GCONST> 1.153147e+02
<MIXTURE> 13 8.224339e-02
<MEAN> 39
 -1.219442e+01 -1.764070e+01 -1.326280e+01 -1.197912e+00 2.992975e-01 -1.036228e+01 -9.497871e-01 -1.590629e+00 -4.088318e+00 -3.278461e+00 5.940021e-01 -5.113801e-01 7.197202e+01 3.041690e-01 1.057743e-01 2.375732e-01 2.488526e-01 3.165054e-01 1.223794e-01 1.226734e-01 -1.610367e-02 -3.467123e-02 -1.821461e-02 6.398664e-02 6.017006e-02 -9.672952e-01 -9.923764e-03 2.092862e-02 2.035286e-02 1.257257e-02 1.872544e-02 2.172855e-02 9.224446e-04 2.778331e-02 2.001581e-02 1.197103e-02 1.005378e-02 5.849132e-03 1.067331e-02
<VARIANCE> 39
 1.024920e+01 1.663467e+01 1.452091e+01 2.176945e+01 2.390660e+01 2.068504e+01 2.510948e+01 2.142748e+01 2.309003e+01 1.957520e+01 1.631810e+01 1.477224e+01 3.424810e+01 9.400319e-02 2.221833e-01 3.566827e-01 5.951281e-01 8.081600e-01 9.696336e-01 1.136123e+00 1.210719e+00 1.287459e+00 1.293082e+00 1.197549e+00 1.157921e+00 2.928305e-02 1.964167e-02 4.602415e-02 7.250337e-02 1.242332e-01 1.693475e-01 1.997842e-01 2.441150e-01 2.608416e-01 2.723693e-01 2.723298e-01 2.491058e-01 2.441493e-01 5.649131e-03
<GCONST> 7.372196e+01
<MIXTURE> 14 1.557031e-02
<MEAN> 39
 -1.649531e+01 -1.637981e+01 -1.432985e+01 -3.174521e+00 -2.628870e+00 -1.228681e+01 -5.405329e+00 -2.343086e+00 -4.808239e+00 -4.283363e+00 -1.036563e+00 -1.947318e+00 8.279204e+01 -1.290141e+00 -2.564817e+00 -2.112585e+00 -1.235071e+00 -1.638590e+00 -1.559756e+00 -5.279929e-01 -3.872707e-01 -4.582555e-01 -3.412830e-01 -8.702578e-02 -6.980978e-02 5.593215e+00 8.020242e-01 3.422484e-01 5.818170e-01 3.744857e-01 5.212352e-01 7.394679e-01 8.600813e-01 3.932411e-01 3.104452e-01 3.381000e-01 2.833033e-01 1.725160e-01 -2.276300e+00
<VARIANCE> 39
 1.110271e+01 1.966265e+01 1.744820e+01 3.266833e+01 3.100252e+01 3.431536e+01 3.533406e+01 3.145825e+01 3.366071e+01 2.507220e+01 2.109353e+01 1.945913e+01 2.026341e+01 1.527935e+00 2.441760e+00 1.857859e+00 2.485111e+00 2.605469e+00 3.363361e+00 3.318195e+00 2.846245e+00 2.815288e+00 2.249563e+00 1.755745e+00 1.578620e+00 8.705773e+00 1.498622e-01 5.067750e-01 3.480047e-01 5.076882e-01 5.070344e-01 5.929025e-01 5.297180e-01 6.315583e-01 5.938361e-01 4.535184e-01 3.747636e-01 3.605315e-01 8.093771e-01
<GCONST> 1.153147e+02
<MIXTURE> 15 1.734466e-02
<MEAN> 39
 -1.650652e+01 -1.253430e+01 -1.205329e+01 -3.020831e+00 -6.711183e-01 -1.019475e+01 -5.266437e+00 -1.810228e+00 -2.291848e+00 -2.931498e+00 -1.009232e+00 -1.219528e+00 7.751597e+01 -2.048765e+00 -2.088532e+00 -2.264163e+00 -1.723836e+00 -1.940870e+00 -1.781951e+00 -1.372639e+00 -8.287314e-01 -4.332575e-01 -4.678776e-01 -3.616747e-01 -2.071766e-01 6.976912e+00 6.613207e-01 -1.980820e-01 2.109673e-01 2.711909e-01 2.738979e-01 3.699189e-01 7.227525e-01 2.927655e-01 3.841971e-02 1.414094e-01 2.699498e-01 1.394756e-01 -1.360011e+00
<VARIANCE> 39
 1.087276e+01 3.185447e+01 2.482139e+01 3.524333e+01 3.593416e+01 4.251553e+01 3.565863e+01 3.273047e+01 3.725694e+01 2.932244e+01 2.401213e+01 2.022633e+01 4.879237e+01 1.675340e+00 3.640344e+00 2.480072e+00 2.728976e+00 2.840895e+00 3.801732e+00 3.464925e+00 3.133736e+00 3.013518e+00 2.415446e+00 1.971752e+00 1.653250e+00 8.762650e+00 1.545833e-01 5.522493e-01 4.147658e-01 5.568145e-01 5.469170e-01 6.592224e-01 5.498837e-01 5.982013e-01 6.385959e-01 5.057318e-01 4.165863e-01 3.634589e-01 1.174660e+00
<GCONST> 1.206684e+02
<MIXTURE> 16 8.941177e-02
<MEAN> 39
 -7.784041e+00 -1.074600e+01 -6.797152e+00 2.319304e+00 4.684519e+00 -4.914516e+00 1.602539e+00 1.496884e+00 -2.067581e+00 -1.822604e+00 1.155011e+00 -6.639989e-02 5.625830e+01 -1.191996e+00 6.859404e-02 -6.095232e-01 -6.835054e-01 -8.848578e-01 -6.185687e-01 -9.558737e-01 -3.223203e-01 -6.045708e-02 -2.038243e-01 -3.573860e-01 -2.273324e-01 2.858856e+00 -5.733883e-01 -4.867972e-01 -5.511647e-01 -4.040397e-01 -4.783118e-01 -5.085973e-01 -4.049416e-01 -2.478396e-01 -1.375404e-01 -1.286323e-01 -1.041262e-01 -6.529528e-02 1.800494e+00
<VARIANCE> 39
 9.064091e+00 3.436999e+01 1.771522e+01 2.050657e+01 2.590649e+01 2.868498e+01 2.588604e+01 2.153203e+01 2.180046e+01 1.985999e+01 1.559710e+01 1.400033e+01 3.628525e+01 1.936707e+00 2.134981e+00 2.145574e+00 2.284500e+00 2.653691e+00 3.341939e+00 3.096172e+00 2.639102e+00 2.403486e+00 2.147702e+00 1.851348e+00 1.589342e+00 1.334730e+01 1.379898e-01 3.327375e-01 2.336123e-01 2.958488e-01 3.461014e-01 4.141612e-01 4.077226e-01 4.098694e-01 4.060914e-01 3.608894e-01 3.219717e-01 2.860041e-01 6.338732e-01
<GCONST> 1.096543e+02
<STATE> 4
<NUMMIXES> 16
<MIXTURE> 1 3.973388e-02
<MEAN> 39
 -1.589469e+01 -1.979000e+01 -9.942775e+00 -2.148558e+00 -8.618096e+00 -8.644836e+00 1.993043e+00 -4.352051e+00 -2.481198e+00 9.068193e-01 -4.245260e-02 -1.151797e+00 7.883376e+01 4.593025e-01 -1.520144e-01 1.696994e-01 7.554273e-02 2.746912e-01 3.217695e-01 7.189124e-01 4.024903e-01 6.731179e-01 3.314025e-01 1.390198e-01 1.750746e-01 -1.005214e+00 3.644916e-01 8.013938e-01 4.062483e-01 3.537395e-01 6.664823e-01 3.685601e-01 2.455762e-02 1.566935e-01 -1.341987e-01 -1.459279e-01 -4.175506e-02 -7.240520e-02 -1.345808e+00
<VARIANCE> 39
 1.139903e+01 3.463460e+01 1.713260e+01 1.761667e+01 2.169597e+01 2.229957e+01 2.653436e+01 2.416392e+01 2.434095e+01 1.942006e+01 1.916030e+01 1.506144e+01 3.338311e+01 2.039935e-01 4.838848e-01 6.255497e-01 1.114944e+00 1.391096e+00 1.503598e+00 1.625719e+00 1.895149e+00 2.157177e+00 1.605745e+00 1.335072e+00 1.277533e+00 1.587362e-01 1.496805e-01 3.868254e-01 2.010314e-01 2.983641e-01 3.373899e-01 4.045420e-01 4.026608e-01 4.313913e-01 4.388003e-01 3.389979e-01 3.047217e-01 2.538095e-01 9.119917e-01
<GCONST> 9.650319e+01
<MIXTURE> 2 9.397819e-02
<MEAN> 39
 -5.863389e+00 -4.900732e+00 -1.986130e+00 1.283814e+00 8.444009e-01 3.372093e-01 4.769539e+00 2.634676e+00 5.203263e-02 1.246760e+00 9.751352e-01 -1.182581e+00 4.865807e+01 1.138067e-01 3.419178e-01 2.494096e-02 -1.218778e-01 -5.446829e-02 1.759234e-01 1.036898e-02 2.055216e-01 9.737709e-02 3.657005e-02 -4.267475e-02 -4.295786e-02 -2.985686e-01 -1.980705e-02 -1.272399e-02 -1.924695e-02 -1.921162e-02 -1.731012e-02 -2.485995e-02 -2.242444e-02 -3.163320e-02 -1.651907e-02 -1.240026e-02 3.039429e-06 5.566969e-03 2.607325e-02
<VARIANCE> 39
 6.135659e+00 3.374758e+01 1.013831e+01 2.283894e+01 1.678307e+01 1.971832e+01 1.783937e+01 2.057848e+01 1.896857e+01 1.652594e+01 1.432678e+01 1.259159e+01 1.738505e+01 1.421017e-01 3.079953e-01 4.306173e-01 6.647480e-01 8.750853e-01 1.056943e+00 1.192242e+00 1.318891e+00 1.358532e+00 1.315244e+00 1.244467e+00 1.111869e+00 1.022853e-01 2.328013e-02 4.700331e-02 8.339585e-02 1.280059e-01 1.722639e-01 2.079877e-01 2.350884e-01 2.565525e-01 2.715130e-01 2.641138e-01 2.488075e-01 2.222100e-01 7.891760e-03
<GCONST> 7.471407e+01
<MIXTURE> 3 9.398175e-02
<MEAN> 39
 -5.864554e+00 -4.908460e+00 -1.985278e+00 1.289765e+00 8.455192e-01 3.337826e-01 4.771020e+00 2.631018e+00 4.919272e-02 1.246671e+00 9.765313e-01 -1.181691e+00 4.866318e+01 1.140846e-01 3.424296e-01 2.522549e-02 -1.216733e-01 -5.428031e-02 1.763320e-01 1.068749e-02 2.061285e-01 9.768768e-02 3.676929e-02 -4.263493e-02 -4.300943e-02 -2.990118e-01 -1.983129e-02 -1.275790e-02 -1.935795e-02 -1.939260e-02 -1.744400e-02 -2.488349e-02 -2.243557e-02 -3.155572e-02 -1.642657e-02 -1.239666e-02 -7.959094e-05 5.501908e-03 2.606568e-02
<VARIANCE> 39
 6.135713e+00 3.375769e+01 1.013752e+01 2.284078e+01 1.677863e+01 1.971258e+01 1.783220e+01 2.057272e+01 1.896437e+01 1.652041e+01 1.432069e+01 1.258644e+01 1.739005e+01 1.420311e-01 3.078125e-01 4.304174e-01 6.644431e-01 8.746600e-01 1.056424e+00 1.191711e+00 1.318304e+00 1.357930e+00 1.314676e+00 1.243990e+00 1.111543e+00 1.022373e-01 2.324928e-02 4.696467e-02 8.334127e-02 1.279217e-01 1.721426e-01 2.078340e-01 2.349179e-01 2.563690e-01 2.713153e-01 2.639295e-01 2.486296e-01 2.220951e-01 7.875162e-03
<GCONST> 7.469503e+01
<MIXTURE> 4 7.807219e-02
<MEAN> 39
 -1.116569e+01 -1.835885e+01 -6.530919e+00 1.799486e+00 -3.842185e+00 -6.719862e+00 3.989255e+00 -4.504654e+00 -3.410104e+00 6.179654e-01 5.313180e-01 -8.750087e-01 6.623505e+01 2.994733e-01 2.242094e-01 2.649117e-01 2.616651e-01 3.109798e-01 1.901444e-01 1.341961e-01 8.704712e-02 2.395506e-04 2.625773e-02 6.256197e-02 3.856967e-02 -8.936139e-01 -6.719838e-03 2.122357e-02 1.317795e-03 -1.304134e-03 -4.533265e-03 1.298076e-02 -2.193843e-03 3.035954e-02 1.222056e-02 9.027012e-03 4.354756e-03 -3.498826e-03 1.418424e-02
<VARIANCE> 39
 1.473967e+01 3.017262e+01 1.963056e+01 1.905330e+01 2.397167e+01 2.376069e+01 2.294223e+01 2.133129e+01 2.380583e+01 2.041609e+01 1.821337e+01 1.520677e+01 5.740633e+01 9.777354e-02 2.447138e-01 3.853467e-01 5.927941e-01 8.135902e-01 9.871223e-01 1.133910e+00 1.224733e+00 1.290303e+00 1.303464e+00 1.239264e+00 1.141310e+00 3.558899e-02 1.988081e-02 4.712547e-02 7.886202e-02 1.205165e-01 1.670491e-01 2.029598e-01 2.382169e-01 2.558643e-01 2.736858e-01 2.724510e-01 2.543499e-01 2.369775e-01 5.892803e-03
<GCONST> 7.617831e+01
<MIXTURE> 5 9.398175e-02
<MEAN> 39
 -5.864554e+00 -4.908460e+00 -1.985278e+00 1.289765e+00 8.455192e-01 3.337826e-01 4.771020e+00 2.631018e+00 4.919272e-02 1.246671e+00 9.765313e-01 -1.181691e+00 4.866318e+01 1.140846e-01 3.424296e-01 2.522549e-02 -1.216733e-01 -5.428031e-02 1.763320e-01 1.068749e-02 2.061285e-01 9.768768e-02 3.676929e-02 -4.263493e-02 -4.300943e-02 -2.990118e-01 -1.983129e-02 -1.275790e-02 -1.935795e-02 -1.939260e-02 -1.744400e-02 -2.488349e-02 -2.243557e-02 -3.155572e-02 -1.642657e-02 -1.239666e-02 -7.959094e-05 5.501908e-03 2.606568e-02
<VARIANCE> 39
 6.135713e+00 3.375769e+01 1.013752e+01 2.284078e+01 1.677863e+01 1.971258e+01 1.783220e+01 2.057272e+01 1.896437e+01 1.652041e+01 1.432069e+01 1.258644e+01 1.739005e+01 1.420311e-01 3.078125e-01 4.304174e-01 6.644431e-01 8.746600e-01 1.056424e+00 1.191711e+00 1.318304e+00 1.357930e+00 1.314676e+00 1.243990e+00 1.111543e+00 1.022373e-01 2.324928e-02 4.696467e-02 8.334127e-02 1.279217e-01 1.721426e-01 2.078340e-01 2.349179e-01 2.563690e-01 2.713153e-01 2.639295e-01 2.486296e-01 2.220951e-01 7.875162e-03
<GCONST> 7.469503e+01
<MIXTURE> 6 7.807154e-02
<MEAN> 39
 -1.116595e+01 -1.835916e+01 -6.531405e+00 1.799122e+00 -3.842524e+00 -6.720261e+00 3.988887e+00 -4.504744e+00 -3.410216e+00 6.177330e-01 5.311602e-01 -8.751039e-01 6.623611e+01 2.994687e-01 2.241775e-01 2.648959e-01 2.616552e-01 3.109768e-01 1.901253e-01 1.341847e-01 8.701204e-02 2.191921e-04 2.624759e-02 6.256466e-02 3.858095e-02 -8.936310e-01 -6.720179e-03 2.122246e-02 1.324068e-03 -1.294348e-03 -4.521168e-03 1.299427e-02 -2.180317e-03 3.036776e-02 1.222955e-02 9.040415e-03 4.368409e-03 -3.490682e-03 1.418406e-02
<VARIANCE> 39
 1.473992e+01 3.017253e+01 1.963187e+01 1.905331e+01 2.397213e+01 2.376131e+01 2.294308e+01 2.133209e+01 2.380599e+01 2.041694e+01 1.821398e+01 1.520738e+01 5.740903e+01 9.777478e-02 2.447199e-01 3.853540e-01 5.928100e-01 8.136100e-01 9.871387e-01 1.133916e+00 1.224757e+00 1.290331e+00 1.303499e+00 1.239303e+00 1.141332e+00 3.558957e-02 1.987914e-02 4.712481e-02 7.886263e-02 1.205194e-01 1.670527e-01 2.029646e-01 2.382218e-01 2.558730e-01 2.736948e-01 2.724624e-01 2.543614e-01 2.369872e-01 5.892169e-03
<GCONST> 7.617905e+01
<MIXTURE> 7 7.807124e-02
<MEAN> 39
 -1.116617e+01 -1.835912e+01 -6.531624e+00 1.798804e+00 -3.842652e+00 -6.720492e+00 3.988498e+00 -4.504801e+00 -3.410200e+00 6.175233e-01 5.310962e-01 -8.751177e-01 6.623655e+01 2.994720e-01 2.241688e-01 2.648965e-01 2.616616e-01 3.109904e-01 1.901315e-01 1.341935e-01 8.700431e-02 2.089674e-04 2.623678e-02 6.255802e-02 3.857946e-02 -8.936369e-01 -6.716962e-03 2.122706e-02 1.333488e-03 -1.281676e-03 -4.507809e-03 1.301011e-02 -2.162066e-03 3.037984e-02 1.223721e-02 9.051742e-03 4.378655e-03 -3.486160e-03 1.418553e-02
<VARIANCE> 39
 1.474013e+01 3.017254e+01 1.963244e+01 1.905331e+01 2.397221e+01 2.376141e+01 2.294403e+01 2.133241e+01 2.380591e+01 2.041762e+01 1.821459e+01 1.520742e+01 5.741050e+01 9.777573e-02 2.447208e-01 3.853541e-01 5.928119e-01 8.136044e-01 9.871386e-01 1.133912e+00 1.224750e+00 1.290322e+00 1.303489e+00 1.239296e+00 1.141321e+00 3.559027e-02 1.987953e-02 4.712529e-02 7.886260e-02 1.205204e-01 1.670528e-01 2.029669e-01 2.382254e-01 2.558762e-01 2.737004e-01 2.724707e-01 2.543709e-01 2.369903e-01 5.892274e-03
<GCONST> 7.617940e+01
<MIXTURE> 8 1.189893e-02
<MEAN> 39
 -1.627859e+01 -1.335177e+01 -7.559575e+00 -4.800006e-01 -4.553415e+00 -7.958992e+00 -1.122577e+00 -4.010133e+00 -3.731664e+00 -9.807772e-01 -1.281021e-01 -1.303086e+00 7.395944e+01 -2.207587e+00 -3.182883e+00 -1.515099e+00 -9.942358e-01 -2.105358e+00 -2.088511e+00 -1.041335e+00 -1.816753e+00 -6.804058e-01 -3.516873e-01 -2.417998e-01 -5.866404e-02 6.829892e+00 8.048697e-01 1.877247e-01 2.572379e-01 1.016629e-01 1.501024e-01 5.425601e-01 6.347051e-01 4.699706e-01 3.791257e-01 3.059703e-01 1.060107e-01 3.572479e-02 -1.603340e+00
<VARIANCE> 39
 1.583391e+01 5.476441e+01 2.821308e+01 3.136753e+01 4.141729e+01 3.884589e+01 4.176345e+01 3.809309e+01 3.750511e+01 2.535993e+01 2.506300e+01 2.065288e+01 8.075724e+01 3.103019e+00 7.674883e+00 2.611745e+00 3.112063e+00 2.967689e+00 4.317365e+00 3.890071e+00 3.867339e+00 3.716703e+00 2.547257e+00 2.192970e+00 1.792560e+00 1.508934e+01 2.438733e-01 1.047434e+00 3.939524e-01 6.131715e-01 7.452865e-01 6.903480e-01 6.266729e-01 7.309531e-01 6.689562e-01 4.864061e-01 4.575532e-01 3.598530e-01 1.735759e+00
<GCONST> 1.277336e+02
<MIXTURE> 9 9.397963e-02
<MEAN> 39
 -5.864367e+00 -4.907012e+00 -1.985510e+00 1.288485e+00 8.450994e-01 3.342617e-01 4.770639e+00 2.631542e+00 4.965717e-02 1.246591e+00 9.761878e-01 -1.181884e+00 4.866222e+01 1.140497e-01 3.423522e-01 2.519781e-02 -1.216777e-01 -5.426697e-02 1.763239e-01 1.070264e-02 2.060880e-01 9.768965e-02 3.678355e-02 -4.261039e-02 -4.298843e-02 -2.989297e-01 -1.982512e-02 -1.274517e-02 -1.932070e-02 -1.933421e-02 -1.738795e-02 -2.484773e-02 -2.240704e-02 -3.154444e-02 -1.642294e-02 -1.237824e-02 -5.308166e-05 5.516799e-03 2.606659e-02
<VARIANCE> 39
 6.135608e+00 3.375537e+01 1.013764e+01 2.283998e+01 1.677885e+01 1.971322e+01 1.783306e+01 2.057329e+01 1.896418e+01 1.652061e+01 1.432107e+01 1.258711e+01 1.738948e+01 1.420409e-01 3.078364e-01 4.304486e-01 6.644920e-01 8.747234e-01 1.056493e+00 1.191780e+00 1.318390e+00 1.358033e+00 1.314772e+00 1.244071e+00 1.111611e+00 1.022455e-01 2.325429e-02 4.697136e-02 8.334953e-02 1.279324e-01 1.721573e-01 2.078534e-01 2.349398e-01 2.563929e-01 2.713376e-01 2.639492e-01 2.486460e-01 2.221102e-01 7.877881e-03
<GCONST> 7.469755e+01
<MIXTURE> 10 7.807212e-02
<MEAN> 39
 -1.116605e+01 -1.835902e+01 -6.531495e+00 1.798962e+00 -3.842439e+00 -6.720384e+00 3.988662e+00 -4.504642e+00 -3.410154e+00 6.176143e-01 5.311957e-01 -8.751100e-01 6.623615e+01 2.994771e-01 2.241881e-01 2.649138e-01 2.616808e-01 3.110067e-01 1.901492e-01 1.342021e-01 8.701374e-02 2.057219e-04 2.622386e-02 6.254074e-02 3.856423e-02 -8.936296e-01 -6.717263e-03 2.122850e-02 1.331792e-03 -1.286640e-03 -4.515976e-03 1.300184e-02 -2.172911e-03 3.036591e-02 1.222473e-02 9.042015e-03 4.371042e-03 -3.488619e-03 1.418514e-02
<VARIANCE> 39
 1.474016e+01 3.017248e+01 1.963211e+01 1.905336e+01 2.397221e+01 2.376100e+01 2.294359e+01 2.133219e+01 2.380569e+01 2.041706e+01 1.821402e+01 1.520704e+01 5.740957e+01 9.777509e-02 2.447141e-01 3.853484e-01 5.927995e-01 8.135890e-01 9.871205e-01 1.133900e+00 1.224729e+00 1.290298e+00 1.303459e+00 1.239261e+00 1.141295e+00 3.558978e-02 1.988128e-02 4.712622e-02 7.886268e-02 1.205193e-01 1.670519e-01 2.029647e-01 2.382240e-01 2.558746e-01 2.736964e-01 2.724634e-01 2.543624e-01 2.369827e-01 5.892974e-03
<GCONST> 7.617910e+01
<MIXTURE> 11 7.807234e-02
<MEAN> 39
 -1.116582e+01 -1.835940e+01 -6.531530e+00 1.799274e+00 -3.842618e+00 -6.720349e+00 3.988890e+00 -4.504796e+00 -3.410391e+00 6.176439e-01 5.310363e-01 -8.751459e-01 6.623624e+01 2.994621e-01 2.241708e-01 2.648858e-01 2.616477e-01 3.109699e-01 1.901224e-01 1.341791e-01 8.700878e-02 2.148456e-04 2.625352e-02 6.257370e-02 3.858844e-02 -8.936331e-01 -6.720106e-03 2.122135e-02 1.320765e-03 -1.300381e-03 -4.522291e-03 1.299421e-02 -2.180978e-03 3.037682e-02 1.224432e-02 9.052579e-03 4.381754e-03 -3.482915e-03 1.418499e-02
<VARIANCE> 39
 1.474059e+01 3.017157e+01 1.963305e+01 1.905402e+01 2.397336e+01 2.376288e+01 2.294468e+01 2.133352e+01 2.380705e+01 2.041876e+01 1.821615e+01 1.520854e+01 5.741135e+01 9.777846e-02 2.447360e-01 3.853727e-01 5.928448e-01 8.136478e-01 9.871827e-01 1.133975e+00 1.224830e+00 1.290399e+00 1.303566e+00 1.239360e+00 1.141395e+00 3.559176e-02 1.987783e-02 4.712514e-02 7.886476e-02 1.205250e-01 1.670613e-01 2.029758e-01 2.382371e-01 2.558886e-01 2.737172e-01 2.724877e-01 2.543907e-01 2.370083e-01 5.891570e-03
<GCONST> 7.618096e+01
<MIXTURE> 12 1.130909e-02
<MEAN> 39
 -1.683468e+01 -1.725663e+01 -9.226604e+00 -8.055392e-01 -7.031329e+00 -8.792322e+00 -3.123603e-01 -5.569759e+00 -5.439337e+00 -6.868441e-01 -6.827987e-01 -2.557638e+00 7.918169e+01 -1.686931e+00 -3.592980e+00 -1.565031e+00 -8.483812e-01 -2.259126e+00 -1.808492e+00 -3.804229e-01 -1.486460e+00 -4.566973e-01 -5.876157e-02 -2.546117e-01 -5.103047e-02 6.239609e+00 9.711774e-01 7.470354e-01 4.844274e-01 1.433337e-01 4.689318e-01 7.464679e-01 6.162768e-01 7.251582e-01 6.005585e-01 2.820758e-01 1.318864e-01 1.452626e-01 -2.402147e+00
<VARIANCE> 39
 1.190718e+01 4.042848e+01 2.285573e+01 2.981109e+01 3.537766e+01 3.303123e+01 3.458241e+01 3.514724e+01 3.502107e+01 2.321432e+01 2.453855e+01 1.975094e+01 4.902597e+01 2.624139e+00 5.496994e+00 2.099105e+00 2.653095e+00 2.810758e+00 3.813253e+00 3.399015e+00 3.662685e+00 3.357126e+00 2.327356e+00 2.035773e+00 1.697095e+00 1.307438e+01 1.800642e-01 9.062671e-01 3.528412e-01 5.604564e-01 6.778414e-01 6.395690e-01 5.892521e-01 7.061569e-01 6.362549e-01 4.643307e-01 4.158666e-01 3.585738e-01 1.247209e+00
<GCONST> 1.224193e+02
<MIXTURE> 13 7.807143e-02
<MEAN> 39
 -1.116598e+01 -1.835935e+01 -6.531505e+00 1.799083e+00 -3.842782e+00 -6.720335e+00 3.988785e+00 -4.504897e+00 -3.410233e+00 6.177434e-01 5.310876e-01 -8.750567e-01 6.623643e+01 2.994624e-01 2.241618e-01 2.648785e-01 2.616386e-01 3.109635e-01 1.901133e-01 1.341767e-01 8.700630e-02 2.239533e-04 2.626674e-02 6.258574e-02 3.859644e-02 -8.936363e-01 -6.719518e-03 2.122119e-02 1.323325e-03 -1.292843e-03 -4.513295e-03 1.300040e-02 -2.174866e-03 3.037820e-02 1.223554e-02 9.039153e-03 4.368923e-03 -3.492431e-03 1.418489e-02
<VARIANCE> 39
 1.474037e+01 3.017239e+01 1.963276e+01 1.905393e+01 2.397317e+01 2.376292e+01 2.294448e+01 2.133350e+01 2.380699e+01 2.041855e+01 1.821635e+01 1.520870e+01 5.741096e+01 9.777833e-02 2.447363e-01 3.853763e-01 5.928497e-01 8.136511e-01 9.871909e-01 1.133981e+00 1.224838e+00 1.290409e+00 1.303580e+00 1.239378e+00 1.141405e+00 3.559173e-02 1.987691e-02 4.712448e-02 7.886463e-02 1.205247e-01 1.670613e-01 2.029765e-01 2.382350e-01 2.558873e-01 2.737151e-01 2.724849e-01 2.543916e-01 2.370107e-01 5.891237e-03
<GCONST> 7.618090e+01
<MIXTURE> 14 1.130909e-02
<MEAN> 39
 -1.683468e+01 -1.725663e+01 -9.226604e+00 -8.055392e-01 -7.031329e+00 -8.792322e+00 -3.123603e-01 -5.569759e+00 -5.439337e+00 -6.868441e-01 -6.827987e-01 -2.557638e+00 7.918169e+01 -1.686931e+00 -3.592980e+00 -1.565031e+00 -8.483812e-01 -2.259126e+00 -1.808492e+00 -3.804229e-01 -1.486460e+00 -4.566973e-01 -5.876157e-02 -2.546117e-01 -5.103047e-02 6.239609e+00 9.711774e-01 7.470354e-01 4.844274e-01 1.433337e-01 4.689318e-01 7.464679e-01 6.162768e-01 7.251582e-01 6.005585e-01 2.820758e-01 1.318864e-01 1.452626e-01 -2.402147e+00
<VARIANCE> 39
 1.190718e+01 4.042848e+01 2.285573e+01 2.981109e+01 3.537766e+01 3.303123e+01 3.458241e+01 3.514724e+01 3.502107e+01 2.321432e+01 2.453855e+01 1.975094e+01 4.902597e+01 2.624139e+00 5.496994e+00 2.099105e+00 2.653095e+00 2.810758e+00 3.813253e+00 3.399015e+00 3.662685e+00 3.357126e+00 2.327356e+00 2.035773e+00 1.697095e+00 1.307438e+01 1.800642e-01 9.062671e-01 3.528412e-01 5.604564e-01 6.778414e-01 6.395690e-01 5.892521e-01 7.061569e-01 6.362549e-01 4.643307e-01 4.158666e-01 3.585738e-01 1.247209e+00
<GCONST> 1.224193e+02
<MIXTURE> 15 1.115852e-02
<MEAN> 39
 -1.681495e+01 -1.699947e+01 -9.124718e+00 -7.832053e-01 -6.851392e+00 -8.734069e+00 -3.603069e-01 -5.454475e+00 -5.325462e+00 -7.070002e-01 -6.350143e-01 -2.469115e+00 7.884540e+01 -1.729342e+00 -3.570114e+00 -1.565644e+00 -8.578513e-01 -2.247705e+00 -1.831400e+00 -4.287086e-01 -1.511747e+00 -4.742047e-01 -8.142100e-02 -2.536938e-01 -5.202626e-02 6.296225e+00 9.612655e-01 7.071147e-01 4.691674e-01 1.407220e-01 4.447397e-01 7.309167e-01 6.169063e-01 7.056602e-01 5.847535e-01 2.841020e-01 1.293045e-01 1.371036e-01 -2.347176e+00
<VARIANCE> 39
 1.213215e+01 4.188271e+01 2.338429e+01 3.004600e+01 3.607540e+01 3.354745e+01 3.512267e+01 3.542847e+01 3.531058e+01 2.344638e+01 2.465369e+01 1.988029e+01 5.197320e+01 2.671776e+00 5.657407e+00 2.139311e+00 2.683307e+00 2.824555e+00 3.851158e+00 3.443809e+00 3.681080e+00 3.383289e+00 2.346327e+00 2.047548e+00 1.704689e+00 1.324584e+01 1.850752e-01 9.277084e-01 3.581792e-01 5.664865e-01 6.868175e-01 6.465697e-01 5.928777e-01 7.104431e-01 6.406620e-01 4.673314e-01 4.195320e-01 3.592867e-01 1.305218e+00
<GCONST> 1.229818e+02
<MIXTURE> 16 7.041512e-02
<MEAN> 39
 -6.038955e+00 -5.246592e+00 -2.540925e+00 1.788323e+00 -3.400231e-02 3.768688e-01 5.217532e+00 2.434827e+00 -4.256738e-01 1.620807e+00 6.219789e-01 -1.474287e+00 4.914737e+01 -1.478765e+00 -7.390203e-01 -6.718936e-01 -3.366469e-01 -4.900643e-01 -9.499860e-01 -7.560695e-01 -7.912984e-01 -4.518027e-01 -3.337057e-01 -7.399356e-02 -6.651292e-02 3.186397e+00 -6.416135e-01 -8.528707e-01 -4.056037e-01 -1.656066e-01 -4.350640e-01 -6.065615e-01 -3.006586e-01 -5.141232e-01 -2.747904e-01 -1.250520e-01 -7.045964e-02 -3.031808e-02 1.856736e+00
<VARIANCE> 39
 8.488529e+00 4.764658e+01 1.061280e+01 2.795233e+01 1.451900e+01 2.215656e+01 1.936574e+01 2.324929e+01 2.183774e+01 1.632062e+01 1.395713e+01 1.285098e+01 1.930721e+01 2.728084e+00 5.718480e+00 1.867998e+00 2.157050e+00 2.547638e+00 3.741265e+00 2.829133e+00 3.712040e+00 2.963526e+00 2.051131e+00 1.858028e+00 1.564792e+00 1.606937e+01 2.387016e-01 6.415551e-01 2.420108e-01 3.286735e-01 3.893375e-01 4.530346e-01 4.196582e-01 4.665799e-01 4.373174e-01 3.561203e-01 3.299436e-01 2.764125e-01 1.055501e+00
<GCONST> 1.117038e+02
<TRANSP> 5
 0.000000e+00 1.000000e+00 0.000000e+00 0.000000e+00 0.000000e+00
 0.000000e+00 9.888620e-01 1.113805e-02 0.000000e+00 0.000000e+00
 0.000000e+00 0.000000e+00 9.892642e-01 1.073569e-02 0.000000e+00
 0.000000e+00 0.000000e+00 0.000000e+00 9.903091e-01 9.690925e-03
 0.000000e+00 0.000000e+00 0.000000e+00 0.000000e+00 0.000000e+00
<ENDHMM>
~h "cl"
<BEGINHMM>
<NUMSTATES> 5
<STATE> 2
<NUMMIXES> 16
<MIXTURE> 1 1.249861e-01
<MEAN> 39
 -1.760295e+01 1.466572e+00 2.901686e+00 -7.203757e+00 -5.188612e+00 1.161657e+01 2.042823e+00 -2.938891e+00 9.217702e+00 -1.376287e+00 -6.897386e+00 5.907351e+00 5.466872e+01 -4.529631e-01 -2.225081e-02 2.877181e-01 -2.958057e-01 -3.018997e-01 4.899946e-01 -8.226539e-02 -3.208101e-01 4.631884e-01 -1.240631e-01 -4.040736e-01 4.056263e-01 2.862921e-01 3.741852e-01 -5.850444e-02 -1.257902e-01 1.644759e-01 2.166220e-01 -2.339778e-01 1.337456e-01 2.266083e-01 -1.921417e-01 1.124693e-01 1.914071e-01 -2.098474e-01 -2.275335e-01
<VARIANCE> 39
 1.687594e+01 1.481207e+01 5.308003e+01 1.384453e+01 1.914890e+01 2.148947e+01 2.672235e+01 2.720675e+01 2.988228e+01 2.460874e+01 2.537386e+01 1.739312e+01 1.345078e+01 1.493612e+00 7.728583e-01 1.184217e+00 1.070238e+00 1.478310e+00 2.289666e+00 1.722705e+00 2.427135e+00 2.541651e+00 2.057123e+00 2.052683e+00 1.779026e+00 6.013941e-01 2.508592e-01 1.578889e-01 2.198480e-01 1.835180e-01 2.428771e-01 3.472384e-01 3.431000e-01 4.247764e-01 4.452902e-01 3.906703e-01 3.754399e-01 2.877011e-01 1.073549e-01
<GCONST> 1.001236e+02
<MIXTURE> 2 7.925629e-02
<MEAN> 39
 -7.401187e+00 -2.119681e+00 -2.957637e+00 -3.884840e+00 -4.034925e-01 5.095738e+00 5.032420e+00 2.441127e+00 3.193205e+00 3.730484e-01 -1.418143e+00 -5.750229e-01 5.004023e+01 1.980247e-01 -2.623394e-02 -1.747745e-02 1.980569e-02 7.160453e-02 -5.309496e-02 7.748204e-02 8.590543e-02 -1.185371e-01 8.029919e-02 1.070638e-01 -1.162203e-01 -1.483560e-01 -4.238842e-02 1.344999e-02 1.371514e-02 -1.588093e-02 -2.621300e-02 4.947549e-03 -4.849701e-02 -4.477592e-02 8.380226e-03 -2.152982e-02 -1.812285e-02 3.412899e-02 2.518395e-02
<VARIANCE> 39
 1.337931e+01 1.036208e+01 1.568428e+01 1.047025e+01 1.499457e+01 2.053756e+01 1.568264e+01 1.551196e+01 2.579483e+01 1.690271e+01 1.748832e+01 1.609699e+01 8.910785e+00 2.213353e-01 3.145913e-01 4.802912e-01 7.019042e-01 9.164219e-01 1.212988e+00 1.317805e+00 1.384771e+00 1.527233e+00 1.413039e+00 1.291570e+00 1.237618e+00 8.114402e-02 3.027955e-02 5.490198e-02 9.363659e-02 1.337279e-01 1.789917e-01 2.218879e-01 2.534150e-01 2.679790e-01 2.899642e-01 2.780097e-01 2.535542e-01 2.397433e-01 8.944559e-03
<GCONST> 7.579108e+01
<MIXTURE> 3 7.925698e-02
<MEAN> 39
 -7.401143e+00 -2.119630e+00 -2.957636e+00 -3.884883e+00 -4.034906e-01 5.095898e+00 5.032511e+00 2.441174e+00 3.193281e+00 3.731043e-01 -1.418126e+00 -5.749767e-01 5.004021e+01 1.980236e-01 -2.624043e-02 -1.748117e-02 1.980525e-02 7.160234e-02 -5.310879e-02 7.746933e-02 8.589645e-02 -1.185455e-01 8.029174e-02 1.070598e-01 -1.162235e-01 -1.483525e-01 -4.239171e-02 1.344698e-02 1.371338e-02 -1.588078e-02 -2.621603e-02 4.936859e-03 -4.850958e-02 -4.478620e-02 8.371230e-03 -2.153699e-02 -1.812717e-02 3.412495e-02 2.518327e-02
<VARIANCE> 39
 1.337936e+01 1.036195e+01 1.568441e+01 1.046990e+01 1.499422e+01 2.053725e+01 1.568255e+01 1.551187e+01 2.579494e+01 1.690266e+01 1.748839e+01 1.609708e+01 8.910643e+00 2.213374e-01 3.145906e-01 4.802941e-01 7.019038e-01 9.164214e-01 1.212991e+00 1.317808e+00 1.384773e+00 1.527245e+00 1.413042e+00 1.291572e+00 1.237627e+00 8.114345e-02 3.027997e-02 5.490182e-02 9.363618e-02 1.337250e-01 1.789888e-01 2.218865e-01 2.534135e-01 2.679752e-01 2.899634e-01 2.780094e-01 2.535533e-01 2.397444e-01 8.944612e-03
<GCONST> 7.579096e+01
<MIXTURE> 4 6.129394e-02
<MEAN> 39
 -1.439795e+01 -2.084441e+00 8.396641e-01 -4.743649e+00 -3.195262e+00 5.040264e+00 2.217048e+00 -1.397484e+00 5.568126e+00 -8.600594e-01 -4.129876e+00 2.513388e+00 5.612962e+01 5.026370e-01 2.408450e-03 -4.527015e-02 1.156424e-01 1.543121e-01 -3.659671e-02 9.433419e-02 7.704644e-02 -5.946646e-02 7.735938e-05 3.508566e-02 -8.770978e-02 -5.238603e-01 -1.742249e-03 7.804178e-03 -1.451934e-02 1.314700e-03 2.324445e-03 -1.529860e-03 1.100158e-02 4.591456e-02 -2.012067e-02 1.492653e-02 2.286274e-02 -2.395789e-02 5.965300e-03
<VARIANCE> 39
 2.372430e+01 4.424304e+01 3.914916e+01 1.857058e+01 2.115659e+01 6.583945e+01 2.709667e+01 2.861375e+01 5.095100e+01 2.659865e+01 2.838347e+01 2.505004e+01 6.250252e+01 2.273210e-01 3.589179e-01 5.715004e-01 7.342038e-01 9.822147e-01 1.304036e+00 1.328713e+00 1.517386e+00 1.604179e+00 1.419842e+00 1.371799e+00 1.295773e+00 1.290774e-01 3.881549e-02 6.272902e-02 1.018053e-01 1.441117e-01 1.904007e-01 2.574619e-01 2.622271e-01 2.952842e-01 3.294123e-01 2.923247e-01 2.732618e-01 2.548018e-01 1.790082e-02
<GCONST> 8.911228e+01
<MIXTURE> 5 7.925698e-02
<MEAN> 39
 -7.401143e+00 -2.119630e+00 -2.957636e+00 -3.884883e+00 -4.034906e-01 5.095898e+00 5.032511e+00 2.441174e+00 3.193281e+00 3.731043e-01 -1.418126e+00 -5.749767e-01 5.004021e+01 1.980236e-01 -2.624043e-02 -1.748117e-02 1.980525e-02 7.160234e-02 -5.310879e-02 7.746933e-02 8.589645e-02 -1.185455e-01 8.029174e-02 1.070598e-01 -1.162235e-01 -1.483525e-01 -4.239171e-02 1.344698e-02 1.371338e-02 -1.588078e-02 -2.621603e-02 4.936859e-03 -4.850958e-02 -4.478620e-02 8.371230e-03 -2.153699e-02 -1.812717e-02 3.412495e-02 2.518327e-02
<VARIANCE> 39
 1.337936e+01 1.036195e+01 1.568441e+01 1.046990e+01 1.499422e+01 2.053725e+01 1.568255e+01 1.551187e+01 2.579494e+01 1.690266e+01 1.748839e+01 1.609708e+01 8.910643e+00 2.213374e-01 3.145906e-01 4.802941e-01 7.019038e-01 9.164214e-01 1.212991e+00 1.317808e+00 1.384773e+00 1.527245e+00 1.413042e+00 1.291572e+00 1.237627e+00 8.114345e-02 3.027997e-02 5.490182e-02 9.363618e-02 1.337250e-01 1.789888e-01 2.218865e-01 2.534135e-01 2.679752e-01 2.899634e-01 2.780094e-01 2.535533e-01 2.397444e-01 8.944612e-03
<GCONST> 7.579096e+01
<MIXTURE> 6 6.125114e-02
<MEAN> 39
 -1.440164e+01 -1.973424e+00 9.218315e-01 -4.778914e+00 -3.211458e+00 5.176851e+00 2.245991e+00 -1.410560e+00 5.651688e+00 -8.463900e-01 -4.182028e+00 2.574671e+00 5.598809e+01 5.047088e-01 -5.656951e-04 -4.969343e-02 1.148491e-01 1.529151e-01 -4.111164e-02 9.188125e-02 7.774223e-02 -6.070902e-02 4.103985e-04 3.625386e-02 -8.985024e-02 -5.194775e-01 -1.903123e-03 7.284097e-03 -1.525619e-02 1.202660e-03 1.855677e-03 -2.938509e-03 9.875493e-03 4.525818e-02 -2.157564e-02 1.445759e-02 2.311331e-02 -2.500561e-02 6.045677e-03
<VARIANCE> 39
 2.376024e+01 4.329696e+01 3.927074e+01 1.850424e+01 2.112786e+01 6.529314e+01 2.705400e+01 2.867150e+01 5.091484e+01 2.663498e+01 2.839999e+01 2.499641e+01 6.105427e+01 2.281556e-01 3.594222e-01 5.729324e-01 7.346877e-01 9.837267e-01 1.307473e+00 1.330369e+00 1.520038e+00 1.606377e+00 1.420742e+00 1.372495e+00 1.296840e+00 1.284595e-01 3.904336e-02 6.278645e-02 1.019979e-01 1.441213e-01 1.905846e-01 2.580632e-01 2.623627e-01 2.956703e-01 3.296186e-01 2.922620e-01 2.732858e-01 2.547385e-01 1.799249e-02
<GCONST> 8.909122e+01
<MIXTURE> 7 6.125102e-02
<MEAN> 39
 -1.440102e+01 -1.987619e+00 9.111437e-01 -4.773843e+00 -3.208630e+00 5.158992e+00 2.242615e+00 -1.408200e+00 5.640498e+00 -8.478342e-01 -4.174829e+00 2.566478e+00 5.600602e+01 5.044389e-01 -1.816275e-04 -4.912839e-02 1.149205e-01 1.530684e-01 -4.055571e-02 9.216976e-02 7.762693e-02 -6.058415e-02 3.447887e-04 3.609152e-02 -8.958690e-02 -5.200478e-01 -1.889901e-03 7.342949e-03 -1.517805e-02 1.183155e-03 1.876289e-03 -2.777008e-03 9.988171e-03 4.530387e-02 -2.140670e-02 1.449059e-02 2.305540e-02 -2.487163e-02 6.039466e-03
<VARIANCE> 39
 2.375277e+01 4.341752e+01 3.925299e+01 1.851402e+01 2.113173e+01 6.536304e+01 2.705980e+01 2.866388e+01 5.091893e+01 2.662961e+01 2.839850e+01 2.500293e+01 6.123457e+01 2.280462e-01 3.593620e-01 5.727302e-01 7.346184e-01 9.835037e-01 1.307010e+00 1.330141e+00 1.519679e+00 1.606059e+00 1.420610e+00 1.372400e+00 1.296681e+00 1.285363e-01 3.901751e-02 6.278126e-02 1.019748e-01 1.441237e-01 1.905647e-01 2.579899e-01 2.623522e-01 2.956298e-01 3.295959e-01 2.922730e-01 2.732885e-01 2.547505e-01 1.798254e-02
<GCONST> 8.909400e+01
<MIXTURE> 8 4.156076e-02
<MEAN> 39
 -9.678615e+00 2.215908e-01 -7.472519e-01 -3.339345e+00 -5.836686e-01 4.841234e+00 3.884021e+00 2.352063e+00 3.022419e+00 1.062449e+00 -1.519475e+00 3.215086e-01 4.978545e+01 -1.946162e+00 4.053142e-01 1.887932e-01 -1.515127e-01 -4.751697e-01 4.689851e-01 -4.351233e-01 -4.107203e-01 3.275012e-01 -1.771894e-01 -3.414823e-01 4.253819e-01 1.480729e+00 -6.102437e-01 -2.555372e-02 1.293471e-01 -1.392560e-01 -2.571292e-01 2.209430e-01 -1.726709e-01 -3.235547e-01 1.825573e-01 -1.188510e-01 -2.825317e-01 2.122059e-01 5.386134e-01
<VARIANCE> 39
 3.046887e+01 1.510764e+01 2.367789e+01 1.264082e+01 1.693806e+01 2.902100e+01 1.919649e+01 1.972955e+01 2.438957e+01 1.881886e+01 2.259194e+01 1.712199e+01 2.011835e+01 4.250846e+00 1.501897e+00 1.386465e+00 1.398931e+00 1.728371e+00 3.360929e+00 2.510724e+00 2.832602e+00 3.035271e+00 2.461842e+00 2.569203e+00 2.018194e+00 2.856203e+00 6.086839e-01 2.267297e-01 1.949992e-01 2.000064e-01 2.709767e-01 5.076195e-01 3.626560e-01 4.262215e-01 4.409593e-01 3.730168e-01 3.975329e-01 3.198396e-01 4.657631e-01
<GCONST> 1.079707e+02
<MIXTURE> 9 7.924832e-02
<MEAN> 39
 -7.402782e+00 -2.117980e+00 -2.955822e+00 -3.884829e+00 -4.042547e-01 5.096550e+00 5.031929e+00 2.440966e+00 3.195319e+00 3.727792e-01 -1.419637e+00 -5.738196e-01 5.003986e+01 1.981581e-01 -2.625890e-02 -1.751690e-02 1.994684e-02 7.172436e-02 -5.314503e-02 7.754281e-02 8.602422e-02 -1.185760e-01 8.036406e-02 1.071485e-01 -1.162968e-01 -1.484239e-01 -4.239195e-02 1.342753e-02 1.370696e-02 -1.588308e-02 -2.620790e-02 4.927331e-03 -4.852315e-02 -4.482487e-02 8.310032e-03 -2.154604e-02 -1.810361e-02 3.411911e-02 2.518687e-02
<VARIANCE> 39
 1.338150e+01 1.036286e+01 1.569400e+01 1.047142e+01 1.499655e+01 2.054266e+01 1.568442e+01 1.551403e+01 2.580110e+01 1.690405e+01 1.749174e+01 1.609810e+01 8.914480e+00 2.213467e-01 3.146066e-01 4.803199e-01 7.019437e-01 9.164597e-01 1.213004e+00 1.317805e+00 1.384822e+00 1.527303e+00 1.413055e+00 1.291555e+00 1.237620e+00 8.114867e-02 3.027713e-02 5.490050e-02 9.363914e-02 1.337330e-01 1.789974e-01 2.218896e-01 2.534149e-01 2.679883e-01 2.899777e-01 2.780099e-01 2.535571e-01 2.397497e-01 8.944667e-03
<GCONST> 7.579423e+01
<MIXTURE> 10 6.130137e-02
<MEAN> 39
 -1.439749e+01 -2.099227e+00 8.288082e-01 -4.738966e+00 -3.193128e+00 5.022242e+00 2.213268e+00 -1.395748e+00 5.557163e+00 -8.618256e-01 -4.122972e+00 2.505318e+00 5.614851e+01 5.023664e-01 2.800843e-03 -4.468783e-02 1.157472e-01 1.544966e-01 -3.600292e-02 9.465590e-02 7.695227e-02 -5.930468e-02 3.159232e-05 3.492852e-02 -8.742771e-02 -5.244446e-01 -1.720686e-03 7.870759e-03 -1.442597e-02 1.324968e-03 2.380707e-03 -1.352551e-03 1.114303e-02 4.599448e-02 -1.993796e-02 1.498000e-02 2.282487e-02 -2.382401e-02 5.953991e-03
<VARIANCE> 39
 2.371923e+01 4.436748e+01 3.913240e+01 1.857925e+01 2.116030e+01 6.590966e+01 2.710203e+01 2.860589e+01 5.095486e+01 2.659372e+01 2.838093e+01 2.505689e+01 6.269345e+01 2.272063e-01 3.588505e-01 5.713127e-01 7.341369e-01 9.820062e-01 1.303577e+00 1.328486e+00 1.517022e+00 1.603881e+00 1.419718e+00 1.371695e+00 1.295623e+00 1.291564e-01 3.878395e-02 6.272028e-02 1.017788e-01 1.441098e-01 1.903757e-01 2.573812e-01 2.622060e-01 2.952324e-01 3.293810e-01 2.923304e-01 2.732569e-01 2.548078e-01 1.788780e-02
<GCONST> 8.911452e+01
<MIXTURE> 11 6.125102e-02
<MEAN> 39
 -1.440102e+01 -1.987619e+00 9.111437e-01 -4.773843e+00 -3.208630e+00 5.158992e+00 2.242615e+00 -1.408200e+00 5.640498e+00 -8.478342e-01 -4.174829e+00 2.566478e+00 5.600602e+01 5.044389e-01 -1.816275e-04 -4.912839e-02 1.149205e-01 1.530684e-01 -4.055571e-02 9.216976e-02 7.762693e-02 -6.058415e-02 3.447887e-04 3.609152e-02 -8.958690e-02 -5.200478e-01 -1.889901e-03 7.342949e-03 -1.517805e-02 1.183155e-03 1.876289e-03 -2.777008e-03 9.988171e-03 4.530387e-02 -2.140670e-02 1.449059e-02 2.305540e-02 -2.487163e-02 6.039466e-03
<VARIANCE> 39
 2.375277e+01 4.341752e+01 3.925299e+01 1.851402e+01 2.113173e+01 6.536304e+01 2.705980e+01 2.866388e+01 5.091893e+01 2.662961e+01 2.839850e+01 2.500293e+01 6.123457e+01 2.280462e-01 3.593620e-01 5.727302e-01 7.346184e-01 9.835037e-01 1.307010e+00 1.330141e+00 1.519679e+00 1.606059e+00 1.420610e+00 1.372400e+00 1.296681e+00 1.285363e-01 3.901751e-02 6.278126e-02 1.019748e-01 1.441237e-01 1.905647e-01 2.579899e-01 2.623522e-01 2.956298e-01 3.295959e-01 2.922730e-01 2.732885e-01 2.547505e-01 1.798254e-02
<GCONST> 8.909400e+01
<MIXTURE> 12 4.159387e-02
<MEAN> 39
 -9.653687e+00 2.118192e-01 -7.486460e-01 -3.336461e+00 -5.808188e-01 4.833098e+00 3.888152e+00 2.356948e+00 3.021514e+00 1.065238e+00 -1.512303e+00 3.129575e-01 4.976955e+01 -1.948700e+00 4.044905e-01 1.888224e-01 -1.511135e-01 -4.758034e-01 4.670184e-01 -4.373377e-01 -4.111020e-01 3.274408e-01 -1.775136e-01 -3.417834e-01 4.253627e-01 1.484456e+00 -6.136815e-01 -2.516987e-02 1.291974e-01 -1.394527e-01 -2.576844e-01 2.207783e-01 -1.737803e-01 -3.243916e-01 1.822473e-01 -1.193058e-01 -2.833160e-01 2.127803e-01 5.419776e-01
<VARIANCE> 39
 3.033593e+01 1.510231e+01 2.363387e+01 1.262743e+01 1.693662e+01 2.898508e+01 1.918611e+01 1.972861e+01 2.437045e+01 1.880955e+01 2.258219e+01 1.712053e+01 2.007427e+01 4.260502e+00 1.502564e+00 1.385519e+00 1.399072e+00 1.730105e+00 3.370154e+00 2.513074e+00 2.832674e+00 3.032565e+00 2.464284e+00 2.567105e+00 2.017949e+00 2.872416e+00 6.071535e-01 2.270619e-01 1.950983e-01 1.999828e-01 2.711109e-01 5.089905e-01 3.629636e-01 4.264825e-01 4.410800e-01 3.731368e-01 3.975200e-01 3.200300e-01 4.660944e-01
<GCONST> 1.079747e+02
<MIXTURE> 13 6.128132e-02
<MEAN> 39
 -1.439875e+01 -2.059582e+00 8.575024e-01 -4.751366e+00 -3.198585e+00 5.070280e+00 2.223399e+00 -1.400205e+00 5.586049e+00 -8.569887e-01 -4.141280e+00 2.526734e+00 5.609798e+01 5.030725e-01 1.748147e-03 -4.622056e-02 1.154780e-01 1.540117e-01 -3.758343e-02 9.381211e-02 7.721669e-02 -5.972783e-02 1.621135e-04 3.536518e-02 -8.817394e-02 -5.228658e-01 -1.780239e-03 7.696089e-03 -1.466651e-02 1.298843e-03 2.228396e-03 -1.821275e-03 1.076580e-02 4.577857e-02 -2.042007e-02 1.483348e-02 2.291738e-02 -2.417898e-02 5.983789e-03
<VARIANCE> 39
 2.373214e+01 4.403274e+01 3.917466e+01 1.855509e+01 2.114908e+01 6.571815e+01 2.708540e+01 2.862482e+01 5.093977e+01 2.660420e+01 2.838586e+01 2.503681e+01 6.217764e+01 2.275193e-01 3.590396e-01 5.717999e-01 7.342918e-01 9.825161e-01 1.304778e+00 1.329038e+00 1.517928e+00 1.604628e+00 1.419980e+00 1.371899e+00 1.295970e+00 1.289501e-01 3.887442e-02 6.274705e-02 1.018490e-01 1.441104e-01 1.904331e-01 2.575896e-01 2.622469e-01 2.953574e-01 3.294464e-01 2.922937e-01 2.732526e-01 2.547765e-01 1.792653e-02
<GCONST> 8.910720e+01
<MIXTURE> 14 4.159387e-02
<MEAN> 39
 -9.653687e+00 2.118192e-01 -7.486460e-01 -3.336461e+00 -5.808188e-01 4.833098e+00 3.888152e+00 2.356948e+00 3.021514e+00 1.065238e+00 -1.512303e+00 3.129575e-01 4.976955e+01 -1.948700e+00 4.044905e-01 1.888224e-01 -1.511135e-01 -4.758034e-01 4.670184e-01 -4.373377e-01 -4.111020e-01 3.274408e-01 -1.775136e-01 -3.417834e-01 4.253627e-01 1.484456e+00 -6.136815e-01 -2.516987e-02 1.291974e-01 -1.394527e-01 -2.576844e-01 2.207783e-01 -1.737803e-01 -3.243916e-01 1.822473e-01 -1.193058e-01 -2.833160e-01 2.127803e-01 5.419776e-01
<VARIANCE> 39
 3.033593e+01 1.510231e+01 2.363387e+01 1.262743e+01 1.693662e+01 2.898508e+01 1.918611e+01 1.972861e+01 2.437045e+01 1.880955e+01 2.258219e+01 1.712053e+01 2.007427e+01 4.260502e+00 1.502564e+00 1.385519e+00 1.399072e+00 1.730105e+00 3.370154e+00 2.513074e+00 2.832674e+00 3.032565e+00 2.464284e+00 2.567105e+00 2.017949e+00 2.872416e+00 6.071535e-01 2.270619e-01 1.950983e-01 1.999828e-01 2.711109e-01 5.089905e-01 3.629636e-01 4.264825e-01 4.410800e-01 3.731368e-01 3.975200e-01 3.200300e-01 4.660944e-01
<GCONST> 1.079747e+02
<MIXTURE> 15 4.159387e-02
<MEAN> 39
 -9.653687e+00 2.118192e-01 -7.486460e-01 -3.336461e+00 -5.808188e-01 4.833098e+00 3.888152e+00 2.356948e+00 3.021514e+00 1.065238e+00 -1.512303e+00 3.129575e-01 4.976955e+01 -1.948700e+00 4.044905e-01 1.888224e-01 -1.511135e-01 -4.758034e-01 4.670184e-01 -4.373377e-01 -4.111020e-01 3.274408e-01 -1.775136e-01 -3.417834e-01 4.253627e-01 1.484456e+00 -6.136815e-01 -2.516987e-02 1.291974e-01 -1.394527e-01 -2.576844e-01 2.207783e-01 -1.737803e-01 -3.243916e-01 1.822473e-01 -1.193058e-01 -2.833160e-01 2.127803e-01 5.419776e-01
<VARIANCE> 39
 3.033593e+01 1.510231e+01 2.363387e+01 1.262743e+01 1.693662e+01 2.898508e+01 1.918611e+01 1.972861e+01 2.437045e+01 1.880955e+01 2.258219e+01 1.712053e+01 2.007427e+01 4.260502e+00 1.502564e+00 1.385519e+00 1.399072e+00 1.730105e+00 3.370154e+00 2.513074e+00 2.832674e+00 3.032565e+00 2.464284e+00 2.567105e+00 2.017949e+00 2.872416e+00 6.071535e-01 2.270619e-01 1.950983e-01 1.999828e-01 2.711109e-01 5.089905e-01 3.629636e-01 4.264825e-01 4.410800e-01 3.731368e-01 3.975200e-01 3.200300e-01 4.660944e-01
<GCONST> 1.079747e+02
<MIXTURE> 16 2.399680e-02
<MEAN> 39
 -1.890789e+01 -8.691682e+00 -3.586256e+00 -3.660096e+00 -4.380585e+00 -5.587586e+00 -1.168868e+00 2.784441e-01 7.472780e-01 -2.137748e+00 1.415240e-02 -1.391235e+00 7.165031e+01 -1.166334e+00 -1.381972e+00 -7.443287e-01 -4.303544e-01 -5.772033e-01 -1.071036e+00 -9.038262e-01 -7.573896e-01 2.424967e-02 -3.800280e-01 -2.034082e-01 -9.857794e-02 3.141638e+00 8.356116e-01 3.616844e-01 9.654251e-02 1.353099e-01 3.686147e-01 6.840458e-01 4.694926e-01 1.353223e-01 1.293474e-01 2.777878e-01 9.122239e-03 4.976711e-02 -1.429348e+00
<VARIANCE> 39
 1.438108e+01 5.872286e+01 2.213391e+01 2.474180e+01 2.730201e+01 3.583300e+01 3.157288e+01 3.462969e+01 3.768354e+01 3.133879e+01 1.903693e+01 1.792689e+01 1.044963e+02 4.580483e+00 3.175483e+00 1.240954e+00 1.797064e+00 2.837113e+00 4.982962e+00 3.545653e+00 2.732978e+00 2.914692e+00 2.913251e+00 1.929751e+00 1.743544e+00 1.455737e+01 3.777391e-01 4.879580e-01 2.935905e-01 3.772266e-01 4.509219e-01 6.209607e-01 5.342408e-01 5.174672e-01 5.230719e-01 5.515875e-01 3.603530e-01 3.611640e-01 1.241186e+00
<GCONST> 1.210737e+02
<STATE> 3
<NUMMIXES> 16
<MIXTURE> 1 9.047731e-02
<MEAN> 39
 -1.380188e+01 1.085787e+00 -1.296194e+00 -6.934939e+00 -3.869754e+00 1.193212e+01 7.567461e-01 -1.442579e+00 9.517242e+00 -2.781496e+00 -2.587755e+00 4.972064e+00 5.421740e+01 -1.551796e+00 4.072307e-01 -6.206148e-02 1.527031e-01 2.302083e-01 -5.633539e-01 1.439843e-01 3.185342e-01 -5.444061e-01 1.046540e-01 1.266864e-01 -5.106511e-01 1.052500e+00 -9.824253e-01 1.490294e-01 9.969931e-02 1.599301e-02 -7.040335e-02 2.628763e-02 -5.929147e-02 -3.777090e-02 -5.431012e-02 -1.303812e-01 -1.932694e-01 1.263010e-02 6.870579e-01
<VARIANCE> 39
 2.493582e+01 9.853244e+00 1.824640e+01 1.057003e+01 1.579552e+01 2.557018e+01 2.256460e+01 1.871785e+01 2.594626e+01 1.759346e+01 1.764754e+01 1.839062e+01 9.254959e+00 2.994575e+00 7.837038e-01 1.097068e+00 1.341789e+00 1.616794e+00 2.742391e+00 2.564206e+00 2.217383e+00 2.393252e+00 2.015579e+00 1.902019e+00 2.168866e+00 1.365988e+00 2.282079e-01 1.257040e-01 1.725352e-01 1.975215e-01 2.629218e-01 4.083569e-01 3.992319e-01 3.697172e-01 4.244178e-01 3.611172e-01 3.251400e-01 3.655767e-01 1.143317e-01
<GCONST> 9.914186e+01
<MIXTURE> 2 3.010457e-02
<MEAN> 39
 -1.747490e+01 2.125318e+00 -3.379055e+00 -8.562058e+00 -6.120084e+00 9.683865e+00 -9.767098e-01 -4.584606e+00 5.832296e+00 -4.843075e+00 -4.746326e+00 4.232224e+00 5.768065e+01 3.465155e-01 2.341708e-02 9.145959e-02 2.375533e-01 2.833541e-01 2.182233e-01 2.562528e-01 3.196876e-01 2.177336e-01 3.505644e-01 2.793823e-01 8.506179e-04 -2.747692e-01 -9.454797e-02 7.270724e-02 1.829367e-01 2.210920e-01 1.934087e-01 2.144834e-01 1.771520e-01 2.833864e-01 2.596976e-01 2.086798e-01 1.363763e-01 9.162625e-02 9.853572e-02
<VARIANCE> 39
 4.249878e+01 1.191820e+01 1.440688e+01 1.285639e+01 1.711300e+01 3.414440e+01 2.776395e+01 2.208010e+01 2.226466e+01 1.858844e+01 1.952066e+01 1.859304e+01 1.880674e+01 4.603559e-01 3.827986e-01 5.922697e-01 7.772167e-01 1.049259e+00 1.461544e+00 1.567002e+00 1.515893e+00 1.600022e+00 1.529650e+00 1.446109e+00 1.376982e+00 1.889485e-01 1.529633e-01 7.940107e-02 1.185712e-01 1.553047e-01 2.174278e-01 3.006174e-01 3.184881e-01 2.915764e-01 3.092756e-01 3.087636e-01 2.960830e-01 2.891665e-01 7.093276e-02
<GCONST> 8.850519e+01
<MIXTURE> 3 3.010684e-02
<MEAN> 39
 -1.747387e+01 2.125273e+00 -3.379582e+00 -8.561902e+00 -6.120228e+00 9.682860e+00 -9.770263e-01 -4.584887e+00 5.831478e+00 -4.842927e+00 -4.746136e+00 4.231894e+00 5.768051e+01 3.465439e-01 2.336115e-02 9.145505e-02 2.375429e-01 2.833482e-01 2.182276e-01 2.562554e-01 3.196696e-01 2.177261e-01 3.505392e-01 2.793486e-01 8.440167e-04 -2.748140e-01 -9.450833e-02 7.271478e-02 1.829441e-01 2.210708e-01 1.934131e-01 2.145178e-01 1.771660e-01 2.833806e-01 2.597337e-01 2.086693e-01 1.363718e-01 9.164850e-02 9.849979e-02
<VARIANCE> 39
 4.250555e+01 1.192020e+01 1.440757e+01 1.285794e+01 1.711435e+01 3.414782e+01 2.776680e+01 2.208249e+01 2.226530e+01 1.858896e+01 1.952142e+01 1.859344e+01 1.881042e+01 4.602998e-01 3.827903e-01 5.922583e-01 7.772007e-01 1.049236e+00 1.461506e+00 1.566951e+00 1.515894e+00 1.600008e+00 1.529645e+00 1.446103e+00 1.376971e+00 1.889339e-01 1.529225e-01 7.939871e-02 1.185666e-01 1.553031e-01 2.174220e-01 3.005980e-01 3.184758e-01 2.915731e-01 3.092695e-01 3.087616e-01 2.960814e-01 2.891565e-01 7.091009e-02
<GCONST> 8.850518e+01
<MIXTURE> 4 9.210470e-02
<MEAN> 39
 -2.079077e+01 2.846174e+00 -4.102334e-02 -6.884819e+00 -4.517610e+00 1.366320e+01 1.022735e+00 -2.118494e+00 9.933146e+00 -3.666134e+00 -4.437057e+00 6.023792e+00 5.881025e+01 6.612399e-01 -5.191095e-02 -9.132725e-02 -8.102548e-02 4.657265e-03 -6.435388e-02 -9.060279e-04 -5.218706e-02 1.200025e-02 1.934162e-02 5.842455e-02 -1.821866e-02 -5.209356e-01 -1.295830e-02 -1.050090e-02 -6.674562e-02 -5.904726e-03 -7.895218e-03 -1.192654e-01 -2.158120e-02 -2.675971e-03 -1.176872e-01 -6.470969e-04 2.139226e-02 -8.184264e-02 9.401958e-03
<VARIANCE> 39
 3.242160e+01 8.828617e+00 1.664254e+01 1.116821e+01 1.443509e+01 2.571641e+01 2.373531e+01 1.884636e+01 2.243138e+01 1.940116e+01 1.828126e+01 1.863943e+01 1.639932e+01 2.144537e-01 3.034924e-01 5.471371e-01 7.228705e-01 9.316984e-01 1.284006e+00 1.366746e+00 1.358941e+00 1.485612e+00 1.436614e+00 1.305583e+00 1.240058e+00 1.036318e-01 7.848245e-02 6.015319e-02 1.157437e-01 1.491597e-01 2.005495e-01 2.740748e-01 3.013655e-01 2.871727e-01 3.066001e-01 3.061474e-01 2.783614e-01 2.691857e-01 4.302654e-02
<GCONST> 8.252902e+01
<MIXTURE> 5 3.010684e-02
<MEAN> 39
 -1.747387e+01 2.125273e+00 -3.379582e+00 -8.561902e+00 -6.120228e+00 9.682860e+00 -9.770263e-01 -4.584887e+00 5.831478e+00 -4.842927e+00 -4.746136e+00 4.231894e+00 5.768051e+01 3.465439e-01 2.336115e-02 9.145505e-02 2.375429e-01 2.833482e-01 2.182276e-01 2.562554e-01 3.196696e-01 2.177261e-01 3.505392e-01 2.793486e-01 8.440167e-04 -2.748140e-01 -9.450833e-02 7.271478e-02 1.829441e-01 2.210708e-01 1.934131e-01 2.145178e-01 1.771660e-01 2.833806e-01 2.597337e-01 2.086693e-01 1.363718e-01 9.164850e-02 9.849979e-02
<VARIANCE> 39
 4.250555e+01 1.192020e+01 1.440757e+01 1.285794e+01 1.711435e+01 3.414782e+01 2.776680e+01 2.208249e+01 2.226530e+01 1.858896e+01 1.952142e+01 1.859344e+01 1.881042e+01 4.602998e-01 3.827903e-01 5.922583e-01 7.772007e-01 1.049236e+00 1.461506e+00 1.566951e+00 1.515894e+00 1.600008e+00 1.529645e+00 1.446103e+00 1.376971e+00 1.889339e-01 1.529225e-01 7.939871e-02 1.185666e-01 1.553031e-01 2.174220e-01 3.005980e-01 3.184758e-01 2.915731e-01 3.092695e-01 3.087616e-01 2.960814e-01 2.891565e-01 7.091009e-02
<GCONST> 8.850518e+01
<MIXTURE> 6 9.210684e-02
<MEAN> 39
 -2.079026e+01 2.846339e+00 -4.141316e-02 -6.884488e+00 -4.517280e+00 1.366294e+01 1.023124e+00 -2.118428e+00 9.932665e+00 -3.665828e+00 -4.436945e+00 6.023451e+00 5.880996e+01 6.612158e-01 -5.193052e-02 -9.132808e-02 -8.101079e-02 4.654577e-03 -6.436189e-02 -9.159027e-04 -5.218207e-02 1.198676e-02 1.934461e-02 5.842919e-02 -1.822128e-02 -5.209104e-01 -1.295772e-02 -1.051257e-02 -6.673749e-02 -5.935656e-03 -7.929868e-03 -1.192533e-01 -2.161248e-02 -2.694846e-03 -1.176627e-01 -6.686132e-04 2.138020e-02 -8.181269e-02 9.400547e-03
<VARIANCE> 39
 3.242369e+01 8.829099e+00 1.664239e+01 1.116850e+01 1.443519e+01 2.571743e+01 2.373503e+01 1.884673e+01 2.243187e+01 1.940114e+01 1.828174e+01 1.863980e+01 1.639967e+01 2.144614e-01 3.034960e-01 5.471321e-01 7.228673e-01 9.316970e-01 1.284003e+00 1.366750e+00 1.358948e+00 1.485597e+00 1.436607e+00 1.305583e+00 1.240063e+00 1.036331e-01 7.847126e-02 6.015215e-02 1.157399e-01 1.491578e-01 2.005478e-01 2.740693e-01 3.013586e-01 2.871718e-01 3.065960e-01 3.061449e-01 2.783619e-01 2.691856e-01 4.301840e-02
<GCONST> 8.252889e+01
<MIXTURE> 7 9.210625e-02
<MEAN> 39
 -2.078957e+01 2.846440e+00 -4.184576e-02 -6.884376e+00 -4.516974e+00 1.366266e+01 1.023474e+00 -2.118279e+00 9.932370e+00 -3.665521e+00 -4.436740e+00 6.023096e+00 5.880947e+01 6.612190e-01 -5.195193e-02 -9.134939e-02 -8.097897e-02 4.670214e-03 -6.439257e-02 -9.112041e-04 -5.215639e-02 1.195762e-02 1.935726e-02 5.844796e-02 -1.824077e-02 -5.208985e-01 -1.296134e-02 -1.052199e-02 -6.671755e-02 -5.947598e-03 -7.956572e-03 -1.192239e-01 -2.164110e-02 -2.719563e-03 -1.176368e-01 -6.902036e-04 2.136123e-02 -8.177454e-02 9.402875e-03
<VARIANCE> 39
 3.242518e+01 8.829040e+00 1.664200e+01 1.116821e+01 1.443443e+01 2.571690e+01 2.373372e+01 1.884600e+01 2.243118e+01 1.940033e+01 1.828125e+01 1.863923e+01 1.639946e+01 2.144542e-01 3.034932e-01 5.471095e-01 7.228431e-01 9.316761e-01 1.283982e+00 1.366729e+00 1.358929e+00 1.485574e+00 1.436596e+00 1.305560e+00 1.240050e+00 1.036264e-01 7.844686e-02 6.014729e-02 1.157313e-01 1.491496e-01 2.005331e-01 2.740494e-01 3.013366e-01 2.871554e-01 3.065790e-01 3.061297e-01 2.783474e-01 2.691682e-01 4.300138e-02
<GCONST> 8.252686e+01
<MIXTURE> 8 4.954459e-02
<MEAN> 39
 -2.633723e+01 2.451823e+00 4.827887e-01 -6.208282e+00 -4.296475e+00 1.230318e+01 1.007913e+00 -1.069034e+00 8.922263e+00 -4.448237e+00 -4.289053e+00 4.869483e+00 6.292829e+01 -8.105134e-01 -1.088300e-01 1.247057e-01 6.717913e-02 -1.819081e-01 2.389648e-01 -4.348293e-02 -1.303072e-01 2.702906e-02 -2.055808e-01 -2.850542e-01 2.033070e-01 6.830066e-01 5.074764e-01 -5.415063e-02 9.393802e-03 -1.080501e-01 -5.016694e-02 9.856699e-02 -3.724927e-02 -1.160404e-01 1.191697e-01 -2.867025e-02 -1.993365e-02 1.059463e-01 -3.655834e-01
<VARIANCE> 39
 1.765463e+01 8.575811e+00 1.394314e+01 1.359844e+01 1.568323e+01 2.796323e+01 2.999178e+01 2.011823e+01 2.441876e+01 2.077859e+01 1.936597e+01 2.326342e+01 1.304539e+01 1.761854e+00 6.053336e-01 1.201386e+00 1.197625e+00 1.733184e+00 2.842026e+00 2.802564e+00 2.098063e+00 2.605310e+00 1.991626e+00 1.806544e+00 2.441467e+00 1.029451e+00 4.451124e-01 1.196935e-01 2.034671e-01 2.262542e-01 3.040068e-01 4.781370e-01 4.990545e-01 3.806625e-01 4.617006e-01 3.944326e-01 3.554589e-01 4.154408e-01 2.889375e-01
<GCONST> 1.018325e+02
<MIXTURE> 9 3.013112e-02
<MEAN> 39
 -1.746490e+01 2.125275e+00 -3.384867e+00 -8.559223e+00 -6.119463e+00 9.673676e+00 -9.771528e-01 -4.586064e+00 5.823079e+00 -4.840329e+00 -4.743804e+00 4.227259e+00 5.767810e+01 3.470874e-01 2.282410e-02 9.152887e-02 2.376719e-01 2.835175e-01 2.185298e-01 2.565271e-01 3.197930e-01 2.179109e-01 3.505048e-01 2.791696e-01 8.728690e-04 -2.752875e-01 -9.396695e-02 7.273670e-02 1.830516e-01 2.207812e-01 1.933258e-01 2.149541e-01 1.771528e-01 2.832305e-01 2.602128e-01 2.084996e-01 1.362787e-01 9.203520e-02 9.806788e-02
<VARIANCE> 39
 4.255582e+01 1.193554e+01 1.440533e+01 1.286958e+01 1.711854e+01 3.416739e+01 2.777719e+01 2.209679e+01 2.226490e+01 1.858867e+01 1.952451e+01 1.859353e+01 1.883811e+01 4.596335e-01 3.826307e-01 5.920128e-01 7.769640e-01 1.048866e+00 1.460796e+00 1.566270e+00 1.515682e+00 1.599575e+00 1.529356e+00 1.445828e+00 1.376764e+00 1.887107e-01 1.523753e-01 7.934579e-02 1.184878e-01 1.552374e-01 2.172713e-01 3.003064e-01 3.182409e-01 2.914746e-01 3.091085e-01 3.086773e-01 2.959969e-01 2.889522e-01 7.060475e-02
<GCONST> 8.849166e+01
<MIXTURE> 10 9.210621e-02
<MEAN> 39
 -2.079052e+01 2.846303e+00 -4.126221e-02 -6.884539e+00 -4.517287e+00 1.366314e+01 1.023110e+00 -2.118389e+00 9.932850e+00 -3.665921e+00 -4.436993e+00 6.023542e+00 5.881010e+01 6.612208e-01 -5.192035e-02 -9.132186e-02 -8.101618e-02 4.653519e-03 -6.435220e-02 -9.153681e-04 -5.218568e-02 1.199817e-02 1.934427e-02 5.842957e-02 -1.821352e-02 -5.209156e-01 -1.295923e-02 -1.051089e-02 -6.674247e-02 -5.932560e-03 -7.928832e-03 -1.192663e-01 -2.161257e-02 -2.694102e-03 -1.176734e-01 -6.637559e-04 2.138527e-02 -8.182053e-02 9.401552e-03
<VARIANCE> 39
 3.242238e+01 8.828721e+00 1.664220e+01 1.116815e+01 1.443479e+01 2.571632e+01 2.373460e+01 1.884618e+01 2.243116e+01 1.940077e+01 1.828127e+01 1.863944e+01 1.639927e+01 2.144609e-01 3.034931e-01 5.471309e-01 7.228622e-01 9.316893e-01 1.283993e+00 1.366738e+00 1.358937e+00 1.485594e+00 1.436597e+00 1.305569e+00 1.240051e+00 1.036338e-01 7.848056e-02 6.015243e-02 1.157412e-01 1.491573e-01 2.005465e-01 2.740705e-01 3.013587e-01 2.871683e-01 3.065933e-01 3.061403e-01 2.783579e-01 2.691838e-01 4.302466e-02
<GCONST> 8.252863e+01
<MIXTURE> 11 9.210779e-02
<MEAN> 39
 -2.078935e+01 2.846456e+00 -4.195599e-02 -6.884361e+00 -4.516818e+00 1.366263e+01 1.023623e+00 -2.118165e+00 9.932366e+00 -3.665414e+00 -4.436634e+00 6.022981e+00 5.880930e+01 6.612293e-01 -5.195554e-02 -9.135848e-02 -8.096404e-02 4.681881e-03 -6.440275e-02 -9.029172e-04 -5.214063e-02 1.195021e-02 1.936685e-02 5.846069e-02 -1.824770e-02 -5.208989e-01 -1.296539e-02 -1.052566e-02 -6.671087e-02 -5.950952e-03 -7.968923e-03 -1.192162e-01 -2.165457e-02 -2.731915e-03 -1.176334e-01 -7.006573e-04 2.135148e-02 -8.176144e-02 9.405575e-03
<VARIANCE> 39
 3.242551e+01 8.828816e+00 1.664190e+01 1.116792e+01 1.443397e+01 2.571638e+01 2.373306e+01 1.884547e+01 2.243077e+01 1.939989e+01 1.828097e+01 1.863892e+01 1.639942e+01 2.144506e-01 3.034934e-01 5.471063e-01 7.228462e-01 9.316782e-01 1.283977e+00 1.366730e+00 1.358930e+00 1.485572e+00 1.436591e+00 1.305560e+00 1.240052e+00 1.036233e-01 7.844088e-02 6.014598e-02 1.157287e-01 1.491469e-01 2.005266e-01 2.740438e-01 3.013286e-01 2.871484e-01 3.065714e-01 3.061238e-01 2.783424e-01 2.691618e-01 4.299698e-02
<GCONST> 8.252616e+01
<MIXTURE> 12 4.955174e-02
<MEAN> 39
 -2.633948e+01 2.451878e+00 4.838639e-01 -6.207877e+00 -4.295361e+00 1.230249e+01 1.009311e+00 -1.067232e+00 8.922770e+00 -4.448282e+00 -4.288583e+00 4.868389e+00 6.292961e+01 -8.115353e-01 -1.088909e-01 1.242104e-01 6.761120e-02 -1.812369e-01 2.380674e-01 -4.272921e-02 -1.296864e-01 2.625195e-02 -2.055487e-01 -2.849061e-01 2.024584e-01 6.838636e-01 5.075235e-01 -5.419301e-02 9.389289e-03 -1.081176e-01 -5.034846e-02 9.875693e-02 -3.741907e-02 -1.162730e-01 1.192113e-01 -2.876536e-02 -2.003484e-02 1.061390e-01 -3.656127e-01
<VARIANCE> 39
 1.764645e+01 8.573866e+00 1.393974e+01 1.360016e+01 1.568214e+01 2.796551e+01 2.999187e+01 2.011905e+01 2.442098e+01 2.078069e+01 1.936822e+01 2.326871e+01 1.304167e+01 1.763103e+00 6.053124e-01 1.201842e+00 1.197732e+00 1.733612e+00 2.843110e+00 2.803260e+00 2.098724e+00 2.606229e+00 1.992044e+00 1.806880e+00 2.442777e+00 1.030268e+00 4.451645e-01 1.196640e-01 2.034681e-01 2.262915e-01 3.040139e-01 4.782061e-01 4.990833e-01 3.806916e-01 4.617813e-01 3.944871e-01 3.555052e-01 4.155192e-01 2.889789e-01
<GCONST> 1.018375e+02
<MIXTURE> 13 9.211423e-02
<MEAN> 39
 -2.078684e+01 2.846712e+00 -4.334564e-02 -6.883969e+00 -4.516148e+00 1.366146e+01 1.024330e+00 -2.117922e+00 9.931252e+00 -3.664373e+00 -4.435960e+00 6.022002e+00 5.880767e+01 6.612124e-01 -5.204407e-02 -9.143098e-02 -8.087947e-02 4.713569e-03 -6.451179e-02 -8.975416e-04 -5.207435e-02 1.183760e-02 1.939218e-02 5.849877e-02 -1.832237e-02 -5.208489e-01 -1.297920e-02 -1.054933e-02 -6.665528e-02 -5.983480e-03 -8.027733e-03 -1.191238e-01 -2.171231e-02 -2.787449e-03 -1.175636e-01 -7.716962e-04 2.128784e-02 -8.166885e-02 9.415921e-03
<VARIANCE> 39
 3.243511e+01 8.830360e+00 1.664264e+01 1.116936e+01 1.443458e+01 2.572001e+01 2.373303e+01 1.884696e+01 2.243282e+01 1.940048e+01 1.828268e+01 1.863970e+01 1.640113e+01 2.144495e-01 3.035185e-01 5.470935e-01 7.228558e-01 9.316970e-01 1.284030e+00 1.366779e+00 1.359009e+00 1.485636e+00 1.436651e+00 1.305641e+00 1.240128e+00 1.036130e-01 7.837480e-02 6.013975e-02 1.157156e-01 1.491428e-01 2.005143e-01 2.740164e-01 3.013019e-01 2.871476e-01 3.065608e-01 3.061271e-01 2.783474e-01 2.691493e-01 4.295036e-02
<GCONST> 8.252525e+01
<MIXTURE> 14 4.955174e-02
<MEAN> 39
 -2.633948e+01 2.451878e+00 4.838639e-01 -6.207877e+00 -4.295361e+00 1.230249e+01 1.009311e+00 -1.067232e+00 8.922770e+00 -4.448282e+00 -4.288583e+00 4.868389e+00 6.292961e+01 -8.115353e-01 -1.088909e-01 1.242104e-01 6.761120e-02 -1.812369e-01 2.380674e-01 -4.272921e-02 -1.296864e-01 2.625195e-02 -2.055487e-01 -2.849061e-01 2.024584e-01 6.838636e-01 5.075235e-01 -5.419301e-02 9.389289e-03 -1.081176e-01 -5.034846e-02 9.875693e-02 -3.741907e-02 -1.162730e-01 1.192113e-01 -2.876536e-02 -2.003484e-02 1.061390e-01 -3.656127e-01
<VARIANCE> 39
 1.764645e+01 8.573866e+00 1.393974e+01 1.360016e+01 1.568214e+01 2.796551e+01 2.999187e+01 2.011905e+01 2.442098e+01 2.078069e+01 1.936822e+01 2.326871e+01 1.304167e+01 1.763103e+00 6.053124e-01 1.201842e+00 1.197732e+00 1.733612e+00 2.843110e+00 2.803260e+00 2.098724e+00 2.606229e+00 1.992044e+00 1.806880e+00 2.442777e+00 1.030268e+00 4.451645e-01 1.196640e-01 2.034681e-01 2.262915e-01 3.040139e-01 4.782061e-01 4.990833e-01 3.806916e-01 4.617813e-01 3.944871e-01 3.555052e-01 4.155192e-01 2.889789e-01
<GCONST> 1.018375e+02
<MIXTURE> 15 4.955556e-02
<MEAN> 39
 -2.634134e+01 2.451567e+00 4.837185e-01 -6.207244e+00 -4.294709e+00 1.230149e+01 1.010260e+00 -1.066306e+00 8.921992e+00 -4.448560e+00 -4.288693e+00 4.867317e+00 6.293109e+01 -8.115775e-01 -1.089611e-01 1.242037e-01 6.759233e-02 -1.811786e-01 2.381897e-01 -4.262135e-02 -1.297013e-01 2.632432e-02 -2.056738e-01 -2.850122e-01 2.025289e-01 6.839267e-01 5.077789e-01 -5.414520e-02 9.451374e-03 -1.082189e-01 -5.043994e-02 9.888720e-02 -3.753322e-02 -1.163959e-01 1.193591e-01 -2.873859e-02 -2.000487e-02 1.062801e-01 -3.658380e-01
<VARIANCE> 39
 1.764335e+01 8.574557e+00 1.393831e+01 1.360133e+01 1.568328e+01 2.796732e+01 2.999471e+01 2.012067e+01 2.442184e+01 2.078333e+01 1.936982e+01 2.327229e+01 1.304104e+01 1.763681e+00 6.053012e-01 1.201923e+00 1.197798e+00 1.733650e+00 2.843066e+00 2.803324e+00 2.098857e+00 2.606354e+00 1.992250e+00 1.806961e+00 2.442857e+00 1.030653e+00 4.451368e-01 1.196750e-01 2.034886e-01 2.263132e-01 3.040419e-01 4.782512e-01 4.991368e-01 3.807202e-01 4.618171e-01 3.945376e-01 3.555408e-01 4.155681e-01 2.889547e-01
<GCONST> 1.018402e+02
<MIXTURE> 16 3.798262e-02
<MEAN> 39
 -2.097889e+01 3.866332e+00 -1.655249e+00 -6.169220e+00 -5.085480e+00 7.053151e+00 -1.310444e+00 -2.685335e+00 5.103245e+00 -2.445959e+00 -3.285352e+00 3.020447e+00 6.146015e+01 -2.844966e+00 3.691255e-01 4.606094e-01 -1.629019e-01 -7.152848e-01 6.046858e-01 -8.509846e-01 -8.584034e-01 2.761100e-01 -5.631260e-01 -9.253730e-01 6.957294e-01 2.447657e+00 5.921950e-01 -2.577747e-01 6.038705e-02 -4.681883e-02 1.464365e-02 2.640328e-01 1.682350e-01 -6.337072e-02 2.490380e-01 -7.430416e-02 -9.218542e-02 1.892280e-01 -4.513374e-01
<VARIANCE> 39
 6.024023e+01 1.564682e+01 2.869687e+01 2.912624e+01 2.972157e+01 5.131666e+01 4.151130e+01 3.968613e+01 3.677994e+01 2.920678e+01 2.490338e+01 2.563851e+01 2.309065e+01 7.680849e+00 1.786718e+00 2.229795e+00 1.804638e+00 2.290658e+00 5.057769e+00 3.193795e+00 3.340845e+00 3.765257e+00 2.447905e+00 2.757815e+00 2.985046e+00 2.125234e+00 8.356740e-01 1.920975e-01 3.082195e-01 3.729041e-01 4.169117e-01 6.643288e-01 5.743212e-01 5.726971e-01 5.970860e-01 4.634121e-01 4.357795e-01 4.636491e-01 3.807835e-01
<GCONST> 1.202425e+02
<STATE> 4
<NUMMIXES> 16
<MIXTURE> 1 9.779935e-02
<MEAN> 39
 -8.352828e+00 -3.492317e-01 1.023901e+00 -5.423480e+00 -4.092207e+00 5.473823e+00 2.027277e-01 -3.153232e+00 4.360471e+00 1.051333e-01 -5.373232e+00 2.979265e+00 5.035137e+01 2.201225e-01 -2.840640e-02 -1.200329e-01 1.008770e-01 1.702731e-01 -1.456935e-01 1.329082e-02 1.697821e-01 -1.147754e-01 -2.964466e-02 2.118689e-01 -1.634015e-01 -2.936990e-01 -3.769427e-02 3.449937e-03 1.934486e-02 5.014218e-03 -2.044657e-03 4.651884e-02 2.333123e-02 -3.500625e-03 7.404908e-03 1.257053e-02 -2.958991e-02 3.753418e-03 2.922450e-02
<VARIANCE> 39
 2.100169e+01 1.316944e+01 5.578801e+01 1.377168e+01 2.376685e+01 2.961316e+01 2.911763e+01 3.612229e+01 3.237976e+01 2.154014e+01 2.865610e+01 2.148105e+01 3.697266e+01 2.045657e-01 3.268352e-01 5.627964e-01 7.011356e-01 9.754430e-01 1.259481e+00 1.327451e+00 1.484738e+00 1.547893e+00 1.424027e+00 1.424898e+00 1.294995e+00 1.221295e-01 3.062507e-02 5.427874e-02 9.712293e-02 1.300160e-01 1.816525e-01 2.351852e-01 2.508812e-01 2.736896e-01 2.873755e-01 2.660633e-01 2.706404e-01 2.397373e-01 1.061911e-02
<GCONST> 8.413412e+01
<MIXTURE> 2 7.848687e-02
<MEAN> 39
 -2.200411e+01 8.817835e-01 6.259377e+00 -3.873034e+00 -5.788926e+00 1.106413e+01 2.696927e+00 -5.007090e+00 3.689299e+00 5.749158e+00 -1.113778e+01 3.926692e+00 5.665293e+01 6.563646e-01 1.208794e-01 1.593467e-01 2.336394e-03 9.455530e-02 8.758370e-03 1.547541e-01 6.412027e-03 2.197433e-01 5.634964e-02 2.469598e-03 3.164969e-02 -6.839489e-01 -3.292615e-02 5.811859e-04 -7.464819e-02 -1.150647e-02 -1.817733e-02 -6.088912e-02 -6.264816e-02 -9.104581e-03 -4.632092e-02 -6.903588e-02 1.774171e-02 -2.006566e-02 3.359592e-02
<VARIANCE> 39
 2.287101e+01 8.288404e+00 1.241537e+01 1.552818e+01 2.798644e+01 2.347303e+01 2.186313e+01 4.060823e+01 3.393827e+01 2.963397e+01 2.305694e+01 2.283162e+01 1.941390e+01 1.550494e-01 2.714690e-01 5.377517e-01 6.884157e-01 9.354948e-01 1.198197e+00 1.291949e+00 1.478815e+00 1.536885e+00 1.408624e+00 1.385019e+00 1.171353e+00 8.787511e-02 3.604701e-02 5.419729e-02 1.045167e-01 1.373998e-01 1.900257e-01 2.424788e-01 2.571476e-01 2.927888e-01 3.116445e-01 2.854565e-01 2.797376e-01 2.364824e-01 2.066625e-02
<GCONST> 8.186997e+01
<MIXTURE> 3 7.848687e-02
<MEAN> 39
 -2.200411e+01 8.817835e-01 6.259377e+00 -3.873034e+00 -5.788926e+00 1.106413e+01 2.696927e+00 -5.007090e+00 3.689299e+00 5.749158e+00 -1.113778e+01 3.926692e+00 5.665293e+01 6.563646e-01 1.208794e-01 1.593467e-01 2.336394e-03 9.455530e-02 8.758370e-03 1.547541e-01 6.412027e-03 2.197433e-01 5.634964e-02 2.469598e-03 3.164969e-02 -6.839489e-01 -3.292615e-02 5.811859e-04 -7.464819e-02 -1.150647e-02 -1.817733e-02 -6.088912e-02 -6.264816e-02 -9.104581e-03 -4.632092e-02 -6.903588e-02 1.774171e-02 -2.006566e-02 3.359592e-02
<VARIANCE> 39
 2.287101e+01 8.288404e+00 1.241537e+01 1.552818e+01 2.798644e+01 2.347303e+01 2.186313e+01 4.060823e+01 3.393827e+01 2.963397e+01 2.305694e+01 2.283162e+01 1.941390e+01 1.550494e-01 2.714690e-01 5.377517e-01 6.884157e-01 9.354948e-01 1.198197e+00 1.291949e+00 1.478815e+00 1.536885e+00 1.408624e+00 1.385019e+00 1.171353e+00 8.787511e-02 3.604701e-02 5.419729e-02 1.045167e-01 1.373998e-01 1.900257e-01 2.424788e-01 2.571476e-01 2.927888e-01 3.116445e-01 2.854565e-01 2.797376e-01 2.364824e-01 2.066625e-02
<GCONST> 8.186997e+01
<MIXTURE> 4 5.233247e-02
<MEAN> 39
 -2.434212e+01 -4.300069e-02 5.460574e+00 -4.272048e+00 -8.382636e+00 1.199033e+01 -5.219394e-02 -8.878529e+00 3.708277e+00 3.674967e+00 -1.397507e+01 6.598799e+00 6.064842e+01 4.769128e-01 -1.701310e-02 2.926402e-01 -9.566152e-02 -1.666162e-01 2.253441e-01 1.853313e-01 -3.372886e-01 4.287241e-01 -2.924185e-04 -2.438306e-01 2.753339e-01 -5.704228e-01 1.640056e-02 4.919721e-02 -1.518705e-02 4.265112e-02 1.536086e-01 -1.302868e-01 3.640838e-02 2.317121e-01 -3.368875e-02 7.556470e-02 1.989929e-01 -1.372308e-01 -3.715613e-02
<VARIANCE> 39
 1.786882e+01 9.759809e+00 1.518905e+01 1.508608e+01 2.854614e+01 2.895564e+01 3.119527e+01 4.964355e+01 4.100216e+01 3.202512e+01 2.930370e+01 3.964391e+01 2.554144e+01 2.730424e-01 3.640867e-01 7.090494e-01 7.508520e-01 1.089820e+00 1.432962e+00 1.360046e+00 1.793965e+00 1.757132e+00 1.604587e+00 1.581095e+00 1.439829e+00 2.407298e-01 2.341871e-01 8.897560e-02 2.016331e-01 1.834087e-01 2.538298e-01 3.539375e-01 3.385026e-01 4.424776e-01 5.105432e-01 4.086250e-01 3.430595e-01 3.573151e-01 2.690032e-01
<GCONST> 9.619142e+01
<MIXTURE> 5 7.848687e-02
<MEAN> 39
 -2.200411e+01 8.817835e-01 6.259377e+00 -3.873034e+00 -5.788926e+00 1.106413e+01 2.696927e+00 -5.007090e+00 3.689299e+00 5.749158e+00 -1.113778e+01 3.926692e+00 5.665293e+01 6.563646e-01 1.208794e-01 1.593467e-01 2.336394e-03 9.455530e-02 8.758370e-03 1.547541e-01 6.412027e-03 2.197433e-01 5.634964e-02 2.469598e-03 3.164969e-02 -6.839489e-01 -3.292615e-02 5.811859e-04 -7.464819e-02 -1.150647e-02 -1.817733e-02 -6.088912e-02 -6.264816e-02 -9.104581e-03 -4.632092e-02 -6.903588e-02 1.774171e-02 -2.006566e-02 3.359592e-02
<VARIANCE> 39
 2.287101e+01 8.288404e+00 1.241537e+01 1.552818e+01 2.798644e+01 2.347303e+01 2.186313e+01 4.060823e+01 3.393827e+01 2.963397e+01 2.305694e+01 2.283162e+01 1.941390e+01 1.550494e-01 2.714690e-01 5.377517e-01 6.884157e-01 9.354948e-01 1.198197e+00 1.291949e+00 1.478815e+00 1.536885e+00 1.408624e+00 1.385019e+00 1.171353e+00 8.787511e-02 3.604701e-02 5.419729e-02 1.045167e-01 1.373998e-01 1.900257e-01 2.424788e-01 2.571476e-01 2.927888e-01 3.116445e-01 2.854565e-01 2.797376e-01 2.364824e-01 2.066625e-02
<GCONST> 8.186997e+01
<MIXTURE> 6 5.233300e-02
<MEAN> 39
 -2.434236e+01 -4.287386e-02 5.460132e+00 -4.272016e+00 -8.382224e+00 1.198976e+01 -5.194145e-02 -8.877733e+00 3.707612e+00 3.675082e+00 -1.397441e+01 6.597874e+00 6.064844e+01 4.769173e-01 -1.701402e-02 2.926487e-01 -9.567114e-02 -1.666744e-01 2.253881e-01 1.853274e-01 -3.373668e-01 4.287169e-01 -3.220141e-04 -2.438955e-01 2.753673e-01 -5.703956e-01 1.646892e-02 4.920572e-02 -1.513406e-02 4.265049e-02 1.535878e-01 -1.302396e-01 3.642686e-02 2.316639e-01 -3.361293e-02 7.557510e-02 1.989542e-01 -1.371673e-01 -3.723195e-02
<VARIANCE> 39
 1.786936e+01 9.759778e+00 1.518905e+01 1.508636e+01 2.854650e+01 2.895550e+01 3.119465e+01 4.964346e+01 4.100023e+01 3.202466e+01 2.930243e+01 3.963961e+01 2.554077e+01 2.730502e-01 3.641010e-01 7.090775e-01 7.508770e-01 1.089858e+00 1.432998e+00 1.360095e+00 1.794020e+00 1.757137e+00 1.604618e+00 1.581127e+00 1.439846e+00 2.407399e-01 2.341908e-01 8.897761e-02 2.016363e-01 1.834135e-01 2.538331e-01 3.539385e-01 3.385050e-01 4.424786e-01 5.105232e-01 4.086247e-01 3.430605e-01 3.573071e-01 2.690024e-01
<GCONST> 9.619160e+01
<MIXTURE> 7 5.233249e-02
<MEAN> 39
 -2.434320e+01 -4.288686e-02 5.459734e+00 -4.271615e+00 -8.381182e+00 1.198996e+01 -5.115736e-02 -8.876309e+00 3.707418e+00 3.675699e+00 -1.397360e+01 6.597245e+00 6.064854e+01 4.769447e-01 -1.700021e-02 2.926486e-01 -9.566981e-02 -1.666925e-01 2.253965e-01 1.853338e-01 -3.374013e-01 4.287123e-01 -3.756098e-04 -2.439444e-01 2.753624e-01 -5.704187e-01 1.652729e-02 4.921326e-02 -1.511307e-02 4.262052e-02 1.535241e-01 -1.302481e-01 3.640158e-02 2.315806e-01 -3.358764e-02 7.553197e-02 1.988993e-01 -1.371384e-01 -3.727636e-02
<VARIANCE> 39
 1.786610e+01 9.758899e+00 1.518782e+01 1.508597e+01 2.854607e+01 2.895181e+01 3.119283e+01 4.964114e+01 4.099446e+01 3.202455e+01 2.930095e+01 3.963383e+01 2.553702e+01 2.730367e-01 3.640991e-01 7.090856e-01 7.508878e-01 1.089843e+00 1.432962e+00 1.360096e+00 1.793926e+00 1.757100e+00 1.604617e+00 1.581067e+00 1.439767e+00 2.407376e-01 2.341638e-01 8.897505e-02 2.016333e-01 1.834132e-01 2.538288e-01 3.539162e-01 3.384924e-01 4.424492e-01 5.104641e-01 4.086160e-01 3.430466e-01 3.572734e-01 2.689716e-01
<GCONST> 9.618952e+01
<MIXTURE> 8 5.315340e-02
<MEAN> 39
 -2.277401e+01 1.201978e+00 4.863820e+00 -3.592787e+00 -5.320859e+00 1.063171e+01 2.378395e+00 -4.637404e+00 4.275499e+00 4.466610e+00 -1.042563e+01 4.145725e+00 5.757851e+01 -1.201227e+00 -1.069901e-01 -5.091695e-01 1.018750e-01 1.921506e-01 -4.049497e-01 -3.271445e-01 5.797722e-01 -7.081231e-01 -5.614779e-02 4.581237e-01 -4.671055e-01 1.302647e+00 -1.287467e-01 -8.291991e-02 -1.372216e-02 -4.055291e-02 -1.165576e-01 7.038908e-02 -1.065971e-01 -1.535493e-01 -1.006711e-01 -3.820542e-02 -1.576546e-01 9.259939e-02 2.095302e-01
<VARIANCE> 39
 2.967686e+01 1.032070e+01 1.605911e+01 1.573252e+01 2.509814e+01 2.470709e+01 2.770851e+01 4.441563e+01 3.445044e+01 3.226773e+01 2.732120e+01 2.936940e+01 3.102043e+01 1.555068e+00 8.168271e-01 1.585626e+00 1.434749e+00 2.163502e+00 2.923919e+00 2.461980e+00 4.208014e+00 3.990057e+00 3.353738e+00 2.497679e+00 2.645251e+00 1.233950e+00 4.630430e-01 1.164083e-01 2.474889e-01 2.223024e-01 3.235866e-01 4.001956e-01 3.976374e-01 5.484566e-01 5.793151e-01 4.575876e-01 4.091975e-01 3.894373e-01 4.377800e-01
<GCONST> 1.101728e+02
<MIXTURE> 9 7.848600e-02
<MEAN> 39
 -2.200384e+01 8.817762e-01 6.259356e+00 -3.873243e+00 -5.788919e+00 1.106395e+01 2.696907e+00 -5.007011e+00 3.689403e+00 5.748978e+00 -1.113771e+01 3.926700e+00 5.665269e+01 6.563604e-01 1.208758e-01 1.593302e-01 2.338453e-03 9.455932e-02 8.750189e-03 1.547420e-01 6.414903e-03 2.197344e-01 5.634168e-02 2.478518e-03 3.164327e-02 -6.839375e-01 -3.292659e-02 5.827566e-04 -7.463965e-02 -1.149379e-02 -1.816993e-02 -6.087685e-02 -6.264472e-02 -9.106838e-03 -4.631867e-02 -6.903099e-02 1.773952e-02 -2.006359e-02 3.359656e-02
<VARIANCE> 39
 2.287224e+01 8.288478e+00 1.241589e+01 1.552819e+01 2.798604e+01 2.347289e+01 2.186325e+01 4.060846e+01 3.393904e+01 2.963381e+01 2.305691e+01 2.283179e+01 1.941440e+01 1.550522e-01 2.714725e-01 5.377566e-01 6.884177e-01 9.355007e-01 1.198206e+00 1.291957e+00 1.478831e+00 1.536896e+00 1.408627e+00 1.385029e+00 1.171363e+00 8.787786e-02 3.604737e-02 5.419763e-02 1.045176e-01 1.373993e-01 1.900251e-01 2.424803e-01 2.571486e-01 2.927912e-01 3.116468e-01 2.854548e-01 2.797387e-01 2.364838e-01 2.066615e-02
<GCONST> 8.187029e+01
<MIXTURE> 10 5.233306e-02
<MEAN> 39
 -2.434281e+01 -4.324034e-02 5.460577e+00 -4.272055e+00 -8.382366e+00 1.199075e+01 -5.237237e-02 -8.878228e+00 3.708393e+00 3.675058e+00 -1.397525e+01 6.599288e+00 6.064909e+01 4.769321e-01 -1.701536e-02 2.926604e-01 -9.565948e-02 -1.666215e-01 2.253572e-01 1.853403e-01 -3.373274e-01 4.287680e-01 -3.121532e-04 -2.438602e-01 2.753686e-01 -5.704672e-01 1.644149e-02 4.920068e-02 -1.518156e-02 4.264309e-02 1.535755e-01 -1.302893e-01 3.641264e-02 2.316604e-01 -3.366743e-02 7.553548e-02 1.989687e-01 -1.372322e-01 -3.719248e-02
<VARIANCE> 39
