~o
<STREAMINFO> 1 39
<VECSIZE> 39<NULLD><MFCC_D_A_0><DIAGC>
~h "ap"
<BEGINHMM>
<NUMSTATES> 5
<STATE> 2
<MEAN> 39
 -1.465027e+01 -8.211127e+00 -4.830107e+00 -1.259423e+00 -1.497491e+00 -3.589020e+00 1.931071e+00 -5.651739e-01 -4.542638e-01 -1.187502e-01 3.940091e-01 -1.112832e+00 6.382028e+01 -5.204359e-01 -9.500399e-01 -4.707535e-01 -6.286106e-02 -3.905455e-01 -5.707680e-01 -1.413153e-01 -2.795620e-01 -1.075206e-01 -7.369204e-02 -2.609261e-02 1.494393e-02 1.675045e+00 1.212414e-01 8.558550e-02 5.177993e-02 -4.515515e-03 7.858727e-02 1.188030e-01 9.306793e-02 5.506528e-02 5.414349e-02 2.440638e-02 2.452294e-02 1.255661e-02 -2.738000e-01
<VARIANCE> 39
 4.035534e+01 4.824321e+01 3.406354e+01 2.196604e+01 2.978224e+01 4.363984e+01 3.275868e+01 3.040120e+01 2.505259e+01 2.137263e+01 1.792274e+01 1.538046e+01 1.684266e+02 3.037807e+00 3.696828e+00 1.797765e+00 1.534297e+00 2.482545e+00 3.795851e+00 2.758849e+00 2.826817e+00 2.365416e+00 2.040633e+00 1.697294e+00 1.485276e+00 1.417891e+01 4.446920e-01 5.277507e-01 2.749975e-01 2.599004e-01 4.049988e-01 6.284131e-01 4.868002e-01 4.913884e-01 4.162677e-01 3.627580e-01 3.000172e-01 2.705786e-01 2.206977e+00
<GCONST> 1.193555e+02
<STATE> 3
<MEAN> 39
 -1.148741e+01 -1.679243e+01 -1.116039e+01 1.704436e-01 3.287429e-01 -9.125903e+00 1.315515e-01 -9.734435e-01 -3.537299e+00 -2.842276e+00 8.218356e-01 -4.760779e-01 6.910683e+01 9.689931e-02 3.976768e-02 6.504634e-02 6.481652e-02 8.392733e-02 3.637433e-02 4.237880e-02 1.816432e-02 -6.522338e-04 -2.092308e-03 1.948744e-02 1.346879e-02 -2.537926e-01 -5.130225e-04 1.274237e-02 8.060390e-03 5.002236e-03 5.921010e-03 4.717503e-03 -3.790492e-03 1.267534e-03 -1.728838e-03 1.727065e-03 -1.175313e-03 -1.958211e-03 -8.718967e-03
<VARIANCE> 39
 1.578873e+01 2.527377e+01 2.257209e+01 2.527926e+01 3.324297e+01 2.709485e+01 2.985743e+01 2.350350e+01 2.393483e+01 2.164286e+01 1.743034e+01 1.490952e+01 8.196741e+01 6.096895e-01 7.750480e-01 8.561346e-01 1.086726e+00 1.401021e+00 1.463246e+00 1.652698e+00 1.488097e+00 1.523362e+00 1.458447e+00 1.339819e+00 1.234052e+00 4.368197e+00 1.018606e-01 1.400653e-01 1.525804e-01 2.059226e-01 2.609093e-01 2.869790e-01 3.357203e-01 3.063872e-01 3.128184e-01 3.004377e-01 2.743996e-01 2.545636e-01 6.763488e-01
<GCONST> 9.916427e+01
<STATE> 4
<MEAN> 39
 -1.111170e+01 -1.064713e+01 -5.339499e+00 -1.938213e-01 1.464876e-02 -4.267014e+00 2.675857e+00 -1.254182e+00 -1.742720e+00 -9.149043e-02 6.315750e-01 -8.241482e-01 6.049486e+01 1.720448e-02 2.074701e-02 1.163130e-02 7.654131e-03 5.260615e-03 1.159825e-02 5.868395e-03 1.036510e-02 3.200477e-03 2.808862e-03 -6.572123e-04 -1.377437e-03 -4.257633e-02 -9.862836e-04 -6.692209e-04 -1.560071e-03 -1.573837e-03 -1.850935e-03 -1.620436e-03 -1.567676e-03 -3.254366e-04 -6.462099e-04 -1.214195e-03 -4.258074e-04 -1.704656e-04 2.120912e-03
<VARIANCE> 39
 2.647516e+01 5.584977e+01 2.823620e+01 2.516901e+01 3.384075e+01 3.658294e+01 2.839633e+01 3.112934e+01 2.461504e+01 2.001611e+01 1.695711e+01 1.510090e+01 1.250269e+02 9.314302e-01 1.291579e+00 9.270818e-01 9.743607e-01 1.409863e+00 1.711320e+00 1.614406e+00 1.741279e+00 1.602051e+00 1.461110e+00 1.368014e+00 1.226250e+00 5.220167e+00 1.456244e-01 1.983756e-01 1.585661e-01 1.830341e-01 2.610166e-01 3.224118e-01 3.187371e-01 3.379349e-01 3.254035e-01 2.989271e-01 2.775269e-01 2.499343e-01 7.727669e-01
<GCONST> 1.039958e+02
<TRANSP> 5
 0.000000e+00 1.000000e+00 0.000000e+00 0.000000e+00 0.000000e+00
 0.000000e+00 9.056910e-01 9.430892e-02 0.000000e+00 0.000000e+00
 0.000000e+00 0.000000e+00 9.862856e-01 1.371437e-02 0.000000e+00
 0.000000e+00 0.000000e+00 0.000000e+00 9.950641e-01 4.935917e-03
 0.000000e+00 0.000000e+00 0.000000e+00 0.000000e+00 0.000000e+00
<ENDHMM>
~h "cl"
<BEGINHMM>
<NUMSTATES> 5
<STATE> 2
<MEAN> 39
 -1.185714e+01 -1.800703e+00 -1.286208e+00 -3.974855e+00 -1.501617e+00 4.448361e+00 3.408521e+00 6.606055e-01 3.400807e+00 1.033351e-01 -2.452691e+00 7.455047e-01 5.377478e+01 -2.934465e-01 4.266914e-02 3.569754e-02 -2.637507e-02 -8.283912e-02 1.302762e-01 -7.033519e-02 -1.218410e-01 7.607454e-02 -3.265755e-02 -1.022489e-01 7.812835e-02 2.229363e-01 -4.235631e-02 -9.103233e-04 1.842645e-02 -1.035913e-02 -2.544397e-02 4.057778e-02 -1.318361e-02 -3.405237e-02 1.993251e-02 -4.714532e-03 -3.676955e-02 2.701776e-02 2.973882e-02
<VARIANCE> 39
 3.882773e+01 3.055665e+01 3.020170e+01 1.542950e+01 1.955426e+01 4.494826e+01 2.418312e+01 2.623121e+01 3.367358e+01 2.242357e+01 2.525206e+01 2.221105e+01 5.611366e+01 2.412954e+00 8.253492e-01 7.770936e-01 9.203274e-01 1.313682e+00 2.077996e+00 1.732918e+00 2.031081e+00 2.070386e+00 1.770828e+00 1.787125e+00 1.583074e+00 2.177187e+00 2.822323e-01 1.236333e-01 1.342418e-01 1.661422e-01 2.343352e-01 3.415814e-01 3.094538e-01 3.587143e-01 3.632413e-01 3.283048e-01 3.179926e-01 2.799223e-01 2.728674e-01
<GCONST> 1.031225e+02
<STATE> 3
<MEAN> 39
 -2.008408e+01 2.377551e+00 -7.993643e-01 -6.852345e+00 -4.597898e+00 1.209752e+01 6.079437e-01 -2.144904e+00 8.780010e+00 -3.760516e+00 -4.111146e+00 5.237329e+00 5.889645e+01 2.398250e-02 -5.455764e-03 -7.088043e-03 4.708719e-03 1.358478e-04 -2.451368e-03 4.299262e-03 -1.357261e-02 -7.308953e-03 -6.987359e-04 -5.153398e-03 2.308370e-03 -1.219647e-02 1.156974e-02 -2.273257e-03 -1.830435e-03 1.729029e-03 3.812151e-03 -7.197320e-03 2.631232e-03 4.276631e-03 -5.938890e-03 4.145927e-03 4.100921e-03 -5.298020e-03 -8.135507e-03
<VARIANCE> 39
 5.096136e+01 1.092888e+01 2.014300e+01 1.296727e+01 1.632835e+01 3.440417e+01 2.703503e+01 2.193047e+01 2.771587e+01 2.013513e+01 1.913215e+01 2.088659e+01 2.369206e+01 1.847668e+00 5.012973e-01 8.131830e-01 9.273208e-01 1.246215e+00 1.926201e+00 1.868267e+00 1.699656e+00 1.910381e+00 1.667508e+00 1.563661e+00 1.672820e+00 1.031456e+00 3.367944e-01 9.197038e-02 1.520781e-01 1.844524e-01 2.411607e-01 3.606455e-01 3.629019e-01 3.335483e-01 3.785242e-01 3.390231e-01 3.098972e-01 3.222419e-01 1.889118e-01
<GCONST> 9.795883e+01
<STATE> 4
<MEAN> 39
 -2.222699e+01 5.293374e-01 5.336131e+00 -4.122766e+00 -6.419981e+00 1.061278e+01 1.303693e+00 -5.949804e+00 3.638082e+00 4.342582e+00 -1.145753e+01 4.661197e+00 5.795582e+01 5.071332e-02 -5.192949e-03 4.258730e-03 -7.133223e-03 3.239421e-03 -1.324682e-02 -5.923042e-04 6.599170e-03 3.265701e-04 -4.308322e-03 7.311954e-03 -2.973427e-03 -4.004421e-02 2.462418e-03 7.139501e-04 -3.010138e-03 5.885153e-04 3.141558e-03 -3.552028e-03 4.888620e-04 4.998727e-03 -1.082854e-03 -1.436152e-03 4.928320e-03 -2.679122e-03 -2.111785e-03
<VARIANCE> 39
 3.963625e+01 1.027409e+01 1.681029e+01 1.608959e+01 2.940472e+01 2.985537e+01 2.938320e+01 4.864880e+01 3.880186e+01 3.199479e+01 3.082255e+01 3.177386e+01 3.666131e+01 1.329807e+00 4.740206e-01 9.965805e-01 9.299986e-01 1.385143e+00 1.834182e+00 1.732416e+00 2.464336e+00 2.484286e+00 2.000143e+00 1.857439e+00 1.733489e+00 1.342964e+00 2.478412e-01 8.845735e-02 1.917053e-01 1.826070e-01 2.683371e-01 3.535644e-01 3.412224e-01 4.601088e-01 4.835324e-01 3.866296e-01 3.710576e-01 3.438067e-01 2.543460e-01
<GCONST> 1.033716e+02
<TRANSP> 5
 0.000000e+00 1.000000e+00 0.000000e+00 0.000000e+00 0.000000e+00
 0.000000e+00 9.485121e-01 5.148784e-02 0.000000e+00 0.000000e+00
 0.000000e+00 0.000000e+00 9.921377e-01 7.862280e-03 0.000000e+00
 0.000000e+00 0.000000e+00 0.000000e+00 9.935743e-01 6.425753e-03
 0.000000e+00 0.000000e+00 0.000000e+00 0.000000e+00 0.000000e+00
<ENDHMM>
~h "cm"
<BEGINHMM>
<NUMSTATES> 5
<STATE> 2
<MEAN> 39
 -1.129485e+01 1.790802e-02 -3.278389e+00 -5.547819e+00 -4.988510e-01 6.156407e-01 -1.289297e-01 1.423561e+00 -2.067967e-01 1.176656e+00 2.122328e+00 -4.800381e-01 5.691115e+01 -1.123833e-02 -4.207742e-02 -5.317970e-02 -6.186453e-02 -2.555470e-02 -4.069289e-02 -7.181746e-02 -4.368913e-02 -3.978839e-02 -2.082185e-02 -5.826968e-03 1.307383e-02 2.012240e-01 1.308820e-02 -8.607667e-03 -1.046019e-02 -4.459416e-03 -8.635536e-03 -1.822597e-02 -1.632779e-02 -2.004967e-02 -1.730963e-02 -1.085387e-02 -7.260359e-03 -3.413738e-03 1.911849e-02
<VARIANCE> 39
 1.658685e+01 1.484736e+01 1.331038e+01 1.614146e+01 1.622400e+01 1.771300e+01 2.055922e+01 1.858491e+01 1.854920e+01 1.728718e+01 1.891414e+01 1.650280e+01 2.618206e+01 3.311646e-01 4.757422e-01 5.911112e-01 9.079183e-01 1.093314e+00 1.336246e+00 1.426823e+00 1.497713e+00 1.512190e+00 1.445192e+00 1.428620e+00 1.273408e+00 5.664216e-01 4.525989e-02 7.385082e-02 1.021256e-01 1.599549e-01 2.011957e-01 2.459429e-01 2.700815e-01 2.878059e-01 2.927447e-01 2.804232e-01 2.735508e-01 2.476422e-01 5.744237e-02
<GCONST> 8.499380e+01
<STATE> 3
<MEAN> 39
 -1.099172e+01 -2.706294e+00 -5.327739e+00 -6.581212e+00 -1.387199e+00 -1.764638e+00 -3.029767e+00 -1.105106e+00 -2.587096e+00 -1.853258e-01 1.144721e+00 -3.580143e-01 6.514399e+01 1.217083e-01 -3.740599e-04 7.471299e-03 6.500639e-03 -2.634554e-02 -4.955044e-02 -3.681277e-02 -4.332104e-02 -4.038262e-02 -5.474448e-02 -7.487824e-02 -4.675344e-02 2.496712e-01 2.795105e-03 1.559435e-02 1.495830e-02 1.638207e-02 1.445495e-02 2.197566e-02 2.217351e-02 2.054923e-02 1.438814e-02 3.774382e-03 -1.586061e-03 -6.415047e-03 -2.925668e-02
<VARIANCE> 39
 1.654575e+01 1.314893e+01 1.212414e+01 1.473802e+01 1.633134e+01 1.691269e+01 1.738829e+01 1.876427e+01 1.882894e+01 1.890704e+01 2.176007e+01 1.772189e+01 4.224151e+01 4.121165e-01 5.342901e-01 6.344806e-01 8.857270e-01 1.107478e+00 1.266317e+00 1.410050e+00 1.517246e+00 1.508222e+00 1.438558e+00 1.429331e+00 1.316119e+00 7.186273e-01 5.949434e-02 9.307948e-02 1.207209e-01 1.705718e-01 2.169794e-01 2.529210e-01 2.834339e-01 3.028912e-01 3.046270e-01 2.915375e-01 2.874267e-01 2.664840e-01 8.707964e-02
<GCONST> 8.744437e+01
<STATE> 4
<MEAN> 39
 -5.483090e+00 -1.215929e-01 -3.885441e+00 -5.097778e+00 -1.545448e+00 -2.069181e+00 -2.862700e+00 -1.731217e+00 -2.640795e+00 -1.975871e+00 -1.310454e+00 -2.371356e+00 6.789575e+01 4.097515e-02 3.739829e-02 5.355710e-02 6.668919e-02 5.118905e-02 3.206779e-02 3.234881e-02 -6.085135e-04 4.646302e-03 -1.875578e-03 3.806164e-03 4.602044e-03 -2.015461e-01 -4.935513e-03 -1.276723e-03 -3.546281e-04 -1.158319e-03 3.073758e-04 9.561536e-04 1.104727e-03 1.353143e-03 1.224414e-03 3.387356e-03 4.389756e-03 2.567054e-03 -8.404972e-03
<VARIANCE> 39
 9.684668e+00 1.129352e+01 1.260737e+01 1.494438e+01 1.516926e+01 1.457246e+01 1.633971e+01 1.715911e+01 1.803918e+01 1.584716e+01 1.478627e+01 1.286680e+01 6.849116e+01 1.914794e-01 2.976248e-01 4.708578e-01 7.016601e-01 8.847252e-01 1.032188e+00 1.181611e+00 1.268357e+00 1.324674e+00 1.297279e+00 1.251502e+00 1.148933e+00 3.026550e-01 2.951410e-02 5.318201e-02 8.883808e-02 1.345578e-01 1.721418e-01 2.041049e-01 2.359888e-01 2.531283e-01 2.656853e-01 2.618231e-01 2.523738e-01 2.319959e-01 2.487654e-02
<GCONST> 7.757934e+01
<TRANSP> 5
 0.000000e+00 1.000000e+00 0.000000e+00 0.000000e+00 0.000000e+00
 0.000000e+00 9.590114e-01 4.098867e-02 0.000000e+00 0.000000e+00
 0.000000e+00 0.000000e+00 9.632824e-01 3.671756e-02 0.000000e+00
 0.000000e+00 0.000000e+00 0.000000e+00 9.852876e-01 1.471242e-02
 0.000000e+00 0.000000e+00 0.000000e+00 0.000000e+00 0.000000e+00
<ENDHMM>
~h "co"
<BEGINHMM>
<NUMSTATES> 5
<STATE> 2
<MEAN> 39
 -6.801796e+00 -8.032344e+00 -1.183293e+00 -3.127122e+00 -9.168845e+00 -4.110153e+00 -5.434229e+00 6.006720e-01 -1.540900e+00 -4.565078e+00 -4.062295e+00 -5.774388e+00 6.376357e+01 -5.274726e-01 -6.346208e-02 2.848186e-01 -4.259676e-01 -5.599721e-01 -7.866343e-01 -2.320253e-01 -6.147155e-01 -7.028448e-01 -6.467493e-01 -2.943011e-01 -2.216308e-01 2.243734e+00 -4.474307e-02 1.086016e-01 -1.349242e-02 5.161054e-02 2.316594e-01 1.021786e-01 1.372657e-01 4.323898e-02 5.974601e-03 6.209593e-02 1.078323e-01 7.885152e-02 -1.271034e-01
<VARIANCE> 39
 2.170015e+01 4.348448e+01 2.538692e+01 3.673664e+01 7.240328e+01 5.531376e+01 1.040187e+02 6.148220e+01 5.790744e+01 5.767667e+01 4.258750e+01 3.981357e+01 1.069703e+02 1.193556e+00 3.139003e+00 1.911026e+00 2.574167e+00 4.734439e+00 3.362520e+00 4.389548e+00 3.343618e+00 3.502640e+00 2.921203e+00 2.526812e+00 2.434071e+00 4.639205e+00 1.513136e-01 4.858783e-01 3.009772e-01 3.855636e-01 6.240771e-01 5.341305e-01 6.700364e-01 4.986777e-01 5.799039e-01 4.926508e-01 4.449680e-01 3.985230e-01 5.565431e-01
<GCONST> 1.261626e+02
<STATE> 3
<MEAN> 39
 -7.207126e+00 -7.669308e+00 -2.264724e+00 -3.876132e+00 -7.418100e+00 -8.640193e+00 -6.844089e+00 -6.583495e+00 -4.091117e+00 -3.917786e+00 -3.519508e+00 -7.983665e+00 6.842022e+01 7.225242e-02 -1.598242e-02 9.065559e-03 5.308875e-02 9.101474e-02 1.801305e-02 -6.663050e-02 -5.725615e-02 1.456809e-02 3.228132e-02 2.960246e-03 -3.733574e-02 -1.036983e-01 1.637072e-02 -2.372380e-03 3.696148e-03 7.953612e-03 -9.881231e-04 8.454190e-03 -2.851490e-03 7.103667e-03 6.737405e-03 3.874864e-03 -5.816555e-03 -2.198717e-03 -3.123566e-02
<VARIANCE> 39
 1.942516e+01 1.539088e+01 2.670007e+01 2.198622e+01 2.732852e+01 2.930944e+01 4.999039e+01 6.214946e+01 4.258818e+01 4.043103e+01 3.647804e+01 3.644041e+01 4.915785e+01 5.044516e-01 8.308535e-01 9.424989e-01 1.176911e+00 1.854992e+00 1.618226e+00 2.258435e+00 2.396506e+00 2.720889e+00 2.281583e+00 2.017870e+00 1.769381e+00 1.343293e+00 6.998902e-02 1.653831e-01 1.659758e-01 2.218643e-01 3.362448e-01 3.072119e-01 4.016669e-01 4.456368e-01 5.518959e-01 4.499311e-01 3.947741e-01 3.345563e-01 1.615954e-01
<GCONST> 1.054429e+02
<STATE> 4
<MEAN> 39
 -4.382895e+00 -4.397122e+00 2.318854e+00 5.398681e-01 -1.610078e+00 -3.142263e+00 -5.831190e+00 -3.809958e+00 -2.542180e+00 -4.181658e+00 -3.584524e+00 -7.086977e+00 5.829575e+01 6.164989e-02 1.288454e-01 3.534562e-02 4.481225e-02 1.259719e-01 9.753073e-02 8.206534e-02 8.417115e-02 1.857625e-03 7.393841e-03 5.812059e-03 3.934771e-02 -2.885808e-01 -4.264998e-03 -4.545113e-04 -6.974565e-03 -6.664100e-03 -9.841423e-03 -3.187840e-03 7.345815e-04 3.154190e-03 1.137989e-04 -1.008043e-03 -1.828579e-03 -1.812684e-03 4.933390e-03
<VARIANCE> 39
 1.519142e+01 2.844960e+01 2.067221e+01 2.431258e+01 3.212377e+01 3.331490e+01 5.694159e+01 4.700252e+01 3.267864e+01 3.677912e+01 3.186682e+01 2.919330e+01 6.758528e+01 2.935588e-01 6.173936e-01 6.799800e-01 8.488669e-01 1.324456e+00 1.281678e+00 1.762918e+00 1.656732e+00 1.646900e+00 1.731142e+00 1.607619e+00 1.522338e+00 7.944856e-01 4.212742e-02 1.021581e-01 1.231782e-01 1.603773e-01 2.458775e-01 2.432854e-01 3.233797e-01 3.061362e-01 3.248827e-01 3.420500e-01 3.190421e-01 3.021735e-01 7.065707e-02
<GCONST> 9.634245e+01
<TRANSP> 5
 0.000000e+00 1.000000e+00 0.000000e+00 0.000000e+00 0.000000e+00
 0.000000e+00 8.644788e-01 1.355212e-01 0.000000e+00 0.000000e+00
 0.000000e+00 0.000000e+00 9.833000e-01 1.670000e-02 0.000000e+00
 0.000000e+00 0.000000e+00 0.000000e+00 9.822682e-01 1.773188e-02
 0.000000e+00 0.000000e+00 0.000000e+00 0.000000e+00 0.000000e+00
<ENDHMM>
~h "ds"
<BEGINHMM>
<NUMSTATES> 5
<STATE> 2
<MEAN> 39
 -1.395197e+01 -7.962403e-01 1.235414e-01 -7.064034e-01 -2.659643e-02 -1.170209e+00 4.134354e+00 1.595142e-01 2.576421e+00 1.523880e+00 2.461573e+00 8.071485e-01 6.533292e+01 -1.951481e-01 7.962864e-02 -3.810300e-02 -4.832663e-02 -1.826101e-01 -1.079148e-01 -8.540531e-02 -1.724944e-02 1.681401e-02 1.468403e-01 1.341500e-01 1.088205e-01 8.932093e-01 6.671080e-02 1.588599e-02 1.669403e-02 4.042988e-02 4.102137e-02 1.564603e-02 9.133168e-03 1.214057e-02 1.190244e-02 -1.134288e-02 7.979294e-03 -2.193222e-03 -1.431484e-01
<VARIANCE> 39
 2.446957e+01 1.718661e+01 1.649232e+01 2.006682e+01 2.579473e+01 2.172522e+01 2.908552e+01 3.217546e+01 2.479550e+01 2.221116e+01 1.947469e+01 1.610290e+01 1.157587e+02 1.920851e+00 1.082559e+00 1.352726e+00 1.688611e+00 2.161020e+00 2.151745e+00 2.382995e+00 2.242074e+00 2.037533e+00 1.935940e+00 1.921122e+00 1.548120e+00 6.503887e+00 3.146561e-01 1.823765e-01 2.189204e-01 3.103815e-01 3.817609e-01 3.895920e-01 4.264869e-01 4.228737e-01 3.856704e-01 3.671966e-01 3.624944e-01 2.913860e-01 1.041111e+00
<GCONST> 1.092795e+02
<STATE> 3
<MEAN> 39
 -1.356024e+01 4.209619e-01 -5.087202e-01 8.640679e-01 7.045184e-01 -1.512084e+00 1.954936e+00 -1.938762e+00 2.306781e+00 2.606329e+00 3.616507e+00 5.394620e-01 6.857332e+01 2.956109e-01 8.957525e-03 1.165347e-01 1.247069e-01 3.678086e-01 1.365849e-01 7.611291e-02 -7.113259e-02 -7.148252e-02 -6.428365e-02 -1.951554e-02 -1.575099e-01 -7.069333e-01 5.023798e-03 -2.002506e-03 -9.239511e-03 -2.502566e-02 -1.101979e-02 1.414661e-02 1.860881e-02 7.596160e-03 -6.355219e-03 -1.187211e-02 -2.946304e-02 -1.301014e-02 -9.260049e-03
<VARIANCE> 39
 8.642402e+00 8.514120e+00 1.211948e+01 1.583339e+01 2.558821e+01 1.789318e+01 1.969243e+01 1.696322e+01 1.640302e+01 1.475374e+01 1.420494e+01 1.567465e+01 3.403085e+01 1.379495e-01 2.695006e-01 4.450120e-01 6.955473e-01 9.858943e-01 1.116108e+00 1.252585e+00 1.346027e+00 1.386358e+00 1.441114e+00 1.390100e+00 1.247004e+00 7.364634e-02 2.865280e-02 5.483358e-02 9.310470e-02 1.426740e-01 2.037311e-01 2.335697e-01 2.565950e-01 2.746261e-01 2.844066e-01 2.946715e-01 2.873322e-01 2.568113e-01 1.597283e-02
<GCONST> 7.668157e+01
<STATE> 4
<MEAN> 39
 -9.651158e+00 6.873072e-01 1.293856e+00 -4.433941e-01 2.639188e+00 6.301110e-01 3.089624e+00 8.336399e-01 2.271914e+00 -2.495977e-01 1.596632e+00 -7.554039e-01 5.466952e+01 2.032747e-02 9.822538e-03 1.799680e-02 8.770175e-03 3.940072e-03 1.662655e-02 2.175646e-02 2.552377e-02 1.306660e-02 -6.671206e-03 -1.013027e-02 6.996323e-03 -4.115250e-02 -1.796603e-03 -3.414925e-04 -1.071956e-04 1.026238e-03 -4.807660e-04 -9.760183e-04 -2.213285e-03 -1.672220e-03 -8.007016e-05 1.789824e-03 2.069055e-03 1.067202e-03 1.803469e-03
<VARIANCE> 39
 1.718299e+01 1.367473e+01 1.855626e+01 1.963447e+01 2.009694e+01 2.373028e+01 2.619016e+01 2.143379e+01 2.542085e+01 2.314776e+01 1.786235e+01 1.639540e+01 5.147404e+01 5.789433e-01 5.298815e-01 7.015904e-01 9.435979e-01 1.173888e+00 1.434919e+00 1.576032e+00 1.588975e+00 1.670921e+00 1.631895e+00 1.471573e+00 1.298087e+00 8.509608e-01 9.576619e-02 9.667845e-02 1.295717e-01 1.821553e-01 2.288329e-01 2.789928e-01 3.087682e-01 3.153376e-01 3.287812e-01 3.245168e-01 2.945708e-01 2.615637e-01 1.111016e-01
<GCONST> 9.235730e+01
<TRANSP> 5
 0.000000e+00 1.000000e+00 0.000000e+00 0.000000e+00 0.000000e+00
 0.000000e+00 9.388409e-01 6.115904e-02 0.000000e+00 0.000000e+00
 0.000000e+00 0.000000e+00 9.524571e-01 4.754293e-02 0.000000e+00
 0.000000e+00 0.000000e+00 0.000000e+00 9.929982e-01 7.001814e-03
 0.000000e+00 0.000000e+00 0.000000e+00 0.000000e+00 0.000000e+00
<ENDHMM>
~h "kj"
<BEGINHMM>
<NUMSTATES> 5
<STATE> 2
<MEAN> 39
 -1.936281e+01 4.198765e+00 -7.508213e-01 -2.356861e+00 -1.000366e+00 2.877347e+00 1.602998e+00 3.911172e+00 1.805933e+00 -2.560914e-01 1.298204e+00 -8.437708e-01 5.492978e+01 -2.597702e-02 1.852421e-02 5.504960e-03 -9.262473e-04 -1.776676e-03 3.632567e-03 6.709748e-03 -2.216974e-03 3.548526e-03 3.826483e-04 1.522306e-05 -5.416306e-04 6.463275e-03 1.143237e-03 -1.813952e-03 -1.758795e-04 8.626684e-04 -1.067181e-03 -1.199731e-03 5.724590e-05 3.211293e-05 -1.537085e-03 1.184749e-03 -5.162779e-04 5.112623e-04 -1.631477e-04
<VARIANCE> 39
 3.291204e+01 2.177502e+01 1.741040e+01 2.567573e+01 1.685529e+01 3.021841e+01 3.008444e+01 2.265045e+01 2.067919e+01 2.181910e+01 1.718787e+01 1.677117e+01 2.031533e+01 5.999228e-01 5.536330e-01 6.955281e-01 9.004367e-01 1.125590e+00 1.401328e+00 1.563427e+00 1.602229e+00 1.588737e+00 1.605327e+00 1.478815e+00 1.332260e+00 3.547358e-01 9.737463e-02 1.000622e-01 1.300242e-01 1.768245e-01 2.187777e-01 2.748634e-01 3.068411e-01 3.173638e-01 3.182200e-01 3.228602e-01 2.981660e-01 2.676157e-01 5.406377e-02
<GCONST> 9.101515e+01
<STATE> 3
<MEAN> 39
 -1.523494e+01 -6.816535e+00 -5.197036e+00 -1.782275e+00 -1.958690e+00 -3.561723e+00 -1.681430e+00 -1.559485e+00 -8.473577e-01 2.983319e-01 7.313495e-01 -1.992377e-01 6.234933e+01 2.149679e-03 -8.856324e-02 -2.099257e-02 1.444051e-02 1.280568e-02 -4.488206e-02 -3.788447e-02 -4.038820e-02 -2.050716e-02 3.846876e-03 4.627119e-03 1.037729e-02 6.262866e-02 -1.164369e-03 1.589195e-02 1.618255e-02 -2.533887e-04 4.586206e-03 1.741071e-02 1.879684e-02 1.101743e-02 7.074905e-03 2.994975e-03 2.192731e-04 -7.441706e-03 -1.654636e-02
<VARIANCE> 39
 2.125630e+01 4.201196e+01 1.571974e+01 1.782669e+01 1.820028e+01 1.970077e+01 2.459435e+01 2.383768e+01 2.006522e+01 1.781477e+01 1.637045e+01 1.452423e+01 6.048154e+01 7.071985e-01 1.860756e+00 1.096596e+00 1.059670e+00 1.258830e+00 1.601796e+00 1.781629e+00 1.757131e+00 1.658019e+00 1.558085e+00 1.443576e+00 1.335172e+00 1.789755e+00 1.092410e-01 3.019868e-01 2.022483e-01 1.998463e-01 2.432599e-01 3.042934e-01 3.433324e-01 3.384776e-01 3.326004e-01 3.155268e-01 2.937394e-01 2.694576e-01 2.442309e-01
<GCONST> 9.869437e+01
<STATE> 4
<MEAN> 39
 -2.153588e+01 1.282864e-01 1.137735e+00 -7.033056e-01 -2.663492e+00 1.009331e+00 5.630601e+00 9.047901e-01 -1.532381e+00 3.296569e+00 6.751881e-01 -2.772799e+00 5.766874e+01 3.424808e-02 -1.990180e-03 3.560282e-03 -2.193548e-03 6.194682e-03 -1.597346e-04 4.956930e-03 7.130532e-03 5.709467e-03 -5.026694e-03 -3.232810e-03 8.054224e-04 -2.788926e-02 3.095326e-03 -9.453953e-04 -2.563574e-03 -7.793336e-04 9.723053e-04 -1.280994e-03 -3.196232e-03 -5.807921e-04 -1.951316e-04 -1.681827e-03 3.724846e-04 1.204104e-03 -1.048536e-03
<VARIANCE> 39
 3.535716e+01 3.018963e+01 2.002073e+01 2.671622e+01 1.708704e+01 3.361463e+01 3.517908e+01 2.343965e+01 2.158709e+01 2.628201e+01 1.713051e+01 1.697870e+01 3.752396e+01 5.707188e-01 7.540620e-01 7.577682e-01 9.390001e-01 1.168155e+00 1.404772e+00 1.664189e+00 1.586799e+00 1.589516e+00 1.673798e+00 1.449551e+00 1.298967e+00 6.100665e-01 9.412348e-02 1.310349e-01 1.414930e-01 1.820854e-01 2.285432e-01 2.739251e-01 3.220534e-01 3.181414e-01 3.217628e-01 3.374090e-01 2.921407e-01 2.618802e-01 8.714671e-02
<GCONST> 9.470485e+01
<TRANSP> 5
 0.000000e+00 1.000000e+00 0.000000e+00 0.000000e+00 0.000000e+00
 0.000000e+00 9.913260e-01 8.673990e-03 0.000000e+00 0.000000e+00
 0.000000e+00 0.000000e+00 9.773265e-01 2.267357e-02 0.000000e+00
 0.000000e+00 0.000000e+00 0.000000e+00 9.935703e-01 6.429711e-03
 0.000000e+00 0.000000e+00 0.000000e+00 0.000000e+00 0.000000e+00
<ENDHMM>
~h "kn"
<BEGINHMM>
<NUMSTATES> 5
<STATE> 2
<MEAN> 39
 -7.305936e-01 1.027055e+00 -2.487918e+00 -3.177024e+00 1.513981e+00 -1.079776e-01 4.804498e-01 -6.242058e-01 3.938663e-01 1.105367e-01 -3.781832e-01 -1.442605e+00 5.626820e+01 1.592668e-01 1.152318e-03 -1.416847e-01 1.356865e-01 1.440927e-01 -2.120472e-01 2.583346e-01 -3.205047e-01 4.595069e-01 1.986447e-01 2.621496e-01 1.673929e-01 1.571613e+00 -5.690005e-02 9.995158e-02 6.766617e-02 3.166035e-02 3.363381e-02 1.156033e-01 3.914482e-02 7.332914e-02 -3.358356e-02 6.559574e-03 2.022579e-02 2.026208e-02 -2.707898e-01
<VARIANCE> 39
 3.516626e+01 3.838252e+01 3.296297e+01 1.322581e+01 2.582453e+01 2.993455e+01 3.328348e+01 4.181742e+01 2.429502e+01 2.397845e+01 2.419242e+01 1.692151e+01 1.129334e+02 2.615659e+00 1.693965e+00 1.875761e+00 1.197970e+00 1.524215e+00 2.511067e+00 2.752922e+00 3.226012e+00 2.286319e+00 2.245533e+00 2.182532e+00 1.748665e+00 6.175350e+00 3.884274e-01 2.497468e-01 2.949203e-01 1.913457e-01 2.480664e-01 4.146878e-01 4.392592e-01 5.389196e-01 3.883405e-01 3.797344e-01 3.490809e-01 2.873908e-01 8.859196e-01
<GCONST> 1.133227e+02
<STATE> 3
<MEAN> 39
 5.372424e+00 -1.266869e+00 -4.302386e+00 -1.829312e-01 3.440641e+00 -8.285744e-01 1.384045e+00 -1.730588e+00 1.501276e+00 4.128885e-01 1.237902e+00 3.574961e-02 6.033920e+01 5.064622e-02 -1.084821e-02 1.957799e-02 4.256719e-02 2.874409e-02 1.594259e-02 1.055988e-02 1.905748e-02 -1.930952e-02 4.871820e-03 1.958370e-03 1.006674e-02 -6.047954e-02 3.154192e-03 -2.727167e-03 1.844738e-04 -3.970771e-04 9.676240e-04 7.101401e-04 -5.834645e-03 9.549980e-04 -9.566015e-03 -6.110007e-03 -7.364011e-03 -5.360030e-03 -1.597377e-02
<VARIANCE> 39
 1.219171e+01 2.602197e+01 1.608153e+01 1.586223e+01 2.109196e+01 2.565177e+01 2.279070e+01 2.185218e+01 2.141804e+01 2.019447e+01 1.719300e+01 1.632808e+01 3.166640e+01 4.422528e-01 9.438751e-01 8.886407e-01 1.044518e+00 1.307289e+00 1.703956e+00 1.653846e+00 1.818240e+00 1.714187e+00 1.675878e+00 1.547619e+00 1.388794e+00 1.904986e+00 8.110958e-02 1.796750e-01 1.671640e-01 2.074272e-01 2.554053e-01 3.398758e-01 3.430843e-01 3.728001e-01 3.555405e-01 3.486834e-01 3.207979e-01 2.869311e-01 3.361225e-01
<GCONST> 9.640926e+01
<STATE> 4
<MEAN> 39
 3.766318e+00 1.721154e+00 -9.386756e-01 7.560370e-01 4.708621e+00 2.059100e+00 2.037876e+00 4.347073e-01 -8.748557e-02 1.649365e-01 6.927448e-01 -6.937341e-01 5.337016e+01 -1.450370e-01 1.371415e-01 1.779150e-01 2.407840e-02 2.245473e-02 1.801426e-01 -5.134022e-03 1.296379e-01 -7.478142e-02 -1.319705e-02 -2.812897e-02 -5.250264e-02 -4.408075e-01 -8.807451e-03 -1.296516e-02 -8.571282e-03 -1.468988e-02 -1.951682e-02 -1.543699e-02 -6.079067e-03 -8.626329e-03 2.916296e-03 -1.822747e-03 1.035788e-03 -3.425596e-03 1.952379e-02
<VARIANCE> 39
 1.710845e+01 1.879124e+01 1.607751e+01 1.424464e+01 2.145472e+01 2.165581e+01 2.380621e+01 2.171349e+01 2.225914e+01 2.033302e+01 1.767550e+01 1.677753e+01 4.040817e+01 2.179252e-01 3.361049e-01 4.714671e-01 6.634451e-01 9.017606e-01 1.079626e+00 1.256892e+00 1.401294e+00 1.402281e+00 1.448667e+00 1.360684e+00 1.223085e+00 2.408086e-01 2.929831e-02 5.505664e-02 8.815620e-02 1.308620e-01 1.775527e-01 2.121501e-01 2.530536e-01 2.796033e-01 2.823529e-01 2.919298e-01 2.722909e-01 2.456677e-01 2.490897e-02
<GCONST> 8.162437e+01
<TRANSP> 5
 0.000000e+00 1.000000e+00 0.000000e+00 0.000000e+00 0.000000e+00
 0.000000e+00 8.558739e-01 1.441260e-01 0.000000e+00 0.000000e+00
 0.000000e+00 0.000000e+00 9.840429e-01 1.595713e-02 0.000000e+00
 0.000000e+00 0.000000e+00 0.000000e+00 9.641901e-01 3.580987e-02
 0.000000e+00 0.000000e+00 0.000000e+00 0.000000e+00 0.000000e+00
<ENDHMM>
~h "kt"
<BEGINHMM>
<NUMSTATES> 5
<STATE> 2
<MEAN> 39
 -1.187880e+01 -1.087443e-01 -7.250871e+00 -2.512820e+00 1.595542e-01 6.772249e-01 5.445304e+00 2.315150e+00 2.141360e+00 5.257385e-01 9.413619e-01 -1.240294e+00 5.592895e+01 -1.203131e-02 4.102230e-03 -5.405087e-03 5.764799e-03 -2.726416e-04 -9.241976e-03 -3.437496e-03 -4.046332e-03 -3.191589e-03 -4.841719e-03 -1.543352e-03 -1.243761e-03 1.876016e-02 1.984933e-03 -1.853820e-04 2.255357e-03 8.682577e-04 9.539746e-04 -7.374439e-04 -1.096013e-03 -1.217032e-03 -9.571234e-04 -6.302428e-04 -8.270158e-04 -1.621821e-04 -1.986681e-03
<VARIANCE> 39
 1.757493e+01 7.820630e+00 8.449032e+00 1.171117e+01 1.352318e+01 1.885179e+01 1.782929e+01 1.640069e+01 1.761683e+01 1.544846e+01 1.519579e+01 1.382555e+01 2.303837e+01 1.181484e+00 4.947580e-01 6.766152e-01 9.427866e-01 1.225043e+00 1.553056e+00 1.645555e+00 1.578119e+00 1.675826e+00 1.594491e+00 1.504046e+00 1.310557e+00 1.368103e+00 2.253067e-01 9.605556e-02 1.345750e-01 1.872351e-01 2.485166e-01 3.150867e-01 3.353836e-01 3.211132e-01 3.395928e-01 3.286274e-01 3.063428e-01 2.656969e-01 2.467451e-01
<GCONST> 9.070075e+01
<STATE> 3
<MEAN> 39
 -1.286210e+01 1.888790e+00 -4.014515e+00 -9.726226e-02 4.367489e-01 -2.178058e+00 2.304261e+00 1.454970e+00 1.383314e+00 -1.121719e+00 -2.829301e-01 -1.526772e+00 5.422257e+01 1.278590e-02 3.506287e-03 1.232659e-03 4.317967e-03 1.626786e-02 1.858864e-03 1.345695e-02 -6.728676e-03 3.248574e-03 -4.537063e-03 7.841000e-05 -2.194902e-03 -1.609710e-02 8.760000e-03 -3.904803e-04 1.091284e-03 -2.664984e-03 2.671340e-03 8.789903e-03 7.041086e-03 6.688451e-03 4.383580e-03 6.520353e-03 4.160133e-03 2.123870e-03 -1.512039e-02
<VARIANCE> 39
 9.126240e+00 8.640724e+00 1.016923e+01 1.337546e+01 1.512626e+01 1.564096e+01 1.854338e+01 1.804614e+01 1.936012e+01 1.837970e+01 1.696663e+01 1.444015e+01 2.201574e+01 8.521077e-01 4.950425e-01 7.491058e-01 9.969407e-01 1.332625e+00 1.424406e+00 1.624053e+00 1.633097e+00 1.747697e+00 1.720216e+00 1.576533e+00 1.381950e+00 1.555240e+00 1.715330e-01 9.745011e-02 1.508376e-01 2.005352e-01 2.684517e-01 2.896034e-01 3.307805e-01 3.323855e-01 3.545313e-01 3.515157e-01 3.207865e-01 2.828811e-01 3.003990e-01
<GCONST> 9.145019e+01
<STATE> 4
<MEAN> 39
 -1.026003e+01 2.886105e+00 -2.970142e+00 -4.909519e-01 4.373566e-01 8.894188e-02 3.056935e+00 3.038192e+00 2.304564e+00 -2.142369e-01 2.061152e-01 -1.774933e+00 4.918426e+01 1.988605e-02 -3.487458e-03 7.398440e-03 -8.159474e-03 1.176481e-03 1.057132e-02 4.621496e-03 6.298502e-03 6.909549e-04 4.785866e-03 2.528011e-03 1.789759e-04 -2.442902e-02 -1.549034e-03 -5.679847e-04 -7.924734e-04 -3.209580e-05 -1.161809e-03 -1.952260e-03 -2.614348e-03 -1.522770e-03 -9.788133e-04 -6.517258e-04 -3.913579e-04 9.028216e-05 2.460377e-03
<VARIANCE> 39
 1.134652e+01 9.590981e+00 1.230510e+01 1.278463e+01 1.694045e+01 1.708174e+01 1.978430e+01 1.768842e+01 1.760881e+01 1.737755e+01 1.491384e+01 1.308853e+01 1.387784e+01 7.387896e-01 5.005167e-01 6.960952e-01 8.694542e-01 1.125679e+00 1.296216e+00 1.439866e+00 1.500966e+00 1.534344e+00 1.522622e+00 1.392875e+00 1.244275e+00 7.822692e-01 1.418183e-01 9.629627e-02 1.378467e-01 1.744324e-01 2.241935e-01 2.588798e-01 2.911610e-01 3.034560e-01 3.131593e-01 3.103724e-01 2.833757e-01 2.535639e-01 1.436753e-01
<GCONST> 8.718425e+01
<TRANSP> 5
 0.000000e+00 1.000000e+00 0.000000e+00 0.000000e+00 0.000000e+00
 0.000000e+00 9.912045e-01 8.795498e-03 0.000000e+00 0.000000e+00
 0.000000e+00 0.000000e+00 9.857326e-01 1.426741e-02 0.000000e+00
 0.000000e+00 0.000000e+00 0.000000e+00 9.931532e-01 6.846793e-03
 0.000000e+00 0.000000e+00 0.000000e+00 0.000000e+00 0.000000e+00
<ENDHMM>
~h "pr"
<BEGINHMM>
<NUMSTATES> 5
<STATE> 2
<MEAN> 39
 -1.543925e+01 -7.787595e+00 -1.571290e+00 -7.890819e+00 2.357434e+00 6.456422e+00 4.685831e+00 2.798589e-01 -1.524448e+00 -2.116036e+00 5.555224e+00 4.789733e-01 5.922833e+01 -5.422495e-02 -2.054878e-02 1.678536e-02 -1.293694e-02 2.052409e-02 1.415142e-02 4.157492e-03 -2.528221e-02 -1.358293e-03 -4.074157e-03 -1.076915e-02 4.598914e-02 4.908797e-02 1.475890e-02 3.599638e-03 2.888887e-04 4.642162e-03 -5.998361e-03 -1.626440e-03 -3.719958e-03 5.504005e-03 3.895984e-03 2.825685e-03 -5.323737e-03 -4.154286e-03 -1.311172e-02
<VARIANCE> 39
 3.225954e+01 4.054049e+01 5.055130e+01 2.886572e+01 5.046367e+01 6.651877e+01 5.470491e+01 6.254840e+01 5.877069e+01 3.311842e+01 5.484591e+01 5.000998e+01 2.184923e+01 8.448839e-01 8.195353e-01 1.049799e+00 1.295254e+00 1.530234e+00 1.892111e+00 2.043620e+00 2.298411e+00 2.171413e+00 1.975226e+00 2.161186e+00 1.969936e+00 6.670734e-01 1.182562e-01 1.304642e-01 1.723894e-01 2.243633e-01 2.714359e-01 3.340967e-01 3.749010e-01 4.033082e-01 4.105586e-01 3.658477e-01 3.920082e-01 3.519409e-01 8.999371e-02
<GCONST> 1.080218e+02
<STATE> 3
<MEAN> 39
 -2.041397e+01 3.244484e+00 1.699300e+01 -1.622896e+01 1.982462e+00 1.416315e+01 -5.376753e+00 -3.623620e+00 1.342111e+01 -5.150385e+00 -8.277374e+00 9.225254e+00 5.388469e+01 6.142281e-02 -4.419464e-02 6.857650e-03 -2.855369e-02 3.120845e-02 -2.526426e-02 -1.525773e-02 4.724469e-02 -1.842810e-02 4.952437e-02 -4.709797e-02 1.532593e-02 -5.435711e-02 3.462071e-03 1.470560e-03 -7.458975e-03 1.906309e-03 7.964754e-03 -9.036218e-03 2.806527e-03 1.346341e-02 -1.163288e-02 2.010144e-03 1.070534e-02 -6.556990e-03 -3.476339e-03
<VARIANCE> 39
 1.478246e+01 1.946149e+01 1.622263e+01 2.862153e+01 2.294794e+01 2.272354e+01 1.673114e+01 2.729030e+01 2.945543e+01 3.381997e+01 3.346203e+01 1.882445e+01 1.182211e+01 6.416180e-01 4.904713e-01 5.576659e-01 8.381728e-01 1.271292e+00 1.303406e+00 1.156462e+00 1.445576e+00 1.641960e+00 1.632313e+00 1.851088e+00 1.083583e+00 2.575622e-01 1.603611e-01 9.859242e-02 1.110231e-01 1.706076e-01 2.625623e-01 2.680026e-01 2.351873e-01 2.977644e-01 3.388021e-01 3.119122e-01 3.510974e-01 2.157741e-01 6.327497e-02
<GCONST> 9.009303e+01
<STATE> 4
<MEAN> 39
 -1.403401e+01 -5.722530e+00 4.013276e+00 -7.004182e+00 3.798211e+00 2.673856e-01 2.650913e+00 5.247965e+00 3.441597e+00 -1.550748e+00 -2.939656e+00 3.151213e+00 5.415849e+01 3.480144e-02 2.539095e-02 -2.356899e-02 2.284157e-02 -2.015505e-02 -8.338886e-03 1.351969e-02 3.319804e-03 5.021188e-04 -1.510585e-03 1.255134e-02 -1.912174e-02 -3.201332e-02 -7.541755e-04 5.872971e-04 4.695338e-04 -3.285141e-04 -6.744041e-04 1.607570e-03 -3.716364e-04 -1.402344e-03 2.481234e-04 -1.537845e-04 2.456179e-04 -5.014400e-04 3.291047e-04
<VARIANCE> 39
 3.737022e+01 5.821230e+01 5.917590e+01 5.885388e+01 7.646878e+01 9.980882e+01 7.104970e+01 5.916460e+01 5.466889e+01 4.652526e+01 5.947691e+01 6.619734e+01 4.601305e+01 3.246026e-01 3.987307e-01 6.451768e-01 9.379033e-01 1.144320e+00 1.428204e+00 1.479827e+00 1.627624e+00 1.734485e+00 1.704491e+00 1.566813e+00 1.338723e+00 1.664962e-01 5.857856e-02 7.060102e-02 1.167991e-01 1.701950e-01 2.196473e-01 2.710779e-01 2.906439e-01 3.076996e-01 3.299050e-01 3.301876e-01 3.027036e-01 2.564712e-01 2.696793e-02
<GCONST> 1.005778e+02
<TRANSP> 5
 0.000000e+00 1.000000e+00 0.000000e+00 0.000000e+00 0.000000e+00
 0.000000e+00 9.875719e-01 1.242804e-02 0.000000e+00 0.000000e+00
 0.000000e+00 0.000000e+00 9.826835e-01 1.731654e-02 0.000000e+00
 0.000000e+00 0.000000e+00 0.000000e+00 9.956860e-01 4.314029e-03
 0.000000e+00 0.000000e+00 0.000000e+00 0.000000e+00 0.000000e+00
<ENDHMM>
~h "pw"
<BEGINHMM>
<NUMSTATES> 5
<STATE> 2
<MEAN> 39
 -1.307228e+01 -2.792876e+00 -1.353861e+00 -1.434360e+00 1.431517e+00 -9.309930e-01 2.399083e+00 8.819312e-01 7.878168e-01 8.793892e-01 5.620848e-01 -5.878627e-01 5.408479e+01 -1.896495e-03 -4.131458e-03 1.552738e-03 -1.882552e-04 1.655111e-04 -3.966225e-03 1.910799e-04 -1.761024e-03 -2.041555e-03 1.042647e-03 -1.024638e-03 1.016910e-03 3.923868e-03 -2.083679e-04 -1.181449e-03 -6.373813e-04 -6.494217e-04 -1.283182e-03 -1.523945e-03 -1.611945e-03 -9.154973e-04 -8.889958e-04 -5.701197e-05 2.021083e-04 1.695137e-04 2.265638e-03
<VARIANCE> 39
 1.775413e+01 2.688632e+01 1.289406e+01 1.311491e+01 1.545265e+01 1.932584e+01 2.094634e+01 2.197102e+01 1.852926e+01 1.597355e+01 1.473323e+01 1.323312e+01 3.374866e+01 5.501523e-01 8.462270e-01 6.919820e-01 8.740834e-01 1.113310e+00 1.324254e+00 1.462234e+00 1.564999e+00 1.539185e+00 1.465524e+00 1.374613e+00 1.229069e+00 8.670585e-01 9.063090e-02 1.402483e-01 1.311188e-01 1.706812e-01 2.201025e-01 2.628359e-01 2.928450e-01 3.116728e-01 3.133089e-01 2.996879e-01 2.810626e-01 2.508042e-01 1.263391e-01
<GCONST> 8.993754e+01
<STATE> 3
<MEAN> 39
 -1.118858e+01 -7.328004e+00 -3.983219e+00 -3.283633e+00 -3.940703e-01 -5.417161e+00 -1.587221e+00 -4.080619e+00 -2.436082e+00 -1.218440e+00 -2.810682e-01 -4.486283e-01 6.226541e+01 -7.789219e-04 -6.733401e-02 -2.147897e-02 7.967371e-03 -8.483997e-03 -5.835892e-02 -6.051972e-02 -6.736915e-02 -3.512048e-02 -1.976136e-02 2.862166e-03 1.258641e-02 9.264950e-02 7.537641e-03 1.065311e-02 3.709832e-03 4.405912e-03 1.168647e-02 1.614406e-02 1.656888e-02 1.447793e-02 1.012070e-02 5.205829e-03 1.055467e-03 -1.203230e-03 -2.409799e-02
<VARIANCE> 39
 2.306209e+01 2.806229e+01 1.415079e+01 1.409451e+01 1.825397e+01 2.472116e+01 2.416857e+01 2.832268e+01 2.030155e+01 1.756560e+01 1.602098e+01 1.409141e+01 8.221665e+01 6.498407e-01 1.163709e+00 7.784629e-01 9.379823e-01 1.296315e+00 1.662334e+00 1.767155e+00 1.830314e+00 1.630084e+00 1.549687e+00 1.423267e+00 1.306053e+00 4.100143e+00 1.075706e-01 1.807511e-01 1.434896e-01 1.792899e-01 2.510997e-01 3.098340e-01 3.411245e-01 3.464414e-01 3.296295e-01 3.159024e-01 2.909877e-01 2.686704e-01 5.642037e-01
<GCONST> 9.842416e+01
<STATE> 4
<MEAN> 39
 -1.229074e+01 -3.571102e+00 -2.986751e+00 -2.760749e+00 5.659075e-01 -7.145725e-01 2.865470e+00 6.381260e-01 3.688678e-01 5.088063e-01 3.312950e-01 -9.247102e-01 5.500406e+01 1.081145e-02 1.321904e-02 5.633647e-03 -6.661146e-04 4.380227e-03 1.764356e-02 1.516959e-02 1.884849e-02 1.166010e-02 4.321151e-03 5.405778e-04 -3.436067e-03 -3.098129e-02 5.939569e-04 -1.026418e-03 -8.223779e-04 -7.093935e-04 -1.492290e-03 -1.889572e-03 -2.256110e-03 -2.107461e-03 -1.468082e-03 -1.090212e-03 -6.344011e-04 9.131520e-06 1.303811e-03
<VARIANCE> 39
 1.693124e+01 2.169294e+01 1.221516e+01 1.250365e+01 1.377652e+01 2.084655e+01 2.123932e+01 2.096957e+01 1.799535e+01 1.580312e+01 1.427574e+01 1.316142e+01 3.262971e+01 5.341144e-01 7.337713e-01 6.530644e-01 8.437926e-01 1.069034e+00 1.322937e+00 1.478675e+00 1.549751e+00 1.520853e+00 1.463484e+00 1.383545e+00 1.245145e+00 7.847593e-01 8.679825e-02 1.239598e-01 1.242252e-01 1.654184e-01 2.134265e-01 2.617039e-01 2.947464e-01 3.088582e-01 3.099665e-01 2.990624e-01 2.834558e-01 2.548360e-01 1.110272e-01
<GCONST> 8.858475e+01
<TRANSP> 5
 0.000000e+00 1.000000e+00 0.000000e+00 0.000000e+00 0.000000e+00
 0.000000e+00 9.959722e-01 4.027855e-03 0.000000e+00 0.000000e+00
 0.000000e+00 0.000000e+00 9.873129e-01 1.268714e-02 0.000000e+00
 0.000000e+00 0.000000e+00 0.000000e+00 9.964411e-01 3.558907e-03
 0.000000e+00 0.000000e+00 0.000000e+00 0.000000e+00 0.000000e+00
<ENDHMM>
~h "si"
<BEGINHMM>
<NUMSTATES> 5
<STATE> 2
<MEAN> 39
 -8.296516e+00 2.143337e+00 1.513519e+00 -1.898282e+00 2.503570e+00 1.986983e+00 2.076312e+00 3.683727e+00 1.023697e+00 1.405164e-01 1.526243e-01 -1.432550e+00 4.731558e+01 -2.010115e-03 -2.866106e-03 -1.207792e-02 -1.249615e-02 -9.909453e-03 2.755039e-03 9.375375e-03 1.689572e-02 5.224901e-03 9.703873e-03 4.360602e-03 -4.065068e-03 -2.759781e-02 1.104989e-03 -1.262002e-03 -3.037667e-03 -2.511661e-03 -2.415180e-03 3.049602e-04 1.225658e-03 1.061377e-03 9.990998e-04 1.463349e-03 3.658839e-04 -5.641891e-04 -2.797676e-04
<VARIANCE> 39
 2.243664e+01 1.159421e+01 1.402221e+01 1.501463e+01 1.882766e+01 1.903719e+01 2.479584e+01 2.285718e+01 1.911347e+01 1.722017e+01 1.614349e+01 1.455995e+01 2.328027e+01 2.340555e-01 3.679655e-01 5.032098e-01 7.151934e-01 9.370199e-01 1.136226e+00 1.279572e+00 1.372849e+00 1.386690e+00 1.383329e+00 1.294878e+00 1.128101e+00 1.689407e-01 3.832948e-02 6.628409e-02 9.563895e-02 1.396054e-01 1.830894e-01 2.234824e-01 2.541595e-01 2.729471e-01 2.788379e-01 2.790037e-01 2.607202e-01 2.277176e-01 2.428382e-02
<GCONST> 8.036646e+01
<STATE> 3
<MEAN> 39
 -4.768280e+00 -7.650439e-01 -2.337150e+00 -3.140350e+00 7.034313e-02 2.739245e+00 3.659091e+00 3.842458e+00 1.244807e+00 1.129142e+00 1.755452e-01 -2.044574e+00 4.638937e+01 -1.017285e-03 3.494488e-03 -7.425471e-03 -4.896738e-03 -4.372378e-03 4.788903e-03 2.419160e-03 6.575904e-03 1.452939e-03 2.933169e-03 1.463300e-03 -9.142584e-04 -1.085898e-02 -2.351661e-03 5.165493e-04 1.677280e-03 1.264194e-03 8.252495e-04 -2.104419e-03 -1.970079e-03 -2.495297e-03 -1.051974e-03 -1.362535e-03 -1.276978e-04 1.145049e-03 2.333303e-03
<VARIANCE> 39
 5.350427e+00 1.293345e+01 1.130897e+01 1.061715e+01 1.561032e+01 1.607281e+01 1.761878e+01 1.871948e+01 1.697271e+01 1.636863e+01 1.465909e+01 1.311935e+01 1.289312e+01 1.373623e-01 2.718043e-01 4.566523e-01 6.645155e-01 8.971454e-01 1.097121e+00 1.250275e+00 1.354810e+00 1.379540e+00 1.384205e+00 1.295040e+00 1.145913e+00 5.050454e-02 2.519398e-02 5.273540e-02 9.101970e-02 1.341973e-01 1.817367e-01 2.229432e-01 2.543513e-01 2.766023e-01 2.830128e-01 2.847123e-01 2.654575e-01 2.344361e-01 8.302547e-03
<GCONST> 7.257984e+01
<STATE> 4
<MEAN> 39
 -8.913024e+00 -8.913170e-01 -1.414507e+00 -2.646243e+00 -1.034107e-01 1.110869e-01 2.822094e+00 2.115087e+00 1.434280e+00 6.555730e-01 4.737349e-01 -1.106887e+00 5.019018e+01 -1.494122e-02 -3.719500e-03 9.038562e-04 -2.412254e-03 -2.792009e-03 -8.929001e-03 -5.063544e-03 -9.947632e-03 3.294157e-04 4.227453e-04 3.798323e-03 5.002129e-03 2.778528e-02 1.378528e-03 2.832299e-05 4.056391e-04 2.616890e-04 4.182627e-04 1.640592e-03 7.298915e-04 7.917383e-04 2.313746e-04 2.240052e-04 -1.424912e-04 -7.519671e-04 6.729748e-05
<VARIANCE> 39
 1.939638e+01 1.876717e+01 1.406047e+01 1.491834e+01 1.778075e+01 2.002917e+01 2.101091e+01 2.265989e+01 2.000540e+01 1.756697e+01 1.622725e+01 1.439765e+01 3.605267e+01 4.495914e-01 5.853742e-01 6.191784e-01 8.434690e-01 1.066985e+00 1.285581e+00 1.422720e+00 1.548860e+00 1.509205e+00 1.480558e+00 1.385782e+00 1.225020e+00 5.805794e-01 7.089144e-02 1.008628e-01 1.164126e-01 1.621868e-01 2.082786e-01 2.514926e-01 2.820484e-01 3.080895e-01 3.024458e-01 2.985964e-01 2.794369e-01 2.472628e-01 8.409726e-02
<GCONST> 8.791811e+01
<TRANSP> 5
 0.000000e+00 1.000000e+00 0.000000e+00 0.000000e+00 0.000000e+00
 0.000000e+00 9.854831e-01 1.451700e-02 0.000000e+00 0.000000e+00
 0.000000e+00 0.000000e+00 9.912695e-01 8.730532e-03 0.000000e+00
 0.000000e+00 0.000000e+00 0.000000e+00 9.892570e-01 1.074297e-02
 0.000000e+00 0.000000e+00 0.000000e+00 0.000000e+00 0.000000e+00
<ENDHMM>
~h "st"
<BEGINHMM>
<NUMSTATES> 5
<STATE> 2
<MEAN> 39
 -9.098469e+00 -3.694718e+00 -2.138755e+00 -7.162754e+00 -2.386840e+00 -3.177261e+00 1.322100e+00 1.154194e+00 1.190504e+00 1.701442e-01 8.487770e-01 -1.836778e+00 5.879356e+01 -2.958072e-01 -6.303366e-01 1.619860e-01 -6.608809e-01 -3.560306e-01 -7.848668e-01 -4.290978e-01 -1.417414e-01 2.563281e-02 -7.793665e-02 6.957494e-02 3.876119e-02 1.510342e+00 7.411614e-02 1.050082e-01 4.055732e-02 1.011333e-01 7.869048e-02 1.434551e-01 9.854655e-02 5.756125e-02 4.351259e-02 3.327541e-02 1.318859e-02 2.704590e-02 -2.467019e-01
<VARIANCE> 39
 2.422368e+01 3.192572e+01 1.873141e+01 3.290981e+01 2.672296e+01 3.885890e+01 2.855266e+01 2.406785e+01 2.244104e+01 1.996537e+01 1.788938e+01 1.496473e+01 9.144539e+01 1.299770e+00 1.766073e+00 1.311695e+00 2.221019e+00 2.242825e+00 3.043300e+00 2.363856e+00 2.345215e+00 2.203153e+00 2.026783e+00 1.853921e+00 1.590254e+00 4.849778e+00 1.897567e-01 2.928509e-01 2.162941e-01 4.001046e-01 3.778160e-01 5.411242e-01 4.143436e-01 3.968954e-01 3.705865e-01 3.487044e-01 3.111253e-01 2.774545e-01 8.778753e-01
<GCONST> 1.107747e+02
<STATE> 3
<MEAN> 39
 -8.382972e+00 -3.049792e+00 -1.854575e+00 -6.240324e+00 -1.662552e+00 -1.524052e+00 2.463647e+00 4.451238e-01 2.717486e-01 -3.643932e-01 6.181231e-01 -1.833221e+00 5.632075e+01 1.512939e-03 1.789070e-02 1.745356e-03 1.813513e-02 6.861830e-03 1.769249e-02 1.059480e-02 7.682602e-04 -2.839228e-03 8.071855e-04 -9.515894e-04 1.416303e-03 -4.192162e-02 1.823476e-04 1.834612e-03 -1.910191e-03 2.763533e-03 1.167264e-03 1.666277e-03 4.529164e-04 3.401690e-04 2.254951e-05 7.445493e-04 -1.762735e-04 -7.176393e-04 -2.021184e-03
<VARIANCE> 39
 1.674972e+01 2.108644e+01 1.647915e+01 2.389966e+01 2.032895e+01 2.614433e+01 2.046611e+01 1.975655e+01 1.985801e+01 1.862561e+01 1.609101e+01 1.448889e+01 4.523254e+01 5.655864e-01 7.105231e-01 6.906011e-01 1.232118e+00 1.321328e+00 1.586529e+00 1.535470e+00 1.559440e+00 1.590360e+00 1.554599e+00 1.453051e+00 1.307979e+00 1.614612e+00 8.960345e-02 1.198009e-01 1.309567e-01 2.252897e-01 2.552146e-01 3.056031e-01 3.087304e-01 3.172924e-01 3.243617e-01 3.184730e-01 2.979967e-01 2.688642e-01 2.265487e-01
<GCONST> 9.433037e+01
<STATE> 4
<MEAN> 39
 -9.956367e+00 -2.444624e-01 -1.021390e+00 -3.505789e+00 -2.680989e-01 -7.282643e-01 2.461761e+00 1.749725e+00 1.930261e+00 5.168404e-01 6.480973e-01 -1.508158e+00 5.196236e+01 5.626862e-03 1.488690e-02 -5.351468e-03 1.794002e-02 1.913161e-02 2.945731e-02 1.545323e-02 3.325120e-03 -8.818673e-04 4.732315e-04 -2.529368e-03 -6.771584e-04 -4.330030e-02 -1.187572e-04 -2.571580e-03 -8.647955e-04 -4.074099e-03 -3.488511e-03 -3.142070e-03 -2.344747e-03 -1.627803e-03 -1.578041e-03 -1.356713e-03 -8.229029e-04 -4.912353e-04 3.085173e-03
<VARIANCE> 39
 1.766636e+01 1.141856e+01 1.193328e+01 1.654049e+01 1.690820e+01 2.107211e+01 2.106232e+01 1.932036e+01 1.727891e+01 1.591624e+01 1.438742e+01 1.307856e+01 2.326259e+01 3.406302e-01 4.876562e-01 5.988995e-01 9.592622e-01 1.125908e+00 1.359060e+00 1.389644e+00 1.478850e+00 1.472789e+00 1.443110e+00 1.353364e+00 1.210408e+00 5.102553e-01 5.447790e-02 8.585411e-02 1.141588e-01 1.768253e-01 2.169640e-01 2.621969e-01 2.754903e-01 2.954481e-01 2.969419e-01 2.923372e-01 2.750053e-01 2.459329e-01 6.647928e-02
<GCONST> 8.503409e+01
<TRANSP> 5
 0.000000e+00 1.000000e+00 0.000000e+00 0.000000e+00 0.000000e+00
 0.000000e+00 8.262559e-01 1.737441e-01 0.000000e+00 0.000000e+00
 0.000000e+00 0.000000e+00 9.925444e-01 7.455668e-03 0.000000e+00
 0.000000e+00 0.000000e+00 0.000000e+00 9.900214e-01 9.978548e-03
 0.000000e+00 0.000000e+00 0.000000e+00 0.000000e+00 0.000000e+00
<ENDHMM>
~h "spe"
<BEGINHMM>
<NUMSTATES> 5
<STATE> 2
<MEAN> 39
 -2.128813e+00 -1.420075e+00 -1.155448e+00 -8.905513e+00 -2.137107e+00 3.362744e-01 -1.464447e+00 -9.770458e-01 -3.497534e+00 9.553467e-01 7.212951e-01 -4.377473e+00 5.603802e+01 2.636889e-02 -2.569091e-01 2.299283e-01 -2.273693e-01 -2.676471e-01 -2.580391e-01 -3.287793e-01 -1.030896e-01 -1.528825e-02 1.204377e-01 3.010190e-02 -3.297458e-02 4.227635e-01 2.271643e-03 -2.951477e-02 9.671434e-03 2.226512e-02 -3.920978e-02 -2.738769e-02 4.333000e-03 1.711944e-02 3.166053e-02 -1.370735e-04 -1.841657e-02 1.337033e-02 4.548535e-03
<VARIANCE> 39
 3.462778e+01 4.241029e+01 3.714949e+01 4.996795e+01 3.618107e+01 4.017434e+01 3.655400e+01 4.318179e+01 3.402201e+01 3.140998e+01 3.311272e+01 2.842052e+01 1.395488e+01 9.850637e-01 1.351755e+00 1.486861e+00 1.886251e+00 2.382096e+00 2.102396e+00 2.115503e+00 2.437689e+00 2.295712e+00 2.288542e+00 2.066943e+00 1.937074e+00 6.268917e-01 1.155344e-01 1.611988e-01 1.933397e-01 2.527791e-01 3.325650e-01 3.390976e-01 3.429251e-01 4.044603e-01 3.893039e-01 3.892686e-01 3.414058e-01 3.283454e-01 5.705857e-02
<GCONST> 1.066482e+02
<STATE> 3
<MEAN> 39
 -2.486771e+00 -5.101384e+00 1.930943e+00 -1.245251e+01 -3.837114e+00 -4.665363e+00 -5.116436e+00 -1.803476e+00 -2.393786e+00 -2.573788e+00 -4.543888e+00 -3.389206e+00 6.148874e+01 2.702797e-03 2.450155e-02 -6.834580e-02 5.124552e-02 4.718302e-02 7.692748e-03 2.212835e-02 -4.006245e-03 7.184935e-03 -4.108807e-02 -5.609192e-02 -3.687891e-02 -2.088372e-02 -4.214486e-03 1.824312e-02 -1.004530e-02 1.410042e-02 1.578534e-02 1.341390e-02 1.531208e-02 -1.934494e-03 -3.645489e-03 3.211422e-03 6.486585e-03 2.164382e-03 -1.795547e-02
<VARIANCE> 39
 2.155211e+01 3.709424e+01 7.192989e+01 6.520176e+01 6.485963e+01 6.250808e+01 4.216061e+01 5.647583e+01 3.969933e+01 3.639976e+01 5.766197e+01 3.905727e+01 2.364822e+01 5.390384e-01 9.845679e-01 1.251351e+00 1.518183e+00 1.816075e+00 1.920509e+00 2.037800e+00 2.233524e+00 2.083822e+00 2.021905e+00 2.032441e+00 1.745604e+00 4.075840e-01 7.456714e-02 1.323927e-01 1.864988e-01 2.419354e-01 3.053749e-01 3.444285e-01 3.723008e-01 4.053647e-01 3.932201e-01 3.879276e-01 3.821854e-01 3.273865e-01 4.542358e-02
<GCONST> 1.067259e+02
<STATE> 4
<MEAN> 39
 -1.826701e+00 -3.420673e+00 -1.187965e+00 -5.767589e+00 -3.133290e+00 -6.293128e-01 -6.772732e-01 4.518888e-01 -1.479365e+00 -7.434405e-02 -8.180578e-01 -4.131664e+00 5.351381e+01 -2.576881e-03 6.288078e-03 -4.410523e-03 1.163413e-02 8.734775e-03 7.739027e-03 1.634175e-02 9.722875e-03 6.173046e-03 8.373188e-03 9.472706e-03 8.191875e-03 -2.277775e-02 8.092720e-05 -9.804975e-04 4.771417e-04 -1.333234e-03 -5.762417e-04 -6.965999e-04 -1.032429e-03 9.773816e-06 -3.539424e-04 -8.341102e-05 -2.724460e-04 -3.222881e-04 5.923798e-04
<VARIANCE> 39
 1.631211e+01 3.140932e+01 3.431997e+01 2.789822e+01 4.470823e+01 4.034851e+01 4.019706e+01 3.338744e+01 2.961761e+01 2.888966e+01 2.879654e+01 2.520570e+01 1.788727e+01 3.861279e-01 7.055198e-01 8.873474e-01 1.024410e+00 1.432709e+00 1.601328e+00 1.691098e+00 1.742208e+00 1.761718e+00 1.729032e+00 1.689923e+00 1.494681e+00 2.333382e-01 5.348561e-02 1.005334e-01 1.342246e-01 1.737367e-01 2.410269e-01 2.850597e-01 3.088503e-01 3.279508e-01 3.417657e-01 3.369876e-01 3.220297e-01 2.831778e-01 2.542081e-02
<GCONST> 9.462369e+01
<TRANSP> 5
 0.000000e+00 1.000000e+00 0.000000e+00 0.000000e+00 0.000000e+00
 0.000000e+00 9.355783e-01 6.442162e-02 0.000000e+00 0.000000e+00
 0.000000e+00 0.000000e+00 9.842075e-01 1.579250e-02 0.000000e+00
 0.000000e+00 0.000000e+00 0.000000e+00 9.967631e-01 3.236959e-03
 0.000000e+00 0.000000e+00 0.000000e+00 0.000000e+00 0.000000e+00
<ENDHMM>
