~o
<STREAMINFO> 1 39
<VECSIZE> 39<NULLD><MFCC_D_A_0><DIAGC>
~h "ap"
<BEGINHMM>
<NUMSTATES> 5
<STATE> 2
<NUMMIXES> 8
<MIXTURE> 1 3.007840e-01
<MEAN> 39
 -9.079166e+00 -6.243708e+00 -2.503240e+00 2.647656e-01 3.510041e+00 -1.525176e+00 3.871909e+00 9.968930e-01 -2.247717e-01 -8.142085e-02 9.919157e-01 -8.872519e-01 5.280671e+01 2.780589e-01 3.633652e-01 1.361718e-01 -6.705689e-02 2.747363e-02 2.559091e-01 9.438480e-02 2.614044e-01 8.426695e-02 6.532238e-02 -3.871524e-02 -6.457386e-02 -5.438514e-01 -2.785256e-02 -1.019261e-02 -3.826964e-02 -4.378400e-02 -5.472888e-02 -3.511104e-02 -5.155418e-02 -4.487281e-02 -3.481574e-02 -1.790349e-02 -1.250199e-02 2.998732e-03 3.253277e-02
<VARIANCE> 39
 1.229199e+01 1.985925e+01 1.652686e+01 1.886428e+01 2.567134e+01 2.542774e+01 2.478379e+01 2.038321e+01 1.848866e+01 1.667415e+01 1.532213e+01 1.467667e+01 1.665281e+01 1.548065e-01 2.684597e-01 4.566430e-01 6.701824e-01 8.854756e-01 1.067412e+00 1.220799e+00 1.297415e+00 1.343951e+00 1.328319e+00 1.277330e+00 1.143760e+00 7.645991e-02 2.289393e-02 4.720518e-02 8.395638e-02 1.271127e-01 1.737281e-01 2.136984e-01 2.412099e-01 2.579827e-01 2.704284e-01 2.687298e-01 2.597145e-01 2.323141e-01 7.331673e-03
<GCONST> 7.622292e+01
<MIXTURE> 2 1.649860e-01
<MEAN> 39
 -1.478507e+01 -1.286854e+01 -7.842975e+00 -2.185729e+00 -1.757317e-01 -6.218085e+00 6.950410e-01 -3.608698e+00 -2.121885e+00 -1.154595e+00 3.481928e-01 -4.273123e-01 6.719606e+01 3.427379e-01 1.561828e-01 2.743620e-01 2.399886e-01 3.370762e-01 1.698776e-01 1.794135e-01 5.748805e-02 -3.690957e-03 -5.311326e-03 6.215268e-02 3.102360e-02 -9.324518e-01 -3.606384e-03 2.561720e-02 1.801763e-02 1.168144e-02 8.218952e-03 1.683091e-02 4.781431e-03 3.684439e-02 1.744883e-02 1.011648e-02 2.290092e-03 -4.628301e-03 8.549195e-03
<VARIANCE> 39
 1.438185e+01 2.684133e+01 2.666071e+01 2.237597e+01 3.007957e+01 2.755258e+01 2.429425e+01 2.214129e+01 2.234517e+01 1.975727e+01 1.829844e+01 1.554170e+01 4.981568e+01 1.035496e-01 2.398848e-01 3.951206e-01 6.222440e-01 8.575695e-01 1.018670e+00 1.195460e+00 1.302584e+00 1.355076e+00 1.328958e+00 1.268141e+00 1.191569e+00 3.564995e-02 2.162636e-02 4.941574e-02 8.209582e-02 1.315330e-01 1.789835e-01 2.126309e-01 2.509372e-01 2.740482e-01 2.885971e-01 2.813903e-01 2.665609e-01 2.507622e-01 7.742732e-03
<GCONST> 7.816473e+01
<MIXTURE> 3 1.649881e-01
<MEAN> 39
 -1.478574e+01 -1.286916e+01 -7.844091e+00 -2.186732e+00 -1.765590e-01 -6.218400e+00 6.942116e-01 -3.609226e+00 -2.122113e+00 -1.154839e+00 3.477230e-01 -4.277205e-01 6.719838e+01 3.427391e-01 1.561298e-01 2.743267e-01 2.400022e-01 3.370892e-01 1.698585e-01 1.794047e-01 5.741543e-02 -3.768047e-03 -5.360437e-03 6.212310e-02 3.102494e-02 -9.324850e-01 -3.599216e-03 2.563410e-02 1.804470e-02 1.171907e-02 8.258951e-03 1.685630e-02 4.809483e-03 3.687389e-02 1.746493e-02 1.013931e-02 2.327200e-03 -4.600252e-03 8.548975e-03
<VARIANCE> 39
 1.438317e+01 2.684245e+01 2.666577e+01 2.237959e+01 3.008240e+01 2.755584e+01 2.429777e+01 2.214440e+01 2.234835e+01 1.976065e+01 1.830246e+01 1.554381e+01 4.982840e+01 1.035697e-01 2.399178e-01 3.951651e-01 6.223549e-01 8.577083e-01 1.018803e+00 1.195635e+00 1.302747e+00 1.355232e+00 1.329121e+00 1.268320e+00 1.191704e+00 3.565787e-02 2.162869e-02 4.942302e-02 8.210677e-02 1.315596e-01 1.790176e-01 2.126660e-01 2.509880e-01 2.741064e-01 2.886619e-01 2.814557e-01 2.666245e-01 2.508103e-01 7.743063e-03
<GCONST> 7.817084e+01
<MIXTURE> 4 3.484979e-02
<MEAN> 39
 -1.949964e+01 -1.261422e+01 -9.652614e+00 -3.623866e+00 -3.878735e+00 -8.804312e+00 -2.688143e+00 -3.490105e+00 -2.844554e+00 -1.472666e+00 -6.541160e-01 -1.357728e+00 7.803405e+01 -1.101160e+00 -1.844490e+00 -1.212381e+00 -6.689008e-01 -1.069494e+00 -9.936108e-01 -3.004686e-01 -6.598356e-01 -9.519912e-02 -4.604689e-02 -2.304172e-02 9.544870e-02 3.772168e+00 8.033613e-01 5.211931e-01 4.879980e-01 2.065779e-01 5.174387e-01 6.447495e-01 5.729897e-01 3.942192e-01 2.507945e-01 1.574359e-01 1.162365e-01 3.787329e-02 -1.937505e+00
<VARIANCE> 39
 1.077897e+01 3.339192e+01 2.840060e+01 3.133543e+01 3.476785e+01 3.431124e+01 3.077041e+01 3.043137e+01 3.082387e+01 2.400736e+01 2.174860e+01 1.920294e+01 3.703690e+01 3.419610e+00 3.911536e+00 2.643527e+00 2.312446e+00 3.334548e+00 4.400215e+00 3.633337e+00 3.395677e+00 2.862494e+00 2.224775e+00 1.989258e+00 1.673147e+00 1.847072e+01 2.604782e-01 4.346894e-01 3.144659e-01 4.881575e-01 5.037278e-01 6.077394e-01 5.702629e-01 5.768279e-01 5.580384e-01 4.510117e-01 4.023421e-01 3.548490e-01 9.585601e-01
<GCONST> 1.203898e+02
<MIXTURE> 5 1.649160e-01
<MEAN> 39
 -1.478806e+01 -1.286823e+01 -7.844073e+00 -2.187917e+00 -1.785002e-01 -6.218797e+00 6.944901e-01 -3.607250e+00 -2.120149e+00 -1.153002e+00 3.492101e-01 -4.268888e-01 6.720177e+01 3.428530e-01 1.561963e-01 2.743460e-01 2.401078e-01 3.372814e-01 1.699771e-01 1.795832e-01 5.739052e-02 -3.737483e-03 -5.396043e-03 6.200631e-02 3.087907e-02 -9.325429e-01 -3.603243e-03 2.573641e-02 1.813026e-02 1.189000e-02 8.382089e-03 1.677895e-02 4.588123e-03 3.659696e-02 1.711842e-02 9.837751e-03 2.084622e-03 -4.737168e-03 8.400454e-03
<VARIANCE> 39
 1.438962e+01 2.684295e+01 2.666239e+01 2.237671e+01 3.008001e+01 2.754763e+01 2.429140e+01 2.213855e+01 2.234238e+01 1.975253e+01 1.829496e+01 1.553947e+01 4.986224e+01 1.035979e-01 2.398672e-01 3.950669e-01 6.222447e-01 8.576481e-01 1.018611e+00 1.195452e+00 1.302594e+00 1.354928e+00 1.328784e+00 1.268015e+00 1.191534e+00 3.567578e-02 2.166550e-02 4.946548e-02 8.212890e-02 1.316199e-01 1.790466e-01 2.126678e-01 2.509730e-01 2.740934e-01 2.886419e-01 2.813966e-01 2.665543e-01 2.507733e-01 7.822580e-03
<GCONST> 7.818108e+01
<MIXTURE> 6 3.482869e-02
<MEAN> 39
 -1.952365e+01 -1.270703e+01 -9.724647e+00 -3.897625e+00 -3.994252e+00 -8.684439e+00 -2.484720e+00 -3.385470e+00 -2.600518e+00 -1.362924e+00 -5.776988e-01 -1.189637e+00 7.807506e+01 -8.712118e-01 -1.615167e+00 -1.035115e+00 -5.960914e-01 -8.887178e-01 -7.672642e-01 -1.171016e-01 -5.006821e-01 2.082467e-02 2.800433e-02 2.714404e-02 1.144250e-01 3.132501e+00 7.775699e-01 5.423312e-01 4.985996e-01 2.507618e-01 5.383128e-01 6.110595e-01 5.250902e-01 3.603925e-01 2.034238e-01 1.274675e-01 9.437083e-02 1.332703e-02 -1.918093e+00
<VARIANCE> 39
 1.054815e+01 3.280761e+01 2.783131e+01 2.984389e+01 3.296962e+01 3.289132e+01 2.977265e+01 2.935701e+01 2.969029e+01 2.316356e+01 2.112690e+01 1.859213e+01 3.487598e+01 3.214901e+00 3.628482e+00 2.499964e+00 2.230666e+00 3.261972e+00 4.156610e+00 3.479535e+00 3.273690e+00 2.776001e+00 2.172297e+00 1.942324e+00 1.653774e+00 1.774735e+01 2.625267e-01 4.104446e-01 2.982718e-01 4.573585e-01 4.752530e-01 5.854839e-01 5.592293e-01 5.550863e-01 5.418808e-01 4.373850e-01 3.912050e-01 3.463762e-01 9.344785e-01
<GCONST> 1.189462e+02
<MIXTURE> 7 3.481913e-02
<MEAN> 39
 -1.952341e+01 -1.270392e+01 -9.722160e+00 -3.891640e+00 -3.991354e+00 -8.686706e+00 -2.488747e+00 -3.386950e+00 -2.604810e+00 -1.364874e+00 -5.790045e-01 -1.192677e+00 7.807253e+01 -8.761378e-01 -1.619727e+00 -1.038717e+00 -5.975805e-01 -8.924827e-01 -7.720007e-01 -1.210374e-01 -5.040461e-01 1.837499e-02 2.641831e-02 2.607307e-02 1.140112e-01 3.145855e+00 7.780638e-01 5.417439e-01 4.982738e-01 2.497997e-01 5.378083e-01 6.116759e-01 5.260108e-01 3.609816e-01 2.043017e-01 1.280348e-01 9.479669e-02 1.379898e-02 -1.918238e+00
<VARIANCE> 39
 1.055344e+01 3.282171e+01 2.784574e+01 2.987710e+01 3.300623e+01 3.292212e+01 2.979436e+01 2.937969e+01 2.971376e+01 2.318187e+01 2.114037e+01 1.860465e+01 3.492935e+01 3.220842e+00 3.635070e+00 2.503479e+00 2.232491e+00 3.264179e+00 4.162658e+00 3.483501e+00 3.276666e+00 2.778040e+00 2.173515e+00 1.943417e+00 1.654201e+00 1.777085e+01 2.625148e-01 4.109888e-01 2.986268e-01 4.580427e-01 4.758534e-01 5.859571e-01 5.594983e-01 5.555289e-01 5.422135e-01 4.376836e-01 3.914467e-01 3.465450e-01 9.350745e-01
<GCONST> 1.189806e+02
<MIXTURE> 8 9.967456e-02
<MEAN> 39
 -8.566505e+00 -3.687556e+00 -2.090557e+00 -7.270231e-01 2.860494e+00 -1.013919e-01 3.897556e+00 2.300832e+00 2.210638e-02 2.508399e-01 5.523100e-01 -1.099329e+00 5.026705e+01 -1.615298e+00 -6.666899e-01 -8.608143e-01 -2.451735e-01 -8.385456e-01 -1.129573e+00 -1.031965e+00 -6.188732e-01 -3.809020e-01 -2.494900e-01 -2.161222e-01 -7.344814e-02 3.437310e+00 -6.646513e-01 -6.485294e-01 -4.957437e-01 -1.795279e-01 -4.017542e-01 -5.894845e-01 -4.043425e-01 -3.982595e-01 -1.975147e-01 -1.349424e-01 -6.759538e-02 -5.980340e-03 1.802181e+00
<VARIANCE> 39
 1.468490e+01 2.151982e+01 1.709908e+01 1.764379e+01 2.264368e+01 2.777387e+01 2.439830e+01 2.103820e+01 1.926279e+01 1.747848e+01 1.530544e+01 1.384922e+01 1.931100e+01 3.188007e+00 3.457046e+00 2.340803e+00 2.081224e+00 2.612011e+00 4.406013e+00 3.274122e+00 3.180840e+00 2.509117e+00 2.196043e+00 1.937516e+00 1.573549e+00 1.541653e+01 2.679337e-01 3.764863e-01 2.629704e-01 3.094167e-01 3.458168e-01 4.880051e-01 4.397476e-01 4.279141e-01 4.012476e-01 3.632514e-01 3.326705e-01 2.744775e-01 8.375151e-01
<GCONST> 1.115409e+02
<STATE> 3
<NUMMIXES> 8
<MIXTURE> 1 7.954058e-02
<MEAN> 39
 -1.487043e+01 -1.980614e+01 -1.503676e+01 -2.851958e+00 -4.165658e+00 -1.185936e+01 -1.300902e+00 -4.419020e-01 -3.803750e+00 -2.817210e+00 4.611277e-01 -8.000655e-01 8.206213e+01 4.417816e-01 -4.304542e-01 -3.137470e-02 1.161081e-01 1.364278e-01 4.100457e-01 9.579194e-01 3.065510e-01 2.876497e-01 3.750534e-01 3.606381e-01 1.479043e-01 -7.554089e-01 3.820367e-01 6.790213e-01 5.604153e-01 4.126911e-01 5.473722e-01 3.643183e-01 5.013883e-02 -5.048115e-02 2.350410e-02 -1.980166e-02 -6.848370e-02 -4.570786e-02 -1.489710e+00
<VARIANCE> 39
 7.613640e+00 1.654930e+01 1.559206e+01 1.960038e+01 2.522229e+01 1.757838e+01 3.130933e+01 2.322118e+01 2.444687e+01 2.440574e+01 1.675818e+01 1.467677e+01 1.282357e+01 2.379009e-01 7.491422e-01 7.180793e-01 1.381704e+00 1.561039e+00 1.593271e+00 2.007461e+00 2.399233e+00 2.248913e+00 1.717593e+00 1.475060e+00 1.402671e+00 6.662697e-01 1.235479e-01 2.273368e-01 1.881908e-01 3.049223e-01 3.322478e-01 4.007695e-01 4.736415e-01 4.088554e-01 4.050001e-01 3.581402e-01 2.821232e-01 2.669019e-01 8.052677e-01
<GCONST> 9.696794e+01
<MIXTURE> 2 2.412705e-01
<MEAN> 39
 -1.076358e+01 -1.816456e+01 -1.189286e+01 7.174080e-01 1.472553e-01 -1.033618e+01 2.911659e-01 -8.374286e-01 -4.405122e+00 -3.027776e+00 1.045404e+00 -5.030587e-01 6.968440e+01 2.953773e-01 1.734985e-01 2.605010e-01 2.569699e-01 3.041485e-01 1.655466e-01 1.292600e-01 3.848068e-02 1.010287e-02 9.470630e-03 5.433784e-02 4.645948e-02 -9.226838e-01 -9.682407e-03 1.904779e-02 8.391744e-03 -1.811191e-03 -2.489374e-03 1.187904e-02 -3.967952e-03 1.864118e-02 1.202540e-02 7.159404e-03 3.330331e-03 1.976365e-03 1.331105e-02
<VARIANCE> 39
 1.001271e+01 1.763740e+01 1.760879e+01 1.895894e+01 3.020766e+01 1.901137e+01 2.860095e+01 2.084679e+01 2.278663e+01 2.175533e+01 1.604317e+01 1.493890e+01 5.196786e+01 9.472428e-02 2.308442e-01 3.660089e-01 5.949141e-01 8.158768e-01 9.792121e-01 1.119073e+00 1.220422e+00 1.281392e+00 1.292440e+00 1.200160e+00 1.137545e+00 3.371700e-02 1.910421e-02 4.568506e-02 7.351919e-02 1.213410e-01 1.678358e-01 1.996350e-01 2.358968e-01 2.572700e-01 2.696218e-01 2.722571e-01 2.479561e-01 2.377936e-01 5.662839e-03
<GCONST> 7.462982e+01
<MIXTURE> 3 2.412701e-01
<MEAN> 39
 -1.076362e+01 -1.816464e+01 -1.189293e+01 7.173808e-01 1.471794e-01 -1.033629e+01 2.911529e-01 -8.373821e-01 -4.405123e+00 -3.027742e+00 1.045506e+00 -5.029889e-01 6.968452e+01 2.953769e-01 1.734969e-01 2.605018e-01 2.569713e-01 3.041508e-01 1.655462e-01 1.292618e-01 3.848297e-02 1.010744e-02 9.475238e-03 5.434052e-02 4.645963e-02 -9.226856e-01 -9.681863e-03 1.904974e-02 8.394965e-03 -1.806714e-03 -2.483394e-03 1.188388e-02 -3.968004e-03 1.863641e-02 1.201896e-02 7.149542e-03 3.317288e-03 1.966947e-03 1.331097e-02
<VARIANCE> 39
 1.001278e+01 1.763727e+01 1.760896e+01 1.895895e+01 3.020758e+01 1.901142e+01 2.860105e+01 2.084688e+01 2.278685e+01 2.175530e+01 1.604318e+01 1.493915e+01 5.196772e+01 9.472521e-02 2.308456e-01 3.660109e-01 5.949219e-01 8.158842e-01 9.792234e-01 1.119083e+00 1.220439e+00 1.281410e+00 1.292457e+00 1.200176e+00 1.137561e+00 3.371717e-02 1.910466e-02 4.568608e-02 7.352097e-02 1.213431e-01 1.678378e-01 1.996366e-01 2.358999e-01 2.572727e-01 2.696241e-01 2.722581e-01 2.479570e-01 2.377977e-01 5.662956e-03
<GCONST> 7.463019e+01
<MIXTURE> 4 3.122864e-02
<MEAN> 39
 -6.964809e+00 -1.262413e+01 -6.927549e+00 3.522880e+00 4.656231e+00 -5.499890e+00 2.393810e+00 1.990926e+00 -2.438071e+00 -1.941389e+00 1.637838e+00 -1.805281e-01 5.673983e+01 1.365347e-01 5.469430e-01 2.478321e-01 4.104370e-03 -5.468816e-03 3.371856e-01 3.485703e-02 1.860906e-01 1.748120e-01 9.332276e-02 -4.656785e-02 -2.505622e-02 -5.562956e-01 -3.259451e-01 -4.477026e-02 -2.114366e-01 -2.550497e-01 -2.850767e-01 -2.617341e-01 -3.270779e-01 -1.540127e-01 -6.124431e-02 -7.997774e-02 -1.039373e-01 -4.886361e-02 7.749498e-01
<VARIANCE> 39
 6.388141e+00 2.544696e+01 1.623442e+01 2.027682e+01 2.743180e+01 2.237071e+01 2.889421e+01 2.219901e+01 2.251902e+01 1.943846e+01 1.534574e+01 1.413829e+01 2.658411e+01 2.122220e-01 3.540764e-01 4.781646e-01 7.404399e-01 9.622958e-01 1.183936e+00 1.248208e+00 1.293177e+00 1.333885e+00 1.297196e+00 1.308850e+00 1.127959e+00 1.524644e-01 1.284552e-01 1.460032e-01 1.611782e-01 2.279104e-01 2.805168e-01 3.406011e-01 3.584703e-01 3.389326e-01 3.399774e-01 3.178129e-01 2.987884e-01 2.688125e-01 7.085199e-01
<GCONST> 8.940134e+01
<MIXTURE> 5 2.412696e-01
<MEAN> 39
 -1.076394e+01 -1.816495e+01 -1.189291e+01 7.173092e-01 1.466135e-01 -1.033616e+01 2.914687e-01 -8.377761e-01 -4.405355e+00 -3.027617e+00 1.045060e+00 -5.034968e-01 6.968531e+01 2.953775e-01 1.734765e-01 2.604829e-01 2.569622e-01 3.041357e-01 1.655120e-01 1.292274e-01 3.842723e-02 1.005746e-02 9.437801e-03 5.432471e-02 4.646222e-02 -9.226992e-01 -9.680263e-03 1.905011e-02 8.388694e-03 -1.817567e-03 -2.494914e-03 1.186095e-02 -3.987124e-03 1.864375e-02 1.203279e-02 7.170226e-03 3.366718e-03 2.015410e-03 1.331149e-02
<VARIANCE> 39
 1.001274e+01 1.763752e+01 1.760866e+01 1.895898e+01 3.020826e+01 1.901153e+01 2.860157e+01 2.084766e+01 2.278652e+01 2.175619e+01 1.604377e+01 1.493927e+01 5.196811e+01 9.472557e-02 2.308465e-01 3.660098e-01 5.949224e-01 8.158839e-01 9.792207e-01 1.119084e+00 1.220429e+00 1.281414e+00 1.292457e+00 1.200166e+00 1.137543e+00 3.371687e-02 1.910501e-02 4.568693e-02 7.352077e-02 1.213441e-01 1.678408e-01 1.996387e-01 2.359034e-01 2.572806e-01 2.696312e-01 2.722676e-01 2.479646e-01 2.378011e-01 5.663086e-03
<GCONST> 7.463054e+01
<MIXTURE> 6 3.133181e-02
<MEAN> 39
 -6.956506e+00 -1.259575e+01 -6.900635e+00 3.525263e+00 4.669152e+00 -5.471205e+00 2.410968e+00 2.008741e+00 -2.427049e+00 -1.928501e+00 1.634899e+00 -1.856604e-01 5.670308e+01 1.393617e-01 5.441219e-01 2.467605e-01 4.976708e-03 -6.286439e-03 3.368586e-01 3.721902e-02 1.874585e-01 1.742172e-01 9.315433e-02 -4.588246e-02 -2.524096e-02 -5.596935e-01 -3.244829e-01 -4.582506e-02 -2.116760e-01 -2.539899e-01 -2.845922e-01 -2.623000e-01 -3.264444e-01 -1.547677e-01 -6.233211e-02 -8.008206e-02 -1.027717e-01 -4.835761e-02 7.709956e-01
<VARIANCE> 39
 6.375171e+00 2.548230e+01 1.615415e+01 2.028399e+01 2.748372e+01 2.233937e+01 2.888030e+01 2.220833e+01 2.250995e+01 1.942277e+01 1.535404e+01 1.414255e+01 2.651933e+01 2.087136e-01 3.499278e-01 4.759668e-01 7.386033e-01 9.605758e-01 1.181155e+00 1.244974e+00 1.291316e+00 1.331239e+00 1.296075e+00 1.307642e+00 1.126875e+00 1.464102e-01 1.281284e-01 1.457949e-01 1.609546e-01 2.272298e-01 2.800944e-01 3.403268e-01 3.579701e-01 3.385423e-01 3.397256e-01 3.175153e-01 2.985335e-01 2.686286e-01 7.069901e-01
<GCONST> 8.928615e+01
<MIXTURE> 7 3.117313e-02
<MEAN> 39
 -6.963152e+00 -1.262219e+01 -6.926161e+00 3.525283e+00 4.653351e+00 -5.496681e+00 2.397980e+00 1.991205e+00 -2.436008e+00 -1.936078e+00 1.639007e+00 -1.798731e-01 5.673798e+01 1.337439e-01 5.495880e-01 2.480315e-01 2.969421e-03 -5.585288e-03 3.382652e-01 3.377915e-02 1.863579e-01 1.762705e-01 9.380420e-02 -4.715313e-02 -2.491736e-02 -5.527439e-01 -3.282134e-01 -4.653245e-02 -2.133532e-01 -2.565413e-01 -2.868617e-01 -2.641405e-01 -3.290697e-01 -1.553328e-01 -6.250125e-02 -8.125155e-02 -1.046809e-01 -4.938974e-02 7.815837e-01
<VARIANCE> 39
 6.384860e+00 2.545768e+01 1.623120e+01 2.028027e+01 2.742743e+01 2.238395e+01 2.888252e+01 2.219209e+01 2.250788e+01 1.943982e+01 1.534063e+01 1.414077e+01 2.657115e+01 2.149266e-01 3.569591e-01 4.793490e-01 7.413008e-01 9.636468e-01 1.185442e+00 1.250067e+00 1.293810e+00 1.335777e+00 1.298236e+00 1.309338e+00 1.128031e+00 1.570300e-01 1.291425e-01 1.471898e-01 1.619810e-01 2.288092e-01 2.816640e-01 3.420654e-01 3.593970e-01 3.397422e-01 3.406169e-01 3.184985e-01 2.991371e-01 2.691649e-01 7.150188e-01
<GCONST> 8.951241e+01
<MIXTURE> 8 1.031781e-01
<MEAN> 39
 -1.153393e+01 -1.402345e+01 -1.036886e+01 4.799260e-01 3.288262e-01 -9.304363e+00 -1.991251e+00 -2.064959e-01 -3.282543e+00 -3.335259e+00 1.286056e-01 -9.319113e-01 6.968682e+01 -1.884799e+00 -1.163107e+00 -1.621470e+00 -1.433384e+00 -1.703720e+00 -1.481005e+00 -1.368171e+00 -5.878527e-01 -3.963762e-01 -4.543387e-01 -4.623060e-01 -2.842161e-01 5.724217e+00 1.141654e-01 -3.898960e-01 -1.453853e-01 -3.842405e-02 -6.899597e-02 4.449466e-03 3.040752e-01 4.511456e-02 -2.029554e-02 7.814029e-02 1.209867e-01 5.692440e-02 3.091260e-02
<VARIANCE> 39
 2.484729e+01 2.938739e+01 2.756920e+01 3.406332e+01 3.811489e+01 4.181099e+01 4.798606e+01 2.872099e+01 3.086736e+01 2.527514e+01 2.013969e+01 1.751173e+01 1.605629e+02 1.057218e+00 3.853917e+00 2.184616e+00 2.589418e+00 3.034359e+00 3.334924e+00 3.516329e+00 2.877834e+00 2.958078e+00 2.522507e+00 1.915989e+00 1.781472e+00 6.115756e+00 5.269714e-01 4.880269e-01 5.151615e-01 5.913177e-01 7.020868e-01 8.175600e-01 8.454664e-01 5.968888e-01 5.582401e-01 4.779734e-01 3.895027e-01 3.416733e-01 4.070984e+00
<GCONST> 1.244166e+02
<STATE> 4
<NUMMIXES> 8
<MIXTURE> 1 2.790876e-01
<MEAN> 39
 -5.241779e+00 -1.130334e+00 -1.811470e+00 -4.436592e-01 3.619830e-01 1.899740e+00 4.476038e+00 4.284724e+00 1.080268e+00 1.498953e+00 6.339037e-01 -1.360925e+00 4.596573e+01 3.101857e-02 2.097282e-01 -1.989784e-02 -1.492315e-01 -6.655472e-02 1.172395e-01 -1.926304e-02 9.314810e-02 7.987431e-02 1.147253e-02 -3.632397e-02 -2.553654e-02 -1.118979e-01 -1.490979e-02 -2.206899e-02 -7.157338e-03 2.226849e-03 -5.821550e-04 -2.392543e-02 -1.402176e-02 -3.198609e-02 -2.010742e-02 -9.395080e-03 2.897405e-03 7.220519e-03 1.921432e-02
<VARIANCE> 39
 3.563741e+00 1.249691e+01 8.542194e+00 1.538122e+01 1.393489e+01 1.546389e+01 1.503961e+01 1.592657e+01 1.569305e+01 1.531163e+01 1.297022e+01 1.143894e+01 6.589510e+00 1.267460e-01 2.963195e-01 4.250263e-01 6.554593e-01 8.654628e-01 1.061599e+00 1.184706e+00 1.319152e+00 1.373445e+00 1.339999e+00 1.228236e+00 1.086572e+00 5.936163e-02 2.288479e-02 4.634860e-02 8.261108e-02 1.246921e-01 1.695844e-01 2.096840e-01 2.335794e-01 2.594194e-01 2.748008e-01 2.723961e-01 2.486824e-01 2.194046e-01 8.795309e-03
<GCONST> 6.964797e+01
<MIXTURE> 2 1.930761e-01
<MEAN> 39
 -9.651017e+00 -1.648700e+01 -5.057748e+00 3.077995e+00 -2.220314e+00 -5.622504e+00 4.838408e+00 -3.245571e+00 -3.146404e+00 8.963974e-01 1.016476e+00 -7.102033e-01 6.166513e+01 2.714174e-01 3.200459e-01 2.346738e-01 2.016602e-01 2.225461e-01 2.094949e-01 9.819970e-02 1.781883e-01 4.314851e-02 4.692283e-02 3.685743e-02 1.479447e-02 -8.087607e-01 -1.161844e-02 1.567197e-02 -1.059502e-02 -1.694974e-02 -2.025707e-02 6.886965e-04 -1.147619e-02 1.758933e-02 7.316243e-03 1.111489e-03 -8.531922e-04 -3.547606e-03 2.121617e-02
<VARIANCE> 39
 1.583919e+01 4.118832e+01 2.015416e+01 2.113697e+01 2.999518e+01 2.458099e+01 2.019631e+01 2.649841e+01 2.431394e+01 2.027412e+01 1.743209e+01 1.465980e+01 7.427469e+01 1.090045e-01 2.665040e-01 3.994440e-01 6.177241e-01 8.493909e-01 9.980351e-01 1.152763e+00 1.245809e+00 1.297082e+00 1.304227e+00 1.248837e+00 1.137480e+00 5.396346e-02 1.989377e-02 4.539421e-02 7.924766e-02 1.212539e-01 1.653031e-01 2.002026e-01 2.357156e-01 2.512077e-01 2.664183e-01 2.674181e-01 2.523933e-01 2.320296e-01 6.163853e-03
<GCONST> 7.790728e+01
<MIXTURE> 3 1.930883e-01
<MEAN> 39
 -9.652161e+00 -1.648913e+01 -5.059136e+00 3.076812e+00 -2.222198e+00 -5.623775e+00 4.838008e+00 -3.246894e+00 -3.146878e+00 8.962846e-01 1.015979e+00 -7.104058e-01 6.166921e+01 2.714346e-01 3.199444e-01 2.346969e-01 2.017248e-01 2.226401e-01 2.094817e-01 9.822226e-02 1.780925e-01 4.310068e-02 4.690797e-02 3.688818e-02 1.483470e-02 -8.088403e-01 -1.161390e-02 1.568194e-02 -1.056863e-02 -1.691008e-02 -2.021444e-02 7.261811e-04 -1.144871e-02 1.761956e-02 7.331906e-03 1.124790e-03 -8.381540e-04 -3.539801e-03 2.121122e-02
<VARIANCE> 39
 1.584042e+01 4.118995e+01 2.015676e+01 2.113724e+01 2.999674e+01 2.458343e+01 2.019613e+01 2.649801e+01 2.431520e+01 2.027412e+01 1.743336e+01 1.466087e+01 7.429042e+01 1.089970e-01 2.665066e-01 3.994376e-01 6.177192e-01 8.493885e-01 9.980559e-01 1.152772e+00 1.245836e+00 1.297115e+00 1.304281e+00 1.248881e+00 1.137517e+00 5.395932e-02 1.989398e-02 4.539678e-02 7.924990e-02 1.212563e-01 1.653082e-01 2.002102e-01 2.357208e-01 2.512189e-01 2.664325e-01 2.674333e-01 2.524082e-01 2.320452e-01 6.163861e-03
<GCONST> 7.790858e+01
<MIXTURE> 4 2.465999e-02
<MEAN> 39
 -1.195944e+01 -1.437160e+01 -6.474513e+00 -2.352244e-01 -5.551764e+00 -5.591445e+00 3.264828e+00 -2.310458e+00 -2.060526e+00 1.221266e+00 3.703524e-01 -1.156034e+00 6.642074e+01 2.193604e-01 5.941382e-02 8.727739e-02 -7.122784e-02 1.303605e-01 1.397483e-01 3.384543e-01 3.087887e-01 5.116271e-01 1.309876e-01 8.706138e-02 1.050128e-01 -5.296825e-01 1.039658e-01 3.673987e-01 1.813801e-01 2.016249e-01 4.135029e-01 1.825103e-01 1.995195e-02 4.501153e-02 -1.170965e-01 -7.961894e-02 -1.258309e-02 -4.237383e-02 -5.172732e-01
<VARIANCE> 39
 3.151878e+01 8.767310e+01 2.645786e+01 2.716145e+01 3.707281e+01 3.632528e+01 2.519737e+01 3.317726e+01 2.490656e+01 1.761248e+01 1.702957e+01 1.403869e+01 2.223965e+02 4.135312e-01 8.415796e-01 6.288894e-01 1.142472e+00 1.370438e+00 1.455402e+00 1.640598e+00 1.789888e+00 2.153459e+00 1.598599e+00 1.384986e+00 1.291099e+00 5.337519e-01 4.166709e-01 8.548560e-01 3.041289e-01 3.572913e-01 5.004643e-01 5.469745e-01 4.260895e-01 5.298647e-01 4.563034e-01 3.539920e-01 3.083722e-01 2.523575e-01 2.711552e+00
<GCONST> 1.092343e+02
<MIXTURE> 5 1.930890e-01
<MEAN> 39
 -9.651641e+00 -1.648812e+01 -5.058480e+00 3.077353e+00 -2.221349e+00 -5.623173e+00 4.838172e+00 -3.246279e+00 -3.146627e+00 8.963665e-01 1.016217e+00 -7.102961e-01 6.166732e+01 2.714270e-01 3.199951e-01 2.346898e-01 2.016996e-01 2.226034e-01 2.094952e-01 9.821822e-02 1.781439e-01 4.312728e-02 4.691616e-02 3.687313e-02 1.481504e-02 -8.088025e-01 -1.161603e-02 1.567777e-02 -1.058052e-02 -1.692794e-02 -2.023228e-02 7.102904e-04 -1.146118e-02 1.760552e-02 7.322238e-03 1.114373e-03 -8.471167e-04 -3.544227e-03 2.121368e-02
<VARIANCE> 39
 1.583978e+01 4.118839e+01 2.015519e+01 2.113703e+01 2.999567e+01 2.458198e+01 2.019615e+01 2.649797e+01 2.431442e+01 2.027394e+01 1.743252e+01 1.466018e+01 7.428219e+01 1.089994e-01 2.665036e-01 3.994368e-01 6.177168e-01 8.493830e-01 9.980376e-01 1.152760e+00 1.245813e+00 1.297087e+00 1.304250e+00 1.248852e+00 1.137492e+00 5.396052e-02 1.989385e-02 4.539520e-02 7.924762e-02 1.212543e-01 1.653038e-01 2.002038e-01 2.357162e-01 2.512127e-01 2.664253e-01 2.674258e-01 2.523986e-01 2.320348e-01 6.163843e-03
<GCONST> 7.790762e+01
<MIXTURE> 6 2.444335e-02
<MEAN> 39
 -1.155401e+01 -1.373109e+01 -6.128029e+00 -3.592115e-02 -5.143532e+00 -5.194326e+00 3.391619e+00 -1.986276e+00 -1.942590e+00 1.247032e+00 4.052835e-01 -1.163988e+00 6.513967e+01 1.943741e-01 9.899244e-02 8.518504e-02 -7.069221e-02 1.364002e-01 1.375062e-01 3.036610e-01 2.897842e-01 4.764846e-01 1.126573e-01 8.158952e-02 9.159859e-02 -5.065922e-01 5.598613e-02 2.969571e-01 1.444753e-01 1.783409e-01 3.665924e-01 1.363683e-01 1.015448e-03 6.765429e-03 -1.327589e-01 -8.204380e-02 -1.461844e-02 -4.138802e-02 -3.741215e-01
<VARIANCE> 39
 3.227207e+01 9.010001e+01 2.644384e+01 2.766101e+01 3.706954e+01 3.698029e+01 2.515846e+01 3.389526e+01 2.491187e+01 1.761187e+01 1.679830e+01 1.394808e+01 2.269480e+02 4.242572e-01 8.368089e-01 6.156952e-01 1.109491e+00 1.334146e+00 1.425317e+00 1.607166e+00 1.753254e+00 2.096789e+00 1.579951e+00 1.375832e+00 1.280483e+00 5.201918e-01 4.294362e-01 8.717484e-01 3.098962e-01 3.600156e-01 5.030120e-01 5.541257e-01 4.277565e-01 5.378642e-01 4.563839e-01 3.552867e-01 3.091046e-01 2.531896e-01 2.772540e+00
<GCONST> 1.092871e+02
<MIXTURE> 7 2.643230e-02
<MEAN> 39
 -9.502060e+00 -1.052317e+01 -4.462316e+00 9.123560e-01 -3.212600e+00 -3.189605e+00 4.071141e+00 -2.750034e-01 -1.311986e+00 1.418247e+00 5.557298e-01 -1.210891e+00 5.890105e+01 7.672463e-02 2.773049e-01 7.443475e-02 -6.587175e-02 1.564209e-01 1.324483e-01 1.450687e-01 2.098217e-01 3.136328e-01 2.789207e-02 5.037754e-02 3.112887e-02 -3.946118e-01 -1.913233e-01 -5.652786e-02 -4.215267e-02 6.412666e-02 1.379637e-01 -9.823640e-02 -1.010068e-01 -1.959437e-01 -2.176773e-01 -9.852975e-02 -2.397423e-02 -3.831244e-02 3.459032e-01
<VARIANCE> 39
 3.132844e+01 9.299120e+01 2.360676e+01 2.895203e+01 3.341337e+01 3.700812e+01 2.426924e+01 3.548217e+01 2.463342e+01 1.748915e+01 1.561183e+01 1.344438e+01 2.089536e+02 4.397493e-01 7.527295e-01 5.460007e-01 9.483442e-01 1.156935e+00 1.278065e+00 1.428851e+00 1.576687e+00 1.806310e+00 1.479986e+00 1.324456e+00 1.226753e+00 4.298142e-01 4.365657e-01 8.766220e-01 3.168183e-01 3.619426e-01 4.805450e-01 5.548140e-01 4.276150e-01 5.568280e-01 4.539461e-01 3.608947e-01 3.145033e-01 2.579640e-01 2.675562e+00
<GCONST> 1.076583e+02
<MIXTURE> 8 6.622451e-02
<MEAN> 39
 -1.145272e+01 -1.035653e+01 -5.409317e+00 1.009733e+00 -3.325162e+00 -3.831329e+00 2.843259e+00 -1.437621e+00 -3.023523e+00 7.964343e-01 2.090298e-01 -1.750696e+00 6.307102e+01 -2.395665e+00 -3.084237e+00 -1.516434e+00 -8.521371e-01 -1.743342e+00 -1.951552e+00 -8.192719e-01 -1.910745e+00 -9.051842e-01 -3.874076e-01 -2.277898e-01 -1.204107e-01 6.815238e+00 1.605308e-01 -2.748109e-01 -2.841461e-02 -6.186065e-02 -1.856668e-01 -3.315818e-02 1.546690e-01 5.569232e-02 1.869659e-01 8.340327e-02 -3.502959e-04 4.269518e-02 -2.348182e-02
<VARIANCE> 39
 3.739854e+01 8.658393e+01 2.732658e+01 3.202493e+01 3.673689e+01 4.418967e+01 3.027131e+01 4.953524e+01 3.844258e+01 2.108807e+01 2.107614e+01 1.776436e+01 2.487782e+02 2.081354e+00 8.873204e+00 2.316176e+00 3.177948e+00 3.624661e+00 3.523307e+00 3.167233e+00 3.958033e+00 3.771760e+00 2.384412e+00 2.159697e+00 1.827780e+00 1.168080e+01 8.377528e-01 1.732185e+00 5.358328e-01 5.097752e-01 7.910668e-01 9.233444e-01 6.076158e-01 1.113792e+00 8.048191e-01 4.419145e-01 3.913798e-01 3.361581e-01 6.144068e+00
<GCONST> 1.325183e+02
<TRANSP> 5
 0.000000e+00 1.000000e+00 0.000000e+00 0.000000e+00 0.000000e+00
 0.000000e+00 9.930870e-01 6.912979e-03 0.000000e+00 0.000000e+00
 0.000000e+00 0.000000e+00 9.854702e-01 1.452977e-02 0.000000e+00
 0.000000e+00 0.000000e+00 0.000000e+00 9.862342e-01 1.376579e-02
 0.000000e+00 0.000000e+00 0.000000e+00 0.000000e+00 0.000000e+00
<ENDHMM>
~h "cl"
<BEGINHMM>
<NUMSTATES> 5
<STATE> 2
<NUMMIXES> 8
<MIXTURE> 1 1.850533e-01
<MEAN> 39
 -1.027607e+01 -7.554780e+00 -4.579343e+00 -3.601899e+00 -1.531191e+00 -1.564101e+00 1.708059e+00 2.253269e-01 -8.734126e-02 -1.638007e+00 -1.110539e+00 -1.640838e+00 5.815461e+01 2.415943e-01 1.813708e-01 1.588061e-01 1.375625e-01 2.085485e-01 2.178718e-01 2.579108e-01 1.338905e-01 2.156307e-02 7.736877e-02 5.336368e-02 -2.911921e-02 -4.938865e-01 1.181364e-02 7.322111e-02 8.739877e-02 8.334743e-02 1.075351e-01 1.795692e-01 1.588920e-01 1.573235e-01 1.889670e-01 1.396452e-01 7.331732e-02 8.112043e-02 2.563745e-02
<VARIANCE> 39
 2.357809e+01 2.968278e+01 8.301573e+00 1.537838e+01 1.898856e+01 2.829243e+01 2.246981e+01 1.923327e+01 2.063140e+01 1.950585e+01 1.638254e+01 1.497685e+01 8.472456e+01 1.766541e-01 2.893346e-01 4.375071e-01 6.908780e-01 8.685370e-01 1.073293e+00 1.237760e+00 1.319559e+00 1.459550e+00 1.417171e+00 1.301412e+00 1.201387e+00 1.883682e-01 2.470339e-02 5.454345e-02 8.675423e-02 1.373917e-01 1.742814e-01 2.104680e-01 2.361062e-01 2.489642e-01 2.745274e-01 2.726972e-01 2.489300e-01 2.335958e-01 7.829343e-03
<GCONST> 7.966167e+01
<MIXTURE> 2 1.604277e-01
<MEAN> 39
 -1.109941e+01 -3.553661e-01 -2.388045e-01 -4.363122e+00 -1.395118e+00 7.298452e+00 4.740889e+00 6.671686e-01 5.186562e+00 4.897494e-01 -3.209861e+00 1.769578e+00 5.134056e+01 3.720762e-01 -9.693207e-02 -8.776264e-02 1.704663e-02 5.279692e-02 -1.245194e-01 1.453432e-02 4.936039e-02 -1.041966e-01 2.106844e-02 8.570943e-02 -1.074213e-01 -2.787463e-01 -2.690179e-02 -1.928035e-02 -4.242912e-02 -3.217741e-02 -4.307910e-02 -8.041622e-02 -8.058332e-02 -4.506172e-02 -8.528195e-02 -4.648854e-02 -1.033965e-02 -3.891528e-02 1.177426e-02
<VARIANCE> 39
 3.056529e+01 1.337650e+01 3.423352e+01 1.407796e+01 1.887846e+01 2.901920e+01 1.956807e+01 2.664373e+01 3.287233e+01 2.023696e+01 2.593156e+01 2.330789e+01 1.554476e+01 2.627621e-01 3.293064e-01 5.224006e-01 7.088727e-01 9.695928e-01 1.292595e+00 1.313080e+00 1.466605e+00 1.568940e+00 1.413330e+00 1.328393e+00 1.264074e+00 1.114017e-01 3.334032e-02 5.347565e-02 9.485485e-02 1.319832e-01 1.807229e-01 2.276966e-01 2.464087e-01 2.775208e-01 2.869390e-01 2.772625e-01 2.627710e-01 2.431941e-01 1.170674e-02
<GCONST> 8.232700e+01
<MIXTURE> 3 1.604551e-01
<MEAN> 39
 -1.108117e+01 -3.622001e-01 -2.531452e-01 -4.354512e+00 -1.381939e+00 7.284862e+00 4.747712e+00 6.839707e-01 5.171262e+00 4.940322e-01 -3.193906e+00 1.754652e+00 5.133438e+01 3.712606e-01 -9.667567e-02 -8.748933e-02 1.661967e-02 5.271864e-02 -1.243458e-01 1.443386e-02 4.925439e-02 -1.044739e-01 2.104553e-02 8.571061e-02 -1.074648e-01 -2.782077e-01 -2.708757e-02 -1.935995e-02 -4.241555e-02 -3.258401e-02 -4.356857e-02 -8.043803e-02 -8.108017e-02 -4.573686e-02 -8.520912e-02 -4.689221e-02 -1.082891e-02 -3.863148e-02 1.184575e-02
<VARIANCE> 39
 3.054115e+01 1.336971e+01 3.412827e+01 1.405921e+01 1.885278e+01 2.896558e+01 1.955774e+01 2.658278e+01 3.282068e+01 2.021380e+01 2.589483e+01 2.327023e+01 1.551902e+01 2.626838e-01 3.292297e-01 5.220649e-01 7.087361e-01 9.691792e-01 1.291984e+00 1.312969e+00 1.466102e+00 1.568419e+00 1.413083e+00 1.328118e+00 1.263850e+00 1.114008e-01 3.331160e-02 5.346075e-02 9.480271e-02 1.319432e-01 1.806444e-01 2.275235e-01 2.463826e-01 2.774219e-01 2.868711e-01 2.771921e-01 2.627264e-01 2.431716e-01 1.169086e-02
<GCONST> 8.229852e+01
<MIXTURE> 4 7.066104e-02
<MEAN> 39
 -1.409240e+01 -5.316035e-01 -9.077149e-01 -4.378740e+00 -2.076709e+00 5.698994e+00 2.577106e+00 1.307802e-01 4.174977e+00 8.704539e-02 -2.912456e+00 1.937464e+00 5.501299e+01 -2.771834e-01 1.595806e-01 1.063273e-01 -6.025152e-02 -1.125552e-01 2.991055e-01 -2.944263e-02 -1.412593e-01 2.062256e-01 -6.671404e-02 -1.691073e-01 2.103257e-01 1.035174e-01 -7.429917e-02 3.567332e-02 4.956922e-02 1.031393e-02 -3.915467e-02 3.329507e-02 -5.426874e-03 -2.132095e-02 9.558530e-03 -8.942410e-03 -3.716986e-02 1.468703e-02 2.574918e-02
<VARIANCE> 39
 3.830360e+01 3.139531e+01 3.450546e+01 1.657270e+01 1.971728e+01 4.919609e+01 2.389126e+01 2.828549e+01 3.216381e+01 2.232081e+01 2.731391e+01 2.184546e+01 6.236258e+01 1.048289e+00 8.331249e-01 8.304286e-01 9.959810e-01 1.304462e+00 1.975845e+00 1.713378e+00 2.013972e+00 2.221649e+00 1.754794e+00 1.883131e+00 1.607244e+00 4.952757e-01 4.899773e-01 1.979866e-01 1.826271e-01 2.002776e-01 2.623124e-01 4.303859e-01 3.476595e-01 4.225389e-01 4.409373e-01 3.737458e-01 3.736078e-01 3.055157e-01 3.627845e-01
<GCONST> 1.045098e+02
<MIXTURE> 5 1.603614e-01
<MEAN> 39
 -1.116127e+01 -3.329901e-01 -1.893880e-01 -4.391931e+00 -1.439615e+00 7.344371e+00 4.718871e+00 6.107675e-01 5.239039e+00 4.760186e-01 -3.263775e+00 1.819911e+00 5.136142e+01 3.747294e-01 -9.772988e-02 -8.868090e-02 1.843582e-02 5.298699e-02 -1.250774e-01 1.479506e-02 4.967958e-02 -1.032092e-01 2.112209e-02 8.563848e-02 -1.072063e-01 -2.805136e-01 -2.626588e-02 -1.900491e-02 -4.249859e-02 -3.084735e-02 -4.148257e-02 -8.042309e-02 -7.902858e-02 -4.289398e-02 -8.561052e-02 -4.521227e-02 -8.720448e-03 -3.985832e-02 1.153422e-02
<VARIANCE> 39
 3.064385e+01 1.339943e+01 3.459060e+01 1.414502e+01 1.896873e+01 2.920436e+01 1.960583e+01 2.685556e+01 3.304791e+01 2.031963e+01 2.606174e+01 2.343851e+01 1.563178e+01 2.630810e-01 3.296316e-01 5.236344e-01 7.095019e-01 9.712050e-01 1.294971e+00 1.313735e+00 1.468623e+00 1.570913e+00 1.414343e+00 1.329635e+00 1.265008e+00 1.114342e-01 3.345350e-02 5.354097e-02 9.505543e-02 1.321616e-01 1.810369e-01 2.283391e-01 2.465789e-01 2.779481e-01 2.872263e-01 2.775818e-01 2.630233e-01 2.433305e-01 1.176712e-02
<GCONST> 8.243143e+01
<MIXTURE> 6 7.096022e-02
<MEAN> 39
 -1.407540e+01 -4.765172e-01 -8.771684e-01 -4.386920e+00 -2.064685e+00 5.765558e+00 2.598000e+00 1.379915e-01 4.192948e+00 9.559442e-02 -2.932073e+00 1.960446e+00 5.492202e+01 -2.848535e-01 1.612003e-01 1.064472e-01 -6.231758e-02 -1.144513e-01 3.005810e-01 -3.145435e-02 -1.411800e-01 2.069437e-01 -6.783909e-02 -1.700961e-01 2.117459e-01 1.106907e-01 -7.546343e-02 3.391489e-02 4.849304e-02 1.013040e-02 -3.967377e-02 3.196808e-02 -6.239052e-03 -2.181064e-02 9.851146e-03 -8.854237e-03 -3.659607e-02 1.410596e-02 2.905528e-02
<VARIANCE> 39
 3.829350e+01 3.073943e+01 3.463041e+01 1.655626e+01 1.967981e+01 4.880921e+01 2.383582e+01 2.825190e+01 3.212661e+01 2.228852e+01 2.734646e+01 2.183018e+01 6.072963e+01 1.052988e+00 8.375001e-01 8.338228e-01 9.969209e-01 1.305733e+00 1.981885e+00 1.715350e+00 2.018000e+00 2.226186e+00 1.756295e+00 1.888166e+00 1.609500e+00 4.933249e-01 4.921567e-01 1.976615e-01 1.828183e-01 2.001626e-01 2.624346e-01 4.309001e-01 3.475541e-01 4.231939e-01 4.412383e-01 3.736355e-01 3.745008e-01 3.055559e-01 3.595270e-01
<GCONST> 1.044741e+02
<MIXTURE> 7 7.103267e-02
<MEAN> 39
 -1.407374e+01 -4.629344e-01 -8.697699e-01 -4.389544e+00 -2.062955e+00 5.782604e+00 2.602139e+00 1.383082e-01 4.198335e+00 9.698082e-02 -2.937934e+00 1.967129e+00 5.490254e+01 -2.868181e-01 1.615871e-01 1.065731e-01 -6.289208e-02 -1.149795e-01 3.010535e-01 -3.197340e-02 -1.413186e-01 2.071791e-01 -6.818385e-02 -1.704705e-01 2.121782e-01 1.124555e-01 -7.542980e-02 3.343487e-02 4.820000e-02 1.013420e-02 -3.968409e-02 3.158554e-02 -6.322600e-03 -2.179995e-02 9.852856e-03 -8.774528e-03 -3.635275e-02 1.388240e-02 2.960928e-02
<VARIANCE> 39
 3.828423e+01 3.058772e+01 3.466714e+01 1.655461e+01 1.967193e+01 4.872525e+01 2.382373e+01 2.824642e+01 3.212231e+01 2.228280e+01 2.735577e+01 2.182796e+01 6.033564e+01 1.054323e+00 8.386720e-01 8.347497e-01 9.972620e-01 1.306173e+00 1.983643e+00 1.715900e+00 2.019200e+00 2.227592e+00 1.756839e+00 1.889522e+00 1.610193e+00 4.929808e-01 4.924465e-01 1.975628e-01 1.828629e-01 2.001375e-01 2.624536e-01 4.309751e-01 3.474973e-01 4.233396e-01 4.413007e-01 3.736053e-01 3.747171e-01 3.055501e-01 3.585151e-01
<GCONST> 1.044665e+02
<MIXTURE> 8 1.210331e-01
<MEAN> 39
 -1.225671e+01 -6.550234e-01 -6.238393e-01 -3.359392e+00 -1.541239e+00 3.136280e+00 2.768871e+00 1.541850e+00 2.556194e+00 9.161434e-01 -1.200385e+00 2.678744e-02 5.371579e+01 -3.289931e+00 8.005419e-02 1.530538e-01 -3.881458e-01 -9.163588e-01 5.283246e-01 -8.848933e-01 -1.055716e+00 5.050452e-01 -3.187566e-01 -8.725368e-01 6.584330e-01 3.180417e+00 -1.824235e-01 -7.845524e-02 7.378516e-02 -9.113050e-02 -1.268809e-01 3.076980e-01 -3.021158e-02 -2.862232e-01 1.695183e-01 -5.706524e-02 -2.987240e-01 2.063017e-01 1.454885e-01
<VARIANCE> 39
 5.539425e+01 3.182019e+01 2.880578e+01 1.835275e+01 2.361964e+01 4.550099e+01 2.885462e+01 2.822090e+01 3.142790e+01 2.697380e+01 2.293366e+01 1.887030e+01 9.152451e+01 3.868783e+00 3.246995e+00 2.055553e+00 1.812740e+00 2.321205e+00 5.815568e+00 3.054885e+00 4.011920e+00 3.893680e+00 3.387026e+00 3.213731e+00 2.529743e+00 4.534487e+00 1.137116e+00 3.340247e-01 2.569029e-01 2.699414e-01 4.390728e-01 6.396022e-01 5.072987e-01 5.936237e-01 5.231145e-01 4.707114e-01 4.432251e-01 3.605693e-01 1.402577e+00
<GCONST> 1.225712e+02
<STATE> 3
<NUMMIXES> 8
<MIXTURE> 1 9.244965e-02
<MEAN> 39
 -1.721018e+01 1.655068e+00 3.495317e-01 -7.588305e+00 -4.817330e+00 1.349143e+01 -7.307258e-02 -2.127002e+00 1.101582e+01 -3.995777e+00 -3.538305e+00 6.274498e+00 5.621587e+01 -1.532419e+00 3.825022e-01 -2.165383e-01 2.864248e-01 3.982241e-01 -8.657690e-01 3.771711e-01 4.631896e-01 -7.755366e-01 1.880872e-01 2.672586e-01 -7.885718e-01 1.080296e+00 -8.620954e-01 5.410178e-02 8.186630e-03 1.133269e-01 3.015194e-02 -1.010056e-01 6.242546e-02 5.397671e-02 -1.713741e-01 -6.900880e-02 -1.311242e-01 -1.106136e-01 6.498193e-01
<VARIANCE> 39
 3.217926e+01 7.780104e+00 1.773236e+01 1.009484e+01 1.461509e+01 2.333692e+01 2.128712e+01 1.839029e+01 2.196522e+01 1.811228e+01 1.811376e+01 1.714199e+01 1.470411e+01 2.392648e+00 7.196203e-01 1.102090e+00 1.329062e+00 1.615774e+00 2.590896e+00 2.682437e+00 2.254821e+00 2.414574e+00 2.071591e+00 1.911891e+00 2.152694e+00 1.153699e+00 2.471180e-01 1.149811e-01 1.701983e-01 1.844879e-01 2.508110e-01 3.928945e-01 3.884688e-01 3.689905e-01 4.042107e-01 3.673559e-01 3.315134e-01 3.602196e-01 1.163030e-01
<GCONST> 9.846065e+01
<MIXTURE> 2 1.678165e-01
<MEAN> 39
 -2.105297e+01 2.930398e+00 -1.989627e-03 -7.251662e+00 -4.853693e+00 1.368436e+01 7.458693e-01 -2.441512e+00 9.991074e+00 -4.014649e+00 -4.759622e+00 6.116066e+00 5.889673e+01 6.986868e-01 -2.671843e-02 -8.300287e-02 -2.958877e-02 7.128244e-02 -3.749426e-02 6.670339e-02 1.247150e-02 6.647123e-02 7.603578e-02 1.008007e-01 -1.834720e-02 -5.398323e-01 -3.536968e-03 -3.928074e-03 -5.360158e-02 3.011364e-02 2.299254e-02 -9.748636e-02 4.179220e-03 3.018571e-02 -8.811759e-02 4.142869e-02 5.237639e-02 -7.075499e-02 6.364158e-03
<VARIANCE> 39
 2.790960e+01 8.108122e+00 1.632765e+01 1.090521e+01 1.440367e+01 2.496306e+01 2.346948e+01 1.918818e+01 2.207729e+01 1.927309e+01 1.767438e+01 1.814039e+01 1.493096e+01 1.956383e-01 2.969165e-01 5.428299e-01 7.336963e-01 9.313086e-01 1.277609e+00 1.370318e+00 1.367573e+00 1.479750e+00 1.449198e+00 1.305228e+00 1.236222e+00 9.314299e-02 5.659188e-02 5.594634e-02 1.144062e-01 1.490528e-01 1.989341e-01 2.690896e-01 2.921526e-01 2.842317e-01 3.074089e-01 3.052977e-01 2.734326e-01 2.628126e-01 3.007645e-02
<GCONST> 8.096046e+01
<MIXTURE> 3 1.678063e-01
<MEAN> 39
 -2.105504e+01 2.930140e+00 -9.952352e-04 -7.251870e+00 -4.854355e+00 1.368504e+01 7.453010e-01 -2.441853e+00 9.991521e+00 -4.015589e+00 -4.760314e+00 6.116757e+00 5.889817e+01 6.986734e-01 -2.663878e-02 -8.292197e-02 -2.966577e-02 7.125217e-02 -3.738634e-02 6.670015e-02 1.241797e-02 6.658312e-02 7.602089e-02 1.007509e-01 -1.828554e-02 -5.398673e-01 -3.509091e-03 -3.902175e-03 -5.364266e-02 3.013776e-02 2.304731e-02 -9.754293e-02 4.231534e-03 3.023670e-02 -8.814386e-02 4.150541e-02 5.244225e-02 -7.081684e-02 6.342910e-03
<VARIANCE> 39
 2.790604e+01 8.108026e+00 1.632757e+01 1.090516e+01 1.440409e+01 2.496336e+01 2.347067e+01 1.918850e+01 2.207751e+01 1.927427e+01 1.767426e+01 1.814127e+01 1.493128e+01 1.956516e-01 2.969086e-01 5.428583e-01 7.337115e-01 9.313149e-01 1.277611e+00 1.370341e+00 1.367556e+00 1.479754e+00 1.449204e+00 1.305224e+00 1.236214e+00 9.315994e-02 5.661783e-02 5.595112e-02 1.144203e-01 1.490632e-01 1.989495e-01 2.691146e-01 2.921783e-01 2.842438e-01 3.074245e-01 3.053133e-01 2.734422e-01 2.628315e-01 3.009766e-02
<GCONST> 8.096281e+01
<MIXTURE> 4 8.612974e-02
<MEAN> 39
 -1.741909e+01 1.578218e+00 -2.651162e+00 -6.429875e+00 -4.424614e+00 9.881760e+00 5.030909e-01 -2.283787e+00 6.641584e+00 -3.354464e+00 -3.388531e+00 4.141607e+00 5.820260e+01 2.057659e-01 -8.740427e-02 8.597617e-02 -4.911698e-02 -9.420230e-02 1.699168e-01 -6.496241e-02 -7.880533e-02 5.319525e-02 6.054501e-03 -2.555199e-02 9.925202e-02 -2.091313e-01 2.116263e-02 3.299882e-02 6.439625e-02 -2.292522e-02 5.082409e-03 6.463373e-02 -8.592921e-03 3.685659e-02 7.772665e-02 -2.386239e-03 -5.245815e-03 3.331289e-02 -2.346127e-02
<VARIANCE> 39
 7.312687e+01 1.464550e+01 2.280765e+01 1.419512e+01 1.819563e+01 4.065862e+01 3.203690e+01 2.585724e+01 2.848977e+01 2.076409e+01 1.997710e+01 2.109376e+01 3.247659e+01 4.518531e-01 4.023069e-01 6.791876e-01 8.463022e-01 1.145210e+00 1.600666e+00 1.635360e+00 1.553855e+00 1.719821e+00 1.589688e+00 1.489000e+00 1.458373e+00 2.332889e-01 3.239100e-01 1.072932e-01 1.595144e-01 1.867217e-01 2.559655e-01 3.684812e-01 3.889669e-01 3.444414e-01 3.759821e-01 3.438756e-01 3.202976e-01 3.234031e-01 1.774011e-01
<GCONST> 9.598514e+01
<MIXTURE> 5 1.678072e-01
<MEAN> 39
 -2.105431e+01 2.930209e+00 -1.252206e-03 -7.251829e+00 -4.854152e+00 1.368483e+01 7.454301e-01 -2.441718e+00 9.991474e+00 -4.015269e+00 -4.760052e+00 6.116564e+00 5.889764e+01 6.986838e-01 -2.666654e-02 -8.295563e-02 -2.964446e-02 7.125955e-02 -3.743200e-02 6.669857e-02 1.243514e-02 6.653967e-02 7.602087e-02 1.007644e-01 -1.831028e-02 -5.398607e-01 -3.519225e-03 -3.911124e-03 -5.363167e-02 3.013048e-02 2.303064e-02 -9.752435e-02 4.217275e-03 3.021776e-02 -8.814084e-02 4.147731e-02 5.241708e-02 -7.079847e-02 6.350373e-03
<VARIANCE> 39
 2.790705e+01 8.108027e+00 1.632769e+01 1.090515e+01 1.440391e+01 2.496302e+01 2.347018e+01 1.918834e+01 2.207751e+01 1.927352e+01 1.767407e+01 1.814067e+01 1.493115e+01 1.956435e-01 2.969068e-01 5.428427e-01 7.337016e-01 9.313055e-01 1.277605e+00 1.370327e+00 1.367557e+00 1.479744e+00 1.449187e+00 1.305221e+00 1.236209e+00 9.315186e-02 5.660681e-02 5.594903e-02 1.144151e-01 1.490592e-01 1.989433e-01 2.691028e-01 2.921675e-01 2.842372e-01 3.074178e-01 3.053030e-01 2.734339e-01 2.628192e-01 3.008905e-02
<GCONST> 8.096161e+01
<MIXTURE> 6 8.609588e-02
<MEAN> 39
 -1.746004e+01 1.585337e+00 -2.634990e+00 -6.433179e+00 -4.429241e+00 9.902248e+00 5.001412e-01 -2.285947e+00 6.657676e+00 -3.363241e+00 -3.398622e+00 4.153711e+00 5.822247e+01 2.058236e-01 -8.732516e-02 8.665342e-02 -4.971794e-02 -9.521063e-02 1.714562e-01 -6.546307e-02 -7.985139e-02 5.461359e-02 5.348094e-03 -2.626116e-02 1.007274e-01 -2.089174e-01 2.285817e-02 3.288935e-02 6.388514e-02 -2.291044e-02 5.432118e-03 6.386101e-02 -8.203980e-03 3.707043e-02 7.722662e-02 -1.866669e-03 -4.645866e-03 3.261904e-02 -2.467933e-02
<VARIANCE> 39
 7.304711e+01 1.461334e+01 2.279764e+01 1.419061e+01 1.819123e+01 4.061736e+01 3.202737e+01 2.583600e+01 2.848285e+01 2.076910e+01 1.998278e+01 2.110028e+01 3.242981e+01 4.526002e-01 4.024724e-01 6.799517e-01 8.470429e-01 1.145985e+00 1.601671e+00 1.636597e+00 1.554350e+00 1.720615e+00 1.590478e+00 1.489498e+00 1.458843e+00 2.337035e-01 3.248295e-01 1.073600e-01 1.597603e-01 1.868579e-01 2.561902e-01 3.689222e-01 3.894196e-01 3.445906e-01 3.762323e-01 3.441055e-01 3.204655e-01 3.236956e-01 1.780624e-01
<GCONST> 9.600354e+01
<MIXTURE> 7 8.612905e-02
<MEAN> 39
 -1.742064e+01 1.578462e+00 -2.650598e+00 -6.430313e+00 -4.425316e+00 9.882360e+00 5.022191e-01 -2.284368e+00 6.642246e+00 -3.355053e+00 -3.389033e+00 4.142403e+00 5.820367e+01 2.057800e-01 -8.740967e-02 8.600438e-02 -4.914263e-02 -9.423751e-02 1.699716e-01 -6.497464e-02 -7.886098e-02 5.324990e-02 6.009894e-03 -2.558894e-02 9.930759e-02 -2.091500e-01 2.124223e-02 3.300297e-02 6.436944e-02 -2.289721e-02 5.145174e-03 6.460189e-02 -8.513493e-03 3.690495e-02 7.769587e-02 -2.343408e-03 -5.209249e-03 3.324756e-02 -2.352204e-02
<VARIANCE> 39
 7.312393e+01 1.464454e+01 2.280927e+01 1.419537e+01 1.819653e+01 4.066041e+01 3.203830e+01 2.585784e+01 2.849010e+01 2.076397e+01 1.997701e+01 2.109373e+01 3.247469e+01 4.518710e-01 4.023112e-01 6.792105e-01 8.463178e-01 1.145229e+00 1.600683e+00 1.635376e+00 1.553852e+00 1.719830e+00 1.589715e+00 1.489009e+00 1.458373e+00 2.333081e-01 3.239481e-01 1.072965e-01 1.595250e-01 1.867308e-01 2.559757e-01 3.684999e-01 3.889835e-01 3.444468e-01 3.759902e-01 3.438811e-01 3.202993e-01 3.234122e-01 1.774279e-01
<GCONST> 9.598604e+01
<MIXTURE> 8 1.455440e-01
<MEAN> 39
 -2.470813e+01 2.619602e+00 -4.288344e-01 -6.022260e+00 -4.167510e+00 1.017588e+01 6.175807e-01 -9.386861e-01 7.435472e+00 -3.700098e+00 -3.693065e+00 3.715208e+00 6.252729e+01 -1.736007e+00 2.600002e-04 2.370078e-01 3.087069e-02 -3.610951e-01 4.018876e-01 -3.439576e-01 -3.199968e-01 1.520817e-01 -4.086404e-01 -5.411983e-01 4.341117e-01 1.526641e+00 6.123528e-01 -1.002472e-01 5.344141e-02 -1.229428e-01 -8.062506e-02 2.309724e-01 -1.782679e-02 -1.716532e-01 2.345360e-01 -6.234114e-02 -5.858387e-02 2.175668e-01 -4.559041e-01
<VARIANCE> 39
 4.941018e+01 1.244588e+01 1.884083e+01 1.774277e+01 1.985498e+01 3.901851e+01 3.455880e+01 2.503008e+01 3.020413e+01 2.312573e+01 2.114705e+01 2.456782e+01 2.195323e+01 3.800094e+00 1.142425e+00 1.711784e+00 1.450047e+00 2.065679e+00 3.746538e+00 3.335639e+00 2.577087e+00 3.092119e+00 2.148331e+00 2.052264e+00 2.727638e+00 1.599987e+00 5.858586e-01 1.629772e-01 2.440522e-01 2.815027e-01 3.534952e-01 5.559536e-01 5.581216e-01 4.346326e-01 5.154210e-01 4.281542e-01 3.881960e-01 4.394203e-01 3.471868e-01
<GCONST> 1.114699e+02
<STATE> 4
<NUMMIXES> 8
<MIXTURE> 1 1.484692e-01
<MEAN> 39
 -1.230525e+01 5.422379e-01 4.985965e+00 -5.460361e+00 -4.675662e+00 7.589681e+00 1.579128e+00 -3.769959e+00 5.065367e+00 2.072855e+00 -7.956320e+00 3.469556e+00 5.034214e+01 3.758611e-01 2.456906e-02 -1.548635e-01 9.948388e-02 1.837638e-01 -1.446156e-01 -1.987536e-02 1.831804e-01 -1.668830e-02 -3.181212e-02 2.107173e-01 -1.437964e-01 -3.503621e-01 -4.748899e-02 -3.853688e-03 -9.769426e-04 1.699015e-02 -1.432193e-02 4.910820e-02 -6.861736e-04 -2.581834e-02 -4.680794e-03 -8.540989e-03 -4.211257e-02 9.679006e-03 3.556756e-02
<VARIANCE> 39
 3.392651e+01 1.111184e+01 3.213080e+01 1.467560e+01 2.578243e+01 2.717272e+01 2.542778e+01 3.834533e+01 3.583892e+01 2.498753e+01 2.764952e+01 2.182947e+01 2.076517e+01 2.455832e-01 3.238953e-01 5.609327e-01 7.247452e-01 9.976563e-01 1.280437e+00 1.379197e+00 1.572891e+00 1.608303e+00 1.450085e+00 1.454683e+00 1.272943e+00 1.077453e-01 3.163452e-02 5.373633e-02 9.904372e-02 1.332753e-01 1.846356e-01 2.374798e-01 2.574855e-01 2.889212e-01 2.956273e-01 2.692493e-01 2.756395e-01 2.367719e-01 1.096701e-02
<GCONST> 8.405293e+01
<MIXTURE> 2 1.538448e-01
<MEAN> 39
 -2.383974e+01 2.851525e-01 5.997519e+00 -3.989962e+00 -7.259738e+00 1.177246e+01 1.188927e+00 -7.188133e+00 3.503195e+00 5.084207e+00 -1.287019e+01 5.443017e+00 5.926032e+01 6.341261e-01 6.675400e-02 2.950019e-01 -4.781891e-02 -1.489196e-02 1.243121e-01 2.020111e-01 -1.550323e-01 3.599082e-01 8.184217e-02 -1.303842e-01 1.799630e-01 -7.521351e-01 -1.937978e-02 2.581288e-02 -7.008936e-02 1.976108e-02 6.995687e-02 -9.721801e-02 -7.968517e-03 1.163708e-01 -3.311187e-02 -1.925620e-02 1.145127e-01 -8.705992e-02 1.104384e-02
<VARIANCE> 39
 1.595294e+01 8.741907e+00 1.257502e+01 1.481772e+01 3.077051e+01 2.603229e+01 2.826724e+01 4.975417e+01 3.708173e+01 3.168109e+01 2.842025e+01 3.438856e+01 2.150025e+01 1.594763e-01 2.794690e-01 5.329015e-01 6.608063e-01 9.232817e-01 1.156913e+00 1.224147e+00 1.440941e+00 1.546572e+00 1.394957e+00 1.364861e+00 1.208719e+00 8.845359e-02 7.711832e-02 6.477097e-02 1.317769e-01 1.499261e-01 2.154130e-01 2.756387e-01 2.815232e-01 3.495304e-01 3.690750e-01 3.267426e-01 3.048815e-01 2.778830e-01 8.141796e-02
<GCONST> 8.666420e+01
<MIXTURE> 3 1.538371e-01
<MEAN> 39
 -2.383953e+01 2.847797e-01 5.997938e+00 -3.990386e+00 -7.261395e+00 1.177286e+01 1.187494e+00 -7.190432e+00 3.503623e+00 5.083366e+00 -1.287182e+01 5.444674e+00 5.926121e+01 6.340849e-01 6.669792e-02 2.950342e-01 -4.783192e-02 -1.491424e-02 1.243771e-01 2.020290e-01 -1.550759e-01 3.600178e-01 8.188388e-02 -1.304001e-01 1.800514e-01 -7.521474e-01 -1.939102e-02 2.581658e-02 -7.009968e-02 1.979253e-02 7.003293e-02 -9.722200e-02 -7.916277e-03 1.164655e-01 -3.312010e-02 -1.922222e-02 1.145774e-01 -8.711887e-02 1.104169e-02
<VARIANCE> 39
 1.595515e+01 8.743120e+00 1.257685e+01 1.481869e+01 3.077369e+01 2.603712e+01 2.827377e+01 4.976411e+01 3.708997e+01 3.168472e+01 2.842679e+01 3.440249e+01 2.150640e+01 1.594923e-01 2.794882e-01 5.329244e-01 6.608189e-01 9.233162e-01 1.156941e+00 1.224178e+00 1.440992e+00 1.546679e+00 1.395031e+00 1.364923e+00 1.208832e+00 8.845963e-02 7.713369e-02 6.477685e-02 1.317903e-01 1.499335e-01 2.154291e-01 2.756709e-01 2.815434e-01 3.495710e-01 3.691311e-01 3.267760e-01 3.049135e-01 2.779267e-01 8.144654e-02
<GCONST> 8.666904e+01
<MIXTURE> 4 9.109918e-02
<MEAN> 39
 -2.300565e+01 8.003744e-01 4.941829e+00 -3.606346e+00 -6.544937e+00 1.137144e+01 1.838960e+00 -6.559326e+00 4.401768e+00 3.875579e+00 -1.195448e+01 4.968747e+00 5.831193e+01 -3.195441e-01 -2.487805e-02 -2.106957e-01 -3.122805e-04 -8.560251e-02 -1.015205e-01 -4.056138e-02 2.196766e-02 -1.177390e-01 -2.354847e-01 1.055497e-01 -1.436883e-01 4.311812e-01 -8.146627e-02 -1.534480e-02 1.179643e-02 -2.442475e-02 2.149600e-02 -7.531513e-02 -6.955732e-02 7.992852e-02 -1.465059e-01 7.285858e-02 5.109194e-02 -4.262322e-02 1.006044e-01
<VARIANCE> 39
 2.370666e+01 1.076675e+01 1.641045e+01 1.639468e+01 2.671201e+01 2.634502e+01 3.009174e+01 4.507956e+01 3.753526e+01 3.413382e+01 2.650035e+01 3.075534e+01 2.986982e+01 1.035291e+00 6.539385e-01 1.362339e+00 1.224731e+00 1.828787e+00 2.605554e+00 2.059096e+00 3.645858e+00 3.096222e+00 2.599711e+00 2.429891e+00 2.321785e+00 8.108277e-01 4.478318e-01 1.175391e-01 2.659789e-01 2.236608e-01 3.169875e-01 4.017648e-01 4.073333e-01 5.350354e-01 5.952251e-01 4.812286e-01 3.995063e-01 3.927223e-01 4.768542e-01
<GCONST> 1.079505e+02
<MIXTURE> 5 1.538355e-01
<MEAN> 39
 -2.383969e+01 2.848319e-01 5.997924e+00 -3.990189e+00 -7.260739e+00 1.177297e+01 1.187974e+00 -7.189592e+00 3.503679e+00 5.083767e+00 -1.287137e+01 5.444333e+00 5.926095e+01 6.340967e-01 6.672087e-02 2.950159e-01 -4.781379e-02 -1.488112e-02 1.243421e-01 2.020247e-01 -1.550382e-01 3.599711e-01 8.186533e-02 -1.303815e-01 1.800079e-01 -7.521557e-01 -1.938503e-02 2.581166e-02 -7.010190e-02 1.977122e-02 6.998991e-02 -9.722434e-02 -7.937647e-03 1.164121e-01 -3.312973e-02 -1.924805e-02 1.145420e-01 -8.710223e-02 1.104415e-02
<VARIANCE> 39
 1.595391e+01 8.742523e+00 1.257593e+01 1.481805e+01 3.077257e+01 2.603505e+01 2.827154e+01 4.976070e+01 3.708697e+01 3.168332e+01 2.842542e+01 3.439911e+01 2.150401e+01 1.594861e-01 2.794796e-01 5.329121e-01 6.608140e-01 9.232990e-01 1.156943e+00 1.224172e+00 1.440978e+00 1.546660e+00 1.395016e+00 1.364909e+00 1.208797e+00 8.845557e-02 7.710995e-02 6.477080e-02 1.317760e-01 1.499238e-01 2.154140e-01 2.756439e-01 2.815261e-01 3.495359e-01 3.690919e-01 3.267516e-01 3.048958e-01 2.779036e-01 8.141436e-02
<GCONST> 8.666627e+01
<MIXTURE> 6 9.114818e-02
<MEAN> 39
 -2.299324e+01 8.008035e-01 4.950594e+00 -3.607868e+00 -6.550761e+00 1.137745e+01 1.840176e+00 -6.571268e+00 4.414039e+00 3.875293e+00 -1.196189e+01 4.978488e+00 5.829964e+01 -3.223032e-01 -2.432464e-02 -2.120675e-01 -1.378293e-04 -8.251490e-02 -1.055219e-01 -4.198604e-02 2.775754e-02 -1.220206e-01 -2.337139e-01 1.095795e-01 -1.476236e-01 4.334048e-01 -8.400910e-02 -1.560766e-02 1.043348e-02 -2.418002e-02 2.198102e-02 -7.604268e-02 -7.036307e-02 8.107819e-02 -1.485682e-01 7.270203e-02 5.176716e-02 -4.366106e-02 1.035322e-01
<VARIANCE> 39
 2.368790e+01 1.076174e+01 1.640530e+01 1.638401e+01 2.671498e+01 2.633891e+01 3.008490e+01 4.511465e+01 3.755285e+01 3.413501e+01 2.651626e+01 3.081905e+01 2.983840e+01 1.037580e+00 6.539888e-01 1.362482e+00 1.224834e+00 1.829730e+00 2.606061e+00 2.059213e+00 3.651374e+00 3.101829e+00 2.601926e+00 2.430688e+00 2.324244e+00 8.126333e-01 4.477038e-01 1.174389e-01 2.658281e-01 2.235117e-01 3.169670e-01 4.017086e-01 4.072653e-01 5.351937e-01 5.953574e-01 4.810626e-01 3.994929e-01 3.928076e-01 4.765973e-01
<GCONST> 1.079590e+02
<MIXTURE> 7 9.115803e-02
<MEAN> 39
 -2.298356e+01 7.999893e-01 4.957374e+00 -3.609881e+00 -6.559751e+00 1.138278e+01 1.838022e+00 -6.586102e+00 4.423670e+00 3.872814e+00 -1.197154e+01 4.988787e+00 5.829297e+01 -3.242265e-01 -2.393242e-02 -2.127045e-01 -2.485081e-04 -8.020224e-02 -1.085498e-01 -4.316169e-02 3.216223e-02 -1.256173e-01 -2.319233e-01 1.124809e-01 -1.506449e-01 4.349883e-01 -8.593336e-02 -1.571314e-02 9.422644e-03 -2.394199e-02 2.270232e-02 -7.675222e-02 -7.090001e-02 8.237828e-02 -1.502263e-01 7.281797e-02 5.260312e-02 -4.461927e-02 1.056733e-01
<VARIANCE> 39
 2.368683e+01 1.076421e+01 1.641074e+01 1.638278e+01 2.673643e+01 2.635647e+01 3.010263e+01 4.517737e+01 3.759754e+01 3.414857e+01 2.654897e+01 3.090128e+01 2.983627e+01 1.039969e+00 6.541445e-01 1.362890e+00 1.225063e+00 1.831353e+00 2.607674e+00 2.059754e+00 3.657913e+00 3.107280e+00 2.604191e+00 2.432602e+00 2.327498e+00 8.145205e-01 4.479278e-01 1.174117e-01 2.658431e-01 2.234865e-01 3.171388e-01 4.019276e-01 4.074436e-01 5.357059e-01 5.959850e-01 4.811687e-01 3.996930e-01 3.931787e-01 4.768738e-01
<GCONST> 1.079880e+02
<MIXTURE> 8 1.162986e-01
<MEAN> 39
 -2.557003e+01 8.281817e-01 2.960713e+00 -4.063846e+00 -4.607576e+00 7.552665e+00 3.486662e-02 -2.019937e+00 3.556953e-01 4.913379e+00 -8.370140e+00 2.071554e+00 6.139005e+01 -1.766167e+00 -3.055420e-01 -4.472121e-01 1.376596e-02 6.761720e-02 -1.974852e-01 -6.734167e-01 3.931826e-01 -1.138638e+00 2.361922e-01 7.805075e-02 -2.322502e-01 2.049333e+00 3.541245e-01 -5.319047e-02 2.320580e-01 -4.012277e-02 -2.855009e-01 4.781012e-01 2.003927e-01 -5.814213e-01 4.802179e-01 -9.977619e-02 -4.827747e-01 4.169745e-01 -3.492830e-01
<VARIANCE> 39
 4.552436e+01 1.396477e+01 1.831287e+01 1.837890e+01 2.539122e+01 3.138216e+01 3.381994e+01 3.676106e+01 3.526436e+01 2.914292e+01 2.657751e+01 2.467289e+01 4.097397e+01 2.841673e+00 9.155141e-01 1.815742e+00 1.520870e+00 2.564251e+00 3.239166e+00 2.789995e+00 4.480613e+00 3.948746e+00 3.432839e+00 2.761653e+00 2.733392e+00 2.097675e+00 5.648399e-01 1.530744e-01 2.907493e-01 2.685925e-01 3.612634e-01 4.094606e-01 4.706971e-01 5.168380e-01 6.119067e-01 5.170170e-01 3.840497e-01 4.119664e-01 5.713637e-01
<GCONST> 1.149975e+02
<TRANSP> 5
 0.000000e+00 1.000000e+00 0.000000e+00 0.000000e+00 0.000000e+00
 0.000000e+00 9.504718e-01 4.952822e-02 0.000000e+00 0.000000e+00
 0.000000e+00 0.000000e+00 9.920013e-01 7.998707e-03 0.000000e+00
 0.000000e+00 0.000000e+00 0.000000e+00 9.936317e-01 6.368361e-03
 0.000000e+00 0.000000e+00 0.000000e+00 0.000000e+00 0.000000e+00
<ENDHMM>
~h "cm"
<BEGINHMM>
<NUMSTATES> 5
<STATE> 2
<NUMMIXES> 8
<MIXTURE> 1 1.629712e-01
<MEAN> 39
 -1.277589e+01 -1.268032e+00 -4.941491e+00 -7.905139e+00 -3.176923e+00 -3.603402e+00 -5.523469e+00 -3.016997e+00 -4.071341e+00 2.911400e-01 3.089332e+00 1.110400e+00 6.027935e+01 3.314687e-02 5.389360e-02 1.159457e-01 1.916926e-01 2.812484e-01 2.794597e-01 2.241640e-01 1.976292e-01 1.202524e-01 5.643818e-02 3.088906e-02 1.158974e-02 7.457642e-02 4.125935e-03 3.748593e-02 9.260894e-02 1.822420e-01 2.750982e-01 3.642639e-01 4.026319e-01 3.676829e-01 2.829742e-01 1.401530e-01 2.215444e-02 -4.144209e-02 -3.154081e-02
<VARIANCE> 39
 1.029390e+01 1.333663e+01 1.066051e+01 1.218914e+01 1.137350e+01 1.164135e+01 1.422780e+01 1.464239e+01 1.632814e+01 1.951661e+01 2.379414e+01 2.161800e+01 2.020522e+01 2.416386e-01 3.747732e-01 5.358920e-01 7.309272e-01 9.246926e-01 1.133532e+00 1.321432e+00 1.445866e+00 1.451530e+00 1.388628e+00 1.414420e+00 1.324489e+00 2.349696e-01 4.377549e-02 7.272460e-02 1.030988e-01 1.448692e-01 1.687688e-01 1.837681e-01 2.148775e-01 2.495138e-01 2.665393e-01 2.871272e-01 3.047152e-01 2.870015e-01 3.554331e-02
<GCONST> 7.924354e+01
<MIXTURE> 2 1.339833e-01
<MEAN> 39
 -1.319975e+01 -9.412434e-01 -3.925260e+00 -5.438964e+00 7.994577e-01 2.028211e+00 3.540603e-01 2.216434e+00 -2.181824e-01 1.050005e+00 2.291716e+00 -3.010327e-01 5.853384e+01 -2.336180e-02 3.303579e-02 1.060806e-01 2.013610e-01 3.141167e-01 3.482173e-01 3.083979e-01 2.645759e-01 1.669343e-01 8.632075e-02 1.234456e-02 -4.092759e-02 3.181973e-02 5.121142e-03 -7.089087e-03 -2.726155e-02 -7.094207e-02 -1.294972e-01 -1.736044e-01 -1.763517e-01 -1.478099e-01 -8.029752e-02 -1.082990e-03 4.674518e-02 5.013369e-02 1.031374e-02
<VARIANCE> 39
 8.803664e+00 1.347294e+01 1.299513e+01 1.327278e+01 1.279628e+01 1.310870e+01 1.525076e+01 1.516381e+01 1.649540e+01 1.509008e+01 1.548569e+01 1.393726e+01 2.084942e+01 1.607655e-01 2.882223e-01 4.401870e-01 6.368848e-01 8.110559e-01 9.655021e-01 1.109833e+00 1.256263e+00 1.332197e+00 1.306582e+00 1.305780e+00 1.186288e+00 1.111692e-01 2.613388e-02 4.946494e-02 8.306097e-02 1.234919e-01 1.592013e-01 1.889359e-01 2.127611e-01 2.446784e-01 2.615923e-01 2.557423e-01 2.473385e-01 2.297244e-01 1.039672e-02
<GCONST> 7.280889e+01
<MIXTURE> 3 1.339853e-01
<MEAN> 39
 -1.319913e+01 -9.406119e-01 -3.924381e+00 -5.438244e+00 7.995446e-01 2.028044e+00 3.540888e-01 2.216222e+00 -2.183452e-01 1.049455e+00 2.290977e+00 -3.015539e-01 5.853322e+01 -2.337030e-02 3.305718e-02 1.060837e-01 2.013371e-01 3.140826e-01 3.481977e-01 3.083848e-01 2.645744e-01 1.669297e-01 8.632452e-02 1.235952e-02 -4.091325e-02 3.180282e-02 5.109269e-03 -7.111334e-03 -2.729792e-02 -7.097913e-02 -1.295116e-01 -1.735985e-01 -1.763388e-01 -1.477869e-01 -8.026658e-02 -1.036310e-03 4.679384e-02 5.016364e-02 1.031806e-02
<VARIANCE> 39
 8.805751e+00 1.347329e+01 1.299610e+01 1.327356e+01 1.279627e+01 1.310885e+01 1.525108e+01 1.516423e+01 1.649602e+01 1.509029e+01 1.548619e+01 1.393726e+01 2.085579e+01 1.607824e-01 2.882321e-01 4.402005e-01 6.368972e-01 8.110711e-01 9.655169e-01 1.109853e+00 1.256283e+00 1.332224e+00 1.306604e+00 1.305791e+00 1.186294e+00 1.111858e-01 2.613593e-02 4.946624e-02 8.306234e-02 1.234941e-01 1.592000e-01 1.889334e-01 2.127580e-01 2.446762e-01 2.615928e-01 2.557426e-01 2.473402e-01 2.297225e-01 1.039815e-02
<GCONST> 7.281043e+01
<MIXTURE> 4 9.838159e-02
<MEAN> 39
 -1.345333e+01 -5.972492e-01 -4.347548e+00 -6.817150e+00 -1.021369e+00 -1.311244e-01 -1.990928e+00 6.221244e-01 -9.808421e-01 2.366050e+00 4.417962e+00 1.516709e+00 5.853382e+01 -3.738014e-02 -1.211381e-01 -2.396694e-01 -3.615948e-01 -3.970880e-01 -4.601214e-01 -4.901389e-01 -4.018726e-01 -2.908918e-01 -1.434521e-01 -3.954913e-04 7.111780e-02 1.372835e-01 1.826978e-02 -8.730405e-03 1.930160e-03 3.661800e-02 4.755995e-02 5.339715e-02 6.822477e-02 3.387418e-02 -1.731035e-02 -9.748245e-02 -1.342938e-01 -1.001623e-01 1.256968e-02
<VARIANCE> 39
 6.429483e+00 1.273222e+01 1.196266e+01 1.201304e+01 1.259002e+01 1.281465e+01 1.517537e+01 1.537778e+01 1.689803e+01 1.601539e+01 1.671694e+01 1.548116e+01 1.717261e+01 1.915160e-01 3.222295e-01 4.670551e-01 6.612009e-01 7.992889e-01 9.482782e-01 1.117131e+00 1.256464e+00 1.342405e+00 1.315732e+00 1.319711e+00 1.236786e+00 1.492719e-01 2.535460e-02 5.290907e-02 8.581720e-02 1.261563e-01 1.630244e-01 1.885663e-01 2.118610e-01 2.391633e-01 2.628601e-01 2.590432e-01 2.538092e-01 2.386259e-01 1.160177e-02
<GCONST> 7.329279e+01
<MIXTURE> 5 1.339801e-01
<MEAN> 39
 -1.319988e+01 -9.414425e-01 -3.925489e+00 -5.439140e+00 7.994090e-01 2.028143e+00 3.538621e-01 2.216251e+00 -2.183725e-01 1.049988e+00 2.291835e+00 -3.009084e-01 5.853411e+01 -2.335847e-02 3.303555e-02 1.060902e-01 2.013830e-01 3.141414e-01 3.482369e-01 3.084135e-01 2.645845e-01 1.669398e-01 8.632030e-02 1.233827e-02 -4.093347e-02 3.182043e-02 5.123184e-03 -7.083781e-03 -2.725245e-02 -7.093293e-02 -1.294913e-01 -1.735978e-01 -1.763381e-01 -1.477919e-01 -8.028187e-02 -1.078148e-03 4.673955e-02 5.012548e-02 1.031214e-02
<VARIANCE> 39
 8.803317e+00 1.347288e+01 1.299474e+01 1.327241e+01 1.279619e+01 1.310843e+01 1.525041e+01 1.516359e+01 1.649509e+01 1.508999e+01 1.548557e+01 1.393735e+01 2.084773e+01 1.607616e-01 2.882225e-01 4.401871e-01 6.368816e-01 8.110551e-01 9.655012e-01 1.109827e+00 1.256255e+00 1.332188e+00 1.306591e+00 1.305783e+00 1.186296e+00 1.111664e-01 2.613348e-02 4.946478e-02 8.305988e-02 1.234909e-01 1.592002e-01 1.889333e-01 2.127597e-01 2.446763e-01 2.615904e-01 2.557411e-01 2.473377e-01 2.297246e-01 1.039651e-02
<GCONST> 7.280845e+01
<MIXTURE> 6 9.838405e-02
<MEAN> 39
 -1.345389e+01 -5.980262e-01 -4.348416e+00 -6.817744e+00 -1.021317e+00 -1.309026e-01 -1.990820e+00 6.223684e-01 -9.805909e-01 2.366545e+00 4.418544e+00 1.517139e+00 5.853436e+01 -3.737380e-02 -1.211570e-01 -2.396610e-01 -3.615487e-01 -3.970382e-01 -4.600902e-01 -4.901189e-01 -4.018797e-01 -2.909036e-01 -1.434764e-01 -4.215314e-04 7.110275e-02 1.372809e-01 1.828621e-02 -8.692599e-03 1.977992e-03 3.665309e-02 4.755960e-02 5.337357e-02 6.819481e-02 3.383990e-02 -1.735231e-02 -9.753291e-02 -1.343393e-01 -1.001906e-01 1.256760e-02
<VARIANCE> 39
 6.428458e+00 1.273244e+01 1.196264e+01 1.201307e+01 1.259035e+01 1.281475e+01 1.517517e+01 1.537763e+01 1.689783e+01 1.601505e+01 1.671639e+01 1.548095e+01 1.716874e+01 1.914936e-01 3.222227e-01 4.670453e-01 6.611863e-01 7.992820e-01 9.482718e-01 1.117122e+00 1.256457e+00 1.342385e+00 1.315709e+00 1.319694e+00 1.236789e+00 1.492501e-01 2.535423e-02 5.291004e-02 8.581929e-02 1.261597e-01 1.630306e-01 1.885718e-01 2.118662e-01 2.391685e-01 2.628622e-01 2.590470e-01 2.538127e-01 2.386294e-01 1.160093e-02
<GCONST> 7.329208e+01
<MIXTURE> 7 9.838729e-02
<MEAN> 39
 -1.345404e+01 -5.982432e-01 -4.348730e+00 -6.818011e+00 -1.021409e+00 -1.309395e-01 -1.990899e+00 6.223781e-01 -9.805886e-01 2.366661e+00 4.418713e+00 1.517287e+00 5.853458e+01 -3.737280e-02 -1.211645e-01 -2.396579e-01 -3.615281e-01 -3.970148e-01 -4.600718e-01 -4.901045e-01 -4.018770e-01 -2.909027e-01 -1.434815e-01 -4.285548e-04 7.109912e-02 1.372734e-01 1.828645e-02 -8.684070e-03 1.994169e-03 3.667047e-02 4.757234e-02 5.338151e-02 6.819774e-02 3.383692e-02 -1.735842e-02 -9.753890e-02 -1.343442e-01 -1.001953e-01 1.256402e-02
<VARIANCE> 39
 6.428035e+00 1.273227e+01 1.196218e+01 1.201260e+01 1.259001e+01 1.281438e+01 1.517483e+01 1.537705e+01 1.689715e+01 1.601439e+01 1.671581e+01 1.548063e+01 1.716712e+01 1.914818e-01 3.222130e-01 4.670357e-01 6.611663e-01 7.992709e-01 9.482607e-01 1.117102e+00 1.256433e+00 1.342352e+00 1.315679e+00 1.319666e+00 1.236777e+00 1.492393e-01 2.535310e-02 5.290801e-02 8.581649e-02 1.261549e-01 1.630256e-01 1.885674e-01 2.118607e-01 2.391620e-01 2.628521e-01 2.590382e-01 2.538053e-01 2.386266e-01 1.160007e-02
<GCONST> 7.329084e+01
<MIXTURE> 8 1.398179e-01
<MEAN> 39
 -1.173478e+01 -8.231750e-01 -3.378146e+00 -4.891288e+00 -2.338033e-01 3.083406e-01 8.415532e-02 1.643276e+00 3.561456e-01 1.160203e+00 1.623796e+00 -8.150712e-01 5.806318e+01 2.195861e-01 -8.455465e-02 -1.316226e-01 -2.382696e-01 -4.200142e-01 -5.792080e-01 -5.791250e-01 -4.687754e-01 -3.464442e-01 -2.705710e-01 -2.511781e-01 -1.093644e-01 8.820957e-01 9.923378e-02 9.406126e-03 -3.652949e-02 -7.440341e-02 -1.179259e-01 -1.511041e-01 -1.684932e-01 -1.612992e-01 -1.399204e-01 -6.821050e-02 -1.311884e-02 2.017293e-02 1.093759e-01
<VARIANCE> 39
 1.333084e+01 1.648292e+01 1.506854e+01 1.955183e+01 1.684811e+01 1.657481e+01 1.850911e+01 1.891118e+01 1.847597e+01 1.630682e+01 1.661682e+01 1.548910e+01 3.698296e+01 8.623959e-01 9.160290e-01 9.629229e-01 1.386630e+00 1.525723e+00 1.611046e+00 1.840301e+00 1.998532e+00 1.893937e+00 1.767385e+00 1.905997e+00 1.602689e+00 8.596799e-01 1.078360e-01 1.349772e-01 1.591208e-01 2.353251e-01 2.687227e-01 2.845586e-01 3.209944e-01 3.453406e-01 3.349155e-01 3.096506e-01 3.234350e-01 2.823714e-01 1.409502e-01
<GCONST> 9.463926e+01
<STATE> 3
<NUMMIXES> 8
<MIXTURE> 1 1.492895e-01
<MEAN> 39
 -7.867258e+00 -3.896198e+00 -7.105550e+00 -9.183892e+00 -5.445966e+00 -5.947989e+00 -5.999199e+00 -3.486812e+00 -3.998532e+00 -2.222576e+00 -1.901457e+00 -1.975011e+00 7.355740e+01 1.187303e-01 7.887194e-02 1.703610e-01 2.090655e-01 2.541797e-01 2.922965e-01 2.074853e-01 1.820062e-01 2.043196e-01 1.860904e-01 1.795792e-01 1.548127e-01 -6.881697e-02 4.967724e-02 1.236318e-01 1.499606e-01 2.901160e-01 3.267373e-01 3.842623e-01 3.425392e-01 2.463395e-01 1.670904e-01 9.761655e-02 6.325140e-02 1.158693e-02 -1.412363e-01
<VARIANCE> 39
 8.428814e+00 1.042740e+01 1.232002e+01 1.478900e+01 1.257912e+01 1.064999e+01 1.370044e+01 1.626940e+01 1.878708e+01 1.586652e+01 1.559298e+01 1.413620e+01 4.762485e+01 2.312261e-01 3.423709e-01 5.706713e-01 7.926936e-01 9.600832e-01 1.090873e+00 1.263484e+00 1.372196e+00 1.388117e+00 1.342049e+00 1.349422e+00 1.226893e+00 4.249029e-01 5.076605e-02 7.382799e-02 1.177148e-01 1.500163e-01 1.769618e-01 1.875434e-01 2.245501e-01 2.728687e-01 2.927207e-01 2.876917e-01 2.755108e-01 2.598006e-01 8.932440e-02
<GCONST> 8.080857e+01
<MIXTURE> 2 1.771246e-01
<MEAN> 39
 -7.503568e+00 -2.795918e+00 -5.330703e+00 -5.645288e+00 -1.415839e+00 -1.301529e+00 -1.497757e+00 -4.538247e-01 -1.381404e+00 -1.012001e-01 -1.753904e-01 -1.252582e+00 6.884032e+01 7.893509e-02 7.117471e-02 6.638708e-02 1.386385e-01 1.250979e-01 1.457360e-01 1.070363e-01 5.507667e-02 3.363451e-02 2.404282e-02 2.091102e-02 3.130499e-03 -1.516447e-01 -7.692512e-03 1.513153e-03 -2.329980e-02 -5.707645e-02 -8.676554e-02 -1.132118e-01 -1.166831e-01 -1.040429e-01 -1.049224e-01 -1.004486e-01 -8.016977e-02 -5.451717e-02 -1.889164e-03
<VARIANCE> 39
 1.007002e+01 1.137191e+01 1.098755e+01 1.476734e+01 1.420109e+01 1.336978e+01 1.754259e+01 1.626732e+01 1.815780e+01 1.620703e+01 1.527132e+01 1.381694e+01 7.573451e+01 1.964237e-01 3.070505e-01 4.683909e-01 7.001061e-01 8.750160e-01 1.045117e+00 1.188364e+00 1.270936e+00 1.326241e+00 1.324316e+00 1.261965e+00 1.179292e+00 2.913948e-01 2.970367e-02 5.434717e-02 8.905036e-02 1.294070e-01 1.639875e-01 1.984742e-01 2.289777e-01 2.473127e-01 2.575831e-01 2.610577e-01 2.530969e-01 2.384372e-01 1.934798e-02
<GCONST> 7.725765e+01
<MIXTURE> 3 1.771229e-01
<MEAN> 39
 -7.503573e+00 -2.795927e+00 -5.330646e+00 -5.645239e+00 -1.415759e+00 -1.301414e+00 -1.497604e+00 -4.537347e-01 -1.381324e+00 -1.011570e-01 -1.753650e-01 -1.252605e+00 6.884006e+01 7.893610e-02 7.117602e-02 6.638614e-02 1.386377e-01 1.250956e-01 1.457356e-01 1.070351e-01 5.507591e-02 3.363391e-02 2.404328e-02 2.091075e-02 3.129542e-03 -1.516453e-01 -7.691754e-03 1.513181e-03 -2.330221e-02 -5.708080e-02 -8.677299e-02 -1.132219e-01 -1.166940e-01 -1.040510e-01 -1.049276e-01 -1.004511e-01 -8.017021e-02 -5.451499e-02 -1.887519e-03
<VARIANCE> 39
 1.007016e+01 1.137211e+01 1.098764e+01 1.476752e+01 1.420133e+01 1.337011e+01 1.754318e+01 1.626761e+01 1.815795e+01 1.620719e+01 1.527145e+01 1.381709e+01 7.573621e+01 1.964262e-01 3.070544e-01 4.683965e-01 7.001125e-01 8.750249e-01 1.045127e+00 1.188375e+00 1.270946e+00 1.326251e+00 1.324326e+00 1.261976e+00 1.179299e+00 2.913953e-01 2.970425e-02 5.434822e-02 8.905183e-02 1.294093e-01 1.639906e-01 1.984780e-01 2.289824e-01 2.473161e-01 2.575863e-01 2.610609e-01 2.531001e-01 2.384384e-01 1.934843e-02
<GCONST> 7.725816e+01
<MIXTURE> 4 8.560143e-02
<MEAN> 39
 -7.101238e+00 -9.098587e-01 -5.570835e+00 -6.260434e+00 -2.827162e+00 -3.021275e+00 -4.115806e+00 -2.403700e+00 -4.070467e+00 -2.905823e+00 -2.494730e+00 -3.063368e+00 6.933834e+01 2.221751e-01 -2.648019e-02 -1.825483e-01 -2.562402e-01 -3.955819e-01 -4.254481e-01 -3.075455e-01 -2.809911e-01 -2.107942e-01 -2.169120e-01 -2.612635e-01 -1.582604e-01 5.665282e-01 -8.681010e-02 -9.477356e-02 -2.243802e-02 -2.321634e-02 3.230090e-02 6.276417e-02 9.845666e-02 1.242381e-01 1.619122e-01 1.975718e-01 1.906986e-01 1.385575e-01 -1.126687e-02
<VARIANCE> 39
 8.086834e+00 9.841029e+00 1.233400e+01 1.334405e+01 1.371240e+01 1.142059e+01 1.352125e+01 1.486956e+01 1.623348e+01 1.405763e+01 1.430755e+01 1.240643e+01 4.644051e+01 5.433931e-01 5.622057e-01 6.869033e-01 9.348009e-01 1.046099e+00 1.144439e+00 1.322180e+00 1.401870e+00 1.474452e+00 1.435204e+00 1.358959e+00 1.249736e+00 7.453617e-01 5.928325e-02 8.498871e-02 1.215535e-01 1.659221e-01 1.955375e-01 2.074693e-01 2.330374e-01 2.535298e-01 2.647240e-01 2.527026e-01 2.456879e-01 2.329495e-01 6.536271e-02
<GCONST> 8.259483e+01
<MIXTURE> 5 1.771234e-01
<MEAN> 39
 -7.503540e+00 -2.795888e+00 -5.330709e+00 -5.645299e+00 -1.415888e+00 -1.301613e+00 -1.497871e+00 -4.538984e-01 -1.381457e+00 -1.012250e-01 -1.753921e-01 -1.252569e+00 6.884042e+01 7.893402e-02 7.117452e-02 6.638785e-02 1.386395e-01 1.250994e-01 1.457366e-01 1.070382e-01 5.507858e-02 3.363673e-02 2.404464e-02 2.091379e-02 3.132590e-03 -1.516457e-01 -7.694409e-03 1.511071e-03 -2.330037e-02 -5.707489e-02 -8.675957e-02 -1.132021e-01 -1.166726e-01 -1.040349e-01 -1.049179e-01 -1.004474e-01 -8.017091e-02 -5.451897e-02 -1.889770e-03
<VARIANCE> 39
 1.006987e+01 1.137187e+01 1.098751e+01 1.476725e+01 1.420093e+01 1.336958e+01 1.754228e+01 1.626707e+01 1.815763e+01 1.620692e+01 1.527124e+01 1.381681e+01 7.573383e+01 1.964222e-01 3.070500e-01 4.683898e-01 7.001036e-01 8.750147e-01 1.045115e+00 1.188365e+00 1.270935e+00 1.326238e+00 1.324311e+00 1.261965e+00 1.179294e+00 2.913937e-01 2.970334e-02 5.434646e-02 8.904962e-02 1.294062e-01 1.639860e-01 1.984720e-01 2.289754e-01 2.473103e-01 2.575805e-01 2.610564e-01 2.530962e-01 2.384349e-01 1.934757e-02
<GCONST> 7.725737e+01
<MIXTURE> 6 8.560281e-02
<MEAN> 39
 -7.101379e+00 -9.097956e-01 -5.570560e+00 -6.260059e+00 -2.826805e+00 -3.021109e+00 -4.115932e+00 -2.404028e+00 -4.070827e+00 -2.906075e+00 -2.494826e+00 -3.063369e+00 6.933804e+01 2.221870e-01 -2.644929e-02 -1.825296e-01 -2.562168e-01 -3.955677e-01 -4.254351e-01 -3.075419e-01 -2.809909e-01 -2.107930e-01 -2.169184e-01 -2.612706e-01 -1.582678e-01 5.664950e-01 -8.680078e-02 -9.477960e-02 -2.246511e-02 -2.325257e-02 3.226415e-02 6.274818e-02 9.847439e-02 1.242752e-01 1.619523e-01 1.976002e-01 1.907087e-01 1.385567e-01 -1.125483e-02
<VARIANCE> 39
 8.086988e+00 9.841149e+00 1.233439e+01 1.334393e+01 1.371259e+01 1.142075e+01 1.352134e+01 1.486975e+01 1.623359e+01 1.405769e+01 1.430762e+01 1.240658e+01 4.644147e+01 5.434043e-01 5.622165e-01 6.869129e-01 9.348070e-01 1.046116e+00 1.144452e+00 1.322190e+00 1.401890e+00 1.474467e+00 1.435226e+00 1.358984e+00 1.249747e+00 7.453610e-01 5.928276e-02 8.498903e-02 1.215549e-01 1.659216e-01 1.955377e-01 2.074717e-01 2.330405e-01 2.535333e-01 2.647268e-01 2.527048e-01 2.456890e-01 2.329504e-01 6.536360e-02
<GCONST> 8.259522e+01
<MIXTURE> 7 8.560801e-02
<MEAN> 39
 -7.101251e+00 -9.098529e-01 -5.570799e+00 -6.260288e+00 -2.827125e+00 -3.021293e+00 -4.115990e+00 -2.403979e+00 -4.070837e+00 -2.906191e+00 -2.495066e+00 -3.063534e+00 6.933851e+01 2.221653e-01 -2.647025e-02 -1.825362e-01 -2.562248e-01 -3.955705e-01 -4.254443e-01 -3.075571e-01 -2.810109e-01 -2.108143e-01 -2.169259e-01 -2.612658e-01 -1.582591e-01 5.664669e-01 -8.680277e-02 -9.476963e-02 -2.244607e-02 -2.322651e-02 3.229273e-02 6.276485e-02 9.847131e-02 1.242645e-01 1.619494e-01 1.976131e-01 1.907329e-01 1.385761e-01 -1.126826e-02
<VARIANCE> 39
 8.086784e+00 9.841050e+00 1.233413e+01 1.334375e+01 1.371218e+01 1.142060e+01 1.352114e+01 1.486959e+01 1.623358e+01 1.405762e+01 1.430747e+01 1.240637e+01 4.644081e+01 5.433552e-01 5.621827e-01 6.868797e-01 9.347653e-01 1.046084e+00 1.144422e+00 1.322173e+00 1.401876e+00 1.474457e+00 1.435219e+00 1.358970e+00 1.249735e+00 7.453526e-01 5.927814e-02 8.498375e-02 1.215487e-01 1.659153e-01 1.955310e-01 2.074669e-01 2.330365e-01 2.535295e-01 2.647225e-01 2.527026e-01 2.456866e-01 2.329460e-01 6.535496e-02
<GCONST> 8.259418e+01
<MIXTURE> 8 6.247928e-02
<MEAN> 39
 -1.017412e+01 -4.856812e+00 -4.330869e+00 -6.621470e+00 -2.103987e+00 -2.974390e+00 -1.705582e+00 -1.059111e+00 -1.803881e+00 -1.012221e+00 -6.657592e-01 -1.661692e+00 6.679041e+01 -1.845171e-01 -6.753063e-01 -1.549891e-01 -4.846220e-01 -4.139159e-01 -6.817874e-01 -3.723708e-01 -2.195357e-01 -1.374675e-01 -2.211470e-01 -2.787039e-01 -4.240448e-02 1.646379e+00 1.306998e-01 1.566826e-01 2.993703e-02 2.724222e-02 8.393848e-02 9.087706e-02 -6.064299e-03 -1.486404e-02 -1.650835e-02 3.988772e-03 1.779841e-02 -1.146606e-03 -1.915368e-01
<VARIANCE> 39
 2.223579e+01 2.451967e+01 2.162140e+01 2.567447e+01 2.577993e+01 2.586624e+01 2.826536e+01 2.667255e+01 2.842577e+01 2.194649e+01 1.996146e+01 1.877036e+01 8.532762e+01 1.598827e+00 2.018445e+00 1.594055e+00 2.063904e+00 2.104891e+00 2.356360e+00 2.238931e+00 2.396957e+00 2.380409e+00 2.174042e+00 2.003000e+00 1.854102e+00 2.960040e+00 2.157006e-01 3.447411e-01 2.982881e-01 3.759979e-01 3.984749e-01 4.834011e-01 4.406202e-01 4.420796e-01 4.587015e-01 4.219165e-01 4.048599e-01 3.553224e-01 7.043971e-01
<GCONST> 1.119178e+02
<STATE> 4
<NUMMIXES> 8
<MIXTURE> 1 1.033234e-01
<MEAN> 39
 -7.810177e+00 2.357171e+00 -1.327288e-01 -1.398721e+00 3.068135e+00 2.880194e+00 1.758982e+00 1.968743e+00 -1.054542e-01 -5.216720e-01 8.534878e-03 -2.022154e+00 5.647987e+01 -4.337963e-02 1.561601e-02 4.649870e-02 4.436130e-02 5.595963e-02 8.394291e-02 1.311083e-01 1.362860e-01 1.077817e-01 4.993575e-02 1.200198e-02 -2.124908e-02 -2.771750e-01 2.738506e-02 -3.117433e-03 -4.838615e-02 -1.014836e-01 -1.783246e-01 -2.345872e-01 -2.449195e-01 -2.085376e-01 -1.366209e-01 -6.139280e-02 -2.062940e-02 9.016495e-03 3.445677e-02
<VARIANCE> 39
 2.023258e+01 1.065062e+01 1.189710e+01 1.120618e+01 1.004591e+01 1.078110e+01 1.405970e+01 1.528890e+01 1.695112e+01 1.587189e+01 1.484759e+01 1.388208e+01 4.018971e+01 1.951773e-01 2.848691e-01 4.395744e-01 6.705844e-01 8.573607e-01 1.052931e+00 1.188491e+00 1.331509e+00 1.393110e+00 1.355299e+00 1.309334e+00 1.174368e+00 1.458117e-01 2.419611e-02 4.755860e-02 7.645854e-02 1.224379e-01 1.552761e-01 1.883092e-01 2.086412e-01 2.363739e-01 2.579200e-01 2.587782e-01 2.518353e-01 2.320761e-01 1.047889e-02
<GCONST> 7.391596e+01
<MIXTURE> 2 1.464445e-01
<MEAN> 39
 -4.839939e+00 1.657946e+00 -1.926507e+00 -3.120630e+00 3.012585e-01 -9.769715e-01 -2.592854e+00 -2.173498e+00 -3.187687e+00 -2.392324e+00 -1.112715e+00 -2.390712e+00 6.316815e+01 3.040858e-02 1.082720e-01 1.291875e-01 1.507003e-01 1.423215e-01 1.132753e-01 8.839504e-02 2.901491e-02 1.246603e-03 3.047017e-03 2.163904e-02 6.442516e-03 -4.097435e-01 -1.953420e-02 -3.699490e-02 -5.997157e-02 -7.871848e-02 -7.761244e-02 -4.281251e-02 7.593252e-03 4.255742e-02 4.178755e-02 2.655634e-02 5.625821e-03 -2.039201e-03 1.554187e-02
<VARIANCE> 39
 1.102366e+01 8.660364e+00 7.748615e+00 8.430109e+00 9.207625e+00 1.033772e+01 1.346235e+01 1.585428e+01 1.726903e+01 1.552816e+01 1.464712e+01 1.303965e+01 5.140366e+01 1.649376e-01 2.612570e-01 4.080384e-01 6.114644e-01 8.100541e-01 9.729266e-01 1.132793e+00 1.226275e+00 1.305274e+00 1.283230e+00 1.247884e+00 1.144086e+00 1.681265e-01 2.293018e-02 4.500328e-02 7.473636e-02 1.119354e-01 1.485303e-01 1.802890e-01 2.157173e-01 2.361140e-01 2.550686e-01 2.536593e-01 2.469905e-01 2.291321e-01 1.165957e-02
<GCONST> 7.144588e+01
<MIXTURE> 3 1.464405e-01
<MEAN> 39
 -4.839914e+00 1.657845e+00 -1.926640e+00 -3.120739e+00 3.011899e-01 -9.769390e-01 -2.592691e+00 -2.173265e+00 -3.187395e+00 -2.392065e+00 -1.112545e+00 -2.390604e+00 6.316838e+01 3.041243e-02 1.082750e-01 1.291912e-01 1.507097e-01 1.423330e-01 1.132864e-01 8.840445e-02 2.902247e-02 1.253742e-03 3.052439e-03 2.164214e-02 6.442197e-03 -4.097447e-01 -1.953352e-02 -3.699144e-02 -5.996608e-02 -7.871348e-02 -7.761120e-02 -4.281963e-02 7.576662e-03 4.253496e-02 4.176170e-02 2.653158e-02 5.607194e-03 -2.049269e-03 1.554111e-02
<VARIANCE> 39
 1.102351e+01 8.660239e+00 7.748438e+00 8.430034e+00 9.207458e+00 1.033753e+01 1.346220e+01 1.585425e+01 1.726898e+01 1.552812e+01 1.464702e+01 1.303947e+01 5.140375e+01 1.649359e-01 2.612556e-01 4.080376e-01 6.114662e-01 8.100563e-01 9.729291e-01 1.132796e+00 1.226278e+00 1.305272e+00 1.283229e+00 1.247878e+00 1.144082e+00 1.681275e-01 2.293024e-02 4.500352e-02 7.473671e-02 1.119357e-01 1.485299e-01 1.802892e-01 2.157179e-01 2.361145e-01 2.550678e-01 2.536600e-01 2.469895e-01 2.291304e-01 1.165981e-02
<GCONST> 7.144576e+01
<MIXTURE> 4 1.232932e-01
<MEAN> 39
 -4.500041e+00 -8.993703e-01 -5.172804e+00 -7.113258e+00 -3.704761e+00 -4.095456e+00 -4.216577e+00 -2.565772e+00 -3.046971e+00 -2.601841e+00 -1.821269e+00 -2.700424e+00 7.133165e+01 6.358818e-02 3.618487e-02 5.366151e-02 8.997694e-02 7.054126e-02 4.064970e-02 2.524352e-02 -1.371208e-02 5.654901e-05 -5.269383e-03 1.310430e-02 1.395484e-02 -1.752388e-01 -9.833761e-03 3.025812e-02 6.650320e-02 1.057405e-01 1.380187e-01 1.333941e-01 9.999478e-02 6.074733e-02 3.892342e-02 3.666501e-02 2.911665e-02 8.975283e-03 -3.434722e-02
<VARIANCE> 39
 4.051770e+00 6.852681e+00 6.600558e+00 8.869595e+00 8.880985e+00 9.586219e+00 1.298999e+01 1.515271e+01 1.543587e+01 1.380695e+01 1.343677e+01 1.180951e+01 3.169489e+01 1.474419e-01 2.626886e-01 4.268596e-01 6.333252e-01 8.103452e-01 9.552895e-01 1.129510e+00 1.215079e+00 1.256607e+00 1.236310e+00 1.198863e+00 1.100544e+00 2.705379e-01 2.589967e-02 4.855948e-02 7.948581e-02 1.164147e-01 1.461961e-01 1.780469e-01 2.183705e-01 2.363415e-01 2.482635e-01 2.453536e-01 2.412274e-01 2.237189e-01 2.193720e-02
<GCONST> 7.008298e+01
<MIXTURE> 5 1.464406e-01
<MEAN> 39
 -4.839777e+00 1.657800e+00 -1.926771e+00 -3.120918e+00 3.009927e-01 -9.770724e-01 -2.592594e+00 -2.172963e+00 -3.186903e+00 -2.391523e+00 -1.112068e+00 -2.390298e+00 6.316840e+01 3.041757e-02 1.082828e-01 1.292003e-01 1.507247e-01 1.423481e-01 1.132987e-01 8.840834e-02 2.902053e-02 1.247527e-03 3.047793e-03 2.164106e-02 6.439305e-03 -4.097610e-01 -1.953664e-02 -3.698875e-02 -5.995497e-02 -7.869275e-02 -7.758592e-02 -4.279979e-02 7.574064e-03 4.250627e-02 4.171052e-02 2.647018e-02 5.551612e-03 -2.082896e-03 1.553939e-02
<VARIANCE> 39
 1.102345e+01 8.660168e+00 7.748107e+00 8.429758e+00 9.207190e+00 1.033723e+01 1.346185e+01 1.585392e+01 1.726851e+01 1.552750e+01 1.464625e+01 1.303889e+01 5.140359e+01 1.649296e-01 2.612497e-01 4.080330e-01 6.114599e-01 8.100430e-01 9.729132e-01 1.132793e+00 1.226269e+00 1.305261e+00 1.283220e+00 1.247866e+00 1.144081e+00 1.681240e-01 2.292894e-02 4.500187e-02 7.473416e-02 1.119329e-01 1.485265e-01 1.802841e-01 2.157119e-01 2.361085e-01 2.550595e-01 2.536502e-01 2.469763e-01 2.291220e-01 1.165903e-02
<GCONST> 7.144475e+01
<MIXTURE> 6 1.232868e-01
<MEAN> 39
 -4.500347e+00 -8.998088e-01 -5.173312e+00 -7.113985e+00 -3.705379e+00 -4.095866e+00 -4.216685e+00 -2.565398e+00 -3.046354e+00 -2.601046e+00 -1.820536e+00 -2.699903e+00 7.133170e+01 6.358100e-02 3.618770e-02 5.370729e-02 9.003499e-02 7.062257e-02 4.074122e-02 2.533187e-02 -1.364161e-02 1.254062e-04 -5.229397e-03 1.313343e-02 1.397240e-02 -1.752341e-01 -9.803113e-03 3.030582e-02 6.656662e-02 1.058314e-01 1.381061e-01 1.334622e-01 1.000238e-01 6.072351e-02 3.885962e-02 3.657328e-02 2.902593e-02 8.914461e-03 -3.435799e-02
<VARIANCE> 39
 4.052288e+00 6.853136e+00 6.601470e+00 8.871344e+00 8.882376e+00 9.587413e+00 1.299106e+01 1.515405e+01 1.543698e+01 1.380794e+01 1.343789e+01 1.181030e+01 3.169710e+01 1.474514e-01 2.627090e-01 4.268977e-01 6.333806e-01 8.103945e-01 9.553366e-01 1.129562e+00 1.215160e+00 1.256683e+00 1.236379e+00 1.198914e+00 1.100577e+00 2.705378e-01 2.590404e-02 4.856728e-02 7.949996e-02 1.164355e-01 1.462169e-01 1.780705e-01 2.183957e-01 2.363652e-01 2.482875e-01 2.453774e-01 2.412498e-01 2.237359e-01 2.194297e-02
<GCONST> 7.008685e+01
<MIXTURE> 7 1.232868e-01
<MEAN> 39
 -4.500347e+00 -8.998088e-01 -5.173312e+00 -7.113985e+00 -3.705379e+00 -4.095866e+00 -4.216685e+00 -2.565398e+00 -3.046354e+00 -2.601046e+00 -1.820536e+00 -2.699903e+00 7.133170e+01 6.358100e-02 3.618770e-02 5.370729e-02 9.003499e-02 7.062257e-02 4.074122e-02 2.533187e-02 -1.364161e-02 1.254062e-04 -5.229397e-03 1.313343e-02 1.397240e-02 -1.752341e-01 -9.803113e-03 3.030582e-02 6.656662e-02 1.058314e-01 1.381061e-01 1.334622e-01 1.000238e-01 6.072351e-02 3.885962e-02 3.657328e-02 2.902593e-02 8.914461e-03 -3.435799e-02
<VARIANCE> 39
 4.052288e+00 6.853136e+00 6.601470e+00 8.871344e+00 8.882376e+00 9.587413e+00 1.299106e+01 1.515405e+01 1.543698e+01 1.380794e+01 1.343789e+01 1.181030e+01 3.169710e+01 1.474514e-01 2.627090e-01 4.268977e-01 6.333806e-01 8.103945e-01 9.553366e-01 1.129562e+00 1.215160e+00 1.256683e+00 1.236379e+00 1.198914e+00 1.100577e+00 2.705378e-01 2.590404e-02 4.856728e-02 7.949996e-02 1.164355e-01 1.462169e-01 1.780705e-01 2.183957e-01 2.363652e-01 2.482875e-01 2.453774e-01 2.412498e-01 2.237359e-01 2.194297e-02
<GCONST> 7.008685e+01
<MIXTURE> 8 8.728135e-02
<MEAN> 39
 -6.435584e+00 -5.315346e-02 -3.962673e+00 -5.319533e+00 -1.309307e+00 -1.178862e+00 -1.052365e+00 5.358626e-01 -3.813640e-01 5.461930e-03 -7.387620e-02 -2.089775e+00 6.721679e+01 1.668221e-03 -2.330195e-01 -2.404661e-01 -3.934560e-01 -4.390477e-01 -4.473195e-01 -2.877674e-01 -2.180640e-01 -8.529855e-02 -5.239718e-02 -8.300121e-02 -1.024801e-02 3.261455e-01 5.105970e-02 4.146091e-02 6.301907e-02 4.952861e-02 7.893934e-03 -5.713921e-02 -1.555209e-01 -1.994271e-01 -1.997843e-01 -1.829920e-01 -1.047657e-01 -2.630314e-02 -1.907415e-02
<VARIANCE> 39
 1.209294e+01 9.800017e+00 1.183130e+01 1.414026e+01 1.276232e+01 1.340638e+01 1.503502e+01 1.807285e+01 1.854135e+01 1.659463e+01 1.559035e+01 1.374194e+01 5.936052e+01 4.524148e-01 5.379722e-01 7.418736e-01 1.032519e+00 1.213122e+00 1.238126e+00 1.414342e+00 1.539692e+00 1.599184e+00 1.473710e+00 1.384699e+00 1.282144e+00 6.435136e-01 6.641514e-02 9.790360e-02 1.392337e-01 2.037843e-01 2.371783e-01 2.583746e-01 2.767855e-01 3.015386e-01 3.170777e-01 3.026093e-01 2.904813e-01 2.599156e-01 1.144042e-01
<GCONST> 8.702557e+01
<TRANSP> 5
 0.000000e+00 1.000000e+00 0.000000e+00 0.000000e+00 0.000000e+00
 0.000000e+00 9.682515e-01 3.174856e-02 0.000000e+00 0.000000e+00
 0.000000e+00 0.000000e+00 9.705114e-01 2.948868e-02 0.000000e+00
 0.000000e+00 0.000000e+00 0.000000e+00 9.815479e-01 1.845209e-02
 0.000000e+00 0.000000e+00 0.000000e+00 0.000000e+00 0.000000e+00
<ENDHMM>
~h "co"
<BEGINHMM>
<NUMSTATES> 5
<STATE> 2
<NUMMIXES> 8
<MIXTURE> 1 2.817299e-01
<MEAN> 39
 -1.155629e+01 -5.408196e+00 9.735340e-01 -4.452977e+00 -8.549620e+00 -6.581539e+00 -1.621349e+00 -2.000105e+00 -4.273808e+00 -5.254372e+00 -1.881789e+00 -5.777291e+00 7.297165e+01 -2.293613e-01 -2.915189e-01 -2.285875e-01 2.863956e-01 8.439882e-01 1.513975e-01 4.805090e-01 -2.040470e-01 -2.911511e-02 3.187459e-01 5.141311e-01 3.389899e-01 1.873212e-01 2.495141e-01 -1.144872e-01 -2.175056e-01 -3.054628e-02 -1.813702e-01 -7.522358e-02 -2.402230e-01 -7.557142e-02 2.220357e-02 3.457559e-02 -1.335461e-01 -6.427616e-02 -3.507027e-01
<VARIANCE> 39
 1.172304e+01 1.509013e+01 1.721775e+01 1.689379e+01 2.864709e+01 4.130740e+01 3.402189e+01 6.981938e+01 3.185230e+01 2.369547e+01 2.433824e+01 2.055905e+01 8.019180e+01 2.833629e-01 4.029377e-01 8.346546e-01 8.621796e-01 1.343114e+00 1.503907e+00 1.552781e+00 1.730060e+00 1.802204e+00 1.850465e+00 1.592245e+00 1.513854e+00 3.077501e-01 5.805383e-02 1.120794e-01 1.471847e-01 1.860316e-01 2.158251e-01 2.869617e-01 3.425311e-01 3.161406e-01 3.195891e-01 3.242363e-01 2.851132e-01 2.951205e-01 7.507025e-02
<GCONST> 9.372981e+01
<MIXTURE> 2 1.161588e-01
<MEAN> 39
 -9.913078e+00 -6.784475e+00 -6.148793e-02 -5.880699e+00 -1.257160e+01 -8.048831e+00 -3.951606e+00 -2.234678e+00 -4.884978e+00 -6.659565e+00 -4.863572e+00 -7.051003e+00 7.247185e+01 -1.055064e+00 7.119538e-01 4.534591e-01 -2.441625e-01 6.874385e-01 -1.667952e-01 5.801689e-01 -5.744377e-01 -8.133144e-01 -4.360658e-01 3.022155e-01 1.876066e-01 2.024866e+00 1.153992e-01 -2.141111e-01 -2.184678e-01 3.146912e-01 3.036851e-01 2.865509e-01 1.282530e-01 2.019095e-01 3.817255e-01 3.912204e-01 2.869696e-01 1.222935e-01 -6.863859e-01
<VARIANCE> 39
 1.318436e+01 1.698559e+01 3.011820e+01 2.767699e+01 3.666523e+01 3.906195e+01 6.459644e+01 7.191547e+01 3.980529e+01 3.108307e+01 3.028965e+01 3.254062e+01 2.745721e+01 6.215376e-01 1.684210e+00 1.709764e+00 2.068726e+00 2.173185e+00 2.491438e+00 3.311800e+00 2.597054e+00 2.779070e+00 2.801108e+00 2.068199e+00 2.131166e+00 1.126317e+00 1.299087e-01 2.245640e-01 3.099120e-01 3.009014e-01 3.339648e-01 4.067997e-01 4.397936e-01 4.243085e-01 4.348072e-01 3.963745e-01 3.790949e-01 3.474768e-01 2.113868e-01
<GCONST> 1.107347e+02
<MIXTURE> 3 1.161390e-01
<MEAN> 39
 -9.914727e+00 -6.786045e+00 -5.960186e-02 -5.879206e+00 -1.256821e+01 -8.046133e+00 -3.949491e+00 -2.234508e+00 -4.884156e+00 -6.659422e+00 -4.863800e+00 -7.049274e+00 7.246934e+01 -1.054912e+00 7.113706e-01 4.532304e-01 -2.437954e-01 6.869510e-01 -1.666013e-01 5.799564e-01 -5.748113e-01 -8.131515e-01 -4.358498e-01 3.023902e-01 1.876386e-01 2.024784e+00 1.155622e-01 -2.139047e-01 -2.185963e-01 3.144340e-01 3.035364e-01 2.862898e-01 1.280766e-01 2.018354e-01 3.816907e-01 3.912648e-01 2.868797e-01 1.221245e-01 -6.862848e-01
<VARIANCE> 39
 1.319708e+01 1.699007e+01 3.011909e+01 2.767529e+01 3.667366e+01 3.907128e+01 6.460677e+01 7.189088e+01 3.980618e+01 3.108515e+01 3.029399e+01 3.253977e+01 2.746092e+01 6.218300e-01 1.683794e+00 1.709619e+00 2.068368e+00 2.172695e+00 2.491367e+00 3.311095e+00 2.597156e+00 2.778799e+00 2.801010e+00 2.068367e+00 2.130836e+00 1.126509e+00 1.300859e-01 2.245533e-01 3.099045e-01 3.008470e-01 3.339076e-01 4.069151e-01 4.397964e-01 4.242920e-01 4.347949e-01 3.963633e-01 3.791685e-01 3.474649e-01 2.114225e-01
<GCONST> 1.107375e+02
<MIXTURE> 4 7.465180e-02
<MEAN> 39
 -6.745649e+00 -4.726484e+00 -1.612069e+00 -1.940237e+00 -4.040642e+00 -1.392934e-01 -4.664609e-01 2.615265e+00 2.940369e+00 9.989918e-01 -4.058506e-01 -3.650901e+00 5.237261e+01 -1.818381e-01 -1.096952e+00 2.008892e-01 -1.983423e-01 -1.777516e+00 -1.389320e+00 -8.781965e-01 -4.992041e-01 -5.208129e-01 -7.008032e-01 -6.997449e-01 -4.271450e-01 2.458605e+00 -4.808668e-02 -3.228831e-02 6.995392e-02 -1.313742e-01 -2.270606e-01 -2.164341e-01 -1.363170e-01 -1.749909e-01 -3.046528e-01 -2.330725e-01 -1.448057e-01 -1.090145e-01 6.107169e-01
<VARIANCE> 39
 2.831321e+01 3.368018e+01 2.255870e+01 2.598170e+01 7.209886e+01 3.834033e+01 6.765906e+01 4.705894e+01 3.758667e+01 2.530832e+01 3.187283e+01 2.441494e+01 6.459558e+01 1.863211e+00 2.208747e+00 2.110275e+00 2.552788e+00 4.587631e+00 4.083607e+00 4.305987e+00 3.970720e+00 3.554922e+00 2.987636e+00 2.538230e+00 2.327526e+00 3.542888e+00 1.730055e-01 2.256964e-01 1.906523e-01 2.309248e-01 4.736201e-01 4.961539e-01 4.929756e-01 4.058993e-01 4.000480e-01 3.199718e-01 3.375572e-01 2.994514e-01 3.558802e-01
<GCONST> 1.180525e+02
<MIXTURE> 5 1.161672e-01
<MEAN> 39
 -9.910638e+00 -6.781834e+00 -6.562617e-02 -5.880871e+00 -1.257513e+01 -8.051542e+00 -3.955302e+00 -2.233649e+00 -4.884844e+00 -6.662407e+00 -4.864280e+00 -7.052998e+00 7.247594e+01 -1.054821e+00 7.125893e-01 4.533195e-01 -2.442926e-01 6.883582e-01 -1.670512e-01 5.804667e-01 -5.739527e-01 -8.129556e-01 -4.356627e-01 3.021506e-01 1.872959e-01 2.024021e+00 1.151616e-01 -2.146599e-01 -2.180645e-01 3.147036e-01 3.034517e-01 2.864513e-01 1.282811e-01 2.017342e-01 3.815505e-01 3.911280e-01 2.868752e-01 1.224442e-01 -6.860523e-01
<VARIANCE> 39
 1.316535e+01 1.698198e+01 3.011469e+01 2.768121e+01 3.664441e+01 3.905919e+01 6.460047e+01 7.194703e+01 3.981616e+01 3.107872e+01 3.029091e+01 3.254090e+01 2.746131e+01 6.207814e-01 1.683309e+00 1.709238e+00 2.069208e+00 2.172955e+00 2.491334e+00 3.312248e+00 2.596986e+00 2.778620e+00 2.800813e+00 2.067792e+00 2.131684e+00 1.125371e+00 1.294820e-01 2.244948e-01 3.097630e-01 3.008395e-01 3.337429e-01 4.063757e-01 4.397172e-01 4.241534e-01 4.347267e-01 3.962435e-01 3.788212e-01 3.474009e-01 2.112723e-01
<GCONST> 1.107218e+02
<MIXTURE> 6 7.370234e-02
<MEAN> 39
 -6.801492e+00 -4.863881e+00 -1.688950e+00 -1.840537e+00 -4.376693e+00 -2.747384e-01 -7.775060e-01 2.396025e+00 3.038656e+00 9.664347e-01 -4.058365e-01 -3.755255e+00 5.269819e+01 -1.826939e-01 -1.068218e+00 2.075209e-01 -2.171370e-01 -1.737328e+00 -1.393031e+00 -8.642585e-01 -5.077851e-01 -5.267573e-01 -7.336735e-01 -7.060274e-01 -4.231330e-01 2.457929e+00 -4.869013e-02 -2.178959e-02 7.170378e-02 -1.320613e-01 -2.059542e-01 -2.030168e-01 -1.166205e-01 -1.641756e-01 -3.041250e-01 -2.310361e-01 -1.362129e-01 -9.818545e-02 5.893156e-01
<VARIANCE> 39
 2.877426e+01 3.350672e+01 2.319860e+01 2.661066e+01 7.575784e+01 3.916225e+01 7.134554e+01 4.947526e+01 3.953275e+01 2.583148e+01 3.280457e+01 2.518332e+01 6.531572e+01 1.871454e+00 2.179263e+00 2.119370e+00 2.540900e+00 4.556821e+00 4.028732e+00 4.238017e+00 3.940477e+00 3.544688e+00 2.966203e+00 2.509455e+00 2.299738e+00 3.486135e+00 1.728725e-01 2.198299e-01 1.896336e-01 2.283450e-01 4.658430e-01 4.889320e-01 4.843505e-01 3.994018e-01 3.977465e-01 3.158157e-01 3.345464e-01 2.959872e-01 3.485722e-01
<GCONST> 1.181593e+02
<MIXTURE> 7 7.440444e-02
<MEAN> 39
 -6.661306e+00 -4.720945e+00 -1.646594e+00 -1.899575e+00 -4.135759e+00 -1.362067e-01 -5.445791e-01 2.580821e+00 2.955174e+00 9.768627e-01 -4.234620e-01 -3.699847e+00 5.235550e+01 -1.809224e-01 -1.091266e+00 2.056718e-01 -1.987479e-01 -1.765414e+00 -1.392392e+00 -8.807770e-01 -5.045540e-01 -5.248157e-01 -7.101281e-01 -7.040341e-01 -4.319261e-01 2.461401e+00 -5.602466e-02 -3.117394e-02 7.400941e-02 -1.304712e-01 -2.184081e-01 -2.116237e-01 -1.313314e-01 -1.758387e-01 -3.058832e-01 -2.323207e-01 -1.419957e-01 -1.052117e-01 6.102627e-01
<VARIANCE> 39
 2.718724e+01 3.354380e+01 2.277557e+01 2.612766e+01 7.304457e+01 3.844494e+01 6.877388e+01 4.766693e+01 3.798497e+01 2.545513e+01 3.221810e+01 2.461831e+01 6.373964e+01 1.803775e+00 2.208749e+00 2.113125e+00 2.544832e+00 4.568982e+00 4.053669e+00 4.304101e+00 3.952065e+00 3.546655e+00 2.982430e+00 2.529416e+00 2.321800e+00 3.514253e+00 1.617235e-01 2.237101e-01 1.886876e-01 2.290648e-01 4.690111e-01 4.895085e-01 4.908741e-01 3.986456e-01 3.940423e-01 3.181261e-01 3.362876e-01 2.980426e-01 3.458993e-01
<GCONST> 1.178230e+02
<MIXTURE> 8 1.470433e-01
<MEAN> 39
 -6.058084e+00 -1.106608e+01 -3.354079e+00 -2.720510e+00 -1.580239e+01 -6.636646e+00 -6.226417e+00 2.821063e-01 -9.055725e-02 -2.409154e+00 -2.919088e+00 -7.601743e+00 6.491972e+01 -6.330157e-01 -1.542086e-01 4.388991e-01 -1.481760e+00 -1.818211e+00 -1.905994e+00 -1.304471e+00 -1.578153e+00 -1.698295e+00 -1.641936e+00 -1.106558e+00 -1.109656e+00 5.037971e+00 -3.194132e-01 8.998641e-01 2.681189e-01 -7.184743e-02 1.054586e+00 4.298946e-01 6.859637e-01 1.461041e-01 -1.921768e-01 -5.997694e-02 2.524533e-01 3.199188e-01 -3.675706e-01
<VARIANCE> 39
 1.276495e+01 4.876831e+01 3.177331e+01 4.639442e+01 5.074587e+01 5.781479e+01 1.169923e+02 7.899826e+01 5.638287e+01 5.494302e+01 4.057196e+01 4.268504e+01 3.852137e+01 1.138739e+00 4.738417e+00 2.994059e+00 3.356300e+00 5.891023e+00 3.250610e+00 4.833962e+00 4.031407e+00 4.120376e+00 2.745288e+00 2.522655e+00 2.452173e+00 1.906025e+00 1.879694e-01 5.807594e-01 4.459314e-01 6.545539e-01 5.225002e-01 7.621490e-01 1.118602e+00 7.422281e-01 8.109210e-01 7.543887e-01 5.586468e-01 5.924210e-01 4.106020e-01
<GCONST> 1.294369e+02
<STATE> 3
<NUMMIXES> 8
<MIXTURE> 1 1.483437e-01
<MEAN> 39
 -2.176903e+00 -4.048855e+00 -6.221017e-02 -2.206393e+00 -3.203013e+00 -8.042026e+00 -7.681399e+00 -9.215516e+00 -6.399107e+00 -3.307019e+00 -2.473706e+00 -7.040935e+00 5.851038e+01 1.658530e-01 2.300841e-01 2.226564e-01 1.845423e-01 3.079961e-01 3.568364e-01 2.782867e-01 2.913205e-01 1.334836e-01 8.982490e-02 5.460823e-02 1.285336e-01 -7.439936e-01 -9.293433e-02 -1.152777e-01 -1.000973e-01 -5.589450e-02 -1.280981e-01 3.572577e-02 1.160884e-01 2.309197e-01 2.140497e-01 1.056222e-01 2.626784e-02 1.709714e-02 6.572239e-02
<VARIANCE> 39
 5.858571e+00 8.313766e+00 1.261205e+01 1.361091e+01 1.664550e+01 2.344908e+01 2.534370e+01 5.221871e+01 3.174330e+01 3.387222e+01 2.595575e+01 2.975716e+01 2.796677e+01 1.544040e-01 2.766961e-01 4.702475e-01 6.989757e-01 9.700930e-01 1.130710e+00 1.390263e+00 1.545144e+00 1.649513e+00 1.564666e+00 1.422234e+00 1.286002e+00 6.735191e-02 3.249134e-02 7.024243e-02 9.622402e-02 1.523179e-01 2.381927e-01 2.594936e-01 3.055115e-01 3.159688e-01 3.343083e-01 3.387315e-01 3.202277e-01 2.801073e-01 4.221777e-02
<GCONST> 8.308829e+01
<MIXTURE> 2 1.695306e-01
<MEAN> 39
 -7.498586e+00 -8.009760e+00 -2.536940e+00 -4.049912e+00 -6.504116e+00 -8.699017e+00 -5.995719e+00 -6.305312e+00 -3.317607e+00 -2.759773e+00 -2.775268e+00 -7.479914e+00 6.830636e+01 2.269913e-01 6.103828e-02 4.003941e-02 2.036784e-01 3.895508e-01 7.843191e-02 3.132408e-02 -1.395818e-01 1.958709e-02 1.304461e-01 5.999376e-02 3.536841e-02 -6.828250e-01 3.694490e-02 6.544156e-02 6.246931e-02 3.845115e-02 -9.340210e-03 -1.153260e-02 -6.748933e-02 -9.215887e-02 -1.462270e-01 -1.324857e-01 -7.728948e-02 -2.242496e-02 -8.661841e-03
<VARIANCE> 39
 2.023206e+01 1.177989e+01 2.504252e+01 2.395748e+01 2.220378e+01 2.618680e+01 5.038205e+01 5.250610e+01 3.572832e+01 3.570009e+01 3.604938e+01 3.577020e+01 3.309314e+01 1.556946e-01 3.066249e-01 5.461369e-01 7.042762e-01 9.833468e-01 1.098868e+00 1.332103e+00 1.513085e+00 1.638494e+00 1.610309e+00 1.433014e+00 1.341096e+00 9.235613e-02 3.150534e-02 6.028939e-02 1.010976e-01 1.466828e-01 2.019233e-01 2.276999e-01 2.766849e-01 3.067196e-01 3.420121e-01 3.340521e-01 3.021070e-01 2.860678e-01 1.439536e-02
<GCONST> 8.674619e+01
<MIXTURE> 3 1.695231e-01
<MEAN> 39
 -7.496531e+00 -8.009648e+00 -2.538085e+00 -4.051055e+00 -6.505028e+00 -8.700358e+00 -5.998871e+00 -6.305002e+00 -3.317638e+00 -2.760956e+00 -2.776878e+00 -7.481461e+00 6.830602e+01 2.270421e-01 6.108017e-02 4.016227e-02 2.037160e-01 3.895533e-01 7.845195e-02 3.130745e-02 -1.395138e-01 1.958898e-02 1.304108e-01 5.997894e-02 3.534330e-02 -6.829241e-01 3.689146e-02 6.541070e-02 6.246420e-02 3.848093e-02 -9.271552e-03 -1.144670e-02 -6.736830e-02 -9.208493e-02 -1.461512e-01 -1.323788e-01 -7.716285e-02 -2.232581e-02 -8.676342e-03
<VARIANCE> 39
 2.022573e+01 1.177952e+01 2.504325e+01 2.395635e+01 2.220201e+01 2.618632e+01 5.036897e+01 5.250678e+01 3.573403e+01 3.570419e+01 3.605265e+01 3.577224e+01 3.309437e+01 1.556756e-01 3.066154e-01 5.461373e-01 7.042813e-01 9.833297e-01 1.098855e+00 1.332125e+00 1.513162e+00 1.638567e+00 1.610390e+00 1.433041e+00 1.341157e+00 9.233938e-02 3.149705e-02 6.028098e-02 1.010914e-01 1.466772e-01 2.019160e-01 2.276902e-01 2.766767e-01 3.067124e-01 3.420101e-01 3.340497e-01 3.021056e-01 2.860726e-01 1.439149e-02
<GCONST> 8.674492e+01
<MIXTURE> 4 8.211999e-02
<MEAN> 39
 -8.054119e+00 -7.861532e+00 -2.470828e+00 -3.624127e+00 -8.466423e+00 -8.925999e+00 -7.578200e+00 -8.495574e+00 -4.993405e+00 -4.886762e+00 -4.230601e+00 -9.207684e+00 7.114039e+01 3.137562e-01 -4.276495e-02 -1.918248e-01 -2.393866e-01 -2.101127e-01 -2.818785e-01 -6.275306e-01 -3.777538e-01 9.421053e-02 1.390095e-01 1.550406e-02 -2.972448e-01 6.411374e-02 3.052728e-02 -7.930242e-02 -3.710898e-02 7.370960e-03 2.408200e-02 4.329926e-02 5.504193e-02 1.314630e-01 2.129300e-01 1.836706e-01 7.234487e-02 2.276861e-02 -1.145657e-01
<VARIANCE> 39
 1.344757e+01 1.419787e+01 2.984349e+01 2.403048e+01 2.686384e+01 2.852655e+01 4.768047e+01 6.899908e+01 4.670239e+01 3.818721e+01 3.798187e+01 3.656073e+01 2.120773e+01 6.114351e-01 8.712808e-01 1.154240e+00 1.218876e+00 1.746934e+00 1.821586e+00 2.969081e+00 3.068504e+00 3.480016e+00 2.988492e+00 2.305271e+00 2.145196e+00 3.112606e-01 9.403232e-02 1.517741e-01 1.999763e-01 2.391496e-01 3.249345e-01 3.341751e-01 4.824490e-01 5.220128e-01 6.186780e-01 5.286980e-01 4.071126e-01 3.614226e-01 1.129016e-01
<GCONST> 1.057691e+02
<MIXTURE> 5 1.695198e-01
<MEAN> 39
 -7.495631e+00 -8.009403e+00 -2.538812e+00 -4.051810e+00 -6.505480e+00 -8.701132e+00 -6.000083e+00 -6.304620e+00 -3.318066e+00 -2.761874e+00 -2.777493e+00 -7.481836e+00 6.830602e+01 2.270766e-01 6.110967e-02 4.021961e-02 2.037341e-01 3.895477e-01 7.844198e-02 3.126582e-02 -1.395112e-01 1.956229e-02 1.303689e-01 5.994708e-02 3.531982e-02 -6.829730e-01 3.686466e-02 6.539339e-02 6.246838e-02 3.850186e-02 -9.232454e-03 -1.140189e-02 -6.731769e-02 -9.204691e-02 -1.460957e-01 -1.323127e-01 -7.711512e-02 -2.230277e-02 -8.682429e-03
<VARIANCE> 39
 2.022245e+01 1.177805e+01 2.504413e+01 2.395336e+01 2.220048e+01 2.618585e+01 5.035857e+01 5.250760e+01 3.573553e+01 3.570545e+01 3.605253e+01 3.577243e+01 3.309618e+01 1.556645e-01 3.066103e-01 5.461432e-01 7.042857e-01 9.833151e-01 1.098859e+00 1.332149e+00 1.513189e+00 1.638591e+00 1.610407e+00 1.433034e+00 1.341185e+00 9.232888e-02 3.149137e-02 6.027378e-02 1.010850e-01 1.466685e-01 2.019075e-01 2.276818e-01 2.766647e-01 3.067054e-01 3.420002e-01 3.340369e-01 3.020965e-01 2.860709e-01 1.438801e-02
<GCONST> 8.674336e+01
<MIXTURE> 6 8.214410e-02
<MEAN> 39
 -8.053439e+00 -7.853934e+00 -2.464136e+00 -3.620531e+00 -8.460938e+00 -8.927901e+00 -7.575517e+00 -8.507896e+00 -5.009300e+00 -4.894610e+00 -4.235720e+00 -9.204613e+00 7.113724e+01 3.150057e-01 -4.231989e-02 -1.928733e-01 -2.408639e-01 -2.118316e-01 -2.828987e-01 -6.297556e-01 -3.792777e-01 9.332506e-02 1.386755e-01 1.518411e-02 -2.980636e-01 6.488957e-02 3.018830e-02 -8.014985e-02 -3.770486e-02 6.783125e-03 2.382936e-02 4.371298e-02 5.544350e-02 1.329699e-01 2.150678e-01 1.854263e-01 7.344301e-02 2.281533e-02 -1.145282e-01
<VARIANCE> 39
 1.344147e+01 1.419529e+01 2.980743e+01 2.401198e+01 2.685568e+01 2.852815e+01 4.764241e+01 6.903564e+01 4.666107e+01 3.814505e+01 3.794347e+01 3.652156e+01 2.120499e+01 6.127379e-01 8.717149e-01 1.155099e+00 1.220422e+00 1.748361e+00 1.823000e+00 2.972022e+00 3.069397e+00 3.481208e+00 2.988900e+00 2.306177e+00 2.145416e+00 3.115720e-01 9.405228e-02 1.517227e-01 1.999313e-01 2.391850e-01 3.249090e-01 3.342143e-01 4.824775e-01 5.222477e-01 6.188337e-01 5.288221e-01 4.071682e-01 3.612928e-01 1.128697e-01
<GCONST> 1.057716e+02
<MIXTURE> 7 8.216713e-02
<MEAN> 39
 -8.045126e+00 -7.849698e+00 -2.467304e+00 -3.627673e+00 -8.470837e+00 -8.937666e+00 -7.592960e+00 -8.518085e+00 -5.017200e+00 -4.903092e+00 -4.242020e+00 -9.213408e+00 7.114352e+01 3.141040e-01 -4.404509e-02 -1.937047e-01 -2.421190e-01 -2.119124e-01 -2.815589e-01 -6.283175e-01 -3.754141e-01 9.789454e-02 1.426416e-01 1.770797e-02 -2.977886e-01 6.517613e-02 2.938368e-02 -8.078563e-02 -3.735850e-02 7.542645e-03 2.516867e-02 4.503905e-02 5.731316e-02 1.346207e-01 2.165511e-01 1.866069e-01 7.422347e-02 2.344718e-02 -1.152829e-01
<VARIANCE> 39
 1.341072e+01 1.419582e+01 2.977769e+01 2.399950e+01 2.682117e+01 2.853841e+01 4.756668e+01 6.907716e+01 4.664670e+01 3.812011e+01 3.792453e+01 3.650349e+01 2.118957e+01 6.123755e-01 8.721789e-01 1.156609e+00 1.221498e+00 1.749474e+00 1.823056e+00 2.973132e+00 3.069103e+00 3.480505e+00 2.987764e+00 2.305467e+00 2.146628e+00 3.119663e-01 9.401549e-02 1.517380e-01 1.999914e-01 2.391782e-01 3.248065e-01 3.341318e-01 4.823957e-01 5.223770e-01 6.188779e-01 5.287411e-01 4.071005e-01 3.612435e-01 1.127530e-01
<GCONST> 1.057653e+02
<MIXTURE> 8 9.658469e-02
<MEAN> 39
 -5.477308e+00 -8.249203e+00 -1.188242e+00 -2.216408e+00 -9.315077e+00 -7.888641e+00 -6.697692e+00 -4.933128e+00 -2.157311e+00 -3.252756e+00 -5.453171e+00 -7.215266e+00 6.394468e+01 -1.024095e+00 -3.788952e-01 2.331762e-01 -2.067798e-01 -1.146798e+00 2.618839e-02 2.994599e-01 7.995665e-01 -3.086293e-01 -8.769232e-01 -5.807428e-01 1.056490e-01 2.403376e+00 -1.194176e-01 9.370138e-02 4.069255e-02 -9.774689e-02 1.821716e-01 1.701097e-03 9.265681e-02 -7.678915e-02 -6.667763e-02 2.960653e-02 1.275579e-01 2.359405e-02 1.544249e-01
<VARIANCE> 39
 1.323857e+01 3.264761e+01 2.831692e+01 2.757011e+01 4.665251e+01 3.622098e+01 5.960974e+01 5.950099e+01 6.154657e+01 3.928691e+01 4.763113e+01 3.712578e+01 7.257316e+01 7.956138e-01 3.615596e+00 2.441937e+00 3.316117e+00 4.729878e+00 3.436823e+00 4.459867e+00 4.535161e+00 6.973678e+00 3.381605e+00 4.047785e+00 2.731757e+00 3.057255e+00 1.646099e-01 7.123529e-01 3.864273e-01 5.510349e-01 1.021357e+00 5.949163e-01 7.716402e-01 8.410570e-01 1.326165e+00 7.125897e-01 7.840726e-01 4.723756e-01 9.558199e-01
<GCONST> 1.294747e+02
<STATE> 4
<NUMMIXES> 8
<MIXTURE> 1 1.092174e-01
<MEAN> 39
 -3.921695e+00 1.659195e-01 1.559932e+00 -2.424293e-01 1.405339e+00 8.063987e-02 -9.033866e-02 9.473221e-01 -1.804212e+00 -2.995810e+00 -3.287994e+00 -5.525307e+00 4.760627e+01 8.934449e-03 2.644513e-01 3.938337e-02 9.991097e-02 3.352301e-01 5.146098e-01 5.441141e-01 5.223069e-01 1.225756e-01 -3.987369e-02 -1.562083e-01 -1.249482e-01 -2.209178e-01 3.319335e-02 3.970324e-02 1.116376e-01 1.577787e-01 1.249115e-01 7.282300e-02 2.651698e-02 -1.592178e-02 3.066012e-02 3.788779e-02 5.107029e-03 -3.708404e-02 4.880857e-02
<VARIANCE> 39
