~o
<STREAMINFO> 1 39
<VECSIZE> 39<NULLD><MFCC_D_A_0><DIAGC>
~h "ap"
<BEGINHMM>
<NUMSTATES> 5
<STATE> 2
<MEAN> 39
 -1.549935e+01 -8.395577e+00 -5.408391e+00 -1.759062e+00 -1.860652e+00 -3.959851e+00 9.089489e-01 -4.908463e-01 -6.903661e-01 -4.921448e-01 -2.915948e-02 -1.451781e+00 6.569411e+01 -1.020851e+00 -1.546858e+00 -7.564366e-01 -1.198885e-01 -6.959378e-01 -9.697205e-01 -2.717673e-01 -5.208759e-01 -1.551733e-01 -1.140982e-01 -5.116385e-02 4.740917e-02 2.902771e+00 2.116738e-01 1.525195e-01 8.851413e-02 -1.291322e-02 1.400966e-01 2.193501e-01 1.721178e-01 1.000727e-01 1.051103e-01 4.864393e-02 4.620847e-02 2.574899e-02 -4.810766e-01
<VARIANCE> 39
 4.703818e+01 6.069765e+01 3.864474e+01 2.523126e+01 3.130091e+01 5.006615e+01 3.497693e+01 3.519286e+01 2.871340e+01 2.245689e+01 1.919168e+01 1.630003e+01 2.147892e+02 4.077369e+00 4.408919e+00 2.148494e+00 1.972457e+00 2.962024e+00 4.481339e+00 3.278020e+00 3.484424e+00 2.742671e+00 2.413172e+00 1.916870e+00 1.675871e+00 1.686364e+01 6.465161e-01 7.084079e-01 3.352739e-01 3.147669e-01 4.739505e-01 7.431901e-01 5.410643e-01 5.877985e-01 4.368461e-01 3.954032e-01 3.071920e-01 2.840181e-01 3.051302e+00
<GCONST> 1.255117e+02
<STATE> 3
<MEAN> 39
 -1.213099e+01 -1.655414e+01 -1.120942e+01 -3.120529e-01 1.020011e-01 -9.040152e+00 -2.626887e-01 -1.316569e+00 -3.058494e+00 -2.946550e+00 6.423507e-01 -2.716640e-01 6.992727e+01 1.224769e-01 4.171854e-02 8.175224e-02 8.059517e-02 1.061238e-01 4.857658e-02 5.831517e-02 1.631795e-02 1.349139e-03 5.204591e-04 2.377282e-02 1.812421e-02 -3.155289e-01 1.000789e-03 1.616454e-02 1.130686e-02 7.712380e-03 8.744928e-03 5.435387e-03 -4.702392e-03 2.053641e-03 -3.248656e-03 1.465166e-03 -1.047497e-03 -3.680415e-03 -1.300187e-02
<VARIANCE> 39
 1.640708e+01 2.550301e+01 2.404990e+01 2.397441e+01 3.129215e+01 2.775509e+01 2.947449e+01 2.264406e+01 2.332712e+01 2.270303e+01 1.752517e+01 1.457074e+01 7.031941e+01 5.643947e-01 7.241494e-01 7.979655e-01 1.068575e+00 1.359228e+00 1.417611e+00 1.672316e+00 1.471566e+00 1.504313e+00 1.454083e+00 1.343326e+00 1.224164e+00 3.845698e+00 9.506689e-02 1.340327e-01 1.453855e-01 2.050677e-01 2.553122e-01 2.810162e-01 3.404852e-01 3.034315e-01 3.091098e-01 2.996032e-01 2.759041e-01 2.533205e-01 6.007887e-01
<GCONST> 9.820834e+01
<STATE> 4
<MEAN> 39
 -1.102684e+01 -1.109249e+01 -5.718588e+00 -5.404548e-02 7.267164e-02 -4.613347e+00 2.605067e+00 -1.134075e+00 -1.960057e+00 -2.529816e-01 6.971164e-01 -8.483867e-01 6.092424e+01 1.829234e-02 1.692016e-02 8.587354e-03 7.755378e-03 4.974324e-03 8.531745e-03 4.771402e-03 1.165867e-02 1.339607e-03 1.246743e-03 -1.776180e-04 -2.011842e-03 -3.823125e-02 -1.150701e-03 -5.290607e-04 -1.543135e-03 -1.632703e-03 -1.942224e-03 -1.466499e-03 -1.588354e-03 -4.328519e-04 -5.281789e-04 -1.036710e-03 -5.591389e-04 5.979721e-05 2.094322e-03
<VARIANCE> 39
 2.552686e+01 5.649886e+01 2.960822e+01 2.536360e+01 3.421100e+01 3.751557e+01 2.848381e+01 3.067591e+01 2.524520e+01 2.022570e+01 1.695204e+01 1.510963e+01 1.257678e+02 9.212854e-01 1.279154e+00 9.409952e-01 9.867691e-01 1.423668e+00 1.721399e+00 1.621217e+00 1.729328e+00 1.607243e+00 1.464316e+00 1.366152e+00 1.229633e+00 5.316541e+00 1.446956e-01 1.976073e-01 1.607365e-01 1.850478e-01 2.634040e-01 3.241961e-01 3.204685e-01 3.369873e-01 3.266565e-01 2.996886e-01 2.771686e-01 2.506458e-01 7.902516e-01
<GCONST> 1.041992e+02
<TRANSP> 5
 0.000000e+00 1.000000e+00 0.000000e+00 0.000000e+00 0.000000e+00
 0.000000e+00 8.304431e-01 1.695569e-01 0.000000e+00 0.000000e+00
 0.000000e+00 0.000000e+00 9.824238e-01 1.757621e-02 0.000000e+00
 0.000000e+00 0.000000e+00 0.000000e+00 9.955221e-01 4.477807e-03
 0.000000e+00 0.000000e+00 0.000000e+00 0.000000e+00 0.000000e+00
<ENDHMM>
~h "cl"
<BEGINHMM>
<NUMSTATES> 5
<STATE> 2
<MEAN> 39
 -1.210966e+01 -1.358886e+00 -1.950043e+00 -4.153890e+00 -1.416152e+00 5.089334e+00 3.424361e+00 6.763928e-01 3.528554e+00 -1.867837e-01 -2.465810e+00 9.845508e-01 5.403509e+01 -2.153636e-01 3.358587e-02 2.497502e-02 -2.381843e-02 -7.205424e-02 8.916777e-02 -5.538131e-02 -1.024423e-01 5.563352e-02 -2.565569e-02 -7.642404e-02 5.886185e-02 1.686535e-01 -5.185165e-02 2.605850e-04 1.904966e-02 -9.419050e-03 -2.532941e-02 3.921216e-02 -1.546394e-02 -3.319670e-02 1.912204e-02 -3.484437e-03 -3.292276e-02 2.369865e-02 3.745301e-02
<VARIANCE> 39
 3.683218e+01 3.117684e+01 2.631972e+01 1.538681e+01 1.855231e+01 4.802882e+01 2.332144e+01 2.491748e+01 3.197686e+01 2.249494e+01 2.395805e+01 2.219022e+01 5.129869e+01 2.098428e+00 8.046141e-01 7.479747e-01 9.275863e-01 1.290877e+00 1.995870e+00 1.707518e+00 1.942269e+00 2.002011e+00 1.736941e+00 1.705825e+00 1.542142e+00 1.915245e+00 2.620696e-01 1.217513e-01 1.318800e-01 1.676327e-01 2.345501e-01 3.403463e-01 3.075771e-01 3.518444e-01 3.616505e-01 3.259583e-01 3.114994e-01 2.808239e-01 2.494893e-01
<GCONST> 1.018722e+02
<STATE> 3
<MEAN> 39
 -1.999575e+01 2.070123e+00 -1.918746e-01 -7.064087e+00 -4.707466e+00 1.189311e+01 2.830018e-01 -2.023481e+00 9.159751e+00 -3.712566e+00 -4.081535e+00 5.179799e+00 5.863416e+01 -2.264560e-02 -2.460481e-03 -2.732644e-03 4.247556e-03 -8.050052e-03 1.306183e-02 -1.879721e-03 -2.084609e-02 -1.218321e-02 -4.620968e-03 -2.037886e-02 1.164731e-02 2.741395e-02 1.525657e-02 -2.408714e-03 -3.509466e-03 2.562978e-03 4.869499e-03 -7.930163e-03 5.304282e-03 4.504136e-03 -8.268647e-03 3.865393e-03 3.361985e-03 -5.259138e-03 -1.049590e-02
<VARIANCE> 39
 5.158971e+01 1.038368e+01 2.114826e+01 1.278474e+01 1.623573e+01 3.378437e+01 2.693351e+01 2.184035e+01 2.760581e+01 2.144151e+01 1.956427e+01 2.055178e+01 2.470091e+01 2.142680e+00 5.174778e-01 8.489156e-01 9.413431e-01 1.282564e+00 1.991254e+00 1.898384e+00 1.765797e+00 1.983289e+00 1.687956e+00 1.611087e+00 1.709894e+00 1.197698e+00 3.883372e-01 9.561455e-02 1.573257e-01 1.874041e-01 2.469487e-01 3.700293e-01 3.679730e-01 3.437577e-01 3.899749e-01 3.421204e-01 3.174681e-01 3.274382e-01 2.190629e-01
<GCONST> 9.918600e+01
<STATE> 4
<MEAN> 39
 -2.220103e+01 8.502367e-01 4.603964e+00 -4.164815e+00 -6.268121e+00 1.085024e+01 1.449492e+00 -5.814022e+00 3.756659e+00 3.771678e+00 -1.100946e+01 4.755662e+00 5.821889e+01 7.440229e-02 -6.620544e-03 1.430814e-03 -6.033156e-03 8.161902e-03 -1.936533e-02 2.860746e-03 8.941479e-03 4.890424e-03 -1.929091e-03 1.468978e-02 -7.390887e-03 -6.099639e-02 2.305996e-03 4.468681e-04 -2.071853e-03 9.877398e-05 2.753511e-03 -3.619161e-03 -7.494490e-04 5.090338e-03 2.754887e-05 -9.384237e-04 5.323427e-03 -2.797391e-03 -2.267552e-03
<VARIANCE> 39
 3.994030e+01 1.145942e+01 2.229887e+01 1.573380e+01 2.883226e+01 3.112889e+01 2.901467e+01 4.702719e+01 3.752991e+01 3.499527e+01 3.265475e+01 3.140260e+01 3.575661e+01 1.196344e+00 4.639632e-01 9.641094e-01 9.193235e-01 1.353224e+00 1.804943e+00 1.725420e+00 2.376427e+00 2.403497e+00 1.967321e+00 1.813434e+00 1.710233e+00 1.228947e+00 2.212395e-01 8.608935e-02 1.859626e-01 1.806981e-01 2.625954e-01 3.479309e-01 3.399343e-01 4.453207e-01 4.690668e-01 3.817809e-01 3.625734e-01 3.391487e-01 2.312887e-01
<GCONST> 1.029435e+02
<TRANSP> 5
 0.000000e+00 1.000000e+00 0.000000e+00 0.000000e+00 0.000000e+00
 0.000000e+00 9.527835e-01 4.721654e-02 0.000000e+00 0.000000e+00
 0.000000e+00 0.000000e+00 9.912628e-01 8.737237e-03 0.000000e+00
 0.000000e+00 0.000000e+00 0.000000e+00 9.939978e-01 6.002265e-03
 0.000000e+00 0.000000e+00 0.000000e+00 0.000000e+00 0.000000e+00
<ENDHMM>
~h "cm"
<BEGINHMM>
<NUMSTATES> 5
<STATE> 2
<MEAN> 39
 -1.080746e+01 -1.670373e-01 -3.085217e+00 -5.274866e+00 -5.048391e-01 3.908999e-01 -5.479851e-02 1.244128e+00 -2.719541e-01 9.137410e-01 1.641549e+00 -8.538130e-01 5.722858e+01 5.470698e-03 -4.231333e-02 -5.817291e-02 -8.154529e-02 -5.361608e-02 -6.973550e-02 -9.582927e-02 -6.609961e-02 -5.845030e-02 -3.382087e-02 -1.748896e-02 1.221849e-02 2.672442e-01 1.471944e-02 -2.802714e-03 -1.168092e-02 -6.703147e-03 -7.647378e-03 -1.287371e-02 -1.277775e-02 -1.568959e-02 -1.465068e-02 -6.345803e-03 -1.314809e-03 -9.453279e-04 1.101264e-02
<VARIANCE> 39
 1.800234e+01 1.672042e+01 1.336398e+01 1.662643e+01 1.651364e+01 1.853480e+01 2.113927e+01 1.988103e+01 1.925854e+01 1.787412e+01 1.889634e+01 1.599814e+01 3.417442e+01 4.117725e-01 5.688357e-01 6.425238e-01 9.763264e-01 1.160086e+00 1.405732e+00 1.480468e+00 1.561403e+00 1.567987e+00 1.491301e+00 1.474246e+00 1.301618e+00 7.893067e-01 5.580537e-02 9.045940e-02 1.114078e-01 1.708803e-01 2.112225e-01 2.571775e-01 2.778295e-01 2.958228e-01 3.009896e-01 2.875978e-01 2.807112e-01 2.515344e-01 8.960413e-02
<GCONST> 8.813921e+01
<STATE> 3
<MEAN> 39
 -1.155161e+01 -2.482045e+00 -5.456445e+00 -6.913164e+00 -1.396143e+00 -1.466163e+00 -2.863472e+00 -7.065448e-01 -2.249148e+00 2.758403e-01 1.794453e+00 5.472304e-02 6.415614e+01 1.026201e-01 -1.120685e-02 2.833177e-03 1.226600e-02 -6.925124e-03 -3.161410e-02 -2.700375e-02 -3.075701e-02 -2.920306e-02 -4.486204e-02 -6.455058e-02 -4.274941e-02 2.281362e-01 2.371569e-03 1.009641e-02 1.576198e-02 1.917362e-02 1.428825e-02 1.671740e-02 1.751138e-02 1.437966e-02 9.687405e-03 -1.685234e-03 -7.816925e-03 -9.008012e-03 -2.048263e-02
<VARIANCE> 39
 1.549332e+01 1.253478e+01 1.139185e+01 1.384307e+01 1.621742e+01 1.753033e+01 1.754962e+01 1.876362e+01 1.872489e+01 1.885223e+01 2.185716e+01 1.778735e+01 4.136860e+01 3.561483e-01 4.653581e-01 5.943481e-01 8.417263e-01 1.067929e+00 1.232274e+00 1.380917e+00 1.473836e+00 1.465080e+00 1.408945e+00 1.402315e+00 1.299167e+00 5.493510e-01 5.163429e-02 8.037347e-02 1.125375e-01 1.628811e-01 2.107574e-01 2.472255e-01 2.792058e-01 2.971567e-01 2.969547e-01 2.857922e-01 2.819352e-01 2.632847e-01 6.350348e-02
<GCONST> 8.547508e+01
<STATE> 4
<MEAN> 39
 -5.621714e+00 -1.405220e-01 -3.868874e+00 -5.066465e+00 -1.501125e+00 -2.015610e+00 -2.847059e+00 -1.713612e+00 -2.660687e+00 -1.959608e+00 -1.291253e+00 -2.349978e+00 6.777514e+01 4.109113e-02 3.878165e-02 5.299391e-02 6.582613e-02 4.959129e-02 3.150911e-02 3.218791e-02 -9.866455e-05 4.491839e-03 -2.297099e-03 3.208321e-03 3.745667e-03 -1.994410e-01 -4.614308e-03 -1.245083e-03 -7.055333e-04 -1.715650e-03 -3.015858e-04 5.791669e-04 1.117866e-03 1.557443e-03 1.504348e-03 3.582400e-03 4.553068e-03 2.609133e-03 -8.231844e-03
<VARIANCE> 39
 1.023673e+01 1.150514e+01 1.267718e+01 1.481697e+01 1.520497e+01 1.471086e+01 1.641855e+01 1.726562e+01 1.813842e+01 1.586579e+01 1.486477e+01 1.292771e+01 6.896789e+01 1.947024e-01 3.017021e-01 4.746466e-01 7.041710e-01 8.864824e-01 1.034487e+00 1.184220e+00 1.273275e+00 1.330648e+00 1.299949e+00 1.254634e+00 1.151263e+00 3.038926e-01 2.983279e-02 5.375842e-02 8.956584e-02 1.349986e-01 1.724637e-01 2.044463e-01 2.365252e-01 2.542194e-01 2.671283e-01 2.625002e-01 2.530090e-01 2.325281e-01 2.545596e-02
<GCONST> 7.784293e+01
<TRANSP> 5
 0.000000e+00 1.000000e+00 0.000000e+00 0.000000e+00 0.000000e+00
 0.000000e+00 9.540168e-01 4.598325e-02 0.000000e+00 0.000000e+00
 0.000000e+00 0.000000e+00 9.635000e-01 3.650007e-02 0.000000e+00
 0.000000e+00 0.000000e+00 0.000000e+00 9.858070e-01 1.419296e-02
 0.000000e+00 0.000000e+00 0.000000e+00 0.000000e+00 0.000000e+00
<ENDHMM>
~h "co"
<BEGINHMM>
<NUMSTATES> 5
<STATE> 2
<MEAN> 39
 -6.655665e+00 -8.096466e+00 -1.207986e+00 -2.994187e+00 -9.155957e+00 -3.955038e+00 -5.578932e+00 6.643580e-01 -1.338309e+00 -4.388318e+00 -4.007501e+00 -5.872099e+00 6.330694e+01 -5.320541e-01 -8.118058e-02 2.997501e-01 -4.538071e-01 -6.208116e-01 -8.339325e-01 -2.605004e-01 -6.403612e-01 -7.346817e-01 -6.843277e-01 -3.310702e-01 -2.423152e-01 2.334674e+00 -5.682741e-02 1.285492e-01 -4.818485e-03 4.655806e-02 2.433624e-01 1.043190e-01 1.488903e-01 4.239249e-02 -7.812238e-03 5.430208e-02 1.099056e-01 8.137164e-02 -1.120509e-01
<VARIANCE> 39
 2.148986e+01 4.468736e+01 2.563781e+01 3.735119e+01 7.422444e+01 5.619991e+01 1.067029e+02 6.140460e+01 5.755152e+01 5.886981e+01 4.350307e+01 3.980173e+01 1.055232e+02 1.223843e+00 3.199789e+00 1.952482e+00 2.615868e+00 4.792842e+00 3.418678e+00 4.476030e+00 3.409185e+00 3.520754e+00 2.938146e+00 2.532961e+00 2.445847e+00 4.638659e+00 1.522326e-01 4.790668e-01 3.038087e-01 3.903225e-01 6.330666e-01 5.444602e-01 6.785920e-01 5.031405e-01 5.712930e-01 4.967759e-01 4.492982e-01 3.988515e-01 5.660751e-01
<GCONST> 1.265502e+02
<STATE> 3
<MEAN> 39
 -7.471269e+00 -7.731269e+00 -2.590698e+00 -4.115976e+00 -7.567261e+00 -8.940941e+00 -6.625376e+00 -6.538760e+00 -4.150238e+00 -3.929706e+00 -3.348750e+00 -7.882585e+00 6.883740e+01 6.665573e-02 -1.860755e-02 -1.500405e-03 5.231757e-02 9.408033e-02 1.181136e-02 -7.101028e-02 -7.014889e-02 1.492133e-02 3.126435e-02 -1.628469e-04 -3.938038e-02 -8.794127e-02 1.948714e-02 -4.834563e-03 2.690420e-03 9.642519e-03 -1.454294e-03 9.345578e-03 -5.212164e-03 7.442359e-03 9.050554e-03 5.939044e-03 -6.616573e-03 -3.848619e-03 -3.652593e-02
<VARIANCE> 39
 1.958202e+01 1.486958e+01 2.631906e+01 2.114791e+01 2.692698e+01 2.831013e+01 5.019806e+01 6.324443e+01 4.349656e+01 4.039175e+01 3.575167e+01 3.652712e+01 4.887840e+01 5.144056e-01 8.530546e-01 9.560204e-01 1.197514e+00 1.886773e+00 1.633568e+00 2.301267e+00 2.436422e+00 2.803969e+00 2.310907e+00 2.028473e+00 1.792868e+00 1.363629e+00 7.101414e-02 1.726321e-01 1.684433e-01 2.264723e-01 3.410890e-01 3.100808e-01 4.081150e-01 4.532107e-01 5.702761e-01 4.560982e-01 3.961393e-01 3.379298e-01 1.660004e-01
<GCONST> 1.057835e+02
<STATE> 4
<MEAN> 39
 -4.438200e+00 -4.653086e+00 2.171774e+00 3.141366e-01 -2.051840e+00 -3.396299e+00 -6.093340e+00 -4.074780e+00 -2.645274e+00 -4.169950e+00 -3.736592e+00 -7.235516e+00 5.892611e+01 6.405319e-02 1.188653e-01 4.218482e-02 4.619255e-02 1.223934e-01 9.519624e-02 7.365457e-02 8.093812e-02 1.543254e-03 1.033925e-02 1.037743e-02 3.483379e-02 -2.790174e-01 -4.051478e-03 1.731975e-05 -6.156005e-03 -5.873475e-03 -8.339840e-03 -2.458250e-03 2.080613e-03 3.574520e-03 2.712705e-04 -1.076918e-03 -9.897100e-04 -1.551460e-04 3.740390e-03
<VARIANCE> 39
 1.496790e+01 2.827297e+01 2.077391e+01 2.484493e+01 3.380814e+01 3.359410e+01 5.653060e+01 4.840770e+01 3.298101e+01 3.717046e+01 3.281987e+01 3.007566e+01 6.860971e+01 3.081665e-01 6.277484e-01 6.942724e-01 8.655846e-01 1.354139e+00 1.301337e+00 1.777153e+00 1.689736e+00 1.679229e+00 1.758222e+00 1.638488e+00 1.528169e+00 8.396925e-01 4.415431e-02 1.043594e-01 1.257593e-01 1.628963e-01 2.510187e-01 2.473127e-01 3.258599e-01 3.128237e-01 3.318241e-01 3.469851e-01 3.250057e-01 3.027303e-01 7.742809e-02
<GCONST> 9.712585e+01
<TRANSP> 5
 0.000000e+00 1.000000e+00 0.000000e+00 0.000000e+00 0.000000e+00
 0.000000e+00 8.563846e-01 1.436155e-01 0.000000e+00 0.000000e+00
 0.000000e+00 0.000000e+00 9.815830e-01 1.841699e-02 0.000000e+00
 0.000000e+00 0.000000e+00 0.000000e+00 9.839729e-01 1.602708e-02
 0.000000e+00 0.000000e+00 0.000000e+00 0.000000e+00 0.000000e+00
<ENDHMM>
~h "ds"
<BEGINHMM>
<NUMSTATES> 5
<STATE> 2
<MEAN> 39
 -1.391558e+01 -1.082389e+00 5.359825e-02 -9.151917e-01 -8.207756e-02 -1.241521e+00 4.206478e+00 3.188837e-01 2.441841e+00 1.316404e+00 2.336935e+00 6.412038e-01 6.436256e+01 -2.434345e-01 8.132582e-02 -5.117150e-02 -1.002536e-01 -2.152652e-01 -1.405238e-01 -1.045911e-01 -5.500254e-02 -9.372907e-03 1.525276e-01 1.253503e-01 1.111820e-01 1.061988e+00 7.594654e-02 2.938893e-02 1.959399e-02 4.378871e-02 3.884356e-02 2.046410e-02 1.253981e-02 2.439503e-02 1.945010e-02 -5.603741e-03 2.258592e-02 7.477766e-03 -1.347554e-01
<VARIANCE> 39
 2.579752e+01 1.766343e+01 1.684842e+01 2.042003e+01 2.475100e+01 2.162971e+01 3.043274e+01 3.428054e+01 2.607688e+01 2.290736e+01 2.025311e+01 1.665364e+01 1.161608e+02 2.218857e+00 1.218032e+00 1.436324e+00 1.765057e+00 2.245562e+00 2.207948e+00 2.516865e+00 2.307722e+00 2.116063e+00 1.992137e+00 1.992349e+00 1.601230e+00 7.552514e+00 3.627037e-01 2.003423e-01 2.277188e-01 3.227520e-01 3.877483e-01 3.964717e-01 4.437623e-01 4.323263e-01 3.946960e-01 3.727996e-01 3.700648e-01 2.962012e-01 1.220937e+00
<GCONST> 1.110632e+02
<STATE> 3
<MEAN> 39
 -1.429867e+01 8.792474e-02 -8.393986e-01 3.937295e-01 4.940838e-03 -1.876779e+00 1.763994e+00 -1.940053e+00 2.385399e+00 2.744394e+00 3.683261e+00 7.713151e-01 6.954617e+01 2.641185e-01 2.016154e-02 1.086847e-01 1.477949e-01 3.348232e-01 1.199635e-01 6.065388e-02 -5.002307e-02 -5.439474e-02 -4.888562e-02 9.894601e-03 -1.248533e-01 -5.906402e-01 1.042306e-02 -7.955516e-03 -6.421762e-03 -1.705697e-02 2.980068e-03 1.752585e-02 1.678236e-02 -1.455221e-03 -1.309364e-02 -2.029817e-02 -4.114438e-02 -2.476335e-02 -3.932691e-02
<VARIANCE> 39
 7.568140e+00 7.866101e+00 1.108006e+01 1.530920e+01 2.492759e+01 1.772949e+01 1.921532e+01 1.756214e+01 1.663933e+01 1.498914e+01 1.424142e+01 1.514139e+01 3.467768e+01 2.143342e-01 3.040671e-01 5.348051e-01 8.079429e-01 1.150096e+00 1.244985e+00 1.334823e+00 1.444733e+00 1.444539e+00 1.495430e+00 1.437263e+00 1.285197e+00 3.225811e-01 4.087729e-02 6.234361e-02 1.076116e-01 1.631377e-01 2.315172e-01 2.553378e-01 2.717863e-01 2.906883e-01 2.943500e-01 3.043792e-01 2.949465e-01 2.622039e-01 5.486249e-02
<GCONST> 8.169090e+01
<STATE> 4
<MEAN> 39
 -9.652489e+00 7.281215e-01 1.316843e+00 -3.599532e-01 2.680918e+00 6.437480e-01 3.128661e+00 7.970722e-01 2.279567e+00 -2.045211e-01 1.622656e+00 -7.363085e-01 5.488577e+01 2.540600e-02 9.558959e-03 1.939336e-02 9.363633e-03 8.679554e-03 1.965103e-02 2.357453e-02 2.479114e-02 1.286670e-02 -6.289873e-03 -1.046191e-02 3.848067e-03 -5.509547e-02 -1.931383e-03 -3.906540e-04 -4.397291e-04 3.534438e-04 -1.411188e-03 -1.494459e-03 -1.965164e-03 -1.190804e-03 4.184837e-04 2.139317e-03 2.421783e-03 1.735427e-03 2.190589e-03
<VARIANCE> 39
 1.691468e+01 1.370082e+01 1.844664e+01 1.980105e+01 2.010152e+01 2.352091e+01 2.612030e+01 2.141787e+01 2.523632e+01 2.304332e+01 1.781569e+01 1.641991e+01 5.340900e+01 5.695012e-01 5.236552e-01 6.944608e-01 9.342595e-01 1.166415e+00 1.425829e+00 1.568337e+00 1.582265e+00 1.662742e+00 1.625470e+00 1.468259e+00 1.294572e+00 8.457798e-01 9.405620e-02 9.561036e-02 1.285034e-01 1.807884e-01 2.275762e-01 2.774645e-01 3.073848e-01 3.143291e-01 3.275816e-01 3.234111e-01 2.940567e-01 2.608979e-01 1.090565e-01
<GCONST> 9.217413e+01
<TRANSP> 5
 0.000000e+00 1.000000e+00 0.000000e+00 0.000000e+00 0.000000e+00
 0.000000e+00 9.246333e-01 7.536674e-02 0.000000e+00 0.000000e+00
 0.000000e+00 0.000000e+00 9.514703e-01 4.852974e-02 0.000000e+00
 0.000000e+00 0.000000e+00 0.000000e+00 9.931662e-01 6.833802e-03
 0.000000e+00 0.000000e+00 0.000000e+00 0.000000e+00 0.000000e+00
<ENDHMM>
~h "kj"
<BEGINHMM>
<NUMSTATES> 5
<STATE> 2
<MEAN> 39
 -1.561268e+01 4.429368e+00 -5.859626e-01 -3.175221e+00 -8.682839e-01 2.970972e+00 6.949128e-01 4.202207e+00 2.548409e+00 2.265477e-02 1.345897e+00 -1.122072e+00 5.224183e+01 -6.762820e-02 -1.057098e-02 7.662661e-04 3.049006e-03 -2.439757e-02 -2.218869e-02 -1.536108e-02 -2.529751e-02 -1.882960e-03 6.153554e-03 1.173015e-03 3.607279e-03 6.932999e-02 -1.567996e-03 -1.462963e-02 -3.163748e-03 3.645836e-03 -3.471908e-03 -6.816624e-03 -6.006333e-03 -4.656980e-03 -5.019304e-03 -4.650643e-04 -2.564621e-03 1.087850e-03 1.053329e-02
<VARIANCE> 39
 2.869181e+01 2.009467e+01 1.366441e+01 1.462117e+01 1.724901e+01 2.813244e+01 2.938633e+01 2.350140e+01 2.235834e+01 2.302176e+01 1.818714e+01 1.611870e+01 1.700456e+01 6.271902e-01 6.804169e-01 6.806441e-01 9.037173e-01 1.154718e+00 1.423249e+00 1.639959e+00 1.641973e+00 1.628527e+00 1.635627e+00 1.463567e+00 1.354923e+00 4.286845e-01 9.243912e-02 1.150735e-01 1.231458e-01 1.745265e-01 2.202911e-01 2.757274e-01 3.154907e-01 3.183741e-01 3.173885e-01 3.236745e-01 2.894076e-01 2.702153e-01 5.261819e-02
<GCONST> 9.052723e+01
<STATE> 3
<MEAN> 39
 -1.595094e+01 -4.207913e+00 -5.125141e+00 -1.608802e+00 -1.745619e+00 -3.178262e+00 -7.766653e-01 -1.008510e+00 -6.917174e-01 9.102390e-01 6.656221e-01 -4.597114e-01 5.990342e+01 -9.651861e-02 3.560896e-02 -9.363033e-04 1.083621e-02 2.151996e-02 1.191452e-02 4.192803e-03 -3.518252e-03 -6.731157e-03 8.112420e-04 7.182929e-03 7.682489e-03 3.400614e-02 -3.838087e-03 3.072107e-02 2.503622e-02 -2.161592e-03 6.543271e-03 2.768905e-02 2.465029e-02 2.031760e-02 8.697001e-03 3.866540e-03 3.392430e-03 -5.828646e-03 -2.570135e-02
<VARIANCE> 39
 2.056458e+01 3.852382e+01 1.708375e+01 1.955021e+01 1.713669e+01 1.847442e+01 2.403242e+01 2.365536e+01 2.072373e+01 1.907389e+01 1.664514e+01 1.494459e+01 3.018285e+01 6.541026e-01 1.347113e+00 9.835397e-01 1.039590e+00 1.237893e+00 1.494139e+00 1.669054e+00 1.742998e+00 1.652568e+00 1.599524e+00 1.478100e+00 1.329716e+00 1.020444e+00 1.081658e-01 2.246575e-01 1.841387e-01 1.983160e-01 2.434734e-01 2.879383e-01 3.286009e-01 3.420584e-01 3.325925e-01 3.243255e-01 3.016557e-01 2.700894e-01 1.524810e-01
<GCONST> 9.592792e+01
<STATE> 4
<MEAN> 39
 -2.139080e+01 7.367644e-01 4.070682e-01 -1.090284e+00 -2.210466e+00 1.408669e+00 4.303345e+00 1.617870e+00 -6.840254e-01 2.003502e+00 8.670006e-01 -2.041023e+00 5.788723e+01 4.100607e-02 -1.318939e-02 1.156549e-03 -1.679662e-03 6.900937e-03 -4.563061e-03 1.790762e-03 1.628483e-03 3.267923e-03 -3.853955e-03 -2.787066e-03 2.075286e-04 -2.345000e-02 3.438023e-03 -9.360162e-04 -2.456153e-03 -4.958410e-04 5.575341e-04 -1.596466e-03 -1.628448e-03 -8.758687e-04 -5.921777e-05 -5.517465e-04 -4.425496e-05 4.430716e-04 -1.596580e-03
<VARIANCE> 39
 3.285326e+01 3.905952e+01 2.120128e+01 2.823830e+01 1.763260e+01 3.475376e+01 3.832784e+01 2.546182e+01 2.235557e+01 2.758708e+01 1.695435e+01 1.806042e+01 3.984932e+01 5.827063e-01 7.785854e-01 7.677320e-01 9.322723e-01 1.154445e+00 1.421876e+00 1.640295e+00 1.589161e+00 1.583483e+00 1.637603e+00 1.455284e+00 1.306108e+00 6.728391e-01 9.654126e-02 1.350258e-01 1.435692e-01 1.815251e-01 2.254854e-01 2.773334e-01 3.186085e-01 3.173678e-01 3.210281e-01 3.308941e-01 2.943439e-01 2.631099e-01 9.613872e-02
<GCONST> 9.569877e+01
<TRANSP> 5
 0.000000e+00 1.000000e+00 0.000000e+00 0.000000e+00 0.000000e+00
 0.000000e+00 9.781911e-01 2.180889e-02 0.000000e+00 0.000000e+00
 0.000000e+00 0.000000e+00 9.750221e-01 2.497788e-02 0.000000e+00
 0.000000e+00 0.000000e+00 0.000000e+00 9.956337e-01 4.366253e-03
 0.000000e+00 0.000000e+00 0.000000e+00 0.000000e+00 0.000000e+00
<ENDHMM>
~h "kn"
<BEGINHMM>
<NUMSTATES> 5
<STATE> 2
<MEAN> 39
 -1.015905e+00 5.413784e-01 -2.258004e+00 -3.027073e+00 1.620247e+00 3.988527e-02 4.204001e-01 -4.233428e-01 2.186115e-01 -7.219542e-02 -7.867857e-01 -1.652727e+00 5.548355e+01 1.920606e-01 -1.164307e-02 -1.766848e-01 1.384591e-01 1.410924e-01 -2.703742e-01 2.839390e-01 -3.796708e-01 5.202183e-01 2.153002e-01 2.905260e-01 1.903921e-01 1.839934e+00 -8.915371e-02 1.244860e-01 8.320969e-02 3.113328e-02 3.769827e-02 1.345265e-01 6.009061e-02 8.566350e-02 -2.508564e-02 2.143176e-02 3.497744e-02 2.930303e-02 -2.831673e-01
<VARIANCE> 39
 3.901130e+01 3.924144e+01 3.502350e+01 1.302391e+01 2.486775e+01 3.044832e+01 3.268205e+01 4.379502e+01 2.341772e+01 2.447116e+01 2.421652e+01 1.680059e+01 1.190434e+02 2.848847e+00 1.789473e+00 1.879670e+00 1.210402e+00 1.563261e+00 2.611689e+00 2.802354e+00 3.346011e+00 2.295837e+00 2.307330e+00 2.269988e+00 1.804280e+00 6.524185e+00 4.048161e-01 2.519839e-01 2.871042e-01 1.837205e-01 2.458979e-01 4.213394e-01 4.252771e-01 5.485451e-01 3.770531e-01 3.736852e-01 3.453584e-01 2.866146e-01 9.746690e-01
<GCONST> 1.139712e+02
<STATE> 3
<MEAN> 39
 4.812553e+00 -1.557642e+00 -4.702459e+00 -6.793071e-01 2.847505e+00 -1.444991e+00 1.309983e+00 -1.876575e+00 1.592978e+00 4.884455e-01 1.366619e+00 1.399135e-01 6.090327e+01 5.680674e-02 -2.013492e-02 1.776579e-02 5.248215e-02 3.409825e-02 1.214926e-02 1.258343e-02 2.224307e-02 -1.434584e-02 1.562583e-02 1.142625e-02 1.759670e-02 -5.160507e-02 8.250477e-03 -4.723663e-03 -1.608663e-04 1.582632e-03 1.949005e-03 1.067620e-03 -9.391651e-03 1.278242e-03 -1.372660e-02 -9.900222e-03 -1.045787e-02 -7.302708e-03 -2.438605e-02
<VARIANCE> 39
 1.253377e+01 2.852928e+01 1.607610e+01 1.640703e+01 2.136301e+01 2.524657e+01 2.398952e+01 2.225594e+01 2.220600e+01 2.075910e+01 1.758681e+01 1.653977e+01 3.082793e+01 5.031286e-01 9.945256e-01 9.878913e-01 1.084294e+00 1.371242e+00 1.802730e+00 1.708326e+00 1.843853e+00 1.757645e+00 1.693072e+00 1.590931e+00 1.411429e+00 1.974025e+00 9.449907e-02 1.905627e-01 1.845037e-01 2.158046e-01 2.672753e-01 3.601242e-01 3.542013e-01 3.782043e-01 3.665393e-01 3.516247e-01 3.311916e-01 2.911786e-01 3.566401e-01
<GCONST> 9.793498e+01
<STATE> 4
<MEAN> 39
 4.857915e+00 1.088794e+00 -1.693819e+00 8.769174e-01 4.848807e+00 1.699298e+00 1.872211e+00 -1.830664e-01 3.797550e-01 1.884627e-01 7.646623e-01 -5.524331e-01 5.526157e+01 -8.356134e-02 9.629696e-02 1.241279e-01 2.155325e-02 2.188273e-02 1.280696e-01 5.110302e-04 8.664222e-02 -5.754018e-02 -1.636018e-02 -2.562007e-02 -3.784699e-02 -3.128916e-01 -7.133666e-03 -8.054416e-03 -5.603732e-03 -1.093109e-02 -1.304604e-02 -9.955659e-03 -3.879453e-03 -5.549802e-03 1.313508e-03 -9.125456e-04 6.361744e-05 -2.615292e-03 1.185491e-02
<VARIANCE> 39
 1.639408e+01 1.926377e+01 1.642330e+01 1.368755e+01 2.006499e+01 2.208302e+01 2.247733e+01 2.205965e+01 2.159650e+01 1.964614e+01 1.703289e+01 1.635599e+01 4.367806e+01 2.554567e-01 5.051900e-01 5.380307e-01 7.579795e-01 9.767870e-01 1.201534e+00 1.357615e+00 1.538902e+00 1.475608e+00 1.515604e+00 1.381923e+00 1.257990e+00 7.746613e-01 3.737147e-02 8.859570e-02 1.012047e-01 1.498127e-01 1.925762e-01 2.361898e-01 2.769405e-01 3.094960e-01 2.987986e-01 3.104866e-01 2.792489e-01 2.558373e-01 1.151771e-01
<GCONST> 8.703519e+01
<TRANSP> 5
 0.000000e+00 1.000000e+00 0.000000e+00 0.000000e+00 0.000000e+00
 0.000000e+00 8.313888e-01 1.686112e-01 0.000000e+00 0.000000e+00
 0.000000e+00 0.000000e+00 9.791861e-01 2.081384e-02 0.000000e+00
 0.000000e+00 0.000000e+00 0.000000e+00 9.770409e-01 2.295909e-02
 0.000000e+00 0.000000e+00 0.000000e+00 0.000000e+00 0.000000e+00
<ENDHMM>
~h "kt"
<BEGINHMM>
<NUMSTATES> 5
<STATE> 2
<MEAN> 39
 -1.218194e+01 -4.156241e-01 -7.276931e+00 -2.685802e+00 1.073569e-02 4.714874e-01 5.409205e+00 2.363961e+00 2.265275e+00 6.194651e-01 1.074846e+00 -1.102106e+00 5.623320e+01 -3.238218e-02 6.153378e-03 -1.059111e-02 1.128425e-02 -3.069500e-03 -2.202409e-02 -7.599920e-03 -4.202858e-03 -3.702230e-04 -5.840177e-03 -2.703375e-03 -1.019962e-03 4.817669e-02 5.253067e-03 -4.436853e-05 3.156283e-03 1.392856e-03 2.906420e-03 3.765855e-04 -5.373952e-05 -1.497865e-03 -5.561474e-04 -7.443275e-04 -7.023598e-04 -4.107124e-04 -5.611147e-03
<VARIANCE> 39
 1.817491e+01 8.111911e+00 9.252038e+00 1.196253e+01 1.364841e+01 1.882011e+01 1.809002e+01 1.654318e+01 1.780649e+01 1.546968e+01 1.518890e+01 1.389867e+01 2.410108e+01 1.285866e+00 5.080408e-01 6.932812e-01 9.779636e-01 1.257167e+00 1.592347e+00 1.660033e+00 1.602020e+00 1.705122e+00 1.613626e+00 1.514699e+00 1.323069e+00 1.533717e+00 2.455678e-01 9.790137e-02 1.367890e-01 1.936693e-01 2.545488e-01 3.223434e-01 3.374657e-01 3.252534e-01 3.452679e-01 3.319870e-01 3.077166e-01 2.676271e-01 2.748210e-01
<GCONST> 9.174975e+01
<STATE> 3
<MEAN> 39
 -1.295711e+01 1.655048e+00 -4.580156e+00 -2.830547e-01 4.384165e-01 -2.106434e+00 2.577216e+00 1.390554e+00 1.451118e+00 -1.000813e+00 -2.610321e-01 -1.448438e+00 5.517475e+01 3.067119e-02 5.029383e-03 5.116840e-03 1.259960e-03 1.996921e-02 1.236186e-02 1.861200e-02 -7.532252e-03 1.365664e-03 -5.388853e-03 4.356437e-04 -1.598316e-03 -4.462579e-02 6.165174e-03 -3.183196e-04 4.634775e-04 -3.202761e-03 9.323449e-04 8.233523e-03 6.487064e-03 6.890334e-03 3.075687e-03 6.216302e-03 3.774249e-03 1.766772e-03 -1.250730e-02
<VARIANCE> 39
 9.063612e+00 7.165558e+00 9.916316e+00 1.328717e+01 1.484496e+01 1.611594e+01 1.906679e+01 1.802500e+01 1.924311e+01 1.833584e+01 1.701168e+01 1.443384e+01 2.152388e+01 8.401300e-01 4.711259e-01 7.354478e-01 9.914811e-01 1.312468e+00 1.439074e+00 1.648300e+00 1.626800e+00 1.755939e+00 1.711805e+00 1.575245e+00 1.382669e+00 1.507110e+00 1.695548e-01 9.346954e-02 1.492804e-01 1.996775e-01 2.649679e-01 2.939487e-01 3.368380e-01 3.310841e-01 3.551576e-01 3.506219e-01 3.206815e-01 2.832806e-01 2.944267e-01
<GCONST> 9.104804e+01
<STATE> 4
<MEAN> 39
 -1.036154e+01 2.714352e+00 -3.333573e+00 -5.788046e-01 4.789139e-01 1.701123e-01 3.257277e+00 2.890416e+00 2.162876e+00 -2.430472e-01 2.063698e-01 -1.799095e+00 4.971006e+01 1.960528e-02 -3.912816e-03 6.828833e-03 -7.713668e-03 1.594810e-03 1.055209e-02 4.159406e-03 4.910274e-03 -5.061658e-04 4.072451e-03 2.398030e-03 -4.205884e-04 -2.348050e-02 -1.504267e-03 -6.132683e-04 -5.777088e-04 -8.076615e-05 -1.142670e-03 -1.814914e-03 -2.437601e-03 -1.136174e-03 -5.244705e-04 -2.372523e-04 -2.181770e-04 3.876083e-04 2.234805e-03
<VARIANCE> 39
 1.158760e+01 9.676167e+00 1.300126e+01 1.274997e+01 1.643145e+01 1.753509e+01 2.008740e+01 1.755581e+01 1.768151e+01 1.726308e+01 1.497859e+01 1.312669e+01 1.530821e+01 7.484785e-01 5.014195e-01 6.916244e-01 8.666842e-01 1.135885e+00 1.307305e+00 1.455886e+00 1.505124e+00 1.541305e+00 1.531559e+00 1.408233e+00 1.250575e+00 8.128417e-01 1.436709e-01 9.680551e-02 1.372679e-01 1.738992e-01 2.269232e-01 2.617348e-01 2.948531e-01 3.050061e-01 3.147423e-01 3.126645e-01 2.868958e-01 2.549398e-01 1.496945e-01
<GCONST> 8.759689e+01
<TRANSP> 5
 0.000000e+00 1.000000e+00 0.000000e+00 0.000000e+00 0.000000e+00
 0.000000e+00 9.890436e-01 1.095640e-02 0.000000e+00 0.000000e+00
 0.000000e+00 0.000000e+00 9.844378e-01 1.556213e-02 0.000000e+00
 0.000000e+00 0.000000e+00 0.000000e+00 9.942630e-01 5.737012e-03
 0.000000e+00 0.000000e+00 0.000000e+00 0.000000e+00 0.000000e+00
<ENDHMM>
~h "pr"
<BEGINHMM>
<NUMSTATES> 5
<STATE> 2
<MEAN> 39
 -1.483901e+01 -7.638916e+00 -2.569792e+00 -7.721441e+00 2.569214e+00 4.742647e+00 2.737105e+00 -2.470564e+00 1.324689e+00 -1.626703e+00 4.709281e+00 4.333976e-02 5.906044e+01 -1.441176e-01 -5.869053e-02 3.745058e-02 -2.906048e-02 4.763557e-02 3.648824e-02 -8.086978e-03 -6.536858e-02 -7.359960e-03 -1.890292e-02 -3.501794e-02 1.082772e-01 1.373550e-01 3.352145e-02 6.718928e-03 -6.499015e-03 1.273987e-02 -9.689455e-03 -5.185218e-03 -2.422805e-03 1.113155e-02 3.426212e-03 5.498702e-03 -8.390836e-03 -7.188343e-03 -2.911539e-02
<VARIANCE> 39
 3.090135e+01 4.362126e+01 7.230250e+01 3.171937e+01 6.390372e+01 8.106327e+01 5.394201e+01 5.017747e+01 3.625642e+01 3.094247e+01 4.897599e+01 3.863979e+01 2.810607e+01 1.281166e+00 9.919138e-01 1.354977e+00 1.620395e+00 1.835974e+00 2.166934e+00 2.311913e+00 2.679057e+00 2.361732e+00 1.980234e+00 2.427257e+00 2.086765e+00 9.892694e-01 1.795490e-01 1.564633e-01 2.074661e-01 2.692486e-01 3.072584e-01 3.570275e-01 4.103013e-01 4.440204e-01 4.374455e-01 3.627902e-01 4.248990e-01 3.616581e-01 1.340636e-01
<GCONST> 1.122735e+02
<STATE> 3
<MEAN> 39
 -2.102119e+01 3.707759e+00 1.640881e+01 -1.531786e+01 1.615073e+00 1.414086e+01 -5.309010e+00 -4.069269e+00 1.353463e+01 -5.772430e+00 -7.331346e+00 8.568078e+00 5.444532e+01 5.213302e-02 -4.994842e-02 1.569858e-02 -4.180364e-02 3.765440e-02 -2.386447e-02 -1.308950e-02 4.485029e-02 -1.427079e-02 4.813739e-02 -4.610638e-02 2.049768e-02 -4.853412e-02 2.537584e-03 3.287216e-03 -3.152568e-03 -2.029136e-03 8.740527e-03 -7.611842e-03 -5.027996e-04 1.392798e-02 -8.723776e-03 3.268498e-03 8.985281e-03 -5.188846e-03 -3.589296e-03
<VARIANCE> 39
 1.058330e+01 1.842784e+01 1.873750e+01 2.691547e+01 2.086771e+01 2.434587e+01 1.667008e+01 2.459204e+01 3.241009e+01 2.843380e+01 3.061482e+01 2.020488e+01 9.244799e+00 6.717384e-01 5.038460e-01 5.673793e-01 8.413119e-01 1.283216e+00 1.322739e+00 1.169335e+00 1.453576e+00 1.654650e+00 1.654121e+00 1.890998e+00 1.089077e+00 2.706980e-01 1.645364e-01 1.016570e-01 1.120546e-01 1.712613e-01 2.681555e-01 2.729091e-01 2.391355e-01 3.020541e-01 3.441113e-01 3.156387e-01 3.594447e-01 2.175219e-01 6.523592e-02
<GCONST> 8.977174e+01
<STATE> 4
<MEAN> 39
 -1.428269e+01 -6.061647e+00 3.521447e+00 -7.443619e+00 3.596803e+00 1.618458e+00 3.128169e+00 4.822915e+00 2.370471e+00 -1.620228e+00 -1.736956e+00 2.983129e+00 5.486376e+01 3.477893e-02 2.358987e-02 -2.136760e-02 2.140313e-02 -1.805735e-02 -8.206849e-03 1.292897e-02 5.052078e-03 -1.899083e-05 8.598999e-04 1.125150e-02 -1.775362e-02 -3.229397e-02 -5.638590e-04 3.014937e-04 4.043280e-04 1.825635e-04 -1.084203e-03 1.174755e-03 -3.838027e-04 -9.916766e-04 1.838778e-04 -2.624223e-04 2.252641e-04 -1.009042e-03 3.089864e-04
<VARIANCE> 39
 3.659082e+01 5.463418e+01 6.176220e+01 5.779483e+01 7.054654e+01 1.003058e+02 6.987418e+01 5.985802e+01 6.342934e+01 4.489440e+01 7.360095e+01 6.701018e+01 4.529111e+01 3.444116e-01 4.399967e-01 6.654747e-01 9.491765e-01 1.163310e+00 1.459493e+00 1.526945e+00 1.678904e+00 1.774455e+00 1.741233e+00 1.620139e+00 1.417601e+00 1.991959e-01 6.005252e-02 7.626160e-02 1.206391e-01 1.726352e-01 2.224040e-01 2.769303e-01 2.978190e-01 3.163671e-01 3.380754e-01 3.352362e-01 3.112460e-01 2.693806e-01 3.099567e-02
<GCONST> 1.018653e+02
<TRANSP> 5
 0.000000e+00 1.000000e+00 0.000000e+00 0.000000e+00 0.000000e+00
 0.000000e+00 9.727628e-01 2.723719e-02 0.000000e+00 0.000000e+00
 0.000000e+00 0.000000e+00 9.817412e-01 1.825874e-02 0.000000e+00
 0.000000e+00 0.000000e+00 0.000000e+00 9.964097e-01 3.590283e-03
 0.000000e+00 0.000000e+00 0.000000e+00 0.000000e+00 0.000000e+00
<ENDHMM>
~h "pw"
<BEGINHMM>
<NUMSTATES> 5
<STATE> 2
<MEAN> 39
 -1.306080e+01 -1.904242e+00 -1.113990e+00 -1.248541e+00 1.634788e+00 -4.371554e-01 2.791805e+00 1.011837e+00 9.912745e-01 9.250506e-01 5.263771e-01 -6.833688e-01 5.351215e+01 -2.707429e-02 -2.449509e-02 1.044807e-03 -2.814149e-03 -1.069957e-02 -2.189800e-02 -1.515491e-02 -1.578817e-02 -8.615097e-03 -7.826556e-04 5.520538e-04 2.807738e-03 4.990044e-02 -1.887582e-03 -9.551624e-03 -3.154248e-03 -1.887104e-03 -4.618816e-03 -7.331570e-03 -7.762817e-03 -6.921843e-03 -3.692248e-03 -2.407074e-03 2.686498e-04 2.587046e-05 1.753477e-02
<VARIANCE> 39
 1.705900e+01 2.477147e+01 1.275113e+01 1.270870e+01 1.504247e+01 1.794534e+01 1.994300e+01 2.097932e+01 1.774885e+01 1.587119e+01 1.463921e+01 1.326696e+01 2.906522e+01 5.948772e-01 8.573337e-01 7.006509e-01 8.691396e-01 1.135411e+00 1.340114e+00 1.493642e+00 1.575781e+00 1.537053e+00 1.471814e+00 1.374878e+00 1.236552e+00 9.553673e-01 9.416348e-02 1.417392e-01 1.326961e-01 1.691022e-01 2.221095e-01 2.627444e-01 2.959291e-01 3.120218e-01 3.111290e-01 2.993968e-01 2.802067e-01 2.514290e-01 1.388880e-01
<GCONST> 8.979588e+01
<STATE> 3
<MEAN> 39
 -1.152964e+01 -7.086876e+00 -3.919654e+00 -3.161575e+00 -3.309309e-01 -4.985545e+00 -1.129236e+00 -3.458634e+00 -2.099450e+00 -1.144754e+00 -3.106284e-01 -4.045788e-01 6.154294e+01 2.979052e-02 -2.960433e-02 -1.468258e-02 1.257133e-02 9.561915e-03 -2.176104e-02 -2.374804e-02 -3.379999e-02 -2.191782e-02 -1.252385e-02 -1.599057e-03 9.316108e-03 1.026465e-02 8.266741e-03 1.969155e-02 5.825168e-03 4.348442e-03 1.272452e-02 1.972613e-02 2.070712e-02 1.961446e-02 1.133191e-02 7.963805e-03 1.207997e-03 -7.286035e-04 -3.876131e-02
<VARIANCE> 39
 2.300256e+01 2.777241e+01 1.333838e+01 1.384354e+01 1.760238e+01 2.499574e+01 2.431005e+01 2.857280e+01 2.047118e+01 1.719733e+01 1.578915e+01 1.376862e+01 7.828893e+01 5.636483e-01 1.051232e+00 7.402457e-01 9.189838e-01 1.232646e+00 1.569726e+00 1.672399e+00 1.758996e+00 1.601807e+00 1.527853e+00 1.418673e+00 1.288175e+00 3.392993e+00 9.683195e-02 1.629433e-01 1.380665e-01 1.772334e-01 2.427910e-01 2.982321e-01 3.287151e-01 3.366693e-01 3.265617e-01 3.122695e-01 2.912937e-01 2.652422e-01 4.633571e-01
<GCONST> 9.684249e+01
<STATE> 4
<MEAN> 39
 -1.248905e+01 -3.564579e+00 -2.552379e+00 -2.431710e+00 7.781830e-01 -8.886122e-01 2.634877e+00 6.832362e-01 4.438870e-01 6.484790e-01 4.421220e-01 -8.167845e-01 5.484007e+01 8.612774e-03 8.650169e-03 3.880544e-03 -1.029263e-03 2.927525e-03 1.106196e-02 9.670156e-03 1.232063e-02 8.199562e-03 3.050345e-03 5.151096e-04 -2.466743e-03 -2.060546e-02 5.062755e-04 -7.909990e-04 -5.722407e-04 -4.331265e-04 -9.982303e-04 -1.283436e-03 -1.608937e-03 -1.504322e-03 -1.029335e-03 -8.544715e-04 -4.980855e-04 3.538006e-05 7.861534e-04
<VARIANCE> 39
 1.748064e+01 2.321316e+01 1.292720e+01 1.309659e+01 1.447037e+01 2.078650e+01 2.167944e+01 2.182411e+01 1.842953e+01 1.588191e+01 1.442741e+01 1.323901e+01 3.409125e+01 5.398718e-01 7.767383e-01 6.667915e-01 8.558786e-01 1.082171e+00 1.328874e+00 1.476261e+00 1.558679e+00 1.530240e+00 1.464266e+00 1.380471e+00 1.239842e+00 8.347478e-01 8.860531e-02 1.305790e-01 1.263921e-01 1.675651e-01 2.154229e-01 2.631006e-01 2.944013e-01 3.105597e-01 3.117523e-01 2.996113e-01 2.826731e-01 2.537195e-01 1.194246e-01
<GCONST> 8.936367e+01
<TRANSP> 5
 0.000000e+00 1.000000e+00 0.000000e+00 0.000000e+00 0.000000e+00
 0.000000e+00 9.923821e-01 7.617898e-03 0.000000e+00 0.000000e+00
 0.000000e+00 0.000000e+00 9.891564e-01 1.084364e-02 0.000000e+00
 0.000000e+00 0.000000e+00 0.000000e+00 9.973996e-01 2.600396e-03
 0.000000e+00 0.000000e+00 0.000000e+00 0.000000e+00 0.000000e+00
<ENDHMM>
~h "si"
<BEGINHMM>
<NUMSTATES> 5
<STATE> 2
<MEAN> 39
 -9.183059e+00 2.487252e+00 2.247527e+00 -2.170971e+00 2.961738e+00 2.336698e+00 1.219339e+00 3.474933e+00 5.192423e-01 -7.307474e-02 1.826708e-01 -1.435272e+00 4.894548e+01 -2.208731e-03 2.856261e-03 -1.678488e-02 -1.858077e-02 -1.531383e-02 1.551059e-02 2.266144e-02 3.462006e-02 1.015711e-02 1.509448e-02 5.374102e-03 -8.875096e-03 -5.683991e-02 1.323826e-03 -2.669577e-03 -5.650586e-03 -4.691022e-03 -3.602863e-03 1.644222e-03 4.782987e-03 3.732078e-03 3.578867e-03 3.999595e-03 1.231234e-03 -1.061110e-03 1.088562e-04
<VARIANCE> 39
 3.132973e+01 1.330711e+01 1.693389e+01 1.937350e+01 2.194047e+01 2.066393e+01 3.125036e+01 2.413955e+01 2.055312e+01 1.823934e+01 1.709631e+01 1.628944e+01 2.584942e+01 1.891858e-01 3.064756e-01 4.678020e-01 6.780145e-01 8.910696e-01 1.090565e+00 1.244310e+00 1.318374e+00 1.353660e+00 1.353423e+00 1.267590e+00 1.121596e+00 1.110134e-01 3.013215e-02 5.468769e-02 8.762150e-02 1.305804e-01 1.718787e-01 2.116235e-01 2.433103e-01 2.583740e-01 2.679017e-01 2.687846e-01 2.515587e-01 2.235094e-01 1.448550e-02
<GCONST> 7.958035e+01
<STATE> 3
<MEAN> 39
 -4.706066e+00 -9.594959e-01 -2.436686e+00 -3.232604e+00 1.134719e-01 2.958777e+00 3.894991e+00 3.689374e+00 1.229179e+00 1.198378e+00 2.033364e-01 -2.099718e+00 4.701932e+01 -8.415178e-04 5.005131e-04 -9.106854e-03 -7.194673e-03 -5.781917e-03 2.563060e-03 1.590549e-03 6.883486e-03 1.948797e-03 4.399905e-03 2.083542e-03 -8.614985e-04 -1.022271e-02 -2.188436e-03 8.729275e-04 1.938047e-03 1.447308e-03 7.333266e-04 -3.048567e-03 -3.376280e-03 -2.842485e-03 -1.555421e-03 -2.121689e-03 -3.476438e-04 1.260387e-03 2.089367e-03
<VARIANCE> 39
 5.468215e+00 1.384902e+01 1.217017e+01 1.088320e+01 1.612242e+01 1.596193e+01 1.763396e+01 1.914851e+01 1.715615e+01 1.646442e+01 1.485749e+01 1.320764e+01 1.246270e+01 1.461004e-01 2.838578e-01 4.635375e-01 6.719446e-01 9.080210e-01 1.108497e+00 1.258848e+00 1.368090e+00 1.388334e+00 1.393519e+00 1.304007e+00 1.153388e+00 6.145841e-02 2.654334e-02 5.465923e-02 9.217307e-02 1.353661e-01 1.836073e-01 2.249837e-01 2.557674e-01 2.790233e-01 2.846686e-01 2.864057e-01 2.671591e-01 2.359113e-01 9.967360e-03
<GCONST> 7.356273e+01
<STATE> 4
<MEAN> 39
 -8.396807e+00 -2.945328e-02 -8.032024e-01 -2.328579e+00 4.268023e-01 4.423057e-01 2.693217e+00 2.774645e+00 1.461995e+00 5.411213e-01 3.472577e-01 -1.186235e+00 4.834909e+01 -1.107978e-02 -2.217202e-03 -2.418716e-04 -1.697744e-03 -2.168080e-03 -6.771369e-03 -3.736200e-03 -7.080556e-03 -2.432210e-05 3.566314e-04 3.077260e-03 3.589160e-03 1.875509e-02 9.570668e-04 -2.137679e-04 2.701052e-05 -3.245252e-06 8.133499e-05 1.557313e-03 9.730353e-04 3.161818e-04 1.222804e-04 4.435650e-04 -5.302366e-05 -5.874356e-04 1.743471e-04
<VARIANCE> 39
 1.742475e+01 1.653880e+01 1.294433e+01 1.346268e+01 1.752251e+01 1.900693e+01 1.942805e+01 2.271739e+01 1.897426e+01 1.700953e+01 1.574685e+01 1.382480e+01 3.607235e+01 3.839968e-01 5.209216e-01 5.849878e-01 8.047363e-01 1.027965e+00 1.239544e+00 1.378010e+00 1.495611e+00 1.471089e+00 1.449283e+00 1.355966e+00 1.190854e+00 4.558184e-01 6.140867e-02 9.104513e-02 1.109220e-01 1.562914e-01 2.016634e-01 2.441470e-01 2.750404e-01 2.990675e-01 2.966234e-01 2.938825e-01 2.747213e-01 2.412755e-01 6.637789e-02
<GCONST> 8.558171e+01
<TRANSP> 5
 0.000000e+00 1.000000e+00 0.000000e+00 0.000000e+00 0.000000e+00
 0.000000e+00 9.708408e-01 2.915920e-02 0.000000e+00 0.000000e+00
 0.000000e+00 0.000000e+00 9.908060e-01 9.194022e-03 0.000000e+00
 0.000000e+00 0.000000e+00 0.000000e+00 9.925056e-01 7.494464e-03
 0.000000e+00 0.000000e+00 0.000000e+00 0.000000e+00 0.000000e+00
<ENDHMM>
~h "st"
<BEGINHMM>
<NUMSTATES> 5
<STATE> 2
<MEAN> 39
 -8.978262e+00 -3.438520e+00 -2.155427e+00 -6.848940e+00 -2.220740e+00 -2.836524e+00 1.537787e+00 1.210527e+00 1.212415e+00 2.358363e-01 8.096879e-01 -1.865301e+00 5.831731e+01 -3.133142e-01 -6.656089e-01 1.530678e-01 -7.047189e-01 -3.897115e-01 -8.334981e-01 -4.557397e-01 -1.524464e-01 1.982607e-02 -8.968159e-02 6.488090e-02 2.755737e-02 1.599228e+00 7.115144e-02 9.966476e-02 4.665552e-02 8.946456e-02 7.246304e-02 1.328746e-01 8.889151e-02 5.638037e-02 4.434361e-02 3.313005e-02 1.829903e-02 3.359485e-02 -2.317076e-01
<VARIANCE> 39
 2.440256e+01 3.117276e+01 1.886319e+01 3.232053e+01 2.647395e+01 3.804909e+01 2.815826e+01 2.400627e+01 2.234648e+01 1.974006e+01 1.768132e+01 1.492618e+01 8.956075e+01 1.322675e+00 1.770316e+00 1.334907e+00 2.221463e+00 2.254363e+00 3.038589e+00 2.370155e+00 2.365258e+00 2.214950e+00 2.025406e+00 1.857754e+00 1.590089e+00 4.728591e+00 1.937520e-01 2.971228e-01 2.180447e-01 4.032687e-01 3.800032e-01 5.483572e-01 4.150989e-01 3.983525e-01 3.702723e-01 3.454405e-01 3.077668e-01 2.746013e-01 8.893861e-01
<GCONST> 1.107406e+02
<STATE> 3
<MEAN> 39
 -8.442981e+00 -3.515526e+00 -2.095566e+00 -6.632788e+00 -1.882176e+00 -1.745003e+00 2.390529e+00 3.592492e-01 1.398118e-01 -4.698310e-01 6.368482e-01 -1.819703e+00 5.682325e+01 4.828066e-03 2.074787e-02 5.585518e-03 2.446613e-02 1.005171e-02 2.107167e-02 1.249930e-02 1.052556e-03 -3.909809e-03 1.240577e-03 -3.924922e-04 2.923572e-03 -5.251198e-02 4.739843e-04 2.576981e-03 -2.599668e-03 4.081286e-03 1.896318e-03 3.086364e-03 1.497960e-03 4.172673e-04 -2.109081e-04 7.791735e-04 -7.231326e-04 -1.499001e-03 -3.662706e-03
<VARIANCE> 39
 1.662016e+01 2.107031e+01 1.594454e+01 2.401712e+01 2.048504e+01 2.681100e+01 2.041941e+01 1.966177e+01 1.970245e+01 1.878313e+01 1.608133e+01 1.454412e+01 4.576725e+01 5.766411e-01 7.372522e-01 6.941281e-01 1.255061e+00 1.341907e+00 1.603968e+00 1.543237e+00 1.556129e+00 1.590412e+00 1.563231e+00 1.460622e+00 1.322580e+00 1.680607e+00 9.080013e-02 1.238213e-01 1.311793e-01 2.302488e-01 2.591598e-01 3.092520e-01 3.109878e-01 3.174127e-01 3.247735e-01 3.202393e-01 3.000490e-01 2.723631e-01 2.400979e-01
<GCONST> 9.469538e+01
<STATE> 4
<MEAN> 39
 -9.590460e+00 -4.257630e-01 -9.825802e-01 -3.738868e+00 -3.706979e-01 -7.167871e-01 2.514225e+00 1.556643e+00 1.706691e+00 4.262091e-01 6.278613e-01 -1.584758e+00 5.244028e+01 2.322562e-03 1.376545e-02 -6.619810e-03 1.358844e-02 1.490934e-02 2.527335e-02 1.343836e-02 2.851512e-03 -6.125250e-05 5.878361e-04 -2.391520e-03 -1.006320e-03 -3.582937e-02 -8.238555e-05 -1.945204e-03 -6.987542e-04 -3.174462e-03 -2.793491e-03 -2.736502e-03 -2.122127e-03 -1.167566e-03 -1.031559e-03 -9.104621e-04 -4.290072e-04 -1.180458e-04 2.481587e-03
<VARIANCE> 39
 1.811109e+01 1.265792e+01 1.305917e+01 1.756410e+01 1.733979e+01 2.143945e+01 2.102362e+01 1.960971e+01 1.806232e+01 1.632541e+01 1.475502e+01 1.334255e+01 2.737221e+01 3.764723e-01 5.096030e-01 6.144228e-01 9.941936e-01 1.147767e+00 1.389698e+00 1.412617e+00 1.498072e+00 1.496889e+00 1.458922e+00 1.367520e+00 1.218097e+00 6.781154e-01 6.058187e-02 8.939061e-02 1.173947e-01 1.825915e-01 2.214429e-01 2.680405e-01 2.805235e-01 2.998531e-01 3.022568e-01 2.963416e-01 2.780945e-01 2.477004e-01 8.811474e-02
<GCONST> 8.686328e+01
<TRANSP> 5
 0.000000e+00 1.000000e+00 0.000000e+00 0.000000e+00 0.000000e+00
 0.000000e+00 8.212293e-01 1.787707e-01 0.000000e+00 0.000000e+00
 0.000000e+00 0.000000e+00 9.907972e-01 9.202814e-03 0.000000e+00
 0.000000e+00 0.000000e+00 0.000000e+00 9.920533e-01 7.946678e-03
 0.000000e+00 0.000000e+00 0.000000e+00 0.000000e+00 0.000000e+00
<ENDHMM>
~h "spe"
<BEGINHMM>
<NUMSTATES> 5
<STATE> 2
<MEAN> 39
 -2.507581e+00 -1.443638e+00 -3.285302e-01 -9.495093e+00 -1.894761e+00 8.811800e-01 -7.063489e-01 -9.361899e-01 -3.324277e+00 7.337934e-01 2.221885e-01 -4.045741e+00 5.542873e+01 1.082462e-01 -4.965586e-01 3.472537e-01 -4.559892e-01 -3.973664e-01 -3.743500e-01 -5.734557e-01 -9.694121e-02 -2.357224e-02 1.760088e-01 6.331570e-02 -1.210128e-01 7.168151e-01 5.371195e-03 -5.563163e-02 1.178153e-02 3.739006e-02 -6.185701e-02 -4.798222e-02 -1.454971e-03 2.402069e-02 5.799674e-02 1.578577e-02 -3.256453e-02 1.796230e-02 1.464247e-02
<VARIANCE> 39
 3.720659e+01 3.944802e+01 4.379354e+01 4.404407e+01 3.767707e+01 4.256448e+01 3.763278e+01 4.622406e+01 3.384867e+01 3.189386e+01 3.072056e+01 2.850895e+01 1.297088e+01 9.699041e-01 1.455598e+00 1.641519e+00 2.100122e+00 2.800789e+00 2.310151e+00 2.275199e+00 2.711667e+00 2.479971e+00 2.473828e+00 2.248257e+00 2.136597e+00 6.586920e-01 1.151080e-01 1.725889e-01 2.105992e-01 2.700506e-01 3.612010e-01 3.592829e-01 3.578667e-01 4.132246e-01 3.837180e-01 3.840132e-01 3.445227e-01 3.371036e-01 6.819567e-02
<GCONST> 1.084399e+02
<STATE> 3
<MEAN> 39
 -2.495706e+00 -5.138710e+00 1.810380e+00 -1.273199e+01 -3.755694e+00 -4.557823e+00 -5.116924e+00 -1.775049e+00 -2.409196e+00 -2.407080e+00 -4.407453e+00 -3.369484e+00 6.155816e+01 -2.367937e-04 2.633755e-02 -5.870277e-02 5.755895e-02 3.881576e-02 -1.164740e-04 1.983966e-02 -1.093591e-02 2.523266e-03 -3.985969e-02 -6.208141e-02 -3.369531e-02 -1.623181e-02 -4.065788e-03 1.915009e-02 -9.055458e-03 1.477034e-02 1.457824e-02 1.338552e-02 1.603582e-02 -1.706557e-03 -4.224905e-03 8.998243e-04 6.488095e-03 2.888612e-03 -1.908074e-02
<VARIANCE> 39
 2.192361e+01 3.752657e+01 7.225246e+01 6.562168e+01 6.495759e+01 6.253209e+01 4.215278e+01 5.685441e+01 4.012336e+01 3.690326e+01 5.964553e+01 3.886567e+01 2.325915e+01 5.526226e-01 9.875047e-01 1.272814e+00 1.536986e+00 1.835110e+00 1.923163e+00 2.026579e+00 2.236483e+00 2.101995e+00 2.029891e+00 2.032008e+00 1.749967e+00 4.088797e-01 7.596096e-02 1.333742e-01 1.880352e-01 2.446640e-01 3.071391e-01 3.436326e-01 3.700487e-01 4.066940e-01 3.968845e-01 3.892207e-01 3.816060e-01 3.295965e-01 4.598206e-02
<GCONST> 1.069694e+02
<STATE> 4
<MEAN> 39
 -1.822150e+00 -3.374834e+00 -1.179290e+00 -5.777231e+00 -3.137079e+00 -6.553938e-01 -7.255837e-01 4.098631e-01 -1.525563e+00 -8.553355e-02 -8.077079e-01 -4.148277e+00 5.358904e+01 -3.684847e-03 7.220396e-03 -4.879007e-03 1.192673e-02 8.360592e-03 7.006406e-03 1.648979e-02 8.529846e-03 6.882470e-03 8.788356e-03 9.996179e-03 9.074798e-03 -2.266748e-02 -2.955530e-07 -9.744542e-04 3.889176e-04 -1.361896e-03 -4.676745e-04 -6.348254e-04 -8.613457e-04 1.231688e-04 -3.201867e-04 -6.807856e-05 -2.371691e-04 -3.028327e-04 5.689473e-04
<VARIANCE> 39
 1.655110e+01 3.171669e+01 3.436523e+01 2.797617e+01 4.454450e+01 4.051430e+01 4.017081e+01 3.356839e+01 2.975241e+01 2.905423e+01 2.894665e+01 2.533927e+01 1.805889e+01 3.964388e-01 7.124375e-01 8.915727e-01 1.030387e+00 1.437113e+00 1.605511e+00 1.694550e+00 1.749841e+00 1.764828e+00 1.734462e+00 1.693369e+00 1.497701e+00 2.351465e-01 5.456864e-02 1.013111e-01 1.347979e-01 1.745030e-01 2.419128e-01 2.858900e-01 3.097329e-01 3.292207e-01 3.422638e-01 3.380826e-01 3.225878e-01 2.835413e-01 2.569299e-02
<GCONST> 9.483102e+01
<TRANSP> 5
 0.000000e+00 1.000000e+00 0.000000e+00 0.000000e+00 0.000000e+00
 0.000000e+00 8.877952e-01 1.122048e-01 0.000000e+00 0.000000e+00
 0.000000e+00 0.000000e+00 9.840169e-01 1.598311e-02 0.000000e+00
 0.000000e+00 0.000000e+00 0.000000e+00 9.968385e-01 3.161565e-03
 0.000000e+00 0.000000e+00 0.000000e+00 0.000000e+00 0.000000e+00
<ENDHMM>
