~o
<STREAMINFO> 1 39
<VECSIZE> 39<NULLD><MFCC_D_A_0><DIAGC>
~h "ap"
<BEGINHMM>
<NUMSTATES> 5
<STATE> 2
<NUMMIXES> 2
<MIXTURE> 1 5.000000e-01
<MEAN> 39
 -1.313408e+01 -8.151870e+00 -3.914061e+00 -4.325738e-01 2.470015e-01 -1.983133e+00 3.600282e+00 -5.873716e-02 3.997335e-01 8.963978e-01 1.304819e+00 -1.980150e-02 6.574982e+01 1.110324e-01 -9.400851e-02 2.850407e-02 2.047621e-01 1.299424e-01 7.741067e-02 2.438150e-01 1.999617e-01 2.150611e-01 2.223837e-01 2.388654e-01 2.294815e-01 1.313165e+00 1.542509e-01 1.477307e-01 1.152227e-01 9.397335e-02 1.464584e-01 1.819588e-01 1.645063e-01 1.478729e-01 1.369951e-01 1.218479e-01 1.184269e-01 1.077771e-01 1.358595e-01
<VARIANCE> 39
 3.185109e+01 4.147439e+01 3.250344e+01 2.650181e+01 3.134315e+01 3.930399e+01 3.081899e+01 2.868335e+01 2.272264e+01 2.016649e+01 1.831026e+01 1.598635e+01 1.308593e+02 1.949299e+00 2.442556e+00 1.455771e+00 1.245868e+00 1.932699e+00 2.788330e+00 2.259719e+00 2.193917e+00 1.914385e+00 1.703119e+00 1.541581e+00 1.364838e+00 9.987494e+00 2.851257e-01 3.357154e-01 2.287281e-01 2.254751e-01 3.330688e-01 4.819388e-01 4.244073e-01 4.063802e-01 3.644803e-01 3.272455e-01 2.980266e-01 2.667234e-01 1.452691e+00
<GCONST> 1.126886e+02
<MIXTURE> 2 5.000000e-01
<MEAN> 39
 -1.539156e+01 -1.072789e+01 -6.194533e+00 -2.491770e+00 -1.992397e+00 -4.490849e+00 1.379688e+00 -2.201011e+00 -1.506997e+00 -8.998869e-01 -4.068011e-01 -1.619119e+00 6.117406e+01 -4.474368e-01 -7.191557e-01 -4.541173e-01 -2.417117e-01 -4.261438e-01 -5.905211e-01 -3.574794e-01 -3.925134e-01 -3.383841e-01 -2.996307e-01 -2.577763e-01 -2.378236e-01 4.904544e-02 -5.933775e-02 -8.403309e-02 -7.607941e-02 -9.596353e-02 -8.439007e-02 -9.572844e-02 -9.607992e-02 -1.071190e-01 -1.044937e-01 -1.069736e-01 -9.994034e-02 -9.880397e-02 -3.462511e-01
<VARIANCE> 39
 3.185109e+01 4.147439e+01 3.250344e+01 2.650181e+01 3.134315e+01 3.930399e+01 3.081899e+01 2.868335e+01 2.272264e+01 2.016649e+01 1.831026e+01 1.598635e+01 1.308593e+02 1.949299e+00 2.442556e+00 1.455771e+00 1.245868e+00 1.932699e+00 2.788330e+00 2.259719e+00 2.193917e+00 1.914385e+00 1.703119e+00 1.541581e+00 1.364838e+00 9.987494e+00 2.851257e-01 3.357154e-01 2.287281e-01 2.254751e-01 3.330688e-01 4.819388e-01 4.244073e-01 4.063802e-01 3.644803e-01 3.272455e-01 2.980266e-01 2.667234e-01 1.452691e+00
<GCONST> 1.126886e+02
<STATE> 3
<NUMMIXES> 2
<MIXTURE> 1 5.000000e-01
<MEAN> 39
 -1.044416e+01 -1.602098e+01 -1.035755e+01 1.295985e+00 1.642040e+00 -8.311125e+00 1.385128e+00 4.389805e-02 -2.845755e+00 -1.909548e+00 1.723861e+00 1.955070e-01 7.082695e+01 2.482966e-01 2.228322e-01 2.531413e-01 2.736014e-01 3.227820e-01 2.836034e-01 2.971030e-01 2.615881e-01 2.462272e-01 2.403408e-01 2.494068e-01 2.365081e-01 1.575499e-01 6.266718e-02 8.717278e-02 8.542042e-02 9.457196e-02 1.070112e-01 1.134247e-01 1.119239e-01 1.125937e-01 1.125982e-01 1.124220e-01 1.033814e-01 9.919816e-02 1.561317e-01
<VARIANCE> 39
 1.496341e+01 2.357214e+01 2.161693e+01 2.445587e+01 3.328964e+01 2.573690e+01 3.097553e+01 2.367412e+01 2.353110e+01 2.131378e+01 1.705029e+01 1.487894e+01 8.413609e+01 6.097099e-01 7.600373e-01 8.470412e-01 1.088092e+00 1.403360e+00 1.478797e+00 1.636616e+00 1.486830e+00 1.519051e+00 1.459263e+00 1.332275e+00 1.223557e+00 4.367541e+00 1.012808e-01 1.383995e-01 1.512445e-01 2.054060e-01 2.622444e-01 2.900660e-01 3.318133e-01 3.056805e-01 3.125089e-01 3.012399e-01 2.727500e-01 2.524282e-01 6.749222e-01
<GCONST> 9.884212e+01
<MIXTURE> 2 5.000000e-01
<MEAN> 39
 -1.199146e+01 -1.796302e+01 -1.221731e+01 -6.821297e-01 -6.658465e-01 -1.034039e+01 -8.410990e-01 -1.902344e+00 -4.786109e+00 -3.756222e+00 7.218057e-02 -1.347422e+00 6.715793e+01 -6.403906e-02 -1.258883e-01 -1.149981e-01 -1.436452e-01 -1.510720e-01 -2.028198e-01 -2.146181e-01 -2.261545e-01 -2.467719e-01 -2.428590e-01 -2.122901e-01 -2.059500e-01 -6.783966e-01 -6.463140e-02 -6.163555e-02 -7.014025e-02 -8.671500e-02 -9.782802e-02 -1.020065e-01 -1.184891e-01 -1.085599e-01 -1.110118e-01 -1.071193e-01 -1.055205e-01 -1.017708e-01 -1.724829e-01
<VARIANCE> 39
 1.496341e+01 2.357214e+01 2.161693e+01 2.445587e+01 3.328964e+01 2.573690e+01 3.097553e+01 2.367412e+01 2.353110e+01 2.131378e+01 1.705029e+01 1.487894e+01 8.413609e+01 6.097099e-01 7.600373e-01 8.470412e-01 1.088092e+00 1.403360e+00 1.478797e+00 1.636616e+00 1.486830e+00 1.519051e+00 1.459263e+00 1.332275e+00 1.223557e+00 4.367541e+00 1.012808e-01 1.383995e-01 1.512445e-01 2.054060e-01 2.622444e-01 2.900660e-01 3.318133e-01 3.056805e-01 3.125089e-01 3.012399e-01 2.727500e-01 2.524282e-01 6.749222e-01
<GCONST> 9.884212e+01
<STATE> 4
<NUMMIXES> 2
<MIXTURE> 1 5.000000e-01
<MEAN> 39
 -9.922514e+00 -8.913979e+00 -4.095726e+00 8.634453e-01 1.146980e+00 -2.961839e+00 3.728409e+00 -1.351162e-01 -6.862168e-01 8.613176e-01 1.430069e+00 -3.319305e-02 6.228216e+01 2.055164e-01 2.526282e-01 2.047117e-01 2.019883e-01 2.386084e-01 2.746857e-01 2.583943e-01 2.738053e-01 2.597192e-01 2.458750e-01 2.326937e-01 2.201446e-01 4.115884e-01 7.501265e-02 8.846343e-02 7.720307e-02 8.346678e-02 9.990391e-02 1.106193e-01 1.105453e-01 1.157007e-01 1.130641e-01 1.076894e-01 1.047387e-01 9.951939e-02 1.766078e-01
<VARIANCE> 39
 2.640499e+01 5.710306e+01 2.686191e+01 2.489872e+01 3.393361e+01 3.577189e+01 2.790681e+01 3.161024e+01 2.444211e+01 1.997145e+01 1.694227e+01 1.502991e+01 1.248425e+02 9.227197e-01 1.307998e+00 9.102637e-01 9.626344e-01 1.398597e+00 1.680687e+00 1.590869e+00 1.747766e+00 1.603965e+00 1.458435e+00 1.365261e+00 1.224869e+00 5.143566e+00 1.441708e-01 1.996553e-01 1.556717e-01 1.807258e-01 2.582603e-01 3.165475e-01 3.142134e-01 3.379406e-01 3.254739e-01 2.980449e-01 2.765833e-01 2.494217e-01 7.606248e-01
<GCONST> 1.037318e+02
<MIXTURE> 2 5.000000e-01
<MEAN> 39
 -1.197795e+01 -1.193664e+01 -6.168866e+00 -1.132499e+00 -1.183122e+00 -5.354223e+00 1.615333e+00 -2.384036e+00 -2.663775e+00 -9.262595e-01 -2.163702e-01 -1.583930e+00 5.781284e+01 -1.787168e-01 -2.048428e-01 -1.769193e-01 -1.904674e-01 -2.344408e-01 -2.438796e-01 -2.461243e-01 -2.550071e-01 -2.468718e-01 -2.371878e-01 -2.346838e-01 -2.225506e-01 -4.955888e-01 -7.686668e-02 -9.026778e-02 -8.061794e-02 -8.658066e-02 -1.033734e-01 -1.144309e-01 -1.136736e-01 -1.168299e-01 -1.151372e-01 -1.106846e-01 -1.056261e-01 -1.002492e-01 -1.722474e-01
<VARIANCE> 39
 2.640499e+01 5.710306e+01 2.686191e+01 2.489872e+01 3.393361e+01 3.577189e+01 2.790681e+01 3.161024e+01 2.444211e+01 1.997145e+01 1.694227e+01 1.502991e+01 1.248425e+02 9.227197e-01 1.307998e+00 9.102637e-01 9.626344e-01 1.398597e+00 1.680687e+00 1.590869e+00 1.747766e+00 1.603965e+00 1.458435e+00 1.365261e+00 1.224869e+00 5.143566e+00 1.441708e-01 1.996553e-01 1.556717e-01 1.807258e-01 2.582603e-01 3.165475e-01 3.142134e-01 3.379406e-01 3.254739e-01 2.980449e-01 2.765833e-01 2.494217e-01 7.606248e-01
<GCONST> 1.037318e+02
<TRANSP> 5
 0.000000e+00 1.000000e+00 0.000000e+00 0.000000e+00 0.000000e+00
 0.000000e+00 9.632863e-01 3.671369e-02 0.000000e+00 0.000000e+00
 0.000000e+00 0.000000e+00 9.871887e-01 1.281125e-02 0.000000e+00
 0.000000e+00 0.000000e+00 0.000000e+00 9.944697e-01 5.530242e-03
 0.000000e+00 0.000000e+00 0.000000e+00 0.000000e+00 0.000000e+00
<ENDHMM>
~h "cl"
<BEGINHMM>
<NUMSTATES> 5
<STATE> 2
<NUMMIXES> 2
<MIXTURE> 1 5.000000e-01
<MEAN> 39
 -1.065018e+01 -6.589736e-01 -4.035985e-02 -3.244177e+00 -7.263980e-01 5.815659e+00 4.326235e+00 1.552189e+00 4.618207e+00 1.087271e+00 -1.536177e+00 1.780034e+00 5.530233e+01 7.253289e-04 2.263459e-01 2.188976e-01 1.652897e-01 1.406375e-01 4.333886e-01 1.886437e-01 1.552089e-01 3.709696e-01 2.325552e-01 1.561132e-01 3.395891e-01 5.412005e-01 7.708858e-02 6.830351e-02 9.176721e-02 7.201912e-02 7.268623e-02 1.552815e-01 1.004811e-01 8.764468e-02 1.395910e-01 1.101427e-01 7.713728e-02 1.323087e-01 1.296121e-01
<VARIANCE> 39
 4.031028e+01 3.042242e+01 3.127992e+01 1.580013e+01 2.019060e+01 4.465308e+01 2.487997e+01 2.720980e+01 3.430658e+01 2.250060e+01 2.565028e+01 2.252934e+01 5.635381e+01 2.544850e+00 8.287533e-01 7.967104e-01 9.293120e-01 1.330639e+00 2.106848e+00 1.743358e+00 2.078721e+00 2.100195e+00 1.783459e+00 1.817665e+00 1.598000e+00 2.227842e+00 3.056425e-01 1.249868e-01 1.366190e-01 1.686526e-01 2.355792e-01 3.424479e-01 3.115344e-01 3.611447e-01 3.670306e-01 3.301654e-01 3.198779e-01 2.794750e-01 2.823077e-01
<GCONST> 1.037784e+02
<MIXTURE> 2 5.000000e-01
<MEAN> 39
 -1.318980e+01 -2.865234e+00 -2.277498e+00 -4.834153e+00 -2.523756e+00 3.142741e+00 2.331042e+00 -5.343322e-01 2.275334e+00 -8.101208e-01 -3.562021e+00 -1.185694e-01 5.229956e+01 -6.373782e-01 -1.377976e-01 -1.381369e-01 -2.203136e-01 -3.207759e-01 -1.472108e-01 -3.395015e-01 -4.215019e-01 -2.087124e-01 -3.016296e-01 -3.831700e-01 -1.660590e-01 -5.583787e-02 -1.440512e-01 -7.311037e-02 -5.608083e-02 -9.225022e-02 -1.214598e-01 -7.879469e-02 -1.227800e-01 -1.527366e-01 -1.027412e-01 -1.196974e-01 -1.490937e-01 -7.915287e-02 -8.291846e-02
<VARIANCE> 39
 4.031028e+01 3.042242e+01 3.127992e+01 1.580013e+01 2.019060e+01 4.465308e+01 2.487997e+01 2.720980e+01 3.430658e+01 2.250060e+01 2.565028e+01 2.252934e+01 5.635381e+01 2.544850e+00 8.287533e-01 7.967104e-01 9.293120e-01 1.330639e+00 2.106848e+00 1.743358e+00 2.078721e+00 2.100195e+00 1.783459e+00 1.817665e+00 1.598000e+00 2.227842e+00 3.056425e-01 1.249868e-01 1.366190e-01 1.686526e-01 2.355792e-01 3.424479e-01 3.115344e-01 3.611447e-01 3.670306e-01 3.301654e-01 3.198779e-01 2.794750e-01 2.823077e-01
<GCONST> 1.037784e+02
<STATE> 3
<NUMMIXES> 2
<MIXTURE> 1 5.000000e-01
<MEAN> 39
 -1.865883e+01 3.035878e+00 9.602243e-02 -6.126455e+00 -3.781637e+00 1.327696e+01 1.657259e+00 -1.201299e+00 9.830836e+00 -2.861503e+00 -3.237942e+00 6.150976e+00 5.986438e+01 2.982598e-01 1.355042e-01 1.724625e-01 1.975378e-01 2.239582e-01 2.732425e-01 2.783946e-01 2.479363e-01 2.679904e-01 2.579038e-01 2.457536e-01 2.598289e-01 1.870014e-01 1.267845e-01 5.856482e-02 7.611674e-02 8.754670e-02 1.020245e-01 1.129060e-01 1.229135e-01 1.198859e-01 1.173306e-01 1.205714e-01 1.156027e-01 1.081840e-01 7.893892e-02
<VARIANCE> 39
 5.084708e+01 1.093363e+01 2.009416e+01 1.295102e+01 1.631097e+01 3.434000e+01 2.701811e+01 2.192211e+01 2.768280e+01 2.014023e+01 1.914223e+01 2.088989e+01 2.366095e+01 1.827030e+00 5.004023e-01 8.113971e-01 9.268961e-01 1.244794e+00 1.921635e+00 1.865863e+00 1.695846e+00 1.906814e+00 1.666460e+00 1.560998e+00 1.670289e+00 1.021481e+00 3.348840e-01 9.177079e-02 1.518931e-01 1.842884e-01 2.411335e-01 3.606756e-01 3.625789e-01 3.335483e-01 3.783483e-01 3.390332e-01 3.098787e-01 3.221534e-01 1.883432e-01
<GCONST> 9.789505e+01
<MIXTURE> 2 5.000000e-01
<MEAN> 39
 -2.151111e+01 1.713236e+00 -1.697038e+00 -7.565956e+00 -5.397111e+00 1.093294e+01 -4.218989e-01 -3.074141e+00 7.726258e+00 -4.656617e+00 -4.988016e+00 4.322758e+00 5.791868e+01 -2.424109e-01 -1.474523e-01 -1.878478e-01 -1.875640e-01 -2.223232e-01 -2.812497e-01 -2.679918e-01 -2.729622e-01 -2.843593e-01 -2.584620e-01 -2.540060e-01 -2.571297e-01 -2.172720e-01 -1.046922e-01 -6.260996e-02 -7.977712e-02 -8.416861e-02 -9.439687e-02 -1.273191e-01 -1.179446e-01 -1.111287e-01 -1.287095e-01 -1.123348e-01 -1.070643e-01 -1.188503e-01 -9.465519e-02
<VARIANCE> 39
 5.084708e+01 1.093363e+01 2.009416e+01 1.295102e+01 1.631097e+01 3.434000e+01 2.701811e+01 2.192211e+01 2.768280e+01 2.014023e+01 1.914223e+01 2.088989e+01 2.366095e+01 1.827030e+00 5.004023e-01 8.113971e-01 9.268961e-01 1.244794e+00 1.921635e+00 1.865863e+00 1.695846e+00 1.906814e+00 1.666460e+00 1.560998e+00 1.670289e+00 1.021481e+00 3.348840e-01 9.177079e-02 1.518931e-01 1.842884e-01 2.411335e-01 3.606756e-01 3.625789e-01 3.335483e-01 3.783483e-01 3.390332e-01 3.098787e-01 3.221534e-01 1.883432e-01
<GCONST> 9.789505e+01
<STATE> 4
<NUMMIXES> 2
<MIXTURE> 1 5.000000e-01
<MEAN> 39
 -2.098735e+01 1.172127e+00 6.157807e+00 -3.316710e+00 -5.338496e+00 1.170933e+01 2.384993e+00 -4.557895e+00 4.877141e+00 5.481471e+00 -1.035783e+01 5.787637e+00 5.917610e+01 2.816711e-01 1.325305e-01 2.036959e-01 1.856157e-01 2.391099e-01 2.568360e-01 2.627565e-01 3.213176e-01 3.154711e-01 2.784979e-01 2.806183e-01 2.598676e-01 1.908570e-01 1.011395e-01 6.015674e-02 8.458163e-02 8.604573e-02 1.066671e-01 1.155580e-01 1.172213e-01 1.404765e-01 1.379301e-01 1.229445e-01 1.266049e-01 1.146562e-01 9.912869e-02
<VARIANCE> 39
 3.945162e+01 1.025680e+01 1.676208e+01 1.608474e+01 2.943537e+01 2.984798e+01 2.936419e+01 4.869364e+01 3.876851e+01 3.199599e+01 3.081024e+01 3.180619e+01 3.660937e+01 1.324746e+00 4.734526e-01 9.960830e-01 9.292149e-01 1.384191e+00 1.833132e+00 1.732865e+00 2.462306e+00 2.484509e+00 2.000036e+00 1.855684e+00 1.733824e+00 1.341432e+00 2.464005e-01 8.836617e-02 1.917065e-01 1.824578e-01 2.682959e-01 3.534737e-01 3.412906e-01 4.600983e-01 4.835307e-01 3.865394e-01 3.709834e-01 3.440959e-01 2.536407e-01
<GCONST> 1.033412e+02
<MIXTURE> 2 5.000000e-01
<MEAN> 39
 -2.349977e+01 -1.089222e-01 4.520146e+00 -4.920941e+00 -7.508670e+00 9.523994e+00 2.174433e-01 -7.349128e+00 2.386567e+00 3.218871e+00 -1.257811e+01 3.531757e+00 5.675587e+01 -1.787193e-01 -1.427011e-01 -1.955199e-01 -1.999675e-01 -2.314967e-01 -2.847368e-01 -2.637969e-01 -3.063519e-01 -3.150220e-01 -2.871926e-01 -2.642757e-01 -2.668314e-01 -2.724238e-01 -9.741549e-02 -5.874906e-02 -9.055558e-02 -8.481459e-02 -1.005221e-01 -1.222566e-01 -1.164590e-01 -1.308457e-01 -1.402154e-01 -1.257446e-01 -1.170287e-01 -1.199825e-01 -1.023223e-01
<VARIANCE> 39
 3.945162e+01 1.025680e+01 1.676208e+01 1.608474e+01 2.943537e+01 2.984798e+01 2.936419e+01 4.869364e+01 3.876851e+01 3.199599e+01 3.081024e+01 3.180619e+01 3.660937e+01 1.324746e+00 4.734526e-01 9.960830e-01 9.292149e-01 1.384191e+00 1.833132e+00 1.732865e+00 2.462306e+00 2.484509e+00 2.000036e+00 1.855684e+00 1.733824e+00 1.341432e+00 2.464005e-01 8.836617e-02 1.917065e-01 1.824578e-01 2.682959e-01 3.534737e-01 3.412906e-01 4.600983e-01 4.835307e-01 3.865394e-01 3.709834e-01 3.440959e-01 2.536407e-01
<GCONST> 1.033412e+02
<TRANSP> 5
 0.000000e+00 1.000000e+00 0.000000e+00 0.000000e+00 0.000000e+00
 0.000000e+00 9.494642e-01 5.053582e-02 0.000000e+00 0.000000e+00
 0.000000e+00 0.000000e+00 9.921417e-01 7.858332e-03 0.000000e+00
 0.000000e+00 0.000000e+00 0.000000e+00 9.935564e-01 6.443534e-03
 0.000000e+00 0.000000e+00 0.000000e+00 0.000000e+00 0.000000e+00
<ENDHMM>
~h "cm"
<BEGINHMM>
<NUMSTATES> 5
<STATE> 2
<NUMMIXES> 2
<MIXTURE> 1 5.000000e-01
<MEAN> 39
 -1.225739e+01 9.893465e-02 -3.281648e+00 -5.306237e+00 3.498209e-01 1.236209e+00 -2.973100e-01 1.787071e+00 -5.032414e-02 2.162943e+00 3.794401e+00 1.195708e+00 5.957235e+01 8.460592e-02 9.326216e-02 1.216702e-01 1.537831e-01 2.123461e-01 2.147781e-01 1.896701e-01 2.172516e-01 2.086560e-01 2.214582e-01 2.348989e-01 2.311870e-01 2.392345e-01 4.958413e-02 4.793002e-02 6.197448e-02 7.946824e-02 8.186267e-02 8.365421e-02 9.438385e-02 9.541975e-02 9.672842e-02 9.221622e-02 9.024509e-02 8.994399e-02 4.092726e-02
<VARIANCE> 39
 1.005720e+01 1.374399e+01 1.314814e+01 1.465830e+01 1.489812e+01 1.664958e+01 1.975425e+01 1.862979e+01 1.864793e+01 1.673869e+01 1.863340e+01 1.681113e+01 2.302418e+01 2.336942e-01 3.610924e-01 5.301856e-01 7.926818e-01 9.955840e-01 1.199387e+00 1.354828e+00 1.438110e+00 1.440763e+00 1.371742e+00 1.375935e+00 1.256350e+00 2.553209e-01 3.426740e-02 5.966846e-02 9.485762e-02 1.445127e-01 1.899462e-01 2.328572e-01 2.639330e-01 2.828830e-01 2.836494e-01 2.717057e-01 2.698191e-01 2.491850e-01 2.504800e-02
<GCONST> 8.013967e+01
<MIXTURE> 2 5.000000e-01
<MEAN> 39
 -1.352591e+01 -1.383981e+00 -4.732062e+00 -6.837683e+00 -1.194103e+00 -3.959470e-01 -2.075140e+00 6.058115e-02 -1.777654e+00 5.264251e-01 2.067744e+00 -4.443470e-01 5.765301e+01 -1.087618e-01 -1.471017e-01 -1.695852e-01 -2.023476e-01 -1.867698e-01 -2.232880e-01 -2.759182e-01 -2.624333e-01 -2.714711e-01 -2.470274e-01 -2.343021e-01 -2.171611e-01 3.711732e-02 -2.446169e-02 -4.977849e-02 -6.122138e-02 -7.259106e-02 -9.246860e-02 -1.093669e-01 -1.111138e-01 -1.173272e-01 -1.163066e-01 -1.162854e-01 -1.175314e-01 -1.097298e-01 -2.237898e-02
<VARIANCE> 39
 1.005720e+01 1.374399e+01 1.314814e+01 1.465830e+01 1.489812e+01 1.664958e+01 1.975425e+01 1.862979e+01 1.864793e+01 1.673869e+01 1.863340e+01 1.681113e+01 2.302418e+01 2.336942e-01 3.610924e-01 5.301856e-01 7.926818e-01 9.955840e-01 1.199387e+00 1.354828e+00 1.438110e+00 1.440763e+00 1.371742e+00 1.375935e+00 1.256350e+00 2.553209e-01 3.426740e-02 5.966846e-02 9.485762e-02 1.445127e-01 1.899462e-01 2.328572e-01 2.639330e-01 2.828830e-01 2.836494e-01 2.717057e-01 2.698191e-01 2.491850e-01 2.504800e-02
<GCONST> 8.013967e+01
<STATE> 3
<NUMMIXES> 2
<MIXTURE> 1 5.000000e-01
<MEAN> 39
 -7.435821e+00 -1.584727e+00 -4.240003e+00 -5.317676e+00 -1.205181e+00 -1.559302e+00 -1.747678e+00 -5.655226e-01 -1.708224e+00 -3.681837e-01 3.902656e-02 -1.084702e+00 6.808687e+01 3.012453e-01 1.485913e-01 1.517525e-01 1.741059e-01 1.425348e-01 1.335232e-01 1.748474e-01 1.796820e-01 2.050771e-01 1.787001e-01 1.458266e-01 1.797311e-01 5.684054e-01 5.408711e-02 7.812076e-02 8.075188e-02 1.000166e-01 1.151946e-01 1.308550e-01 1.308010e-01 1.309475e-01 1.278109e-01 1.249199e-01 1.249753e-01 1.119647e-01 4.125222e-02
<VARIANCE> 39
 1.484922e+01 1.622247e+01 1.467581e+01 1.743481e+01 1.777749e+01 1.735372e+01 2.147682e+01 1.969684e+01 2.080624e+01 1.843536e+01 1.762992e+01 1.555079e+01 7.025340e+01 5.478069e-01 6.922725e-01 7.441379e-01 1.044888e+00 1.233756e+00 1.417052e+00 1.494506e+00 1.586709e+00 1.592941e+00 1.532118e+00 1.494079e+00 1.343289e+00 1.132371e+00 7.745519e-02 1.160870e-01 1.381614e-01 1.963442e-01 2.359042e-01 2.723158e-01 2.940464e-01 3.108791e-01 3.181238e-01 3.059466e-01 2.963632e-01 2.684060e-01 1.380099e-01
<GCONST> 9.191709e+01
<MIXTURE> 2 5.000000e-01
<MEAN> 39
 -8.977208e+00 -3.195812e+00 -5.772364e+00 -6.987876e+00 -2.891715e+00 -3.225614e+00 -3.601402e+00 -2.340767e+00 -3.532778e+00 -2.085640e+00 -1.640493e+00 -2.662082e+00 6.473418e+01 5.189344e-03 -1.842204e-01 -1.933012e-01 -2.347731e-01 -3.017635e-01 -3.426368e-01 -3.141525e-01 -3.241765e-01 -2.997700e-01 -3.164149e-01 -3.431035e-01 -2.838703e-01 1.427538e-01 -5.723599e-02 -5.816541e-02 -6.792840e-02 -7.722640e-02 -7.908531e-02 -7.788055e-02 -8.610317e-02 -9.207867e-02 -9.779900e-02 -9.632984e-02 -9.278170e-02 -9.526695e-02 -1.073465e-01
<VARIANCE> 39
 1.484922e+01 1.622247e+01 1.467581e+01 1.743481e+01 1.777749e+01 1.735372e+01 2.147682e+01 1.969684e+01 2.080624e+01 1.843536e+01 1.762992e+01 1.555079e+01 7.025340e+01 5.478069e-01 6.922725e-01 7.441379e-01 1.044888e+00 1.233756e+00 1.417052e+00 1.494506e+00 1.586709e+00 1.592941e+00 1.532118e+00 1.494079e+00 1.343289e+00 1.132371e+00 7.745519e-02 1.160870e-01 1.381614e-01 1.963442e-01 2.359042e-01 2.723158e-01 2.940464e-01 3.108791e-01 3.181238e-01 3.059466e-01 2.963632e-01 2.684060e-01 1.380099e-01
<GCONST> 9.191709e+01
<STATE> 4
<NUMMIXES> 2
<MIXTURE> 1 5.000000e-01
<MEAN> 39
 -4.873778e+00 6.011314e-01 -3.092041e+00 -4.277500e+00 -6.506569e-01 -1.211628e+00 -1.949292e+00 -7.932547e-01 -1.667124e+00 -1.067592e+00 -3.884595e-01 -1.565801e+00 6.916477e+01 1.237117e-01 1.494372e-01 1.929021e-01 2.373365e-01 2.431507e-01 2.402254e-01 2.537907e-01 2.267089e-01 2.348265e-01 2.259234e-01 2.298489e-01 2.200242e-01 -1.227822e-01 2.913110e-02 4.404876e-02 5.814477e-02 7.073858e-02 8.134938e-02 8.932845e-02 9.671874e-02 1.007670e-01 1.026528e-01 1.033736e-01 1.016713e-01 9.630691e-02 2.322152e-02
<VARIANCE> 39
 1.012401e+01 1.120397e+01 1.217952e+01 1.465847e+01 1.493722e+01 1.454180e+01 1.634911e+01 1.731489e+01 1.807168e+01 1.600994e+01 1.485642e+01 1.285730e+01 6.946954e+01 1.823307e-01 2.876351e-01 4.559205e-01 6.869053e-01 8.729779e-01 1.021023e+00 1.172202e+00 1.260923e+00 1.318415e+00 1.289824e+00 1.243350e+00 1.143534e+00 2.671289e-01 2.799661e-02 5.140624e-02 8.621698e-02 1.317028e-01 1.698814e-01 2.015640e-01 2.342118e-01 2.518593e-01 2.644183e-01 2.602084e-01 2.504371e-01 2.307772e-01 2.122962e-02
<GCONST> 7.690395e+01
<MIXTURE> 2 5.000000e-01
<MEAN> 39
 -6.146508e+00 -7.377619e-01 -4.488008e+00 -5.808955e+00 -2.196605e+00 -2.736976e+00 -3.566654e+00 -2.457701e+00 -3.367556e+00 -2.668088e+00 -1.930221e+00 -3.000085e+00 6.583083e+01 -4.708912e-02 -6.508927e-02 -7.718539e-02 -9.418248e-02 -1.305825e-01 -1.639574e-01 -1.792824e-01 -2.224544e-01 -2.244626e-01 -2.283583e-01 -2.161735e-01 -2.077204e-01 -3.295202e-01 -3.779765e-02 -4.664301e-02 -5.930615e-02 -7.442494e-02 -8.351731e-02 -9.025507e-02 -9.686301e-02 -9.997535e-02 -1.030337e-01 -1.006690e-01 -9.850348e-02 -9.585020e-02 -3.506004e-02
<VARIANCE> 39
 1.012401e+01 1.120397e+01 1.217952e+01 1.465847e+01 1.493722e+01 1.454180e+01 1.634911e+01 1.731489e+01 1.807168e+01 1.600994e+01 1.485642e+01 1.285730e+01 6.946954e+01 1.823307e-01 2.876351e-01 4.559205e-01 6.869053e-01 8.729779e-01 1.021023e+00 1.172202e+00 1.260923e+00 1.318415e+00 1.289824e+00 1.243350e+00 1.143534e+00 2.671289e-01 2.799661e-02 5.140624e-02 8.621698e-02 1.317028e-01 1.698814e-01 2.015640e-01 2.342118e-01 2.518593e-01 2.644183e-01 2.602084e-01 2.504371e-01 2.307772e-01 2.122962e-02
<GCONST> 7.690395e+01
<TRANSP> 5
 0.000000e+00 1.000000e+00 0.000000e+00 0.000000e+00 0.000000e+00
 0.000000e+00 9.669856e-01 3.301439e-02 0.000000e+00 0.000000e+00
 0.000000e+00 0.000000e+00 9.585152e-01 4.148481e-02 0.000000e+00
 0.000000e+00 0.000000e+00 0.000000e+00 9.846643e-01 1.533574e-02
 0.000000e+00 0.000000e+00 0.000000e+00 0.000000e+00 0.000000e+00
<ENDHMM>
~h "co"
<BEGINHMM>
<NUMSTATES> 5
<STATE> 2
<NUMMIXES> 2
<MIXTURE> 1 5.000000e-01
<MEAN> 39
 -5.963765e+00 -6.651567e+00 -1.794537e-01 -2.046835e+00 -7.505154e+00 -2.699853e+00 -3.274394e+00 2.144215e+00 -1.632868e-01 -3.113834e+00 -2.752630e+00 -4.507227e+00 6.604191e+01 -3.118781e-01 2.958207e-01 5.582364e-01 -9.597826e-02 -9.969264e-02 -4.046427e-01 1.982100e-01 -2.424721e-01 -3.187672e-01 -2.933876e-01 3.716704e-02 9.990072e-02 2.649568e+00 3.847458e-02 2.399683e-01 9.248126e-02 1.785955e-01 3.860229e-01 2.487097e-01 2.970162e-01 1.854254e-01 1.655629e-01 2.065598e-01 2.409941e-01 2.040040e-01 1.383717e-02
<VARIANCE> 39
 2.168026e+01 4.283322e+01 2.530433e+01 3.616097e+01 7.194381e+01 5.530364e+01 1.023072e+02 6.189112e+01 5.807523e+01 5.677229e+01 4.213049e+01 3.980774e+01 1.080478e+02 1.184658e+00 3.109689e+00 1.900266e+00 2.567345e+00 4.744839e+00 3.355149e+00 4.365520e+00 3.322412e+00 3.525142e+00 2.927346e+00 2.532133e+00 2.430238e+00 4.618088e+00 1.518134e-01 4.876973e-01 3.011010e-01 3.858676e-01 6.236603e-01 5.320822e-01 6.672306e-01 4.972251e-01 5.889990e-01 4.932892e-01 4.442506e-01 3.981759e-01 5.543761e-01
<GCONST> 1.260717e+02
<MIXTURE> 2 5.000000e-01
<MEAN> 39
 -7.826248e+00 -9.269451e+00 -2.191590e+00 -4.452195e+00 -1.089794e+01 -5.674509e+00 -7.320274e+00 -1.002621e+00 -3.211571e+00 -6.127729e+00 -5.348950e+00 -7.030962e+00 6.188407e+01 -7.472461e-01 -4.095517e-01 6.835818e-03 -7.368957e-01 -9.709987e-01 -1.137325e+00 -6.375430e-01 -9.715715e-01 -1.069782e+00 -9.777672e-01 -5.993401e-01 -5.236681e-01 1.789978e+00 -1.173784e-01 -3.937306e-02 -1.270094e-01 -6.987746e-02 7.013427e-02 -4.306613e-02 -2.972057e-02 -9.663141e-02 -1.414222e-01 -7.437839e-02 -2.561446e-02 -4.840069e-02 -2.839886e-01
<VARIANCE> 39
 2.168026e+01 4.283322e+01 2.530433e+01 3.616097e+01 7.194381e+01 5.530364e+01 1.023072e+02 6.189112e+01 5.807523e+01 5.677229e+01 4.213049e+01 3.980774e+01 1.080478e+02 1.184658e+00 3.109689e+00 1.900266e+00 2.567345e+00 4.744839e+00 3.355149e+00 4.365520e+00 3.322412e+00 3.525142e+00 2.927346e+00 2.532133e+00 2.430238e+00 4.618088e+00 1.518134e-01 4.876973e-01 3.011010e-01 3.858676e-01 6.236603e-01 5.320822e-01 6.672306e-01 4.972251e-01 5.889990e-01 4.932892e-01 4.442506e-01 3.981759e-01 5.543761e-01
<GCONST> 1.260717e+02
<STATE> 3
<NUMMIXES> 2
<MIXTURE> 1 5.000000e-01
<MEAN> 39
 -6.183009e+00 -6.877787e+00 -9.430175e-01 -2.554014e+00 -6.227448e+00 -7.256219e+00 -5.501406e+00 -5.009188e+00 -2.705213e+00 -2.632427e+00 -2.413070e+00 -6.714986e+00 6.946249e+01 2.115776e-01 1.678867e-01 2.040947e-01 2.653579e-01 3.566968e-01 2.718948e-01 2.368544e-01 2.616027e-01 3.415323e-01 3.315432e-01 2.860622e-01 2.308686e-01 1.301993e-01 6.767978e-02 7.991732e-02 8.521158e-02 1.005361e-01 1.150100e-01 1.181574e-01 1.244778e-01 1.399194e-01 1.521622e-01 1.365069e-01 1.201971e-01 1.139591e-01 5.188067e-02
<VARIANCE> 39
 1.930582e+01 1.615262e+01 2.747120e+01 2.426521e+01 2.776225e+01 3.068274e+01 5.002961e+01 6.318127e+01 4.236022e+01 4.085501e+01 3.713911e+01 3.627433e+01 5.146352e+01 4.994011e-01 8.338292e-01 9.369638e-01 1.165733e+00 1.836868e+00 1.603760e+00 2.241297e+00 2.385023e+00 2.658029e+00 2.264799e+00 2.011855e+00 1.764945e+00 1.352833e+00 6.957407e-02 1.638112e-01 1.657410e-01 2.194432e-01 3.331367e-01 3.048588e-01 3.991642e-01 4.427541e-01 5.382022e-01 4.465308e-01 3.938279e-01 3.346817e-01 1.613280e-01
<GCONST> 1.055789e+02
<MIXTURE> 2 5.000000e-01
<MEAN> 39
 -7.940545e+00 -8.485399e+00 -3.039536e+00 -4.524404e+00 -8.335044e+00 -9.471899e+00 -8.330670e+00 -8.188654e+00 -5.308602e+00 -5.189144e+00 -4.850744e+00 -9.124113e+00 6.659297e+01 -7.109567e-02 -1.973703e-01 -1.830929e-01 -1.665186e-01 -1.854277e-01 -2.346638e-01 -3.619841e-01 -3.561381e-01 -3.106063e-01 -2.704268e-01 -2.812973e-01 -3.005364e-01 -3.350461e-01 -3.782782e-02 -8.197708e-02 -7.763363e-02 -8.684298e-02 -1.158620e-01 -1.026987e-01 -1.282399e-01 -1.262397e-01 -1.412868e-01 -1.307849e-01 -1.308258e-01 -1.174476e-01 -1.087820e-01
<VARIANCE> 39
 1.930582e+01 1.615262e+01 2.747120e+01 2.426521e+01 2.776225e+01 3.068274e+01 5.002961e+01 6.318127e+01 4.236022e+01 4.085501e+01 3.713911e+01 3.627433e+01 5.146352e+01 4.994011e-01 8.338292e-01 9.369638e-01 1.165733e+00 1.836868e+00 1.603760e+00 2.241297e+00 2.385023e+00 2.658029e+00 2.264799e+00 2.011855e+00 1.764945e+00 1.352833e+00 6.957407e-02 1.638112e-01 1.657410e-01 2.194432e-01 3.331367e-01 3.048588e-01 3.991642e-01 4.427541e-01 5.382022e-01 4.465308e-01 3.938279e-01 3.346817e-01 1.613280e-01
<GCONST> 1.055789e+02
<STATE> 4
<NUMMIXES> 2
<MIXTURE> 1 5.000000e-01
<MEAN> 39
 -3.528540e+00 -3.060641e+00 3.274692e+00 1.486247e+00 -1.642914e-01 -1.864910e+00 -4.165390e+00 -2.247796e+00 -1.364253e+00 -3.002949e+00 -2.343498e+00 -6.021986e+00 5.953028e+01 1.709065e-01 2.928321e-01 1.983597e-01 2.309963e-01 3.613526e-01 3.286647e-01 3.522235e-01 3.380219e-01 2.554327e-01 2.685366e-01 2.569189e-01 2.873137e-01 -1.378533e-01 3.518046e-02 6.152790e-02 6.170430e-02 7.234868e-02 8.689682e-02 9.444413e-02 1.130742e-01 1.120310e-01 1.135899e-01 1.151615e-01 1.096400e-01 1.069927e-01 5.589822e-02
<VARIANCE> 39
 1.521376e+01 2.761938e+01 2.044548e+01 2.349365e+01 3.076242e+01 3.300450e+01 5.728287e+01 4.356184e+01 3.219925e+01 3.601223e+01 3.069181e+01 2.883424e+01 6.658190e+01 2.800969e-01 5.926986e-01 6.635197e-01 8.328041e-01 1.295593e+00 1.268948e+00 1.740256e+00 1.610302e+00 1.627906e+00 1.703376e+00 1.578823e+00 1.506050e+00 7.277699e-01 4.006724e-02 9.784129e-02 1.194274e-01 1.576208e-01 2.413968e-01 2.404099e-01 3.195973e-01 2.978320e-01 3.210122e-01 3.367491e-01 3.136957e-01 2.991463e-01 6.229382e-02
<GCONST> 9.530482e+01
<MIXTURE> 2 5.000000e-01
<MEAN> 39
 -5.088733e+00 -5.162807e+00 1.466024e+00 -4.525630e-01 -2.382847e+00 -4.162892e+00 -7.192808e+00 -4.887852e+00 -3.634029e+00 -5.403357e+00 -4.559506e+00 -8.169888e+00 5.626638e+01 -4.079022e-02 -1.511554e-02 -1.274672e-01 -1.340361e-01 -9.394385e-02 -1.219257e-01 -1.754515e-01 -1.695688e-01 -2.549250e-01 -2.535172e-01 -2.456860e-01 -2.035712e-01 -4.790910e-01 -4.488675e-02 -6.359047e-02 -7.652879e-02 -8.645727e-02 -1.096318e-01 -1.016823e-01 -1.130576e-01 -1.062649e-01 -1.130418e-01 -1.169588e-01 -1.143942e-01 -1.117844e-01 -4.393670e-02
<VARIANCE> 39
 1.521376e+01 2.761938e+01 2.044548e+01 2.349365e+01 3.076242e+01 3.300450e+01 5.728287e+01 4.356184e+01 3.219925e+01 3.601223e+01 3.069181e+01 2.883424e+01 6.658190e+01 2.800969e-01 5.926986e-01 6.635197e-01 8.328041e-01 1.295593e+00 1.268948e+00 1.740256e+00 1.610302e+00 1.627906e+00 1.703376e+00 1.578823e+00 1.506050e+00 7.277699e-01 4.006724e-02 9.784129e-02 1.194274e-01 1.576208e-01 2.413968e-01 2.404099e-01 3.195973e-01 2.978320e-01 3.210122e-01 3.367491e-01 3.136957e-01 2.991463e-01 6.229382e-02
<GCONST> 9.530482e+01
<TRANSP> 5
 0.000000e+00 1.000000e+00 0.000000e+00 0.000000e+00 0.000000e+00
 0.000000e+00 8.668658e-01 1.331342e-01 0.000000e+00 0.000000e+00
 0.000000e+00 0.000000e+00 9.844209e-01 1.557905e-02 0.000000e+00
 0.000000e+00 0.000000e+00 0.000000e+00 9.807526e-01 1.924744e-02
 0.000000e+00 0.000000e+00 0.000000e+00 0.000000e+00 0.000000e+00
<ENDHMM>
~h "ds"
<BEGINHMM>
<NUMSTATES> 5
<STATE> 2
<NUMMIXES> 2
<MIXTURE> 1 5.000000e-01
<MEAN> 39
 -1.307026e+01 5.406266e-02 8.769982e-01 1.952962e-01 9.206901e-01 -2.655529e-01 5.145941e+00 1.274825e+00 3.615384e+00 2.522743e+00 3.395772e+00 1.664878e+00 6.779263e+01 9.240958e-02 2.847528e-01 2.012841e-01 2.287330e-01 1.289563e-01 1.934583e-01 2.294467e-01 2.856639e-01 3.053184e-01 4.203549e-01 4.128468e-01 3.560114e-01 1.361586e+00 1.775895e-01 1.000400e-01 1.107820e-01 1.523345e-01 1.682533e-01 1.422002e-01 1.404248e-01 1.372274e-01 1.309679e-01 1.075933e-01 1.214865e-01 1.022416e-01 5.341396e-02
<VARIANCE> 39
 2.425438e+01 1.691702e+01 1.642392e+01 2.006250e+01 2.618059e+01 2.177744e+01 2.892941e+01 3.170381e+01 2.465546e+01 2.214148e+01 1.942817e+01 1.608187e+01 1.156516e+02 1.879172e+00 1.063440e+00 1.333421e+00 1.678762e+00 2.144614e+00 2.142566e+00 2.365974e+00 2.228787e+00 2.027301e+00 1.931524e+00 1.908332e+00 1.541406e+00 6.374073e+00 3.071608e-01 1.799034e-01 2.163544e-01 3.089663e-01 3.798796e-01 3.893918e-01 4.236077e-01 4.215313e-01 3.844332e-01 3.664544e-01 3.622997e-01 2.911661e-01 1.014125e+00
<GCONST> 1.090083e+02
<MIXTURE> 2 5.000000e-01
<MEAN> 39
 -1.504021e+01 -1.591150e+00 -7.440592e-01 -1.596351e+00 -1.125989e+00 -2.132205e+00 2.994499e+00 -9.774207e-01 1.629214e+00 6.405533e-01 1.632676e+00 6.079006e-02 6.349098e+01 -4.559220e-01 -1.277401e-01 -2.606113e-01 -2.895351e-01 -4.568237e-01 -3.920419e-01 -3.858222e-01 -3.115010e-01 -2.642149e-01 -1.355623e-01 -1.397228e-01 -1.406021e-01 3.517092e-01 -4.409885e-02 -6.962007e-02 -7.527361e-02 -7.000444e-02 -7.828414e-02 -1.074049e-01 -1.199158e-01 -1.224743e-01 -1.170428e-01 -1.345486e-01 -1.192788e-01 -1.135976e-01 -3.494011e-01
<VARIANCE> 39
 2.425438e+01 1.691702e+01 1.642392e+01 2.006250e+01 2.618059e+01 2.177744e+01 2.892941e+01 3.170381e+01 2.465546e+01 2.214148e+01 1.942817e+01 1.608187e+01 1.156516e+02 1.879172e+00 1.063440e+00 1.333421e+00 1.678762e+00 2.144614e+00 2.142566e+00 2.365974e+00 2.228787e+00 2.027301e+00 1.931524e+00 1.908332e+00 1.541406e+00 6.374073e+00 3.071608e-01 1.799034e-01 2.163544e-01 3.089663e-01 3.798796e-01 3.893918e-01 4.236077e-01 4.215313e-01 3.844332e-01 3.664544e-01 3.622997e-01 2.911661e-01 1.014125e+00
<GCONST> 1.090083e+02
<STATE> 3
<NUMMIXES> 2
<MIXTURE> 1 5.000000e-01
<MEAN> 39
 -1.233561e+01 1.427901e+00 7.279664e-01 2.103005e+00 2.303755e+00 -2.608191e-01 3.273171e+00 -9.322695e-01 3.182323e+00 3.250105e+00 4.291044e+00 1.317131e+00 6.918324e+01 3.653328e-01 1.129038e-01 2.394150e-01 2.655199e-01 5.384483e-01 3.443558e-01 2.995540e-01 1.677409e-01 1.624057e-01 1.678719e-01 1.990666e-01 5.902526e-02 -6.621357e-01 3.445519e-02 4.149177e-02 4.746989e-02 4.586551e-02 7.097936e-02 1.048591e-01 1.132598e-01 1.127981e-01 1.026792e-01 9.827396e-02 8.426379e-02 9.091520e-02 2.121161e-02
<VARIANCE> 39
 1.081796e+01 1.004462e+01 1.409212e+01 1.689513e+01 2.666704e+01 1.877380e+01 2.092516e+01 1.711173e+01 1.629588e+01 1.471346e+01 1.408873e+01 1.545829e+01 3.465906e+01 1.338945e-01 2.628747e-01 4.350830e-01 6.774542e-01 9.688124e-01 1.092269e+00 1.230639e+00 1.328133e+00 1.373095e+00 1.420903e+00 1.371411e+00 1.232165e+00 6.707893e-02 2.747540e-02 5.322314e-02 9.068028e-02 1.376797e-01 1.971101e-01 2.284220e-01 2.528715e-01 2.704782e-01 2.816873e-01 2.907731e-01 2.822918e-01 2.532988e-01 1.243461e-02
<GCONST> 7.659262e+01
<MIXTURE> 2 5.000000e-01
<MEAN> 39
 -1.365123e+01 1.601713e-01 -7.736125e-01 4.588572e-01 2.381492e-01 -1.993969e+00 1.443410e+00 -2.586923e+00 1.567597e+00 1.715780e+00 2.789646e+00 -2.555500e-01 6.682836e+01 2.189664e-01 -9.218146e-02 -2.442825e-02 -6.371051e-02 1.447353e-01 -7.369094e-02 -1.441827e-01 -2.932378e-01 -3.063109e-01 -3.089346e-01 -2.693624e-01 -3.849865e-01 -7.657341e-01 -3.184763e-02 -5.078880e-02 -7.298277e-02 -1.025553e-01 -1.066090e-01 -8.631493e-02 -8.788558e-02 -9.523194e-02 -1.096177e-01 -1.174196e-01 -1.282608e-01 -1.104000e-01 -2.339263e-02
<VARIANCE> 39
 1.081796e+01 1.004462e+01 1.409212e+01 1.689513e+01 2.666704e+01 1.877380e+01 2.092516e+01 1.711173e+01 1.629588e+01 1.471346e+01 1.408873e+01 1.545829e+01 3.465906e+01 1.338945e-01 2.628747e-01 4.350830e-01 6.774542e-01 9.688124e-01 1.092269e+00 1.230639e+00 1.328133e+00 1.373095e+00 1.420903e+00 1.371411e+00 1.232165e+00 6.707893e-02 2.747540e-02 5.322314e-02 9.068028e-02 1.376797e-01 1.971101e-01 2.284220e-01 2.528715e-01 2.704782e-01 2.816873e-01 2.907731e-01 2.822918e-01 2.532988e-01 1.243461e-02
<GCONST> 7.659262e+01
<STATE> 4
<NUMMIXES> 2
<MIXTURE> 1 5.000000e-01
<MEAN> 39
 -8.847681e+00 1.367441e+00 2.104460e+00 3.571021e-01 3.479539e+00 1.574221e+00 4.063643e+00 1.762512e+00 3.264945e+00 6.953115e-01 2.427562e+00 3.223079e-02 5.598624e+01 1.703601e-01 1.556258e-01 1.857484e-01 2.042930e-01 2.203693e-01 2.551542e-01 2.720574e-01 2.771849e-01 2.723395e-01 2.506954e-01 2.345633e-01 2.372144e-01 1.522059e-01 6.069601e-02 6.251261e-02 7.253794e-02 8.712598e-02 9.594321e-02 1.052017e-01 1.096842e-01 1.110366e-01 1.148898e-01 1.159285e-01 1.106577e-01 1.034958e-01 6.873236e-02
<VARIANCE> 39
 1.725967e+01 1.350849e+01 1.850505e+01 1.927911e+01 1.999807e+01 2.381636e+01 2.618056e+01 2.155032e+01 2.553370e+01 2.324129e+01 1.791091e+01 1.639855e+01 5.082986e+01 5.842150e-01 5.337515e-01 7.059125e-01 9.482812e-01 1.179370e+00 1.440402e+00 1.581902e+00 1.593674e+00 1.675567e+00 1.636307e+00 1.475063e+00 1.300311e+00 8.551787e-01 9.671780e-02 9.732514e-02 1.302783e-01 1.829990e-01 2.297490e-01 2.798866e-01 3.098134e-01 3.161754e-01 3.295923e-01 3.253544e-01 2.952968e-01 2.620981e-01 1.124225e-01
<GCONST> 9.244930e+01
<MIXTURE> 2 5.000000e-01
<MEAN> 39
 -1.050947e+01 -1.027153e-01 3.837600e-01 -1.399217e+00 1.690771e+00 -3.778591e-01 2.016965e+00 -9.438050e-02 1.243709e+00 -1.233057e+00 7.347103e-01 -1.587574e+00 5.313444e+01 -1.353757e-01 -1.366074e-01 -1.503260e-01 -1.852260e-01 -2.140259e-01 -2.249129e-01 -2.310373e-01 -2.277783e-01 -2.454353e-01 -2.609775e-01 -2.512454e-01 -2.189103e-01 -2.176976e-01 -6.370193e-02 -6.227530e-02 -7.183842e-02 -8.398756e-02 -9.578536e-02 -1.064155e-01 -1.129594e-01 -1.138813e-01 -1.147507e-01 -1.122309e-01 -1.067072e-01 -1.012862e-01 -6.538550e-02
<VARIANCE> 39
 1.725967e+01 1.350849e+01 1.850505e+01 1.927911e+01 1.999807e+01 2.381636e+01 2.618056e+01 2.155032e+01 2.553370e+01 2.324129e+01 1.791091e+01 1.639855e+01 5.082986e+01 5.842150e-01 5.337515e-01 7.059125e-01 9.482812e-01 1.179370e+00 1.440402e+00 1.581902e+00 1.593674e+00 1.675567e+00 1.636307e+00 1.475063e+00 1.300311e+00 8.551787e-01 9.671780e-02 9.732514e-02 1.302783e-01 1.829990e-01 2.297490e-01 2.798866e-01 3.098134e-01 3.161754e-01 3.295923e-01 3.253544e-01 2.952968e-01 2.620981e-01 1.124225e-01
<GCONST> 9.244930e+01
<TRANSP> 5
 0.000000e+00 1.000000e+00 0.000000e+00 0.000000e+00 0.000000e+00
 0.000000e+00 9.405529e-01 5.944704e-02 0.000000e+00 0.000000e+00
 0.000000e+00 0.000000e+00 9.551917e-01 4.480828e-02 0.000000e+00
 0.000000e+00 0.000000e+00 0.000000e+00 9.929110e-01 7.088935e-03
 0.000000e+00 0.000000e+00 0.000000e+00 0.000000e+00 0.000000e+00
<ENDHMM>
~h "kj"
<BEGINHMM>
<NUMSTATES> 5
<STATE> 2
<NUMMIXES> 2
<MIXTURE> 1 5.000000e-01
<MEAN> 39
 -1.887235e+01 3.780957e+00 1.871299e-01 -1.695820e+00 -6.059484e-01 4.213328e+00 3.271675e+00 4.481235e+00 2.141682e+00 9.227912e-01 2.086152e+00 -2.168005e-01 5.726735e+01 1.379690e-01 1.697402e-01 1.811670e-01 1.899251e-01 2.135979e-01 2.451509e-01 2.576660e-01 2.547724e-01 2.551056e-01 2.518437e-01 2.439365e-01 2.302934e-01 1.342870e-01 6.756712e-02 6.368806e-02 7.518333e-02 8.593777e-02 9.450950e-02 1.050286e-01 1.105868e-01 1.131539e-01 1.124922e-01 1.146740e-01 1.088375e-01 1.032349e-01 5.014448e-02
<VARIANCE> 39
 3.360397e+01 2.606761e+01 1.900481e+01 2.657116e+01 1.725902e+01 3.405024e+01 2.986461e+01 2.272376e+01 2.105228e+01 2.115929e+01 1.691036e+01 1.657591e+01 2.459826e+01 6.626942e-01 5.824661e-01 7.666793e-01 9.320031e-01 1.158435e+00 1.426484e+00 1.577386e+00 1.615528e+00 1.597731e+00 1.600879e+00 1.471759e+00 1.322281e+00 4.088420e-01 1.084315e-01 1.064113e-01 1.432095e-01 1.823198e-01 2.255889e-01 2.802943e-01 3.104026e-01 3.213172e-01 3.212171e-01 3.236371e-01 2.975785e-01 2.662813e-01 6.332958e-02
<GCONST> 9.263905e+01
<MIXTURE> 2 5.000000e-01
<MEAN> 39
 -2.119111e+01 1.738699e+00 -1.556650e+00 -3.757710e+00 -2.267708e+00 1.879224e+00 1.085734e+00 2.574457e+00 3.063717e-01 -9.171779e-01 4.412638e-01 -1.845341e+00 5.528349e+01 -1.876552e-01 -1.355377e-01 -1.690739e-01 -1.962362e-01 -2.169245e-01 -2.325911e-01 -2.447101e-01 -2.536412e-01 -2.504999e-01 -2.542597e-01 -2.413278e-01 -2.296685e-01 -1.214760e-01 -6.414864e-02 -6.679492e-02 -7.618880e-02 -8.485793e-02 -9.547529e-02 -1.067427e-01 -1.122684e-01 -1.135855e-01 -1.142119e-01 -1.128825e-01 -1.093655e-01 -1.031749e-01 -5.051700e-02
<VARIANCE> 39
 3.360397e+01 2.606761e+01 1.900481e+01 2.657116e+01 1.725902e+01 3.405024e+01 2.986461e+01 2.272376e+01 2.105228e+01 2.115929e+01 1.691036e+01 1.657591e+01 2.459826e+01 6.626942e-01 5.824661e-01 7.666793e-01 9.320031e-01 1.158435e+00 1.426484e+00 1.577386e+00 1.615528e+00 1.597731e+00 1.600879e+00 1.471759e+00 1.322281e+00 4.088420e-01 1.084315e-01 1.064113e-01 1.432095e-01 1.823198e-01 2.255889e-01 2.802943e-01 3.104026e-01 3.213172e-01 3.212171e-01 3.236371e-01 2.975785e-01 2.662813e-01 6.332958e-02
<GCONST> 9.263905e+01
<STATE> 3
<NUMMIXES> 2
<MIXTURE> 1 5.000000e-01
<MEAN> 39
 -1.418906e+01 -7.800724e+00 -4.666885e+00 -1.574282e+00 -1.567585e+00 -3.595372e+00 -1.670871e+00 -1.618300e+00 -3.231308e-01 8.212717e-01 1.426596e+00 6.632196e-01 6.677643e+01 2.495308e-01 1.344775e-01 1.607038e-01 2.426645e-01 2.415971e-01 1.701555e-01 2.194050e-01 1.933208e-01 2.253741e-01 2.599587e-01 2.318492e-01 2.516163e-01 3.710509e-01 6.551831e-02 1.398571e-01 1.086845e-01 9.303332e-02 1.059177e-01 1.331658e-01 1.473713e-01 1.331935e-01 1.229781e-01 1.188137e-01 1.071310e-01 9.601219e-02 8.941147e-02
<VARIANCE> 39
 2.060619e+01 3.684762e+01 1.556167e+01 1.708655e+01 1.833990e+01 2.097394e+01 2.296315e+01 2.215491e+01 1.939518e+01 1.747476e+01 1.624212e+01 1.431284e+01 7.120910e+01 6.791772e-01 2.235559e+00 1.123228e+00 1.062883e+00 1.274402e+00 1.753816e+00 1.896960e+00 1.803471e+00 1.655219e+00 1.577423e+00 1.436656e+00 1.332523e+00 2.444999e+00 1.057547e-01 3.548914e-01 2.062977e-01 2.013004e-01 2.442235e-01 3.235618e-01 3.538132e-01 3.453053e-01 3.349933e-01 3.192347e-01 2.920691e-01 2.696089e-01 3.218911e-01
<GCONST> 9.973448e+01
<MIXTURE> 2 5.000000e-01
<MEAN> 39
 -1.600482e+01 -1.022881e+01 -6.244817e+00 -3.227718e+00 -3.280589e+00 -5.427265e+00 -3.587667e+00 -3.501060e+00 -2.084729e+00 -8.508413e-01 -1.854649e-01 -8.500730e-01 6.340101e+01 -8.011802e-02 -4.635939e-01 -2.632260e-01 -1.697204e-01 -2.099606e-01 -3.595714e-01 -3.315157e-01 -3.438527e-01 -2.892471e-01 -2.424233e-01 -2.475931e-01 -2.101235e-01 -2.544088e-01 -6.456148e-02 -9.843399e-02 -7.299557e-02 -8.643273e-02 -9.175821e-02 -9.436414e-02 -9.055749e-02 -1.018573e-01 -1.085363e-01 -1.071897e-01 -1.090427e-01 -1.116833e-01 -1.375303e-01
<VARIANCE> 39
 2.060619e+01 3.684762e+01 1.556167e+01 1.708655e+01 1.833990e+01 2.097394e+01 2.296315e+01 2.215491e+01 1.939518e+01 1.747476e+01 1.624212e+01 1.431284e+01 7.120910e+01 6.791772e-01 2.235559e+00 1.123228e+00 1.062883e+00 1.274402e+00 1.753816e+00 1.896960e+00 1.803471e+00 1.655219e+00 1.577423e+00 1.436656e+00 1.332523e+00 2.444999e+00 1.057547e-01 3.548914e-01 2.062977e-01 2.013004e-01 2.442235e-01 3.235618e-01 3.538132e-01 3.453053e-01 3.349933e-01 3.192347e-01 2.920691e-01 2.696089e-01 3.218911e-01
<GCONST> 9.973448e+01
<STATE> 4
<NUMMIXES> 2
<MIXTURE> 1 5.000000e-01
<MEAN> 39
 -1.997924e+01 1.636355e+00 2.534186e+00 1.763174e+00 -1.794771e+00 6.980160e-01 7.809617e+00 1.028175e+00 -1.261278e+00 5.617754e+00 1.278463e+00 -2.534159e+00 5.743961e+01 1.707760e-01 1.833753e-01 1.764769e-01 1.856414e-01 2.230296e-01 2.378847e-01 2.655869e-01 2.654264e-01 2.624328e-01 2.545412e-01 2.384527e-01 2.253420e-01 1.051922e-01 5.782321e-02 7.088666e-02 6.930262e-02 8.177235e-02 9.502994e-02 1.007443e-01 1.082437e-01 1.102685e-01 1.127871e-01 1.134197e-01 1.086408e-01 1.041477e-01 5.432907e-02
<VARIANCE> 39
 3.827776e+01 2.804598e+01 1.843715e+01 1.877958e+01 1.734430e+01 2.156752e+01 3.401345e+01 2.081535e+01 2.116565e+01 2.355104e+01 1.734742e+01 1.639263e+01 3.087303e+01 4.715540e-01 7.541386e-01 6.896333e-01 9.154163e-01 1.138626e+00 1.325123e+00 1.662578e+00 1.551680e+00 1.580891e+00 1.702197e+00 1.447423e+00 1.300810e+00 5.133728e-01 7.692251e-02 1.306497e-01 1.291487e-01 1.767440e-01 2.234114e-01 2.601691e-01 3.220350e-01 3.112158e-01 3.187352e-01 3.409925e-01 2.905902e-01 2.614711e-01 7.368410e-02
<GCONST> 9.217265e+01
<MIXTURE> 2 5.000000e-01
<MEAN> 39
 -2.245400e+01 -4.819837e-01 8.166460e-01 2.975774e-02 -3.460631e+00 -1.159618e+00 5.476775e+00 -7.967784e-01 -3.101524e+00 3.676578e+00 -3.875466e-01 -4.153671e+00 5.521707e+01 -1.039032e-01 -1.639893e-01 -1.556998e-01 -1.970682e-01 -2.037961e-01 -2.225713e-01 -2.501771e-01 -2.328394e-01 -2.405012e-01 -2.673319e-01 -2.427828e-01 -2.308703e-01 -1.814079e-01 -5.311643e-02 -7.369532e-02 -7.444644e-02 -8.639138e-02 -9.403573e-02 -1.032828e-01 -1.187488e-01 -1.128783e-01 -1.130395e-01 -1.201585e-01 -1.069849e-01 -1.003893e-01 -5.425020e-02
<VARIANCE> 39
 3.827776e+01 2.804598e+01 1.843715e+01 1.877958e+01 1.734430e+01 2.156752e+01 3.401345e+01 2.081535e+01 2.116565e+01 2.355104e+01 1.734742e+01 1.639263e+01 3.087303e+01 4.715540e-01 7.541386e-01 6.896333e-01 9.154163e-01 1.138626e+00 1.325123e+00 1.662578e+00 1.551680e+00 1.580891e+00 1.702197e+00 1.447423e+00 1.300810e+00 5.133728e-01 7.692251e-02 1.306497e-01 1.291487e-01 1.767440e-01 2.234114e-01 2.601691e-01 3.220350e-01 3.112158e-01 3.187352e-01 3.409925e-01 2.905902e-01 2.614711e-01 7.368410e-02
<GCONST> 9.217265e+01
<TRANSP> 5
 0.000000e+00 1.000000e+00 0.000000e+00 0.000000e+00 0.000000e+00
 0.000000e+00 9.941644e-01 5.835557e-03 0.000000e+00 0.000000e+00
 0.000000e+00 0.000000e+00 9.727819e-01 2.721808e-02 0.000000e+00
 0.000000e+00 0.000000e+00 0.000000e+00 9.906384e-01 9.361595e-03
 0.000000e+00 0.000000e+00 0.000000e+00 0.000000e+00 0.000000e+00
<ENDHMM>
~h "kn"
<BEGINHMM>
<NUMSTATES> 5
<STATE> 2
<NUMMIXES> 2
<MIXTURE> 1 5.000000e-01
<MEAN> 39
 1.055428e+00 2.898857e+00 -1.670048e+00 -2.495457e+00 2.247651e+00 7.883230e-01 1.783525e+00 2.409145e-01 1.611429e+00 1.214342e+00 9.778587e-01 -3.337923e-01 5.862183e+01 4.429439e-01 2.557397e-01 1.479167e-01 3.493382e-01 3.865075e-01 1.693961e-01 5.302558e-01 1.151084e-01 6.776234e-01 4.620366e-01 5.093836e-01 4.081958e-01 1.710964e+00 8.504137e-02 1.749145e-01 1.634239e-01 1.202769e-01 1.312388e-01 2.233362e-01 1.580720e-01 2.050595e-01 8.869740e-02 1.208390e-01 1.232983e-01 1.201430e-01 -6.563345e-02
<VARIANCE> 39
 3.060174e+01 3.740165e+01 3.162048e+01 1.331644e+01 2.475517e+01 2.867164e+01 3.195824e+01 3.924643e+01 2.503426e+01 2.309393e+01 2.320123e+01 1.669293e+01 1.018004e+02 2.278713e+00 1.542296e+00 1.848797e+00 1.169783e+00 1.472785e+00 2.402035e+00 2.629417e+00 3.054566e+00 2.250684e+00 2.144827e+00 2.052143e+00 1.689368e+00 5.593893e+00 3.530014e-01 2.381159e-01 2.980485e-01 1.956714e-01 2.479471e-01 4.083712e-01 4.384473e-01 5.203820e-01 3.981420e-01 3.796045e-01 3.469516e-01 2.912287e-01 7.701445e-01
<GCONST> 1.117895e+02
<MIXTURE> 2 5.000000e-01
<MEAN> 39
 -1.157326e+00 4.525813e-01 -3.919332e+00 -3.955125e+00 2.574686e-01 -1.353513e+00 -4.777396e-01 -2.264965e+00 -3.899406e-01 -7.079035e-01 -9.488475e-01 -1.968072e+00 5.458598e+01 -1.608723e-01 -2.410171e-01 -3.959652e-01 -8.328782e-02 -9.892592e-02 -4.505439e-01 -1.183634e-01 -5.839843e-01 7.753220e-02 -1.237726e-01 -6.362855e-02 -1.117070e-01 7.649078e-01 -1.526143e-01 -2.027398e-02 -5.495138e-02 -5.666216e-02 -6.793833e-02 -3.227948e-02 -1.067894e-01 -8.349057e-02 -1.636966e-01 -1.256092e-01 -1.123121e-01 -9.571942e-02 -4.166650e-01
<VARIANCE> 39
 3.060174e+01 3.740165e+01 3.162048e+01 1.331644e+01 2.475517e+01 2.867164e+01 3.195824e+01 3.924643e+01 2.503426e+01 2.309393e+01 2.320123e+01 1.669293e+01 1.018004e+02 2.278713e+00 1.542296e+00 1.848797e+00 1.169783e+00 1.472785e+00 2.402035e+00 2.629417e+00 3.054566e+00 2.250684e+00 2.144827e+00 2.052143e+00 1.689368e+00 5.593893e+00 3.530014e-01 2.381159e-01 2.980485e-01 1.956714e-01 2.479471e-01 4.083712e-01 4.384473e-01 5.203820e-01 3.981420e-01 3.796045e-01 3.469516e-01 2.912287e-01 7.701445e-01
<GCONST> 1.117895e+02
<STATE> 3
<NUMMIXES> 2
<MIXTURE> 1 5.000000e-01
<MEAN> 39
 6.094799e+00 -1.496191e-01 -3.307235e+00 7.040113e-01 4.478453e+00 2.925920e-01 2.314652e+00 -7.000617e-01 2.325592e+00 1.269299e+00 2.051577e+00 8.248237e-01 6.122561e+01 1.743681e-01 1.819821e-01 2.059978e-01 2.419422e-01 2.522590e-01 2.723438e-01 2.683544e-01 2.848365e-01 2.385302e-01 2.600538e-01 2.475398e-01 2.413892e-01 2.175796e-01 5.730307e-02 8.055058e-02 7.984664e-02 8.889624e-02 9.958597e-02 1.145901e-01 1.111833e-01 1.224866e-01 1.105789e-01 1.129259e-01 1.075566e-01 1.020634e-01 1.021943e-01
<VARIANCE> 39
 1.236306e+01 2.584573e+01 1.619182e+01 1.559655e+01 2.060808e+01 2.535835e+01 2.256210e+01 2.193448e+01 2.135864e+01 2.002807e+01 1.717911e+01 1.638471e+01 3.495203e+01 4.354766e-01 9.316913e-01 8.511617e-01 1.029694e+00 1.295088e+00 1.677064e+00 1.629447e+00 1.816551e+00 1.701901e+00 1.666813e+00 1.544289e+00 1.381466e+00 1.886616e+00 7.764766e-02 1.768348e-01 1.607970e-01 2.043341e-01 2.533745e-01 3.341567e-01 3.377667e-01 3.727002e-01 3.516139e-01 3.463123e-01 3.195903e-01 2.850406e-01 3.290813e-01
<GCONST> 9.609526e+01
<MIXTURE> 2 5.000000e-01
<MEAN> 39
 4.688353e+00 -2.183167e+00 -4.916798e+00 -8.756874e-01 2.662608e+00 -1.721691e+00 4.146694e-01 -2.573432e+00 4.769758e-01 -5.208107e-01 3.936692e-01 -7.942976e-01 5.886080e+01 -8.959453e-02 -2.041146e-01 -1.630360e-01 -1.639532e-01 -2.029487e-01 -2.456622e-01 -2.422448e-01 -2.542815e-01 -2.832975e-01 -2.563667e-01 -2.495379e-01 -2.287540e-01 -3.318369e-01 -5.415825e-02 -8.765635e-02 -8.055137e-02 -9.191707e-02 -1.017593e-01 -1.166351e-01 -1.212875e-01 -1.217101e-01 -1.266092e-01 -1.224673e-01 -1.185726e-01 -1.114933e-01 -1.272681e-01
<VARIANCE> 39
 1.236306e+01 2.584573e+01 1.619182e+01 1.559655e+01 2.060808e+01 2.535835e+01 2.256210e+01 2.193448e+01 2.135864e+01 2.002807e+01 1.717911e+01 1.638471e+01 3.495203e+01 4.354766e-01 9.316913e-01 8.511617e-01 1.029694e+00 1.295088e+00 1.677064e+00 1.629447e+00 1.816551e+00 1.701901e+00 1.666813e+00 1.544289e+00 1.381466e+00 1.886616e+00 7.764766e-02 1.768348e-01 1.607970e-01 2.043341e-01 2.533745e-01 3.341567e-01 3.377667e-01 3.727002e-01 3.516139e-01 3.463123e-01 3.195903e-01 2.850406e-01 3.290813e-01
<GCONST> 9.609526e+01
<STATE> 4
<NUMMIXES> 2
<MIXTURE> 1 5.000000e-01
<MEAN> 39
 4.563980e+00 2.295702e+00 -2.248965e-01 1.598473e+00 5.695801e+00 3.068836e+00 3.150561e+00 1.428588e+00 9.361578e-01 1.119635e+00 1.490170e+00 9.819639e-02 5.471508e+01 -6.466724e-02 2.603008e-01 3.316636e-01 1.871940e-01 2.123701e-01 4.031326e-01 2.100088e-01 3.765015e-01 1.556517e-01 2.289330e-01 2.033194e-01 1.658799e-01 -4.262251e-01 2.037101e-02 3.209448e-02 5.001513e-02 5.606697e-02 6.517290e-02 7.737676e-02 9.333748e-02 9.362008e-02 1.089412e-01 1.050349e-01 1.041037e-01 9.499969e-02 4.040914e-02
<VARIANCE> 39
 1.744695e+01 1.899889e+01 1.716915e+01 1.404394e+01 2.215359e+01 2.272584e+01 2.412285e+01 2.133381e+01 2.260443e+01 2.085143e+01 1.779719e+01 1.685582e+01 3.788467e+01 1.746720e-01 2.932882e-01 4.537082e-01 6.551974e-01 8.869460e-01 1.058694e+00 1.240710e+00 1.322998e+00 1.377231e+00 1.440799e+00 1.349241e+00 1.217692e+00 1.150718e-01 2.297513e-02 4.750517e-02 8.519788e-02 1.293504e-01 1.742493e-01 2.092501e-01 2.497238e-01 2.637659e-01 2.779334e-01 2.892179e-01 2.685946e-01 2.443682e-01 7.773263e-03
<GCONST> 7.873104e+01
<MIXTURE> 2 5.000000e-01
<MEAN> 39
 2.893198e+00 5.521937e-01 -1.882324e+00 9.946316e-02 3.813097e+00 1.161971e+00 1.185961e+00 -4.189532e-01 -9.656068e-01 -7.068998e-01 -1.972990e-01 -1.544037e+00 5.225306e+01 -2.318424e-01 4.367641e-02 6.223217e-02 -1.365831e-01 -1.643412e-01 -8.438826e-03 -2.355398e-01 -8.358511e-02 -3.137703e-01 -2.512001e-01 -2.613079e-01 -2.755165e-01 -5.619141e-01 -4.025918e-02 -5.508824e-02 -6.673958e-02 -8.779429e-02 -1.017998e-01 -1.055987e-01 -1.065520e-01 -1.118125e-01 -1.019364e-01 -1.100810e-01 -1.032008e-01 -1.027348e-01 5.142698e-03
<VARIANCE> 39
 1.744695e+01 1.899889e+01 1.716915e+01 1.404394e+01 2.215359e+01 2.272584e+01 2.412285e+01 2.133381e+01 2.260443e+01 2.085143e+01 1.779719e+01 1.685582e+01 3.788467e+01 1.746720e-01 2.932882e-01 4.537082e-01 6.551974e-01 8.869460e-01 1.058694e+00 1.240710e+00 1.322998e+00 1.377231e+00 1.440799e+00 1.349241e+00 1.217692e+00 1.150718e-01 2.297513e-02 4.750517e-02 8.519788e-02 1.293504e-01 1.742493e-01 2.092501e-01 2.497238e-01 2.637659e-01 2.779334e-01 2.892179e-01 2.685946e-01 2.443682e-01 7.773263e-03
<GCONST> 7.873104e+01
<TRANSP> 5
 0.000000e+00 1.000000e+00 0.000000e+00 0.000000e+00 0.000000e+00
 0.000000e+00 8.853940e-01 1.146060e-01 0.000000e+00 0.000000e+00
 0.000000e+00 0.000000e+00 9.843273e-01 1.567270e-02 0.000000e+00
 0.000000e+00 0.000000e+00 0.000000e+00 9.600004e-01 3.999962e-02
 0.000000e+00 0.000000e+00 0.000000e+00 0.000000e+00 0.000000e+00
<ENDHMM>
~h "kt"
<BEGINHMM>
<NUMSTATES> 5
<STATE> 2
<NUMMIXES> 2
<MIXTURE> 1 5.000000e-01
<MEAN> 39
 -1.108357e+01 4.756598e-01 -6.659473e+00 -1.773805e+00 9.131127e-01 1.500875e+00 6.249272e+00 3.084432e+00 2.974171e+00 1.294412e+00 1.693143e+00 -4.928622e-01 5.695776e+01 2.090319e-01 1.438175e-01 1.600882e-01 1.987749e-01 2.220979e-01 2.423744e-01 2.550766e-01 2.478768e-01 2.555457e-01 2.478450e-01 2.435947e-01 2.270258e-01 2.444538e-01 9.651268e-02 6.167867e-02 7.542001e-02 8.709871e-02 1.004920e-01 1.117939e-01 1.151003e-01 1.124241e-01 1.155487e-01 1.142271e-01 1.100500e-01 1.031284e-01 9.625254e-02
<VARIANCE> 39
 1.744894e+01 7.734785e+00 8.359752e+00 1.182396e+01 1.353102e+01 1.895605e+01 1.794026e+01 1.648213e+01 1.763391e+01 1.547789e+01 1.523896e+01 1.385108e+01 2.311525e+01 1.163211e+00 4.904019e-01 6.732929e-01 9.404338e-01 1.223964e+00 1.546920e+00 1.644884e+00 1.576219e+00 1.673589e+00 1.593255e+00 1.501694e+00 1.310820e+00 1.351852e+00 2.225079e-01 9.536947e-02 1.340642e-01 1.868530e-01 2.483165e-01 3.140308e-01 3.355000e-01 3.209646e-01 3.389542e-01 3.283950e-01 3.057583e-01 2.658274e-01 2.452366e-01
<GCONST> 9.061600e+01
<MIXTURE> 2 5.000000e-01
<MEAN> 39
 -1.275445e+01 -6.367996e-01 -7.816003e+00 -3.149245e+00 -5.582687e-01 -2.406664e-01 4.555034e+00 1.460504e+00 1.294461e+00 -2.792659e-01 1.316581e-01 -1.981544e+00 5.503462e+01 -2.223771e-01 -1.362973e-01 -1.681295e-01 -1.891290e-01 -2.204337e-01 -2.551266e-01 -2.579355e-01 -2.543134e-01 -2.619233e-01 -2.570519e-01 -2.465798e-01 -2.309384e-01 -2.206229e-01 -9.217029e-02 -6.184912e-02 -7.103911e-02 -8.580729e-02 -9.883343e-02 -1.123599e-01 -1.165892e-01 -1.141909e-01 -1.173304e-01 -1.149959e-01 -1.111316e-01 -1.031054e-01 -1.018329e-01
<VARIANCE> 39
 1.744894e+01 7.734785e+00 8.359752e+00 1.182396e+01 1.353102e+01 1.895605e+01 1.794026e+01 1.648213e+01 1.763391e+01 1.547789e+01 1.523896e+01 1.385108e+01 2.311525e+01 1.163211e+00 4.904019e-01 6.732929e-01 9.404338e-01 1.223964e+00 1.546920e+00 1.644884e+00 1.576219e+00 1.673589e+00 1.593255e+00 1.501694e+00 1.310820e+00 1.351852e+00 2.225079e-01 9.536947e-02 1.340642e-01 1.868530e-01 2.483165e-01 3.140308e-01 3.355000e-01 3.209646e-01 3.389542e-01 3.283950e-01 3.057583e-01 2.658274e-01 2.452366e-01
<GCONST> 9.061600e+01
<STATE> 3
<NUMMIXES> 2
<MIXTURE> 1 5.000000e-01
<MEAN> 39
 -1.204851e+01 2.474720e+00 -3.192850e+00 6.568575e-01 1.221145e+00 -1.246351e+00 3.150573e+00 2.508925e+00 2.350520e+00 -2.484539e-01 6.404914e-01 -7.646562e-01 5.446191e+01 1.920924e-01 1.479536e-01 1.717967e-01 2.033162e-01 2.411938e-01 2.368324e-01 2.617069e-01 2.478907e-01 2.657146e-01 2.569630e-01 2.503881e-01 2.327557e-01 2.409176e-01 9.096593e-02 6.288211e-02 7.910386e-02 8.704615e-02 1.056420e-01 1.143764e-01 1.200751e-01 1.204351e-01 1.226402e-01 1.236466e-01 1.162418e-01 1.076040e-01 9.612235e-02
<VARIANCE> 39
 9.369519e+00 9.217368e+00 1.044101e+01 1.319677e+01 1.511948e+01 1.573973e+01 1.833109e+01 1.801249e+01 1.913924e+01 1.818537e+01 1.680179e+01 1.420166e+01 2.142756e+01 8.740711e-01 5.122957e-01 7.586353e-01 9.883831e-01 1.319930e+00 1.417842e+00 1.601514e+00 1.627425e+00 1.730186e+00 1.702132e+00 1.566239e+00 1.368789e+00 1.526978e+00 1.746878e-01 9.999795e-02 1.523923e-01 1.984912e-01 2.654367e-01 2.875149e-01 3.258638e-01 3.307432e-01 3.520006e-01 3.480452e-01 3.192243e-01 2.804973e-01 2.928798e-01
<GCONST> 9.139769e+01
<MIXTURE> 2 5.000000e-01
<MEAN> 39
 -1.327289e+01 1.260316e+00 -4.485352e+00 -7.962369e-01 -3.342059e-01 -2.833284e+00 1.437979e+00 8.112805e-01 6.005836e-01 -1.954226e+00 -9.991080e-01 -2.272060e+00 5.261031e+01 -1.818747e-01 -1.383457e-01 -1.766020e-01 -1.943537e-01 -2.183590e-01 -2.394603e-01 -2.444969e-01 -2.623916e-01 -2.604315e-01 -2.649001e-01 -2.502098e-01 -2.352253e-01 -2.533663e-01 -7.621676e-02 -6.360771e-02 -7.704595e-02 -9.116326e-02 -1.004402e-01 -1.001052e-01 -1.082628e-01 -1.096060e-01 -1.146784e-01 -1.123348e-01 -1.097580e-01 -1.042440e-01 -1.203511e-01
<VARIANCE> 39
 9.369519e+00 9.217368e+00 1.044101e+01 1.319677e+01 1.511948e+01 1.573973e+01 1.833109e+01 1.801249e+01 1.913924e+01 1.818537e+01 1.680179e+01 1.420166e+01 2.142756e+01 8.740711e-01 5.122957e-01 7.586353e-01 9.883831e-01 1.319930e+00 1.417842e+00 1.601514e+00 1.627425e+00 1.730186e+00 1.702132e+00 1.566239e+00 1.368789e+00 1.526978e+00 1.746878e-01 9.999795e-02 1.523923e-01 1.984912e-01 2.654367e-01 2.875149e-01 3.258638e-01 3.307432e-01 3.520006e-01 3.480452e-01 3.192243e-01 2.804973e-01 2.928798e-01
<GCONST> 9.139769e+01
<STATE> 4
<NUMMIXES> 2
<MIXTURE> 1 5.000000e-01
<MEAN> 39
 -9.461880e+00 3.620949e+00 -2.212487e+00 1.878698e-01 1.252786e+00 1.008805e+00 3.984733e+00 3.919405e+00 3.161051e+00 6.660652e-01 9.564143e-01 -1.088535e+00 4.977181e+01 1.911164e-01 1.360642e-01 1.752266e-01 1.775648e-01 2.135947e-01 2.382222e-01 2.450654e-01 2.515656e-01 2.482914e-01 2.516352e-01 2.382163e-01 2.232417e-01 1.471405e-01 7.275236e-02 6.105723e-02 7.302316e-02 8.337022e-02 9.305502e-02 9.941025e-02 1.048308e-01 1.083404e-01 1.105345e-01 1.104329e-01 1.057787e-01 1.005973e-01 7.658672e-02
<VARIANCE> 39
 1.126105e+01 9.253550e+00 1.223197e+01 1.283328e+01 1.714655e+01 1.703340e+01 1.993371e+01 1.776834e+01 1.764502e+01 1.742249e+01 1.489172e+01 1.308227e+01 1.359957e+01 7.237180e-01 4.946437e-01 6.903847e-01 8.663681e-01 1.118128e+00 1.290824e+00 1.436692e+00 1.495413e+00 1.529167e+00 1.519607e+00 1.386255e+00 1.241168e+00 7.482984e-01 1.384287e-01 9.532634e-02 1.366055e-01 1.739473e-01 2.226427e-01 2.576619e-01 2.902812e-01 3.022333e-01 3.118502e-01 3.094819e-01 2.817903e-01 2.526310e-01 1.366445e-01
<GCONST> 8.689294e+01
<MIXTURE> 2 5.000000e-01
<MEAN> 39
 -1.080418e+01 2.404163e+00 -3.611456e+00 -1.245073e+00 -4.035495e-01 -6.420569e-01 2.198845e+00 2.233305e+00 1.480811e+00 -1.003545e+00 -5.871773e-01 -2.535311e+00 4.829671e+01 -1.491700e-01 -1.452594e-01 -1.571309e-01 -1.947508e-01 -2.093716e-01 -2.162355e-01 -2.343829e-01 -2.375827e-01 -2.463466e-01 -2.414541e-01 -2.327411e-01 -2.223891e-01 -1.988765e-01 -7.607168e-02 -6.244263e-02 -7.481757e-02 -8.345774e-02 -9.568509e-02 -1.036314e-01 -1.106802e-01 -1.115626e-01 -1.128397e-01 -1.120915e-01 -1.065570e-01 -1.004523e-01 -7.127511e-02
<VARIANCE> 39
 1.126105e+01 9.253550e+00 1.223197e+01 1.283328e+01 1.714655e+01 1.703340e+01 1.993371e+01 1.776834e+01 1.764502e+01 1.742249e+01 1.489172e+01 1.308227e+01 1.359957e+01 7.237180e-01 4.946437e-01 6.903847e-01 8.663681e-01 1.118128e+00 1.290824e+00 1.436692e+00 1.495413e+00 1.529167e+00 1.519607e+00 1.386255e+00 1.241168e+00 7.482984e-01 1.384287e-01 9.532634e-02 1.366055e-01 1.739473e-01 2.226427e-01 2.576619e-01 2.902812e-01 3.022333e-01 3.118502e-01 3.094819e-01 2.817903e-01 2.526310e-01 1.366445e-01
<GCONST> 8.689294e+01
<TRANSP> 5
 0.000000e+00 1.000000e+00 0.000000e+00 0.000000e+00 0.000000e+00
 0.000000e+00 9.914500e-01 8.550036e-03 0.000000e+00 0.000000e+00
 0.000000e+00 0.000000e+00 9.873251e-01 1.267494e-02 0.000000e+00
 0.000000e+00 0.000000e+00 0.000000e+00 9.925364e-01 7.463582e-03
 0.000000e+00 0.000000e+00 0.000000e+00 0.000000e+00 0.000000e+00
<ENDHMM>
~h "pr"
<BEGINHMM>
<NUMSTATES> 5
<STATE> 2
<NUMMIXES> 2
<MIXTURE> 1 5.000000e-01
<MEAN> 39
 -1.392117e+01 -7.302846e+00 3.274525e-01 -6.793714e+00 4.172956e+00 7.758007e+00 6.218689e+00 2.267899e+00 5.529392e-01 -6.342014e-01 6.551118e+00 1.554462e+00 5.970197e+01 1.345064e-01 1.583378e-01 2.119190e-01 2.127207e-01 2.607591e-01 2.841858e-01 2.892001e-01 2.818385e-01 3.029293e-01 2.778985e-01 2.828777e-01 3.202250e-01 1.918946e-01 7.800023e-02 7.351281e-02 8.188904e-02 9.761260e-02 9.851962e-02 1.141650e-01 1.182092e-01 1.305134e-01 1.324198e-01 1.238863e-01 1.206971e-01 1.143331e-01 4.589106e-02
<VARIANCE> 39
 3.097350e+01 4.307451e+01 4.856553e+01 3.297406e+01 5.262395e+01 6.772161e+01 5.574434e+01 6.327072e+01 6.286921e+01 3.628427e+01 5.655424e+01 5.450727e+01 2.309842e+01 7.648796e-01 7.624211e-01 9.952543e-01 1.264797e+00 1.496587e+00 1.872538e+00 2.015436e+00 2.245791e+00 2.224365e+00 2.003087e+00 2.149563e+00 1.939132e+00 5.947695e-01 1.084061e-01 1.225815e-01 1.652011e-01 2.195067e-01 2.669365e-01 3.319483e-01 3.728368e-01 3.969266e-01 4.154345e-01 3.705528e-01 3.906455e-01 3.474653e-01 8.088987e-02
<GCONST> 1.077829e+02
<MIXTURE> 2 5.000000e-01
<MEAN> 39
 -1.614733e+01 -9.928093e+00 -2.460106e+00 -9.090635e+00 1.271262e+00 4.466281e+00 3.232203e+00 -9.138167e-01 -2.618665e+00 -3.043659e+00 3.543016e+00 -1.398700e+00 5.777953e+01 -2.153232e-01 -1.909291e-01 -1.871307e-01 -2.371320e-01 -2.285812e-01 -2.631771e-01 -2.786641e-01 -3.176000e-01 -2.936430e-01 -2.882233e-01 -3.035778e-01 -2.367859e-01 -1.165906e-01 -5.370009e-02 -6.653376e-02 -8.069072e-02 -8.979356e-02 -1.081440e-01 -1.162948e-01 -1.260322e-01 -1.214950e-01 -1.253970e-01 -1.196059e-01 -1.293095e-01 -1.214516e-01 -6.787352e-02
<VARIANCE> 39
 3.097350e+01 4.307451e+01 4.856553e+01 3.297406e+01 5.262395e+01 6.772161e+01 5.574434e+01 6.327072e+01 6.286921e+01 3.628427e+01 5.655424e+01 5.450727e+01 2.309842e+01 7.648796e-01 7.624211e-01 9.952543e-01 1.264797e+00 1.496587e+00 1.872538e+00 2.015436e+00 2.245791e+00 2.224365e+00 2.003087e+00 2.149563e+00 1.939132e+00 5.947695e-01 1.084061e-01 1.225815e-01 1.652011e-01 2.195067e-01 2.669365e-01 3.319483e-01 3.728368e-01 3.969266e-01 4.154345e-01 3.705528e-01 3.906455e-01 3.474653e-01 8.088987e-02
<GCONST> 1.077829e+02
<STATE> 3
<NUMMIXES> 2
<MIXTURE> 1 5.000000e-01
<MEAN> 39
 -1.891408e+01 3.832081e+00 1.778629e+01 -1.544957e+01 3.415427e+00 1.477590e+01 -4.582921e+00 -1.870783e+00 1.395017e+01 -3.217166e+00 -7.532472e+00 1.024133e+01 5.412106e+01 2.230449e-01 1.033618e-01 1.406143e-01 1.771876e-01 2.476441e-01 1.962544e-01 2.036784e-01 2.856236e-01 2.331216e-01 2.961722e-01 2.373235e-01 2.121450e-01 4.222397e-02 8.068729e-02 6.272572e-02 5.827418e-02 8.530031e-02 1.069958e-01 9.393303e-02 1.000425e-01 1.197310e-01 1.053247e-01 1.118706e-01 1.274490e-01 8.570534e-02 4.560811e-02
<VARIANCE> 39
 1.869845e+01 1.936284e+01 1.594729e+01 2.937277e+01 2.486794e+01 2.374900e+01 1.669708e+01 3.128522e+01 3.293575e+01 3.859355e+01 3.482322e+01 1.861098e+01 1.425283e+01 6.022423e-01 4.724210e-01 5.509611e-01 8.380280e-01 1.243565e+00 1.285756e+00 1.154949e+00 1.434833e+00 1.625819e+00 1.614037e+00 1.806968e+00 1.083630e+00 2.418932e-01 1.500110e-01 9.448815e-02 1.089730e-01 1.686717e-01 2.557719e-01 2.632956e-01 2.346613e-01 2.944277e-01 3.344866e-01 3.096058e-01 3.427131e-01 2.154621e-01 5.912161e-02
<GCONST> 9.047392e+01
<MIXTURE> 2 5.000000e-01
<MEAN> 39
 -2.064374e+01 2.071952e+00 1.618893e+01 -1.761743e+01 1.420717e+00 1.282658e+01 -6.217403e+00 -4.108111e+00 1.165459e+01 -5.702114e+00 -9.892920e+00 8.515707e+00 5.261094e+01 -8.737216e-02 -1.715697e-01 -1.562927e-01 -1.889879e-01 -1.984169e-01 -2.573103e-01 -2.261958e-01 -1.935145e-01 -2.769088e-01 -2.120068e-01 -3.003706e-01 -2.042452e-01 -1.545066e-01 -7.423773e-02 -6.022999e-02 -7.377006e-02 -7.897833e-02 -9.529978e-02 -1.113163e-01 -9.372496e-02 -9.731375e-02 -1.260146e-01 -1.106983e-01 -1.067178e-01 -9.996624e-02 -5.165163e-02
<VARIANCE> 39
 1.869845e+01 1.936284e+01 1.594729e+01 2.937277e+01 2.486794e+01 2.374900e+01 1.669708e+01 3.128522e+01 3.293575e+01 3.859355e+01 3.482322e+01 1.861098e+01 1.425283e+01 6.022423e-01 4.724210e-01 5.509611e-01 8.380280e-01 1.243565e+00 1.285756e+00 1.154949e+00 1.434833e+00 1.625819e+00 1.614037e+00 1.806968e+00 1.083630e+00 2.418932e-01 1.500110e-01 9.448815e-02 1.089730e-01 1.686717e-01 2.557719e-01 2.632956e-01 2.346613e-01 2.944277e-01 3.344866e-01 3.096058e-01 3.427131e-01 2.154621e-01 5.912161e-02
<GCONST> 9.047392e+01
<STATE> 4
<NUMMIXES> 2
<MIXTURE> 1 5.000000e-01
<MEAN> 39
 -1.289127e+01 -3.797343e+00 5.437037e+00 -5.102551e+00 5.433633e+00 1.710155e+00 4.356525e+00 7.023399e+00 5.016960e+00 -3.962489e-01 -1.638281e+00 4.952199e+00 5.551819e+01 1.468984e-01 1.514508e-01 1.392111e-01 2.123135e-01 1.924152e-01 2.308942e-01 2.545949e-01 2.549429e-01 2.587538e-01 2.592220e-01 2.585059e-01 2.090350e-01 4.855583e-02 4.778016e-02 5.336779e-02 6.886311e-02 8.132856e-02 9.313868e-02 1.053970e-01 1.068292e-01 1.091483e-01 1.135783e-01 1.145460e-01 1.091681e-01 1.002298e-01 3.295260e-02
<VARIANCE> 39
 3.935448e+01 5.660618e+01 5.788936e+01 5.582618e+01 7.883930e+01 1.003338e+02 7.112497e+01 5.921157e+01 5.336397e+01 4.608631e+01 5.522655e+01 6.348093e+01 4.742100e+01 3.245588e-01 3.950450e-01 6.424539e-01 9.263256e-01 1.134524e+00 1.408496e+00 1.456198e+00 1.606111e+00 1.682094e+00 1.677344e+00 1.531531e+00 1.308814e+00 1.627405e-01 5.903900e-02 7.002583e-02 1.164377e-01 1.686900e-01 2.186106e-01 2.685230e-01 2.863660e-01 3.042881e-01 3.223015e-01 3.263068e-01 2.975618e-01 2.519938e-01 2.653023e-02
<GCONST> 1.001132e+02
<MIXTURE> 2 5.000000e-01
<MEAN> 39
 -1.540059e+01 -6.806827e+00 2.393635e+00 -8.091228e+00 1.881973e+00 -2.296515e+00 9.831005e-01 3.945437e+00 2.094934e+00 -3.111725e+00 -4.610864e+00 1.765203e+00 5.276367e+01 -8.098188e-02 -9.995960e-02 -1.814018e-01 -1.726698e-01 -2.336409e-01 -2.438261e-01 -2.280972e-01 -2.519868e-01 -2.600285e-01 -2.588272e-01 -2.365142e-01 -2.485786e-01 -1.128086e-01 -4.941162e-02 -5.248179e-02 -6.762877e-02 -8.295899e-02 -9.388457e-02 -1.018798e-01 -1.072235e-01 -1.115009e-01 -1.135081e-01 -1.139471e-01 -1.090288e-01 -1.005662e-01 -3.219981e-02
<VARIANCE> 39
 3.935448e+01 5.660618e+01 5.788936e+01 5.582618e+01 7.883930e+01 1.003338e+02 7.112497e+01 5.921157e+01 5.336397e+01 4.608631e+01 5.522655e+01 6.348093e+01 4.742100e+01 3.245588e-01 3.950450e-01 6.424539e-01 9.263256e-01 1.134524e+00 1.408496e+00 1.456198e+00 1.606111e+00 1.682094e+00 1.677344e+00 1.531531e+00 1.308814e+00 1.627405e-01 5.903900e-02 7.002583e-02 1.164377e-01 1.686900e-01 2.186106e-01 2.685230e-01 2.863660e-01 3.042881e-01 3.223015e-01 3.263068e-01 2.975618e-01 2.519938e-01 2.653023e-02
<GCONST> 1.001132e+02
<TRANSP> 5
 0.000000e+00 1.000000e+00 0.000000e+00 0.000000e+00 0.000000e+00
 0.000000e+00 9.897159e-01 1.028405e-02 0.000000e+00 0.000000e+00
 0.000000e+00 0.000000e+00 9.840746e-01 1.592536e-02 0.000000e+00
 0.000000e+00 0.000000e+00 0.000000e+00 9.952377e-01 4.762346e-03
 0.000000e+00 0.000000e+00 0.000000e+00 0.000000e+00 0.000000e+00
<ENDHMM>
~h "pw"
<BEGINHMM>
<NUMSTATES> 5
<STATE> 2
<NUMMIXES> 2
<MIXTURE> 1 5.000000e-01
<MEAN> 39
 -1.225729e+01 -2.020676e+00 -7.583224e-01 -7.895667e-01 2.111266e+00 -2.455427e-01 3.199694e+00 1.733410e+00 1.587267e+00 1.595946e+00 1.321044e+00 1.634422e-01 5.541046e+01 1.481912e-01 1.810712e-01 1.681814e-01 1.873432e-01 2.116573e-01 2.273007e-01 2.426246e-01 2.491636e-01 2.469305e-01 2.436241e-01 2.339877e-01 2.229885e-01 1.930772e-01 6.052641e-02 7.427800e-02 7.203858e-02 8.227061e-02 9.299812e-02 1.014466e-01 1.070646e-01 1.111275e-01 1.114101e-01 1.094949e-01 1.063763e-01 1.004014e-01 7.450780e-02
<VARIANCE> 39
 1.823037e+01 2.749384e+01 1.301985e+01 1.327215e+01 1.559147e+01 1.977502e+01 2.102744e+01 2.219559e+01 1.863779e+01 1.604618e+01 1.479172e+01 1.319555e+01 3.601811e+01 5.571765e-01 8.526681e-01 6.948439e-01 8.791655e-01 1.118191e+00 1.330758e+00 1.467978e+00 1.571336e+00 1.542735e+00 1.467962e+00 1.378160e+00 1.231191e+00 9.040958e-01 9.191608e-02 1.415091e-01 1.315191e-01 1.715793e-01 2.210728e-01 2.637696e-01 2.939219e-01 3.128695e-01 3.141625e-01 3.001878e-01 2.818564e-01 2.513366e-01 1.314334e-01
<GCONST> 9.032372e+01
<MIXTURE> 2 5.000000e-01
<MEAN> 39
 -1.396517e+01 -4.118058e+00 -2.201643e+00 -2.246805e+00 5.318243e-01 -2.024307e+00 1.365466e+00 -1.510781e-01 -1.395931e-01 -6.361425e-03 -2.173563e-01 -1.289585e+00 5.300986e+01 -1.503859e-01 -1.882889e-01 -1.652478e-01 -1.877121e-01 -2.113209e-01 -2.341332e-01 -2.420160e-01 -2.522482e-01 -2.498971e-01 -2.410139e-01 -2.355925e-01 -2.208477e-01 -1.872586e-01 -6.074424e-02 -7.619277e-02 -7.302368e-02 -8.341792e-02 -9.507540e-02 -1.039874e-01 -1.097937e-01 -1.126115e-01 -1.127907e-01 -1.096627e-01 -1.059843e-01 -1.001325e-01 -7.050718e-02
<VARIANCE> 39
 1.823037e+01 2.749384e+01 1.301985e+01 1.327215e+01 1.559147e+01 1.977502e+01 2.102744e+01 2.219559e+01 1.863779e+01 1.604618e+01 1.479172e+01 1.319555e+01 3.601811e+01 5.571765e-01 8.526681e-01 6.948439e-01 8.791655e-01 1.118191e+00 1.330758e+00 1.467978e+00 1.571336e+00 1.542735e+00 1.467962e+00 1.378160e+00 1.231191e+00 9.040958e-01 9.191608e-02 1.415091e-01 1.315191e-01 1.715793e-01 2.210728e-01 2.637696e-01 2.939219e-01 3.128695e-01 3.141625e-01 3.001878e-01 2.818564e-01 2.513366e-01 1.314334e-01
<GCONST> 9.032372e+01
<STATE> 3
<NUMMIXES> 2
<MIXTURE> 1 5.000000e-01
<MEAN> 39
 -1.000989e+01 -6.361223e+00 -3.211352e+00 -2.512516e+00 4.989016e-01 -4.607261e+00 -8.235793e-01 -3.333765e+00 -1.708589e+00 -4.508168e-01 5.240663e-01 3.165040e-01 6.430193e+01 1.591336e-01 1.431779e-01 1.539069e-01 2.013254e-01 2.181139e-01 1.930295e-01 1.986600e-01 1.978342e-01 2.172706e-01 2.281351e-01 2.415686e-01 2.424101e-01 5.226701e-01 7.394097e-02 9.765159e-02 7.965489e-02 8.933128e-02 1.121518e-01 1.287957e-01 1.354727e-01 1.343235e-01 1.257741e-01 1.186605e-01 1.088390e-01 1.025995e-01 1.281379e-01
<VARIANCE> 39
 2.247657e+01 2.796908e+01 1.454628e+01 1.428889e+01 1.849316e+01 2.436797e+01 2.369571e+01 2.789013e+01 2.022779e+01 1.775844e+01 1.605661e+01 1.422819e+01 8.483202e+01 6.566026e-01 1.199707e+00 7.895061e-01 9.442704e-01 1.296051e+00 1.670042e+00 1.786880e+00 1.862936e+00 1.641273e+00 1.566600e+00 1.424362e+00 1.314011e+00 4.340253e+00 1.087682e-01 1.863385e-01 1.449993e-01 1.800782e-01 2.504734e-01 3.102986e-01 3.443570e-01 3.519201e-01 3.313210e-01 3.192444e-01 2.911477e-01 2.705932e-01 5.975414e-01
<GCONST> 9.878779e+01
<MIXTURE> 2 5.000000e-01
<MEAN> 39
 -1.190627e+01 -8.476655e+00 -4.736936e+00 -4.024542e+00 -1.221245e+00 -6.581818e+00 -2.770709e+00 -5.446209e+00 -3.507601e+00 -2.136447e+00 -1.078762e+00 -1.192307e+00 6.061776e+01 -1.649905e-01 -2.949466e-01 -2.015098e-01 -1.873689e-01 -2.372631e-01 -3.238909e-01 -3.360370e-01 -3.481235e-01 -2.951781e-01 -2.725205e-01 -2.358180e-01 -2.161112e-01 -3.106609e-01 -5.797913e-02 -7.501618e-02 -7.266020e-02 -8.041120e-02 -8.803748e-02 -9.402208e-02 -9.925503e-02 -1.029679e-01 -1.044679e-01 -1.073463e-01 -1.069934e-01 -1.054748e-01 -1.810653e-01
<VARIANCE> 39
 2.247657e+01 2.796908e+01 1.454628e+01 1.428889e+01 1.849316e+01 2.436797e+01 2.369571e+01 2.789013e+01 2.022779e+01 1.775844e+01 1.605661e+01 1.422819e+01 8.483202e+01 6.566026e-01 1.199707e+00 7.895061e-01 9.442704e-01 1.296051e+00 1.670042e+00 1.786880e+00 1.862936e+00 1.641273e+00 1.566600e+00 1.424362e+00 1.314011e+00 4.340253e+00 1.087682e-01 1.863385e-01 1.449993e-01 1.800782e-01 2.504734e-01 3.102986e-01 3.443570e-01 3.519201e-01 3.313210e-01 3.192444e-01 2.911477e-01 2.705932e-01 5.975414e-01
<GCONST> 9.878779e+01
<STATE> 4
<NUMMIXES> 2
<MIXTURE> 1 5.000000e-01
<MEAN> 39
 -1.136572e+01 -2.529246e+00 -2.409986e+00 -2.171333e+00 1.269945e+00 3.779995e-01 3.922214e+00 1.576063e+00 1.200176e+00 1.320203e+00 1.046322e+00 -2.648186e-01 5.625032e+01 1.569301e-01 1.840762e-01 1.668081e-01 1.824961e-01 2.111910e-01 2.499898e-01 2.604496e-01 2.694549e-01 2.588730e-01 2.460243e-01 2.356554e-01 2.192594e-01 1.382496e-01 5.897954e-02 6.820972e-02 6.928726e-02 8.027112e-02 9.067277e-02 1.002129e-01 1.059128e-01 1.083769e-01 1.094918e-01 1.080021e-01 1.057480e-01 1.009835e-01 6.653330e-02
<VARIANCE> 39
 1.631720e+01 2.096472e+01 1.200890e+01 1.222495e+01 1.357651e+01 2.068811e+01 2.120839e+01 2.067328e+01 1.784213e+01 1.573896e+01 1.419102e+01 1.314297e+01 3.123285e+01 5.251780e-01 7.119514e-01 6.446256e-01 8.346468e-01 1.063585e+00 1.322236e+00 1.476550e+00 1.538600e+00 1.514052e+00 1.458014e+00 1.381641e+00 1.244411e+00 7.520666e-01 8.504177e-02 1.202013e-01 1.229034e-01 1.638276e-01 2.126070e-01 2.616611e-01 2.941300e-01 3.065839e-01 3.085960e-01 2.979259e-01 2.830724e-01 2.546382e-01 1.058777e-01
<GCONST> 8.809146e+01
<MIXTURE> 2 5.000000e-01
<MEAN> 39
 -1.298150e+01 -4.360736e+00 -3.796140e+00 -3.569901e+00 -2.039075e-01 -1.441368e+00 2.080111e+00 -2.426521e-01 -4.894222e-01 -2.666913e-01 -4.605172e-01 -1.714948e+00 5.401487e+01 -1.329466e-01 -1.534327e-01 -1.543462e-01 -1.829399e-01 -2.013301e-01 -2.099643e-01 -2.256038e-01 -2.267064e-01 -2.333143e-01 -2.369687e-01 -2.345175e-01 -2.269533e-01 -2.086375e-01 -5.766815e-02 -7.047052e-02 -7.094307e-02 -8.163137e-02 -9.376454e-02 -1.043984e-01 -1.110222e-01 -1.131032e-01 -1.127138e-01 -1.103283e-01 -1.070702e-01 -1.008632e-01 -6.362211e-02
<VARIANCE> 39
 1.631720e+01 2.096472e+01 1.200890e+01 1.222495e+01 1.357651e+01 2.068811e+01 2.120839e+01 2.067328e+01 1.784213e+01 1.573896e+01 1.419102e+01 1.314297e+01 3.123285e+01 5.251780e-01 7.119514e-01 6.446256e-01 8.346468e-01 1.063585e+00 1.322236e+00 1.476550e+00 1.538600e+00 1.514052e+00 1.458014e+00 1.381641e+00 1.244411e+00 7.520666e-01 8.504177e-02 1.202013e-01 1.229034e-01 1.638276e-01 2.126070e-01 2.616611e-01 2.941300e-01 3.065839e-01 3.085960e-01 2.979259e-01 2.830724e-01 2.546382e-01 1.058777e-01
<GCONST> 8.809146e+01
<TRANSP> 5
 0.000000e+00 1.000000e+00 0.000000e+00 0.000000e+00 0.000000e+00
 0.000000e+00 9.964739e-01 3.526055e-03 0.000000e+00 0.000000e+00
 0.000000e+00 0.000000e+00 9.861110e-01 1.388904e-02 0.000000e+00
 0.000000e+00 0.000000e+00 0.000000e+00 9.960391e-01 3.960963e-03
 0.000000e+00 0.000000e+00 0.000000e+00 0.000000e+00 0.000000e+00
<ENDHMM>
~h "si"
<BEGINHMM>
<NUMSTATES> 5
<STATE> 2
<NUMMIXES> 2
<MIXTURE> 1 5.000000e-01
<MEAN> 39
 -7.608468e+00 2.247510e+00 1.545474e+00 -1.236877e+00 2.632865e+00 2.343565e+00 3.218807e+00 4.098370e+00 2.066183e+00 1.124429e+00 1.024477e+00 -5.230949e-01 4.879566e+01 1.029989e-01 1.271604e-01 1.358161e-01 1.616724e-01 1.867327e-01 2.182567e-01 2.372358e-01 2.509179e-01 2.421734e-01 2.459026e-01 2.327154e-01 2.107816e-01 7.105282e-02 4.314171e-02 5.410107e-02 6.149884e-02 7.440922e-02 8.557943e-02 9.688520e-02 1.029637e-01 1.070005e-01 1.071232e-01 1.072073e-01 1.030644e-01 9.559118e-02 3.568391e-02
<VARIANCE> 39
 2.044995e+01 1.358339e+01 1.527166e+01 1.483124e+01 1.914571e+01 1.950440e+01 2.391067e+01 2.214482e+01 1.905675e+01 1.715678e+01 1.611284e+01 1.426041e+01 2.322672e+01 2.706723e-01 4.175175e-01 5.283289e-01 7.407531e-01 9.600251e-01 1.164133e+00 1.301640e+00 1.402773e+00 1.408496e+00 1.398182e+00 1.311160e+00 1.144782e+00 2.268934e-01 4.392927e-02 7.428133e-02 1.004868e-01 1.443448e-01 1.879457e-01 2.293328e-01 2.590827e-01 2.796045e-01 2.840142e-01 2.825935e-01 2.644605e-01 2.316871e-01 3.268228e-02
<GCONST> 8.202570e+01
<MIXTURE> 2 5.000000e-01
<MEAN> 39
 -9.417333e+00 7.732839e-01 -1.768452e-02 -2.777331e+00 8.826327e-01 5.770133e-01 1.262865e+00 2.216038e+00 3.200213e-01 -5.324011e-01 -5.811552e-01 -2.033613e+00 4.686790e+01 -1.051058e-01 -1.313020e-01 -1.549288e-01 -1.825956e-01 -2.051908e-01 -2.133233e-01 -2.191220e-01 -2.228370e-01 -2.325469e-01 -2.270764e-01 -2.253082e-01 -2.171963e-01 -1.194805e-01 -4.069554e-02 -5.491734e-02 -6.529977e-02 -7.756173e-02 -8.783139e-02 -9.466963e-02 -1.006370e-01 -1.045101e-01 -1.060487e-01 -1.054308e-01 -1.026385e-01 -9.694437e-02 -3.662905e-02
<VARIANCE> 39
 2.044995e+01 1.358339e+01 1.527166e+01 1.483124e+01 1.914571e+01 1.950440e+01 2.391067e+01 2.214482e+01 1.905675e+01 1.715678e+01 1.611284e+01 1.426041e+01 2.322672e+01 2.706723e-01 4.175175e-01 5.283289e-01 7.407531e-01 9.600251e-01 1.164133e+00 1.301640e+00 1.402773e+00 1.408496e+00 1.398182e+00 1.311160e+00 1.144782e+00 2.268934e-01 4.392927e-02 7.428133e-02 1.004868e-01 1.443448e-01 1.879457e-01 2.293328e-01 2.590827e-01 2.796045e-01 2.840142e-01 2.825935e-01 2.644605e-01 2.316871e-01 3.268228e-02
<GCONST> 8.202570e+01
<STATE> 3
<NUMMIXES> 2
<MIXTURE> 1 5.000000e-01
<MEAN> 39
 -4.313695e+00 2.687527e-01 -1.319759e+00 -2.379972e+00 1.099953e+00 3.551256e+00 4.405705e+00 4.889325e+00 2.049005e+00 1.890237e+00 9.420062e-01 -1.320661e+00 4.673702e+01 7.149280e-02 1.062178e-01 1.269274e-01 1.576512e-01 1.856042e-01 2.131278e-01 2.247823e-01 2.387633e-01 2.353498e-01 2.369290e-01 2.289323e-01 2.125064e-01 3.335667e-02 2.892615e-02 4.543526e-02 6.103576e-02 7.374316e-02 8.509138e-02 9.155091e-02 9.867448e-02 1.022099e-01 1.052693e-01 1.053814e-01 1.027254e-01 9.775510e-02 1.997053e-02
<VARIANCE> 39
 5.098311e+00 1.298446e+01 1.200781e+01 1.047543e+01 1.632593e+01 1.576986e+01 1.747072e+01 1.869148e+01 1.689424e+01 1.638058e+01 1.453245e+01 1.299931e+01 1.261284e+01 1.331415e-01 2.653753e-01 4.510238e-01 6.598349e-01 8.927293e-01 1.088538e+00 1.244156e+00 1.346145e+00 1.371947e+00 1.378326e+00 1.289048e+00 1.139190e+00 4.618353e-02 2.452938e-02 5.162362e-02 8.990247e-02 1.333443e-01 1.807146e-01 2.212200e-01 2.531811e-01 2.747906e-01 2.814015e-01 2.835750e-01 2.644450e-01 2.331349e-01 7.756721e-03
<GCONST> 7.216722e+01
<MIXTURE> 2 5.000000e-01
<MEAN> 39
 -5.216873e+00 -1.172606e+00 -2.705851e+00 -3.674603e+00 -5.162616e-01 1.962804e+00 2.733785e+00 3.159979e+00 4.049010e-01 2.713194e-01 -5.828518e-01 -2.762843e+00 4.531644e+01 -7.446144e-02 -9.984053e-02 -1.417059e-01 -1.672697e-01 -1.923332e-01 -2.042043e-01 -2.213847e-01 -2.253307e-01 -2.331708e-01 -2.326795e-01 -2.252127e-01 -2.144249e-01 -5.260474e-02 -3.372128e-02 -4.544806e-02 -5.889921e-02 -7.232220e-02 -8.495079e-02 -9.658522e-02 -1.025939e-01 -1.074720e-01 -1.069199e-01 -1.076256e-01 -1.029715e-01 -9.538108e-02 -1.525837e-02
<VARIANCE> 39
 5.098311e+00 1.298446e+01 1.200781e+01 1.047543e+01 1.632593e+01 1.576986e+01 1.747072e+01 1.869148e+01 1.689424e+01 1.638058e+01 1.453245e+01 1.299931e+01 1.261284e+01 1.331415e-01 2.653753e-01 4.510238e-01 6.598349e-01 8.927293e-01 1.088538e+00 1.244156e+00 1.346145e+00 1.371947e+00 1.378326e+00 1.289048e+00 1.139190e+00 4.618353e-02 2.452938e-02 5.162362e-02 8.990247e-02 1.333443e-01 1.807146e-01 2.212200e-01 2.531811e-01 2.747906e-01 2.814015e-01 2.835750e-01 2.644450e-01 2.331349e-01 7.756721e-03
<GCONST> 7.216722e+01
<STATE> 4
<NUMMIXES> 2
<MIXTURE> 1 5.000000e-01
<MEAN> 39
 -8.343611e+00 -4.831443e-01 -8.615656e-01 -2.027489e+00 6.580212e-01 9.114740e-01 3.796358e+00 2.852077e+00 2.287177e+00 1.463475e+00 1.307055e+00 -3.432068e-01 5.248379e+01 1.212313e-01 1.525886e-01 1.621026e-01 1.840668e-01 2.058035e-01 2.177074e-01 2.339831e-01 2.373621e-01 2.482269e-01 2.451289e-01 2.412421e-01 2.301640e-01 2.025855e-01 5.763297e-02 6.538370e-02 7.005864e-02 8.215422e-02 9.304591e-02 1.035407e-01 1.082441e-01 1.133141e-01 1.110906e-01 1.103483e-01 1.062241e-01 9.919609e-02 6.245057e-02
<VARIANCE> 39
 2.122903e+01 2.011131e+01 1.503436e+01 1.602756e+01 1.839936e+01 2.097303e+01 2.217270e+01 2.353635e+01 2.083611e+01 1.799029e+01 1.670419e+01 1.506205e+01 3.568969e+01 4.974535e-01 6.221570e-01 6.434059e-01 8.698131e-01 1.096162e+00 1.321805e+00 1.458582e+00 1.588774e+00 1.537628e+00 1.504744e+00 1.406651e+00 1.247486e+00 6.727315e-01 7.793066e-02 1.063934e-01 1.201435e-01 1.662069e-01 2.128343e-01 2.571620e-01 2.876377e-01 3.147008e-01 3.065006e-01 3.022227e-01 2.825242e-01 2.507149e-01 9.723514e-02
<GCONST> 8.955264e+01
<MIXTURE> 2 5.000000e-01
<MEAN> 39
 -1.018661e+01 -2.276970e+00 -2.412532e+00 -3.628867e+00 -1.057758e+00 -9.203789e-01 1.912842e+00 9.115055e-01 4.613133e-01 -2.331238e-01 -3.277758e-01 -1.895601e+00 5.009415e+01 -1.608902e-01 -1.629191e-01 -1.587478e-01 -1.889883e-01 -2.129876e-01 -2.421718e-01 -2.491040e-01 -2.668242e-01 -2.477777e-01 -2.455431e-01 -2.331672e-01 -2.165997e-01 -1.254954e-01 -5.403129e-02 -6.508831e-02 -6.858826e-02 -8.091971e-02 -9.148996e-02 -9.930385e-02 -1.062833e-01 -1.110787e-01 -1.103594e-01 -1.095509e-01 -1.063879e-01 -1.010897e-01 -6.227963e-02
<VARIANCE> 39
 2.122903e+01 2.011131e+01 1.503436e+01 1.602756e+01 1.839936e+01 2.097303e+01 2.217270e+01 2.353635e+01 2.083611e+01 1.799029e+01 1.670419e+01 1.506205e+01 3.568969e+01 4.974535e-01 6.221570e-01 6.434059e-01 8.698131e-01 1.096162e+00 1.321805e+00 1.458582e+00 1.588774e+00 1.537628e+00 1.504744e+00 1.406651e+00 1.247486e+00 6.727315e-01 7.793066e-02 1.063934e-01 1.201435e-01 1.662069e-01 2.128343e-01 2.571620e-01 2.876377e-01 3.147008e-01 3.065006e-01 3.022227e-01 2.825242e-01 2.507149e-01 9.723514e-02
<GCONST> 8.955264e+01
<TRANSP> 5
 0.000000e+00 1.000000e+00 0.000000e+00 0.000000e+00 0.000000e+00
 0.000000e+00 9.882056e-01 1.179437e-02 0.000000e+00 0.000000e+00
 0.000000e+00 0.000000e+00 9.918299e-01 8.170083e-03 0.000000e+00
 0.000000e+00 0.000000e+00 0.000000e+00 9.855762e-01 1.442384e-02
 0.000000e+00 0.000000e+00 0.000000e+00 0.000000e+00 0.000000e+00
<ENDHMM>
~h "st"
<BEGINHMM>
<NUMSTATES> 5
<STATE> 2
<NUMMIXES> 2
<MIXTURE> 1 5.000000e-01
<MEAN> 39
 -8.197759e+00 -2.809854e+00 -1.349177e+00 -6.304394e+00 -1.509273e+00 -2.167477e+00 2.326938e+00 2.100985e+00 2.154880e+00 9.960209e-01 1.667423e+00 -1.067807e+00 6.098410e+01 -3.890023e-02 -3.073361e-01 3.838588e-01 -2.916378e-01 -1.679802e-02 -3.598381e-01 -7.919154e-02 1.757406e-01 3.179787e-01 2.133050e-01 3.358310e-01 2.914318e-01 1.794764e+00 1.555290e-01 2.070430e-01 1.259057e-01 2.254381e-01 1.981899e-01 2.831044e-01 2.222524e-01 1.781343e-01 1.593012e-01 1.478460e-01 1.216537e-01 1.273161e-01 -5.251738e-02
<VARIANCE> 39
 2.382590e+01 3.206174e+01 1.871088e+01 3.307941e+01 2.670748e+01 3.896135e+01 2.825427e+01 2.365548e+01 2.215289e+01 1.979589e+01 1.799945e+01 1.509312e+01 8.950768e+01 1.250060e+00 1.746546e+00 1.262436e+00 2.192365e+00 2.201551e+00 3.009094e+00 2.318001e+00 2.286407e+00 2.150348e+00 1.987424e+00 1.839895e+00 1.581929e+00 4.876807e+00 1.823492e-01 2.858679e-01 2.106032e-01 3.876867e-01 3.713337e-01 5.267968e-01 4.072379e-01 3.927126e-01 3.685383e-01 3.475654e-01 3.162437e-01 2.807773e-01 8.378245e-01
<GCONST> 1.102636e+02
<MIXTURE> 2 5.000000e-01
<MEAN> 39
 -1.015023e+01 -5.074778e+00 -3.079421e+00 -8.604982e+00 -3.576445e+00 -4.664237e+00 2.007481e-01 1.555091e-01 2.722059e-01 -7.836820e-01 -2.960730e-02 -2.621801e+00 5.719976e+01 -4.861245e-01 -8.359640e-01 -6.557396e-02 -8.839033e-01 -6.103030e-01 -1.053708e+00 -6.881908e-01 -4.290942e-01 -2.685839e-01 -3.505991e-01 -2.067399e-01 -2.116673e-01 9.114241e-01 -1.528048e-02 -6.823435e-03 -5.766039e-02 -2.361989e-02 -4.555870e-02 -7.218733e-03 -3.300836e-02 -7.253289e-02 -8.352827e-02 -8.797275e-02 -1.032885e-01 -8.463756e-02 -4.186484e-01
<VARIANCE> 39
 2.382590e+01 3.206174e+01 1.871088e+01 3.307941e+01 2.670748e+01 3.896135e+01 2.825427e+01 2.365548e+01 2.215289e+01 1.979589e+01 1.799945e+01 1.509312e+01 8.950768e+01 1.250060e+00 1.746546e+00 1.262436e+00 2.192365e+00 2.201551e+00 3.009094e+00 2.318001e+00 2.286407e+00 2.150348e+00 1.987424e+00 1.839895e+00 1.581929e+00 4.876807e+00 1.823492e-01 2.858679e-01 2.106032e-01 3.876867e-01 3.713337e-01 5.267968e-01 4.072379e-01 3.927126e-01 3.685383e-01 3.475654e-01 3.162437e-01 2.807773e-01 8.378245e-01
<GCONST> 1.102636e+02
<STATE> 3
<NUMMIXES> 2
<MIXTURE> 1 5.000000e-01
<MEAN> 39
 -7.618643e+00 -1.955560e+00 -9.244930e-01 -5.103899e+00 -6.828100e-01 -4.683614e-01 3.356540e+00 1.362097e+00 1.248834e+00 5.436951e-01 1.427260e+00 -1.046705e+00 5.755992e+01 1.503256e-01 1.851583e-01 1.673029e-01 2.376158e-01 2.354880e-01 2.682068e-01 2.574333e-01 2.506389e-01 2.491395e-01 2.490823e-01 2.398177e-01 2.296557e-01 2.129810e-01 5.978120e-02 7.035550e-02 7.040184e-02 9.668865e-02 1.015608e-01 1.115745e-01 1.112553e-01 1.130102e-01 1.138770e-01 1.134791e-01 1.089234e-01 1.030025e-01 9.266218e-02
<VARIANCE> 39
 1.672599e+01 2.110884e+01 1.654033e+01 2.407220e+01 2.033789e+01 2.604110e+01 2.067662e+01 1.980350e+01 2.002771e+01 1.861501e+01 1.607869e+01 1.451306e+01 4.482702e+01 5.608472e-01 7.026279e-01 6.879188e-01 1.221462e+00 1.313583e+00 1.579518e+00 1.535086e+00 1.560839e+00 1.588171e+00 1.551371e+00 1.449447e+00 1.303750e+00 1.592796e+00 8.888947e-02 1.186055e-01 1.306020e-01 2.231532e-01 2.536124e-01 3.041563e-01 3.084668e-01 3.174219e-01 3.237360e-01 3.177021e-01 2.970594e-01 2.680377e-01 2.219280e-01
<GCONST> 9.421230e+01
<MIXTURE> 2 5.000000e-01
<MEAN> 39
 -9.254539e+00 -3.793334e+00 -2.551285e+00 -7.066436e+00 -2.486712e+00 -2.509581e+00 1.537678e+00 -4.179482e-01 -5.412595e-01 -1.182109e+00 -1.766692e-01 -2.570545e+00 5.488180e+01 -1.492334e-01 -1.501333e-01 -1.644606e-01 -2.044633e-01 -2.229586e-01 -2.345087e-01 -2.381610e-01 -2.490953e-01 -2.549511e-01 -2.491339e-01 -2.417542e-01 -2.270718e-01 -2.918431e-01 -5.947615e-02 -6.740110e-02 -7.415376e-02 -9.226773e-02 -9.987896e-02 -1.090269e-01 -1.109039e-01 -1.123506e-01 -1.137142e-01 -1.119812e-01 -1.090892e-01 -1.040870e-01 -9.577476e-02
<VARIANCE> 39
 1.672599e+01 2.110884e+01 1.654033e+01 2.407220e+01 2.033789e+01 2.604110e+01 2.067662e+01 1.980350e+01 2.002771e+01 1.861501e+01 1.607869e+01 1.451306e+01 4.482702e+01 5.608472e-01 7.026279e-01 6.879188e-01 1.221462e+00 1.313583e+00 1.579518e+00 1.535086e+00 1.560839e+00 1.588171e+00 1.551371e+00 1.449447e+00 1.303750e+00 1.592796e+00 8.888947e-02 1.186055e-01 1.306020e-01 2.231532e-01 2.536124e-01 3.041563e-01 3.084668e-01 3.174219e-01 3.237360e-01 3.177021e-01 2.970594e-01 2.680377e-01 2.219280e-01
<GCONST> 9.421230e+01
<STATE> 4
<NUMMIXES> 2
<MIXTURE> 1 5.000000e-01
<MEAN> 39
 -9.138091e+00 3.925820e-01 -4.447139e-01 -2.706936e+00 5.509008e-01 2.139531e-01 3.408377e+00 2.679579e+00 2.748175e+00 1.310011e+00 1.395412e+00 -8.010462e-01 5.268087e+01 1.219645e-01 1.538489e-01 1.481482e-01 2.149043e-01 2.320864e-01 2.636602e-01 2.517418e-01 2.458602e-01 2.414992e-01 2.415198e-01 2.296473e-01 2.188929e-01 8.892208e-02 4.568751e-02 5.548307e-02 6.666113e-02 7.959557e-02 8.933397e-02 9.869280e-02 1.020664e-01 1.065469e-01 1.070868e-01 1.064775e-01 1.039218e-01 9.851222e-02 5.260875e-02
<VARIANCE> 39
 1.783512e+01 1.129615e+01 1.168519e+01 1.616679e+01 1.671335e+01 2.068320e+01 2.073991e+01 1.919943e+01 1.704519e+01 1.579410e+01 1.426171e+01 1.294117e+01 2.147654e+01 3.305866e-01 4.801038e-01 5.955099e-01 9.543739e-01 1.121262e+00 1.350073e+00 1.378753e+00 1.470032e+00 1.467113e+00 1.439515e+00 1.349832e+00 1.208304e+00 4.557993e-01 5.283385e-02 8.453739e-02 1.133215e-01 1.761434e-01 2.162063e-01 2.606393e-01 2.732322e-01 2.934208e-01 2.957176e-01 2.914473e-01 2.742830e-01 2.452007e-01 6.022654e-02
<GCONST> 8.441850e+01
<MIXTURE> 2 5.000000e-01
<MEAN> 39
 -1.082736e+01 -9.518080e-01 -1.812058e+00 -4.315254e+00 -1.084378e+00 -1.605198e+00 1.586733e+00 9.268929e-01 1.096743e+00 -2.796606e-01 -1.151748e-01 -2.240000e+00 5.082715e+01 -1.080222e-01 -1.233092e-01 -1.605289e-01 -1.758640e-01 -1.914722e-01 -2.011104e-01 -2.179395e-01 -2.391193e-01 -2.429986e-01 -2.383994e-01 -2.350818e-01 -2.207987e-01 -1.811296e-01 -4.625495e-02 -6.081819e-02 -6.799190e-02 -8.828220e-02 -9.665798e-02 -1.055186e-01 -1.070200e-01 -1.101264e-01 -1.104329e-01 -1.094659e-01 -1.055663e-01 -9.955875e-02 -4.555564e-02
<VARIANCE> 39
 1.783512e+01 1.129615e+01 1.168519e+01 1.616679e+01 1.671335e+01 2.068320e+01 2.073991e+01 1.919943e+01 1.704519e+01 1.579410e+01 1.426171e+01 1.294117e+01 2.147654e+01 3.305866e-01 4.801038e-01 5.955099e-01 9.543739e-01 1.121262e+00 1.350073e+00 1.378753e+00 1.470032e+00 1.467113e+00 1.439515e+00 1.349832e+00 1.208304e+00 4.557993e-01 5.283385e-02 8.453739e-02 1.133215e-01 1.761434e-01 2.162063e-01 2.606393e-01 2.732322e-01 2.934208e-01 2.957176e-01 2.914473e-01 2.742830e-01 2.452007e-01 6.022654e-02
<GCONST> 8.441850e+01
<TRANSP> 5
 0.000000e+00 1.000000e+00 0.000000e+00 0.000000e+00 0.000000e+00
 0.000000e+00 8.421278e-01 1.578722e-01 0.000000e+00 0.000000e+00
 0.000000e+00 0.000000e+00 9.928808e-01 7.119189e-03 0.000000e+00
 0.000000e+00 0.000000e+00 0.000000e+00 9.892817e-01 1.071835e-02
 0.000000e+00 0.000000e+00 0.000000e+00 0.000000e+00 0.000000e+00
<ENDHMM>
~h "spe"
<BEGINHMM>
<NUMSTATES> 5
<STATE> 2
<NUMMIXES> 2
<MIXTURE> 1 5.000000e-01
<MEAN> 39
 -8.095701e-01 -8.158343e-01 -5.427995e-01 -5.997644e+00 -1.512635e+00 3.925943e-02 -1.439643e+00 1.096949e+00 -1.398816e+00 1.668360e+00 1.133646e+00 -3.690566e+00 5.661606e+01 1.678088e-01 1.600060e-01 3.035470e-01 1.876927e-01 2.029998e-01 1.733208e-01 1.821127e-01 2.602739e-01 2.790823e-01 3.188296e-01 2.838366e-01 2.731709e-01 2.630891e-01 6.558824e-02 6.809206e-02 9.076650e-02 1.022258e-01 9.435853e-02 1.078316e-01 1.184833e-01 1.254655e-01 1.305481e-01 1.205110e-01 1.153558e-01 1.197849e-01 4.193048e-02
<VARIANCE> 39
 2.836707e+01 4.210703e+01 3.480820e+01 4.177569e+01 4.494897e+01 4.800553e+01 3.611175e+01 3.922991e+01 3.241106e+01 3.196452e+01 3.407972e+01 3.145618e+01 1.257078e+01 8.029504e-01 1.179308e+00 1.248890e+00 1.466644e+00 1.992247e+00 2.024622e+00 1.966213e+00 2.157168e+00 2.067788e+00 2.074078e+00 1.952106e+00 1.834425e+00 4.239223e-01 9.971260e-02 1.497474e-01 1.752221e-01 2.209078e-01 3.062480e-01 3.374064e-01 3.436369e-01 3.849243e-01 3.851394e-01 3.824247e-01 3.538484e-01 3.294520e-01 4.193679e-02
<GCONST> 1.037083e+02
<MIXTURE> 2 5.000000e-01
<MEAN> 39
 -2.940000e+00 -3.411432e+00 -2.902739e+00 -8.583009e+00 -4.194395e+00 -2.732182e+00 -3.843365e+00 -1.408403e+00 -3.676044e+00 -5.931271e-01 -1.201468e+00 -5.933998e+00 5.519785e+01 -1.906212e-01 -2.743778e-01 -1.434680e-01 -2.967276e-01 -3.615882e-01 -3.958360e-01 -3.787742e-01 -3.272181e-01 -2.961099e-01 -2.572369e-01 -2.750345e-01 -2.685929e-01 2.651766e-03 -6.072097e-02 -8.669677e-02 -7.667167e-02 -8.577751e-02 -1.270002e-01 -1.245152e-01 -1.159989e-01 -1.227036e-01 -1.176903e-01 -1.268510e-01 -1.225848e-01 -1.098068e-01 -3.998341e-02
<VARIANCE> 39
 2.836707e+01 4.210703e+01 3.480820e+01 4.177569e+01 4.494897e+01 4.800553e+01 3.611175e+01 3.922991e+01 3.241106e+01 3.196452e+01 3.407972e+01 3.145618e+01 1.257078e+01 8.029504e-01 1.179308e+00 1.248890e+00 1.466644e+00 1.992247e+00 2.024622e+00 1.966213e+00 2.157168e+00 2.067788e+00 2.074078e+00 1.952106e+00 1.834425e+00 4.239223e-01 9.971260e-02 1.497474e-01 1.752221e-01 2.209078e-01 3.062480e-01 3.374064e-01 3.436369e-01 3.849243e-01 3.851394e-01 3.824247e-01 3.538484e-01 3.294520e-01 4.193679e-02
<GCONST> 1.037083e+02
<STATE> 3
<NUMMIXES> 2
<MIXTURE> 1 5.000000e-01
<MEAN> 39
 -1.805599e+00 -3.683062e+00 4.204921e+00 -1.094907e+01 -2.446765e+00 -3.517601e+00 -3.752376e+00 -4.687687e-01 -1.113478e+00 -1.543315e+00 -3.250804e+00 -1.776553e+00 6.265662e+01 1.561767e-01 2.112792e-01 1.643185e-01 2.889234e-01 3.071197e-01 2.858402e-01 3.079991e-01 2.933571e-01 2.997865e-01 2.517341e-01 2.349599e-01 2.213321e-01 1.166643e-01 5.019140e-02 9.089293e-02 7.411294e-02 1.141787e-01 1.303802e-01 1.320951e-01 1.395175e-01 1.290427e-01 1.240598e-01 1.309637e-01 1.290459e-01 1.161493e-01 2.398867e-02
<VARIANCE> 39
 2.141853e+01 3.652657e+01 7.335365e+01 6.563950e+01 6.600757e+01 6.140024e+01 4.284718e+01 5.799502e+01 4.039125e+01 3.597105e+01 5.729029e+01 3.749921e+01 2.405288e+01 5.469094e-01 9.878233e-01 1.292516e+00 1.551082e+00 1.856533e+00 1.932866e+00 2.060179e+00 2.250788e+00 2.085237e+00 2.030234e+00 2.034184e+00 1.749123e+00 4.230765e-01 7.534543e-02 1.327588e-01 1.908167e-01 2.459868e-01 3.107056e-01 3.486439e-01 3.745057e-01 4.073829e-01 3.918521e-01 3.884512e-01 3.834766e-01 3.284683e-01 4.635413e-02
<GCONST> 1.070296e+02
<MIXTURE> 2 5.000000e-01
<MEAN> 39
 -3.656805e+00 -6.100551e+00 7.790511e-01 -1.418979e+01 -5.696567e+00 -6.651933e+00 -6.370686e+00 -3.514947e+00 -3.655643e+00 -3.942349e+00 -6.278418e+00 -4.226017e+00 6.069488e+01 -1.396366e-01 -1.862780e-01 -2.904370e-01 -2.092463e-01 -2.378989e-01 -2.702700e-01 -2.661338e-01 -3.067480e-01 -2.778275e-01 -3.182110e-01 -3.355394e-01 -3.076856e-01 -1.435130e-01 -5.960508e-02 -5.485140e-02 -1.006173e-01 -8.420954e-02 -9.258368e-02 -1.040892e-01 -1.052699e-01 -1.262635e-01 -1.263326e-01 -1.183398e-01 -1.186561e-01 -1.130993e-01 -6.213137e-02
<VARIANCE> 39
 2.141853e+01 3.652657e+01 7.335365e+01 6.563950e+01 6.600757e+01 6.140024e+01 4.284718e+01 5.799502e+01 4.039125e+01 3.597105e+01 5.729029e+01 3.749921e+01 2.405288e+01 5.469094e-01 9.878233e-01 1.292516e+00 1.551082e+00 1.856533e+00 1.932866e+00 2.060179e+00 2.250788e+00 2.085237e+00 2.030234e+00 2.034184e+00 1.749123e+00 4.230765e-01 7.534543e-02 1.327588e-01 1.908167e-01 2.459868e-01 3.107056e-01 3.486439e-01 3.745057e-01 4.073829e-01 3.918521e-01 3.884512e-01 3.834766e-01 3.284683e-01 4.635413e-02
<GCONST> 1.070296e+02
<STATE> 4
<NUMMIXES> 2
<MIXTURE> 1 5.000000e-01
<MEAN> 39
 -1.009572e+00 -2.482732e+00 -1.330137e-03 -4.721414e+00 -1.755413e+00 8.119477e-01 7.806224e-01 1.622501e+00 -3.516827e-01 9.506397e-01 1.979924e-01 -3.111074e+00 5.421498e+01 1.182295e-01 1.687743e-01 1.785344e-01 2.125629e-01 2.471853e-01 2.623572e-01 2.749617e-01 2.729744e-01 2.709164e-01 2.699370e-01 2.679411e-01 2.497955e-01 7.144450e-02 4.444509e-02 6.126021e-02 7.277983e-02 8.115681e-02 9.650803e-02 1.049517e-01 1.093675e-01 1.138319e-01 1.161270e-01 1.152808e-01 1.125556e-01 1.053510e-01 3.208239e-02
<VARIANCE> 39
 1.543799e+01 3.061743e+01 3.401799e+01 2.795045e+01 4.425433e+01 3.915453e+01 4.033509e+01 3.299545e+01 2.949078e+01 2.866071e+01 2.862552e+01 2.471697e+01 1.832345e+01 3.533583e-01 6.724336e-01 8.619107e-01 1.004811e+00 1.396437e+00 1.565464e+00 1.675822e+00 1.718828e+00 1.747025e+00 1.708445e+00 1.674131e+00 1.468050e+00 2.310717e-01 4.969539e-02 9.649022e-02 1.308553e-01 1.708109e-01 2.355988e-01 2.797858e-01 3.057228e-01 3.238992e-01 3.386172e-01 3.333108e-01 3.187369e-01 2.787718e-01 2.464504e-02
<GCONST> 9.386214e+01
<MIXTURE> 2 5.000000e-01
<MEAN> 39
 -2.581220e+00 -4.696053e+00 -2.334328e+00 -6.836141e+00 -4.416370e+00 -1.690996e+00 -1.759774e+00 -6.751653e-01 -2.523899e+00 -1.190788e+00 -1.942120e+00 -5.099720e+00 5.250274e+01 -1.195463e-01 -1.592339e-01 -1.928221e-01 -1.883982e-01 -2.254985e-01 -2.381168e-01 -2.428525e-01 -2.514419e-01 -2.577839e-01 -2.528930e-01 -2.496117e-01 -2.348569e-01 -1.208352e-01 -4.472477e-02 -6.299128e-02 -7.191589e-02 -8.416030e-02 -9.764605e-02 -1.066274e-01 -1.118013e-01 -1.138167e-01 -1.166363e-01 -1.156515e-01 -1.132716e-01 -1.058443e-01 -3.071257e-02
<VARIANCE> 39
 1.543799e+01 3.061743e+01 3.401799e+01 2.795045e+01 4.425433e+01 3.915453e+01 4.033509e+01 3.299545e+01 2.949078e+01 2.866071e+01 2.862552e+01 2.471697e+01 1.832345e+01 3.533583e-01 6.724336e-01 8.619107e-01 1.004811e+00 1.396437e+00 1.565464e+00 1.675822e+00 1.718828e+00 1.747025e+00 1.708445e+00 1.674131e+00 1.468050e+00 2.310717e-01 4.969539e-02 9.649022e-02 1.308553e-01 1.708109e-01 2.355988e-01 2.797858e-01 3.057228e-01 3.238992e-01 3.386172e-01 3.333108e-01 3.187369e-01 2.787718e-01 2.464504e-02
<GCONST> 9.386214e+01
<TRANSP> 5
 0.000000e+00 1.000000e+00 0.000000e+00 0.000000e+00 0.000000e+00
 0.000000e+00 9.778594e-01 2.214063e-02 0.000000e+00 0.000000e+00
 0.000000e+00 0.000000e+00 9.829979e-01 1.700212e-02 0.000000e+00
 0.000000e+00 0.000000e+00 0.000000e+00 9.964763e-01 3.523672e-03
 0.000000e+00 0.000000e+00 0.000000e+00 0.000000e+00 0.000000e+00
<ENDHMM>
