~o
<STREAMINFO> 1 39
<VECSIZE> 39<NULLD><MFCC_D_A_0><DIAGC>
~h "ap"
<BEGINHMM>
<NUMSTATES> 5
<STATE> 2
<NUMMIXES> 2
<MIXTURE> 1 8.073574e-01
<MEAN> 39
 -1.377118e+01 -9.884377e+00 -5.104130e+00 -1.627508e+00 6.676762e-01 -3.779527e+00 2.193549e+00 -1.742144e+00 -7.197893e-01 -4.616793e-01 5.119742e-01 -2.622905e-01 6.191753e+01 3.431543e-01 2.249510e-01 2.148770e-01 1.214564e-01 2.205714e-01 2.016860e-01 1.694275e-01 1.423043e-01 4.281323e-02 2.527886e-02 3.410432e-02 -9.152876e-03 -7.895885e-01 -1.951388e-02 1.626484e-02 -4.893590e-03 -1.146667e-03 -1.129550e-02 -1.288299e-02 -2.837315e-02 -6.109588e-04 -1.436295e-02 -8.364308e-03 -8.792916e-03 -6.140688e-03 2.403243e-02
<VARIANCE> 39
 2.199693e+01 3.395346e+01 2.974314e+01 2.454274e+01 3.119540e+01 3.433236e+01 2.774253e+01 2.648738e+01 2.094912e+01 1.900253e+01 1.689295e+01 1.550396e+01 8.648827e+01 1.301885e-01 2.627032e-01 4.321586e-01 6.752023e-01 9.093959e-01 1.062778e+00 1.235173e+00 1.341044e+00 1.372252e+00 1.346705e+00 1.282420e+00 1.189576e+00 9.256551e-02 3.403139e-02 5.797168e-02 9.233603e-02 1.404564e-01 1.878612e-01 2.272867e-01 2.588438e-01 2.794967e-01 2.885175e-01 2.823661e-01 2.683266e-01 2.484715e-01 7.013909e-02
<GCONST> 8.477061e+01
<MIXTURE> 2 1.926418e-01
<MEAN> 39
 -1.481703e+01 -8.203172e+00 -5.635113e+00 -2.361333e+00 -1.080397e+00 -4.285639e+00 5.064868e-01 -6.529750e-01 -1.254126e+00 -5.878004e-01 -2.085797e-01 -1.201781e+00 6.486288e+01 -1.695440e+00 -1.654922e+00 -1.310351e+00 -5.136971e-01 -1.136842e+00 -1.385724e+00 -8.699626e-01 -7.783310e-01 -3.718165e-01 -2.192021e-01 -1.705023e-01 3.276120e-02 4.511042e+00 1.410760e-01 -7.220706e-02 6.389765e-03 -1.224136e-02 7.337257e-02 8.198244e-02 1.537084e-01 3.307737e-02 6.937781e-02 3.390275e-02 4.820108e-02 2.800003e-02 -1.634466e-01
<VARIANCE> 39
 4.430429e+01 5.132706e+01 3.794228e+01 2.747053e+01 4.091231e+01 5.259177e+01 4.015933e+01 3.485817e+01 2.770521e+01 2.203036e+01 1.926689e+01 1.689892e+01 2.205109e+02 3.419183e+00 4.303471e+00 2.754459e+00 2.497452e+00 3.164701e+00 4.836079e+00 3.934064e+00 3.434289e+00 2.948371e+00 2.434833e+00 2.100606e+00 1.757175e+00 1.545416e+01 9.203138e-01 8.850650e-01 6.160503e-01 4.595167e-01 7.071418e-01 1.045458e+00 8.147014e-01 7.017789e-01 5.492406e-01 4.430733e-01 3.828329e-01 3.219479e-01 4.974937e+00
<GCONST> 1.306027e+02
<STATE> 3
<NUMMIXES> 2
<MIXTURE> 1 8.181465e-01
<MEAN> 39
 -1.100515e+01 -1.733938e+01 -1.151931e+01 2.794823e-01 6.518604e-01 -9.597839e+00 5.391177e-01 -1.160421e+00 -4.200526e+00 -2.778567e+00 9.608877e-01 -5.990082e-01 6.877071e+01 2.977476e-01 1.873509e-01 2.655848e-01 2.463481e-01 3.004289e-01 1.835560e-01 1.409802e-01 5.371375e-02 1.840725e-02 2.141417e-02 5.211784e-02 3.856468e-02 -9.120539e-01 -1.544926e-02 3.165311e-02 1.048222e-02 -2.840862e-03 -3.998283e-03 4.342488e-03 -2.245240e-02 8.214669e-03 7.898421e-03 5.782139e-04 -7.418228e-03 -2.987906e-03 1.562071e-02
<VARIANCE> 39
 1.188211e+01 2.143456e+01 1.965453e+01 2.210224e+01 3.168581e+01 2.179073e+01 2.884955e+01 2.244748e+01 2.258783e+01 2.076735e+01 1.670815e+01 1.484279e+01 6.361450e+01 9.846970e-02 2.388611e-01 3.718764e-01 6.031175e-01 8.347132e-01 9.851952e-01 1.140050e+00 1.239468e+00 1.296237e+00 1.299577e+00 1.220112e+00 1.150773e+00 4.010627e-02 2.332573e-02 5.360195e-02 8.050565e-02 1.312272e-01 1.789765e-01 2.068035e-01 2.468102e-01 2.640938e-01 2.759338e-01 2.754051e-01 2.550817e-01 2.412647e-01 3.012195e-02
<GCONST> 7.853967e+01
<MIXTURE> 2 1.818620e-01
<MEAN> 39
 -1.215729e+01 -1.528510e+01 -1.128980e+01 -4.202057e-01 -1.897295e-01 -9.311102e+00 -1.064081e+00 -1.576313e-01 -3.344958e+00 -2.830603e+00 3.495219e-01 -8.381776e-01 7.118924e+01 -8.743582e-01 -6.720263e-01 -8.813074e-01 -7.939318e-01 -9.313797e-01 -6.068955e-01 -3.791306e-01 -1.623772e-01 -6.852126e-02 -9.557262e-02 -1.217772e-01 -8.645096e-02 2.799082e+00 9.641696e-02 -9.286314e-03 4.824100e-02 5.304153e-02 7.866275e-02 6.369767e-02 1.121084e-01 -1.671521e-02 -5.480748e-03 2.706475e-02 3.417232e-02 1.009665e-02 -2.502396e-01
<VARIANCE> 39
 2.547844e+01 3.360962e+01 2.952404e+01 3.419529e+01 4.001286e+01 3.552404e+01 4.103527e+01 2.653212e+01 2.765876e+01 2.367685e+01 1.858557e+01 1.607862e+01 1.703299e+02 1.965399e+00 2.692120e+00 2.060361e+00 2.533298e+00 2.975223e+00 3.290148e+00 3.798674e+00 2.691470e+00 2.652197e+00 2.236347e+00 1.887575e+00 1.610080e+00 1.345710e+01 4.905267e-01 6.040015e-01 5.268154e-01 5.583187e-01 6.822692e-01 7.156574e-01 7.258488e-01 5.071343e-01 4.955047e-01 4.315065e-01 3.601533e-01 3.167088e-01 3.958965e+00
<GCONST> 1.238430e+02
<STATE> 4
<NUMMIXES> 2
<MIXTURE> 1 8.567602e-01
<MEAN> 39
 -9.500444e+00 -1.076966e+01 -4.650584e+00 8.380189e-01 -1.099029e-01 -3.780296e+00 3.397443e+00 -1.068861e+00 -1.712278e+00 2.804292e-01 8.352149e-01 -9.010875e-01 5.824192e+01 2.343394e-01 2.770803e-01 1.795651e-01 9.359811e-02 1.595660e-01 2.015079e-01 9.776472e-02 1.549240e-01 5.536891e-02 3.541396e-02 1.363010e-02 -4.081742e-03 -6.523647e-01 -1.596225e-02 7.579044e-03 -7.819281e-03 -9.259198e-03 -1.289197e-02 -6.590442e-03 -1.520642e-02 -2.604679e-04 -4.901421e-03 -4.237851e-03 -2.096689e-03 -5.865349e-04 2.263236e-02
<VARIANCE> 39
 2.008556e+01 6.255401e+01 2.185591e+01 2.226302e+01 3.154399e+01 3.245845e+01 2.392847e+01 3.211253e+01 2.349837e+01 1.975771e+01 1.651754e+01 1.421974e+01 1.042590e+02 1.306445e-01 2.733546e-01 4.207644e-01 6.600180e-01 8.806548e-01 1.023923e+00 1.175723e+00 1.277412e+00 1.327318e+00 1.310906e+00 1.249903e+00 1.133612e+00 1.416827e-01 2.374468e-02 4.925497e-02 8.253188e-02 1.278132e-01 1.733597e-01 2.093553e-01 2.404159e-01 2.603801e-01 2.758468e-01 2.717038e-01 2.550009e-01 2.323083e-01 1.410058e-02
<GCONST> 8.239209e+01
<MIXTURE> 2 1.432565e-01
<MEAN> 39
 -1.238235e+01 -9.620137e+00 -5.974400e+00 -7.697829e-01 -2.211197e+00 -4.569940e+00 1.687354e+00 -9.605575e-01 -1.948625e+00 1.231642e-01 1.107421e-01 -1.469486e+00 6.398510e+01 -1.299096e+00 -1.402891e+00 -8.921152e-01 -5.024595e-01 -9.571540e-01 -1.017641e+00 -5.130130e-01 -8.243642e-01 -2.235117e-01 -1.449862e-01 -9.443736e-02 6.679460e-03 3.498724e+00 8.488175e-02 -5.547447e-02 2.685364e-02 3.690170e-02 5.721842e-02 2.096493e-02 7.654084e-02 -5.096225e-03 1.571847e-02 1.045961e-02 7.905607e-03 2.024276e-03 -1.125077e-01
<VARIANCE> 39
 4.011800e+01 7.312218e+01 3.113641e+01 2.857821e+01 4.169141e+01 4.619896e+01 3.497153e+01 3.962055e+01 2.969712e+01 2.156971e+01 1.864442e+01 1.603219e+01 2.383910e+02 3.135058e+00 5.691487e+00 2.263294e+00 2.248333e+00 3.112776e+00 3.948053e+00 3.279803e+00 3.818383e+00 3.153914e+00 2.187741e+00 1.923678e+00 1.622606e+00 1.817590e+01 7.738335e-01 1.159410e+00 5.031622e-01 4.555619e-01 7.087079e-01 8.829197e-01 6.608889e-01 8.025962e-01 6.090006e-01 4.241790e-01 3.732553e-01 3.122917e-01 4.864203e+00
<GCONST> 1.297952e+02
<TRANSP> 5
 0.000000e+00 1.000000e+00 0.000000e+00 0.000000e+00 0.000000e+00
 0.000000e+00 9.866021e-01 1.339790e-02 0.000000e+00 0.000000e+00
 0.000000e+00 0.000000e+00 9.875834e-01 1.241659e-02 0.000000e+00
 0.000000e+00 0.000000e+00 0.000000e+00 9.923630e-01 7.637019e-03
 0.000000e+00 0.000000e+00 0.000000e+00 0.000000e+00 0.000000e+00
<ENDHMM>
~h "cl"
<BEGINHMM>
<NUMSTATES> 5
<STATE> 2
<NUMMIXES> 2
<MIXTURE> 1 7.087305e-01
<MEAN> 39
 -1.135311e+01 -1.076450e+00 -1.027543e+00 -4.642434e+00 -1.734139e+00 6.245618e+00 3.671987e+00 2.807328e-01 4.520655e+00 -1.754863e-01 -3.006813e+00 1.620169e+00 5.245757e+01 3.061793e-01 -1.504519e-02 -1.096243e-02 6.755860e-02 1.063872e-01 9.261236e-03 1.046592e-01 9.653467e-02 -1.849453e-02 6.347734e-02 8.738674e-02 -6.037160e-02 -2.707205e-01 -3.016257e-02 1.327745e-02 -2.196258e-03 3.976461e-03 -3.073381e-03 -8.928455e-03 -1.216630e-02 8.587454e-03 -9.409692e-03 7.795147e-03 1.104267e-02 -5.989850e-03 2.501791e-02
<VARIANCE> 39
 3.171274e+01 1.966689e+01 3.233790e+01 1.554906e+01 1.932054e+01 4.038193e+01 2.264639e+01 2.589857e+01 3.567910e+01 2.098016e+01 2.445541e+01 2.425737e+01 2.421087e+01 3.519340e-01 3.684858e-01 5.454477e-01 7.324923e-01 9.566151e-01 1.318626e+00 1.324371e+00 1.457522e+00 1.608293e+00 1.415382e+00 1.362311e+00 1.295533e+00 1.637828e-01 7.458287e-02 6.714777e-02 1.070790e-01 1.436296e-01 1.939448e-01 2.569804e-01 2.638809e-01 2.932796e-01 3.171512e-01 2.879105e-01 2.734649e-01 2.543094e-01 3.004808e-02
<GCONST> 8.747514e+01
<MIXTURE> 2 2.912898e-01
<MEAN> 39
 -1.473773e+01 -1.524035e+00 -1.361609e+00 -4.267553e+00 -2.638314e+00 4.262590e+00 1.700853e+00 -6.011057e-02 3.640331e+00 -4.220774e-02 -2.429644e+00 1.212719e+00 5.750975e+01 -1.800740e+00 1.677187e-01 1.868615e-01 -2.616898e-01 -5.885091e-01 4.603359e-01 -4.807707e-01 -7.181462e-01 3.323633e-01 -2.950129e-01 -6.250863e-01 4.722949e-01 1.475547e+00 5.729249e-02 -5.020043e-02 4.834617e-02 -3.147201e-02 -4.846130e-02 1.033912e-01 2.084333e-02 -9.584016e-02 5.958141e-02 -2.912965e-02 -1.145368e-01 7.713218e-02 -5.357709e-02
<VARIANCE> 39
 5.705994e+01 4.937965e+01 3.084302e+01 1.946182e+01 2.420325e+01 6.110354e+01 3.058897e+01 3.120735e+01 3.567137e+01 2.696752e+01 2.623369e+01 2.275748e+01 9.536170e+01 5.222822e+00 1.796216e+00 1.549529e+00 1.433761e+00 1.985510e+00 3.951510e+00 2.581349e+00 3.147822e+00 3.187522e+00 2.507310e+00 2.621683e+00 2.297606e+00 4.519423e+00 1.067396e+00 2.581002e-01 2.298837e-01 2.537614e-01 3.464296e-01 5.577378e-01 4.620704e-01 5.142468e-01 4.993144e-01 4.346432e-01 4.288381e-01 3.631613e-01 8.799445e-01
<GCONST> 1.198446e+02
<STATE> 3
<NUMMIXES> 2
<MIXTURE> 1 5.704955e-01
<MEAN> 39
 -2.123174e+01 2.723584e+00 -2.584694e-01 -7.126677e+00 -4.658474e+00 1.340632e+01 8.899822e-01 -2.267760e+00 9.556539e+00 -4.143939e+00 -4.648458e+00 5.749881e+00 5.910559e+01 4.648138e-01 3.190493e-02 5.630067e-02 8.538933e-02 1.463643e-01 1.493655e-01 1.556527e-01 1.535236e-01 2.406231e-01 2.254870e-01 1.901139e-01 8.301353e-02 -3.512067e-01 1.009766e-03 2.681390e-03 -1.723662e-02 2.969655e-02 1.699900e-02 -6.063303e-02 -3.243343e-03 3.185683e-02 -3.575009e-02 4.860368e-02 5.146957e-02 -3.117984e-02 5.499292e-03
<VARIANCE> 39
 3.342937e+01 8.127442e+00 1.622539e+01 1.109406e+01 1.400406e+01 2.472091e+01 2.304347e+01 1.853681e+01 2.265175e+01 1.919955e+01 1.779899e+01 1.888929e+01 1.740990e+01 5.449166e-01 3.337035e-01 6.031428e-01 7.727416e-01 1.015182e+00 1.444452e+00 1.524810e+00 1.411691e+00 1.539299e+00 1.487228e+00 1.356897e+00 1.371947e+00 2.873552e-01 1.723869e-01 6.705568e-02 1.285082e-01 1.597543e-01 2.135857e-01 2.984201e-01 3.216763e-01 2.958446e-01 3.305004e-01 3.182811e-01 2.869743e-01 2.882555e-01 9.656638e-02
<GCONST> 8.747998e+01
<MIXTURE> 2 4.294868e-01
<MEAN> 39
 -1.897044e+01 1.975835e+00 -1.390774e+00 -6.493363e+00 -4.608418e+00 1.046978e+01 1.539924e-01 -2.060246e+00 7.838913e+00 -3.391409e+00 -3.429555e+00 4.634575e+00 5.888838e+01 -5.263525e-01 -5.804612e-02 -9.966381e-02 -9.908924e-02 -1.846178e-01 -2.156211e-01 -1.908330e-01 -2.247235e-01 -3.452553e-01 -2.951408e-01 -2.547196e-01 -1.152197e-01 4.100583e-01 1.932974e-02 -6.598525e-03 1.865193e-02 -3.645371e-02 -1.345647e-02 6.432520e-02 8.214040e-03 -3.213392e-02 3.601676e-02 -5.570446e-02 -5.755818e-02 2.935939e-02 -2.254788e-02
<VARIANCE> 39
 6.949162e+01 1.413200e+01 2.425745e+01 1.507018e+01 1.895614e+01 4.253143e+01 3.181287e+01 2.600468e+01 3.256609e+01 2.093752e+01 2.010369e+01 2.289034e+01 3.132848e+01 2.830528e+00 7.042855e-01 1.054683e+00 1.101640e+00 1.473330e+00 2.449173e+00 2.252747e+00 1.962931e+00 2.181427e+00 1.744172e+00 1.695565e+00 2.033616e+00 1.620860e+00 5.310510e-01 1.221616e-01 1.804907e-01 2.129457e-01 2.772396e-01 4.340570e-01 4.168198e-01 3.821644e-01 4.377409e-01 3.602378e-01 3.333133e-01 3.655942e-01 3.061413e-01
<GCONST> 1.055623e+02
<STATE> 4
<NUMMIXES> 2
<MIXTURE> 1 6.556039e-01
<MEAN> 39
 -2.163066e+01 4.340552e-01 5.842230e+00 -4.225303e+00 -6.550853e+00 1.100597e+01 1.560735e+00 -6.264204e+00 3.909652e+00 4.502484e+00 -1.179524e+01 4.862546e+00 5.724117e+01 5.334069e-01 7.551640e-02 1.897031e-01 2.305041e-02 5.079666e-02 1.157570e-01 2.004891e-01 -4.479087e-02 3.231509e-01 5.814634e-02 -2.937891e-02 1.205335e-01 -5.975102e-01 -2.713563e-02 2.102222e-02 -4.593833e-02 2.085552e-02 4.662824e-02 -7.151297e-02 -1.583719e-02 8.437885e-02 -3.374811e-02 -6.198581e-03 8.340117e-02 -6.243210e-02 2.088498e-02
<VARIANCE> 39
 3.827710e+01 9.156842e+00 1.480441e+01 1.529514e+01 2.979247e+01 2.741483e+01 2.683243e+01 4.743799e+01 3.642177e+01 3.179485e+01 2.961957e+01 3.047750e+01 3.347794e+01 2.314934e-01 3.040659e-01 6.007349e-01 7.029136e-01 9.649944e-01 1.228761e+00 1.275402e+00 1.548635e+00 1.597359e+00 1.441384e+00 1.436302e+00 1.251796e+00 1.690410e-01 9.877308e-02 6.675714e-02 1.361954e-01 1.530897e-01 2.171430e-01 2.757934e-01 2.831566e-01 3.484813e-01 3.646944e-01 3.276940e-01 3.066490e-01 2.712571e-01 9.391993e-02
<GCONST> 9.016267e+01
<MIXTURE> 2 3.445390e-01
<MEAN> 39
 -2.354497e+01 7.470446e-01 4.315547e+00 -3.895506e+00 -6.174496e+00 9.895752e+00 7.821217e-01 -5.378741e+00 3.063989e+00 4.048798e+00 -1.087788e+01 4.269541e+00 5.944673e+01 -8.655079e-01 -1.582366e-01 -3.490419e-01 -6.414848e-02 -8.260666e-02 -2.646127e-01 -3.838996e-01 1.129492e-01 -6.163912e-01 -1.222098e-01 8.502890e-02 -2.425147e-01 1.018643e+00 5.265882e-02 -3.824979e-02 7.941917e-02 -3.764149e-02 -8.125426e-02 1.284393e-01 3.034489e-02 -1.481794e-01 6.061166e-02 8.374585e-03 -1.468572e-01 1.117389e-01 -4.035133e-02
<VARIANCE> 39
 3.770726e+01 1.231292e+01 1.897412e+01 1.738750e+01 2.870740e+01 3.383391e+01 3.367131e+01 5.064573e+01 4.264407e+01 3.242540e+01 3.236316e+01 3.415292e+01 3.848316e+01 2.119139e+00 7.604713e-01 1.556001e+00 1.350488e+00 2.163287e+00 2.888304e+00 2.377228e+00 4.176903e+00 3.598650e+00 3.048125e+00 2.637181e+00 2.556810e+00 1.871629e+00 5.171998e-01 1.271471e-01 2.871709e-01 2.353780e-01 3.539733e-01 4.748307e-01 4.498575e-01 6.350624e-01 7.045466e-01 4.990208e-01 4.573520e-01 4.623409e-01 5.526279e-01
<GCONST> 1.144602e+02
<TRANSP> 5
 0.000000e+00 1.000000e+00 0.000000e+00 0.000000e+00 0.000000e+00
 0.000000e+00 9.591270e-01 4.087299e-02 0.000000e+00 0.000000e+00
 0.000000e+00 0.000000e+00 9.918687e-01 8.131322e-03 0.000000e+00
 0.000000e+00 0.000000e+00 0.000000e+00 9.935396e-01 6.460438e-03
 0.000000e+00 0.000000e+00 0.000000e+00 0.000000e+00 0.000000e+00
<ENDHMM>
~h "cm"
<BEGINHMM>
<NUMSTATES> 5
<STATE> 2
<NUMMIXES> 2
<MIXTURE> 1 5.225888e-01
<MEAN> 39
 -1.299326e+01 -7.054725e-01 -4.018104e+00 -6.064317e+00 -2.976337e-01 6.680647e-01 -9.883611e-01 1.059422e+00 -8.459253e-01 1.201791e+00 2.728410e+00 2.462162e-01 5.849866e+01 9.508945e-03 8.151944e-02 1.455105e-01 2.193785e-01 3.142537e-01 3.502239e-01 3.195747e-01 3.218752e-01 2.678917e-01 2.264981e-01 1.594585e-01 6.965666e-02 5.256639e-02 1.068008e-02 1.162047e-02 1.682693e-02 1.767811e-02 8.136563e-03 -5.652855e-03 -5.169773e-03 -4.185400e-03 -1.530826e-03 5.715515e-03 9.073626e-03 1.206061e-03 7.278786e-03
<VARIANCE> 39
 9.597264e+00 1.371224e+01 1.367637e+01 1.505917e+01 1.484235e+01 1.651829e+01 1.938081e+01 1.843029e+01 1.853526e+01 1.652487e+01 1.822549e+01 1.629629e+01 2.369607e+01 1.773435e-01 2.896895e-01 4.561561e-01 6.574256e-01 8.378305e-01 9.990469e-01 1.132245e+00 1.250968e+00 1.290118e+00 1.257326e+00 1.296954e+00 1.199512e+00 1.296147e-01 2.970045e-02 5.344843e-02 8.970886e-02 1.374814e-01 1.821772e-01 2.228034e-01 2.499379e-01 2.733893e-01 2.746918e-01 2.656818e-01 2.622690e-01 2.415109e-01 1.443454e-02
<GCONST> 7.638455e+01
<MIXTURE> 2 4.773985e-01
<MEAN> 39
 -1.305725e+01 -8.503419e-01 -4.139387e+00 -6.188804e+00 -5.625200e-01 1.286606e-01 -1.500647e+00 6.388521e-01 -1.075811e+00 1.525521e+00 3.247983e+00 6.287315e-01 5.895907e+01 -3.253943e-02 -1.482631e-01 -2.122433e-01 -2.962873e-01 -3.235519e-01 -4.011363e-01 -4.538267e-01 -4.130689e-01 -3.734511e-01 -2.855145e-01 -1.831299e-01 -6.884903e-02 2.533407e-01 1.812088e-02 -1.147170e-02 -1.675127e-02 -1.195516e-02 -2.146233e-02 -2.053224e-02 -9.655215e-03 -1.560136e-02 -1.742441e-02 -3.410020e-02 -4.279163e-02 -2.532629e-02 1.201363e-02
<VARIANCE> 39
 9.192169e+00 1.386203e+01 1.252990e+01 1.410037e+01 1.491649e+01 1.670999e+01 2.008162e+01 1.898847e+01 1.885816e+01 1.697126e+01 1.883547e+01 1.725046e+01 2.186666e+01 2.931167e-01 4.171903e-01 5.487389e-01 7.980140e-01 9.614573e-01 1.135597e+00 1.295586e+00 1.372496e+00 1.394421e+00 1.369062e+00 1.411004e+00 1.314610e+00 3.600518e-01 3.854700e-02 6.631909e-02 9.991603e-02 1.508539e-01 1.979651e-01 2.444623e-01 2.796566e-01 2.935317e-01 2.926528e-01 2.779663e-01 2.778473e-01 2.579732e-01 3.416807e-02
<GCONST> 8.156394e+01
<STATE> 3
<NUMMIXES> 2
<MIXTURE> 1 5.987358e-01
<MEAN> 39
 -7.639168e+00 -2.317708e+00 -4.806830e+00 -5.863082e+00 -1.820457e+00 -2.146579e+00 -2.300552e+00 -1.274911e+00 -2.363502e+00 -1.010118e+00 -6.985104e-01 -1.795729e+00 6.584694e+01 1.106578e-01 1.041063e-01 1.146227e-01 2.018800e-01 2.262130e-01 2.732536e-01 2.524948e-01 2.208983e-01 2.109328e-01 1.880766e-01 1.468371e-01 8.265966e-02 -6.337738e-02 -1.216427e-02 5.016088e-03 -1.261515e-03 1.234614e-02 3.440609e-03 8.676764e-03 1.128028e-02 6.099539e-03 -2.766551e-03 -6.618163e-03 -7.129921e-03 -9.709103e-03 -2.763384e-02
<VARIANCE> 39
 1.327806e+01 1.606614e+01 1.367480e+01 1.719963e+01 1.664158e+01 1.670094e+01 2.201864e+01 1.933977e+01 2.038997e+01 1.832661e+01 1.691792e+01 1.526862e+01 7.749413e+01 2.747379e-01 3.768151e-01 5.353859e-01 7.565343e-01 9.142967e-01 1.046276e+00 1.188029e+00 1.290102e+00 1.350917e+00 1.312340e+00 1.300159e+00 1.220037e+00 4.473930e-01 4.810095e-02 7.917225e-02 1.106484e-01 1.664921e-01 2.035354e-01 2.411688e-01 2.716314e-01 2.866207e-01 2.958689e-01 2.896993e-01 2.796877e-01 2.558883e-01 5.463593e-02
<GCONST> 8.431747e+01
<MIXTURE> 2 4.012243e-01
<MEAN> 39
 -8.611903e+00 -2.253474e+00 -5.159857e+00 -6.475791e+00 -2.351742e+00 -2.684074e+00 -2.975136e+00 -1.486598e+00 -2.735762e+00 -1.432369e+00 -9.848137e-01 -2.037478e+00 6.691672e+01 2.189561e-01 -1.876238e-01 -2.089731e-01 -3.543037e-01 -5.048632e-01 -6.271304e-01 -5.080663e-01 -4.648668e-01 -3.895544e-01 -4.115933e-01 -4.325232e-01 -2.303633e-01 9.466689e-01 9.629078e-03 1.227532e-02 1.612261e-02 1.180116e-02 4.303033e-02 5.190978e-02 3.353759e-02 3.135436e-02 3.541691e-02 4.737166e-02 5.660217e-02 3.958628e-02 -4.114117e-02
<VARIANCE> 39
 1.541226e+01 1.733038e+01 1.591060e+01 1.823021e+01 1.911151e+01 1.826200e+01 2.046295e+01 2.068972e+01 2.166324e+01 1.876379e+01 1.819609e+01 1.569746e+01 6.410468e+01 9.490331e-01 1.105228e+00 9.914867e-01 1.310727e+00 1.400755e+00 1.481319e+00 1.606111e+00 1.739251e+00 1.748173e+00 1.638139e+00 1.575890e+00 1.465790e+00 1.570523e+00 1.218596e-01 1.712885e-01 1.791506e-01 2.446270e-01 2.858209e-01 3.173690e-01 3.286158e-01 3.480023e-01 3.540932e-01 3.274060e-01 3.176026e-01 2.844989e-01 2.661625e-01
<GCONST> 9.762104e+01
<STATE> 4
<NUMMIXES> 2
<MIXTURE> 1 4.831601e-01
<MEAN> 39
 -5.769529e+00 7.980163e-01 -2.646512e+00 -3.763564e+00 -1.253361e-02 -6.107300e-01 -1.558470e+00 -7.568898e-01 -1.778951e+00 -1.193919e+00 -4.002653e-01 -1.879169e+00 6.381583e+01 3.940070e-02 1.181852e-01 1.810138e-01 2.400953e-01 2.634204e-01 2.677473e-01 2.753046e-01 2.273724e-01 2.066937e-01 1.696081e-01 1.375807e-01 6.587417e-02 -3.474219e-01 2.942215e-03 -9.863321e-04 -1.297303e-02 -2.477392e-02 -4.109892e-02 -5.155195e-02 -5.221682e-02 -4.508059e-02 -4.551155e-02 -4.371508e-02 -4.254830e-02 -2.800786e-02 1.059167e-02
<VARIANCE> 39
 1.409402e+01 1.160133e+01 1.227264e+01 1.334554e+01 1.361650e+01 1.391764e+01 1.631569e+01 1.772808e+01 1.838135e+01 1.618685e+01 1.456889e+01 1.300496e+01 6.928110e+01 1.754986e-01 2.752145e-01 4.226281e-01 6.372315e-01 8.178455e-01 9.713058e-01 1.121021e+00 1.218804e+00 1.296125e+00 1.278852e+00 1.235175e+00 1.147985e+00 1.864583e-01 2.590779e-02 4.961342e-02 8.271055e-02 1.259654e-01 1.643714e-01 1.985565e-01 2.336985e-01 2.530626e-01 2.669646e-01 2.607165e-01 2.478521e-01 2.309124e-01 1.459004e-02
<GCONST> 7.565297e+01
<MIXTURE> 2 5.168048e-01
<MEAN> 39
 -5.394107e+00 -8.318593e-01 -4.837813e+00 -6.238215e+00 -2.731374e+00 -3.218711e+00 -3.885487e+00 -2.403698e+00 -3.219797e+00 -2.489181e+00 -1.830272e+00 -2.648859e+00 7.079420e+01 3.390679e-02 -3.218442e-02 -6.114414e-02 -9.142219e-02 -1.437654e-01 -1.847264e-01 -1.926228e-01 -2.157986e-01 -1.899790e-01 -1.679668e-01 -1.204703e-01 -5.287762e-02 -1.083820e-01 -1.099762e-02 -1.500571e-03 1.112005e-02 1.901828e-02 3.585712e-02 4.719982e-02 4.903312e-02 4.376043e-02 4.310781e-02 4.375681e-02 4.262107e-02 2.655280e-02 -2.118984e-02
<VARIANCE> 39
 7.080976e+00 9.428161e+00 9.904177e+00 1.275316e+01 1.267589e+01 1.195880e+01 1.390558e+01 1.576138e+01 1.680276e+01 1.499993e+01 1.432914e+01 1.246002e+01 4.667575e+01 1.881433e-01 2.876067e-01 4.576738e-01 6.768866e-01 8.414735e-01 9.685826e-01 1.113056e+00 1.205697e+00 1.260115e+00 1.244560e+00 1.219200e+00 1.132381e+00 3.132035e-01 2.971993e-02 5.284710e-02 8.907717e-02 1.353368e-01 1.714274e-01 1.996738e-01 2.294537e-01 2.467518e-01 2.575982e-01 2.560470e-01 2.491982e-01 2.292806e-01 2.638623e-02
<GCONST> 7.496177e+01
<TRANSP> 5
 0.000000e+00 1.000000e+00 0.000000e+00 0.000000e+00 0.000000e+00
 0.000000e+00 9.663293e-01 3.367070e-02 0.000000e+00 0.000000e+00
 0.000000e+00 0.000000e+00 9.587902e-01 4.120981e-02 0.000000e+00
 0.000000e+00 0.000000e+00 0.000000e+00 9.847642e-01 1.523585e-02
 0.000000e+00 0.000000e+00 0.000000e+00 0.000000e+00 0.000000e+00
<ENDHMM>
~h "co"
<BEGINHMM>
<NUMSTATES> 5
<STATE> 2
<NUMMIXES> 2
<MIXTURE> 1 6.538841e-01
<MEAN> 39
 -8.288058e+00 -7.106350e+00 -1.733895e-02 -4.273121e+00 -8.965543e+00 -5.209340e+00 -5.351450e+00 -4.514505e-01 -3.809534e+00 -6.607528e+00 -4.911602e+00 -6.402925e+00 6.828194e+01 -6.389751e-01 3.265814e-01 2.899172e-01 -3.642197e-02 4.736423e-01 -1.310176e-01 3.693451e-01 -3.355986e-01 -4.407787e-01 -2.021440e-01 2.960548e-01 2.155403e-01 1.183832e+00 1.137704e-01 -1.697436e-01 -1.767483e-01 1.769193e-01 8.959714e-02 1.112655e-01 2.662615e-02 1.062568e-01 2.225958e-01 2.474985e-01 1.389396e-01 7.486233e-02 -4.046173e-01
<VARIANCE> 39
 2.324268e+01 3.119645e+01 2.428925e+01 3.193123e+01 5.343191e+01 5.184962e+01 8.649394e+01 6.112581e+01 4.927076e+01 4.771812e+01 3.812053e+01 3.618523e+01 9.390644e+01 7.996266e-01 1.373420e+00 1.326293e+00 1.548787e+00 1.880647e+00 2.073544e+00 2.830043e+00 2.234070e+00 2.378513e+00 2.429880e+00 1.877210e+00 1.821015e+00 1.850515e+00 1.155626e-01 1.954118e-01 2.370143e-01 2.627688e-01 3.442453e-01 4.114240e-01 4.403550e-01 4.001730e-01 4.240890e-01 3.836721e-01 3.763502e-01 3.181341e-01 2.948357e-01
<GCONST> 1.131518e+02
<MIXTURE> 2 3.461178e-01
<MEAN> 39
 -6.183932e+00 -8.801369e+00 -2.562300e+00 -2.222160e+00 -1.043661e+01 -3.458177e+00 -4.175481e+00 1.767577e+00 1.083897e+00 -1.454908e+00 -2.147681e+00 -5.418145e+00 5.969400e+01 -4.573445e-01 -7.348862e-01 2.195474e-01 -9.082800e-01 -1.991760e+00 -1.693687e+00 -1.119794e+00 -1.069245e+00 -1.029938e+00 -1.189510e+00 -1.016054e+00 -8.223247e-01 3.972468e+00 -2.017552e-01 4.473093e-01 1.722661e-01 -1.356048e-01 4.224938e-01 9.576271e-02 2.602232e-01 -6.139573e-02 -2.737987e-01 -1.790832e-01 4.961264e-02 6.655919e-02 1.725728e-01
<VARIANCE> 39
 1.847971e+01 5.400538e+01 2.569678e+01 3.836318e+01 9.098348e+01 6.156625e+01 1.131634e+02 6.430415e+01 5.208279e+01 4.980356e+01 3.940797e+01 3.939594e+01 9.638426e+01 1.616405e+00 4.728072e+00 2.810905e+00 3.770659e+00 5.767051e+00 4.045610e+00 5.346965e+00 4.655601e+00 4.858130e+00 3.341410e+00 2.726959e+00 2.761279e+00 3.327354e+00 1.735865e-01 6.981150e-01 3.355848e-01 5.033422e-01 9.614000e-01 7.127842e-01 1.002541e+00 6.257597e-01 6.489270e-01 5.507314e-01 5.227351e-01 5.248970e-01 7.349654e-01
<GCONST> 1.321804e+02
<STATE> 3
<NUMMIXES> 2
<MIXTURE> 1 6.876189e-01
<MEAN> 39
 -6.968276e+00 -7.405464e+00 -1.723811e+00 -3.664442e+00 -6.589223e+00 -8.530208e+00 -6.760853e+00 -6.935899e+00 -4.269807e+00 -3.476314e+00 -3.172222e+00 -7.733272e+00 6.777218e+01 1.679576e-01 4.486590e-02 4.449981e-02 1.856637e-01 3.974014e-01 1.670997e-01 1.554598e-01 4.808694e-03 1.377043e-01 2.356956e-01 1.614458e-01 9.828189e-02 -5.755948e-01 2.224783e-02 2.108851e-03 2.994250e-03 1.783522e-02 -2.723467e-02 7.335266e-03 -6.325100e-03 9.358803e-03 -1.656748e-02 -4.161978e-02 -3.594228e-02 -6.085350e-03 -3.067048e-02
<VARIANCE> 39
 2.152724e+01 1.280146e+01 2.462609e+01 2.319595e+01 2.310335e+01 2.800253e+01 4.882278e+01 5.685598e+01 3.566623e+01 3.793127e+01 3.508550e+01 3.545959e+01 4.634199e+01 2.024203e-01 3.560504e-01 6.066541e-01 7.331027e-01 1.025033e+00 1.137545e+00 1.414382e+00 1.604477e+00 1.719528e+00 1.675372e+00 1.467836e+00 1.393351e+00 1.688801e-01 4.492578e-02 7.661281e-02 1.177110e-01 1.583186e-01 2.196022e-01 2.428302e-01 3.039486e-01 3.357666e-01 3.630166e-01 3.504725e-01 3.138361e-01 2.912946e-01 4.080653e-02
<GCONST> 9.122388e+01
<MIXTURE> 2 3.123796e-01
<MEAN> 39
 -7.081163e+00 -8.340414e+00 -2.683476e+00 -3.408659e+00 -8.700603e+00 -8.521049e+00 -7.267857e+00 -6.526540e+00 -3.668316e+00 -4.257548e+00 -4.433373e+00 -8.486782e+00 6.872304e+01 -6.052540e-02 -1.204827e-01 -4.870620e-02 -2.400210e-01 -5.770506e-01 -3.046591e-01 -5.284824e-01 -1.599735e-01 -2.373443e-01 -4.015009e-01 -3.576484e-01 -3.166729e-01 7.676082e-01 -1.749774e-02 1.107031e-02 2.217561e-02 -2.430820e-02 5.739207e-02 6.985135e-03 1.355636e-02 2.144728e-03 3.912402e-02 8.036723e-02 5.524822e-02 6.253641e-03 5.127793e-03
<VARIANCE> 39
 1.444509e+01 1.981975e+01 3.192955e+01 2.627531e+01 3.321019e+01 3.111290e+01 5.124932e+01 7.123558e+01 5.662593e+01 4.255344e+01 4.183358e+01 3.830774e+01 4.821584e+01 1.057234e+00 1.782036e+00 1.592600e+00 1.937636e+00 2.850249e+00 2.389901e+00 3.580411e+00 3.940642e+00 4.611728e+00 3.177757e+00 2.900824e+00 2.382694e+00 2.501951e+00 1.134708e-01 3.379458e-01 2.540362e-01 3.425305e-01 5.607831e-01 4.238779e-01 5.811162e-01 6.562583e-01 9.173619e-01 6.310758e-01 5.479745e-01 4.148374e-01 3.848034e-01
<GCONST> 1.190262e+02
<STATE> 4
<NUMMIXES> 2
<MIXTURE> 1 6.972739e-01
<MEAN> 39
 -3.956486e+00 -2.824416e+00 3.029136e+00 1.100137e+00 1.169917e-01 -3.003355e+00 -3.986780e+00 -3.338195e+00 -2.384919e+00 -3.533899e+00 -3.227356e+00 -6.341170e+00 5.516250e+01 9.056253e-02 2.347476e-01 1.563367e-02 7.087000e-02 2.161950e-01 2.389297e-01 2.390413e-01 2.282805e-01 4.561300e-02 6.147191e-02 6.764606e-03 5.807358e-02 -5.187739e-01 -7.462787e-03 -4.728859e-03 -1.401710e-02 -8.694857e-03 -2.510729e-02 -9.217821e-04 -9.118494e-03 4.920945e-03 1.017805e-04 -3.000800e-03 -6.449736e-03 -1.080840e-02 1.592660e-02
<VARIANCE> 39
 1.514166e+01 2.171337e+01 1.693357e+01 2.199624e+01 2.171480e+01 2.751714e+01 4.027457e+01 4.179216e+01 2.966568e+01 2.594595e+01 2.465863e+01 2.304148e+01 4.805751e+01 1.739972e-01 2.933277e-01 4.796163e-01 6.920606e-01 8.714717e-01 1.007590e+00 1.160896e+00 1.261784e+00 1.354067e+00 1.429688e+00 1.379064e+00 1.258929e+00 1.090802e-01 2.541887e-02 5.292717e-02 8.914251e-02 1.315573e-01 1.714027e-01 2.018508e-01 2.283145e-01 2.488435e-01 2.717417e-01 2.841959e-01 2.754396e-01 2.530605e-01 8.619322e-03
<GCONST> 8.197794e+01
<MIXTURE> 2 3.027642e-01
<MEAN> 39
 -5.053091e+00 -7.189424e+00 7.351092e-01 -5.519053e-01 -4.461542e+00 -2.432191e+00 -9.837737e+00 -3.493943e+00 -2.364976e+00 -6.364613e+00 -4.264306e+00 -8.593683e+00 6.365799e+01 -4.772384e-02 -1.224214e-01 5.772813e-02 -3.581100e-02 -1.393708e-01 -2.303269e-01 -3.093570e-01 -2.355278e-01 -1.180302e-01 -1.583972e-01 -3.587836e-02 -3.797984e-02 3.251333e-01 1.375367e-03 8.530621e-03 8.245001e-03 -3.997955e-03 2.370918e-02 -1.354684e-02 2.143603e-02 -6.501554e-03 -1.257099e-03 9.084567e-03 1.025747e-02 1.836709e-02 -1.215240e-02
<VARIANCE> 39
 1.336010e+01 3.271962e+01 2.647003e+01 2.297403e+01 3.829229e+01 4.460804e+01 7.476861e+01 4.984727e+01 3.838211e+01 5.873336e+01 4.314932e+01 3.894493e+01 6.326001e+01 5.567154e-01 1.377819e+00 1.160576e+00 1.224557e+00 2.361659e+00 1.826919e+00 3.081346e+00 2.469884e+00 2.354870e+00 2.425421e+00 2.183174e+00 2.179477e+00 2.013404e+00 7.995624e-02 2.299901e-01 2.042813e-01 2.319584e-01 4.348163e-01 3.492153e-01 5.651262e-01 4.437414e-01 4.556161e-01 4.802090e-01 4.279464e-01 4.258453e-01 2.252264e-01
<GCONST> 1.116827e+02
<TRANSP> 5
 0.000000e+00 1.000000e+00 0.000000e+00 0.000000e+00 0.000000e+00
 0.000000e+00 8.784246e-01 1.215753e-01 0.000000e+00 0.000000e+00
 0.000000e+00 0.000000e+00 9.841903e-01 1.580974e-02 0.000000e+00
 0.000000e+00 0.000000e+00 0.000000e+00 9.808348e-01 1.916518e-02
 0.000000e+00 0.000000e+00 0.000000e+00 0.000000e+00 0.000000e+00
<ENDHMM>
~h "ds"
<BEGINHMM>
<NUMSTATES> 5
<STATE> 2
<NUMMIXES> 2
<MIXTURE> 1 5.433773e-01
<MEAN> 39
 -1.327533e+01 2.591231e-02 1.028908e+00 -6.429510e-02 7.595147e-01 -1.183520e+00 4.368457e+00 -2.981745e-01 2.970461e+00 1.392910e+00 2.906742e+00 9.831595e-01 6.668326e+01 3.549950e-01 3.608010e-01 4.325593e-01 5.124866e-01 4.723750e-01 4.603992e-01 3.621735e-01 2.463566e-01 1.001488e-01 1.510587e-01 2.263265e-01 1.778556e-01 3.942898e-02 -3.543901e-02 -6.217453e-02 -5.440348e-02 2.937312e-02 8.441601e-03 3.635466e-02 -2.448135e-02 3.662664e-02 -9.658189e-03 -3.117457e-03 -7.409198e-02 -3.710941e-02 -2.109906e-01
<VARIANCE> 39
 2.054225e+01 1.741343e+01 1.470596e+01 1.823599e+01 2.177001e+01 2.040353e+01 2.541474e+01 2.965645e+01 2.369321e+01 1.988733e+01 1.779443e+01 1.541843e+01 1.055279e+02 8.135058e-01 8.876119e-01 8.294837e-01 1.121528e+00 1.235680e+00 1.568661e+00 1.793660e+00 1.919209e+00 1.799811e+00 1.726200e+00 1.662003e+00 1.438199e+00 1.225162e+00 1.939837e-01 1.603461e-01 1.865261e-01 2.814387e-01 3.124187e-01 3.473082e-01 3.878598e-01 3.928873e-01 3.708642e-01 3.442287e-01 3.361996e-01 2.866830e-01 4.396899e-01
<GCONST> 1.002675e+02
<MIXTURE> 2 4.566126e-01
<MEAN> 39
 -1.507897e+01 -1.846310e+00 -1.141237e+00 -1.531271e+00 -1.169582e+00 -1.240644e+00 3.707689e+00 7.061275e-01 2.199779e+00 1.820051e+00 2.055176e+00 7.287245e-01 6.412315e+01 -8.194976e-01 -2.506798e-01 -5.695074e-01 -6.688796e-01 -9.196789e-01 -7.580353e-01 -5.927611e-01 -3.206247e-01 -6.981373e-02 1.305384e-01 3.198002e-02 2.281757e-02 1.844877e+00 1.910656e-01 1.083163e-01 1.035451e-01 5.384488e-02 8.835652e-02 -5.584747e-03 5.187839e-02 -2.471820e-02 2.688273e-02 -2.513324e-02 9.091102e-02 3.319393e-02 -7.393442e-02
<VARIANCE> 39
 2.651896e+01 1.342847e+01 1.559442e+01 2.071750e+01 2.884643e+01 2.319455e+01 3.275967e+01 3.370399e+01 2.557720e+01 2.473897e+01 2.101699e+01 1.687844e+01 1.223464e+02 2.409011e+00 1.074569e+00 1.394129e+00 1.598563e+00 2.178825e+00 2.022875e+00 2.564670e+00 2.426543e+00 2.291263e+00 2.175256e+00 2.181511e+00 1.646282e+00 1.076576e+01 4.152240e-01 1.884269e-01 2.378755e-01 3.424035e-01 4.542533e-01 4.359831e-01 4.641964e-01 4.535646e-01 4.010060e-01 3.924206e-01 3.781868e-01 2.932661e-01 1.696322e+00
<GCONST> 1.125438e+02
<STATE> 3
<NUMMIXES> 2
<MIXTURE> 1 4.428129e-01
<MEAN> 39
 -9.995313e+00 3.609008e+00 3.697606e+00 4.777746e+00 5.453263e+00 2.362537e+00 6.019537e+00 3.156888e-01 3.826322e+00 1.936815e+00 3.275301e+00 1.311674e+00 6.733295e+01 2.576749e-01 7.418957e-03 6.805438e-02 -6.089740e-03 1.191130e-01 1.149106e-01 1.410174e-01 7.840457e-02 2.786942e-02 -6.423719e-03 -1.903237e-02 -5.733652e-02 -7.124915e-01 -7.806590e-03 -1.948513e-02 -3.993770e-02 -5.773097e-02 -6.015783e-02 -5.134182e-02 -5.163885e-02 -3.269042e-02 -2.279180e-02 -1.536275e-02 -1.549959e-02 -1.840655e-02 1.840340e-03
<VARIANCE> 39
 1.320055e+01 8.026022e+00 8.263829e+00 8.452399e+00 1.140088e+01 1.269386e+01 1.469682e+01 1.393786e+01 1.492589e+01 1.419243e+01 1.334819e+01 1.370262e+01 5.233230e+01 1.350374e-01 2.550204e-01 4.241523e-01 6.214229e-01 8.435270e-01 1.032715e+00 1.178492e+00 1.239766e+00 1.335684e+00 1.330427e+00 1.272180e+00 1.167605e+00 7.800187e-02 2.611185e-02 5.053134e-02 8.682392e-02 1.274377e-01 1.735957e-01 2.140578e-01 2.414982e-01 2.536874e-01 2.750465e-01 2.702591e-01 2.568264e-01 2.369998e-01 1.240423e-02
<GCONST> 7.235712e+01
<MIXTURE> 2 5.571756e-01
<MEAN> 39
 -1.448418e+01 -8.375143e-01 -2.285827e+00 -9.927799e-01 -1.374951e+00 -3.261333e+00 8.115768e-02 -3.055634e+00 1.410394e+00 2.640239e+00 3.526465e+00 -1.100996e-01 6.782581e+01 3.103482e-01 -7.645525e-03 1.093348e-01 1.434372e-01 4.646728e-01 1.488721e-01 2.309696e-02 -1.515565e-01 -1.397222e-01 -1.196241e-01 -5.661814e-02 -2.393585e-01 -6.990108e-01 5.947917e-03 4.292380e-03 8.849483e-03 -1.424937e-03 1.647076e-02 5.555223e-02 6.006844e-02 3.800048e-02 1.176337e-02 -1.105908e-04 -2.216810e-02 8.023460e-05 6.182285e-04
<VARIANCE> 39
 5.779248e+00 4.690150e+00 5.454294e+00 9.082946e+00 2.014243e+01 1.247238e+01 1.284657e+01 1.524271e+01 1.496392e+01 1.536024e+01 1.482831e+01 1.559786e+01 2.585080e+01 1.360671e-01 2.754253e-01 4.500626e-01 7.184460e-01 1.029449e+00 1.143846e+00 1.264979e+00 1.377730e+00 1.394556e+00 1.485894e+00 1.445313e+00 1.277697e+00 6.058002e-02 2.901461e-02 5.591013e-02 9.329083e-02 1.438887e-01 2.121967e-01 2.361369e-01 2.569702e-01 2.824216e-01 2.871478e-01 3.074328e-01 3.013150e-01 2.681936e-01 1.267294e-02
<GCONST> 7.299809e+01
<STATE> 4
<NUMMIXES> 2
<MIXTURE> 1 5.381551e-01
<MEAN> 39
 -9.487132e+00 1.487394e+00 2.533433e+00 6.330096e-01 3.587256e+00 1.643150e+00 3.735632e+00 1.204536e+00 2.695956e+00 -4.158596e-01 1.862703e+00 -3.417710e-01 5.509710e+01 1.489641e-01 1.139847e-01 1.948689e-01 2.072839e-01 2.789810e-01 3.159069e-01 2.666324e-01 2.753577e-01 1.870642e-01 1.625832e-01 1.086443e-01 6.717268e-02 -3.024458e-01 -1.530506e-02 -2.472031e-02 -3.338438e-02 -3.241109e-02 -3.486146e-02 -3.383376e-02 -2.687509e-02 -3.709486e-03 1.570394e-03 1.644194e-02 -3.942762e-03 -1.420069e-02 -5.697502e-03
<VARIANCE> 39
 1.580341e+01 1.277653e+01 1.826641e+01 1.955174e+01 1.952034e+01 2.336047e+01 2.727424e+01 1.977489e+01 2.737490e+01 2.552443e+01 1.756098e+01 1.576156e+01 6.597219e+01 2.385944e-01 3.306637e-01 4.883936e-01 7.187838e-01 8.942288e-01 1.133042e+00 1.279637e+00 1.307329e+00 1.447476e+00 1.461294e+00 1.342256e+00 1.193658e+00 1.848432e-01 4.828561e-02 6.675093e-02 1.002809e-01 1.556689e-01 1.932375e-01 2.397606e-01 2.719351e-01 2.760590e-01 3.050162e-01 3.071495e-01 2.774708e-01 2.458479e-01 3.506535e-02
<GCONST> 8.414931e+01
<MIXTURE> 2 4.618129e-01
<MEAN> 39
 -1.000241e+01 -4.779021e-01 -3.658549e-01 -2.002389e+00 1.310175e+00 -7.106906e-01 2.117478e+00 3.851802e-01 1.699445e+00 -1.032931e-01 1.254434e+00 -1.310757e+00 5.381918e+01 -1.404145e-01 -1.088075e-01 -1.859797e-01 -2.151983e-01 -3.152590e-01 -3.385656e-01 -2.679538e-01 -2.703370e-01 -1.897976e-01 -1.991513e-01 -1.423957e-01 -5.582611e-02 2.928325e-01 1.479661e-02 2.965167e-02 3.998540e-02 4.131725e-02 4.113121e-02 3.834553e-02 2.819247e-02 1.465566e-03 -1.583232e-03 -1.599071e-02 8.352792e-03 1.840377e-02 9.452304e-03
<VARIANCE> 39
 1.860994e+01 1.197946e+01 1.410915e+01 1.478148e+01 1.752053e+01 2.123615e+01 2.321102e+01 2.343190e+01 2.299661e+01 2.074635e+01 1.824866e+01 1.669101e+01 3.244828e+01 9.504368e-01 7.482536e-01 8.865772e-01 1.124592e+00 1.328233e+00 1.574908e+00 1.787681e+00 1.773035e+00 1.870070e+00 1.774980e+00 1.598902e+00 1.416603e+00 1.455686e+00 1.541193e-01 1.321119e-01 1.632137e-01 2.130436e-01 2.705022e-01 3.250672e-01 3.533924e-01 3.638026e-01 3.590040e-01 3.466993e-01 3.165694e-01 2.802567e-01 2.045392e-01
<GCONST> 9.612050e+01
<TRANSP> 5
 0.000000e+00 1.000000e+00 0.000000e+00 0.000000e+00 0.000000e+00
 0.000000e+00 9.403223e-01 5.967766e-02 0.000000e+00 0.000000e+00
 0.000000e+00 0.000000e+00 9.579635e-01 4.203656e-02 0.000000e+00
 0.000000e+00 0.000000e+00 0.000000e+00 9.928397e-01 7.160332e-03
 0.000000e+00 0.000000e+00 0.000000e+00 0.000000e+00 0.000000e+00
<ENDHMM>
~h "kj"
<BEGINHMM>
<NUMSTATES> 5
<STATE> 2
<NUMMIXES> 2
<MIXTURE> 1 5.626287e-01
<MEAN> 39
 -1.998548e+01 3.761006e+00 -4.820570e-01 -2.854237e+00 -1.268016e+00 3.490719e+00 2.061580e+00 3.992441e+00 1.572258e+00 -4.363501e-01 1.264994e+00 -9.425081e-01 5.553236e+01 1.659716e-01 1.293417e-01 5.329532e-02 1.026966e-01 1.980029e-01 2.425665e-01 2.467684e-01 2.659398e-01 2.214623e-01 2.053521e-01 1.587665e-01 6.844810e-02 -1.555467e-01 -1.442153e-02 -3.752065e-03 8.204096e-03 2.351434e-02 9.931872e-03 1.084730e-02 2.175001e-02 1.374278e-02 8.062264e-03 2.718483e-02 1.236700e-02 3.165743e-03 1.424451e-02
<VARIANCE> 39
 3.112778e+01 2.134682e+01 1.542125e+01 2.724887e+01 1.627440e+01 3.157422e+01 2.947259e+01 2.066896e+01 1.999659e+01 2.058529e+01 1.660720e+01 1.645334e+01 2.114901e+01 3.961151e-01 3.511203e-01 5.542767e-01 7.874193e-01 9.795412e-01 1.207960e+00 1.360544e+00 1.404464e+00 1.425205e+00 1.464661e+00 1.379978e+00 1.260543e+00 1.741279e-01 7.270905e-02 6.861050e-02 1.105586e-01 1.637843e-01 2.047564e-01 2.552373e-01 2.878176e-01 2.997662e-01 3.047290e-01 3.118694e-01 2.895875e-01 2.587776e-01 3.095096e-02
<GCONST> 8.597512e+01
<MIXTURE> 2 4.373652e-01
<MEAN> 39
 -1.993221e+01 1.628034e+00 -1.062404e+00 -2.707451e+00 -1.599422e+00 2.774607e+00 2.156277e+00 3.102662e+00 1.011070e+00 3.035550e-01 1.258900e+00 -1.002811e+00 5.715688e+01 -2.724534e-01 -1.305694e-01 -5.689917e-02 -1.395713e-01 -2.603153e-01 -2.990444e-01 -3.055767e-01 -3.430160e-01 -2.808460e-01 -2.659730e-01 -2.010379e-01 -8.763022e-02 2.196126e-01 2.249774e-02 3.274279e-04 -1.190039e-02 -2.932949e-02 -1.418487e-02 -1.654910e-02 -3.035780e-02 -1.844510e-02 -1.255236e-02 -3.280764e-02 -1.631189e-02 -3.802328e-03 -1.779697e-02
<VARIANCE> 39
 3.611859e+01 2.973292e+01 2.314298e+01 2.599362e+01 1.832480e+01 3.643858e+01 2.947270e+01 2.449229e+01 2.150134e+01 2.069383e+01 1.728535e+01 1.632782e+01 2.779118e+01 9.095010e-01 8.411200e-01 1.041062e+00 1.084518e+00 1.274679e+00 1.551426e+00 1.679792e+00 1.683845e+00 1.680704e+00 1.645786e+00 1.519825e+00 1.385901e+00 6.392720e-01 1.553152e-01 1.555198e-01 1.865516e-01 2.047561e-01 2.528753e-01 3.138497e-01 3.374164e-01 3.495737e-01 3.422533e-01 3.351000e-01 3.081268e-01 2.753873e-01 1.058718e-01
<GCONST> 9.755966e+01
<STATE> 3
<NUMMIXES> 2
<MIXTURE> 1 7.265837e-01
<MEAN> 39
 -1.424717e+01 -8.719081e+00 -5.668944e+00 -2.020406e+00 -1.835329e+00 -4.625997e+00 -2.567712e+00 -2.860189e+00 -1.257330e+00 6.700878e-02 6.263846e-01 1.846126e-02 6.383582e+01 2.013158e-01 3.016409e-01 7.739523e-02 1.524731e-01 1.449055e-01 1.812132e-01 1.817926e-01 1.588797e-01 8.258674e-02 9.152539e-02 5.203717e-02 1.181807e-02 -6.088314e-01 -3.134903e-02 1.167388e-02 4.407660e-02 -9.480208e-03 -6.146411e-03 2.261771e-02 2.578767e-02 3.809457e-02 7.371433e-03 4.874535e-03 1.277925e-03 -1.090877e-02 7.111537e-03
<VARIANCE> 39
 1.777308e+01 2.575782e+01 1.188724e+01 1.350576e+01 1.671426e+01 1.640724e+01 2.030494e+01 2.000726e+01 1.896602e+01 1.643622e+01 1.529497e+01 1.325786e+01 6.512642e+01 2.394833e-01 3.640626e-01 5.447519e-01 7.302200e-01 9.293088e-01 1.130342e+00 1.319841e+00 1.390229e+00 1.447876e+00 1.381933e+00 1.297537e+00 1.179728e+00 1.901487e-01 4.464246e-02 8.117353e-02 1.134998e-01 1.492309e-01 1.937919e-01 2.376627e-01 2.781166e-01 2.901356e-01 3.050271e-01 2.887369e-01 2.700373e-01 2.434295e-01 4.267719e-02
<GCONST> 8.288852e+01
<MIXTURE> 2 2.734475e-01
<MEAN> 39
 -1.715344e+01 -8.271464e+00 -4.281755e+00 -3.169785e+00 -3.262843e+00 -3.327823e+00 -2.008565e+00 -1.258171e+00 -7.233703e-01 9.751476e-02 7.400371e-01 -5.605099e-01 6.601674e+01 -2.053791e-01 -1.259511e+00 -3.350045e-01 -2.773915e-01 -2.902887e-01 -7.367812e-01 -6.035229e-01 -6.008013e-01 -2.836271e-01 -1.978556e-01 -1.610315e-01 1.694734e-02 1.683024e+00 8.309215e-02 4.433043e-02 -5.567227e-02 3.434700e-02 4.237314e-02 6.352776e-03 2.129125e-02 -5.195893e-02 3.026742e-03 -2.636248e-04 -6.256901e-03 4.834268e-03 -1.023300e-01
<VARIANCE> 39
 2.247589e+01 6.415601e+01 2.294971e+01 2.395411e+01 2.088899e+01 3.057882e+01 3.080047e+01 2.592169e+01 2.121907e+01 2.034847e+01 1.924863e+01 1.703621e+01 9.405270e+01 1.592833e+00 4.859557e+00 2.354610e+00 1.698175e+00 1.922164e+00 2.626587e+00 2.793794e+00 2.396142e+00 2.024083e+00 1.950802e+00 1.753918e+00 1.723505e+00 3.990213e+00 2.389561e-01 9.750032e-01 4.106792e-01 3.182474e-01 3.543183e-01 5.168666e-01 5.230252e-01 4.655993e-01 3.963882e-01 3.863607e-01 3.459876e-01 3.366329e-01 9.583386e-01
<GCONST> 1.149525e+02
<STATE> 4
<NUMMIXES> 2
<MIXTURE> 1 6.699519e-01
<MEAN> 39
 -2.272878e+01 1.983866e+00 2.865212e+00 1.529682e+00 -2.631960e+00 6.334553e-01 8.135326e+00 5.221981e-01 -2.407346e+00 5.375842e+00 4.224137e-01 -4.061995e+00 5.567342e+01 1.241064e-01 1.202313e-01 8.477221e-02 1.582876e-02 9.707828e-02 1.311314e-01 1.106685e-01 1.226018e-01 1.145007e-01 6.129368e-02 5.108467e-02 1.630771e-02 -1.443144e-01 -1.054828e-03 -9.262550e-03 -1.003087e-02 -7.183640e-03 -7.306001e-03 -1.458003e-02 -2.443385e-02 6.039917e-03 7.017368e-03 -7.672410e-03 1.004506e-02 1.921419e-02 7.702071e-03
<VARIANCE> 39
 2.624428e+01 1.147840e+01 1.106921e+01 1.583220e+01 1.573536e+01 1.660132e+01 2.317356e+01 1.826778e+01 2.026946e+01 2.031704e+01 1.698313e+01 1.416678e+01 1.756261e+01 3.529158e-01 4.188720e-01 5.437908e-01 8.163622e-01 1.028898e+00 1.186455e+00 1.492183e+00 1.432055e+00 1.501341e+00 1.629340e+00 1.406099e+00 1.245916e+00 1.973649e-01 6.397215e-02 8.280502e-02 1.053266e-01 1.614308e-01 2.073991e-01 2.406866e-01 2.944449e-01 2.940205e-01 3.142412e-01 3.321300e-01 2.858064e-01 2.507494e-01 3.350952e-02
<GCONST> 8.355130e+01
<MIXTURE> 2 3.300726e-01
<MEAN> 39
 -1.874255e+01 -2.186715e+00 -5.591027e-01 -4.374946e-01 -2.801733e+00 -2.170395e+00 3.713610e+00 -6.052195e-01 -1.916696e+00 3.285267e+00 5.539271e-01 -2.020327e+00 5.798322e+01 -1.626889e-01 -2.389933e-01 -1.502044e-01 -4.948112e-02 -1.769755e-01 -2.610853e-01 -2.165795e-01 -2.200502e-01 -2.107733e-01 -1.498731e-01 -1.116764e-01 -3.378995e-02 2.111847e-01 9.799667e-03 1.522748e-02 1.313264e-02 9.105504e-03 1.638173e-02 2.716790e-02 3.729606e-02 -1.416955e-02 -1.360852e-02 7.654648e-03 -1.850620e-02 -3.469559e-02 -1.736278e-02
<VARIANCE> 39
 5.001116e+01 5.165760e+01 2.568748e+01 2.251438e+01 2.065277e+01 2.780762e+01 4.303438e+01 2.561868e+01 2.205995e+01 2.636126e+01 1.803921e+01 1.805261e+01 5.486608e+01 6.836312e-01 1.420085e+00 9.712510e-01 1.141148e+00 1.334675e+00 1.527033e+00 1.978603e+00 1.726341e+00 1.688388e+00 1.849651e+00 1.516607e+00 1.419539e+00 1.115498e+00 1.077647e-01 2.410289e-01 1.814059e-01 2.123758e-01 2.593282e-01 3.039653e-01 3.825569e-01 3.487584e-01 3.320073e-01 3.651929e-01 3.003244e-01 2.830568e-01 1.640853e-01
<GCONST> 1.015935e+02
<TRANSP> 5
 0.000000e+00 1.000000e+00 0.000000e+00 0.000000e+00 0.000000e+00
 0.000000e+00 9.940014e-01 5.998630e-03 0.000000e+00 0.000000e+00
 0.000000e+00 0.000000e+00 9.742969e-01 2.570309e-02 0.000000e+00
 0.000000e+00 0.000000e+00 0.000000e+00 9.908519e-01 9.148039e-03
 0.000000e+00 0.000000e+00 0.000000e+00 0.000000e+00 0.000000e+00
<ENDHMM>
~h "kn"
<BEGINHMM>
<NUMSTATES> 5
<STATE> 2
<NUMMIXES> 2
<MIXTURE> 1 4.033388e-01
<MEAN> 39
 3.558041e+00 -1.284185e+00 -6.964706e+00 -3.520029e+00 5.201724e-01 -3.147280e+00 -5.110283e-01 -3.077726e+00 1.830526e+00 -3.960068e-01 5.686363e-01 -7.815831e-01 6.273659e+01 8.984074e-03 2.099021e-01 -1.101723e-01 2.263879e-01 2.973936e-01 5.297199e-03 6.059310e-01 -1.416836e-02 9.229645e-01 6.180337e-01 6.601368e-01 4.436671e-01 1.992558e+00 -2.987072e-01 3.236829e-01 3.637496e-01 1.133529e-01 1.230692e-01 3.912612e-01 2.016449e-01 2.422041e-01 -1.091839e-01 3.637703e-02 -2.189996e-02 -5.578212e-03 -7.590339e-01
<VARIANCE> 39
 1.844670e+01 3.688919e+01 1.908929e+01 1.721094e+01 2.421327e+01 2.668787e+01 2.892306e+01 3.224887e+01 2.961734e+01 2.313010e+01 2.220795e+01 2.014756e+01 4.088346e+01 2.911179e+00 2.088425e+00 2.314528e+00 1.432569e+00 1.726281e+00 2.967920e+00 2.993377e+00 3.311171e+00 2.394082e+00 2.171832e+00 2.161422e+00 1.865806e+00 6.306735e+00 4.071687e-01 2.794490e-01 2.711758e-01 2.366863e-01 2.891400e-01 4.258081e-01 5.003143e-01 5.983815e-01 4.847813e-01 4.407676e-01 4.068106e-01 3.454204e-01 5.755181e-01
<GCONST> 1.131852e+02
<MIXTURE> 2 5.966632e-01
<MEAN> 39
 -9.677931e-01 4.860399e+00 -7.160613e-02 -2.741301e+00 2.042777e+00 1.833349e+00 1.634702e+00 -3.933847e-03 -9.495821e-02 8.801851e-01 6.715409e-02 -1.306103e+00 5.215752e+01 2.167630e-01 -1.859963e-01 -1.453133e-01 4.145236e-02 -1.398881e-02 -2.006630e-01 -1.988061e-01 -2.671761e-01 -1.450698e-01 -2.029733e-01 -1.586734e-01 -1.057428e-01 2.024988e-01 1.566616e-01 -1.181689e-01 -1.850381e-01 -3.833287e-02 -4.642655e-02 -1.382197e-01 -1.042078e-01 -8.684929e-02 2.656131e-02 -2.278511e-02 2.018260e-02 2.080973e-02 2.067841e-01
<VARIANCE> 39
 2.781153e+01 1.970137e+01 1.829896e+01 1.006429e+01 2.217476e+01 1.916888e+01 2.902445e+01 3.542231e+01 2.192438e+01 2.116524e+01 2.204743e+01 1.465203e+01 7.242461e+01 1.186577e+00 9.228987e-01 1.356852e+00 8.910670e-01 1.157271e+00 1.796452e+00 1.758394e+00 2.400550e+00 1.596658e+00 1.683106e+00 1.548738e+00 1.370349e+00 2.596716e+00 1.420175e-01 1.148770e-01 1.750593e-01 1.582180e-01 2.090985e-01 2.726410e-01 3.196982e-01 3.633659e-01 3.320554e-01 3.250608e-01 3.018786e-01 2.570548e-01 3.304140e-01
<GCONST> 9.892594e+01
<STATE> 3
<NUMMIXES> 2
<MIXTURE> 1 5.906976e-01
<MEAN> 39
 5.424933e+00 -1.737523e+00 -4.622897e+00 -2.392084e-01 3.417625e+00 -9.821761e-01 1.665376e+00 -1.606526e+00 1.954358e+00 7.587235e-01 1.650808e+00 4.820283e-01 6.132034e+01 4.528338e-02 3.280347e-01 2.769740e-01 3.489441e-01 3.556319e-01 4.642009e-01 2.969055e-01 3.456638e-01 1.043461e-01 2.777938e-01 2.027083e-01 1.796371e-01 -5.886673e-01 3.237125e-03 3.102348e-02 7.350063e-02 5.842645e-02 5.362768e-02 5.081731e-02 -2.321932e-02 9.764932e-03 -6.842142e-02 -5.004822e-02 -5.870060e-02 -5.389237e-02 -1.506110e-01
<VARIANCE> 39
 1.215952e+01 2.326135e+01 1.499394e+01 1.496147e+01 1.993040e+01 2.420828e+01 2.152923e+01 2.034141e+01 2.042602e+01 1.917338e+01 1.658932e+01 1.577543e+01 2.926671e+01 2.694157e-01 4.032394e-01 5.272409e-01 7.397698e-01 9.687867e-01 1.121010e+00 1.335869e+00 1.437825e+00 1.447395e+00 1.411676e+00 1.327053e+00 1.218705e+00 3.401585e-01 5.971001e-02 1.270729e-01 1.294285e-01 1.818669e-01 2.275345e-01 2.868105e-01 3.127240e-01 3.400308e-01 3.340443e-01 3.225058e-01 2.961024e-01 2.685607e-01 1.919058e-01
<GCONST> 8.758968e+01
<MIXTURE> 2 4.092859e-01
<MEAN> 39
 5.556228e+00 -9.253110e-01 -3.458786e+00 4.070593e-01 3.974273e+00 -4.155568e-01 9.869753e-01 -1.626008e+00 6.329581e-01 -2.246398e-01 6.204185e-01 -5.592085e-01 5.862136e+01 3.112911e-02 -4.804485e-01 -3.216615e-01 -4.050722e-01 -4.462631e-01 -6.220150e-01 -3.768322e-01 -4.586001e-01 -2.070602e-01 -3.915586e-01 -2.911412e-01 -2.409002e-01 6.900011e-01 -3.358996e-04 -5.594158e-02 -1.047179e-01 -8.746853e-02 -7.925279e-02 -7.820673e-02 1.959950e-02 -1.481227e-02 7.687606e-02 5.716404e-02 6.937525e-02 6.339461e-02 1.862730e-01
<VARIANCE> 39
 1.196897e+01 2.620266e+01 1.603762e+01 1.587335e+01 2.106774e+01 2.646793e+01 2.350394e+01 2.349609e+01 2.105105e+01 2.062595e+01 1.727287e+01 1.640172e+01 3.728790e+01 6.335190e-01 1.274651e+00 1.025124e+00 1.116035e+00 1.387425e+00 1.741069e+00 1.767417e+00 1.957183e+00 1.975954e+00 1.755051e+00 1.696029e+00 1.493647e+00 3.148464e+00 9.564187e-02 2.391190e-01 1.751574e-01 2.245004e-01 2.795646e-01 3.845245e-01 3.702788e-01 4.169170e-01 3.575095e-01 3.714958e-01 3.407946e-01 2.988884e-01 4.583099e-01
<GCONST> 1.001094e+02
<STATE> 4
<NUMMIXES> 2
<MIXTURE> 1 5.095910e-01
<MEAN> 39
 4.510657e+00 3.421374e-01 -2.048587e+00 1.223349e+00 5.102640e+00 1.837705e+00 2.669398e+00 -6.041732e-02 7.975551e-02 3.188744e-01 9.962112e-01 -2.655511e-01 5.471738e+01 -7.190148e-02 2.730903e-01 3.502416e-01 2.210525e-01 2.580070e-01 4.634116e-01 2.095337e-01 4.060478e-01 1.637063e-01 2.485423e-01 1.755512e-01 5.272235e-02 -5.612949e-01 3.707471e-03 2.806376e-02 4.933631e-02 3.728031e-02 3.706759e-02 5.359417e-02 5.964221e-02 7.489613e-02 7.752220e-02 5.172743e-02 3.343999e-02 8.449037e-03 3.400520e-02
<VARIANCE> 39
 1.039476e+01 1.514019e+01 1.397623e+01 1.363018e+01 2.297756e+01 2.345702e+01 2.507795e+01 2.097705e+01 2.366205e+01 2.175154e+01 1.859264e+01 1.747558e+01 3.236731e+01 1.515647e-01 2.593895e-01 4.184401e-01 5.912039e-01 8.158114e-01 9.718289e-01 1.160576e+00 1.232863e+00 1.317643e+00 1.356393e+00 1.287904e+00 1.195651e+00 8.700891e-02 1.996300e-02 4.328997e-02 8.259148e-02 1.241107e-01 1.723899e-01 2.062214e-01 2.445849e-01 2.562405e-01 2.795703e-01 2.853951e-01 2.650174e-01 2.432838e-01 6.205204e-03
<GCONST> 7.601564e+01
<MIXTURE> 2 4.904001e-01
<MEAN> 39
 2.838789e+00 2.523569e+00 5.792677e-02 5.556782e-01 4.478301e+00 2.534993e+00 1.637361e+00 1.169751e+00 -1.282695e-01 9.293197e-02 2.683908e-01 -1.213650e+00 5.197685e+01 -2.400858e-01 2.154575e-02 3.680889e-02 -1.925321e-01 -2.315486e-01 -8.526649e-02 -2.563909e-01 -1.278081e-01 -3.403670e-01 -2.934667e-01 -2.567463e-01 -1.797844e-01 -4.221087e-01 -2.365742e-02 -5.102237e-02 -6.948078e-02 -7.256184e-02 -7.715229e-02 -8.447396e-02 -7.351686e-02 -9.381907e-02 -6.971429e-02 -5.555940e-02 -3.001435e-02 -1.278765e-02 1.380354e-02
<VARIANCE> 39
 2.348927e+01 1.903028e+01 1.801207e+01 1.413823e+01 2.130873e+01 2.153982e+01 2.281867e+01 2.096826e+01 2.109961e+01 2.004745e+01 1.669522e+01 1.572003e+01 3.656465e+01 1.725127e-01 2.910231e-01 4.393152e-01 6.216862e-01 8.330205e-01 9.925617e-01 1.205751e+00 1.267122e+00 1.310097e+00 1.383984e+00 1.317032e+00 1.212603e+00 1.286331e-01 2.384952e-02 4.732283e-02 8.021372e-02 1.263544e-01 1.677108e-01 2.017238e-01 2.443451e-01 2.556739e-01 2.643531e-01 2.876547e-01 2.690970e-01 2.435938e-01 8.560318e-03
<GCONST> 7.819254e+01
<TRANSP> 5
 0.000000e+00 1.000000e+00 0.000000e+00 0.000000e+00 0.000000e+00
 0.000000e+00 9.145264e-01 8.547365e-02 0.000000e+00 0.000000e+00
 0.000000e+00 0.000000e+00 9.837409e-01 1.625908e-02 0.000000e+00
 0.000000e+00 0.000000e+00 0.000000e+00 9.588940e-01 4.110594e-02
 0.000000e+00 0.000000e+00 0.000000e+00 0.000000e+00 0.000000e+00
<ENDHMM>
~h "kt"
<BEGINHMM>
<NUMSTATES> 5
<STATE> 2
<NUMMIXES> 2
<MIXTURE> 1 5.032957e-01
<MEAN> 39
 -1.300383e+01 -2.328019e-01 -7.360247e+00 -2.670374e+00 -4.799772e-01 -5.161002e-01 4.470672e+00 1.936398e+00 2.316387e+00 4.158752e-01 7.780865e-01 -1.100421e+00 5.748655e+01 3.240760e-01 1.889762e-02 2.235925e-01 2.540210e-01 3.604694e-01 3.898881e-01 4.288822e-01 3.215368e-01 2.953939e-01 2.624650e-01 2.609910e-01 1.157480e-01 -2.285759e-01 1.421950e-01 1.862716e-02 1.581161e-02 3.698635e-02 1.136909e-01 1.600767e-01 1.536660e-01 5.015276e-02 -1.654458e-02 1.963285e-02 2.257643e-02 -5.846820e-03 -1.835198e-01
<VARIANCE> 39
 1.700016e+01 7.657587e+00 8.607713e+00 1.262126e+01 1.410694e+01 1.829111e+01 1.861403e+01 1.712147e+01 1.863346e+01 1.616510e+01 1.598076e+01 1.439323e+01 2.554705e+01 5.834763e-01 3.986862e-01 5.637946e-01 7.936368e-01 1.040331e+00 1.278854e+00 1.403485e+00 1.405769e+00 1.489190e+00 1.473114e+00 1.377979e+00 1.241332e+00 8.288369e-01 2.010507e-01 9.080715e-02 1.325277e-01 1.870966e-01 2.456283e-01 2.974280e-01 3.283823e-01 3.188750e-01 3.423776e-01 3.363773e-01 3.121872e-01 2.691568e-01 2.371827e-01
<GCONST> 8.812490e+01
<MIXTURE> 2 4.966951e-01
<MEAN> 39
 -1.084547e+01 -9.194434e-03 -7.186346e+00 -2.305344e+00 8.671179e-01 1.862370e+00 6.399466e+00 2.596757e+00 1.932529e+00 6.399608e-01 1.089823e+00 -1.348398e+00 5.466793e+01 -3.370679e-01 -1.258921e-02 -2.337091e-01 -2.479106e-01 -3.641253e-01 -4.047487e-01 -4.370837e-01 -3.308766e-01 -3.050625e-01 -2.748015e-01 -2.667632e-01 -1.213188e-01 2.486858e-01 -1.419768e-01 -1.855215e-02 -1.287367e-02 -3.653500e-02 -1.139840e-01 -1.632115e-01 -1.569577e-01 -5.219071e-02 1.472244e-02 -2.086742e-02 -2.398791e-02 5.857583e-03 1.825358e-01
<VARIANCE> 39
 1.565876e+01 7.670279e+00 8.005362e+00 1.083313e+01 1.178839e+01 1.671458e+01 1.544450e+01 1.555703e+01 1.646098e+01 1.464125e+01 1.441262e+01 1.325997e+01 1.628091e+01 1.512700e+00 5.752763e-01 6.721680e-01 9.589830e-01 1.146725e+00 1.500952e+00 1.514975e+00 1.537114e+00 1.682812e+00 1.570996e+00 1.488229e+00 1.354053e+00 1.738652e+00 2.019090e-01 9.811187e-02 1.339080e-01 1.833625e-01 2.255620e-01 2.799548e-01 2.959631e-01 3.183805e-01 3.352747e-01 3.205405e-01 2.986927e-01 2.624658e-01 1.842251e-01
<GCONST> 8.903640e+01
<STATE> 3
<NUMMIXES> 2
<MIXTURE> 1 5.907107e-01
<MEAN> 39
 -1.237452e+01 1.600286e+00 -3.884182e+00 -1.797748e-01 4.836800e-01 -2.084638e+00 2.382041e+00 1.347672e+00 1.555431e+00 -1.123797e+00 -1.254887e-01 -1.432289e+00 5.348908e+01 4.371103e-01 4.941463e-02 1.902455e-01 1.086750e-01 2.885638e-01 2.819196e-01 3.363858e-01 1.949022e-01 2.010853e-01 1.920902e-01 1.752827e-01 1.149893e-01 -6.276224e-01 -2.738165e-02 4.841490e-02 -1.204842e-02 2.088261e-02 -4.260976e-03 2.085851e-02 7.727290e-03 6.460445e-02 -2.580596e-03 2.136967e-02 9.207612e-03 -2.644062e-03 -2.988336e-02
<VARIANCE> 39
 6.847386e+00 8.024172e+00 9.292508e+00 1.168852e+01 1.390014e+01 1.426699e+01 1.701964e+01 1.657229e+01 1.797859e+01 1.729423e+01 1.604282e+01 1.362144e+01 1.797428e+01 2.543413e-01 3.315910e-01 5.214939e-01 7.485673e-01 9.505285e-01 1.096470e+00 1.214342e+00 1.330604e+00 1.412628e+00 1.410404e+00 1.333684e+00 1.199573e+00 2.592139e-01 1.000694e-01 7.686085e-02 1.233703e-01 1.671241e-01 2.249120e-01 2.501989e-01 2.880684e-01 2.947657e-01 3.221001e-01 3.197306e-01 2.984889e-01 2.617000e-01 1.669345e-01
<GCONST> 8.152965e+01
<MIXTURE> 2 4.092802e-01
<MEAN> 39
 -1.294807e+01 2.206765e+00 -4.020278e+00 3.836551e-02 3.103111e-01 -1.804789e+00 2.358049e+00 2.259666e+00 1.539802e+00 -9.396755e-01 -1.354284e-01 -1.614428e+00 5.339636e+01 -6.216872e-01 -5.582505e-02 -2.817924e-01 -1.439824e-01 -3.879388e-01 -4.123969e-01 -4.627562e-01 -2.979904e-01 -2.849683e-01 -2.873584e-01 -2.523593e-01 -1.678648e-01 8.935903e-01 6.021714e-02 -7.108314e-02 2.211634e-02 -3.431148e-02 1.292337e-02 -1.209238e-02 2.368305e-03 -8.070400e-02 1.278198e-02 -1.787912e-02 -6.270833e-03 7.403438e-03 1.203865e-02
<VARIANCE> 39
 1.305618e+01 1.043861e+01 1.225146e+01 1.525296e+01 1.691331e+01 1.802590e+01 2.009986e+01 1.949065e+01 2.069426e+01 1.915610e+01 1.769745e+01 1.495514e+01 2.627898e+01 1.156290e+00 7.670684e-01 9.708480e-01 1.292065e+00 1.569331e+00 1.606787e+00 1.776308e+00 1.897832e+00 2.027162e+00 1.960620e+00 1.782124e+00 1.552656e+00 1.994217e+00 2.838674e-01 1.247634e-01 1.937718e-01 2.406876e-01 3.210747e-01 3.397713e-01 3.770283e-01 3.669381e-01 3.917792e-01 3.823021e-01 3.468253e-01 3.051437e-01 4.663942e-01
<GCONST> 9.817072e+01
<STATE> 4
<NUMMIXES> 2
<MIXTURE> 1 6.002606e-01
<MEAN> 39
 -9.727177e+00 2.928524e+00 -2.736178e+00 -6.609174e-01 6.248851e-01 3.085573e-01 3.251105e+00 2.957969e+00 2.272021e+00 -2.237765e-01 1.442847e-01 -1.790046e+00 4.868908e+01 3.128781e-01 -1.807497e-02 2.338315e-01 8.058918e-02 2.202424e-01 3.082258e-01 2.929738e-01 2.837414e-01 2.002785e-01 2.091705e-01 1.432679e-01 8.117038e-02 -3.346889e-01 -3.305977e-02 2.276525e-02 -1.141493e-02 2.071752e-02 -1.452170e-02 1.091111e-02 -1.014757e-02 3.420310e-02 6.313521e-03 1.990673e-02 1.005523e-02 7.539913e-04 2.014976e-02
<VARIANCE> 39
 9.191790e+00 8.024391e+00 1.154404e+01 1.167664e+01 1.631997e+01 1.586941e+01 1.924185e+01 1.676237e+01 1.654589e+01 1.665841e+01 1.421157e+01 1.239006e+01 1.089447e+01 2.688907e-01 3.339423e-01 4.887807e-01 6.865122e-01 8.824575e-01 1.018845e+00 1.186272e+00 1.250351e+00 1.339790e+00 1.347827e+00 1.261670e+00 1.140327e+00 1.740118e-01 7.393510e-02 7.172725e-02 1.111928e-01 1.476323e-01 1.938111e-01 2.277000e-01 2.642271e-01 2.769881e-01 2.895488e-01 2.885771e-01 2.660429e-01 2.359379e-01 5.390698e-02
<GCONST> 7.812949e+01
<MIXTURE> 2 3.996847e-01
<MEAN> 39
 -1.063373e+01 3.151098e+00 -3.166242e+00 -4.462486e-01 1.266727e-01 1.121668e-01 2.949489e+00 3.280859e+00 2.381515e+00 -4.697329e-02 2.225587e-01 -1.882574e+00 4.950338e+01 -4.205654e-01 1.375258e-02 -3.283050e-01 -1.440747e-01 -3.265596e-01 -4.371130e-01 -4.290978e-01 -4.098929e-01 -2.988011e-01 -3.012309e-01 -2.093369e-01 -1.214598e-01 4.439576e-01 4.534027e-02 -3.622818e-02 1.478658e-02 -3.111267e-02 1.841814e-02 -2.255908e-02 7.364955e-03 -5.616668e-02 -1.225865e-02 -3.194195e-02 -1.590401e-02 -7.117530e-04 -2.360595e-02
<VARIANCE> 39
 1.411797e+01 1.124393e+01 1.343467e+01 1.466608e+01 1.843949e+01 1.883416e+01 2.123916e+01 1.926749e+01 1.937568e+01 1.864645e+01 1.587709e+01 1.406185e+01 1.744993e+01 1.086518e+00 7.404169e-01 7.999638e-01 1.103736e+00 1.284201e+00 1.363912e+00 1.497488e+00 1.571892e+00 1.661219e+00 1.621080e+00 1.492081e+00 1.365290e+00 1.228016e+00 2.315945e-01 1.294775e-01 1.734597e-01 2.112659e-01 2.631890e-01 3.015797e-01 3.287382e-01 3.347667e-01 3.442057e-01 3.386652e-01 3.031948e-01 2.768144e-01 2.559760e-01
<GCONST> 9.348814e+01
<TRANSP> 5
 0.000000e+00 1.000000e+00 0.000000e+00 0.000000e+00 0.000000e+00
 0.000000e+00 9.911330e-01 8.866967e-03 0.000000e+00 0.000000e+00
 0.000000e+00 0.000000e+00 9.882742e-01 1.172575e-02 0.000000e+00
 0.000000e+00 0.000000e+00 0.000000e+00 9.924115e-01 7.588496e-03
 0.000000e+00 0.000000e+00 0.000000e+00 0.000000e+00 0.000000e+00
<ENDHMM>
~h "pr"
<BEGINHMM>
<NUMSTATES> 5
<STATE> 2
<NUMMIXES> 2
<MIXTURE> 1 5.988646e-01
<MEAN> 39
 -1.448233e+01 -9.259693e+00 -1.249002e+00 -8.192496e+00 2.507775e+00 6.304537e+00 4.716306e+00 2.674457e-01 -1.817659e+00 -1.824880e+00 5.368428e+00 1.340330e-01 5.833640e+01 1.915355e-01 1.473869e-01 1.027940e-01 1.439331e-01 1.165480e-01 1.479045e-01 1.436827e-01 1.364754e-01 1.354102e-01 1.349488e-01 8.567280e-02 3.524307e-02 -2.176589e-01 9.234857e-03 2.722220e-02 4.725226e-02 4.674951e-02 4.693052e-02 4.250223e-02 3.730060e-02 7.584015e-02 7.006908e-02 4.567991e-02 1.424129e-02 -1.705892e-03 -8.960750e-03
<VARIANCE> 39
 3.089980e+01 4.212471e+01 4.490701e+01 3.258862e+01 5.386731e+01 7.104623e+01 5.612833e+01 6.272866e+01 6.837534e+01 3.842865e+01 6.311485e+01 5.749216e+01 2.439154e+01 2.394045e-01 4.137875e-01 6.058972e-01 8.901802e-01 1.086101e+00 1.384718e+00 1.541004e+00 1.691215e+00 1.851684e+00 1.643547e+00 1.722526e+00 1.526235e+00 1.343222e-01 5.044853e-02 8.168484e-02 1.254992e-01 1.801318e-01 2.223327e-01 2.880959e-01 3.207958e-01 3.463695e-01 3.845235e-01 3.422594e-01 3.633217e-01 3.186835e-01 3.280325e-02
<GCONST> 9.849911e+01
<MIXTURE> 2 4.011287e-01
<MEAN> 39
 -1.539102e+01 -8.086215e+00 -3.779927e-01 -7.150371e+00 2.994866e+00 5.645589e+00 4.688381e+00 1.447581e+00 4.835873e-01 -1.434895e+00 4.223515e+00 -4.157189e-01 5.866444e+01 -3.762747e-01 -2.552710e-01 -1.250112e-01 -2.385125e-01 -1.351778e-01 -1.934595e-01 -1.983379e-01 -2.397701e-01 -1.819160e-01 -2.165576e-01 -1.524929e-01 4.913353e-02 4.080085e-01 1.542224e-02 -3.276502e-02 -7.032958e-02 -6.003257e-02 -8.160420e-02 -6.735438e-02 -6.540640e-02 -1.030367e-01 -9.704251e-02 -6.415241e-02 -3.134088e-02 -5.971128e-03 -1.288891e-02
<VARIANCE> 39
 3.047101e+01 4.545005e+01 5.315789e+01 3.734807e+01 5.442268e+01 6.393570e+01 5.535207e+01 6.023218e+01 5.374050e+01 3.634822e+01 4.671481e+01 5.192791e+01 2.562026e+01 1.291773e+00 1.144823e+00 1.507769e+00 1.720172e+00 2.060047e+00 2.505605e+00 2.626868e+00 2.932109e+00 2.722530e+00 2.475022e+00 2.718200e+00 2.510388e+00 9.899243e-01 1.884239e-01 1.752680e-01 2.124544e-01 2.696007e-01 3.223813e-01 3.870106e-01 4.421131e-01 4.466352e-01 4.446318e-01 4.080105e-01 4.271102e-01 3.851748e-01 1.455744e-01
<GCONST> 1.148178e+02
<STATE> 3
<NUMMIXES> 2
<MIXTURE> 1 5.092351e-01
<MEAN> 39
 -2.065750e+01 3.744447e+00 1.684386e+01 -1.603723e+01 1.153481e+00 1.449936e+01 -5.744350e+00 -4.568601e+00 1.385206e+01 -6.097608e+00 -8.254036e+00 9.067634e+00 5.385426e+01 9.452333e-02 8.318458e-02 2.084303e-01 1.294584e-01 2.801948e-01 2.582923e-01 2.745441e-01 3.310135e-01 1.799887e-01 2.519915e-01 2.196169e-02 1.140884e-01 -5.150031e-02 -3.192267e-02 3.524654e-02 1.974468e-02 3.050286e-02 9.127484e-02 1.167205e-02 7.300911e-02 9.829488e-02 3.488669e-03 5.612269e-02 7.038224e-02 -8.502435e-04 3.017985e-02
<VARIANCE> 39
 1.410168e+01 1.460493e+01 1.036252e+01 2.182424e+01 2.024789e+01 1.981233e+01 1.535194e+01 2.505078e+01 2.727564e+01 2.945915e+01 2.853976e+01 1.564601e+01 1.001765e+01 6.766652e-01 3.969141e-01 4.422753e-01 7.231033e-01 1.199783e+00 1.159786e+00 1.007459e+00 1.320450e+00 1.588046e+00 1.555392e+00 1.835343e+00 1.009266e+00 2.407103e-01 1.666866e-01 8.573991e-02 9.803884e-02 1.593255e-01 2.590195e-01 2.587400e-01 2.225671e-01 2.915177e-01 3.378472e-01 3.095916e-01 3.436569e-01 2.030913e-01 6.019306e-02
<GCONST> 8.614977e+01
<MIXTURE> 2 4.907803e-01
<MEAN> 39
 -1.857003e+01 2.031908e+00 1.707298e+01 -1.711769e+01 3.923980e+00 1.285948e+01 -5.030018e+00 -1.039503e+00 1.141286e+01 -2.444988e+00 -9.312166e+00 9.722178e+00 5.260813e+01 4.286292e-02 -1.542503e-01 -2.462142e-01 -1.388866e-01 -2.495953e-01 -3.448792e-01 -3.137329e-01 -2.571713e-01 -2.409928e-01 -1.862162e-01 -8.087385e-02 -1.189236e-01 -6.195051e-02 3.813093e-02 -3.406763e-02 -3.566256e-02 -2.708459e-02 -8.527822e-02 -3.014257e-02 -7.210484e-02 -8.287708e-02 -2.502724e-02 -5.965423e-02 -5.436512e-02 -1.399891e-02 -3.651780e-02
<VARIANCE> 39
 2.311491e+01 2.250661e+01 2.171461e+01 3.704309e+01 2.656513e+01 2.750667e+01 1.795784e+01 3.362289e+01 3.772071e+01 4.369145e+01 4.089604e+01 2.118235e+01 1.904560e+01 5.063589e-01 5.144718e-01 5.571162e-01 9.177291e-01 1.128075e+00 1.228093e+00 1.133458e+00 1.367530e+00 1.564850e+00 1.569998e+00 1.750290e+00 1.135405e+00 2.356234e-01 1.236111e-01 9.925161e-02 1.167505e-01 1.748780e-01 2.335578e-01 2.648795e-01 2.365655e-01 2.792467e-01 3.287460e-01 3.013098e-01 3.303182e-01 2.286635e-01 5.304237e-02
<GCONST> 9.200162e+01
<STATE> 4
<NUMMIXES> 2
<MIXTURE> 1 4.500655e-01
<MEAN> 39
 -1.510615e+01 -3.938429e+00 5.379951e+00 -8.170801e+00 4.102174e+00 4.835622e-01 6.305194e-02 4.209784e+00 4.462166e+00 -2.850512e+00 -4.483778e+00 4.695508e+00 5.348344e+01 2.747304e-02 1.183563e-01 1.485375e-01 1.862710e-01 2.156176e-01 2.311035e-01 2.601237e-01 2.443795e-01 2.415857e-01 1.812865e-01 1.658651e-01 7.077558e-02 1.925259e-02 1.674287e-02 4.366322e-02 6.581473e-02 8.252908e-02 9.128515e-02 9.701754e-02 1.189303e-01 1.088534e-01 9.236704e-02 8.267099e-02 6.377508e-02 3.549759e-02 2.674566e-03
<VARIANCE> 39
 4.158652e+01 5.627691e+01 6.116972e+01 5.857991e+01 6.123429e+01 1.222015e+02 4.889938e+01 6.293577e+01 6.271814e+01 4.504510e+01 5.380036e+01 5.717352e+01 4.332094e+01 5.242398e-01 4.330916e-01 7.337446e-01 1.047820e+00 1.177938e+00 1.436520e+00 1.426398e+00 1.655891e+00 1.697899e+00 1.757211e+00 1.661392e+00 1.386596e+00 2.641070e-01 9.508244e-02 8.008626e-02 1.331248e-01 1.868799e-01 2.327833e-01 2.781922e-01 2.803473e-01 3.114028e-01 3.285239e-01 3.374146e-01 3.193800e-01 2.623275e-01 4.400554e-02
<GCONST> 1.030046e+02
<MIXTURE> 2 5.499168e-01
<MEAN> 39
 -1.350940e+01 -6.115055e+00 2.743176e+00 -5.265804e+00 3.325188e+00 -1.322824e+00 4.777900e+00 6.751144e+00 2.949312e+00 -1.072249e+00 -2.277538e+00 2.546337e+00 5.473929e+01 3.678180e-02 -4.942407e-02 -1.572172e-01 -1.189205e-01 -2.135922e-01 -1.979965e-01 -1.875804e-01 -1.977269e-01 -1.995440e-01 -1.443514e-01 -1.162704e-01 -9.451752e-02 -7.374994e-02 -1.515323e-02 -3.480526e-02 -5.235885e-02 -6.883353e-02 -7.466840e-02 -7.538522e-02 -9.674654e-02 -9.025701e-02 -7.510787e-02 -6.601635e-02 -5.147328e-02 -2.912555e-02 -1.489368e-03
<VARIANCE> 39
 3.742581e+01 5.329024e+01 5.199301e+01 4.849942e+01 9.344077e+01 8.087622e+01 7.988618e+01 5.371012e+01 4.350751e+01 4.459403e+01 5.138473e+01 6.469589e+01 5.070208e+01 1.611782e-01 3.460814e-01 5.200563e-01 7.725750e-01 1.002751e+00 1.286329e+00 1.369439e+00 1.465207e+00 1.551456e+00 1.543981e+00 1.368809e+00 1.213682e+00 7.332908e-02 2.949561e-02 5.848928e-02 9.561662e-02 1.416603e-01 1.926406e-01 2.452867e-01 2.664602e-01 2.780668e-01 2.994854e-01 3.042537e-01 2.698274e-01 2.381299e-01 1.207192e-02
<GCONST> 9.405290e+01
<TRANSP> 5
 0.000000e+00 1.000000e+00 0.000000e+00 0.000000e+00 0.000000e+00
 0.000000e+00 9.903702e-01 9.629817e-03 0.000000e+00 0.000000e+00
 0.000000e+00 0.000000e+00 9.843538e-01 1.564619e-02 0.000000e+00
 0.000000e+00 0.000000e+00 0.000000e+00 9.950558e-01 4.944202e-03
 0.000000e+00 0.000000e+00 0.000000e+00 0.000000e+00 0.000000e+00
<ENDHMM>
~h "pw"
<BEGINHMM>
<NUMSTATES> 5
<STATE> 2
<NUMMIXES> 2
<MIXTURE> 1 6.515688e-01
<MEAN> 39
 -1.252286e+01 -1.925264e+00 -1.084988e+00 -1.252925e+00 1.689013e+00 -5.126462e-01 2.804589e+00 1.442445e+00 1.062366e+00 9.976639e-01 5.590409e-01 -5.704988e-01 5.246669e+01 1.121565e-01 2.209848e-01 7.656795e-02 7.361042e-02 1.061133e-01 1.710358e-01 1.761961e-01 2.118977e-01 1.339155e-01 1.106787e-01 6.573138e-02 3.064000e-02 -2.443701e-01 -2.575883e-02 -1.284544e-02 -4.547479e-03 -7.728761e-03 -1.954084e-02 -2.342621e-02 -2.489528e-02 -1.596446e-02 -1.582331e-02 -6.102785e-03 -1.165872e-03 -2.836086e-03 2.688326e-02
<VARIANCE> 39
 1.526713e+01 2.145105e+01 1.131727e+01 1.161618e+01 1.360011e+01 1.553067e+01 1.830558e+01 1.857207e+01 1.718267e+01 1.485412e+01 1.380259e+01 1.251732e+01 2.173609e+01 2.992036e-01 4.098380e-01 5.133508e-01 7.153531e-01 9.171099e-01 1.079111e+00 1.226633e+00 1.317093e+00 1.364724e+00 1.335441e+00 1.271856e+00 1.148895e+00 1.927216e-01 4.946474e-02 7.939107e-02 1.034548e-01 1.453020e-01 1.882614e-01 2.246911e-01 2.588110e-01 2.762714e-01 2.875728e-01 2.793057e-01 2.632900e-01 2.365594e-01 2.788852e-02
<GCONST> 7.958849e+01
<MIXTURE> 2 3.486202e-01
<MEAN> 39
 -1.418780e+01 -5.158293e+00 -2.196702e+00 -1.976033e+00 6.946469e-01 -2.396477e+00 1.281493e+00 -4.210533e-01 1.379390e-01 4.252307e-01 5.076224e-01 -5.598570e-01 5.724850e+01 -2.170388e-01 -4.256641e-01 -1.383839e-01 -1.386521e-01 -2.000839e-01 -3.326526e-01 -3.322459e-01 -4.017851e-01 -2.554662e-01 -2.039980e-01 -1.248723e-01 -5.367357e-02 4.730560e-01 4.655674e-02 1.928046e-02 7.152346e-03 1.244777e-02 3.234258e-02 3.850114e-02 4.074841e-02 2.610196e-02 2.705221e-02 1.050133e-02 3.034136e-03 5.333896e-03 -3.951961e-02
<VARIANCE> 39
 2.215522e+01 3.224995e+01 1.569788e+01 1.585399e+01 1.846053e+01 2.535645e+01 2.428654e+01 2.692122e+01 2.092692e+01 1.813760e+01 1.671254e+01 1.447491e+01 4.794239e+01 9.764105e-01 1.417715e+00 1.010262e+00 1.157568e+00 1.435689e+00 1.642359e+00 1.753527e+00 1.808761e+00 1.772829e+00 1.655277e+00 1.556023e+00 1.384931e+00 1.914353e+00 1.693001e-01 2.595425e-01 1.846977e-01 2.210970e-01 2.817277e-01 3.363778e-01 3.581361e-01 3.815208e-01 3.611119e-01 3.400466e-01 3.169288e-01 2.798808e-01 3.309357e-01
<GCONST> 1.003869e+02
<STATE> 3
<NUMMIXES> 2
<MIXTURE> 1 7.626874e-01
<MEAN> 39
 -1.036666e+01 -7.475164e+00 -4.222325e+00 -2.960472e+00 3.260571e-02 -5.579326e+00 -1.824304e+00 -4.667987e+00 -2.792499e+00 -1.314271e+00 -2.459588e-01 -2.402155e-01 6.149119e+01 1.345797e-01 2.605205e-01 8.745857e-02 1.255165e-01 1.610878e-01 2.162836e-01 1.723607e-01 1.887442e-01 6.538251e-02 7.724446e-02 3.575829e-02 4.422230e-02 -7.097845e-01 -3.053240e-02 1.320708e-02 2.101284e-02 -3.274620e-03 -1.687783e-02 9.180209e-03 5.786190e-03 2.810956e-02 9.759983e-03 8.242038e-03 1.384260e-03 -6.763563e-03 1.499083e-02
<VARIANCE> 39
 1.961528e+01 2.414707e+01 1.241815e+01 1.268038e+01 1.614949e+01 2.132472e+01 2.111429e+01 2.487790e+01 1.896433e+01 1.665913e+01 1.496730e+01 1.334388e+01 6.660587e+01 2.297905e-01 3.242472e-01 4.633731e-01 6.576651e-01 8.649067e-01 1.056772e+00 1.213780e+00 1.321276e+00 1.404956e+00 1.348352e+00 1.271517e+00 1.161240e+00 1.439461e-01 4.126205e-02 6.673802e-02 9.618682e-02 1.369276e-01 1.825527e-01 2.244388e-01 2.579767e-01 2.797944e-01 2.968014e-01 2.845136e-01 2.656174e-01 2.435828e-01 4.699976e-02
<GCONST> 8.162611e+01
<MIXTURE> 2 2.373843e-01
<MEAN> 39
 -1.309852e+01 -6.527239e+00 -3.064071e+00 -3.790502e+00 -1.410801e+00 -4.985122e+00 -1.272124e+00 -2.989163e+00 -1.775224e+00 -8.940423e-01 -1.623534e-01 -8.936297e-01 6.397770e+01 -3.908978e-01 -1.018110e+00 -3.322376e-01 -3.465869e-01 -4.962696e-01 -8.370101e-01 -7.333617e-01 -8.211622e-01 -3.216519e-01 -3.063816e-01 -9.602542e-02 -9.232263e-02 2.457100e+00 1.302196e-01 1.329598e-02 -5.333674e-02 2.516710e-02 9.962507e-02 4.588340e-02 6.231540e-02 -1.760312e-02 1.465104e-02 -2.563447e-04 -3.895038e-03 1.382882e-02 -1.684085e-01
<VARIANCE> 39
 2.208088e+01 3.480349e+01 1.805058e+01 1.739029e+01 2.227605e+01 3.063290e+01 2.972523e+01 3.127595e+01 2.234687e+01 2.008389e+01 1.851951e+01 1.618092e+01 1.195637e+02 1.636899e+00 2.484618e+00 1.582762e+00 1.578561e+00 2.192492e+00 2.599364e+00 2.818576e+00 2.625665e+00 2.206229e+00 2.062224e+00 1.845291e+00 1.724013e+00 8.693868e+00 2.744961e-01 5.178754e-01 2.749502e-01 2.964165e-01 4.270174e-01 5.421330e-01 5.799251e-01 5.410753e-01 4.294327e-01 4.118237e-01 3.616187e-01 3.432819e-01 2.078777e+00
<GCONST> 1.147525e+02
<STATE> 4
<NUMMIXES> 2
<MIXTURE> 1 6.462768e-01
<MEAN> 39
 -1.137710e+01 -2.595551e+00 -3.147722e+00 -2.842184e+00 7.841527e-01 3.458880e-01 3.808980e+00 1.297603e+00 6.707528e-01 7.269832e-01 2.737387e-01 -1.106982e+00 5.366222e+01 1.439241e-01 1.943887e-01 3.837962e-02 6.970544e-02 1.373598e-01 2.377901e-01 2.385550e-01 2.323494e-01 1.597477e-01 1.381493e-01 7.472657e-02 2.135224e-02 -2.553248e-01 -2.552027e-02 -9.666822e-03 3.717811e-03 -2.226956e-03 -1.273001e-02 -2.087154e-02 -2.417338e-02 -1.315285e-02 -1.509899e-02 -5.772315e-03 9.694351e-04 1.514398e-03 2.673024e-02
<VARIANCE> 39
 1.368843e+01 1.652042e+01 1.101905e+01 1.099966e+01 1.188941e+01 1.682803e+01 1.785992e+01 1.696752e+01 1.588144e+01 1.455973e+01 1.348017e+01 1.254989e+01 1.820734e+01 2.806301e-01 3.675499e-01 4.987900e-01 6.876194e-01 8.877487e-01 1.061398e+00 1.209011e+00 1.309482e+00 1.351058e+00 1.328874e+00 1.291178e+00 1.178033e+00 1.653509e-01 4.657391e-02 7.083412e-02 1.006086e-01 1.397512e-01 1.849537e-01 2.249419e-01 2.561074e-01 2.754421e-01 2.843052e-01 2.791869e-01 2.687131e-01 2.413800e-01 2.397885e-02
<GCONST> 7.783848e+01
<MIXTURE> 2 3.538011e-01
<MEAN> 39
 -1.362060e+01 -4.914906e+00 -3.141103e+00 -3.156746e+00 -3.948794e-02 -1.687725e+00 1.921474e+00 -1.941751e-01 -1.158197e-01 2.036544e-01 3.417864e-01 -8.861908e-01 5.790625e+01 -2.332040e-01 -3.301147e-01 -6.077864e-02 -1.335315e-01 -2.457646e-01 -3.937127e-01 -3.968634e-01 -3.741438e-01 -2.599789e-01 -2.431746e-01 -1.363133e-01 -5.080449e-02 4.018429e-01 4.975519e-02 1.401852e-02 -9.437574e-03 3.087215e-03 2.036995e-02 3.203632e-02 3.635475e-02 1.619939e-02 2.235291e-02 6.891713e-03 -3.429383e-03 -1.633299e-03 -4.645049e-02
<VARIANCE> 39
 1.776391e+01 2.499150e+01 1.330557e+01 1.441532e+01 1.617642e+01 2.464593e+01 2.448727e+01 2.485763e+01 2.034891e+01 1.760631e+01 1.542509e+01 1.410411e+01 4.256121e+01 8.957129e-01 1.162806e+00 9.062462e-01 1.085338e+00 1.295472e+00 1.547165e+00 1.716152e+00 1.724352e+00 1.704730e+00 1.602946e+00 1.521185e+00 1.364462e+00 1.551093e+00 1.541213e-01 2.108445e-01 1.646571e-01 2.094003e-01 2.636895e-01 3.291416e-01 3.634684e-01 3.652264e-01 3.536836e-01 3.324467e-01 3.101935e-01 2.791209e-01 2.561367e-01
<GCONST> 9.721545e+01
<TRANSP> 5
 0.000000e+00 1.000000e+00 0.000000e+00 0.000000e+00 0.000000e+00
 0.000000e+00 9.965630e-01 3.437007e-03 0.000000e+00 0.000000e+00
 0.000000e+00 0.000000e+00 9.873411e-01 1.265892e-02 0.000000e+00
 0.000000e+00 0.000000e+00 0.000000e+00 9.958004e-01 4.199545e-03
 0.000000e+00 0.000000e+00 0.000000e+00 0.000000e+00 0.000000e+00
<ENDHMM>
~h "si"
<BEGINHMM>
<NUMSTATES> 5
<STATE> 2
<NUMMIXES> 2
<MIXTURE> 1 6.221398e-01
<MEAN> 39
 -8.669999e+00 1.791629e+00 7.692371e-01 -1.831493e+00 1.897892e+00 1.908029e+00 2.454312e+00 3.247616e+00 1.247764e+00 4.703371e-01 3.059745e-01 -1.282627e+00 4.797813e+01 4.673175e-02 9.844767e-02 7.886969e-02 1.272752e-01 1.694345e-01 2.274169e-01 2.208740e-01 2.485077e-01 1.799262e-01 1.548996e-01 1.092634e-01 3.892944e-02 -1.033769e-01 -5.716311e-03 -6.105924e-03 -1.775501e-03 -2.921909e-03 -7.002061e-03 -7.334644e-03 -4.381059e-03 -4.371218e-03 1.950806e-03 3.871641e-03 2.490941e-03 7.614708e-04 9.868973e-03
<VARIANCE> 39
 2.130462e+01 1.108847e+01 1.496425e+01 1.443582e+01 1.700954e+01 1.726191e+01 2.493077e+01 1.918252e+01 1.834632e+01 1.620882e+01 1.492293e+01 1.315515e+01 1.768721e+01 1.538965e-01 2.563078e-01 4.127707e-01 6.073679e-01 7.895016e-01 9.663664e-01 1.121060e+00 1.207557e+00 1.263486e+00 1.283149e+00 1.219682e+00 1.091332e+00 7.577489e-02 2.496159e-02 4.768712e-02 8.293297e-02 1.253731e-01 1.661603e-01 2.036844e-01 2.373019e-01 2.550587e-01 2.657070e-01 2.667566e-01 2.500663e-01 2.206954e-01 9.157084e-03
<GCONST> 7.409513e+01
<MIXTURE> 2 3.780037e-01
<MEAN> 39
 -9.368711e+00 2.219564e-02 -8.989769e-02 -2.497659e+00 4.884167e-01 2.446074e-01 1.861739e+00 1.649313e+00 1.143910e+00 4.435376e-01 3.349147e-01 -1.039907e+00 5.044408e+01 -7.426879e-02 -1.643393e-01 -1.523242e-01 -2.337341e-01 -2.966959e-01 -3.537268e-01 -3.233809e-01 -3.569840e-01 -2.741699e-01 -2.187570e-01 -1.643747e-01 -7.223079e-02 9.059833e-02 1.356781e-02 1.027505e-02 -1.049114e-03 1.632717e-03 1.015610e-02 1.682903e-02 1.125159e-02 1.283421e-02 -1.852509e-03 -4.918360e-03 -4.671615e-03 -4.292183e-03 -1.854097e-02
<VARIANCE> 39
 2.357567e+01 2.088199e+01 1.982397e+01 1.782434e+01 2.295885e+01 2.355188e+01 2.702715e+01 2.475234e+01 2.175883e+01 1.948260e+01 1.875734e+01 1.593905e+01 2.713177e+01 5.174049e-01 7.303467e-01 7.296166e-01 9.229520e-01 1.147164e+00 1.329273e+00 1.457029e+00 1.539048e+00 1.550698e+00 1.522016e+00 1.445280e+00 1.264531e+00 5.678066e-01 8.387857e-02 1.312551e-01 1.360885e-01 1.825351e-01 2.299472e-01 2.774124e-01 3.004842e-01 3.252253e-01 3.186446e-01 3.105216e-01 2.921589e-01 2.560517e-01 8.700816e-02
<GCONST> 9.171994e+01
<STATE> 3
<NUMMIXES> 2
<MIXTURE> 1 5.039586e-01
<MEAN> 39
 -5.005156e+00 -2.580034e-02 -1.630013e+00 -2.993983e+00 4.921275e-01 2.456946e+00 3.094662e+00 4.157391e+00 9.963569e-01 6.978989e-01 2.468730e-02 -2.062150e+00 4.525521e+01 7.296976e-02 1.473610e-01 2.045602e-01 2.669590e-01 3.106244e-01 3.359923e-01 3.383362e-01 3.409551e-01 3.100304e-01 2.652069e-01 1.952315e-01 9.528068e-02 1.282604e-02 1.665327e-02 2.890288e-02 3.812905e-02 4.286794e-02 4.299469e-02 4.293980e-02 4.487062e-02 3.847044e-02 3.909614e-02 3.250741e-02 2.164892e-02 1.029844e-02 1.092387e-02
<VARIANCE> 39
 4.683863e+00 1.227971e+01 1.269594e+01 1.032871e+01 1.672024e+01 1.519975e+01 1.688603e+01 1.838284e+01 1.678195e+01 1.630800e+01 1.426520e+01 1.274561e+01 1.078117e+01 1.205686e-01 2.331403e-01 3.953581e-01 5.774029e-01 7.817513e-01 9.583485e-01 1.112762e+00 1.213486e+00 1.257763e+00 1.290830e+00 1.233883e+00 1.111499e+00 3.977343e-02 2.336150e-02 4.976302e-02 8.852323e-02 1.324909e-01 1.793878e-01 2.184694e-01 2.508272e-01 2.724970e-01 2.800227e-01 2.822266e-01 2.624216e-01 2.307802e-01 6.959463e-03
<GCONST> 7.017776e+01
<MIXTURE> 2 4.954637e-01
<MEAN> 39
 -4.690704e+00 -8.465507e-02 -1.543515e+00 -2.689440e+00 7.889812e-01 3.046589e+00 3.802353e+00 4.365827e+00 1.410852e+00 1.165229e+00 2.805167e-01 -2.015166e+00 4.585044e+01 -7.834317e-02 -1.462400e-01 -2.265558e-01 -2.856200e-01 -3.282672e-01 -3.406591e-01 -3.485532e-01 -3.391690e-01 -3.191652e-01 -2.708791e-01 -1.981908e-01 -1.006374e-01 -3.094776e-02 -2.189723e-02 -3.030395e-02 -3.794764e-02 -4.339663e-02 -4.509142e-02 -4.970144e-02 -5.003910e-02 -4.563867e-02 -4.158461e-02 -3.478323e-02 -2.186661e-02 -7.775287e-03 -6.315162e-03
<VARIANCE> 39
 5.330923e+00 1.320880e+01 1.247221e+01 1.016620e+01 1.615367e+01 1.545225e+01 1.714018e+01 1.826711e+01 1.659312e+01 1.618786e+01 1.437519e+01 1.286664e+01 1.181583e+01 1.326302e-01 2.493980e-01 4.085498e-01 5.862253e-01 7.935902e-01 9.776489e-01 1.129611e+00 1.236289e+00 1.277421e+00 1.310216e+00 1.253159e+00 1.128918e+00 4.932185e-02 2.481687e-02 5.095343e-02 8.731401e-02 1.296337e-01 1.766479e-01 2.174638e-01 2.494239e-01 2.714632e-01 2.772000e-01 2.806385e-01 2.631456e-01 2.317609e-01 8.203151e-03
<GCONST> 7.115788e+01
<STATE> 4
<NUMMIXES> 2
<MIXTURE> 1 6.942364e-01
<MEAN> 39
 -8.567680e+00 -7.400058e-01 -1.581193e+00 -2.749335e+00 4.283790e-02 5.705091e-01 3.176819e+00 2.300962e+00 1.545491e+00 7.576346e-01 4.352614e-01 -1.189417e+00 4.983716e+01 7.478066e-02 1.133653e-01 5.557650e-02 1.010908e-01 1.249976e-01 1.820386e-01 1.538877e-01 1.673303e-01 1.184558e-01 1.042114e-01 6.616960e-02 2.330408e-02 -1.301216e-01 -1.126208e-02 -6.763583e-03 6.120875e-04 3.117174e-04 -3.572460e-04 1.371035e-03 3.854502e-04 1.708053e-03 2.854353e-03 2.061911e-03 1.382443e-03 -1.889609e-03 1.538936e-02
<VARIANCE> 39
 1.650689e+01 1.323563e+01 1.303849e+01 1.339548e+01 1.600598e+01 1.791884e+01 1.898337e+01 1.986479e+01 1.846222e+01 1.657860e+01 1.549128e+01 1.383374e+01 2.270239e+01 2.123988e-01 3.104102e-01 4.671696e-01 6.725754e-01 8.738667e-01 1.056163e+00 1.214618e+00 1.308664e+00 1.346983e+00 1.354352e+00 1.284306e+00 1.154861e+00 1.312620e-01 3.372667e-02 5.885867e-02 9.354740e-02 1.365523e-01 1.808701e-01 2.210208e-01 2.535627e-01 2.739768e-01 2.798316e-01 2.792423e-01 2.628317e-01 2.340438e-01 1.641599e-02
<GCONST> 7.758699e+01
<MIXTURE> 2 3.067836e-01
<MEAN> 39
 -1.017709e+01 -2.663043e+00 -1.787320e+00 -3.319410e+00 -6.219439e-01 -8.670343e-01 2.305854e+00 1.155313e+00 1.040670e+00 3.053204e-01 4.344836e-01 -1.019639e+00 5.385309e+01 -2.329146e-01 -2.689509e-01 -1.146778e-01 -2.294918e-01 -2.869949e-01 -4.408817e-01 -3.612696e-01 -4.166051e-01 -2.561437e-01 -2.276891e-01 -1.310398e-01 -2.722552e-02 4.172747e-01 3.171645e-02 1.659371e-02 2.192182e-03 2.673550e-03 5.187534e-03 5.676504e-03 3.847979e-03 2.048206e-03 -3.977673e-03 -2.830962e-03 -2.828302e-03 1.296739e-03 -3.440382e-02
<VARIANCE> 39
 2.854504e+01 3.278151e+01 2.009235e+01 2.179395e+01 2.551001e+01 2.708739e+01 2.791671e+01 3.100147e+01 2.529924e+01 2.138627e+01 2.001853e+01 1.899025e+01 5.049110e+01 1.008226e+00 1.142415e+00 9.842200e-01 1.195552e+00 1.436522e+00 1.616201e+00 1.783441e+00 1.939974e+00 1.839353e+00 1.749901e+00 1.635310e+00 1.432857e+00 1.537827e+00 1.663593e-01 2.008342e-01 1.739928e-01 2.255107e-01 2.772538e-01 3.323172e-01 3.561864e-01 3.984615e-01 3.617364e-01 3.506784e-01 3.224768e-01 2.839943e-01 2.566528e-01
<GCONST> 1.021070e+02
<TRANSP> 5
 0.000000e+00 1.000000e+00 0.000000e+00 0.000000e+00 0.000000e+00
 0.000000e+00 9.862786e-01 1.372143e-02 0.000000e+00 0.000000e+00
 0.000000e+00 0.000000e+00 9.923274e-01 7.672593e-03 0.000000e+00
 0.000000e+00 0.000000e+00 0.000000e+00 9.863582e-01 1.364188e-02
 0.000000e+00 0.000000e+00 0.000000e+00 0.000000e+00 0.000000e+00
<ENDHMM>
~h "st"
<BEGINHMM>
<NUMSTATES> 5
<STATE> 2
<NUMMIXES> 2
<MIXTURE> 1 6.111065e-01
<MEAN> 39
 -9.438931e+00 -4.767437e+00 -1.443059e+00 -8.545218e+00 -3.185076e+00 -5.298621e+00 -1.870465e-02 1.003077e+00 1.522062e+00 2.001687e-02 1.029238e+00 -1.732653e+00 6.154718e+01 -7.914610e-03 3.917291e-02 3.043255e-01 6.723647e-02 2.870454e-01 1.619292e-01 1.505812e-01 1.460524e-01 1.884378e-01 1.003345e-01 1.548375e-01 2.098109e-01 -1.693404e-01 8.754424e-02 1.313496e-01 -5.619159e-02 1.999712e-01 9.535102e-02 2.144450e-01 1.670205e-01 2.036858e-02 -1.275051e-02 5.721036e-03 -2.977320e-02 -2.612719e-02 -3.618298e-01
<VARIANCE> 39
 2.154166e+01 3.240224e+01 1.632598e+01 3.423744e+01 2.738122e+01 3.889074e+01 2.786582e+01 2.386043e+01 2.175943e+01 2.064623e+01 1.922762e+01 1.436982e+01 9.655163e+01 4.409501e-01 6.104245e-01 8.412444e-01 1.122593e+00 1.281850e+00 1.499976e+00 1.627311e+00 1.760362e+00 1.736669e+00 1.673892e+00 1.596515e+00 1.406062e+00 8.554896e-01 1.170143e-01 2.050959e-01 1.505394e-01 3.035247e-01 2.919051e-01 4.057400e-01 3.392054e-01 3.356023e-01 3.353085e-01 3.206879e-01 2.992169e-01 2.574315e-01 5.179033e-01
<GCONST> 9.980363e+01
<MIXTURE> 2 3.888837e-01
<MEAN> 39
 -9.003947e+00 -3.799492e+00 -2.804452e+00 -7.109134e+00 -2.541296e+00 -2.839701e+00 1.600629e+00 8.244934e-01 1.099376e+00 2.836087e-01 8.707197e-01 -1.857391e+00 5.873010e+01 -6.098523e-01 -1.398487e+00 5.489451e-03 -1.434376e+00 -1.052419e+00 -1.880965e+00 -1.077613e+00 -4.730936e-01 -1.535481e-01 -2.716414e-01 -3.848831e-02 -1.575128e-01 3.379884e+00 6.880556e-02 9.724188e-02 1.416109e-01 2.812794e-02 8.835707e-02 9.622999e-02 4.232120e-02 1.012114e-01 8.177763e-02 5.027673e-02 2.947273e-02 5.486042e-02 -1.504571e-01
<VARIANCE> 39
 2.618165e+01 3.120794e+01 2.103919e+01 2.757319e+01 2.571920e+01 3.747845e+01 2.882051e+01 2.616082e+01 2.275005e+01 1.942492e+01 1.837763e+01 1.575344e+01 8.367869e+01 2.130404e+00 2.188903e+00 1.805742e+00 2.418106e+00 2.489754e+00 2.859195e+00 2.579442e+00 2.954970e+00 2.729923e+00 2.375692e+00 2.175733e+00 1.774371e+00 3.862553e+00 2.471505e-01 3.733223e-01 2.758612e-01 4.464029e-01 4.584325e-01 6.475860e-01 4.849782e-01 4.913698e-01 4.279549e-01 3.831536e-01 3.419545e-01 3.136546e-01 1.156117e+00
<GCONST> 1.149863e+02
<STATE> 3
<NUMMIXES> 2
<MIXTURE> 1 7.301485e-01
<MEAN> 39
 -7.939824e+00 -2.809468e+00 -1.673048e+00 -5.661619e+00 -1.233172e+00 -1.252500e+00 2.540147e+00 5.311658e-01 2.713211e-01 -3.081797e-01 6.258166e-01 -1.708571e+00 5.533177e+01 1.182762e-01 1.625908e-01 1.590937e-03 2.411972e-01 1.987397e-01 2.848663e-01 1.941527e-01 1.276230e-01 6.679973e-02 9.101669e-02 4.555905e-02 3.325357e-02 -4.557605e-01 -5.167672e-03 -1.094681e-02 -7.375829e-03 -3.153015e-03 -1.356504e-02 -3.958173e-03 1.012653e-03 -1.478624e-04 -1.404658e-03 -8.337023e-04 -6.078182e-03 -1.030474e-02 2.061164e-02
<VARIANCE> 39
 1.428885e+01 1.914005e+01 1.615895e+01 2.072311e+01 1.769311e+01 2.386605e+01 1.946998e+01 1.893399e+01 1.915121e+01 1.802073e+01 1.545748e+01 1.406587e+01 3.393795e+01 2.111844e-01 3.071774e-01 4.857692e-01 6.874017e-01 8.806724e-01 1.062946e+00 1.224707e+00 1.326149e+00 1.377986e+00 1.378411e+00 1.315196e+00 1.200829e+00 1.831715e-01 3.702717e-02 6.122806e-02 9.804672e-02 1.469133e-01 1.873289e-01 2.304018e-01 2.630458e-01 2.825918e-01 2.937640e-01 2.935899e-01 2.772425e-01 2.510099e-01 2.746347e-02
<GCONST> 8.101383e+01
<MIXTURE> 2 2.701385e-01
<MEAN> 39
 -9.563025e+00 -3.018701e+00 -2.071987e+00 -7.146564e+00 -2.560490e+00 -2.009708e+00 2.264166e+00 3.903375e-01 6.108817e-01 -2.528611e-01 6.461633e-01 -2.038215e+00 5.830436e+01 -3.100201e-01 -3.683432e-01 -6.912746e-03 -5.807661e-01 -5.082572e-01 -6.929489e-01 -4.793769e-01 -3.375129e-01 -1.918202e-01 -2.411859e-01 -1.222862e-01 -8.420720e-02 1.075042e+00 1.220104e-02 3.188161e-02 1.465703e-02 1.052506e-02 3.716898e-02 1.175579e-02 -5.384006e-03 1.940351e-03 6.430425e-03 5.373774e-03 1.746663e-02 2.755917e-02 -5.400938e-02
<VARIANCE> 39
 2.112588e+01 2.473749e+01 1.756178e+01 3.022623e+01 2.541796e+01 3.000385e+01 2.346580e+01 2.204737e+01 2.193516e+01 2.001947e+01 1.751462e+01 1.564392e+01 6.186346e+01 1.347638e+00 1.546958e+00 1.215875e+00 2.146137e+00 2.089847e+00 2.264884e+00 2.019377e+00 2.012083e+00 2.085948e+00 1.921963e+00 1.781593e+00 1.557761e+00 3.611435e+00 2.244638e-01 2.677151e-01 2.144152e-01 4.220299e-01 4.242463e-01 4.984781e-01 4.256144e-01 4.053864e-01 3.991234e-01 3.791936e-01 3.476044e-01 3.094372e-01 7.300557e-01
<GCONST> 1.083049e+02
<STATE> 4
<NUMMIXES> 2
<MIXTURE> 1 6.585439e-01
<MEAN> 39
 -1.008276e+01 1.550374e-01 -8.960488e-01 -2.743933e+00 4.543724e-01 8.605048e-03 2.862015e+00 2.047164e+00 1.950555e+00 5.089154e-01 6.227536e-01 -1.453903e+00 5.070441e+01 3.414585e-02 1.208860e-01 8.677445e-02 1.931477e-01 2.133496e-01 2.744164e-01 2.241485e-01 1.960474e-01 1.360349e-01 1.227050e-01 7.570133e-02 3.586391e-02 -1.964368e-01 -3.575748e-04 -1.008296e-02 -5.236432e-03 -1.644664e-02 -2.047723e-02 -1.824412e-02 -1.028170e-02 -3.640736e-03 -9.346846e-04 6.487491e-04 -2.862133e-03 -6.557195e-03 1.782095e-02
<VARIANCE> 39
 1.703313e+01 9.297703e+00 1.010436e+01 1.210857e+01 1.365976e+01 1.660358e+01 1.873098e+01 1.767354e+01 1.601961e+01 1.497945e+01 1.357570e+01 1.228456e+01 1.651551e+01 1.776788e-01 2.784226e-01 4.366035e-01 6.460521e-01 8.376532e-01 1.002401e+00 1.151721e+00 1.261586e+00 1.318202e+00 1.317782e+00 1.261240e+00 1.136789e+00 1.082563e-01 2.873937e-02 5.206920e-02 8.651539e-02 1.292360e-01 1.744110e-01 2.117911e-01 2.439068e-01 2.656744e-01 2.770262e-01 2.766559e-01 2.602599e-01 2.315713e-01 1.301423e-02
<GCONST> 7.404044e+01
<MIXTURE> 2 3.415203e-01
<MEAN> 39
 -1.030614e+01 -6.662227e-01 -1.325524e+00 -4.595599e+00 -1.344696e+00 -1.916120e+00 1.831411e+00 1.489701e+00 2.054261e+00 5.366561e-01 6.196865e-01 -1.668705e+00 5.323819e+01 -6.089357e-02 -2.127753e-01 -1.801465e-01 -3.470037e-01 -3.751250e-01 -4.751772e-01 -4.082288e-01 -3.801126e-01 -2.682129e-01 -2.426729e-01 -1.614307e-01 -7.784806e-02 2.990605e-01 1.587457e-03 1.259961e-02 9.267364e-03 2.077862e-02 2.909441e-02 2.472905e-02 1.285527e-02 1.889598e-03 -3.172915e-03 -4.697887e-03 4.520455e-03 1.226983e-02 -2.671848e-02
<VARIANCE> 39
 1.863060e+01 1.379325e+01 1.345543e+01 2.102147e+01 2.015087e+01 2.613553e+01 2.398729e+01 2.163055e+01 1.874880e+01 1.715004e+01 1.539057e+01 1.394729e+01 2.679037e+01 6.360428e-01 8.149062e-01 8.713465e-01 1.380105e+00 1.467767e+00 1.665240e+00 1.565233e+00 1.670619e+00 1.655737e+00 1.591939e+00 1.482730e+00 1.339730e+00 9.865552e-01 1.026624e-01 1.511199e-01 1.681044e-01 2.713566e-01 3.007340e-01 3.574824e-01 3.318605e-01 3.500946e-01 3.333733e-01 3.205180e-01 3.003573e-01 2.716900e-01 1.563040e-01
<GCONST> 9.460931e+01
<TRANSP> 5
 0.000000e+00 1.000000e+00 0.000000e+00 0.000000e+00 0.000000e+00
 0.000000e+00 8.336834e-01 1.663166e-01 0.000000e+00 0.000000e+00
 0.000000e+00 0.000000e+00 9.931324e-01 6.867651e-03 0.000000e+00
 0.000000e+00 0.000000e+00 0.000000e+00 9.886977e-01 1.130224e-02
 0.000000e+00 0.000000e+00 0.000000e+00 0.000000e+00 0.000000e+00
<ENDHMM>
~h "spe"
<BEGINHMM>
<NUMSTATES> 5
<STATE> 2
<NUMMIXES> 2
<MIXTURE> 1 5.022738e-01
<MEAN> 39
 -2.858382e+00 -3.679872e-01 -1.138343e+00 -5.542614e+00 -3.482289e+00 -3.398751e+00 -2.785720e+00 -4.857474e-02 -2.074155e+00 1.725728e-01 -1.938416e-02 -3.939077e+00 5.484484e+01 -1.868658e-01 1.527064e-01 2.128699e-02 9.060691e-02 1.477105e-01 8.848584e-02 3.346426e-01 2.408785e-01 3.344502e-01 2.952303e-01 2.366082e-01 2.116209e-01 -1.845425e-02 2.271703e-02 -1.116611e-02 3.356004e-02 4.016203e-02 3.549398e-02 7.031793e-02 5.905035e-02 3.280203e-02 1.511042e-02 4.238382e-03 -1.018369e-02 -2.400543e-02 2.567399e-03
<VARIANCE> 39
 3.289631e+01 4.029160e+01 3.491679e+01 3.210625e+01 4.816651e+01 4.571730e+01 3.319484e+01 3.770794e+01 2.999914e+01 3.194197e+01 3.217534e+01 2.868277e+01 1.083253e+01 8.709545e-01 1.037907e+00 1.000100e+00 1.163520e+00 1.623551e+00 1.757458e+00 1.644901e+00 1.840497e+00 1.745724e+00 1.839426e+00 1.763518e+00 1.628013e+00 2.301990e-01 1.194954e-01 1.496786e-01 1.654999e-01 2.041836e-01 3.001578e-01 3.280517e-01 3.427496e-01 3.687223e-01 3.658328e-01 3.666878e-01 3.495746e-01 3.177235e-01 3.499543e-02
<GCONST> 1.003958e+02
<MIXTURE> 2 4.977162e-01
<MEAN> 39
 -8.397073e-01 -2.831110e+00 -6.993976e-01 -5.994184e+00 -3.788531e+00 -1.253840e+00 -2.832865e+00 1.824603e-01 -2.504165e+00 2.043211e-02 -6.181079e-01 -5.227755e+00 5.536324e+01 1.627604e-01 -1.947456e-01 8.081483e-02 -1.404182e-01 -2.455632e-01 -2.205976e-01 -4.218829e-01 -2.858936e-01 -3.559475e-01 -2.603440e-01 -2.271955e-01 -2.091838e-01 1.410720e-01 -1.944498e-02 -4.488025e-04 -2.779849e-02 -3.586344e-02 -4.992168e-02 -7.833576e-02 -5.973663e-02 -3.227910e-02 -9.113407e-03 -6.327255e-03 6.497711e-03 2.783434e-02 -8.044675e-04
<VARIANCE> 39
 1.765184e+01 3.449073e+01 4.144931e+01 3.797167e+01 4.642574e+01 4.916108e+01 3.301235e+01 4.038657e+01 3.302304e+01 3.011468e+01 3.704958e+01 3.364697e+01 1.332754e+01 5.239539e-01 1.030342e+00 1.381285e+00 1.449919e+00 2.076300e+00 2.134035e+00 1.847785e+00 2.158502e+00 2.031198e+00 1.973333e+00 1.965541e+00 1.888198e+00 4.006020e-01 6.203017e-02 1.321687e-01 1.731835e-01 2.099989e-01 3.004894e-01 3.294744e-01 3.297081e-01 3.801790e-01 3.955188e-01 3.803629e-01 3.654440e-01 3.332590e-01 3.735629e-02
<GCONST> 1.019396e+02
<STATE> 3
<NUMMIXES> 2
<MIXTURE> 1 5.208553e-01
<MEAN> 39
 -3.613085e+00 -4.338250e+00 1.456123e+00 -1.069639e+01 -3.892486e+00 -4.154315e+00 -3.171297e+00 -7.275373e-01 -2.147066e+00 -1.505158e+00 -3.074857e+00 -3.032457e+00 6.140173e+01 -3.739902e-02 9.268198e-02 -6.670484e-02 1.875086e-01 1.653365e-01 1.926636e-01 2.355764e-01 1.703570e-01 2.368493e-01 1.684127e-01 9.569409e-02 2.258011e-02 -1.695835e-01 3.504852e-03 8.882992e-03 4.085188e-03 2.058458e-02 4.732569e-02 2.821399e-02 -8.525645e-03 4.501991e-03 1.738884e-03 -2.229366e-02 -2.614236e-02 -8.575492e-03 -2.005084e-02
<VARIANCE> 39
 2.300906e+01 4.025115e+01 6.834581e+01 5.901114e+01 6.322034e+01 5.182836e+01 3.259182e+01 4.514717e+01 3.346233e+01 2.607244e+01 4.283967e+01 2.954404e+01 3.577923e+01 2.996392e-01 6.499840e-01 8.277999e-01 1.136474e+00 1.310152e+00 1.487248e+00 1.517698e+00 1.747226e+00 1.570729e+00 1.581319e+00 1.659896e+00 1.459978e+00 2.838543e-01 4.837314e-02 1.010369e-01 1.457831e-01 2.031413e-01 2.476915e-01 2.855613e-01 3.044398e-01 3.289757e-01 3.125935e-01 3.116004e-01 3.193710e-01 2.751277e-01 3.623056e-02
<GCONST> 9.830289e+01
<MIXTURE> 2 4.791441e-01
<MEAN> 39
 -2.391039e+00 -5.052326e+00 3.157079e+00 -1.564795e+01 -3.507921e+00 -6.478998e+00 -6.798594e+00 -3.416901e+00 -2.264940e+00 -3.947759e+00 -6.971434e+00 -2.305704e+00 6.235040e+01 5.584899e-02 -9.624679e-02 -4.539649e-02 -1.267238e-01 -1.127543e-01 -1.925231e-01 -2.241912e-01 -1.916778e-01 -2.063894e-01 -2.303277e-01 -2.074380e-01 -1.157689e-01 2.003988e-01 -1.128018e-02 2.470400e-02 -2.776559e-02 1.500943e-02 -1.550078e-02 1.665205e-06 4.667341e-02 7.777996e-04 -2.173852e-03 3.438368e-02 3.546912e-02 1.167554e-02 -2.201585e-02
<VARIANCE> 39
 2.095188e+01 3.397071e+01 8.111321e+01 6.476201e+01 6.846908e+01 6.805193e+01 5.047061e+01 6.822089e+01 4.772164e+01 4.398223e+01 6.593961e+01 4.333380e+01 1.092298e+01 8.787216e-01 1.394966e+00 1.896741e+00 2.071588e+00 2.574665e+00 2.419843e+00 2.599362e+00 2.771196e+00 2.559070e+00 2.466688e+00 2.433318e+00 2.097153e+00 5.910805e-01 1.098643e-01 1.712637e-01 2.480836e-01 3.066937e-01 3.884379e-01 4.208578e-01 4.514921e-01 4.961143e-01 4.780256e-01 4.786013e-01 4.562556e-01 3.934891e-01 6.171722e-02
<GCONST> 1.138888e+02
<STATE> 4
<NUMMIXES> 2
<MIXTURE> 1 5.509200e-01
<MEAN> 39
 -2.563082e+00 -2.527098e+00 -2.422360e+00 -4.624317e+00 -1.839457e+00 7.349101e-01 1.840799e+00 9.452448e-01 -8.464761e-01 3.932053e-01 -7.226289e-01 -3.417657e+00 5.117621e+01 -2.581451e-02 5.864015e-02 -1.401793e-02 1.353081e-01 1.314663e-01 2.016267e-01 2.572984e-01 1.706788e-01 1.698028e-01 1.621714e-01 1.467821e-01 1.313841e-01 -1.198317e-01 9.534787e-03 -1.664333e-03 2.777365e-02 1.588620e-03 7.600650e-03 6.787609e-03 -1.062264e-02 7.056251e-03 -3.007745e-03 -9.618817e-03 -2.836620e-03 -1.728321e-02 1.920229e-02
<VARIANCE> 39
 1.343898e+01 1.790125e+01 1.945823e+01 1.711269e+01 2.666516e+01 2.953486e+01 2.953112e+01 2.514883e+01 2.280437e+01 1.991496e+01 1.947589e+01 1.833212e+01 9.126904e+00 2.230092e-01 3.529938e-01 5.573580e-01 7.456108e-01 9.988158e-01 1.198666e+00 1.271618e+00 1.408052e+00 1.448292e+00 1.436151e+00 1.375310e+00 1.265444e+00 8.739133e-02 3.904868e-02 6.229850e-02 1.036455e-01 1.424594e-01 1.956243e-01 2.388282e-01 2.589945e-01 2.862187e-01 2.976448e-01 2.901033e-01 2.765975e-01 2.521326e-01 1.233424e-02
<GCONST> 8.123915e+01
<MIXTURE> 2 4.490599e-01
<MEAN> 39
 -7.409539e-01 -5.676496e+00 2.315175e-01 -7.773213e+00 -4.395565e+00 -1.149746e+00 -2.991830e+00 -1.698796e-01 -2.186465e+00 -7.463034e-01 -1.114653e+00 -5.044928e+00 5.614877e+01 3.421701e-02 -6.490032e-02 -5.297668e-03 -1.403461e-01 -1.341647e-01 -2.211621e-01 -2.859828e-01 -1.852613e-01 -1.961423e-01 -1.839423e-01 -1.617604e-01 -1.447705e-01 9.119084e-02 -1.283317e-02 1.229722e-03 -3.356232e-02 -4.701421e-03 -1.131836e-02 -1.120107e-02 1.080154e-02 -8.935343e-03 3.187327e-03 1.163563e-02 3.384184e-03 2.167319e-02 -2.179899e-02
<VARIANCE> 39
 1.389339e+01 3.837538e+01 4.743576e+01 3.592658e+01 6.157905e+01 4.543550e+01 4.260741e+01 4.166730e+01 3.717828e+01 3.918643e+01 3.885595e+01 3.023230e+01 1.919480e+01 4.477461e-01 1.011582e+00 1.178087e+00 1.259523e+00 1.755969e+00 1.845290e+00 1.993713e+00 1.995373e+00 2.012431e+00 1.954474e+00 1.950305e+00 1.612509e+00 3.934274e-01 5.612614e-02 1.322374e-01 1.553566e-01 2.012432e-01 2.713042e-01 3.203298e-01 3.584244e-01 3.641022e-01 3.829267e-01 3.805147e-01 3.613635e-01 3.014022e-01 3.819047e-02
<GCONST> 1.016078e+02
<TRANSP> 5
 0.000000e+00 1.000000e+00 0.000000e+00 0.000000e+00 0.000000e+00
 0.000000e+00 9.859558e-01 1.404422e-02 0.000000e+00 0.000000e+00
 0.000000e+00 0.000000e+00 9.818005e-01 1.819945e-02 0.000000e+00
 0.000000e+00 0.000000e+00 0.000000e+00 9.961778e-01 3.822225e-03
 0.000000e+00 0.000000e+00 0.000000e+00 0.000000e+00 0.000000e+00
<ENDHMM>
