~o
<STREAMINFO> 1 39
<VECSIZE> 39<NULLD><MFCC_D_A_0><DIAGC>
~h "ap"
<BEGINHMM>
<NUMSTATES> 5
<STATE> 2
<NUMMIXES> 8
<MIXTURE> 1 2.898817e-01
<MEAN> 39
 -8.961239e+00 -6.078848e+00 -2.374784e+00 3.055789e-01 3.394063e+00 -1.316975e+00 4.053166e+00 1.158463e+00 -8.318918e-02 3.089141e-02 9.869384e-01 -9.109709e-01 5.259982e+01 2.764209e-01 3.635911e-01 1.271004e-01 -7.600691e-02 2.160197e-02 2.609496e-01 9.786057e-02 2.654285e-01 8.861977e-02 6.920506e-02 -3.637483e-02 -6.463017e-02 -5.307829e-01 -2.952011e-02 -1.336356e-02 -4.165654e-02 -4.719827e-02 -5.793974e-02 -4.042028e-02 -5.822978e-02 -5.391236e-02 -4.193876e-02 -2.240492e-02 -1.379653e-02 3.901108e-03 3.177975e-02
<VARIANCE> 39
 1.216907e+01 1.971256e+01 1.606497e+01 1.897102e+01 2.490436e+01 2.487130e+01 2.423699e+01 1.995015e+01 1.789592e+01 1.633707e+01 1.510451e+01 1.460233e+01 1.657422e+01 1.551377e-01 2.689001e-01 4.572543e-01 6.697535e-01 8.839619e-01 1.064376e+00 1.217116e+00 1.299992e+00 1.342758e+00 1.324580e+00 1.274682e+00 1.142277e+00 7.763070e-02 2.240753e-02 4.665243e-02 8.343723e-02 1.263591e-01 1.724096e-01 2.118488e-01 2.389477e-01 2.568896e-01 2.686760e-01 2.670859e-01 2.584697e-01 2.317798e-01 6.981964e-03
<GCONST> 7.587239e+01
<MIXTURE> 2 1.683155e-01
<MEAN> 39
 -1.475078e+01 -1.277096e+01 -7.546743e+00 -2.013808e+00 -3.168978e-01 -6.090845e+00 8.486615e-01 -3.626961e+00 -2.067919e+00 -1.089821e+00 3.431723e-01 -3.859698e-01 6.686108e+01 3.436047e-01 1.617842e-01 2.722450e-01 2.354417e-01 3.314753e-01 1.697564e-01 1.768892e-01 6.193881e-02 -2.053226e-03 -4.375789e-03 6.017505e-02 2.784955e-02 -9.268501e-01 -2.842702e-03 2.750758e-02 1.900551e-02 1.363249e-02 9.896032e-03 1.855466e-02 7.289039e-03 3.993432e-02 1.940824e-02 1.121082e-02 2.156493e-03 -5.243302e-03 8.342286e-03
<VARIANCE> 39
 1.462838e+01 2.756591e+01 2.632555e+01 2.239099e+01 3.013853e+01 2.768262e+01 2.427263e+01 2.224216e+01 2.220634e+01 1.993123e+01 1.846377e+01 1.551834e+01 5.179875e+01 1.047323e-01 2.417245e-01 3.971423e-01 6.240248e-01 8.632945e-01 1.021375e+00 1.197070e+00 1.304608e+00 1.358335e+00 1.333783e+00 1.271693e+00 1.191977e+00 3.704172e-02 2.199790e-02 5.005072e-02 8.282690e-02 1.322676e-01 1.803405e-01 2.135295e-01 2.513764e-01 2.745275e-01 2.896820e-01 2.828869e-01 2.676813e-01 2.508475e-01 8.857882e-03
<GCONST> 7.855003e+01
<MIXTURE> 3 1.683191e-01
<MEAN> 39
 -1.475103e+01 -1.277125e+01 -7.547150e+00 -2.014159e+00 -3.172238e-01 -6.090966e+00 8.483368e-01 -3.627181e+00 -2.068008e+00 -1.089916e+00 3.430146e-01 -3.861074e-01 6.686199e+01 3.436060e-01 1.617665e-01 2.722368e-01 2.354551e-01 3.314872e-01 1.697552e-01 1.768925e-01 6.191852e-02 -2.076227e-03 -4.387653e-03 6.016816e-02 2.785259e-02 -9.268618e-01 -2.839021e-03 2.751456e-02 1.901519e-02 1.364509e-02 9.910371e-03 1.856562e-02 7.300576e-03 3.994584e-02 1.941419e-02 1.121853e-02 2.168305e-03 -5.235493e-03 8.342412e-03
<VARIANCE> 39
 1.462901e+01 2.756649e+01 2.632785e+01 2.239253e+01 3.013985e+01 2.768426e+01 2.427443e+01 2.224368e+01 2.220790e+01 1.993305e+01 1.846575e+01 1.551940e+01 5.180400e+01 1.047418e-01 2.417421e-01 3.971658e-01 6.240825e-01 8.633655e-01 1.021442e+00 1.197155e+00 1.304685e+00 1.358415e+00 1.333861e+00 1.271788e+00 1.192041e+00 3.704506e-02 2.199858e-02 5.005388e-02 8.283226e-02 1.322797e-01 1.803565e-01 2.135463e-01 2.514001e-01 2.745546e-01 2.897136e-01 2.829177e-01 2.677103e-01 2.508717e-01 8.857124e-03
<GCONST> 7.855283e+01
<MIXTURE> 4 3.444188e-02
<MEAN> 39
 -1.952425e+01 -1.278930e+01 -9.647313e+00 -3.689706e+00 -4.121520e+00 -8.740044e+00 -2.527712e+00 -3.547171e+00 -2.786036e+00 -1.422464e+00 -6.726850e-01 -1.287633e+00 7.813419e+01 -9.832212e-01 -1.755553e+00 -1.125686e+00 -6.381085e-01 -9.936439e-01 -8.718352e-01 -1.959742e-01 -5.814461e-01 -2.786577e-02 -7.048499e-03 3.811384e-03 1.080050e-01 3.459932e+00 8.030106e-01 5.487516e-01 5.013341e-01 2.277614e-01 5.387948e-01 6.400746e-01 5.581979e-01 3.912137e-01 2.390945e-01 1.504612e-01 1.117949e-01 2.646106e-02 -1.962732e+00
<VARIANCE> 39
 1.071589e+01 3.356925e+01 2.740556e+01 3.042510e+01 3.399496e+01 3.356590e+01 3.040430e+01 3.009058e+01 3.029543e+01 2.366751e+01 2.153140e+01 1.888396e+01 3.428678e+01 3.294807e+00 3.792111e+00 2.558238e+00 2.262382e+00 3.297663e+00 4.273842e+00 3.554132e+00 3.364596e+00 2.845149e+00 2.207132e+00 1.970164e+00 1.664190e+00 1.795318e+01 2.570442e-01 4.232472e-01 3.026558e-01 4.722941e-01 4.882236e-01 5.930105e-01 5.624457e-01 5.662154e-01 5.513707e-01 4.446049e-01 3.965310e-01 3.503403e-01 9.075736e-01
<GCONST> 1.195613e+02
<MIXTURE> 5 1.683038e-01
<MEAN> 39
 -1.475144e+01 -1.277064e+01 -7.546736e+00 -2.014261e+00 -3.174986e-01 -6.090889e+00 8.485672e-01 -3.626517e+00 -2.067454e+00 -1.089419e+00 3.434231e-01 -3.858981e-01 6.686208e+01 3.436350e-01 1.617931e-01 2.722310e-01 2.354550e-01 3.315174e-01 1.697821e-01 1.769272e-01 6.191618e-02 -2.057812e-03 -4.393086e-03 6.013311e-02 2.780194e-02 -9.268674e-01 -2.842387e-03 2.754602e-02 1.903588e-02 1.369261e-02 9.941369e-03 1.853642e-02 7.238822e-03 3.987888e-02 1.932695e-02 1.114515e-02 2.110569e-03 -5.262868e-03 8.297476e-03
<VARIANCE> 39
 1.462889e+01 2.756199e+01 2.632219e+01 2.238781e+01 3.013381e+01 2.767707e+01 2.426831e+01 2.223773e+01 2.220214e+01 1.992695e+01 1.846008e+01 1.551515e+01 5.180622e+01 1.047308e-01 2.416835e-01 3.970654e-01 6.239291e-01 8.631821e-01 1.021186e+00 1.196884e+00 1.304383e+00 1.358059e+00 1.333498e+00 1.271446e+00 1.191758e+00 3.704637e-02 2.200684e-02 5.005856e-02 8.282474e-02 1.322768e-01 1.803325e-01 2.135066e-01 2.513481e-01 2.744972e-01 2.896505e-01 2.828451e-01 2.676383e-01 2.508106e-01 8.889671e-03
<GCONST> 7.854967e+01
<MIXTURE> 6 3.444918e-02
<MEAN> 39
 -1.952876e+01 -1.279202e+01 -9.648614e+00 -3.725244e+00 -4.133567e+00 -8.719903e+00 -2.494998e+00 -3.525084e+00 -2.742482e+00 -1.403117e+00 -6.593056e-01 -1.259805e+00 7.812283e+01 -9.511499e-01 -1.720539e+00 -1.099428e+00 -6.272512e-01 -9.671334e-01 -8.394973e-01 -1.704092e-01 -5.584638e-01 -1.110919e-02 3.494716e-03 1.118801e-02 1.106127e-01 3.367759e+00 7.987103e-01 5.504794e-01 5.018128e-01 2.336505e-01 5.411538e-01 6.342799e-01 5.504243e-01 3.852415e-01 2.311568e-01 1.455659e-01 1.083263e-01 2.261743e-02 -1.957212e+00
<VARIANCE> 39
 1.068504e+01 3.350653e+01 2.734460e+01 3.022371e+01 3.374389e+01 3.338020e+01 3.027271e+01 2.994185e+01 3.013314e+01 2.355649e+01 2.144454e+01 1.879513e+01 3.407456e+01 3.270482e+00 3.750339e+00 2.538647e+00 2.251504e+00 3.288881e+00 4.241017e+00 3.534265e+00 3.348339e+00 2.833290e+00 2.200534e+00 1.964067e+00 1.661528e+00 1.786024e+01 2.574117e-01 4.200370e-01 3.004711e-01 4.680507e-01 4.842803e-01 5.898232e-01 5.610119e-01 5.628961e-01 5.489849e-01 4.427958e-01 3.949288e-01 3.490496e-01 9.049897e-01
<GCONST> 1.193681e+02
<MIXTURE> 7 3.444653e-02
<MEAN> 39
 -1.952872e+01 -1.279170e+01 -9.648357e+00 -3.724404e+00 -4.133185e+00 -8.720242e+00 -2.495610e+00 -3.525380e+00 -2.743192e+00 -1.403424e+00 -6.595134e-01 -1.260287e+00 7.812267e+01 -9.518533e-01 -1.721222e+00 -1.099952e+00 -6.274599e-01 -9.676778e-01 -8.401836e-01 -1.709696e-01 -5.589560e-01 -1.146627e-02 3.267013e-03 1.102969e-02 1.105514e-01 3.369685e+00 7.987853e-01 5.504086e-01 5.017744e-01 2.335137e-01 5.410835e-01 6.343741e-01 5.505627e-01 3.853371e-01 2.312942e-01 1.456513e-01 1.083895e-01 2.268873e-02 -1.957254e+00
<VARIANCE> 39
 1.068583e+01 3.350844e+01 2.734659e+01 3.022856e+01 3.374938e+01 3.338471e+01 3.027573e+01 2.994526e+01 3.013659e+01 2.355903e+01 2.144661e+01 1.879696e+01 3.408086e+01 3.271202e+00 3.751242e+00 2.539093e+00 2.251745e+00 3.289142e+00 4.241776e+00 3.534753e+00 3.348737e+00 2.833550e+00 2.200691e+00 1.964211e+00 1.661587e+00 1.786283e+01 2.574093e-01 4.201088e-01 3.005206e-01 4.681518e-01 4.843675e-01 5.898932e-01 5.610493e-01 5.629683e-01 5.490327e-01 4.428362e-01 3.949640e-01 3.490746e-01 9.050651e-01
<GCONST> 1.193727e+02
<MIXTURE> 8 1.017564e-01
<MEAN> 39
 -8.601060e+00 -3.679553e+00 -2.044350e+00 -6.835386e-01 2.727282e+00 -8.597766e-02 3.939083e+00 2.283008e+00 5.071241e-02 3.028348e-01 5.486714e-01 -1.095827e+00 5.033025e+01 -1.624917e+00 -6.876433e-01 -8.701609e-01 -2.448722e-01 -8.374496e-01 -1.145396e+00 -1.041837e+00 -6.327171e-01 -3.945172e-01 -2.554991e-01 -2.216031e-01 -7.093008e-02 3.470906e+00 -6.572106e-01 -6.520864e-01 -4.915859e-01 -1.776407e-01 -4.007157e-01 -5.833343e-01 -3.990706e-01 -4.011902e-01 -1.985731e-01 -1.350365e-01 -6.968614e-02 -5.607299e-03 1.785426e+00
<VARIANCE> 39
 1.511034e+01 2.155350e+01 1.697360e+01 1.805061e+01 2.217884e+01 2.786546e+01 2.434141e+01 2.120322e+01 1.923663e+01 1.755013e+01 1.530077e+01 1.383279e+01 2.049652e+01 3.201969e+00 3.535816e+00 2.344319e+00 2.088951e+00 2.603273e+00 4.410125e+00 3.281240e+00 3.215550e+00 2.524045e+00 2.199612e+00 1.955325e+00 1.575371e+00 1.545676e+01 2.753620e-01 3.799686e-01 2.628472e-01 3.103919e-01 3.469407e-01 4.909190e-01 4.437441e-01 4.307316e-01 4.029580e-01 3.639863e-01 3.343430e-01 2.742823e-01 8.547675e-01
<GCONST> 1.117934e+02
<STATE> 3
<NUMMIXES> 8
<MIXTURE> 1 7.607105e-02
<MEAN> 39
 -1.484195e+01 -1.972633e+01 -1.496290e+01 -2.932610e+00 -4.177912e+00 -1.175540e+01 -1.196997e+00 -5.735481e-01 -3.725743e+00 -2.625551e+00 4.281636e-01 -8.475344e-01 8.185863e+01 4.465255e-01 -3.890215e-01 -3.607021e-03 1.237190e-01 1.644206e-01 4.036845e-01 9.469571e-01 3.276218e-01 3.381120e-01 3.878449e-01 3.537217e-01 1.491523e-01 -8.066162e-01 3.749655e-01 6.796895e-01 5.627611e-01 4.187629e-01 5.504162e-01 3.681047e-01 4.895389e-02 -4.964252e-02 8.296732e-03 -3.096890e-02 -6.962944e-02 -5.045910e-02 -1.475271e+00
<VARIANCE> 39
 8.133091e+00 1.822348e+01 1.589536e+01 2.064487e+01 2.617559e+01 1.814425e+01 3.232154e+01 2.371083e+01 2.454282e+01 2.461766e+01 1.672647e+01 1.483566e+01 1.355292e+01 2.391230e-01 6.879091e-01 6.842290e-01 1.333994e+00 1.508889e+00 1.573372e+00 1.964307e+00 2.351957e+00 2.237083e+00 1.707633e+00 1.459986e+00 1.403694e+00 5.436837e-01 1.215870e-01 2.256830e-01 1.889245e-01 3.023276e-01 3.275515e-01 4.025305e-01 4.673262e-01 4.087116e-01 4.073103e-01 3.578583e-01 2.825235e-01 2.637146e-01 7.954667e-01
<GCONST> 9.685449e+01
<MIXTURE> 2 2.472233e-01
<MEAN> 39
 -1.068454e+01 -1.798640e+01 -1.162766e+01 6.857712e-01 1.924586e-01 -1.003301e+01 5.255287e-01 -1.114434e+00 -4.373648e+00 -2.730420e+00 9.631112e-01 -6.110802e-01 6.919283e+01 2.941088e-01 1.790337e-01 2.619841e-01 2.549095e-01 3.029259e-01 1.716375e-01 1.300041e-01 4.340288e-02 9.085682e-03 1.232255e-02 5.469527e-02 4.669821e-02 -9.180882e-01 -9.899289e-03 1.858128e-02 7.070859e-03 -2.751505e-03 -4.163824e-03 1.058159e-02 -5.778982e-03 1.783867e-02 1.124918e-02 6.894336e-03 2.948869e-03 2.434993e-03 1.342876e-02
<VARIANCE> 39
 1.055305e+01 2.005367e+01 1.858211e+01 2.046939e+01 3.212337e+01 2.018397e+01 2.970189e+01 2.219914e+01 2.283202e+01 2.246551e+01 1.625686e+01 1.512295e+01 5.490821e+01 9.479152e-02 2.321324e-01 3.679063e-01 5.967364e-01 8.148621e-01 9.770460e-01 1.122482e+00 1.223204e+00 1.282211e+00 1.296248e+00 1.207474e+00 1.134721e+00 3.442554e-02 1.906287e-02 4.558744e-02 7.385033e-02 1.213896e-01 1.671169e-01 1.985308e-01 2.362622e-01 2.573875e-01 2.697130e-01 2.727977e-01 2.493331e-01 2.368400e-01 5.658203e-03
<GCONST> 7.531793e+01
<MIXTURE> 3 2.472218e-01
<MEAN> 39
 -1.068456e+01 -1.798643e+01 -1.162768e+01 6.857646e-01 1.924385e-01 -1.003305e+01 5.255281e-01 -1.114412e+00 -4.373646e+00 -2.730413e+00 9.631535e-01 -6.110511e-01 6.919288e+01 2.941087e-01 1.790334e-01 2.619847e-01 2.549099e-01 3.029268e-01 1.716376e-01 1.300051e-01 4.340399e-02 9.088038e-03 1.232490e-02 5.469669e-02 4.669821e-02 -9.180887e-01 -9.899084e-03 1.858201e-02 7.072113e-03 -2.749860e-03 -4.161645e-03 1.058341e-02 -5.779037e-03 1.783676e-02 1.124675e-02 6.890583e-03 2.943910e-03 2.431341e-03 1.342871e-02
<VARIANCE> 39
 1.055301e+01 2.005346e+01 1.858204e+01 2.046925e+01 3.212312e+01 2.018385e+01 2.970173e+01 2.219899e+01 2.283199e+01 2.246529e+01 1.625673e+01 1.512296e+01 5.490781e+01 9.479129e-02 2.321308e-01 3.679039e-01 5.967348e-01 8.148608e-01 9.770445e-01 1.122478e+00 1.223204e+00 1.282209e+00 1.296247e+00 1.207472e+00 1.134720e+00 3.442533e-02 1.906296e-02 4.558766e-02 7.385074e-02 1.213896e-01 1.671165e-01 1.985301e-01 2.362622e-01 2.573871e-01 2.697119e-01 2.727957e-01 2.493310e-01 2.368404e-01 5.658206e-03
<GCONST> 7.531778e+01
<MIXTURE> 4 2.718384e-02
<MEAN> 39
 -6.950456e+00 -1.269504e+01 -6.942037e+00 3.502550e+00 4.339506e+00 -5.413189e+00 2.604319e+00 1.592907e+00 -2.502366e+00 -1.640660e+00 1.533043e+00 -2.071158e-01 5.674625e+01 1.079813e-01 5.673931e-01 2.468445e-01 -2.798638e-03 8.456494e-04 3.372962e-01 1.290955e-02 1.958937e-01 1.796952e-01 9.286977e-02 -4.510802e-02 -2.207349e-02 -5.268007e-01 -3.705708e-01 -5.426436e-02 -2.393661e-01 -2.817959e-01 -3.084591e-01 -2.907713e-01 -3.559093e-01 -1.694774e-01 -7.607663e-02 -9.957384e-02 -1.120931e-01 -5.988912e-02 8.856413e-01
<VARIANCE> 39
 6.850981e+00 2.823738e+01 1.716835e+01 2.066756e+01 2.864932e+01 2.396057e+01 2.991030e+01 2.241386e+01 2.255667e+01 2.051159e+01 1.535484e+01 1.433645e+01 2.896176e+01 2.443388e-01 3.819830e-01 4.877153e-01 7.510726e-01 9.772032e-01 1.191125e+00 1.268642e+00 1.304744e+00 1.347322e+00 1.322136e+00 1.316725e+00 1.147478e+00 2.020203e-01 1.324051e-01 1.667934e-01 1.723935e-01 2.422587e-01 2.953020e-01 3.576116e-01 3.655429e-01 3.513519e-01 3.575134e-01 3.325318e-01 3.060741e-01 2.753675e-01 7.465561e-01
<GCONST> 9.123667e+01
<MIXTURE> 5 2.472240e-01
<MEAN> 39
 -1.068467e+01 -1.798654e+01 -1.162765e+01 6.857457e-01 1.922234e-01 -1.003298e+01 5.256603e-01 -1.114573e+00 -4.373724e+00 -2.730342e+00 9.629779e-01 -6.112483e-01 6.919314e+01 2.941088e-01 1.790261e-01 2.619780e-01 2.549072e-01 3.029224e-01 1.716262e-01 1.299932e-01 4.338427e-02 9.069720e-03 1.231130e-02 5.469041e-02 4.669867e-02 -9.180934e-01 -9.898277e-03 1.858212e-02 7.069490e-03 -2.754015e-03 -4.166183e-03 1.057442e-02 -5.786478e-03 1.783916e-02 1.125151e-02 6.898157e-03 2.962668e-03 2.449671e-03 1.342901e-02
<VARIANCE> 39
 1.055312e+01 2.005397e+01 1.858212e+01 2.046947e+01 3.212373e+01 2.018405e+01 2.970229e+01 2.219957e+01 2.283201e+01 2.246590e+01 1.625716e+01 1.512319e+01 5.490844e+01 9.479187e-02 2.321331e-01 3.679064e-01 5.967420e-01 8.148673e-01 9.770514e-01 1.122491e+00 1.223207e+00 1.282218e+00 1.296254e+00 1.207478e+00 1.134721e+00 3.442561e-02 1.906323e-02 4.558834e-02 7.385110e-02 1.213907e-01 1.671194e-01 1.985320e-01 2.362652e-01 2.573929e-01 2.697157e-01 2.728021e-01 2.493375e-01 2.368449e-01 5.658289e-03
<GCONST> 7.531831e+01
<MIXTURE> 6 2.722894e-02
<MEAN> 39
 -6.947198e+00 -1.268740e+01 -6.934431e+00 3.504555e+00 4.343344e+00 -5.405070e+00 2.609976e+00 1.597796e+00 -2.499572e+00 -1.636554e+00 1.532518e+00 -2.080430e-01 5.673529e+01 1.085700e-01 5.668849e-01 2.466411e-01 -2.541409e-03 6.958502e-04 3.374775e-01 1.361762e-02 1.964355e-01 1.797417e-01 9.282330e-02 -4.494144e-02 -2.211161e-02 -5.275951e-01 -3.705693e-01 -5.479434e-02 -2.397514e-01 -2.818043e-01 -3.086765e-01 -2.913130e-01 -3.560703e-01 -1.698955e-01 -7.648841e-02 -9.972399e-02 -1.118801e-01 -5.986857e-02 8.855947e-01
<VARIANCE> 39
 6.841836e+00 2.824519e+01 1.714680e+01 2.066449e+01 2.865815e+01 2.395297e+01 2.990286e+01 2.241644e+01 2.254927e+01 2.050530e+01 1.535499e+01 1.433672e+01 2.892580e+01 2.434591e-01 3.809861e-01 4.871585e-01 7.504805e-01 9.767460e-01 1.190304e+00 1.267658e+00 1.304073e+00 1.346618e+00 1.321812e+00 1.316314e+00 1.147056e+00 2.003135e-01 1.323660e-01 1.668642e-01 1.724030e-01 2.421408e-01 2.952797e-01 3.576547e-01 3.654867e-01 3.513339e-01 3.575174e-01 3.325213e-01 3.060454e-01 2.753499e-01 7.468028e-01
<GCONST> 9.121141e+01
<MIXTURE> 7 2.718306e-02
<MEAN> 39
 -6.949620e+00 -1.269332e+01 -6.940634e+00 3.503230e+00 4.339851e+00 -5.411209e+00 2.605581e+00 1.593562e+00 -2.501531e+00 -1.639186e+00 1.533098e+00 -2.071552e-01 5.674398e+01 1.074089e-01 5.678907e-01 2.468541e-01 -3.024378e-03 7.895522e-04 3.375178e-01 1.274838e-02 1.960579e-01 1.800236e-01 9.298903e-02 -4.521766e-02 -2.204906e-02 -5.260573e-01 -3.709684e-01 -5.468652e-02 -2.397699e-01 -2.820579e-01 -3.088185e-01 -2.912814e-01 -3.562452e-01 -1.697659e-01 -7.637386e-02 -9.982641e-02 -1.121924e-01 -5.999527e-02 8.868570e-01
<VARIANCE> 39
 6.848963e+00 2.824124e+01 1.716544e+01 2.066926e+01 2.865330e+01 2.396216e+01 2.990885e+01 2.241432e+01 2.255519e+01 2.051315e+01 1.535536e+01 1.433774e+01 2.895373e+01 2.448802e-01 3.825037e-01 4.879221e-01 7.512506e-01 9.774674e-01 1.191421e+00 1.269049e+00 1.304871e+00 1.347712e+00 1.322362e+00 1.316814e+00 1.147528e+00 2.029672e-01 1.325088e-01 1.670461e-01 1.725427e-01 2.424126e-01 2.955098e-01 3.578974e-01 3.656922e-01 3.515163e-01 3.576604e-01 3.326755e-01 3.061485e-01 2.754352e-01 7.476841e-01
<GCONST> 9.125593e+01
<MIXTURE> 8 1.010312e-01
<MEAN> 39
 -1.156975e+01 -1.400651e+01 -1.028210e+01 4.820926e-01 1.737625e-01 -9.140636e+00 -1.768986e+00 -3.834552e-01 -3.419229e+00 -3.128262e+00 9.618267e-02 -1.025799e+00 6.960581e+01 -1.877373e+00 -1.210594e+00 -1.651063e+00 -1.451473e+00 -1.731691e+00 -1.517686e+00 -1.331056e+00 -6.004294e-01 -4.184613e-01 -4.658406e-01 -4.446586e-01 -2.979370e-01 5.759684e+00 1.332790e-01 -3.813852e-01 -1.301323e-01 -2.355457e-02 -5.656753e-02 6.490625e-03 3.065848e-01 5.204595e-02 -2.360307e-03 8.626831e-02 1.204264e-01 6.261280e-02 -1.205209e-02
<VARIANCE> 39
 2.531985e+01 3.138935e+01 2.844684e+01 3.502285e+01 3.945757e+01 4.253490e+01 4.860186e+01 2.941080e+01 3.159209e+01 2.593184e+01 2.004664e+01 1.794713e+01 1.650791e+02 1.132628e+00 3.962038e+00 2.194947e+00 2.649317e+00 3.111330e+00 3.379317e+00 3.603514e+00 2.958557e+00 3.033571e+00 2.585171e+00 1.939121e+00 1.800116e+00 6.241958e+00 5.305150e-01 5.155873e-01 5.322076e-01 5.984107e-01 7.218180e-01 8.291720e-01 8.333807e-01 6.072309e-01 5.794738e-01 4.834920e-01 3.866037e-01 3.447326e-01 4.159671e+00
<GCONST> 1.252749e+02
<STATE> 4
<NUMMIXES> 8
<MIXTURE> 1 2.793649e-01
<MEAN> 39
 -5.214108e+00 -7.984000e-01 -1.834831e+00 -6.942570e-01 2.554972e-01 2.097949e+00 4.487854e+00 4.422976e+00 1.230774e+00 1.563979e+00 5.586527e-01 -1.417878e+00 4.581226e+01 2.267315e-02 1.874173e-01 -2.205071e-02 -1.393856e-01 -5.729520e-02 1.115109e-01 -1.419163e-02 8.357926e-02 8.378410e-02 1.514008e-02 -2.966014e-02 -2.183021e-02 -9.124163e-02 -1.751777e-02 -2.530896e-02 -6.852707e-03 6.181160e-03 2.187864e-03 -2.735200e-02 -1.826418e-02 -3.813817e-02 -2.549061e-02 -1.024347e-02 4.327127e-03 9.000263e-03 2.580264e-02
<VARIANCE> 39
 3.419866e+00 1.113372e+01 8.163511e+00 1.408037e+01 1.355464e+01 1.487515e+01 1.468802e+01 1.545989e+01 1.521254e+01 1.500862e+01 1.279833e+01 1.133788e+01 6.218810e+00 1.252776e-01 2.922554e-01 4.254883e-01 6.550143e-01 8.631673e-01 1.062694e+00 1.182633e+00 1.316882e+00 1.375326e+00 1.338138e+00 1.224214e+00 1.084527e+00 5.542820e-02 2.480510e-02 4.860011e-02 8.359770e-02 1.253767e-01 1.700824e-01 2.119876e-01 2.352978e-01 2.601967e-01 2.749743e-01 2.726551e-01 2.491422e-01 2.190901e-01 1.591098e-02
<GCONST> 6.976688e+01
<MIXTURE> 2 1.957648e-01
<MEAN> 39
 -9.502683e+00 -1.574814e+01 -4.713454e+00 3.039343e+00 -1.717099e+00 -5.304049e+00 4.670242e+00 -2.777883e+00 -2.963391e+00 7.699488e-01 1.191316e+00 -6.434959e-01 6.073748e+01 2.633148e-01 3.377364e-01 2.263051e-01 1.763982e-01 1.960873e-01 2.069127e-01 8.567448e-02 1.865620e-01 4.799048e-02 4.268288e-02 2.273007e-02 5.933240e-03 -7.843577e-01 -1.252554e-02 1.329525e-02 -1.239953e-02 -2.087300e-02 -2.352563e-02 -1.353426e-03 -1.067226e-02 1.692763e-02 8.314300e-03 1.228075e-03 -1.564087e-03 -4.779739e-03 2.251899e-02
<VARIANCE> 39
 1.627982e+01 4.379543e+01 1.978159e+01 2.172680e+01 3.133010e+01 2.421051e+01 2.046462e+01 2.740330e+01 2.423088e+01 2.034601e+01 1.699702e+01 1.433330e+01 7.840314e+01 1.140731e-01 2.707223e-01 4.029781e-01 6.303748e-01 8.613264e-01 1.011444e+00 1.163503e+00 1.246886e+00 1.297909e+00 1.295226e+00 1.244326e+00 1.140684e+00 6.099427e-02 2.002755e-02 4.510991e-02 7.899477e-02 1.216102e-01 1.656358e-01 2.025158e-01 2.360582e-01 2.499240e-01 2.653452e-01 2.639384e-01 2.505529e-01 2.321089e-01 6.168260e-03
<GCONST> 7.831614e+01
<MIXTURE> 3 1.957684e-01
<MEAN> 39
 -9.502968e+00 -1.574872e+01 -4.713793e+00 3.039094e+00 -1.717549e+00 -5.304380e+00 4.670177e+00 -2.778225e+00 -2.963523e+00 7.699404e-01 1.191220e+00 -6.435320e-01 6.073848e+01 2.633214e-01 3.377147e-01 2.263159e-01 1.764205e-01 1.961159e-01 2.069154e-01 8.568650e-02 1.865469e-01 4.798520e-02 4.268377e-02 2.274065e-02 5.943284e-03 -7.843786e-01 -1.252460e-02 1.329778e-02 -1.239384e-02 -2.086491e-02 -2.351649e-02 -1.344688e-03 -1.066633e-02 1.693510e-02 8.318257e-03 1.230485e-03 -1.561832e-03 -4.778785e-03 2.251777e-02
<VARIANCE> 39
 1.628008e+01 4.379565e+01 1.978227e+01 2.172684e+01 3.133061e+01 2.421104e+01 2.046442e+01 2.740311e+01 2.423121e+01 2.034598e+01 1.699723e+01 1.433351e+01 7.840758e+01 1.140707e-01 2.707223e-01 4.029753e-01 6.303694e-01 8.613207e-01 1.011442e+00 1.163499e+00 1.246889e+00 1.297913e+00 1.295235e+00 1.244330e+00 1.140693e+00 6.099233e-02 2.002755e-02 4.511036e-02 7.899483e-02 1.216104e-01 1.656353e-01 2.025173e-01 2.360583e-01 2.499257e-01 2.653481e-01 2.639409e-01 2.505552e-01 2.321126e-01 6.168250e-03
<GCONST> 7.831631e+01
<MIXTURE> 4 2.330745e-02
<MEAN> 39
 -1.167377e+01 -1.339102e+01 -5.907977e+00 -2.050987e-01 -4.977907e+00 -5.062047e+00 3.299592e+00 -1.799308e+00 -1.822429e+00 1.174744e+00 4.860162e-01 -1.107409e+00 6.483566e+01 1.882401e-01 1.113684e-01 8.436891e-02 -6.968801e-02 1.454373e-01 1.382306e-01 2.882328e-01 2.526981e-01 4.257069e-01 7.660428e-02 6.403411e-02 8.464856e-02 -5.014229e-01 2.988263e-02 2.444717e-01 1.169385e-01 1.772199e-01 3.388971e-01 1.098849e-01 -4.438079e-03 -1.883771e-02 -1.437631e-01 -8.030146e-02 -1.685075e-02 -4.557144e-02 -2.745670e-01
<VARIANCE> 39
 3.289959e+01 9.078526e+01 2.607779e+01 2.712527e+01 3.710936e+01 3.631523e+01 2.463095e+01 3.482365e+01 2.494445e+01 1.745557e+01 1.658871e+01 1.369044e+01 2.325814e+02 4.196002e-01 8.247254e-01 6.100236e-01 1.112959e+00 1.329002e+00 1.415308e+00 1.583476e+00 1.703482e+00 2.041969e+00 1.545244e+00 1.389990e+00 1.264776e+00 5.146805e-01 4.612599e-01 9.387532e-01 3.094964e-01 3.524096e-01 5.029596e-01 5.612172e-01 4.266506e-01 5.601174e-01 4.605987e-01 3.510228e-01 3.089500e-01 2.566923e-01 2.927411e+00
<GCONST> 1.093454e+02
<MIXTURE> 5 1.957692e-01
<MEAN> 39
 -9.502835e+00 -1.574846e+01 -4.713628e+00 3.039219e+00 -1.717356e+00 -5.304225e+00 4.670213e+00 -2.778073e+00 -2.963454e+00 7.699690e-01 1.191267e+00 -6.435117e-01 6.073801e+01 2.633188e-01 3.377268e-01 2.263125e-01 1.764126e-01 1.961060e-01 2.069179e-01 8.568448e-02 1.865580e-01 4.799042e-02 4.268459e-02 2.273626e-02 5.938766e-03 -7.843691e-01 -1.252520e-02 1.329672e-02 -1.239639e-02 -2.086831e-02 -2.351958e-02 -1.347796e-03 -1.066887e-02 1.693186e-02 8.315265e-03 1.227486e-03 -1.563653e-03 -4.779270e-03 2.251830e-02
<VARIANCE> 39
 1.628016e+01 4.379569e+01 1.978204e+01 2.172708e+01 3.133058e+01 2.421097e+01 2.046470e+01 2.740346e+01 2.423129e+01 2.034623e+01 1.699723e+01 1.433348e+01 7.840620e+01 1.140729e-01 2.707259e-01 4.029809e-01 6.303782e-01 8.613311e-01 1.011453e+00 1.163512e+00 1.246900e+00 1.297927e+00 1.295244e+00 1.244343e+00 1.140705e+00 6.099357e-02 2.002779e-02 4.511042e-02 7.899527e-02 1.216114e-01 1.656364e-01 2.025180e-01 2.360602e-01 2.499276e-01 2.653497e-01 2.639422e-01 2.505550e-01 2.321126e-01 6.168340e-03
<GCONST> 7.831658e+01
<MIXTURE> 6 2.332328e-02
<MEAN> 39
 -1.162604e+01 -1.331524e+01 -5.869683e+00 -1.837371e-01 -4.932956e+00 -5.016576e+00 3.313571e+00 -1.759416e+00 -1.808935e+00 1.176836e+00 4.883870e-01 -1.109406e+00 6.469012e+01 1.853033e-01 1.150834e-01 8.397057e-02 -6.999312e-02 1.452596e-01 1.378498e-01 2.847318e-01 2.510020e-01 4.227560e-01 7.502058e-02 6.359332e-02 8.348995e-02 -4.980969e-01 2.442561e-02 2.363135e-01 1.128728e-01 1.747650e-01 3.338572e-01 1.047853e-01 -6.444878e-03 -2.329933e-02 -1.454545e-01 -8.036960e-02 -1.684568e-02 -4.536515e-02 -2.585839e-01
<VARIANCE> 39
 3.297622e+01 9.106236e+01 2.606523e+01 2.716066e+01 3.710302e+01 3.638869e+01 2.462494e+01 3.491269e+01 2.494316e+01 1.745324e+01 1.656105e+01 1.367882e+01 2.329667e+02 4.206943e-01 8.245840e-01 6.087640e-01 1.109763e+00 1.325664e+00 1.412465e+00 1.580375e+00 1.700571e+00 2.037229e+00 1.543876e+00 1.389106e+00 1.263763e+00 5.133654e-01 4.629213e-01 9.416550e-01 3.103833e-01 3.526652e-01 5.034397e-01 5.623426e-01 4.269454e-01 5.614358e-01 4.607165e-01 3.512170e-01 3.090518e-01 2.568015e-01 2.936292e+00
<GCONST> 1.093576e+02
<MIXTURE> 7 2.343327e-02
<MEAN> 39
 -1.140074e+01 -1.296539e+01 -5.690707e+00 -8.085413e-02 -4.721953e+00 -4.806016e+00 3.384070e+00 -1.572935e+00 -1.744534e+00 1.190668e+00 5.038531e-01 -1.116327e+00 6.400674e+01 1.727985e-01 1.352447e-01 8.317268e-02 -6.861538e-02 1.488193e-01 1.373470e-01 2.680309e-01 2.421497e-01 4.055020e-01 6.660075e-02 6.120751e-02 7.633533e-02 -4.877559e-01 -3.192636e-03 1.963689e-01 9.280442e-02 1.630194e-01 3.091297e-01 7.949126e-02 -1.704751e-02 -4.607143e-02 -1.552068e-01 -8.176733e-02 -1.757849e-02 -4.480047e-02 -1.786894e-01
<VARIANCE> 39
 3.326760e+01 9.211608e+01 2.594911e+01 2.735263e+01 3.696407e+01 3.664464e+01 2.459271e+01 3.526634e+01 2.494063e+01 1.744466e+01 1.643410e+01 1.363162e+01 2.339512e+02 4.233538e-01 8.158649e-01 6.004450e-01 1.089138e+00 1.304167e+00 1.395255e+00 1.560381e+00 1.681684e+00 2.006670e+00 1.534304e+00 1.382105e+00 1.256845e+00 5.022710e-01 4.675547e-01 9.479941e-01 3.129455e-01 3.536645e-01 5.033095e-01 5.649973e-01 4.276805e-01 5.653166e-01 4.606945e-01 3.520483e-01 3.095283e-01 2.573506e-01 2.951197e+00
<GCONST> 1.092937e+02
<MIXTURE> 8 6.333710e-02
<MEAN> 39
 -1.149489e+01 -9.797982e+00 -5.214924e+00 7.766733e-01 -3.186618e+00 -3.604879e+00 2.766465e+00 -1.107633e+00 -2.755631e+00 8.004006e-01 3.175058e-01 -1.725592e+00 6.262871e+01 -2.455420e+00 -3.200839e+00 -1.478847e+00 -7.700877e-01 -1.702296e+00 -1.940668e+00 -7.842854e-01 -1.996149e+00 -9.139177e-01 -3.410903e-01 -1.863311e-01 -7.785819e-02 6.875213e+00 1.474836e-01 -2.784109e-01 -3.182438e-02 -7.180794e-02 -1.944152e-01 -3.766514e-02 1.461654e-01 4.687742e-02 1.759334e-01 7.558746e-02 -7.252668e-03 4.210472e-02 1.035416e-02
<VARIANCE> 39
 3.834877e+01 8.737891e+01 2.683450e+01 3.105110e+01 3.643232e+01 4.384604e+01 2.945127e+01 5.005737e+01 3.759217e+01 2.030303e+01 2.081293e+01 1.721869e+01 2.563553e+02 2.083302e+00 8.959638e+00 2.304576e+00 3.086169e+00 3.610404e+00 3.505937e+00 3.031024e+00 3.830833e+00 3.702997e+00 2.266247e+00 2.122836e+00 1.787004e+00 1.242572e+01 8.694105e-01 1.798477e+00 5.262635e-01 4.927844e-01 7.699577e-01 9.178975e-01 5.933325e-01 1.132080e+00 7.913637e-01 4.238394e-01 3.881194e-01 3.322301e-01 6.302464e+00
<GCONST> 1.321689e+02
<TRANSP> 5
 0.000000e+00 1.000000e+00 0.000000e+00 0.000000e+00 0.000000e+00
 0.000000e+00 9.929960e-01 7.004059e-03 0.000000e+00 0.000000e+00
 0.000000e+00 0.000000e+00 9.867959e-01 1.320405e-02 0.000000e+00
 0.000000e+00 0.000000e+00 0.000000e+00 9.852095e-01 1.479050e-02
 0.000000e+00 0.000000e+00 0.000000e+00 0.000000e+00 0.000000e+00
<ENDHMM>
~h "cl"
<BEGINHMM>
<NUMSTATES> 5
<STATE> 2
<NUMMIXES> 8
<MIXTURE> 1 1.440123e-01
<MEAN> 39
 -9.736414e+00 -6.382842e+00 -4.730358e+00 -4.188368e+00 -1.641783e+00 -8.698322e-01 1.716245e+00 3.077178e-01 -2.772164e-01 -1.791534e+00 -1.382993e+00 -1.657787e+00 5.581551e+01 2.233487e-01 1.774941e-01 1.841236e-01 1.861013e-01 2.581810e-01 2.695754e-01 3.393097e-01 2.211977e-01 7.882366e-02 1.627879e-01 1.317081e-01 -2.359890e-02 -4.031719e-01 2.039781e-02 9.836484e-02 1.315055e-01 1.407486e-01 1.694777e-01 2.397071e-01 2.236757e-01 2.153823e-01 2.578529e-01 2.034857e-01 1.114754e-01 1.131647e-01 3.170164e-02
<VARIANCE> 39
 2.165868e+01 2.508690e+01 8.653135e+00 1.443529e+01 1.775770e+01 2.958544e+01 2.104556e+01 1.742099e+01 1.935363e+01 1.896107e+01 1.588008e+01 1.506283e+01 5.970409e+01 1.892435e-01 3.018385e-01 4.385912e-01 6.987553e-01 8.564336e-01 1.086888e+00 1.245769e+00 1.322442e+00 1.450123e+00 1.428683e+00 1.290956e+00 1.208160e+00 1.805138e-01 2.669700e-02 5.340148e-02 8.362311e-02 1.320942e-01 1.672466e-01 2.011832e-01 2.239333e-01 2.358723e-01 2.536950e-01 2.636464e-01 2.406754e-01 2.269682e-01 8.427679e-03
<GCONST> 7.850653e+01
<MIXTURE> 2 1.693716e-01
<MEAN> 39
 -1.109900e+01 -5.647798e-01 -5.607453e-02 -4.317497e+00 -1.477271e+00 7.167752e+00 4.734373e+00 5.192701e-01 5.218199e+00 5.016284e-01 -3.255417e+00 1.814629e+00 5.144997e+01 3.679120e-01 -8.474857e-02 -9.351631e-02 8.922571e-03 4.736336e-02 -1.168704e-01 5.940049e-03 3.959110e-02 -1.075828e-01 8.857517e-03 6.944039e-02 -1.080065e-01 -2.857465e-01 -2.487567e-02 -1.810762e-02 -4.362998e-02 -3.535206e-02 -4.512149e-02 -7.728385e-02 -7.873838e-02 -4.372152e-02 -8.406783e-02 -4.779146e-02 -1.181612e-02 -3.888077e-02 1.060896e-02
<VARIANCE> 39
 3.050843e+01 1.451429e+01 3.520695e+01 1.461792e+01 1.963711e+01 3.119039e+01 1.969297e+01 2.719971e+01 3.410756e+01 2.011494e+01 2.672250e+01 2.377753e+01 1.696374e+01 2.588229e-01 3.308630e-01 5.255859e-01 7.078391e-01 9.715102e-01 1.288297e+00 1.312696e+00 1.466995e+00 1.574218e+00 1.413384e+00 1.335603e+00 1.258646e+00 1.131161e-01 3.361003e-02 5.396374e-02 9.498741e-02 1.318633e-01 1.799317e-01 2.275274e-01 2.464063e-01 2.784777e-01 2.889942e-01 2.766605e-01 2.643639e-01 2.424850e-01 1.195818e-02
<GCONST> 8.283713e+01
<MIXTURE> 3 1.693761e-01
<MEAN> 39
 -1.109482e+01 -5.663880e-01 -5.985609e-02 -4.315417e+00 -1.474033e+00 7.164328e+00 4.735730e+00 5.232985e-01 5.214298e+00 5.024655e-01 -3.251529e+00 1.810983e+00 5.144874e+01 3.677267e-01 -8.469380e-02 -9.344974e-02 8.820974e-03 4.733914e-02 -1.168477e-01 5.925042e-03 3.956543e-02 -1.076599e-01 8.845515e-03 6.944811e-02 -1.080285e-01 -2.856345e-01 -2.491928e-02 -1.812402e-02 -4.361852e-02 -3.544067e-02 -4.522754e-02 -7.727675e-02 -7.884018e-02 -4.387062e-02 -8.403917e-02 -4.787499e-02 -1.192875e-02 -3.881112e-02 1.062798e-02
<VARIANCE> 39
 3.050257e+01 1.451358e+01 3.518037e+01 1.461345e+01 1.963017e+01 3.117828e+01 1.969048e+01 2.718487e+01 3.409475e+01 2.010989e+01 2.671297e+01 2.376855e+01 1.695834e+01 2.588013e-01 3.308459e-01 5.254946e-01 7.077990e-01 9.714007e-01 1.288139e+00 1.312655e+00 1.466855e+00 1.574061e+00 1.413317e+00 1.335521e+00 1.258576e+00 1.131178e-01 3.360206e-02 5.395921e-02 9.497370e-02 1.318501e-01 1.799097e-01 2.274848e-01 2.463972e-01 2.784449e-01 2.889683e-01 2.766412e-01 2.643460e-01 2.424760e-01 1.195382e-02
<GCONST> 8.283006e+01
<MIXTURE> 4 7.752071e-02
<MEAN> 39
 -1.391631e+01 -2.015594e+00 -1.252553e+00 -4.161451e+00 -2.157218e+00 4.508404e+00 2.367507e+00 -1.016145e-02 3.837505e+00 -1.128891e-01 -2.740172e+00 1.570960e+00 5.674068e+01 -2.564784e-01 1.762676e-01 1.177072e-01 -4.435080e-02 -9.202289e-02 2.834888e-01 -3.254848e-02 -1.428208e-01 1.758022e-01 -7.838812e-02 -1.842144e-01 2.000877e-01 2.117900e-02 -7.293654e-02 2.855237e-02 4.112480e-02 -2.023507e-03 -4.568862e-02 3.151732e-02 -1.044554e-02 -2.526853e-02 1.115397e-02 -1.462265e-02 -3.835321e-02 1.525543e-02 2.621292e-02
<VARIANCE> 39
 3.620083e+01 4.714555e+01 3.390629e+01 1.660104e+01 1.991727e+01 5.656171e+01 2.455528e+01 2.773790e+01 3.238535e+01 2.238745e+01 2.693809e+01 2.204409e+01 8.747696e+01 1.046702e+00 7.984468e-01 8.096896e-01 9.767409e-01 1.275008e+00 1.905733e+00 1.665700e+00 1.959139e+00 2.206817e+00 1.735847e+00 1.859003e+00 1.591469e+00 5.859119e-01 4.553092e-01 1.838642e-01 1.759654e-01 1.941390e-01 2.524987e-01 4.095396e-01 3.352674e-01 4.057104e-01 4.292304e-01 3.634582e-01 3.662578e-01 3.018268e-01 3.318804e-01
<GCONST> 1.047129e+02
<MIXTURE> 5 1.693488e-01
<MEAN> 39
 -1.111319e+01 -5.596272e-01 -4.296626e-02 -4.324315e+00 -1.488106e+00 7.179116e+00 4.730255e+00 5.059893e-01 5.231517e+00 4.992020e-01 -3.268427e+00 1.826734e+00 5.145408e+01 3.684882e-01 -8.491217e-02 -9.374400e-02 9.235496e-03 4.740760e-02 -1.169458e-01 5.945920e-03 3.965819e-02 -1.073140e-01 8.888060e-03 6.938803e-02 -1.079059e-01 -2.860970e-01 -2.472699e-02 -1.805088e-02 -4.367495e-02 -3.507311e-02 -4.479189e-02 -7.733641e-02 -7.844879e-02 -4.327289e-02 -8.419191e-02 -4.755086e-02 -1.145846e-02 -3.910325e-02 1.054732e-02
<VARIANCE> 39
 3.052887e+01 1.451704e+01 3.529696e+01 1.463528e+01 1.966302e+01 3.123309e+01 1.970405e+01 2.725361e+01 3.415237e+01 2.013505e+01 2.675843e+01 2.381000e+01 1.698215e+01 2.589352e-01 3.309704e-01 5.259646e-01 7.080946e-01 9.720201e-01 1.289039e+00 1.313031e+00 1.467683e+00 1.574905e+00 1.413766e+00 1.336080e+00 1.259001e+00 1.131290e-01 3.364621e-02 5.398848e-02 9.505089e-02 1.319335e-01 1.800342e-01 2.277059e-01 2.464866e-01 2.786463e-01 2.891214e-01 2.767761e-01 2.644875e-01 2.425575e-01 1.197655e-02
<GCONST> 8.286633e+01
<MIXTURE> 6 7.753582e-02
<MEAN> 39
 -1.391306e+01 -1.995979e+00 -1.243829e+00 -4.163955e+00 -2.153822e+00 4.527624e+00 2.373507e+00 -7.048717e-03 3.843090e+00 -1.093195e-01 -2.744296e+00 1.577248e+00 5.671120e+01 -2.583797e-01 1.765612e-01 1.176763e-01 -4.486826e-02 -9.256652e-02 2.839592e-01 -3.290753e-02 -1.428037e-01 1.761619e-01 -7.848704e-02 -1.844046e-01 2.004470e-01 2.328659e-02 -7.323771e-02 2.830688e-02 4.101997e-02 -2.033172e-03 -4.581759e-02 3.132701e-02 -1.062887e-02 -2.544062e-02 1.122497e-02 -1.464266e-02 -3.831195e-02 1.519957e-02 2.679127e-02
<VARIANCE> 39
 3.621421e+01 4.695256e+01 3.394473e+01 1.660015e+01 1.991006e+01 5.647467e+01 2.454290e+01 2.773520e+01 3.237935e+01 2.237940e+01 2.695182e+01 2.204247e+01 8.709083e+01 1.048203e+00 7.997062e-01 8.106533e-01 9.771894e-01 1.275573e+00 1.907559e+00 1.666555e+00 1.960506e+00 2.208205e+00 1.736525e+00 1.860423e+00 1.592188e+00 5.855378e-01 4.561996e-01 1.839540e-01 1.761074e-01 1.941822e-01 2.526109e-01 4.098523e-01 3.353631e-01 4.059680e-01 4.294051e-01 3.635349e-01 3.665228e-01 3.018839e-01 3.318470e-01
<GCONST> 1.047191e+02
<MIXTURE> 7 7.754248e-02
<MEAN> 39
 -1.391274e+01 -1.991306e+00 -1.241792e+00 -4.164650e+00 -2.153230e+00 4.532342e+00 2.374759e+00 -6.585113e-03 3.844583e+00 -1.086152e-01 -2.745484e+00 1.578944e+00 5.670472e+01 -2.588656e-01 1.766384e-01 1.176930e-01 -4.500803e-02 -9.271371e-02 2.840980e-01 -3.300682e-02 -1.428367e-01 1.762580e-01 -7.853192e-02 -1.844835e-01 2.005558e-01 2.379587e-02 -7.324624e-02 2.823163e-02 4.098562e-02 -2.029703e-03 -4.582799e-02 3.126868e-02 -1.065203e-02 -2.545721e-02 1.123085e-02 -1.463548e-02 -3.828138e-02 1.517030e-02 2.688624e-02
<VARIANCE> 39
 3.621584e+01 4.690865e+01 3.395487e+01 1.660039e+01 1.990869e+01 5.645683e+01 2.454004e+01 2.773482e+01 3.237901e+01 2.237785e+01 2.695533e+01 2.204252e+01 8.699616e+01 1.048613e+00 8.000313e-01 8.109058e-01 9.773227e-01 1.275735e+00 1.908065e+00 1.666764e+00 1.960881e+00 2.208597e+00 1.736728e+00 1.860793e+00 1.592394e+00 5.854859e-01 4.563500e-01 1.839657e-01 1.761371e-01 1.941906e-01 2.526341e-01 4.099127e-01 3.353748e-01 4.060232e-01 4.294423e-01 3.635493e-01 3.665844e-01 3.018930e-01 3.317680e-01
<GCONST> 1.047206e+02
<MIXTURE> 8 1.152687e-01
<MEAN> 39
 -1.222084e+01 -7.220335e-01 -4.407745e-01 -3.370618e+00 -1.598481e+00 3.113099e+00 2.801826e+00 1.536205e+00 2.627480e+00 9.202946e-01 -1.171191e+00 2.848017e-02 5.366243e+01 -3.339280e+00 4.914518e-02 1.749838e-01 -4.042262e-01 -9.293737e-01 5.119116e-01 -8.803436e-01 -1.077927e+00 5.053942e-01 -3.221285e-01 -8.691578e-01 6.552883e-01 3.246682e+00 -1.837273e-01 -7.915164e-02 6.718473e-02 -9.032440e-02 -1.242014e-01 3.031991e-01 -3.297425e-02 -2.917652e-01 1.624607e-01 -5.557918e-02 -3.096606e-01 2.035648e-01 1.514376e-01
<VARIANCE> 39
 5.595787e+01 3.198411e+01 2.917868e+01 1.858119e+01 2.409344e+01 4.566022e+01 2.887459e+01 2.834004e+01 3.208031e+01 2.698691e+01 2.278649e+01 1.904121e+01 9.363046e+01 3.913691e+00 3.264758e+00 2.102858e+00 1.837682e+00 2.328379e+00 5.895934e+00 3.103149e+00 4.024208e+00 3.895952e+00 3.392473e+00 3.220392e+00 2.531071e+00 4.529498e+00 1.159373e+00 3.365885e-01 2.629206e-01 2.761195e-01 4.465156e-01 6.523889e-01 5.135522e-01 6.022817e-01 5.311232e-01 4.747891e-01 4.416307e-01 3.646754e-01 1.432565e+00
<GCONST> 1.229678e+02
<STATE> 3
<NUMMIXES> 8
<MIXTURE> 1 8.338002e-02
<MEAN> 39
 -1.730276e+01 1.681368e+00 3.641366e-01 -7.643132e+00 -4.855181e+00 1.354511e+01 -1.131494e-01 -2.192297e+00 1.101372e+01 -4.091710e+00 -3.596103e+00 6.276097e+00 5.626650e+01 -1.663544e+00 3.994485e-01 -2.239377e-01 3.210281e-01 4.409396e-01 -9.261292e-01 4.216800e-01 5.177962e-01 -8.246796e-01 2.120932e-01 2.869669e-01 -8.441609e-01 1.177392e+00 -8.588656e-01 4.786817e-02 9.567474e-03 1.185284e-01 3.413586e-02 -9.450119e-02 7.013942e-02 5.790586e-02 -1.603187e-01 -6.434440e-02 -1.323250e-01 -1.020157e-01 6.494059e-01
<VARIANCE> 39
 3.122966e+01 7.611628e+00 1.745345e+01 9.975308e+00 1.443970e+01 2.272006e+01 2.097333e+01 1.815700e+01 2.152935e+01 1.792477e+01 1.800912e+01 1.685023e+01 1.449225e+01 2.141960e+00 7.243752e-01 1.130446e+00 1.354592e+00 1.638485e+00 2.646334e+00 2.741035e+00 2.274045e+00 2.456631e+00 2.100619e+00 1.945900e+00 2.197245e+00 1.044262e+00 2.522203e-01 1.132173e-01 1.683884e-01 1.811966e-01 2.471444e-01 3.853295e-01 3.801927e-01 3.648334e-01 3.995802e-01 3.663513e-01 3.284195e-01 3.548997e-01 1.196341e-01
<GCONST> 9.812080e+01
<MIXTURE> 2 1.728834e-01
<MEAN> 39
 -2.110575e+01 2.920015e+00 -1.993519e-02 -7.251838e+00 -4.860024e+00 1.366229e+01 7.496319e-01 -2.459260e+00 9.930383e+00 -4.054274e+00 -4.788696e+00 6.090819e+00 5.894650e+01 6.937819e-01 -2.325395e-02 -7.405201e-02 -2.684407e-02 7.408118e-02 -2.446716e-02 7.108882e-02 1.688612e-02 7.829485e-02 8.221255e-02 1.046632e-01 -1.196539e-02 -5.361928e-01 -2.780664e-03 -2.505920e-03 -5.087124e-02 3.114472e-02 2.419653e-02 -9.635333e-02 4.259059e-03 3.343668e-02 -8.291814e-02 4.579649e-02 5.616816e-02 -6.884245e-02 5.935269e-03
<VARIANCE> 39
 2.803149e+01 8.156274e+00 1.637906e+01 1.093688e+01 1.442832e+01 2.509760e+01 2.358686e+01 1.923462e+01 2.228937e+01 1.930437e+01 1.769115e+01 1.823531e+01 1.507822e+01 1.998698e-01 2.972326e-01 5.464418e-01 7.357866e-01 9.324432e-01 1.280327e+00 1.372071e+00 1.368518e+00 1.479723e+00 1.451107e+00 1.307236e+00 1.237179e+00 9.580096e-02 6.209933e-02 5.692834e-02 1.160972e-01 1.501431e-01 2.004105e-01 2.722859e-01 2.948305e-01 2.852352e-01 3.098032e-01 3.061818e-01 2.740567e-01 2.648177e-01 3.379232e-02
<GCONST> 8.138854e+01
<MIXTURE> 3 1.728746e-01
<MEAN> 39
 -2.110639e+01 2.919952e+00 -1.966695e-02 -7.251886e+00 -4.860221e+00 1.366248e+01 7.494786e-01 -2.459373e+00 9.930476e+00 -4.054546e+00 -4.788915e+00 6.091013e+00 5.894695e+01 6.937737e-01 -2.323080e-02 -7.402489e-02 -2.686561e-02 7.407210e-02 -2.443080e-02 7.108852e-02 1.687057e-02 7.833189e-02 8.220960e-02 1.046482e-01 -1.194521e-02 -5.361999e-01 -2.770868e-03 -2.498592e-03 -5.088277e-02 3.115100e-02 2.421259e-02 -9.636951e-02 4.274243e-03 3.345229e-02 -8.292431e-02 4.581905e-02 5.618855e-02 -6.885952e-02 5.927745e-03
<VARIANCE> 39
 2.803054e+01 8.156295e+00 1.637899e+01 1.093693e+01 1.442852e+01 2.509779e+01 2.358729e+01 1.923483e+01 2.228940e+01 1.930476e+01 1.769126e+01 1.823574e+01 1.507836e+01 1.998768e-01 2.972329e-01 5.464554e-01 7.357938e-01 9.324508e-01 1.280337e+00 1.372084e+00 1.368517e+00 1.479728e+00 1.451113e+00 1.307238e+00 1.237188e+00 9.580757e-02 6.210862e-02 5.693030e-02 1.161016e-01 1.501472e-01 2.004153e-01 2.722947e-01 2.948388e-01 2.852394e-01 3.098091e-01 3.061875e-01 2.740614e-01 2.648253e-01 3.380000e-02
<GCONST> 8.138945e+01
<MIXTURE> 4 8.678013e-02
<MEAN> 39
 -1.749207e+01 1.576275e+00 -2.493848e+00 -6.400487e+00 -4.407648e+00 1.000282e+01 4.782054e-01 -2.165046e+00 6.884530e+00 -3.274521e+00 -3.309767e+00 4.237596e+00 5.817461e+01 1.735908e-01 -9.624556e-02 7.275882e-02 -5.853748e-02 -1.202824e-01 1.523611e-01 -8.487149e-02 -1.074201e-01 2.445738e-02 -2.473291e-02 -5.269760e-02 9.641422e-02 -1.802743e-01 1.986864e-02 3.078162e-02 5.625260e-02 -2.792894e-02 3.518311e-03 5.647701e-02 -5.482411e-03 2.748370e-02 5.850244e-02 -1.545227e-02 -1.670567e-02 2.213263e-02 -2.258627e-02
<VARIANCE> 39
 7.297295e+01 1.436587e+01 2.295255e+01 1.414843e+01 1.818010e+01 4.025328e+01 3.186468e+01 2.561567e+01 2.918879e+01 2.065148e+01 1.981884e+01 2.122970e+01 3.267786e+01 4.819416e-01 4.136201e-01 7.017537e-01 8.592620e-01 1.169953e+00 1.662756e+00 1.680674e+00 1.581357e+00 1.760064e+00 1.608787e+00 1.505716e+00 1.499877e+00 2.485519e-01 3.575602e-01 1.088227e-01 1.615894e-01 1.884900e-01 2.583051e-01 3.734378e-01 3.942257e-01 3.486763e-01 3.843242e-01 3.460219e-01 3.229453e-01 3.291429e-01 1.948134e-01
<GCONST> 9.667770e+01
<MIXTURE> 5 1.728745e-01
<MEAN> 39
 -2.110617e+01 2.919968e+00 -1.971813e-02 -7.251883e+00 -4.860166e+00 1.366244e+01 7.495015e-01 -2.459328e+00 9.930497e+00 -4.054460e+00 -4.788835e+00 6.090969e+00 5.894678e+01 6.937793e-01 -2.323876e-02 -7.403704e-02 -2.686106e-02 7.407396e-02 -2.444754e-02 7.108716e-02 1.687515e-02 7.831697e-02 8.220768e-02 1.046512e-01 -1.195396e-02 -5.362005e-01 -2.774474e-03 -2.501150e-03 -5.088060e-02 3.114927e-02 2.420815e-02 -9.636514e-02 4.270671e-03 3.344649e-02 -8.292492e-02 4.581111e-02 5.618105e-02 -6.885514e-02 5.930313e-03
<VARIANCE> 39
 2.803065e+01 8.156265e+00 1.637907e+01 1.093689e+01 1.442840e+01 2.509758e+01 2.358711e+01 1.923472e+01 2.228937e+01 1.930447e+01 1.769105e+01 1.823537e+01 1.507824e+01 1.998722e-01 2.972299e-01 5.464476e-01 7.357869e-01 9.324443e-01 1.280333e+00 1.372075e+00 1.368515e+00 1.479717e+00 1.451101e+00 1.307230e+00 1.237178e+00 9.580404e-02 6.210425e-02 5.692918e-02 1.160999e-01 1.501458e-01 2.004126e-01 2.722903e-01 2.948344e-01 2.852364e-01 3.098060e-01 3.061822e-01 2.740571e-01 2.648194e-01 3.379659e-02
<GCONST> 8.138889e+01
<MIXTURE> 6 8.676737e-02
<MEAN> 39
 -1.750226e+01 1.578032e+00 -2.489804e+00 -6.401252e+00 -4.408665e+00 1.000798e+01 4.775584e-01 -2.165399e+00 6.888643e+00 -3.276564e+00 -3.312162e+00 4.240531e+00 5.817941e+01 1.735374e-01 -9.622527e-02 7.294092e-02 -5.866326e-02 -1.205444e-01 1.527706e-01 -8.499961e-02 -1.076783e-01 2.481930e-02 -2.491414e-02 -5.289071e-02 9.680469e-02 -1.801590e-01 2.029516e-02 3.074696e-02 5.612472e-02 -2.793083e-02 3.596949e-03 5.629218e-02 -5.388365e-03 2.752194e-02 5.837514e-02 -1.533955e-02 -1.657001e-02 2.196973e-02 -2.288882e-02
<VARIANCE> 39
 7.295754e+01 1.435853e+01 2.295010e+01 1.414789e+01 1.817939e+01 4.024361e+01 3.186316e+01 2.561139e+01 2.918756e+01 2.065343e+01 1.982104e+01 2.123217e+01 3.266848e+01 4.822014e-01 4.137036e-01 7.020197e-01 8.595181e-01 1.170254e+00 1.663204e+00 1.681181e+00 1.581602e+00 1.760427e+00 1.609101e+00 1.505948e+00 1.500153e+00 2.486895e-01 3.578576e-01 1.088480e-01 1.616611e-01 1.885364e-01 2.583755e-01 3.735753e-01 3.943697e-01 3.487358e-01 3.844098e-01 3.460940e-01 3.230047e-01 3.292344e-01 1.950155e-01
<GCONST> 9.668488e+01
<MIXTURE> 7 8.678015e-02
<MEAN> 39
 -1.749241e+01 1.576322e+00 -2.493700e+00 -6.400619e+00 -4.407856e+00 1.000298e+01 4.779346e-01 -2.165204e+00 6.884731e+00 -3.274671e+00 -3.309894e+00 4.237823e+00 5.817485e+01 1.735941e-01 -9.624919e-02 7.276430e-02 -5.854329e-02 -1.202917e-01 1.523696e-01 -8.487584e-02 -1.074355e-01 2.446662e-02 -2.474569e-02 -5.270734e-02 9.642596e-02 -1.802787e-01 1.988539e-02 3.078371e-02 5.624435e-02 -2.791920e-02 3.538064e-03 5.646735e-02 -5.457297e-03 2.749747e-02 5.849015e-02 -1.544082e-02 -1.669600e-02 2.211211e-02 -2.259899e-02
<VARIANCE> 39
 7.297160e+01 1.436558e+01 2.295282e+01 1.414848e+01 1.818022e+01 4.025356e+01 3.186494e+01 2.561572e+01 2.918865e+01 2.065133e+01 1.981865e+01 2.122962e+01 3.267719e+01 4.819437e-01 4.136204e-01 7.017578e-01 8.592606e-01 1.169954e+00 1.662756e+00 1.680669e+00 1.581350e+00 1.760055e+00 1.608791e+00 1.505711e+00 1.499869e+00 2.485559e-01 3.575706e-01 1.088238e-01 1.615915e-01 1.884921e-01 2.583072e-01 3.734418e-01 3.942287e-01 3.486768e-01 3.843239e-01 3.460211e-01 3.229437e-01 3.291427e-01 1.948203e-01
<GCONST> 9.667778e+01
<MIXTURE> 8 1.374400e-01
<MEAN> 39
 -2.440469e+01 2.592124e+00 -5.756692e-01 -6.001755e+00 -4.103691e+00 9.901030e+00 6.600768e-01 -9.025238e-01 7.225017e+00 -3.618385e+00 -3.601194e+00 3.533077e+00 6.239945e+01 -1.863918e+00 2.197718e-02 2.352854e-01 3.920155e-02 -3.540277e-01 3.883331e-01 -3.568822e-01 -3.061172e-01 1.385429e-01 -4.112438e-01 -5.432606e-01 4.228173e-01 1.628428e+00 5.884641e-01 -1.003886e-01 6.655672e-02 -1.243318e-01 -9.175473e-02 2.546449e-01 -2.670965e-02 -1.805768e-01 2.550068e-01 -7.064290e-02 -6.868582e-02 2.389900e-01 -4.398150e-01
<VARIANCE> 39
 5.445324e+01 1.298801e+01 1.939174e+01 1.801243e+01 2.008139e+01 3.950537e+01 3.500301e+01 2.550199e+01 3.033107e+01 2.331399e+01 2.136090e+01 2.446502e+01 2.375369e+01 3.865959e+00 1.195662e+00 1.759438e+00 1.474676e+00 2.098669e+00 3.836885e+00 3.384236e+00 2.620584e+00 3.139097e+00 2.169047e+00 2.081384e+00 2.776176e+00 1.557350e+00 6.423420e-01 1.690554e-01 2.473207e-01 2.857088e-01 3.554396e-01 5.569468e-01 5.633102e-01 4.384263e-01 5.155740e-01 4.306339e-01 3.904672e-01 4.373450e-01 3.761356e-01
<GCONST> 1.122824e+02
<STATE> 4
<NUMMIXES> 8
<MIXTURE> 1 1.345078e-01
<MEAN> 39
 -1.197452e+01 4.957492e-01 4.566295e+00 -5.538700e+00 -4.520594e+00 7.090737e+00 1.307050e+00 -3.580402e+00 4.787399e+00 1.888403e+00 -7.573801e+00 3.221883e+00 5.029516e+01 3.576058e-01 3.425879e-02 -1.447520e-01 1.293030e-01 2.129966e-01 -1.269935e-01 6.204963e-03 2.167039e-01 -1.126550e-02 -1.875832e-02 2.324070e-01 -1.466918e-01 -3.404590e-01 -4.587238e-02 -9.548056e-04 1.011948e-02 2.396553e-02 -7.709286e-03 7.057423e-02 1.472978e-02 -2.244176e-02 8.204682e-03 -2.085787e-03 -4.796368e-02 1.919135e-02 3.593891e-02
<VARIANCE> 39
 3.533897e+01 1.117128e+01 3.363695e+01 1.458579e+01 2.542840e+01 2.586601e+01 2.495098e+01 3.739294e+01 3.470784e+01 2.439474e+01 2.658121e+01 2.062835e+01 2.235661e+01 2.500632e-01 3.263189e-01 5.670220e-01 7.216768e-01 9.947324e-01 1.285181e+00 1.383304e+00 1.565820e+00 1.608160e+00 1.451808e+00 1.452365e+00 1.278612e+00 1.096948e-01 3.068027e-02 5.323798e-02 9.814061e-02 1.331603e-01 1.834359e-01 2.349102e-01 2.547273e-01 2.849235e-01 2.910583e-01 2.665702e-01 2.727040e-01 2.340950e-01 1.042158e-02
<GCONST> 8.381575e+01
<MIXTURE> 2 1.599653e-01
<MEAN> 39
 -2.357515e+01 3.271895e-01 6.071098e+00 -3.994479e+00 -7.227480e+00 1.177261e+01 1.275221e+00 -7.154749e+00 3.605377e+00 5.060428e+00 -1.282508e+01 5.432702e+00 5.899448e+01 6.279774e-01 6.344296e-02 2.759509e-01 -5.142089e-02 -1.466409e-02 1.080895e-01 1.886278e-01 -1.499058e-01 3.458093e-01 7.261676e-02 -1.214695e-01 1.671020e-01 -7.389808e-01 -2.525555e-02 2.325353e-02 -7.333201e-02 1.772889e-02 6.599835e-02 -1.005793e-01 -1.400864e-02 1.127189e-01 -3.962865e-02 -2.091051e-02 1.128830e-01 -8.829699e-02 1.696894e-02
<VARIANCE> 39
 1.757903e+01 8.848829e+00 1.274377e+01 1.489285e+01 3.072736e+01 2.590721e+01 2.833678e+01 4.966675e+01 3.744067e+01 3.173865e+01 2.833038e+01 3.418305e+01 2.268262e+01 1.628408e-01 2.822348e-01 5.408787e-01 6.635213e-01 9.251873e-01 1.166195e+00 1.234215e+00 1.449437e+00 1.554967e+00 1.401081e+00 1.370630e+00 1.211503e+00 9.322379e-02 7.760754e-02 6.497155e-02 1.309875e-01 1.500457e-01 2.160848e-01 2.749482e-01 2.823188e-01 3.505651e-01 3.682456e-01 3.267065e-01 3.056532e-01 2.775146e-01 7.994182e-02
<GCONST> 8.697589e+01
<MIXTURE> 3 1.599621e-01
<MEAN> 39
 -2.357508e+01 3.270823e-01 6.071219e+00 -3.994602e+00 -7.227911e+00 1.177272e+01 1.274849e+00 -7.155355e+00 3.605525e+00 5.060211e+00 -1.282550e+01 5.433151e+00 5.899469e+01 6.279667e-01 6.342881e-02 2.759587e-01 -5.142220e-02 -1.466637e-02 1.081047e-01 1.886328e-01 -1.499138e-01 3.458365e-01 7.262769e-02 -1.214705e-01 1.671232e-01 -7.389844e-01 -2.525957e-02 2.325467e-02 -7.333527e-02 1.773771e-02 6.601817e-02 -1.005803e-01 -1.399566e-02 1.127432e-01 -3.963300e-02 -2.090303e-02 1.128990e-01 -8.831322e-02 1.696998e-02
<VARIANCE> 39
 1.757983e+01 8.849174e+00 1.274436e+01 1.489318e+01 3.072823e+01 2.590862e+01 2.833857e+01 4.966975e+01 3.744309e+01 3.173969e+01 2.833230e+01 3.418683e+01 2.268455e+01 1.628455e-01 2.822402e-01 5.408863e-01 6.635248e-01 9.251984e-01 1.166209e+00 1.234226e+00 1.449455e+00 1.555005e+00 1.401105e+00 1.370651e+00 1.211538e+00 9.322564e-02 7.761148e-02 6.497307e-02 1.309912e-01 1.500481e-01 2.160898e-01 2.749565e-01 2.823245e-01 3.505769e-01 3.682611e-01 3.267171e-01 3.056638e-01 2.775269e-01 7.994826e-02
<GCONST> 8.697726e+01
<MIXTURE> 4 9.256036e-02
<MEAN> 39
 -2.323274e+01 7.509641e-01 4.822696e+00 -3.635809e+00 -6.479331e+00 1.126444e+01 1.718736e+00 -6.438071e+00 4.239784e+00 3.865767e+00 -1.188954e+01 4.920837e+00 5.857681e+01 -3.199499e-01 -3.168619e-02 -2.047160e-01 -2.412859e-03 -1.032869e-01 -7.599717e-02 -3.944221e-02 -6.145569e-03 -1.095318e-01 -2.379003e-01 7.908745e-02 -1.212610e-01 4.379012e-01 -5.253239e-02 -1.181774e-02 2.848913e-02 -2.447624e-02 1.241637e-02 -5.647304e-02 -5.588444e-02 6.034121e-02 -1.177570e-01 7.145269e-02 3.539530e-02 -2.623363e-02 6.791514e-02
<VARIANCE> 39
 2.397460e+01 1.083255e+01 1.654087e+01 1.628951e+01 2.669533e+01 2.675102e+01 3.036413e+01 4.532708e+01 3.788567e+01 3.383656e+01 2.683257e+01 3.087489e+01 3.048590e+01 1.034220e+00 6.573964e-01 1.374037e+00 1.228648e+00 1.838715e+00 2.626158e+00 2.069060e+00 3.655609e+00 3.095570e+00 2.606246e+00 2.440629e+00 2.349765e+00 8.136380e-01 4.596797e-01 1.185365e-01 2.700849e-01 2.242196e-01 3.188806e-01 4.079047e-01 4.109398e-01 5.426393e-01 6.131779e-01 4.831920e-01 4.031635e-01 3.996464e-01 4.949970e-01
<GCONST> 1.082889e+02
<MIXTURE> 5 1.599621e-01
<MEAN> 39
 -2.357516e+01 3.270800e-01 6.071229e+00 -3.994546e+00 -7.227719e+00 1.177278e+01 1.274963e+00 -7.155116e+00 3.605561e+00 5.060329e+00 -1.282540e+01 5.433097e+00 5.899466e+01 6.279708e-01 6.343569e-02 2.759544e-01 -5.141644e-02 -1.465580e-02 1.080957e-01 1.886323e-01 -1.499027e-01 3.458243e-01 7.262249e-02 -1.214661e-01 1.671118e-01 -7.389899e-01 -2.525627e-02 2.325305e-02 -7.333621e-02 1.773105e-02 6.600515e-02 -1.005808e-01 -1.400013e-02 1.127272e-01 -3.963524e-02 -2.091042e-02 1.128886e-01 -8.830890e-02 1.696930e-02
<VARIANCE> 39
 1.757927e+01 8.848937e+00 1.274401e+01 1.489284e+01 3.072786e+01 2.590783e+01 2.833792e+01 4.966853e+01 3.744205e+01 3.173910e+01 2.833184e+01 3.418599e+01 2.268366e+01 1.628424e-01 2.822365e-01 5.408798e-01 6.635210e-01 9.251891e-01 1.166204e+00 1.234219e+00 1.449445e+00 1.554997e+00 1.401097e+00 1.370645e+00 1.211527e+00 9.322362e-02 7.760248e-02 6.497087e-02 1.309859e-01 1.500434e-01 2.160832e-01 2.749472e-01 2.823169e-01 3.505628e-01 3.682445e-01 3.267061e-01 3.056559e-01 2.775187e-01 7.993689e-02
<GCONST> 8.697621e+01
<MIXTURE> 6 9.257329e-02
<MEAN> 39
 -2.323026e+01 7.510326e-01 4.824440e+00 -3.636081e+00 -6.480808e+00 1.126575e+01 1.718842e+00 -6.440841e+00 4.242230e+00 3.865577e+00 -1.189128e+01 4.922947e+00 5.857455e+01 -3.204573e-01 -3.158013e-02 -2.049627e-01 -2.391294e-03 -1.027179e-01 -7.676234e-02 -3.970971e-02 -5.061239e-03 -1.103463e-01 -2.375668e-01 7.984716e-02 -1.220205e-01 4.383223e-01 -5.302352e-02 -1.186664e-02 2.822163e-02 -2.443266e-02 1.253699e-02 -5.663977e-02 -5.604426e-02 6.059942e-02 -1.181765e-01 7.143856e-02 3.555397e-02 -2.645465e-02 6.847993e-02
<VARIANCE> 39
 2.397033e+01 1.083121e+01 1.653967e+01 1.628715e+01 2.669568e+01 2.674946e+01 3.036251e+01 4.533354e+01 3.788827e+01 3.383609e+01 2.683567e+01 3.088754e+01 3.047925e+01 1.034576e+00 6.573760e-01 1.373997e+00 1.228611e+00 1.838833e+00 2.626189e+00 2.068965e+00 3.656607e+00 3.096500e+00 2.606545e+00 2.440742e+00 2.350204e+00 8.139072e-01 4.596514e-01 1.185112e-01 2.700501e-01 2.241841e-01 3.188693e-01 4.078887e-01 4.109179e-01 5.426605e-01 6.131953e-01 4.831470e-01 4.031517e-01 3.996579e-01 4.949597e-01
<GCONST> 1.082895e+02
<MIXTURE> 7 9.257139e-02
<MEAN> 39
 -2.322830e+01 7.508320e-01 4.825746e+00 -3.636477e+00 -6.483026e+00 1.126687e+01 1.718223e+00 -6.444284e+00 4.244042e+00 3.864882e+00 -1.189354e+01 4.925127e+00 5.857345e+01 -3.207448e-01 -3.150124e-02 -2.050251e-01 -2.440333e-03 -1.023189e-01 -7.731400e-02 -3.992091e-02 -4.287272e-03 -1.110022e-01 -2.372138e-01 8.035261e-02 -1.225664e-01 4.385535e-01 -5.339191e-02 -1.187946e-02 2.803105e-02 -2.438573e-02 1.271729e-02 -5.680669e-02 -5.614585e-02 6.090323e-02 -1.185073e-01 7.149320e-02 3.576072e-02 -2.666178e-02 6.887974e-02
<VARIANCE> 39
 2.397154e+01 1.083224e+01 1.654165e+01 1.628782e+01 2.670184e+01 2.675543e+01 3.036794e+01 4.534866e+01 3.789991e+01 3.384055e+01 2.684383e+01 3.090611e+01 3.048071e+01 1.034999e+00 6.574060e-01 1.374068e+00 1.228645e+00 1.839193e+00 2.626563e+00 2.069061e+00 3.657954e+00 3.097451e+00 2.606949e+00 2.441190e+00 2.350873e+00 8.142167e-01 4.597316e-01 1.185113e-01 2.700690e-01 2.241901e-01 3.189238e-01 4.079643e-01 4.109765e-01 5.428043e-01 6.133664e-01 4.831943e-01 4.032154e-01 3.997605e-01 4.950651e-01
<GCONST> 1.082968e+02
<MIXTURE> 8 1.075769e-01
<MEAN> 39
 -2.543481e+01 9.075320e-01 3.019712e+00 -4.035936e+00 -4.615154e+00 7.531991e+00 8.299369e-02 -1.982278e+00 4.022791e-01 4.961777e+00 -8.300799e+00 2.036369e+00 6.121227e+01 -1.911481e+00 -3.140124e-01 -4.837917e-01 2.246192e-02 1.176858e-01 -2.670144e-01 -7.378104e-01 4.924385e-01 -1.256850e+00 2.831863e-01 1.400988e-01 -2.946372e-01 2.194879e+00 3.296653e-01 -6.360723e-02 2.175934e-01 -4.152215e-02 -2.878574e-01 4.814314e-01 1.929087e-01 -5.883936e-01 4.659456e-01 -1.048730e-01 -4.915909e-01 4.178339e-01 -3.171068e-01
<VARIANCE> 39
 4.696463e+01 1.401844e+01 1.847211e+01 1.860481e+01 2.564742e+01 3.163408e+01 3.401832e+01 3.691133e+01 3.600705e+01 2.917518e+01 2.647981e+01 2.472361e+01 4.220245e+01 2.731798e+00 9.375789e-01 1.840781e+00 1.546653e+00 2.622476e+00 3.281771e+00 2.798520e+00 4.549986e+00 3.926232e+00 3.503195e+00 2.802272e+00 2.746823e+00 1.939085e+00 5.907616e-01 1.537030e-01 2.935508e-01 2.705983e-01 3.679955e-01 4.175425e-01 4.794729e-01 5.262922e-01 6.281095e-01 5.176426e-01 3.869983e-01 4.157039e-01 5.962601e-01
<GCONST> 1.153827e+02
<TRANSP> 5
 0.000000e+00 1.000000e+00 0.000000e+00 0.000000e+00 0.000000e+00
 0.000000e+00 9.512964e-01 4.870363e-02 0.000000e+00 0.000000e+00
 0.000000e+00 0.000000e+00 9.920013e-01 7.998756e-03 0.000000e+00
 0.000000e+00 0.000000e+00 0.000000e+00 9.936178e-01 6.382254e-03
 0.000000e+00 0.000000e+00 0.000000e+00 0.000000e+00 0.000000e+00
<ENDHMM>
~h "cm"
<BEGINHMM>
<NUMSTATES> 5
<STATE> 2
<NUMMIXES> 8
<MIXTURE> 1 1.440733e-01
<MEAN> 39
 -1.275765e+01 -1.324984e+00 -5.045047e+00 -8.059000e+00 -3.345995e+00 -3.780333e+00 -5.641933e+00 -3.122315e+00 -4.149437e+00 2.905881e-01 3.118373e+00 1.145857e+00 6.035162e+01 3.740634e-02 6.131184e-02 1.289297e-01 2.077243e-01 3.019016e-01 3.040481e-01 2.462349e-01 2.258224e-01 1.505248e-01 8.089187e-02 4.913932e-02 2.335716e-02 7.420563e-02 4.319482e-03 4.482151e-02 1.052573e-01 1.996980e-01 2.945305e-01 3.823300e-01 4.164245e-01 3.791140e-01 2.922947e-01 1.452243e-01 2.269608e-02 -4.254383e-02 -3.753344e-02
<VARIANCE> 39
 1.046321e+01 1.341705e+01 1.055125e+01 1.213616e+01 1.118175e+01 1.154240e+01 1.435954e+01 1.488558e+01 1.652753e+01 1.990339e+01 2.439188e+01 2.212125e+01 2.035641e+01 2.435195e-01 3.756101e-01 5.391386e-01 7.316670e-01 9.178740e-01 1.121346e+00 1.311801e+00 1.434823e+00 1.440606e+00 1.381692e+00 1.414817e+00 1.332230e+00 2.397471e-01 4.578418e-02 7.414666e-02 1.038674e-01 1.455758e-01 1.677893e-01 1.836321e-01 2.165001e-01 2.516810e-01 2.692885e-01 2.917582e-01 3.106059e-01 2.914158e-01 3.943393e-02
<GCONST> 7.958662e+01
<MIXTURE> 2 1.385489e-01
<MEAN> 39
 -1.318222e+01 -9.294306e-01 -3.953110e+00 -5.527202e+00 6.508991e-01 1.853196e+00 1.799479e-01 2.106539e+00 -2.458859e-01 1.131248e+00 2.411792e+00 -1.857036e-01 5.855188e+01 -2.273507e-02 3.609711e-02 1.109451e-01 2.113743e-01 3.290092e-01 3.685421e-01 3.320639e-01 2.880185e-01 1.889960e-01 1.046006e-01 2.431134e-02 -3.474413e-02 2.870722e-02 3.604534e-03 -7.563408e-03 -2.482594e-02 -6.254765e-02 -1.136291e-01 -1.538393e-01 -1.572657e-01 -1.357326e-01 -7.916854e-02 -8.727460e-03 3.515632e-02 3.956715e-02 9.100691e-03
<VARIANCE> 39
 8.864978e+00 1.351136e+01 1.300339e+01 1.337265e+01 1.293812e+01 1.336492e+01 1.551639e+01 1.524706e+01 1.647054e+01 1.514489e+01 1.577372e+01 1.417278e+01 2.090653e+01 1.596448e-01 2.871176e-01 4.378479e-01 6.304981e-01 7.999067e-01 9.500830e-01 1.091409e+00 1.240558e+00 1.320338e+00 1.297637e+00 1.304310e+00 1.186950e+00 1.112466e-01 2.585495e-02 4.924945e-02 8.284472e-02 1.238290e-01 1.608658e-01 1.911305e-01 2.147481e-01 2.448901e-01 2.599753e-01 2.549340e-01 2.481793e-01 2.306661e-01 1.030710e-02
<GCONST> 7.282540e+01
<MIXTURE> 3 1.385503e-01
<MEAN> 39
 -1.318202e+01 -9.292372e-01 -3.952840e+00 -5.526975e+00 6.509252e-01 1.853140e+00 1.799643e-01 2.106479e+00 -2.459233e-01 1.131076e+00 2.411552e+00 -1.858721e-01 5.855169e+01 -2.273732e-02 3.610523e-02 1.109482e-01 2.113696e-01 3.290017e-01 3.685388e-01 3.320624e-01 2.880205e-01 1.889958e-01 1.046016e-01 2.431460e-02 -3.474133e-02 2.870175e-02 3.600955e-03 -7.569942e-03 -2.483693e-02 -6.255913e-02 -1.136338e-01 -1.538384e-01 -1.572627e-01 -1.357269e-01 -7.916070e-02 -8.713854e-03 3.517131e-02 3.957659e-02 9.102205e-03
<VARIANCE> 39
 8.865713e+00 1.351150e+01 1.300367e+01 1.337289e+01 1.293815e+01 1.336496e+01 1.551644e+01 1.524717e+01 1.647076e+01 1.514498e+01 1.577390e+01 1.417276e+01 2.090857e+01 1.596504e-01 2.871214e-01 4.378539e-01 6.305032e-01 7.999123e-01 9.500908e-01 1.091416e+00 1.240563e+00 1.320353e+00 1.297652e+00 1.304319e+00 1.186954e+00 1.112526e-01 2.585579e-02 4.924999e-02 8.284550e-02 1.238302e-01 1.608649e-01 1.911291e-01 2.147465e-01 2.448897e-01 2.599753e-01 2.549331e-01 2.481796e-01 2.306662e-01 1.030771e-02
<GCONST> 7.282596e+01
<MIXTURE> 4 1.051179e-01
<MEAN> 39
 -1.336682e+01 -6.004406e-01 -4.255172e+00 -6.658049e+00 -9.097040e-01 -7.148156e-02 -1.914952e+00 5.805345e-01 -1.077554e+00 2.122013e+00 4.120457e+00 1.294356e+00 5.853539e+01 -3.294404e-02 -1.170386e-01 -2.371781e-01 -3.653556e-01 -4.094663e-01 -4.813469e-01 -5.169749e-01 -4.326797e-01 -3.266613e-01 -1.783389e-01 -2.820320e-02 5.357809e-02 1.446769e-01 2.068035e-02 -8.578478e-03 -2.628751e-03 2.554587e-02 3.135533e-02 3.833231e-02 5.705025e-02 3.317872e-02 -5.421149e-03 -7.544059e-02 -1.095019e-01 -8.192984e-02 1.572865e-02
<VARIANCE> 39
 6.832310e+00 1.276337e+01 1.198392e+01 1.234940e+01 1.301901e+01 1.352273e+01 1.613921e+01 1.608439e+01 1.736417e+01 1.645619e+01 1.744928e+01 1.595711e+01 1.792897e+01 2.033901e-01 3.332714e-01 4.766282e-01 6.684682e-01 8.035513e-01 9.435205e-01 1.109466e+00 1.252333e+00 1.341211e+00 1.324100e+00 1.332064e+00 1.245585e+00 1.588334e-01 2.703617e-02 5.490422e-02 8.774550e-02 1.294073e-01 1.693003e-01 1.984612e-01 2.237030e-01 2.489801e-01 2.688563e-01 2.644067e-01 2.609260e-01 2.437724e-01 1.303156e-02
<GCONST> 7.448962e+01
<MIXTURE> 5 1.385457e-01
<MEAN> 39
 -1.318226e+01 -9.294953e-01 -3.953189e+00 -5.527266e+00 6.508767e-01 1.853167e+00 1.798694e-01 2.106464e+00 -2.459648e-01 1.131236e+00 2.411833e+00 -1.856583e-01 5.855198e+01 -2.273391e-02 3.609731e-02 1.109487e-01 2.113820e-01 3.290175e-01 3.685480e-01 3.320680e-01 2.880203e-01 1.889971e-01 1.045999e-01 2.430922e-02 -3.474601e-02 2.870726e-02 3.605158e-03 -7.561576e-03 -2.482261e-02 -6.254418e-02 -1.136266e-01 -1.538364e-01 -1.572600e-01 -1.357250e-01 -7.916188e-02 -8.725074e-03 3.515451e-02 3.956417e-02 9.100148e-03
<VARIANCE> 39
 8.864877e+00 1.351138e+01 1.300323e+01 1.337250e+01 1.293808e+01 1.336482e+01 1.551626e+01 1.524698e+01 1.647042e+01 1.514489e+01 1.577374e+01 1.417284e+01 2.090598e+01 1.596436e-01 2.871186e-01 4.378496e-01 6.304978e-01 7.999077e-01 9.500831e-01 1.091403e+00 1.240556e+00 1.320336e+00 1.297645e+00 1.304313e+00 1.186954e+00 1.112459e-01 2.585486e-02 4.924946e-02 8.284438e-02 1.238284e-01 1.608657e-01 1.911298e-01 2.147482e-01 2.448897e-01 2.599744e-01 2.549334e-01 2.481788e-01 2.306664e-01 1.030707e-02
<GCONST> 7.282528e+01
<MIXTURE> 6 1.051181e-01
<MEAN> 39
 -1.336705e+01 -6.007324e-01 -4.255474e+00 -6.658241e+00 -9.096548e-01 -7.138436e-02 -1.914911e+00 5.806179e-01 -1.077475e+00 2.122185e+00 4.120664e+00 1.294507e+00 5.853558e+01 -3.294245e-02 -1.170470e-01 -2.371774e-01 -3.653426e-01 -4.094531e-01 -4.813398e-01 -5.169702e-01 -4.326839e-01 -3.266664e-01 -1.783477e-01 -2.821242e-02 5.357287e-02 1.446753e-01 2.068732e-02 -8.564274e-03 -2.612661e-03 2.555613e-02 3.135248e-02 3.832189e-02 5.703890e-02 3.316695e-02 -5.434867e-03 -7.545745e-02 -1.095173e-01 -8.193947e-02 1.572795e-02
<VARIANCE> 39
 6.831876e+00 1.276351e+01 1.198402e+01 1.234951e+01 1.301919e+01 1.352283e+01 1.613921e+01 1.608434e+01 1.736411e+01 1.645608e+01 1.744900e+01 1.595703e+01 1.792745e+01 2.033807e-01 3.332695e-01 4.766221e-01 6.684614e-01 8.035501e-01 9.435161e-01 1.109460e+00 1.252331e+00 1.341204e+00 1.324096e+00 1.332057e+00 1.245587e+00 1.588238e-01 2.703603e-02 5.490460e-02 8.774690e-02 1.294095e-01 1.693034e-01 1.984647e-01 2.237055e-01 2.489833e-01 2.688574e-01 2.644083e-01 2.609262e-01 2.437744e-01 1.303121e-02
<GCONST> 7.448942e+01
<MIXTURE> 7 1.051193e-01
<MEAN> 39
 -1.336711e+01 -6.008042e-01 -4.255591e+00 -6.658344e+00 -9.096962e-01 -7.140535e-02 -1.914956e+00 5.806128e-01 -1.077485e+00 2.122227e+00 4.120731e+00 1.294571e+00 5.853567e+01 -3.294252e-02 -1.170504e-01 -2.371773e-01 -3.653366e-01 -4.094470e-01 -4.813357e-01 -5.169672e-01 -4.326842e-01 -3.266664e-01 -1.783495e-01 -2.821465e-02 5.357267e-02 1.446715e-01 2.068687e-02 -8.561563e-03 -2.606828e-03 2.556271e-02 3.135808e-02 3.832640e-02 5.704167e-02 3.316730e-02 -5.436052e-03 -7.545885e-02 -1.095186e-01 -8.194117e-02 1.572617e-02
<VARIANCE> 39
 6.831712e+00 1.276344e+01 1.198385e+01 1.234927e+01 1.301899e+01 1.352266e+01 1.613902e+01 1.608408e+01 1.736381e+01 1.645576e+01 1.744876e+01 1.595690e+01 1.792679e+01 2.033754e-01 3.332649e-01 4.766176e-01 6.684521e-01 8.035452e-01 9.435112e-01 1.109453e+00 1.252319e+00 1.341189e+00 1.324084e+00 1.332044e+00 1.245580e+00 1.588192e-01 2.703540e-02 5.490368e-02 8.774547e-02 1.294068e-01 1.693004e-01 1.984624e-01 2.237030e-01 2.489803e-01 2.688525e-01 2.644036e-01 2.609221e-01 2.437729e-01 1.303078e-02
<GCONST> 7.448884e+01
<MIXTURE> 8 1.248173e-01
<MEAN> 39
 -1.177649e+01 -8.627908e-01 -3.405305e+00 -4.910255e+00 -2.637630e-01 2.794192e-01 1.097796e-01 1.672486e+00 4.271658e-01 1.264912e+00 1.702549e+00 -7.664460e-01 5.796780e+01 2.166872e-01 -1.103299e-01 -1.436600e-01 -2.469562e-01 -4.329627e-01 -6.032012e-01 -5.990750e-01 -4.834427e-01 -3.536110e-01 -2.733578e-01 -2.554231e-01 -1.094444e-01 9.374678e-01 1.059251e-01 1.195428e-02 -3.186200e-02 -6.979785e-02 -1.141465e-01 -1.514745e-01 -1.720206e-01 -1.676103e-01 -1.490074e-01 -7.865828e-02 -2.181787e-02 1.537272e-02 1.156663e-01
<VARIANCE> 39
 1.358654e+01 1.683755e+01 1.526207e+01 1.993317e+01 1.701348e+01 1.693360e+01 1.892204e+01 1.918995e+01 1.846064e+01 1.635795e+01 1.672649e+01 1.564299e+01 3.702028e+01 9.058557e-01 9.556035e-01 9.934145e-01 1.441327e+00 1.574015e+00 1.662740e+00 1.893480e+00 2.056890e+00 1.943188e+00 1.807090e+00 1.956872e+00 1.637848e+00 8.938243e-01 1.129249e-01 1.397537e-01 1.634714e-01 2.432504e-01 2.762222e-01 2.933719e-01 3.314048e-01 3.546788e-01 3.391473e-01 3.127235e-01 3.284297e-01 2.853619e-01 1.527102e-01
<GCONST> 9.560152e+01
<STATE> 3
<NUMMIXES> 8
<MIXTURE> 1 1.243191e-01
<MEAN> 39
 -8.130111e+00 -4.093582e+00 -7.014729e+00 -9.368216e+00 -5.488483e+00 -6.019166e+00 -5.930686e+00 -3.452323e+00 -3.986614e+00 -2.236429e+00 -1.924115e+00 -2.000824e+00 7.325344e+01 1.439927e-01 9.905410e-02 2.123952e-01 2.498655e-01 3.168663e-01 3.544925e-01 2.482165e-01 2.290486e-01 2.522592e-01 2.218294e-01 2.111602e-01 1.815826e-01 -6.337330e-02 5.772227e-02 1.400139e-01 1.590189e-01 3.222679e-01 3.495623e-01 4.091473e-01 3.609309e-01 2.606827e-01 1.826245e-01 1.164831e-01 8.164443e-02 2.571321e-02 -1.787614e-01
<VARIANCE> 39
 9.124343e+00 1.132343e+01 1.332026e+01 1.510112e+01 1.314001e+01 1.123806e+01 1.452108e+01 1.702967e+01 1.958331e+01 1.640037e+01 1.591962e+01 1.466122e+01 5.154032e+01 2.488337e-01 3.573488e-01 6.021457e-01 8.231279e-01 9.789121e-01 1.104504e+00 1.293310e+00 1.407580e+00 1.405533e+00 1.347577e+00 1.372872e+00 1.243983e+00 4.672637e-01 5.952446e-02 8.204858e-02 1.267949e-01 1.572030e-01 1.848660e-01 1.954210e-01 2.330024e-01 2.877779e-01 3.060462e-01 2.974088e-01 2.846897e-01 2.686922e-01 1.162928e-01
<GCONST> 8.288097e+01
<MIXTURE> 2 1.826518e-01
<MEAN> 39
 -7.658059e+00 -2.763160e+00 -5.264553e+00 -5.483386e+00 -1.381153e+00 -1.283985e+00 -1.553360e+00 -5.633301e-01 -1.548313e+00 -1.950906e-01 -2.634925e-01 -1.288050e+00 6.820220e+01 8.096098e-02 7.594050e-02 7.017872e-02 1.419249e-01 1.340047e-01 1.597354e-01 1.222689e-01 6.822053e-02 4.412714e-02 3.651479e-02 3.165339e-02 1.062955e-02 -1.610851e-01 -8.997109e-03 -3.742027e-05 -2.386877e-02 -5.560391e-02 -7.984505e-02 -1.012710e-01 -1.020108e-01 -8.888341e-02 -9.016548e-02 -8.753096e-02 -6.931874e-02 -4.942581e-02 -2.025718e-03
<VARIANCE> 39
 1.046542e+01 1.224429e+01 1.169655e+01 1.499880e+01 1.455777e+01 1.378515e+01 1.828100e+01 1.687557e+01 1.894996e+01 1.687108e+01 1.570431e+01 1.412698e+01 7.739848e+01 2.016342e-01 3.112626e-01 4.702916e-01 6.996365e-01 8.724182e-01 1.040440e+00 1.186063e+00 1.271680e+00 1.331680e+00 1.328561e+00 1.267750e+00 1.185396e+00 2.968049e-01 3.034884e-02 5.549444e-02 9.032768e-02 1.304586e-01 1.659117e-01 2.019158e-01 2.339259e-01 2.518923e-01 2.635693e-01 2.662879e-01 2.571418e-01 2.406252e-01 1.978148e-02
<GCONST> 7.802925e+01
<MIXTURE> 3 1.826535e-01
<MEAN> 39
 -7.658059e+00 -2.763162e+00 -5.264525e+00 -5.483364e+00 -1.381117e+00 -1.283940e+00 -1.553298e+00 -5.632956e-01 -1.548279e+00 -1.950717e-01 -2.634769e-01 -1.288057e+00 6.820209e+01 8.096142e-02 7.594095e-02 7.017829e-02 1.419247e-01 1.340035e-01 1.597352e-01 1.222685e-01 6.822029e-02 4.412739e-02 3.651525e-02 3.165355e-02 1.062952e-02 -1.610857e-01 -8.996854e-03 -3.741466e-05 -2.386995e-02 -5.560583e-02 -7.984804e-02 -1.012749e-01 -1.020150e-01 -8.888616e-02 -9.016751e-02 -8.753228e-02 -6.931944e-02 -4.942520e-02 -2.025018e-03
<VARIANCE> 39
 1.046545e+01 1.224438e+01 1.169657e+01 1.499891e+01 1.455786e+01 1.378526e+01 1.828123e+01 1.687564e+01 1.895000e+01 1.687111e+01 1.570435e+01 1.412703e+01 7.739918e+01 2.016350e-01 3.112640e-01 4.702934e-01 6.996393e-01 8.724244e-01 1.040445e+00 1.186067e+00 1.271684e+00 1.331685e+00 1.328565e+00 1.267756e+00 1.185398e+00 2.968054e-01 3.034912e-02 5.549498e-02 9.032813e-02 1.304596e-01 1.659131e-01 2.019172e-01 2.339278e-01 2.518934e-01 2.635703e-01 2.662888e-01 2.571429e-01 2.406255e-01 1.978162e-02
<GCONST> 7.802948e+01
<MIXTURE> 4 8.895016e-02
<MEAN> 39
 -7.318082e+00 -1.021740e+00 -5.617666e+00 -6.370566e+00 -2.843522e+00 -3.012911e+00 -4.003324e+00 -2.235680e+00 -3.834972e+00 -2.624952e+00 -2.214678e+00 -2.881780e+00 6.886693e+01 2.476852e-01 -1.928153e-02 -1.844420e-01 -2.673318e-01 -4.215160e-01 -4.577315e-01 -3.367692e-01 -3.068483e-01 -2.334025e-01 -2.455738e-01 -2.911454e-01 -1.795369e-01 6.217225e-01 -8.300842e-02 -8.597900e-02 -1.095213e-02 -8.992507e-03 4.428311e-02 7.312406e-02 1.000118e-01 1.160953e-01 1.439403e-01 1.737117e-01 1.675875e-01 1.239819e-01 -1.089477e-02
<VARIANCE> 39
 8.661493e+00 1.042758e+01 1.282959e+01 1.372209e+01 1.432990e+01 1.198771e+01 1.415024e+01 1.526582e+01 1.667678e+01 1.444719e+01 1.463732e+01 1.268790e+01 4.724389e+01 5.859498e-01 5.996934e-01 7.158202e-01 9.680712e-01 1.061867e+00 1.155359e+00 1.339542e+00 1.419965e+00 1.496435e+00 1.448900e+00 1.364419e+00 1.261186e+00 7.615030e-01 6.447251e-02 9.169432e-02 1.272321e-01 1.735016e-01 2.032538e-01 2.138701e-01 2.395901e-01 2.598262e-01 2.726833e-01 2.591693e-01 2.507585e-01 2.366467e-01 7.301114e-02
<GCONST> 8.396824e+01
<MIXTURE> 5 1.826531e-01
<MEAN> 39
 -7.658045e+00 -2.763145e+00 -5.264556e+00 -5.483389e+00 -1.381174e+00 -1.284019e+00 -1.553402e+00 -5.633575e-01 -1.548334e+00 -1.951016e-01 -2.634948e-01 -1.288048e+00 6.820223e+01 8.096048e-02 7.594049e-02 7.017905e-02 1.419253e-01 1.340050e-01 1.597352e-01 1.222694e-01 6.822132e-02 4.412791e-02 3.651553e-02 3.165453e-02 1.063036e-02 -1.610857e-01 -8.998029e-03 -3.838789e-05 -2.386891e-02 -5.560312e-02 -7.984223e-02 -1.012670e-01 -1.020065e-01 -8.888040e-02 -9.016374e-02 -8.753047e-02 -6.931891e-02 -4.942612e-02 -2.025935e-03
<VARIANCE> 39
 1.046533e+01 1.224426e+01 1.169652e+01 1.499874e+01 1.455768e+01 1.378506e+01 1.828084e+01 1.687544e+01 1.894985e+01 1.687105e+01 1.570429e+01 1.412691e+01 7.739822e+01 2.016337e-01 3.112625e-01 4.702918e-01 6.996351e-01 8.724177e-01 1.040440e+00 1.186063e+00 1.271679e+00 1.331677e+00 1.328557e+00 1.267749e+00 1.185398e+00 2.968044e-01 3.034868e-02 5.549410e-02 9.032731e-02 1.304581e-01 1.659111e-01 2.019148e-01 2.339249e-01 2.518909e-01 2.635677e-01 2.662870e-01 2.571417e-01 2.406237e-01 1.978125e-02
<GCONST> 7.802914e+01
<MIXTURE> 6 8.895080e-02
<MEAN> 39
 -7.318129e+00 -1.021707e+00 -5.617561e+00 -6.370433e+00 -2.843395e+00 -3.012851e+00 -4.003366e+00 -2.235790e+00 -3.835094e+00 -2.625038e+00 -2.214704e+00 -2.881779e+00 6.886681e+01 2.476911e-01 -1.927028e-02 -1.844365e-01 -2.673245e-01 -4.215130e-01 -4.577289e-01 -3.367686e-01 -3.068492e-01 -2.334024e-01 -2.455774e-01 -2.911498e-01 -1.795403e-01 6.217152e-01 -8.300550e-02 -8.598194e-02 -1.096241e-02 -9.006021e-03 4.427005e-02 7.311855e-02 1.000179e-01 1.161081e-01 1.439539e-01 1.737214e-01 1.675904e-01 1.239816e-01 -1.088969e-02
<VARIANCE> 39
 8.661510e+00 1.042756e+01 1.282974e+01 1.372202e+01 1.432995e+01 1.198778e+01 1.415031e+01 1.526587e+01 1.667676e+01 1.444717e+01 1.463733e+01 1.268793e+01 4.724404e+01 5.859554e-01 5.997003e-01 7.158248e-01 9.680769e-01 1.061876e+00 1.155367e+00 1.339547e+00 1.419974e+00 1.496442e+00 1.448908e+00 1.364430e+00 1.261188e+00 7.615042e-01 6.447230e-02 9.169411e-02 1.272326e-01 1.735013e-01 2.032530e-01 2.138703e-01 2.395910e-01 2.598275e-01 2.726832e-01 2.591699e-01 2.507583e-01 2.366468e-01 7.301136e-02
<GCONST> 8.396835e+01
<MIXTURE> 7 8.895337e-02
<MEAN> 39
 -7.318072e+00 -1.021726e+00 -5.617654e+00 -6.370522e+00 -2.843522e+00 -3.012929e+00 -4.003398e+00 -2.235784e+00 -3.835107e+00 -2.625093e+00 -2.214808e+00 -2.881848e+00 6.886700e+01 2.476846e-01 -1.927796e-02 -1.844393e-01 -2.673280e-01 -4.215147e-01 -4.577334e-01 -3.367757e-01 -3.068592e-01 -2.334133e-01 -2.455825e-01 -2.911500e-01 -1.795385e-01 6.217031e-01 -8.300669e-02 -8.597814e-02 -1.095541e-02 -8.995604e-03 4.428146e-02 7.312588e-02 1.000178e-01 1.161052e-01 1.439540e-01 1.737282e-01 1.676010e-01 1.239895e-01 -1.089549e-02
<VARIANCE> 39
 8.661407e+00 1.042753e+01 1.282955e+01 1.372188e+01 1.432974e+01 1.198769e+01 1.415019e+01 1.526581e+01 1.667673e+01 1.444709e+01 1.463725e+01 1.268778e+01 4.724369e+01 5.859348e-01 5.996837e-01 7.158064e-01 9.680539e-01 1.061861e+00 1.155350e+00 1.339538e+00 1.419967e+00 1.496435e+00 1.448907e+00 1.364426e+00 1.261181e+00 7.614996e-01 6.446995e-02 9.169159e-02 1.272295e-01 1.734978e-01 2.032495e-01 2.138684e-01 2.395892e-01 2.598254e-01 2.726810e-01 2.591684e-01 2.507560e-01 2.366440e-01 7.300698e-02
<GCONST> 8.396780e+01
<MIXTURE> 8 6.081151e-02
<MEAN> 39
 -1.026003e+01 -4.878521e+00 -4.236099e+00 -6.442201e+00 -2.033575e+00 -2.929111e+00 -1.673688e+00 -1.053900e+00 -1.827162e+00 -1.098606e+00 -7.151928e-01 -1.671079e+00 6.666164e+01 -2.340658e-01 -7.649930e-01 -1.877182e-01 -5.142684e-01 -4.481471e-01 -7.304270e-01 -3.839000e-01 -2.217241e-01 -1.308544e-01 -2.128238e-01 -2.841747e-01 -3.768225e-02 1.759469e+00 1.390126e-01 1.641387e-01 2.647959e-02 1.691891e-02 8.388516e-02 8.900261e-02 -1.048833e-02 -2.094920e-02 -1.757871e-02 7.824713e-03 2.082818e-02 -2.870160e-03 -1.902412e-01
<VARIANCE> 39
 2.283584e+01 2.521196e+01 2.220650e+01 2.612426e+01 2.624770e+01 2.648620e+01 2.880333e+01 2.721802e+01 2.900572e+01 2.225633e+01 2.035476e+01 1.894916e+01 8.547175e+01 1.640714e+00 2.073851e+00 1.645745e+00 2.099179e+00 2.145030e+00 2.382674e+00 2.286989e+00 2.472254e+00 2.435668e+00 2.216568e+00 2.032930e+00 1.879434e+00 3.027224e+00 2.197167e-01 3.599354e-01 3.084334e-01 3.782637e-01 4.058278e-01 4.968575e-01 4.486708e-01 4.498763e-01 4.641450e-01 4.280271e-01 4.128067e-01 3.579551e-01 7.341463e-01
<GCONST> 1.127159e+02
<STATE> 4
<NUMMIXES> 8
<MIXTURE> 1 8.730585e-02
<MEAN> 39
 -7.863080e+00 2.469758e+00 1.078857e-01 -1.208692e+00 3.243222e+00 2.945375e+00 1.841838e+00 2.003794e+00 -7.556628e-02 -5.141819e-01 4.700022e-02 -1.995785e+00 5.593639e+01 -4.792495e-02 1.548545e-02 5.115572e-02 4.950443e-02 5.897003e-02 9.049934e-02 1.426803e-01 1.489029e-01 1.149804e-01 4.644501e-02 3.568924e-03 -2.950353e-02 -2.761185e-01 2.772479e-02 -3.950336e-03 -5.192567e-02 -1.052785e-01 -1.785787e-01 -2.301114e-01 -2.390994e-01 -2.019826e-01 -1.334617e-01 -6.144842e-02 -2.501224e-02 4.332284e-03 3.561875e-02
<VARIANCE> 39
 2.072058e+01 1.063000e+01 1.174827e+01 1.093772e+01 9.814502e+00 1.091598e+01 1.441756e+01 1.544537e+01 1.714368e+01 1.601278e+01 1.478757e+01 1.387926e+01 3.788363e+01 1.975315e-01 2.869329e-01 4.431953e-01 6.769302e-01 8.616202e-01 1.059003e+00 1.195610e+00 1.340356e+00 1.405205e+00 1.361337e+00 1.310576e+00 1.175079e+00 1.432506e-01 2.422450e-02 4.716960e-02 7.547744e-02 1.214214e-01 1.544999e-01 1.896171e-01 2.099902e-01 2.382278e-01 2.593593e-01 2.592697e-01 2.503101e-01 2.301252e-01 1.028273e-02
<GCONST> 7.390124e+01
<MIXTURE> 2 1.452999e-01
<MEAN> 39
 -4.905749e+00 1.570553e+00 -2.020708e+00 -3.195290e+00 3.197901e-01 -8.349287e-01 -2.356258e+00 -1.891150e+00 -2.913651e+00 -2.171273e+00 -9.848868e-01 -2.326458e+00 6.335125e+01 2.963197e-02 1.053061e-01 1.270278e-01 1.526700e-01 1.464043e-01 1.196104e-01 9.561908e-02 3.767360e-02 1.151884e-02 1.103762e-02 2.574000e-02 8.518689e-03 -4.018488e-01 -1.705198e-02 -3.379556e-02 -5.629699e-02 -7.658136e-02 -8.259968e-02 -5.856095e-02 -1.564181e-02 1.679210e-02 1.844664e-02 8.374377e-03 -5.392397e-03 -6.171746e-03 1.558171e-02
<VARIANCE> 39
 1.116584e+01 8.810922e+00 7.966837e+00 8.696748e+00 9.282731e+00 1.034552e+01 1.355486e+01 1.628620e+01 1.771555e+01 1.578539e+01 1.466402e+01 1.302455e+01 5.274831e+01 1.650130e-01 2.635480e-01 4.100770e-01 6.125057e-01 8.091195e-01 9.705923e-01 1.129801e+00 1.225870e+00 1.305144e+00 1.284781e+00 1.249545e+00 1.144751e+00 1.699176e-01 2.327214e-02 4.584214e-02 7.603989e-02 1.137606e-01 1.503333e-01 1.824806e-01 2.181666e-01 2.404706e-01 2.588879e-01 2.562424e-01 2.481860e-01 2.299904e-01 1.198436e-02
<GCONST> 7.184966e+01
<MIXTURE> 3 1.452958e-01
<MEAN> 39
 -4.905743e+00 1.570510e+00 -2.020762e+00 -3.195335e+00 3.197619e-01 -8.349193e-01 -2.356202e+00 -1.891068e+00 -2.913550e+00 -2.171184e+00 -9.848291e-01 -2.326422e+00 6.335136e+01 2.963340e-02 1.053069e-01 1.270286e-01 1.526727e-01 1.464079e-01 1.196139e-01 9.562262e-02 3.767718e-02 1.152275e-02 1.104065e-02 2.574147e-02 8.518609e-03 -4.018482e-01 -1.705167e-02 -3.379424e-02 -5.629495e-02 -7.657962e-02 -8.259960e-02 -5.856388e-02 -1.564798e-02 1.678421e-02 1.843799e-02 8.366060e-03 -5.398893e-03 -6.175173e-03 1.558140e-02
<VARIANCE> 39
 1.116579e+01 8.810908e+00 7.966812e+00 8.696764e+00 9.282705e+00 1.034549e+01 1.355482e+01 1.628624e+01 1.771557e+01 1.578543e+01 1.466398e+01 1.302448e+01 5.274855e+01 1.650131e-01 2.635482e-01 4.100786e-01 6.125085e-01 8.091245e-01 9.705961e-01 1.129807e+00 1.225875e+00 1.305146e+00 1.284782e+00 1.249547e+00 1.144754e+00 1.699190e-01 2.327226e-02 4.584248e-02 7.604046e-02 1.137612e-01 1.503337e-01 1.824811e-01 2.181676e-01 2.404715e-01 2.588890e-01 2.562438e-01 2.481863e-01 2.299902e-01 1.198453e-02
<GCONST> 7.184974e+01
<MIXTURE> 4 1.341764e-01
<MEAN> 39
 -4.689925e+00 -1.023113e+00 -5.248043e+00 -7.140129e+00 -3.692032e+00 -4.100810e+00 -4.287645e+00 -2.605132e+00 -3.115301e+00 -2.605378e+00 -1.849221e+00 -2.677636e+00 7.163909e+01 5.947439e-02 2.940299e-02 4.779825e-02 8.276590e-02 6.415020e-02 3.790863e-02 2.433643e-02 -1.338533e-02 3.473517e-03 -1.845964e-03 1.496034e-02 1.530282e-02 -1.563191e-01 -9.139344e-03 2.808282e-02 6.162557e-02 9.844529e-02 1.310512e-01 1.304793e-01 1.026284e-01 6.605338e-02 4.519110e-02 4.166105e-02 3.254363e-02 1.100107e-02 -3.407862e-02
<VARIANCE> 39
 4.396133e+00 7.245048e+00 7.055916e+00 9.485238e+00 9.212417e+00 9.649753e+00 1.305902e+01 1.521061e+01 1.569941e+01 1.395894e+01 1.359978e+01 1.191919e+01 3.286001e+01 1.518650e-01 2.671621e-01 4.324179e-01 6.406623e-01 8.171988e-01 9.590923e-01 1.128482e+00 1.215901e+00 1.260499e+00 1.242076e+00 1.204175e+00 1.103375e+00 2.768042e-01 2.667244e-02 4.971344e-02 8.154324e-02 1.196142e-01 1.493414e-01 1.795513e-01 2.189976e-01 2.376087e-01 2.498273e-01 2.477864e-01 2.433760e-01 2.248911e-01 2.270592e-02
<GCONST> 7.082053e+01
<MIXTURE> 5 1.452983e-01
<MEAN> 39
 -4.905679e+00 1.570498e+00 -2.020808e+00 -3.195403e+00 3.196879e-01 -8.349804e-01 -2.356186e+00 -1.890980e+00 -2.913398e+00 -2.171011e+00 -9.846731e-01 -2.326321e+00 6.335137e+01 2.963546e-02 1.053099e-01 1.270317e-01 1.526779e-01 1.464126e-01 1.196177e-01 9.562353e-02 3.767604e-02 1.151943e-02 1.103824e-02 2.574071e-02 8.517484e-03 -4.018547e-01 -1.705327e-02 -3.379339e-02 -5.629072e-02 -7.657176e-02 -8.258991e-02 -5.855550e-02 -1.564725e-02 1.677560e-02 1.842175e-02 8.346119e-03 -5.417041e-03 -6.186348e-03 1.558063e-02
<VARIANCE> 39
 1.116571e+01 8.810885e+00 7.966655e+00 8.696626e+00 9.282578e+00 1.034537e+01 1.355467e+01 1.628600e+01 1.771526e+01 1.578513e+01 1.466357e+01 1.302418e+01 5.274837e+01 1.650106e-01 2.635453e-01 4.100752e-01 6.125035e-01 8.091156e-01 9.705837e-01 1.129804e+00 1.225869e+00 1.305139e+00 1.284776e+00 1.249538e+00 1.144752e+00 1.699183e-01 2.327156e-02 4.584158e-02 7.603887e-02 1.137592e-01 1.503320e-01 1.824780e-01 2.181641e-01 2.404681e-01 2.588842e-01 2.562379e-01 2.481800e-01 2.299850e-01 1.198408e-02
<GCONST> 7.184919e+01
<MIXTURE> 6 1.341727e-01
<MEAN> 39
 -4.690072e+00 -1.023342e+00 -5.248287e+00 -7.140470e+00 -3.692313e+00 -4.100991e+00 -4.287695e+00 -2.604982e+00 -3.115069e+00 -2.605092e+00 -1.848982e+00 -2.677461e+00 7.163927e+01 5.946985e-02 2.940150e-02 4.781630e-02 8.278814e-02 6.418476e-02 3.794953e-02 2.437706e-02 -1.334921e-02 3.509882e-03 -1.822203e-03 1.497744e-02 1.531247e-02 -1.563095e-01 -9.126537e-03 2.810279e-02 6.165151e-02 9.848203e-02 1.310856e-01 1.305050e-01 1.026384e-01 6.604347e-02 4.516776e-02 4.162878e-02 3.251362e-02 1.098130e-02 -3.408469e-02
<VARIANCE> 39
 4.396378e+00 7.245342e+00 7.056418e+00 9.486158e+00 9.213120e+00 9.650456e+00 1.305973e+01 1.521144e+01 1.570020e+01 1.395963e+01 1.360040e+01 1.191972e+01 3.286098e+01 1.518718e-01 2.671753e-01 4.324409e-01 6.407011e-01 8.172367e-01 9.591291e-01 1.128520e+00 1.215953e+00 1.260555e+00 1.242126e+00 1.204208e+00 1.103409e+00 2.768107e-01 2.667509e-02 4.971743e-02 8.155050e-02 1.196247e-01 1.493522e-01 1.795639e-01 2.190126e-01 2.376232e-01 2.498423e-01 2.478008e-01 2.433887e-01 2.249018e-01 2.270922e-02
<GCONST> 7.082281e+01
<MIXTURE> 7 1.341727e-01
<MEAN> 39
 -4.690072e+00 -1.023342e+00 -5.248287e+00 -7.140470e+00 -3.692313e+00 -4.100991e+00 -4.287695e+00 -2.604982e+00 -3.115069e+00 -2.605092e+00 -1.848982e+00 -2.677461e+00 7.163927e+01 5.946985e-02 2.940150e-02 4.781630e-02 8.278814e-02 6.418476e-02 3.794953e-02 2.437706e-02 -1.334921e-02 3.509882e-03 -1.822203e-03 1.497744e-02 1.531247e-02 -1.563095e-01 -9.126537e-03 2.810279e-02 6.165151e-02 9.848203e-02 1.310856e-01 1.305050e-01 1.026384e-01 6.604347e-02 4.516776e-02 4.162878e-02 3.251362e-02 1.098130e-02 -3.408469e-02
<VARIANCE> 39
 4.396378e+00 7.245342e+00 7.056418e+00 9.486158e+00 9.213120e+00 9.650456e+00 1.305973e+01 1.521144e+01 1.570020e+01 1.395963e+01 1.360040e+01 1.191972e+01 3.286098e+01 1.518718e-01 2.671753e-01 4.324409e-01 6.407011e-01 8.172367e-01 9.591291e-01 1.128520e+00 1.215953e+00 1.260555e+00 1.242126e+00 1.204208e+00 1.103409e+00 2.768107e-01 2.667509e-02 4.971743e-02 8.155050e-02 1.196247e-01 1.493522e-01 1.795639e-01 2.190126e-01 2.376232e-01 2.498423e-01 2.478008e-01 2.433887e-01 2.249018e-01 2.270922e-02
<GCONST> 7.082281e+01
<MIXTURE> 8 7.405161e-02
<MEAN> 39
 -6.439311e+00 -1.766925e-01 -4.002937e+00 -5.321643e+00 -1.223746e+00 -1.196706e+00 -1.117536e+00 3.800535e-01 -5.887790e-01 -1.541610e-01 -2.215812e-01 -2.187633e+00 6.782661e+01 1.882949e-04 -2.570210e-01 -2.855614e-01 -4.824432e-01 -5.507522e-01 -5.710420e-01 -4.012193e-01 -3.158054e-01 -1.794586e-01 -1.220998e-01 -1.358128e-01 -3.039934e-02 3.729438e-01 5.334163e-02 3.268298e-02 4.767506e-02 2.414710e-02 -2.242841e-02 -7.507244e-02 -1.627599e-01 -1.892017e-01 -1.803286e-01 -1.642813e-01 -8.717014e-02 -1.378860e-02 -1.442486e-02
<VARIANCE> 39
 1.136101e+01 9.748930e+00 1.177034e+01 1.441722e+01 1.273833e+01 1.327923e+01 1.484206e+01 1.789801e+01 1.840301e+01 1.667435e+01 1.560742e+01 1.372836e+01 5.969373e+01 4.651783e-01 5.265361e-01 7.376435e-01 1.015051e+00 1.176394e+00 1.196471e+00 1.405065e+00 1.523666e+00 1.583106e+00 1.476151e+00 1.384067e+00 1.302248e+00 6.425278e-01 6.695693e-02 9.653575e-02 1.382616e-01 2.059552e-01 2.360621e-01 2.562977e-01 2.747194e-01 2.995235e-01 3.135616e-01 3.032946e-01 2.909060e-01 2.619581e-01 1.180823e-01
<GCONST> 8.685046e+01
<TRANSP> 5
 0.000000e+00 1.000000e+00 0.000000e+00 0.000000e+00 0.000000e+00
 0.000000e+00 9.681968e-01 3.180321e-02 0.000000e+00 0.000000e+00
 0.000000e+00 0.000000e+00 9.680271e-01 3.197286e-02 0.000000e+00
 0.000000e+00 0.000000e+00 0.000000e+00 9.824199e-01 1.758004e-02
 0.000000e+00 0.000000e+00 0.000000e+00 0.000000e+00 0.000000e+00
<ENDHMM>
~h "co"
<BEGINHMM>
<NUMSTATES> 5
<STATE> 2
<NUMMIXES> 8
<MIXTURE> 1 2.225638e-01
<MEAN> 39
 -1.068434e+01 -4.181790e+00 1.167332e+00 -4.241681e+00 -8.353117e+00 -6.695802e+00 -2.445992e+00 -2.373587e+00 -3.423653e+00 -5.119536e+00 -1.919929e+00 -6.013998e+00 7.144048e+01 -2.873745e-01 -3.210629e-01 -9.037443e-02 2.341066e-01 9.476929e-01 1.678436e-01 6.639360e-01 -4.139604e-02 -7.902914e-02 3.547900e-01 4.579548e-01 4.165089e-01 2.486093e-01 2.542741e-01 -1.613634e-01 -2.773632e-01 -1.065323e-02 -2.153642e-01 -1.666017e-02 -2.855354e-01 -6.166666e-02 -6.977906e-03 3.163775e-02 -1.279215e-01 -9.943177e-02 -3.628727e-01
<VARIANCE> 39
 1.218554e+01 1.439811e+01 1.566710e+01 1.595846e+01 3.466904e+01 4.603913e+01 3.455468e+01 7.688354e+01 3.404474e+01 2.472069e+01 2.384876e+01 2.174225e+01 1.209406e+02 2.984466e-01 3.715837e-01 8.246509e-01 8.654418e-01 1.532755e+00 1.509664e+00 1.560993e+00 1.696632e+00 1.907601e+00 1.851715e+00 1.553732e+00 1.564228e+00 3.180192e-01 5.739463e-02 9.667242e-02 1.421430e-01 2.012435e-01 2.172588e-01 3.049044e-01 3.540885e-01 3.326245e-01 3.237398e-01 3.345287e-01 2.795072e-01 2.865718e-01 9.037863e-02
<GCONST> 9.493586e+01
<MIXTURE> 2 1.323881e-01
<MEAN> 39
 -1.019191e+01 -7.035103e+00 -7.562208e-03 -5.920526e+00 -1.229317e+01 -7.794159e+00 -3.457514e+00 -1.676008e+00 -5.098180e+00 -6.636842e+00 -4.819458e+00 -6.856424e+00 7.260277e+01 -1.000448e+00 6.713908e-01 3.718314e-01 -1.942704e-01 6.559274e-01 -1.206686e-01 5.010418e-01 -5.946109e-01 -7.632832e-01 -4.125020e-01 3.367038e-01 1.518933e-01 1.934159e+00 1.274395e-01 -1.924207e-01 -2.061230e-01 2.912140e-01 2.970448e-01 2.441223e-01 1.307847e-01 1.842956e-01 3.819054e-01 3.771753e-01 2.681340e-01 1.287276e-01 -6.813861e-01
<VARIANCE> 39
 1.404244e+01 1.690400e+01 2.989928e+01 2.762085e+01 3.585072e+01 3.963639e+01 6.275257e+01 6.869485e+01 3.819627e+01 3.072897e+01 3.021221e+01 3.143340e+01 2.799680e+01 6.337769e-01 1.732710e+00 1.750293e+00 2.069814e+00 2.046757e+00 2.409951e+00 3.182456e+00 2.506928e+00 2.764993e+00 2.751621e+00 2.080876e+00 2.065216e+00 1.293436e+00 1.351687e-01 2.345391e-01 2.999274e-01 3.033175e-01 3.379945e-01 4.234394e-01 4.347345e-01 4.246249e-01 4.192051e-01 3.941820e-01 3.816516e-01 3.503426e-01 2.039155e-01
<GCONST> 1.106607e+02
<MIXTURE> 3 1.323809e-01
<MEAN> 39
 -1.019238e+01 -7.035477e+00 -7.207783e-03 -5.920055e+00 -1.229234e+01 -7.793472e+00 -3.457155e+00 -1.676034e+00 -5.097812e+00 -6.636800e+00 -4.819366e+00 -6.856007e+00 7.260220e+01 -1.000391e+00 6.712326e-01 3.717673e-01 -1.942001e-01 6.558337e-01 -1.206380e-01 5.010328e-01 -5.947018e-01 -7.632171e-01 -4.124292e-01 3.367501e-01 1.519012e-01 1.934093e+00 1.274835e-01 -1.923698e-01 -2.061431e-01 2.911411e-01 2.969903e-01 2.440365e-01 1.307367e-01 1.842790e-01 3.818815e-01 3.771781e-01 2.680940e-01 1.286893e-01 -6.813498e-01
<VARIANCE> 39
 1.404652e+01 1.690525e+01 2.989927e+01 2.762107e+01 3.585361e+01 3.964030e+01 6.275723e+01 6.869188e+01 3.819762e+01 3.073008e+01 3.021449e+01 3.143371e+01 2.799845e+01 6.338635e-01 1.732575e+00 1.750283e+00 2.069742e+00 2.046675e+00 2.409971e+00 3.182334e+00 2.507001e+00 2.764985e+00 2.751642e+00 2.080934e+00 2.065168e+00 1.293505e+00 1.352254e-01 2.345368e-01 2.999239e-01 3.033060e-01 3.379852e-01 4.234818e-01 4.347452e-01 4.246358e-01 4.192125e-01 3.941881e-01 3.816781e-01 3.503431e-01 2.039227e-01
<GCONST> 1.106622e+02
<MIXTURE> 4 8.278060e-02
<MEAN> 39
 -6.673132e+00 -5.224849e+00 -1.923375e+00 -1.907335e+00 -5.421954e+00 -7.330719e-01 -1.681487e+00 1.961802e+00 2.951818e+00 7.714671e-01 -4.448802e-01 -4.198139e+00 5.373942e+01 -2.147395e-01 -1.001495e+00 2.807130e-01 -2.967765e-01 -1.664330e+00 -1.467586e+00 -8.330025e-01 -5.554564e-01 -5.910407e-01 -8.463064e-01 -7.335691e-01 -4.291859e-01 2.601164e+00 -8.361879e-02 -3.893042e-03 8.279172e-02 -1.185346e-01 -1.488625e-01 -1.638933e-01 -5.260797e-02 -1.548851e-01 -3.032953e-01 -2.216340e-01 -1.153358e-01 -7.139950e-02 5.609922e-01
<VARIANCE> 39
 2.722013e+01 3.357150e+01 2.418785e+01 2.775379e+01 8.853448e+01 4.309371e+01 8.376859e+01 5.535235e+01 4.006224e+01 2.777718e+01 3.190052e+01 3.048199e+01 7.361572e+01 1.902240e+00 2.353410e+00 2.333731e+00 2.667974e+00 4.779609e+00 4.003136e+00 4.410529e+00 3.997680e+00 3.696891e+00 3.080430e+00 2.478743e+00 2.265838e+00 3.274182e+00 1.702606e-01 2.247165e-01 1.910922e-01 2.355901e-01 5.207322e-01 5.225331e-01 5.591848e-01 3.971299e-01 3.965214e-01 3.261560e-01 3.410638e-01 3.227265e-01 3.685997e-01
<GCONST> 1.199586e+02
<MIXTURE> 5 1.323915e-01
<MEAN> 39
 -1.019125e+01 -7.034458e+00 -8.377789e-03 -5.920589e+00 -1.229395e+01 -7.794757e+00 -3.458170e+00 -1.675473e+00 -5.098353e+00 -6.637635e+00 -4.819883e+00 -6.856885e+00 7.260368e+01 -1.000392e+00 6.715307e-01 3.717873e-01 -1.942481e-01 6.561254e-01 -1.206971e-01 5.010627e-01 -5.944908e-01 -7.631923e-01 -4.124098e-01 3.366981e-01 1.518070e-01 1.933963e+00 1.273724e-01 -1.925607e-01 -2.060353e-01 2.912123e-01 2.969958e-01 2.441082e-01 1.307896e-01 1.842283e-01 3.818706e-01 3.771623e-01 2.681300e-01 1.287619e-01 -6.812974e-01
<VARIANCE> 39
 1.403637e+01 1.690313e+01 2.989924e+01 2.762175e+01 3.584401e+01 3.963513e+01 6.275225e+01 6.869952e+01 3.819816e+01 3.072707e+01 3.021190e+01 3.143263e+01 2.799846e+01 6.335557e-01 1.732484e+00 1.750134e+00 2.069909e+00 2.046636e+00 2.409898e+00 3.182545e+00 2.506861e+00 2.764812e+00 2.751537e+00 2.080778e+00 2.065323e+00 1.293152e+00 1.350301e-01 2.345221e-01 2.998902e-01 3.032936e-01 3.379222e-01 4.233086e-01 4.347062e-01 4.245610e-01 4.191723e-01 3.941389e-01 3.815754e-01 3.503190e-01 2.038855e-01
<GCONST> 1.106566e+02
<MIXTURE> 6 8.257478e-02
<MEAN> 39
 -6.676549e+00 -5.245124e+00 -1.936915e+00 -1.894847e+00 -5.484244e+00 -7.566384e-01 -1.738354e+00 1.924227e+00 2.962031e+00 7.632304e-01 -4.467031e-01 -4.221177e+00 5.379700e+01 -2.156689e-01 -9.963093e-01 2.830409e-01 -3.005436e-01 -1.656723e+00 -1.468559e+00 -8.299784e-01 -5.575675e-01 -5.928207e-01 -8.524210e-01 -7.345239e-01 -4.286875e-01 2.602837e+00 -8.421525e-02 -2.190576e-03 8.322593e-02 -1.183915e-01 -1.450001e-01 -1.615089e-01 -4.886330e-02 -1.531625e-01 -3.030483e-01 -2.210100e-01 -1.137597e-01 -6.941568e-02 5.573911e-01
<VARIANCE> 39
 2.724385e+01 3.353619e+01 2.428336e+01 2.783880e+01 8.912330e+01 4.323012e+01 8.438758e+01 5.574929e+01 4.030720e+01 2.787081e+01 3.200286e+01 3.067764e+01 7.374950e+01 1.902857e+00 2.352014e+00 2.337934e+00 2.667354e+00 4.780560e+00 3.995701e+00 4.405095e+00 3.994276e+00 3.697257e+00 3.077984e+00 2.474657e+00 2.262075e+00 3.265792e+00 1.702752e-01 2.239434e-01 1.910514e-01 2.353379e-01 5.201228e-01 5.217615e-01 5.592973e-01 3.963928e-01 3.963087e-01 3.258663e-01 3.407106e-01 3.227139e-01 3.678119e-01
<GCONST> 1.199880e+02
<MIXTURE> 7 8.272812e-02
<MEAN> 39
 -6.663011e+00 -5.225782e+00 -1.928444e+00 -1.902334e+00 -5.438915e+00 -7.345374e-01 -1.696116e+00 1.954274e+00 2.952745e+00 7.675171e-01 -4.474274e-01 -4.206875e+00 5.374332e+01 -2.150176e-01 -1.000360e+00 2.817701e-01 -2.972645e-01 -1.661993e+00 -1.468019e+00 -8.329193e-01 -5.565912e-01 -5.918822e-01 -8.480246e-01 -7.340778e-01 -4.296762e-01 2.601994e+00 -8.458101e-02 -3.626000e-03 8.328287e-02 -1.183813e-01 -1.475391e-01 -1.632035e-01 -5.161638e-02 -1.548060e-01 -3.033001e-01 -2.214340e-01 -1.148805e-01 -7.075448e-02 5.605687e-01
<VARIANCE> 39
 2.709129e+01 3.355638e+01 2.421776e+01 2.777236e+01 8.868414e+01 4.311389e+01 8.395209e+01 5.545799e+01 4.011008e+01 2.780278e+01 3.193950e+01 3.053353e+01 7.355752e+01 1.895342e+00 2.354074e+00 2.334789e+00 2.667299e+00 4.778419e+00 3.999208e+00 4.411056e+00 3.995276e+00 3.696222e+00 3.079732e+00 2.477534e+00 2.265063e+00 3.270429e+00 1.690743e-01 2.244717e-01 1.908950e-01 2.353621e-01 5.201892e-01 5.217338e-01 5.592691e-01 3.963979e-01 3.958816e-01 3.259832e-01 3.409247e-01 3.226629e-01 3.676706e-01
<GCONST> 1.199389e+02
<MIXTURE> 8 1.321878e-01
<MEAN> 39
 -5.992530e+00 -1.149378e+01 -3.388816e+00 -2.506212e+00 -1.558778e+01 -6.545060e+00 -5.564335e+00 7.104881e-01 -2.919366e-01 -2.419126e+00 -3.021333e+00 -7.505346e+00 6.452328e+01 -6.480380e-01 -3.212766e-01 3.427853e-01 -1.493128e+00 -2.121240e+00 -1.969713e+00 -1.511430e+00 -1.683002e+00 -1.723263e+00 -1.601767e+00 -1.163176e+00 -1.251236e+00 5.300251e+00 -3.078360e-01 9.983040e-01 2.897664e-01 -1.197925e-01 1.098651e+00 4.201453e-01 6.680469e-01 1.366423e-01 -2.042173e-01 -7.647970e-02 2.553393e-01 3.179229e-01 -3.709444e-01
<VARIANCE> 39
 1.242609e+01 5.062678e+01 3.201624e+01 4.682513e+01 4.733742e+01 5.885999e+01 1.156841e+02 7.604325e+01 5.624766e+01 5.620629e+01 4.271416e+01 3.957070e+01 3.851129e+01 1.019431e+00 4.879963e+00 2.798826e+00 3.529161e+00 5.682720e+00 3.269739e+00 4.752242e+00 4.071584e+00 4.123237e+00 2.795751e+00 2.596865e+00 2.494336e+00 1.633195e+00 1.951596e-01 5.867562e-01 4.792771e-01 6.885098e-01 5.383018e-01 8.055400e-01 1.205421e+00 7.963786e-01 8.689317e-01 8.046618e-01 5.963190e-01 6.095435e-01 4.288008e-01
<GCONST> 1.298053e+02
<STATE> 3
<NUMMIXES> 8
<MIXTURE> 1 1.221645e-01
<MEAN> 39
 -2.165379e+00 -3.877474e+00 -8.196949e-02 -2.169195e+00 -3.056318e+00 -8.112949e+00 -7.589454e+00 -9.166466e+00 -6.758919e+00 -3.438819e+00 -2.382949e+00 -6.768312e+00 5.822034e+01 1.571842e-01 2.320552e-01 2.322366e-01 2.052188e-01 3.464323e-01 4.296173e-01 3.525284e-01 3.571523e-01 1.786613e-01 1.037776e-01 4.292525e-02 1.099122e-01 -7.389979e-01 -9.898682e-02 -1.305566e-01 -1.085932e-01 -5.963850e-02 -1.465260e-01 3.370475e-02 1.212233e-01 2.477701e-01 2.418748e-01 1.207360e-01 2.146216e-02 6.598765e-03 7.533273e-02
<VARIANCE> 39
 5.866051e+00 7.997033e+00 1.209631e+01 1.210459e+01 1.586921e+01 2.299422e+01 2.507303e+01 5.335191e+01 3.102292e+01 3.349848e+01 2.455225e+01 2.931628e+01 2.762185e+01 1.536688e-01 2.743138e-01 4.620474e-01 6.895617e-01 9.581440e-01 1.109292e+00 1.373981e+00 1.515663e+00 1.628236e+00 1.541218e+00 1.398215e+00 1.280131e+00 6.767229e-02 3.316483e-02 7.315432e-02 9.591295e-02 1.529769e-01 2.420382e-01 2.632256e-01 3.123941e-01 3.218843e-01 3.367414e-01 3.388782e-01 3.182893e-01 2.795523e-01 4.656164e-02
<GCONST> 8.279692e+01
<MIXTURE> 2 1.758769e-01
<MEAN> 39
 -7.386890e+00 -7.905528e+00 -2.431861e+00 -4.019638e+00 -6.435216e+00 -8.695838e+00 -6.061263e+00 -6.425100e+00 -3.417941e+00 -2.767401e+00 -2.753765e+00 -7.524391e+00 6.814230e+01 2.231513e-01 6.325305e-02 4.304576e-02 2.015540e-01 3.872100e-01 7.877744e-02 3.828562e-02 -1.337066e-01 1.908814e-02 1.338617e-01 7.228018e-02 5.070183e-02 -6.847584e-01 3.344912e-02 5.865505e-02 5.389653e-02 3.188769e-02 -1.370318e-02 -1.010069e-02 -6.110943e-02 -7.957517e-02 -1.323816e-01 -1.232498e-01 -7.181138e-02 -1.822309e-02 -9.579597e-03
<VARIANCE> 39
 2.079480e+01 1.178612e+01 2.441759e+01 2.358466e+01 2.202382e+01 2.613477e+01 5.054435e+01 5.277452e+01 3.554016e+01 3.560926e+01 3.569904e+01 3.547266e+01 3.439708e+01 1.551309e-01 3.040097e-01 5.434899e-01 7.027079e-01 9.822168e-01 1.091729e+00 1.323530e+00 1.507331e+00 1.630359e+00 1.601486e+00 1.430241e+00 1.335771e+00 9.286764e-02 3.172670e-02 6.027381e-02 1.012765e-01 1.467912e-01 2.017510e-01 2.279078e-01 2.776740e-01 3.069844e-01 3.402228e-01 3.325488e-01 3.018881e-01 2.849879e-01 1.462966e-02
<GCONST> 8.671161e+01
<MIXTURE> 3 1.758732e-01
<MEAN> 39
 -7.386250e+00 -7.905477e+00 -2.432192e+00 -4.019962e+00 -6.435443e+00 -8.696228e+00 -6.062191e+00 -6.424984e+00 -3.417981e+00 -2.767799e+00 -2.754275e+00 -7.524848e+00 6.814214e+01 2.231687e-01 6.326913e-02 4.308435e-02 2.015634e-01 3.872057e-01 7.877901e-02 3.827402e-02 -1.336896e-01 1.908593e-02 1.338482e-01 7.227165e-02 5.069247e-02 -6.847894e-01 3.343247e-02 5.864510e-02 5.389452e-02 3.189519e-02 -1.368399e-02 -1.007630e-02 -6.107415e-02 -7.955179e-02 -1.323548e-01 -1.232128e-01 -7.176992e-02 -1.819286e-02 -9.583091e-03
<VARIANCE> 39
 2.079298e+01 1.178603e+01 2.441795e+01 2.358427e+01 2.202335e+01 2.613446e+01 5.054008e+01 5.277467e+01 3.554180e+01 3.561051e+01 3.570004e+01 3.547313e+01 3.439761e+01 1.551259e-01 3.040080e-01 5.434884e-01 7.027102e-01 9.822099e-01 1.091728e+00 1.323537e+00 1.507353e+00 1.630375e+00 1.601511e+00 1.430250e+00 1.335789e+00 9.286183e-02 3.172377e-02 6.027068e-02 1.012742e-01 1.467887e-01 2.017476e-01 2.279034e-01 2.776695e-01 3.069802e-01 3.402200e-01 3.325471e-01 3.018858e-01 2.849883e-01 1.462810e-02
<GCONST> 8.671111e+01
<MIXTURE> 4 8.421041e-02
<MEAN> 39
 -8.074179e+00 -7.923473e+00 -2.623598e+00 -3.720397e+00 -8.504764e+00 -8.915305e+00 -7.524981e+00 -8.311049e+00 -4.894871e+00 -4.851370e+00 -4.155919e+00 -9.178296e+00 7.118697e+01 3.213024e-01 -4.372644e-02 -1.953073e-01 -2.270168e-01 -2.071102e-01 -2.916806e-01 -6.425347e-01 -3.945086e-01 8.679562e-02 1.317994e-01 4.869596e-03 -3.034830e-01 4.997749e-02 3.134485e-02 -7.078832e-02 -2.683015e-02 1.197269e-02 2.442408e-02 3.944543e-02 4.882346e-02 1.205077e-01 1.932005e-01 1.697061e-01 6.304870e-02 2.100906e-02 -1.094325e-01
<VARIANCE> 39
 1.368901e+01 1.417237e+01 2.999393e+01 2.378263e+01 2.664538e+01 2.846481e+01 4.787346e+01 6.982071e+01 4.742873e+01 3.859164e+01 3.829613e+01 3.684335e+01 2.121605e+01 5.892912e-01 8.584605e-01 1.147298e+00 1.206149e+00 1.723521e+00 1.809981e+00 2.911036e+00 3.047343e+00 3.456849e+00 2.980175e+00 2.294498e+00 2.128619e+00 3.072237e-01 9.219822e-02 1.510640e-01 1.985421e-01 2.361883e-01 3.226423e-01 3.323126e-01 4.803924e-01 5.233624e-01 6.254611e-01 5.325623e-01 4.094588e-01 3.619184e-01 1.091096e-01
<GCONST> 1.056106e+02
<MIXTURE> 5 1.758758e-01
<MEAN> 39
 -7.385988e+00 -7.905369e+00 -2.432410e+00 -4.020200e+00 -6.435537e+00 -8.696463e+00 -6.062489e+00 -6.424825e+00 -3.418158e+00 -2.768112e+00 -2.754441e+00 -7.524909e+00 6.814213e+01 2.231815e-01 6.328156e-02 4.310221e-02 2.015669e-01 3.872003e-01 7.877156e-02 3.825422e-02 -1.336940e-01 1.907252e-02 1.338316e-01 7.225565e-02 5.068214e-02 -6.848064e-01 3.342402e-02 5.864018e-02 5.389737e-02 3.190179e-02 -1.367160e-02 -1.006286e-02 -6.106094e-02 -7.954110e-02 -1.323376e-01 -1.231926e-01 -7.175786e-02 -1.818954e-02 -9.584178e-03
<VARIANCE> 39
 2.079207e+01 1.178532e+01 2.441836e+01 2.358287e+01 2.202273e+01 2.613414e+01 5.053614e+01 5.277467e+01 3.554205e+01 3.561073e+01 3.569968e+01 3.547307e+01 3.439822e+01 1.551215e-01 3.040046e-01 5.434892e-01 7.027116e-01 9.821987e-01 1.091722e+00 1.323539e+00 1.507350e+00 1.630370e+00 1.601512e+00 1.430235e+00 1.335788e+00 9.285780e-02 3.172143e-02 6.026771e-02 1.012701e-01 1.467835e-01 2.017422e-01 2.278980e-01 2.776625e-01 3.069751e-01 3.402137e-01 3.325381e-01 3.018779e-01 2.849854e-01 1.462635e-02
<GCONST> 8.671030e+01
<MIXTURE> 6 8.422299e-02
<MEAN> 39
 -8.074059e+00 -7.921631e+00 -2.621675e+00 -3.719402e+00 -8.503613e+00 -8.915766e+00 -7.524505e+00 -8.314356e+00 -4.898534e+00 -4.853049e+00 -4.157056e+00 -9.177720e+00 7.118620e+01 3.215398e-01 -4.363439e-02 -1.955531e-01 -2.274019e-01 -2.074965e-01 -2.918753e-01 -6.429495e-01 -3.947520e-01 8.669335e-02 1.318134e-01 4.877279e-03 -3.036148e-01 5.020173e-02 3.127169e-02 -7.100051e-02 -2.699246e-02 1.183876e-02 2.438090e-02 3.955167e-02 4.893652e-02 1.208805e-01 1.937252e-01 1.701285e-01 6.330510e-02 2.102658e-02 -1.094523e-01
<VARIANCE> 39
 1.368782e+01 1.417219e+01 2.998617e+01 2.377967e+01 2.664447e+01 2.846562e+01 4.786553e+01 6.983030e+01 4.742073e+01 3.858192e+01 3.828798e+01 3.683424e+01 2.121610e+01 5.896572e-01 8.585965e-01 1.147547e+00 1.206543e+00 1.723947e+00 1.810352e+00 2.911917e+00 3.047652e+00 3.457245e+00 2.980361e+00 2.294766e+00 2.128757e+00 3.073114e-01 9.221234e-02 1.510606e-01 1.985444e-01 2.362130e-01 3.226516e-01 3.323304e-01 4.804121e-01 5.234306e-01 6.255174e-01 5.326061e-01 4.094811e-01 3.618917e-01 1.091187e-01
<GCONST> 1.056128e+02
<MIXTURE> 7 8.423512e-02
<MEAN> 39
 -8.072326e+00 -7.920529e+00 -2.621724e+00 -3.720679e+00 -8.505816e+00 -8.917870e+00 -7.528354e+00 -8.317104e+00 -4.900438e+00 -4.854884e+00 -4.158512e+00 -9.179719e+00 7.118741e+01 3.212958e-01 -4.400462e-02 -1.957318e-01 -2.277290e-01 -2.075068e-01 -2.915371e-01 -6.425426e-01 -3.938161e-01 8.775337e-02 1.327402e-01 5.506414e-03 -3.034897e-01 5.033334e-02 3.110447e-02 -7.116808e-02 -2.695929e-02 1.199428e-02 2.468325e-02 3.985235e-02 4.935945e-02 1.212711e-01 1.941048e-01 1.704278e-01 6.349520e-02 2.117376e-02 -1.096475e-01
<VARIANCE> 39
 1.368127e+01 1.417244e+01 2.997872e+01 2.377744e+01 2.663698e+01 2.846817e+01 4.784939e+01 6.983968e+01 4.741674e+01 3.857475e+01 3.828292e+01 3.682909e+01 2.121334e+01 5.896918e-01 8.587328e-01 1.147933e+00 1.206855e+00 1.724318e+00 1.810440e+00 2.912466e+00 3.047666e+00 3.457154e+00 2.980142e+00 2.294676e+00 2.129089e+00 3.074169e-01 9.221607e-02 1.510703e-01 1.985628e-01 2.362216e-01 3.226391e-01 3.323181e-01 4.803969e-01 5.234635e-01 6.255315e-01 5.325880e-01 4.094616e-01 3.618767e-01 1.091151e-01
<GCONST> 1.056126e+02
<MIXTURE> 8 9.748466e-02
<MEAN> 39
 -5.552705e+00 -8.267109e+00 -1.170616e+00 -2.304532e+00 -9.348932e+00 -7.934386e+00 -6.717306e+00 -4.965241e+00 -2.262256e+00 -3.337621e+00 -5.465794e+00 -7.248402e+00 6.414278e+01 -1.017173e+00 -3.690382e-01 2.299935e-01 -2.191879e-01 -1.130662e+00 4.232372e-02 3.042977e-01 7.991434e-01 -3.058376e-01 -8.635696e-01 -5.596481e-01 1.056522e-01 2.380723e+00 -1.152380e-01 8.888800e-02 3.379116e-02 -9.523887e-02 1.831245e-01 4.495770e-03 9.296637e-02 -7.194176e-02 -5.456735e-02 3.898666e-02 1.306887e-01 2.443280e-02 1.428365e-01
<VARIANCE> 39
 1.342231e+01 3.225828e+01 2.773114e+01 2.743736e+01 4.614733e+01 3.605156e+01 6.000786e+01 5.962247e+01 6.109423e+01 3.923650e+01 4.731226e+01 3.700241e+01 7.251116e+01 8.090841e-01 3.609505e+00 2.426708e+00 3.306750e+00 4.723959e+00 3.406658e+00 4.489977e+00 4.481684e+00 6.983186e+00 3.392901e+00 4.069319e+00 2.746377e+00 3.036597e+00 1.666185e-01 7.112449e-01 3.851838e-01 5.499661e-01 1.012197e+00 5.885373e-01 7.717822e-01 8.330382e-01 1.330253e+00 7.144316e-01 7.812163e-01 4.726495e-01 9.522376e-01
<GCONST> 1.293987e+02
<STATE> 4
<NUMMIXES> 8
<MIXTURE> 1 8.558734e-02
<MEAN> 39
 -3.736010e+00 1.662006e-01 1.871719e+00 2.505993e-02 1.422899e+00 -4.240902e-01 -8.184267e-01 2.091325e-01 -2.327571e+00 -3.387452e+00 -3.622280e+00 -5.811588e+00 4.794246e+01 3.293999e-02 3.353787e-01 1.252485e-01 2.120053e-01 4.711126e-01 6.688301e-01 6.957359e-01 6.403605e-01 1.606428e-01 -5.327138e-02 -2.041911e-01 -1.784677e-01 -2.421740e-01 4.048370e-02 5.217479e-02 1.226494e-01 1.674821e-01 1.481871e-01 1.095316e-01 6.736355e-02 2.182153e-02 6.387041e-02 6.503826e-02 2.324879e-02 -3.329693e-02 5.294507e-02
<VARIANCE> 39
