~o
<STREAMINFO> 1 39
<VECSIZE> 39<NULLD><MFCC_D_A_0><DIAGC>
~h "ap"
<BEGINHMM>
<NUMSTATES> 5
<STATE> 2
<NUMMIXES> 8
<MIXTURE> 1 1.713982e-01
<MEAN> 39
 -9.795218e+00 -5.976314e+00 -1.455288e+00 6.035162e-01 2.627727e+00 -7.270942e-01 5.514860e+00 1.761190e+00 1.062958e+00 7.388535e-01 9.883426e-01 -5.916425e-01 5.329269e+01 4.097523e-01 4.582530e-01 2.451606e-01 1.100142e-01 2.920430e-01 5.705005e-01 4.796686e-01 6.088349e-01 4.130245e-01 3.512304e-01 2.122517e-01 2.378766e-02 -5.340908e-01 -2.994498e-02 -2.395605e-02 -6.899354e-02 -8.280605e-02 -8.299191e-02 -6.249397e-02 -1.032646e-01 -1.117093e-01 -9.923960e-02 -4.886477e-02 -1.785645e-02 -2.353565e-03 2.804239e-02
<VARIANCE> 39
 1.232092e+01 2.004474e+01 1.886965e+01 2.044826e+01 2.009934e+01 2.911471e+01 2.044677e+01 2.029863e+01 1.685751e+01 1.595553e+01 1.413192e+01 1.543313e+01 1.838933e+01 1.348963e-01 2.341872e-01 4.420672e-01 6.486911e-01 8.208533e-01 9.710064e-01 1.127546e+00 1.201528e+00 1.231369e+00 1.227646e+00 1.213950e+00 1.121928e+00 7.238127e-02 1.968374e-02 4.069493e-02 7.910012e-02 1.185365e-01 1.563084e-01 2.064551e-01 2.293658e-01 2.497818e-01 2.464102e-01 2.516191e-01 2.428531e-01 2.268835e-01 6.225045e-03
<GCONST> 7.405196e+01
<MIXTURE> 2 2.060566e-01
<MEAN> 39
 -1.454182e+01 -1.070085e+01 -5.434865e+00 -2.089658e+00 -5.864312e-01 -3.862567e+00 1.899208e+00 -2.678172e+00 -1.095888e+00 -3.568150e-01 4.102553e-01 -3.077260e-01 6.371901e+01 3.294625e-01 1.738196e-01 1.863331e-01 1.140816e-01 1.845323e-01 1.041695e-01 8.326136e-02 1.608233e-02 -6.341256e-02 -6.896633e-02 -2.389035e-02 -2.805788e-02 -8.366064e-01 -1.692276e-02 1.996815e-02 8.450119e-03 1.455662e-02 3.483172e-03 -3.358219e-04 -4.377766e-03 3.103705e-02 1.256723e-02 5.962443e-03 -2.435629e-03 -2.729067e-03 2.997184e-02
<VARIANCE> 39
 2.112394e+01 3.347526e+01 2.566261e+01 2.418356e+01 2.996881e+01 3.208495e+01 2.509682e+01 2.411184e+01 2.077248e+01 1.893845e+01 1.721493e+01 1.566350e+01 7.818326e+01 1.234533e-01 2.486397e-01 4.277358e-01 6.789497e-01 9.233072e-01 1.023939e+00 1.207815e+00 1.291183e+00 1.331177e+00 1.324245e+00 1.272564e+00 1.206156e+00 7.792096e-02 3.047976e-02 5.477262e-02 8.868342e-02 1.377702e-01 1.873243e-01 2.232340e-01 2.579927e-01 2.784226e-01 2.898143e-01 2.855685e-01 2.696332e-01 2.519189e-01 4.014838e-02
<GCONST> 8.298126e+01
<MIXTURE> 3 2.060559e-01
<MEAN> 39
 -1.454187e+01 -1.070092e+01 -5.434917e+00 -2.089685e+00 -5.864778e-01 -3.862602e+00 1.899175e+00 -2.678220e+00 -1.095907e+00 -3.568210e-01 4.102468e-01 -3.077189e-01 6.371914e+01 3.294631e-01 1.738188e-01 1.863353e-01 1.140856e-01 1.845367e-01 1.041707e-01 8.326409e-02 1.608276e-02 -6.341131e-02 -6.896479e-02 -2.388844e-02 -2.805619e-02 -8.366096e-01 -1.692193e-02 1.996926e-02 8.451392e-03 1.455794e-02 3.484745e-03 -3.343523e-04 -4.376534e-03 3.103839e-02 1.256764e-02 5.962376e-03 -2.435649e-03 -2.729453e-03 2.997055e-02
<VARIANCE> 39
 2.112399e+01 3.347547e+01 2.566283e+01 2.418382e+01 2.996903e+01 3.208511e+01 2.509698e+01 2.411199e+01 2.077268e+01 1.893857e+01 1.721508e+01 1.566363e+01 7.818371e+01 1.234540e-01 2.486410e-01 4.277388e-01 6.789541e-01 9.233149e-01 1.023947e+00 1.207823e+00 1.291194e+00 1.331185e+00 1.324252e+00 1.272573e+00 1.206163e+00 7.792064e-02 3.047977e-02 5.477301e-02 8.868393e-02 1.377715e-01 1.873261e-01 2.232356e-01 2.579949e-01 2.784248e-01 2.898175e-01 2.855709e-01 2.696352e-01 2.519205e-01 4.014817e-02
<GCONST> 8.298151e+01
<MIXTURE> 4 3.608883e-02
<MEAN> 39
 -1.910289e+01 -1.296160e+01 -8.742361e+00 -3.870889e+00 -4.755177e+00 -7.677476e+00 -1.851160e+00 -3.681285e+00 -2.984339e+00 -1.294862e+00 -7.510078e-01 -1.435946e+00 7.665691e+01 -7.311052e-01 -1.669195e+00 -9.577489e-01 -5.721312e-01 -8.886665e-01 -6.047104e-01 6.621529e-02 -3.760656e-01 1.141016e-01 9.102832e-02 3.541612e-02 1.471859e-01 2.868272e+00 7.373822e-01 6.048220e-01 4.780647e-01 2.346276e-01 5.448402e-01 6.193268e-01 5.407205e-01 4.313686e-01 3.050882e-01 1.787701e-01 1.279926e-01 2.689257e-02 -1.844166e+00
<VARIANCE> 39
 2.184065e+01 3.881015e+01 3.001558e+01 2.948998e+01 3.446709e+01 3.988765e+01 3.221329e+01 2.944395e+01 2.995790e+01 2.292317e+01 2.061166e+01 1.894172e+01 9.221272e+01 2.466167e+00 3.759309e+00 2.191940e+00 2.072060e+00 3.022080e+00 3.721581e+00 3.009942e+00 3.096476e+00 2.700513e+00 2.093831e+00 1.870303e+00 1.637005e+00 1.408333e+01 4.796888e-01 4.562790e-01 3.355370e-01 4.128834e-01 5.033836e-01 7.109455e-01 6.074800e-01 5.449936e-01 5.309316e-01 4.244389e-01 3.744195e-01 3.457563e-01 1.918965e+00
<GCONST> 1.216870e+02
<MIXTURE> 5 2.060562e-01
<MEAN> 39
 -1.454186e+01 -1.070091e+01 -5.434912e+00 -2.089683e+00 -5.864714e-01 -3.862605e+00 1.899176e+00 -2.678217e+00 -1.095907e+00 -3.568222e-01 4.102481e-01 -3.077180e-01 6.371912e+01 3.294631e-01 1.738187e-01 1.863352e-01 1.140851e-01 1.845364e-01 1.041707e-01 8.326416e-02 1.608333e-02 -6.341071e-02 -6.896424e-02 -2.388798e-02 -2.805575e-02 -8.366094e-01 -1.692184e-02 1.996919e-02 8.451392e-03 1.455767e-02 3.484626e-03 -3.341548e-04 -4.376356e-03 3.103850e-02 1.256805e-02 5.962780e-03 -2.435450e-03 -2.729411e-03 2.997037e-02
<VARIANCE> 39
 2.112394e+01 3.347543e+01 2.566283e+01 2.418381e+01 2.996899e+01 3.208509e+01 2.509696e+01 2.411195e+01 2.077265e+01 1.893854e+01 1.721508e+01 1.566362e+01 7.818360e+01 1.234538e-01 2.486407e-01 4.277378e-01 6.789529e-01 9.233146e-01 1.023947e+00 1.207821e+00 1.291194e+00 1.331187e+00 1.324254e+00 1.272572e+00 1.206164e+00 7.792044e-02 3.047966e-02 5.477292e-02 8.868381e-02 1.377710e-01 1.873259e-01 2.232354e-01 2.579947e-01 2.784244e-01 2.898164e-01 2.855703e-01 2.696352e-01 2.519203e-01 4.014761e-02
<GCONST> 8.298148e+01
<MIXTURE> 6 3.611074e-02
<MEAN> 39
 -1.910530e+01 -1.296423e+01 -8.744807e+00 -3.871212e+00 -4.757095e+00 -7.680154e+00 -1.853264e+00 -3.683311e+00 -2.986333e+00 -1.295761e+00 -7.515195e-01 -1.436298e+00 7.666486e+01 -7.318137e-01 -1.670490e+00 -9.585030e-01 -5.724721e-01 -8.893783e-01 -6.054748e-01 6.580217e-02 -3.766909e-01 1.137818e-01 9.085932e-02 3.525881e-02 1.471687e-01 2.870676e+00 7.378742e-01 6.051151e-01 4.783357e-01 2.346399e-01 5.450689e-01 6.198051e-01 5.411612e-01 4.317009e-01 3.054058e-01 1.789591e-01 1.281039e-01 2.694474e-02 -1.845329e+00
<VARIANCE> 39
 2.181370e+01 3.879708e+01 3.000653e+01 2.949239e+01 3.446458e+01 3.987747e+01 3.220862e+01 2.944279e+01 2.996104e+01 2.292559e+01 2.061316e+01 1.894367e+01 9.205660e+01 2.466870e+00 3.760130e+00 2.192492e+00 2.072463e+00 3.022642e+00 3.722557e+00 3.010647e+00 3.097060e+00 2.701021e+00 2.094073e+00 1.870520e+00 1.637122e+00 1.408720e+01 4.791140e-01 4.561215e-01 3.354242e-01 4.129326e-01 5.033309e-01 7.106665e-01 6.073074e-01 5.449958e-01 5.309678e-01 4.244625e-01 3.744385e-01 3.457921e-01 1.916086e+00
<GCONST> 1.216822e+02
<MIXTURE> 7 3.611033e-02
<MEAN> 39
 -1.910534e+01 -1.296427e+01 -8.744842e+00 -3.871230e+00 -4.757138e+00 -7.680185e+00 -1.853294e+00 -3.683337e+00 -2.986340e+00 -1.295767e+00 -7.515274e-01 -1.436293e+00 7.666499e+01 -7.318076e-01 -1.670493e+00 -9.585024e-01 -5.724750e-01 -8.893785e-01 -6.054688e-01 6.580859e-02 -3.766902e-01 1.137852e-01 9.086078e-02 3.526035e-02 1.471703e-01 2.870667e+00 7.378812e-01 6.051216e-01 4.783404e-01 2.346427e-01 5.450746e-01 6.198111e-01 5.411663e-01 4.317046e-01 3.054073e-01 1.789605e-01 1.281051e-01 2.694416e-02 -1.845347e+00
<VARIANCE> 39
 2.181313e+01 3.879684e+01 3.000628e+01 2.949231e+01 3.446433e+01 3.987704e+01 3.220841e+01 2.944262e+01 2.996080e+01 2.292550e+01 2.061311e+01 1.894358e+01 9.205345e+01 2.466855e+00 3.760091e+00 2.192486e+00 2.072461e+00 3.022645e+00 3.722542e+00 3.010661e+00 3.097054e+00 2.701023e+00 2.094076e+00 1.870518e+00 1.637122e+00 1.408710e+01 4.791027e-01 4.561159e-01 3.354203e-01 4.129314e-01 5.033274e-01 7.106562e-01 6.073019e-01 5.449924e-01 5.309632e-01 4.244598e-01 3.744380e-01 3.457906e-01 1.916027e+00
<GCONST> 1.216819e+02
<MIXTURE> 8 1.022317e-01
<MEAN> 39
 -1.017870e+01 -3.545279e+00 -2.216011e+00 -9.056709e-01 1.552522e+00 -1.446794e-01 3.740461e+00 2.285977e+00 4.972718e-01 5.993300e-01 5.556345e-01 -1.070881e+00 5.302169e+01 -2.437052e+00 -1.537453e+00 -1.350558e+00 -2.919667e-01 -1.187040e+00 -1.996312e+00 -1.606455e+00 -1.127057e+00 -8.146896e-01 -4.792976e-01 -3.122150e-01 -5.509090e-02 5.394739e+00 -5.094284e-01 -7.226874e-01 -4.598877e-01 -2.321853e-01 -3.990642e-01 -4.709955e-01 -2.839631e-01 -3.907031e-01 -1.883893e-01 -1.262404e-01 -5.870143e-02 4.927473e-03 1.564225e+00
<VARIANCE> 39
 2.922181e+01 2.255254e+01 2.020343e+01 1.960887e+01 2.322945e+01 3.568140e+01 2.921505e+01 2.310576e+01 2.022498e+01 1.830749e+01 1.618303e+01 1.444701e+01 7.201863e+01 3.256052e+00 4.632785e+00 2.803989e+00 2.583475e+00 3.233066e+00 4.786431e+00 3.333061e+00 3.437296e+00 2.773227e+00 2.455141e+00 2.165424e+00 1.729868e+00 1.485660e+01 5.433637e-01 3.981192e-01 3.119691e-01 3.366148e-01 3.969771e-01 7.082700e-01 6.029224e-01 4.922469e-01 4.530788e-01 3.908761e-01 3.574681e-01 2.861928e-01 1.735589e+00
<GCONST> 1.191115e+02
<STATE> 3
<NUMMIXES> 8
<MIXTURE> 1 4.891030e-02
<MEAN> 39
 -1.554096e+01 -1.840428e+01 -1.479575e+01 -4.237292e+00 -3.935615e+00 -1.129785e+01 -1.458423e+00 -8.735993e-01 -2.813012e+00 -2.503412e+00 5.208521e-02 -6.083037e-01 8.060406e+01 4.151441e-01 -3.147428e-01 3.828160e-02 1.542727e-01 4.035507e-01 6.600107e-01 1.285144e+00 7.302951e-01 7.517993e-01 6.809450e-01 4.863477e-01 2.356882e-01 -9.687236e-01 4.115229e-01 7.002151e-01 6.307552e-01 5.439398e-01 6.273121e-01 4.120194e-01 1.204169e-01 -1.485666e-02 -3.139210e-02 -1.678452e-02 -5.353031e-02 -1.148762e-01 -1.487938e+00
<VARIANCE> 39
 1.023224e+01 2.559518e+01 1.777639e+01 2.051695e+01 2.629557e+01 1.987173e+01 3.095678e+01 2.483677e+01 2.457656e+01 2.365285e+01 1.689053e+01 1.418754e+01 2.297242e+01 2.346273e-01 4.929765e-01 6.138418e-01 1.263581e+00 1.406819e+00 1.368809e+00 1.552632e+00 2.017121e+00 1.887241e+00 1.529596e+00 1.429475e+00 1.424832e+00 1.910546e-01 1.010294e-01 2.164469e-01 1.686065e-01 2.537411e-01 3.053361e-01 3.832847e-01 4.204756e-01 3.986146e-01 4.162673e-01 3.556427e-01 2.858893e-01 2.567095e-01 7.182578e-01
<GCONST> 9.476965e+01
<MIXTURE> 2 2.594690e-01
<MEAN> 39
 -1.106521e+01 -1.668824e+01 -1.101027e+01 2.342357e-01 1.033929e+00 -9.071350e+00 7.824801e-01 -1.419627e+00 -3.898474e+00 -2.466964e+00 8.527111e-01 -5.746437e-01 6.776435e+01 2.965552e-01 1.928480e-01 2.682096e-01 2.380911e-01 2.933349e-01 1.779135e-01 1.279674e-01 5.876955e-02 1.233044e-02 1.511757e-02 4.846794e-02 4.039715e-02 -9.021689e-01 -1.294608e-02 1.772221e-02 2.621268e-03 -9.627976e-03 -1.290210e-02 3.270707e-03 -1.385926e-02 1.331139e-02 8.444801e-03 4.576937e-03 -9.760563e-04 1.006219e-03 1.522554e-02
<VARIANCE> 39
 1.265640e+01 2.584632e+01 2.077199e+01 2.221455e+01 3.346140e+01 2.386284e+01 2.913353e+01 2.374933e+01 2.324125e+01 2.139924e+01 1.674459e+01 1.501565e+01 6.583911e+01 9.698147e-02 2.383221e-01 3.734834e-01 6.020780e-01 8.252931e-01 9.885799e-01 1.134717e+00 1.231279e+00 1.298073e+00 1.304328e+00 1.225099e+00 1.150910e+00 4.027827e-02 1.967862e-02 4.623966e-02 7.537749e-02 1.224837e-01 1.691916e-01 2.019998e-01 2.395038e-01 2.594262e-01 2.736343e-01 2.738231e-01 2.540601e-01 2.408219e-01 6.755392e-03
<GCONST> 7.705286e+01
<MIXTURE> 3 2.594771e-01
<MEAN> 39
 -1.106501e+01 -1.668791e+01 -1.100996e+01 2.344062e-01 1.034262e+00 -9.071050e+00 7.826210e-01 -1.419515e+00 -3.898358e+00 -2.466889e+00 8.527474e-01 -5.746209e-01 6.776359e+01 2.965537e-01 1.928648e-01 2.682152e-01 2.380867e-01 2.933257e-01 1.779204e-01 1.279643e-01 5.878010e-02 1.233496e-02 1.511974e-02 4.846044e-02 4.039061e-02 -9.021555e-01 -1.294746e-02 1.771867e-02 2.613879e-03 -9.638114e-03 -1.291413e-02 3.262562e-03 -1.386498e-02 1.330593e-02 8.441349e-03 4.576145e-03 -9.769350e-04 1.006767e-03 1.522635e-02
<VARIANCE> 39
 1.265682e+01 2.584824e+01 2.077282e+01 2.221526e+01 3.346296e+01 2.386400e+01 2.913435e+01 2.375028e+01 2.324183e+01 2.139978e+01 1.674496e+01 1.501607e+01 6.584340e+01 9.698526e-02 2.383310e-01 3.734956e-01 6.020963e-01 8.253185e-01 9.886123e-01 1.134746e+00 1.231318e+00 1.298105e+00 1.304362e+00 1.225131e+00 1.150936e+00 4.028175e-02 1.967885e-02 4.624036e-02 7.537922e-02 1.224861e-01 1.691954e-01 2.020053e-01 2.395091e-01 2.594343e-01 2.736399e-01 2.738303e-01 2.540670e-01 2.408290e-01 6.755272e-03
<GCONST> 7.705407e+01
<MIXTURE> 4 2.373555e-02
<MEAN> 39
 -1.036764e+01 -1.477271e+01 -9.589632e+00 9.888250e-01 1.676627e+00 -7.561181e+00 1.060582e+00 1.976298e-01 -3.040427e+00 -1.870401e+00 1.095910e+00 -3.915523e-01 6.527586e+01 2.295410e-01 2.354164e-01 1.423905e-01 1.367826e-02 -8.945860e-02 1.511892e-01 5.152325e-02 -8.681814e-02 -1.086752e-01 -2.518865e-02 -2.420273e-02 -4.376695e-02 -5.146935e-01 -2.426678e-01 1.308727e-01 -7.089835e-02 -1.346337e-01 -1.068455e-01 -1.426001e-01 -2.953550e-01 -1.462670e-01 -4.808629e-02 -1.061182e-01 -1.071652e-01 -2.521824e-02 4.231496e-01
<VARIANCE> 39
 2.405392e+01 3.484880e+01 2.843518e+01 2.777319e+01 3.914939e+01 2.936208e+01 3.237146e+01 2.389919e+01 2.432944e+01 2.146264e+01 1.646924e+01 1.479130e+01 1.637566e+02 3.039360e-01 8.184135e-01 5.744285e-01 9.606640e-01 1.152792e+00 1.348947e+00 1.483414e+00 1.594130e+00 1.593372e+00 1.427208e+00 1.386226e+00 1.235829e+00 5.351920e-01 3.075066e-01 2.634723e-01 2.973864e-01 3.645499e-01 4.622819e-01 4.617421e-01 4.737347e-01 3.974380e-01 3.983177e-01 3.589510e-01 3.206448e-01 2.917510e-01 2.196858e+00
<GCONST> 1.042051e+02
<MIXTURE> 5 2.594725e-01
<MEAN> 39
 -1.106501e+01 -1.668793e+01 -1.100997e+01 2.344130e-01 1.034251e+00 -9.071068e+00 7.826216e-01 -1.419511e+00 -3.898366e+00 -2.466893e+00 8.527580e-01 -5.746125e-01 6.776360e+01 2.965538e-01 1.928646e-01 2.682154e-01 2.380868e-01 2.933266e-01 1.779216e-01 1.279664e-01 5.878206e-02 1.233754e-02 1.512133e-02 4.846236e-02 4.039142e-02 -9.021559e-01 -1.294750e-02 1.771873e-02 2.614244e-03 -9.637458e-03 -1.291355e-02 3.262890e-03 -1.386459e-02 1.330596e-02 8.441174e-03 4.575714e-03 -9.774864e-04 1.006002e-03 1.522624e-02
<VARIANCE> 39
 1.265661e+01 2.584774e+01 2.077253e+01 2.221495e+01 3.346251e+01 2.386367e+01 2.913391e+01 2.374983e+01 2.324150e+01 2.139945e+01 1.674466e+01 1.501579e+01 6.584210e+01 9.698346e-02 2.383272e-01 3.734886e-01 6.020876e-01 8.253053e-01 9.885976e-01 1.134727e+00 1.231299e+00 1.298084e+00 1.304339e+00 1.225112e+00 1.150917e+00 4.028092e-02 1.967862e-02 4.623971e-02 7.537802e-02 1.224840e-01 1.691930e-01 2.020022e-01 2.395053e-01 2.594287e-01 2.736353e-01 2.738255e-01 2.540626e-01 2.408244e-01 6.755196e-03
<GCONST> 7.705339e+01
<MIXTURE> 6 2.373605e-02
<MEAN> 39
 -1.036758e+01 -1.477266e+01 -9.589579e+00 9.888653e-01 1.676679e+00 -7.561129e+00 1.060621e+00 1.976451e-01 -3.040411e+00 -1.870385e+00 1.095920e+00 -3.915429e-01 6.527570e+01 2.295403e-01 2.354288e-01 1.423951e-01 1.367956e-02 -8.945467e-02 1.511899e-01 5.151650e-02 -8.681798e-02 -1.086722e-01 -2.518959e-02 -2.420634e-02 -4.376909e-02 -5.147030e-01 -2.426763e-01 1.308684e-01 -7.090534e-02 -1.346394e-01 -1.068520e-01 -1.426075e-01 -2.953613e-01 -1.462695e-01 -4.808896e-02 -1.061212e-01 -1.071670e-01 -2.521951e-02 4.231745e-01
<VARIANCE> 39
 2.405389e+01 3.484891e+01 2.843530e+01 2.777334e+01 3.914949e+01 2.936218e+01 3.237167e+01 2.389936e+01 2.432961e+01 2.146274e+01 1.646933e+01 1.479140e+01 1.637562e+02 3.039349e-01 8.183944e-01 5.744251e-01 9.606584e-01 1.152791e+00 1.348944e+00 1.483409e+00 1.594131e+00 1.593370e+00 1.427208e+00 1.386228e+00 1.235833e+00 5.351791e-01 3.075024e-01 2.634726e-01 2.973844e-01 3.645498e-01 4.622804e-01 4.617419e-01 4.737350e-01 3.974407e-01 3.983188e-01 3.589526e-01 3.206472e-01 2.917526e-01 2.196816e+00
<GCONST> 1.042051e+02
<MIXTURE> 7 2.374469e-02
<MEAN> 39
 -1.036523e+01 -1.477044e+01 -9.587130e+00 9.904414e-01 1.679018e+00 -7.559060e+00 1.061962e+00 1.984355e-01 -3.039770e+00 -1.869814e+00 1.096145e+00 -3.912598e-01 6.526823e+01 2.294109e-01 2.357906e-01 1.425178e-01 1.369055e-02 -8.936957e-02 1.513450e-01 5.142903e-02 -8.661754e-02 -1.084783e-01 -2.512344e-02 -2.427724e-02 -4.379528e-02 -5.147771e-01 -2.429694e-01 1.306633e-01 -7.116666e-02 -1.348373e-01 -1.071130e-01 -1.428584e-01 -2.955519e-01 -1.463552e-01 -4.815352e-02 -1.061884e-01 -1.072044e-01 -2.527227e-02 4.240372e-01
<VARIANCE> 39
 2.404807e+01 3.485204e+01 2.843259e+01 2.777232e+01 3.914749e+01 2.936238e+01 3.237009e+01 2.389935e+01 2.432781e+01 2.146253e+01 1.646913e+01 1.479108e+01 1.637166e+02 3.039016e-01 8.179908e-01 5.742991e-01 9.603958e-01 1.152607e+00 1.348758e+00 1.483110e+00 1.593921e+00 1.593161e+00 1.427096e+00 1.386119e+00 1.235740e+00 5.348046e-01 3.073858e-01 2.634660e-01 2.973410e-01 3.645072e-01 4.622174e-01 4.617004e-01 4.736724e-01 3.974390e-01 3.983110e-01 3.589520e-01 3.206532e-01 2.917508e-01 2.195931e+00
<GCONST> 1.042001e+02
<MIXTURE> 8 1.012420e-01
<MEAN> 39
 -1.201681e+01 -1.278862e+01 -9.723033e+00 4.560564e-02 7.920077e-01 -8.342003e+00 -1.503245e+00 -4.227895e-01 -3.237715e+00 -2.729312e+00 8.558825e-03 -9.869174e-01 6.819939e+01 -1.945817e+00 -1.155516e+00 -1.692792e+00 -1.433535e+00 -1.700561e+00 -1.483212e+00 -1.318714e+00 -5.815386e-01 -3.333931e-01 -4.225735e-01 -4.196654e-01 -2.566142e-01 5.768432e+00 1.087598e-01 -3.802628e-01 -1.437126e-01 -3.852285e-02 -4.916865e-02 -2.088717e-02 2.581457e-01 3.290814e-02 8.144795e-03 7.328632e-02 1.045234e-01 5.526531e-02 6.986789e-02
<VARIANCE> 39
 2.872769e+01 3.715897e+01 3.114943e+01 3.610083e+01 4.052255e+01 4.471743e+01 4.718751e+01 2.985243e+01 3.113926e+01 2.575648e+01 2.029726e+01 1.788113e+01 1.824718e+02 1.288652e+00 4.079678e+00 2.310370e+00 2.707689e+00 3.036295e+00 3.494808e+00 3.539105e+00 3.005636e+00 3.055093e+00 2.536868e+00 1.997550e+00 1.767598e+00 7.367618e+00 5.993307e-01 5.324850e-01 5.793070e-01 6.085019e-01 7.245020e-01 8.646888e-01 8.493183e-01 6.045952e-01 5.761890e-01 4.838145e-01 3.950583e-01 3.389740e-01 4.502455e+00
<GCONST> 1.266395e+02
<STATE> 4
<NUMMIXES> 8
<MIXTURE> 1 3.578637e-02
<MEAN> 39
 -6.482264e+00 -3.717885e+00 -2.602496e+00 -7.893018e-01 -2.222735e-02 -5.329511e-01 3.388441e+00 2.277265e+00 -1.646834e-01 5.349065e-01 2.103669e-01 -1.655439e+00 4.825026e+01 1.674651e-01 4.821785e-01 3.167402e-01 2.670894e-01 4.595362e-01 8.061557e-01 7.660509e-01 9.866143e-01 9.461594e-01 7.269547e-01 4.470475e-01 2.168118e-01 -2.008776e-01 -8.310351e-02 7.772524e-03 6.859513e-02 1.651132e-01 1.818382e-01 9.706375e-02 8.869493e-02 5.244063e-02 6.324109e-02 6.620181e-02 7.939876e-02 6.339668e-02 2.011848e-01
<VARIANCE> 39
 9.304296e+00 2.859318e+01 9.874451e+00 1.884066e+01 1.829734e+01 2.296269e+01 1.814838e+01 2.228372e+01 1.748290e+01 1.577337e+01 1.377421e+01 1.282604e+01 2.054267e+01 1.717983e-01 3.342847e-01 4.752920e-01 6.983687e-01 8.489394e-01 1.014031e+00 1.093004e+00 1.238605e+00 1.261485e+00 1.227704e+00 1.240314e+00 1.174228e+00 1.229213e-01 8.345666e-02 9.510087e-02 1.185214e-01 1.564776e-01 2.012837e-01 2.716798e-01 2.777748e-01 2.995784e-01 2.901662e-01 2.764539e-01 2.623176e-01 2.360579e-01 1.385779e-01
<GCONST> 8.175900e+01
<MIXTURE> 2 2.685313e-01
<MEAN> 39
 -9.444061e+00 -1.060064e+01 -4.280812e+00 1.032920e+00 -1.106648e-02 -3.677264e+00 3.449822e+00 -9.919713e-01 -1.682695e+00 2.617073e-01 9.177521e-01 -8.698703e-01 5.777583e+01 2.248674e-01 2.742284e-01 1.691376e-01 7.145891e-02 1.311389e-01 1.724133e-01 5.604863e-02 1.280794e-01 2.387535e-02 8.141086e-03 -6.565431e-03 -1.512362e-02 -6.460211e-01 -1.412896e-02 1.489351e-03 -1.547084e-02 -2.286922e-02 -2.852477e-02 -1.448895e-02 -1.985656e-02 -2.465123e-03 -3.596753e-03 -3.835028e-03 -4.136735e-03 -2.398724e-03 1.986302e-02
<VARIANCE> 39
 1.999929e+01 6.320613e+01 2.066452e+01 2.180124e+01 3.021224e+01 3.206932e+01 2.370948e+01 3.203185e+01 2.343619e+01 1.978398e+01 1.662862e+01 1.399370e+01 9.931911e+01 1.294743e-01 2.706665e-01 4.217773e-01 6.579445e-01 8.783083e-01 1.013319e+00 1.159619e+00 1.248196e+00 1.297964e+00 1.291636e+00 1.243873e+00 1.125115e+00 1.373060e-01 2.022458e-02 4.540742e-02 7.927282e-02 1.214601e-01 1.661922e-01 2.035637e-01 2.349418e-01 2.553366e-01 2.715671e-01 2.688204e-01 2.539007e-01 2.295626e-01 6.118295e-03
<GCONST> 8.072111e+01
<MIXTURE> 3 2.685300e-01
<MEAN> 39
 -9.444122e+00 -1.060076e+01 -4.280863e+00 1.032909e+00 -1.110275e-02 -3.677339e+00 3.449796e+00 -9.920400e-01 -1.682729e+00 2.616892e-01 9.177477e-01 -8.698645e-01 5.777600e+01 2.248696e-01 2.742274e-01 1.691401e-01 7.146317e-02 1.311434e-01 1.724146e-01 5.605080e-02 1.280790e-01 2.387516e-02 8.141255e-03 -6.564402e-03 -1.512290e-02 -6.460272e-01 -1.412888e-02 1.489689e-03 -1.547042e-02 -2.286877e-02 -2.852418e-02 -1.448801e-02 -1.985563e-02 -2.463803e-03 -3.595916e-03 -3.834468e-03 -4.136698e-03 -2.398956e-03 1.986295e-02
<VARIANCE> 39
 1.999928e+01 6.320590e+01 2.066461e+01 2.180118e+01 3.021231e+01 3.206913e+01 2.370948e+01 3.203175e+01 2.343614e+01 1.978396e+01 1.662860e+01 1.399370e+01 9.931953e+01 1.294734e-01 2.706654e-01 4.217758e-01 6.579422e-01 8.783049e-01 1.013313e+00 1.159611e+00 1.248191e+00 1.297959e+00 1.291630e+00 1.243869e+00 1.125114e+00 1.373045e-01 2.022450e-02 4.540724e-02 7.927272e-02 1.214599e-01 1.661919e-01 2.035629e-01 2.349410e-01 2.553360e-01 2.715668e-01 2.688200e-01 2.539005e-01 2.295624e-01 6.118267e-03
<GCONST> 8.072100e+01
<MIXTURE> 4 2.706976e-02
<MEAN> 39
 -1.308686e+01 -1.183685e+01 -6.755124e+00 -1.765922e+00 -3.559839e+00 -5.727834e+00 1.505879e+00 -1.712427e+00 -1.571765e+00 1.867456e-01 3.117599e-01 -1.074541e+00 6.651124e+01 2.328828e-01 2.777784e-02 4.731671e-02 -9.140965e-02 8.089202e-02 1.845340e-01 2.838697e-01 1.233643e-01 2.538559e-01 5.494607e-02 5.722691e-02 8.077939e-02 -5.461607e-01 2.615444e-02 2.290800e-01 1.405780e-01 2.188258e-01 2.848099e-01 7.510000e-02 -1.358879e-02 -2.929988e-02 -1.186361e-01 -7.147807e-02 -3.089390e-02 -4.829326e-02 -2.848873e-01
<VARIANCE> 39
 3.439579e+01 7.614571e+01 3.199927e+01 2.539080e+01 3.943176e+01 3.995943e+01 3.095863e+01 3.411066e+01 2.440342e+01 2.005674e+01 1.773661e+01 1.450074e+01 2.178037e+02 3.843996e-01 6.855835e-01 6.309837e-01 1.097301e+00 1.359392e+00 1.429581e+00 1.689348e+00 1.807039e+00 1.981499e+00 1.644038e+00 1.502918e+00 1.330582e+00 5.196907e-01 4.683164e-01 7.116924e-01 3.513910e-01 3.321276e-01 5.068713e-01 6.103859e-01 4.847413e-01 5.482190e-01 4.470735e-01 3.673251e-01 3.313385e-01 2.792236e-01 2.803476e+00
<GCONST> 1.100969e+02
<MIXTURE> 5 2.685311e-01
<MEAN> 39
 -9.444126e+00 -1.060077e+01 -4.280872e+00 1.032909e+00 -1.111242e-02 -3.677348e+00 3.449792e+00 -9.920492e-01 -1.682738e+00 2.616897e-01 9.177468e-01 -8.698667e-01 5.777603e+01 2.248697e-01 2.742272e-01 1.691403e-01 7.146364e-02 1.311438e-01 1.724144e-01 5.605068e-02 1.280786e-01 2.387474e-02 8.140886e-03 -6.564516e-03 -1.512282e-02 -6.460276e-01 -1.412882e-02 1.489825e-03 -1.547033e-02 -2.286872e-02 -2.852407e-02 -1.448778e-02 -1.985540e-02 -2.463383e-03 -3.595386e-03 -3.834310e-03 -4.136643e-03 -2.398880e-03 1.986294e-02
<VARIANCE> 39
 1.999932e+01 6.320613e+01 2.066469e+01 2.180126e+01 3.021244e+01 3.206928e+01 2.370955e+01 3.203184e+01 2.343622e+01 1.978405e+01 1.662867e+01 1.399375e+01 9.931985e+01 1.294737e-01 2.706660e-01 4.217769e-01 6.579447e-01 8.783081e-01 1.013317e+00 1.159616e+00 1.248194e+00 1.297964e+00 1.291635e+00 1.243873e+00 1.125117e+00 1.373049e-01 2.022453e-02 4.540743e-02 7.927297e-02 1.214604e-01 1.661925e-01 2.035635e-01 2.349416e-01 2.553366e-01 2.715680e-01 2.688210e-01 2.539014e-01 2.295633e-01 6.118282e-03
<GCONST> 8.072111e+01
<MIXTURE> 6 2.707223e-02
<MEAN> 39
 -1.308674e+01 -1.183672e+01 -6.755033e+00 -1.765880e+00 -3.559774e+00 -5.727732e+00 1.505932e+00 -1.712335e+00 -1.571720e+00 1.867800e-01 3.117730e-01 -1.074539e+00 6.651095e+01 2.328771e-01 2.778151e-02 4.731670e-02 -9.141080e-02 8.088856e-02 1.845372e-01 2.838707e-01 1.233719e-01 2.538635e-01 5.494987e-02 5.722832e-02 8.077975e-02 -5.461477e-01 2.614493e-02 2.290694e-01 1.405707e-01 2.188219e-01 2.848035e-01 7.509037e-02 -1.359490e-02 -2.930910e-02 -1.186414e-01 -7.148118e-02 -3.089516e-02 -4.829412e-02 -2.848630e-01
<VARIANCE> 39
 3.439660e+01 7.614697e+01 3.199981e+01 2.539119e+01 3.943262e+01 3.996021e+01 3.095908e+01 3.411130e+01 2.440376e+01 2.005712e+01 1.773690e+01 1.450092e+01 2.178076e+02 3.844062e-01 6.855943e-01 6.309932e-01 1.097313e+00 1.359408e+00 1.429598e+00 1.689375e+00 1.807064e+00 1.981533e+00 1.644068e+00 1.502944e+00 1.330603e+00 5.196967e-01 4.683276e-01 7.117136e-01 3.514002e-01 3.321353e-01 5.068850e-01 6.104022e-01 4.847521e-01 5.482319e-01 4.470804e-01 3.673326e-01 3.313451e-01 2.792277e-01 2.803562e+00
<GCONST> 1.100976e+02
<MIXTURE> 7 2.707212e-02
<MEAN> 39
 -1.308675e+01 -1.183673e+01 -6.755039e+00 -1.765882e+00 -3.559777e+00 -5.727742e+00 1.505928e+00 -1.712344e+00 -1.571724e+00 1.867784e-01 3.117757e-01 -1.074537e+00 6.651097e+01 2.328773e-01 2.778217e-02 4.731722e-02 -9.140994e-02 8.088973e-02 1.845372e-01 2.838704e-01 1.233707e-01 2.538618e-01 5.494871e-02 5.722839e-02 8.077929e-02 -5.461491e-01 2.614533e-02 2.290698e-01 1.405709e-01 2.188220e-01 2.848034e-01 7.509067e-02 -1.359455e-02 -2.930850e-02 -1.186410e-01 -7.148121e-02 -3.089557e-02 -4.829433e-02 -2.848639e-01
<VARIANCE> 39
 3.439649e+01 7.614684e+01 3.199977e+01 2.539118e+01 3.943256e+01 3.996010e+01 3.095907e+01 3.411121e+01 2.440373e+01 2.005709e+01 1.773692e+01 1.450091e+01 2.178069e+02 3.844065e-01 6.855929e-01 6.309918e-01 1.097311e+00 1.359406e+00 1.429596e+00 1.689373e+00 1.807062e+00 1.981529e+00 1.644064e+00 1.502946e+00 1.330602e+00 5.196958e-01 4.683261e-01 7.117103e-01 3.513985e-01 3.321342e-01 5.068837e-01 6.103998e-01 4.847510e-01 5.482306e-01 4.470800e-01 3.673323e-01 3.313446e-01 2.792274e-01 2.803547e+00
<GCONST> 1.100975e+02
<MIXTURE> 8 7.682930e-02
<MEAN> 39
 -1.255841e+01 -8.176631e+00 -5.213528e+00 -2.817767e-01 -1.743149e+00 -4.233781e+00 1.298037e+00 -8.438071e-01 -2.208393e+00 -6.213111e-02 4.803523e-03 -1.727630e+00 6.286004e+01 -2.473436e+00 -2.649562e+00 -1.618537e+00 -6.711981e-01 -1.684357e+00 -1.999746e+00 -1.111958e+00 -1.736623e+00 -7.647682e-01 -3.590709e-01 -2.275694e-01 -6.180456e-02 6.647601e+00 1.385524e-01 -2.791743e-01 -5.917817e-02 -1.028977e-01 -1.244545e-01 -8.652383e-03 1.510931e-01 1.860295e-02 1.062772e-01 5.769288e-02 2.769727e-02 4.278475e-02 4.413428e-02
<VARIANCE> 39
 4.165707e+01 6.750947e+01 2.966106e+01 2.817123e+01 3.933857e+01 4.963877e+01 3.752958e+01 4.493747e+01 3.290377e+01 2.272930e+01 2.046510e+01 1.714879e+01 2.386720e+02 2.209111e+00 6.750176e+00 2.361173e+00 2.909707e+00 3.203124e+00 3.724181e+00 3.409764e+00 3.750638e+00 3.311886e+00 2.402499e+00 2.207389e+00 1.815887e+00 1.064346e+01 9.114510e-01 1.329013e+00 5.596650e-01 4.578226e-01 7.345001e-01 1.034573e+00 7.323099e-01 1.011420e+00 6.964746e-01 4.538416e-01 4.054255e-01 3.388647e-01 5.827256e+00
<GCONST> 1.316728e+02
<TRANSP> 5
 0.000000e+00 1.000000e+00 0.000000e+00 0.000000e+00 0.000000e+00
 0.000000e+00 9.858012e-01 1.419880e-02 0.000000e+00 0.000000e+00
 0.000000e+00 0.000000e+00 9.899024e-01 1.009763e-02 0.000000e+00
 0.000000e+00 0.000000e+00 0.000000e+00 9.914279e-01 8.572047e-03
 0.000000e+00 0.000000e+00 0.000000e+00 0.000000e+00 0.000000e+00
<ENDHMM>
~h "cl"
<BEGINHMM>
<NUMSTATES> 5
<STATE> 2
<NUMMIXES> 8
<MIXTURE> 1 3.721349e-02
<MEAN> 39
 -9.619356e+00 -3.586717e+00 -4.087028e+00 -5.653024e+00 -2.920697e+00 1.358354e+00 1.798720e+00 -5.429980e-01 8.121967e-01 -1.884837e+00 -2.438394e+00 -9.408632e-01 5.175885e+01 2.722062e-01 2.650521e-01 4.285291e-01 5.841998e-01 6.700589e-01 7.050531e-01 8.503755e-01 7.558029e-01 6.303785e-01 7.998376e-01 5.788200e-01 1.719247e-01 -1.805713e-01 2.632046e-02 1.478400e-01 1.928844e-01 2.506104e-01 3.097552e-01 3.506972e-01 3.292176e-01 3.502328e-01 3.598175e-01 2.927622e-01 1.455758e-01 1.443884e-01 4.776670e-02
<VARIANCE> 39
 2.040843e+01 1.422983e+01 1.709456e+01 1.262474e+01 1.941891e+01 2.735507e+01 1.926931e+01 2.037449e+01 2.583736e+01 2.080752e+01 1.732736e+01 1.722762e+01 1.919246e+01 2.545820e-01 3.361230e-01 4.584638e-01 7.528045e-01 8.579984e-01 1.179101e+00 1.231145e+00 1.453100e+00 1.464712e+00 1.409880e+00 1.274941e+00 1.274601e+00 1.334538e-01 4.995957e-02 6.222415e-02 1.015999e-01 1.634679e-01 1.953733e-01 2.323007e-01 2.580881e-01 2.701440e-01 2.870851e-01 3.054822e-01 2.473859e-01 2.354188e-01 1.572789e-02
<GCONST> 8.112241e+01
<MIXTURE> 2 2.131882e-01
<MEAN> 39
 -1.102466e+01 -1.109807e+00 -7.248303e-01 -4.322780e+00 -1.445260e+00 6.311997e+00 4.234400e+00 4.401567e-01 4.517257e+00 7.683217e-02 -2.976633e+00 1.512429e+00 5.199939e+01 3.324038e-01 -5.296740e-02 -5.982725e-02 1.949537e-02 6.258482e-02 -6.935015e-02 3.602279e-02 4.530691e-02 -9.262842e-02 7.827599e-03 6.149740e-02 -9.951250e-02 -2.851689e-01 -2.279666e-02 9.964714e-04 -1.782133e-02 -1.375366e-02 -1.974609e-02 -3.154046e-02 -3.587008e-02 -1.057468e-02 -3.594195e-02 -1.230884e-02 2.689279e-03 -1.623329e-02 1.591208e-02
<VARIANCE> 39
 2.955112e+01 1.819461e+01 3.356167e+01 1.461980e+01 1.879201e+01 3.789260e+01 2.043449e+01 2.557457e+01 3.482135e+01 1.968252e+01 2.531911e+01 2.427481e+01 2.114196e+01 2.754259e-01 3.412650e-01 5.140126e-01 6.944258e-01 9.344816e-01 1.264168e+00 1.289342e+00 1.425099e+00 1.548824e+00 1.384719e+00 1.325767e+00 1.246357e+00 1.268110e-01 4.545515e-02 5.956796e-02 9.941174e-02 1.346936e-01 1.824356e-01 2.403920e-01 2.530560e-01 2.813179e-01 2.997482e-01 2.779258e-01 2.670793e-01 2.443629e-01 1.719558e-02
<GCONST> 8.429813e+01
<MIXTURE> 3 2.131868e-01
<MEAN> 39
 -1.102467e+01 -1.109798e+00 -7.248072e-01 -4.322792e+00 -1.445273e+00 6.312021e+00 4.234400e+00 4.401447e-01 4.517279e+00 7.683387e-02 -2.976653e+00 1.512444e+00 5.199937e+01 3.324039e-01 -5.296786e-02 -5.982833e-02 1.949556e-02 6.258456e-02 -6.935111e-02 3.602196e-02 4.530647e-02 -9.262884e-02 7.827416e-03 6.149773e-02 -9.951237e-02 -2.851685e-01 -2.279665e-02 9.965170e-04 -1.782140e-02 -1.375339e-02 -1.974592e-02 -3.154058e-02 -3.586994e-02 -1.057448e-02 -3.594256e-02 -1.230892e-02 2.689648e-03 -1.623364e-02 1.591207e-02
<VARIANCE> 39
 2.955112e+01 1.819454e+01 3.356190e+01 1.461982e+01 1.879203e+01 3.789254e+01 2.043448e+01 2.557467e+01 3.482143e+01 1.968256e+01 2.531922e+01 2.427487e+01 2.114190e+01 2.754270e-01 3.412656e-01 5.140139e-01 6.944268e-01 9.344841e-01 1.264171e+00 1.289344e+00 1.425101e+00 1.548826e+00 1.384719e+00 1.325768e+00 1.246359e+00 1.268109e-01 4.545541e-02 5.956808e-02 9.941193e-02 1.346941e-01 1.824360e-01 2.403923e-01 2.530562e-01 2.813186e-01 2.997487e-01 2.779264e-01 2.670799e-01 2.443635e-01 1.719568e-02
<GCONST> 8.429821e+01
<MIXTURE> 4 7.883559e-02
<MEAN> 39
 -1.376025e+01 -2.742340e+00 -1.785718e+00 -4.063862e+00 -2.095427e+00 3.818430e+00 2.133331e+00 1.329612e-01 3.386885e+00 -2.814547e-01 -2.524879e+00 1.323398e+00 5.759046e+01 -5.502579e-01 2.623949e-01 1.512630e-01 -9.495588e-02 -1.861665e-01 3.430524e-01 -1.071664e-01 -2.216563e-01 1.808457e-01 -1.398567e-01 -2.749788e-01 2.484008e-01 1.722064e-01 -9.002929e-02 1.450166e-02 5.622505e-02 -8.927092e-03 -5.259458e-02 6.235635e-02 -6.260959e-03 -4.372876e-02 4.506578e-02 -1.535202e-02 -4.831608e-02 3.682064e-02 5.230445e-02
<VARIANCE> 39
 3.626941e+01 5.497094e+01 3.166889e+01 1.600971e+01 1.986883e+01 6.423212e+01 2.570602e+01 2.595548e+01 3.201602e+01 2.261595e+01 2.553193e+01 2.217951e+01 9.338157e+01 1.581672e+00 9.481930e-01 9.371833e-01 1.051584e+00 1.399079e+00 2.125418e+00 1.783479e+00 2.120488e+00 2.389619e+00 1.818407e+00 1.996295e+00 1.674659e+00 9.506584e-01 4.992844e-01 1.802753e-01 1.685918e-01 1.903184e-01 2.546293e-01 4.012270e-01 3.317929e-01 4.070318e-01 4.289781e-01 3.652301e-01 3.693078e-01 3.043612e-01 3.303462e-01
<GCONST> 1.067778e+02
<MIXTURE> 5 2.131869e-01
<MEAN> 39
 -1.102466e+01 -1.109802e+00 -7.248253e-01 -4.322784e+00 -1.445261e+00 6.312001e+00 4.234403e+00 4.401600e-01 4.517258e+00 7.683256e-02 -2.976636e+00 1.512426e+00 5.199937e+01 3.324031e-01 -5.296676e-02 -5.982677e-02 1.949573e-02 6.258518e-02 -6.934919e-02 3.602317e-02 4.530713e-02 -9.262758e-02 7.828005e-03 6.149758e-02 -9.951162e-02 -2.851679e-01 -2.279690e-02 9.967107e-04 -1.782106e-02 -1.375337e-02 -1.974590e-02 -3.154012e-02 -3.587024e-02 -1.057489e-02 -3.594193e-02 -1.230881e-02 2.689313e-03 -1.623302e-02 1.591227e-02
<VARIANCE> 39
 2.955115e+01 1.819457e+01 3.356174e+01 1.461979e+01 1.879197e+01 3.789256e+01 2.043451e+01 2.557463e+01 3.482137e+01 1.968253e+01 2.531917e+01 2.427478e+01 2.114192e+01 2.754268e-01 3.412656e-01 5.140136e-01 6.944270e-01 9.344825e-01 1.264169e+00 1.289343e+00 1.425101e+00 1.548825e+00 1.384718e+00 1.325768e+00 1.246360e+00 1.268111e-01 4.545566e-02 5.956819e-02 9.941180e-02 1.346940e-01 1.824357e-01 2.403922e-01 2.530566e-01 2.813190e-01 2.997488e-01 2.779264e-01 2.670800e-01 2.443633e-01 1.719577e-02
<GCONST> 8.429817e+01
<MIXTURE> 6 7.883129e-02
<MEAN> 39
 -1.376020e+01 -2.742382e+00 -1.785755e+00 -4.063839e+00 -2.095407e+00 3.818382e+00 2.133333e+00 1.329828e-01 3.386857e+00 -2.814536e-01 -2.524848e+00 1.323373e+00 5.759047e+01 -5.502563e-01 2.623978e-01 1.512607e-01 -9.495565e-02 -1.861680e-01 3.430481e-01 -1.071695e-01 -2.216572e-01 1.808423e-01 -1.398593e-01 -2.749789e-01 2.483991e-01 1.722030e-01 -9.003502e-02 1.450215e-02 5.622519e-02 -8.929029e-03 -5.259684e-02 6.235709e-02 -6.262859e-03 -4.373123e-02 4.506642e-02 -1.535303e-02 -4.831819e-02 3.682182e-02 5.230898e-02
<VARIANCE> 39
 3.626926e+01 5.497083e+01 3.166845e+01 1.600954e+01 1.986875e+01 6.423197e+01 2.570592e+01 2.595531e+01 3.201567e+01 2.261583e+01 2.553177e+01 2.217932e+01 9.338174e+01 1.581663e+00 9.481835e-01 9.371765e-01 1.051576e+00 1.399071e+00 2.125412e+00 1.783469e+00 2.120473e+00 2.389606e+00 1.818397e+00 1.996281e+00 1.674648e+00 9.506535e-01 4.992800e-01 1.802736e-01 1.685894e-01 1.903158e-01 2.546271e-01 4.012240e-01 3.317896e-01 4.070273e-01 4.289741e-01 3.652273e-01 3.693050e-01 3.043590e-01 3.303421e-01
<GCONST> 1.067775e+02
<MIXTURE> 7 7.883598e-02
<MEAN> 39
 -1.376027e+01 -2.742223e+00 -1.785657e+00 -4.063885e+00 -2.095428e+00 3.818565e+00 2.133357e+00 1.329549e-01 3.386947e+00 -2.814373e-01 -2.524922e+00 1.323457e+00 5.759033e+01 -5.502708e-01 2.623956e-01 1.512648e-01 -9.496071e-02 -1.861718e-01 3.430558e-01 -1.071698e-01 -2.216595e-01 1.808476e-01 -1.398596e-01 -2.749835e-01 2.484033e-01 1.722197e-01 -9.002626e-02 1.449934e-02 5.622312e-02 -8.926595e-03 -5.259379e-02 6.235364e-02 -6.260781e-03 -4.372842e-02 4.506373e-02 -1.535243e-02 -4.831479e-02 3.681858e-02 5.230384e-02
<VARIANCE> 39
 3.626935e+01 5.497001e+01 3.166935e+01 1.600973e+01 1.986883e+01 6.423192e+01 2.570594e+01 2.595549e+01 3.201601e+01 2.261589e+01 2.553208e+01 2.217957e+01 9.337960e+01 1.581680e+00 9.482029e-01 9.371911e-01 1.051589e+00 1.399083e+00 2.125434e+00 1.783485e+00 2.120503e+00 2.389632e+00 1.818407e+00 1.996305e+00 1.674663e+00 9.506564e-01 4.992849e-01 1.802755e-01 1.685930e-01 1.903183e-01 2.546294e-01 4.012275e-01 3.317924e-01 4.070328e-01 4.289786e-01 3.652305e-01 3.693096e-01 3.043619e-01 3.303417e-01
<GCONST> 1.067778e+02
<MIXTURE> 8 8.669316e-02
<MEAN> 39
 -1.359331e+01 -1.249694e+00 -2.471617e-01 -3.433176e+00 -1.943248e+00 2.993038e+00 2.315855e+00 1.410684e+00 3.082197e+00 7.226804e-01 -1.011328e+00 2.705005e-02 5.523707e+01 -3.708092e+00 -1.041457e-01 2.206046e-01 -4.814478e-01 -1.039974e+00 5.684969e-01 -1.021077e+00 -1.291752e+00 6.914598e-01 -3.953350e-01 -9.899509e-01 7.967695e-01 3.693262e+00 1.635137e-02 -9.634039e-02 3.592132e-02 -6.324259e-02 -9.517907e-02 2.558875e-01 1.865574e-02 -2.762901e-01 9.308159e-02 -2.516481e-02 -3.093311e-01 1.714794e-01 1.244332e-02
<VARIANCE> 39
 6.605685e+01 3.809031e+01 2.620284e+01 2.025610e+01 2.656902e+01 5.286040e+01 3.181211e+01 2.997780e+01 3.762865e+01 3.024282e+01 2.302887e+01 2.048615e+01 1.166218e+02 4.314187e+00 3.489232e+00 2.116716e+00 1.866766e+00 2.529906e+00 6.840921e+00 3.151908e+00 4.140642e+00 4.145471e+00 3.653443e+00 3.259160e+00 2.841745e+00 4.713895e+00 1.425166e+00 3.970825e-01 2.821753e-01 3.092490e-01 4.990813e-01 7.572176e-01 5.767861e-01 6.500643e-01 5.840095e-01 5.351050e-01 4.736353e-01 3.974006e-01 1.808841e+00
<GCONST> 1.266391e+02
<STATE> 3
<NUMMIXES> 8
<MIXTURE> 1 3.589086e-02
<MEAN> 39
 -1.674384e+01 1.632637e+00 -9.624490e-01 -8.080922e+00 -4.738733e+00 1.259645e+01 -9.790808e-02 -2.604424e+00 9.514962e+00 -4.417747e+00 -3.869884e+00 5.171997e+00 5.602898e+01 -2.119525e+00 5.744807e-01 1.132966e-01 5.933436e-01 7.244803e-01 -6.667781e-01 6.601239e-01 1.008977e+00 -4.325549e-01 6.720153e-01 4.816708e-01 -6.951449e-01 1.502694e+00 -7.700894e-01 5.280916e-02 1.293360e-01 1.558348e-01 3.206299e-02 5.329318e-02 7.664163e-02 9.997295e-02 6.489746e-02 1.134175e-02 -7.317980e-02 5.246168e-02 5.764124e-01
<VARIANCE> 39
 2.714923e+01 7.719452e+00 1.521378e+01 9.920782e+00 1.330550e+01 2.139398e+01 1.927859e+01 1.647811e+01 2.218394e+01 1.683046e+01 1.663451e+01 1.699073e+01 1.230567e+01 1.811974e+00 7.363491e-01 1.120760e+00 1.292274e+00 1.602144e+00 3.479132e+00 2.745444e+00 2.004967e+00 2.928067e+00 1.923272e+00 2.012323e+00 2.697220e+00 8.601213e-01 3.933612e-01 1.118098e-01 1.535121e-01 1.724616e-01 2.318992e-01 3.669034e-01 3.431627e-01 3.329327e-01 4.007315e-01 3.646545e-01 3.208982e-01 3.464363e-01 1.772959e-01
<GCONST> 9.764094e+01
<MIXTURE> 2 1.788384e-01
<MEAN> 39
 -2.143219e+01 2.827202e+00 -1.084002e-01 -7.238286e+00 -4.810498e+00 1.363107e+01 8.257438e-01 -2.413411e+00 9.726642e+00 -4.247078e+00 -4.843232e+00 5.956312e+00 5.922754e+01 6.015813e-01 1.706741e-02 2.288778e-02 3.831654e-02 1.178357e-01 1.155832e-01 1.220231e-01 9.953538e-02 2.261895e-01 1.884442e-01 1.697005e-01 7.069006e-02 -4.587276e-01 8.566142e-03 1.041670e-03 -3.455887e-02 3.461956e-02 2.396643e-02 -8.682618e-02 -6.250569e-04 3.790771e-02 -5.706530e-02 6.095725e-02 6.665815e-02 -5.137566e-02 -1.214143e-03
<VARIANCE> 39
 2.967750e+01 8.064557e+00 1.644036e+01 1.089086e+01 1.409972e+01 2.476177e+01 2.329763e+01 1.863475e+01 2.245655e+01 1.911476e+01 1.750838e+01 1.849335e+01 1.598403e+01 3.034628e-01 3.071617e-01 5.760421e-01 7.474484e-01 9.604369e-01 1.337575e+00 1.430780e+00 1.362827e+00 1.463080e+00 1.450272e+00 1.317226e+00 1.280677e+00 1.566825e-01 1.135650e-01 6.254339e-02 1.241645e-01 1.549608e-01 2.077313e-01 2.868056e-01 3.102058e-01 2.868064e-01 3.180452e-01 3.103648e-01 2.788622e-01 2.760283e-01 6.519142e-02
<GCONST> 8.426149e+01
<MIXTURE> 3 1.788350e-01
<MEAN> 39
 -2.143220e+01 2.827200e+00 -1.083948e-01 -7.238284e+00 -4.810504e+00 1.363107e+01 8.257390e-01 -2.413415e+00 9.726640e+00 -4.247083e+00 -4.843239e+00 5.956317e+00 5.922755e+01 6.015799e-01 1.706740e-02 2.288922e-02 3.831660e-02 1.178355e-01 1.155846e-01 1.220237e-01 9.953563e-02 2.261908e-01 1.884446e-01 1.697000e-01 7.069077e-02 -4.587265e-01 8.566567e-03 1.041762e-03 -3.455905e-02 3.461955e-02 2.396680e-02 -8.682671e-02 -6.246677e-04 3.790806e-02 -5.706535e-02 6.095789e-02 6.665895e-02 -5.137614e-02 -1.214467e-03
<VARIANCE> 39
 2.967752e+01 8.064582e+00 1.644035e+01 1.089090e+01 1.409979e+01 2.476176e+01 2.329771e+01 1.863482e+01 2.245659e+01 1.911480e+01 1.750843e+01 1.849342e+01 1.598408e+01 3.034644e-01 3.071624e-01 5.760438e-01 7.474504e-01 9.604385e-01 1.337580e+00 1.430783e+00 1.362830e+00 1.463083e+00 1.450277e+00 1.317229e+00 1.280679e+00 1.566835e-01 1.135657e-01 6.254360e-02 1.241650e-01 1.549610e-01 2.077321e-01 2.868073e-01 3.102066e-01 2.868077e-01 3.180456e-01 3.103659e-01 2.788624e-01 2.760288e-01 6.519198e-02
<GCONST> 8.426159e+01
<MIXTURE> 4 1.060187e-01
<MEAN> 39
 -1.813176e+01 1.877122e+00 -1.562383e+00 -6.424365e+00 -4.459103e+00 1.085203e+01 3.365274e-01 -1.994420e+00 8.018408e+00 -3.186473e+00 -3.326562e+00 4.834527e+00 5.810627e+01 5.350264e-02 -1.527039e-01 -1.231464e-01 -1.436569e-01 -2.019127e-01 -1.682007e-01 -1.646734e-01 -2.546518e-01 -3.188131e-01 -2.453499e-01 -1.939050e-01 -9.644063e-02 -7.831234e-02 1.782237e-03 5.936495e-03 1.939887e-03 -3.140397e-02 6.030314e-05 5.902290e-03 9.209023e-03 -4.840495e-03 -2.226261e-02 -5.102126e-02 -4.475057e-02 -2.595813e-02 -7.494193e-04
<VARIANCE> 39
 6.672680e+01 1.309280e+01 2.243450e+01 1.383487e+01 1.794897e+01 3.772403e+01 3.036488e+01 2.508245e+01 3.087441e+01 2.037641e+01 1.932815e+01 2.157818e+01 2.939025e+01 8.265384e-01 4.320099e-01 7.537856e-01 8.904261e-01 1.219280e+00 1.866933e+00 1.822992e+00 1.645899e+00 1.836158e+00 1.593736e+00 1.508189e+00 1.674543e+00 4.609130e-01 3.646929e-01 9.679648e-02 1.534475e-01 1.858899e-01 2.523475e-01 3.677617e-01 3.847243e-01 3.535346e-01 3.916339e-01 3.436297e-01 3.158990e-01 3.317242e-01 2.025854e-01
<GCONST> 9.778651e+01
<MIXTURE> 5 1.788370e-01
<MEAN> 39
 -2.143222e+01 2.827198e+00 -1.083781e-01 -7.238286e+00 -4.810511e+00 1.363108e+01 8.257327e-01 -2.413412e+00 9.726656e+00 -4.247089e+00 -4.843242e+00 5.956326e+00 5.922756e+01 6.015801e-01 1.706779e-02 2.289008e-02 3.831516e-02 1.178345e-01 1.155858e-01 1.220227e-01 9.953427e-02 2.261920e-01 1.884433e-01 1.696990e-01 7.069203e-02 -4.587274e-01 8.567433e-03 1.041913e-03 -3.455980e-02 3.461963e-02 2.396747e-02 -8.682731e-02 -6.243057e-04 3.790792e-02 -5.706656e-02 6.095804e-02 6.665930e-02 -5.137710e-02 -1.215114e-03
<VARIANCE> 39
 2.967741e+01 8.064563e+00 1.644038e+01 1.089092e+01 1.409979e+01 2.476178e+01 2.329772e+01 1.863482e+01 2.245664e+01 1.911480e+01 1.750843e+01 1.849343e+01 1.598405e+01 3.034638e-01 3.071619e-01 5.760446e-01 7.474502e-01 9.604393e-01 1.337580e+00 1.430782e+00 1.362830e+00 1.463082e+00 1.450275e+00 1.317229e+00 1.280679e+00 1.566832e-01 1.135662e-01 6.254351e-02 1.241653e-01 1.549613e-01 2.077325e-01 2.868071e-01 3.102069e-01 2.868079e-01 3.180458e-01 3.103663e-01 2.788630e-01 2.760296e-01 6.519231e-02
<GCONST> 8.426163e+01
<MIXTURE> 6 1.060193e-01
<MEAN> 39
 -1.813165e+01 1.877117e+00 -1.562418e+00 -6.424366e+00 -4.459102e+00 1.085199e+01 3.365292e-01 -1.994430e+00 8.018373e+00 -3.186460e+00 -3.326551e+00 4.834511e+00 5.810622e+01 5.351221e-02 -1.527054e-01 -1.231481e-01 -1.436579e-01 -2.019122e-01 -1.682044e-01 -1.646746e-01 -2.546519e-01 -3.188162e-01 -2.453494e-01 -1.939036e-01 -9.644376e-02 -7.832070e-02 1.778660e-03 5.936675e-03 1.940301e-03 -3.140336e-02 6.049592e-05 5.902842e-03 9.208933e-03 -4.839646e-03 -2.226185e-02 -5.102126e-02 -4.475078e-02 -2.595790e-02 -7.468981e-04
<VARIANCE> 39
 6.672681e+01 1.309286e+01 2.243451e+01 1.383486e+01 1.794903e+01 3.772415e+01 3.036493e+01 2.508250e+01 3.087451e+01 2.037633e+01 1.932813e+01 2.157815e+01 2.939022e+01 8.265260e-01 4.320074e-01 7.537806e-01 8.904200e-01 1.219274e+00 1.866922e+00 1.822982e+00 1.645895e+00 1.836149e+00 1.593735e+00 1.508186e+00 1.674536e+00 4.609048e-01 3.646836e-01 9.679595e-02 1.534465e-01 1.858891e-01 2.523468e-01 3.677603e-01 3.847211e-01 3.535337e-01 3.916325e-01 3.436284e-01 3.158974e-01 3.317229e-01 2.025799e-01
<GCONST> 9.778636e+01
<MIXTURE> 7 1.060193e-01
<MEAN> 39
 -1.813166e+01 1.877117e+00 -1.562418e+00 -6.424362e+00 -4.459101e+00 1.085199e+01 3.365302e-01 -1.994430e+00 8.018372e+00 -3.186460e+00 -3.326553e+00 4.834510e+00 5.810622e+01 5.351102e-02 -1.527052e-01 -1.231480e-01 -1.436576e-01 -2.019120e-01 -1.682041e-01 -1.646744e-01 -2.546517e-01 -3.188159e-01 -2.453491e-01 -1.939035e-01 -9.644336e-02 -7.831971e-02 1.778844e-03 5.936597e-03 1.940159e-03 -3.140364e-02 6.032479e-05 5.902741e-03 9.208777e-03 -4.839767e-03 -2.226185e-02 -5.102127e-02 -4.475065e-02 -2.595778e-02 -7.470427e-04
<VARIANCE> 39
 6.672684e+01 1.309287e+01 2.243451e+01 1.383485e+01 1.794903e+01 3.772414e+01 3.036491e+01 2.508250e+01 3.087451e+01 2.037633e+01 1.932814e+01 2.157815e+01 2.939022e+01 8.265269e-01 4.320070e-01 7.537808e-01 8.904192e-01 1.219276e+00 1.866922e+00 1.822982e+00 1.645895e+00 1.836150e+00 1.593733e+00 1.508186e+00 1.674536e+00 4.609050e-01 3.646841e-01 9.679592e-02 1.534464e-01 1.858890e-01 2.523468e-01 3.677602e-01 3.847212e-01 3.535332e-01 3.916320e-01 3.436283e-01 3.158975e-01 3.317231e-01 2.025803e-01
<GCONST> 9.778634e+01
<MIXTURE> 8 1.094579e-01
<MEAN> 39
 -2.096179e+01 2.014467e+00 -1.670069e+00 -5.949556e+00 -4.234660e+00 8.039451e+00 2.557469e-01 -1.283263e+00 6.230575e+00 -3.117713e+00 -2.869273e+00 2.950902e+00 6.114405e+01 -2.240425e+00 1.390789e-01 1.313456e-01 7.967343e-02 -2.425718e-01 1.126609e-01 -3.110545e-01 -2.094886e-01 -1.188038e-01 -4.428622e-01 -4.824218e-01 1.743890e-01 1.913239e+00 2.994722e-01 -6.321404e-02 1.096090e-01 -1.171139e-01 -9.477815e-02 3.326469e-01 -2.592286e-02 -1.683581e-01 2.791183e-01 -1.196705e-01 -1.395254e-01 2.683660e-01 -2.504513e-01
<VARIANCE> 39
 9.197915e+01 1.767056e+01 2.861833e+01 1.925666e+01 2.266600e+01 4.623994e+01 3.862017e+01 3.010920e+01 3.479881e+01 2.291212e+01 2.160506e+01 2.449112e+01 3.784286e+01 4.348347e+00 1.399326e+00 2.010511e+00 1.622714e+00 2.205100e+00 4.218498e+00 3.546786e+00 2.804929e+00 3.384278e+00 2.200903e+00 2.238106e+00 3.042961e+00 1.747852e+00 1.060097e+00 2.115871e-01 2.660743e-01 3.018486e-01 3.673983e-01 5.607808e-01 5.742425e-01 4.726189e-01 5.358302e-01 4.250392e-01 3.947038e-01 4.358262e-01 6.032127e-01
<GCONST> 1.173370e+02
<STATE> 4
<NUMMIXES> 8
<MIXTURE> 1 5.417474e-02
<MEAN> 39
 -1.311927e+01 4.802218e-01 3.745656e+00 -5.709222e+00 -5.052960e+00 5.906412e+00 8.753740e-01 -3.563522e+00 3.060097e+00 2.345041e+00 -7.618848e+00 1.936943e+00 5.086875e+01 4.609294e-01 2.640837e-01 1.736411e-01 5.503491e-01 7.182400e-01 3.846039e-01 5.770138e-01 7.153786e-01 4.425015e-01 3.892728e-01 5.134223e-01 1.475215e-05 -3.813774e-01 -2.688087e-02 4.441757e-02 7.759233e-02 1.265723e-01 1.149054e-01 1.984448e-01 1.232173e-01 7.974064e-02 1.267359e-01 7.363301e-02 1.412261e-02 8.142028e-02 4.184144e-02
<VARIANCE> 39
 5.880689e+01 1.001911e+01 2.415706e+01 1.656083e+01 2.693493e+01 2.318400e+01 2.244524e+01 3.594365e+01 3.085143e+01 2.758423e+01 2.562438e+01 1.578571e+01 3.093186e+01 2.648728e-01 2.978647e-01 5.700979e-01 6.333162e-01 8.571476e-01 1.218374e+00 1.311245e+00 1.423351e+00 1.610400e+00 1.464886e+00 1.385128e+00 1.226794e+00 1.209976e-01 3.064339e-02 5.310700e-02 9.522516e-02 1.386387e-01 1.830329e-01 2.190320e-01 2.417099e-01 2.724532e-01 2.721538e-01 2.676306e-01 2.595930e-01 2.139359e-01 1.198674e-02
<GCONST> 8.312453e+01
<MIXTURE> 2 1.951085e-01
<MEAN> 39
 -2.212440e+01 4.088093e-01 6.074507e+00 -4.154121e+00 -6.788676e+00 1.135081e+01 1.475517e+00 -6.613928e+00 3.974659e+00 4.686243e+00 -1.217839e+01 5.192893e+00 5.772691e+01 5.706403e-01 4.770694e-02 1.818576e-01 -5.519625e-02 -2.496181e-02 4.173062e-02 1.234846e-01 -1.347763e-01 2.704643e-01 1.346914e-02 -9.192605e-02 1.105619e-01 -6.573445e-01 -3.371793e-02 1.594885e-02 -6.657843e-02 9.236123e-03 4.212853e-02 -9.522681e-02 -2.754719e-02 8.495586e-02 -5.162096e-02 -2.153870e-02 8.774047e-02 -8.031097e-02 2.440425e-02
<VARIANCE> 39
 3.184640e+01 9.219172e+00 1.413477e+01 1.513583e+01 3.048337e+01 2.670105e+01 2.787097e+01 4.900802e+01 3.749450e+01 3.172330e+01 2.947641e+01 3.206465e+01 3.065968e+01 1.940017e-01 2.925999e-01 5.884534e-01 6.681989e-01 9.217156e-01 1.206046e+00 1.265257e+00 1.471287e+00 1.595779e+00 1.415464e+00 1.395742e+00 1.243002e+00 1.311222e-01 8.401179e-02 6.562006e-02 1.316466e-01 1.502224e-01 2.164470e-01 2.722341e-01 2.827642e-01 3.503495e-01 3.619091e-01 3.248753e-01 3.090017e-01 2.730456e-01 8.070937e-02
<GCONST> 8.886372e+01
<MIXTURE> 3 1.951085e-01
<MEAN> 39
 -2.212440e+01 4.088093e-01 6.074507e+00 -4.154121e+00 -6.788676e+00 1.135081e+01 1.475517e+00 -6.613928e+00 3.974659e+00 4.686243e+00 -1.217839e+01 5.192893e+00 5.772691e+01 5.706403e-01 4.770694e-02 1.818576e-01 -5.519625e-02 -2.496181e-02 4.173062e-02 1.234846e-01 -1.347763e-01 2.704643e-01 1.346914e-02 -9.192605e-02 1.105619e-01 -6.573445e-01 -3.371793e-02 1.594885e-02 -6.657843e-02 9.236123e-03 4.212853e-02 -9.522681e-02 -2.754719e-02 8.495586e-02 -5.162096e-02 -2.153870e-02 8.774047e-02 -8.031097e-02 2.440425e-02
<VARIANCE> 39
 3.184640e+01 9.219172e+00 1.413477e+01 1.513583e+01 3.048337e+01 2.670105e+01 2.787097e+01 4.900802e+01 3.749450e+01 3.172330e+01 2.947641e+01 3.206465e+01 3.065968e+01 1.940017e-01 2.925999e-01 5.884534e-01 6.681989e-01 9.217156e-01 1.206046e+00 1.265257e+00 1.471287e+00 1.595779e+00 1.415464e+00 1.395742e+00 1.243002e+00 1.311222e-01 8.401179e-02 6.562006e-02 1.316466e-01 1.502224e-01 2.164470e-01 2.722341e-01 2.827642e-01 3.503495e-01 3.619091e-01 3.248753e-01 3.090017e-01 2.730456e-01 8.070937e-02
<GCONST> 8.886372e+01
<MIXTURE> 4 9.332670e-02
<MEAN> 39
 -2.363401e+01 6.305856e-01 4.628094e+00 -3.794254e+00 -6.326215e+00 1.088156e+01 1.264764e+00 -6.104283e+00 3.862352e+00 3.841360e+00 -1.163887e+01 4.844218e+00 5.917969e+01 -4.463150e-01 -8.349659e-02 -2.238771e-01 -2.784951e-02 -1.233213e-01 -8.843558e-02 -1.023681e-01 -2.412255e-02 -2.071404e-01 -2.012630e-01 4.347419e-02 -1.264484e-01 5.593711e-01 1.172424e-02 -1.121921e-02 5.661567e-02 -2.388725e-02 -1.667879e-02 9.620102e-03 -1.347967e-02 -7.997073e-03 -3.684849e-02 4.846406e-02 -2.432146e-02 2.662213e-02 -2.751955e-03
<VARIANCE> 39
 2.713308e+01 1.107486e+01 1.681796e+01 1.609080e+01 2.699864e+01 2.855292e+01 3.116958e+01 4.699664e+01 3.904979e+01 3.262812e+01 2.887348e+01 3.218069e+01 3.322151e+01 1.110668e+00 6.709231e-01 1.417443e+00 1.241437e+00 1.877266e+00 2.669037e+00 2.086130e+00 3.749583e+00 3.170855e+00 2.697563e+00 2.473695e+00 2.454522e+00 8.865616e-01 4.864647e-01 1.194418e-01 2.746783e-01 2.227522e-01 3.258911e-01 4.261771e-01 4.162579e-01 5.772265e-01 6.608342e-01 4.854549e-01 4.207986e-01 4.305504e-01 5.292860e-01
<GCONST> 1.096561e+02
<MIXTURE> 5 1.951088e-01
<MEAN> 39
 -2.212441e+01 4.088095e-01 6.074513e+00 -4.154119e+00 -6.788684e+00 1.135081e+01 1.475507e+00 -6.613942e+00 3.974656e+00 4.686246e+00 -1.217839e+01 5.192903e+00 5.772692e+01 5.706404e-01 4.770667e-02 1.818579e-01 -5.519621e-02 -2.496150e-02 4.173176e-02 1.234856e-01 -1.347760e-01 2.704653e-01 1.346929e-02 -9.192621e-02 1.105626e-01 -6.573446e-01 -3.371809e-02 1.594876e-02 -6.657884e-02 9.236097e-03 4.212878e-02 -9.522684e-02 -2.754675e-02 8.495638e-02 -5.162095e-02 -2.153885e-02 8.774067e-02 -8.031142e-02 2.440443e-02
<VARIANCE> 39
 3.184638e+01 9.219175e+00 1.413477e+01 1.513583e+01 3.048341e+01 2.670110e+01 2.787096e+01 4.900808e+01 3.749459e+01 3.172333e+01 2.947647e+01 3.206478e+01 3.065974e+01 1.940019e-01 2.926005e-01 5.884535e-01 6.681997e-01 9.217157e-01 1.206046e+00 1.265258e+00 1.471287e+00 1.595777e+00 1.415465e+00 1.395744e+00 1.243002e+00 1.311222e-01 8.401208e-02 6.562009e-02 1.316465e-01 1.502225e-01 2.164469e-01 2.722341e-01 2.827643e-01 3.503493e-01 3.619101e-01 3.248759e-01 3.090021e-01 2.730458e-01 8.070964e-02
<GCONST> 8.886374e+01
<MIXTURE> 6 9.333085e-02
<MEAN> 39
 -2.363401e+01 6.305829e-01 4.628088e+00 -3.794246e+00 -6.326222e+00 1.088156e+01 1.264760e+00 -6.104293e+00 3.862341e+00 3.841361e+00 -1.163888e+01 4.844221e+00 5.917970e+01 -4.463167e-01 -8.349705e-02 -2.238746e-01 -2.784900e-02 -1.233220e-01 -8.843153e-02 -1.023683e-01 -2.412336e-02 -2.071412e-01 -2.012601e-01 4.347190e-02 -1.264461e-01 5.593730e-01 1.172589e-02 -1.121882e-02 5.661666e-02 -2.388787e-02 -1.667850e-02 9.619590e-03 -1.347945e-02 -7.996585e-03 -3.684708e-02 4.846448e-02 -2.432100e-02 2.662212e-02 -2.753960e-03
<VARIANCE> 39
 2.713313e+01 1.107491e+01 1.681798e+01 1.609083e+01 2.699874e+01 2.855305e+01 3.116966e+01 4.699669e+01 3.904986e+01 3.262826e+01 2.887346e+01 3.218077e+01 3.322150e+01 1.110674e+00 6.709263e-01 1.417443e+00 1.241438e+00 1.877270e+00 2.669048e+00 2.086127e+00 3.749593e+00 3.170860e+00 2.697570e+00 2.473698e+00 2.454530e+00 8.865638e-01 4.864675e-01 1.194425e-01 2.746792e-01 2.227523e-01 3.258920e-01 4.261793e-01 4.162602e-01 5.772281e-01 6.608351e-01 4.854558e-01 4.207999e-01 4.305519e-01 5.292900e-01
<GCONST> 1.096562e+02
<MIXTURE> 7 9.332715e-02
<MEAN> 39
 -2.363402e+01 6.305926e-01 4.628067e+00 -3.794259e+00 -6.326190e+00 1.088149e+01 1.264748e+00 -6.104230e+00 3.862290e+00 3.841368e+00 -1.163882e+01 4.844161e+00 5.917970e+01 -4.463118e-01 -8.349809e-02 -2.238748e-01 -2.784912e-02 -1.233287e-01 -8.842600e-02 -1.023663e-01 -2.413630e-02 -2.071325e-01 -2.012666e-01 4.346479e-02 -1.264376e-01 5.593685e-01 1.173056e-02 -1.121906e-02 5.661961e-02 -2.388705e-02 -1.668107e-02 9.626945e-03 -1.347508e-02 -8.002158e-03 -3.683928e-02 4.846352e-02 -2.432609e-02 2.662751e-02 -2.759951e-03
<VARIANCE> 39
 2.713331e+01 1.107490e+01 1.681797e+01 1.609080e+01 2.699860e+01 2.855299e+01 3.116950e+01 4.699646e+01 3.904963e+01 3.262801e+01 2.887329e+01 3.218039e+01 3.322156e+01 1.110666e+00 6.709233e-01 1.417438e+00 1.241437e+00 1.877259e+00 2.669024e+00 2.086128e+00 3.749554e+00 3.170830e+00 2.697553e+00 2.473681e+00 2.454507e+00 8.865580e-01 4.864631e-01 1.194421e-01 2.746780e-01 2.227522e-01 3.258909e-01 4.261769e-01 4.162575e-01 5.772233e-01 6.608297e-01 4.854537e-01 4.207977e-01 4.305481e-01 5.292844e-01
<GCONST> 1.096560e+02
<MIXTURE> 8 8.017744e-02
<MEAN> 39
 -2.484982e+01 1.249705e+00 3.009094e+00 -3.792907e+00 -4.829939e+00 7.324208e+00 2.328892e-01 -2.090795e+00 4.562887e-01 4.960792e+00 -8.168568e+00 1.800049e+00 6.059047e+01 -2.289350e+00 -3.033921e-01 -5.981295e-01 4.877045e-02 1.751925e-01 -4.057926e-01 -9.327160e-01 6.677036e-01 -1.531570e+00 2.987538e-01 2.686633e-01 -3.931695e-01 2.607294e+00 2.603247e-01 -9.917372e-02 2.002717e-01 -6.219530e-02 -2.876935e-01 4.857613e-01 1.703282e-01 -5.847512e-01 4.095225e-01 -7.797267e-02 -5.020216e-01 4.068014e-01 -2.271075e-01
<VARIANCE> 39
 5.132639e+01 1.459251e+01 1.953451e+01 2.011238e+01 2.751108e+01 3.341904e+01 3.601005e+01 3.973891e+01 3.984436e+01 3.109656e+01 2.681349e+01 2.428476e+01 4.560220e+01 2.717160e+00 1.059153e+00 1.992481e+00 1.715602e+00 2.981817e+00 3.657777e+00 2.972229e+00 5.024092e+00 4.031215e+00 3.896988e+00 3.086881e+00 2.869155e+00 1.572194e+00 6.913324e-01 1.591358e-01 3.173878e-01 2.898351e-01 4.002323e-01 4.641477e-01 5.314226e-01 5.818115e-01 6.988961e-01 5.523342e-01 4.155980e-01 4.320636e-01 6.857678e-01
<GCONST> 1.180506e+02
<TRANSP> 5
 0.000000e+00 1.000000e+00 0.000000e+00 0.000000e+00 0.000000e+00
 0.000000e+00 9.534606e-01 4.653943e-02 0.000000e+00 0.000000e+00
 0.000000e+00 0.000000e+00 9.920205e-01 7.979463e-03 0.000000e+00
 0.000000e+00 0.000000e+00 0.000000e+00 9.935661e-01 6.433904e-03
 0.000000e+00 0.000000e+00 0.000000e+00 0.000000e+00 0.000000e+00
<ENDHMM>
~h "cm"
<BEGINHMM>
<NUMSTATES> 5
<STATE> 2
<NUMMIXES> 8
<MIXTURE> 1 4.908907e-02
<MEAN> 39
 -1.265050e+01 -1.668292e+00 -5.276082e+00 -8.294305e+00 -3.570448e+00 -3.796343e+00 -5.265491e+00 -2.966700e+00 -3.831496e+00 9.811401e-03 2.449209e+00 5.347355e-01 6.042387e+01 9.216513e-02 2.229880e-01 4.122407e-01 5.451978e-01 7.042168e-01 7.578713e-01 6.595147e-01 6.441603e-01 5.488544e-01 4.194942e-01 2.911870e-01 1.625223e-01 9.355164e-02 1.665356e-02 9.072618e-02 1.634936e-01 2.603087e-01 3.339794e-01 3.932702e-01 4.119921e-01 3.801424e-01 2.930902e-01 1.740216e-01 6.806268e-02 -5.679596e-04 -7.518831e-02
<VARIANCE> 39
 1.191514e+01 1.428404e+01 1.184448e+01 1.525201e+01 1.279976e+01 1.446013e+01 1.912709e+01 1.976360e+01 2.103072e+01 2.127735e+01 2.609244e+01 2.314453e+01 2.383221e+01 3.013078e-01 3.836796e-01 5.863273e-01 7.474142e-01 9.183488e-01 1.053137e+00 1.255927e+00 1.381540e+00 1.372555e+00 1.358563e+00 1.435138e+00 1.375730e+00 2.826826e-01 6.473247e-02 8.562724e-02 1.214574e-01 1.779308e-01 1.999345e-01 2.357834e-01 2.742180e-01 3.156167e-01 3.319307e-01 3.282939e-01 3.437266e-01 3.007692e-01 6.692802e-02
<GCONST> 8.469796e+01
<MIXTURE> 2 1.574038e-01
<MEAN> 39
 -1.299480e+01 -7.736061e-01 -3.946157e+00 -5.834850e+00 -5.463585e-03 1.017004e+00 -6.380947e-01 1.426325e+00 -6.387513e-01 1.207938e+00 2.686270e+00 1.500673e-01 5.857531e+01 -1.083026e-02 5.868646e-02 1.234911e-01 2.109534e-01 3.139617e-01 3.537212e-01 3.285528e-01 3.133905e-01 2.413183e-01 1.765428e-01 9.772573e-02 1.851016e-02 2.587898e-02 4.338318e-03 -5.748831e-04 -4.492606e-03 -1.558287e-02 -3.550207e-02 -5.728593e-02 -5.874963e-02 -5.419457e-02 -3.587388e-02 -9.168113e-03 7.019821e-03 5.366695e-03 8.237850e-03
<VARIANCE> 39
 9.498217e+00 1.361716e+01 1.326803e+01 1.417362e+01 1.394528e+01 1.511986e+01 1.770669e+01 1.681376e+01 1.746217e+01 1.580263e+01 1.716779e+01 1.542444e+01 2.273798e+01 1.634368e-01 2.827489e-01 4.309138e-01 6.222747e-01 7.910030e-01 9.484962e-01 1.083514e+00 1.216498e+00 1.278250e+00 1.249903e+00 1.286740e+00 1.186720e+00 1.165137e-01 2.643797e-02 5.028387e-02 8.411200e-02 1.279503e-01 1.704773e-01 2.062457e-01 2.317863e-01 2.561226e-01 2.629730e-01 2.564088e-01 2.536910e-01 2.358376e-01 1.128420e-02
<GCONST> 7.416322e+01
<MIXTURE> 3 1.573993e-01
<MEAN> 39
 -1.299481e+01 -7.736053e-01 -3.946157e+00 -5.834848e+00 -5.461037e-03 1.017005e+00 -6.380929e-01 1.426326e+00 -6.387523e-01 1.207937e+00 2.686269e+00 1.500670e-01 5.857531e+01 -1.083034e-02 5.868614e-02 1.234911e-01 2.109534e-01 3.139619e-01 3.537216e-01 3.285539e-01 3.133909e-01 2.413182e-01 1.765424e-01 9.772560e-02 1.851035e-02 2.587890e-02 4.338341e-03 -5.748766e-04 -4.492651e-03 -1.558295e-02 -3.550227e-02 -5.728602e-02 -5.875004e-02 -5.419464e-02 -3.587379e-02 -9.168070e-03 7.019938e-03 5.366797e-03 8.237871e-03
<VARIANCE> 39
 9.498209e+00 1.361718e+01 1.326804e+01 1.417368e+01 1.394528e+01 1.511985e+01 1.770675e+01 1.681378e+01 1.746222e+01 1.580270e+01 1.716781e+01 1.542451e+01 2.273798e+01 1.634372e-01 2.827493e-01 4.309146e-01 6.222745e-01 7.910046e-01 9.484959e-01 1.083516e+00 1.216500e+00 1.278253e+00 1.249904e+00 1.286740e+00 1.186723e+00 1.165137e-01 2.643799e-02 5.028383e-02 8.411214e-02 1.279502e-01 1.704775e-01 2.062461e-01 2.317868e-01 2.561232e-01 2.629731e-01 2.564099e-01 2.536914e-01 2.358387e-01 1.128420e-02
<GCONST> 7.416331e+01
<MIXTURE> 4 1.378521e-01
<MEAN> 39
 -1.313628e+01 -7.619963e-01 -4.125835e+00 -6.258466e+00 -5.882028e-01 1.107802e-01 -1.624451e+00 6.370310e-01 -1.147793e+00 1.615077e+00 3.425258e+00 7.506177e-01 5.882460e+01 -2.967949e-02 -1.200157e-01 -2.129844e-01 -3.051913e-01 -3.286501e-01 -3.990072e-01 -4.466060e-01 -4.010155e-01 -3.568008e-01 -2.639010e-01 -1.435229e-01 -3.871873e-02 1.619846e-01 1.955756e-02 -1.161991e-02 -1.621092e-02 -7.943396e-03 -1.515427e-02 -1.122229e-02 6.221458e-03 -1.219932e-03 -6.053560e-03 -3.416284e-02 -5.011688e-02 -3.425555e-02 1.898978e-02
<VARIANCE> 39
 8.256228e+00 1.318901e+01 1.213731e+01 1.352354e+01 1.451185e+01 1.612022e+01 1.962346e+01 1.859373e+01 1.883940e+01 1.684434e+01 1.861390e+01 1.704798e+01 1.992739e+01 2.335992e-01 3.588372e-01 5.057208e-01 7.204646e-01 8.714977e-01 1.006457e+00 1.164873e+00 1.279336e+00 1.339557e+00 1.326548e+00 1.360133e+00 1.273078e+00 1.970435e-01 3.297602e-02 6.060527e-02 9.489378e-02 1.422539e-01 1.918330e-01 2.338188e-01 2.668869e-01 2.859479e-01 2.881398e-01 2.738743e-01 2.730151e-01 2.542938e-01 1.884121e-02
<GCONST> 7.823735e+01
<MIXTURE> 5 1.574006e-01
<MEAN> 39
 -1.299481e+01 -7.736155e-01 -3.946176e+00 -5.834864e+00 -5.468160e-03 1.017003e+00 -6.380993e-01 1.426323e+00 -6.387528e-01 1.207953e+00 2.686292e+00 1.500840e-01 5.857533e+01 -1.083012e-02 5.868577e-02 1.234910e-01 2.109540e-01 3.139627e-01 3.537221e-01 3.285541e-01 3.133913e-01 2.413187e-01 1.765426e-01 9.772527e-02 1.850981e-02 2.587937e-02 4.338449e-03 -5.745534e-04 -4.491966e-03 -1.558218e-02 -3.550191e-02 -5.728605e-02 -5.874981e-02 -5.419496e-02 -3.587444e-02 -9.169630e-03 7.018151e-03 5.365605e-03 8.237737e-03
<VARIANCE> 39
 9.498176e+00 1.361717e+01 1.326801e+01 1.417364e+01 1.394531e+01 1.511988e+01 1.770674e+01 1.681378e+01 1.746220e+01 1.580268e+01 1.716784e+01 1.542452e+01 2.273790e+01 1.634368e-01 2.827493e-01 4.309152e-01 6.222746e-01 7.910055e-01 9.484969e-01 1.083515e+00 1.216498e+00 1.278251e+00 1.249903e+00 1.286740e+00 1.186723e+00 1.165135e-01 2.643797e-02 5.028381e-02 8.411203e-02 1.279503e-01 1.704776e-01 2.062462e-01 2.317869e-01 2.561229e-01 2.629730e-01 2.564098e-01 2.536916e-01 2.358389e-01 1.128417e-02
<GCONST> 7.416328e+01
<MIXTURE> 6 1.378521e-01
<MEAN> 39
 -1.313628e+01 -7.619963e-01 -4.125835e+00 -6.258466e+00 -5.882028e-01 1.107802e-01 -1.624451e+00 6.370310e-01 -1.147793e+00 1.615077e+00 3.425258e+00 7.506177e-01 5.882460e+01 -2.967949e-02 -1.200157e-01 -2.129844e-01 -3.051913e-01 -3.286501e-01 -3.990072e-01 -4.466060e-01 -4.010155e-01 -3.568008e-01 -2.639010e-01 -1.435229e-01 -3.871873e-02 1.619846e-01 1.955756e-02 -1.161991e-02 -1.621092e-02 -7.943396e-03 -1.515427e-02 -1.122229e-02 6.221458e-03 -1.219932e-03 -6.053560e-03 -3.416284e-02 -5.011688e-02 -3.425555e-02 1.898978e-02
<VARIANCE> 39
 8.256228e+00 1.318901e+01 1.213731e+01 1.352354e+01 1.451185e+01 1.612022e+01 1.962346e+01 1.859373e+01 1.883940e+01 1.684434e+01 1.861390e+01 1.704798e+01 1.992739e+01 2.335992e-01 3.588372e-01 5.057208e-01 7.204646e-01 8.714977e-01 1.006457e+00 1.164873e+00 1.279336e+00 1.339557e+00 1.326548e+00 1.360133e+00 1.273078e+00 1.970435e-01 3.297602e-02 6.060527e-02 9.489378e-02 1.422539e-01 1.918330e-01 2.338188e-01 2.668869e-01 2.859479e-01 2.881398e-01 2.738743e-01 2.730151e-01 2.542938e-01 1.884121e-02
<GCONST> 7.823735e+01
<MIXTURE> 7 1.378512e-01
<MEAN> 39
 -1.313628e+01 -7.619956e-01 -4.125835e+00 -6.258465e+00 -5.882030e-01 1.107793e-01 -1.624451e+00 6.370308e-01 -1.147793e+00 1.615077e+00 3.425259e+00 7.506181e-01 5.882460e+01 -2.967950e-02 -1.200157e-01 -2.129843e-01 -3.051911e-01 -3.286500e-01 -3.990073e-01 -4.466061e-01 -4.010155e-01 -3.568008e-01 -2.639010e-01 -1.435228e-01 -3.871867e-02 1.619846e-01 1.955758e-02 -1.161992e-02 -1.621096e-02 -7.943410e-03 -1.515431e-02 -1.122228e-02 6.221516e-03 -1.219763e-03 -6.053459e-03 -3.416281e-02 -5.011692e-02 -3.425556e-02 1.898980e-02
<VARIANCE> 39
 8.256235e+00 1.318899e+01 1.213732e+01 1.352353e+01 1.451186e+01 1.612022e+01 1.962348e+01 1.859375e+01 1.883941e+01 1.684434e+01 1.861390e+01 1.704799e+01 1.992741e+01 2.335989e-01 3.588371e-01 5.057209e-01 7.204652e-01 8.714976e-01 1.006458e+00 1.164875e+00 1.279337e+00 1.339556e+00 1.326549e+00 1.360134e+00 1.273077e+00 1.970435e-01 3.297604e-02 6.060529e-02 9.489381e-02 1.422538e-01 1.918329e-01 2.338188e-01 2.668870e-01 2.859479e-01 2.881400e-01 2.738745e-01 2.730152e-01 2.542937e-01 1.884121e-02
<GCONST> 7.823739e+01
<MIXTURE> 8 6.509845e-02
<MEAN> 39
 -1.191280e+01 -9.203438e-01 -3.725273e+00 -5.578104e+00 -1.112724e+00 -6.012755e-01 -7.755891e-01 8.352647e-01 -1.248915e-01 1.553101e+00 2.383174e+00 -1.825810e-01 5.790570e+01 1.553480e-01 -2.741730e-01 -2.775747e-01 -4.696805e-01 -7.227005e-01 -9.562157e-01 -9.718290e-01 -8.143976e-01 -5.936755e-01 -3.503103e-01 -2.347540e-01 -3.540529e-02 1.224592e+00 1.150642e-01 3.772687e-02 2.745257e-02 1.835185e-02 -7.670583e-03 -2.856481e-02 -5.452858e-02 -6.149495e-02 -8.433150e-02 -9.810706e-02 -8.140197e-02 -3.203345e-02 8.686861e-02
<VARIANCE> 39
 1.449666e+01 1.736617e+01 1.527357e+01 2.004912e+01 1.687470e+01 1.920670e+01 2.221591e+01 2.206759e+01 1.937829e+01 1.757660e+01 1.864128e+01 1.755400e+01 3.870147e+01 1.087862e+00 1.073879e+00 1.072078e+00 1.548533e+00 1.544921e+00 1.670526e+00 1.933446e+00 2.164304e+00 2.071267e+00 1.982816e+00 2.212559e+00 1.811435e+00 1.039436e+00 1.341896e-01 1.531517e-01 1.736289e-01 2.673908e-01 2.969626e-01 3.424712e-01 3.997032e-01 4.092644e-01 3.760315e-01 3.315290e-01 3.519896e-01 3.094063e-01 2.320321e-01
<GCONST> 9.925364e+01
<STATE> 3
<NUMMIXES> 8
<MIXTURE> 1 4.921103e-02
<MEAN> 39
 -8.458165e+00 -4.564602e+00 -6.292038e+00 -1.020596e+01 -5.339984e+00 -5.851508e+00 -5.162512e+00 -2.909473e+00 -3.271072e+00 -1.893723e+00 -1.578407e+00 -1.985445e+00 7.230035e+01 2.351151e-01 2.055244e-01 4.696243e-01 5.385097e-01 7.225389e-01 7.796215e-01 6.298383e-01 6.351943e-01 6.377524e-01 5.127660e-01 4.999236e-01 3.866698e-01 -9.758902e-02 8.354806e-02 1.982368e-01 1.811767e-01 4.284643e-01 4.014379e-01 4.331768e-01 3.734403e-01 2.586450e-01 1.800641e-01 1.298047e-01 1.052987e-01 4.224375e-02 -3.663835e-01
<VARIANCE> 39
 1.148290e+01 1.426173e+01 1.405378e+01 1.676610e+01 1.447792e+01 1.382457e+01 1.811822e+01 1.894048e+01 2.057836e+01 1.758769e+01 1.631202e+01 1.532027e+01 6.240698e+01 2.909888e-01 4.009978e-01 6.705267e-01 8.962085e-01 9.945455e-01 1.056737e+00 1.369088e+00 1.436761e+00 1.423974e+00 1.385423e+00 1.420710e+00 1.245718e+00 5.194750e-01 9.866316e-02 1.150987e-01 1.535101e-01 1.935831e-01 2.194033e-01 2.360550e-01 2.756818e-01 3.314169e-01 3.377472e-01 3.282304e-01 3.179204e-01 2.961914e-01 2.349329e-01
<GCONST> 8.822736e+01
<MIXTURE> 2 1.827743e-01
<MEAN> 39
 -7.574697e+00 -2.415651e+00 -4.935661e+00 -5.421111e+00 -1.536761e+00 -1.730744e+00 -1.975227e+00 -1.060315e+00 -2.153106e+00 -7.428008e-01 -6.743237e-01 -1.675283e+00 6.646421e+01 8.683765e-02 8.952284e-02 9.159917e-02 1.771907e-01 1.980131e-01 2.477612e-01 2.156637e-01 1.659271e-01 1.462475e-01 1.396776e-01 1.102460e-01 5.562680e-02 -1.287252e-01 -1.360610e-02 -3.095718e-03 -1.999402e-02 -2.987538e-02 -4.083943e-02 -4.282523e-02 -4.106709e-02 -3.498883e-02 -4.064402e-02 -4.221538e-02 -3.403743e-02 -2.650172e-02 -7.891703e-03
<VARIANCE> 39
 1.205597e+01 1.559940e+01 1.363939e+01 1.597456e+01 1.591718e+01 1.566147e+01 2.106701e+01 1.882816e+01 2.045488e+01 1.839454e+01 1.634539e+01 1.496025e+01 7.978021e+01 2.330871e-01 3.441562e-01 4.923617e-01 7.112635e-01 8.638911e-01 1.007980e+00 1.144309e+00 1.244580e+00 1.319628e+00 1.305861e+00 1.275556e+00 1.202797e+00 3.686343e-01 3.767756e-02 6.678843e-02 1.002600e-01 1.441852e-01 1.823129e-01 2.233436e-01 2.557917e-01 2.716061e-01 2.837999e-01 2.830891e-01 2.715197e-01 2.498702e-01 3.194653e-02
<GCONST> 8.148067e+01
<MIXTURE> 3 1.827756e-01
<MEAN> 39
 -7.574698e+00 -2.415648e+00 -4.935664e+00 -5.421114e+00 -1.536766e+00 -1.730752e+00 -1.975237e+00 -1.060322e+00 -2.153115e+00 -7.428064e-01 -6.743264e-01 -1.675283e+00 6.646422e+01 8.683757e-02 8.952291e-02 9.159954e-02 1.771907e-01 1.980131e-01 2.477612e-01 2.156639e-01 1.659275e-01 1.462478e-01 1.396780e-01 1.102463e-01 5.562704e-02 -1.287249e-01 -1.360615e-02 -3.095709e-03 -1.999375e-02 -2.987492e-02 -4.083892e-02 -4.282429e-02 -4.106621e-02 -3.498803e-02 -4.064331e-02 -4.221493e-02 -3.403728e-02 -2.650170e-02 -7.891760e-03
<VARIANCE> 39
 1.205595e+01 1.559935e+01 1.363937e+01 1.597450e+01 1.591715e+01 1.566140e+01 2.106693e+01 1.882812e+01 2.045481e+01 1.839449e+01 1.634535e+01 1.496021e+01 7.978006e+01 2.330868e-01 3.441557e-01 4.923607e-01 7.112613e-01 8.638895e-01 1.007978e+00 1.144306e+00 1.244577e+00 1.319626e+00 1.305858e+00 1.275553e+00 1.202793e+00 3.686341e-01 3.767744e-02 6.678823e-02 1.002596e-01 1.441848e-01 1.823124e-01 2.233425e-01 2.557909e-01 2.716056e-01 2.837992e-01 2.830885e-01 2.715188e-01 2.498696e-01 3.194643e-02
<GCONST> 8.148055e+01
<MIXTURE> 4 1.144114e-01
<MEAN> 39
 -7.877635e+00 -1.561855e+00 -5.557941e+00 -6.421628e+00 -2.557550e+00 -2.788137e+00 -3.439047e+00 -1.780546e+00 -3.184959e+00 -1.853897e+00 -1.479811e+00 -2.356783e+00 6.793388e+01 2.764516e-01 -1.591046e-02 -1.697917e-01 -2.692857e-01 -4.403465e-01 -5.086927e-01 -4.169592e-01 -3.970428e-01 -3.330559e-01 -3.530506e-01 -3.827782e-01 -2.303894e-01 6.569160e-01 -4.328438e-02 -4.117536e-02 7.869483e-03 3.381080e-03 3.299610e-02 5.432752e-02 6.132239e-02 6.717291e-02 7.606650e-02 9.254508e-02 9.267583e-02 6.848940e-02 -6.821191e-03
<VARIANCE> 39
 1.114499e+01 1.281070e+01 1.403144e+01 1.551480e+01 1.654846e+01 1.459151e+01 1.676393e+01 1.716233e+01 1.846134e+01 1.628627e+01 1.588426e+01 1.403962e+01 5.448256e+01 6.481298e-01 6.852155e-01 7.679688e-01 1.043533e+00 1.104135e+00 1.161463e+00 1.346739e+00 1.428646e+00 1.499558e+00 1.451284e+00 1.375527e+00 1.293808e+00 8.216929e-01 7.948497e-02 1.103209e-01 1.405162e-01 1.957251e-01 2.303583e-01 2.481443e-01 2.688126e-01 2.853548e-01 3.004190e-01 2.860053e-01 2.760404e-01 2.562904e-01 9.912990e-02
<GCONST> 8.813512e+01
<MIXTURE> 5 1.827758e-01
<MEAN> 39
 -7.574697e+00 -2.415650e+00 -4.935661e+00 -5.421113e+00 -1.536764e+00 -1.730747e+00 -1.975232e+00 -1.060320e+00 -2.153113e+00 -7.428044e-01 -6.743253e-01 -1.675283e+00 6.646421e+01 8.683761e-02 8.952300e-02 9.159955e-02 1.771910e-01 1.980135e-01 2.477618e-01 2.156643e-01 1.659277e-01 1.462477e-01 1.396781e-01 1.102464e-01 5.562709e-02 -1.287252e-01 -1.360614e-02 -3.095756e-03 -1.999393e-02 -2.987527e-02 -4.083924e-02 -4.282488e-02 -4.106665e-02 -3.498830e-02 -4.064341e-02 -4.221511e-02 -3.403745e-02 -2.650181e-02 -7.891686e-03
<VARIANCE> 39
 1.205595e+01 1.559936e+01 1.363937e+01 1.597455e+01 1.591718e+01 1.566144e+01 2.106699e+01 1.882814e+01 2.045485e+01 1.839454e+01 1.634537e+01 1.496026e+01 7.978004e+01 2.330868e-01 3.441562e-01 4.923622e-01 7.112625e-01 8.638901e-01 1.007980e+00 1.144308e+00 1.244579e+00 1.319629e+00 1.305861e+00 1.275555e+00 1.202796e+00 3.686339e-01 3.767751e-02 6.678832e-02 1.002598e-01 1.441851e-01 1.823126e-01 2.233432e-01 2.557916e-01 2.716059e-01 2.837994e-01 2.830892e-01 2.715195e-01 2.498699e-01 3.194654e-02
<GCONST> 8.148061e+01
<MIXTURE> 6 1.144123e-01
<MEAN> 39
 -7.877635e+00 -1.561856e+00 -5.557942e+00 -6.421628e+00 -2.557550e+00 -2.788138e+00 -3.439047e+00 -1.780552e+00 -3.184966e+00 -1.853905e+00 -1.479818e+00 -2.356786e+00 6.793388e+01 2.764508e-01 -1.591084e-02 -1.697916e-01 -2.692854e-01 -4.403461e-01 -5.086923e-01 -4.169586e-01 -3.970426e-01 -3.330558e-01 -3.530502e-01 -3.827778e-01 -2.303890e-01 6.569160e-01 -4.328438e-02 -4.117543e-02 7.869772e-03 3.381209e-03 3.299624e-02 5.432785e-02 6.132250e-02 6.717353e-02 7.606738e-02 9.254611e-02 9.267665e-02 6.848986e-02 -6.821410e-03
<VARIANCE> 39
 1.114502e+01 1.281075e+01 1.403150e+01 1.551482e+01 1.654849e+01 1.459153e+01 1.676398e+01 1.716243e+01 1.846144e+01 1.628637e+01 1.588436e+01 1.403970e+01 5.448273e+01 6.481307e-01 6.852160e-01 7.679709e-01 1.043534e+00 1.104136e+00 1.161465e+00 1.346745e+00 1.428649e+00 1.499559e+00 1.451286e+00 1.375530e+00 1.293807e+00 8.216960e-01 7.948527e-02 1.103216e-01 1.405166e-01 1.957253e-01 2.303582e-01 2.481444e-01 2.688128e-01 2.853568e-01 3.004204e-01 2.860067e-01 2.760423e-01 2.562919e-01 9.913030e-02
<GCONST> 8.813527e+01
<MIXTURE> 7 1.144138e-01
<MEAN> 39
 -7.877636e+00 -1.561855e+00 -5.557941e+00 -6.421628e+00 -2.557549e+00 -2.788138e+00 -3.439046e+00 -1.780553e+00 -3.184964e+00 -1.853904e+00 -1.479818e+00 -2.356787e+00 6.793388e+01 2.764511e-01 -1.591072e-02 -1.697913e-01 -2.692854e-01 -4.403460e-01 -5.086923e-01 -4.169587e-01 -3.970422e-01 -3.330556e-01 -3.530501e-01 -3.827777e-01 -2.303890e-01 6.569162e-01 -4.328434e-02 -4.117541e-02 7.869679e-03 3.381147e-03 3.299620e-02 5.432776e-02 6.132241e-02 6.717350e-02 7.606721e-02 9.254580e-02 9.267673e-02 6.849006e-02 -6.821398e-03
<VARIANCE> 39
 1.114502e+01 1.281073e+01 1.403151e+01 1.551480e+01 1.654849e+01 1.459153e+01 1.676397e+01 1.716242e+01 1.846143e+01 1.628633e+01 1.588434e+01 1.403969e+01 5.448267e+01 6.481312e-01 6.852155e-01 7.679701e-01 1.043533e+00 1.104137e+00 1.161467e+00 1.346744e+00 1.428648e+00 1.499560e+00 1.451287e+00 1.375531e+00 1.293808e+00 8.216962e-01 7.948542e-02 1.103215e-01 1.405167e-01 1.957256e-01 2.303582e-01 2.481443e-01 2.688124e-01 2.853566e-01 3.004200e-01 2.860067e-01 2.760421e-01 2.562917e-01 9.913054e-02
<GCONST> 8.813525e+01
<MIXTURE> 8 5.915149e-02
<MEAN> 39
 -1.044843e+01 -4.854677e+00 -4.370540e+00 -6.590081e+00 -2.328305e+00 -3.135167e+00 -2.099414e+00 -1.101256e+00 -1.943940e+00 -1.273993e+00 -9.261922e-01 -1.840730e+00 6.661678e+01 -1.862692e-01 -9.526845e-01 -2.945912e-01 -6.360213e-01 -6.475924e-01 -9.679615e-01 -5.572913e-01 -3.560141e-01 -2.221136e-01 -2.976934e-01 -4.010178e-01 -9.750435e-02 2.183583e+00 1.514312e-01 1.893455e-01 5.878223e-02 6.349017e-02 1.617190e-01 1.478762e-01 3.497905e-02 -2.736042e-03 1.419630e-03 3.139507e-02 6.509455e-02 1.867574e-02 -2.209238e-01
<VARIANCE> 39
 2.375681e+01 2.660238e+01 2.397151e+01 2.792240e+01 2.852429e+01 2.819036e+01 2.930904e+01 2.992599e+01 3.087408e+01 2.311498e+01 2.104447e+01 1.865572e+01 8.338810e+01 1.959475e+00 2.239861e+00 1.818444e+00 2.210142e+00 2.349409e+00 2.393037e+00 2.445177e+00 2.744565e+00 2.624563e+00 2.341104e+00 2.174802e+00 2.012479e+00 2.909552e+00 2.348772e-01 3.824851e-01 3.281979e-01 4.018051e-01 4.471211e-01 5.321646e-01 4.918111e-01 5.089117e-01 4.966596e-01 4.455638e-01 4.369766e-01 3.665885e-01 8.248417e-01
<GCONST> 1.151371e+02
<STATE> 4
<NUMMIXES> 8
<MIXTURE> 1 4.630262e-02
<MEAN> 39
 -7.505638e+00 2.389377e+00 3.525839e-01 -1.021080e+00 3.140650e+00 2.684457e+00 2.001945e+00 2.050602e+00 4.335494e-01 5.817625e-02 6.719178e-01 -1.309799e+00 5.513558e+01 6.810471e-03 1.274113e-01 2.244505e-01 2.826148e-01 3.237281e-01 3.932650e-01 4.501024e-01 4.109297e-01 3.051220e-01 1.529343e-01 4.884008e-02 -3.462439e-02 -3.471010e-01 2.711153e-02 9.400528e-03 -3.398010e-02 -7.625046e-02 -1.258762e-01 -1.712834e-01 -1.939087e-01 -1.697529e-01 -1.395415e-01 -9.779636e-02 -8.544467e-02 -5.499930e-02 3.815303e-02
<VARIANCE> 39
 2.406549e+01 1.065389e+01 1.217220e+01 1.035334e+01 1.023869e+01 1.213117e+01 1.660655e+01 1.613113e+01 1.739964e+01 1.577194e+01 1.392988e+01 1.318237e+01 3.743708e+01 1.908730e-01 2.847932e-01 4.545369e-01 6.899799e-01 8.743935e-01 1.086342e+00 1.230753e+00 1.376382e+00 1.444553e+00 1.408572e+00 1.330437e+00 1.161691e+00 1.205333e-01 2.323883e-02 4.325457e-02 7.130205e-02 1.137044e-01 1.511959e-01 1.908360e-01 2.183465e-01 2.480353e-01 2.615158e-01 2.565370e-01 2.367474e-01 2.153296e-01 8.747139e-03
<GCONST> 7.376096e+01
<MIXTURE> 2 1.481260e-01
<MEAN> 39
 -5.378200e+00 1.066950e+00 -2.470759e+00 -3.558098e+00 1.808211e-01 -5.606543e-01 -1.720256e+00 -1.056892e+00 -2.076100e+00 -1.439505e+00 -5.409922e-01 -2.019153e+00 6.387459e+01 2.760816e-02 9.727662e-02 1.378556e-01 1.813590e-01 1.897758e-01 1.775642e-01 1.721914e-01 1.198761e-01 1.010223e-01 8.345801e-02 7.424124e-02 3.312750e-02 -3.741758e-01 -4.806711e-03 -1.689401e-02 -3.532802e-02 -5.518589e-02 -7.435903e-02 -7.928695e-02 -6.771476e-02 -5.184443e-02 -4.829602e-02 -4.757296e-02 -4.442064e-02 -2.518584e-02 1.339563e-02
<VARIANCE> 39
 1.244988e+01 1.056974e+01 1.013508e+01 1.115825e+01 1.131890e+01 1.185019e+01 1.425293e+01 1.681732e+01 1.802139e+01 1.599460e+01 1.444807e+01 1.302517e+01 5.989372e+01 1.721674e-01 2.736627e-01 4.187966e-01 6.302280e-01 8.201529e-01 9.692478e-01 1.122999e+00 1.218518e+00 1.302685e+00 1.285699e+00 1.242293e+00 1.151810e+00 1.797229e-01 2.491028e-02 4.872210e-02 8.071305e-02 1.212823e-01 1.585899e-01 1.920153e-01 2.268155e-01 2.483960e-01 2.650576e-01 2.597740e-01 2.484544e-01 2.322264e-01 1.338383e-02
<GCONST> 7.396122e+01
<MIXTURE> 3 1.481260e-01
<MEAN> 39
 -5.378208e+00 1.066957e+00 -2.470749e+00 -3.558086e+00 1.808371e-01 -5.606339e-01 -1.720236e+00 -1.056877e+00 -2.076093e+00 -1.439503e+00 -5.409954e-01 -2.019158e+00 6.387457e+01 2.760764e-02 9.727563e-02 1.378543e-01 1.813573e-01 1.897738e-01 1.775614e-01 1.721888e-01 1.198742e-01 1.010199e-01 8.345584e-02 7.423998e-02 3.312667e-02 -3.741750e-01 -4.806544e-03 -1.689418e-02 -3.532869e-02 -5.518693e-02 -7.436071e-02 -7.928897e-02 -6.771670e-02 -5.184592e-02 -4.829655e-02 -4.757276e-02 -4.442003e-02 -2.518507e-02 1.339580e-02
<VARIANCE> 39
 1.244991e+01 1.056974e+01 1.013511e+01 1.115825e+01 1.131891e+01 1.185021e+01 1.425294e+01 1.681737e+01 1.802142e+01 1.599461e+01 1.444808e+01 1.302518e+01 5.989373e+01 1.721677e-01 2.736636e-01 4.187974e-01 6.302271e-01 8.201536e-01 9.692472e-01 1.122998e+00 1.218516e+00 1.302684e+00 1.285700e+00 1.242292e+00 1.151809e+00 1.797232e-01 2.491033e-02 4.872223e-02 8.071309e-02 1.212822e-01 1.585899e-01 1.920155e-01 2.268159e-01 2.483964e-01 2.650582e-01 2.597743e-01 2.484544e-01 2.322266e-01 1.338383e-02
<GCONST> 7.396124e+01
<MIXTURE> 4 1.605764e-01
<MEAN> 39
 -5.149631e+00 -9.800477e-01 -5.065267e+00 -6.690338e+00 -3.192521e+00 -3.681486e+00 -4.193914e+00 -2.623213e+00 -3.303213e+00 -2.658672e+00 -1.948096e+00 -2.709709e+00 7.146135e+01 4.766180e-02 -1.762562e-03 -6.064698e-03 -5.224083e-03 -3.950357e-02 -7.195671e-02 -7.696592e-02 -1.022974e-01 -7.330427e-02 -6.258693e-02 -3.236232e-02 -3.691871e-03 -1.189665e-01 -8.781279e-03 1.290164e-02 3.496129e-02 5.743902e-02 8.245958e-02 9.327751e-02 8.847172e-02 7.247575e-02 6.305956e-02 6.123560e-02 5.372048e-02 2.832288e-02 -2.787248e-02
<VARIANCE> 39
 5.808989e+00 8.562342e+00 8.848020e+00 1.158368e+01 1.130973e+01 1.077788e+01 1.335694e+01 1.540916e+01 1.638457e+01 1.447673e+01 1.392265e+01 1.224799e+01 3.954333e+01 1.714497e-01 2.774868e-01 4.443600e-01 6.497902e-01 8.130141e-01 9.450944e-01 1.098788e+00 1.194171e+00 1.246238e+00 1.233492e+00 1.207137e+00 1.117547e+00 2.936736e-01 2.901515e-02 5.212552e-02 8.710478e-02 1.307720e-01 1.638065e-01 1.907646e-01 2.233340e-01 2.419071e-01 2.524986e-01 2.510355e-01 2.448386e-01 2.271562e-01 2.515069e-02
<GCONST> 7.316996e+01
<MIXTURE> 5 1.481283e-01
<MEAN> 39
 -5.378180e+00 1.066950e+00 -2.470766e+00 -3.558105e+00 1.808191e-01 -5.606533e-01 -1.720244e+00 -1.056878e+00 -2.076085e+00 -1.439494e+00 -5.409860e-01 -2.019150e+00 6.387461e+01 2.760873e-02 9.727714e-02 1.378556e-01 1.813595e-01 1.897761e-01 1.775642e-01 1.721902e-01 1.198754e-01 1.010205e-01 8.345726e-02 7.424095e-02 3.312705e-02 -3.741770e-01 -4.807256e-03 -1.689405e-02 -3.532778e-02 -5.518565e-02 -7.435916e-02 -7.928766e-02 -6.771615e-02 -5.184602e-02 -4.829773e-02 -4.757420e-02 -4.442107e-02 -2.518579e-02 1.339552e-02
<VARIANCE> 39
 1.244981e+01 1.056969e+01 1.013500e+01 1.115818e+01 1.131883e+01 1.185015e+01 1.425287e+01 1.681726e+01 1.802128e+01 1.599449e+01 1.444795e+01 1.302507e+01 5.989363e+01 1.721664e-01 2.736629e-01 4.187945e-01 6.302248e-01 8.201491e-01 9.692443e-01 1.122996e+00 1.218516e+00 1.302680e+00 1.285697e+00 1.242288e+00 1.151810e+00 1.797221e-01 2.491009e-02 4.872185e-02 8.071253e-02 1.212814e-01 1.585890e-01 1.920144e-01 2.268146e-01 2.483947e-01 2.650565e-01 2.597720e-01 2.484524e-01 2.322250e-01 1.338370e-02
<GCONST> 7.396100e+01
<MIXTURE> 6 1.605773e-01
<MEAN> 39
 -5.149629e+00 -9.800490e-01 -5.065266e+00 -6.690340e+00 -3.192519e+00 -3.681483e+00 -4.193907e+00 -2.623204e+00 -3.303203e+00 -2.658666e+00 -1.948093e+00 -2.709706e+00 7.146136e+01 4.766200e-02 -1.762565e-03 -6.064724e-03 -5.223986e-03 -3.950366e-02 -7.195701e-02 -7.696695e-02 -1.022981e-01 -7.330488e-02 -6.258738e-02 -3.236254e-02 -3.691867e-03 -1.189668e-01 -8.781300e-03 1.290157e-02 3.496118e-02 5.743905e-02 8.245926e-02 9.327678e-02 8.847090e-02 7.247469e-02 6.305851e-02 6.123504e-02 5.372018e-02 2.832271e-02 -2.787255e-02
<VARIANCE> 39
 5.808979e+00 8.562348e+00 8.848001e+00 1.158367e+01 1.130972e+01 1.077785e+01 1.335694e+01 1.540915e+01 1.638458e+01 1.447675e+01 1.392264e+01 1.224796e+01 3.954331e+01 1.714493e-01 2.774867e-01 4.443608e-01 6.497906e-01 8.130133e-01 9.450929e-01 1.098786e+00 1.194172e+00 1.246240e+00 1.233493e+00 1.207138e+00 1.117547e+00 2.936734e-01 2.901515e-02 5.212543e-02 8.710472e-02 1.307721e-01 1.638063e-01 1.907641e-01 2.233340e-01 2.419069e-01 2.524989e-01 2.510356e-01 2.448385e-01 2.271558e-01 2.515072e-02
<GCONST> 7.316996e+01
<MIXTURE> 7 1.605773e-01
<MEAN> 39
 -5.149629e+00 -9.800490e-01 -5.065266e+00 -6.690340e+00 -3.192519e+00 -3.681483e+00 -4.193907e+00 -2.623204e+00 -3.303203e+00 -2.658666e+00 -1.948093e+00 -2.709706e+00 7.146136e+01 4.766200e-02 -1.762565e-03 -6.064724e-03 -5.223986e-03 -3.950366e-02 -7.195701e-02 -7.696695e-02 -1.022981e-01 -7.330488e-02 -6.258738e-02 -3.236254e-02 -3.691867e-03 -1.189668e-01 -8.781300e-03 1.290157e-02 3.496118e-02 5.743905e-02 8.245926e-02 9.327678e-02 8.847090e-02 7.247469e-02 6.305851e-02 6.123504e-02 5.372018e-02 2.832271e-02 -2.787255e-02
<VARIANCE> 39
 5.808979e+00 8.562348e+00 8.848001e+00 1.158367e+01 1.130972e+01 1.077785e+01 1.335694e+01 1.540915e+01 1.638458e+01 1.447675e+01 1.392264e+01 1.224796e+01 3.954331e+01 1.714493e-01 2.774867e-01 4.443608e-01 6.497906e-01 8.130133e-01 9.450929e-01 1.098786e+00 1.194172e+00 1.246240e+00 1.233493e+00 1.207138e+00 1.117547e+00 2.936734e-01 2.901515e-02 5.212543e-02 8.710472e-02 1.307721e-01 1.638063e-01 1.907641e-01 2.233340e-01 2.419069e-01 2.524989e-01 2.510356e-01 2.448385e-01 2.271558e-01 2.515072e-02
<GCONST> 7.316996e+01
<MIXTURE> 8 2.736651e-02
<MEAN> 39
 -6.072712e+00 -6.421381e-01 -4.420427e+00 -5.558140e+00 -1.637025e+00 -1.926626e+00 -2.274578e+00 -7.952818e-01 -1.817292e+00 -1.186964e+00 -9.456421e-01 -2.401505e+00 6.960998e+01 -7.405590e-03 -3.075556e-01 -4.697138e-01 -7.916749e-01 -9.841952e-01 -1.073058e+00 -1.003394e+00 -9.240115e-01 -8.175837e-01 -6.804819e-01 -5.174239e-01 -2.231742e-01 3.087746e-01 2.219609e-02 -5.574428e-03 9.720119e-03 -4.227141e-02 -5.783139e-02 -5.762801e-02 -9.726731e-02 -9.058307e-02 -5.852694e-02 -5.580045e-02 -1.421661e-02 2.295788e-02 1.553883e-03
<VARIANCE> 39
 9.161520e+00 8.781078e+00 1.018102e+01 1.420854e+01 1.301769e+01 1.294538e+01 1.480851e+01 1.652658e+01 1.747447e+01 1.612929e+01 1.534215e+01 1.295542e+01 5.606357e+01 4.021575e-01 4.176712e-01 6.572710e-01 8.886611e-01 9.775683e-01 1.014368e+00 1.190879e+00 1.333753e+00 1.396023e+00 1.395812e+00 1.294913e+00 1.260206e+00 6.375324e-01 4.827389e-02 7.463566e-02 1.175044e-01 1.787388e-01 2.111592e-01 2.291563e-01 2.563470e-01 2.709705e-01 2.877471e-01 2.864605e-01 2.768045e-01 2.415985e-01 8.612879e-02
<GCONST> 8.262842e+01
<TRANSP> 5
 0.000000e+00 1.000000e+00 0.000000e+00 0.000000e+00 0.000000e+00
 0.000000e+00 9.682046e-01 3.179536e-02 0.000000e+00 0.000000e+00
 0.000000e+00 0.000000e+00 9.614752e-01 3.852480e-02 0.000000e+00
 0.000000e+00 0.000000e+00 0.000000e+00 9.839214e-01 1.607862e-02
 0.000000e+00 0.000000e+00 0.000000e+00 0.000000e+00 0.000000e+00
<ENDHMM>
~h "co"
<BEGINHMM>
<NUMSTATES> 5
<STATE> 2
<NUMMIXES> 8
<MIXTURE> 1 8.400224e-02
<MEAN> 39
 -9.397653e+00 -2.154257e+00 2.476445e+00 -4.147679e+00 -8.883431e+00 -7.665385e+00 -3.502199e+00 -6.253869e+00 -2.329350e+00 -5.104060e+00 -2.326641e+00 -6.717010e+00 6.821450e+01 -6.581006e-01 -2.442880e-01 3.779848e-01 1.399370e-01 1.347420e+00 9.335418e-02 1.285156e+00 4.756602e-01 -6.056930e-02 8.757530e-01 6.810381e-01 8.340292e-01 8.117757e-01 2.306471e-01 -2.915353e-01 -4.704152e-01 1.785092e-01 -1.184666e-01 2.991379e-01 -3.361316e-01 1.704023e-01 3.106669e-02 2.842168e-01 9.755179e-02 -1.211308e-01 -5.366310e-01
<VARIANCE> 39
 1.109647e+01 1.232080e+01 1.623259e+01 1.311700e+01 4.741734e+01 5.364071e+01 3.363821e+01 7.618389e+01 3.481633e+01 2.536632e+01 2.514993e+01 2.408889e+01 1.605085e+02 4.357542e-01 4.224663e-01 1.259021e+00 9.875879e-01 2.352902e+00 1.873043e+00 2.243111e+00 1.581099e+00 2.461290e+00 2.081143e+00 1.463894e+00 1.597114e+00 6.538626e-01 6.180451e-02 8.040614e-02 1.857928e-01 2.472542e-01 3.173104e-01 3.908292e-01 4.466271e-01 4.321112e-01 4.405349e-01 4.399170e-01 3.541039e-01 2.708937e-01 2.402195e-01
<GCONST> 1.017187e+02
<MIXTURE> 2 1.741538e-01
<MEAN> 39
 -1.003507e+01 -6.740838e+00 1.819769e-01 -5.126987e+00 -1.104198e+01 -6.729645e+00 -3.388273e+00 -8.582965e-01 -4.352149e+00 -6.087163e+00 -4.582185e+00 -6.574866e+00 7.087893e+01 -8.504457e-01 4.684355e-01 2.965195e-01 -1.016597e-01 5.545644e-01 -7.737932e-02 4.269511e-01 -5.770922e-01 -6.580252e-01 -4.149933e-01 3.093147e-01 1.451347e-01 1.669719e+00 1.544621e-01 -1.832464e-01 -2.060153e-01 2.092063e-01 1.859229e-01 1.294672e-01 6.834807e-02 1.199142e-01 3.188790e-01 3.045083e-01 1.877026e-01 1.043961e-01 -5.692697e-01
<VARIANCE> 39
 1.783936e+01 1.911737e+01 2.749864e+01 3.098965e+01 4.490970e+01 4.483902e+01 6.168422e+01 6.513677e+01 4.231841e+01 3.431244e+01 3.376962e+01 2.972180e+01 6.548581e+01 6.991948e-01 1.532153e+00 1.530999e+00 1.818416e+00 1.875162e+00 2.241770e+00 2.770562e+00 2.321042e+00 2.505647e+00 2.508821e+00 1.974899e+00 1.936175e+00 1.438546e+00 1.400316e-01 2.132128e-01 2.586291e-01 2.930712e-01 3.389096e-01 4.216530e-01 4.286801e-01 4.010516e-01 4.084288e-01 3.781941e-01 3.759383e-01 3.309949e-01 2.317853e-01
<GCONST> 1.112592e+02
<MIXTURE> 3 1.741571e-01
<MEAN> 39
 -1.003507e+01 -6.740846e+00 1.819541e-01 -5.127008e+00 -1.104206e+01 -6.729700e+00 -3.388334e+00 -8.583716e-01 -4.352170e+00 -6.087195e+00 -4.582191e+00 -6.574905e+00 7.087901e+01 -8.504542e-01 4.684452e-01 2.965281e-01 -1.016706e-01 5.545719e-01 -7.738841e-02 4.269606e-01 -5.770960e-01 -6.580328e-01 -4.150002e-01 3.093108e-01 1.451373e-01 1.669734e+00 1.544612e-01 -1.832459e-01 -2.060154e-01 2.092104e-01 1.859278e-01 1.294734e-01 6.835204e-02 1.199191e-01 3.188816e-01 3.045121e-01 1.877063e-01 1.043988e-01 -5.692756e-01
<VARIANCE> 39
 1.783928e+01 1.911729e+01 2.749876e+01 3.098974e+01 4.490961e+01 4.483896e+01 6.168475e+01 6.513756e+01 4.231848e+01 3.431250e+01 3.376959e+01 2.972209e+01 6.548413e+01 6.991982e-01 1.532172e+00 1.531015e+00 1.818438e+00 1.875180e+00 2.241786e+00 2.770595e+00 2.321058e+00 2.505671e+00 2.508837e+00 1.974906e+00 1.936186e+00 1.438553e+00 1.400324e-01 2.132141e-01 2.586321e-01 2.930736e-01 3.389119e-01 4.216552e-01 4.286834e-01 4.010570e-01 4.084316e-01 3.781970e-01 3.759413e-01 3.309971e-01 2.317858e-01
<GCONST> 1.112594e+02
<MIXTURE> 4 1.085460e-01
<MEAN> 39
 -6.386300e+00 -6.510582e+00 -2.369264e+00 -2.868404e+00 -8.571300e+00 -2.725739e+00 -3.496589e+00 1.252560e+00 1.974896e+00 -7.677515e-01 -9.490718e-01 -5.412542e+00 5.756757e+01 -3.571433e-01 -5.425931e-01 4.285346e-01 -7.484100e-01 -1.497652e+00 -1.656630e+00 -9.371933e-01 -8.397712e-01 -9.193745e-01 -1.118193e+00 -8.692859e-01 -5.757989e-01 3.281640e+00 -1.876324e-01 2.001731e-01 1.434060e-01 -2.547834e-02 2.104390e-01 5.785204e-02 2.262887e-01 -1.737136e-02 -2.781016e-01 -1.346008e-01 -9.670816e-04 8.293063e-02 2.558729e-01
<VARIANCE> 39
 2.004887e+01 3.825319e+01 2.459819e+01 3.197009e+01 1.027818e+02 5.819145e+01 1.027900e+02 6.438419e+01 4.570468e+01 4.078474e+01 3.278357e+01 3.895520e+01 1.050392e+02 1.821775e+00 3.467970e+00 2.744370e+00 3.250360e+00 4.764256e+00 3.845678e+00 4.395385e+00 4.259612e+00 4.466092e+00 3.169352e+00 2.490666e+00 2.197312e+00 3.076611e+00 1.591457e-01 3.631662e-01 2.391424e-01 3.359876e-01 8.375391e-01 6.769611e-01 8.757939e-01 5.227872e-01 4.589359e-01 4.355729e-01 4.378347e-01 4.711585e-01 6.731579e-01
<GCONST> 1.268563e+02
<MIXTURE> 5 1.741522e-01
<MEAN> 39
 -1.003502e+01 -6.740812e+00 1.819457e-01 -5.126988e+00 -1.104206e+01 -6.729696e+00 -3.388349e+00 -8.583374e-01 -4.352155e+00 -6.087200e+00 -4.582207e+00 -6.574905e+00 7.087897e+01 -8.504491e-01 4.684458e-01 2.965263e-01 -1.016675e-01 5.545738e-01 -7.738683e-02 4.269600e-01 -5.770916e-01 -6.580290e-01 -4.149981e-01 3.093098e-01 1.451349e-01 1.669726e+00 1.544568e-01 -1.832491e-01 -2.060124e-01 2.092092e-01 1.859267e-01 1.294724e-01 6.835139e-02 1.199152e-01 3.188784e-01 3.045105e-01 1.877055e-01 1.043984e-01 -5.692696e-01
<VARIANCE> 39
 1.783899e+01 1.911733e+01 2.749867e+01 3.098971e+01 4.490942e+01 4.483900e+01 6.168454e+01 6.513730e+01 4.231858e+01 3.431236e+01 3.376957e+01 2.972192e+01 6.548549e+01 6.991857e-01 1.532158e+00 1.531006e+00 1.818430e+00 1.875173e+00 2.241782e+00 2.770585e+00 2.321046e+00 2.505658e+00 2.508822e+00 1.974898e+00 1.936185e+00 1.438538e+00 1.400259e-01 2.132124e-01 2.586297e-01 2.930714e-01 3.389074e-01 4.216492e-01 4.286815e-01 4.010519e-01 4.084291e-01 3.781940e-01 3.759374e-01 3.309956e-01 2.317838e-01
<GCONST> 1.112591e+02
<MIXTURE> 6 1.085460e-01
<MEAN> 39
 -6.386328e+00 -6.510529e+00 -2.369220e+00 -2.868415e+00 -8.571097e+00 -2.725665e+00 -3.496410e+00 1.252682e+00 1.974925e+00 -7.676717e-01 -9.490383e-01 -5.412435e+00 5.756738e+01 -3.571339e-01 -5.426177e-01 4.285211e-01 -7.483934e-01 -1.497681e+00 -1.656626e+00 -9.371992e-01 -8.397522e-01 -9.193628e-01 -1.118173e+00 -8.692812e-01 -5.757949e-01 3.281620e+00 -1.876279e-01 2.001650e-01 1.434026e-01 -2.548105e-02 2.104210e-01 5.784380e-02 2.262711e-01 -1.738107e-02 -2.781052e-01 -1.346069e-01 -9.745322e-04 8.291946e-02 2.558904e-01
<VARIANCE> 39
 2.004919e+01 3.825327e+01 2.459792e+01 3.196989e+01 1.027813e+02 5.819121e+01 1.027883e+02 6.438297e+01 4.570431e+01 4.078402e+01 3.278323e+01 3.895455e+01 1.050392e+02 1.821810e+00 3.467948e+00 2.744347e+00 3.250356e+00 4.764256e+00 3.845694e+00 4.395381e+00 4.259624e+00 4.466091e+00 3.169354e+00 2.490665e+00 2.197322e+00 3.076631e+00 1.591469e-01 3.631653e-01 2.391405e-01 3.359866e-01 8.375388e-01 6.769636e-01 8.757834e-01 5.227839e-01 4.589359e-01 4.355677e-01 4.378329e-01 4.711531e-01 6.731555e-01
<GCONST> 1.268563e+02
<MIXTURE> 7 1.085499e-01
<MEAN> 39
 -6.386120e+00 -6.509743e+00 -2.368902e+00 -2.868374e+00 -8.569224e+00 -2.724616e+00 -3.494913e+00 1.253615e+00 1.975067e+00 -7.670010e-01 -9.487512e-01 -5.411724e+00 5.756504e+01 -3.570799e-01 -5.428922e-01 4.284635e-01 -7.481878e-01 -1.497904e+00 -1.656621e+00 -9.372761e-01 -8.396455e-01 -9.192577e-01 -1.118015e+00 -8.692576e-01 -5.757863e-01 3.281469e+00 -1.876080e-01 2.000746e-01 1.433844e-01 -2.551210e-02 2.102528e-01 5.774840e-02 2.261230e-01 -1.747083e-02 -2.781317e-01 -1.346621e-01 -1.043785e-03 8.283574e-02 2.560697e-01
<VARIANCE> 39
 2.004796e+01 3.825342e+01 2.459663e+01 3.196681e+01 1.027776e+02 5.818737e+01 1.027773e+02 6.437455e+01 4.569920e+01 4.077900e+01 3.278062e+01 3.894995e+01 1.050382e+02 1.821744e+00 3.467748e+00 2.744220e+00 3.250360e+00 4.764236e+00 3.845837e+00 4.395526e+00 4.259674e+00 4.465972e+00 3.169464e+00 2.490735e+00 2.197392e+00 3.076775e+00 1.591304e-01 3.631622e-01 2.391257e-01 3.359599e-01 8.375295e-01 6.769654e-01 8.757390e-01 5.227619e-01 4.589100e-01 4.355339e-01 4.378216e-01 4.711234e-01 6.731362e-01
<GCONST> 1.268547e+02
<MIXTURE> 8 6.788439e-02
<MEAN> 39
 -5.608128e+00 -1.309485e+01 -3.864962e+00 -3.402101e-01 -1.432931e+01 -4.369765e+00 -2.178885e+00 3.487206e+00 2.762425e-02 2.144098e-02 -2.777894e+00 -6.133296e+00 6.067954e+01 -5.551114e-01 -1.778020e+00 -2.276242e-01 -1.146950e+00 -3.852504e+00 -2.112826e+00 -2.224199e+00 -1.798405e+00 -1.584794e+00 -1.432531e+00 -1.268037e+00 -1.880329e+00 6.137765e+00 -2.272678e-01 1.268322e+00 3.378820e-01 -5.105506e-01 1.016671e+00 1.812651e-01 3.225984e-01 -2.409423e-01 -3.220626e-01 -3.523941e-01 1.189192e-01 5.397241e-02 -1.482721e-02
<VARIANCE> 39
 1.348897e+01 6.342518e+01 3.235098e+01 4.322449e+01 4.439736e+01 6.280319e+01 1.030673e+02 6.309024e+01 6.051971e+01 5.328926e+01 4.058623e+01 2.995687e+01 4.099990e+01 9.335775e-01 4.268992e+00 1.765309e+00 4.287731e+00 3.786041e+00 3.622100e+00 5.624912e+00 4.833032e+00 3.953214e+00 3.340919e+00 3.175725e+00 2.690667e+00 9.570952e-01 2.187340e-01 7.747455e-01 6.210490e-01 6.754111e-01 6.970088e-01 8.729022e-01 1.366428e+00 8.268364e-01 1.163711e+00 8.923929e-01 6.429914e-01 5.577063e-01 4.826800e-01
<GCONST> 1.305557e+02
<STATE> 3
<NUMMIXES> 8
<MIXTURE> 1 2.937591e-02
<MEAN> 39
 -2.948667e+00 -3.514231e+00 2.180179e-01 -1.792563e+00 -3.047720e+00 -7.917175e+00 -6.563118e+00 -7.651589e+00 -7.512382e+00 -3.909662e+00 -2.176368e+00 -4.993666e+00 5.807375e+01 8.962925e-02 2.874963e-01 3.450303e-01 4.884919e-01 8.381273e-01 1.046271e+00 1.037748e+00 7.788948e-01 5.746462e-01 4.098777e-01 1.391695e-01 7.251030e-02 -6.756666e-01 -7.377956e-02 -1.266004e-01 -9.368421e-02 -5.722104e-02 -1.539892e-01 -1.481709e-02 1.146822e-01 2.155759e-01 2.566063e-01 1.372325e-01 1.956647e-02 -5.688233e-02 6.541514e-02
<VARIANCE> 39
 1.407094e+01 9.690905e+00 1.441548e+01 1.116184e+01 1.461505e+01 2.288825e+01 2.702243e+01 4.673040e+01 2.669325e+01 2.771402e+01 1.924341e+01 2.824489e+01 4.501150e+01 1.499279e-01 2.539217e-01 4.342879e-01 6.318067e-01 9.085138e-01 9.563224e-01 1.187788e+00 1.328333e+00 1.385691e+00 1.371396e+00 1.282272e+00 1.242396e+00 7.390172e-02 3.265988e-02 7.823888e-02 8.462156e-02 1.391464e-01 2.290534e-01 2.530754e-01 3.067971e-01 3.114501e-01 3.280589e-01 2.869108e-01 2.595911e-01 2.531348e-01 3.458275e-02
<GCONST> 8.153756e+01
<MIXTURE> 2 1.891041e-01
<MEAN> 39
 -7.222872e+00 -7.549262e+00 -1.989707e+00 -3.867666e+00 -6.513041e+00 -8.804012e+00 -6.307403e+00 -7.196920e+00 -4.109918e+00 -2.768461e+00 -2.678544e+00 -7.604010e+00 6.786065e+01 1.729539e-01 3.936807e-02 4.097213e-02 1.983506e-01 4.194901e-01 1.570783e-01 1.731339e-01 -5.598277e-03 1.202020e-01 2.303779e-01 1.663138e-01 1.255030e-01 -6.460127e-01 2.252200e-02 1.764977e-02 1.038261e-02 8.729220e-03 -3.285592e-02 2.647709e-03 -2.539863e-02 -1.023078e-02 -5.460915e-02 -8.343038e-02 -5.853347e-02 -1.361828e-02 -1.753366e-02
<VARIANCE> 39
 2.295199e+01 1.230313e+01 2.175048e+01 2.218176e+01 2.155935e+01 2.686474e+01 5.180869e+01 5.425357e+01 3.562838e+01 3.523184e+01 3.457322e+01 3.469836e+01 3.939368e+01 1.684178e-01 3.133334e-01 5.531303e-01 6.992145e-01 9.905375e-01 1.069735e+00 1.284820e+00 1.506980e+00 1.638044e+00 1.591757e+00 1.411595e+00 1.318174e+00 1.209716e-01 3.880277e-02 6.922422e-02 1.094032e-01 1.542041e-01 2.146886e-01 2.386434e-01 2.931724e-01 3.208816e-01 3.463118e-01 3.347757e-01 3.037304e-01 2.830328e-01 2.842911e-02
<GCONST> 8.848896e+01
<MIXTURE> 3 1.891041e-01
<MEAN> 39
 -7.222872e+00 -7.549262e+00 -1.989707e+00 -3.867666e+00 -6.513041e+00 -8.804012e+00 -6.307403e+00 -7.196920e+00 -4.109918e+00 -2.768461e+00 -2.678544e+00 -7.604010e+00 6.786065e+01 1.729539e-01 3.936807e-02 4.097213e-02 1.983506e-01 4.194901e-01 1.570783e-01 1.731339e-01 -5.598277e-03 1.202020e-01 2.303779e-01 1.663138e-01 1.255030e-01 -6.460127e-01 2.252200e-02 1.764977e-02 1.038261e-02 8.729220e-03 -3.285592e-02 2.647709e-03 -2.539863e-02 -1.023078e-02 -5.460915e-02 -8.343038e-02 -5.853347e-02 -1.361828e-02 -1.753366e-02
<VARIANCE> 39
 2.295199e+01 1.230313e+01 2.175048e+01 2.218176e+01 2.155935e+01 2.686474e+01 5.180869e+01 5.425357e+01 3.562838e+01 3.523184e+01 3.457322e+01 3.469836e+01 3.939368e+01 1.684178e-01 3.133334e-01 5.531303e-01 6.992145e-01 9.905375e-01 1.069735e+00 1.284820e+00 1.506980e+00 1.638044e+00 1.591757e+00 1.411595e+00 1.318174e+00 1.209716e-01 3.880277e-02 6.922422e-02 1.094032e-01 1.542041e-01 2.146886e-01 2.386434e-01 2.931724e-01 3.208816e-01 3.463118e-01 3.347757e-01 3.037304e-01 2.830328e-01 2.842911e-02
<GCONST> 8.848896e+01
<MIXTURE> 4 1.029070e-01
<MEAN> 39
 -7.749005e+00 -8.378078e+00 -3.634619e+00 -4.326529e+00 -8.566233e+00 -8.940600e+00 -7.587959e+00 -7.008810e+00 -4.297051e+00 -4.705101e+00 -4.103065e+00 -9.035040e+00 7.107366e+01 3.329440e-01 -1.012063e-02 -1.233382e-01 -1.369055e-01 -1.942920e-01 -3.418372e-01 -7.278790e-01 -5.133456e-01 -9.202293e-02 -5.151532e-02 -1.477536e-01 -3.532908e-01 -6.479765e-02 2.707968e-02 -2.295786e-02 2.652647e-02 3.590160e-02 1.353882e-02 1.436920e-02 4.950287e-03 3.572179e-02 7.888436e-02 8.845164e-02 2.617409e-02 1.345843e-02 -6.721887e-02
<VARIANCE> 39
 1.342419e+01 1.364307e+01 3.091449e+01 2.265794e+01 2.501766e+01 2.777048e+01 4.754936e+01 7.240067e+01 4.989051e+01 4.102122e+01 3.954361e+01 3.880162e+01 2.225350e+01 4.934041e-01 7.923208e-01 1.085478e+00 1.144063e+00 1.561151e+00 1.689301e+00 2.517705e+00 2.779195e+00 3.206372e+00 2.778035e+00 2.187030e+00 2.007265e+00 3.726549e-01 7.829334e-02 1.414683e-01 1.815101e-01 2.166360e-01 3.054842e-01 3.197629e-01 4.647536e-01 5.255395e-01 6.456541e-01 5.456890e-01 4.143573e-01 3.648758e-01 9.824494e-02
<GCONST> 1.043335e+02
<MIXTURE> 5 1.891029e-01
<MEAN> 39
 -7.222874e+00 -7.549265e+00 -1.989703e+00 -3.867663e+00 -6.513040e+00 -8.804008e+00 -6.307400e+00 -7.196921e+00 -4.109911e+00 -2.768455e+00 -2.678539e+00 -7.604008e+00 6.786065e+01 1.729536e-01 3.936789e-02 4.097206e-02 1.983507e-01 4.194902e-01 1.570784e-01 1.731346e-01 -5.598493e-03 1.202019e-01 2.303781e-01 1.663139e-01 1.255031e-01 -6.460122e-01 2.252208e-02 1.764971e-02 1.038245e-02 8.729230e-03 -3.285606e-02 2.647625e-03 -2.539874e-02 -1.023109e-02 -5.460939e-02 -8.343072e-02 -5.853397e-02 -1.361852e-02 -1.753360e-02
<VARIANCE> 39
 2.295204e+01 1.230318e+01 2.175050e+01 2.218187e+01 2.155944e+01 2.686477e+01 5.180885e+01 5.425364e+01 3.562846e+01 3.523188e+01 3.457330e+01 3.469840e+01 3.939378e+01 1.684182e-01 3.133339e-01 5.531306e-01 6.992152e-01 9.905384e-01 1.069736e+00 1.284821e+00 1.506983e+00 1.638046e+00 1.591758e+00 1.411599e+00 1.318177e+00 1.209721e-01 3.880287e-02 6.922444e-02 1.094035e-01 1.542044e-01 2.146892e-01 2.386439e-01 2.931730e-01 3.208823e-01 3.463130e-01 3.347763e-01 3.037305e-01 2.830327e-01 2.842932e-02
<GCONST> 8.848902e+01
<MIXTURE> 6 1.029040e-01
<MEAN> 39
 -7.748997e+00 -8.378091e+00 -3.634652e+00 -4.326535e+00 -8.566229e+00 -8.940601e+00 -7.587963e+00 -7.008775e+00 -4.297033e+00 -4.705100e+00 -4.103065e+00 -9.035043e+00 7.107367e+01 3.329457e-01 -1.012179e-02 -1.233383e-01 -1.369024e-01 -1.942898e-01 -3.418385e-01 -7.278816e-01 -5.133488e-01 -9.202379e-02 -5.151734e-02 -1.477573e-01 -3.532932e-01 -6.480516e-02 2.707953e-02 -2.295578e-02 2.652801e-02 3.590134e-02 1.353839e-02 1.436835e-02 4.949246e-03 3.571964e-02 7.888011e-02 8.844888e-02 2.617305e-02 1.345840e-02 -6.721752e-02
<VARIANCE> 39
 1.342415e+01 1.364308e+01 3.091452e+01 2.265793e+01 2.501760e+01 2.777044e+01 4.754933e+01 7.240070e+01 4.989048e+01 4.102130e+01 3.954363e+01 3.880156e+01 2.225340e+01 4.933950e-01 7.923170e-01 1.085471e+00 1.144058e+00 1.561144e+00 1.689290e+00 2.517672e+00 2.779179e+00 3.206352e+00 2.778021e+00 2.187009e+00 2.007251e+00 3.726518e-01 7.829237e-02 1.414673e-01 1.815092e-01 2.166341e-01 3.054824e-01 3.197618e-01 4.647523e-01 5.255382e-01 6.456515e-01 5.456893e-01 4.143560e-01 3.648756e-01 9.824308e-02
<GCONST> 1.043333e+02
<MIXTURE> 7 1.029092e-01
<MEAN> 39
 -7.749003e+00 -8.378087e+00 -3.634642e+00 -4.326531e+00 -8.566224e+00 -8.940595e+00 -7.587949e+00 -7.008789e+00 -4.297040e+00 -4.705098e+00 -4.103062e+00 -9.035033e+00 7.107367e+01 3.329471e-01 -1.012109e-02 -1.233390e-01 -1.369032e-01 -1.942911e-01 -3.418391e-01 -7.278835e-01 -5.133500e-01 -9.202493e-02 -5.151770e-02 -1.477572e-01 -3.532933e-01 -6.480392e-02 2.707988e-02 -2.295607e-02 2.652744e-02 3.590094e-02 1.353785e-02 1.436790e-02 4.948510e-03 3.571988e-02 7.888097e-02 8.844946e-02 2.617295e-02 1.345788e-02 -6.721744e-02
<VARIANCE> 39
 1.342419e+01 1.364309e+01 3.091450e+01 2.265791e+01 2.501765e+01 2.777045e+01 4.754937e+01 7.240068e+01 4.989057e+01 4.102128e+01 3.954366e+01 3.880163e+01 2.225343e+01 4.933976e-01 7.923171e-01 1.085472e+00 1.144060e+00 1.561148e+00 1.689299e+00 2.517683e+00 2.779185e+00 3.206360e+00 2.778027e+00 2.187020e+00 2.007258e+00 3.726524e-01 7.829261e-02 1.414675e-01 1.815095e-01 2.166352e-01 3.054838e-01 3.197617e-01 4.647521e-01 5.255383e-01 6.456535e-01 5.456881e-01 4.143567e-01 3.648754e-01 9.824337e-02
<GCONST> 1.043334e+02
<MIXTURE> 8 9.453430e-02
<MEAN> 39
 -5.859556e+00 -8.555140e+00 -1.325346e+00 -2.601610e+00 -9.576254e+00 -8.373305e+00 -6.571184e+00 -5.284966e+00 -2.695951e+00 -3.819163e+00 -5.597362e+00 -7.149331e+00 6.486747e+01 -9.330099e-01 -3.345942e-01 1.236205e-01 -3.636278e-01 -1.173929e+00 3.740880e-02 2.298379e-01 7.937696e-01 -3.236071e-01 -8.640910e-01 -5.823878e-01 1.448287e-02 2.381715e+00 -1.170709e-01 7.665421e-02 8.995921e-03 -1.092664e-01 1.820922e-01 2.736204e-02 9.770928e-02 -2.250812e-02 4.294068e-04 1.100503e-01 1.576123e-01 2.048590e-02 1.300283e-01
<VARIANCE> 39
 1.397863e+01 3.192005e+01 2.667062e+01 2.695900e+01 4.516339e+01 3.486147e+01 6.072533e+01 6.491166e+01 6.579060e+01 3.826088e+01 4.644251e+01 3.588659e+01 7.106051e+01 1.043710e+00 3.881720e+00 2.500917e+00 3.443786e+00 4.640595e+00 3.462631e+00 4.975479e+00 4.541656e+00 7.604382e+00 3.589022e+00 4.186941e+00 2.882539e+00 2.902993e+00 1.651956e-01 7.744462e-01 3.869762e-01 5.689003e-01 1.005926e+00 5.835931e-01 7.855136e-01 8.460190e-01 1.471869e+00 7.479444e-01 7.881893e-01 4.755997e-01 9.257384e-01
<GCONST> 1.303467e+02
<STATE> 4
<NUMMIXES> 8
<MIXTURE> 1 3.154660e-02
<MEAN> 39
 -3.574730e+00 -5.026120e-01 2.932977e+00 1.266494e+00 1.478547e+00 -1.553175e+00 -2.042934e+00 -1.181248e+00 -2.846479e+00 -3.818735e+00 -4.244270e+00 -6.132442e+00 4.964777e+01 1.372190e-01 5.411761e-01 3.684486e-01 5.070592e-01 8.045904e-01 1.015761e+00 1.029708e+00 1.004943e+00 5.122529e-01 2.432325e-01 6.199166e-03 -1.173183e-01 -3.103373e-01 4.931034e-02 7.844587e-02 1.235841e-01 1.583384e-01 1.659422e-01 1.790261e-01 1.558335e-01 1.174313e-01 1.310643e-01 1.168199e-01 6.972240e-02 -2.377324e-02 5.416177e-02
<VARIANCE> 39
