~o
<STREAMINFO> 1 39
<VECSIZE> 39<NULLD><MFCC_D_A_0><DIAGC>
~h "ap"
<BEGINHMM>
<NUMSTATES> 5
<STATE> 2
<NUMMIXES> 2
<MIXTURE> 1 7.951112e-01
<MEAN> 39
 -1.338734e+01 -9.655375e+00 -5.783074e+00 -1.745342e+00 1.529000e+00 -4.430650e+00 1.776188e+00 -1.767163e+00 -1.190864e+00 -8.437987e-01 5.641899e-01 -4.390903e-01 6.188008e+01 3.347570e-01 2.190351e-01 2.286459e-01 1.311704e-01 2.272846e-01 2.009241e-01 1.563180e-01 1.321422e-01 2.933665e-02 1.896912e-02 2.895876e-02 -5.828495e-03 -8.013777e-01 -1.590064e-02 1.378773e-02 -2.714252e-03 -7.020380e-03 -1.558025e-02 -5.092675e-03 -2.015346e-02 4.804143e-03 -5.620951e-03 -2.276143e-03 -5.374241e-03 -2.321213e-03 1.904725e-02
<VARIANCE> 39
 2.012003e+01 3.081021e+01 3.026404e+01 2.207998e+01 2.996321e+01 3.341190e+01 2.737332e+01 2.611970e+01 2.154206e+01 1.904753e+01 1.682498e+01 1.535396e+01 8.134129e+01 1.238298e-01 2.568182e-01 4.225421e-01 6.607478e-01 8.975241e-01 1.043689e+00 1.212891e+00 1.325740e+00 1.356626e+00 1.338097e+00 1.270328e+00 1.180733e+00 8.305994e-02 2.397306e-02 4.993994e-02 8.505264e-02 1.332796e-01 1.804467e-01 2.162078e-01 2.501721e-01 2.734523e-01 2.840621e-01 2.799355e-01 2.643341e-01 2.453883e-01 1.502285e-02
<GCONST> 8.166238e+01
<MIXTURE> 2 2.048948e-01
<MEAN> 39
 -1.442755e+01 -7.383592e+00 -5.556970e+00 -2.472801e+00 -9.772068e-02 -4.233204e+00 5.497896e-01 -4.296336e-01 -1.149588e+00 -6.243932e-01 -5.060826e-02 -1.056228e+00 6.347528e+01 -1.426251e+00 -1.172580e+00 -1.059532e+00 -4.829698e-01 -9.534896e-01 -1.054523e+00 -7.110418e-01 -6.279482e-01 -2.266973e-01 -1.424918e-01 -1.282180e-01 1.682388e-02 3.656646e+00 6.742921e-02 -1.033762e-01 -2.907456e-02 1.014163e-02 5.112757e-02 -1.595071e-03 7.348083e-02 -1.918975e-02 9.294117e-03 -3.831091e-03 2.208056e-02 6.407617e-03 1.476217e-03
<VARIANCE> 39
 4.322541e+01 4.123597e+01 3.662130e+01 2.635071e+01 3.927685e+01 4.835178e+01 3.755285e+01 3.288969e+01 2.600524e+01 2.108088e+01 1.881894e+01 1.642353e+01 2.058952e+02 3.430187e+00 3.656517e+00 2.602437e+00 2.275396e+00 2.987203e+00 4.477197e+00 3.644425e+00 3.233496e+00 2.737921e+00 2.262439e+00 2.012184e+00 1.656288e+00 1.644267e+01 8.384880e-01 6.798265e-01 5.505238e-01 4.429562e-01 6.413955e-01 9.019989e-01 7.339883e-01 6.341751e-01 5.137268e-01 4.210045e-01 3.761996e-01 3.147089e-01 4.340546e+00
<GCONST> 1.277838e+02
<STATE> 3
<NUMMIXES> 2
<MIXTURE> 1 7.875130e-01
<MEAN> 39
 -1.095085e+01 -1.743907e+01 -1.147853e+01 3.696717e-01 4.924449e-01 -9.673444e+00 4.840563e-01 -1.097960e+00 -4.204587e+00 -2.724132e+00 9.673468e-01 -6.241186e-01 6.893738e+01 2.972827e-01 1.856339e-01 2.626940e-01 2.462912e-01 2.968048e-01 1.766808e-01 1.337626e-01 4.576283e-02 1.403614e-02 1.424000e-02 4.805765e-02 3.933272e-02 -9.117967e-01 -1.157960e-02 2.393959e-02 7.129366e-03 -5.297904e-03 -6.870924e-03 4.286723e-03 -1.700969e-02 1.006625e-02 7.205764e-03 1.671008e-03 -3.085644e-03 -1.541349e-04 1.327750e-02
<VARIANCE> 39
 1.129765e+01 2.144303e+01 1.910898e+01 2.150276e+01 3.224819e+01 2.126081e+01 2.879143e+01 2.223240e+01 2.294032e+01 2.104228e+01 1.667722e+01 1.494767e+01 6.136888e+01 9.752482e-02 2.379968e-01 3.717381e-01 6.057982e-01 8.305565e-01 9.866901e-01 1.132965e+00 1.231776e+00 1.292417e+00 1.299614e+00 1.221371e+00 1.145656e+00 3.873871e-02 2.062361e-02 4.913750e-02 7.681517e-02 1.266581e-01 1.738071e-01 2.042476e-01 2.430888e-01 2.621137e-01 2.739556e-01 2.747300e-01 2.543607e-01 2.400194e-01 9.233032e-03
<GCONST> 7.679002e+01
<MIXTURE> 2 2.124920e-01
<MEAN> 39
 -1.219404e+01 -1.576447e+01 -1.139552e+01 -3.701452e-01 -6.372958e-01 -9.533726e+00 -1.006084e+00 -2.894703e-01 -3.492447e+00 -2.862865e+00 4.134493e-01 -8.618896e-01 7.194481e+01 -7.228244e-01 -7.140808e-01 -8.091730e-01 -6.633788e-01 -8.006740e-01 -5.485607e-01 -2.843582e-01 -1.070468e-01 -3.792935e-02 -6.932721e-02 -7.434795e-02 -6.543059e-02 2.491177e+00 1.121554e-01 9.006914e-02 9.684353e-02 6.119885e-02 1.123739e-01 1.103823e-01 1.114931e-01 7.964939e-03 2.072758e-02 3.368751e-02 2.121471e-02 2.465918e-03 -3.655220e-01
<VARIANCE> 39
 2.488815e+01 3.145807e+01 2.799635e+01 3.326485e+01 4.010826e+01 3.369498e+01 4.089754e+01 2.683187e+01 2.775993e+01 2.386099e+01 1.850280e+01 1.628014e+01 1.636455e+02 1.837677e+00 2.899086e+00 2.064846e+00 2.405134e+00 2.893924e+00 3.227227e+00 3.658962e+00 2.623123e+00 2.600280e+00 2.179648e+00 1.817402e+00 1.575943e+00 1.337062e+01 4.564192e-01 6.213476e-01 5.063951e-01 5.230630e-01 6.464929e-01 7.183340e-01 7.304645e-01 5.145282e-01 4.986592e-01 4.288486e-01 3.531760e-01 3.115013e-01 3.771326e+00
<GCONST> 1.230828e+02
<STATE> 4
<NUMMIXES> 2
<MIXTURE> 1 8.584492e-01
<MEAN> 39
 -8.728821e+00 -1.151907e+01 -4.219968e+00 1.599264e+00 -9.562899e-01 -3.386705e+00 4.059402e+00 -9.718893e-01 -1.690061e+00 6.746770e-01 8.746865e-01 -9.014862e-01 5.753158e+01 2.135101e-01 2.930652e-01 1.622459e-01 8.245600e-02 1.389026e-01 1.942798e-01 7.972419e-02 1.558354e-01 5.522002e-02 3.656055e-02 8.825687e-03 -3.822738e-03 -6.146837e-01 -1.273135e-02 6.475967e-03 -8.221272e-03 -9.807253e-03 -1.203139e-02 -5.674785e-03 -1.285622e-02 5.219474e-04 -3.257079e-03 -3.340116e-03 -7.522106e-04 -5.845524e-04 1.990940e-02
<VARIANCE> 39
 1.806272e+01 7.164971e+01 2.039055e+01 2.130421e+01 2.951436e+01 3.283579e+01 2.147725e+01 3.368133e+01 2.409730e+01 1.943215e+01 1.653689e+01 1.401806e+01 1.075790e+02 1.308204e-01 2.791989e-01 4.244717e-01 6.653884e-01 8.782256e-01 1.028422e+00 1.176670e+00 1.273915e+00 1.329476e+00 1.309753e+00 1.251037e+00 1.130444e+00 1.483918e-01 2.203314e-02 4.807591e-02 8.228464e-02 1.260106e-01 1.711819e-01 2.078663e-01 2.395116e-01 2.577679e-01 2.739453e-01 2.691242e-01 2.538433e-01 2.308259e-01 7.321355e-03
<GCONST> 8.147116e+01
<MIXTURE> 2 1.415513e-01
<MEAN> 39
 -1.147353e+01 -1.086037e+01 -5.667473e+00 1.227471e-01 -3.412425e+00 -4.128869e+00 2.589236e+00 -1.068649e+00 -1.954505e+00 6.611794e-01 1.820405e-01 -1.485363e+00 6.360656e+01 -1.186443e+00 -1.473493e+00 -7.687421e-01 -4.341608e-01 -8.632776e-01 -9.619318e-01 -3.752924e-01 -8.130870e-01 -2.204184e-01 -1.261607e-01 -7.704131e-02 7.545050e-04 3.271131e+00 6.291182e-02 -4.921446e-02 2.667285e-02 3.815201e-02 5.037093e-02 1.192805e-02 5.759645e-02 -1.128840e-02 6.890463e-03 3.865745e-03 -2.176859e-03 2.254224e-03 -9.095392e-02
<VARIANCE> 39
 3.850893e+01 8.345630e+01 2.874433e+01 2.801252e+01 3.808804e+01 4.561220e+01 3.214211e+01 4.157570e+01 3.008225e+01 2.067649e+01 1.844119e+01 1.593113e+01 2.480748e+02 3.053610e+00 6.567622e+00 2.154537e+00 2.225244e+00 3.277552e+00 3.925287e+00 3.092300e+00 3.952352e+00 3.171216e+00 2.114782e+00 1.840705e+00 1.591924e+00 1.901483e+01 7.209455e-01 1.318993e+00 4.570186e-01 4.466099e-01 7.217150e-01 8.579271e-01 6.148324e-01 8.280330e-01 6.201399e-01 4.161715e-01 3.622701e-01 3.066455e-01 4.756150e+00
<GCONST> 1.294915e+02
<TRANSP> 5
 0.000000e+00 1.000000e+00 0.000000e+00 0.000000e+00 0.000000e+00
 0.000000e+00 9.905406e-01 9.459352e-03 0.000000e+00 0.000000e+00
 0.000000e+00 0.000000e+00 9.870194e-01 1.298061e-02 0.000000e+00
 0.000000e+00 0.000000e+00 0.000000e+00 9.903256e-01 9.674449e-03
 0.000000e+00 0.000000e+00 0.000000e+00 0.000000e+00 0.000000e+00
<ENDHMM>
~h "cl"
<BEGINHMM>
<NUMSTATES> 5
<STATE> 2
<NUMMIXES> 2
<MIXTURE> 1 7.306930e-01
<MEAN> 39
 -1.144089e+01 -1.438834e+00 -7.269384e-01 -4.701448e+00 -2.210638e+00 5.966212e+00 3.351284e+00 -2.114572e-03 4.912191e+00 -3.723859e-01 -3.225989e+00 1.690282e+00 5.303106e+01 3.420528e-01 -2.765952e-02 -3.195729e-02 5.850640e-02 9.881394e-02 -3.598481e-02 8.307569e-02 7.757944e-02 -6.251379e-02 4.050357e-02 6.696734e-02 -8.357348e-02 -3.188379e-01 -1.665804e-02 9.340144e-03 -5.796058e-03 3.550684e-03 -3.478237e-04 -1.303251e-02 -9.996632e-03 1.302955e-02 -1.726668e-02 5.731469e-03 1.356833e-02 -1.095461e-02 1.539620e-02
<VARIANCE> 39
 3.205561e+01 2.463905e+01 3.430018e+01 1.599115e+01 2.095203e+01 4.452383e+01 2.496354e+01 2.822799e+01 4.002577e+01 2.280008e+01 2.568980e+01 2.474130e+01 3.479868e+01 2.850212e-01 3.499566e-01 5.477693e-01 7.340450e-01 9.716612e-01 1.298786e+00 1.327382e+00 1.476511e+00 1.608351e+00 1.435798e+00 1.363556e+00 1.274738e+00 1.510865e-01 4.985067e-02 6.246111e-02 1.047990e-01 1.428612e-01 1.919723e-01 2.498017e-01 2.612648e-01 2.913471e-01 3.152139e-01 2.882981e-01 2.710054e-01 2.526510e-01 1.921197e-02
<GCONST> 8.744350e+01
<MIXTURE> 2 2.693134e-01
<MEAN> 39
 -1.414255e+01 -4.906957e-01 -6.340433e-01 -4.411203e+00 -2.594446e+00 5.260131e+00 1.961392e+00 2.642048e-01 4.020453e+00 1.058565e-01 -2.675756e+00 1.439046e+00 5.551875e+01 -1.921305e+00 1.872281e-01 2.485479e-01 -2.646672e-01 -5.642425e-01 5.746027e-01 -4.420017e-01 -6.807606e-01 4.641388e-01 -2.523332e-01 -5.856169e-01 5.413697e-01 1.624447e+00 7.670920e-03 -4.239387e-02 5.956108e-02 -2.509788e-02 -5.091014e-02 1.162593e-01 2.115484e-02 -1.093846e-01 7.628548e-02 -2.176446e-02 -1.179093e-01 9.003150e-02 -1.616917e-02
<VARIANCE> 39
 5.684516e+01 3.646091e+01 3.362527e+01 1.889337e+01 2.400052e+01 5.315482e+01 2.982167e+01 3.093182e+01 3.626304e+01 2.613558e+01 2.738010e+01 2.293308e+01 8.512169e+01 5.066668e+00 1.845725e+00 1.615013e+00 1.446497e+00 1.985096e+00 3.909540e+00 2.661234e+00 3.233184e+00 3.190847e+00 2.551358e+00 2.691389e+00 2.273636e+00 4.234542e+00 1.130327e+00 2.729296e-01 2.514355e-01 2.584235e-01 3.561076e-01 5.772641e-01 4.693515e-01 5.318744e-01 5.139832e-01 4.438116e-01 4.464710e-01 3.608840e-01 9.274665e-01
<GCONST> 1.198655e+02
<STATE> 3
<NUMMIXES> 2
<MIXTURE> 1 6.656087e-01
<MEAN> 39
 -2.051411e+01 2.736646e+00 -4.599642e-01 -7.063048e+00 -4.728224e+00 1.318716e+01 7.917347e-01 -2.435561e+00 9.397091e+00 -3.906170e+00 -4.548457e+00 5.826355e+00 5.873592e+01 6.106867e-01 -4.455508e-02 -4.854379e-02 -2.867748e-02 4.516361e-02 -1.012422e-04 4.880089e-02 6.740028e-03 6.424379e-02 7.610573e-02 9.324987e-02 -2.402700e-04 -4.748252e-01 -9.686027e-03 2.926465e-03 -3.363427e-02 2.400224e-02 2.213995e-02 -7.840729e-02 3.891113e-03 3.470961e-02 -6.474095e-02 3.502123e-02 4.367422e-02 -5.971811e-02 1.070390e-02
<VARIANCE> 39
 3.560267e+01 8.890290e+00 1.734106e+01 1.150651e+01 1.479277e+01 2.743143e+01 2.433188e+01 1.965100e+01 2.360334e+01 1.937610e+01 1.821133e+01 1.874744e+01 1.758917e+01 2.559490e-01 3.118661e-01 5.655984e-01 7.460333e-01 9.646234e-01 1.330935e+00 1.410365e+00 1.392916e+00 1.508423e+00 1.471559e+00 1.333447e+00 1.274612e+00 1.264046e-01 1.013711e-01 6.304148e-02 1.229651e-01 1.557257e-01 2.077928e-01 2.885877e-01 3.095115e-01 2.944268e-01 3.208723e-01 3.120328e-01 2.814623e-01 2.747528e-01 5.604735e-02
<GCONST> 8.456551e+01
<MIXTURE> 2 3.344519e-01
<MEAN> 39
 -1.986411e+01 1.729864e+00 -1.391932e+00 -6.412650e+00 -4.347161e+00 1.012234e+01 3.205294e-01 -1.702440e+00 7.537682e+00 -3.539006e+00 -3.320346e+00 4.141835e+00 5.959877e+01 -1.115080e+00 7.354404e-02 6.624160e-02 7.486879e-02 -8.297723e-02 -1.904135e-02 -8.105733e-02 -4.193800e-02 -1.599691e-01 -1.461833e-01 -1.916624e-01 -3.625490e-03 8.859841e-01 4.583678e-02 -9.899074e-03 6.185135e-02 -4.442107e-02 -3.387577e-02 1.364945e-01 -3.714422e-03 -5.648744e-02 1.146389e-01 -5.822765e-02 -7.553507e-02 1.040094e-01 -4.092156e-02
<VARIANCE> 39
 7.736719e+01 1.394726e+01 2.440943e+01 1.540710e+01 1.884211e+01 4.186345e+01 3.236157e+01 2.483734e+01 3.276596e+01 2.134687e+01 2.032135e+01 2.326845e+01 3.379252e+01 2.847328e+00 8.594554e-01 1.282454e+00 1.273040e+00 1.778559e+00 3.076340e+00 2.767999e+00 2.275658e+00 2.650226e+00 2.018879e+00 1.948325e+00 2.453973e+00 1.537896e+00 7.814214e-01 1.471613e-01 2.029516e-01 2.372604e-01 3.051901e-01 4.751631e-01 4.691009e-01 4.087673e-01 4.709462e-01 3.871673e-01 3.584214e-01 4.012173e-01 4.490208e-01
<GCONST> 1.095567e+02
<STATE> 4
<NUMMIXES> 2
<MIXTURE> 1 6.634420e-01
<MEAN> 39
 -2.147410e+01 4.154779e-01 5.904364e+00 -4.266438e+00 -6.724578e+00 1.093847e+01 1.356796e+00 -6.491796e+00 3.880106e+00 4.478486e+00 -1.190397e+01 4.992501e+00 5.726706e+01 5.505573e-01 6.027140e-02 1.749178e-01 -1.589724e-02 2.122178e-02 5.998702e-02 1.520298e-01 -7.898090e-02 2.773239e-01 3.150337e-02 -4.710433e-02 9.857607e-02 -6.255744e-01 -3.752239e-02 1.790178e-02 -5.564287e-02 1.850106e-02 5.293869e-02 -7.607791e-02 -1.593563e-02 9.248798e-02 -4.363846e-02 -9.171776e-03 8.737589e-02 -7.246140e-02 2.966350e-02
<VARIANCE> 39
 3.929651e+01 9.314442e+00 1.512749e+01 1.543034e+01 3.057146e+01 2.880157e+01 2.762000e+01 4.908165e+01 3.704663e+01 3.181182e+01 3.080810e+01 3.200949e+01 3.424461e+01 2.088763e-01 3.024932e-01 6.004019e-01 7.006433e-01 9.726701e-01 1.236777e+00 1.294831e+00 1.555788e+00 1.618477e+00 1.452555e+00 1.440775e+00 1.262949e+00 1.424295e-01 8.557517e-02 6.563613e-02 1.333600e-01 1.515714e-01 2.169214e-01 2.793405e-01 2.841781e-01 3.518127e-01 3.669012e-01 3.262596e-01 3.089786e-01 2.774484e-01 8.350570e-02
<GCONST> 9.003480e+01
<MIXTURE> 2 3.366162e-01
<MEAN> 39
 -2.405843e+01 7.935130e-01 4.166146e+00 -3.752982e+00 -5.836772e+00 9.967573e+00 1.061253e+00 -4.952092e+00 2.949991e+00 4.190062e+00 -1.069004e+01 4.000008e+00 5.957898e+01 -9.324246e-01 -1.344192e-01 -3.328004e-01 1.121957e-02 -2.941000e-02 -1.623748e-01 -3.014500e-01 1.808799e-01 -5.476813e-01 -7.444476e-02 1.217107e-01 -2.061404e-01 1.112632e+00 7.758985e-02 -3.355399e-02 1.012567e-01 -3.493661e-02 -9.632576e-02 1.416479e-01 3.194853e-02 -1.697349e-01 8.302394e-02 1.385586e-02 -1.594257e-01 1.356936e-01 -6.132091e-02
<VARIANCE> 39
 3.260294e+01 1.203151e+01 1.773152e+01 1.704764e+01 2.711685e+01 3.163551e+01 3.232551e+01 4.707080e+01 4.093809e+01 3.235396e+01 2.990647e+01 3.112136e+01 3.633840e+01 2.057180e+00 7.879703e-01 1.592388e+00 1.375196e+00 2.197937e+00 2.983439e+00 2.463229e+00 4.210847e+00 3.753521e+00 3.085054e+00 2.650072e+00 2.599947e+00 1.724504e+00 5.508958e-01 1.316684e-01 2.893749e-01 2.408420e-01 3.558080e-01 4.690852e-01 4.531486e-01 6.276540e-01 7.056990e-01 5.069758e-01 4.516760e-01 4.476218e-01 5.854805e-01
<GCONST> 1.139742e+02
<TRANSP> 5
 0.000000e+00 1.000000e+00 0.000000e+00 0.000000e+00 0.000000e+00
 0.000000e+00 9.603404e-01 3.965959e-02 0.000000e+00 0.000000e+00
 0.000000e+00 0.000000e+00 9.919007e-01 8.099232e-03 0.000000e+00
 0.000000e+00 0.000000e+00 0.000000e+00 9.934877e-01 6.512374e-03
 0.000000e+00 0.000000e+00 0.000000e+00 0.000000e+00 0.000000e+00
<ENDHMM>
~h "cm"
<BEGINHMM>
<NUMSTATES> 5
<STATE> 2
<NUMMIXES> 2
<MIXTURE> 1 5.799742e-01
<MEAN> 39
 -1.341350e+01 -1.007990e+00 -4.317800e+00 -6.247794e+00 -1.425682e-01 8.187610e-01 -1.083317e+00 1.096586e+00 -9.628192e-01 1.330118e+00 3.029563e+00 4.764802e-01 5.881686e+01 -1.411098e-02 3.221533e-02 9.658251e-02 1.864425e-01 2.973840e-01 3.369887e-01 3.010703e-01 2.750949e-01 1.983774e-01 1.297058e-01 6.066182e-02 -1.093550e-03 3.688899e-02 4.857721e-03 2.003010e-03 3.817161e-03 -8.629626e-04 -1.698153e-02 -3.083624e-02 -2.543489e-02 -2.212174e-02 -7.985579e-03 3.578768e-03 6.754576e-03 1.572561e-03 4.195604e-03
<VARIANCE> 39
 7.949401e+00 1.347650e+01 1.296436e+01 1.377073e+01 1.441146e+01 1.605571e+01 1.888585e+01 1.774929e+01 1.804717e+01 1.633079e+01 1.783530e+01 1.629934e+01 1.909825e+01 1.486122e-01 2.764906e-01 4.369091e-01 6.248221e-01 8.029882e-01 9.628147e-01 1.090850e+00 1.225126e+00 1.282393e+00 1.265913e+00 1.285599e+00 1.193104e+00 1.030189e-01 2.427550e-02 4.890309e-02 8.398098e-02 1.288646e-01 1.754442e-01 2.155575e-01 2.421902e-01 2.660847e-01 2.685185e-01 2.618388e-01 2.568526e-01 2.405902e-01 9.479049e-03
<GCONST> 7.390788e+01
<MIXTURE> 2 4.200123e-01
<MEAN> 39
 -1.281601e+01 -6.267911e-01 -3.913798e+00 -6.085481e+00 -8.356539e-01 -1.900361e-01 -1.458346e+00 6.154903e-01 -8.354957e-01 1.626557e+00 3.150870e+00 5.393609e-01 5.824409e+01 6.655685e-03 -1.155361e-01 -2.046220e-01 -3.325120e-01 -4.032436e-01 -5.071342e-01 -5.573443e-01 -4.731648e-01 -3.801989e-01 -2.350343e-01 -1.036056e-01 7.859882e-03 3.431877e-01 3.464678e-02 -1.633307e-05 -4.231524e-03 8.672720e-03 5.722988e-03 7.824223e-03 1.616049e-02 5.085716e-03 -1.389712e-02 -4.139851e-02 -5.368908e-02 -3.408468e-02 2.477493e-02
<VARIANCE> 39
 9.539058e+00 1.405079e+01 1.328981e+01 1.590727e+01 1.543231e+01 1.726300e+01 2.107789e+01 1.979381e+01 1.966623e+01 1.712829e+01 1.932447e+01 1.746229e+01 2.539563e+01 3.750819e-01 4.912159e-01 6.251696e-01 8.718997e-01 1.005897e+00 1.156846e+00 1.336385e+00 1.454773e+00 1.490955e+00 1.471877e+00 1.523704e+00 1.369835e+00 4.291140e-01 5.082935e-02 7.708409e-02 1.117106e-01 1.663639e-01 2.129085e-01 2.596720e-01 2.971447e-01 3.093946e-01 3.054540e-01 2.865347e-01 2.903497e-01 2.638801e-01 4.878441e-02
<GCONST> 8.478257e+01
<STATE> 3
<NUMMIXES> 2
<MIXTURE> 1 7.041057e-01
<MEAN> 39
 -7.863107e+00 -2.262246e+00 -5.018159e+00 -5.453071e+00 -1.661782e+00 -1.867177e+00 -2.318959e+00 -1.258398e+00 -2.432410e+00 -8.545630e-01 -6.797090e-01 -1.632615e+00 6.658451e+01 8.925164e-02 9.330542e-02 7.441892e-02 1.331464e-01 1.293405e-01 1.594132e-01 1.295265e-01 9.006239e-02 6.788752e-02 6.170703e-02 4.148193e-02 1.593965e-02 -1.350250e-01 -1.433967e-02 -4.572955e-03 -9.619619e-03 -1.221728e-02 -1.764106e-02 -1.703371e-02 -1.217967e-02 -1.030382e-02 -1.465478e-02 -1.923686e-02 -1.468755e-02 -1.446004e-02 -9.263771e-03
<VARIANCE> 39
 1.210817e+01 1.477305e+01 1.343004e+01 1.562383e+01 1.567661e+01 1.554878e+01 2.023557e+01 1.855538e+01 2.023769e+01 1.809269e+01 1.684430e+01 1.468437e+01 7.464812e+01 2.379873e-01 3.408465e-01 5.001776e-01 7.272536e-01 9.021496e-01 1.060049e+00 1.207502e+00 1.303784e+00 1.369765e+00 1.341003e+00 1.310564e+00 1.209382e+00 3.525170e-01 3.634143e-02 6.383879e-02 9.904688e-02 1.458983e-01 1.843386e-01 2.222024e-01 2.546517e-01 2.699414e-01 2.829362e-01 2.809330e-01 2.711975e-01 2.487030e-01 2.913636e-02
<GCONST> 8.133305e+01
<MIXTURE> 2 2.958997e-01
<MEAN> 39
 -8.990948e+00 -2.435569e+00 -5.022947e+00 -6.684387e+00 -2.438125e+00 -2.882783e+00 -2.975667e+00 -1.475515e+00 -2.665436e+00 -1.485326e+00 -9.560344e-01 -2.082143e+00 6.654212e+01 2.432924e-01 -2.092028e-01 -1.760342e-01 -3.334163e-01 -4.564365e-01 -5.714589e-01 -4.048911e-01 -3.280749e-01 -2.266713e-01 -2.876265e-01 -3.356925e-01 -1.632052e-01 1.121115e+00 2.080861e-02 3.020496e-02 3.304239e-02 5.059188e-02 8.750620e-02 1.062800e-01 7.699414e-02 6.571128e-02 6.561438e-02 8.243908e-02 8.633300e-02 5.997800e-02 -7.734463e-02
<VARIANCE> 39
 1.604709e+01 1.906188e+01 1.691522e+01 2.016187e+01 2.055214e+01 1.935464e+01 2.170345e+01 2.179714e+01 2.225554e+01 1.861007e+01 1.813222e+01 1.587479e+01 6.382037e+01 1.102383e+00 1.260683e+00 1.137702e+00 1.512491e+00 1.619791e+00 1.692526e+00 1.818944e+00 1.946234e+00 1.940925e+00 1.782442e+00 1.722126e+00 1.554305e+00 1.600928e+00 1.489029e-01 2.081332e-01 2.050906e-01 2.874763e-01 3.218598e-01 3.476832e-01 3.595942e-01 3.758046e-01 3.780255e-01 3.412055e-01 3.326417e-01 2.969169e-01 3.383619e-01
<GCONST> 1.011200e+02
<STATE> 4
<NUMMIXES> 2
<MIXTURE> 1 4.752422e-01
<MEAN> 39
 -5.709009e+00 1.420203e+00 -1.948156e+00 -3.089488e+00 7.089965e-01 -2.445693e-02 -1.260243e+00 -7.030760e-01 -1.876067e+00 -1.362644e+00 -4.251137e-01 -1.994936e+00 6.242218e+01 1.979850e-02 8.611852e-02 1.189461e-01 1.487850e-01 1.469386e-01 1.360342e-01 1.353644e-01 8.756395e-02 6.069679e-02 3.755862e-02 3.064101e-02 5.510285e-03 -3.634224e-01 -2.094777e-03 -2.043920e-02 -4.651080e-02 -7.455447e-02 -9.914470e-02 -1.043750e-01 -8.774756e-02 -6.414349e-02 -5.269399e-02 -4.518446e-02 -4.088077e-02 -2.189206e-02 1.919928e-02
<VARIANCE> 39
 1.489006e+01 1.010914e+01 1.022231e+01 1.067431e+01 1.105287e+01 1.226603e+01 1.566311e+01 1.797605e+01 1.877690e+01 1.634929e+01 1.478552e+01 1.316807e+01 6.068633e+01 1.773826e-01 2.775131e-01 4.308555e-01 6.499549e-01 8.481016e-01 1.012945e+00 1.165169e+00 1.264653e+00 1.339352e+00 1.308018e+00 1.260495e+00 1.156700e+00 1.752111e-01 2.487709e-02 4.777784e-02 7.900950e-02 1.193669e-01 1.568962e-01 1.918502e-01 2.270508e-01 2.507565e-01 2.669318e-01 2.606496e-01 2.488705e-01 2.307512e-01 1.255484e-02
<GCONST> 7.451717e+01
<MIXTURE> 2 5.246929e-01
<MEAN> 39
 -5.153256e+00 -1.084044e+00 -5.206588e+00 -6.928345e+00 -3.364919e+00 -3.753439e+00 -4.139079e+00 -2.446964e+00 -3.118000e+00 -2.497435e+00 -1.839488e+00 -2.666683e+00 7.170506e+01 5.020054e-02 -9.875437e-03 -5.254721e-03 -6.820738e-03 -3.471640e-02 -6.556264e-02 -6.393450e-02 -8.623335e-02 -5.309514e-02 -4.306670e-02 -2.013825e-02 4.196580e-03 -7.138102e-02 -8.094586e-03 1.661129e-02 4.311267e-02 6.730454e-02 9.120628e-02 9.762637e-02 8.303686e-02 6.214224e-02 5.083998e-02 4.724944e-02 4.290541e-02 2.265066e-02 -3.125157e-02
<VARIANCE> 39
 5.614854e+00 8.377441e+00 8.585695e+00 1.131619e+01 1.082366e+01 1.049680e+01 1.337883e+01 1.555750e+01 1.643964e+01 1.455666e+01 1.395417e+01 1.227593e+01 3.741314e+01 1.847361e-01 2.948663e-01 4.736453e-01 7.095327e-01 8.806858e-01 1.014044e+00 1.158729e+00 1.248314e+00 1.290831e+00 1.267639e+00 1.221497e+00 1.127755e+00 3.349432e-01 3.081886e-02 5.444901e-02 8.929568e-02 1.334627e-01 1.643637e-01 1.918443e-01 2.260737e-01 2.462149e-01 2.567111e-01 2.546867e-01 2.466753e-01 2.288701e-01 2.848160e-02
<GCONST> 7.406783e+01
<TRANSP> 5
 0.000000e+00 1.000000e+00 0.000000e+00 0.000000e+00 0.000000e+00
 0.000000e+00 9.652648e-01 3.473520e-02 0.000000e+00 0.000000e+00
 0.000000e+00 0.000000e+00 9.637594e-01 3.624057e-02 0.000000e+00
 0.000000e+00 0.000000e+00 0.000000e+00 9.841822e-01 1.581779e-02
 0.000000e+00 0.000000e+00 0.000000e+00 0.000000e+00 0.000000e+00
<ENDHMM>
~h "co"
<BEGINHMM>
<NUMSTATES> 5
<STATE> 2
<NUMMIXES> 2
<MIXTURE> 1 6.719049e-01
<MEAN> 39
 -9.543787e+00 -6.626792e+00 2.004688e-01 -4.417808e+00 -9.798584e+00 -5.879951e+00 -4.188378e+00 -1.289027e+00 -3.582860e+00 -6.175445e+00 -4.338256e+00 -6.501623e+00 7.008786e+01 -5.989674e-01 2.253444e-01 1.001001e-01 -4.229684e-03 5.471966e-01 -9.055205e-02 3.829005e-01 -4.234284e-01 -4.162128e-01 -1.136510e-01 3.077349e-01 2.082907e-01 1.153498e+00 1.590710e-01 -1.785788e-01 -1.935714e-01 1.437187e-01 6.955218e-02 8.350524e-02 -2.632057e-02 7.756002e-02 1.987721e-01 2.372485e-01 9.648114e-02 4.043619e-02 -4.448874e-01
<VARIANCE> 39
 1.936474e+01 2.402315e+01 2.447142e+01 2.877567e+01 4.620583e+01 4.981359e+01 6.548944e+01 6.562038e+01 4.389893e+01 3.962906e+01 3.900143e+01 2.869589e+01 8.190505e+01 6.509565e-01 1.245337e+00 1.379809e+00 1.462031e+00 1.790736e+00 2.045015e+00 2.594636e+00 2.166103e+00 2.333427e+00 2.453088e+00 1.920313e+00 1.823944e+00 1.315328e+00 1.025542e-01 1.719801e-01 2.299414e-01 2.549122e-01 2.988825e-01 3.729939e-01 4.165168e-01 3.780654e-01 4.032353e-01 3.787697e-01 3.701018e-01 3.174663e-01 2.182314e-01
<GCONST> 1.097002e+02
<MIXTURE> 2 3.280931e-01
<MEAN> 39
 -6.432192e+00 -8.104651e+00 -2.422215e+00 -2.807194e+00 -1.002391e+01 -3.536392e+00 -3.173950e+00 1.857889e+00 9.982952e-01 -9.594635e-01 -1.792629e+00 -5.568872e+00 5.919567e+01 -4.922066e-01 -6.883578e-01 3.782691e-01 -8.787923e-01 -1.927902e+00 -1.713961e+00 -1.162777e+00 -1.051857e+00 -1.140207e+00 -1.214841e+00 -9.442292e-01 -7.921062e-01 3.984894e+00 -1.947493e-01 4.185532e-01 1.610617e-01 -8.274245e-02 4.151058e-01 1.343591e-01 2.694202e-01 -3.636040e-02 -2.457881e-01 -1.563660e-01 5.969099e-02 8.846150e-02 1.389056e-01
<VARIANCE> 39
 1.953786e+01 4.941272e+01 2.641211e+01 3.699121e+01 9.253902e+01 6.026999e+01 1.004908e+02 6.271128e+01 4.884270e+01 4.367939e+01 3.474052e+01 3.753410e+01 9.791785e+01 1.798702e+00 4.293123e+00 2.759986e+00 3.541109e+00 5.563236e+00 3.979683e+00 5.061165e+00 4.519398e+00 4.466849e+00 3.281414e+00 2.699717e+00 2.642134e+00 3.254561e+00 1.983340e-01 6.088638e-01 3.385889e-01 4.873785e-01 9.328935e-01 7.614127e-01 9.769100e-01 6.163556e-01 6.381854e-01 5.564630e-01 5.124728e-01 5.147707e-01 7.531883e-01
<GCONST> 1.311967e+02
<STATE> 3
<NUMMIXES> 2
<MIXTURE> 1 7.629004e-01
<MEAN> 39
 -6.749475e+00 -7.635041e+00 -1.996244e+00 -3.656097e+00 -6.479978e+00 -8.356808e+00 -7.014669e+00 -6.540966e+00 -4.113612e+00 -3.703969e+00 -3.305865e+00 -7.843069e+00 6.774880e+01 2.269469e-01 5.413343e-02 4.407596e-02 1.671072e-01 3.312596e-01 7.483794e-02 2.161153e-04 -1.098539e-01 5.240654e-02 1.421968e-01 6.232362e-02 1.434791e-02 -6.090587e-01 1.877315e-02 2.093046e-02 2.004392e-02 1.547074e-02 -2.446447e-02 1.974347e-03 -1.598025e-02 -1.093754e-02 -4.028452e-02 -5.055140e-02 -3.767041e-02 -9.255754e-03 -1.737962e-02
<VARIANCE> 39
 2.026703e+01 1.347954e+01 2.560131e+01 2.306764e+01 2.329064e+01 2.849852e+01 5.004351e+01 5.645776e+01 3.792232e+01 3.965911e+01 3.579859e+01 3.645117e+01 4.289259e+01 1.815264e-01 3.635204e-01 6.012268e-01 7.376315e-01 1.052029e+00 1.180374e+00 1.504976e+00 1.673592e+00 1.787370e+00 1.722730e+00 1.505839e+00 1.430754e+00 1.305836e-01 3.854237e-02 7.396877e-02 1.128061e-01 1.552499e-01 2.151729e-01 2.413501e-01 3.078010e-01 3.409981e-01 3.779389e-01 3.569402e-01 3.147061e-01 2.937359e-01 2.413378e-02
<GCONST> 9.060110e+01
<MIXTURE> 2 2.371370e-01
<MEAN> 39
 -6.702611e+00 -8.134428e+00 -1.620597e+00 -2.728132e+00 -8.802366e+00 -8.140261e+00 -7.463628e+00 -7.228761e+00 -3.785052e+00 -4.114072e+00 -4.774923e+00 -8.471530e+00 6.749236e+01 -2.622886e-01 -1.386530e-01 -2.328636e-02 -3.292823e-01 -6.907799e-01 -1.654469e-01 -2.565389e-01 1.681836e-01 -7.560533e-02 -3.158897e-01 -2.150912e-01 -1.674888e-01 1.167722e+00 -4.164904e-02 -3.103923e-02 -1.391955e-02 -3.204802e-02 8.173822e-02 2.612698e-02 6.833550e-02 6.810665e-02 1.268187e-01 1.393208e-01 9.648028e-02 2.607120e-02 7.843675e-03
<VARIANCE> 39
 1.554087e+01 2.314776e+01 3.037210e+01 2.783144e+01 3.731934e+01 3.434085e+01 5.325302e+01 7.126942e+01 5.805108e+01 4.152188e+01 4.295886e+01 3.788748e+01 5.726331e+01 1.204487e+00 2.232671e+00 1.820246e+00 2.252679e+00 3.326230e+00 2.691131e+00 4.270739e+00 4.198495e+00 5.225059e+00 3.537576e+00 3.295798e+00 2.646436e+00 2.558876e+00 1.396738e-01 4.292998e-01 2.930188e-01 4.017009e-01 6.746254e-01 4.681989e-01 6.334288e-01 7.030724e-01 9.917632e-01 6.566905e-01 5.954711e-01 4.363036e-01 5.229663e-01
<GCONST> 1.230909e+02
<STATE> 4
<NUMMIXES> 2
<MIXTURE> 1 7.707068e-01
<MEAN> 39
 -3.958657e+00 -2.866576e+00 3.087631e+00 1.171906e+00 2.112785e-01 -2.785004e+00 -4.215407e+00 -3.224504e+00 -2.333141e+00 -3.731965e+00 -3.278266e+00 -6.325300e+00 5.524778e+01 8.604484e-02 2.275867e-01 -4.891899e-03 4.808888e-02 1.846974e-01 1.947889e-01 1.950302e-01 1.853081e-01 8.490067e-03 3.493316e-02 -1.304843e-02 4.715996e-02 -5.047622e-01 -7.796351e-03 -8.870064e-03 -1.933977e-02 -1.467013e-02 -3.296885e-02 -6.473081e-03 -1.324894e-02 1.590781e-03 -1.524863e-03 -2.212758e-03 -3.613721e-03 -6.758394e-03 1.517588e-02
<VARIANCE> 39
 1.515745e+01 2.232740e+01 1.740865e+01 2.183921e+01 2.126163e+01 2.829688e+01 4.457758e+01 4.238918e+01 2.996935e+01 2.835687e+01 2.508239e+01 2.342561e+01 4.977171e+01 1.835653e-01 3.106053e-01 4.990767e-01 7.127192e-01 9.038145e-01 1.054760e+00 1.218842e+00 1.316951e+00 1.400065e+00 1.469440e+00 1.414836e+00 1.290506e+00 1.132837e-01 2.679692e-02 5.563899e-02 9.255533e-02 1.352469e-01 1.764939e-01 2.077538e-01 2.342437e-01 2.534659e-01 2.781591e-01 2.912180e-01 2.823326e-01 2.592556e-01 9.266393e-03
<GCONST> 8.325944e+01
<MIXTURE> 2 2.293232e-01
<MEAN> 39
 -5.344122e+00 -7.420792e+00 2.867582e-01 -6.133274e-01 -5.242436e+00 -2.218251e+00 -1.027404e+01 -3.245940e+00 -2.355917e+00 -6.579113e+00 -4.227747e+00 -8.886532e+00 6.421102e+01 -1.642773e-01 -2.334384e-01 1.173040e-01 -1.322920e-03 -1.904212e-01 -2.104945e-01 -2.940623e-01 -1.635762e-01 -3.299076e-02 -1.681769e-01 -5.459279e-03 -4.254182e-02 6.759324e-01 3.278210e-03 2.197166e-02 2.874538e-02 1.384805e-02 6.354831e-02 -4.567691e-03 4.527350e-02 -1.641975e-04 8.912319e-03 1.373645e-02 1.278526e-02 1.578848e-02 -1.449021e-02
<VARIANCE> 39
 1.274698e+01 3.714801e+01 2.780198e+01 2.374073e+01 4.075181e+01 4.709461e+01 7.718819e+01 5.335035e+01 3.829169e+01 6.379984e+01 4.450616e+01 4.156721e+01 7.225482e+01 6.477191e-01 1.751430e+00 1.364914e+00 1.393687e+00 2.849957e+00 2.093506e+00 3.720243e+00 2.922553e+00 2.593067e+00 2.709031e+00 2.403570e+00 2.435357e+00 2.381617e+00 9.894606e-02 2.961369e-01 2.410407e-01 2.608826e-01 5.168029e-01 3.889118e-01 6.749336e-01 5.152388e-01 5.002545e-01 5.340192e-01 4.682416e-01 4.705628e-01 3.160300e-01
<GCONST> 1.164006e+02
<TRANSP> 5
 0.000000e+00 1.000000e+00 0.000000e+00 0.000000e+00 0.000000e+00
 0.000000e+00 8.837631e-01 1.162368e-01 0.000000e+00 0.000000e+00
 0.000000e+00 0.000000e+00 9.849516e-01 1.504848e-02 0.000000e+00
 0.000000e+00 0.000000e+00 0.000000e+00 9.794237e-01 2.057633e-02
 0.000000e+00 0.000000e+00 0.000000e+00 0.000000e+00 0.000000e+00
<ENDHMM>
~h "ds"
<BEGINHMM>
<NUMSTATES> 5
<STATE> 2
<NUMMIXES> 2
<MIXTURE> 1 5.922232e-01
<MEAN> 39
 -1.309830e+01 -3.344232e-01 1.196698e+00 -9.478977e-02 1.198224e+00 -7.316685e-01 5.180835e+00 6.524274e-01 2.617723e+00 1.339469e+00 2.967176e+00 9.035125e-01 6.488827e+01 3.078097e-01 2.231788e-01 2.839415e-01 3.867264e-01 3.094821e-01 2.961614e-01 1.633574e-01 1.339830e-01 7.413109e-02 9.173223e-02 8.960120e-02 9.334882e-02 -2.052367e-01 -7.794421e-02 -6.927882e-02 -8.213270e-02 -3.011763e-02 -5.680205e-02 -3.648801e-02 -7.433839e-02 -2.440231e-02 -1.012688e-02 -1.706660e-04 -6.145617e-02 -2.777105e-02 -6.151189e-02
<VARIANCE> 39
 1.953208e+01 1.767083e+01 1.352019e+01 1.846016e+01 1.917996e+01 1.965135e+01 2.595584e+01 3.295371e+01 2.539473e+01 2.058091e+01 1.755296e+01 1.543443e+01 1.031963e+02 5.052626e-01 6.259896e-01 7.792702e-01 1.065566e+00 1.242230e+00 1.553700e+00 1.704012e+00 1.856995e+00 1.666122e+00 1.656603e+00 1.580466e+00 1.338769e+00 5.915269e-01 1.325942e-01 1.239837e-01 1.546865e-01 2.166182e-01 2.674053e-01 3.037823e-01 3.461215e-01 3.720397e-01 3.454869e-01 3.359528e-01 3.249249e-01 2.719834e-01 2.489003e-01
<GCONST> 9.589938e+01
<MIXTURE> 2 4.077832e-01
<MEAN> 39
 -1.560744e+01 -1.442697e+00 -1.589591e+00 -1.538694e+00 -1.962814e+00 -1.842469e+00 2.442443e+00 -5.060621e-01 2.674282e+00 2.006929e+00 1.919625e+00 8.544829e-01 6.690822e+01 -8.714871e-01 -1.262623e-01 -4.654380e-01 -6.145298e-01 -8.323819e-01 -6.595241e-01 -4.094956e-01 -2.254232e-01 -5.017335e-02 2.119858e-01 2.066118e-01 1.285938e-01 2.365785e+00 2.776999e-01 1.377471e-01 1.587480e-01 1.363816e-01 1.873439e-01 8.808268e-02 1.268412e-01 4.949955e-02 2.705378e-02 -3.451165e-02 8.777453e-02 2.525447e-02 -2.754730e-01
<VARIANCE> 39
 2.625354e+01 1.442832e+01 1.553644e+01 2.119160e+01 2.954547e+01 2.365909e+01 2.805913e+01 2.873605e+01 2.351968e+01 2.397777e+01 2.145420e+01 1.702728e+01 1.305678e+02 3.014060e+00 1.607647e+00 1.786877e+00 1.961886e+00 2.650278e+00 2.425406e+00 3.111480e+00 2.672543e+00 2.533108e+00 2.305414e+00 2.360018e+00 1.819240e+00 1.074594e+01 4.781525e-01 2.335018e-01 2.678092e-01 4.236510e-01 4.992289e-01 4.979065e-01 5.087265e-01 4.892676e-01 4.403403e-01 4.083024e-01 4.010044e-01 3.162527e-01 2.073317e+00
<GCONST> 1.159650e+02
<STATE> 3
<NUMMIXES> 2
<MIXTURE> 1 4.078362e-01
<MEAN> 39
 -9.692554e+00 4.027957e+00 4.247813e+00 5.247960e+00 5.884962e+00 2.630223e+00 6.316455e+00 4.433566e-01 3.976482e+00 1.930637e+00 3.335528e+00 1.533080e+00 6.762240e+01 2.461079e-01 -5.142412e-03 4.815782e-02 -3.094359e-02 8.479494e-02 8.481520e-02 1.030253e-01 4.678217e-02 1.386874e-03 -3.504502e-02 -4.352691e-02 -7.143038e-02 -7.336326e-01 -8.280290e-03 -2.107237e-02 -4.136149e-02 -5.802257e-02 -6.024874e-02 -4.684280e-02 -4.528389e-02 -2.763879e-02 -1.954877e-02 -1.677608e-02 -1.684922e-02 -1.958983e-02 2.992441e-03
<VARIANCE> 39
 1.313092e+01 7.264567e+00 6.661342e+00 7.206489e+00 1.020650e+01 1.245157e+01 1.405939e+01 1.358246e+01 1.466505e+01 1.417631e+01 1.321928e+01 1.314748e+01 5.003658e+01 1.345275e-01 2.619447e-01 4.275265e-01 6.210247e-01 8.362764e-01 1.033816e+00 1.173100e+00 1.232507e+00 1.339220e+00 1.326434e+00 1.261515e+00 1.160970e+00 7.380828e-02 2.610495e-02 5.098974e-02 8.640639e-02 1.254027e-01 1.712669e-01 2.128941e-01 2.398951e-01 2.512307e-01 2.748717e-01 2.694684e-01 2.554450e-01 2.357169e-01 1.203318e-02
<GCONST> 7.141261e+01
<MIXTURE> 2 5.921445e-01
<MEAN> 39
 -1.456701e+01 -7.549317e-01 -2.232031e+00 -8.630670e-01 -1.405398e+00 -3.245293e+00 1.541097e-01 -2.978953e+00 1.512151e+00 2.654318e+00 3.559192e+00 1.939549e-02 6.808449e+01 3.132077e-01 5.482471e-03 1.233543e-01 1.567015e-01 4.764790e-01 1.628373e-01 4.537833e-02 -1.296368e-01 -1.174965e-01 -1.037085e-01 -4.002132e-02 -2.263630e-01 -7.105258e-01 6.669496e-03 4.613485e-03 1.038641e-02 -9.739970e-04 1.876100e-02 5.714855e-02 5.735885e-02 3.583487e-02 9.584016e-03 2.179864e-03 -2.097043e-02 -3.287130e-03 7.914411e-04
<VARIANCE> 39
 5.338894e+00 4.740823e+00 5.536639e+00 9.299503e+00 1.953158e+01 1.246134e+01 1.304754e+01 1.509583e+01 1.490640e+01 1.512459e+01 1.452342e+01 1.529861e+01 2.436759e+01 1.345940e-01 2.728834e-01 4.457294e-01 7.069303e-01 1.015392e+00 1.140387e+00 1.268563e+00 1.378377e+00 1.399044e+00 1.477364e+00 1.435840e+00 1.276144e+00 5.753590e-02 2.878463e-02 5.564427e-02 9.281510e-02 1.429082e-01 2.104532e-01 2.359068e-01 2.579618e-01 2.810829e-01 2.868747e-01 3.045334e-01 2.984377e-01 2.665898e-01 1.237289e-02
<GCONST> 7.261759e+01
<STATE> 4
<NUMMIXES> 2
<MIXTURE> 1 7.175667e-01
<MEAN> 39
 -9.291342e+00 1.095723e+00 2.015415e+00 1.242857e-01 3.190028e+00 1.269567e+00 3.501681e+00 1.228934e+00 2.467638e+00 -2.499586e-01 1.689722e+00 -6.612740e-01 5.390688e+01 1.202354e-01 5.136915e-02 8.470663e-02 6.663778e-02 1.085180e-01 1.272635e-01 7.661740e-02 9.976029e-02 3.441809e-02 3.647779e-02 9.374619e-03 8.516956e-03 -2.907235e-01 -1.996181e-02 -1.929981e-02 -3.272241e-02 -3.803807e-02 -4.305312e-02 -4.269712e-02 -3.967863e-02 -2.467571e-02 -1.243162e-02 -4.298579e-03 -7.795291e-03 -6.293529e-03 1.676275e-02
<VARIANCE> 39
 1.426807e+01 1.135680e+01 1.598888e+01 1.699775e+01 1.749785e+01 2.143437e+01 2.467747e+01 1.934770e+01 2.501888e+01 2.329543e+01 1.702340e+01 1.546657e+01 4.824701e+01 2.049990e-01 2.937421e-01 4.835391e-01 6.944693e-01 8.997357e-01 1.131154e+00 1.297503e+00 1.349469e+00 1.446242e+00 1.455618e+00 1.336655e+00 1.185648e+00 1.530683e-01 3.368244e-02 5.588406e-02 9.281153e-02 1.376001e-01 1.779401e-01 2.234688e-01 2.600311e-01 2.723869e-01 2.930885e-01 2.983039e-01 2.718975e-01 2.407795e-01 1.656106e-02
<GCONST> 8.051579e+01
<MIXTURE> 2 2.826972e-01
<MEAN> 39
 -1.083950e+01 -7.545330e-01 -9.443666e-01 -2.362652e+00 8.943697e-01 -1.254730e+00 1.696434e+00 -2.713681e-01 1.624043e+00 -2.738996e-01 1.327708e+00 -1.150662e+00 5.617443e+01 -2.428165e-01 -9.260961e-02 -1.470996e-01 -1.272089e-01 -2.530314e-01 -2.687597e-01 -1.196724e-01 -1.680542e-01 -4.229780e-02 -1.074472e-01 -5.052217e-02 1.083552e-02 6.280422e-01 4.526227e-02 4.998933e-02 8.369245e-02 1.009966e-01 1.077608e-01 1.042323e-01 9.423528e-02 5.752729e-02 3.190852e-02 1.557596e-02 2.599788e-02 2.020740e-02 -3.718025e-02
<VARIANCE> 39
 2.243849e+01 1.569112e+01 1.802218e+01 1.949172e+01 2.195649e+01 2.470856e+01 2.696054e+01 2.590589e+01 2.629828e+01 2.332722e+01 2.022950e+01 1.863648e+01 5.345115e+01 1.455119e+00 1.125495e+00 1.230808e+00 1.564306e+00 1.799287e+00 2.111047e+00 2.275881e+00 2.162087e+00 2.248905e+00 2.081535e+00 1.825613e+00 1.589462e+00 2.030391e+00 2.538964e-01 1.986422e-01 2.157610e-01 2.849968e-01 3.462911e-01 4.075251e-01 4.228803e-01 4.221188e-01 4.198829e-01 3.936756e-01 3.544275e-01 3.149939e-01 3.542192e-01
<GCONST> 1.054839e+02
<TRANSP> 5
 0.000000e+00 1.000000e+00 0.000000e+00 0.000000e+00 0.000000e+00
 0.000000e+00 9.411587e-01 5.884134e-02 0.000000e+00 0.000000e+00
 0.000000e+00 0.000000e+00 9.553548e-01 4.464515e-02 0.000000e+00
 0.000000e+00 0.000000e+00 0.000000e+00 9.928982e-01 7.101784e-03
 0.000000e+00 0.000000e+00 0.000000e+00 0.000000e+00 0.000000e+00
<ENDHMM>
~h "kj"
<BEGINHMM>
<NUMSTATES> 5
<STATE> 2
<NUMMIXES> 2
<MIXTURE> 1 6.548906e-01
<MEAN> 39
 -1.974981e+01 3.795295e+00 -3.842259e-01 -2.783893e+00 -1.109554e+00 3.638397e+00 2.294264e+00 4.091318e+00 1.750262e+00 -2.704946e-01 1.256888e+00 -9.358777e-01 5.539719e+01 2.500302e-01 7.886322e-02 -4.043493e-02 -7.215813e-04 7.357892e-02 9.470245e-02 1.037176e-01 1.016396e-01 4.984719e-02 5.733526e-02 4.204640e-02 -1.546166e-02 -2.234812e-01 -2.248704e-02 -1.046712e-02 -9.197606e-03 -3.304780e-04 -1.583915e-02 -1.799383e-02 -1.175124e-02 -9.797500e-03 -1.928908e-02 5.947594e-03 1.642551e-03 -1.526048e-03 1.758872e-02
<VARIANCE> 39
 3.110020e+01 2.090833e+01 1.466016e+01 2.646618e+01 1.601589e+01 3.106370e+01 2.818221e+01 2.012523e+01 1.929865e+01 2.027099e+01 1.650440e+01 1.625936e+01 2.111790e+01 3.044842e-01 3.257101e-01 5.260229e-01 7.575824e-01 9.664092e-01 1.193577e+00 1.360420e+00 1.418250e+00 1.429567e+00 1.473859e+00 1.377491e+00 1.232886e+00 1.362427e-01 5.910942e-02 6.298610e-02 1.032051e-01 1.548817e-01 1.965202e-01 2.436516e-01 2.768033e-01 2.898611e-01 2.949204e-01 3.051057e-01 2.843763e-01 2.528778e-01 2.434656e-02
<GCONST> 8.408121e+01
<MIXTURE> 2 3.451887e-01
<MEAN> 39
 -2.004141e+01 1.066000e+00 -1.534730e+00 -2.892183e+00 -1.963810e+00 2.195144e+00 1.601379e+00 2.628465e+00 6.537184e-01 1.662501e-01 1.147980e+00 -9.967048e-01 5.772617e+01 -5.507098e-01 -1.074747e-01 9.073136e-02 -7.967025e-03 -1.489788e-01 -1.665483e-01 -1.841595e-01 -1.965013e-01 -9.116137e-02 -1.099366e-01 -7.719661e-02 2.931390e-02 4.553326e-01 4.802821e-02 1.345276e-02 1.678821e-02 1.729320e-03 2.780436e-02 3.053648e-02 1.995384e-02 1.748848e-02 3.448652e-02 -8.634117e-03 -3.614083e-03 3.372082e-03 -3.258624e-02
<VARIANCE> 39
 3.662378e+01 3.127495e+01 2.582891e+01 2.668471e+01 1.919812e+01 3.797152e+01 3.066969e+01 2.613793e+01 2.228745e+01 2.152088e+01 1.796535e+01 1.659527e+01 2.816560e+01 9.432793e-01 1.055991e+00 1.231202e+00 1.257272e+00 1.499015e+00 1.838555e+00 1.933769e+00 1.946023e+00 1.908841e+00 1.816616e+00 1.650629e+00 1.486879e+00 6.574659e-01 2.006289e-01 1.920530e-01 2.218042e-01 2.333964e-01 2.811520e-01 3.512594e-01 3.736165e-01 3.831258e-01 3.685196e-01 3.560739e-01 3.243352e-01 2.907626e-01 1.398888e-01
<GCONST> 1.014021e+02
<STATE> 3
<NUMMIXES> 2
<MIXTURE> 1 7.365754e-01
<MEAN> 39
 -1.434811e+01 -8.716140e+00 -5.561457e+00 -2.090127e+00 -1.817273e+00 -4.566380e+00 -2.573880e+00 -2.886819e+00 -1.255729e+00 7.747750e-03 6.230897e-01 2.641753e-02 6.393120e+01 2.164980e-01 2.986450e-01 6.730129e-02 1.346156e-01 1.162288e-01 1.476028e-01 1.448732e-01 1.189490e-01 4.169464e-02 5.263425e-02 2.308398e-02 -4.534189e-03 -6.285970e-01 -2.666382e-02 1.266688e-02 4.058933e-02 -4.932337e-03 -2.735052e-03 2.277913e-02 2.228233e-02 3.743542e-02 5.903920e-03 4.247268e-03 -1.030587e-04 -9.697202e-03 2.231801e-03
<VARIANCE> 39
 1.767943e+01 2.591152e+01 1.196885e+01 1.355858e+01 1.683923e+01 1.688297e+01 2.099017e+01 2.034864e+01 1.922098e+01 1.649173e+01 1.532872e+01 1.327675e+01 6.825851e+01 2.216193e-01 3.519652e-01 5.368555e-01 7.293752e-01 9.380503e-01 1.156723e+00 1.344620e+00 1.418656e+00 1.470975e+00 1.391007e+00 1.300815e+00 1.181967e+00 1.619458e-01 4.064038e-02 7.155732e-02 1.093451e-01 1.465083e-01 1.917638e-01 2.378583e-01 2.780946e-01 2.903799e-01 3.065669e-01 2.883497e-01 2.694640e-01 2.427791e-01 3.331381e-02
<GCONST> 8.233038e+01
<MIXTURE> 2 2.634399e-01
<MEAN> 39
 -1.704272e+01 -8.250124e+00 -4.233822e+00 -3.015407e+00 -3.270833e+00 -3.151232e+00 -1.927718e+00 -1.145999e+00 -5.714959e-01 1.179134e-01 7.085117e-01 -5.752308e-01 6.581149e+01 -2.161908e-01 -1.296722e+00 -3.121359e-01 -2.525586e-01 -2.252437e-01 -6.691148e-01 -5.195296e-01 -5.068579e-01 -1.756137e-01 -1.198488e-01 -9.055898e-02 4.799452e-02 1.754699e+00 7.475822e-02 4.626799e-02 -6.043366e-02 1.974972e-02 3.535164e-02 2.382345e-03 1.815900e-02 -5.600907e-02 -5.976202e-04 -3.226400e-03 -3.756871e-03 3.271658e-03 -9.622226e-02
<VARIANCE> 39
 2.267475e+01 6.467669e+01 2.347656e+01 2.414491e+01 2.078191e+01 2.998683e+01 3.034265e+01 2.530825e+01 2.072121e+01 1.996545e+01 1.938427e+01 1.693514e+01 9.242110e+01 1.596629e+00 4.944363e+00 2.382090e+00 1.710160e+00 1.935761e+00 2.732247e+00 2.841230e+00 2.468574e+00 2.028871e+00 1.955500e+00 1.748725e+00 1.728284e+00 3.879487e+00 2.497422e-01 1.013807e+00 4.205158e-01 3.236557e-01 3.549789e-01 5.204631e-01 5.211673e-01 4.650370e-01 3.926787e-01 3.854958e-01 3.450654e-01 3.382407e-01 9.999401e-01
<GCONST> 1.151458e+02
<STATE> 4
<NUMMIXES> 2
<MIXTURE> 1 7.435650e-01
<MEAN> 39
 -2.307607e+01 1.936941e+00 3.028418e+00 1.680591e+00 -2.653578e+00 7.133120e-01 8.328821e+00 5.684859e-01 -2.467060e+00 5.480962e+00 5.185108e-01 -4.076323e+00 5.584711e+01 9.504454e-02 7.930842e-02 3.193597e-02 -2.825706e-02 2.526577e-02 4.457255e-02 2.714486e-02 2.657460e-02 2.474387e-02 -3.894068e-03 -6.544864e-03 -1.467117e-02 -1.158432e-01 -1.575103e-03 -1.352290e-02 -1.885168e-02 -1.485083e-02 -1.603278e-02 -2.818840e-02 -3.614283e-02 -7.247779e-03 -4.751277e-03 -1.539772e-02 1.676435e-03 1.413452e-02 6.735652e-03
<VARIANCE> 39
 2.404548e+01 1.171463e+01 1.038351e+01 1.550279e+01 1.540888e+01 1.666853e+01 2.255786e+01 1.816440e+01 1.980035e+01 2.009962e+01 1.696354e+01 1.405100e+01 1.765214e+01 3.713782e-01 4.648643e-01 5.717903e-01 8.452717e-01 1.068383e+00 1.231122e+00 1.539426e+00 1.476980e+00 1.545553e+00 1.666901e+00 1.426368e+00 1.259686e+00 2.174404e-01 6.718867e-02 8.958078e-02 1.084641e-01 1.651299e-01 2.086264e-01 2.430969e-01 2.977649e-01 2.963185e-01 3.154147e-01 3.367421e-01 2.867630e-01 2.532974e-01 3.718947e-02
<GCONST> 8.421181e+01
<MIXTURE> 2 2.565285e-01
<MEAN> 39
 -1.705914e+01 -3.830447e+00 -2.012325e+00 -1.229651e+00 -2.905444e+00 -3.370307e+00 1.995939e+00 -1.183452e+00 -2.017137e+00 2.490009e+00 5.628339e-01 -1.449029e+00 5.870531e+01 -1.691451e-01 -2.266535e-01 -6.803140e-02 6.392778e-02 -4.188316e-02 -1.213470e-01 -6.823881e-02 -4.024340e-02 -4.354170e-02 -1.611891e-02 1.244148e-02 4.857627e-02 2.419422e-01 1.341260e-02 3.564661e-02 4.763050e-02 3.747304e-02 4.945305e-02 8.095889e-02 9.302027e-02 2.021127e-02 1.618294e-02 3.634287e-02 -2.089848e-03 -3.638363e-02 -2.161827e-02
<VARIANCE> 39
 5.128214e+01 5.538453e+01 2.498154e+01 2.160013e+01 2.226452e+01 2.645265e+01 3.875137e+01 2.619988e+01 2.207779e+01 2.497437e+01 1.806938e+01 1.782087e+01 6.575555e+01 7.577666e-01 1.681291e+00 1.075182e+00 1.181109e+00 1.384127e+00 1.616590e+00 2.092749e+00 1.778970e+00 1.704888e+00 1.851116e+00 1.510526e+00 1.432651e+00 1.395774e+00 1.145828e-01 2.751807e-01 1.955029e-01 2.206362e-01 2.710793e-01 3.093916e-01 3.927732e-01 3.576895e-01 3.364124e-01 3.619923e-01 3.021010e-01 2.873167e-01 2.020204e-01
<GCONST> 1.031592e+02
<TRANSP> 5
 0.000000e+00 1.000000e+00 0.000000e+00 0.000000e+00 0.000000e+00
 0.000000e+00 9.940405e-01 5.959507e-03 0.000000e+00 0.000000e+00
 0.000000e+00 0.000000e+00 9.735841e-01 2.641595e-02 0.000000e+00
 0.000000e+00 0.000000e+00 0.000000e+00 9.908481e-01 9.151856e-03
 0.000000e+00 0.000000e+00 0.000000e+00 0.000000e+00 0.000000e+00
<ENDHMM>
~h "kn"
<BEGINHMM>
<NUMSTATES> 5
<STATE> 2
<NUMMIXES> 2
<MIXTURE> 1 3.652456e-01
<MEAN> 39
 3.187798e+00 -1.699449e+00 -6.878426e+00 -3.407476e+00 5.611178e-01 -2.925925e+00 -4.428068e-01 -2.524179e+00 1.811534e+00 -3.132879e-01 5.664951e-01 -7.397884e-01 6.184203e+01 2.204395e-01 6.717299e-02 -2.778271e-01 2.159071e-01 2.617354e-01 -1.742392e-01 4.663156e-01 -2.190315e-01 8.904095e-01 5.115683e-01 5.956308e-01 3.927391e-01 2.326170e+00 -2.793055e-01 3.159474e-01 3.484328e-01 1.178490e-01 1.272009e-01 3.760657e-01 2.184468e-01 2.347300e-01 -8.736320e-02 4.850289e-02 -3.311080e-03 9.210610e-03 -7.081947e-01
<VARIANCE> 39
 2.250798e+01 3.324722e+01 1.999822e+01 1.672582e+01 2.371265e+01 2.729259e+01 2.843637e+01 3.373315e+01 2.863620e+01 2.299036e+01 2.188142e+01 1.988211e+01 5.689328e+01 3.435241e+00 2.551876e+00 2.556018e+00 1.468323e+00 1.838204e+00 3.338592e+00 3.258909e+00 3.751132e+00 2.477431e+00 2.338883e+00 2.277513e+00 1.962752e+00 6.696983e+00 4.143066e-01 2.788093e-01 2.798504e-01 2.347445e-01 2.913347e-01 4.270307e-01 4.862647e-01 5.976890e-01 4.917939e-01 4.405896e-01 4.183105e-01 3.488368e-01 7.286693e-01
<GCONST> 1.150485e+02
<MIXTURE> 2 6.347509e-01
<MEAN> 39
 1.457288e-01 5.015448e+00 -4.517111e-01 -2.573965e+00 2.183601e+00 1.568347e+00 1.411272e+00 -2.729836e-01 -1.736089e-01 8.120912e-01 4.833248e-01 -9.522188e-01 5.236369e+01 2.946756e-02 -4.672278e-02 1.151180e-02 4.945732e-02 2.118174e-02 -3.152455e-02 -8.159456e-02 -9.444656e-02 -1.186104e-01 -1.027837e-01 -1.031782e-01 -6.688733e-02 -9.394670e-02 1.295594e-01 -1.049169e-01 -1.515208e-01 -3.401202e-02 -4.179816e-02 -1.171524e-01 -1.056184e-01 -7.241118e-02 4.624573e-03 -3.545094e-02 -1.211107e-03 2.562234e-03 1.358636e-01
<VARIANCE> 39
 2.969854e+01 1.779835e+01 1.817984e+01 1.105484e+01 2.167610e+01 1.971063e+01 2.743286e+01 3.362524e+01 2.157288e+01 2.022967e+01 2.194728e+01 1.569722e+01 6.988760e+01 7.348295e-01 5.949416e-01 1.002251e+00 8.527274e-01 1.101082e+00 1.483833e+00 1.627792e+00 2.033880e+00 1.520483e+00 1.624408e+00 1.523292e+00 1.312086e+00 1.041803e+00 1.288211e-01 1.036946e-01 1.606583e-01 1.592525e-01 2.121342e-01 2.716916e-01 3.141572e-01 3.604919e-01 3.217630e-01 3.213218e-01 3.025260e-01 2.567424e-01 2.591574e-01
<GCONST> 9.545583e+01
<STATE> 3
<NUMMIXES> 2
<MIXTURE> 1 7.141171e-01
<MEAN> 39
 5.504607e+00 -1.231237e+00 -4.235290e+00 2.394548e-01 3.841801e+00 -5.808252e-01 1.739129e+00 -1.487344e+00 1.766421e+00 7.120844e-01 1.518992e+00 3.458343e-01 6.054115e+01 5.871748e-02 2.712272e-01 2.637777e-01 2.683463e-01 2.595102e-01 3.294288e-01 9.146241e-02 1.615791e-01 -1.180346e-01 6.987636e-02 1.456570e-02 3.104435e-02 -7.342296e-01 6.748517e-03 -4.569517e-02 1.330253e-03 -2.457596e-02 -2.147139e-02 -3.443336e-02 -5.094327e-02 -3.299358e-02 -5.478415e-02 -6.438552e-02 -5.699123e-02 -5.331619e-02 -2.267510e-02
<VARIANCE> 39
 1.162538e+01 2.132689e+01 1.433424e+01 1.435652e+01 1.903851e+01 2.239908e+01 2.096324e+01 1.927253e+01 1.996292e+01 1.867717e+01 1.619031e+01 1.547986e+01 2.607125e+01 2.170791e-01 3.411590e-01 4.732541e-01 7.159106e-01 9.315638e-01 1.105399e+00 1.320648e+00 1.453124e+00 1.446804e+00 1.440785e+00 1.322282e+00 1.225676e+00 8.209065e-02 4.318684e-02 8.460790e-02 1.127291e-01 1.664239e-01 2.088924e-01 2.506950e-01 2.935892e-01 3.100776e-01 3.152343e-01 3.057302e-01 2.811358e-01 2.572942e-01 1.086904e-01
<GCONST> 8.287441e+01
<MIXTURE> 2 2.859160e-01
<MEAN> 39
 5.545877e+00 -2.313125e+00 -4.094861e+00 -2.915440e-01 3.278569e+00 -1.342354e+00 7.642034e-01 -2.039343e+00 7.572531e-01 -5.025819e-01 4.630702e-01 -6.980922e-01 6.027221e+01 1.448959e-02 -6.669143e-01 -5.326961e-01 -5.056632e-01 -5.358871e-01 -7.306636e-01 -1.634159e-01 -3.410627e-01 1.816115e-01 -1.755401e-01 -4.566275e-02 -5.947770e-02 1.502348e+00 -1.772889e-02 9.676865e-02 -3.926586e-03 4.881550e-02 4.350563e-02 7.548359e-02 1.037743e-01 7.390545e-02 9.862046e-02 1.345594e-01 1.160191e-01 1.078549e-01 2.265001e-02
<VARIANCE> 39
 1.205309e+01 2.916665e+01 1.829904e+01 1.769056e+01 2.357096e+01 3.103136e+01 2.584354e+01 2.647915e+01 2.333121e+01 2.250325e+01 1.865896e+01 1.753860e+01 4.355065e+01 8.687505e-01 1.678981e+00 1.204029e+00 1.356259e+00 1.693179e+00 2.183052e+00 2.281819e+00 2.423771e+00 2.207091e+00 2.145927e+00 2.034327e+00 1.717028e+00 2.713585e+00 1.441575e-01 3.769075e-01 2.592882e-01 2.899871e-01 3.505890e-01 5.113264e-01 4.191022e-01 5.015723e-01 4.123899e-01 4.107642e-01 3.803349e-01 3.290938e-01 8.383800e-01
<GCONST> 1.071520e+02
<STATE> 4
<NUMMIXES> 2
<MIXTURE> 1 5.210604e-01
<MEAN> 39
 5.255598e+00 4.985102e-02 -2.356412e+00 1.783749e+00 5.481789e+00 1.602448e+00 2.742982e+00 -4.292734e-01 -1.426576e-01 2.951095e-01 1.162750e+00 -5.965124e-02 5.501510e+01 -9.363268e-02 2.677014e-01 2.932265e-01 1.376348e-01 1.961529e-01 3.928261e-01 6.259143e-02 3.097659e-01 1.874640e-02 1.262161e-01 6.278323e-02 -3.343327e-02 -6.103933e-01 -1.148357e-02 2.404488e-02 4.123126e-02 1.188912e-02 1.802719e-02 4.507909e-02 4.885447e-02 7.454827e-02 7.620699e-02 4.051280e-02 1.733629e-02 -4.954477e-03 3.369024e-02
<VARIANCE> 39
 6.819451e+00 1.215860e+01 1.139651e+01 1.268655e+01 2.200628e+01 2.247080e+01 2.476700e+01 2.044445e+01 2.335043e+01 2.169880e+01 1.850287e+01 1.694473e+01 2.099611e+01 1.380109e-01 2.550624e-01 4.235613e-01 5.761978e-01 8.008355e-01 9.776946e-01 1.184245e+00 1.273463e+00 1.347473e+00 1.368564e+00 1.282822e+00 1.184096e+00 6.168827e-02 1.779651e-02 4.144952e-02 8.287638e-02 1.239914e-01 1.719333e-01 2.058380e-01 2.442108e-01 2.591343e-01 2.791205e-01 2.819947e-01 2.648910e-01 2.433272e-01 5.240567e-03
<GCONST> 7.374671e+01
<MIXTURE> 2 4.789266e-01
<MEAN> 39
 1.538640e+00 3.593881e+00 1.284242e+00 6.876484e-02 4.302231e+00 3.648735e+00 1.448054e+00 2.104163e+00 -3.702102e-01 -2.522196e-02 -1.710709e-01 -1.711052e+00 4.967814e+01 -2.835495e-01 2.973036e-03 8.961508e-02 -1.631293e-01 -2.173306e-01 -3.676502e-02 -1.108268e-01 -1.251764e-02 -1.599343e-01 -1.661806e-01 -1.378516e-01 -9.441574e-02 -2.918159e-01 -3.166430e-03 -4.400117e-02 -6.078430e-02 -3.990086e-02 -5.226427e-02 -7.247569e-02 -5.468266e-02 -8.637393e-02 -5.190553e-02 -3.007215e-02 9.137969e-04 1.448571e-02 2.017492e-02
<VARIANCE> 39
 2.243805e+01 1.566467e+01 1.459832e+01 1.375903e+01 2.268670e+01 1.890223e+01 2.342221e+01 1.866718e+01 2.051558e+01 2.047263e+01 1.591722e+01 1.507472e+01 2.570121e+01 1.602537e-01 2.939751e-01 4.656913e-01 6.647716e-01 8.922848e-01 1.054309e+00 1.280691e+00 1.331808e+00 1.382277e+00 1.483521e+00 1.405009e+00 1.262229e+00 1.022756e-01 2.433156e-02 4.849782e-02 7.999443e-02 1.268212e-01 1.701141e-01 2.030444e-01 2.441688e-01 2.534254e-01 2.607116e-01 2.919554e-01 2.695489e-01 2.415232e-01 9.184735e-03
<GCONST> 7.752808e+01
<TRANSP> 5
 0.000000e+00 1.000000e+00 0.000000e+00 0.000000e+00 0.000000e+00
 0.000000e+00 9.255181e-01 7.448190e-02 0.000000e+00 0.000000e+00
 0.000000e+00 0.000000e+00 9.840057e-01 1.599424e-02 0.000000e+00
 0.000000e+00 0.000000e+00 0.000000e+00 9.536666e-01 4.633344e-02
 0.000000e+00 0.000000e+00 0.000000e+00 0.000000e+00 0.000000e+00
<ENDHMM>
~h "kt"
<BEGINHMM>
<NUMSTATES> 5
<STATE> 2
<NUMMIXES> 2
<MIXTURE> 1 4.940689e-01
<MEAN> 39
 -1.373306e+01 -3.513322e-01 -7.451108e+00 -2.855363e+00 -8.116906e-01 -1.180158e+00 4.096338e+00 1.945497e+00 2.639933e+00 6.091894e-01 9.845596e-01 -8.346162e-01 5.826507e+01 3.362594e-01 -2.560605e-02 1.835188e-01 1.996264e-01 2.916915e-01 3.027672e-01 3.441760e-01 1.971079e-01 1.707293e-01 1.197872e-01 1.550857e-01 5.344309e-02 -2.479287e-01 1.911764e-01 1.369002e-02 1.975437e-02 4.157744e-02 1.472995e-01 2.242063e-01 2.063907e-01 5.176102e-02 -3.979500e-02 2.561793e-03 5.226580e-03 -2.541430e-02 -2.265630e-01
<VARIANCE> 39
 1.535764e+01 7.644058e+00 9.031941e+00 1.325660e+01 1.417767e+01 1.572449e+01 1.789177e+01 1.787996e+01 1.941190e+01 1.677065e+01 1.653474e+01 1.471099e+01 2.366887e+01 6.008009e-01 3.883758e-01 5.790262e-01 8.292302e-01 1.102041e+00 1.368180e+00 1.500921e+00 1.478556e+00 1.590029e+00 1.549970e+00 1.434580e+00 1.266249e+00 9.451251e-01 1.921427e-01 9.037252e-02 1.353113e-01 1.945517e-01 2.416410e-01 2.795412e-01 3.145746e-01 3.252164e-01 3.536521e-01 3.467989e-01 3.205198e-01 2.733572e-01 2.266907e-01
<GCONST> 8.862531e+01
<MIXTURE> 2 5.059094e-01
<MEAN> 39
 -1.008919e+01 -1.079484e-01 -7.262387e+00 -2.397620e+00 1.046636e+00 2.694002e+00 6.908268e+00 2.644670e+00 1.646669e+00 5.509990e-01 1.036726e+00 -1.575576e+00 5.383117e+01 -3.442591e-01 3.349951e-02 -1.864695e-01 -1.845532e-01 -2.851469e-01 -3.068512e-01 -3.396241e-01 -1.958758e-01 -1.681287e-01 -1.231988e-01 -1.507973e-01 -5.534393e-02 2.680728e-01 -1.883577e-01 -1.240266e-02 -1.665975e-02 -3.927213e-02 -1.431187e-01 -2.224751e-01 -2.035167e-01 -5.126675e-02 3.792302e-02 -3.132003e-03 -5.950740e-03 2.550508e-02 2.224976e-01
<VARIANCE> 39
 1.353033e+01 7.628573e+00 7.585989e+00 9.711992e+00 1.065715e+01 1.405987e+01 1.387756e+01 1.463587e+01 1.527469e+01 1.392392e+01 1.369985e+01 1.272181e+01 1.224007e+01 1.483197e+00 5.832198e-01 6.903323e-01 9.773278e-01 1.178622e+00 1.543984e+00 1.560913e+00 1.599033e+00 1.715274e+00 1.612496e+00 1.528583e+00 1.358279e+00 1.571735e+00 1.842701e-01 9.909945e-02 1.303673e-01 1.765910e-01 2.133843e-01 2.535924e-01 2.760354e-01 3.117050e-01 3.256561e-01 3.128281e-01 2.931672e-01 2.588884e-01 1.610368e-01
<GCONST> 8.730479e+01
<STATE> 3
<NUMMIXES> 2
<MIXTURE> 1 6.377426e-01
<MEAN> 39
 -1.229292e+01 1.583043e+00 -4.117801e+00 -1.688439e-01 7.724805e-01 -1.805127e+00 2.890090e+00 1.471352e+00 1.712289e+00 -9.406675e-01 -5.449382e-02 -1.374847e+00 5.384471e+01 4.737884e-01 3.043187e-02 1.133080e-01 2.888988e-02 1.868293e-01 1.642624e-01 2.090575e-01 5.824276e-02 3.299364e-02 6.600732e-02 7.245436e-02 5.182045e-02 -7.184061e-01 -6.121710e-02 3.853584e-02 -3.668739e-02 2.436982e-03 -4.741234e-02 -1.262359e-02 -3.168970e-02 4.098543e-02 -1.916732e-02 8.267560e-03 -2.192100e-03 -6.308855e-03 1.378858e-02
<VARIANCE> 39
 6.662359e+00 7.513383e+00 9.352989e+00 1.165253e+01 1.333333e+01 1.453113e+01 1.710453e+01 1.655073e+01 1.776528e+01 1.716991e+01 1.573436e+01 1.354223e+01 1.843430e+01 1.986753e-01 3.010715e-01 5.105998e-01 7.320817e-01 9.593827e-01 1.135312e+00 1.270875e+00 1.355657e+00 1.433669e+00 1.434486e+00 1.340642e+00 1.195194e+00 1.471227e-01 8.127922e-02 7.072863e-02 1.153765e-01 1.622818e-01 2.167610e-01 2.484795e-01 2.831284e-01 2.938942e-01 3.145334e-01 3.146234e-01 2.903444e-01 2.574404e-01 1.278286e-01
<GCONST> 7.978685e+01
<MIXTURE> 2 3.622824e-01
<MEAN> 39
 -1.340827e+01 2.082079e+00 -4.573484e+00 -1.757047e-01 -1.189741e-01 -2.011942e+00 2.191547e+00 2.165963e+00 1.514886e+00 -9.107887e-01 -2.007643e-01 -1.633942e+00 5.436251e+01 -8.074916e-01 -3.588448e-02 -2.065639e-01 -3.493046e-02 -2.924618e-01 -2.927141e-01 -3.396446e-01 -1.226960e-01 -5.717336e-02 -1.314284e-01 -1.315801e-01 -9.602844e-02 1.226532e+00 1.351683e-01 -6.964120e-02 6.981725e-02 -9.962325e-03 8.983418e-02 4.463160e-02 6.979896e-02 -6.013218e-02 3.988837e-02 -2.625964e-03 9.836914e-03 1.260607e-02 -6.398507e-02
<VARIANCE> 39
 1.424364e+01 1.106944e+01 1.309997e+01 1.599999e+01 1.741283e+01 1.890338e+01 2.099039e+01 2.005396e+01 2.112776e+01 1.948394e+01 1.832679e+01 1.543732e+01 3.040521e+01 1.132380e+00 8.428128e-01 1.099152e+00 1.416642e+00 1.783312e+00 1.849536e+00 2.019754e+00 2.057779e+00 2.193942e+00 2.091856e+00 1.898357e+00 1.635684e+00 1.601339e+00 3.291531e-01 1.370805e-01 2.044702e-01 2.564608e-01 3.357096e-01 3.638875e-01 3.984433e-01 3.844157e-01 4.028380e-01 3.947842e-01 3.619279e-01 3.154717e-01 5.749239e-01
<GCONST> 1.005564e+02
<STATE> 4
<NUMMIXES> 2
<MIXTURE> 1 6.804963e-01
<MEAN> 39
 -9.586772e+00 2.790854e+00 -2.724831e+00 -7.340634e-01 6.851382e-01 4.475325e-01 3.414785e+00 3.056072e+00 2.325935e+00 -1.387639e-01 1.897459e-01 -1.750070e+00 4.861332e+01 3.248456e-01 -6.769240e-02 1.799090e-01 -1.097779e-02 8.062661e-02 1.610740e-01 1.191559e-01 1.222708e-01 3.611880e-02 7.566696e-02 3.553812e-02 2.243798e-02 -3.554160e-01 -5.194487e-02 2.097268e-02 -2.861324e-02 1.008251e-02 -3.338573e-02 -1.033988e-02 -3.744665e-02 9.318652e-03 -1.469875e-02 3.139828e-03 -3.169840e-04 -7.152359e-03 3.947173e-02
<VARIANCE> 39
 9.026233e+00 8.042320e+00 1.161535e+01 1.153314e+01 1.600804e+01 1.589109e+01 1.923693e+01 1.663604e+01 1.657444e+01 1.657920e+01 1.414248e+01 1.225552e+01 1.059136e+01 2.396256e-01 3.225050e-01 4.867532e-01 6.912677e-01 9.169194e-01 1.078198e+00 1.256600e+00 1.329357e+00 1.396374e+00 1.394717e+00 1.294589e+00 1.144949e+00 1.476415e-01 6.019763e-02 6.735221e-02 1.049005e-01 1.431735e-01 1.880547e-01 2.239629e-01 2.585687e-01 2.751949e-01 2.885871e-01 2.879102e-01 2.659472e-01 2.346754e-01 3.450565e-02
<GCONST> 7.715229e+01
<MIXTURE> 2 3.195990e-01
<MEAN> 39
 -1.121440e+01 3.164269e+00 -3.538289e+00 -4.172511e-01 -1.354303e-01 -1.916105e-01 2.580560e+00 3.044720e+00 2.142906e+00 -2.010391e-01 2.002064e-01 -1.973327e+00 5.019923e+01 -6.378648e-01 1.255350e-01 -3.565316e-01 -5.872507e-03 -1.696964e-01 -3.129860e-01 -2.430759e-01 -2.411396e-01 -7.662451e-02 -1.460802e-01 -6.869929e-02 -4.654275e-02 6.971332e-01 1.054998e-01 -4.732113e-02 5.882185e-02 -2.076106e-02 6.821315e-02 1.460251e-02 7.097882e-02 -2.565533e-02 2.894093e-02 -8.429708e-03 2.886807e-04 1.655556e-02 -7.625166e-02
<VARIANCE> 39
 1.500500e+01 1.279494e+01 1.419608e+01 1.571909e+01 1.913046e+01 1.988148e+01 2.180321e+01 2.012075e+01 2.020119e+01 1.918775e+01 1.651406e+01 1.465080e+01 1.960604e+01 1.162858e+00 8.631415e-01 9.316316e-01 1.244011e+00 1.501318e+00 1.593442e+00 1.732192e+00 1.765468e+00 1.818274e+00 1.759653e+00 1.583659e+00 1.437583e+00 1.280458e+00 2.951036e-01 1.564367e-01 1.994328e-01 2.399676e-01 2.883601e-01 3.292719e-01 3.499334e-01 3.607427e-01 3.633899e-01 3.570144e-01 3.171737e-01 2.890341e-01 3.462099e-01
<GCONST> 9.713454e+01
<TRANSP> 5
 0.000000e+00 1.000000e+00 0.000000e+00 0.000000e+00 0.000000e+00
 0.000000e+00 9.899528e-01 1.004721e-02 0.000000e+00 0.000000e+00
 0.000000e+00 0.000000e+00 9.891842e-01 1.081581e-02 0.000000e+00
 0.000000e+00 0.000000e+00 0.000000e+00 9.927458e-01 7.254194e-03
 0.000000e+00 0.000000e+00 0.000000e+00 0.000000e+00 0.000000e+00
<ENDHMM>
~h "pr"
<BEGINHMM>
<NUMSTATES> 5
<STATE> 2
<NUMMIXES> 2
<MIXTURE> 1 7.649443e-01
<MEAN> 39
 -1.422795e+01 -9.834337e+00 -7.126368e-01 -6.745994e+00 1.428114e+00 3.801570e+00 6.095422e+00 1.674445e+00 1.887941e-02 -1.255155e+00 3.417711e+00 -6.480560e-01 5.843886e+01 1.729872e-01 1.106970e-01 3.129044e-02 4.163970e-02 -2.067062e-02 2.981028e-02 1.394839e-02 4.362831e-02 2.584376e-02 1.228959e-02 -1.199489e-02 -2.106297e-02 -2.106896e-01 -1.278147e-03 7.412364e-04 7.452929e-03 1.900824e-03 1.811252e-03 9.871204e-04 -8.758682e-03 1.604128e-02 9.563388e-03 6.862109e-03 -8.911601e-03 -1.137484e-02 -2.485281e-05
<VARIANCE> 39
 2.687799e+01 4.031646e+01 4.680514e+01 4.059171e+01 7.391184e+01 7.604614e+01 6.793378e+01 6.198298e+01 6.580973e+01 4.747676e+01 6.602330e+01 5.301329e+01 2.486023e+01 1.932968e-01 3.858048e-01 5.853019e-01 8.387053e-01 1.060386e+00 1.329432e+00 1.485815e+00 1.624459e+00 1.710907e+00 1.587246e+00 1.537971e+00 1.350214e+00 9.611572e-02 3.424294e-02 6.880405e-02 1.135480e-01 1.638631e-01 2.092490e-01 2.651819e-01 3.007178e-01 3.226740e-01 3.486640e-01 3.245934e-01 3.176925e-01 2.752694e-01 1.728963e-02
<GCONST> 9.598741e+01
<MIXTURE> 2 2.352366e-01
<MEAN> 39
 -1.538775e+01 -9.156885e+00 -8.514057e-01 -7.290647e+00 3.267797e+00 4.690149e+00 4.061805e+00 1.131793e+00 2.511358e-01 -1.991733e+00 3.505321e+00 2.408390e-02 5.903405e+01 -6.231698e-01 -3.802641e-01 -6.513003e-02 -1.656503e-01 6.254566e-02 -5.769297e-02 2.078287e-03 -1.750183e-01 -4.437882e-02 -6.695939e-02 1.410362e-02 1.626116e-01 7.396735e-01 4.099625e-02 1.011325e-02 -2.545949e-02 6.224511e-03 -2.004645e-02 -7.485149e-03 1.825106e-02 -3.872534e-02 -2.328805e-02 -1.529495e-02 2.095655e-02 2.534196e-02 -3.357553e-02
<VARIANCE> 39
 2.958095e+01 4.361512e+01 5.357548e+01 4.155474e+01 7.080604e+01 8.114313e+01 6.824676e+01 6.108733e+01 5.701598e+01 4.083144e+01 5.617827e+01 5.460554e+01 2.445245e+01 1.396330e+00 1.397129e+00 1.923904e+00 2.336463e+00 2.558899e+00 3.113712e+00 3.193874e+00 3.701393e+00 3.520302e+00 3.085323e+00 3.452285e+00 3.113230e+00 8.838332e-01 2.554236e-01 2.321379e-01 2.816320e-01 3.541688e-01 4.013459e-01 4.770310e-01 5.283620e-01 5.559989e-01 5.584766e-01 4.901895e-01 5.364824e-01 4.786421e-01 2.031821e-01
<GCONST> 1.216135e+02
<STATE> 3
<NUMMIXES> 2
<MIXTURE> 1 5.941705e-01
<MEAN> 39
 -2.201493e+01 5.109098e+00 1.644510e+01 -1.448411e+01 4.206136e-01 1.522907e+01 -5.203311e+00 -5.498362e+00 1.506839e+01 -7.501774e+00 -6.586213e+00 8.341958e+00 5.509143e+01 2.890377e-02 -2.083945e-02 2.525564e-02 -3.182814e-02 2.789795e-02 1.497450e-02 3.378406e-03 2.474084e-02 6.204701e-02 2.121462e-02 -3.521606e-02 2.739211e-02 -4.617342e-02 1.890995e-04 -6.220361e-03 -9.138286e-03 -1.195621e-03 2.783209e-02 -2.179459e-02 8.488059e-03 3.941467e-02 -2.683619e-02 1.835297e-02 1.355408e-02 -6.226276e-03 4.248722e-03
<VARIANCE> 39
 7.476713e+00 1.010735e+01 9.057413e+00 1.286515e+01 1.588855e+01 1.832271e+01 1.542585e+01 1.814786e+01 2.063390e+01 1.927101e+01 2.232482e+01 1.358869e+01 5.364051e+00 8.209538e-01 4.974967e-01 5.496116e-01 7.980303e-01 1.382654e+00 1.353573e+00 1.161404e+00 1.484778e+00 1.680502e+00 1.736348e+00 2.071278e+00 1.049957e+00 3.115182e-01 2.081917e-01 1.062039e-01 1.118518e-01 1.682649e-01 2.912109e-01 2.853827e-01 2.390233e-01 3.077135e-01 3.562151e-01 3.285481e-01 3.920434e-01 2.115294e-01 7.874034e-02
<GCONST> 8.552386e+01
<MIXTURE> 2 4.058958e-01
<MEAN> 39
 -1.493710e+01 -6.041800e-01 1.720698e+01 -1.953513e+01 6.103851e+00 1.055338e+01 -5.484325e+00 2.152595e+00 7.945930e+00 1.375400e+00 -1.224307e+01 1.071450e+01 4.956006e+01 1.387285e-01 -3.079948e-02 -1.025320e-01 8.971865e-02 9.399205e-04 -1.289427e-01 -2.272937e-02 6.814040e-02 -1.654601e-01 4.662240e-02 1.317120e-02 -6.641054e-02 -7.224293e-02 3.161989e-04 1.160519e-02 -2.193275e-03 6.334190e-03 -3.210751e-02 1.205152e-02 -9.762529e-03 -3.985775e-02 1.690015e-02 -3.197335e-02 -8.852407e-04 -5.773394e-03 -7.938568e-03
<VARIANCE> 39
 1.617922e+01 1.152250e+01 2.685497e+01 3.877922e+01 2.104204e+01 2.445068e+01 1.984332e+01 2.598196e+01 3.171244e+01 2.856019e+01 3.328110e+01 2.247933e+01 1.498265e+01 1.941972e-01 4.037046e-01 5.338348e-01 9.004152e-01 9.702005e-01 1.147066e+00 1.161062e+00 1.334423e+00 1.469979e+00 1.400494e+00 1.314158e+00 1.137087e+00 1.055973e-01 3.487091e-02 6.899969e-02 9.596553e-02 1.612574e-01 1.880045e-01 2.193054e-01 2.281547e-01 2.639795e-01 2.895611e-01 2.721366e-01 2.501411e-01 2.209161e-01 1.753154e-02
<GCONST> 8.294035e+01
<STATE> 4
<NUMMIXES> 2
<MIXTURE> 1 3.538825e-01
<MEAN> 39
 -1.804091e+01 -1.469173e+00 1.004970e+01 -1.127216e+01 4.879079e+00 4.338424e+00 -2.845292e+00 2.341854e+00 8.166112e+00 -3.954094e+00 -6.462931e+00 8.089233e+00 5.355898e+01 8.001795e-03 1.912486e-03 4.767021e-02 1.773284e-02 3.382801e-02 8.380863e-02 7.072603e-02 2.265041e-02 7.107741e-02 7.385527e-02 1.819365e-02 1.210967e-02 3.754608e-02 1.621487e-02 2.012629e-02 2.694018e-02 4.294068e-02 5.352866e-02 3.706377e-02 7.629218e-02 7.091574e-02 3.173486e-02 4.896250e-02 2.793902e-02 1.200731e-02 -4.525741e-03
<VARIANCE> 39
 3.205237e+01 4.637662e+01 4.799939e+01 5.790591e+01 4.023437e+01 1.533719e+02 2.465875e+01 6.659588e+01 7.214556e+01 3.879249e+01 4.356096e+01 3.447612e+01 2.737003e+01 7.487355e-01 5.090708e-01 8.594729e-01 1.169941e+00 1.414118e+00 1.635010e+00 1.522586e+00 1.828031e+00 1.865058e+00 1.911576e+00 1.909837e+00 1.487990e+00 3.662751e-01 1.444212e-01 9.812921e-02 1.563419e-01 2.193998e-01 2.786203e-01 3.220311e-01 2.995960e-01 3.524933e-01 3.729857e-01 3.706025e-01 3.638197e-01 2.795333e-01 6.587493e-02
<GCONST> 1.045449e+02
<MIXTURE> 2 6.461293e-01
<MEAN> 39
 -1.252016e+01 -4.316382e+00 2.258988e+00 -4.475591e+00 4.635400e+00 -3.381248e+00 3.571870e+00 8.426145e+00 1.782653e+00 -1.381465e+00 -2.815180e+00 3.135367e+00 5.265692e+01 4.065661e-02 4.026089e-02 -5.858613e-02 1.552103e-02 -4.077230e-02 -5.303595e-02 -2.453011e-02 -1.463572e-02 -4.308033e-02 -3.024397e-02 2.664324e-03 -3.135477e-02 -6.839483e-02 -9.908611e-03 -1.101045e-02 -1.302586e-02 -2.509009e-02 -2.847745e-02 -1.612696e-02 -4.115776e-02 -3.949583e-02 -1.700843e-02 -2.478945e-02 -1.520880e-02 -6.712913e-03 3.013440e-03
<VARIANCE> 39
 4.338797e+01 4.598280e+01 3.442966e+01 3.652767e+01 7.827991e+01 6.654752e+01 5.857409e+01 4.214837e+01 2.581407e+01 3.709330e+01 4.275364e+01 6.256913e+01 5.642582e+01 1.332290e-01 2.874165e-01 4.801735e-01 7.136781e-01 9.265749e-01 1.228161e+00 1.322339e+00 1.347414e+00 1.434892e+00 1.478565e+00 1.256157e+00 1.138680e+00 5.380314e-02 2.294048e-02 5.070801e-02 8.890620e-02 1.308974e-01 1.784842e-01 2.333009e-01 2.585123e-01 2.552362e-01 2.729222e-01 2.899720e-01 2.468463e-01 2.242998e-01 7.950866e-03
<GCONST> 8.876054e+01
<TRANSP> 5
 0.000000e+00 1.000000e+00 0.000000e+00 0.000000e+00 0.000000e+00
 0.000000e+00 9.933171e-01 6.682890e-03 0.000000e+00 0.000000e+00
 0.000000e+00 0.000000e+00 9.851646e-01 1.483545e-02 0.000000e+00
 0.000000e+00 0.000000e+00 0.000000e+00 9.934630e-01 6.536981e-03
 0.000000e+00 0.000000e+00 0.000000e+00 0.000000e+00 0.000000e+00
<ENDHMM>
~h "pw"
<BEGINHMM>
<NUMSTATES> 5
<STATE> 2
<NUMMIXES> 2
<MIXTURE> 1 6.994514e-01
<MEAN> 39
 -1.257226e+01 -1.994334e+00 -1.069328e+00 -1.210195e+00 1.717080e+00 -5.612851e-01 2.756964e+00 1.406806e+00 1.073788e+00 9.894922e-01 5.475472e-01 -5.605574e-01 5.259718e+01 1.127519e-01 2.092764e-01 4.032694e-02 2.186915e-02 3.289933e-02 8.246095e-02 8.061594e-02 1.148334e-01 3.973706e-02 3.026105e-02 3.579821e-03 -2.458158e-03 -2.531095e-01 -2.682856e-02 -1.662631e-02 -9.885673e-03 -1.472179e-02 -2.769436e-02 -3.163183e-02 -3.412022e-02 -2.493994e-02 -2.384231e-02 -1.109898e-02 -3.911234e-03 -3.267578e-03 2.859365e-02
<VARIANCE> 39
 1.535842e+01 2.196851e+01 1.118277e+01 1.147268e+01 1.353911e+01 1.568033e+01 1.841091e+01 1.878247e+01 1.724795e+01 1.484126e+01 1.382089e+01 1.252237e+01 2.282622e+01 2.968995e-01 4.125549e-01 5.198485e-01 7.270003e-01 9.405088e-01 1.117731e+00 1.274408e+00 1.367322e+00 1.401988e+00 1.363568e+00 1.290499e+00 1.154143e+00 1.941239e-01 4.692145e-02 7.624341e-02 1.013142e-01 1.429138e-01 1.862300e-01 2.235798e-01 2.577005e-01 2.754000e-01 2.860959e-01 2.782604e-01 2.629544e-01 2.363522e-01 2.540776e-02
<GCONST> 7.964911e+01
<MIXTURE> 2 3.007344e-01
<MEAN> 39
 -1.437867e+01 -5.488615e+00 -2.302019e+00 -2.092853e+00 5.039760e-01 -2.690539e+00 1.009226e+00 -7.019706e-01 -2.167245e-02 3.355557e-01 4.827617e-01 -5.474799e-01 5.778549e+01 -2.728612e-01 -5.032698e-01 -8.814073e-02 -5.228471e-02 -7.922088e-02 -2.078310e-01 -1.924067e-01 -2.766202e-01 -9.932227e-02 -6.883395e-02 -1.053423e-02 1.017703e-02 6.126403e-01 6.127695e-02 3.415084e-02 2.177966e-02 3.209760e-02 6.042115e-02 6.869561e-02 7.421219e-02 5.466071e-02 5.333749e-02 2.497471e-02 9.769632e-03 7.365226e-03 -5.603411e-02
<VARIANCE> 39
 2.318784e+01 3.251247e+01 1.651441e+01 1.661040e+01 1.906305e+01 2.642701e+01 2.480418e+01 2.766540e+01 2.138060e+01 1.878848e+01 1.724460e+01 1.476966e+01 5.051474e+01 1.073965e+00 1.538418e+00 1.101985e+00 1.232764e+00 1.526538e+00 1.777235e+00 1.870904e+00 1.949234e+00 1.847900e+00 1.708953e+00 1.586807e+00 1.414583e+00 2.114108e+00 1.933151e-01 2.949375e-01 2.027619e-01 2.376633e-01 2.977971e-01 3.525269e-01 3.716601e-01 3.963965e-01 3.723195e-01 3.514726e-01 3.261272e-01 2.871206e-01 3.924278e-01
<GCONST> 1.025322e+02
<STATE> 3
<NUMMIXES> 2
<MIXTURE> 1 7.653036e-01
<MEAN> 39
 -1.000138e+01 -7.739231e+00 -4.386843e+00 -3.003922e+00 -4.001668e-02 -5.922083e+00 -2.150143e+00 -5.076555e+00 -2.992498e+00 -1.395430e+00 -3.144897e-01 -2.357268e-01 6.193781e+01 1.394125e-01 2.587627e-01 8.465531e-02 1.191291e-01 1.502280e-01 1.958471e-01 1.405256e-01 1.597088e-01 2.767643e-02 4.789755e-02 1.861633e-02 3.806139e-02 -7.546294e-01 -2.676230e-02 1.570825e-02 2.090201e-02 1.211617e-03 -8.369379e-03 1.833643e-02 1.030362e-02 2.831306e-02 1.019748e-02 7.810079e-03 2.081453e-03 -5.322681e-03 1.359928e-02
<VARIANCE> 39
 1.790410e+01 2.355903e+01 1.229956e+01 1.281637e+01 1.650506e+01 2.061666e+01 2.027629e+01 2.345299e+01 1.862760e+01 1.677786e+01 1.502201e+01 1.342134e+01 6.529674e+01 2.181517e-01 3.168820e-01 4.569757e-01 6.601563e-01 8.660156e-01 1.070363e+00 1.231881e+00 1.352015e+00 1.416924e+00 1.357497e+00 1.277015e+00 1.159879e+00 1.134955e-01 3.715433e-02 5.996290e-02 9.293664e-02 1.347605e-01 1.783728e-01 2.209758e-01 2.547661e-01 2.791216e-01 2.958037e-01 2.828870e-01 2.645142e-01 2.422428e-01 2.313900e-02
<GCONST> 8.008276e+01
<MIXTURE> 2 2.347164e-01
<MEAN> 39
 -1.274923e+01 -6.154774e+00 -2.914518e+00 -3.650916e+00 -1.306181e+00 -4.825902e+00 -1.238978e+00 -3.046344e+00 -1.803920e+00 -9.182733e-01 -1.902206e-01 -9.067252e-01 6.401913e+01 -3.612244e-01 -1.021453e+00 -3.497277e-01 -3.263631e-01 -4.592204e-01 -7.936699e-01 -6.591654e-01 -7.551855e-01 -2.228377e-01 -2.252405e-01 -4.930750e-02 -6.593782e-02 2.592691e+00 1.196307e-01 6.748427e-03 -5.423049e-02 1.111362e-02 7.390657e-02 1.813086e-02 4.545869e-02 -1.873862e-02 1.046090e-02 -8.967615e-04 -6.080497e-03 8.998344e-03 -1.696955e-01
<VARIANCE> 39
 2.059988e+01 3.609475e+01 1.741816e+01 1.732827e+01 2.313815e+01 3.136335e+01 3.047439e+01 3.201766e+01 2.214133e+01 2.011129e+01 1.839888e+01 1.608261e+01 1.344270e+02 1.602244e+00 2.596673e+00 1.554976e+00 1.584371e+00 2.281306e+00 2.728660e+00 2.940052e+00 2.763607e+00 2.238817e+00 2.091088e+00 1.821046e+00 1.723001e+00 9.201770e+00 2.761012e-01 5.439683e-01 2.763981e-01 3.001206e-01 4.508823e-01 5.606125e-01 5.953266e-01 5.587800e-01 4.333479e-01 4.149825e-01 3.619674e-01 3.441191e-01 2.317781e+00
<GCONST> 1.154965e+02
<STATE> 4
<NUMMIXES> 2
<MIXTURE> 1 6.911464e-01
<MEAN> 39
 -1.137465e+01 -2.642799e+00 -3.168505e+00 -2.826074e+00 8.311241e-01 3.922993e-01 3.874175e+00 1.333738e+00 6.697525e-01 7.244092e-01 2.959879e-01 -1.095984e+00 5.370602e+01 1.403354e-01 1.789227e-01 -5.958379e-03 4.796913e-03 5.181593e-02 1.374590e-01 1.295662e-01 1.224825e-01 5.225678e-02 4.416787e-02 4.208243e-03 -1.654555e-02 -2.604025e-01 -2.951819e-02 -1.614900e-02 -3.420594e-03 -1.366202e-02 -2.817507e-02 -3.862222e-02 -4.242992e-02 -2.842938e-02 -2.611064e-02 -1.263579e-02 -2.414045e-03 -1.310151e-04 3.092255e-02
<VARIANCE> 39
 1.366177e+01 1.642317e+01 1.073900e+01 1.081798e+01 1.183643e+01 1.661440e+01 1.763050e+01 1.686910e+01 1.579458e+01 1.447920e+01 1.344912e+01 1.256388e+01 1.827718e+01 2.779124e-01 3.736342e-01 5.060737e-01 6.986597e-01 9.154078e-01 1.112457e+00 1.265265e+00 1.363285e+00 1.397592e+00 1.365006e+00 1.308136e+00 1.183087e+00 1.636339e-01 4.480375e-02 6.888325e-02 9.926814e-02 1.380790e-01 1.837246e-01 2.236003e-01 2.545481e-01 2.737117e-01 2.838412e-01 2.785223e-01 2.681061e-01 2.415360e-01 2.194408e-02
<GCONST> 7.780043e+01
<MIXTURE> 2 3.090223e-01
<MEAN> 39
 -1.409336e+01 -5.524437e+00 -3.245601e+00 -3.392249e+00 -3.812412e-01 -2.348855e+00 1.321209e+00 -7.104932e-01 -4.489705e-01 5.005039e-03 3.410209e-01 -8.492526e-01 5.884917e+01 -2.882112e-01 -3.761892e-01 2.646764e-02 -1.713645e-02 -1.111344e-01 -2.631065e-01 -2.462301e-01 -2.176314e-01 -7.998881e-02 -8.651011e-02 -7.609379e-03 2.299542e-02 5.193846e-01 6.951068e-02 3.215023e-02 4.749369e-03 2.954593e-02 5.985355e-02 7.982700e-02 8.719608e-02 5.569745e-02 5.346853e-02 2.506495e-02 3.869267e-03 1.695201e-03 -6.682072e-02
<VARIANCE> 39
 1.791833e+01 2.562582e+01 1.415030e+01 1.509928e+01 1.656543e+01 2.500085e+01 2.476307e+01 2.580421e+01 2.114873e+01 1.816645e+01 1.582798e+01 1.439193e+01 4.344751e+01 9.949616e-01 1.285375e+00 9.751282e-01 1.159237e+00 1.398565e+00 1.709866e+00 1.890534e+00 1.870157e+00 1.788320e+00 1.668733e+00 1.555938e+00 1.394229e+00 1.718758e+00 1.761938e-01 2.402594e-01 1.804486e-01 2.241939e-01 2.765047e-01 3.436398e-01 3.784386e-01 3.802624e-01 3.652302e-01 3.434879e-01 3.190918e-01 2.869295e-01 3.024093e-01
<GCONST> 9.939633e+01
<TRANSP> 5
 0.000000e+00 1.000000e+00 0.000000e+00 0.000000e+00 0.000000e+00
 0.000000e+00 9.965727e-01 3.427297e-03 0.000000e+00 0.000000e+00
 0.000000e+00 0.000000e+00 9.856965e-01 1.430347e-02 0.000000e+00
 0.000000e+00 0.000000e+00 0.000000e+00 9.959412e-01 4.058798e-03
 0.000000e+00 0.000000e+00 0.000000e+00 0.000000e+00 0.000000e+00
<ENDHMM>
~h "si"
<BEGINHMM>
<NUMSTATES> 5
<STATE> 2
<NUMMIXES> 2
<MIXTURE> 1 7.528751e-01
<MEAN> 39
 -8.333038e+00 2.259230e+00 1.247376e+00 -1.596815e+00 2.410082e+00 2.190296e+00 2.471546e+00 3.690007e+00 1.202410e+00 3.338757e-01 2.536877e-01 -1.416782e+00 4.714492e+01 2.708423e-02 5.109830e-02 7.347748e-03 2.135862e-02 3.968379e-02 7.801913e-02 6.262714e-02 9.144498e-02 3.264809e-02 2.577534e-02 1.395793e-02 -9.842215e-03 -9.238130e-02 -9.898307e-03 -1.529156e-02 -1.582559e-02 -1.878255e-02 -2.560416e-02 -2.657753e-02 -2.099850e-02 -2.092633e-02 -8.716580e-03 -2.396681e-03 -1.527706e-03 7.058359e-04 9.426879e-03
<VARIANCE> 39
 2.097194e+01 9.284671e+00 1.261855e+01 1.307809e+01 1.497484e+01 1.584315e+01 2.384169e+01 1.824359e+01 1.765696e+01 1.564821e+01 1.433807e+01 1.276498e+01 1.675300e+01 1.501222e-01 2.581245e-01 4.185736e-01 6.222993e-01 8.195664e-01 1.010511e+00 1.168014e+00 1.259530e+00 1.304810e+00 1.315179e+00 1.232086e+00 1.085443e+00 7.106011e-02 2.386090e-02 4.639482e-02 8.010039e-02 1.210105e-01 1.610330e-01 1.987614e-01 2.330410e-01 2.501890e-01 2.614842e-01 2.644598e-01 2.469321e-01 2.177071e-01 8.376679e-03
<GCONST> 7.293375e+01
<MIXTURE> 2 2.480054e-01
<MEAN> 39
 -9.581005e+00 -6.389948e-01 -6.190444e-02 -2.583392e+00 7.716849e-03 -7.489581e-01 1.445542e+00 8.065293e-01 9.726207e-01 3.506297e-01 1.979710e-01 -7.862913e-01 5.093187e+01 -8.134636e-02 -1.587151e-01 -6.048343e-02 -1.032278e-01 -1.526365e-01 -2.123620e-01 -1.394779e-01 -2.019531e-01 -7.310683e-02 -3.320541e-02 -2.602039e-02 1.286136e-02 1.678002e-01 3.431521e-02 4.442607e-02 3.954310e-02 4.905830e-02 7.194242e-02 8.360141e-02 6.691641e-02 6.948329e-02 2.854134e-02 9.650667e-03 4.575405e-03 -5.411422e-03 -3.082052e-02
<VARIANCE> 39
 2.506642e+01 2.402666e+01 2.189357e+01 2.085800e+01 2.691712e+01 2.580828e+01 2.804060e+01 2.814309e+01 2.423348e+01 2.213581e+01 2.186402e+01 1.817656e+01 2.986995e+01 6.965525e-01 9.698769e-01 8.846356e-01 1.095147e+00 1.371148e+00 1.577288e+00 1.681465e+00 1.785082e+00 1.699950e+00 1.652024e+00 1.551136e+00 1.328244e+00 7.844263e-01 1.136155e-01 1.708605e-01 1.635194e-01 2.120819e-01 2.633020e-01 3.110282e-01 3.303840e-01 3.605246e-01 3.452241e-01 3.357199e-01 3.153762e-01 2.724681e-01 1.241601e-01
<GCONST> 9.741335e+01
<STATE> 3
<NUMMIXES> 2
<MIXTURE> 1 4.963627e-01
<MEAN> 39
 -4.865571e+00 -4.135935e-02 -1.731442e+00 -3.200274e+00 1.384397e-01 2.074933e+00 2.607697e+00 4.004838e+00 7.434382e-01 4.785517e-01 -1.403057e-01 -2.139365e+00 4.493596e+01 6.938543e-02 1.469912e-01 2.151348e-01 2.914699e-01 3.450403e-01 3.688132e-01 3.583331e-01 3.420927e-01 2.831052e-01 2.161791e-01 1.384408e-01 5.438460e-02 9.417607e-03 1.569452e-02 2.972208e-02 4.429553e-02 5.976663e-02 7.074498e-02 8.077393e-02 8.460694e-02 7.211532e-02 6.825615e-02 5.730816e-02 3.678322e-02 1.459249e-02 9.856976e-03
<VARIANCE> 39
 4.136037e+00 1.175944e+01 1.185794e+01 9.991647e+00 1.632585e+01 1.496805e+01 1.645136e+01 1.774618e+01 1.657708e+01 1.610354e+01 1.422496e+01 1.286589e+01 9.587626e+00 1.159170e-01 2.317138e-01 3.933244e-01 5.682569e-01 7.656387e-01 9.414647e-01 1.104969e+00 1.219487e+00 1.281887e+00 1.318827e+00 1.258263e+00 1.121419e+00 3.658682e-02 2.313273e-02 5.017341e-02 8.965501e-02 1.331821e-01 1.794285e-01 2.159740e-01 2.470322e-01 2.701941e-01 2.786129e-01 2.816772e-01 2.635907e-01 2.320805e-01 6.697118e-03
<GCONST> 6.949641e+01
<MIXTURE> 2 5.030242e-01
<MEAN> 39
 -4.550580e+00 8.973970e-02 -1.375980e+00 -2.473036e+00 1.113075e+00 3.450300e+00 4.068841e+00 4.909271e+00 1.681922e+00 1.377743e+00 3.917932e-01 -1.984069e+00 4.537810e+01 -7.261962e-02 -1.406687e-01 -2.297267e-01 -3.010467e-01 -3.518333e-01 -3.623613e-01 -3.568449e-01 -3.294937e-01 -2.812183e-01 -2.124605e-01 -1.336731e-01 -5.571344e-02 -2.540505e-02 -2.050698e-02 -2.971893e-02 -4.193910e-02 -5.763938e-02 -7.008169e-02 -8.502690e-02 -8.699292e-02 -7.788941e-02 -6.901533e-02 -5.794854e-02 -3.579497e-02 -1.143629e-02 -4.988722e-03
<VARIANCE> 39
 4.559263e+00 1.264863e+01 1.184011e+01 9.808022e+00 1.539301e+01 1.479752e+01 1.654630e+01 1.752221e+01 1.631648e+01 1.577358e+01 1.401011e+01 1.267874e+01 1.012834e+01 1.307744e-01 2.481890e-01 4.061227e-01 5.768769e-01 7.765749e-01 9.596791e-01 1.118412e+00 1.238710e+00 1.298060e+00 1.333277e+00 1.269674e+00 1.128843e+00 4.651866e-02 2.446595e-02 5.025947e-02 8.613309e-02 1.270309e-01 1.724218e-01 2.119970e-01 2.437704e-01 2.671358e-01 2.737538e-01 2.772184e-01 2.610085e-01 2.300199e-01 7.816467e-03
<GCONST> 7.012412e+01
<STATE> 4
<NUMMIXES> 2
<MIXTURE> 1 7.903927e-01
<MEAN> 39
 -7.967151e+00 -1.128207e+00 -2.204369e+00 -3.024298e+00 -2.258934e-01 1.043942e+00 3.541158e+00 2.285628e+00 1.539743e+00 9.797927e-01 4.769744e-01 -1.353743e+00 5.003804e+01 5.015862e-02 6.624818e-02 1.553331e-03 2.299837e-02 2.751826e-02 6.589490e-02 3.980395e-02 4.950614e-02 1.560541e-02 1.576016e-02 -1.535192e-04 -1.103457e-02 -1.020635e-01 -1.136665e-02 -1.024904e-02 -5.035976e-03 -1.002368e-02 -1.249852e-02 -1.434212e-02 -1.559791e-02 -1.229900e-02 -8.059436e-03 -6.587490e-03 -2.984193e-03 -1.224136e-03 1.463077e-02
<VARIANCE> 39
 1.603850e+01 1.263213e+01 1.267762e+01 1.260633e+01 1.549143e+01 1.795466e+01 1.868360e+01 1.885189e+01 1.822926e+01 1.664469e+01 1.532568e+01 1.364052e+01 1.897517e+01 1.997018e-01 3.094294e-01 4.758312e-01 6.903033e-01 9.090978e-01 1.106932e+00 1.264798e+00 1.366118e+00 1.393402e+00 1.388165e+00 1.306824e+00 1.167998e+00 1.157318e-01 3.049758e-02 5.588569e-02 9.169979e-02 1.343392e-01 1.794106e-01 2.198592e-01 2.523630e-01 2.733595e-01 2.805839e-01 2.796208e-01 2.630961e-01 2.352581e-01 1.292605e-02
<GCONST> 7.678384e+01
<MIXTURE> 2 2.103050e-01
<MEAN> 39
 -1.051094e+01 -3.218168e+00 -1.942013e+00 -3.616608e+00 -1.026477e+00 -1.436003e+00 1.884370e+00 6.670582e-01 8.256012e-01 1.110907e-01 4.280357e-01 -9.084175e-01 5.473911e+01 -2.621986e-01 -2.638831e-01 -1.331449e-03 -9.517898e-02 -1.132909e-01 -2.790920e-01 -1.651602e-01 -2.300923e-01 -4.910047e-02 -5.099244e-02 1.918129e-02 6.816439e-02 5.091957e-01 4.921700e-02 3.997837e-02 2.306416e-02 4.115671e-02 5.131698e-02 6.229894e-02 6.128923e-02 5.199179e-02 3.121506e-02 2.449188e-02 9.624093e-03 4.718082e-04 -5.284730e-02
<VARIANCE> 39
 3.003917e+01 3.472961e+01 2.171355e+01 2.409362e+01 2.778604e+01 2.835311e+01 2.973473e+01 3.331180e+01 2.683107e+01 2.261322e+01 2.151985e+01 2.025211e+01 5.149030e+01 1.143675e+00 1.296607e+00 1.070260e+00 1.316197e+00 1.564380e+00 1.809832e+00 1.945361e+00 2.117090e+00 1.924898e+00 1.829041e+00 1.684171e+00 1.468912e+00 1.732505e+00 1.932537e-01 2.302584e-01 1.936477e-01 2.489864e-01 2.994142e-01 3.573189e-01 3.810754e-01 4.261847e-01 3.818465e-01 3.686299e-01 3.394384e-01 2.985117e-01 3.043532e-01
<GCONST> 1.051516e+02
<TRANSP> 5
 0.000000e+00 1.000000e+00 0.000000e+00 0.000000e+00 0.000000e+00
 0.000000e+00 9.868797e-01 1.312034e-02 0.000000e+00 0.000000e+00
 0.000000e+00 0.000000e+00 9.908426e-01 9.157331e-03 0.000000e+00
 0.000000e+00 0.000000e+00 0.000000e+00 9.890232e-01 1.097683e-02
 0.000000e+00 0.000000e+00 0.000000e+00 0.000000e+00 0.000000e+00
<ENDHMM>
~h "st"
<BEGINHMM>
<NUMSTATES> 5
<STATE> 2
<NUMMIXES> 2
<MIXTURE> 1 6.686063e-01
<MEAN> 39
 -9.401968e+00 -5.311080e+00 -1.358734e+00 -9.027122e+00 -3.458754e+00 -5.944982e+00 -4.043495e-01 5.902066e-01 1.567563e+00 -8.813022e-02 1.009594e+00 -1.679251e+00 6.234645e+01 6.275943e-02 1.269915e-01 2.379854e-01 2.203717e-01 3.142223e-01 2.285951e-01 1.718256e-01 6.001528e-02 7.954441e-02 3.833512e-02 6.316834e-02 1.408304e-01 -4.599231e-01 6.577155e-02 8.177243e-02 -7.080617e-02 1.408432e-01 5.238165e-02 1.244955e-01 9.798327e-02 3.349739e-03 -3.404471e-02 -1.026895e-02 -3.624736e-02 -3.567231e-02 -2.243133e-01
<VARIANCE> 39
 2.007942e+01 2.810339e+01 1.620519e+01 2.849504e+01 2.469618e+01 3.249950e+01 2.545921e+01 2.301527e+01 2.162591e+01 2.074928e+01 1.942528e+01 1.430448e+01 7.244483e+01 3.834943e-01 5.130690e-01 7.366881e-01 1.011397e+00 1.174024e+00 1.358579e+00 1.543555e+00 1.706101e+00 1.689950e+00 1.618037e+00 1.567568e+00 1.407138e+00 5.083876e-01 8.406602e-02 1.558086e-01 1.370886e-01 2.466283e-01 2.492070e-01 3.368616e-01 3.186975e-01 3.251077e-01 3.271646e-01 3.145219e-01 2.996867e-01 2.648099e-01 3.250414e-01
<GCONST> 9.546248e+01
<MIXTURE> 2 3.313893e-01
<MEAN> 39
 -8.873348e+00 -4.346373e+00 -2.996555e+00 -7.550224e+00 -2.828993e+00 -3.448586e+00 1.108175e+00 6.346694e-01 1.117453e+00 1.667940e-01 7.870847e-01 -1.951441e+00 5.951615e+01 -5.917551e-01 -1.379506e+00 7.746885e-02 -1.352304e+00 -9.067609e-01 -1.803904e+00 -1.039174e+00 -3.721016e-01 -1.054716e-01 -2.582953e-01 -1.370287e-02 -1.224753e-01 3.260450e+00 8.046178e-02 1.426165e-01 1.541095e-01 7.691183e-02 1.279204e-01 1.753159e-01 9.244899e-02 1.105864e-01 8.189015e-02 6.102151e-02 3.776721e-02 6.151323e-02 -2.735787e-01
<VARIANCE> 39
 2.476171e+01 3.175325e+01 1.968268e+01 2.814089e+01 2.482879e+01 3.833450e+01 2.864173e+01 2.578920e+01 2.249405e+01 1.910291e+01 1.844150e+01 1.564025e+01 8.491664e+01 1.943748e+00 2.123959e+00 1.767176e+00 2.350336e+00 2.437442e+00 2.816150e+00 2.522836e+00 2.882765e+00 2.611712e+00 2.312168e+00 2.141389e+00 1.767863e+00 3.611721e+00 2.432754e-01 3.912854e-01 2.603368e-01 4.531788e-01 4.420505e-01 6.626089e-01 4.871880e-01 4.755509e-01 4.126388e-01 3.740524e-01 3.401830e-01 3.153424e-01 1.204311e+00
<GCONST> 1.143653e+02
<STATE> 3
<NUMMIXES> 2
<MIXTURE> 1 7.641970e-01
<MEAN> 39
 -7.824841e+00 -2.890053e+00 -1.735455e+00 -5.640093e+00 -1.211653e+00 -1.113084e+00 2.680675e+00 5.625393e-01 2.267753e-01 -3.005624e-01 6.100880e-01 -1.752842e+00 5.529585e+01 1.192398e-01 1.447822e-01 -2.930789e-02 2.023691e-01 1.381837e-01 2.106752e-01 1.155339e-01 4.495243e-02 -1.490509e-02 2.081231e-02 -1.239337e-02 -3.587011e-03 -4.567256e-01 -9.510311e-03 -1.404041e-02 -1.022998e-02 -1.737779e-02 -2.463484e-02 -1.914091e-02 -1.482596e-02 -8.707698e-03 -4.449932e-03 -1.350278e-03 -2.252331e-03 -4.860611e-03 2.931491e-02
<VARIANCE> 39
 1.408129e+01 1.884253e+01 1.632841e+01 1.957450e+01 1.729877e+01 2.353094e+01 1.919775e+01 1.899827e+01 1.913411e+01 1.818676e+01 1.549908e+01 1.414433e+01 3.314413e+01 2.113890e-01 3.180892e-01 4.934382e-01 7.123082e-01 9.200894e-01 1.123932e+00 1.270121e+00 1.369987e+00 1.419186e+00 1.418547e+00 1.339270e+00 1.211693e+00 1.828635e-01 3.332638e-02 5.866713e-02 9.653127e-02 1.426648e-01 1.864134e-01 2.297623e-01 2.615866e-01 2.824592e-01 2.942263e-01 2.942715e-01 2.775622e-01 2.505957e-01 1.706531e-02
<GCONST> 8.054265e+01
<MIXTURE> 2 2.359185e-01
<MEAN> 39
 -9.800317e+00 -3.026147e+00 -2.312513e+00 -7.554225e+00 -2.873423e+00 -2.194323e+00 2.087574e+00 3.042420e-01 5.378339e-01 -2.219038e-01 7.575235e-01 -1.971770e+00 5.856263e+01 -3.711751e-01 -3.869762e-01 7.670552e-02 -5.828415e-01 -4.253466e-01 -5.916619e-01 -3.251674e-01 -1.382764e-01 2.963800e-02 -5.873295e-02 4.002884e-02 1.473592e-02 1.303165e+00 2.609485e-02 4.499933e-02 2.920547e-02 5.291513e-02 7.687321e-02 5.834936e-02 4.266345e-02 2.938341e-02 2.019907e-02 7.929618e-03 9.315670e-03 1.690539e-02 -8.637618e-02
<VARIANCE> 39
 2.170648e+01 2.497508e+01 1.741714e+01 3.239519e+01 2.646108e+01 2.980963e+01 2.361650e+01 2.216522e+01 2.171618e+01 1.980411e+01 1.743109e+01 1.564469e+01 6.395735e+01 1.475469e+00 1.699085e+00 1.282975e+00 2.365530e+00 2.314570e+00 2.547394e+00 2.200608e+00 2.104892e+00 2.100989e+00 1.960752e+00 1.788774e+00 1.576941e+00 3.719762e+00 2.612337e-01 3.018654e-01 2.326682e-01 4.719434e-01 4.565183e-01 5.358084e-01 4.483621e-01 4.186209e-01 4.102386e-01 3.894486e-01 3.558903e-01 3.170155e-01 8.645804e-01
<GCONST> 1.101810e+02
<STATE> 4
<NUMMIXES> 2
<MIXTURE> 1 7.292004e-01
<MEAN> 39
 -1.020212e+01 3.023186e-01 -6.889096e-01 -2.510024e+00 6.587764e-01 1.435637e-01 2.938215e+00 2.090826e+00 2.014645e+00 4.815965e-01 5.716443e-01 -1.481608e+00 5.064644e+01 2.340870e-02 8.409960e-02 3.655815e-02 1.154966e-01 1.136310e-01 1.584867e-01 9.900055e-02 7.240476e-02 1.887475e-02 1.894307e-02 -6.788515e-03 -9.328087e-03 -1.896641e-01 -3.503944e-03 -1.718425e-02 -1.812302e-02 -3.564250e-02 -4.181563e-02 -3.981449e-02 -2.926313e-02 -1.879582e-02 -9.864361e-03 -3.956554e-03 -2.549138e-03 -3.850342e-03 2.058458e-02
<VARIANCE> 39
 1.671755e+01 8.888577e+00 9.759673e+00 1.158792e+01 1.308022e+01 1.591646e+01 1.857199e+01 1.748966e+01 1.603551e+01 1.499067e+01 1.357819e+01 1.227786e+01 1.625119e+01 1.824171e-01 2.914274e-01 4.526148e-01 6.819745e-01 8.867036e-01 1.065867e+00 1.220151e+00 1.328941e+00 1.371074e+00 1.360987e+00 1.285231e+00 1.143939e+00 1.124845e-01 2.848153e-02 5.166170e-02 8.610665e-02 1.286184e-01 1.731694e-01 2.102616e-01 2.433423e-01 2.653553e-01 2.760663e-01 2.759118e-01 2.596758e-01 2.315191e-01 1.231220e-02
<GCONST> 7.419549e+01
<MIXTURE> 2 2.708983e-01
<MEAN> 39
 -1.032282e+01 -9.746345e-01 -1.560127e+00 -5.548384e+00 -2.274123e+00 -2.983325e+00 1.178219e+00 1.110781e+00 2.028213e+00 4.830354e-01 6.700510e-01 -1.643379e+00 5.439475e+01 -7.488862e-02 -2.148852e-01 -1.033913e-01 -3.012388e-01 -2.763135e-01 -3.828016e-01 -2.434670e-01 -1.949615e-01 -4.394286e-02 -5.651957e-02 7.954281e-03 1.886233e-02 4.651076e-01 1.245782e-02 4.037621e-02 4.850332e-02 8.669787e-02 1.037685e-01 9.950336e-02 7.312790e-02 4.598535e-02 2.124071e-02 8.125528e-03 6.388037e-03 1.021096e-02 -5.095961e-02
<VARIANCE> 39
 1.899800e+01 1.548987e+01 1.429251e+01 2.236113e+01 2.057156e+01 2.798857e+01 2.515234e+01 2.308629e+01 1.988791e+01 1.803491e+01 1.615709e+01 1.466678e+01 3.156927e+01 8.038613e-01 1.004326e+00 1.017588e+00 1.659616e+00 1.734542e+00 1.986123e+00 1.790907e+00 1.868765e+00 1.774388e+00 1.673341e+00 1.541881e+00 1.403798e+00 1.303144e+00 1.333084e-01 1.862482e-01 1.945297e-01 3.125005e-01 3.338619e-01 3.980224e-01 3.603863e-01 3.797871e-01 3.580978e-01 3.385153e-01 3.165291e-01 2.878333e-01 2.226314e-01
<GCONST> 9.902026e+01
<TRANSP> 5
 0.000000e+00 1.000000e+00 0.000000e+00 0.000000e+00 0.000000e+00
 0.000000e+00 8.644725e-01 1.355275e-01 0.000000e+00 0.000000e+00
 0.000000e+00 0.000000e+00 9.929417e-01 7.058263e-03 0.000000e+00
 0.000000e+00 0.000000e+00 0.000000e+00 9.890157e-01 1.098434e-02
 0.000000e+00 0.000000e+00 0.000000e+00 0.000000e+00 0.000000e+00
<ENDHMM>
~h "spe"
<BEGINHMM>
<NUMSTATES> 5
<STATE> 2
<NUMMIXES> 2
<MIXTURE> 1 4.879819e-01
<MEAN> 39
 -3.491096e+00 1.422152e+00 -2.525905e-01 -3.756955e+00 -3.559829e+00 -3.728432e+00 -2.239803e+00 5.375670e-01 -1.140426e+00 5.232906e-01 -1.813662e-01 -3.186055e+00 5.331363e+01 -2.048519e-01 2.179786e-01 3.471041e-02 6.070466e-02 1.719749e-01 2.171873e-02 3.134527e-01 1.330696e-01 1.692199e-01 1.197535e-01 1.349631e-01 1.976852e-01 -5.596416e-02 4.347336e-02 -4.877371e-02 1.526145e-03 -4.991109e-03 -1.184618e-03 6.580722e-02 2.609285e-02 -6.791390e-04 -4.455981e-02 -4.385680e-02 -4.549478e-02 -6.631453e-02 2.130020e-02
<VARIANCE> 39
 3.169111e+01 3.046669e+01 3.130797e+01 2.319237e+01 4.682860e+01 3.855531e+01 2.917593e+01 3.376230e+01 2.866867e+01 3.011146e+01 2.871600e+01 2.578528e+01 8.791498e+00 9.213896e-01 9.041800e-01 8.767887e-01 9.802418e-01 1.540429e+00 1.619027e+00 1.562871e+00 1.764927e+00 1.736023e+00 1.760884e+00 1.661144e+00 1.505486e+00 1.774113e-01 1.255604e-01 1.405610e-01 1.567613e-01 1.850505e-01 3.003036e-01 3.146024e-01 3.326290e-01 3.515354e-01 3.509599e-01 3.522027e-01 3.352401e-01 3.007376e-01 3.146987e-02
<GCONST> 9.704322e+01
<MIXTURE> 2 5.120032e-01
<MEAN> 39
 3.783768e-01 -3.338688e+00 -1.237229e+00 -5.271789e+00 -4.945231e+00 -3.756104e-01 -3.224137e+00 7.242002e-02 -2.123683e+00 -8.291549e-02 -1.618099e+00 -6.023999e+00 5.459212e+01 1.825235e-01 -2.500255e-01 3.193238e-02 -1.076693e-01 -2.150571e-01 -8.767458e-02 -3.595242e-01 -1.293623e-01 -1.589657e-01 -7.879180e-02 -1.215190e-01 -1.969966e-01 1.385978e-01 -4.188315e-02 4.023542e-02 1.147004e-03 8.452341e-03 -3.058640e-03 -7.011786e-02 -2.380121e-02 4.383158e-03 4.912190e-02 4.002513e-02 4.015042e-02 6.581458e-02 -1.913168e-02
<VARIANCE> 39
 9.360424e+00 2.759870e+01 4.240530e+01 3.344289e+01 4.277449e+01 4.718027e+01 3.143445e+01 4.052158e+01 3.145968e+01 3.009763e+01 3.769093e+01 3.695784e+01 1.194754e+01 3.378936e-01 8.727429e-01 1.305505e+00 1.376245e+00 1.938840e+00 2.137297e+00 1.793992e+00 2.146974e+00 2.048800e+00 2.066967e+00 2.065719e+00 2.029182e+00 3.126342e-01 4.042334e-02 1.134740e-01 1.666377e-01 2.055183e-01 2.803023e-01 3.205923e-01 3.213836e-01 3.693227e-01 3.774518e-01 3.766758e-01 3.653677e-01 3.416758e-01 2.969998e-02
<GCONST> 9.882240e+01
<STATE> 3
<NUMMIXES> 2
<MIXTURE> 1 6.126917e-01
<MEAN> 39
 -3.074749e+00 -4.810941e+00 7.364447e-01 -1.110028e+01 -2.884872e+00 -2.986748e+00 -2.688623e+00 -4.480386e-01 -1.944483e+00 -1.499078e+00 -3.345943e+00 -3.841949e+00 6.125719e+01 3.326529e-02 1.867915e-01 -6.791806e-02 2.224413e-01 1.411754e-01 1.192067e-01 1.213990e-01 -5.052077e-02 -7.018909e-03 -3.321134e-03 1.126634e-03 -3.428484e-02 -2.822095e-01 -4.352947e-03 9.612131e-03 4.334419e-06 1.356727e-02 6.731703e-03 -1.612795e-02 -2.572783e-02 -2.020183e-02 -2.924378e-02 -2.426034e-02 -1.406933e-03 1.520083e-02 -2.552746e-02
<VARIANCE> 39
 2.440618e+01 4.212106e+01 6.616540e+01 5.736857e+01 6.447440e+01 5.159106e+01 3.757745e+01 4.504872e+01 3.257401e+01 2.743230e+01 4.731674e+01 2.974414e+01 2.894275e+01 2.244630e-01 4.723992e-01 6.388370e-01 9.254193e-01 1.155368e+00 1.305630e+00 1.415568e+00 1.600509e+00 1.502040e+00 1.539972e+00 1.554925e+00 1.354382e+00 1.692205e-01 3.619149e-02 7.585380e-02 1.194042e-01 1.711725e-01 2.196086e-01 2.527248e-01 2.792086e-01 3.116201e-01 3.011872e-01 2.967954e-01 2.998702e-01 2.629825e-01 2.054213e-02
<GCONST> 9.411282e+01
<MIXTURE> 2 3.873036e-01
<MEAN> 39
 -3.338495e+00 -4.143928e+00 3.073793e+00 -1.567186e+01 -2.877150e+00 -7.697985e+00 -6.406654e+00 -3.398920e+00 -2.062458e+00 -3.858873e+00 -7.062375e+00 -1.217993e+00 6.210968e+01 -3.663866e-02 -2.294385e-01 -8.960200e-03 -1.899123e-01 -1.633001e-01 -1.822111e-01 -1.263938e-01 1.996798e-02 3.571029e-02 -7.101036e-02 -8.558458e-02 -2.175388e-02 3.990969e-01 3.617265e-03 1.405687e-02 -1.890584e-02 1.867225e-02 1.138001e-02 5.467758e-02 7.619194e-02 2.867680e-02 3.530382e-02 4.648617e-02 9.029895e-03 -1.817713e-02 -1.013439e-02
<VARIANCE> 39
 2.404982e+01 3.437508e+01 7.478456e+01 7.015722e+01 5.803785e+01 6.214727e+01 5.434792e+01 6.776110e+01 4.419525e+01 4.453008e+01 6.022306e+01 3.866716e+01 1.448760e+01 1.104277e+00 1.693238e+00 2.337501e+00 2.474301e+00 2.911852e+00 2.827764e+00 2.879394e+00 3.139383e+00 2.891511e+00 2.649455e+00 2.651318e+00 2.255893e+00 6.588998e-01 1.353114e-01 2.157296e-01 2.924626e-01 3.586876e-01 4.312789e-01 4.662212e-01 4.773453e-01 5.303959e-01 5.061169e-01 5.022894e-01 4.845362e-01 4.136015e-01 8.693113e-02
<GCONST> 1.172855e+02
<STATE> 4
<NUMMIXES> 2
<MIXTURE> 1 5.368263e-01
<MEAN> 39
 -2.568846e+00 -2.801284e+00 -2.825147e+00 -4.368407e+00 -9.554864e-01 1.725783e+00 2.672146e+00 1.202693e+00 -6.803778e-01 3.500354e-01 -7.142727e-01 -3.404919e+00 5.064022e+01 -1.696344e-02 3.313795e-02 -3.847171e-02 9.446587e-02 6.518479e-02 1.269808e-01 1.502830e-01 4.808486e-02 2.860552e-02 3.311552e-02 4.076945e-02 6.600587e-02 -1.262934e-01 1.553310e-03 -6.019270e-03 1.166368e-02 -2.370757e-02 -2.659417e-02 -3.502091e-02 -4.530538e-02 -1.947395e-02 -2.355329e-02 -2.041155e-02 -3.988928e-03 -1.280800e-02 2.002319e-02
<VARIANCE> 39
 1.127114e+01 1.473481e+01 1.498440e+01 1.347493e+01 2.101745e+01 2.399875e+01 2.591387e+01 2.323731e+01 2.155406e+01 1.925373e+01 1.816950e+01 1.709126e+01 6.680932e+00 1.711701e-01 3.096136e-01 5.036558e-01 7.047371e-01 9.416757e-01 1.165908e+00 1.284783e+00 1.415340e+00 1.450385e+00 1.425775e+00 1.349367e+00 1.238433e+00 7.080966e-02 2.906315e-02 5.469808e-02 9.392294e-02 1.338820e-01 1.822517e-01 2.268768e-01 2.518380e-01 2.792068e-01 2.906903e-01 2.856020e-01 2.691083e-01 2.460925e-01 9.539158e-03
<GCONST> 7.718107e+01
<MIXTURE> 2 4.631760e-01
<MEAN> 39
 -8.912204e-01 -6.015997e+00 6.193863e-01 -8.691693e+00 -5.193619e+00 -2.199081e+00 -3.746595e+00 -6.697962e-01 -2.800038e+00 -7.879767e-01 -6.103786e-01 -4.910657e+00 5.698896e+01 1.931114e-02 -4.025307e-02 2.487363e-02 -9.457638e-02 -5.464983e-02 -1.325988e-01 -1.523559e-01 -3.195095e-02 -2.025162e-02 -1.957007e-02 -3.387187e-02 -6.008584e-02 1.072545e-01 -2.782295e-03 6.784495e-03 -1.358448e-02 2.501434e-02 2.972861e-02 3.921003e-02 5.106093e-02 2.311139e-02 2.835888e-02 2.420591e-02 4.802861e-03 1.478510e-02 -2.095970e-02
<VARIANCE> 39
 1.521437e+01 3.868875e+01 5.108551e+01 3.395462e+01 6.229370e+01 4.608212e+01 3.988459e+01 4.339511e+01 3.907285e+01 4.008706e+01 3.931750e+01 2.937087e+01 1.564823e+01 4.993042e-01 1.086152e+00 1.246539e+00 1.362185e+00 1.858626e+00 1.940917e+00 2.138366e+00 2.068001e+00 2.104028e+00 2.043219e+00 2.023736e+00 1.633157e+00 4.247213e-01 6.796356e-02 1.429669e-01 1.692045e-01 2.137531e-01 2.869421e-01 3.346525e-01 3.696128e-01 3.757804e-01 3.948719e-01 3.871924e-01 3.702767e-01 3.038039e-01 4.308417e-02
<GCONST> 1.030971e+02
<TRANSP> 5
 0.000000e+00 1.000000e+00 0.000000e+00 0.000000e+00 0.000000e+00
 0.000000e+00 9.882106e-01 1.178936e-02 0.000000e+00 0.000000e+00
 0.000000e+00 0.000000e+00 9.835008e-01 1.649920e-02 0.000000e+00
 0.000000e+00 0.000000e+00 0.000000e+00 9.958736e-01 4.126389e-03
 0.000000e+00 0.000000e+00 0.000000e+00 0.000000e+00 0.000000e+00
<ENDHMM>
