~o
<STREAMINFO> 1 39
<VECSIZE> 39<NULLD><MFCC_D_A_0><DIAGC>
~h "ap"
<BEGINHMM>
<NUMSTATES> 5
<STATE> 2
<NUMMIXES> 2
<MIXTURE> 1 7.880297e-01
<MEAN> 39
 -1.295284e+01 -1.011715e+01 -5.836089e+00 -1.517036e+00 1.329017e+00 -4.470966e+00 1.839151e+00 -1.840924e+00 -1.322145e+00 -7.411652e-01 5.992434e-01 -5.497293e-01 6.188195e+01 3.276582e-01 2.259220e-01 2.246263e-01 1.280040e-01 2.248882e-01 2.016262e-01 1.528969e-01 1.328271e-01 2.835218e-02 1.792552e-02 2.762805e-02 -4.246202e-03 -7.944015e-01 -1.309621e-02 1.180590e-02 -3.444507e-03 -9.995906e-03 -1.622490e-02 -2.773005e-03 -1.645903e-02 7.131258e-03 -2.002198e-03 -3.892139e-04 -3.552940e-03 -1.652712e-03 1.832234e-02
<VARIANCE> 39
 2.065532e+01 3.243842e+01 2.965491e+01 2.183152e+01 3.119147e+01 3.262663e+01 2.724249e+01 2.604606e+01 2.166223e+01 1.904777e+01 1.727556e+01 1.537210e+01 8.171241e+01 1.212160e-01 2.565732e-01 4.212235e-01 6.600312e-01 8.881184e-01 1.035910e+00 1.203854e+00 1.313413e+00 1.351907e+00 1.334659e+00 1.275259e+00 1.177589e+00 8.281418e-02 2.198852e-02 4.846273e-02 8.327965e-02 1.303708e-01 1.774830e-01 2.130734e-01 2.471396e-01 2.699205e-01 2.820130e-01 2.780854e-01 2.644892e-01 2.440156e-01 7.355906e-03
<GCONST> 8.073692e+01
<MIXTURE> 2 2.119732e-01
<MEAN> 39
 -1.413868e+01 -7.726799e+00 -5.673255e+00 -2.411649e+00 -2.161007e-01 -4.215642e+00 7.119450e-01 -4.377834e-01 -1.105546e+00 -5.259319e-01 3.280620e-02 -1.043651e+00 6.356185e+01 -1.276075e+00 -1.047051e+00 -9.344426e-01 -4.349803e-01 -8.530999e-01 -9.354948e-01 -6.340408e-01 -5.609157e-01 -1.878905e-01 -1.162457e-01 -1.100748e-01 1.530756e-02 3.257943e+00 4.486811e-02 -9.107712e-02 -2.516968e-02 2.601087e-02 5.240364e-02 -1.631329e-02 4.521741e-02 -3.043460e-02 -9.922214e-03 -1.372441e-02 1.124386e-02 1.839051e-03 1.836632e-02
<VARIANCE> 39
 4.345032e+01 4.190481e+01 3.601867e+01 2.612531e+01 3.965257e+01 4.721791e+01 3.723254e+01 3.223033e+01 2.525757e+01 2.081621e+01 1.868301e+01 1.622618e+01 2.062709e+02 3.426010e+00 3.499824e+00 2.476620e+00 2.170939e+00 2.942271e+00 4.327797e+00 3.562208e+00 3.138080e+00 2.646181e+00 2.213366e+00 1.971542e+00 1.624051e+00 1.656265e+01 7.880380e-01 6.722985e-01 5.163313e-01 4.263550e-01 6.229895e-01 8.658019e-01 7.070482e-01 6.081783e-01 4.983558e-01 4.187365e-01 3.732536e-01 3.114382e-01 4.094437e+00
<GCONST> 1.269080e+02
<STATE> 3
<NUMMIXES> 2
<MIXTURE> 1 7.753831e-01
<MEAN> 39
 -1.077597e+01 -1.781690e+01 -1.152701e+01 7.089096e-01 3.115869e-01 -9.847180e+00 5.107377e-01 -9.501919e-01 -4.279097e+00 -2.812804e+00 9.932784e-01 -5.786521e-01 6.900937e+01 2.946154e-01 1.878583e-01 2.623168e-01 2.485571e-01 2.944278e-01 1.748806e-01 1.309669e-01 4.675259e-02 1.604554e-02 1.415579e-02 4.916978e-02 4.009679e-02 -9.106919e-01 -1.068426e-02 2.102694e-02 5.895309e-03 -6.144116e-03 -8.134270e-03 4.295005e-03 -1.491986e-02 1.090900e-02 7.529642e-03 2.805106e-03 -1.154959e-03 9.254909e-04 1.342323e-02
<VARIANCE> 39
 1.113460e+01 2.016468e+01 1.885881e+01 2.025546e+01 3.086565e+01 2.065166e+01 2.913477e+01 2.200768e+01 2.272972e+01 2.156665e+01 1.638379e+01 1.482060e+01 6.024995e+01 9.677212e-02 2.375626e-01 3.708252e-01 6.033702e-01 8.258908e-01 9.889589e-01 1.131845e+00 1.231014e+00 1.291671e+00 1.298112e+00 1.212701e+00 1.140253e+00 3.810046e-02 2.001754e-02 4.779866e-02 7.597648e-02 1.247090e-01 1.718629e-01 2.041993e-01 2.425814e-01 2.619115e-01 2.731107e-01 2.737885e-01 2.519567e-01 2.388254e-01 6.707364e-03
<GCONST> 7.605049e+01
<MIXTURE> 2 2.246192e-01
<MEAN> 39
 -1.216383e+01 -1.616644e+01 -1.151477e+01 -1.583291e-01 -8.195636e-01 -9.758636e+00 -1.069642e+00 -3.078606e-01 -3.615675e+00 -2.944145e+00 4.430797e-01 -8.489279e-01 7.227869e+01 -6.941856e-01 -7.466953e-01 -7.883437e-01 -6.141653e-01 -7.628415e-01 -5.457090e-01 -2.639305e-01 -1.217856e-01 -5.806246e-02 -7.164621e-02 -7.551722e-02 -7.352665e-02 2.435333e+00 1.181686e-01 1.147064e-01 1.092743e-01 5.701828e-02 1.123549e-01 1.246761e-01 1.178574e-01 1.330680e-02 3.250647e-02 3.791372e-02 1.801454e-02 2.641479e-03 -3.964525e-01
<VARIANCE> 39
 2.421391e+01 2.995010e+01 2.762241e+01 3.228131e+01 3.852354e+01 3.254159e+01 4.077949e+01 2.691137e+01 2.818401e+01 2.409729e+01 1.847107e+01 1.634947e+01 1.586696e+02 1.796433e+00 3.162881e+00 2.137860e+00 2.370943e+00 2.870916e+00 3.247515e+00 3.602356e+00 2.603604e+00 2.575330e+00 2.160107e+00 1.791150e+00 1.558926e+00 1.365292e+01 4.397604e-01 6.147437e-01 4.925926e-01 5.138173e-01 6.255617e-01 7.074021e-01 7.352874e-01 5.210322e-01 5.051472e-01 4.260617e-01 3.519975e-01 3.106099e-01 3.611405e+00
<GCONST> 1.227556e+02
<STATE> 4
<NUMMIXES> 2
<MIXTURE> 1 8.622095e-01
<MEAN> 39
 -8.437570e+00 -1.126555e+01 -4.006779e+00 1.775649e+00 -1.025868e+00 -3.184524e+00 4.367767e+00 -8.437944e-01 -1.673864e+00 8.159482e-01 8.751393e-01 -8.868024e-01 5.681697e+01 2.000477e-01 2.945185e-01 1.576636e-01 7.964768e-02 1.288433e-01 1.903539e-01 6.788434e-02 1.575775e-01 5.753678e-02 3.847982e-02 7.783685e-03 -1.238154e-03 -5.930948e-01 -1.272071e-02 5.034401e-03 -8.658282e-03 -1.000570e-02 -1.268836e-02 -5.864468e-03 -1.259671e-02 -4.739768e-04 -3.790287e-03 -3.213993e-03 -3.287495e-04 -9.284887e-04 2.001752e-02
<VARIANCE> 39
 1.702068e+01 7.666120e+01 1.931913e+01 2.210846e+01 2.922208e+01 3.298435e+01 1.981395e+01 3.495817e+01 2.463624e+01 1.903199e+01 1.607965e+01 1.387912e+01 1.068652e+02 1.314717e-01 2.829697e-01 4.241307e-01 6.637261e-01 8.804427e-01 1.027604e+00 1.172851e+00 1.270582e+00 1.326285e+00 1.309316e+00 1.244693e+00 1.125570e+00 1.557564e-01 2.193935e-02 4.773986e-02 8.210337e-02 1.251952e-01 1.704799e-01 2.069227e-01 2.380416e-01 2.562189e-01 2.721319e-01 2.685437e-01 2.517081e-01 2.294607e-01 7.159977e-03
<GCONST> 8.133120e+01
<MIXTURE> 2 1.377927e-01
<MEAN> 39
 -1.127088e+01 -1.091313e+01 -5.481020e+00 3.946219e-01 -3.628971e+00 -3.991750e+00 2.930075e+00 -1.211578e+00 -2.094454e+00 8.824142e-01 1.943216e-01 -1.505001e+00 6.317128e+01 -1.149814e+00 -1.489608e+00 -7.496940e-01 -4.594087e-01 -8.666520e-01 -9.427196e-01 -3.066686e-01 -8.517991e-01 -2.162372e-01 -1.280495e-01 -7.902214e-02 -9.561038e-03 3.229365e+00 6.254072e-02 -4.465811e-02 2.697670e-02 3.730310e-02 5.401773e-02 8.431768e-03 5.479392e-02 -8.232826e-03 7.468599e-03 -8.174501e-04 -5.774553e-03 3.584115e-03 -9.080327e-02
<VARIANCE> 39
 3.655689e+01 8.887820e+01 2.757772e+01 2.928363e+01 3.903593e+01 4.379522e+01 2.926011e+01 4.354333e+01 3.073541e+01 1.965400e+01 1.855964e+01 1.595034e+01 2.496442e+02 2.913660e+00 6.962128e+00 2.076763e+00 2.274227e+00 3.352802e+00 3.748755e+00 2.864221e+00 4.105730e+00 3.259676e+00 2.026380e+00 1.781844e+00 1.583942e+00 1.922519e+01 6.851807e-01 1.374842e+00 4.440451e-01 4.572257e-01 7.360920e-01 8.157285e-01 5.650416e-01 8.643045e-01 6.383860e-01 4.020310e-01 3.529798e-01 3.052961e-01 4.751438e+00
<GCONST> 1.291952e+02
<TRANSP> 5
 0.000000e+00 1.000000e+00 0.000000e+00 0.000000e+00 0.000000e+00
 0.000000e+00 9.920567e-01 7.943291e-03 0.000000e+00 0.000000e+00
 0.000000e+00 0.000000e+00 9.865014e-01 1.349855e-02 0.000000e+00
 0.000000e+00 0.000000e+00 0.000000e+00 9.883918e-01 1.160818e-02
 0.000000e+00 0.000000e+00 0.000000e+00 0.000000e+00 0.000000e+00
<ENDHMM>
~h "cl"
<BEGINHMM>
<NUMSTATES> 5
<STATE> 2
<NUMMIXES> 2
<MIXTURE> 1 7.270826e-01
<MEAN> 39
 -1.115539e+01 -2.172556e+00 -8.112968e-01 -4.309443e+00 -1.993086e+00 4.867942e+00 3.634530e+00 -3.247411e-02 4.025355e+00 1.819660e-02 -3.074090e+00 1.134550e+00 5.335619e+01 3.171852e-01 -2.789607e-03 -1.224303e-02 4.865649e-02 1.001065e-01 -7.495559e-03 7.125650e-02 6.710257e-02 -4.809020e-02 2.967531e-02 5.474580e-02 -7.444733e-02 -3.325983e-01 -1.338783e-02 1.039481e-02 -3.934675e-03 1.539911e-03 3.421746e-04 -8.198868e-03 -9.424657e-03 1.517857e-02 -1.283522e-02 4.126038e-03 1.232240e-02 -7.472761e-03 1.306088e-02
<VARIANCE> 39
 3.168386e+01 2.814780e+01 3.610014e+01 1.573338e+01 2.117833e+01 4.397607e+01 2.466496e+01 2.810971e+01 3.681440e+01 2.221014e+01 2.679982e+01 2.403411e+01 4.763452e+01 2.617666e-01 3.504584e-01 5.438939e-01 7.314020e-01 9.668646e-01 1.288981e+00 1.327802e+00 1.479028e+00 1.601651e+00 1.433748e+00 1.364047e+00 1.272338e+00 1.580494e-01 4.045955e-02 6.123341e-02 1.013681e-01 1.409235e-01 1.883493e-01 2.464251e-01 2.593322e-01 2.895173e-01 3.120299e-01 2.879738e-01 2.684516e-01 2.493741e-01 1.559621e-02
<GCONST> 8.716825e+01
<MIXTURE> 2 2.729286e-01
<MEAN> 39
 -1.345985e+01 -1.641588e-01 -2.348326e-01 -4.156349e+00 -2.159193e+00 4.927881e+00 2.385530e+00 4.961661e-01 3.607726e+00 5.694270e-01 -2.572679e+00 1.207477e+00 5.422066e+01 -1.899014e+00 1.401660e-01 1.849972e-01 -2.388504e-01 -5.851849e-01 5.261012e-01 -4.416774e-01 -6.817475e-01 4.282620e-01 -2.139853e-01 -5.791235e-01 5.113937e-01 1.690179e+00 -4.855789e-02 -3.901494e-02 6.393675e-02 -3.054627e-02 -7.363620e-02 1.360146e-01 1.808179e-03 -1.385015e-01 8.519319e-02 -2.448525e-02 -1.433150e-01 1.011529e-01 2.294781e-02
<VARIANCE> 39
 5.411578e+01 2.809510e+01 3.536897e+01 1.898854e+01 2.337460e+01 4.650472e+01 2.903687e+01 3.056215e+01 3.385261e+01 2.536236e+01 2.801194e+01 2.176755e+01 7.325155e+01 5.016878e+00 1.939303e+00 1.594645e+00 1.433786e+00 1.980291e+00 4.016823e+00 2.649855e+00 3.369442e+00 3.225833e+00 2.605977e+00 2.771440e+00 2.279753e+00 4.354331e+00 1.057469e+00 2.797665e-01 2.506440e-01 2.518319e-01 3.569367e-01 5.768141e-01 4.591766e-01 5.473666e-01 5.106002e-01 4.392045e-01 4.464747e-01 3.564758e-01 9.537296e-01
<GCONST> 1.192419e+02
<STATE> 3
<NUMMIXES> 2
<MIXTURE> 1 6.676749e-01
<MEAN> 39
 -1.966576e+01 2.567902e+00 -7.526605e-01 -6.984449e+00 -4.673225e+00 1.271243e+01 7.643006e-01 -2.392432e+00 9.082597e+00 -3.747882e+00 -4.389323e+00 5.611221e+00 5.834241e+01 6.091919e-01 -5.632164e-02 -5.705097e-02 -2.439812e-02 5.321199e-02 -2.441077e-02 5.276024e-02 1.139655e-02 3.688157e-02 7.363297e-02 9.322865e-02 -2.097569e-02 -4.789053e-01 -1.601455e-02 4.011795e-03 -2.823416e-02 2.199276e-02 2.035766e-02 -6.497556e-02 4.714969e-03 3.359672e-02 -5.589693e-02 2.893400e-02 3.711605e-02 -5.214268e-02 1.513488e-02
<VARIANCE> 39
 4.263627e+01 1.005543e+01 1.902421e+01 1.188172e+01 1.529165e+01 3.112751e+01 2.505358e+01 2.079752e+01 2.588484e+01 1.968527e+01 1.861259e+01 1.942748e+01 1.937284e+01 2.433779e-01 3.096955e-01 5.532961e-01 7.382000e-01 9.556372e-01 1.310889e+00 1.388324e+00 1.390303e+00 1.505214e+00 1.460035e+00 1.329194e+00 1.263942e+00 1.175978e-01 8.257405e-02 6.216553e-02 1.207923e-01 1.540661e-01 2.056242e-01 2.852665e-01 3.029353e-01 2.936586e-01 3.201198e-01 3.095002e-01 2.808281e-01 2.715489e-01 4.336464e-02
<GCONST> 8.470060e+01
<MIXTURE> 2 3.323955e-01
<MEAN> 39
 -2.105063e+01 1.993707e+00 -8.288682e-01 -6.549463e+00 -4.397267e+00 1.096140e+01 4.119440e-01 -1.600961e+00 8.192855e+00 -3.754425e+00 -3.610737e+00 4.485531e+00 5.998599e+01 -1.139554e+00 9.773424e-02 8.870859e-02 6.469268e-02 -1.033430e-01 3.627927e-02 -8.978711e-02 -5.597349e-02 -1.003583e-01 -1.465663e-01 -1.973388e-01 4.388773e-02 9.154179e-01 6.256830e-02 -1.345113e-02 5.148071e-02 -3.987627e-02 -2.995455e-02 1.095458e-01 -3.459608e-03 -5.466455e-02 9.626652e-02 -4.630073e-02 -6.195760e-02 8.909260e-02 -5.221090e-02
<VARIANCE> 39
 6.461091e+01 1.238872e+01 2.186449e+01 1.487311e+01 1.816684e+01 3.828070e+01 3.087175e+01 2.349480e+01 3.058651e+01 2.113090e+01 2.012727e+01 2.299946e+01 3.036720e+01 2.936901e+00 8.687562e-01 1.314596e+00 1.299598e+00 1.801294e+00 3.130792e+00 2.807408e+00 2.298393e+00 2.699342e+00 2.047983e+00 1.968786e+00 2.478086e+00 1.532398e+00 8.317293e-01 1.507431e-01 2.099370e-01 2.422159e-01 3.104081e-01 4.912435e-01 4.812210e-01 4.101726e-01 4.796304e-01 3.944218e-01 3.633044e-01 4.110185e-01 4.766124e-01
<GCONST> 1.092219e+02
<STATE> 4
<NUMMIXES> 2
<MIXTURE> 1 6.555477e-01
<MEAN> 39
 -2.143895e+01 4.102432e-01 5.921297e+00 -4.279444e+00 -6.743354e+00 1.093569e+01 1.339921e+00 -6.519980e+00 3.888025e+00 4.469845e+00 -1.191673e+01 5.006812e+00 5.724729e+01 5.530607e-01 6.038502e-02 1.753179e-01 -1.647586e-02 2.313995e-02 5.705125e-02 1.507084e-01 -7.748970e-02 2.759351e-01 3.331263e-02 -4.561050e-02 9.745130e-02 -6.298973e-01 -3.931556e-02 1.772398e-02 -5.710389e-02 1.903169e-02 5.419179e-02 -7.600319e-02 -1.530017e-02 9.405913e-02 -4.441563e-02 -9.166772e-03 8.839329e-02 -7.346091e-02 3.133553e-02
<VARIANCE> 39
 3.946281e+01 9.332639e+00 1.515599e+01 1.542487e+01 3.063798e+01 2.890220e+01 2.764659e+01 4.916846e+01 3.711995e+01 3.181730e+01 3.089664e+01 3.210630e+01 3.432603e+01 2.063364e-01 3.007908e-01 5.964910e-01 6.977088e-01 9.690931e-01 1.230926e+00 1.291123e+00 1.548307e+00 1.613615e+00 1.447757e+00 1.436651e+00 1.259123e+00 1.391796e-01 8.246733e-02 6.522498e-02 1.321979e-01 1.508732e-01 2.161448e-01 2.784974e-01 2.832495e-01 3.503628e-01 3.652479e-01 3.248391e-01 3.083339e-01 2.768412e-01 8.014800e-02
<GCONST> 8.985643e+01
<MIXTURE> 2 3.445072e-01
<MEAN> 39
 -2.408329e+01 7.876214e-01 4.174606e+00 -3.748484e+00 -5.826081e+00 1.000398e+01 1.097628e+00 -4.945399e+00 2.961223e+00 4.204793e+00 -1.069752e+01 4.003130e+00 5.957405e+01 -9.017889e-01 -1.301385e-01 -3.212338e-01 1.164157e-02 -3.180101e-02 -1.518713e-01 -2.886373e-01 1.720013e-01 -5.259903e-01 -7.564700e-02 1.148136e-01 -1.962265e-01 1.079763e+00 7.940075e-02 -3.183592e-02 1.003053e-01 -3.457548e-02 -9.460310e-02 1.356402e-01 2.982879e-02 -1.656720e-01 8.137439e-02 1.354195e-02 -1.549542e-01 1.323982e-01 -6.347123e-02
<VARIANCE> 39
 3.210536e+01 1.194959e+01 1.760232e+01 1.698953e+01 2.700395e+01 3.139698e+01 3.220641e+01 4.681096e+01 4.073763e+01 3.232289e+01 2.971159e+01 3.092112e+01 3.603382e+01 2.055063e+00 7.814199e-01 1.584093e+00 1.365147e+00 2.176223e+00 2.958449e+00 2.450169e+00 4.164005e+00 3.734726e+00 3.055879e+00 2.631063e+00 2.580990e+00 1.733479e+00 5.470132e-01 1.311663e-01 2.879132e-01 2.401078e-01 3.542852e-01 4.682517e-01 4.512186e-01 6.247116e-01 7.013828e-01 5.056002e-01 4.507017e-01 4.452559e-01 5.810141e-01
<GCONST> 1.137544e+02
<TRANSP> 5
 0.000000e+00 1.000000e+00 0.000000e+00 0.000000e+00 0.000000e+00
 0.000000e+00 9.537867e-01 4.621323e-02 0.000000e+00 0.000000e+00
 0.000000e+00 0.000000e+00 9.921290e-01 7.870947e-03 0.000000e+00
 0.000000e+00 0.000000e+00 0.000000e+00 9.934873e-01 6.512682e-03
 0.000000e+00 0.000000e+00 0.000000e+00 0.000000e+00 0.000000e+00
<ENDHMM>
~h "cm"
<BEGINHMM>
<NUMSTATES> 5
<STATE> 2
<NUMMIXES> 2
<MIXTURE> 1 6.381250e-01
<MEAN> 39
 -1.378679e+01 -1.167451e+00 -4.608090e+00 -6.534415e+00 -1.391092e-01 8.453239e-01 -1.222350e+00 1.088888e+00 -1.022853e+00 1.678428e+00 3.553612e+00 8.736875e-01 5.898345e+01 -2.490003e-02 -1.593789e-02 2.959132e-02 1.009100e-01 1.919845e-01 2.072535e-01 1.657094e-01 1.412510e-01 9.135486e-02 4.799803e-02 1.488118e-02 -1.061200e-02 4.844164e-02 9.530680e-03 4.264827e-03 7.566319e-03 1.057128e-03 -2.365625e-02 -3.799083e-02 -2.691844e-02 -2.328071e-02 -1.274584e-02 -1.511948e-02 -1.907011e-02 -1.499724e-02 2.530668e-03
<VARIANCE> 39
 6.309400e+00 1.318140e+01 1.196771e+01 1.264719e+01 1.406213e+01 1.591815e+01 1.882699e+01 1.770753e+01 1.775665e+01 1.612373e+01 1.736252e+01 1.631442e+01 1.497686e+01 1.397428e-01 2.766792e-01 4.445810e-01 6.488094e-01 8.506077e-01 1.028300e+00 1.162030e+00 1.281980e+00 1.325144e+00 1.284622e+00 1.279037e+00 1.196941e+00 9.571473e-02 2.268515e-02 4.764320e-02 8.166833e-02 1.256388e-01 1.729933e-01 2.133047e-01 2.423022e-01 2.659142e-01 2.684518e-01 2.614908e-01 2.567728e-01 2.428020e-01 8.462154e-03
<GCONST> 7.307308e+01
<MIXTURE> 2 3.618857e-01
<MEAN> 39
 -1.202313e+01 -2.542346e-01 -3.350888e+00 -5.608830e+00 -1.060053e+00 -5.071130e-01 -1.250608e+00 6.356564e-01 -6.308550e-01 1.183306e+00 2.347393e+00 -7.152590e-02 5.752149e+01 5.817577e-02 -5.020559e-02 -1.406501e-01 -2.715858e-01 -3.488421e-01 -4.463372e-01 -4.881168e-01 -3.845030e-01 -3.019294e-01 -1.729626e-01 -7.387763e-02 1.332218e-02 4.309151e-01 3.926239e-02 -4.717653e-03 -1.492947e-02 3.970898e-03 1.792708e-02 2.417080e-02 2.546804e-02 9.849887e-03 -7.903161e-03 -1.846986e-02 -2.265460e-02 -1.345207e-02 4.056044e-02
<VARIANCE> 39
 1.157172e+01 1.451869e+01 1.409908e+01 1.802727e+01 1.613532e+01 1.753456e+01 2.181413e+01 2.061534e+01 2.056315e+01 1.720842e+01 1.910884e+01 1.680851e+01 3.152082e+01 4.860406e-01 5.851621e-01 7.164364e-01 1.019178e+00 1.159201e+00 1.334322e+00 1.535866e+00 1.666775e+00 1.642318e+00 1.567000e+00 1.630455e+00 1.422616e+00 5.531928e-01 6.584953e-02 9.141832e-02 1.254326e-01 1.885862e-01 2.330736e-01 2.758450e-01 3.133492e-01 3.270926e-01 3.226563e-01 2.959947e-01 3.031262e-01 2.682488e-01 6.787535e-02
<GCONST> 8.875623e+01
<STATE> 3
<NUMMIXES> 2
<MIXTURE> 1 7.515926e-01
<MEAN> 39
 -8.066986e+00 -2.011693e+00 -4.945688e+00 -5.168899e+00 -1.463325e+00 -1.594218e+00 -2.291480e+00 -1.223431e+00 -2.427040e+00 -9.169402e-01 -6.608421e-01 -1.626232e+00 6.648513e+01 7.520609e-02 8.075703e-02 5.700853e-02 9.707818e-02 8.226664e-02 9.662122e-02 7.294564e-02 3.505325e-02 1.886629e-02 2.035368e-02 9.978452e-03 -8.289153e-04 -1.597498e-01 -1.169547e-02 -5.751343e-03 -1.001811e-02 -1.882453e-02 -2.214714e-02 -2.186872e-02 -1.606620e-02 -1.109519e-02 -1.275137e-02 -1.670307e-02 -1.160560e-02 -1.238897e-02 -2.724717e-03
<VARIANCE> 39
 1.178434e+01 1.367632e+01 1.293748e+01 1.437654e+01 1.516118e+01 1.526995e+01 1.942015e+01 1.805875e+01 1.990137e+01 1.752277e+01 1.674189e+01 1.433847e+01 6.881200e+01 2.267379e-01 3.271456e-01 4.867297e-01 7.089871e-01 8.927410e-01 1.065369e+00 1.212639e+00 1.306239e+00 1.361183e+00 1.346150e+00 1.304285e+00 1.200411e+00 3.105209e-01 3.211796e-02 5.842479e-02 9.372457e-02 1.365461e-01 1.764116e-01 2.149214e-01 2.472080e-01 2.635313e-01 2.759378e-01 2.765881e-01 2.672805e-01 2.453886e-01 2.148513e-02
<GCONST> 7.970751e+01
<MIXTURE> 2 2.484256e-01
<MEAN> 39
 -8.850462e+00 -2.596369e+00 -5.112833e+00 -6.816136e+00 -2.649750e+00 -3.175937e+00 -3.189288e+00 -1.728042e+00 -2.837722e+00 -1.703109e+00 -1.215159e+00 -2.215511e+00 6.718285e+01 2.169418e-01 -2.108869e-01 -1.474384e-01 -2.791278e-01 -3.690484e-01 -4.558638e-01 -2.808712e-01 -2.128487e-01 -1.190005e-01 -1.926073e-01 -2.523033e-01 -1.139155e-01 1.079380e+00 1.249840e-02 3.631539e-02 4.371745e-02 7.349208e-02 1.129952e-01 1.330883e-01 9.728930e-02 8.127800e-02 7.399519e-02 9.426658e-02 9.681356e-02 6.657214e-02 -1.031409e-01
<VARIANCE> 39
 1.583364e+01 1.929500e+01 1.754468e+01 2.063002e+01 2.086476e+01 1.927503e+01 2.207264e+01 2.180962e+01 2.266544e+01 1.842315e+01 1.769185e+01 1.576340e+01 6.362394e+01 1.082837e+00 1.256040e+00 1.152022e+00 1.542234e+00 1.668999e+00 1.777764e+00 1.832919e+00 1.931584e+00 1.931349e+00 1.783287e+00 1.736427e+00 1.545198e+00 1.676346e+00 1.493151e-01 2.128092e-01 2.104619e-01 2.924845e-01 3.219555e-01 3.495824e-01 3.606182e-01 3.754516e-01 3.808799e-01 3.443315e-01 3.321320e-01 2.975456e-01 3.436693e-01
<GCONST> 1.014222e+02
<STATE> 4
<NUMMIXES> 2
<MIXTURE> 1 4.682501e-01
<MEAN> 39
 -5.397347e+00 1.794495e+00 -1.586453e+00 -2.810415e+00 9.231675e-01 -3.993172e-02 -1.442697e+00 -1.022751e+00 -2.235799e+00 -1.749605e+00 -7.353787e-01 -2.235576e+00 6.206278e+01 1.975695e-02 7.489055e-02 9.555213e-02 1.064971e-01 9.072957e-02 7.315885e-02 7.653935e-02 3.420420e-02 1.382661e-02 1.691042e-03 6.382815e-03 -4.882887e-03 -3.626500e-01 -4.129258e-03 -2.789062e-02 -5.761922e-02 -8.891264e-02 -1.111875e-01 -1.040468e-01 -7.292687e-02 -4.005834e-02 -2.331328e-02 -1.433832e-02 -1.401361e-02 -4.476876e-03 2.172189e-02
<VARIANCE> 39
 1.386364e+01 9.123659e+00 9.247675e+00 9.601518e+00 1.036614e+01 1.214135e+01 1.616875e+01 1.845773e+01 1.906979e+01 1.662760e+01 1.488760e+01 1.320630e+01 5.941265e+01 1.793158e-01 2.770752e-01 4.337060e-01 6.533176e-01 8.550377e-01 1.021137e+00 1.166538e+00 1.263825e+00 1.335601e+00 1.305248e+00 1.260072e+00 1.156621e+00 1.825056e-01 2.492005e-02 4.722174e-02 7.790801e-02 1.187741e-01 1.559201e-01 1.916521e-01 2.273186e-01 2.506364e-01 2.652563e-01 2.598787e-01 2.479458e-01 2.297662e-01 1.278454e-02
<GCONST> 7.418037e+01
<MIXTURE> 2 5.316920e-01
<MEAN> 39
 -4.949111e+00 -1.219254e+00 -5.324790e+00 -7.244392e+00 -3.545691e+00 -3.831813e+00 -3.993499e+00 -2.203603e+00 -2.799459e+00 -2.260657e+00 -1.632042e+00 -2.565940e+00 7.209088e+01 5.193822e-02 9.674858e-05 2.073744e-02 3.642656e-02 2.234152e-02 -1.100446e-03 -4.097218e-03 -3.076245e-02 -5.308124e-03 -6.717602e-03 4.980460e-03 1.498844e-02 -6.840492e-02 -7.518526e-03 2.293705e-02 5.199106e-02 8.043990e-02 1.008264e-01 9.612690e-02 6.830437e-02 3.891721e-02 2.348745e-02 1.893564e-02 1.817615e-02 7.334771e-03 -3.498527e-02
<VARIANCE> 39
 4.870393e+00 8.017909e+00 7.800812e+00 1.052519e+01 1.007700e+01 1.032377e+01 1.363644e+01 1.582427e+01 1.644505e+01 1.467247e+01 1.399194e+01 1.222701e+01 3.401955e+01 1.789391e-01 2.943372e-01 4.736884e-01 7.158380e-01 8.881463e-01 1.019093e+00 1.171337e+00 1.256748e+00 1.295957e+00 1.267074e+00 1.217231e+00 1.123356e+00 3.384842e-01 3.096304e-02 5.411977e-02 8.808635e-02 1.305499e-01 1.612024e-01 1.916600e-01 2.297986e-01 2.500825e-01 2.611201e-01 2.573797e-01 2.488355e-01 2.293667e-01 2.880282e-02
<GCONST> 7.361017e+01
<TRANSP> 5
 0.000000e+00 1.000000e+00 0.000000e+00 0.000000e+00 0.000000e+00
 0.000000e+00 9.655641e-01 3.443588e-02 0.000000e+00 0.000000e+00
 0.000000e+00 0.000000e+00 9.685221e-01 3.147782e-02 0.000000e+00
 0.000000e+00 0.000000e+00 0.000000e+00 9.829916e-01 1.700835e-02
 0.000000e+00 0.000000e+00 0.000000e+00 0.000000e+00 0.000000e+00
<ENDHMM>
~h "co"
<BEGINHMM>
<NUMSTATES> 5
<STATE> 2
<NUMMIXES> 2
<MIXTURE> 1 6.402333e-01
<MEAN> 39
 -1.000202e+01 -6.262661e+00 3.300795e-01 -4.530683e+00 -1.005826e+01 -6.417892e+00 -3.500652e+00 -1.785347e+00 -4.108531e+00 -6.046304e+00 -4.299273e+00 -6.347230e+00 7.107529e+01 -5.712799e-01 1.743136e-01 4.141903e-02 3.208854e-02 5.910471e-01 -4.899025e-02 3.732623e-01 -4.519949e-01 -3.906470e-01 -6.250719e-02 3.389546e-01 2.227184e-01 1.077501e+00 1.766744e-01 -1.896289e-01 -2.007005e-01 1.324810e-01 5.431081e-02 8.292029e-02 -6.098891e-02 7.566058e-02 2.097664e-01 2.314769e-01 8.331747e-02 1.779692e-02 -4.549320e-01
<VARIANCE> 39
 1.711589e+01 1.840779e+01 2.414447e+01 2.691733e+01 4.041657e+01 4.607610e+01 5.247093e+01 6.676165e+01 4.039263e+01 3.285076e+01 3.884728e+01 2.679776e+01 7.178007e+01 6.272976e-01 1.127207e+00 1.343824e+00 1.395328e+00 1.752961e+00 1.991279e+00 2.512771e+00 2.134885e+00 2.266333e+00 2.358346e+00 1.917547e+00 1.810418e+00 1.189983e+00 8.835077e-02 1.625051e-01 2.267165e-01 2.493441e-01 2.831982e-01 3.528716e-01 3.990967e-01 3.715940e-01 3.974181e-01 3.725545e-01 3.642745e-01 3.135539e-01 1.826196e-01
<GCONST> 1.072082e+02
<MIXTURE> 2 3.597642e-01
<MEAN> 39
 -6.574198e+00 -7.790736e+00 -2.300596e+00 -2.996856e+00 -9.808942e+00 -3.438827e+00 -3.175490e+00 1.575261e+00 9.290918e-01 -1.125076e+00 -1.808641e+00 -5.675661e+00 5.936005e+01 -4.993414e-01 -5.585316e-01 3.940157e-01 -8.384917e-01 -1.710053e+00 -1.597894e+00 -1.008265e+00 -9.884855e-01 -1.120131e+00 -1.186162e+00 -8.633116e-01 -7.059310e-01 3.754454e+00 -1.716094e-01 3.715371e-01 1.381252e-01 -4.728773e-02 3.867381e-01 1.287116e-01 2.632214e-01 -1.816794e-02 -2.154491e-01 -1.141189e-01 6.770563e-02 9.939503e-02 9.306912e-02
<VARIANCE> 39
 2.083152e+01 4.690040e+01 2.646976e+01 3.655064e+01 9.440577e+01 6.031613e+01 1.000305e+02 6.457820e+01 4.924591e+01 4.415487e+01 3.451948e+01 3.743140e+01 1.019044e+02 1.719653e+00 4.157038e+00 2.664909e+00 3.330456e+00 5.555922e+00 3.946632e+00 5.052989e+00 4.369506e+00 4.310092e+00 3.191214e+00 2.652383e+00 2.575991e+00 3.595936e+00 2.094894e-01 5.723565e-01 3.331434e-01 4.696150e-01 8.964520e-01 7.535158e-01 9.371486e-01 6.071462e-01 6.316160e-01 5.534192e-01 5.050949e-01 4.951461e-01 7.470087e-01
<GCONST> 1.308240e+02
<STATE> 3
<NUMMIXES> 2
<MIXTURE> 1 7.676008e-01
<MEAN> 39
 -6.689897e+00 -7.735091e+00 -1.978235e+00 -3.579412e+00 -6.501808e+00 -8.244577e+00 -7.160326e+00 -6.533937e+00 -4.089264e+00 -3.741395e+00 -3.398603e+00 -7.915835e+00 6.773582e+01 2.298317e-01 5.572741e-02 4.824108e-02 1.641571e-01 3.220247e-01 6.623689e-02 -1.342533e-02 -1.141908e-01 4.788096e-02 1.365464e-01 5.526526e-02 5.393403e-03 -6.041309e-01 1.738614e-02 2.240485e-02 2.209673e-02 1.558019e-02 -2.205055e-02 2.127631e-03 -1.379208e-02 -1.163043e-02 -4.167437e-02 -5.005260e-02 -3.583063e-02 -7.913727e-03 -1.639584e-02
<VARIANCE> 39
 2.001135e+01 1.403030e+01 2.619898e+01 2.363328e+01 2.350518e+01 2.970169e+01 5.062843e+01 5.682837e+01 3.851189e+01 4.040964e+01 3.650077e+01 3.650460e+01 4.198341e+01 1.840101e-01 3.717398e-01 6.036896e-01 7.435709e-01 1.059742e+00 1.187014e+00 1.526591e+00 1.691762e+00 1.809298e+00 1.742132e+00 1.514702e+00 1.441346e+00 1.335337e-01 3.822966e-02 7.449398e-02 1.131529e-01 1.559614e-01 2.157072e-01 2.422182e-01 3.091034e-01 3.427702e-01 3.813761e-01 3.600146e-01 3.159030e-01 2.944624e-01 2.331804e-02
<GCONST> 9.093467e+01
<MIXTURE> 2 2.324259e-01
<MEAN> 39
 -6.632905e+00 -8.209000e+00 -1.427326e+00 -2.626673e+00 -8.797652e+00 -7.985538e+00 -7.541615e+00 -7.150146e+00 -3.806864e+00 -4.177955e+00 -4.888408e+00 -8.432652e+00 6.735907e+01 -2.871072e-01 -1.397578e-01 -2.435951e-02 -3.335665e-01 -6.943934e-01 -1.425689e-01 -2.213847e-01 2.044941e-01 -6.208213e-02 -3.086760e-01 -2.001423e-01 -1.484004e-01 1.193457e+00 -4.327608e-02 -3.224910e-02 -1.938101e-02 -3.341810e-02 8.047821e-02 2.351799e-02 7.211356e-02 7.026832e-02 1.312542e-01 1.417386e-01 9.675624e-02 2.769866e-02 8.866038e-03
<VARIANCE> 39
 1.579508e+01 2.400303e+01 3.022302e+01 2.819369e+01 3.753138e+01 3.542466e+01 5.403901e+01 7.203667e+01 5.784024e+01 4.192489e+01 4.316083e+01 3.759339e+01 5.767154e+01 1.195395e+00 2.285690e+00 1.824860e+00 2.283849e+00 3.351411e+00 2.704638e+00 4.272844e+00 4.134122e+00 5.200776e+00 3.529966e+00 3.306040e+00 2.646190e+00 2.566403e+00 1.407421e-01 4.386482e-01 2.934653e-01 4.072568e-01 6.802773e-01 4.685269e-01 6.318652e-01 6.997269e-01 9.854237e-01 6.531457e-01 5.969357e-01 4.363268e-01 5.331466e-01
<GCONST> 1.233086e+02
<STATE> 4
<NUMMIXES> 2
<MIXTURE> 1 8.041052e-01
<MEAN> 39
 -3.991208e+00 -2.966155e+00 2.997347e+00 1.059723e+00 1.431967e-01 -2.803744e+00 -4.427216e+00 -3.205564e+00 -2.339434e+00 -3.886193e+00 -3.274497e+00 -6.379555e+00 5.550809e+01 8.782327e-02 2.262214e-01 -4.813857e-03 4.845991e-02 1.850492e-01 1.880481e-01 1.883503e-01 1.785658e-01 5.964387e-03 3.513141e-02 -1.174682e-02 4.720924e-02 -5.025646e-01 -6.490519e-03 -9.326878e-03 -1.914853e-02 -1.294693e-02 -3.350944e-02 -5.091453e-03 -1.276167e-02 2.296926e-03 -1.140991e-04 -2.877864e-04 -3.275500e-03 -7.303995e-03 1.435358e-02
<VARIANCE> 39
 1.517464e+01 2.266443e+01 1.771099e+01 2.190600e+01 2.141009e+01 2.880185e+01 4.736592e+01 4.215869e+01 3.004924e+01 2.977303e+01 2.526435e+01 2.401296e+01 5.224041e+01 1.871969e-01 3.156843e-01 5.072146e-01 7.173906e-01 9.118593e-01 1.065434e+00 1.230605e+00 1.327752e+00 1.410985e+00 1.479708e+00 1.424985e+00 1.301391e+00 1.156162e-01 2.763906e-02 5.701682e-02 9.405678e-02 1.364429e-01 1.787318e-01 2.097293e-01 2.367391e-01 2.557249e-01 2.809803e-01 2.939123e-01 2.852036e-01 2.616347e-01 9.873039e-03
<GCONST> 8.387717e+01
<MIXTURE> 2 1.959146e-01
<MEAN> 39
 -5.451539e+00 -7.159629e+00 1.181655e-02 -6.294363e-01 -5.299128e+00 -2.355324e+00 -9.924911e+00 -3.100786e+00 -2.136745e+00 -6.338967e+00 -3.844571e+00 -8.831299e+00 6.393082e+01 -2.155864e-01 -2.964087e-01 1.327070e-01 -8.520067e-03 -2.524861e-01 -2.487244e-01 -3.315637e-01 -1.866449e-01 -2.107346e-02 -2.012130e-01 -1.248071e-02 -4.922467e-02 8.511595e-01 -1.187509e-03 2.516337e-02 3.460326e-02 1.112840e-02 7.884879e-02 -7.584839e-03 5.040221e-02 -3.187764e-03 6.227978e-03 7.423358e-03 1.315515e-02 2.034188e-02 -1.229617e-02
<VARIANCE> 39
 1.261383e+01 3.842141e+01 2.745682e+01 2.412442e+01 4.137600e+01 4.778013e+01 7.808339e+01 5.290611e+01 3.717334e+01 6.597033e+01 4.301770e+01 4.337123e+01 7.815053e+01 6.995484e-01 1.916250e+00 1.472711e+00 1.466305e+00 3.121070e+00 2.209175e+00 4.097543e+00 3.157165e+00 2.734841e+00 2.855214e+00 2.517392e+00 2.585562e+00 2.572263e+00 1.088751e-01 3.275379e-01 2.593621e-01 2.729494e-01 5.654178e-01 4.104114e-01 7.421109e-01 5.501560e-01 5.231996e-01 5.622922e-01 4.876973e-01 4.979730e-01 3.697387e-01
<GCONST> 1.184218e+02
<TRANSP> 5
 0.000000e+00 1.000000e+00 0.000000e+00 0.000000e+00 0.000000e+00
 0.000000e+00 8.861206e-01 1.138795e-01 0.000000e+00 0.000000e+00
 0.000000e+00 0.000000e+00 9.850584e-01 1.494159e-02 0.000000e+00
 0.000000e+00 0.000000e+00 0.000000e+00 9.791437e-01 2.085635e-02
 0.000000e+00 0.000000e+00 0.000000e+00 0.000000e+00 0.000000e+00
<ENDHMM>
~h "ds"
<BEGINHMM>
<NUMSTATES> 5
<STATE> 2
<NUMMIXES> 2
<MIXTURE> 1 5.417567e-01
<MEAN> 39
 -1.287421e+01 -3.449298e-01 1.467539e+00 1.289035e-01 1.629789e+00 -3.792459e-01 5.631321e+00 1.022014e+00 2.589248e+00 1.270687e+00 2.922913e+00 8.666308e-01 6.405499e+01 3.020087e-01 1.471280e-01 2.082409e-01 2.948463e-01 2.262182e-01 2.198616e-01 1.106155e-01 9.938632e-02 7.365910e-02 9.248316e-02 5.611643e-02 7.656999e-02 -3.034551e-01 -8.088069e-02 -6.185531e-02 -9.988876e-02 -6.861667e-02 -9.117515e-02 -7.082331e-02 -9.775583e-02 -5.051105e-02 -2.019965e-02 -8.409086e-05 -5.171846e-02 -2.553300e-02 -6.657803e-03
<VARIANCE> 39
 1.935611e+01 1.772918e+01 1.232395e+01 1.839428e+01 1.680614e+01 1.923015e+01 2.494565e+01 3.297752e+01 2.610501e+01 2.049032e+01 1.728525e+01 1.538581e+01 1.041216e+02 3.555843e-01 4.796969e-01 7.003316e-01 9.743619e-01 1.198548e+00 1.485556e+00 1.661504e+00 1.814096e+00 1.616318e+00 1.621250e+00 1.537526e+00 1.294788e+00 4.406085e-01 1.158998e-01 1.131325e-01 1.411525e-01 1.867270e-01 2.424661e-01 2.859271e-01 3.239160e-01 3.582868e-01 3.362108e-01 3.307293e-01 3.175961e-01 2.645451e-01 1.802937e-01
<GCONST> 9.312321e+01
<MIXTURE> 2 4.582506e-01
<MEAN> 39
 -1.543171e+01 -1.161727e+00 -1.513604e+00 -1.523940e+00 -1.963922e+00 -1.986181e+00 2.321418e+00 -7.431493e-01 2.714218e+00 2.006377e+00 2.054257e+00 9.042710e-01 6.759194e+01 -7.253628e-01 -6.451720e-03 -3.000675e-01 -4.001326e-01 -6.074261e-01 -4.676977e-01 -2.864558e-01 -1.473618e-01 -3.839318e-02 1.941459e-01 2.275565e-01 1.417187e-01 2.154118e+00 2.375238e-01 1.048874e-01 1.501376e-01 1.579051e-01 1.949133e-01 1.092377e-01 1.279500e-01 6.846837e-02 3.294860e-02 -3.177340e-02 5.972714e-02 1.529656e-02 -3.106221e-01
<VARIANCE> 39
 2.578445e+01 1.529459e+01 1.577539e+01 2.074779e+01 2.922636e+01 2.319193e+01 2.694689e+01 2.774460e+01 2.283199e+01 2.354032e+01 2.142994e+01 1.684010e+01 1.266174e+02 3.006234e+00 1.690693e+00 1.895399e+00 2.191896e+00 2.806282e+00 2.600593e+00 3.059545e+00 2.650466e+00 2.481611e+00 2.258239e+00 2.298874e+00 1.802460e+00 9.783826e+00 4.603702e-01 2.367865e-01 2.650990e-01 4.169244e-01 4.836040e-01 4.849360e-01 5.059419e-01 4.861403e-01 4.384119e-01 4.041041e-01 4.043247e-01 3.190831e-01 1.881692e+00
<GCONST> 1.157362e+02
<STATE> 3
<NUMMIXES> 2
<MIXTURE> 1 3.903039e-01
<MEAN> 39
 -9.502896e+00 4.162479e+00 4.452509e+00 5.387524e+00 6.071239e+00 2.739573e+00 6.431709e+00 4.847256e-01 4.000890e+00 1.915360e+00 3.336532e+00 1.574729e+00 6.747706e+01 2.470434e-01 3.425324e-04 5.535567e-02 -2.508771e-02 8.865055e-02 9.433279e-02 1.118268e-01 5.441128e-02 7.159794e-03 -3.493783e-02 -4.511326e-02 -7.233383e-02 -7.414860e-01 -7.731299e-03 -2.046419e-02 -3.983614e-02 -5.474554e-02 -5.665867e-02 -4.073306e-02 -3.925891e-02 -2.194946e-02 -1.616218e-02 -1.502597e-02 -1.635568e-02 -1.839929e-02 4.957004e-03
<VARIANCE> 39
 1.283621e+01 6.980824e+00 6.105051e+00 6.957331e+00 9.822136e+00 1.249343e+01 1.394600e+01 1.349439e+01 1.463861e+01 1.419327e+01 1.323872e+01 1.295940e+01 4.848381e+01 1.310876e-01 2.583581e-01 4.205970e-01 6.150542e-01 8.299189e-01 1.028022e+00 1.166893e+00 1.223471e+00 1.338363e+00 1.323557e+00 1.253579e+00 1.154803e+00 7.032370e-02 2.546916e-02 5.002109e-02 8.446534e-02 1.229819e-01 1.690545e-01 2.100414e-01 2.378256e-01 2.488458e-01 2.748152e-01 2.690745e-01 2.544433e-01 2.348673e-01 1.157493e-02
<GCONST> 7.079977e+01
<MIXTURE> 2 6.096810e-01
<MEAN> 39
 -1.459365e+01 -7.122250e-01 -2.188344e+00 -7.906909e-01 -1.384011e+00 -3.209603e+00 2.091182e-01 -2.944289e+00 1.556278e+00 2.668750e+00 3.570046e+00 6.450810e-02 6.821392e+01 3.127443e-01 7.785362e-03 1.263786e-01 1.591750e-01 4.773480e-01 1.634934e-01 4.763119e-02 -1.283305e-01 -1.145301e-01 -1.022539e-01 -3.748638e-02 -2.230761e-01 -7.143816e-01 6.833054e-03 3.360738e-03 8.380256e-03 -3.761199e-03 1.615198e-02 5.394339e-02 5.334055e-02 3.279696e-02 7.900909e-03 1.929752e-03 -2.171696e-02 -4.305113e-03 -2.308146e-05
<VARIANCE> 39
 5.207827e+00 4.779095e+00 5.639358e+00 9.499875e+00 1.956538e+01 1.265034e+01 1.325548e+01 1.513036e+01 1.496899e+01 1.506672e+01 1.442762e+01 1.523389e+01 2.364578e+01 1.349592e-01 2.732666e-01 4.464574e-01 7.070456e-01 1.012034e+00 1.142268e+00 1.267073e+00 1.375988e+00 1.399763e+00 1.475509e+00 1.430708e+00 1.274734e+00 5.702192e-02 2.887250e-02 5.590481e-02 9.340160e-02 1.437484e-01 2.108541e-01 2.374489e-01 2.592043e-01 2.810661e-01 2.871251e-01 3.041866e-01 2.973705e-01 2.662216e-01 1.251999e-02
<GCONST> 7.266135e+01
<STATE> 4
<NUMMIXES> 2
<MIXTURE> 1 7.754591e-01
<MEAN> 39
 -9.336009e+00 9.018149e-01 1.749854e+00 -1.334366e-01 2.962922e+00 9.680020e-01 3.363160e+00 1.106434e+00 2.319319e+00 -1.894190e-01 1.597820e+00 -7.636555e-01 5.379044e+01 1.093927e-01 4.146766e-02 6.350879e-02 3.487557e-02 7.059973e-02 8.595267e-02 4.369801e-02 6.426739e-02 1.109381e-02 1.769043e-02 -3.605524e-03 1.876025e-03 -2.755780e-01 -1.838601e-02 -1.096529e-02 -1.912047e-02 -2.211496e-02 -2.527983e-02 -2.236524e-02 -2.777053e-02 -1.492088e-02 -4.281502e-03 -3.942680e-03 -1.432278e-03 -5.248996e-04 1.873988e-02
<VARIANCE> 39
 1.435968e+01 1.143705e+01 1.611285e+01 1.719542e+01 1.769466e+01 2.128494e+01 2.396221e+01 1.960783e+01 2.395941e+01 2.159292e+01 1.672975e+01 1.549101e+01 4.386934e+01 2.189310e-01 3.078869e-01 5.030022e-01 7.188480e-01 9.298658e-01 1.157632e+00 1.328003e+00 1.386107e+00 1.465522e+00 1.467379e+00 1.349653e+00 1.193725e+00 1.625597e-01 3.518752e-02 5.781334e-02 9.630402e-02 1.415420e-01 1.831181e-01 2.279873e-01 2.635003e-01 2.773770e-01 2.937808e-01 2.964278e-01 2.728835e-01 2.419743e-01 1.729571e-02
<GCONST> 8.096828e+01
<MIXTURE> 2 2.247662e-01
<MEAN> 39
 -1.108408e+01 -5.703400e-01 -8.048783e-01 -2.110310e+00 1.096536e+00 -8.723091e-01 1.682592e+00 -2.605937e-01 1.917352e+00 -4.885915e-01 1.563135e+00 -9.405594e-01 5.717948e+01 -2.962320e-01 -9.715211e-02 -1.348847e-01 -7.033498e-02 -2.159149e-01 -2.286137e-01 -5.722891e-02 -1.153945e-01 1.618139e-02 -8.167990e-02 -2.295392e-02 3.215829e-02 8.065456e-01 5.646797e-02 3.923221e-02 6.705383e-02 8.215718e-02 8.535551e-02 7.190652e-02 8.772543e-02 4.504201e-02 1.506048e-02 1.920836e-02 1.279727e-02 7.408241e-03 -5.755217e-02
<VARIANCE> 39
 2.385833e+01 1.788548e+01 2.093353e+01 2.193744e+01 2.435896e+01 2.902357e+01 3.055891e+01 2.724229e+01 3.072717e+01 2.908291e+01 2.217963e+01 1.958430e+01 6.486211e+01 1.717243e+00 1.294091e+00 1.371012e+00 1.728683e+00 1.978430e+00 2.331297e+00 2.444678e+00 2.279754e+00 2.390370e+00 2.212078e+00 1.910096e+00 1.666466e+00 2.322211e+00 3.043404e-01 2.309471e-01 2.413479e-01 3.180232e-01 3.824678e-01 4.510508e-01 4.579948e-01 4.458058e-01 4.506910e-01 4.243081e-01 3.728915e-01 3.306642e-01 4.353712e-01
<GCONST> 1.096164e+02
<TRANSP> 5
 0.000000e+00 1.000000e+00 0.000000e+00 0.000000e+00 0.000000e+00
 0.000000e+00 9.425994e-01 5.740067e-02 0.000000e+00 0.000000e+00
 0.000000e+00 0.000000e+00 9.545237e-01 4.547623e-02 0.000000e+00
 0.000000e+00 0.000000e+00 0.000000e+00 9.928974e-01 7.102593e-03
 0.000000e+00 0.000000e+00 0.000000e+00 0.000000e+00 0.000000e+00
<ENDHMM>
~h "kj"
<BEGINHMM>
<NUMSTATES> 5
<STATE> 2
<NUMMIXES> 2
<MIXTURE> 1 6.848362e-01
<MEAN> 39
 -1.973498e+01 3.695839e+00 -3.781100e-01 -2.790587e+00 -1.091464e+00 3.652550e+00 2.364829e+00 4.090085e+00 1.780214e+00 -1.728250e-01 1.266277e+00 -9.396118e-01 5.544966e+01 2.484688e-01 6.617134e-02 -6.089619e-02 -2.652912e-02 3.484987e-02 4.949831e-02 5.346660e-02 4.683134e-02 2.187104e-04 1.630133e-02 1.473507e-02 -2.649935e-02 -2.255166e-01 -2.200991e-02 -9.974538e-03 -1.265533e-02 -6.160559e-03 -2.191455e-02 -2.469324e-02 -2.302096e-02 -1.775181e-02 -2.733760e-02 -4.859657e-03 -3.075216e-03 -2.475576e-03 1.688298e-02
<VARIANCE> 39
 3.126820e+01 2.130615e+01 1.490294e+01 2.626280e+01 1.607938e+01 3.104735e+01 2.768418e+01 2.013678e+01 1.918736e+01 2.027665e+01 1.646670e+01 1.616128e+01 2.155553e+01 3.042863e-01 3.327666e-01 5.362111e-01 7.662483e-01 9.780488e-01 1.206440e+00 1.379008e+00 1.438478e+00 1.448141e+00 1.486863e+00 1.383368e+00 1.232951e+00 1.378071e-01 6.061947e-02 6.460136e-02 1.048552e-01 1.555251e-01 1.969519e-01 2.430290e-01 2.759021e-01 2.897865e-01 2.947739e-01 3.050232e-01 2.836015e-01 2.520583e-01 2.538270e-02
<GCONST> 8.434776e+01
<MIXTURE> 2 3.152906e-01
<MEAN> 39
 -1.995856e+01 1.013720e+00 -1.721103e+00 -2.953518e+00 -2.075707e+00 1.985274e+00 1.293215e+00 2.429568e+00 5.277033e-01 -7.269071e-03 1.059952e+00 -9.666940e-01 5.776780e+01 -6.243188e-01 -9.890666e-02 1.483195e-01 4.863916e-02 -8.812337e-02 -9.424797e-02 -1.017945e-01 -1.066483e-01 3.313814e-03 -3.466225e-02 -2.871212e-02 5.744201e-02 5.262449e-01 5.361976e-02 1.360528e-02 2.708301e-02 1.476234e-02 4.506332e-02 4.992142e-02 4.742552e-02 3.774219e-02 5.721538e-02 1.338445e-02 6.459542e-03 6.008284e-03 -3.527148e-02
<VARIANCE> 39
 3.645930e+01 3.202413e+01 2.614063e+01 2.681593e+01 1.937050e+01 3.828312e+01 3.117907e+01 2.667067e+01 2.249911e+01 2.190558e+01 1.833568e+01 1.686024e+01 2.834027e+01 9.431790e-01 1.120778e+00 1.260513e+00 1.284827e+00 1.554636e+00 1.912417e+00 1.988464e+00 2.006584e+00 1.932567e+00 1.845665e+00 1.677384e+00 1.508349e+00 6.554702e-01 2.100220e-01 2.029600e-01 2.291386e-01 2.397712e-01 2.872898e-01 3.624111e-01 3.816956e-01 3.924302e-01 3.741311e-01 3.618805e-01 3.307244e-01 2.961369e-01 1.495175e-01
<GCONST> 1.022505e+02
<STATE> 3
<NUMMIXES> 2
<MIXTURE> 1 7.288445e-01
<MEAN> 39
 -1.432385e+01 -8.743715e+00 -5.521056e+00 -2.098358e+00 -1.774291e+00 -4.559111e+00 -2.606039e+00 -2.898834e+00 -1.259128e+00 7.286400e-03 6.525800e-01 2.145406e-02 6.395366e+01 2.228732e-01 2.966428e-01 6.981107e-02 1.348118e-01 1.162487e-01 1.466124e-01 1.459415e-01 1.212699e-01 4.305948e-02 4.999951e-02 2.078291e-02 -6.047379e-03 -6.376127e-01 -2.659620e-02 1.206263e-02 3.926947e-02 -5.061169e-03 -3.268419e-03 2.125597e-02 2.137646e-02 3.660209e-02 5.396957e-03 4.056375e-03 -4.612090e-04 -8.954225e-03 3.384373e-03
<VARIANCE> 39
 1.745153e+01 2.541510e+01 1.185099e+01 1.347351e+01 1.672365e+01 1.686111e+01 2.088399e+01 2.049967e+01 1.922398e+01 1.650700e+01 1.519985e+01 1.325309e+01 6.801826e+01 2.150025e-01 3.466383e-01 5.299869e-01 7.247539e-01 9.331348e-01 1.153529e+00 1.338407e+00 1.413638e+00 1.469373e+00 1.383739e+00 1.296096e+00 1.183728e+00 1.543226e-01 3.932314e-02 6.958957e-02 1.076929e-01 1.452774e-01 1.906936e-01 2.365288e-01 2.760350e-01 2.894917e-01 3.055359e-01 2.863361e-01 2.688854e-01 2.432433e-01 3.071851e-02
<GCONST> 8.192777e+01
<MIXTURE> 2 2.711639e-01
<MEAN> 39
 -1.703899e+01 -8.381838e+00 -4.305326e+00 -3.019872e+00 -3.313543e+00 -3.245970e+00 -2.011309e+00 -1.238623e+00 -6.143585e-01 1.339219e-01 7.353728e-01 -5.606034e-01 6.597000e+01 -2.176121e-01 -1.250019e+00 -3.035614e-01 -2.454437e-01 -2.171394e-01 -6.451587e-01 -5.006921e-01 -4.959249e-01 -1.781692e-01 -1.153476e-01 -8.329013e-02 4.421320e-02 1.703987e+00 7.186429e-02 5.225265e-02 -5.640446e-02 1.610451e-02 3.711099e-02 5.813132e-03 1.969112e-02 -5.163883e-02 -1.956338e-03 -4.824685e-03 -3.702476e-03 1.577763e-03 -1.007561e-01
<VARIANCE> 39
 2.231397e+01 6.284423e+01 2.356511e+01 2.393063e+01 2.060734e+01 2.943293e+01 3.010519e+01 2.535818e+01 2.062283e+01 1.996723e+01 1.906483e+01 1.688916e+01 9.111082e+01 1.573615e+00 4.897109e+00 2.334408e+00 1.679647e+00 1.903865e+00 2.703385e+00 2.807243e+00 2.459701e+00 2.007632e+00 1.928920e+00 1.732365e+00 1.723342e+00 3.888459e+00 2.477763e-01 9.810121e-01 4.135673e-01 3.202577e-01 3.510615e-01 5.090603e-01 5.145239e-01 4.634679e-01 3.898668e-01 3.818434e-01 3.403543e-01 3.377704e-01 9.776042e-01
<GCONST> 1.147134e+02
<STATE> 4
<NUMMIXES> 2
<MIXTURE> 1 7.961954e-01
<MEAN> 39
 -2.320153e+01 1.856591e+00 3.022019e+00 1.725359e+00 -2.725556e+00 6.367351e-01 8.330697e+00 5.761064e-01 -2.503009e+00 5.481392e+00 5.499891e-01 -4.046072e+00 5.594524e+01 4.976578e-02 4.388937e-02 2.109101e-02 -1.576248e-02 1.034276e-02 2.376456e-02 1.860209e-02 9.993678e-03 1.221229e-02 -2.525244e-03 -9.260959e-03 -1.320701e-02 -6.872555e-02 3.098411e-03 -1.084269e-02 -1.756937e-02 -1.378233e-02 -1.034631e-02 -2.243428e-02 -3.149822e-02 -8.281056e-03 -2.766193e-03 -1.479043e-02 4.680702e-04 1.226200e-02 3.312242e-03
<VARIANCE> 39
 2.383181e+01 1.235601e+01 1.040790e+01 1.575223e+01 1.574807e+01 1.718705e+01 2.255275e+01 1.854175e+01 1.994359e+01 2.018970e+01 1.718588e+01 1.429758e+01 1.812701e+01 4.159298e-01 5.262148e-01 5.999399e-01 8.822418e-01 1.097945e+00 1.267104e+00 1.579612e+00 1.510784e+00 1.569458e+00 1.690367e+00 1.442214e+00 1.278383e+00 2.590646e-01 7.276697e-02 9.871404e-02 1.134143e-01 1.714238e-01 2.141133e-01 2.496757e-01 3.066895e-01 3.021951e-01 3.188830e-01 3.413753e-01 2.900614e-01 2.582184e-01 4.209408e-02
<GCONST> 8.561862e+01
<MIXTURE> 2 2.038794e-01
<MEAN> 39
 -1.515245e+01 -5.265825e+00 -3.368947e+00 -2.019675e+00 -2.730239e+00 -4.214664e+00 3.996187e-01 -1.640458e+00 -1.874649e+00 1.642258e+00 5.293992e-01 -8.782422e-01 5.937929e+01 -5.554872e-02 -1.670401e-01 -5.675190e-02 3.868724e-02 5.595284e-03 -8.213715e-02 -6.337634e-02 7.753986e-03 -1.101911e-02 -2.581684e-02 2.743999e-02 6.247284e-02 1.484138e-01 -1.000440e-03 3.878678e-02 6.061039e-02 4.791534e-02 4.392228e-02 8.728138e-02 1.094871e-01 3.106676e-02 1.488527e-02 4.860516e-02 1.270640e-03 -4.293663e-02 -1.577522e-02
<VARIANCE> 39
 4.235123e+01 5.696040e+01 2.095727e+01 1.831717e+01 2.243181e+01 2.450468e+01 3.041619e+01 2.562433e+01 2.128827e+01 2.224082e+01 1.746284e+01 1.617691e+01 7.617117e+01 7.360765e-01 1.850186e+00 1.112411e+00 1.132986e+00 1.352826e+00 1.595481e+00 2.102723e+00 1.716974e+00 1.650628e+00 1.801507e+00 1.464907e+00 1.394671e+00 1.650265e+00 1.061872e-01 2.945474e-01 2.006691e-01 2.096510e-01 2.668296e-01 3.028491e-01 3.863831e-01 3.461248e-01 3.273983e-01 3.497703e-01 2.925047e-01 2.752439e-01 2.316526e-01
<GCONST> 1.021093e+02
<TRANSP> 5
 0.000000e+00 1.000000e+00 0.000000e+00 0.000000e+00 0.000000e+00
 0.000000e+00 9.940559e-01 5.944069e-03 0.000000e+00 0.000000e+00
 0.000000e+00 0.000000e+00 9.730164e-01 2.698364e-02 0.000000e+00
 0.000000e+00 0.000000e+00 0.000000e+00 9.908783e-01 9.121726e-03
 0.000000e+00 0.000000e+00 0.000000e+00 0.000000e+00 0.000000e+00
<ENDHMM>
~h "kn"
<BEGINHMM>
<NUMSTATES> 5
<STATE> 2
<NUMMIXES> 2
<MIXTURE> 1 3.767575e-01
<MEAN> 39
 2.225983e+00 -7.205836e-01 -5.788160e+00 -3.198254e+00 9.163093e-01 -1.900851e+00 -1.377522e-01 -1.775246e+00 1.404496e+00 -2.093439e-01 3.955162e-01 -8.462042e-01 5.964859e+01 4.544033e-01 -1.307908e-01 -5.240611e-01 1.280833e-01 1.696848e-01 -4.051011e-01 2.433528e-01 -4.150747e-01 7.637771e-01 3.322132e-01 4.542504e-01 2.832253e-01 2.453370e+00 -1.695516e-01 2.209942e-01 2.265260e-01 9.477757e-02 9.174661e-02 2.520630e-01 1.690262e-01 1.649692e-01 -1.861026e-02 7.778166e-02 4.450065e-02 2.794381e-02 -4.411348e-01
<VARIANCE> 39
 2.756797e+01 3.435532e+01 2.610173e+01 1.545077e+01 2.318495e+01 2.953645e+01 2.871906e+01 3.593193e+01 2.833855e+01 2.221384e+01 2.071731e+01 1.876911e+01 7.818443e+01 3.544232e+00 2.673667e+00 2.758071e+00 1.514731e+00 1.940842e+00 3.417793e+00 3.523223e+00 3.989996e+00 2.592097e+00 2.435615e+00 2.403558e+00 2.049830e+00 5.756667e+00 4.661260e-01 3.271894e-01 3.737807e-01 2.256057e-01 3.005160e-01 4.955423e-01 4.892741e-01 6.199039e-01 4.891268e-01 4.110287e-01 4.031399e-01 3.448637e-01 1.090831e+00
<GCONST> 1.172260e+02
<MIXTURE> 2 6.232389e-01
<MEAN> 39
 9.897600e-01 4.989342e+00 -1.222906e+00 -2.512560e+00 2.286250e+00 1.210910e+00 1.056621e+00 -4.668575e-01 1.185092e-01 9.101115e-01 7.263868e-01 -7.674851e-01 5.362712e+01 -1.623867e-01 9.473094e-02 2.203786e-01 9.785258e-02 7.177054e-02 1.563049e-01 4.569376e-02 4.661914e-02 -1.050029e-01 -2.588506e-02 -5.379046e-02 -2.481410e-02 -3.914792e-01 8.718505e-02 -8.084200e-02 -9.906070e-02 -2.759120e-02 -2.890349e-02 -8.008768e-02 -9.274398e-02 -5.365881e-02 -4.048104e-02 -6.729659e-02 -3.525363e-02 -1.604275e-02 2.417513e-02
<VARIANCE> 39
 2.891434e+01 1.730315e+01 2.171325e+01 1.175925e+01 2.188479e+01 2.153947e+01 2.753191e+01 3.209861e+01 2.263336e+01 1.975016e+01 2.236273e+01 1.632878e+01 7.200491e+01 2.964261e-01 3.450185e-01 5.908160e-01 7.853632e-01 1.045646e+00 1.219028e+00 1.413200e+00 1.637313e+00 1.467887e+00 1.547883e+00 1.432238e+00 1.232431e+00 1.800194e-01 1.024967e-01 8.720726e-02 1.413602e-01 1.623102e-01 2.176408e-01 2.673392e-01 3.170289e-01 3.397101e-01 3.204862e-01 3.218743e-01 2.981370e-01 2.519789e-01 1.248364e-01
<GCONST> 8.985682e+01
<STATE> 3
<NUMMIXES> 2
<MIXTURE> 1 7.055856e-01
<MEAN> 39
 5.519071e+00 -1.153117e+00 -3.986604e+00 5.234736e-01 4.116246e+00 -4.160804e-01 1.911014e+00 -1.548666e+00 1.594128e+00 5.527094e-01 1.384537e+00 2.624597e-01 6.035650e+01 7.944029e-02 2.269933e-01 2.423678e-01 2.303953e-01 2.161182e-01 2.730829e-01 3.499898e-02 1.213469e-01 -1.623627e-01 2.881243e-02 -2.089584e-02 -2.135712e-03 -7.582008e-01 2.114698e-03 -5.958712e-02 -1.768530e-02 -4.754866e-02 -4.425542e-02 -5.292157e-02 -5.055724e-02 -3.183629e-02 -3.294806e-02 -4.842329e-02 -3.753360e-02 -4.207226e-02 1.920596e-02
<VARIANCE> 39
 1.133148e+01 2.002444e+01 1.374574e+01 1.401229e+01 1.868440e+01 2.176611e+01 2.129651e+01 1.920064e+01 2.010403e+01 1.889833e+01 1.634699e+01 1.563614e+01 2.379706e+01 1.961391e-01 3.205725e-01 4.679087e-01 7.179077e-01 9.237494e-01 1.092146e+00 1.301802e+00 1.426161e+00 1.418547e+00 1.418719e+00 1.315870e+00 1.217094e+00 6.775478e-02 3.678581e-02 7.449332e-02 1.048973e-01 1.570448e-01 1.980559e-01 2.382136e-01 2.854249e-01 3.029517e-01 3.083181e-01 3.046200e-01 2.806197e-01 2.580886e-01 7.223065e-02
<GCONST> 8.115985e+01
<MIXTURE> 2 2.944335e-01
<MEAN> 39
 5.546218e+00 -2.827849e+00 -4.446881e+00 -6.469742e-01 2.885801e+00 -1.725622e+00 8.237449e-01 -2.028088e+00 1.116948e+00 -2.740158e-01 7.486644e-01 -4.933028e-01 6.103562e+01 -6.490838e-03 -5.322398e-01 -4.527635e-01 -3.847121e-01 -4.025771e-01 -5.532073e-01 -3.504392e-02 -2.126438e-01 2.631880e-01 -6.756616e-02 3.218747e-02 1.364275e-02 1.416400e+00 -1.443129e-02 1.335969e-01 4.298485e-02 9.860975e-02 9.327147e-02 1.245928e-01 1.002174e-01 7.696635e-02 5.156521e-02 1.030799e-01 7.291716e-02 8.166683e-02 -7.850445e-02
<VARIANCE> 39
 1.187712e+01 2.848714e+01 1.834731e+01 1.779971e+01 2.400902e+01 3.094979e+01 2.569204e+01 2.593931e+01 2.340726e+01 2.254410e+01 1.863199e+01 1.744065e+01 4.288716e+01 8.536682e-01 1.839052e+00 1.230598e+00 1.446908e+00 1.786330e+00 2.393534e+00 2.289624e+00 2.489922e+00 2.135699e+00 2.200724e+00 2.010457e+00 1.714918e+00 2.728765e+00 1.477460e-01 3.696575e-01 2.603690e-01 2.916846e-01 3.475804e-01 5.040398e-01 4.216138e-01 5.007295e-01 4.248903e-01 4.170899e-01 3.862312e-01 3.289307e-01 8.836938e-01
<GCONST> 1.075245e+02
<STATE> 4
<NUMMIXES> 2
<MIXTURE> 1 5.489406e-01
<MEAN> 39
 5.642317e+00 2.782549e-01 -2.270004e+00 2.049200e+00 5.676618e+00 2.080376e+00 2.670677e+00 1.213859e-01 -6.479709e-02 6.062000e-01 1.299245e+00 -6.207118e-02 5.401647e+01 -1.670101e-01 2.622325e-01 2.265966e-01 9.274440e-03 6.837322e-02 2.878897e-01 -7.570158e-02 2.133982e-01 -8.481295e-02 2.841027e-02 -5.904036e-03 -8.243261e-02 -5.792307e-01 -2.375877e-02 9.962795e-03 2.028165e-02 -1.770851e-02 -1.450944e-02 4.632797e-03 1.242628e-02 2.151662e-02 3.453625e-02 3.205273e-03 -8.146059e-03 -1.510882e-02 3.115101e-02
<VARIANCE> 39
 5.291717e+00 1.012358e+01 1.193731e+01 1.146551e+01 2.094764e+01 2.235469e+01 2.405397e+01 1.990766e+01 2.259642e+01 2.206847e+01 1.796030e+01 1.647585e+01 1.169184e+01 1.255708e-01 2.581774e-01 4.346453e-01 5.885139e-01 8.436599e-01 1.011261e+00 1.205804e+00 1.312171e+00 1.376955e+00 1.387212e+00 1.292564e+00 1.176565e+00 4.659596e-02 1.707545e-02 4.131804e-02 8.411423e-02 1.213608e-01 1.735920e-01 2.097451e-01 2.473679e-01 2.696766e-01 2.844240e-01 2.806201e-01 2.628634e-01 2.384708e-01 4.944616e-03
<GCONST> 7.229782e+01
<MIXTURE> 2 4.510478e-01
<MEAN> 39
 5.669955e-01 4.073757e+00 1.908664e+00 -4.490232e-01 3.864094e+00 3.875136e+00 1.032721e+00 2.292399e+00 -7.288340e-01 -2.366396e-01 -5.045659e-01 -1.989058e+00 4.825314e+01 -2.908408e-01 5.391579e-03 1.558008e-01 -6.685498e-02 -1.237642e-01 5.512388e-02 4.616872e-02 9.223635e-02 -2.165271e-02 -7.405252e-02 -5.828203e-02 -3.848723e-02 -2.084520e-01 1.434358e-02 -3.054785e-02 -3.886247e-02 -2.286487e-03 -1.245773e-02 -3.068667e-02 -1.051912e-02 -3.938780e-02 -1.389966e-02 1.021992e-03 2.195276e-02 2.524745e-02 2.350730e-02
<VARIANCE> 39
 1.989584e+01 1.563444e+01 1.280722e+01 1.304237e+01 2.351582e+01 1.792867e+01 2.162522e+01 1.824542e+01 2.048509e+01 2.036831e+01 1.549896e+01 1.496326e+01 1.851607e+01 1.627856e-01 3.024020e-01 4.832622e-01 6.923113e-01 9.392672e-01 1.116280e+00 1.282925e+00 1.360774e+00 1.390808e+00 1.528512e+00 1.441529e+00 1.290598e+00 8.018918e-02 2.458385e-02 5.008117e-02 8.163954e-02 1.284890e-01 1.723613e-01 2.073091e-01 2.454168e-01 2.532928e-01 2.633660e-01 2.975596e-01 2.730285e-01 2.463514e-01 9.869696e-03
<GCONST> 7.707522e+01
<TRANSP> 5
 0.000000e+00 1.000000e+00 0.000000e+00 0.000000e+00 0.000000e+00
 0.000000e+00 9.330074e-01 6.699263e-02 0.000000e+00 0.000000e+00
 0.000000e+00 0.000000e+00 9.842554e-01 1.574461e-02 0.000000e+00
 0.000000e+00 0.000000e+00 0.000000e+00 9.476180e-01 5.238204e-02
 0.000000e+00 0.000000e+00 0.000000e+00 0.000000e+00 0.000000e+00
<ENDHMM>
~h "kt"
<BEGINHMM>
<NUMSTATES> 5
<STATE> 2
<NUMMIXES> 2
<MIXTURE> 1 4.304885e-01
<MEAN> 39
 -1.465816e+01 -2.175349e-01 -7.544854e+00 -3.113320e+00 -1.153271e+00 -1.729079e+00 3.797701e+00 1.989375e+00 2.856131e+00 7.839932e-01 1.083348e+00 -6.586275e-01 5.910706e+01 1.349015e-01 -3.397213e-02 1.472115e-01 1.622308e-01 1.676108e-01 9.422885e-02 1.686461e-01 1.140712e-01 1.413821e-01 4.546285e-02 1.019653e-01 5.154914e-02 -2.560358e-02 2.736475e-01 -9.089919e-03 4.075896e-02 5.810238e-02 1.832606e-01 2.771788e-01 2.523213e-01 5.413725e-02 -4.412454e-02 -8.921559e-03 9.323678e-04 -3.377607e-02 -2.875413e-01
<VARIANCE> 39
 1.310561e+01 8.261784e+00 1.008521e+01 1.459093e+01 1.526373e+01 1.462927e+01 1.845045e+01 1.906532e+01 2.060928e+01 1.759575e+01 1.721584e+01 1.512934e+01 2.054160e+01 1.072859e+00 4.528395e-01 6.533784e-01 9.450734e-01 1.264910e+00 1.613348e+00 1.716963e+00 1.584828e+00 1.740275e+00 1.649271e+00 1.515716e+00 1.325707e+00 1.587296e+00 2.041466e-01 1.025979e-01 1.482040e-01 2.150762e-01 2.539520e-01 2.850055e-01 3.248418e-01 3.416535e-01 3.758130e-01 3.616030e-01 3.289332e-01 2.801524e-01 2.368270e-01
<GCONST> 9.187110e+01
<MIXTURE> 2 5.695078e-01
<MEAN> 39
 -9.525187e+00 -2.367531e-01 -7.213218e+00 -2.376581e+00 1.034987e+00 2.923582e+00 6.960963e+00 2.589617e+00 1.552134e+00 4.485338e-01 9.956220e-01 -1.653904e+00 5.333515e+01 -1.132005e-01 3.247059e-02 -1.183218e-01 -1.156325e-01 -1.276664e-01 -7.878423e-02 -1.294728e-01 -8.827179e-02 -1.062333e-01 -3.796682e-02 -7.611251e-02 -4.223068e-02 4.266594e-02 -2.073814e-01 7.779324e-03 -2.854615e-02 -4.243673e-02 -1.372706e-01 -2.115448e-01 -1.913639e-01 -4.116116e-02 3.241247e-02 6.353220e-03 -1.445813e-03 2.607626e-02 2.168368e-01
<VARIANCE> 39
 9.598815e+00 7.286753e+00 7.001745e+00 8.688881e+00 9.689859e+00 1.184181e+01 1.269619e+01 1.388118e+01 1.441727e+01 1.347202e+01 1.345061e+01 1.239122e+01 9.232085e+00 1.174266e+00 5.172545e-01 6.474795e-01 8.955668e-01 1.140772e+00 1.459000e+00 1.545243e+00 1.537264e+00 1.604567e+00 1.546976e+00 1.480562e+00 1.299924e+00 1.052735e+00 1.366497e-01 9.022749e-02 1.189712e-01 1.604578e-01 1.968588e-01 2.323321e-01 2.598899e-01 2.979949e-01 3.111337e-01 3.039769e-01 2.889743e-01 2.539062e-01 1.270512e-01
<GCONST> 8.347070e+01
<STATE> 3
<NUMMIXES> 2
<MIXTURE> 1 6.249958e-01
<MEAN> 39
 -1.236966e+01 1.469812e+00 -4.396424e+00 -2.514141e-01 8.546299e-01 -1.752195e+00 3.174313e+00 1.468845e+00 1.775081e+00 -8.314627e-01 1.341878e-02 -1.319876e+00 5.437426e+01 4.809293e-01 2.732544e-02 8.470397e-02 1.991896e-02 1.722120e-01 1.520150e-01 1.993493e-01 3.194884e-02 7.176669e-04 4.862946e-02 6.196493e-02 3.967237e-02 -7.447714e-01 -7.250465e-02 3.274830e-02 -4.462872e-02 -4.910931e-03 -6.057051e-02 -2.635595e-02 -4.815345e-02 3.012229e-02 -2.590548e-02 1.821714e-03 -9.164535e-03 -8.921562e-03 2.943661e-02
<VARIANCE> 39
 6.906259e+00 7.318113e+00 9.351539e+00 1.166681e+01 1.298628e+01 1.454494e+01 1.720635e+01 1.664440e+01 1.774364e+01 1.719254e+01 1.570677e+01 1.358859e+01 1.915484e+01 1.872256e-01 2.931024e-01 5.068495e-01 7.268455e-01 9.536783e-01 1.133240e+00 1.272641e+00 1.360633e+00 1.428571e+00 1.430849e+00 1.337391e+00 1.191310e+00 1.297580e-01 7.738569e-02 6.867132e-02 1.135363e-01 1.617824e-01 2.142368e-01 2.476985e-01 2.812427e-01 2.951462e-01 3.131056e-01 3.134456e-01 2.891044e-01 2.561835e-01 1.176548e-01
<GCONST> 7.936751e+01
<MIXTURE> 2 3.750467e-01
<MEAN> 39
 -1.357148e+01 1.846659e+00 -4.903793e+00 -3.307151e-01 -2.254049e-01 -2.154155e+00 2.211691e+00 1.983863e+00 1.482936e+00 -8.917952e-01 -2.185733e-01 -1.617507e+00 5.500657e+01 -7.793267e-01 -2.925523e-02 -1.469169e-01 -1.427200e-02 -2.478672e-01 -2.593914e-01 -3.056887e-01 -7.403342e-02 -2.881059e-03 -9.668974e-02 -1.058907e-01 -7.054125e-02 1.204083e+00 1.452757e-01 -5.663906e-02 7.942692e-02 2.209465e-03 1.053016e-01 6.209420e-02 8.996842e-02 -3.990741e-02 4.878775e-02 7.562780e-03 2.036219e-02 1.657606e-02 -8.473454e-02
<VARIANCE> 39
 1.469003e+01 1.141491e+01 1.307650e+01 1.594989e+01 1.720494e+01 1.911860e+01 2.103067e+01 2.006008e+01 2.104578e+01 1.959188e+01 1.840260e+01 1.550079e+01 3.190153e+01 1.238658e+00 8.163868e-01 1.102501e+00 1.419357e+00 1.810805e+00 1.916783e+00 2.054526e+00 2.068719e+00 2.208656e+00 2.096752e+00 1.907155e+00 1.641820e+00 1.701282e+00 3.354685e-01 1.363462e-01 1.992543e-01 2.559615e-01 3.335932e-01 3.693902e-01 3.978122e-01 3.878591e-01 4.042030e-01 3.959847e-01 3.638827e-01 3.164035e-01 5.976549e-01
<GCONST> 1.009420e+02
<STATE> 4
<NUMMIXES> 2
<MIXTURE> 1 6.894853e-01
<MEAN> 39
 -9.647771e+00 2.762299e+00 -2.691777e+00 -7.026504e-01 7.116772e-01 4.481394e-01 3.399629e+00 3.104277e+00 2.367144e+00 -1.123601e-01 2.105296e-01 -1.733180e+00 4.864275e+01 3.104829e-01 -6.472807e-02 1.591488e-01 -2.651109e-02 5.250775e-02 1.270116e-01 7.987956e-02 9.042670e-02 7.766247e-03 5.337197e-02 2.054193e-02 1.430485e-02 -3.513370e-01 -5.757681e-02 2.020852e-02 -3.353350e-02 7.148162e-03 -3.744061e-02 -1.739724e-02 -4.464050e-02 -1.446357e-04 -2.126640e-02 -3.187188e-03 -3.964155e-03 -8.594936e-03 4.511111e-02
<VARIANCE> 39
 9.160145e+00 8.078448e+00 1.166527e+01 1.160435e+01 1.597931e+01 1.588454e+01 1.926945e+01 1.659546e+01 1.669020e+01 1.661382e+01 1.417619e+01 1.225119e+01 1.057061e+01 2.497861e-01 3.283315e-01 4.959927e-01 6.994765e-01 9.332223e-01 1.099666e+00 1.276140e+00 1.350370e+00 1.411788e+00 1.407134e+00 1.301836e+00 1.150336e+00 1.528843e-01 5.987485e-02 6.774974e-02 1.049699e-01 1.433175e-01 1.887481e-01 2.248836e-01 2.588513e-01 2.756993e-01 2.898610e-01 2.892707e-01 2.671409e-01 2.355535e-01 3.338277e-02
<GCONST> 7.740872e+01
<MIXTURE> 2 3.106127e-01
<MEAN> 39
 -1.148745e+01 3.092948e+00 -3.646886e+00 -3.786877e-01 -1.848453e-01 -4.176077e-01 2.386909e+00 2.867803e+00 2.016516e+00 -3.533009e-01 1.477354e-01 -1.968666e+00 5.046420e+01 -6.381134e-01 1.276486e-01 -3.280137e-01 3.089776e-02 -1.166948e-01 -2.542799e-01 -1.677599e-01 -1.825431e-01 -1.746508e-02 -1.059291e-01 -4.025068e-02 -3.045863e-02 7.228486e-01 1.232254e-01 -4.722109e-02 7.265075e-02 -1.510889e-02 8.098406e-02 3.254234e-02 9.200305e-02 -4.848176e-03 4.521867e-02 5.883684e-03 8.894903e-03 2.030699e-02 -9.272915e-02
<VARIANCE> 39
 1.494451e+01 1.304214e+01 1.405726e+01 1.586199e+01 1.889093e+01 1.974164e+01 2.146699e+01 2.016562e+01 2.015724e+01 1.908173e+01 1.657140e+01 1.478963e+01 1.986940e+01 1.217308e+00 8.752748e-01 9.738174e-01 1.250728e+00 1.530266e+00 1.642267e+00 1.771085e+00 1.784290e+00 1.816039e+00 1.772283e+00 1.593242e+00 1.447351e+00 1.343382e+00 3.025596e-01 1.597823e-01 2.021634e-01 2.448958e-01 2.928239e-01 3.349835e-01 3.520930e-01 3.660045e-01 3.641754e-01 3.594796e-01 3.188539e-01 2.914160e-01 3.671017e-01
<GCONST> 9.760694e+01
<TRANSP> 5
 0.000000e+00 1.000000e+00 0.000000e+00 0.000000e+00 0.000000e+00
 0.000000e+00 9.892769e-01 1.072310e-02 0.000000e+00 0.000000e+00
 0.000000e+00 0.000000e+00 9.890928e-01 1.090727e-02 0.000000e+00
 0.000000e+00 0.000000e+00 0.000000e+00 9.930986e-01 6.901433e-03
 0.000000e+00 0.000000e+00 0.000000e+00 0.000000e+00 0.000000e+00
<ENDHMM>
~h "pr"
<BEGINHMM>
<NUMSTATES> 5
<STATE> 2
<NUMMIXES> 2
<MIXTURE> 1 7.815306e-01
<MEAN> 39
 -1.372279e+01 -9.603336e+00 -8.331713e-01 -6.397751e+00 2.546217e-01 2.407004e+00 7.112634e+00 2.763493e+00 6.305071e-01 -1.093383e+00 2.572590e+00 -1.141048e+00 5.824819e+01 1.435825e-01 9.931412e-02 2.183403e-02 3.434397e-02 -2.573560e-02 2.214144e-02 7.572113e-03 3.248734e-02 1.544980e-02 5.566969e-03 -1.156695e-02 -1.797204e-02 -1.805081e-01 -2.008637e-03 -7.104990e-04 1.507058e-03 -2.905981e-03 1.973545e-03 4.217163e-03 -1.016686e-02 2.711476e-03 -1.217718e-03 3.636842e-03 -3.278149e-03 -5.711357e-03 7.944782e-04
<VARIANCE> 39
 2.593093e+01 3.819976e+01 4.879923e+01 4.212384e+01 7.931565e+01 7.411271e+01 7.331534e+01 6.347787e+01 6.249283e+01 4.915880e+01 6.235524e+01 4.950080e+01 2.605792e+01 1.851180e-01 3.805753e-01 5.805579e-01 8.217685e-01 1.040577e+00 1.327326e+00 1.450460e+00 1.592249e+00 1.676462e+00 1.559161e+00 1.469804e+00 1.302633e+00 9.208259e-02 3.022303e-02 6.583302e-02 1.092083e-01 1.558269e-01 2.023677e-01 2.588542e-01 2.891726e-01 3.083654e-01 3.304776e-01 3.149366e-01 2.964803e-01 2.607377e-01 1.401141e-02
<GCONST> 9.489577e+01
<MIXTURE> 2 2.186106e-01
<MEAN> 39
 -1.526095e+01 -9.330318e+00 -9.688779e-01 -7.594598e+00 3.739415e+00 5.046367e+00 3.767935e+00 9.038963e-01 -6.779730e-02 -2.165225e+00 3.808460e+00 4.615792e-01 5.895515e+01 -5.481390e-01 -3.490225e-01 -5.521223e-02 -1.440233e-01 8.218359e-02 -3.870621e-02 9.104253e-03 -1.485603e-01 -2.042430e-02 -4.300163e-02 2.288705e-02 1.453059e-01 6.673651e-01 3.813501e-02 1.449298e-02 -5.233257e-03 1.938072e-02 -2.009485e-02 -1.467918e-02 2.604866e-02 -1.648344e-03 7.469307e-03 -7.498206e-03 6.911607e-03 1.102927e-02 -3.194297e-02
<VARIANCE> 39
 2.995823e+01 4.164262e+01 5.347401e+01 4.146070e+01 7.049953e+01 9.035711e+01 6.598199e+01 6.297665e+01 5.920375e+01 4.106253e+01 6.354599e+01 5.463528e+01 2.509128e+01 1.361896e+00 1.340292e+00 1.834296e+00 2.283360e+00 2.457595e+00 2.977645e+00 3.089680e+00 3.584356e+00 3.445603e+00 3.019284e+00 3.365401e+00 3.035856e+00 8.897914e-01 2.415530e-01 2.245715e-01 2.786588e-01 3.531975e-01 3.953045e-01 4.712488e-01 5.217037e-01 5.594330e-01 5.704073e-01 4.918974e-01 5.510305e-01 4.835847e-01 1.935921e-01
<GCONST> 1.213710e+02
<STATE> 3
<NUMMIXES> 2
<MIXTURE> 1 6.261928e-01
<MEAN> 39
 -2.195635e+01 4.850400e+00 1.624949e+01 -1.430144e+01 5.136715e-01 1.493640e+01 -5.147751e+00 -5.294556e+00 1.483671e+01 -7.337547e+00 -6.486313e+00 8.253160e+00 5.519992e+01 2.033771e-02 -4.046812e-02 5.159824e-03 -2.852430e-02 1.251991e-02 -8.721475e-03 -8.185622e-03 3.659485e-03 3.847292e-02 1.725460e-02 -3.556709e-02 1.856341e-02 -3.430946e-02 5.250168e-03 -1.375466e-04 -2.600533e-03 -7.188927e-03 1.839836e-02 -1.211298e-02 8.045182e-04 2.327535e-02 -1.643206e-02 8.116654e-03 4.664122e-03 -2.656134e-03 -4.827733e-03
<VARIANCE> 39
 7.635683e+00 1.281888e+01 1.038345e+01 1.454910e+01 1.628014e+01 2.061442e+01 1.568764e+01 1.913526e+01 2.210476e+01 2.019427e+01 2.270141e+01 1.404110e+01 6.217281e+00 8.145218e-01 5.701126e-01 6.019580e-01 8.676524e-01 1.386138e+00 1.404609e+00 1.190973e+00 1.508351e+00 1.708855e+00 1.747866e+00 2.094321e+00 1.089203e+00 3.302342e-01 2.072839e-01 1.169303e-01 1.226573e-01 1.815736e-01 2.938024e-01 2.940485e-01 2.446101e-01 3.163901e-01 3.621640e-01 3.316564e-01 3.945367e-01 2.195299e-01 8.204935e-02
<GCONST> 8.754031e+01
<MIXTURE> 2 3.738167e-01
<MEAN> 39
 -1.434225e+01 -6.275814e-01 1.746654e+01 -2.029284e+01 6.427042e+00 1.055547e+01 -5.589722e+00 2.544205e+00 7.692588e+00 1.926002e+00 -1.293545e+01 1.104675e+01 4.881233e+01 1.602314e-01 1.561853e-03 -7.448026e-02 9.332402e-02 3.033405e-02 -7.819008e-02 1.007790e-03 1.091509e-01 -1.391991e-01 6.022694e-02 1.584354e-02 -5.513932e-02 -9.604893e-02 -4.983857e-03 3.867897e-03 -1.150216e-02 2.349782e-02 -1.800764e-02 8.344139e-04 4.787444e-03 -1.651351e-02 4.797379e-03 -1.823826e-02 1.439366e-02 -1.263223e-02 5.656185e-03
<VARIANCE> 39
 1.368707e+01 8.389132e+00 2.735036e+01 3.136402e+01 1.940957e+01 2.379479e+01 1.946754e+01 2.496524e+01 3.131861e+01 2.535840e+01 2.785157e+01 2.133656e+01 8.797640e+00 1.379922e-01 2.619735e-01 4.465851e-01 7.787994e-01 9.272395e-01 1.040835e+00 1.109925e+00 1.272827e+00 1.406879e+00 1.341931e+00 1.188977e+00 1.072224e+00 4.826039e-02 2.490207e-02 4.642374e-02 7.801659e-02 1.376338e-01 1.755303e-01 2.001213e-01 2.191339e-01 2.487754e-01 2.728704e-01 2.615745e-01 2.290217e-01 2.068496e-01 8.013005e-03
<GCONST> 7.644559e+01
<STATE> 4
<NUMMIXES> 2
<MIXTURE> 1 2.655349e-01
<MEAN> 39
 -1.904812e+01 2.139176e+00 1.391293e+01 -1.511708e+01 2.520485e+00 1.197639e+01 -4.044925e+00 -1.509947e+00 1.252099e+01 -3.825072e+00 -7.547785e+00 8.798239e+00 5.251221e+01 -2.320368e-02 -3.819919e-02 3.564417e-02 -5.634677e-02 -3.885347e-02 4.097747e-02 -2.233344e-02 -7.605035e-02 2.599079e-02 2.780421e-02 -8.696447e-03 -1.298444e-03 6.151308e-02 7.787166e-03 -5.909265e-05 -4.266069e-03 1.119324e-02 1.779889e-02 -6.359535e-03 1.838775e-02 2.254328e-02 -9.005059e-03 6.605853e-03 -1.792707e-03 1.118313e-03 -9.994638e-03
<VARIANCE> 39
 2.625294e+01 1.771090e+01 2.479129e+01 3.075691e+01 2.438030e+01 5.727206e+01 1.899899e+01 3.682217e+01 4.760989e+01 3.616064e+01 3.605629e+01 2.017067e+01 1.400339e+01 9.975083e-01 5.203314e-01 9.344718e-01 1.160463e+00 1.426944e+00 1.653678e+00 1.390941e+00 1.867883e+00 1.899523e+00 1.805644e+00 2.040801e+00 1.504727e+00 4.554457e-01 1.988872e-01 1.033590e-01 1.621292e-01 2.224053e-01 2.879570e-01 3.200592e-01 2.795535e-01 3.622053e-01 3.757418e-01 3.478114e-01 3.822191e-01 2.813268e-01 8.666517e-02
<GCONST> 9.914194e+01
<MIXTURE> 2 7.344872e-01
<MEAN> 39
 -1.371846e+01 -3.383980e+00 4.029808e+00 -4.324069e+00 8.191800e+00 -4.729021e+00 2.285205e-01 9.057705e+00 1.521087e+00 -2.251132e+00 -4.226058e+00 5.915616e+00 5.161208e+01 5.002632e-02 4.859173e-02 -4.578935e-02 4.595764e-02 -9.643221e-03 -3.157858e-02 2.458046e-02 2.569435e-02 -1.543792e-02 -6.425446e-04 1.598263e-02 -2.668078e-02 -6.262787e-02 -3.974489e-03 -5.619453e-04 2.604855e-03 -6.678488e-03 -6.302608e-03 4.474650e-03 -6.352133e-03 -8.022012e-03 4.922040e-03 -6.996654e-05 -7.347595e-04 -7.268264e-04 3.940290e-03
<VARIANCE> 39
 5.250176e+01 4.460383e+01 1.876771e+01 3.420929e+01 3.741548e+01 7.464001e+01 2.308817e+01 3.914943e+01 2.097599e+01 3.328879e+01 3.896099e+01 5.538050e+01 5.434421e+01 1.706579e-01 2.943562e-01 4.977131e-01 7.675219e-01 9.998024e-01 1.275725e+00 1.387725e+00 1.361280e+00 1.443396e+00 1.595313e+00 1.331573e+00 1.175246e+00 7.615530e-02 2.995579e-02 5.518206e-02 9.543777e-02 1.456600e-01 1.958806e-01 2.480196e-01 2.763940e-01 2.676429e-01 2.854844e-01 3.152552e-01 2.632377e-01 2.315816e-01 1.145973e-02
<GCONST> 8.851183e+01
<TRANSP> 5
 0.000000e+00 1.000000e+00 0.000000e+00 0.000000e+00 0.000000e+00
 0.000000e+00 9.944527e-01 5.547339e-03 0.000000e+00 0.000000e+00
 0.000000e+00 0.000000e+00 9.851779e-01 1.482213e-02 0.000000e+00
 0.000000e+00 0.000000e+00 0.000000e+00 9.918221e-01 8.177913e-03
 0.000000e+00 0.000000e+00 0.000000e+00 0.000000e+00 0.000000e+00
<ENDHMM>
~h "pw"
<BEGINHMM>
<NUMSTATES> 5
<STATE> 2
<NUMMIXES> 2
<MIXTURE> 1 7.189037e-01
<MEAN> 39
 -1.260439e+01 -2.050508e+00 -1.072134e+00 -1.210413e+00 1.695234e+00 -6.042691e-01 2.710839e+00 1.359105e+00 1.051195e+00 9.771140e-01 5.462154e-01 -5.539804e-01 5.269130e+01 1.105226e-01 2.024387e-01 3.543790e-02 1.700913e-02 2.480186e-02 6.976529e-02 6.697842e-02 1.000361e-01 2.751103e-02 2.160092e-02 -1.833288e-03 -4.427731e-03 -2.504239e-01 -2.596753e-02 -1.599980e-02 -9.435060e-03 -1.456918e-02 -2.737982e-02 -3.111908e-02 -3.307207e-02 -2.384331e-02 -2.347755e-02 -1.082197e-02 -3.740696e-03 -3.324003e-03 2.816959e-02
<VARIANCE> 39
 1.548188e+01 2.243081e+01 1.120719e+01 1.150669e+01 1.367184e+01 1.586785e+01 1.858335e+01 1.895072e+01 1.730631e+01 1.491373e+01 1.387913e+01 1.255160e+01 2.354408e+01 3.017902e-01 4.214345e-01 5.260273e-01 7.323323e-01 9.475951e-01 1.127313e+00 1.284246e+00 1.376611e+00 1.409498e+00 1.368890e+00 1.294019e+00 1.156570e+00 2.010804e-01 4.769206e-02 7.764015e-02 1.021414e-01 1.436245e-01 1.872273e-01 2.248203e-01 2.586624e-01 2.764829e-01 2.869303e-01 2.788200e-01 2.635134e-01 2.368302e-01 2.636019e-02
<GCONST> 8.001718e+01
<MIXTURE> 2 2.812799e-01
<MEAN> 39
 -1.438029e+01 -5.521985e+00 -2.298273e+00 -2.127951e+00 4.365636e-01 -2.761007e+00 9.426693e-01 -7.449329e-01 -5.270204e-02 3.211849e-01 4.753454e-01 -5.567153e-01 5.789930e+01 -2.932674e-01 -5.346386e-01 -8.489197e-02 -4.456672e-02 -6.607766e-02 -1.950706e-01 -1.760157e-01 -2.658262e-01 -7.762010e-02 -5.362931e-02 2.273676e-03 1.609998e-02 6.651354e-01 6.528780e-02 3.608540e-02 2.281011e-02 3.487617e-02 6.581622e-02 7.426262e-02 7.907138e-02 5.728512e-02 5.774492e-02 2.662331e-02 1.008609e-02 8.093709e-03 -6.093780e-02
<VARIANCE> 39
 2.363578e+01 3.269175e+01 1.670359e+01 1.687743e+01 1.929081e+01 2.676309e+01 2.504939e+01 2.792064e+01 2.149101e+01 1.899089e+01 1.744341e+01 1.487199e+01 5.196477e+01 1.111843e+00 1.585527e+00 1.127347e+00 1.254345e+00 1.551302e+00 1.808607e+00 1.899261e+00 1.980198e+00 1.864877e+00 1.723759e+00 1.596644e+00 1.425626e+00 2.229903e+00 2.011807e-01 3.067112e-01 2.073269e-01 2.420722e-01 3.021972e-01 3.576843e-01 3.767084e-01 4.012251e-01 3.758005e-01 3.552673e-01 3.286475e-01 2.893367e-01 4.214762e-01
<GCONST> 1.032259e+02
<STATE> 3
<NUMMIXES> 2
<MIXTURE> 1 7.496697e-01
<MEAN> 39
 -9.695337e+00 -7.921685e+00 -4.465645e+00 -2.989375e+00 -3.593778e-02 -6.138003e+00 -2.346003e+00 -5.409364e+00 -3.170526e+00 -1.443665e+00 -3.668973e-01 -2.311880e-01 6.218553e+01 1.450903e-01 2.542969e-01 9.070018e-02 1.305449e-01 1.581645e-01 1.981215e-01 1.360918e-01 1.616703e-01 2.091503e-02 4.548232e-02 1.991537e-02 4.262663e-02 -7.860970e-01 -2.657133e-02 1.677087e-02 2.006575e-02 1.999516e-03 -5.691920e-03 2.144938e-02 1.254781e-02 2.958641e-02 1.084465e-02 7.794782e-03 2.820766e-03 -4.772695e-03 1.568602e-02
<VARIANCE> 39
 1.682382e+01 2.329429e+01 1.215077e+01 1.289275e+01 1.658874e+01 1.994250e+01 1.965744e+01 2.232139e+01 1.821346e+01 1.684864e+01 1.495896e+01 1.348085e+01 6.482406e+01 2.037222e-01 3.064754e-01 4.469363e-01 6.458607e-01 8.552831e-01 1.059703e+00 1.221163e+00 1.345555e+00 1.410197e+00 1.355465e+00 1.272127e+00 1.154591e+00 9.338819e-02 3.445065e-02 5.701144e-02 9.047864e-02 1.315482e-01 1.753751e-01 2.177830e-01 2.517410e-01 2.768984e-01 2.936981e-01 2.823702e-01 2.635997e-01 2.408950e-01 1.659361e-02
<GCONST> 7.889852e+01
<MIXTURE> 2 2.503467e-01
<MEAN> 39
 -1.249007e+01 -6.129865e+00 -2.983082e+00 -3.629675e+00 -1.280066e+00 -4.947644e+00 -1.341091e+00 -3.277444e+00 -1.952154e+00 -9.914827e-01 -2.446441e-01 -9.112945e-01 6.422237e+01 -3.270776e-01 -9.569849e-01 -3.544244e-01 -3.247562e-01 -4.436445e-01 -7.647231e-01 -6.223212e-01 -7.304789e-01 -2.042659e-01 -2.070065e-01 -4.748546e-02 -6.431451e-02 2.497487e+00 1.113344e-01 8.908419e-03 -4.689881e-02 9.696138e-03 6.502053e-02 1.411321e-02 4.122155e-02 -1.479320e-02 1.000226e-02 7.305656e-04 -6.539826e-03 6.781373e-03 -1.752649e-01
<VARIANCE> 39
 1.981073e+01 3.660884e+01 1.763622e+01 1.731278e+01 2.333521e+01 3.125148e+01 3.029280e+01 3.204830e+01 2.203321e+01 2.011237e+01 1.834146e+01 1.599378e+01 1.388492e+02 1.537603e+00 2.644115e+00 1.514080e+00 1.544570e+00 2.253176e+00 2.703796e+00 2.906807e+00 2.769302e+00 2.211958e+00 2.084490e+00 1.808719e+00 1.703502e+00 9.556057e+00 2.654593e-01 5.304919e-01 2.739044e-01 2.934668e-01 4.475172e-01 5.493919e-01 5.803330e-01 5.539095e-01 4.297274e-01 4.129689e-01 3.607598e-01 3.419245e-01 2.300262e+00
<GCONST> 1.152118e+02
<STATE> 4
<NUMMIXES> 2
<MIXTURE> 1 7.024117e-01
<MEAN> 39
 -1.143048e+01 -2.696785e+00 -3.178720e+00 -2.813248e+00 8.617268e-01 3.832116e-01 3.877470e+00 1.349156e+00 6.852894e-01 7.310535e-01 3.063514e-01 -1.088931e+00 5.376134e+01 1.302177e-01 1.727076e-01 -1.042865e-02 -3.042019e-03 3.732934e-02 1.188192e-01 1.095337e-01 1.047131e-01 3.818720e-02 3.152276e-02 -2.973109e-03 -1.931496e-02 -2.508722e-01 -2.921552e-02 -1.797917e-02 -4.663686e-03 -1.590133e-02 -3.162030e-02 -4.298097e-02 -4.723341e-02 -3.317469e-02 -2.914795e-02 -1.522981e-02 -3.513647e-03 -6.362524e-05 3.202540e-02
<VARIANCE> 39
 1.381157e+01 1.653659e+01 1.069490e+01 1.082127e+01 1.180525e+01 1.655360e+01 1.753759e+01 1.683306e+01 1.579576e+01 1.447775e+01 1.346562e+01 1.257205e+01 1.851678e+01 2.883618e-01 3.842730e-01 5.132369e-01 7.062048e-01 9.253221e-01 1.125028e+00 1.277587e+00 1.374895e+00 1.406826e+00 1.371273e+00 1.313422e+00 1.186589e+00 1.717219e-01 4.657129e-02 7.081361e-02 1.002938e-01 1.392110e-01 1.845914e-01 2.242157e-01 2.552731e-01 2.744792e-01 2.844681e-01 2.791179e-01 2.688931e-01 2.421278e-01 2.352266e-02
<GCONST> 7.818899e+01
<MIXTURE> 2 2.977646e-01
<MEAN> 39
 -1.421202e+01 -5.776896e+00 -3.314539e+00 -3.472013e+00 -4.992502e-01 -2.655970e+00 1.024005e+00 -9.770895e-01 -6.141119e-01 -1.315279e-01 3.250058e-01 -8.034450e-01 5.922705e+01 -2.844606e-01 -3.808003e-01 3.981019e-02 -4.402382e-04 -8.335306e-02 -2.334120e-01 -2.130622e-01 -1.889737e-01 -5.179894e-02 -6.198339e-02 8.670911e-03 3.053214e-02 5.269521e-01 7.259694e-02 3.838194e-02 8.286800e-03 3.648167e-02 7.117921e-02 9.507298e-02 1.039795e-01 7.064214e-02 6.422079e-02 3.305475e-02 6.697750e-03 1.509307e-03 -7.296858e-02
<VARIANCE> 39
 1.809219e+01 2.545737e+01 1.439371e+01 1.513943e+01 1.664967e+01 2.524330e+01 2.481886e+01 2.608181e+01 2.141594e+01 1.820651e+01 1.587779e+01 1.445722e+01 4.398777e+01 1.016758e+00 1.313806e+00 9.817733e-01 1.168922e+00 1.412105e+00 1.748102e+00 1.931046e+00 1.895812e+00 1.797866e+00 1.670771e+00 1.554958e+00 1.397125e+00 1.800697e+00 1.787160e-01 2.438608e-01 1.822736e-01 2.264515e-01 2.780884e-01 3.463103e-01 3.811475e-01 3.825115e-01 3.670287e-01 3.439123e-01 3.193831e-01 2.880972e-01 3.135888e-01
<GCONST> 9.978445e+01
<TRANSP> 5
 0.000000e+00 1.000000e+00 0.000000e+00 0.000000e+00 0.000000e+00
 0.000000e+00 9.965632e-01 3.436803e-03 0.000000e+00 0.000000e+00
 0.000000e+00 0.000000e+00 9.843997e-01 1.560026e-02 0.000000e+00
 0.000000e+00 0.000000e+00 0.000000e+00 9.960474e-01 3.952605e-03
 0.000000e+00 0.000000e+00 0.000000e+00 0.000000e+00 0.000000e+00
<ENDHMM>
~h "si"
<BEGINHMM>
<NUMSTATES> 5
<STATE> 2
<NUMMIXES> 2
<MIXTURE> 1 7.693427e-01
<MEAN> 39
 -8.150536e+00 2.316744e+00 1.333663e+00 -1.561268e+00 2.495257e+00 2.120916e+00 2.538933e+00 3.921382e+00 1.254845e+00 2.706596e-01 2.478295e-01 -1.444539e+00 4.650320e+01 2.046816e-02 3.908127e-02 -6.592605e-03 8.512818e-04 1.005840e-02 3.664637e-02 2.177304e-02 5.220431e-02 5.780356e-03 4.383813e-03 1.381891e-03 -1.259477e-02 -7.851577e-02 -9.910268e-03 -1.537987e-02 -1.553080e-02 -1.878398e-02 -2.616111e-02 -2.775439e-02 -2.279314e-02 -2.325336e-02 -1.013172e-02 -2.923513e-03 -1.613751e-03 1.599433e-03 1.010747e-02
<VARIANCE> 39
 1.896537e+01 8.245062e+00 1.088111e+01 1.217895e+01 1.407601e+01 1.516696e+01 2.171272e+01 1.775380e+01 1.721488e+01 1.525600e+01 1.408207e+01 1.244622e+01 1.629633e+01 1.565679e-01 2.654476e-01 4.283255e-01 6.365985e-01 8.381358e-01 1.029432e+00 1.188339e+00 1.278594e+00 1.321002e+00 1.326954e+00 1.238595e+00 1.087932e+00 7.331377e-02 2.525314e-02 4.812035e-02 8.165982e-02 1.230180e-01 1.628496e-01 2.010046e-01 2.355574e-01 2.527975e-01 2.642576e-01 2.670237e-01 2.487670e-01 2.184235e-01 9.092696e-03
<GCONST> 7.268155e+01
<MIXTURE> 2 2.312662e-01
<MEAN> 39
 -1.002155e+01 -9.386013e-01 1.902614e-01 -2.756714e+00 -1.188227e-02 -1.247593e+00 1.099792e+00 5.254178e-01 8.304520e-01 1.963042e-01 1.132325e-01 -6.072915e-01 5.148647e+01 -7.511563e-02 -1.364584e-01 -1.203275e-02 -3.741364e-02 -6.797455e-02 -1.150191e-01 -4.030685e-02 -1.158246e-01 -7.144483e-04 1.826505e-02 6.117916e-03 2.723485e-02 1.704819e-01 3.653742e-02 4.958924e-02 4.376901e-02 5.564532e-02 8.121731e-02 9.429206e-02 7.836863e-02 8.254370e-02 3.623087e-02 1.272698e-02 6.233033e-03 -7.621342e-03 -3.547280e-02
<VARIANCE> 39
 2.820655e+01 2.491645e+01 2.270080e+01 2.305004e+01 2.990421e+01 2.642220e+01 2.860544e+01 3.005373e+01 2.516815e+01 2.334296e+01 2.310177e+01 2.085194e+01 3.418098e+01 7.401857e-01 1.017686e+00 8.969792e-01 1.107252e+00 1.393005e+00 1.596189e+00 1.682096e+00 1.841639e+00 1.701550e+00 1.658518e+00 1.560635e+00 1.329358e+00 8.862116e-01 1.194650e-01 1.759375e-01 1.664804e-01 2.151401e-01 2.676384e-01 3.109509e-01 3.313809e-01 3.685402e-01 3.474587e-01 3.394496e-01 3.189358e-01 2.745886e-01 1.380021e-01
<GCONST> 9.895824e+01
<STATE> 3
<NUMMIXES> 2
<MIXTURE> 1 4.777668e-01
<MEAN> 39
 -5.261349e+00 9.186128e-01 -1.262223e+00 -3.150559e+00 -5.723619e-01 7.604166e-01 1.257496e+00 3.776625e+00 6.056359e-01 9.679015e-02 -4.210262e-01 -2.104989e+00 4.398637e+01 4.991084e-02 1.135915e-01 1.604162e-01 2.225968e-01 2.665567e-01 2.845019e-01 2.639422e-01 2.395662e-01 1.771385e-01 1.204771e-01 7.127064e-02 2.143256e-02 2.551163e-03 2.025976e-02 4.176697e-02 6.931098e-02 1.040090e-01 1.365386e-01 1.636352e-01 1.740169e-01 1.567360e-01 1.347252e-01 1.026480e-01 6.184226e-02 2.358146e-02 1.086830e-02
<VARIANCE> 39
 3.965573e+00 6.326545e+00 9.562056e+00 9.452449e+00 1.634496e+01 1.362658e+01 1.418123e+01 1.635374e+01 1.628939e+01 1.642480e+01 1.449833e+01 1.319475e+01 5.897278e+00 1.241016e-01 2.514922e-01 4.254251e-01 6.243339e-01 8.346419e-01 1.016942e+00 1.190799e+00 1.297204e+00 1.350021e+00 1.369672e+00 1.287182e+00 1.128544e+00 4.077378e-02 2.415027e-02 5.138296e-02 8.876533e-02 1.300365e-01 1.685111e-01 1.980067e-01 2.276902e-01 2.519109e-01 2.668344e-01 2.772028e-01 2.637986e-01 2.325667e-01 7.289600e-03
<GCONST> 6.841130e+01
<MIXTURE> 2 5.218432e-01
<MEAN> 39
 -4.950991e+00 1.548073e+00 -2.988238e-01 -1.620008e+00 1.588680e+00 3.367188e+00 3.893543e+00 6.063879e+00 2.456398e+00 1.521851e+00 4.083561e-01 -1.802918e+00 4.408236e+01 -4.920009e-02 -9.315112e-02 -1.613603e-01 -2.129604e-01 -2.512043e-01 -2.550064e-01 -2.415687e-01 -2.055907e-01 -1.610409e-01 -1.092420e-01 -5.984956e-02 -2.211871e-02 -1.862606e-02 -2.378704e-02 -3.975695e-02 -6.208818e-02 -9.423725e-02 -1.245705e-01 -1.534748e-01 -1.613168e-01 -1.511024e-01 -1.257990e-01 -9.533934e-02 -5.639181e-02 -1.897848e-02 -4.676205e-03
<VARIANCE> 39
 3.916625e+00 6.408215e+00 9.078648e+00 8.842551e+00 1.512799e+01 1.290488e+01 1.388820e+01 1.564013e+01 1.571386e+01 1.562883e+01 1.365163e+01 1.247232e+01 5.789713e+00 1.294401e-01 2.524496e-01 4.186726e-01 6.147109e-01 8.214238e-01 1.004548e+00 1.169731e+00 1.278111e+00 1.334764e+00 1.351373e+00 1.264337e+00 1.106936e+00 4.573782e-02 2.354827e-02 4.816466e-02 8.103335e-02 1.202834e-01 1.594133e-01 1.923665e-01 2.236478e-01 2.473671e-01 2.610407e-01 2.691889e-01 2.553906e-01 2.249322e-01 7.633042e-03
<GCONST> 6.743108e+01
<STATE> 4
<NUMMIXES> 2
<MIXTURE> 1 8.372144e-01
<MEAN> 39
 -6.504742e+00 -2.251173e+00 -3.240230e+00 -3.595407e+00 -2.573373e-01 2.220636e+00 4.272033e+00 2.308990e+00 1.166945e+00 1.205625e+00 4.873188e-01 -1.700605e+00 5.010006e+01 3.327040e-02 4.131760e-02 -7.977482e-03 5.544837e-03 8.634717e-03 4.279631e-02 2.313049e-02 2.784638e-02 6.139620e-03 1.032599e-02 -2.918228e-03 -9.472028e-03 -7.243514e-02 -8.883234e-03 -5.944473e-03 -1.526014e-03 -6.264143e-03 -9.831464e-03 -1.490972e-02 -1.556260e-02 -1.131329e-02 -7.314248e-03 -6.772521e-03 -2.068727e-03 3.518027e-04 1.095908e-02
<VARIANCE> 39
 1.627094e+01 1.248230e+01 1.125699e+01 1.148294e+01 1.489600e+01 1.909554e+01 1.840370e+01 1.780154e+01 1.779529e+01 1.633091e+01 1.514913e+01 1.378691e+01 1.234758e+01 1.757804e-01 2.956028e-01 4.722948e-01 6.787791e-01 9.092802e-01 1.112106e+00 1.262051e+00 1.373794e+00 1.392287e+00 1.388609e+00 1.310223e+00 1.176188e+00 9.060045e-02 2.803417e-02 5.422323e-02 9.200796e-02 1.331046e-01 1.807508e-01 2.217416e-01 2.517919e-01 2.753719e-01 2.813139e-01 2.811754e-01 2.650546e-01 2.381476e-01 1.071154e-02
<GCONST> 7.536597e+01
<MIXTURE> 2 1.634638e-01
<MEAN> 39
 -1.060434e+01 -3.287616e+00 -2.192649e+00 -3.501013e+00 -1.223048e+00 -1.524637e+00 1.903961e+00 5.428903e-01 7.751277e-01 1.277822e-01 5.833822e-01 -9.473353e-01 5.507709e+01 -2.462422e-01 -2.361652e-01 2.371634e-02 -5.961339e-02 -6.857824e-02 -2.443285e-01 -1.305680e-01 -1.856772e-01 -2.443760e-02 -3.495651e-02 3.610177e-02 7.576894e-02 4.817260e-01 4.947180e-02 3.403407e-02 1.477935e-02 3.714944e-02 5.366290e-02 7.796689e-02 7.647610e-02 6.097178e-02 3.807233e-02 3.209875e-02 8.764734e-03 -3.905650e-03 -5.150728e-02
<VARIANCE> 39
 2.782942e+01 3.416800e+01 1.959347e+01 2.260740e+01 2.376332e+01 2.645953e+01 2.983451e+01 3.140838e+01 2.648449e+01 2.132299e+01 2.006846e+01 1.720389e+01 4.979696e+01 1.143998e+00 1.276015e+00 1.046877e+00 1.302254e+00 1.533420e+00 1.812777e+00 1.946260e+00 2.084863e+00 1.904814e+00 1.804384e+00 1.660255e+00 1.461408e+00 1.759860e+00 1.912400e-01 2.257838e-01 1.909811e-01 2.476110e-01 2.945317e-01 3.555759e-01 3.819436e-01 4.192111e-01 3.805178e-01 3.641554e-01 3.352250e-01 2.956376e-01 3.022047e-01
<GCONST> 1.040338e+02
<TRANSP> 5
 0.000000e+00 1.000000e+00 0.000000e+00 0.000000e+00 0.000000e+00
 0.000000e+00 9.888743e-01 1.112570e-02 0.000000e+00 0.000000e+00
 0.000000e+00 0.000000e+00 9.872881e-01 1.271199e-02 0.000000e+00
 0.000000e+00 0.000000e+00 0.000000e+00 9.907374e-01 9.262572e-03
 0.000000e+00 0.000000e+00 0.000000e+00 0.000000e+00 0.000000e+00
<ENDHMM>
~h "st"
<BEGINHMM>
<NUMSTATES> 5
<STATE> 2
<NUMMIXES> 2
<MIXTURE> 1 7.040393e-01
<MEAN> 39
 -9.429350e+00 -5.660799e+00 -1.200565e+00 -8.924107e+00 -2.918828e+00 -6.126518e+00 -3.342593e-01 1.006228e-01 1.075434e+00 -6.748049e-01 7.120917e-01 -1.736295e+00 6.217320e+01 1.751600e-01 1.723958e-01 1.239243e-01 2.930377e-01 2.683214e-01 2.800825e-01 1.822942e-01 4.699536e-02 6.885435e-04 3.479580e-02 2.577478e-02 8.896624e-02 -6.670511e-01 2.947744e-02 3.381174e-02 -5.044634e-02 7.002133e-02 1.443963e-02 6.225590e-02 4.740222e-02 2.319861e-03 -2.499511e-02 -4.730242e-03 -2.273457e-02 -2.512539e-02 -8.637134e-02
<VARIANCE> 39
 1.709629e+01 2.686752e+01 1.551104e+01 2.389362e+01 2.340932e+01 2.789612e+01 2.383131e+01 2.173038e+01 2.152088e+01 2.086953e+01 1.872364e+01 1.439056e+01 5.446458e+01 2.859453e-01 3.896195e-01 5.910734e-01 8.362341e-01 1.027204e+00 1.211100e+00 1.374558e+00 1.521001e+00 1.591046e+00 1.550428e+00 1.484861e+00 1.357572e+00 2.721625e-01 5.531701e-02 9.882651e-02 1.159541e-01 1.904480e-01 2.113191e-01 2.692624e-01 2.869818e-01 3.018916e-01 3.185292e-01 3.075861e-01 2.967745e-01 2.681794e-01 1.422566e-01
<GCONST> 8.937542e+01
<MIXTURE> 2 2.959530e-01
<MEAN> 39
 -9.185434e+00 -4.701310e+00 -2.982985e+00 -7.973142e+00 -3.052033e+00 -3.833668e+00 9.745855e-01 6.203352e-01 1.111288e+00 5.559899e-02 7.323361e-01 -2.088216e+00 6.034190e+01 -5.998427e-01 -1.118884e+00 1.591853e-01 -1.146521e+00 -7.309749e-01 -1.513622e+00 -8.767610e-01 -3.145385e-01 -5.253573e-02 -2.169340e-01 -3.079372e-03 -8.457164e-02 2.757778e+00 7.600120e-02 1.536814e-01 1.114366e-01 9.597734e-02 1.279477e-01 1.810400e-01 1.056763e-01 8.786480e-02 7.218535e-02 5.332795e-02 3.511085e-02 5.840681e-02 -3.102617e-01
<VARIANCE> 39
 2.401814e+01 3.173692e+01 1.922012e+01 2.953369e+01 2.603882e+01 3.875482e+01 2.941859e+01 2.508630e+01 2.232954e+01 1.969382e+01 1.857540e+01 1.557671e+01 8.868919e+01 1.729552e+00 2.244797e+00 1.666281e+00 2.378849e+00 2.570446e+00 2.990948e+00 2.587508e+00 2.716536e+00 2.514088e+00 2.242233e+00 2.101584e+00 1.737493e+00 4.475804e+00 2.615492e-01 3.997217e-01 2.540659e-01 4.755798e-01 4.573908e-01 6.844046e-01 5.008882e-01 4.639604e-01 4.083361e-01 3.865206e-01 3.471972e-01 3.140990e-01 1.308069e+00
<GCONST> 1.148755e+02
<STATE> 3
<NUMMIXES> 2
<MIXTURE> 1 7.548142e-01
<MEAN> 39
 -7.661839e+00 -2.926407e+00 -1.894275e+00 -5.623565e+00 -1.223624e+00 -9.060584e-01 2.830988e+00 5.794732e-01 1.655376e-01 -2.785361e-01 6.046408e-01 -1.772688e+00 5.509953e+01 1.153360e-01 1.436500e-01 -3.454890e-02 1.981333e-01 1.325258e-01 2.077758e-01 1.131102e-01 4.099530e-02 -1.539084e-02 1.968898e-02 -1.370498e-02 -6.819080e-03 -4.456516e-01 -1.015804e-02 -1.447875e-02 -9.399907e-03 -1.828019e-02 -2.505420e-02 -2.107101e-02 -1.650919e-02 -9.293116e-03 -4.054092e-03 -1.311415e-03 -1.487510e-03 -4.308258e-03 3.025316e-02
<VARIANCE> 39
 1.385173e+01 1.793684e+01 1.623217e+01 1.883601e+01 1.700268e+01 2.266172e+01 1.871421e+01 1.887778e+01 1.889182e+01 1.808762e+01 1.540196e+01 1.407103e+01 3.097396e+01 2.100270e-01 3.184550e-01 4.937400e-01 7.121797e-01 9.215156e-01 1.125515e+00 1.271607e+00 1.370878e+00 1.417865e+00 1.416457e+00 1.336642e+00 1.209878e+00 1.794939e-01 3.259168e-02 5.811504e-02 9.610051e-02 1.417622e-01 1.858923e-01 2.291103e-01 2.610206e-01 2.819773e-01 2.934133e-01 2.933426e-01 2.765867e-01 2.496499e-01 1.571609e-02
<GCONST> 8.007613e+01
<MIXTURE> 2 2.452867e-01
<MEAN> 39
 -9.712209e+00 -3.069335e+00 -2.357755e+00 -7.578511e+00 -2.888308e+00 -2.150609e+00 2.107219e+00 2.814670e-01 4.961737e-01 -2.107142e-01 7.832245e-01 -1.946928e+00 5.851577e+01 -3.558080e-01 -3.695455e-01 8.409012e-02 -5.542896e-01 -3.947482e-01 -5.574196e-01 -3.032161e-01 -1.192657e-01 3.543792e-02 -5.069509e-02 4.481288e-02 2.257981e-02 1.243540e+00 2.730078e-02 4.313460e-02 2.695639e-02 5.274919e-02 7.465396e-02 5.874360e-02 4.437026e-02 2.897808e-02 1.829341e-02 6.205732e-03 5.858639e-03 1.366172e-02 -8.534560e-02
<VARIANCE> 39
 2.160832e+01 2.449430e+01 1.723783e+01 3.224694e+01 2.615298e+01 2.924525e+01 2.328117e+01 2.204213e+01 2.153888e+01 1.976698e+01 1.733270e+01 1.561530e+01 6.246115e+01 1.442124e+00 1.663766e+00 1.260586e+00 2.340043e+00 2.279698e+00 2.515744e+00 2.180753e+00 2.084141e+00 2.075639e+00 1.938788e+00 1.773879e+00 1.569329e+00 3.652610e+00 2.549186e-01 2.962730e-01 2.299209e-01 4.650485e-01 4.484814e-01 5.258454e-01 4.440389e-01 4.156138e-01 4.078762e-01 3.865155e-01 3.544918e-01 3.169625e-01 8.350343e-01
<GCONST> 1.097009e+02
<STATE> 4
<NUMMIXES> 2
<MIXTURE> 1 7.517408e-01
<MEAN> 39
 -1.026283e+01 3.525069e-01 -5.598634e-01 -2.489021e+00 6.694539e-01 9.127431e-02 2.897600e+00 2.051712e+00 2.017862e+00 4.709397e-01 5.880891e-01 -1.469747e+00 5.075846e+01 1.851875e-02 7.627130e-02 2.723764e-02 1.018027e-01 9.589998e-02 1.356486e-01 7.684472e-02 5.363266e-02 4.637308e-03 6.111640e-03 -1.419820e-02 -1.133684e-02 -1.896011e-01 -2.314632e-03 -1.742322e-02 -1.946604e-02 -3.811293e-02 -4.420115e-02 -4.225988e-02 -3.121169e-02 -1.989067e-02 -1.077147e-02 -4.517264e-03 -2.311836e-03 -2.920250e-03 2.174258e-02
<VARIANCE> 39
 1.650097e+01 9.026007e+00 9.893623e+00 1.186961e+01 1.319485e+01 1.605469e+01 1.869443e+01 1.766354e+01 1.629949e+01 1.516347e+01 1.371383e+01 1.242357e+01 1.699011e+01 1.909738e-01 2.999533e-01 4.621389e-01 6.950949e-01 9.025382e-01 1.083778e+00 1.234714e+00 1.344429e+00 1.381243e+00 1.372148e+00 1.292011e+00 1.148382e+00 1.240589e-01 3.008243e-02 5.335989e-02 8.795276e-02 1.312566e-01 1.754680e-01 2.127040e-01 2.454397e-01 2.675171e-01 2.775544e-01 2.780991e-01 2.614083e-01 2.326592e-01 1.364755e-02
<GCONST> 7.495605e+01
<MIXTURE> 2 2.483679e-01
<MEAN> 39
 -1.029356e+01 -1.025352e+00 -1.510543e+00 -5.877613e+00 -2.550900e+00 -3.347532e+00 9.387426e-01 1.021921e+00 1.984677e+00 4.336139e-01 6.734359e-01 -1.655191e+00 5.495057e+01 -6.830497e-02 -2.200199e-01 -8.882665e-02 -3.029645e-01 -2.614902e-01 -3.701303e-01 -2.108895e-01 -1.592151e-01 -4.017449e-03 -2.565418e-02 3.190605e-02 2.881330e-02 5.312334e-01 1.048569e-02 4.680420e-02 5.815999e-02 1.062317e-01 1.252123e-01 1.210266e-01 8.920588e-02 5.553760e-02 2.676249e-02 1.131703e-02 6.602865e-03 8.882744e-03 -6.238784e-02
<VARIANCE> 39
 1.879190e+01 1.611245e+01 1.472571e+01 2.277028e+01 2.066708e+01 2.858973e+01 2.521813e+01 2.346581e+01 2.045472e+01 1.824132e+01 1.644930e+01 1.493853e+01 3.625433e+01 8.794793e-01 1.079112e+00 1.062754e+00 1.774765e+00 1.830604e+00 2.104034e+00 1.848201e+00 1.914856e+00 1.802552e+00 1.697797e+00 1.560074e+00 1.418779e+00 1.555833e+00 1.453740e-01 1.978016e-01 2.016997e-01 3.261073e-01 3.453538e-01 4.123493e-01 3.664042e-01 3.872412e-01 3.651643e-01 3.435856e-01 3.203434e-01 2.912448e-01 2.639504e-01
<GCONST> 1.005844e+02
<TRANSP> 5
 0.000000e+00 1.000000e+00 0.000000e+00 0.000000e+00 0.000000e+00
 0.000000e+00 9.109429e-01 8.905710e-02 0.000000e+00 0.000000e+00
 0.000000e+00 0.000000e+00 9.925105e-01 7.489483e-03 0.000000e+00
 0.000000e+00 0.000000e+00 0.000000e+00 9.895118e-01 1.048815e-02
 0.000000e+00 0.000000e+00 0.000000e+00 0.000000e+00 0.000000e+00
<ENDHMM>
~h "spe"
<BEGINHMM>
<NUMSTATES> 5
<STATE> 2
<NUMMIXES> 2
<MIXTURE> 1 4.863984e-01
<MEAN> 39
 -4.385258e+00 2.230686e+00 5.296057e-01 -2.621139e+00 -3.309322e+00 -3.402363e+00 -7.189724e-01 1.083446e+00 -6.309959e-01 2.094221e-02 -4.796141e-01 -2.495292e+00 5.180644e+01 -9.442875e-02 6.513521e-02 4.899531e-02 -3.146646e-02 9.628817e-03 -1.037087e-01 7.289685e-02 -1.613800e-02 -4.348861e-02 -2.818764e-02 8.160737e-02 1.135579e-01 4.253149e-02 6.138949e-02 -9.348488e-02 -3.458029e-02 -6.043560e-02 -5.440222e-02 3.867140e-02 -4.391342e-02 -8.829227e-03 -2.036367e-02 -1.308652e-02 -3.432225e-02 -8.121955e-02 4.006601e-02
<VARIANCE> 39
 2.301975e+01 1.981131e+01 2.544125e+01 2.103119e+01 3.925371e+01 3.461181e+01 2.392735e+01 3.103407e+01 2.952545e+01 2.687269e+01 2.421912e+01 2.216768e+01 9.585778e+00 9.415166e-01 9.367778e-01 1.024083e+00 1.081078e+00 1.877937e+00 1.801983e+00 1.720060e+00 1.891692e+00 1.889408e+00 1.840166e+00 1.762805e+00 1.615031e+00 2.258907e-01 1.112319e-01 1.274353e-01 1.578823e-01 1.866423e-01 2.957029e-01 3.188410e-01 3.217060e-01 3.447053e-01 3.564741e-01 3.507832e-01 3.330020e-01 3.038415e-01 3.268477e-02
<GCONST> 9.617655e+01
<MIXTURE> 2 5.135996e-01
<MEAN> 39
 8.626729e-01 -4.205727e+00 -1.881298e+00 -5.343319e+00 -5.717145e+00 -3.854023e-01 -3.564825e+00 1.712020e-01 -1.032084e+00 4.435809e-01 -2.105709e+00 -6.538684e+00 5.443829e+01 8.260983e-02 -7.684076e-02 -1.482279e-02 2.100940e-02 -2.634434e-02 7.633351e-02 -8.905733e-02 1.382554e-02 4.232436e-02 4.109430e-02 -7.759282e-02 -1.107331e-01 -1.486281e-02 -5.977931e-02 8.702333e-02 3.374304e-02 5.810975e-02 5.124415e-02 -4.085202e-02 4.325136e-02 9.911168e-03 2.046032e-02 1.172389e-02 3.122505e-02 7.795414e-02 -3.789577e-02
<VARIANCE> 39
 5.904133e+00 2.203911e+01 3.789816e+01 2.618150e+01 4.218553e+01 4.420885e+01 2.931492e+01 3.798155e+01 3.048466e+01 3.025656e+01 3.777436e+01 3.571418e+01 1.046269e+01 2.183976e-01 7.240646e-01 9.725705e-01 1.097035e+00 1.458834e+00 1.770795e+00 1.681506e+00 1.855846e+00 1.813271e+00 1.887748e+00 1.849154e+00 1.863893e+00 2.017112e-01 3.347361e-02 8.880803e-02 1.453015e-01 1.797163e-01 2.490458e-01 2.999402e-01 3.127011e-01 3.472891e-01 3.553398e-01 3.624965e-01 3.498448e-01 3.237135e-01 1.969609e-02
<GCONST> 9.311543e+01
<STATE> 3
<NUMMIXES> 2
<MIXTURE> 1 6.339191e-01
<MEAN> 39
 -2.988149e+00 -4.412687e+00 1.333569e-01 -1.122399e+01 -2.211715e+00 -2.806995e+00 -2.562107e+00 -6.029215e-01 -2.020052e+00 -1.874483e+00 -3.643709e+00 -3.933334e+00 6.083641e+01 4.605225e-02 1.972772e-01 -5.172146e-02 2.232845e-01 1.349412e-01 1.031821e-01 9.185331e-02 -9.338456e-02 -6.347872e-02 -1.852569e-02 7.620118e-03 -2.125773e-02 -2.934039e-01 -7.431155e-03 8.219268e-03 9.102543e-04 1.367004e-02 -4.569124e-03 -2.167421e-02 -1.666306e-02 -1.447387e-02 -1.978794e-02 -4.735449e-03 1.918430e-02 2.491625e-02 -2.262799e-02
<VARIANCE> 39
 2.620245e+01 4.221143e+01 5.968081e+01 5.983627e+01 5.383994e+01 5.094898e+01 4.796914e+01 4.530256e+01 3.458047e+01 3.031734e+01 5.056736e+01 2.774748e+01 2.877039e+01 2.169429e-01 4.534849e-01 6.139168e-01 9.141671e-01 1.150246e+00 1.324059e+00 1.444298e+00 1.598376e+00 1.555524e+00 1.589202e+00 1.569952e+00 1.360948e+00 1.513855e-01 3.553871e-02 7.083157e-02 1.125542e-01 1.657471e-01 2.155466e-01 2.542070e-01 2.830439e-01 3.123560e-01 3.123708e-01 3.107109e-01 3.090658e-01 2.667806e-01 1.733824e-02
<GCONST> 9.398605e+01
<MIXTURE> 2 3.660911e-01
<MEAN> 39
 -3.765802e+00 -3.820432e+00 3.007265e+00 -1.460468e+01 -2.743530e+00 -7.229560e+00 -5.139654e+00 -2.856587e+00 -2.241393e+00 -3.032356e+00 -5.735715e+00 -1.093483e+00 6.153938e+01 -8.826564e-02 -2.822917e-01 1.521290e-03 -2.736069e-01 -1.884035e-01 -2.126797e-01 -1.301580e-01 9.991253e-02 1.253390e-01 -2.310006e-02 -6.757390e-02 -1.436528e-02 4.941556e-01 1.366128e-02 3.814578e-03 -1.498026e-02 1.621116e-02 1.644322e-02 6.013532e-02 5.812920e-02 2.754806e-02 3.448823e-02 1.904419e-02 -2.272612e-02 -3.652561e-02 -3.655110e-03
<VARIANCE> 39
 2.377958e+01 3.571617e+01 7.396065e+01 7.390292e+01 5.425357e+01 6.419598e+01 5.382459e+01 6.656269e+01 4.250748e+01 4.261057e+01 5.851513e+01 3.710660e+01 1.850487e+01 1.153940e+00 1.719612e+00 2.425194e+00 2.588030e+00 2.882257e+00 2.861202e+00 2.957956e+00 3.120964e+00 2.887337e+00 2.610645e+00 2.669336e+00 2.232150e+00 6.519781e-01 1.413009e-01 2.255030e-01 3.047619e-01 3.714824e-01 4.333842e-01 4.663937e-01 4.787765e-01 5.298914e-01 5.042937e-01 4.902662e-01 4.736278e-01 4.041292e-01 9.437890e-02
<GCONST> 1.176954e+02
<STATE> 4
<NUMMIXES> 2
<MIXTURE> 1 4.730648e-01
<MEAN> 39
 -2.611566e+00 -3.529629e+00 -3.518935e+00 -4.609666e+00 9.226203e-02 2.794249e+00 3.673405e+00 1.347023e+00 -9.788976e-01 3.696926e-01 -4.074017e-01 -3.195437e+00 5.020589e+01 -1.798647e-02 1.494787e-02 -4.362823e-02 7.472137e-02 5.553110e-02 1.219694e-01 1.390107e-01 5.631438e-02 3.657951e-02 3.742203e-02 4.316911e-02 5.540564e-02 -1.055874e-01 2.380761e-03 -3.299552e-03 1.240895e-02 -2.505700e-02 -2.511601e-02 -3.790287e-02 -4.683319e-02 -2.084032e-02 -2.365705e-02 -1.824745e-02 -3.801087e-03 -1.265475e-02 2.229819e-02
<VARIANCE> 39
 8.436577e+00 1.024327e+01 1.030542e+01 1.019470e+01 1.439469e+01 1.861057e+01 2.217401e+01 2.044425e+01 1.876357e+01 1.767281e+01 1.595005e+01 1.459355e+01 4.936203e+00 1.517062e-01 2.886935e-01 4.872172e-01 6.860224e-01 9.035614e-01 1.131057e+00 1.273021e+00 1.403567e+00 1.437541e+00 1.402336e+00 1.324703e+00 1.203518e+00 6.219900e-02 2.595711e-02 5.216781e-02 9.220297e-02 1.310118e-01 1.769670e-01 2.228563e-01 2.500871e-01 2.786338e-01 2.884423e-01 2.825637e-01 2.653305e-01 2.399676e-01 8.747210e-03
<GCONST> 7.319907e+01
<MIXTURE> 2 5.269346e-01
<MEAN> 39
 -8.133728e-01 -6.338536e+00 7.295685e-01 -9.164867e+00 -5.091935e+00 -2.150320e+00 -3.818051e+00 -9.356523e-01 -3.152657e+00 -7.982157e-01 -3.534827e-01 -4.820116e+00 5.731836e+01 2.021745e-02 -2.268077e-02 2.000335e-02 -5.620710e-02 -3.516543e-02 -9.906387e-02 -1.063811e-01 -2.429832e-02 -1.673651e-02 -1.178082e-02 -2.746229e-02 -3.895295e-02 6.528001e-02 -3.304031e-03 3.476202e-03 -1.188007e-02 2.063161e-02 2.277775e-02 3.335939e-02 4.111716e-02 1.858933e-02 2.191963e-02 1.595510e-02 2.148611e-03 1.154450e-02 -1.857634e-02
<VARIANCE> 39
 1.515055e+01 3.711015e+01 5.326073e+01 3.116706e+01 6.450169e+01 4.516064e+01 4.084373e+01 4.403861e+01 3.797773e+01 4.021673e+01 3.853841e+01 2.703257e+01 1.380058e+01 4.374127e-01 1.035905e+00 1.184948e+00 1.324045e+00 1.778204e+00 1.854151e+00 2.107703e+00 2.022646e+00 2.035430e+00 1.974356e+00 1.954922e+00 1.543991e+00 4.324258e-01 6.150479e-02 1.374997e-01 1.595775e-01 2.063963e-01 2.763008e-01 3.216595e-01 3.597269e-01 3.675050e-01 3.835391e-01 3.752120e-01 3.575974e-01 2.891004e-01 4.118349e-02
<GCONST> 1.017318e+02
<TRANSP> 5
 0.000000e+00 1.000000e+00 0.000000e+00 0.000000e+00 0.000000e+00
 0.000000e+00 9.919210e-01 8.078994e-03 0.000000e+00 0.000000e+00
 0.000000e+00 0.000000e+00 9.848738e-01 1.512625e-02 0.000000e+00
 0.000000e+00 0.000000e+00 0.000000e+00 9.949466e-01 5.053408e-03
 0.000000e+00 0.000000e+00 0.000000e+00 0.000000e+00 0.000000e+00
<ENDHMM>
