~o
<STREAMINFO> 1 39
<VECSIZE> 39<NULLD><MFCC_D_A_0><DIAGC>
~h "ap"
<BEGINHMM>
<NUMSTATES> 5
<STATE> 2
<MEAN> 39
 -1.552827e+01 -8.061410e+00 -5.280208e+00 -2.048170e+00 -1.807233e+00 -4.091336e+00 8.629451e-01 -3.193546e-01 -7.661203e-01 -4.655944e-01 -1.393479e-01 -1.637365e+00 6.573240e+01 -1.191710e+00 -1.724345e+00 -8.433068e-01 -1.209721e-01 -7.903706e-01 -1.096316e+00 -3.199943e-01 -6.017599e-01 -1.842567e-01 -1.305403e-01 -6.029834e-02 4.695294e-02 3.291790e+00 2.293633e-01 1.619540e-01 9.371974e-02 -2.028415e-02 1.509662e-01 2.453585e-01 1.941002e-01 1.084950e-01 1.212495e-01 5.447204e-02 5.234654e-02 3.100347e-02 -5.201604e-01
<VARIANCE> 39
 4.870037e+01 6.439367e+01 4.225063e+01 2.593161e+01 3.255775e+01 5.377021e+01 3.671698e+01 3.685374e+01 2.962925e+01 2.339350e+01 1.945373e+01 1.646173e+01 2.308462e+02 4.325639e+00 4.446907e+00 2.207403e+00 2.140705e+00 3.120238e+00 4.662679e+00 3.398201e+00 3.649040e+00 2.840010e+00 2.510550e+00 1.990301e+00 1.715032e+00 1.706357e+01 7.141991e-01 7.466779e-01 3.488483e-01 3.354421e-01 5.024186e-01 7.799411e-01 5.520364e-01 6.155521e-01 4.422856e-01 4.006374e-01 3.098337e-01 2.819172e-01 3.288187e+00
<GCONST> 1.271225e+02
<STATE> 3
<MEAN> 39
 -1.298750e+01 -1.630039e+01 -1.106525e+01 -9.645796e-01 -1.283798e-01 -8.808546e+00 -3.817856e-01 -1.677482e+00 -2.757705e+00 -2.871755e+00 5.050595e-01 -2.258906e-01 7.060919e+01 1.459921e-01 4.185545e-02 9.108682e-02 8.737511e-02 1.262495e-01 5.206766e-02 7.012548e-02 1.599501e-02 1.621252e-03 -1.899096e-03 2.183670e-02 2.323261e-02 -3.691782e-01 3.306240e-03 2.046423e-02 1.448945e-02 1.057730e-02 1.294668e-02 6.656148e-03 -5.431240e-03 3.714493e-03 -4.801606e-03 8.244527e-04 -5.470659e-04 -4.606357e-03 -1.922008e-02
<VARIANCE> 39
 1.712469e+01 2.642898e+01 2.740777e+01 2.346090e+01 2.890250e+01 2.909197e+01 2.946864e+01 2.270438e+01 2.360487e+01 2.374588e+01 1.765065e+01 1.475590e+01 6.260029e+01 5.424711e-01 6.783950e-01 7.670966e-01 1.058315e+00 1.275931e+00 1.353495e+00 1.676823e+00 1.467095e+00 1.504590e+00 1.452387e+00 1.350145e+00 1.225283e+00 3.494472e+00 9.280358e-02 1.299035e-01 1.419020e-01 2.054254e-01 2.430574e-01 2.705772e-01 3.408436e-01 3.038707e-01 3.102197e-01 2.992788e-01 2.776754e-01 2.538050e-01 5.536531e-01
<GCONST> 9.773817e+01
<STATE> 4
<MEAN> 39
 -1.091476e+01 -1.137466e+01 -5.982676e+00 6.720017e-02 1.131313e-01 -4.842978e+00 2.503015e+00 -1.071251e+00 -2.061552e+00 -3.837251e-01 7.225857e-01 -8.307865e-01 6.118344e+01 1.863741e-02 1.714114e-02 9.429233e-03 9.126045e-03 5.201439e-03 9.373866e-03 4.906954e-03 1.210056e-02 1.455849e-03 1.716372e-03 1.276267e-03 -2.021701e-03 -3.895459e-02 -1.269053e-03 -4.280329e-04 -1.478401e-03 -1.681441e-03 -2.141899e-03 -1.325598e-03 -1.535219e-03 -5.426167e-04 -3.697091e-04 -7.804750e-04 -6.746364e-04 4.808692e-05 2.102873e-03
<VARIANCE> 39
 2.459062e+01 5.663637e+01 3.016709e+01 2.521211e+01 3.453513e+01 3.797360e+01 2.871163e+01 3.023965e+01 2.526253e+01 2.047890e+01 1.694240e+01 1.504724e+01 1.257529e+02 9.086827e-01 1.267822e+00 9.420522e-01 9.915985e-01 1.436640e+00 1.722768e+00 1.624240e+00 1.719726e+00 1.603930e+00 1.464852e+00 1.363864e+00 1.229624e+00 5.323815e+00 1.430197e-01 1.964131e-01 1.609990e-01 1.857428e-01 2.654958e-01 3.247852e-01 3.215792e-01 3.356042e-01 3.258483e-01 2.999151e-01 2.767808e-01 2.508005e-01 7.929655e-01
<GCONST> 1.041857e+02
<TRANSP> 5
 0.000000e+00 1.000000e+00 0.000000e+00 0.000000e+00 0.000000e+00
 0.000000e+00 8.072628e-01 1.927371e-01 0.000000e+00 0.000000e+00
 0.000000e+00 0.000000e+00 9.787033e-01 2.129669e-02 0.000000e+00
 0.000000e+00 0.000000e+00 0.000000e+00 9.957260e-01 4.273982e-03
 0.000000e+00 0.000000e+00 0.000000e+00 0.000000e+00 0.000000e+00
<ENDHMM>
~h "cl"
<BEGINHMM>
<NUMSTATES> 5
<STATE> 2
<MEAN> 39
 -1.240382e+01 -1.170373e+00 -2.078204e+00 -4.295018e+00 -1.486736e+00 5.401015e+00 3.249476e+00 5.690543e-01 3.696673e+00 -3.056214e-01 -2.485633e+00 1.129869e+00 5.426483e+01 -2.565593e-01 3.722600e-02 3.852120e-02 -2.750567e-02 -9.299624e-02 1.142254e-01 -6.113492e-02 -1.301693e-01 7.268494e-02 -3.009620e-02 -1.017899e-01 7.937372e-02 1.991685e-01 -3.556583e-02 -3.626906e-03 1.987843e-02 -9.346724e-03 -2.478518e-02 3.554953e-02 -1.149874e-02 -3.215142e-02 1.898548e-02 -4.619133e-03 -3.246266e-02 2.436452e-02 2.558408e-02
<VARIANCE> 39
 3.842933e+01 3.079589e+01 2.503587e+01 1.603351e+01 1.869548e+01 4.898038e+01 2.392982e+01 2.500815e+01 3.172709e+01 2.280435e+01 2.357245e+01 2.244876e+01 4.938636e+01 2.311027e+00 8.186823e-01 7.727604e-01 9.499788e-01 1.331844e+00 2.067144e+00 1.737379e+00 2.018577e+00 2.030933e+00 1.746276e+00 1.770829e+00 1.593151e+00 1.976585e+00 2.902443e-01 1.251539e-01 1.345337e-01 1.720394e-01 2.364814e-01 3.439441e-01 3.138546e-01 3.522635e-01 3.645213e-01 3.263987e-01 3.134480e-01 2.848626e-01 2.557541e-01
<GCONST> 1.025973e+02
<STATE> 3
<MEAN> 39
 -1.888212e+01 1.602238e+00 1.207129e+00 -6.976069e+00 -5.489541e+00 1.096055e+01 -5.269323e-01 -2.707324e+00 9.377618e+00 -2.453406e+00 -4.960635e+00 5.351346e+00 5.712312e+01 -9.560197e-02 1.647796e-03 1.061470e-02 -2.622401e-03 -1.344720e-02 3.102185e-02 -5.244110e-03 -2.202409e-02 -2.809789e-02 -3.515554e-03 -4.706013e-02 1.410215e-02 8.378911e-02 2.627888e-02 -2.195995e-03 -7.633519e-03 2.229855e-03 1.045879e-02 -1.201619e-02 7.896443e-03 1.287999e-02 -1.228275e-02 3.844724e-03 8.988899e-03 -9.871203e-03 -1.964431e-02
<VARIANCE> 39
 4.731425e+01 1.052854e+01 2.348573e+01 1.628841e+01 1.814159e+01 3.175646e+01 2.801256e+01 2.922031e+01 3.235448e+01 2.863518e+01 2.607180e+01 2.094212e+01 2.543647e+01 2.759183e+00 5.516102e-01 9.393290e-01 1.014576e+00 1.374322e+00 2.035036e+00 1.893801e+00 2.038847e+00 2.226906e+00 1.738778e+00 1.748269e+00 1.715991e+00 1.540677e+00 5.036522e-01 1.022072e-01 1.732304e-01 2.005765e-01 2.652575e-01 3.767591e-01 3.672551e-01 3.917544e-01 4.296567e-01 3.488212e-01 3.453583e-01 3.300982e-01 2.878447e-01
<GCONST> 1.030218e+02
<STATE> 4
<MEAN> 39
 -2.199704e+01 1.273045e+00 3.090901e+00 -4.886846e+00 -5.689885e+00 1.136651e+01 1.393348e+00 -4.721207e+00 5.007488e+00 1.620681e+00 -9.113170e+00 4.819763e+00 5.874016e+01 7.669169e-02 -7.346570e-03 -4.813339e-03 -1.123897e-03 8.295769e-03 -1.958222e-02 3.561912e-03 5.453979e-03 3.051422e-03 -2.300329e-03 1.659952e-02 -5.889738e-03 -5.936857e-02 1.086932e-03 8.645625e-05 -1.493745e-03 8.450563e-04 1.836905e-03 -3.425033e-03 -2.995213e-04 2.748010e-03 -9.982774e-04 3.785864e-04 3.463711e-03 -2.350828e-03 -7.747636e-04
<VARIANCE> 39
 4.328591e+01 1.157149e+01 2.757780e+01 1.565464e+01 2.595436e+01 3.260259e+01 2.784457e+01 4.244741e+01 3.878082e+01 4.343061e+01 3.867900e+01 2.867239e+01 3.251394e+01 1.224828e+00 4.641310e-01 9.093122e-01 9.020528e-01 1.306121e+00 1.829148e+00 1.765950e+00 2.144890e+00 2.231751e+00 1.884853e+00 1.718563e+00 1.703757e+00 1.112382e+00 2.272963e-01 8.603906e-02 1.745450e-01 1.783119e-01 2.536225e-01 3.511508e-01 3.465513e-01 4.075412e-01 4.389547e-01 3.704360e-01 3.438377e-01 3.354211e-01 2.084958e-01
<GCONST> 1.024320e+02
<TRANSP> 5
 0.000000e+00 1.000000e+00 0.000000e+00 0.000000e+00 0.000000e+00
 0.000000e+00 9.555063e-01 4.449372e-02 0.000000e+00 0.000000e+00
 0.000000e+00 0.000000e+00 9.835062e-01 1.649380e-02 0.000000e+00
 0.000000e+00 0.000000e+00 0.000000e+00 9.954365e-01 4.563467e-03
 0.000000e+00 0.000000e+00 0.000000e+00 0.000000e+00 0.000000e+00
<ENDHMM>
~h "cm"
<BEGINHMM>
<NUMSTATES> 5
<STATE> 2
<MEAN> 39
 -1.082853e+01 -4.201937e-01 -3.197031e+00 -5.289810e+00 -5.680215e-01 2.850787e-01 -6.683987e-02 1.184599e+00 -2.733836e-01 9.186632e-01 1.624904e+00 -8.355607e-01 5.736839e+01 1.396278e-02 -4.455681e-02 -6.186296e-02 -8.833316e-02 -6.292220e-02 -8.268850e-02 -1.085176e-01 -7.854179e-02 -6.772949e-02 -3.986512e-02 -2.393965e-02 9.659598e-03 2.967106e-01 1.670091e-02 -9.484380e-05 -1.065237e-02 -6.821611e-03 -7.566920e-03 -1.151662e-02 -1.087548e-02 -1.387283e-02 -1.311629e-02 -5.791017e-03 -2.108175e-03 -2.337373e-03 1.015294e-02
<VARIANCE> 39
 1.835618e+01 1.759066e+01 1.347305e+01 1.673861e+01 1.654845e+01 1.893948e+01 2.119028e+01 2.023029e+01 1.934989e+01 1.812789e+01 1.908032e+01 1.613324e+01 3.674859e+01 4.419919e-01 6.005394e-01 6.582185e-01 9.949303e-01 1.186611e+00 1.435811e+00 1.500478e+00 1.576746e+00 1.584666e+00 1.506694e+00 1.493628e+00 1.317878e+00 8.542751e-01 5.979393e-02 9.595333e-02 1.143340e-01 1.738219e-01 2.156517e-01 2.623407e-01 2.810330e-01 2.967663e-01 3.034638e-01 2.891298e-01 2.830516e-01 2.535806e-01 9.970990e-02
<GCONST> 8.910085e+01
<STATE> 3
<MEAN> 39
 -1.157101e+01 -2.336988e+00 -5.570594e+00 -7.184133e+00 -1.539763e+00 -1.497675e+00 -2.895934e+00 -6.099244e-01 -2.174830e+00 3.985844e-01 1.927497e+00 1.318222e-01 6.399759e+01 9.976047e-02 -2.135626e-02 -1.100330e-03 8.476259e-03 -5.416651e-03 -3.062334e-02 -2.743746e-02 -2.702402e-02 -2.563470e-02 -4.335996e-02 -6.540697e-02 -4.304334e-02 2.546904e-01 -6.085448e-05 7.905315e-03 1.659310e-02 2.252391e-02 1.762144e-02 1.813961e-02 1.757786e-02 1.300035e-02 8.124003e-03 -2.165918e-03 -6.506911e-03 -7.275430e-03 -2.182818e-02
<VARIANCE> 39
 1.615495e+01 1.239518e+01 1.123644e+01 1.332765e+01 1.627378e+01 1.776901e+01 1.757267e+01 1.874161e+01 1.874654e+01 1.881754e+01 2.221716e+01 1.809776e+01 4.096291e+01 3.468828e-01 4.537921e-01 5.982171e-01 8.475006e-01 1.071598e+00 1.233059e+00 1.381629e+00 1.474883e+00 1.464892e+00 1.400925e+00 1.398786e+00 1.297708e+00 5.250692e-01 5.078028e-02 7.848313e-02 1.128998e-01 1.642076e-01 2.121840e-01 2.482579e-01 2.799653e-01 2.984496e-01 2.972472e-01 2.845051e-01 2.817447e-01 2.634630e-01 6.104397e-02
<GCONST> 8.535246e+01
<STATE> 4
<MEAN> 39
 -5.837910e+00 -1.849398e-01 -3.833158e+00 -5.023282e+00 -1.418799e+00 -1.930544e+00 -2.799713e+00 -1.666466e+00 -2.645929e+00 -1.906169e+00 -1.210544e+00 -2.296168e+00 6.756268e+01 4.097483e-02 4.054803e-02 5.266478e-02 6.580223e-02 4.889679e-02 3.186743e-02 3.275528e-02 5.026595e-04 4.201237e-03 -2.671552e-03 3.181389e-03 3.364204e-03 -1.993773e-01 -3.911728e-03 -9.577691e-04 -9.507671e-04 -2.308068e-03 -1.150386e-03 -2.219298e-06 8.511858e-04 1.673374e-03 1.646209e-03 3.323916e-03 3.907998e-03 2.037261e-03 -7.639911e-03
<VARIANCE> 39
 1.127136e+01 1.175483e+01 1.266570e+01 1.467911e+01 1.526293e+01 1.486160e+01 1.659296e+01 1.740638e+01 1.818631e+01 1.594733e+01 1.503593e+01 1.299696e+01 6.925764e+01 1.968282e-01 3.041230e-01 4.740690e-01 7.036194e-01 8.857360e-01 1.035135e+00 1.186669e+00 1.277286e+00 1.332392e+00 1.303681e+00 1.257127e+00 1.153159e+00 2.980822e-01 2.990923e-02 5.405507e-02 8.952274e-02 1.348761e-01 1.722219e-01 2.044578e-01 2.370685e-01 2.552465e-01 2.675954e-01 2.634674e-01 2.535667e-01 2.329942e-01 2.527137e-02
<GCONST> 7.803619e+01
<TRANSP> 5
 0.000000e+00 1.000000e+00 0.000000e+00 0.000000e+00 0.000000e+00
 0.000000e+00 9.520953e-01 4.790466e-02 0.000000e+00 0.000000e+00
 0.000000e+00 0.000000e+00 9.605165e-01 3.948356e-02 0.000000e+00
 0.000000e+00 0.000000e+00 0.000000e+00 9.863758e-01 1.362418e-02
 0.000000e+00 0.000000e+00 0.000000e+00 0.000000e+00 0.000000e+00
<ENDHMM>
~h "co"
<BEGINHMM>
<NUMSTATES> 5
<STATE> 2
<MEAN> 39
 -6.594317e+00 -8.087684e+00 -1.355706e+00 -2.862263e+00 -9.243996e+00 -4.062545e+00 -5.544793e+00 5.973785e-01 -1.096254e+00 -4.035047e+00 -3.925935e+00 -5.796362e+00 6.297348e+01 -5.298681e-01 -9.745109e-02 3.121766e-01 -4.734022e-01 -6.574416e-01 -8.653996e-01 -2.836251e-01 -6.530827e-01 -7.507043e-01 -7.173305e-01 -3.618994e-01 -2.566132e-01 2.388966e+00 -6.576359e-02 1.409323e-01 3.187001e-03 4.187505e-02 2.493726e-01 1.064738e-01 1.578997e-01 4.194336e-02 -2.112026e-02 4.557704e-02 1.098990e-01 8.325626e-02 -9.892658e-02
<VARIANCE> 39
 2.098963e+01 4.535176e+01 2.685079e+01 3.825563e+01 7.506667e+01 5.601236e+01 1.065517e+02 6.198975e+01 5.883820e+01 5.752888e+01 4.527249e+01 3.952284e+01 1.052359e+02 1.243270e+00 3.243554e+00 1.982469e+00 2.636047e+00 4.837277e+00 3.446035e+00 4.531722e+00 3.424837e+00 3.583994e+00 2.951607e+00 2.536972e+00 2.460436e+00 4.657844e+00 1.518720e-01 4.770042e-01 3.045237e-01 3.915457e-01 6.396749e-01 5.475316e-01 6.836683e-01 5.011120e-01 5.726797e-01 5.010316e-01 4.516342e-01 4.018922e-01 5.708153e-01
<GCONST> 1.268275e+02
<STATE> 3
<MEAN> 39
 -7.955614e+00 -7.908532e+00 -2.866274e+00 -4.368558e+00 -7.818235e+00 -9.224293e+00 -6.256301e+00 -6.488085e+00 -4.261314e+00 -3.979643e+00 -3.104076e+00 -7.599792e+00 6.937395e+01 6.046904e-02 -2.073847e-02 -2.214516e-02 4.644977e-02 1.021449e-01 -1.525946e-03 -7.645932e-02 -9.050225e-02 1.494844e-02 3.485694e-02 -3.256422e-03 -3.949721e-02 -6.735867e-02 2.461760e-02 -8.049073e-03 -1.786146e-04 1.153336e-02 -2.160546e-03 9.517728e-03 -1.035945e-02 7.339732e-03 1.338977e-02 9.526922e-03 -8.224444e-03 -7.788920e-03 -4.451592e-02
<VARIANCE> 39
 1.954385e+01 1.488544e+01 2.710138e+01 2.099647e+01 2.658747e+01 2.810369e+01 5.104116e+01 6.615691e+01 4.441676e+01 3.954090e+01 3.488091e+01 3.603886e+01 4.793881e+01 5.306135e-01 8.859612e-01 9.709276e-01 1.219517e+00 1.896178e+00 1.664874e+00 2.353475e+00 2.494892e+00 2.911480e+00 2.339009e+00 2.040983e+00 1.822517e+00 1.361946e+00 7.348175e-02 1.815350e-01 1.717698e-01 2.309566e-01 3.411364e-01 3.166759e-01 4.166120e-01 4.626886e-01 5.929456e-01 4.620279e-01 3.962932e-01 3.406233e-01 1.687882e-01
<GCONST> 1.062952e+02
<STATE> 4
<MEAN> 39
 -4.487970e+00 -4.907067e+00 1.801673e+00 -5.868560e-02 -2.543637e+00 -3.846074e+00 -6.396553e+00 -4.370560e+00 -2.765836e+00 -4.143896e+00 -3.859499e+00 -7.496950e+00 5.977200e+01 6.612252e-02 1.051798e-01 5.026067e-02 5.085894e-02 1.147856e-01 9.400231e-02 6.148344e-02 7.540098e-02 2.063824e-03 1.116815e-02 1.291901e-02 2.671476e-02 -2.664326e-01 -3.995869e-03 8.138260e-04 -4.019373e-03 -4.681495e-03 -6.787292e-03 -1.039976e-03 4.234551e-03 4.265469e-03 -2.999947e-04 -1.580185e-03 -2.137228e-04 2.081889e-03 2.630176e-03
<VARIANCE> 39
 1.463894e+01 2.705161e+01 2.148545e+01 2.522841e+01 3.478458e+01 3.446289e+01 5.554025e+01 4.913505e+01 3.352540e+01 3.832128e+01 3.343826e+01 3.135296e+01 7.097960e+01 3.242851e-01 6.382405e-01 7.146733e-01 8.928086e-01 1.414228e+00 1.320710e+00 1.807994e+00 1.740987e+00 1.739539e+00 1.803891e+00 1.676469e+00 1.541366e+00 9.076812e-01 4.587011e-02 1.076768e-01 1.291088e-01 1.680500e-01 2.620430e-01 2.510282e-01 3.303462e-01 3.237795e-01 3.453004e-01 3.559335e-01 3.333905e-01 3.050520e-01 8.715098e-02
<GCONST> 9.815334e+01
<TRANSP> 5
 0.000000e+00 1.000000e+00 0.000000e+00 0.000000e+00 0.000000e+00
 0.000000e+00 8.511779e-01 1.488221e-01 0.000000e+00 0.000000e+00
 0.000000e+00 0.000000e+00 9.783032e-01 2.169684e-02 0.000000e+00
 0.000000e+00 0.000000e+00 0.000000e+00 9.858850e-01 1.411501e-02
 0.000000e+00 0.000000e+00 0.000000e+00 0.000000e+00 0.000000e+00
<ENDHMM>
~h "ds"
<BEGINHMM>
<NUMSTATES> 5
<STATE> 2
<MEAN> 39
 -1.414606e+01 -1.221760e+00 -3.368061e-01 -1.259177e+00 -4.137703e-01 -1.328031e+00 3.880146e+00 5.546241e-01 2.254079e+00 1.087145e+00 2.131596e+00 3.978508e-01 6.420697e+01 -3.020371e-01 8.673681e-02 -3.026927e-02 -1.188495e-01 -2.142373e-01 -1.718279e-01 -1.033661e-01 -8.111086e-02 -3.121831e-02 1.629138e-01 1.543877e-01 1.250184e-01 1.313360e+00 1.061204e-01 5.137686e-02 3.609131e-02 6.420994e-02 6.108053e-02 4.078434e-02 2.954502e-02 3.146140e-02 2.514555e-02 -2.159315e-03 3.248188e-02 1.481861e-02 -1.611107e-01
<VARIANCE> 39
 2.935350e+01 1.941151e+01 1.767908e+01 2.160892e+01 2.470671e+01 2.241744e+01 3.243114e+01 3.643735e+01 2.732055e+01 2.408905e+01 2.122303e+01 1.714746e+01 1.315705e+02 2.685059e+00 1.469657e+00 1.574197e+00 1.954344e+00 2.374832e+00 2.372642e+00 2.759597e+00 2.432456e+00 2.278527e+00 2.112250e+00 2.080106e+00 1.671982e+00 9.406009e+00 4.291285e-01 2.320007e-01 2.395279e-01 3.503245e-01 4.002862e-01 4.179268e-01 4.713281e-01 4.450819e-01 4.135603e-01 3.838074e-01 3.736567e-01 2.999360e-01 1.535529e+00
<GCONST> 1.140790e+02
<STATE> 3
<MEAN> 39
 -1.455430e+01 -1.022105e-01 -7.105535e-01 2.241391e-01 -4.021639e-01 -1.988122e+00 2.152531e+00 -1.662037e+00 2.639401e+00 2.787650e+00 3.632698e+00 1.138687e+00 6.971949e+01 2.000959e-01 3.692951e-02 8.285463e-02 1.426297e-01 2.601956e-01 8.563951e-02 3.286525e-02 -4.256576e-02 -4.178414e-02 -2.658289e-02 2.177482e-02 -8.519574e-02 -4.148629e-01 8.219064e-03 -1.310471e-02 -7.425269e-03 -1.421586e-02 7.782510e-03 1.429248e-02 7.527011e-03 -5.924378e-03 -1.627536e-02 -2.339084e-02 -4.046826e-02 -3.235606e-02 -5.509249e-02
<VARIANCE> 39
 8.494301e+00 8.611211e+00 1.197435e+01 1.542988e+01 2.462349e+01 1.820893e+01 2.119000e+01 1.891563e+01 1.708902e+01 1.549576e+01 1.471803e+01 1.419621e+01 4.048632e+01 3.733814e-01 3.552164e-01 6.520863e-01 9.192075e-01 1.364144e+00 1.372016e+00 1.453634e+00 1.553879e+00 1.495757e+00 1.526527e+00 1.500785e+00 1.315785e+00 8.106667e-01 6.724102e-02 7.288428e-02 1.254858e-01 1.823085e-01 2.588987e-01 2.769866e-01 2.929468e-01 3.115259e-01 3.038995e-01 3.095074e-01 3.082155e-01 2.666581e-01 1.210622e-01
<GCONST> 8.701653e+01
<STATE> 4
<MEAN> 39
 -9.711040e+00 7.177346e-01 1.291593e+00 -3.282785e-01 2.687743e+00 6.163992e-01 3.122311e+00 7.307937e-01 2.260849e+00 -1.566110e-01 1.661410e+00 -7.361134e-01 5.511460e+01 3.133884e-02 8.708113e-03 1.989197e-02 8.604310e-03 1.343083e-02 2.241209e-02 2.413576e-02 2.341312e-02 1.194476e-02 -6.081816e-03 -1.055259e-02 1.421492e-04 -6.767319e-02 -1.609858e-03 -3.496061e-04 -8.573827e-04 -2.647408e-04 -2.480579e-03 -1.789603e-03 -1.411219e-03 -3.943954e-04 9.565499e-04 2.139525e-03 2.177948e-03 2.435640e-03 2.602926e-03
<VARIANCE> 39
 1.677335e+01 1.359247e+01 1.827044e+01 1.972839e+01 2.001284e+01 2.334477e+01 2.601753e+01 2.162570e+01 2.509707e+01 2.295627e+01 1.780386e+01 1.643992e+01 5.495523e+01 5.619873e-01 5.177365e-01 6.887895e-01 9.277422e-01 1.162887e+00 1.417975e+00 1.560600e+00 1.577255e+00 1.656616e+00 1.623151e+00 1.466718e+00 1.294715e+00 8.400055e-01 9.265919e-02 9.462602e-02 1.277045e-01 1.798429e-01 2.268872e-01 2.760175e-01 3.060887e-01 3.135611e-01 3.266939e-01 3.232013e-01 2.938826e-01 2.608536e-01 1.073008e-01
<GCONST> 9.201659e+01
<TRANSP> 5
 0.000000e+00 1.000000e+00 0.000000e+00 0.000000e+00 0.000000e+00
 0.000000e+00 8.952240e-01 1.047761e-01 0.000000e+00 0.000000e+00
 0.000000e+00 0.000000e+00 9.512865e-01 4.871352e-02 0.000000e+00
 0.000000e+00 0.000000e+00 0.000000e+00 9.933392e-01 6.660704e-03
 0.000000e+00 0.000000e+00 0.000000e+00 0.000000e+00 0.000000e+00
<ENDHMM>
~h "kj"
<BEGINHMM>
<NUMSTATES> 5
<STATE> 2
<MEAN> 39
 -1.220729e+01 2.534244e+00 -1.472555e+00 -2.559711e+00 -1.089731e+00 1.792818e+00 1.900251e+00 2.997757e+00 1.913438e+00 1.071897e+00 6.169581e-01 -1.220068e+00 5.103848e+01 -1.776415e-01 -1.013640e-01 -1.986019e-02 4.962139e-03 -7.218935e-02 -7.781737e-02 -6.482546e-02 -7.335368e-02 -1.252257e-02 -6.804056e-04 -1.251319e-02 1.642122e-02 2.406924e-01 -6.153139e-04 -2.060178e-02 -5.252371e-03 2.661291e-03 -1.459070e-04 -8.060401e-03 -9.435228e-03 -1.188675e-02 -6.286752e-03 -2.829534e-03 -5.801135e-03 9.373210e-04 1.200595e-02
<VARIANCE> 39
 2.223472e+01 2.251934e+01 1.637005e+01 1.650497e+01 2.107792e+01 2.392095e+01 2.670195e+01 2.284332e+01 2.280273e+01 1.973834e+01 1.707046e+01 1.624634e+01 2.587295e+01 7.805994e-01 9.697944e-01 8.241059e-01 9.371088e-01 1.255063e+00 1.533074e+00 1.722546e+00 1.721479e+00 1.695898e+00 1.661453e+00 1.467076e+00 1.362676e+00 7.746832e-01 1.095860e-01 1.425109e-01 1.375287e-01 1.687680e-01 2.273300e-01 2.828493e-01 3.139644e-01 3.161510e-01 3.163340e-01 3.181860e-01 2.808240e-01 2.655141e-01 8.421279e-02
<GCONST> 9.345123e+01
<STATE> 3
<MEAN> 39
 -1.631066e+01 -3.450321e+00 -4.822833e+00 -1.807349e+00 -1.620944e+00 -2.968274e+00 -4.030395e-01 -6.432228e-01 -5.090529e-01 1.163162e+00 5.396557e-01 -7.488917e-01 5.930005e+01 -9.653381e-02 9.553584e-02 1.668575e-02 7.727704e-03 3.389071e-02 3.852602e-02 1.530467e-02 2.079576e-02 1.361439e-03 2.929870e-03 1.536624e-02 5.606423e-03 -1.310427e-02 -7.598089e-03 2.658378e-02 2.642033e-02 -1.984741e-04 2.905314e-03 2.593084e-02 2.295614e-02 2.353487e-02 7.917146e-03 4.002117e-03 4.839323e-03 -5.037664e-03 -1.985248e-02
<VARIANCE> 39
 1.774701e+01 3.470444e+01 1.827245e+01 1.788287e+01 1.735810e+01 1.852749e+01 2.426134e+01 2.345800e+01 2.100138e+01 1.967500e+01 1.685156e+01 1.491924e+01 2.756916e+01 6.123175e-01 1.097025e+00 9.244857e-01 1.011978e+00 1.223768e+00 1.442184e+00 1.629101e+00 1.712363e+00 1.651651e+00 1.616238e+00 1.475422e+00 1.323346e+00 7.357759e-01 1.013515e-01 1.948244e-01 1.744753e-01 1.965752e-01 2.421953e-01 2.830071e-01 3.263454e-01 3.400327e-01 3.327957e-01 3.289104e-01 3.009205e-01 2.696213e-01 1.181053e-01
<GCONST> 9.431199e+01
<STATE> 4
<MEAN> 39
 -2.105966e+01 1.108375e+00 3.173488e-01 -1.311771e+00 -2.081832e+00 1.603250e+00 3.778224e+00 1.896613e+00 -3.529288e-01 1.682672e+00 9.932283e-01 -1.894315e+00 5.756150e+01 3.961351e-02 -1.402620e-02 1.984185e-04 -8.648239e-04 6.259400e-03 -5.407212e-03 2.758532e-03 -4.973554e-04 2.417278e-03 -2.623430e-03 -2.435256e-03 -2.250134e-04 -2.203105e-02 3.423814e-03 -9.257713e-04 -2.421783e-03 -3.288385e-04 4.756170e-04 -1.571262e-03 -1.359671e-03 -9.974381e-04 -2.555672e-04 -3.390631e-04 -2.066852e-04 3.658059e-04 -1.590896e-03
<VARIANCE> 39
 3.274678e+01 4.086182e+01 2.056572e+01 2.751810e+01 1.741029e+01 3.518439e+01 3.987089e+01 2.662284e+01 2.345448e+01 2.791723e+01 1.714307e+01 1.806634e+01 3.921728e+01 5.784486e-01 7.831373e-01 7.570933e-01 9.313998e-01 1.147887e+00 1.420077e+00 1.638920e+00 1.592194e+00 1.582304e+00 1.632378e+00 1.456161e+00 1.311063e+00 6.611580e-01 9.575812e-02 1.358029e-01 1.420603e-01 1.817026e-01 2.246661e-01 2.773823e-01 3.188443e-01 3.180428e-01 3.207951e-01 3.299437e-01 2.947528e-01 2.642802e-01 9.487908e-02
<GCONST> 9.576042e+01
<TRANSP> 5
 0.000000e+00 1.000000e+00 0.000000e+00 0.000000e+00 0.000000e+00
 0.000000e+00 9.543983e-01 4.560168e-02 0.000000e+00 0.000000e+00
 0.000000e+00 0.000000e+00 9.742363e-01 2.576365e-02 0.000000e+00
 0.000000e+00 0.000000e+00 0.000000e+00 9.960658e-01 3.934217e-03
 0.000000e+00 0.000000e+00 0.000000e+00 0.000000e+00 0.000000e+00
<ENDHMM>
~h "kn"
<BEGINHMM>
<NUMSTATES> 5
<STATE> 2
<MEAN> 39
 -1.000906e+00 1.343299e-01 -2.492303e+00 -3.036975e+00 1.398830e+00 -1.645392e-01 5.438297e-01 -4.485335e-01 4.097385e-01 -4.914850e-03 -7.408481e-01 -1.579371e+00 5.561331e+01 1.847774e-01 4.954342e-03 -1.742908e-01 1.442682e-01 1.464469e-01 -2.612076e-01 3.006450e-01 -3.771394e-01 5.396115e-01 2.310307e-01 3.057745e-01 2.019394e-01 1.878185e+00 -9.215602e-02 1.311506e-01 9.004472e-02 3.393264e-02 4.288195e-02 1.434867e-01 6.410321e-02 8.558840e-02 -2.960741e-02 1.700170e-02 2.875980e-02 2.540820e-02 -3.059074e-01
<VARIANCE> 39
 3.938698e+01 3.743193e+01 3.533127e+01 1.306312e+01 2.443017e+01 3.100959e+01 3.154123e+01 4.438556e+01 2.330572e+01 2.457852e+01 2.460033e+01 1.703177e+01 1.206946e+02 2.880970e+00 1.806660e+00 1.882616e+00 1.216597e+00 1.577708e+00 2.657129e+00 2.838990e+00 3.399000e+00 2.301689e+00 2.329579e+00 2.290728e+00 1.827484e+00 6.541540e+00 4.072081e-01 2.512605e-01 2.864309e-01 1.856422e-01 2.471265e-01 4.232271e-01 4.272966e-01 5.541267e-01 3.759240e-01 3.755362e-01 3.490796e-01 2.908232e-01 9.979969e-01
<GCONST> 1.141720e+02
<STATE> 3
<MEAN> 39
 4.136214e+00 -1.141928e+00 -4.715401e+00 -9.382214e-01 2.635481e+00 -1.457709e+00 1.396111e+00 -1.987402e+00 1.800837e+00 5.535831e-01 1.420951e+00 2.039073e-01 6.118764e+01 6.773222e-02 -3.508096e-02 1.527277e-02 6.189536e-02 4.368315e-02 8.833491e-03 1.135259e-02 2.767202e-02 -1.245828e-02 1.526737e-02 1.484587e-02 2.333177e-02 -5.124843e-02 1.196252e-02 -7.556840e-03 -1.908338e-03 8.005060e-04 1.108608e-03 -1.469517e-03 -1.342164e-02 1.788510e-03 -1.765565e-02 -1.250093e-02 -1.281108e-02 -8.826169e-03 -2.832567e-02
<VARIANCE> 39
 1.228976e+01 3.106808e+01 1.708147e+01 1.667532e+01 2.189582e+01 2.550075e+01 2.438243e+01 2.279604e+01 2.265932e+01 2.121822e+01 1.754977e+01 1.657703e+01 3.047510e+01 5.526726e-01 1.045895e+00 1.073850e+00 1.100125e+00 1.393408e+00 1.863677e+00 1.741547e+00 1.886112e+00 1.789652e+00 1.709308e+00 1.602321e+00 1.416502e+00 1.994086e+00 1.051138e-01 2.008459e-01 1.999565e-01 2.191138e-01 2.719245e-01 3.742878e-01 3.619933e-01 3.865010e-01 3.756671e-01 3.563062e-01 3.340588e-01 2.930741e-01 3.615986e-01
<GCONST> 9.898557e+01
<STATE> 4
<MEAN> 39
 5.294138e+00 3.155294e-01 -2.268801e+00 7.318031e-01 4.605841e+00 1.091628e+00 1.684665e+00 -4.479323e-01 4.635845e-01 1.973628e-01 8.418619e-01 -4.656369e-01 5.619540e+01 -6.133145e-02 8.092466e-02 1.035407e-01 2.102248e-02 1.750853e-02 1.052131e-01 2.502894e-03 6.886613e-02 -5.113581e-02 -1.092379e-02 -2.151552e-02 -3.135321e-02 -2.606184e-01 -6.361745e-03 -5.941431e-03 -3.894032e-03 -8.098450e-03 -9.911687e-03 -6.712699e-03 -2.582017e-03 -4.345993e-03 1.368093e-03 -4.571150e-04 2.547773e-04 -2.059911e-03 9.101108e-03
<VARIANCE> 39
 1.531829e+01 2.176988e+01 1.708451e+01 1.394664e+01 2.002823e+01 2.400607e+01 2.278587e+01 2.195519e+01 2.135092e+01 1.954942e+01 1.718140e+01 1.638926e+01 4.460250e+01 2.750343e-01 5.700975e-01 5.746346e-01 8.129381e-01 1.040635e+00 1.282097e+00 1.403767e+00 1.571048e+00 1.510138e+00 1.538958e+00 1.415004e+00 1.283665e+00 1.013104e+00 4.204653e-02 1.024446e-01 1.078737e-01 1.607678e-01 2.044816e-01 2.515644e-01 2.872339e-01 3.176065e-01 3.064915e-01 3.155436e-01 2.875466e-01 2.613151e-01 1.583552e-01
<GCONST> 8.911047e+01
<TRANSP> 5
 0.000000e+00 1.000000e+00 0.000000e+00 0.000000e+00 0.000000e+00
 0.000000e+00 8.285868e-01 1.714133e-01 0.000000e+00 0.000000e+00
 0.000000e+00 0.000000e+00 9.729696e-01 2.703039e-02 0.000000e+00
 0.000000e+00 0.000000e+00 0.000000e+00 9.817194e-01 1.828065e-02
 0.000000e+00 0.000000e+00 0.000000e+00 0.000000e+00 0.000000e+00
<ENDHMM>
~h "kt"
<BEGINHMM>
<NUMSTATES> 5
<STATE> 2
<MEAN> 39
 -1.276875e+01 -8.573793e-01 -7.248271e+00 -2.854214e+00 -1.477247e-01 9.173650e-02 5.284384e+00 2.405313e+00 2.413214e+00 7.135782e-01 1.198444e+00 -9.199285e-01 5.661943e+01 -5.627859e-02 6.930883e-03 -2.159505e-02 1.826791e-02 -8.808767e-03 -3.661778e-02 -1.211061e-02 -6.985656e-03 1.272029e-03 -7.180336e-03 -4.326036e-03 -3.190200e-03 8.521163e-02 1.005654e-02 -3.277573e-04 4.067532e-03 1.492655e-03 4.967365e-03 1.811096e-03 1.724869e-03 -1.517807e-03 -5.438924e-07 -5.179550e-06 -9.535486e-05 -6.342167e-05 -1.148906e-02
<VARIANCE> 39
 1.943497e+01 8.462377e+00 1.110441e+01 1.290063e+01 1.397985e+01 1.911738e+01 1.857643e+01 1.686118e+01 1.819941e+01 1.571795e+01 1.539851e+01 1.400740e+01 2.703696e+01 1.447271e+00 5.359806e-01 7.281831e-01 1.041725e+00 1.298485e+00 1.647833e+00 1.673658e+00 1.617142e+00 1.736770e+00 1.634770e+00 1.532188e+00 1.337268e+00 1.784915e+00 2.761443e-01 1.020317e-01 1.414958e-01 2.051920e-01 2.606418e-01 3.312838e-01 3.368155e-01 3.258291e-01 3.504199e-01 3.339359e-01 3.093663e-01 2.685623e-01 3.194455e-01
<GCONST> 9.343106e+01
<STATE> 3
<MEAN> 39
 -1.299308e+01 1.308278e+00 -4.899981e+00 -6.070413e-01 3.251982e-01 -1.921047e+00 2.763996e+00 1.490017e+00 1.593875e+00 -7.982792e-01 -9.892944e-02 -1.320155e+00 5.581075e+01 3.093912e-02 7.978981e-03 7.829087e-03 4.948095e-04 2.186412e-02 1.253493e-02 1.986876e-02 -6.008636e-03 3.150484e-03 -5.875606e-03 3.681074e-04 1.354855e-04 -4.616357e-02 3.968233e-03 4.572400e-04 4.421629e-04 -2.519045e-03 1.269579e-03 7.555977e-03 5.359845e-03 5.841522e-03 1.901132e-03 4.533038e-03 2.025843e-03 6.830203e-04 -9.794518e-03
<VARIANCE> 39
 9.285018e+00 7.015079e+00 1.027991e+01 1.318650e+01 1.494938e+01 1.684018e+01 1.992217e+01 1.792936e+01 1.920159e+01 1.821651e+01 1.695003e+01 1.441936e+01 2.144226e+01 8.508356e-01 4.720722e-01 7.284905e-01 9.832371e-01 1.332220e+00 1.475065e+00 1.678964e+00 1.629947e+00 1.763617e+00 1.711483e+00 1.569752e+00 1.385169e+00 1.511531e+00 1.705973e-01 9.385581e-02 1.482350e-01 1.979212e-01 2.698525e-01 3.022861e-01 3.441532e-01 3.326864e-01 3.570919e-01 3.524089e-01 3.195759e-01 2.844041e-01 2.935740e-01
<GCONST> 9.128907e+01
<STATE> 4
<MEAN> 39
 -1.044608e+01 2.495059e+00 -3.821579e+00 -7.347063e-01 4.931870e-01 2.653556e-01 3.549620e+00 2.766851e+00 2.087472e+00 -2.099262e-01 2.447465e-01 -1.791060e+00 5.036122e+01 1.910729e-02 -3.574991e-03 6.730854e-03 -6.771799e-03 2.081271e-03 1.011362e-02 3.431056e-03 3.910517e-03 -1.531134e-03 3.156571e-03 2.155501e-03 -4.009064e-04 -2.367003e-02 -1.254734e-03 -6.863822e-04 -2.960677e-04 -1.150869e-04 -1.269206e-03 -1.691841e-03 -2.251700e-03 -8.389496e-04 -3.216923e-04 5.716080e-06 8.281085e-05 5.077127e-04 1.972267e-03
<VARIANCE> 39
 1.178788e+01 9.616257e+00 1.360231e+01 1.281624e+01 1.586158e+01 1.769722e+01 2.019762e+01 1.747525e+01 1.763601e+01 1.710546e+01 1.504880e+01 1.316586e+01 1.776306e+01 7.749802e-01 4.936261e-01 6.835529e-01 8.665901e-01 1.135385e+00 1.321186e+00 1.472411e+00 1.513989e+00 1.553790e+00 1.537645e+00 1.420585e+00 1.256380e+00 8.416882e-01 1.491182e-01 9.559530e-02 1.361342e-01 1.739334e-01 2.276770e-01 2.653793e-01 2.990795e-01 3.073462e-01 3.171441e-01 3.144287e-01 2.898614e-01 2.562156e-01 1.551761e-01
<GCONST> 8.799247e+01
<TRANSP> 5
 0.000000e+00 1.000000e+00 0.000000e+00 0.000000e+00 0.000000e+00
 0.000000e+00 9.836998e-01 1.630020e-02 0.000000e+00 0.000000e+00
 0.000000e+00 0.000000e+00 9.843320e-01 1.566804e-02 0.000000e+00
 0.000000e+00 0.000000e+00 0.000000e+00 9.951140e-01 4.886077e-03
 0.000000e+00 0.000000e+00 0.000000e+00 0.000000e+00 0.000000e+00
<ENDHMM>
~h "pr"
<BEGINHMM>
<NUMSTATES> 5
<STATE> 2
<MEAN> 39
 -1.387411e+01 -8.174138e+00 9.578819e-01 -8.055524e+00 3.260702e+00 4.286434e+00 9.211558e-01 -1.723786e+00 1.946172e+00 -1.130968e+00 2.644161e+00 2.072543e-01 5.738839e+01 -3.278441e-01 -1.159450e-01 9.171637e-02 -1.182017e-01 8.632657e-02 1.330588e-01 1.105566e-03 -2.305048e-01 -3.924221e-04 -8.467066e-02 -1.546506e-02 2.730810e-01 3.179762e-01 7.602480e-02 1.340315e-02 -2.243562e-02 2.263857e-02 -1.763206e-02 -5.811707e-04 -1.620461e-03 7.766092e-03 -3.034554e-03 1.068217e-02 -3.287910e-03 -6.702134e-03 -6.374281e-02
<VARIANCE> 39
 3.732219e+01 5.011580e+01 8.631313e+01 4.213965e+01 6.252985e+01 7.907812e+01 5.902045e+01 5.607441e+01 3.999546e+01 3.502341e+01 4.895214e+01 3.704600e+01 3.223183e+01 2.045193e+00 1.299874e+00 2.020526e+00 2.187505e+00 2.499448e+00 2.859087e+00 2.707392e+00 3.121369e+00 2.776305e+00 2.125744e+00 2.724762e+00 2.487010e+00 1.427874e+00 2.746492e-01 1.939800e-01 2.848472e-01 3.484778e-01 3.869784e-01 4.437187e-01 4.677364e-01 4.802596e-01 4.732385e-01 3.736913e-01 4.461386e-01 3.917662e-01 1.800911e-01
<GCONST> 1.191626e+02
<STATE> 3
<MEAN> 39
 -2.119762e+01 2.578414e+00 1.363715e+01 -1.383282e+01 1.791438e+00 1.343010e+01 -3.685258e+00 -4.053404e+00 1.145485e+01 -6.065495e+00 -4.969835e+00 7.425697e+00 5.567355e+01 3.550640e-02 -5.213338e-02 8.909495e-03 -2.629404e-02 3.227123e-02 -3.165529e-02 -1.368302e-02 4.462391e-02 -6.714553e-03 4.284664e-02 -4.539716e-02 1.024380e-02 -3.360660e-02 1.776643e-03 1.795460e-03 -8.530961e-05 -1.202869e-03 7.601614e-03 -1.075816e-02 -3.054678e-03 1.811768e-02 -5.576939e-03 5.901447e-03 1.601086e-03 -7.344975e-03 -2.969840e-03
<VARIANCE> 39
 1.040952e+01 3.103030e+01 5.357766e+01 2.497474e+01 2.520912e+01 3.331836e+01 3.258765e+01 3.136323e+01 6.603909e+01 2.592348e+01 4.628851e+01 2.844970e+01 1.151246e+01 7.040762e-01 5.731649e-01 6.420481e-01 9.344307e-01 1.319561e+00 1.457173e+00 1.324931e+00 1.681572e+00 1.746077e+00 1.759743e+00 2.060366e+00 1.229268e+00 3.486238e-01 1.644081e-01 1.120392e-01 1.232290e-01 1.829009e-01 2.722252e-01 2.920994e-01 2.623581e-01 3.324580e-01 3.622280e-01 3.325864e-01 3.829408e-01 2.389951e-01 7.509553e-02
<GCONST> 9.656881e+01
<STATE> 4
<MEAN> 39
 -1.423767e+01 -6.062108e+00 3.266359e+00 -7.624555e+00 3.481591e+00 1.815587e+00 3.001431e+00 4.404427e+00 2.513445e+00 -1.526587e+00 -1.564859e+00 2.914871e+00 5.500747e+01 3.549654e-02 2.255100e-02 -1.944641e-02 2.062192e-02 -1.536452e-02 -8.600872e-03 1.147049e-02 8.670455e-03 -2.217228e-03 3.450216e-03 7.674096e-03 -1.654849e-02 -3.316027e-02 -4.196507e-04 6.359385e-04 2.365836e-04 3.803915e-04 -1.165960e-03 1.243101e-03 -5.536104e-05 -1.028546e-03 2.664860e-04 -7.282214e-04 6.966218e-04 -9.700484e-04 9.693581e-05
<VARIANCE> 39
 3.512672e+01 5.432809e+01 6.988106e+01 5.953436e+01 7.021954e+01 1.003127e+02 6.972520e+01 6.099235e+01 6.172954e+01 4.366111e+01 7.719515e+01 6.664870e+01 4.567852e+01 3.530585e-01 4.462309e-01 6.631520e-01 9.471489e-01 1.164548e+00 1.444822e+00 1.533977e+00 1.679333e+00 1.775996e+00 1.729610e+00 1.622005e+00 1.416423e+00 2.102772e-01 6.142012e-02 7.731330e-02 1.202890e-01 1.726777e-01 2.224105e-01 2.739230e-01 2.987029e-01 3.173423e-01 3.392961e-01 3.334244e-01 3.125593e-01 2.706061e-01 3.302959e-02
<GCONST> 1.021567e+02
<TRANSP> 5
 0.000000e+00 1.000000e+00 0.000000e+00 0.000000e+00 0.000000e+00
 0.000000e+00 9.382464e-01 6.175359e-02 0.000000e+00 0.000000e+00
 0.000000e+00 0.000000e+00 9.831081e-01 1.689191e-02 0.000000e+00
 0.000000e+00 0.000000e+00 0.000000e+00 9.966058e-01 3.394193e-03
 0.000000e+00 0.000000e+00 0.000000e+00 0.000000e+00 0.000000e+00
<ENDHMM>
~h "pw"
<BEGINHMM>
<NUMSTATES> 5
<STATE> 2
<MEAN> 39
 -1.316053e+01 -1.153111e+00 -1.184838e+00 -1.483787e+00 1.621317e+00 9.863931e-02 3.241827e+00 1.117998e+00 9.511479e-01 7.887986e-01 3.546698e-01 -9.033784e-01 5.290892e+01 -1.038676e-01 -1.076535e-01 -2.611428e-04 -2.940423e-03 -4.637266e-02 -8.841519e-02 -8.700624e-02 -8.341689e-02 -3.486802e-02 -1.652067e-02 1.799622e-03 6.324675e-03 2.619022e-01 4.949428e-03 -2.710126e-02 -1.128293e-02 1.142054e-03 -1.228392e-03 -1.569688e-02 -1.627351e-02 -1.727987e-02 -5.687808e-03 -5.531230e-03 -6.097142e-04 -9.344818e-05 4.123505e-02
<VARIANCE> 39
 1.726523e+01 2.164315e+01 1.366459e+01 1.401623e+01 1.501336e+01 1.715531e+01 1.999483e+01 2.066991e+01 1.735567e+01 1.551425e+01 1.484412e+01 1.368560e+01 2.769674e+01 7.739789e-01 9.933541e-01 7.609714e-01 9.162372e-01 1.193368e+00 1.472543e+00 1.667971e+00 1.716516e+00 1.581745e+00 1.533052e+00 1.412851e+00 1.278735e+00 1.919741e+00 1.178253e-01 1.450409e-01 1.429056e-01 1.746150e-01 2.265099e-01 2.691573e-01 3.096263e-01 3.196605e-01 3.142460e-01 3.056535e-01 2.822649e-01 2.562760e-01 1.967367e-01
<GCONST> 9.231804e+01
<STATE> 3
<MEAN> 39
 -1.166203e+01 -6.630083e+00 -3.637059e+00 -2.913290e+00 -4.915285e-02 -4.553317e+00 -9.312902e-01 -3.068750e+00 -1.849511e+00 -1.019798e+00 -2.436771e-01 -3.992885e-01 6.085197e+01 3.957047e-02 -4.447762e-03 -9.070913e-03 9.563452e-03 1.334500e-02 -7.683452e-03 -3.362305e-03 -1.023405e-02 -1.255791e-02 -4.104738e-03 -2.801683e-03 8.409294e-03 -4.783622e-02 3.533098e-03 1.825695e-02 5.844531e-03 9.500934e-04 6.049842e-03 1.492449e-02 1.598027e-02 1.596879e-02 7.463601e-03 6.169427e-03 1.680197e-03 -3.435182e-04 -3.347595e-02
<VARIANCE> 39
 2.327720e+01 2.947909e+01 1.379207e+01 1.376531e+01 1.779712e+01 2.583237e+01 2.472707e+01 2.937876e+01 2.106166e+01 1.713228e+01 1.558055e+01 1.372128e+01 8.142991e+01 5.314743e-01 9.772573e-01 7.200099e-01 8.887632e-01 1.193305e+00 1.508457e+00 1.610406e+00 1.700256e+00 1.576015e+00 1.513171e+00 1.403382e+00 1.275370e+00 2.852541e+00 9.144858e-02 1.607717e-01 1.349718e-01 1.720085e-01 2.366728e-01 2.946838e-01 3.247067e-01 3.341006e-01 3.221244e-01 3.105264e-01 2.885510e-01 2.619746e-01 4.293768e-01
<GCONST> 9.622273e+01
<STATE> 4
<MEAN> 39
 -1.255215e+01 -3.443221e+00 -2.344900e+00 -2.244080e+00 8.754119e-01 -9.741569e-01 2.548452e+00 6.202431e-01 4.768057e-01 6.702993e-01 4.528911e-01 -7.691286e-01 5.484341e+01 7.240504e-03 4.888210e-03 2.252098e-03 -6.584214e-04 2.942632e-03 7.933928e-03 7.369707e-03 8.322792e-03 5.384616e-03 2.037035e-03 6.082328e-04 -1.510424e-03 -1.541277e-02 3.994564e-04 -3.837772e-04 -2.667080e-04 -3.022640e-04 -6.106452e-04 -5.682732e-04 -9.004810e-04 -7.048788e-04 -5.118212e-04 -4.458668e-04 -3.459296e-04 -3.399940e-05 4.141310e-04
<VARIANCE> 39
 1.748797e+01 2.441724e+01 1.323717e+01 1.325768e+01 1.481453e+01 2.096560e+01 2.167863e+01 2.236336e+01 1.859595e+01 1.606608e+01 1.452340e+01 1.322175e+01 3.539243e+01 5.393728e-01 7.950980e-01 6.720627e-01 8.601669e-01 1.095356e+00 1.332121e+00 1.476550e+00 1.561605e+00 1.532694e+00 1.463186e+00 1.378937e+00 1.238118e+00 8.910472e-01 8.859278e-02 1.330457e-01 1.273159e-01 1.683793e-01 2.176700e-01 2.634731e-01 2.945569e-01 3.108572e-01 3.122849e-01 2.994276e-01 2.825904e-01 2.535455e-01 1.276871e-01
<GCONST> 8.979692e+01
<TRANSP> 5
 0.000000e+00 1.000000e+00 0.000000e+00 0.000000e+00 0.000000e+00
 0.000000e+00 9.764386e-01 2.356142e-02 0.000000e+00 0.000000e+00
 0.000000e+00 0.000000e+00 9.885312e-01 1.146878e-02 0.000000e+00
 0.000000e+00 0.000000e+00 0.000000e+00 9.979098e-01 2.090216e-03
 0.000000e+00 0.000000e+00 0.000000e+00 0.000000e+00 0.000000e+00
<ENDHMM>
~h "si"
<BEGINHMM>
<NUMSTATES> 5
<STATE> 2
<MEAN> 39
 -9.460246e+00 1.951262e+00 2.058359e+00 -2.588856e+00 2.493649e+00 2.461304e+00 6.762028e-01 2.927778e+00 2.427464e-01 -5.356938e-02 1.480359e-01 -1.493511e+00 5.042683e+01 -4.271753e-03 8.148666e-03 -1.754034e-02 -2.099870e-02 -1.592898e-02 2.801876e-02 3.418111e-02 4.559021e-02 1.408898e-02 1.788414e-02 5.943353e-03 -1.166810e-02 -7.504096e-02 -9.856944e-05 -2.338106e-03 -4.605551e-03 -3.179730e-03 -2.192469e-03 2.269642e-03 6.739717e-03 5.200869e-03 4.298047e-03 3.687012e-03 5.431095e-04 -1.425691e-03 6.681292e-04
<VARIANCE> 39
 3.961163e+01 2.009406e+01 2.091876e+01 2.252299e+01 2.615677e+01 2.190763e+01 3.478910e+01 2.436457e+01 2.136547e+01 1.906934e+01 1.788613e+01 1.789110e+01 2.174222e+01 1.603637e-01 2.882471e-01 4.478142e-01 6.507189e-01 8.596215e-01 1.058900e+00 1.213545e+00 1.282264e+00 1.330614e+00 1.329888e+00 1.249740e+00 1.122757e+00 9.183431e-02 2.532019e-02 5.022436e-02 8.252674e-02 1.232719e-01 1.633597e-01 2.026797e-01 2.341309e-01 2.479666e-01 2.594412e-01 2.601068e-01 2.443471e-01 2.205410e-01 1.116366e-02
<GCONST> 7.940378e+01
<STATE> 3
<MEAN> 39
 -4.587196e+00 -1.340814e+00 -2.715524e+00 -3.261994e+00 1.103300e-02 3.381869e+00 4.449790e+00 3.224148e+00 1.152066e+00 1.447033e+00 2.298148e-01 -2.133924e+00 4.794403e+01 -1.616390e-03 -1.136918e-03 -1.140506e-02 -9.922536e-03 -8.052447e-03 1.139864e-03 1.493251e-03 8.100053e-03 2.830058e-03 6.355961e-03 2.600404e-03 -7.800971e-04 -1.068216e-02 -1.819015e-03 5.920760e-04 1.030908e-03 1.072192e-04 -6.402140e-04 -4.400653e-03 -4.541147e-03 -2.541956e-03 -1.031909e-03 -1.412541e-03 5.885151e-04 1.797065e-03 2.133468e-03
<VARIANCE> 39
 5.998980e+00 1.436259e+01 1.382352e+01 1.172368e+01 1.692446e+01 1.593980e+01 1.765190e+01 1.981836e+01 1.761520e+01 1.682457e+01 1.544173e+01 1.357846e+01 1.170864e+01 1.599473e-01 2.955810e-01 4.784032e-01 6.851398e-01 9.271024e-01 1.132984e+00 1.283410e+00 1.398278e+00 1.405241e+00 1.413723e+00 1.326429e+00 1.173777e+00 7.386119e-02 2.848688e-02 5.655963e-02 9.479500e-02 1.378291e-01 1.871451e-01 2.298223e-01 2.601141e-01 2.847821e-01 2.884930e-01 2.902607e-01 2.714895e-01 2.402552e-01 1.170933e-02
<GCONST> 7.498941e+01
<STATE> 4
<MEAN> 39
 -8.035115e+00 3.028019e-01 -6.319844e-01 -2.344493e+00 6.670267e-01 5.927535e-01 2.522815e+00 3.264642e+00 1.465039e+00 4.409220e-01 3.114447e-01 -1.279561e+00 4.748753e+01 -8.619672e-03 -1.507307e-03 -8.518116e-04 -1.439876e-03 -2.003072e-03 -5.511539e-03 -3.288256e-03 -5.374879e-03 -2.921899e-04 1.752119e-04 2.721246e-03 2.725493e-03 1.400777e-02 6.242963e-04 -1.251366e-04 2.620391e-04 4.045810e-04 4.883399e-04 1.678810e-03 1.033496e-03 -2.460328e-04 -2.730499e-04 5.805923e-06 -4.265472e-04 -6.410651e-04 2.839928e-04
<VARIANCE> 39
 1.615242e+01 1.494194e+01 1.198573e+01 1.260008e+01 1.711218e+01 1.810842e+01 1.838707e+01 2.225083e+01 1.838628e+01 1.651500e+01 1.526572e+01 1.348618e+01 3.346270e+01 3.411318e-01 4.764010e-01 5.577401e-01 7.776983e-01 9.988792e-01 1.204547e+00 1.345175e+00 1.457046e+00 1.446550e+00 1.427328e+00 1.332753e+00 1.168617e+00 3.850389e-01 5.512335e-02 8.419549e-02 1.066050e-01 1.518325e-01 1.969577e-01 2.385037e-01 2.694162e-01 2.921501e-01 2.921413e-01 2.901166e-01 2.706495e-01 2.374590e-01 5.622996e-02
<GCONST> 8.371643e+01
<TRANSP> 5
 0.000000e+00 1.000000e+00 0.000000e+00 0.000000e+00 0.000000e+00
 0.000000e+00 9.597626e-01 4.023739e-02 0.000000e+00 0.000000e+00
 0.000000e+00 0.000000e+00 9.888730e-01 1.112701e-02 0.000000e+00
 0.000000e+00 0.000000e+00 0.000000e+00 9.938187e-01 6.181305e-03
 0.000000e+00 0.000000e+00 0.000000e+00 0.000000e+00 0.000000e+00
<ENDHMM>
~h "st"
<BEGINHMM>
<NUMSTATES> 5
<STATE> 2
<MEAN> 39
 -8.919030e+00 -3.374624e+00 -2.219550e+00 -6.728171e+00 -2.151749e+00 -2.629327e+00 1.750737e+00 1.214908e+00 1.214980e+00 2.283641e-01 7.688593e-01 -1.895460e+00 5.809463e+01 -2.905989e-01 -6.242423e-01 1.410286e-01 -6.533841e-01 -3.696103e-01 -7.768875e-01 -4.250612e-01 -1.453995e-01 1.243377e-02 -8.887170e-02 5.503000e-02 2.300821e-02 1.481032e+00 6.315754e-02 8.656953e-02 4.447149e-02 7.424039e-02 6.011631e-02 1.106593e-01 7.176635e-02 4.990044e-02 4.040962e-02 3.054196e-02 1.888994e-02 3.311910e-02 -2.001641e-01
<VARIANCE> 39
 2.457570e+01 3.050746e+01 1.876411e+01 3.186548e+01 2.578291e+01 3.639757e+01 2.706744e+01 2.329465e+01 2.212435e+01 1.952362e+01 1.733121e+01 1.495420e+01 8.384612e+01 1.290807e+00 1.746173e+00 1.298722e+00 2.197982e+00 2.194268e+00 2.980331e+00 2.312811e+00 2.296366e+00 2.170293e+00 1.989675e+00 1.821360e+00 1.579659e+00 4.628953e+00 1.895778e-01 2.900366e-01 2.143600e-01 3.926463e-01 3.717143e-01 5.319823e-01 4.052767e-01 3.921048e-01 3.680696e-01 3.446725e-01 3.065744e-01 2.771090e-01 8.419568e-01
<GCONST> 1.099591e+02
<STATE> 3
<MEAN> 39
 -8.624681e+00 -3.908147e+00 -2.210193e+00 -7.026987e+00 -2.124316e+00 -2.146228e+00 2.202494e+00 2.590971e-01 1.045591e-01 -5.807413e-01 7.004157e-01 -1.734942e+00 5.749030e+01 1.027865e-02 2.621882e-02 8.962457e-03 3.378953e-02 1.689361e-02 2.781510e-02 1.801901e-02 3.351586e-03 -4.848135e-03 1.434426e-03 6.795232e-05 5.558258e-03 -7.251407e-02 8.123645e-04 3.734016e-03 -3.655292e-03 6.048423e-03 2.822328e-03 5.540941e-03 3.217627e-03 4.467882e-04 -1.135701e-03 5.573435e-04 -1.542335e-03 -2.571175e-03 -5.818418e-03
<VARIANCE> 39
 1.658273e+01 2.157826e+01 1.564193e+01 2.463117e+01 2.059639e+01 2.742990e+01 2.072268e+01 1.972443e+01 1.982603e+01 1.903624e+01 1.621258e+01 1.465764e+01 4.614668e+01 5.899801e-01 7.657292e-01 6.962129e-01 1.281679e+00 1.365478e+00 1.615548e+00 1.549915e+00 1.554127e+00 1.591517e+00 1.576994e+00 1.465731e+00 1.334228e+00 1.745093e+00 9.199433e-02 1.277452e-01 1.314853e-01 2.351895e-01 2.634956e-01 3.113583e-01 3.128980e-01 3.174657e-01 3.258057e-01 3.229703e-01 3.013981e-01 2.753297e-01 2.535934e-01
<GCONST> 9.516392e+01
<STATE> 4
<MEAN> 39
 -9.288494e+00 -7.810791e-01 -1.120717e+00 -4.059131e+00 -5.183569e-01 -6.965425e-01 2.585062e+00 1.389253e+00 1.437841e+00 3.199146e-01 5.971897e-01 -1.670097e+00 5.288562e+01 2.887357e-04 1.326012e-02 -6.290468e-03 1.154076e-02 1.125352e-02 2.214536e-02 1.103001e-02 1.658545e-03 -6.195612e-05 9.383146e-04 -2.136191e-03 -1.590138e-03 -3.026135e-02 -1.206306e-04 -1.595769e-03 -6.002077e-04 -2.621838e-03 -2.216283e-03 -2.593824e-03 -2.027591e-03 -8.605054e-04 -4.203505e-04 -5.152265e-04 -1.543229e-04 7.110709e-05 2.143507e-03
<VARIANCE> 39
 1.816893e+01 1.416060e+01 1.378747e+01 1.855046e+01 1.783321e+01 2.180030e+01 2.073237e+01 1.970148e+01 1.861114e+01 1.666629e+01 1.492968e+01 1.351557e+01 3.056851e+01 4.040089e-01 5.328833e-01 6.265677e-01 1.024913e+00 1.169073e+00 1.419637e+00 1.431832e+00 1.509062e+00 1.512405e+00 1.470064e+00 1.381458e+00 1.230065e+00 8.209123e-01 6.518653e-02 9.319204e-02 1.195088e-01 1.883974e-01 2.258693e-01 2.741780e-01 2.850345e-01 3.029043e-01 3.056583e-01 2.991207e-01 2.813300e-01 2.504567e-01 1.081265e-01
<GCONST> 8.824384e+01
<TRANSP> 5
 0.000000e+00 1.000000e+00 0.000000e+00 0.000000e+00 0.000000e+00
 0.000000e+00 8.390553e-01 1.609447e-01 0.000000e+00 0.000000e+00
 0.000000e+00 0.000000e+00 9.875503e-01 1.244972e-02 0.000000e+00
 0.000000e+00 0.000000e+00 0.000000e+00 9.934880e-01 6.512023e-03
 0.000000e+00 0.000000e+00 0.000000e+00 0.000000e+00 0.000000e+00
<ENDHMM>
~h "spe"
<BEGINHMM>
<NUMSTATES> 5
<STATE> 2
<MEAN> 39
 -2.758959e+00 -1.439555e+00 -1.962391e-01 -9.780575e+00 -1.759507e+00 1.066770e+00 -4.330546e-01 -7.323382e-01 -3.535939e+00 3.306331e-01 2.239669e-01 -3.909298e+00 5.531640e+01 1.430298e-01 -5.707091e-01 3.699039e-01 -5.515255e-01 -4.380100e-01 -3.992364e-01 -6.551790e-01 -9.210133e-02 -2.115209e-02 1.846537e-01 9.271082e-02 -1.487395e-01 8.237112e-01 6.806783e-03 -6.783526e-02 1.459528e-02 4.495350e-02 -7.664015e-02 -6.096299e-02 -3.213873e-03 2.609098e-02 7.281678e-02 3.212972e-02 -3.441323e-02 1.731564e-02 2.009391e-02
<VARIANCE> 39
 3.848573e+01 3.978446e+01 4.599442e+01 4.534152e+01 3.786290e+01 4.376443e+01 3.807930e+01 4.610595e+01 3.465408e+01 3.091229e+01 3.055697e+01 2.746168e+01 1.316014e+01 9.584808e-01 1.490954e+00 1.694575e+00 2.132654e+00 2.903656e+00 2.356479e+00 2.275615e+00 2.763527e+00 2.577633e+00 2.487571e+00 2.269307e+00 2.158940e+00 6.408941e-01 1.125200e-01 1.740677e-01 2.119270e-01 2.707753e-01 3.586809e-01 3.567021e-01 3.508512e-01 4.032242e-01 3.817028e-01 3.694529e-01 3.375660e-01 3.301481e-01 7.118509e-02
<GCONST> 1.086311e+02
<STATE> 3
<MEAN> 39
 -2.525006e+00 -5.160949e+00 1.859307e+00 -1.297616e+01 -3.751357e+00 -4.619502e+00 -5.183925e+00 -1.820787e+00 -2.372968e+00 -2.395911e+00 -4.470287e+00 -3.289465e+00 6.167228e+01 4.207101e-04 1.839068e-02 -5.307072e-02 5.514181e-02 3.580400e-02 -5.426679e-03 1.665322e-02 -1.086514e-02 2.654661e-03 -3.815416e-02 -6.925634e-02 -3.558080e-02 -1.020769e-02 -4.131059e-03 2.052718e-02 -9.492788e-03 1.589171e-02 1.536977e-02 1.412920e-02 1.638293e-02 -2.005661e-03 -5.577565e-03 -1.800199e-03 5.632985e-03 3.402819e-03 -2.018471e-02
<VARIANCE> 39
 2.202561e+01 3.761721e+01 7.327180e+01 6.570161e+01 6.560985e+01 6.299009e+01 4.234890e+01 5.751020e+01 4.018809e+01 3.748223e+01 6.078525e+01 3.925828e+01 2.326216e+01 5.582646e-01 9.877414e-01 1.288059e+00 1.552689e+00 1.864250e+00 1.942330e+00 2.040077e+00 2.255514e+00 2.104625e+00 2.046273e+00 2.045149e+00 1.764495e+00 4.132726e-01 7.698647e-02 1.341527e-01 1.900907e-01 2.473610e-01 3.118208e-01 3.470015e-01 3.721552e-01 4.101408e-01 3.970301e-01 3.923211e-01 3.833977e-01 3.326261e-01 4.683306e-02
<GCONST> 1.072999e+02
<STATE> 4
<MEAN> 39
 -1.818976e+00 -3.376907e+00 -1.164021e+00 -5.796072e+00 -3.140899e+00 -6.732037e-01 -7.547140e-01 3.904437e-01 -1.541922e+00 -9.332627e-02 -8.206221e-01 -4.159813e+00 5.364202e+01 -4.138071e-03 8.522267e-03 -5.437984e-03 1.306102e-02 8.443729e-03 6.946496e-03 1.659385e-02 7.806785e-03 6.638877e-03 8.568881e-03 1.028712e-02 9.199436e-03 -2.319820e-02 -3.237510e-05 -1.009217e-03 3.757358e-04 -1.460143e-03 -4.005156e-04 -5.511760e-04 -7.514053e-04 2.149262e-04 -2.063340e-04 1.246430e-04 -1.136246e-04 -2.822157e-04 5.473616e-04
<VARIANCE> 39
 1.661926e+01 3.179595e+01 3.447937e+01 2.804573e+01 4.455528e+01 4.061268e+01 4.017003e+01 3.370755e+01 2.983344e+01 2.911084e+01 2.901335e+01 2.539149e+01 1.826249e+01 3.991324e-01 7.160636e-01 8.938885e-01 1.033801e+00 1.438008e+00 1.606414e+00 1.696093e+00 1.753042e+00 1.767726e+00 1.736594e+00 1.695206e+00 1.498989e+00 2.361425e-01 5.486105e-02 1.016545e-01 1.351222e-01 1.749277e-01 2.420776e-01 2.860623e-01 3.101904e-01 3.297845e-01 3.428638e-01 3.384320e-01 3.229843e-01 2.837319e-01 2.579372e-02
<GCONST> 9.492780e+01
<TRANSP> 5
 0.000000e+00 1.000000e+00 0.000000e+00 0.000000e+00 0.000000e+00
 0.000000e+00 8.680751e-01 1.319248e-01 0.000000e+00 0.000000e+00
 0.000000e+00 0.000000e+00 9.833314e-01 1.666865e-02 0.000000e+00
 0.000000e+00 0.000000e+00 0.000000e+00 9.968770e-01 3.123002e-03
 0.000000e+00 0.000000e+00 0.000000e+00 0.000000e+00 0.000000e+00
<ENDHMM>
