~o
<STREAMINFO> 1 39
<VECSIZE> 39<NULLD><MFCC_D_A_0><DIAGC>
~h "ap"
<BEGINHMM>
<NUMSTATES> 5
<STATE> 2
<NUMMIXES> 2
<MIXTURE> 1 8.020887e-01
<MEAN> 39
 -1.361188e+01 -9.599884e+00 -5.601232e+00 -1.785850e+00 1.346591e+00 -4.175692e+00 1.831079e+00 -1.746356e+00 -9.810040e-01 -7.244500e-01 5.425070e-01 -3.529670e-01 6.191241e+01 3.367901e-01 2.210265e-01 2.266192e-01 1.278862e-01 2.229487e-01 1.993714e-01 1.574403e-01 1.341570e-01 3.326785e-02 2.118618e-02 3.063909e-02 -7.956843e-03 -7.982583e-01 -1.829953e-02 1.474258e-02 -3.908439e-03 -5.202630e-03 -1.464703e-02 -8.699978e-03 -2.335895e-02 2.872092e-03 -9.488434e-03 -4.532403e-03 -6.653974e-03 -3.320840e-03 2.166430e-02
<VARIANCE> 39
 2.056882e+01 3.094883e+01 3.030865e+01 2.304612e+01 3.047003e+01 3.322663e+01 2.798806e+01 2.614773e+01 2.114279e+01 1.882854e+01 1.685173e+01 1.540024e+01 8.322537e+01 1.273715e-01 2.595187e-01 4.251451e-01 6.657181e-01 9.046099e-01 1.046753e+00 1.216790e+00 1.329805e+00 1.359339e+00 1.338248e+00 1.268648e+00 1.186200e+00 8.619775e-02 2.670398e-02 5.224524e-02 8.725631e-02 1.363053e-01 1.835406e-01 2.190569e-01 2.517098e-01 2.745622e-01 2.852865e-01 2.803916e-01 2.642812e-01 2.468066e-01 2.966636e-02
<GCONST> 8.281003e+01
<MIXTURE> 2 1.979330e-01
<MEAN> 39
 -1.468189e+01 -7.518278e+00 -5.576971e+00 -2.493855e+00 -3.899298e-01 -4.208685e+00 4.388909e-01 -5.076757e-01 -1.138870e+00 -5.943675e-01 -1.300651e-01 -1.082181e+00 6.391743e+01 -1.550218e+00 -1.360668e+00 -1.175622e+00 -5.061677e-01 -1.031036e+00 -1.187340e+00 -7.742913e-01 -6.994782e-01 -2.783107e-01 -1.719235e-01 -1.504886e-01 2.688902e-02 4.037505e+00 9.744770e-02 -1.014111e-01 -2.201281e-02 -6.217789e-05 5.946179e-02 2.729737e-02 1.022983e-01 -8.319914e-04 3.282039e-02 8.151477e-03 3.114747e-02 1.206661e-02 -4.669825e-02
<VARIANCE> 39
 4.358897e+01 4.349685e+01 3.687899e+01 2.698480e+01 3.978562e+01 4.893647e+01 3.836273e+01 3.340357e+01 2.652834e+01 2.099422e+01 1.893837e+01 1.664338e+01 2.098510e+02 3.414111e+00 3.931780e+00 2.709489e+00 2.388256e+00 3.037587e+00 4.624559e+00 3.759531e+00 3.247927e+00 2.794456e+00 2.306292e+00 2.041017e+00 1.700163e+00 1.621343e+01 8.777125e-01 7.464437e-01 5.829416e-01 4.560367e-01 6.599866e-01 9.543305e-01 7.661889e-01 6.540576e-01 5.233231e-01 4.245740e-01 3.794535e-01 3.201625e-01 4.620230e+00
<GCONST> 1.287992e+02
<STATE> 3
<NUMMIXES> 2
<MIXTURE> 1 7.990359e-01
<MEAN> 39
 -1.101229e+01 -1.733938e+01 -1.149225e+01 2.373339e-01 6.171652e-01 -9.599352e+00 4.901109e-01 -1.196388e+00 -4.151261e+00 -2.712172e+00 9.412620e-01 -6.025943e-01 6.884142e+01 2.983242e-01 1.844970e-01 2.630951e-01 2.448335e-01 2.983480e-01 1.766833e-01 1.337338e-01 4.553157e-02 1.111356e-02 1.503150e-02 4.718321e-02 3.830760e-02 -9.129289e-01 -1.337778e-02 2.686418e-02 8.296665e-03 -4.196232e-03 -5.547849e-03 4.277478e-03 -1.967868e-02 9.302376e-03 7.307568e-03 1.017584e-03 -5.313864e-03 -7.963930e-04 1.390037e-02
<VARIANCE> 39
 1.158991e+01 2.174040e+01 1.957304e+01 2.189726e+01 3.242840e+01 2.171179e+01 2.858438e+01 2.247267e+01 2.284109e+01 2.091071e+01 1.662250e+01 1.478559e+01 6.241559e+01 9.839070e-02 2.388105e-01 3.724669e-01 6.054359e-01 8.339734e-01 9.882915e-01 1.138544e+00 1.239399e+00 1.295869e+00 1.302753e+00 1.224514e+00 1.147044e+00 3.930779e-02 2.149092e-02 5.079305e-02 7.808149e-02 1.284162e-01 1.758227e-01 2.052253e-01 2.456824e-01 2.638987e-01 2.752011e-01 2.756865e-01 2.555569e-01 2.401926e-01 1.467307e-02
<GCONST> 7.756237e+01
<MIXTURE> 2 2.009638e-01
<MEAN> 39
 -1.219721e+01 -1.550726e+01 -1.129869e+01 -4.338907e-01 -3.986005e-01 -9.381443e+00 -9.968341e-01 -2.529055e-01 -3.407336e+00 -2.811230e+00 3.562966e-01 -8.493593e-01 7.152241e+01 -7.842733e-01 -6.870353e-01 -8.360413e-01 -7.156967e-01 -8.526457e-01 -5.569797e-01 -3.054248e-01 -1.029481e-01 -2.662034e-02 -7.411751e-02 -8.299740e-02 -6.964768e-02 2.610199e+00 1.049913e-01 5.590810e-02 8.270804e-02 6.062940e-02 1.000970e-01 9.239300e-02 1.119862e-01 -3.903676e-03 1.087654e-02 3.249331e-02 2.765063e-02 3.619208e-03 -3.226733e-01
<VARIANCE> 39
 2.538010e+01 3.275011e+01 2.879000e+01 3.381414e+01 4.081441e+01 3.466060e+01 4.093826e+01 2.669084e+01 2.749679e+01 2.389855e+01 1.851835e+01 1.614721e+01 1.685701e+02 1.915669e+00 2.775261e+00 2.059477e+00 2.457768e+00 2.963428e+00 3.264035e+00 3.737925e+00 2.671393e+00 2.634081e+00 2.218123e+00 1.856465e+00 1.589607e+00 1.339991e+01 4.765207e-01 6.221598e-01 5.202438e-01 5.375420e-01 6.707692e-01 7.229576e-01 7.291835e-01 5.096220e-01 4.945117e-01 4.324528e-01 3.558265e-01 3.129190e-01 3.903403e+00
<GCONST> 1.235739e+02
<STATE> 4
<NUMMIXES> 2
<MIXTURE> 1 8.578392e-01
<MEAN> 39
 -9.045163e+00 -1.122421e+01 -4.348585e+00 1.323171e+00 -6.558275e-01 -3.582083e+00 3.815876e+00 -9.920202e-01 -1.740131e+00 4.857863e-01 8.697838e-01 -9.262543e-01 5.783809e+01 2.242235e-01 2.865262e-01 1.682272e-01 8.719192e-02 1.477152e-01 1.983347e-01 8.930615e-02 1.551052e-01 5.534273e-02 3.519949e-02 1.073395e-02 -3.936362e-03 -6.306587e-01 -1.332340e-02 7.314798e-03 -7.675314e-03 -9.645441e-03 -1.227056e-02 -5.371005e-03 -1.320918e-02 1.884975e-04 -3.477102e-03 -3.411803e-03 -1.033494e-03 -6.974984e-04 2.006218e-02
<VARIANCE> 39
 1.890929e+01 6.782547e+01 2.065985e+01 2.139569e+01 3.006033e+01 3.316566e+01 2.228787e+01 3.292855e+01 2.401742e+01 1.984344e+01 1.658621e+01 1.417418e+01 1.059061e+02 1.308020e-01 2.762637e-01 4.245383e-01 6.646166e-01 8.791336e-01 1.030740e+00 1.179848e+00 1.277231e+00 1.331355e+00 1.311649e+00 1.253509e+00 1.132140e+00 1.451313e-01 2.251387e-02 4.841419e-02 8.261637e-02 1.266356e-01 1.716996e-01 2.091400e-01 2.406553e-01 2.594799e-01 2.752338e-01 2.703901e-01 2.550602e-01 2.316357e-01 8.414679e-03
<GCONST> 8.173423e+01
<MIXTURE> 2 1.421632e-01
<MEAN> 39
 -1.177692e+01 -1.025042e+01 -5.680665e+00 -2.196301e-01 -2.961294e+00 -4.293186e+00 2.329447e+00 -9.710618e-01 -1.970041e+00 4.076791e-01 1.877082e-01 -1.502091e+00 6.362368e+01 -1.234920e+00 -1.443644e+00 -8.086202e-01 -4.492261e-01 -8.915614e-01 -9.854206e-01 -4.405635e-01 -8.126143e-01 -2.259988e-01 -1.258033e-01 -7.646643e-02 1.294268e-03 3.347494e+00 6.801578e-02 -5.373544e-02 2.480382e-02 3.832486e-02 5.183515e-02 1.190377e-02 6.222250e-02 -8.169317e-03 7.435989e-03 4.520494e-03 6.145854e-04 2.597999e-03 -9.427732e-02
<VARIANCE> 39
 3.949554e+01 7.934847e+01 2.939096e+01 2.763722e+01 3.922898e+01 4.691792e+01 3.313981e+01 4.112605e+01 3.002641e+01 2.150670e+01 1.853790e+01 1.601801e+01 2.439109e+02 3.120623e+00 6.187824e+00 2.170346e+00 2.195446e+00 3.204732e+00 3.972208e+00 3.181758e+00 3.948979e+00 3.178725e+00 2.159344e+00 1.881186e+00 1.595919e+00 1.863474e+01 7.518297e-01 1.249510e+00 4.693276e-01 4.428785e-01 7.155434e-01 8.752465e-01 6.364397e-01 8.267909e-01 6.219760e-01 4.225719e-01 3.679154e-01 3.073180e-01 4.786809e+00
<GCONST> 1.296768e+02
<TRANSP> 5
 0.000000e+00 1.000000e+00 0.000000e+00 0.000000e+00 0.000000e+00
 0.000000e+00 9.890264e-01 1.097364e-02 0.000000e+00 0.000000e+00
 0.000000e+00 0.000000e+00 9.874703e-01 1.252967e-02 0.000000e+00
 0.000000e+00 0.000000e+00 0.000000e+00 9.913180e-01 8.681953e-03
 0.000000e+00 0.000000e+00 0.000000e+00 0.000000e+00 0.000000e+00
<ENDHMM>
~h "cl"
<BEGINHMM>
<NUMSTATES> 5
<STATE> 2
<NUMMIXES> 2
<MIXTURE> 1 7.265527e-01
<MEAN> 39
 -1.155406e+01 -1.124567e+00 -8.394650e-01 -4.795897e+00 -2.099662e+00 6.494689e+00 3.406483e+00 6.908950e-02 5.049431e+00 -4.346105e-01 -3.199322e+00 1.883375e+00 5.280733e+01 3.444271e-01 -3.805969e-02 -3.629508e-02 5.922177e-02 9.506226e-02 -3.703876e-02 8.638921e-02 7.952004e-02 -5.956900e-02 4.475571e-02 6.979553e-02 -8.568700e-02 -3.017365e-01 -2.090297e-02 1.047429e-02 -6.138955e-03 2.984025e-03 -1.693493e-03 -1.480317e-02 -1.094543e-02 1.034714e-02 -1.799753e-02 4.945998e-03 1.370350e-02 -1.150853e-02 1.791567e-02
<VARIANCE> 39
 3.202262e+01 2.181116e+01 3.317384e+01 1.573980e+01 2.014034e+01 4.367342e+01 2.405490e+01 2.715132e+01 3.876090e+01 2.223276e+01 2.488027e+01 2.490988e+01 2.820312e+01 3.037910e-01 3.525793e-01 5.453502e-01 7.329046e-01 9.689167e-01 1.304780e+00 1.333930e+00 1.464237e+00 1.610737e+00 1.428505e+00 1.366838e+00 1.285702e+00 1.489446e-01 5.851915e-02 6.390452e-02 1.065003e-01 1.434959e-01 1.930916e-01 2.523312e-01 2.636229e-01 2.906222e-01 3.159620e-01 2.871723e-01 2.723279e-01 2.557147e-01 2.277385e-02
<GCONST> 8.731211e+01
<MIXTURE> 2 2.734483e-01
<MEAN> 39
 -1.455016e+01 -8.425472e-01 -1.011003e+00 -4.441185e+00 -2.713248e+00 5.119293e+00 1.792385e+00 7.946804e-02 3.963352e+00 -1.042405e-01 -2.638971e+00 1.420596e+00 5.646144e+01 -1.898612e+00 2.086211e-01 2.589851e-01 -2.629265e-01 -5.668002e-01 5.706537e-01 -4.405718e-01 -6.933569e-01 4.502110e-01 -2.594234e-01 -6.013103e-01 5.491288e-01 1.566599e+00 4.755832e-02 -4.525155e-02 5.795541e-02 -2.549699e-02 -4.120503e-02 1.100791e-01 2.794714e-02 -9.410015e-02 7.866038e-02 -2.086838e-02 -1.108947e-01 8.618933e-02 -4.472243e-02
<VARIANCE> 39
 5.743841e+01 4.226376e+01 3.236272e+01 1.898422e+01 2.394902e+01 5.738257e+01 2.994134e+01 3.092362e+01 3.614658e+01 2.674439e+01 2.689811e+01 2.293962e+01 9.002292e+01 5.013078e+00 1.806684e+00 1.608397e+00 1.470996e+00 2.000238e+00 3.902490e+00 2.662034e+00 3.197465e+00 3.180079e+00 2.525072e+00 2.673019e+00 2.293498e+00 4.203769e+00 1.133059e+00 2.659728e-01 2.446156e-01 2.617728e-01 3.538910e-01 5.717337e-01 4.749329e-01 5.239370e-01 5.133377e-01 4.435636e-01 4.442931e-01 3.655747e-01 9.037911e-01
<GCONST> 1.200062e+02
<STATE> 3
<NUMMIXES> 2
<MIXTURE> 1 6.508927e-01
<MEAN> 39
 -2.094631e+01 2.777578e+00 -3.045056e-01 -7.126147e+00 -4.751077e+00 1.341723e+01 8.148788e-01 -2.406871e+00 9.569131e+00 -4.028198e+00 -4.642884e+00 5.885368e+00 5.895935e+01 5.864065e-01 -2.137234e-02 -2.424595e-02 -6.467260e-03 6.405231e-02 4.295980e-02 7.130402e-02 3.675146e-02 1.168707e-01 1.130930e-01 1.159032e-01 2.532544e-02 -4.539790e-01 -5.614577e-03 1.586633e-03 -3.328599e-02 2.699572e-02 2.054767e-02 -8.270141e-02 1.160474e-04 3.396926e-02 -6.328646e-02 4.193589e-02 4.915117e-02 -5.640621e-02 8.502373e-03
<VARIANCE> 39
 3.288419e+01 8.408884e+00 1.671943e+01 1.119975e+01 1.436489e+01 2.576106e+01 2.370667e+01 1.902627e+01 2.281574e+01 1.922095e+01 1.788733e+01 1.856654e+01 1.691518e+01 2.955975e-01 3.114440e-01 5.728994e-01 7.498819e-01 9.704001e-01 1.346564e+00 1.428454e+00 1.385254e+00 1.499701e+00 1.472838e+00 1.330735e+00 1.285262e+00 1.497588e-01 1.159383e-01 6.315338e-02 1.236158e-01 1.557497e-01 2.084300e-01 2.885535e-01 3.113962e-01 2.926324e-01 3.202813e-01 3.123796e-01 2.809561e-01 2.763120e-01 6.515478e-02
<GCONST> 8.476215e+01
<MIXTURE> 2 3.491796e-01
<MEAN> 39
 -1.924417e+01 1.728369e+00 -1.561047e+00 -6.347958e+00 -4.417751e+00 9.806052e+00 1.933844e-01 -1.850213e+00 7.369905e+00 -3.402963e+00 -3.207758e+00 4.141637e+00 5.929133e+01 -9.857361e-01 2.434276e-02 1.443315e-02 3.030845e-02 -1.076810e-01 -1.009430e-01 -1.146646e-01 -9.186223e-02 -2.495490e-01 -2.046852e-01 -2.173875e-01 -5.369702e-02 7.792991e-01 3.452965e-02 -6.534023e-03 5.677187e-02 -4.690196e-02 -2.790822e-02 1.348370e-01 3.429588e-03 -5.056303e-02 1.039541e-01 -6.702748e-02 -7.941867e-02 9.052923e-02 -3.390840e-02
<VARIANCE> 39
 7.897148e+01 1.457090e+01 2.487599e+01 1.573355e+01 1.938983e+01 4.241910e+01 3.306020e+01 2.600738e+01 3.297586e+01 2.139243e+01 2.042210e+01 2.323852e+01 3.465672e+01 2.913024e+00 8.365718e-01 1.237314e+00 1.242770e+00 1.720393e+00 2.950913e+00 2.664125e+00 2.229831e+00 2.552523e+00 1.957418e+00 1.892182e+00 2.372204e+00 1.612952e+00 7.209453e-01 1.425812e-01 1.984188e-01 2.323444e-01 3.009147e-01 4.667743e-01 4.581276e-01 4.083445e-01 4.670299e-01 3.815500e-01 3.535329e-01 3.953033e-01 4.151401e-01
<GCONST> 1.091837e+02
<STATE> 4
<NUMMIXES> 2
<MIXTURE> 1 6.670969e-01
<MEAN> 39
 -2.151695e+01 4.224738e-01 5.886846e+00 -4.258280e+00 -6.684381e+00 1.096142e+01 1.403738e+00 -6.437843e+00 3.894284e+00 4.484458e+00 -1.187857e+01 4.969494e+00 5.727082e+01 5.476541e-01 6.221362e-02 1.761429e-01 -1.007340e-02 2.467190e-02 6.880268e-02 1.589899e-01 -7.460442e-02 2.842431e-01 3.340425e-02 -4.581378e-02 1.015438e-01 -6.202380e-01 -3.479952e-02 1.840118e-02 -5.386229e-02 1.835154e-02 5.054845e-02 -7.576192e-02 -1.682824e-02 8.954769e-02 -4.212544e-02 -9.690212e-03 8.568764e-02 -7.060380e-02 2.751098e-02
<VARIANCE> 39
 3.900685e+01 9.265891e+00 1.505005e+01 1.540063e+01 3.038537e+01 2.846596e+01 2.748888e+01 4.874721e+01 3.690854e+01 3.179937e+01 3.054745e+01 3.171382e+01 3.403126e+01 2.115387e-01 3.029196e-01 6.013030e-01 7.016800e-01 9.706361e-01 1.237020e+00 1.292997e+00 1.555289e+00 1.616666e+00 1.451245e+00 1.439844e+00 1.260473e+00 1.469509e-01 8.817064e-02 6.584755e-02 1.339446e-01 1.519192e-01 2.168096e-01 2.781355e-01 2.838650e-01 3.511402e-01 3.660764e-01 3.265364e-01 3.084832e-01 2.757936e-01 8.555798e-02
<GCONST> 9.004477e+01
<MIXTURE> 2 3.329808e-01
<MEAN> 39
 -2.395978e+01 7.927271e-01 4.164322e+00 -3.780949e+00 -5.897087e+00 9.924388e+00 9.911749e-01 -5.022980e+00 2.952044e+00 4.139038e+00 -1.070854e+01 4.032208e+00 5.956672e+01 -9.439250e-01 -1.400424e-01 -3.412851e-01 9.904057e-05 -3.572823e-02 -1.841304e-01 -3.212608e-01 1.773377e-01 -5.723350e-01 -7.910310e-02 1.225313e-01 -2.170897e-01 1.121661e+00 7.099073e-02 -3.522474e-02 9.963119e-02 -3.492318e-02 -9.400471e-02 1.444167e-01 3.384814e-02 -1.675601e-01 8.112943e-02 1.542657e-02 -1.599191e-01 1.345756e-01 -5.584667e-02
<VARIANCE> 39
 3.381312e+01 1.218175e+01 1.809414e+01 1.714188e+01 2.744982e+01 3.222851e+01 3.268053e+01 4.782346e+01 4.138160e+01 3.244250e+01 3.044629e+01 3.168210e+01 3.687141e+01 2.071529e+00 7.902917e-01 1.598884e+00 1.381196e+00 2.210483e+00 2.989040e+00 2.462688e+00 4.241455e+00 3.745400e+00 3.104256e+00 2.663401e+00 2.610041e+00 1.737142e+00 5.507416e-01 1.317666e-01 2.909882e-01 2.411441e-01 3.576234e-01 4.721657e-01 4.551629e-01 6.334024e-01 7.111883e-01 5.079737e-01 4.544089e-01 4.532019e-01 5.857911e-01
<GCONST> 1.142845e+02
<TRANSP> 5
 0.000000e+00 1.000000e+00 0.000000e+00 0.000000e+00 0.000000e+00
 0.000000e+00 9.623280e-01 3.767196e-02 0.000000e+00 0.000000e+00
 0.000000e+00 0.000000e+00 9.917876e-01 8.212458e-03 0.000000e+00
 0.000000e+00 0.000000e+00 0.000000e+00 9.935033e-01 6.496723e-03
 0.000000e+00 0.000000e+00 0.000000e+00 0.000000e+00 0.000000e+00
<ENDHMM>
~h "cm"
<BEGINHMM>
<NUMSTATES> 5
<STATE> 2
<NUMMIXES> 2
<MIXTURE> 1 5.512532e-01
<MEAN> 39
 -1.320846e+01 -8.766156e-01 -4.168227e+00 -6.156046e+00 -2.095998e-01 7.488095e-01 -1.048747e+00 1.074062e+00 -9.112064e-01 1.232305e+00 2.844251e+00 3.419994e-01 5.867309e+01 -5.081879e-03 5.732528e-02 1.247163e-01 2.115710e-01 3.195307e-01 3.603826e-01 3.275445e-01 3.138334e-01 2.419770e-01 1.803467e-01 1.051022e-01 2.644306e-02 3.907616e-02 5.927494e-03 5.135735e-03 8.328518e-03 6.407294e-03 -5.811079e-03 -1.993675e-02 -1.808559e-02 -1.618726e-02 -6.293089e-03 6.025498e-03 1.018455e-02 2.976494e-03 5.634928e-03
<VARIANCE> 39
 8.767211e+00 1.366147e+01 1.340802e+01 1.439382e+01 1.464054e+01 1.624237e+01 1.909800e+01 1.804682e+01 1.829355e+01 1.641656e+01 1.800525e+01 1.623669e+01 2.140629e+01 1.586139e-01 2.799793e-01 4.404875e-01 6.306212e-01 8.073021e-01 9.662662e-01 1.094357e+00 1.223773e+00 1.275880e+00 1.257113e+00 1.289460e+00 1.194859e+00 1.114720e-01 2.627669e-02 5.069856e-02 8.632226e-02 1.324008e-01 1.782571e-01 2.185132e-01 2.451305e-01 2.689785e-01 2.710650e-01 2.634242e-01 2.587445e-01 2.402088e-01 1.096377e-02
<GCONST> 7.485734e+01
<MIXTURE> 2 4.487322e-01
<MEAN> 39
 -1.297787e+01 -7.419266e-01 -4.048830e+00 -6.149538e+00 -6.703669e-01 -3.020093e-03 -1.483929e+00 6.319773e-01 -9.427351e-01 1.633731e+00 3.264496e+00 6.364546e-01 5.858582e+01 -1.241942e-02 -1.366481e-01 -2.159653e-01 -3.256537e-01 -3.777333e-01 -4.718580e-01 -5.238749e-01 -4.616098e-01 -3.902769e-01 -2.676904e-01 -1.430192e-01 -2.554775e-02 3.025743e-01 2.783260e-02 -4.123703e-03 -8.831344e-03 -4.589790e-04 -7.997974e-03 -6.049215e-03 5.073790e-03 -2.801129e-03 -1.422910e-02 -3.937148e-02 -5.070021e-02 -3.139440e-02 1.782503e-02
<VARIANCE> 39
 9.190260e+00 1.396445e+01 1.287453e+01 1.490350e+01 1.514986e+01 1.697661e+01 2.053913e+01 1.938569e+01 1.922766e+01 1.703025e+01 1.908539e+01 1.742277e+01 2.352269e+01 3.333870e-01 4.536916e-01 5.855170e-01 8.289078e-01 9.724043e-01 1.128482e+00 1.299355e+00 1.397575e+00 1.433319e+00 1.421803e+00 1.472037e+00 1.343026e+00 3.919042e-01 4.439752e-02 7.152326e-02 1.054137e-01 1.584054e-01 2.050704e-01 2.519505e-01 2.887375e-01 3.016771e-01 2.988150e-01 2.822640e-01 2.839426e-01 2.607296e-01 4.146212e-02
<GCONST> 8.310859e+01
<STATE> 3
<NUMMIXES> 2
<MIXTURE> 1 6.608047e-01
<MEAN> 39
 -7.747325e+00 -2.306885e+00 -4.933304e+00 -5.630888e+00 -1.758730e+00 -2.002933e+00 -2.312581e+00 -1.293303e+00 -2.424028e+00 -9.208449e-01 -6.988389e-01 -1.710900e+00 6.632585e+01 9.588084e-02 9.942072e-02 9.183145e-02 1.655088e-01 1.755449e-01 2.167563e-01 1.870729e-01 1.481041e-01 1.267347e-01 1.148894e-01 8.539462e-02 4.147322e-02 -1.127987e-01 -1.501994e-02 -2.084898e-03 -7.984934e-03 -3.770049e-03 -1.104970e-02 -9.154394e-03 -5.031643e-03 -6.253170e-03 -1.313597e-02 -1.756015e-02 -1.474918e-02 -1.486544e-02 -1.589195e-02
<VARIANCE> 39
 1.266556e+01 1.533747e+01 1.360861e+01 1.640915e+01 1.614028e+01 1.607185e+01 2.107525e+01 1.897834e+01 2.031043e+01 1.834965e+01 1.678073e+01 1.497580e+01 7.662389e+01 2.475232e-01 3.515168e-01 5.106651e-01 7.359302e-01 9.008874e-01 1.047402e+00 1.192616e+00 1.291555e+00 1.361002e+00 1.330951e+00 1.306800e+00 1.213372e+00 3.850107e-01 4.022292e-02 6.889422e-02 1.034249e-01 1.535862e-01 1.909121e-01 2.290019e-01 2.606198e-01 2.756870e-01 2.876908e-01 2.848659e-01 2.746430e-01 2.515602e-01 3.716731e-02
<GCONST> 8.248483e+01
<MIXTURE> 2 3.391731e-01
<MEAN> 39
 -8.917320e+00 -2.360504e+00 -5.076508e+00 -6.604074e+00 -2.390029e+00 -2.772811e+00 -2.942993e+00 -1.438470e+00 -2.661136e+00 -1.429052e+00 -9.301391e-01 -2.058417e+00 6.657564e+01 2.408544e-01 -2.015884e-01 -1.928153e-01 -3.536462e-01 -4.972747e-01 -6.242751e-01 -4.740824e-01 -4.055402e-01 -3.110469e-01 -3.545038e-01 -3.897404e-01 -1.968757e-01 1.073906e+00 1.859222e-02 2.402464e-02 2.790504e-02 3.545518e-02 7.061373e-02 8.565800e-02 6.058342e-02 5.310856e-02 5.610618e-02 7.102323e-02 7.709794e-02 5.382458e-02 -6.179927e-02
<VARIANCE> 39
 1.588760e+01 1.840413e+01 1.647848e+01 1.942991e+01 2.001655e+01 1.898400e+01 2.117523e+01 2.135227e+01 2.200309e+01 1.877927e+01 1.825523e+01 1.578843e+01 6.391772e+01 1.054835e+00 1.210213e+00 1.088816e+00 1.434313e+00 1.527480e+00 1.590338e+00 1.734141e+00 1.873556e+00 1.880552e+00 1.739312e+00 1.669563e+00 1.527974e+00 1.570882e+00 1.402771e-01 1.951284e-01 1.955224e-01 2.711813e-01 3.097721e-01 3.372569e-01 3.482947e-01 3.657274e-01 3.695074e-01 3.375461e-01 3.284278e-01 2.933339e-01 3.133794e-01
<GCONST> 9.991615e+01
<STATE> 4
<NUMMIXES> 2
<MIXTURE> 1 4.768806e-01
<MEAN> 39
 -5.757748e+00 1.162546e+00 -2.228485e+00 -3.329791e+00 4.541017e-01 -2.067893e-01 -1.316323e+00 -6.552788e-01 -1.775701e+00 -1.223105e+00 -3.420649e-01 -1.899960e+00 6.290098e+01 2.597375e-02 1.006232e-01 1.481084e-01 1.942410e-01 2.061770e-01 2.029512e-01 2.037891e-01 1.522953e-01 1.244176e-01 9.094259e-02 7.114926e-02 2.601732e-02 -3.650810e-01 -2.887074e-04 -1.339111e-02 -3.463825e-02 -5.720159e-02 -7.941261e-02 -8.870335e-02 -8.096851e-02 -6.507784e-02 -5.894770e-02 -5.389226e-02 -4.997665e-02 -2.946187e-02 1.609008e-02
<VARIANCE> 39
 1.470911e+01 1.083863e+01 1.114012e+01 1.172958e+01 1.200815e+01 1.283953e+01 1.578793e+01 1.775496e+01 1.855686e+01 1.621329e+01 1.465976e+01 1.309007e+01 6.383685e+01 1.759739e-01 2.764720e-01 4.264214e-01 6.442329e-01 8.358160e-01 9.957309e-01 1.149209e+00 1.249707e+00 1.327392e+00 1.300402e+00 1.252928e+00 1.154810e+00 1.743793e-01 2.510445e-02 4.844266e-02 8.048664e-02 1.215990e-01 1.594349e-01 1.943610e-01 2.292626e-01 2.510777e-01 2.666998e-01 2.600985e-01 2.480213e-01 2.309452e-01 1.294515e-02
<GCONST> 7.490453e+01
<MIXTURE> 2 5.230469e-01
<MEAN> 39
 -5.275317e+00 -1.000124e+00 -5.089138e+00 -6.664110e+00 -3.133655e+00 -3.573152e+00 -4.084828e+00 -2.472709e+00 -3.211517e+00 -2.534818e+00 -1.885350e+00 -2.678163e+00 7.141505e+01 4.535836e-02 -1.973782e-02 -3.209285e-02 -4.923613e-02 -9.059004e-02 -1.265928e-01 -1.271321e-01 -1.469037e-01 -1.128457e-01 -9.424343e-02 -5.874633e-02 -1.544521e-02 -8.103496e-02 -8.763202e-03 1.000248e-02 3.164335e-02 4.969149e-02 7.162316e-02 8.165253e-02 7.564630e-02 6.234466e-02 5.591822e-02 5.400345e-02 5.014731e-02 2.869358e-02 -2.694618e-02
<VARIANCE> 39
 6.177742e+00 8.750485e+00 9.101754e+00 1.188543e+01 1.156129e+01 1.099095e+01 1.345983e+01 1.553497e+01 1.653547e+01 1.463995e+01 1.407293e+01 1.233494e+01 4.034777e+01 1.870330e-01 2.918026e-01 4.681793e-01 6.959983e-01 8.645664e-01 9.955657e-01 1.140109e+00 1.232176e+00 1.280606e+00 1.258894e+00 1.222729e+00 1.130518e+00 3.255505e-01 3.045397e-02 5.394300e-02 8.951904e-02 1.351289e-01 1.681765e-01 1.949316e-01 2.266023e-01 2.454161e-01 2.555100e-01 2.534284e-01 2.464038e-01 2.285336e-01 2.783438e-02
<GCONST> 7.439272e+01
<TRANSP> 5
 0.000000e+00 1.000000e+00 0.000000e+00 0.000000e+00 0.000000e+00
 0.000000e+00 9.656564e-01 3.434357e-02 0.000000e+00 0.000000e+00
 0.000000e+00 0.000000e+00 9.611169e-01 3.888315e-02 0.000000e+00
 0.000000e+00 0.000000e+00 0.000000e+00 9.845601e-01 1.543995e-02
 0.000000e+00 0.000000e+00 0.000000e+00 0.000000e+00 0.000000e+00
<ENDHMM>
~h "co"
<BEGINHMM>
<NUMSTATES> 5
<STATE> 2
<NUMMIXES> 2
<MIXTURE> 1 6.692064e-01
<MEAN> 39
 -9.054057e+00 -7.008928e+00 1.867542e-01 -4.357211e+00 -9.482931e+00 -5.603024e+00 -4.957300e+00 -6.404971e-01 -3.504908e+00 -6.427208e+00 -4.462072e+00 -6.727548e+00 6.942276e+01 -6.296423e-01 2.683508e-01 1.730355e-01 -1.192997e-02 5.237223e-01 -1.089105e-01 3.910695e-01 -3.892562e-01 -4.302964e-01 -1.382536e-01 3.199207e-01 2.135659e-01 1.183258e+00 1.470747e-01 -1.795682e-01 -1.933990e-01 1.578199e-01 7.521583e-02 9.263506e-02 -7.971367e-03 8.568311e-02 2.087680e-01 2.461709e-01 1.128487e-01 5.757733e-02 -4.383771e-01
<VARIANCE> 39
 2.187959e+01 2.880302e+01 2.466904e+01 3.112036e+01 4.918228e+01 5.117361e+01 7.864404e+01 6.372662e+01 4.631817e+01 4.506489e+01 3.794864e+01 3.115017e+01 8.702087e+01 6.846307e-01 1.323036e+00 1.380244e+00 1.513727e+00 1.823017e+00 2.069025e+00 2.688384e+00 2.193540e+00 2.327153e+00 2.489368e+00 1.897737e+00 1.846223e+00 1.477518e+00 1.101524e-01 1.803410e-01 2.334298e-01 2.601155e-01 3.172019e-01 3.901777e-01 4.241560e-01 3.832189e-01 4.031787e-01 3.822447e-01 3.728675e-01 3.226651e-01 2.491294e-01
<GCONST> 1.114385e+02
<MIXTURE> 2 3.307934e-01
<MEAN> 39
 -6.312119e+00 -8.439898e+00 -2.462345e+00 -2.545040e+00 -1.022524e+01 -3.498892e+00 -3.668715e+00 1.921093e+00 1.053366e+00 -1.102464e+00 -1.878599e+00 -5.510309e+00 5.935880e+01 -4.898057e-01 -7.065591e-01 3.281543e-01 -8.943588e-01 -1.984438e+00 -1.728460e+00 -1.168931e+00 -1.075533e+00 -1.089246e+00 -1.207686e+00 -9.726794e-01 -8.078049e-01 4.021784e+00 -2.015652e-01 4.367000e-01 1.683953e-01 -1.097588e-01 4.271592e-01 1.182881e-01 2.743028e-01 -4.738266e-02 -2.568316e-01 -1.741880e-01 5.497557e-02 7.621658e-02 1.581206e-01
<VARIANCE> 39
 1.880883e+01 5.158746e+01 2.607269e+01 3.812465e+01 9.130702e+01 6.111921e+01 1.065636e+02 6.288800e+01 4.995284e+01 4.587387e+01 3.536668e+01 3.809143e+01 9.682280e+01 1.762553e+00 4.393568e+00 2.787910e+00 3.707709e+00 5.648234e+00 4.007761e+00 5.144270e+00 4.578844e+00 4.648684e+00 3.329141e+00 2.708681e+00 2.748084e+00 3.163239e+00 1.869650e-01 6.262294e-01 3.356458e-01 5.052327e-01 9.463930e-01 7.519879e-01 9.857044e-01 6.258000e-01 6.375245e-01 5.549997e-01 5.134280e-01 5.266889e-01 7.418774e-01
<GCONST> 1.315812e+02
<STATE> 3
<NUMMIXES> 2
<MIXTURE> 1 7.492995e-01
<MEAN> 39
 -6.833361e+00 -7.551255e+00 -1.962670e+00 -3.698910e+00 -6.507671e+00 -8.450573e+00 -6.881860e+00 -6.634365e+00 -4.184249e+00 -3.635776e+00 -3.236123e+00 -7.784536e+00 6.780424e+01 2.145003e-01 4.979271e-02 3.963897e-02 1.724803e-01 3.489774e-01 9.564014e-02 3.570414e-02 -8.780328e-02 7.245106e-02 1.630450e-01 8.313177e-02 3.511740e-02 -6.079913e-01 2.004223e-02 1.667343e-02 1.560315e-02 1.479392e-02 -2.745049e-02 1.850307e-03 -1.561362e-02 -6.701216e-03 -3.596076e-02 -5.032675e-02 -3.930788e-02 -9.564942e-03 -2.022867e-02
<VARIANCE> 39
 2.059245e+01 1.300483e+01 2.533337e+01 2.283721e+01 2.309797e+01 2.784759e+01 4.931290e+01 5.629273e+01 3.710686e+01 3.877848e+01 3.526908e+01 3.624631e+01 4.363772e+01 1.819040e-01 3.561375e-01 5.980715e-01 7.314069e-01 1.037709e+00 1.163670e+00 1.468626e+00 1.642128e+00 1.753946e+00 1.696213e+00 1.487390e+00 1.413842e+00 1.337513e-01 3.956277e-02 7.382800e-02 1.130766e-01 1.552390e-01 2.147944e-01 2.402676e-01 3.057260e-01 3.383556e-01 3.715985e-01 3.522498e-01 3.125708e-01 2.925073e-01 2.698573e-02
<GCONST> 9.040220e+01
<MIXTURE> 2 2.507423e-01
<MEAN> 39
 -6.831337e+00 -8.153825e+00 -1.922391e+00 -2.909173e+00 -8.844165e+00 -8.298657e+00 -7.372072e+00 -7.183819e+00 -3.719715e+00 -4.096957e+00 -4.674624e+00 -8.533239e+00 6.782942e+01 -2.050389e-01 -1.349306e-01 -2.575018e-02 -3.143418e-01 -6.752797e-01 -2.106498e-01 -3.445457e-01 7.945287e-02 -1.312507e-01 -3.496347e-01 -2.594026e-01 -2.196810e-01 1.088193e+00 -3.579771e-02 -2.005801e-02 -2.038391e-03 -2.723608e-02 8.172837e-02 2.593745e-02 5.640547e-02 5.159026e-02 1.064351e-01 1.300050e-01 9.057662e-02 2.231506e-02 5.443913e-03
<VARIANCE> 39
 1.515147e+01 2.206490e+01 3.118900e+01 2.735379e+01 3.668433e+01 3.301443e+01 5.237510e+01 7.078110e+01 5.851991e+01 4.154741e+01 4.313613e+01 3.796176e+01 5.477480e+01 1.193394e+00 2.132940e+00 1.789286e+00 2.169654e+00 3.218689e+00 2.647286e+00 4.178838e+00 4.231481e+00 5.170209e+00 3.498132e+00 3.243108e+00 2.602661e+00 2.523989e+00 1.346037e-01 4.097812e-01 2.869897e-01 3.862213e-01 6.485275e-01 4.603357e-01 6.288282e-01 6.982656e-01 9.917227e-01 6.601441e-01 5.894612e-01 4.319476e-01 4.897314e-01
<GCONST> 1.223811e+02
<STATE> 4
<NUMMIXES> 2
<MIXTURE> 1 7.446133e-01
<MEAN> 39
 -3.939515e+00 -2.829182e+00 3.091727e+00 1.174163e+00 2.022806e-01 -2.843861e+00 -4.097525e+00 -3.269515e+00 -2.332504e+00 -3.644366e+00 -3.263040e+00 -6.312178e+00 5.515566e+01 8.761352e-02 2.292984e-01 -1.229893e-03 5.180905e-02 1.895455e-01 2.043942e-01 2.029601e-01 1.936200e-01 1.304343e-02 3.757507e-02 -1.218250e-02 4.720992e-02 -5.106658e-01 -8.479950e-03 -7.715402e-03 -1.845752e-02 -1.426836e-02 -3.140943e-02 -6.532967e-03 -1.346662e-02 1.420727e-03 -2.347743e-03 -3.355629e-03 -4.562644e-03 -7.308867e-03 1.568094e-02
<VARIANCE> 39
 1.510752e+01 2.197140e+01 1.716922e+01 2.185377e+01 2.130082e+01 2.793336e+01 4.254626e+01 4.227933e+01 2.983609e+01 2.740318e+01 2.488776e+01 2.322261e+01 4.845171e+01 1.795494e-01 3.049581e-01 4.918346e-01 7.062125e-01 8.947036e-01 1.040849e+00 1.203539e+00 1.302386e+00 1.387302e+00 1.458141e+00 1.403162e+00 1.280077e+00 1.112659e-01 2.606767e-02 5.445534e-02 9.115760e-02 1.337685e-01 1.745112e-01 2.057065e-01 2.320458e-01 2.514640e-01 2.758321e-01 2.889854e-01 2.797430e-01 2.571951e-01 8.795979e-03
<GCONST> 8.272260e+01
<MIXTURE> 2 2.554186e-01
<MEAN> 39
 -5.280439e+00 -7.435332e+00 4.224094e-01 -5.941936e-01 -5.040077e+00 -2.173489e+00 -1.024386e+01 -3.298255e+00 -2.375567e+00 -6.621359e+00 -4.414066e+00 -8.754010e+00 6.417356e+01 -1.246332e-01 -1.912818e-01 1.003211e-01 -7.984160e-03 -1.620926e-01 -2.056210e-01 -2.864297e-01 -1.739442e-01 -5.027136e-02 -1.520533e-01 -1.003932e-02 -3.720660e-02 5.594812e-01 4.863668e-03 1.784870e-02 2.366129e-02 1.173238e-02 5.135320e-02 -3.452306e-03 3.968376e-02 1.077228e-04 7.650210e-03 1.503610e-02 1.308650e-02 1.460518e-02 -1.431723e-02
<VARIANCE> 39
 1.282846e+01 3.565262e+01 2.728871e+01 2.329859e+01 3.984537e+01 4.638089e+01 7.631047e+01 5.240304e+01 3.830759e+01 6.204749e+01 4.518785e+01 4.062032e+01 6.907426e+01 6.213807e-01 1.622729e+00 1.291101e+00 1.341233e+00 2.667623e+00 2.010551e+00 3.472982e+00 2.776224e+00 2.519977e+00 2.610623e+00 2.335801e+00 2.336730e+00 2.253468e+00 9.284640e-02 2.733552e-01 2.285587e-01 2.526963e-01 4.863032e-01 3.762791e-01 6.309726e-01 4.935950e-01 4.876955e-01 5.147134e-01 4.565572e-01 4.526635e-01 2.839730e-01
<GCONST> 1.148856e+02
<TRANSP> 5
 0.000000e+00 1.000000e+00 0.000000e+00 0.000000e+00 0.000000e+00
 0.000000e+00 8.810718e-01 1.189282e-01 0.000000e+00 0.000000e+00
 0.000000e+00 0.000000e+00 9.847202e-01 1.527978e-02 0.000000e+00
 0.000000e+00 0.000000e+00 0.000000e+00 9.799201e-01 2.007987e-02
 0.000000e+00 0.000000e+00 0.000000e+00 0.000000e+00 0.000000e+00
<ENDHMM>
~h "ds"
<BEGINHMM>
<NUMSTATES> 5
<STATE> 2
<NUMMIXES> 2
<MIXTURE> 1 5.864300e-01
<MEAN> 39
 -1.317193e+01 -2.051895e-01 1.117640e+00 -1.149825e-01 9.963065e-01 -9.411716e-01 4.862021e+00 2.744016e-01 2.733994e+00 1.377277e+00 2.991485e+00 9.584056e-01 6.555265e+01 3.347949e-01 2.859278e-01 3.482682e-01 4.543620e-01 3.918154e-01 3.788438e-01 2.416642e-01 1.797466e-01 7.719715e-02 1.030025e-01 1.300650e-01 1.147392e-01 -1.331964e-01 -6.653262e-02 -7.118751e-02 -7.164422e-02 -5.081959e-03 -3.145026e-02 -8.771911e-03 -5.630265e-02 1.365781e-03 -7.744715e-03 -3.235486e-03 -7.086325e-02 -3.376329e-02 -1.159685e-01
<VARIANCE> 39
 1.969988e+01 1.742184e+01 1.401921e+01 1.821855e+01 2.046424e+01 1.999399e+01 2.601788e+01 3.202343e+01 2.470920e+01 2.023505e+01 1.758914e+01 1.535816e+01 1.038992e+02 6.408891e-01 7.479165e-01 7.969869e-01 1.069221e+00 1.212130e+00 1.548954e+00 1.716692e+00 1.864478e+00 1.717067e+00 1.681330e+00 1.610242e+00 1.380027e+00 7.321467e-01 1.447472e-01 1.328228e-01 1.667256e-01 2.439487e-01 2.869261e-01 3.201337e-01 3.628862e-01 3.798021e-01 3.523203e-01 3.380786e-01 3.288150e-01 2.766823e-01 3.045585e-01
<GCONST> 9.746288e+01
<MIXTURE> 2 4.135788e-01
<MEAN> 39
 -1.549327e+01 -1.673779e+00 -1.477646e+00 -1.560000e+00 -1.694211e+00 -1.593423e+00 2.909539e+00 -2.970695e-04 2.486422e+00 1.916528e+00 1.887938e+00 7.578251e-01 6.578789e+01 -9.039082e-01 -2.076334e-01 -5.468449e-01 -6.998145e-01 -9.397622e-01 -7.629676e-01 -5.139375e-01 -2.841083e-01 -5.200398e-02 1.965083e-01 1.495837e-01 9.749511e-02 2.260461e+00 2.590346e-01 1.386368e-01 1.427342e-01 1.023218e-01 1.514814e-01 5.106675e-02 1.019479e-01 1.603501e-02 2.539079e-02 -2.885509e-02 1.009374e-01 3.448065e-02 -1.967807e-01
<VARIANCE> 39
 2.664191e+01 1.406437e+01 1.550251e+01 2.129202e+01 2.927943e+01 2.361355e+01 3.035847e+01 3.113390e+01 2.460765e+01 2.460535e+01 2.137103e+01 1.713793e+01 1.297122e+02 2.736900e+00 1.369885e+00 1.625292e+00 1.773495e+00 2.424133e+00 2.214453e+00 2.957275e+00 2.614428e+00 2.459341e+00 2.276953e+00 2.328091e+00 1.762016e+00 1.103268e+01 4.743883e-01 2.217753e-01 2.585792e-01 3.950645e-01 4.877919e-01 4.817787e-01 4.954443e-01 4.802757e-01 4.300632e-01 4.056961e-01 3.918086e-01 3.082920e-01 2.018921e+00
<GCONST> 1.150345e+02
<STATE> 3
<NUMMIXES> 2
<MIXTURE> 1 4.240429e-01
<MEAN> 39
 -9.779136e+00 3.866123e+00 4.035721e+00 5.053497e+00 5.715832e+00 2.549842e+00 6.218617e+00 4.135142e-01 3.920087e+00 1.912912e+00 3.288013e+00 1.426440e+00 6.745983e+01 2.482066e-01 -6.850463e-03 4.683298e-02 -3.151245e-02 8.696526e-02 8.603453e-02 1.052525e-01 4.907129e-02 6.209966e-04 -3.223190e-02 -4.135049e-02 -7.034796e-02 -7.219320e-01 -9.131044e-03 -2.177097e-02 -4.260805e-02 -5.934891e-02 -6.259084e-02 -5.222956e-02 -5.094951e-02 -3.258943e-02 -2.198951e-02 -1.629304e-02 -1.576792e-02 -1.877996e-02 2.449173e-03
<VARIANCE> 39
 1.335127e+01 7.505471e+00 7.212646e+00 7.591175e+00 1.056804e+01 1.249771e+01 1.422751e+01 1.370693e+01 1.476128e+01 1.419485e+01 1.328866e+01 1.340579e+01 5.173196e+01 1.354566e-01 2.606409e-01 4.283702e-01 6.221551e-01 8.395142e-01 1.032812e+00 1.174982e+00 1.238741e+00 1.339469e+00 1.327035e+00 1.267838e+00 1.166079e+00 7.649281e-02 2.614637e-02 5.100902e-02 8.683231e-02 1.264032e-01 1.723109e-01 2.136390e-01 2.407130e-01 2.527952e-01 2.749919e-01 2.696055e-01 2.563150e-01 2.366065e-01 1.217904e-02
<GCONST> 7.183392e+01
<MIXTURE> 2 5.759382e-01
<MEAN> 39
 -1.452377e+01 -7.891800e-01 -2.258778e+00 -9.229178e-01 -1.394361e+00 -3.254362e+00 1.217587e-01 -3.009545e+00 1.470468e+00 2.641509e+00 3.540944e+00 -3.434631e-02 6.795399e+01 3.130048e-01 2.145446e-03 1.201888e-01 1.541045e-01 4.735620e-01 1.602722e-01 4.076079e-02 -1.324998e-01 -1.211861e-01 -1.055761e-01 -4.295614e-02 -2.287137e-01 -7.050462e-01 6.550700e-03 5.459470e-03 1.125529e-02 6.944730e-04 1.975321e-02 5.815329e-02 5.994979e-02 3.738633e-02 1.061251e-02 1.510733e-03 -2.120700e-02 -2.022878e-03 7.716675e-04
<VARIANCE> 39
 5.556208e+00 4.711837e+00 5.476079e+00 9.161802e+00 1.969028e+01 1.241027e+01 1.292913e+01 1.514621e+01 1.491081e+01 1.521087e+01 1.463785e+01 1.541735e+01 2.521218e+01 1.349460e-01 2.738036e-01 4.468513e-01 7.100779e-01 1.019215e+00 1.141487e+00 1.269034e+00 1.381382e+00 1.398950e+00 1.482104e+00 1.440411e+00 1.278114e+00 5.880962e-02 2.881013e-02 5.561586e-02 9.273814e-02 1.427320e-01 2.105264e-01 2.354013e-01 2.571557e-01 2.818525e-01 2.869247e-01 3.056786e-01 2.994185e-01 2.672769e-01 1.249947e-02
<GCONST> 7.274532e+01
<STATE> 4
<NUMMIXES> 2
<MIXTURE> 1 6.518821e-01
<MEAN> 39
 -9.329801e+00 1.267576e+00 2.251084e+00 3.523246e-01 3.390568e+00 1.488008e+00 3.611434e+00 1.264579e+00 2.566162e+00 -3.159000e-01 1.773302e+00 -5.339886e-01 5.423411e+01 1.337851e-01 7.296652e-02 1.274293e-01 1.250579e-01 1.791060e-01 2.037018e-01 1.494868e-01 1.687605e-01 8.934476e-02 7.965132e-02 4.076422e-02 2.598256e-02 -3.027199e-01 -2.043812e-02 -2.551184e-02 -4.025594e-02 -4.556045e-02 -5.045320e-02 -5.093492e-02 -4.247742e-02 -2.335710e-02 -1.172964e-02 9.657964e-04 -1.008738e-02 -1.195964e-02 1.174000e-02
<VARIANCE> 39
 1.462061e+01 1.170527e+01 1.652015e+01 1.755028e+01 1.787667e+01 2.182659e+01 2.562324e+01 1.942958e+01 2.594467e+01 2.440044e+01 1.724227e+01 1.552256e+01 5.443191e+01 2.028368e-01 2.915791e-01 4.740652e-01 6.878628e-01 8.785149e-01 1.111085e+00 1.271619e+00 1.315719e+00 1.430869e+00 1.447312e+00 1.329707e+00 1.181340e+00 1.525429e-01 3.592550e-02 5.761394e-02 9.311052e-02 1.398411e-01 1.793253e-01 2.253822e-01 2.616658e-01 2.709765e-01 2.956924e-01 3.011615e-01 2.725685e-01 2.412723e-01 1.923007e-02
<GCONST> 8.107686e+01
<MIXTURE> 2 3.482947e-01
<MEAN> 39
 -1.048194e+01 -7.285776e-01 -8.164549e-01 -2.335429e+00 9.377955e-01 -1.193217e+00 1.824387e+00 -2.938819e-02 1.602904e+00 -1.594560e-01 1.234159e+00 -1.283158e+00 5.508323e+01 -2.028848e-01 -1.045308e-01 -1.828279e-01 -1.984030e-01 -3.179189e-01 -3.383745e-01 -2.195392e-01 -2.468988e-01 -1.292159e-01 -1.603491e-01 -9.673207e-02 -2.006897e-02 4.829901e-01 3.411215e-02 4.869352e-02 7.622875e-02 8.918276e-02 9.394830e-02 9.291023e-02 7.481501e-02 3.995770e-02 2.244072e-02 2.145262e-03 2.377907e-02 2.536874e-02 -1.797139e-02
<VARIANCE> 39
 2.087313e+01 1.372828e+01 1.572335e+01 1.701944e+01 1.964299e+01 2.249646e+01 2.465603e+01 2.473010e+01 2.423380e+01 2.131686e+01 1.913280e+01 1.773060e+01 4.374084e+01 1.231259e+00 9.676253e-01 1.079921e+00 1.369744e+00 1.587915e+00 1.869257e+00 2.078687e+00 2.005002e+00 2.103446e+00 1.956233e+00 1.736808e+00 1.520200e+00 1.775277e+00 2.096375e-01 1.682601e-01 1.916036e-01 2.530497e-01 3.120827e-01 3.691664e-01 3.913925e-01 3.985346e-01 3.924330e-01 3.711090e-01 3.377130e-01 2.996570e-01 2.879951e-01
<GCONST> 1.014702e+02
<TRANSP> 5
 0.000000e+00 1.000000e+00 0.000000e+00 0.000000e+00 0.000000e+00
 0.000000e+00 9.404358e-01 5.956423e-02 0.000000e+00 0.000000e+00
 0.000000e+00 0.000000e+00 9.567193e-01 4.328068e-02 0.000000e+00
 0.000000e+00 0.000000e+00 0.000000e+00 9.928729e-01 7.127047e-03
 0.000000e+00 0.000000e+00 0.000000e+00 0.000000e+00 0.000000e+00
<ENDHMM>
~h "kj"
<BEGINHMM>
<NUMSTATES> 5
<STATE> 2
<NUMMIXES> 2
<MIXTURE> 1 6.219358e-01
<MEAN> 39
 -1.980671e+01 3.830274e+00 -4.221177e-01 -2.799252e+00 -1.147730e+00 3.603003e+00 2.172559e+00 4.063552e+00 1.685809e+00 -3.732393e-01 1.253271e+00 -9.235351e-01 5.540744e+01 2.289563e-01 9.956127e-02 -6.692898e-03 3.930890e-02 1.269223e-01 1.578989e-01 1.673579e-01 1.742888e-01 1.204830e-01 1.171548e-01 8.612114e-02 1.087821e-02 -2.048968e-01 -2.059038e-02 -8.931460e-03 -3.009465e-03 8.684156e-03 -6.235283e-03 -7.404363e-03 1.668928e-03 -4.710946e-04 -8.721791e-03 1.600949e-02 6.239944e-03 -7.569627e-05 1.690243e-02
<VARIANCE> 39
 3.094813e+01 2.088291e+01 1.479384e+01 2.681137e+01 1.603560e+01 3.115254e+01 2.868242e+01 2.026683e+01 1.955648e+01 2.029642e+01 1.652682e+01 1.631345e+01 2.090420e+01 3.252133e-01 3.273515e-01 5.251428e-01 7.596903e-01 9.612352e-01 1.187107e+00 1.345544e+00 1.397171e+00 1.415992e+00 1.461953e+00 1.375577e+00 1.239534e+00 1.438962e-01 6.179384e-02 6.342438e-02 1.039670e-01 1.570100e-01 1.983490e-01 2.466267e-01 2.799380e-01 2.919974e-01 2.973487e-01 3.065695e-01 2.860035e-01 2.546718e-01 2.549233e-02
<GCONST> 8.439513e+01
<MIXTURE> 2 3.780945e-01
<MEAN> 39
 -2.002199e+01 1.222162e+00 -1.321162e+00 -2.811403e+00 -1.794508e+00 2.467105e+00 1.881017e+00 2.830954e+00 8.039719e-01 2.701873e-01 1.213154e+00 -9.984325e-01 5.754386e+01 -4.463600e-01 -1.238888e-01 2.368360e-02 -7.341661e-02 -2.163713e-01 -2.460320e-01 -2.626001e-01 -2.889821e-01 -1.947689e-01 -1.948287e-01 -1.386040e-01 -1.773991e-02 3.640078e-01 3.841847e-02 9.503290e-03 4.113926e-03 -1.338414e-02 8.332357e-03 9.249793e-03 -4.958384e-03 -3.241841e-04 1.215168e-02 -2.362053e-02 -1.090508e-02 4.301933e-04 -2.721329e-02
<VARIANCE> 39
 3.677616e+01 3.063497e+01 2.503417e+01 2.645089e+01 1.890978e+01 3.741082e+01 3.006548e+01 2.544220e+01 2.193802e+01 2.105303e+01 1.758771e+01 1.637311e+01 2.834945e+01 9.532450e-01 9.766619e-01 1.175364e+00 1.205551e+00 1.413651e+00 1.731921e+00 1.839126e+00 1.847721e+00 1.836007e+00 1.759095e+00 1.602335e+00 1.453738e+00 6.648709e-01 1.851803e-01 1.789889e-01 2.098254e-01 2.234864e-01 2.711024e-01 3.379143e-01 3.601651e-01 3.705181e-01 3.592060e-01 3.477530e-01 3.171444e-01 2.841975e-01 1.272302e-01
<GCONST> 1.001300e+02
<STATE> 3
<NUMMIXES> 2
<MIXTURE> 1 7.375689e-01
<MEAN> 39
 -1.435570e+01 -8.721211e+00 -5.590963e+00 -2.077656e+00 -1.826245e+00 -4.586846e+00 -2.568053e+00 -2.881792e+00 -1.253121e+00 1.564480e-02 6.130279e-01 2.283425e-02 6.392933e+01 2.113189e-01 3.008437e-01 6.745618e-02 1.369249e-01 1.193047e-01 1.521061e-01 1.486884e-01 1.224378e-01 4.587667e-02 5.817939e-02 2.890433e-02 -1.744541e-03 -6.225551e-01 -2.753863e-02 1.288074e-02 4.127640e-02 -6.182433e-03 -3.196734e-03 2.303423e-02 2.336461e-02 3.769824e-02 6.091400e-03 4.104014e-03 2.857576e-04 -1.010665e-02 2.560987e-03
<VARIANCE> 39
 1.776172e+01 2.591922e+01 1.203098e+01 1.356617e+01 1.681157e+01 1.682279e+01 2.089616e+01 2.019864e+01 1.921821e+01 1.648386e+01 1.537722e+01 1.324662e+01 6.754985e+01 2.267868e-01 3.551449e-01 5.421181e-01 7.310539e-01 9.381879e-01 1.155238e+00 1.343098e+00 1.418162e+00 1.473230e+00 1.391903e+00 1.300932e+00 1.180439e+00 1.687502e-01 4.179781e-02 7.341555e-02 1.108554e-01 1.472639e-01 1.924815e-01 2.379825e-01 2.784328e-01 2.905604e-01 3.075522e-01 2.890698e-01 2.692916e-01 2.425127e-01 3.568993e-02
<GCONST> 8.254893e+01
<MIXTURE> 2 2.624480e-01
<MEAN> 39
 -1.709029e+01 -8.114457e+00 -4.189541e+00 -3.031984e+00 -3.245163e+00 -3.096009e+00 -1.853045e+00 -1.105996e+00 -5.778571e-01 1.383970e-01 6.874682e-01 -5.838796e-01 6.569517e+01 -2.214681e-01 -1.308843e+00 -3.137065e-01 -2.584647e-01 -2.388592e-01 -6.856700e-01 -5.418417e-01 -5.262113e-01 -1.924192e-01 -1.276836e-01 -1.093180e-01 4.459520e-02 1.771404e+00 7.877430e-02 4.054316e-02 -6.023951e-02 2.615108e-02 3.584671e-02 -5.617230e-04 1.749784e-02 -5.583194e-02 1.401945e-03 -2.954424e-03 -3.419252e-03 4.991414e-03 -9.458379e-02
<VARIANCE> 39
 2.289473e+01 6.559271e+01 2.349877e+01 2.421695e+01 2.097793e+01 3.059976e+01 3.063893e+01 2.544007e+01 2.086547e+01 2.020892e+01 1.969769e+01 1.699806e+01 9.278245e+01 1.611308e+00 4.927934e+00 2.409075e+00 1.718151e+00 1.963074e+00 2.727191e+00 2.857031e+00 2.472931e+00 2.036738e+00 1.969669e+00 1.777201e+00 1.724608e+00 3.853189e+00 2.496788e-01 1.019812e+00 4.221494e-01 3.242357e-01 3.596654e-01 5.249819e-01 5.272191e-01 4.688731e-01 3.950861e-01 3.873754e-01 3.500733e-01 3.384501e-01 1.001392e+00
<GCONST> 1.154005e+02
<STATE> 4
<NUMMIXES> 2
<MIXTURE> 1 7.161788e-01
<MEAN> 39
 -2.295357e+01 1.992499e+00 2.972239e+00 1.602921e+00 -2.649703e+00 6.938851e-01 8.277941e+00 5.687639e-01 -2.422430e+00 5.444825e+00 4.877013e-01 -4.085828e+00 5.577573e+01 1.147880e-01 9.790084e-02 4.839805e-02 -2.129392e-02 4.578593e-02 7.069911e-02 4.939885e-02 5.430043e-02 4.887039e-02 8.905180e-03 7.048186e-03 -8.521279e-03 -1.358101e-01 -2.876583e-03 -1.289005e-02 -1.707132e-02 -1.339648e-02 -1.533600e-02 -2.553108e-02 -3.463919e-02 -3.283155e-03 -2.267709e-03 -1.338613e-02 4.474369e-03 1.611881e-02 7.881372e-03
<VARIANCE> 39
 2.454053e+01 1.150779e+01 1.056343e+01 1.562603e+01 1.539954e+01 1.656219e+01 2.264960e+01 1.820566e+01 1.999856e+01 2.014359e+01 1.693662e+01 1.402919e+01 1.744813e+01 3.564204e-01 4.381105e-01 5.582621e-01 8.289970e-01 1.051875e+00 1.212663e+00 1.519891e+00 1.460682e+00 1.532110e+00 1.653190e+00 1.418054e+00 1.252477e+00 2.024791e-01 6.486436e-02 8.533392e-02 1.063998e-01 1.623893e-01 2.070821e-01 2.411277e-01 2.949869e-01 2.950080e-01 3.145963e-01 3.344265e-01 2.859113e-01 2.516944e-01 3.495732e-02
<GCONST> 8.370815e+01
<MIXTURE> 2 2.839107e-01
<MEAN> 39
 -1.781129e+01 -3.126293e+00 -1.408808e+00 -9.109513e-01 -2.924518e+00 -2.900837e+00 2.706773e+00 -9.165015e-01 -1.969539e+00 2.847346e+00 5.726998e-01 -1.687570e+00 5.839249e+01 -1.912380e-01 -2.438603e-01 -9.891617e-02 3.651691e-02 -8.881915e-02 -1.729711e-01 -1.139503e-01 -1.028269e-01 -9.682709e-02 -4.796288e-02 -2.431067e-02 2.503504e-02 2.540547e-01 1.563751e-02 2.915717e-02 3.610601e-02 2.805968e-02 4.125499e-02 6.330363e-02 7.570619e-02 7.062366e-03 7.512753e-03 2.571443e-02 -8.869773e-03 -3.629374e-02 -2.196009e-02
<VARIANCE> 39
 5.219033e+01 5.405597e+01 2.569385e+01 2.244858e+01 2.178656e+01 2.733261e+01 4.112847e+01 2.639906e+01 2.233190e+01 2.582594e+01 1.822685e+01 1.817426e+01 6.097091e+01 7.349102e-01 1.579977e+00 1.046853e+00 1.180703e+00 1.382069e+00 1.595622e+00 2.066844e+00 1.781281e+00 1.712399e+00 1.867157e+00 1.524448e+00 1.441512e+00 1.271505e+00 1.144450e-01 2.635649e-01 1.923853e-01 2.203942e-01 2.688315e-01 3.093879e-01 3.911960e-01 3.570732e-01 3.357718e-01 3.662919e-01 3.034233e-01 2.888538e-01 1.872649e-01
<GCONST> 1.029528e+02
<TRANSP> 5
 0.000000e+00 1.000000e+00 0.000000e+00 0.000000e+00 0.000000e+00
 0.000000e+00 9.940024e-01 5.997619e-03 0.000000e+00 0.000000e+00
 0.000000e+00 0.000000e+00 9.740500e-01 2.594995e-02 0.000000e+00
 0.000000e+00 0.000000e+00 0.000000e+00 9.908804e-01 9.119575e-03
 0.000000e+00 0.000000e+00 0.000000e+00 0.000000e+00 0.000000e+00
<ENDHMM>
~h "kn"
<BEGINHMM>
<NUMSTATES> 5
<STATE> 2
<NUMMIXES> 2
<MIXTURE> 1 3.688994e-01
<MEAN> 39
 3.545562e+00 -1.576575e+00 -7.106071e+00 -3.487576e+00 4.914080e-01 -3.176971e+00 -5.364968e-01 -2.857522e+00 1.888475e+00 -3.514982e-01 5.656219e-01 -7.589650e-01 6.248336e+01 8.938532e-02 1.361286e-01 -1.988225e-01 2.122543e-01 2.731622e-01 -8.400353e-02 5.363506e-01 -1.059437e-01 9.042645e-01 5.729202e-01 6.313358e-01 4.134496e-01 2.143861e+00 -2.964863e-01 3.345291e-01 3.702744e-01 1.200366e-01 1.303327e-01 3.996861e-01 2.148450e-01 2.388114e-01 -1.023070e-01 4.445574e-02 -1.396147e-02 2.323861e-03 -7.580602e-01
<VARIANCE> 39
 2.012330e+01 3.443536e+01 1.870467e+01 1.706354e+01 2.397995e+01 2.651734e+01 2.843295e+01 3.262456e+01 2.930964e+01 2.323108e+01 2.213839e+01 2.003468e+01 4.507608e+01 3.124661e+00 2.357975e+00 2.431036e+00 1.454123e+00 1.791542e+00 3.159032e+00 3.109052e+00 3.497138e+00 2.467515e+00 2.262131e+00 2.206773e+00 1.935917e+00 6.412480e+00 4.127333e-01 2.804351e-01 2.722121e-01 2.368994e-01 2.955159e-01 4.266422e-01 4.977365e-01 6.018815e-01 4.921289e-01 4.469505e-01 4.155721e-01 3.504489e-01 6.026022e-01
<GCONST> 1.139861e+02
<MIXTURE> 2 6.311032e-01
<MEAN> 39
 -1.446099e-01 5.056986e+00 -3.010613e-01 -2.634145e+00 2.162766e+00 1.702947e+00 1.586055e+00 -2.529482e-01 -9.383101e-02 8.326464e-01 3.124725e-01 -1.166777e+00 5.236783e+01 1.349943e-01 -1.203207e-01 -6.822345e-02 5.315310e-02 5.759543e-03 -1.117940e-01 -1.373933e-01 -1.622306e-01 -1.249963e-01 -1.455239e-01 -1.254074e-01 -7.521464e-02 4.168983e-02 1.359311e-01 -1.121120e-01 -1.681583e-01 -3.801392e-02 -4.555287e-02 -1.284318e-01 -1.018903e-01 -7.472350e-02 1.904019e-02 -2.667296e-02 1.064649e-02 1.136407e-02 1.780417e-01
<VARIANCE> 39
 2.887840e+01 1.808754e+01 1.751602e+01 1.049232e+01 2.149118e+01 1.933120e+01 2.757335e+01 3.439543e+01 2.193042e+01 2.038550e+01 2.155273e+01 1.517003e+01 6.937988e+01 9.610403e-01 7.617533e-01 1.189227e+00 8.662587e-01 1.126184e+00 1.657848e+00 1.690534e+00 2.210408e+00 1.548027e+00 1.653102e+00 1.535325e+00 1.335236e+00 1.848410e+00 1.296064e-01 1.080110e-01 1.650202e-01 1.569962e-01 2.080491e-01 2.704419e-01 3.126888e-01 3.580754e-01 3.239085e-01 3.215540e-01 2.999559e-01 2.569802e-01 2.902553e-01
<GCONST> 9.704680e+01
<STATE> 3
<NUMMIXES> 2
<MIXTURE> 1 6.715946e-01
<MEAN> 39
 5.505293e+00 -1.489781e+00 -4.455596e+00 9.134099e-03 3.612768e+00 -7.894872e-01 1.667037e+00 -1.491705e+00 1.896049e+00 7.955750e-01 1.635597e+00 4.644937e-01 6.086528e+01 5.048645e-02 3.102418e-01 2.807829e-01 3.158967e-01 3.167693e-01 4.029605e-01 1.818019e-01 2.398447e-01 -3.400806e-02 1.514154e-01 8.472668e-02 8.587824e-02 -6.934627e-01 6.050800e-03 -1.638358e-02 3.272909e-02 1.160358e-02 1.308288e-02 8.727424e-04 -4.285291e-02 -2.166203e-02 -6.952137e-02 -6.809886e-02 -6.732364e-02 -6.051194e-02 -7.974689e-02
<VARIANCE> 39
 1.188671e+01 2.189647e+01 1.456671e+01 1.459191e+01 1.939731e+01 2.302067e+01 2.099667e+01 1.940310e+01 1.994010e+01 1.869423e+01 1.621916e+01 1.542696e+01 2.753098e+01 2.361027e-01 3.593597e-01 4.835364e-01 7.126247e-01 9.291226e-01 1.095180e+00 1.324566e+00 1.450258e+00 1.448568e+00 1.433069e+00 1.324066e+00 1.223522e+00 1.295448e-01 4.950982e-02 9.859569e-02 1.190049e-01 1.730683e-01 2.168258e-01 2.632373e-01 3.004070e-01 3.198371e-01 3.215410e-01 3.088876e-01 2.850974e-01 2.601452e-01 1.432268e-01
<GCONST> 8.450997e+01
<MIXTURE> 2 3.284170e-01
<MEAN> 39
 5.523134e+00 -1.654611e+00 -3.643536e+00 2.109550e-01 3.779756e+00 -7.949624e-01 8.909397e-01 -1.898407e+00 5.314075e-01 -5.314384e-01 3.961013e-01 -7.375624e-01 5.938729e+01 2.304886e-02 -6.280746e-01 -4.642477e-01 -5.139475e-01 -5.550613e-01 -7.497818e-01 -3.066528e-01 -4.399840e-01 -1.148705e-02 -3.012587e-01 -1.728360e-01 -1.555135e-01 1.178934e+00 -8.940862e-03 1.859491e-02 -6.464611e-02 -2.947594e-02 -3.068475e-02 -8.896351e-03 6.907444e-02 3.979503e-02 1.100048e-01 1.170245e-01 1.152933e-01 1.025001e-01 1.267983e-01
<VARIANCE> 39
 1.194326e+01 2.800138e+01 1.719234e+01 1.695490e+01 2.254111e+01 2.938565e+01 2.513672e+01 2.552358e+01 2.214203e+01 2.165340e+01 1.799125e+01 1.704556e+01 4.164369e+01 7.610514e-01 1.440331e+00 1.103443e+00 1.213835e+00 1.516531e+00 1.892220e+00 2.053887e+00 2.190964e+00 2.166938e+00 1.974011e+00 1.914356e+00 1.633128e+00 3.087363e+00 1.208406e-01 3.257695e-01 2.210771e-01 2.667753e-01 3.228948e-01 4.636976e-01 4.000755e-01 4.700253e-01 3.823189e-01 3.941778e-01 3.609950e-01 3.146168e-01 6.666088e-01
<GCONST> 1.043061e+02
<STATE> 4
<NUMMIXES> 2
<MIXTURE> 1 5.173916e-01
<MEAN> 39
 4.937988e+00 1.172556e-01 -2.302688e+00 1.482576e+00 5.255210e+00 1.606104e+00 2.683460e+00 -3.469988e-01 -3.882732e-02 2.890090e-01 1.092242e+00 -1.341428e-01 5.506327e+01 -7.617911e-02 2.741604e-01 3.275683e-01 1.915081e-01 2.408468e-01 4.382194e-01 1.454467e-01 3.635278e-01 9.318638e-02 1.907278e-01 1.178549e-01 9.109799e-03 -5.956152e-01 -4.273044e-03 2.687074e-02 4.735828e-02 2.624315e-02 2.917940e-02 5.202786e-02 5.774163e-02 7.903484e-02 7.966825e-02 4.731629e-02 2.538477e-02 7.806136e-04 3.370352e-02
<VARIANCE> 39
 8.286013e+00 1.368935e+01 1.248388e+01 1.324797e+01 2.253991e+01 2.300528e+01 2.487092e+01 2.068873e+01 2.361653e+01 2.174927e+01 1.857018e+01 1.723413e+01 2.687251e+01 1.448360e-01 2.551731e-01 4.188496e-01 5.806321e-01 7.991660e-01 9.692743e-01 1.169533e+00 1.249613e+00 1.335002e+00 1.362821e+00 1.285830e+00 1.188961e+00 7.336862e-02 1.871379e-02 4.232798e-02 8.268104e-02 1.245693e-01 1.721513e-01 2.059350e-01 2.441218e-01 2.569735e-01 2.802868e-01 2.847839e-01 2.652133e-01 2.437230e-01 5.674390e-03
<GCONST> 7.487135e+01
<MIXTURE> 2 4.826013e-01
<MEAN> 39
 2.162444e+00 3.098745e+00 7.097992e-01 3.555122e-01 4.451160e+00 3.159443e+00 1.592852e+00 1.698432e+00 -1.963850e-01 4.970285e-02 5.845645e-02 -1.471536e+00 5.081789e+01 -2.640271e-01 7.538285e-03 5.430132e-02 -1.912155e-01 -2.409352e-01 -7.601458e-02 -1.969377e-01 -8.233324e-02 -2.633796e-01 -2.423075e-01 -2.043784e-01 -1.402102e-01 -3.569161e-01 -1.350548e-02 -4.951388e-02 -6.905273e-02 -6.090723e-02 -6.937820e-02 -8.384698e-02 -6.970478e-02 -9.543782e-02 -6.451613e-02 -4.496787e-02 -1.495545e-02 1.895084e-03 1.689089e-02
<VARIANCE> 39
 2.359527e+01 1.699561e+01 1.652743e+01 1.405095e+01 2.192857e+01 2.017792e+01 2.334969e+01 1.979877e+01 2.070104e+01 2.019013e+01 1.629309e+01 1.540580e+01 3.190424e+01 1.657001e-01 2.926460e-01 4.519232e-01 6.390098e-01 8.550901e-01 1.014351e+00 1.247716e+00 1.298806e+00 1.353307e+00 1.438463e+00 1.364179e+00 1.239093e+00 1.200426e-01 2.421779e-02 4.790039e-02 7.977212e-02 1.265354e-01 1.684884e-01 2.010650e-01 2.435613e-01 2.529591e-01 2.606862e-01 2.894111e-01 2.689659e-01 2.417694e-01 8.915152e-03
<GCONST> 7.794995e+01
<TRANSP> 5
 0.000000e+00 1.000000e+00 0.000000e+00 0.000000e+00 0.000000e+00
 0.000000e+00 9.238995e-01 7.610051e-02 0.000000e+00 0.000000e+00
 0.000000e+00 0.000000e+00 9.836685e-01 1.633152e-02 0.000000e+00
 0.000000e+00 0.000000e+00 0.000000e+00 9.568198e-01 4.318016e-02
 0.000000e+00 0.000000e+00 0.000000e+00 0.000000e+00 0.000000e+00
<ENDHMM>
~h "kt"
<BEGINHMM>
<NUMSTATES> 5
<STATE> 2
<NUMMIXES> 2
<MIXTURE> 1 5.022319e-01
<MEAN> 39
 -1.338527e+01 -3.071989e-01 -7.399637e+00 -2.770288e+00 -6.632144e-01 -8.914300e-01 4.247499e+00 1.922408e+00 2.493201e+00 5.121397e-01 8.830371e-01 -9.453039e-01 5.794366e+01 3.529397e-01 -1.036019e-02 2.036665e-01 2.240823e-01 3.338323e-01 3.588341e-01 4.002379e-01 2.542714e-01 2.222340e-01 1.819740e-01 2.001221e-01 7.641856e-02 -2.624660e-01 1.688942e-01 1.715932e-02 1.626480e-02 3.913109e-02 1.321951e-01 1.971126e-01 1.838205e-01 5.115794e-02 -3.092954e-02 1.126218e-02 1.348835e-02 -1.693619e-02 -2.088800e-01
<VARIANCE> 39
 1.615201e+01 7.640997e+00 8.798757e+00 1.291933e+01 1.405380e+01 1.694051e+01 1.820245e+01 1.752857e+01 1.907608e+01 1.648028e+01 1.624933e+01 1.458274e+01 2.472362e+01 5.501328e-01 3.841753e-01 5.647653e-01 8.042156e-01 1.058016e+00 1.313031e+00 1.440216e+00 1.435275e+00 1.534717e+00 1.512669e+00 1.402427e+00 1.249101e+00 8.463876e-01 1.922404e-01 8.955742e-02 1.328960e-01 1.902139e-01 2.416401e-01 2.866085e-01 3.202807e-01 3.213459e-01 3.477439e-01 3.418873e-01 3.160091e-01 2.711797e-01 2.282178e-01
<GCONST> 8.809042e+01
<MIXTURE> 2 4.977587e-01
<MEAN> 39
 -1.041671e+01 -3.886483e-02 -7.237167e+00 -2.355472e+00 9.874187e-01 2.362501e+00 6.718380e+00 2.638707e+00 1.770524e+00 6.115347e-01 1.082931e+00 -1.464572e+00 5.419609e+01 -3.683017e-01 1.753984e-02 -2.126123e-01 -2.163093e-01 -3.367077e-01 -3.718825e-01 -4.066832e-01 -2.602231e-01 -2.278055e-01 -1.913464e-01 -2.023137e-01 -8.045532e-02 2.867508e-01 -1.703631e-01 -1.659522e-02 -1.369463e-02 -3.806199e-02 -1.322922e-01 -2.011447e-01 -1.871023e-01 -5.261464e-02 2.946272e-02 -1.226997e-02 -1.437479e-02 1.737576e-02 2.096376e-01
<VARIANCE> 39
 1.466913e+01 7.636473e+00 7.791986e+00 1.021526e+01 1.117848e+01 1.527039e+01 1.458768e+01 1.505540e+01 1.578955e+01 1.422413e+01 1.400236e+01 1.293101e+01 1.401007e+01 1.510497e+00 5.884747e-01 6.869717e-01 9.799462e-01 1.163544e+00 1.523862e+00 1.534681e+00 1.590043e+00 1.726292e+00 1.609236e+00 1.519642e+00 1.365810e+00 1.677249e+00 1.959230e-01 9.915586e-02 1.327976e-01 1.806967e-01 2.198629e-01 2.666428e-01 2.856412e-01 3.155576e-01 3.311538e-01 3.168394e-01 2.952891e-01 2.604546e-01 1.729181e-01
<GCONST> 8.828943e+01
<STATE> 3
<NUMMIXES> 2
<MIXTURE> 1 6.299070e-01
<MEAN> 39
 -1.231328e+01 1.597162e+00 -3.977197e+00 -1.385085e-01 6.622708e-01 -1.937614e+00 2.658710e+00 1.409259e+00 1.641073e+00 -1.035257e+00 -8.673180e-02 -1.409665e+00 5.362159e+01 4.676575e-01 3.726302e-02 1.429558e-01 5.381995e-02 2.210855e-01 1.992696e-01 2.506897e-01 1.010749e-01 8.614963e-02 1.028225e-01 9.987389e-02 7.007787e-02 -6.964354e-01 -5.001160e-02 4.309185e-02 -2.812346e-02 8.997992e-03 -3.199941e-02 5.797744e-04 -1.570242e-02 5.273214e-02 -1.380714e-02 1.343760e-02 1.572152e-03 -4.568060e-03 -2.245829e-03
<VARIANCE> 39
 6.525081e+00 7.736421e+00 9.268863e+00 1.158206e+01 1.352131e+01 1.429785e+01 1.689722e+01 1.645889e+01 1.778710e+01 1.715631e+01 1.582780e+01 1.354362e+01 1.794105e+01 2.101298e-01 3.086117e-01 5.100124e-01 7.331409e-01 9.519076e-01 1.116435e+00 1.240879e+00 1.344454e+00 1.426471e+00 1.424124e+00 1.338879e+00 1.194800e+00 1.717693e-01 8.569859e-02 7.264954e-02 1.173257e-01 1.628007e-01 2.186439e-01 2.472433e-01 2.830411e-01 2.934390e-01 3.166832e-01 3.150545e-01 2.926711e-01 2.586482e-01 1.390679e-01
<GCONST> 8.011147e+01
<MIXTURE> 2 3.701466e-01
<MEAN> 39
 -1.325803e+01 2.158716e+00 -4.335665e+00 -5.882394e-02 4.139197e-02 -1.923193e+00 2.256479e+00 2.278223e+00 1.529092e+00 -9.180717e-01 -1.722566e-01 -1.628660e+00 5.391077e+01 -7.765185e-01 -4.481072e-02 -2.501639e-01 -7.594015e-02 -3.415894e-01 -3.452225e-01 -3.997830e-01 -1.919016e-01 -1.435969e-01 -1.884557e-01 -1.722028e-01 -1.225179e-01 1.157090e+00 1.104117e-01 -7.490569e-02 5.351683e-02 -2.070927e-02 6.141477e-02 2.046319e-02 4.128561e-02 -7.693235e-02 3.135200e-02 -9.984959e-03 3.349239e-03 1.030209e-02 -3.278331e-02
<VARIANCE> 39
 1.395059e+01 1.092499e+01 1.300657e+01 1.586188e+01 1.740779e+01 1.867992e+01 2.070069e+01 1.989385e+01 2.106658e+01 1.941617e+01 1.818338e+01 1.530411e+01 2.899771e+01 1.111916e+00 8.386490e-01 1.070440e+00 1.399041e+00 1.728193e+00 1.776218e+00 1.950404e+00 2.034602e+00 2.174052e+00 2.075116e+00 1.883503e+00 1.618527e+00 1.690357e+00 3.200346e-01 1.348942e-01 2.052679e-01 2.547390e-01 3.367598e-01 3.581892e-01 3.951957e-01 3.809493e-01 4.026408e-01 3.934737e-01 3.594011e-01 3.129696e-01 5.460598e-01
<GCONST> 1.000933e+02
<STATE> 4
<NUMMIXES> 2
<MIXTURE> 1 6.575927e-01
<MEAN> 39
 -9.610672e+00 2.839439e+00 -2.727801e+00 -7.210176e-01 6.662047e-01 3.976220e-01 3.359998e+00 3.011011e+00 2.302127e+00 -1.789758e-01 1.589435e-01 -1.769207e+00 4.861130e+01 3.304001e-01 -5.588996e-02 2.051376e-01 1.906047e-02 1.306284e-01 2.177837e-01 1.843904e-01 1.821391e-01 9.126163e-02 1.193616e-01 6.865820e-02 3.968808e-02 -3.557534e-01 -4.624792e-02 2.178229e-02 -2.344171e-02 1.356032e-02 -2.828315e-02 -2.885527e-03 -2.841422e-02 1.932713e-02 -7.014418e-03 9.953019e-03 3.765414e-03 -4.724026e-03 3.353790e-02
<VARIANCE> 39
 9.041494e+00 7.963438e+00 1.151399e+01 1.153767e+01 1.608644e+01 1.581292e+01 1.919822e+01 1.664586e+01 1.652810e+01 1.657532e+01 1.410909e+01 1.227604e+01 1.059664e+01 2.395694e-01 3.207602e-01 4.798422e-01 6.824865e-01 8.971338e-01 1.046817e+00 1.222189e+00 1.290489e+00 1.370959e+00 1.376222e+00 1.282297e+00 1.141673e+00 1.500019e-01 6.303127e-02 6.787332e-02 1.060619e-01 1.438092e-01 1.888992e-01 2.241568e-01 2.593305e-01 2.743002e-01 2.874539e-01 2.870902e-01 2.650135e-01 2.344857e-01 3.909899e-02
<GCONST> 7.714930e+01
<MIXTURE> 2 3.424678e-01
<MEAN> 39
 -1.099660e+01 3.191539e+00 -3.394764e+00 -4.320604e-01 -3.930369e-02 -2.550987e-02 2.740960e+00 3.187081e+00 2.271609e+00 -9.906615e-02 2.193927e-01 -1.952917e+00 4.992562e+01 -5.812599e-01 9.019104e-02 -3.685660e-01 -6.406295e-02 -2.479130e-01 -3.886791e-01 -3.432037e-01 -3.311652e-01 -1.738675e-01 -2.140913e-01 -1.252763e-01 -7.577717e-02 6.222441e-01 8.377281e-02 -4.433320e-02 4.252886e-02 -2.575556e-02 5.076522e-02 -1.983028e-03 4.562126e-02 -4.283161e-02 1.099509e-02 -2.105785e-02 -7.647705e-03 1.003549e-02 -5.680581e-02
<VARIANCE> 39
 1.494784e+01 1.230530e+01 1.408383e+01 1.543486e+01 1.908746e+01 1.968324e+01 2.189348e+01 1.994150e+01 2.004354e+01 1.911992e+01 1.636658e+01 1.450045e+01 1.898313e+01 1.130465e+00 8.302739e-01 8.774585e-01 1.213387e+00 1.441154e+00 1.515844e+00 1.663503e+00 1.712525e+00 1.785735e+00 1.723848e+00 1.563407e+00 1.420185e+00 1.254307e+00 2.758617e-01 1.477870e-01 1.920584e-01 2.305884e-01 2.813852e-01 3.215168e-01 3.452137e-01 3.524566e-01 3.580032e-01 3.519199e-01 3.140333e-01 2.863544e-01 3.155131e-01
<GCONST> 9.615914e+01
<TRANSP> 5
 0.000000e+00 1.000000e+00 0.000000e+00 0.000000e+00 0.000000e+00
 0.000000e+00 9.905338e-01 9.466270e-03 0.000000e+00 0.000000e+00
 0.000000e+00 0.000000e+00 9.888668e-01 1.113319e-02 0.000000e+00
 0.000000e+00 0.000000e+00 0.000000e+00 9.925581e-01 7.441894e-03
 0.000000e+00 0.000000e+00 0.000000e+00 0.000000e+00 0.000000e+00
<ENDHMM>
~h "pr"
<BEGINHMM>
<NUMSTATES> 5
<STATE> 2
<NUMMIXES> 2
<MIXTURE> 1 7.157091e-01
<MEAN> 39
 -1.434790e+01 -9.382262e+00 -9.512306e-01 -7.583779e+00 2.188470e+00 5.587250e+00 5.246823e+00 8.582588e-01 -8.683445e-01 -1.372461e+00 4.595150e+00 -2.783368e-01 5.828850e+01 2.072460e-01 1.305424e-01 5.156365e-02 7.371629e-02 1.495761e-02 5.793986e-02 3.643221e-02 7.028212e-02 4.981475e-02 4.477895e-02 2.932072e-03 -1.274401e-02 -2.440664e-01 1.165739e-03 7.375158e-03 2.063525e-02 1.406011e-02 1.019413e-02 6.966382e-03 7.218793e-04 3.593362e-02 2.790584e-02 1.634100e-02 -9.050616e-03 -1.471169e-02 -2.549352e-03
<VARIANCE> 39
 2.942428e+01 4.325335e+01 4.571948e+01 3.471996e+01 5.899108e+01 6.943356e+01 5.810412e+01 6.221056e+01 6.776781e+01 4.054154e+01 6.232526e+01 5.532219e+01 2.504749e+01 1.977411e-01 3.789741e-01 5.724904e-01 8.281949e-01 1.048138e+00 1.317156e+00 1.488059e+00 1.605358e+00 1.726058e+00 1.580048e+00 1.569909e+00 1.390318e+00 1.001885e-01 3.812688e-02 7.065924e-02 1.152688e-01 1.666071e-01 2.106682e-01 2.703252e-01 3.061656e-01 3.273803e-01 3.598024e-01 3.284778e-01 3.322395e-01 2.892735e-01 2.085347e-02
<GCONST> 9.594708e+01
<MIXTURE> 2 2.844525e-01
<MEAN> 39
 -1.551294e+01 -8.705418e+00 -4.791824e-01 -7.282643e+00 3.255665e+00 5.301308e+00 4.034152e+00 1.213115e+00 3.970819e-01 -1.837234e+00 3.739206e+00 -1.708724e-01 5.886526e+01 -6.103542e-01 -3.623993e-01 -9.188518e-02 -2.116195e-01 -6.339490e-03 -1.107564e-01 -6.671973e-02 -2.191165e-01 -9.046333e-02 -1.341869e-01 -4.027161e-02 1.511966e-01 6.951498e-01 3.605377e-02 -7.896736e-03 -5.345901e-02 -2.097107e-02 -3.946910e-02 -2.389636e-02 -1.286696e-02 -7.621703e-02 -6.130779e-02 -3.437524e-02 1.201003e-02 2.419194e-02 -2.845766e-02
<VARIANCE> 39
 3.033065e+01 4.553546e+01 5.392496e+01 4.004661e+01 6.224386e+01 7.159386e+01 6.217705e+01 6.041242e+01 5.586494e+01 3.754042e+01 4.917402e+01 5.479833e+01 2.488658e+01 1.425920e+00 1.378968e+00 1.882679e+00 2.192840e+00 2.487911e+00 3.066940e+00 3.153291e+00 3.571449e+00 3.383086e+00 2.978154e+00 3.391051e+00 3.053124e+00 9.520640e-01 2.533584e-01 2.262847e-01 2.694556e-01 3.364724e-01 3.841966e-01 4.621234e-01 5.173561e-01 5.305390e-01 5.308505e-01 4.682605e-01 5.112268e-01 4.592260e-01 1.996498e-01
<GCONST> 1.203930e+02
<STATE> 3
<NUMMIXES> 2
<MIXTURE> 1 5.395764e-01
<MEAN> 39
 -2.164211e+01 4.667555e+00 1.657822e+01 -1.495387e+01 3.686144e-01 1.515040e+01 -5.474272e+00 -5.544085e+00 1.495213e+01 -7.271307e+00 -7.147845e+00 8.608259e+00 5.470676e+01 7.707804e-02 2.122302e-02 1.380330e-01 3.123609e-02 1.468521e-01 1.470225e-01 1.331959e-01 1.727496e-01 1.193508e-01 1.457877e-01 -5.174825e-02 8.379293e-02 -6.310713e-02 -3.449865e-02 2.216738e-02 3.408208e-03 4.778137e-03 8.267935e-02 -1.910347e-02 4.688852e-02 8.884171e-02 -3.340125e-02 4.055091e-02 5.347776e-02 -9.171719e-03 2.832806e-02
<VARIANCE> 39
 8.497747e+00 1.119277e+01 9.026748e+00 1.508852e+01 1.604294e+01 1.812745e+01 1.507125e+01 1.835182e+01 2.139598e+01 2.066257e+01 2.303604e+01 1.390444e+01 6.118516e+00 7.663483e-01 4.319137e-01 4.760742e-01 7.323771e-01 1.306360e+00 1.243018e+00 1.066563e+00 1.405595e+00 1.645662e+00 1.625091e+00 1.948550e+00 1.011587e+00 2.766968e-01 1.936705e-01 9.306775e-02 1.029372e-01 1.618193e-01 2.716846e-01 2.732863e-01 2.271995e-01 2.953039e-01 3.483383e-01 3.214269e-01 3.689866e-01 2.046543e-01 7.058658e-02
<GCONST> 8.438474e+01
<MIXTURE> 2 4.604455e-01
<MEAN> 39
 -1.685457e+01 7.098387e-01 1.727714e+01 -1.850891e+01 5.270016e+00 1.167009e+01 -5.252876e+00 7.616347e-01 9.529010e+00 -4.304700e-01 -1.082545e+01 1.027802e+01 5.116548e+01 6.304114e-02 -8.960067e-02 -2.044543e-01 -2.552136e-02 -1.298126e-01 -2.637980e-01 -1.848360e-01 -1.098288e-01 -2.041938e-01 -9.661698e-02 1.032861e-02 -1.089936e-01 -5.021265e-02 4.146587e-02 -2.297110e-02 -1.755846e-02 -2.795281e-03 -8.858473e-02 4.964011e-03 -5.325817e-02 -8.812627e-02 1.826225e-02 -5.164244e-02 -4.511254e-02 -2.540605e-03 -3.541359e-02
<VARIANCE> 39
 2.304864e+01 1.965388e+01 2.381659e+01 3.990039e+01 2.399700e+01 2.653668e+01 1.895820e+01 3.046796e+01 3.595754e+01 3.958655e+01 4.143258e+01 2.224396e+01 1.984914e+01 3.692586e-01 4.957105e-01 5.693137e-01 9.597226e-01 1.082456e+00 1.230604e+00 1.207604e+00 1.399343e+00 1.520001e+00 1.551933e+00 1.583409e+00 1.151716e+00 1.838087e-01 7.694489e-02 9.053292e-02 1.091683e-01 1.704782e-01 2.133815e-01 2.441216e-01 2.370004e-01 2.719173e-01 3.107950e-01 2.870109e-01 2.968540e-01 2.274698e-01 3.539648e-02
<GCONST> 8.971375e+01
<STATE> 4
<NUMMIXES> 2
<MIXTURE> 1 3.848783e-01
<MEAN> 39
 -1.667042e+01 -2.793949e+00 7.693418e+00 -9.632666e+00 4.732984e+00 2.191733e+00 -1.678387e+00 3.170527e+00 6.288378e+00 -3.586786e+00 -5.531104e+00 6.485489e+00 5.358732e+01 1.985303e-02 4.956267e-02 9.794490e-02 1.119772e-01 1.346695e-01 1.684568e-01 1.804111e-01 1.437313e-01 1.645030e-01 1.338926e-01 8.778790e-02 3.712016e-02 3.716661e-02 1.862868e-02 3.585029e-02 5.307504e-02 6.999794e-02 7.737675e-02 7.427845e-02 1.104423e-01 1.034661e-01 7.039936e-02 7.264106e-02 5.080466e-02 2.327892e-02 -1.023232e-03
<VARIANCE> 39
 3.836411e+01 5.405930e+01 5.957665e+01 6.032579e+01 4.822914e+01 1.439715e+02 3.355733e+01 6.530838e+01 7.171739e+01 4.229122e+01 4.961879e+01 4.603020e+01 3.616802e+01 6.397278e-01 5.010549e-01 8.227518e-01 1.167390e+00 1.359472e+00 1.559425e+00 1.522376e+00 1.805219e+00 1.815897e+00 1.879075e+00 1.828158e+00 1.461751e+00 3.239785e-01 1.202867e-01 9.278033e-02 1.493004e-01 2.101273e-01 2.645477e-01 3.052014e-01 2.967296e-01 3.383381e-01 3.562312e-01 3.618581e-01 3.481169e-01 2.743335e-01 5.645861e-02
<GCONST> 1.050021e+02
<MIXTURE> 2 6.151048e-01
<MEAN> 39
 -1.284004e+01 -5.786315e+00 1.977723e+00 -4.657729e+00 3.304450e+00 -2.568398e+00 4.989664e+00 7.515153e+00 2.147149e+00 -1.070147e+00 -2.213528e+00 2.213788e+00 5.411788e+01 3.680386e-02 1.062198e-02 -9.366354e-02 -4.256503e-02 -1.152234e-01 -1.113850e-01 -9.013234e-02 -8.906530e-02 -1.055673e-01 -7.790264e-02 -3.799171e-02 -5.409367e-02 -7.225831e-02 -1.280914e-02 -2.190294e-02 -3.181022e-02 -4.522502e-02 -4.810957e-02 -4.249607e-02 -6.827626e-02 -6.530559e-02 -4.382176e-02 -4.367838e-02 -3.109415e-02 -1.455774e-02 1.175977e-03
<VARIANCE> 39
 3.786521e+01 4.979743e+01 4.272219e+01 4.260884e+01 9.447493e+01 6.826826e+01 7.464809e+01 4.809743e+01 3.309788e+01 4.366928e+01 4.958624e+01 6.390838e+01 5.512048e+01 1.354805e-01 3.144786e-01 5.009546e-01 7.383847e-01 9.524289e-01 1.256966e+00 1.341297e+00 1.418948e+00 1.500725e+00 1.498558e+00 1.296795e+00 1.169783e+00 5.611809e-02 2.320715e-02 5.325654e-02 9.105015e-02 1.342767e-01 1.826462e-01 2.375396e-01 2.596242e-01 2.656867e-01 2.855265e-01 2.938122e-01 2.552378e-01 2.304929e-01 8.495746e-03
<GCONST> 9.105943e+01
<TRANSP> 5
 0.000000e+00 1.000000e+00 0.000000e+00 0.000000e+00 0.000000e+00
 0.000000e+00 9.915543e-01 8.445729e-03 0.000000e+00 0.000000e+00
 0.000000e+00 0.000000e+00 9.846854e-01 1.531458e-02 0.000000e+00
 0.000000e+00 0.000000e+00 0.000000e+00 9.946328e-01 5.367197e-03
 0.000000e+00 0.000000e+00 0.000000e+00 0.000000e+00 0.000000e+00
<ENDHMM>
~h "pw"
<BEGINHMM>
<NUMSTATES> 5
<STATE> 2
<NUMMIXES> 2
<MIXTURE> 1 6.853896e-01
<MEAN> 39
 -1.253856e+01 -1.946294e+00 -1.076652e+00 -1.227827e+00 1.704825e+00 -5.396663e-01 2.784110e+00 1.433095e+00 1.072870e+00 9.949191e-01 5.498577e-01 -5.690936e-01 5.253780e+01 1.140488e-01 2.151123e-01 4.996470e-02 3.457510e-02 5.211539e-02 1.074145e-01 1.074150e-01 1.424370e-01 6.507232e-02 5.061451e-02 1.806065e-02 4.434278e-03 -2.534475e-01 -2.713001e-02 -1.616542e-02 -8.913530e-03 -1.336014e-02 -2.617088e-02 -3.018035e-02 -3.251578e-02 -2.349021e-02 -2.234271e-02 -1.007611e-02 -3.411124e-03 -3.215980e-03 2.843577e-02
<VARIANCE> 39
 1.523756e+01 2.164090e+01 1.120643e+01 1.150182e+01 1.354610e+01 1.558442e+01 1.834426e+01 1.868569e+01 1.720831e+01 1.482203e+01 1.379014e+01 1.252109e+01 2.220467e+01 2.942944e-01 4.068896e-01 5.154626e-01 7.222162e-01 9.320315e-01 1.104620e+00 1.259346e+00 1.352323e+00 1.390949e+00 1.354772e+00 1.284256e+00 1.151695e+00 1.900439e-01 4.700885e-02 7.612561e-02 1.014607e-01 1.431188e-01 1.862037e-01 2.232739e-01 2.575504e-01 2.751062e-01 2.861411e-01 2.780315e-01 2.625373e-01 2.361418e-01 2.544345e-02
<GCONST> 7.945709e+01
<MIXTURE> 2 3.148140e-01
<MEAN> 39
 -1.434484e+01 -5.406117e+00 -2.279486e+00 -2.054699e+00 5.616739e-01 -2.602386e+00 1.103584e+00 -6.154670e-01 2.722554e-02 3.658146e-01 4.938629e-01 -5.526989e-01 5.764647e+01 -2.578831e-01 -4.837177e-01 -1.032537e-01 -7.677603e-02 -1.160910e-01 -2.491074e-01 -2.383043e-01 -3.184171e-01 -1.476876e-01 -1.080274e-01 -4.164258e-02 -5.642384e-03 5.735795e-01 5.758609e-02 3.051423e-02 1.822637e-02 2.689753e-02 5.271365e-02 6.056252e-02 6.533290e-02 4.758495e-02 4.637647e-02 2.109756e-02 8.215242e-03 6.839702e-03 -5.090142e-02
<VARIANCE> 39
 2.277155e+01 3.241575e+01 1.629372e+01 1.641813e+01 1.891572e+01 2.612958e+01 2.468282e+01 2.745212e+01 2.126388e+01 1.860271e+01 1.710299e+01 1.468887e+01 4.933523e+01 1.046138e+00 1.502194e+00 1.078478e+00 1.215975e+00 1.507295e+00 1.744362e+00 1.845872e+00 1.912030e+00 1.836105e+00 1.699841e+00 1.582183e+00 1.408330e+00 2.034556e+00 1.867224e-01 2.852968e-01 1.977268e-01 2.333892e-01 2.940486e-01 3.484603e-01 3.684076e-01 3.925269e-01 3.696776e-01 3.483111e-01 3.237709e-01 2.852156e-01 3.718878e-01
<GCONST> 1.019567e+02
<STATE> 3
<NUMMIXES> 2
<MIXTURE> 1 7.707587e-01
<MEAN> 39
 -1.024922e+01 -7.633544e+00 -4.309810e+00 -3.011925e+00 -3.103239e-02 -5.749241e+00 -1.972998e+00 -4.848562e+00 -2.869841e+00 -1.353426e+00 -2.662497e-01 -2.436603e-01 6.171781e+01 1.386993e-01 2.591975e-01 8.182517e-02 1.157781e-01 1.461772e-01 1.944901e-01 1.432161e-01 1.601108e-01 3.401616e-02 5.102065e-02 1.879785e-02 3.613912e-02 -7.328738e-01 -2.792357e-02 1.488064e-02 2.142563e-02 1.041456e-04 -1.079960e-02 1.484237e-02 8.287658e-03 2.791516e-02 8.769813e-03 7.323661e-03 1.555672e-03 -5.862906e-03 1.319092e-02
<VARIANCE> 39
 1.910774e+01 2.369321e+01 1.237353e+01 1.280367e+01 1.631848e+01 2.095065e+01 2.070172e+01 2.411791e+01 1.883002e+01 1.674239e+01 1.502615e+01 1.341460e+01 6.591404e+01 2.242614e-01 3.230607e-01 4.632698e-01 6.643768e-01 8.733017e-01 1.074492e+00 1.233615e+00 1.349568e+00 1.420167e+00 1.359635e+00 1.280882e+00 1.166178e+00 1.269137e-01 3.876017e-02 6.270549e-02 9.480204e-02 1.363812e-01 1.807253e-01 2.228506e-01 2.560770e-01 2.793310e-01 2.969112e-01 2.838622e-01 2.657634e-01 2.437174e-01 3.004845e-02
<GCONST> 8.085819e+01
<MIXTURE> 2 2.292566e-01
<MEAN> 39
 -1.300136e+01 -6.233456e+00 -2.877712e+00 -3.683162e+00 -1.308166e+00 -4.790098e+00 -1.155527e+00 -2.892662e+00 -1.761353e+00 -8.909290e-01 -1.373782e-01 -9.028718e-01 6.380440e+01 -3.921022e-01 -1.045038e+00 -3.375010e-01 -3.281986e-01 -4.632713e-01 -7.999764e-01 -6.699353e-01 -7.619873e-01 -2.382829e-01 -2.378059e-01 -4.893600e-02 -6.733864e-02 2.600778e+00 1.271079e-01 7.416653e-03 -5.856955e-02 1.478361e-02 8.317236e-02 2.778294e-02 5.174242e-02 -2.032749e-02 1.506787e-02 3.175561e-04 -5.351379e-03 1.117753e-02 -1.692785e-01
<VARIANCE> 39
 2.168401e+01 3.557536e+01 1.748119e+01 1.738248e+01 2.279973e+01 3.096307e+01 3.021005e+01 3.173444e+01 2.225461e+01 2.007575e+01 1.838021e+01 1.618933e+01 1.293384e+02 1.647219e+00 2.548877e+00 1.590533e+00 1.599350e+00 2.267502e+00 2.714502e+00 2.931071e+00 2.744576e+00 2.244849e+00 2.087163e+00 1.831669e+00 1.733821e+00 8.845898e+00 2.827503e-01 5.435902e-01 2.788101e-01 3.012323e-01 4.441057e-01 5.589176e-01 5.949404e-01 5.561927e-01 4.348720e-01 4.146310e-01 3.622049e-01 3.459859e-01 2.257319e+00
<GCONST> 1.154529e+02
<STATE> 4
<NUMMIXES> 2
<MIXTURE> 1 6.805136e-01
<MEAN> 39
 -1.134915e+01 -2.613247e+00 -3.161630e+00 -2.829705e+00 8.209413e-01 3.955350e-01 3.862730e+00 1.324585e+00 6.742112e-01 7.232283e-01 2.835124e-01 -1.099329e+00 5.366861e+01 1.450213e-01 1.855195e-01 5.434033e-03 2.180231e-02 7.674679e-02 1.687346e-01 1.635883e-01 1.550373e-01 8.192544e-02 6.954994e-02 2.152307e-02 -8.423788e-03 -2.632962e-01 -2.899826e-02 -1.428655e-02 -1.540204e-03 -1.047315e-02 -2.376929e-02 -3.349157e-02 -3.732814e-02 -2.400811e-02 -2.300438e-02 -1.061059e-02 -1.603906e-03 9.242946e-05 2.977734e-02
<VARIANCE> 39
 1.358782e+01 1.631951e+01 1.081361e+01 1.084564e+01 1.183424e+01 1.667940e+01 1.770230e+01 1.687543e+01 1.581447e+01 1.447656e+01 1.344779e+01 1.253607e+01 1.816862e+01 2.741474e-01 3.667440e-01 5.005093e-01 6.930020e-01 9.046204e-01 1.094765e+00 1.246695e+00 1.346490e+00 1.383293e+00 1.355728e+00 1.303733e+00 1.180058e+00 1.602207e-01 4.442758e-02 6.840366e-02 9.896675e-02 1.378455e-01 1.835080e-01 2.235805e-01 2.545089e-01 2.737584e-01 2.833914e-01 2.785239e-01 2.680781e-01 2.409964e-01 2.171702e-02
<GCONST> 7.761278e+01
<MIXTURE> 2 3.196675e-01
<MEAN> 39
 -1.396751e+01 -5.324052e+00 -3.198726e+00 -3.296216e+00 -2.502580e-01 -2.096254e+00 1.529160e+00 -5.213084e-01 -3.099993e-01 1.011044e-01 3.431835e-01 -8.624741e-01 5.854570e+01 -2.808043e-01 -3.708267e-01 -3.602877e-04 -5.278870e-02 -1.581554e-01 -3.156475e-01 -3.059401e-01 -2.750564e-01 -1.389230e-01 -1.363797e-01 -4.431356e-02 4.824907e-03 4.973192e-01 6.515023e-02 2.646056e-02 4.212102e-04 2.132765e-02 4.751776e-02 6.469685e-02 7.161519e-02 4.304462e-02 4.379213e-02 1.916106e-02 1.919917e-03 1.243195e-03 -6.107836e-02
<VARIANCE> 39
 1.774784e+01 2.560586e+01 1.392187e+01 1.494584e+01 1.654175e+01 2.491536e+01 2.475003e+01 2.553147e+01 2.088138e+01 1.803904e+01 1.574943e+01 1.430474e+01 4.327543e+01 9.671793e-01 1.251991e+00 9.637818e-01 1.146462e+00 1.379355e+00 1.665857e+00 1.842823e+00 1.835436e+00 1.773515e+00 1.659616e+00 1.553318e+00 1.387247e+00 1.659816e+00 1.708225e-01 2.335807e-01 1.768934e-01 2.211264e-01 2.741669e-01 3.407818e-01 3.754612e-01 3.774697e-01 3.623257e-01 3.413568e-01 3.172802e-01 2.849486e-01 2.897120e-01
<GCONST> 9.889701e+01
<TRANSP> 5
 0.000000e+00 1.000000e+00 0.000000e+00 0.000000e+00 0.000000e+00
 0.000000e+00 9.965715e-01 3.428547e-03 0.000000e+00 0.000000e+00
 0.000000e+00 0.000000e+00 9.866810e-01 1.331901e-02 0.000000e+00
 0.000000e+00 0.000000e+00 0.000000e+00 9.958562e-01 4.143891e-03
 0.000000e+00 0.000000e+00 0.000000e+00 0.000000e+00 0.000000e+00
<ENDHMM>
~h "si"
<BEGINHMM>
<NUMSTATES> 5
<STATE> 2
<NUMMIXES> 2
<MIXTURE> 1 7.086790e-01
<MEAN> 39
 -8.513336e+00 2.091996e+00 1.065520e+00 -1.698394e+00 2.188540e+00 2.112010e+00 2.419102e+00 3.463796e+00 1.185851e+00 3.984131e-01 2.769426e-01 -1.368237e+00 4.760462e+01 3.489893e-02 6.962503e-02 3.238788e-02 5.900753e-02 8.776701e-02 1.362179e-01 1.226263e-01 1.497474e-01 8.210640e-02 6.667946e-02 4.125270e-02 1.986898e-03 -1.006435e-01 -9.402897e-03 -1.352972e-02 -1.271817e-02 -1.547607e-02 -2.130346e-02 -2.224733e-02 -1.735403e-02 -1.717476e-02 -6.168487e-03 -1.260053e-03 -8.116385e-04 2.466556e-04 9.543655e-03
<VARIANCE> 39
 2.178982e+01 1.010928e+01 1.384164e+01 1.370306e+01 1.589355e+01 1.640747e+01 2.491906e+01 1.861419e+01 1.801200e+01 1.591931e+01 1.456191e+01 1.294058e+01 1.712863e+01 1.477927e-01 2.536084e-01 4.121284e-01 6.117831e-01 8.019720e-01 9.874821e-01 1.144199e+00 1.236568e+00 1.285994e+00 1.300780e+00 1.225572e+00 1.085935e+00 7.088698e-02 2.345974e-02 4.582127e-02 8.006462e-02 1.213396e-01 1.614481e-01 1.989706e-01 2.330213e-01 2.504731e-01 2.613580e-01 2.636084e-01 2.466704e-01 2.179296e-01 8.222531e-03
<GCONST> 7.321637e+01
<MIXTURE> 2 2.921709e-01
<MEAN> 39
 -9.467898e+00 -3.894907e-01 -1.018397e-01 -2.519436e+00 1.705380e-01 -3.183925e-01 1.667766e+00 1.118085e+00 1.073765e+00 4.193932e-01 2.834575e-01 -9.128176e-01 5.076663e+01 -8.062588e-02 -1.702629e-01 -1.099552e-01 -1.744586e-01 -2.360221e-01 -3.013490e-01 -2.439555e-01 -2.904325e-01 -1.713583e-01 -1.159997e-01 -8.227117e-02 -1.863758e-02 1.381305e-01 2.721551e-02 3.177188e-02 2.410313e-02 3.132581e-02 4.772884e-02 5.789047e-02 4.568046e-02 4.773711e-02 1.654397e-02 4.595866e-03 1.302256e-03 -4.356210e-03 -2.559077e-02
<VARIANCE> 39
 2.420920e+01 2.303106e+01 2.121808e+01 1.977333e+01 2.545675e+01 2.522005e+01 2.791470e+01 2.680715e+01 2.344505e+01 2.108024e+01 2.062103e+01 1.711130e+01 2.820755e+01 6.268416e-01 8.778929e-01 8.339010e-01 1.040347e+00 1.299181e+00 1.490603e+00 1.616201e+00 1.698272e+00 1.668725e+00 1.620261e+00 1.522608e+00 1.312250e+00 6.969790e-01 1.021291e-01 1.565167e-01 1.541277e-01 2.021873e-01 2.522900e-01 3.004322e-01 3.213684e-01 3.478911e-01 3.370046e-01 3.268504e-01 3.073260e-01 2.673880e-01 1.092072e-01
<GCONST> 9.549339e+01
<STATE> 3
<NUMMIXES> 2
<MIXTURE> 1 5.004917e-01
<MEAN> 39
 -4.916476e+00 -3.457896e-02 -1.670424e+00 -3.103594e+00 3.427506e-01 2.284937e+00 2.850591e+00 4.104702e+00 8.592449e-01 5.755129e-01 -6.019862e-02 -2.105649e+00 4.507642e+01 7.148107e-02 1.489179e-01 2.143255e-01 2.851198e-01 3.350190e-01 3.596489e-01 3.556208e-01 3.488722e-01 3.028972e-01 2.442270e-01 1.662062e-01 7.206343e-02 1.084044e-02 1.582743e-02 2.869184e-02 4.021103e-02 5.004389e-02 5.457754e-02 5.923679e-02 6.185003e-02 5.202753e-02 5.127841e-02 4.363676e-02 2.827134e-02 1.181983e-02 1.015473e-02
<VARIANCE> 39
 4.336356e+00 1.211069e+01 1.232520e+01 1.012005e+01 1.657509e+01 1.503784e+01 1.666356e+01 1.807469e+01 1.666725e+01 1.620774e+01 1.421858e+01 1.277916e+01 1.020426e+01 1.169657e-01 2.305227e-01 3.915679e-01 5.684418e-01 7.681074e-01 9.434478e-01 1.102269e+00 1.210191e+00 1.265524e+00 1.303488e+00 1.246469e+00 1.116208e+00 3.727488e-02 2.312070e-02 4.984793e-02 8.917972e-02 1.330169e-01 1.799154e-01 2.179867e-01 2.497368e-01 2.721448e-01 2.798540e-01 2.824894e-01 2.629718e-01 2.312934e-01 6.733914e-03
<GCONST> 6.974101e+01
<MIXTURE> 2 4.988725e-01
<MEAN> 39
 -4.595345e+00 -3.583409e-03 -1.448138e+00 -2.581419e+00 9.761121e-01 3.279979e+00 3.946462e+00 4.638453e+00 1.534641e+00 1.277924e+00 3.441643e-01 -2.001725e+00 4.561078e+01 -7.639757e-02 -1.463385e-01 -2.336319e-01 -3.010670e-01 -3.493714e-01 -3.613072e-01 -3.625296e-01 -3.441944e-01 -3.078202e-01 -2.458122e-01 -1.652415e-01 -7.512680e-02 -2.730293e-02 -2.086269e-02 -2.932812e-02 -3.894252e-02 -4.933919e-02 -5.559337e-02 -6.524549e-02 -6.606798e-02 -5.887605e-02 -5.316425e-02 -4.525378e-02 -2.792073e-02 -8.878098e-03 -5.397731e-03
<VARIANCE> 39
 4.887104e+00 1.311560e+01 1.229512e+01 9.996853e+00 1.585464e+01 1.512289e+01 1.688849e+01 1.794050e+01 1.646751e+01 1.600025e+01 1.418802e+01 1.275968e+01 1.097261e+01 1.317686e-01 2.480689e-01 4.057170e-01 5.779843e-01 7.806908e-01 9.638581e-01 1.118950e+00 1.232764e+00 1.285386e+00 1.322748e+00 1.263504e+00 1.130582e+00 4.762584e-02 2.468643e-02 5.061360e-02 8.683618e-02 1.284338e-01 1.748554e-01 2.153577e-01 2.472897e-01 2.698622e-01 2.758377e-01 2.792898e-01 2.621534e-01 2.310021e-01 7.973853e-03
<GCONST> 7.065314e+01
<STATE> 4
<NUMMIXES> 2
<MIXTURE> 1 7.634146e-01
<MEAN> 39
 -8.268265e+00 -8.676378e-01 -1.871832e+00 -2.860765e+00 -7.179078e-02 8.173646e-01 3.372120e+00 2.332196e+00 1.572040e+00 8.685861e-01 4.518377e-01 -1.279737e+00 4.986422e+01 5.989402e-02 8.179624e-02 1.538724e-02 4.386630e-02 5.355266e-02 9.812081e-02 7.012395e-02 8.163638e-02 3.954058e-02 3.511135e-02 1.319588e-02 -5.762743e-03 -1.153744e-01 -1.208487e-02 -1.032713e-02 -4.717228e-03 -8.250418e-03 -1.021699e-02 -1.038379e-02 -1.149962e-02 -9.111180e-03 -5.454391e-03 -4.270729e-03 -2.209403e-03 -1.761094e-03 1.546887e-02
<VARIANCE> 39
 1.583507e+01 1.270446e+01 1.278185e+01 1.283705e+01 1.555870e+01 1.772591e+01 1.863314e+01 1.913997e+01 1.819190e+01 1.650032e+01 1.529484e+01 1.358461e+01 2.078065e+01 2.025734e-01 3.079691e-01 4.709572e-01 6.842014e-01 8.960456e-01 1.088866e+00 1.247020e+00 1.345332e+00 1.379236e+00 1.376457e+00 1.299095e+00 1.160192e+00 1.203289e-01 3.103611e-02 5.612651e-02 9.153977e-02 1.343581e-01 1.789529e-01 2.190955e-01 2.516832e-01 2.720867e-01 2.796667e-01 2.785470e-01 2.624067e-01 2.338777e-01 1.358387e-02
<GCONST> 7.685950e+01
<MIXTURE> 2 2.374416e-01
<MEAN> 39
 -1.046461e+01 -3.003395e+00 -1.843779e+00 -3.519799e+00 -8.330954e-01 -1.244118e+00 2.030916e+00 8.541412e-01 9.203414e-01 1.782119e-01 4.150413e-01 -9.085777e-01 5.444988e+01 -2.624335e-01 -2.754549e-01 -4.011437e-02 -1.437287e-01 -1.777693e-01 -3.444262e-01 -2.376388e-01 -3.013390e-01 -1.139774e-01 -1.037343e-01 -2.314215e-02 4.542540e-02 4.976206e-01 4.558853e-02 3.445594e-02 1.890081e-02 3.005517e-02 3.760587e-02 4.304158e-02 4.141280e-02 3.580401e-02 1.949087e-02 1.481850e-02 6.363118e-03 1.814401e-03 -4.856586e-02
<VARIANCE> 39
 2.977999e+01 3.439891e+01 2.163268e+01 2.372227e+01 2.764671e+01 2.823955e+01 2.913399e+01 3.291859e+01 2.635719e+01 2.237636e+01 2.129421e+01 2.028959e+01 5.142009e+01 1.114589e+00 1.266458e+00 1.062634e+00 1.297088e+00 1.547128e+00 1.768570e+00 1.917757e+00 2.088653e+00 1.919651e+00 1.822764e+00 1.684128e+00 1.466017e+00 1.667323e+00 1.881073e-01 2.254474e-01 1.900916e-01 2.442123e-01 2.951925e-01 3.527780e-01 3.757270e-01 4.216961e-01 3.772578e-01 3.652403e-01 3.360084e-01 2.953774e-01 2.921417e-01
<GCONST> 1.046341e+02
<TRANSP> 5
 0.000000e+00 1.000000e+00 0.000000e+00 0.000000e+00 0.000000e+00
 0.000000e+00 9.859347e-01 1.406530e-02 0.000000e+00 0.000000e+00
 0.000000e+00 0.000000e+00 9.916565e-01 8.343514e-03 0.000000e+00
 0.000000e+00 0.000000e+00 0.000000e+00 9.883154e-01 1.168468e-02
 0.000000e+00 0.000000e+00 0.000000e+00 0.000000e+00 0.000000e+00
<ENDHMM>
~h "st"
<BEGINHMM>
<NUMSTATES> 5
<STATE> 2
<NUMMIXES> 2
<MIXTURE> 1 6.501793e-01
<MEAN> 39
 -9.455607e+00 -5.109714e+00 -1.383152e+00 -8.916428e+00 -3.432407e+00 -5.749652e+00 -2.980926e-01 7.546459e-01 1.605046e+00 5.010002e-03 1.071961e+00 -1.705773e+00 6.222067e+01 2.871466e-02 9.535935e-02 2.702738e-01 1.628730e-01 3.128552e-01 2.078099e-01 1.623052e-01 8.510669e-02 1.180205e-01 5.948520e-02 9.062732e-02 1.652196e-01 -3.540791e-01 7.776918e-02 1.035716e-01 -6.970483e-02 1.692383e-01 6.914203e-02 1.607712e-01 1.253247e-01 9.241072e-03 -2.683771e-02 -3.558944e-03 -3.594558e-02 -3.450985e-02 -2.865699e-01
<VARIANCE> 39
 2.070652e+01 2.969216e+01 1.627321e+01 3.082426e+01 2.583602e+01 3.497773e+01 2.640969e+01 2.352088e+01 2.169541e+01 2.073352e+01 1.953145e+01 1.432584e+01 8.200041e+01 4.122890e-01 5.556175e-01 7.862142e-01 1.067801e+00 1.225357e+00 1.422808e+00 1.590159e+00 1.750889e+00 1.714591e+00 1.648545e+00 1.595884e+00 1.412286e+00 6.303849e-01 9.741671e-02 1.776965e-01 1.427113e-01 2.705055e-01 2.669065e-01 3.678344e-01 3.284910e-01 3.309511e-01 3.292227e-01 3.160264e-01 3.020458e-01 2.613629e-01 4.056916e-01
<GCONST> 9.747063e+01
<MIXTURE> 2 3.498170e-01
<MEAN> 39
 -8.927686e+00 -4.107074e+00 -2.920798e+00 -7.384655e+00 -2.715008e+00 -3.213554e+00 1.258600e+00 6.937448e-01 1.114280e+00 2.210924e-01 8.370129e-01 -1.903087e+00 5.920683e+01 -6.194480e-01 -1.425103e+00 4.091659e-02 -1.411908e+00 -9.823155e-01 -1.874565e+00 -1.067194e+00 -4.037451e-01 -1.196605e-01 -2.694608e-01 -1.998466e-02 -1.376863e-01 3.384609e+00 7.710276e-02 1.258031e-01 1.542975e-01 5.782220e-02 1.181826e-01 1.482694e-01 7.627556e-02 1.110615e-01 8.325421e-02 5.731863e-02 3.420927e-02 5.799825e-02 -2.281861e-01
<VARIANCE> 39
 2.553988e+01 3.186875e+01 2.030205e+01 2.792195e+01 2.507606e+01 3.815169e+01 2.873261e+01 2.598659e+01 2.264200e+01 1.914279e+01 1.833134e+01 1.575149e+01 8.487519e+01 2.035793e+00 2.132580e+00 1.785537e+00 2.376302e+00 2.444015e+00 2.813740e+00 2.568423e+00 2.940685e+00 2.671077e+00 2.338237e+00 2.170166e+00 1.776067e+00 3.577863e+00 2.474139e-01 3.850735e-01 2.673334e-01 4.507630e-01 4.491042e-01 6.596494e-01 4.896601e-01 4.837570e-01 4.198382e-01 3.773949e-01 3.418275e-01 3.167690e-01 1.191830e+00
<GCONST> 1.146825e+02
<STATE> 3
<NUMMIXES> 2
<MIXTURE> 1 7.636150e-01
<MEAN> 39
 -7.890508e+00 -2.835428e+00 -1.680728e+00 -5.623635e+00 -1.209242e+00 -1.178675e+00 2.616459e+00 5.636274e-01 2.702588e-01 -2.977909e-01 6.141258e-01 -1.734473e+00 5.531757e+01 1.195531e-01 1.480273e-01 -2.248567e-02 2.101112e-01 1.500509e-01 2.244593e-01 1.291320e-01 5.872753e-02 -2.399936e-03 3.084265e-02 -4.104290e-03 2.342282e-03 -4.586341e-01 -8.641791e-03 -1.367903e-02 -1.036700e-02 -1.512361e-02 -2.318285e-02 -1.662126e-02 -1.211092e-02 -7.468112e-03 -4.639216e-03 -1.883234e-03 -3.708044e-03 -6.537739e-03 2.765423e-02
<VARIANCE> 39
 1.415227e+01 1.900534e+01 1.625964e+01 1.993952e+01 1.741929e+01 2.377681e+01 1.942120e+01 1.900456e+01 1.919749e+01 1.812548e+01 1.550372e+01 1.412260e+01 3.361967e+01 2.098609e-01 3.149077e-01 4.912534e-01 7.073955e-01 9.119155e-01 1.110713e+00 1.263345e+00 1.362768e+00 1.413318e+00 1.411121e+00 1.335759e+00 1.210217e+00 1.820529e-01 3.406473e-02 5.919050e-02 9.686419e-02 1.434488e-01 1.864601e-01 2.297538e-01 2.621065e-01 2.825412e-01 2.941710e-01 2.938369e-01 2.776275e-01 2.509328e-01 1.910600e-02
<GCONST> 8.069001e+01
<MIXTURE> 2 2.365693e-01
<MEAN> 39
 -9.797888e+00 -2.979948e+00 -2.257845e+00 -7.455151e+00 -2.825222e+00 -2.164217e+00 2.119545e+00 3.338891e-01 5.907686e-01 -2.206750e-01 7.259543e-01 -1.992004e+00 5.849636e+01 -3.689648e-01 -3.947040e-01 6.009530e-02 -6.011105e-01 -4.576134e-01 -6.349826e-01 -3.679329e-01 -1.840941e-01 -1.116814e-02 -9.372976e-02 1.278453e-02 -3.213689e-03 1.298931e+00 2.367951e-02 4.440630e-02 2.864636e-02 4.691309e-02 7.294764e-02 5.154069e-02 3.439725e-02 2.523133e-02 1.938299e-02 9.196928e-03 1.363317e-02 2.174805e-02 -8.224289e-02
<VARIANCE> 39
 2.172234e+01 2.492870e+01 1.753098e+01 3.208871e+01 2.640747e+01 3.003494e+01 2.371272e+01 2.228166e+01 2.190202e+01 1.986350e+01 1.752348e+01 1.565897e+01 6.380600e+01 1.468369e+00 1.688652e+00 1.291511e+00 2.335674e+00 2.291785e+00 2.508939e+00 2.184498e+00 2.111534e+00 2.121418e+00 1.968011e+00 1.801537e+00 1.580728e+00 3.677213e+00 2.570727e-01 2.989714e-01 2.321216e-01 4.674432e-01 4.550474e-01 5.348184e-01 4.482732e-01 4.191955e-01 4.104383e-01 3.888901e-01 3.556707e-01 3.160948e-01 8.486441e-01
<GCONST> 1.101074e+02
<STATE> 4
<NUMMIXES> 2
<MIXTURE> 1 7.108501e-01
<MEAN> 39
 -1.017002e+01 2.651324e-01 -7.687283e-01 -2.568588e+00 6.072060e-01 1.162192e-01 2.921964e+00 2.096441e+00 1.994403e+00 4.906173e-01 5.820475e-01 -1.477106e+00 5.060423e+01 2.768458e-02 9.629917e-02 5.254946e-02 1.410877e-01 1.465969e-01 1.960080e-01 1.386900e-01 1.105296e-01 5.148961e-02 4.600736e-02 1.294686e-02 2.753213e-04 -1.920765e-01 -3.212296e-03 -1.540409e-02 -1.445575e-02 -2.989629e-02 -3.536196e-02 -3.326655e-02 -2.359852e-02 -1.449288e-02 -7.357613e-03 -2.701367e-03 -3.039325e-03 -5.015692e-03 1.953378e-02
<VARIANCE> 39
 1.685604e+01 8.961253e+00 9.757480e+00 1.164193e+01 1.319338e+01 1.605100e+01 1.852387e+01 1.748798e+01 1.595264e+01 1.493987e+01 1.351796e+01 1.225552e+01 1.616415e+01 1.776014e-01 2.844494e-01 4.440398e-01 6.672767e-01 8.663294e-01 1.040889e+00 1.194912e+00 1.305981e+00 1.355627e+00 1.350272e+00 1.277818e+00 1.140751e+00 1.073616e-01 2.785787e-02 5.097343e-02 8.536926e-02 1.276086e-01 1.723168e-01 2.096079e-01 2.423328e-01 2.645702e-01 2.757207e-01 2.756064e-01 2.589982e-01 2.310538e-01 1.191231e-02
<GCONST> 7.385158e+01
<MIXTURE> 2 2.892843e-01
<MEAN> 39
 -1.036940e+01 -8.558725e-01 -1.494656e+00 -5.170595e+00 -1.909540e+00 -2.561115e+00 1.447025e+00 1.255144e+00 2.064483e+00 5.315365e-01 6.516729e-01 -1.657837e+00 5.389938e+01 -7.583203e-02 -2.246279e-01 -1.367105e-01 -3.323370e-01 -3.278803e-01 -4.343888e-01 -3.167156e-01 -2.708371e-01 -1.221541e-01 -1.175270e-01 -4.366510e-02 -8.240148e-03 4.183389e-01 1.069556e-02 3.179394e-02 3.546606e-02 6.352442e-02 7.713019e-02 7.275034e-02 5.165550e-02 3.081477e-02 1.280140e-02 3.902313e-03 6.962884e-03 1.236113e-02 -4.253634e-02
<VARIANCE> 39
 1.901350e+01 1.492896e+01 1.398613e+01 2.211682e+01 2.061928e+01 2.732642e+01 2.485356e+01 2.258672e+01 1.941425e+01 1.779479e+01 1.586204e+01 1.441163e+01 2.889535e+01 7.513056e-01 9.435466e-01 9.765959e-01 1.562117e+00 1.647404e+00 1.870803e+00 1.720127e+00 1.817164e+00 1.748660e+00 1.659707e+00 1.526568e+00 1.386896e+00 1.147329e+00 1.240431e-01 1.764997e-01 1.873970e-01 3.018985e-01 3.262794e-01 3.868358e-01 3.518070e-01 3.715379e-01 3.502280e-01 3.341179e-01 3.110878e-01 2.825957e-01 1.961605e-01
<GCONST> 9.765768e+01
<TRANSP> 5
 0.000000e+00 1.000000e+00 0.000000e+00 0.000000e+00 0.000000e+00
 0.000000e+00 8.488120e-01 1.511880e-01 0.000000e+00 0.000000e+00
 0.000000e+00 0.000000e+00 9.931371e-01 6.862811e-03 0.000000e+00
 0.000000e+00 0.000000e+00 0.000000e+00 9.886061e-01 1.139394e-02
 0.000000e+00 0.000000e+00 0.000000e+00 0.000000e+00 0.000000e+00
<ENDHMM>
~h "spe"
<BEGINHMM>
<NUMSTATES> 5
<STATE> 2
<NUMMIXES> 2
<MIXTURE> 1 4.999963e-01
<MEAN> 39
 -3.199969e+00 6.967068e-01 -8.474791e-01 -4.530422e+00 -3.499389e+00 -3.642093e+00 -2.782876e+00 1.915648e-01 -1.687400e+00 3.485900e-01 -7.050224e-02 -3.551660e+00 5.414186e+01 -2.194104e-01 2.085675e-01 1.697442e-02 7.674442e-02 1.726432e-01 5.743532e-02 3.513041e-01 1.972178e-01 2.789403e-01 2.190952e-01 1.851505e-01 2.114582e-01 -4.854915e-02 3.316002e-02 -2.892944e-02 2.044941e-02 1.892825e-02 2.001260e-02 7.041830e-02 4.840440e-02 1.743867e-02 -1.798372e-02 -2.262582e-02 -3.001603e-02 -4.664803e-02 1.008466e-02
<VARIANCE> 39
 3.392348e+01 3.616867e+01 3.417238e+01 2.630270e+01 4.834603e+01 4.271942e+01 3.055836e+01 3.567390e+01 2.932940e+01 3.178953e+01 3.068880e+01 2.781171e+01 9.235268e+00 9.111639e-01 9.661997e-01 9.200431e-01 1.049887e+00 1.553285e+00 1.655521e+00 1.566391e+00 1.781516e+00 1.728300e+00 1.798884e+00 1.694465e+00 1.562857e+00 1.879862e-01 1.260255e-01 1.472582e-01 1.607996e-01 1.950427e-01 3.036863e-01 3.180308e-01 3.353612e-01 3.589554e-01 3.601038e-01 3.611902e-01 3.423703e-01 3.089279e-01 3.259946e-02
<GCONST> 9.866013e+01
<MIXTURE> 2 5.000056e-01
<MEAN> 39
 -1.597316e-01 -3.016665e+00 -9.513737e-01 -5.623586e+00 -4.315365e+00 -7.287414e-01 -3.161126e+00 1.420554e-01 -2.530962e+00 -9.904484e-02 -9.829646e-01 -5.594764e+00 5.499958e+01 1.963328e-01 -2.527703e-01 7.454415e-02 -1.319387e-01 -2.499262e-01 -1.612489e-01 -4.285366e-01 -2.159564e-01 -2.858316e-01 -1.795684e-01 -1.722253e-01 -2.114895e-01 1.581628e-01 -3.173999e-02 1.933907e-02 -1.555343e-02 -1.447387e-02 -2.953408e-02 -7.893231e-02 -4.885869e-02 -1.587938e-02 2.532829e-02 2.042586e-02 2.646066e-02 4.956206e-02 -8.504919e-03
<VARIANCE> 39
 1.304915e+01 3.068607e+01 4.268305e+01 3.804725e+01 4.523643e+01 4.930019e+01 3.084865e+01 4.052991e+01 3.268212e+01 3.015480e+01 3.770902e+01 3.601287e+01 1.285059e+01 4.178139e-01 9.469153e-01 1.383047e+00 1.449250e+00 2.067522e+00 2.176815e+00 1.810638e+00 2.196393e+00 2.065486e+00 2.054986e+00 2.049446e+00 1.990991e+00 3.678625e-01 4.940212e-02 1.234135e-01 1.715134e-01 2.100964e-01 2.926760e-01 3.247731e-01 3.235393e-01 3.779176e-01 3.905523e-01 3.825720e-01 3.675570e-01 3.414091e-01 3.446671e-02
<GCONST> 1.008458e+02
<STATE> 3
<NUMMIXES> 2
<MIXTURE> 1 5.722119e-01
<MEAN> 39
 -3.421482e+00 -4.559457e+00 1.108161e+00 -1.085490e+01 -3.372448e+00 -3.550634e+00 -2.769588e+00 -4.299400e-01 -1.908023e+00 -1.348377e+00 -3.109983e+00 -3.440727e+00 6.145621e+01 6.180301e-03 1.565581e-01 -7.597263e-02 2.133131e-01 1.505124e-01 1.516741e-01 1.742089e-01 2.698775e-02 9.015785e-02 6.480701e-02 2.908444e-02 -2.366018e-02 -2.475922e-01 -8.992844e-04 6.739835e-03 1.869092e-04 1.328800e-02 2.128818e-02 -3.742594e-04 -2.607508e-02 -1.426253e-02 -2.261386e-02 -3.262985e-02 -1.654420e-02 3.048218e-03 -2.460491e-02
<VARIANCE> 39
 2.363758e+01 4.183453e+01 6.752444e+01 5.671684e+01 6.547711e+01 5.059490e+01 3.397807e+01 4.468848e+01 3.244429e+01 2.563922e+01 4.445877e+01 2.916511e+01 3.144466e+01 2.463589e-01 5.180645e-01 6.883665e-01 9.729123e-01 1.193807e+00 1.350087e+00 1.422189e+00 1.636071e+00 1.504045e+00 1.520897e+00 1.578543e+00 1.377205e+00 2.003007e-01 3.982196e-02 8.396725e-02 1.284710e-01 1.812000e-01 2.290314e-01 2.614652e-01 2.840779e-01 3.138941e-01 3.002856e-01 2.960858e-01 3.030908e-01 2.643340e-01 2.603542e-02
<GCONST> 9.516697e+01
<MIXTURE> 2 4.277823e-01
<MEAN> 39
 -2.884753e+00 -4.522701e+00 3.095432e+00 -1.599079e+01 -3.073484e+00 -7.340557e+00 -6.851065e+00 -3.550412e+00 -2.133070e+00 -4.070077e+00 -7.254309e+00 -1.616240e+00 6.228125e+01 7.073544e-03 -1.816429e-01 -8.719075e-03 -1.631074e-01 -1.523061e-01 -1.814439e-01 -1.639926e-01 -6.642306e-02 -7.305384e-02 -1.324074e-01 -1.268971e-01 -5.613262e-02 3.205765e-01 -2.716711e-03 2.254925e-02 -2.138833e-02 2.122333e-02 1.932712e-03 3.271914e-02 7.382087e-02 2.351109e-02 2.453137e-02 5.091687e-02 2.726308e-02 -1.234317e-03 -1.535469e-02
<VARIANCE> 39
 2.306889e+01 3.353752e+01 7.734344e+01 6.668654e+01 6.209087e+01 6.475985e+01 5.242651e+01 6.851599e+01 4.599787e+01 4.397934e+01 6.369262e+01 4.082803e+01 1.205177e+01 1.018510e+00 1.583973e+00 2.170947e+00 2.332935e+00 2.825925e+00 2.702371e+00 2.798391e+00 3.052537e+00 2.795265e+00 2.608068e+00 2.602326e+00 2.225673e+00 6.397628e-01 1.256089e-01 1.975173e-01 2.749664e-01 3.390132e-01 4.213081e-01 4.537464e-01 4.716757e-01 5.226715e-01 4.987037e-01 4.983389e-01 4.794482e-01 4.133849e-01 7.636021e-02
<GCONST> 1.161950e+02
<STATE> 4
<NUMMIXES> 2
<MIXTURE> 1 5.534108e-01
<MEAN> 39
 -2.523489e+00 -2.583442e+00 -2.626034e+00 -4.385196e+00 -1.328998e+00 1.334741e+00 2.338120e+00 1.109337e+00 -6.924415e-01 3.813347e-01 -7.722425e-01 -3.444122e+00 5.083620e+01 -1.822348e-02 4.081561e-02 -3.450793e-02 1.077168e-01 8.254591e-02 1.494755e-01 1.795174e-01 7.426343e-02 6.079284e-02 6.264779e-02 6.277408e-02 8.178459e-02 -1.317219e-01 3.289637e-03 -6.184572e-03 1.531675e-02 -1.743071e-02 -1.884776e-02 -2.532016e-02 -3.759107e-02 -1.375283e-02 -1.980824e-02 -2.004666e-02 -6.494909e-03 -1.643110e-02 1.965895e-02
<VARIANCE> 39
 1.234468e+01 1.618941e+01 1.662944e+01 1.478623e+01 2.332651e+01 2.601393e+01 2.719927e+01 2.410672e+01 2.200793e+01 1.952297e+01 1.882069e+01 1.771847e+01 7.410960e+00 1.824662e-01 3.182283e-01 5.136841e-01 7.125804e-01 9.535735e-01 1.169608e+00 1.279895e+00 1.410595e+00 1.446667e+00 1.428369e+00 1.358881e+00 1.249074e+00 7.439237e-02 3.211797e-02 5.641062e-02 9.636975e-02 1.360211e-01 1.852886e-01 2.297589e-01 2.531357e-01 2.806791e-01 2.915266e-01 2.854901e-01 2.707134e-01 2.477380e-01 1.022397e-02
<GCONST> 7.853410e+01
<MIXTURE> 2 4.465851e-01
<MEAN> 39
 -7.850127e-01 -5.972779e+00 5.765784e-01 -8.409351e+00 -5.081124e+00 -1.932247e+00 -3.623967e+00 -5.202469e-01 -2.573885e+00 -7.937484e-01 -8.895197e-01 -5.058164e+00 5.679241e+01 2.469491e-02 -4.684772e-02 1.900052e-02 -1.132631e-01 -7.511698e-02 -1.669339e-01 -2.010796e-01 -6.974544e-02 -6.474149e-02 -6.424771e-02 -6.459499e-02 -8.551469e-02 1.155418e-01 -5.479921e-03 7.422627e-03 -1.897671e-02 1.914031e-02 2.177157e-02 2.906184e-02 4.472714e-02 1.688915e-02 2.476165e-02 2.551329e-02 8.430552e-03 2.096439e-02 -2.231928e-02
<VARIANCE> 39
 1.472742e+01 3.893172e+01 5.047089e+01 3.523071e+01 6.234806e+01 4.647440e+01 4.035349e+01 4.324256e+01 3.857966e+01 4.028883e+01 3.992020e+01 3.051560e+01 1.647253e+01 5.064483e-01 1.093169e+00 1.254727e+00 1.350566e+00 1.857804e+00 1.950769e+00 2.116169e+00 2.076810e+00 2.108133e+00 2.050497e+00 2.032599e+00 1.654546e+00 4.176426e-01 6.637026e-02 1.429403e-01 1.687791e-01 2.125544e-01 2.861164e-01 3.365098e-01 3.705150e-01 3.759090e-01 3.946063e-01 3.890594e-01 3.718643e-01 3.067160e-01 4.239945e-02
<GCONST> 1.032087e+02
<TRANSP> 5
 0.000000e+00 1.000000e+00 0.000000e+00 0.000000e+00 0.000000e+00
 0.000000e+00 9.861718e-01 1.382814e-02 0.000000e+00 0.000000e+00
 0.000000e+00 0.000000e+00 9.824337e-01 1.756636e-02 0.000000e+00
 0.000000e+00 0.000000e+00 0.000000e+00 9.961320e-01 3.867983e-03
 0.000000e+00 0.000000e+00 0.000000e+00 0.000000e+00 0.000000e+00
<ENDHMM>
